SNNS network definition file V1.4-3D
generated at Thu May 09 10:11:49 1996

network name : edge_23
source files :
no. of units : 70
no. of connections : 622
no. of unit types : 0
no. of site types : 0


learning function : Std_Backpropagation
update function : Topological_Order


unit default section :

act      | bias     | st | subnet | layer | act func     | out func
---------|----------|----|--------|-------|--------------|-------------
 0.00000 |  0.00000 | h  |      0 |     1 | Act_Logistic | Out_Identity
---------|----------|----|--------|-------|--------------|-------------


unit definition section :

no. | typeName | unitName | act      | bias     | st | position | act func | out func | sites
----|----------|----------|----------|----------|----|----------|----------|----------|-------
  1 |          |           |  0.32444 |        0 | i  |  2, 1, 0 |||
  2 |          |           |   15.107 |        0 | i  |  2, 3, 0 |||
  3 |          |           |   3.7311 |        0 | i  |  2, 4, 0 |||
  4 |          |           |   4.6082 |        0 | i  |  2, 5, 0 |||
  5 |          |           |   4.8978 |        0 | i  |  2, 7, 0 |||
  6 |          |           |    15.82 |        0 | i  |  2, 8, 0 |||
  7 |          |           |   7.1548 |        0 | i  |  2, 9, 0 |||
  8 |          |           |   32.636 |        0 | i  |  2,11, 0 |||
  9 |          |           |  -2.2994 |        0 | i  |  2,12, 0 |||
 10 |          |           |  0.58469 |        0 | i  |  2,13, 0 |||
 11 |          |           |    5.593 |        0 | i  |  2,14, 0 |||
 12 |          |           |  -1.4176 |        0 | i  |  2,15, 0 |||
 13 |          |           |   17.724 |        0 | i  |  2,16, 0 |||
 14 |          |           |   6.6978 |        0 | i  |  2,17, 0 |||
 15 |          |           |  -2.1149 |        0 | i  |  2,18, 0 |||
 16 |          |           | -0.03498 |        0 | i  |  2,23, 0 |||
 17 |          |           |  -2.2788 |        0 | i  |  2,24, 0 |||
 18 |          |           |  -1.7131 |        0 | i  |  2,25, 0 |||
 19 |          |           |        2 |        0 | i  |  2,27, 0 |||
 20 |          |           |   12.568 |        0 | i  |  2,28, 0 |||
 21 |          |           |   25.136 |        0 | i  |  2,19, 0 |||
 22 |          |           |        0 |        0 | i  |  2,20, 0 |||
 23 |          |           |   12.568 |        0 | i  |  2,21, 0 |||
 24 |          |           | 0.030002 | -0.53599 | h  |  7, 3, 0 |||
 25 |          |           | 0.00012648 |  0.43336 | h  |  8, 3, 0 |||
 26 |          |           |  0.68625 | -0.54725 | h  |  7, 4, 0 |||
 27 |          |           | 0.0011066 |  0.85677 | h  |  8, 4, 0 |||
 28 |          |           |        1 |  0.72558 | h  |  7, 5, 0 |||
 29 |          |           | 5.7507e-05 | 0.046076 | h  |  8, 5, 0 |||
 30 |          |           | 8.2538e-06 |  0.39861 | h  |  7, 7, 0 |||
 31 |          |           |  0.91375 |  0.30415 | h  |  8, 7, 0 |||
 32 |          |           | 1.2692e-07 | 0.086595 | h  |  7, 8, 0 |||
 33 |          |           |        1 |  0.73908 | h  |  8, 8, 0 |||
 34 |          |           |        1 | 0.095141 | h  |  7, 9, 0 |||
 35 |          |           |        1 |  0.46949 | h  |  8, 9, 0 |||
 36 |          |           | 1.6884e-11 | -0.73188 | h  |  7,11, 0 |||
 37 |          |           | 5.8845e-10 |   0.3047 | h  |  8,11, 0 |||
 38 |          |           | 6.0629e-14 |  0.89091 | h  |  7,12, 0 |||
 39 |          |           |        1 | -0.72878 | h  |  8,12, 0 |||
 40 |          |           |        1 |  0.68331 | h  |  7,13, 0 |||
 41 |          |           | 2.101e-11 | -0.46859 | h  |  8,13, 0 |||
 42 |          |           |        1 |  0.24935 | h  |  7,14, 0 |||
 43 |          |           |  0.69743 |   0.2306 | h  |  8,14, 0 |||
 44 |          |           |  0.94445 | -0.45083 | h  |  7,15, 0 |||
 45 |          |           |        1 |  0.79861 | h  |  8,15, 0 |||
 46 |          |           |        1 |  -1.1678 | h  |  7,16, 0 |||
 47 |          |           |        1 | -0.64674 | h  |  8,16, 0 |||
 48 |          |           |        1 |  0.40154 | h  |  7,17, 0 |||
 49 |          |           |        1 |  0.18123 | h  |  8,17, 0 |||
 50 |          |           |  0.61437 |  0.84105 | h  |  7,22, 0 |||
 51 |          |           |  0.74778 | -0.02556 | h  |  8,22, 0 |||
 52 |          |           |  0.68718 | -0.84163 | h  |  7,23, 0 |||
 53 |          |           |  0.15987 |  0.81053 | h  |  8,23, 0 |||
 54 |          |           | 0.044473 | -0.22006 | h  |  7,24, 0 |||
 55 |          |           |   0.9031 |  0.40931 | h  |  8,24, 0 |||
 56 |          |           |  0.65179 | -0.39687 | h  |  7,26, 0 |||
 57 |          |           |  0.87683 | -0.13052 | h  |  8,26, 0 |||
 58 |          |           |  0.99999 |  0.34797 | h  |  7,27, 0 |||
 59 |          |           | 0.0024765 |   1.0198 | h  |  8,27, 0 |||
 60 |          |           |  0.93906 | -0.84375 | h  | 13,12, 0 |||
 61 |          |           |   0.2831 | 0.049718 | h  | 14,12, 0 |||
 62 |          |           |  0.99677 |  -0.3561 | h  | 13,13, 0 |||
 63 |          |           |  0.99882 | 0.011594 | h  | 14,13, 0 |||
 64 |          |           | 0.0018986 | -0.87248 | h  | 13,14, 0 |||
 65 |          |           |  0.18737 |  0.59365 | h  | 14,14, 0 |||
 66 |          |           |  0.98755 |  0.32097 | h  | 13,15, 0 |||
 67 |          |           | 0.0012565 | -0.03387 | h  | 14,15, 0 |||
 68 |          |           |  0.87609 |  0.41392 | h  | 13,16, 0 |||
 69 |          |           | 0.0036806 | 0.063905 | h  | 14,16, 0 |||
 70 |          |           |  0.91005 |   0.4422 | o  | 18,14, 0 |||
----|----------|----------|----------|----------|----|----------|----------|----------|-------


connection definition section :

target | site | source:weight
-------|------|------------------------------------------------------------------------------------------------------------
    24 |      |   1:0.063997,   2: 0.36627,   3: -1.0032,   4:  -1.031
    25 |      |   1:  1.0624,   2:-0.63898,   3: 0.46634,   4:-0.39934
    26 |      |   1: 0.54979,   2: 0.55977,   3:-0.96048,   4:-0.80755
    27 |      |   1:  0.8868,   2:-0.58913,   3:-0.89449,   4: 0.93042
    28 |      |   1:-0.70471,   2: 0.99867,   3:-0.37573,   4: 0.77544
    29 |      |   1:-0.93478,   2: -0.7149,   3:  1.3053,   4:-0.77618
    30 |      |   1: 0.14978,   5: 0.60907,   6: -1.1868,   7: 0.50882
    31 |      |   1:0.032881,   5:-0.27449,   6: 0.52312,   7:-0.68288
    32 |      |   1:-0.84336,   5: -1.1685,   6:-0.25347,   7:-0.83295
    33 |      |   1: 0.15975,   5:  0.9143,   6:  0.3198,   7: 0.45469
    34 |      |   1:-0.016907,   5: 0.37041,   6: 0.74563,   7: 0.19365
    35 |      |   1:  0.1142,   5:  0.2223,   6:  1.0089,   7:-0.36416
    36 |      |   1:-0.47029,   8:-0.97116,   9:-0.090989,  10:-0.28357,  11:0.095058,  12: -1.0718,  13: 0.45311,  14:  1.1296, 
                 15: 0.32189,  21:-0.66121,  22:-0.012871,  23: 0.58754
    37 |      |   1: 0.62044,   8: 0.45507,   9: 0.21161,  10:-0.16312,  11: 0.50365,  12:-0.40312,  13:-0.90418,  14:0.064757, 
                 15: 0.65326,  21: -0.9796,  22:-0.41134,  23: 0.17341
    38 |      |   1: 0.77914,   8:-0.34267,   9:-0.18134,  10:0.048504,  11:-0.17519,  12:0.021948,  13:-0.092504,  14: 0.55038, 
                 15:  1.1421,  21:-0.99789,  22: 0.63784,  23: 0.44739
    39 |      |   1: 0.10362,   8: 0.73697,   9:0.049493,  10:-0.59321,  11:  0.9979,  12:-0.28641,  13: 0.79833,  14:0.053409, 
                 15: 0.38827,  21: 0.31833,  22: 0.55291,  23:  0.6479
    40 |      |   1:0.094063,   8: 0.65359,   9:0.0071792,  10:-0.46654,  11:0.051067,  12:-0.37998,  13: 0.67177,  14: 0.61805, 
                 15: 0.89619,  21:-0.68764,  22:-0.25046,  23:-0.33176
    41 |      |   1:-0.22152,   8: -1.2551,   9: 0.09764,  10:-0.93907,  11:-0.66506,  12: -0.1365,  13: 0.39393,  14:  0.5275, 
                 15:-0.69433,  21: 0.44971,  22:-0.81206,  23:-0.16482
    42 |      |   1: 0.51617,   8: 0.88553,   9:  0.8664,  10:-0.13809,  11: -1.0803,  12: 0.18632,  13:-0.22839,  14: 0.36744, 
                 15: 0.36996,  21: 0.64265,  22:-0.99459,  23:-0.053679
    43 |      |   1: 0.72255,   8:-0.34092,   9: 0.99693,  10:-0.65431,  11:-0.41636,  12:-0.099967,  13:-0.30713,  14: 0.89286, 
                 15:-0.21437,  21: 0.79312,  22:-0.79013,  23:-0.36345
    44 |      |   1:-0.25018,   8: 0.79701,   9: 0.64573,  10: 0.14915,  11:-0.72914,  12:-0.45495,  13:0.084511,  14:  -1.184, 
                 15:   1.024,  21:-0.064906,  22: 0.44297,  23:-0.60358
    45 |      |   1: 0.19528,   8: -0.6011,   9: -0.4131,  10: -1.0607,  11:   0.486,  12:-0.44368,  13:-0.030369,  14: 0.52924, 
                 15:-0.55905,  21: 0.73084,  22:-0.79199,  23: 0.47335
    46 |      |   1:-0.056512,   8:-0.33512,   9:  1.1254,  10:  1.0774,  11:-0.52825,  12:0.097668,  13: 0.50613,  14: 0.33092, 
                 15:-0.41279,  21:  0.6655,  22:  -0.576,  23: 0.48669
    47 |      |   1:-0.85882,   8: 0.13876,   9: 0.56568,  10: 0.48529,  11: 0.96277,  12:-0.073218,  13: 0.10842,  14: 0.56838, 
                 15:-0.15584,  21:0.069288,  22:-0.74592,  23: 0.68088
    48 |      |   1:-0.16808,   8:  0.4272,   9:-0.40796,  10:-0.57292,  11:  0.1294,  12: 0.69201,  13: 0.66596,  14:0.072424, 
                 15:0.076334,  21: 0.88092,  22:  0.7857,  23:-0.56872
    49 |      |   1: 0.90668,   8:-0.53786,   9: 0.81389,  10: 0.14459,  11:-0.87668,  12:-0.85391,  13:  1.0616,  14: 0.74228, 
                 15: 0.13749,  21: 0.59855,  22:-0.81913,  23:-0.23905
    50 |      |   1:-0.19586,  16: 0.41736,  17: 0.47382,  18:-0.45681
    51 |      |   1:-0.76895,  16: 0.87836,  17:-0.42209,  18:-0.25142
    52 |      |   1:-0.91736,  16:-0.61581,  17:-0.97456,  18: 0.18456
    53 |      |   1: 0.77919,  16:  0.8576,  17: 0.61839,  18: 0.74916
    54 |      |   1: 0.50222,  16:-0.042559,  17: 0.80362,  18: 0.68909
    55 |      |   1: 0.41435,  16:-0.052938,  17: -1.0898,  18: 0.46513
    56 |      |   1: 0.23009,  19:-0.62106,  20: 0.17435
    57 |      |   1:  -0.262,  19: 0.36663,  20: 0.11497
    58 |      |   1: 0.08701,  19: 0.57673,  20: 0.79823
    59 |      |   1: 0.89877,  19: 0.59661,  20:-0.67656
    60 |      |  24: 0.67229,  25:-0.82697,  26: 0.62338,  27: 0.21145,  28:  1.0275,  29: 0.14096,  30:-0.73251,  31:  0.7697, 
                 32:-0.12774,  33: 0.25769,  34: 0.28274,  35: 0.90854,  36: 0.25931,  37:-0.12841,  38: 0.29328,  39: -0.4218, 
                 40: 0.29968,  41: -0.8554,  42: 0.19871,  43:-0.83903,  44:0.018377,  45:  1.0218,  46:-0.01204,  47:-0.82555, 
                 48: 0.60294,  49:-0.21375,  50: 0.45011,  51: 0.38659,  52:-0.45575,  53:  1.0198,  54: 0.37144,  55:-0.74906, 
                 56:-0.81283,  57:-0.013334,  58: 0.65669,  59:-0.80404
    61 |      |  24:  1.0071,  25:  1.1276,  26: 0.11682,  27:  1.0595,  28: 0.37798,  29:-0.28198,  30: -0.5358,  31:  1.1529, 
                 32:-0.95813,  33:0.031969,  34:  0.2801,  35:-0.61447,  36:   1.063,  37: 0.19284,  38: 0.14087,  39: 0.97383, 
                 40:-0.65746,  41: 0.31165,  42:  0.5359,  43:-0.33407,  44:-0.85739,  45:-0.22446,  46: 0.22511,  47:-0.45621, 
                 48:-0.65319,  49: 0.27033,  50:-0.24411,  51:  0.2869,  52: 0.22687,  53:-0.29161,  54: 0.13219,  55: 0.24861, 
                 56:-0.13041,  57:-0.78926,  58:-0.81901,  59: 0.45286
    62 |      |  24:-0.55546,  25: 0.46751,  26:-0.15658,  27: 0.27579,  28: -0.4308,  29:0.031081,  30: 0.23382,  31: 0.73163, 
                 32:-0.93941,  33: 0.16616,  34: 0.81546,  35: 0.17142,  36: -0.3842,  37:-0.44756,  38: 0.66107,  39: 0.44194, 
                 40: 0.84862,  41: -0.8442,  42: 0.58009,  43: 0.33202,  44:-0.21492,  45: -0.3209,  46:-0.60288,  47: 0.47968, 
                 48: 0.85469,  49: 0.37404,  50:-0.95125,  51: 0.95253,  52: 0.46595,  53: 0.63572,  54:-0.24855,  55: 0.89141, 
                 56: 0.10796,  57: 0.61753,  58: 0.17984,  59: 0.64924
    63 |      |  24:-0.62348,  25: 0.35832,  26:-0.30738,  27: 0.55449,  28: 0.22888,  29: 0.77874,  30:-0.85094,  31: 0.75104, 
                 32: 0.48335,  33: 0.59078,  34:   0.615,  35: 0.65633,  36: 0.10868,  37:-0.10098,  38:-0.59547,  39:   0.763, 
                 40: 0.30027,  41:  0.8763,  42: 0.63595,  43:-0.31203,  44: 0.84971,  45: 0.52463,  46:-0.89412,  47: 0.48955, 
                 48:-0.70063,  49: 0.97132,  50:-0.39665,  51: 0.86198,  52: 0.15692,  53:-0.73373,  54:-0.49657,  55: 0.55291, 
                 56: 0.66501,  57:  0.1692,  58:0.058085,  59:-0.13383
    64 |      |  24: 0.19124,  25:-0.54147,  26:-0.42644,  27: 0.51196,  28: -0.8006,  29:  -1.147,  30:   1.497,  31:-0.16605, 
                 32:-0.63031,  33: 0.68237,  34:-0.78927,  35:-0.96045,  36: 0.20032,  37:-0.29783,  38:-0.88887,  39:-0.22968, 
                 40:-0.048186,  41: 0.78416,  42:0.059951,  43: 0.14258,  44: -1.0522,  45:0.0059258,  46: -1.2127,  47:-0.75068, 
                 48: 0.49105,  49: 0.36492,  50:-0.78607,  51:-0.37619,  52: -0.2111,  53:-0.057297,  54: 0.43328,  55: 0.94685, 
                 56: 0.67148,  57:-0.96081,  58:-0.42526,  59: 0.69794
    65 |      |  24: -0.6057,  25:-0.62479,  26:-0.48112,  27: -1.9276,  28:  0.2866,  29:-0.14477,  30: 0.11884,  31: -1.1654, 
                 32: 0.22153,  33:-0.87123,  34: 0.23945,  35:-0.038146,  36: 0.12901,  37:-0.71754,  38:0.029525,  39:-0.62216, 
                 40:-0.61266,  41: 0.60971,  42: 0.61747,  43:-0.90088,  44:-0.20879,  45:-0.67341,  46: 0.11788,  47: 0.45717, 
                 48: 0.79518,  49:-0.015465,  50:-0.19858,  51: 0.72724,  52: 0.38987,  53:-0.36983,  54: 0.89838,  55: 0.86676, 
                 56: 0.23385,  57:-0.34641,  58:-0.80205,  59:-0.24408
    66 |      |  24: 0.50839,  25:-0.23387,  26:-0.26174,  27:-0.026838,  28:-0.80404,  29: 0.89284,  30:-0.62151,  31:-0.55425, 
                 32:  0.1255,  33: 0.18702,  34:0.0047472,  35: 0.29261,  36: -0.4386,  37: 0.10789,  38:0.0044276,  39:-0.011148, 
                 40: 0.85438,  41:-0.75562,  42:-0.31919,  43:-0.48855,  44: 0.67848,  45:-0.53928,  46:  1.1921,  47:  1.0877, 
                 48:-0.54141,  49:  1.0228,  50: 0.36336,  51:0.036194,  52: 0.95969,  53:  1.0175,  54:-0.44667,  55: 0.51141, 
                 56:-0.35742,  57: 0.41536,  58: 0.35173,  59:-0.043986
    67 |      |  24: -1.0503,  25:-0.026731,  26:-0.75774,  27: 0.92288,  28: 0.69443,  29:-0.26823,  30:  1.4233,  31:-0.52207, 
                 32: -1.0988,  33:-0.37036,  34:-0.67333,  35: -0.9023,  36: 0.15545,  37:-0.53871,  38: 0.39096,  39: 0.54441, 
                 40:-0.39928,  41:  0.4917,  42: 0.72898,  43:-0.11642,  44: -1.0142,  45:-0.24683,  46:-0.78136,  47:-0.91914, 
                 48:  0.1213,  49: -1.0358,  50:0.086058,  51: -0.3757,  52: 0.15456,  53: -1.1243,  54: 0.64659,  55: 0.30928, 
                 56: 0.22196,  57:-0.98427,  58:-0.62655,  59:-0.0048498
    68 |      |  24:-0.50792,  25: -1.0851,  26: 0.51527,  27:-0.23925,  28:-0.52967,  29:-0.88274,  30:-0.62765,  31: 0.49571, 
                 32:  0.7444,  33: 0.86614,  34:-0.61485,  35:0.010188,  36: 0.54898,  37: 0.18081,  38: 0.62875,  39:-0.58505, 
                 40:  0.6525,  41:-0.86759,  42: 0.87532,  43: 0.93242,  44: 0.71635,  45:-0.44701,  46: 0.13826,  47: 0.56757, 
                 48:-0.61261,  49:-0.45212,  50:-0.10089,  51: -0.5544,  52:0.099761,  53:-0.81943,  54: 0.89608,  55:  0.5553, 
                 56:-0.92225,  57: 0.37769,  58:-0.17633,  59:-0.20732
    69 |      |  24: 0.31562,  25:-0.55498,  26: 0.13483,  27:0.052123,  28:-0.32482,  29:-0.57749,  30:-0.05103,  31:-0.98715, 
                 32:  1.0367,  33:  0.4737,  34: 0.70283,  35:-0.85468,  36: 0.41923,  37: 0.75176,  38: 0.69373,  39: -1.0258, 
                 40:-0.21438,  41: 0.27044,  42:-0.67183,  43: 0.27873,  44:-0.51984,  45:-0.11567,  46:-0.49389,  47:-0.49204, 
                 48:-0.28434,  49:-0.76579,  50:-0.26592,  51: -0.7525,  52:-0.048373,  53:  0.5241,  54: 0.74057,  55: -0.8139, 
                 56: 0.76761,  57:-0.15452,  58: 0.51237,  59:-0.45442
    70 |      |  60: 0.18257,  61: -1.6447,  62: 0.25243,  63:-0.35642,  64: -2.1244,  65:   1.255,  66:  1.5604,  67: -2.6251, 
                 68: 0.57213,  69: 0.17945
-------|------|----------------------------------------------------------------------------------------------------------------
