SNNS network definition file V1.4-3D
generated at Thu May 09 10:11:49 1996

network name : edge_23
source files :
no. of units : 70
no. of connections : 622
no. of unit types : 0
no. of site types : 0


learning function : Std_Backpropagation
update function : Topological_Order


unit default section :

act      | bias     | st | subnet | layer | act func     | out func
---------|----------|----|--------|-------|--------------|-------------
 0.00000 |  0.00000 | h  |      0 |     1 | Act_Logistic | Out_Identity
---------|----------|----|--------|-------|--------------|-------------


unit definition section :

no. | typeName | unitName | act      | bias     | st | position | act func | out func | sites
----|----------|----------|----------|----------|----|----------|----------|----------|-------
  1 |          |           |        0 |        0 | i  |  2, 1, 0 |||
  2 |          |           |   6.0102 |        0 | i  |  2, 3, 0 |||
  3 |          |           |    51.43 |        0 | i  |  2, 4, 0 |||
  4 |          |           |        4 |        0 | i  |  2, 5, 0 |||
  5 |          |           |   11.743 |        0 | i  |  2, 7, 0 |||
  6 |          |           |       12 |        0 | i  |  2, 8, 0 |||
  7 |          |           |        5 |        0 | i  |  2, 9, 0 |||
  8 |          |           |     15.8 |        0 | i  |  2,11, 0 |||
  9 |          |           |  -2.2626 |        0 | i  |  2,12, 0 |||
 10 |          |           | 0.058322 |        0 | i  |  2,13, 0 |||
 11 |          |           |    4.558 |        0 | i  |  2,14, 0 |||
 12 |          |           |   1.4323 |        0 | i  |  2,15, 0 |||
 13 |          |           |   2.0107 |        0 | i  |  2,16, 0 |||
 14 |          |           |  -1.3413 |        0 | i  |  2,17, 0 |||
 15 |          |           | -0.0052036 |        0 | i  |  2,18, 0 |||
 16 |          |           |  0.38687 |        0 | i  |  2,23, 0 |||
 17 |          |           |   1.9176 |        0 | i  |  2,24, 0 |||
 18 |          |           |  -1.5711 |        0 | i  |  2,25, 0 |||
 19 |          |           |   47.369 |        0 | i  |  2,27, 0 |||
 20 |          |           |  0.41235 |        0 | i  |  2,28, 0 |||
 21 |          |           |   99.707 |        0 | i  |  2,19, 0 |||
 22 |          |           |   9.1679 |        0 | i  |  2,20, 0 |||
 23 |          |           |   2.7752 |        0 | i  |  2,21, 0 |||
 24 |          |           | 2.3377e-23 | -0.69813 | h  |  7, 3, 0 |||
 25 |          |           |        1 |  -0.2768 | h  |  8, 3, 0 |||
 26 |          |           | 1.0041e-24 | -0.32803 | h  |  7, 4, 0 |||
 27 |          |           |  0.15267 |    1.137 | h  |  8, 4, 0 |||
 28 |          |           | 1.6037e-20 |   1.0811 | h  |  7, 5, 0 |||
 29 |          |           |        1 | -0.22254 | h  |  8, 5, 0 |||
 30 |          |           | 6.8497e-05 |  0.65332 | h  |  7, 7, 0 |||
 31 |          |           | 0.0077945 |   1.0428 | h  |  8, 7, 0 |||
 32 |          |           | 4.894e-09 | -0.26169 | h  |  7, 8, 0 |||
 33 |          |           |        1 |  0.96622 | h  |  8, 8, 0 |||
 34 |          |           |  0.99974 |   -0.661 | h  |  7, 9, 0 |||
 35 |          |           |  0.99999 |  0.52233 | h  |  8, 9, 0 |||
 36 |          |           | 3.6237e-50 | -0.45229 | h  |  7,11, 0 |||
 37 |          |           | 4.4375e-39 |  0.38003 | h  |  8,11, 0 |||
 38 |          |           | 1.0028e-37 |   1.0425 | h  |  7,12, 0 |||
 39 |          |           |        1 |  -0.8115 | h  |  8,12, 0 |||
 40 |          |           | 5.2673e-40 |  0.56034 | h  |  7,13, 0 |||
 41 |          |           | 1.1868e-10 | -0.25771 | h  |  8,13, 0 |||
 42 |          |           |        1 |  0.46798 | h  |  7,14, 0 |||
 43 |          |           |        1 |  0.21734 | h  |  8,14, 0 |||
 44 |          |           |        1 | -0.75077 | h  |  7,15, 0 |||
 45 |          |           |        1 |   1.3258 | h  |  8,15, 0 |||
 46 |          |           |        1 |  -1.3558 | h  |  7,16, 0 |||
 47 |          |           |        1 | -0.87928 | h  |  8,16, 0 |||
 48 |          |           |        1 |  0.75222 | h  |  7,17, 0 |||
 49 |          |           | 1.7854e-12 | -0.18208 | h  |  8,17, 0 |||
 50 |          |           |  0.92367 |  0.81307 | h  |  7,22, 0 |||
 51 |          |           |  0.49263 | 0.017344 | h  |  8,22, 0 |||
 52 |          |           | 0.039353 | -0.94839 | h  |  7,23, 0 |||
 53 |          |           |  0.93293 |  0.63595 | h  |  8,23, 0 |||
 54 |          |           |  0.37446 |   0.2531 | h  |  7,24, 0 |||
 55 |          |           |  0.11118 |  0.50154 | h  |  8,24, 0 |||
 56 |          |           | 3.3136e-10 |  -0.3635 | h  |  7,26, 0 |||
 57 |          |           | 1.279e-09 | -0.27429 | h  |  8,26, 0 |||
 58 |          |           |        1 |  0.32638 | h  |  7,27, 0 |||
 59 |          |           |        1 |   1.0429 | h  |  8,27, 0 |||
 60 |          |           | 0.045039 |  -1.0753 | h  | 13,12, 0 |||
 61 |          |           | 0.034154 | -0.23673 | h  | 14,12, 0 |||
 62 |          |           |  0.97978 | -0.35315 | h  | 13,13, 0 |||
 63 |          |           |  0.97652 | 0.017187 | h  | 14,13, 0 |||
 64 |          |           |  0.16183 | -0.51406 | h  | 13,14, 0 |||
 65 |          |           |  0.25375 |  0.71779 | h  | 14,14, 0 |||
 66 |          |           |  0.99752 |   0.4114 | h  | 13,15, 0 |||
 67 |          |           | 0.071802 |  0.21477 | h  | 14,15, 0 |||
 68 |          |           |  0.07861 |  0.40427 | h  | 13,16, 0 |||
 69 |          |           | 0.013437 | 0.037706 | h  | 14,16, 0 |||
 70 |          |           |  0.98419 |  0.77178 | o  | 18,14, 0 |||
----|----------|----------|----------|----------|----|----------|----------|----------|-------


connection definition section :

target | site | source:weight
-------|------|------------------------------------------------------------------------------------------------------------
    24 |      |   1:0.086644,   2: 0.26368,   3: -0.9542,   4:-0.98073
    25 |      |   1: 0.75927,   2:-0.74563,   3: 0.85786,   4:-0.98392
    26 |      |   1: 0.66553,   2: 0.42826,   3: -1.0943,   4:-0.30673
    27 |      |   1: 0.75195,   2: -1.1194,   3:0.022376,   4: 0.68152
    28 |      |   1:-0.52954,   2: 0.25191,   3: -1.0083,   4: 0.92081
    29 |      |   1: -1.0544,   2:-0.56322,   3: 0.90198,   4: -1.1659
    30 |      |   1: 0.23196,   5: 0.40497,   6: -1.4271,   7: 0.42563
    31 |      |   1:-0.20221,   5:0.0024368,   6:-0.42277,   7:-0.16895
    32 |      |   1:-0.90187,   5: -0.7686,   6:-0.43018,   7:-0.93718
    33 |      |   1: 0.15683,   5: 0.81477,   6:  0.4941,   7: 0.60509
    34 |      |   1:0.057285,   5: 0.66369,   6:0.022452,   7: 0.17161
    35 |      |   1: 0.22639,   5: 0.86057,   6: 0.18792,   7:-0.14152
    36 |      |   1:-0.53551,   8:-0.94606,   9:0.066957,  10:-0.12095,  11: 0.14473,  12: -1.1618,  13: 0.55986,  14: 0.85676, 
                 15: 0.18492,  21: -0.9889,  22:0.054176,  23: 0.30613
    37 |      |   1: 0.61205,   8: 0.54556,   9: 0.23236,  10:-0.16296,  11: 0.38049,  12:-0.51239,  13:-0.71567,  14:0.070446, 
                 15:   0.613,  21:-0.92487,  22:-0.51453,  23: 0.25023
    38 |      |   1: 0.82452,   8:-0.15605,   9:-0.27955,  10:0.047523,  11:-0.31959,  12: 0.14345,  13:-0.042961,  14: 0.54027, 
                 15: 0.92017,  21: -0.8955,  22: 0.57177,  23: 0.61536
    39 |      |   1:-0.045153,   8: 0.21552,   9:-0.13313,  10:-0.73024,  11:  1.0066,  12:-0.38048,  13: 0.77535,  14:0.042656, 
                 15: 0.16657,  21:  0.1288,  22: 0.75576,  23: 0.57726
    40 |      |   1: 0.16721,   8:  0.5503,   9:-0.024196,  10:-0.61114,  11:-0.12381,  12:-0.21334,  13: 0.37971,  14: 0.61993, 
                 15: 0.61453,  21:-0.95483,  22:-0.26116,  23:-0.42418
    41 |      |   1:-0.32499,   8:-0.34672,   9: 0.41623,  10:-0.63037,  11:-0.37652,  12:-0.97954,  13: 0.80121,  14: 0.37612, 
                 15:-0.30694,  21:-0.035566,  22:-0.99454,  23:-0.52793
    42 |      |   1: 0.50212,   8: 0.57499,   9:  1.0838,  10: 0.51834,  11: -0.7493,  12:-0.021331,  13:-0.21605,  14: 0.11096, 
                 15: 0.50016,  21: 0.69048,  22: -1.1436,  23: 0.10557
    43 |      |   1: 0.69573,   8:-0.071697,   9: 0.99191,  10:-0.44127,  11:-0.45626,  12:-0.36208,  13:-0.14036,  14: 0.93476, 
                 15:-0.096645,  21: 0.39754,  22:-0.96695,  23:-0.60194
    44 |      |   1:-0.16568,   8:  1.0448,   9:0.010251,  10: 0.44023,  11:-0.48326,  12: 0.14259,  13:  0.2195,  14:-0.64618, 
                 15: 0.78404,  21: 0.21317,  22: 0.41746,  23:-0.23076
    45 |      |   1: 0.08378,   8:-0.58939,   9:-0.22651,  10:-0.49313,  11:  0.4883,  12:-0.81335,  13: 0.10535,  14: 0.22479, 
                 15:-0.18725,  21: 0.34511,  22: -1.1248,  23: 0.67877
    46 |      |   1:0.0065615,   8: 0.20209,   9: 0.92466,  10:-0.11862,  11:-0.52826,  12:-0.31593,  13: 0.21522,  14: 0.77013, 
                 15: -1.0629,  21: 0.58102,  22:-0.60502,  23:    0.31
    47 |      |   1:-0.67249,   8:-0.30752,   9: 0.23123,  10:-0.16194,  11: 0.51543,  12:-0.12174,  13:0.086806,  14:  1.0338, 
                 15:-0.23244,  21: 0.38016,  22:-0.18749,  23:  1.1603
    48 |      |   1:-0.13449,   8: 0.53441,   9:-0.12046,  10:-0.56038,  11: 0.11598,  12: 0.34955,  13: 0.79174,  14:0.007343, 
                 15: -0.1983,  21:  1.0834,  22: 0.46836,  23:-0.62809
    49 |      |   1: 0.89548,   8:-0.76264,   9: 0.75959,  10:-0.00118,  11: -1.0023,  12:-0.63962,  13: 0.90948,  14: 0.87034, 
                 15: 0.40811,  21:-0.012709,  22:-0.54207,  23:-0.73456
    50 |      |   1:-0.18912,  16: 0.60835,  17: 0.29519,  18:-0.55937
    51 |      |   1:-0.76242,  16: 0.86198,  17:-0.42942,  18:-0.28205
    52 |      |   1:-0.92907,  16:-0.57907,  17:-0.71233,  18: 0.41796
    53 |      |   1: 0.68271,  16: 0.14615,  17:  1.3572,  18: 0.42169
    54 |      |   1: 0.60944,  16:-0.029809,  17: 0.41023,  18: 0.98104
    55 |      |   1: 0.43207,  16: 0.22928,  17:-0.93812,  18: 0.55376
    56 |      |   1: 0.32647,  19:-0.45308,  20:-0.0066211
    57 |      |   1:-0.25777,  19:-0.42304,  20: -0.3975
    58 |      |   1: 0.12837,  19: 0.55536,  20: 0.78947
    59 |      |   1: 0.84076,  19: 0.99671,  20:-0.22481
    60 |      |  24: 0.73165,  25: -1.1016,  26: 0.71483,  27: 0.78864,  28:  1.1219,  29: -0.2305,  30:-0.10744,  31: 0.95922, 
                 32:-0.23545,  33:  0.2354,  34:0.085501,  35: 0.83513,  36:  0.3345,  37:-0.02759,  38:0.081712,  39: -1.1273, 
                 40: 0.39024,  41:-0.53344,  42:-0.019147,  43:-0.85885,  44:-0.37162,  45:  1.0599,  46:-0.19026,  47: -1.0947, 
                 48: 0.36904,  49:-0.11097,  50: 0.35917,  51: 0.34914,  52:-0.50664,  53: 0.80541,  54: 0.11822,  55:-0.90785, 
                 56:  -0.726,  57:0.049304,  58: 0.32086,  59: -1.1969
    61 |      |  24:  1.0096,  25: 0.71827,  26:0.016467,  27:0.087308,  28: 0.12137,  29:-0.37348,  30:-0.68267,  31: 0.82707, 
                 32:-0.92934,  33: -0.3137,  34:-0.0089078,  35:-0.94854,  36: 0.95791,  37: 0.18004,  38:0.042732,  39: 0.87497, 
                 40:-0.91578,  41:0.074227,  42:  0.3932,  43:-0.29037,  44:-0.51823,  45:-0.28629,  46: 0.20448,  47:-0.56714, 
                 48:-0.98686,  49: 0.45866,  50:-0.35083,  51:0.033703,  52:-0.046672,  53:-0.27058,  54:0.097506,  55:-0.13974, 
                 56:-0.43866,  57:-0.89147,  58: -1.0055,  59: 0.52375
    62 |      |  24:-0.49899,  25:  0.5355,  26:-0.11946,  27: 0.26842,  28:-0.49906,  29: 0.12963,  30: 0.09189,  31: 0.74627, 
                 32:-0.86626,  33:0.059905,  34: 0.75557,  35:0.064724,  36:-0.32724,  37:-0.43127,  38: 0.70625,  39: 0.61799, 
                 40: 0.84094,  41:-0.99377,  42: 0.65379,  43: 0.22023,  44:-0.10866,  45:-0.43152,  46:-0.62514,  47: 0.48148, 
                 48: 0.79648,  49: 0.42244,  50:-0.92162,  51: 0.91221,  52: 0.43646,  53: 0.61789,  54:-0.26354,  55: 0.83082, 
                 56:0.065356,  57: 0.57709,  58: 0.21806,  59: 0.63374
    63 |      |  24:-0.59904,  25: 0.37901,  26:-0.31375,  27: 0.56753,  28: 0.21439,  29: 0.82379,  30: -0.8284,  31: 0.76801, 
                 32: 0.51781,  33: 0.57149,  34: 0.58685,  35: 0.64093,  36: 0.13365,  37:-0.080744,  38:-0.59099,  39: 0.77638, 
                 40: 0.30104,  41: 0.86343,  42: 0.61832,  43:-0.34012,  44: 0.87223,  45: 0.54363,  46:-0.90236,  47: 0.52574, 
                 48:-0.70779,  49: 0.98258,  50: -0.3631,  51: 0.89656,  52:  0.1335,  53:-0.71061,  54:-0.48651,  55: 0.52641, 
                 56: 0.66172,  57: 0.18052,  58:0.058574,  59: -0.1533
    64 |      |  24:0.0064222,  25:-0.00089729,  26:-0.68348,  27: 0.46419,  28: -1.0222,  29:-0.50917,  30:  1.5034,  31: 0.77417, 
                 32:-0.19463,  33:  0.8138,  34:-0.88797,  35: -0.6367,  36: 0.44439,  37: 0.18069,  38:-0.58307,  39:-0.18806, 
                 40: 0.24457,  41: 0.87445,  42: 0.20413,  43:   0.097,  44:-0.66954,  45: 0.14223,  46:-0.71334,  47:-0.28527, 
                 48: 0.64844,  49:   0.916,  50:-0.62339,  51:-0.18783,  52:-0.071764,  53: 0.18601,  54: 0.71531,  55:  1.2116, 
                 56: 0.80512,  57: -0.8153,  58:-0.14827,  59:  1.0208
    65 |      |  24:-0.53118,  25:0.0030558,  26:-0.40085,  27: -1.1118,  28: 0.11271,  29: 0.16514,  30: 0.15849,  31: -1.1163, 
                 32:0.099087,  33:-0.66204,  34: 0.50095,  35: 0.13285,  36: 0.12907,  37:-0.78989,  38: 0.30645,  39:-0.66923, 
                 40:-0.61829,  41:  0.8829,  42: 0.58822,  43:-0.78887,  44:-0.70966,  45:-0.80045,  46:-0.13172,  47: 0.31379, 
                 48: 0.89222,  49:-0.33341,  50:-0.12949,  51: 0.78577,  52: 0.45903,  53: -0.2898,  54:  1.0405,  55: 0.97199, 
                 56:  0.4506,  57: -0.4131,  58:-0.76347,  59:-0.20159
    66 |      |  24:  0.4344,  25: 0.45614,  26:-0.37004,  27:0.090355,  28:  -1.493,  29:  1.6047,  30: -1.3849,  31: -1.2072, 
                 32:0.026004,  33:0.063851,  34:  0.1334,  35:-0.057008,  36:-0.23196,  37:-0.28385,  38:-0.016494,  39: 0.97066, 
                 40: 0.61963,  41: -1.0975,  42:-0.23744,  43:-0.50502,  44:  0.6498,  45:-0.69292,  46:  1.0557,  47: 0.91406, 
                 48:-0.59666,  49: 0.74442,  50: 0.60721,  51:-0.072044,  52: 0.70012,  53:  1.0765,  54:-0.42928,  55: 0.34606, 
                 56:-0.45347,  57: 0.19421,  58: 0.58442,  59:-0.19879
    67 |      |  24: -1.0226,  25:-0.028806,  26:-0.81183,  27: 0.96545,  28:  1.0705,  29:-0.15767,  30:  1.7183,  31:  0.5436, 
                 32:-0.59171,  33:-0.35104,  34: -1.0034,  35:-0.72675,  36:-0.0071042,  37:-0.21191,  38: 0.26209,  39:0.017857, 
                 40:-0.37001,  41: 0.53789,  42: 0.80368,  43:-0.27556,  44:-0.90206,  45: 0.16743,  46:-0.097118,  47:-0.24815, 
                 48: 0.42898,  49:-0.84061,  50: 0.29441,  51:0.028557,  52: 0.19811,  53: -1.0523,  54: 0.66571,  55: 0.57672, 
                 56: 0.24717,  57:-0.99146,  58:-0.31685,  59: 0.13788
    68 |      |  24:-0.49322,  25: -1.0633,  26:  0.5827,  27: 0.53884,  28:-0.40812,  29: -1.0402,  30:-0.27222,  31: 0.97399, 
                 32: 0.90741,  33:   0.751,  34:-0.89572,  35:-0.19417,  36: 0.86016,  37: 0.16627,  38: 0.68862,  39:-0.55737, 
                 40: 0.74988,  41:-0.76471,  42: 0.81288,  43: 0.72023,  44: 0.29257,  45: -0.4419,  46: 0.18171,  47: 0.58645, 
                 48:-0.67458,  49:-0.44186,  50:-0.13848,  51:-0.37986,  52: 0.21645,  53: -1.0011,  54: 0.73459,  55: 0.69256, 
                 56:-0.78148,  57: 0.42011,  58:-0.24504,  59:-0.29988
    69 |      |  24: 0.19457,  25: -0.6551,  26: 0.12163,  27: 0.10561,  28:-0.26498,  29:-0.75553,  30:-0.063185,  31: -1.0549, 
                 32: 0.89924,  33: 0.53297,  34: 0.77536,  35:-0.85354,  36: 0.40456,  37: 0.62913,  38: 0.67621,  39:-0.99147, 
                 40: -0.2192,  41: 0.33417,  42:-0.62478,  43: 0.33991,  44:-0.65045,  45:-0.12197,  46: -0.4476,  47:-0.55439, 
                 48:-0.22347,  49:  -0.814,  50:-0.38144,  51:-0.84607,  52:0.061472,  53: 0.39695,  54: 0.65569,  55:-0.72835, 
                 56:   0.768,  57:-0.18393,  58: 0.51858,  59:-0.39832
    70 |      |  60: -1.5999,  61: 0.43682,  62: 0.78304,  63:-0.048138,  64: -2.0041,  65: 0.87292,  66:   3.063,  67:  -2.419, 
                 68: -1.0412,  69:-0.06133
-------|------|----------------------------------------------------------------------------------------------------------------
