SNNS network definition file V1.4-3D
generated at Thu May 09 10:11:49 1996

network name : edge_23
source files :
no. of units : 70
no. of connections : 622
no. of unit types : 0
no. of site types : 0


learning function : Std_Backpropagation
update function : Topological_Order


unit default section :

act      | bias     | st | subnet | layer | act func     | out func
---------|----------|----|--------|-------|--------------|-------------
 0.00000 |  0.00000 | h  |      0 |     1 | Act_Logistic | Out_Identity
---------|----------|----|--------|-------|--------------|-------------


unit definition section :

no. | typeName | unitName | act      | bias     | st | position | act func | out func | sites
----|----------|----------|----------|----------|----|----------|----------|----------|-------
  1 |          |           |        0 |        0 | i  |  2, 1, 0 |||
  2 |          |           | -0.82592 |        0 | i  |  2, 3, 0 |||
  3 |          |           |   13.635 |        0 | i  |  2, 4, 0 |||
  4 |          |           |   15.556 |        0 | i  |  2, 5, 0 |||
  5 |          |           |   4.7238 |        0 | i  |  2, 7, 0 |||
  6 |          |           |   2.8969 |        0 | i  |  2, 8, 0 |||
  7 |          |           |   3.6874 |        0 | i  |  2, 9, 0 |||
  8 |          |           |   1.7727 |        0 | i  |  2,11, 0 |||
  9 |          |           |  -1.3913 |        0 | i  |  2,12, 0 |||
 10 |          |           |   3.4278 |        0 | i  |  2,13, 0 |||
 11 |          |           |  0.23589 |        0 | i  |  2,14, 0 |||
 12 |          |           | -0.34147 |        0 | i  |  2,15, 0 |||
 13 |          |           | -0.72799 |        0 | i  |  2,16, 0 |||
 14 |          |           |   3.1472 |        0 | i  |  2,17, 0 |||
 15 |          |           |  -2.1818 |        0 | i  |  2,18, 0 |||
 16 |          |           | 0.035093 |        0 | i  |  2,23, 0 |||
 17 |          |           |   1.2954 |        0 | i  |  2,24, 0 |||
 18 |          |           | -0.084163 |        0 | i  |  2,25, 0 |||
 19 |          |           |        7 |        0 | i  |  2,27, 0 |||
 20 |          |           |    1.143 |        0 | i  |  2,28, 0 |||
 21 |          |           |   241.08 |        0 | i  |  2,19, 0 |||
 22 |          |           |        5 |        0 | i  |  2,20, 0 |||
 23 |          |           |    14.88 |        0 | i  |  2,21, 0 |||
 24 |          |           | 1.3298e-14 | -0.56242 | h  |  7, 3, 0 |||
 25 |          |           |  0.64629 | -0.57738 | h  |  8, 3, 0 |||
 26 |          |           | 9.3185e-10 | -0.094199 | h  |  7, 4, 0 |||
 27 |          |           | 0.018674 |   1.4452 | h  |  8, 4, 0 |||
 28 |          |           | 0.00062886 |   2.6851 | h  |  7, 5, 0 |||
 29 |          |           |        1 | -0.019568 | h  |  8, 5, 0 |||
 30 |          |           | 0.061965 |  0.85121 | h  |  7, 7, 0 |||
 31 |          |           | 0.052051 |   0.6969 | h  |  8, 7, 0 |||
 32 |          |           | 5.3438e-06 | -0.76765 | h  |  7, 8, 0 |||
 33 |          |           |  0.99995 |   1.0832 | h  |  8, 8, 0 |||
 34 |          |           |  0.94762 | -0.073299 | h  |  7, 9, 0 |||
 35 |          |           |  0.99667 |  0.86153 | h  |  8, 9, 0 |||
 36 |          |           | 7.6176e-101 |  -1.2164 | h  |  7,11, 0 |||
 37 |          |           | 6.6092e-102 |  0.34403 | h  |  8,11, 0 |||
 38 |          |           | 3.8475e-96 |   1.0683 | h  |  7,12, 0 |||
 39 |          |           |        1 | -0.64114 | h  |  8,12, 0 |||
 40 |          |           | 5.1438e-102 |  0.69382 | h  |  7,13, 0 |||
 41 |          |           |        1 | -0.51253 | h  |  8,13, 0 |||
 42 |          |           |        1 |  0.29724 | h  |  7,14, 0 |||
 43 |          |           |        1 |  0.16158 | h  |  8,14, 0 |||
 44 |          |           |  0.99654 | -0.43203 | h  |  7,15, 0 |||
 45 |          |           |        1 |  0.81541 | h  |  8,15, 0 |||
 46 |          |           |        1 |  -1.5309 | h  |  7,16, 0 |||
 47 |          |           |        1 |  0.16265 | h  |  8,16, 0 |||
 48 |          |           |        1 |  0.58091 | h  |  7,17, 0 |||
 49 |          |           |        1 | -0.080863 | h  |  8,17, 0 |||
 50 |          |           |  0.80418 |  0.82832 | h  |  7,22, 0 |||
 51 |          |           |  0.29136 | -0.041019 | h  |  8,22, 0 |||
 52 |          |           | 0.078381 | -0.98835 | h  |  7,23, 0 |||
 53 |          |           |  0.83556 |  0.60276 | h  |  8,23, 0 |||
 54 |          |           |  0.61714 | -0.12296 | h  |  7,24, 0 |||
 55 |          |           |  0.40322 |  0.52844 | h  |  8,24, 0 |||
 56 |          |           | 0.025586 | -0.26279 | h  |  7,26, 0 |||
 57 |          |           |    0.641 | -0.48396 | h  |  8,26, 0 |||
 58 |          |           |  0.98819 |  0.36641 | h  |  7,27, 0 |||
 59 |          |           |   0.9971 |   1.1054 | h  |  8,27, 0 |||
 60 |          |           | 0.00042442 |  -1.3461 | h  | 13,12, 0 |||
 61 |          |           | 0.074267 | -0.17502 | h  | 14,12, 0 |||
 62 |          |           |  0.99375 | -0.22969 | h  | 13,13, 0 |||
 63 |          |           |  0.99589 | 0.019518 | h  | 14,13, 0 |||
 64 |          |           |  0.38356 |  -0.7069 | h  | 13,14, 0 |||
 65 |          |           |  0.26132 |  0.60887 | h  | 14,14, 0 |||
 66 |          |           |  0.99928 |  0.58614 | h  | 13,15, 0 |||
 67 |          |           | 0.043734 |  0.17905 | h  | 14,15, 0 |||
 68 |          |           |  0.90184 |  0.59777 | h  | 13,16, 0 |||
 69 |          |           | 0.020764 |  0.10577 | h  | 14,16, 0 |||
 70 |          |           |  0.99034 |  0.86411 | o  | 18,14, 0 |||
----|----------|----------|----------|----------|----|----------|----------|----------|-------


connection definition section :

target | site | source:weight
-------|------|------------------------------------------------------------------------------------------------------------
    24 |      |   1:0.097777,   2: 0.47519,   3: -1.0704,   4: -1.0544
    25 |      |   1: 0.74028,   2: -1.1039,   3:  1.2272,   4: -1.0584
    26 |      |   1: 0.81635,   2: 0.52806,   3: -1.3472,   4:-0.12181
    27 |      |   1: 0.75465,   2:-0.59847,   3:-0.31357,   4:-0.10452
    28 |      |   1:-0.35633,   2: 0.71611,   3:-0.16589,   4:-0.46301
    29 |      |   1: -1.1685,   2:-0.62704,   3:   1.997,   4:-0.40755
    30 |      |   1:0.0069264,   5:-0.12011,   6: -0.4567,   7:-0.45506
    31 |      |   1: -0.0456,   5: 0.11147,   6:-0.57149,   7:-0.66985
    32 |      |   1:-0.90277,   5:-0.99615,   6:-0.77376,   7:    -1.2
    33 |      |   1: 0.16129,   5:   1.003,   6: 0.53984,   7: 0.70744
    34 |      |   1:0.054489,   5: 0.19591,   6:0.056532,   7: 0.50971
    35 |      |   1: 0.24275,   5: 0.70471,   6:  0.2943,   7: 0.17848
    36 |      |   1:-0.38793,   8: -1.1761,   9: 0.22178,  10: 0.15498,  11:-0.50808,  12: -0.9271,  13: 0.57529,  14: 0.93915, 
                 15: 0.33747,  21:-0.96333,  22:-0.10832,  23: 0.22404
    37 |      |   1: 0.68569,   8: 0.33173,   9: 0.33305,  10:-0.29996,  11: 0.45125,  12:-0.43239,  13:-0.95908,  14:0.0011064, 
                 15: 0.59161,  21:-0.96735,  22:-0.45537,  23: 0.22906
    38 |      |   1: 0.88283,   8:-0.14248,   9:-0.25882,  10:0.050078,  11:-0.31435,  12:0.044206,  13:-0.19788,  14: 0.61453, 
                 15:  1.0798,  21:-0.95566,  22: 0.63867,  23: 0.43811
    39 |      |   1:-0.082495,   8: 0.24492,   9: 0.17819,  10: -0.6312,  11: 0.73327,  12:-0.26948,  13: 0.59031,  14:-0.091182, 
                 15: 0.56286,  21: 0.36729,  22: 0.56292,  23: 0.65149
    40 |      |   1: 0.21894,   8: 0.65774,   9:0.0060184,  10:-0.57309,  11:0.057634,  12:-0.22303,  13: 0.38723,  14: 0.61199, 
                 15: 0.65032,  21:-0.92458,  22:-0.33303,  23:-0.59551
    41 |      |   1:-0.31232,   8:  -0.418,   9: 0.22316,  10:-0.73172,  11:-0.58255,  12:-0.70342,  13: 0.78324,  14: 0.67551, 
                 15:-0.48112,  21: 0.57592,  22:-0.86218,  23: -0.3092
    42 |      |   1:  0.5296,   8: 0.80713,   9:  1.0022,  10:-0.033422,  11:-0.92526,  12:  0.2318,  13:-0.39714,  14: 0.16008, 
                 15: 0.48848,  21: 0.71857,  22: -1.0244,  23:  -0.334
    43 |      |   1:  0.6897,   8: 0.10559,   9:   1.159,  10:-0.68648,  11:-0.43378,  12:-0.11993,  13:-0.22931,  14: 0.92629, 
                 15:-0.20179,  21: 0.78649,  22:-0.76581,  23:-0.39721
    44 |      |   1:-0.27178,   8: 0.64106,   9: 0.44688,  10: 0.14787,  11:-0.41737,  12:-0.59762,  13:-0.32903,  14:-0.55694, 
                 15:  1.4245,  21:0.049099,  22: 0.69278,  23:-0.38387
    45 |      |   1: 0.23197,   8:-0.21963,   9:-0.56688,  10:-0.96354,  11: 0.39072,  12:-0.11822,  13: 0.65998,  14:  0.5163, 
                 15:-0.60592,  21: 0.73704,  22:-0.90983,  23: 0.34003
    46 |      |   1:-0.015203,   8: 0.14041,   9:  1.1943,  10:  1.1126,  11:   -1.06,  12:-0.10696,  13: 0.87483,  14: 0.34643, 
                 15:-0.71643,  21: 0.57946,  22:-0.28648,  23: 0.97345
    47 |      |   1:-0.98359,   8:-0.59087,   9:  0.1353,  10:-0.31099,  11: 0.82107,  12:-0.53908,  13: 0.14203,  14:  1.1035, 
                 15:-0.18963,  21:0.070364,  22:-0.65429,  23: 0.92109
    48 |      |   1:0.021709,   8: 0.30215,   9:-0.51842,  10:-0.64968,  11: 0.69888,  12: 0.45804,  13:  1.1415,  14: 0.46221, 
                 15:-0.26629,  21:  1.1652,  22: 0.56185,  23:-0.81395
    49 |      |   1: 0.85984,   8:-0.44388,   9:  0.9074,  10: 0.12904,  11: -1.2546,  12:-0.31679,  13: 0.95042,  14:  0.3955, 
                 15:-0.019619,  21: 0.59391,  22:-0.73651,  23:-0.85744
    50 |      |   1:-0.17185,  16: 0.44382,  17: 0.40856,  18:-0.46933
    51 |      |   1:-0.70252,  16:  1.2017,  17:-0.71161,  18:-0.37871
    52 |      |   1: -1.0158,  16: -1.6695,  17:  -1.051,  18: 0.66759
    53 |      |   1: 0.81586,  16: 0.49763,  17: 0.82519,  18: 0.75551
    54 |      |   1: 0.55168,  16:  0.1326,  17: 0.51342,  18: 0.82407
    55 |      |   1: 0.29465,  16:-0.36908,  17:-0.66474,  18: 0.55209
    56 |      |   1:  0.2053,  19:-0.52349,  20: 0.25146
    57 |      |   1:-0.26521,  19: 0.24284,  20:-0.55663
    58 |      |   1: 0.18235,  19: 0.45958,  20: 0.73813
    59 |      |   1: 0.72755,  19: 0.75672,  20:-0.49277
    60 |      |  24: 0.52103,  25: -1.3486,  26:   1.098,  27: 0.98998,  28:  1.2184,  29: -1.0797,  30:-0.37661,  31: 0.76368, 
                 32: -0.5348,  33: 0.20245,  34:-0.023173,  35: 0.72714,  36: 0.63213,  37:-0.13688,  38: 0.30043,  39:-0.75662, 
                 40: 0.69589,  41:-0.69257,  42:-0.30783,  43: -1.2666,  44:-0.63331,  45: 0.65012,  46: -1.0884,  47: -1.4448, 
                 48: 0.76415,  49:-0.16695,  50: 0.29701,  51: 0.76337,  52:  -1.223,  53: 0.68095,  54:-0.12925,  55:-0.81105, 
                 56: -1.0548,  57: -0.2077,  58: 0.21982,  59: -1.0549
    61 |      |  24: 0.92871,  25: 0.82187,  26:-0.029111,  27: 0.11585,  28:0.097572,  29:-0.31919,  30:-0.63081,  31:  0.8727, 
                 32:-0.99062,  33:-0.16159,  34:0.059643,  35:-0.83738,  36: 0.96297,  37: 0.20805,  38:0.064702,  39: 0.88485, 
                 40:-0.87201,  41: 0.10218,  42: 0.44498,  43:-0.24172,  44:-0.52368,  45:-0.22867,  46: 0.22986,  47:-0.56513, 
                 48:-0.86534,  49: 0.48483,  50:-0.38608,  51:0.078941,  52:0.037632,  53:-0.28187,  54: 0.17177,  55:-0.026665, 
                 56:-0.41851,  57:-0.89992,  58:-0.94837,  59: 0.59852
    62 |      |  24:-0.48914,  25: 0.59568,  26: -0.1372,  27: 0.33617,  28:-0.44516,  29: 0.15322,  30: 0.33092,  31: 0.79891, 
                 32:-0.81141,  33: 0.15736,  34: 0.82521,  35:  0.1697,  36:-0.36395,  37:-0.41978,  38: 0.70769,  39:  0.4974, 
                 40: 0.83301,  41:-0.80993,  42: 0.62521,  43: 0.36748,  44: -0.1501,  45:-0.22537,  46:-0.50903,  47: 0.56093, 
                 48: 0.89453,  49: 0.40002,  50:-0.85822,  51: 0.98067,  52: 0.52128,  53: 0.71524,  54:-0.17344,  55: 0.92671, 
                 56: 0.15386,  57: 0.66981,  58: 0.27055,  59: 0.73295
    63 |      |  24:   -0.61,  25: 0.37714,  26:-0.31435,  27: 0.55988,  28: 0.21626,  29: 0.82413,  30:-0.84287,  31: 0.75427, 
                 32: 0.49344,  33: 0.59453,  34: 0.61275,  35: 0.66155,  36: 0.12956,  37:-0.082941,  38: -0.5857,  39: 0.78571, 
                 40: 0.31299,  41: 0.85772,  42: 0.61393,  43:-0.34084,  44: 0.87874,  45: 0.53487,  46:-0.90785,  47: 0.50855, 
                 48:-0.69149,  49:  0.9822,  50:  -0.358,  51: 0.90486,  52: 0.12625,  53: -0.7067,  54:-0.48476,  55:  0.5239, 
                 56: 0.66186,  57: 0.17917,  58:0.061287,  59:-0.14705
    64 |      |  24:-0.15399,  25: -0.4667,  26: -0.5505,  27: 0.14146,  28:-0.19677,  29:-0.84938,  30:  1.1637,  31: 0.30933, 
                 32:-0.66555,  33: 0.93693,  34:-0.58246,  35:-0.46311,  36: 0.27288,  37:-0.077931,  38:-0.84409,  39:-0.10585, 
                 40:-0.084972,  41:  0.8984,  42: 0.28833,  43: 0.13255,  44:-0.69464,  45:0.088929,  46:-0.67058,  47:-0.25396, 
                 48: 0.63477,  49: 0.77219,  50:-0.59053,  51:-0.18537,  52: -0.5345,  53: 0.16248,  54: 0.58683,  55:  1.0228, 
                 56: 0.81723,  57: -1.0222,  58:-0.16037,  59: 0.73216
    65 |      |  24:-0.42385,  25:-0.18905,  26:-0.46392,  27: -1.2188,  28: -0.5027,  29: 0.14943,  30:0.061197,  31: -1.1946, 
                 32: 0.22288,  33:-0.92484,  34: 0.33866,  35:-0.14777,  36: 0.20057,  37:-0.93808,  38: 0.18268,  39:-0.70598, 
                 40:  -0.538,  41:  1.0284,  42: 0.48743,  43:-0.84903,  44:-0.76722,  45:-0.63551,  46:0.0051724,  47: 0.28234, 
                 48: 0.84905,  49:-0.17845,  50:-0.085323,  51: 0.80173,  52: 0.42715,  53:-0.39019,  54: 0.90404,  55: 0.75013, 
                 56: 0.27205,  57: -0.2223,  58:-0.87491,  59:-0.094395
    66 |      |  24: 0.78404,  25:  0.4055,  26:-0.65186,  27:-0.13027,  28: -1.5486,  29:   2.011,  30:-0.61708,  31:-0.83741, 
                 32: 0.62863,  33: -0.1534,  34:-0.072734,  35:-0.14156,  36:-0.71251,  37:-0.0001725,  38:-0.089827,  39: 0.41902, 
                 40: 0.22055,  41:-0.75637,  42: -0.3289,  43:0.060792,  44: 0.53862,  45:-0.093969,  46:  1.8059,  47:  1.5916, 
                 48: -1.1118,  49: 0.40304,  50: 0.29568,  51:-0.61381,  52:  1.8207,  53:  1.1923,  54:0.044758,  55: 0.40846, 
                 56:-0.073805,  57: 0.55311,  58: 0.62828,  59:-0.06272
    67 |      |  24:-0.93573,  25:0.090296,  26:-0.63025,  27:  1.3291,  28:   2.716,  29:-0.17168,  30:  1.2269,  31: 0.27733, 
                 32: -1.2901,  33: 0.27788,  34:-0.55267,  35:-0.072376,  36: 0.24765,  37: 0.35882,  38: 0.73669,  39: 0.23468, 
                 40:-0.36554,  41:  0.1859,  42: 0.99516,  43:-0.26398,  44:-0.42622,  45:-0.62067,  46:-0.73878,  47:-0.55691, 
                 48:-0.063531,  49: -0.7846,  50: 0.20798,  51:-0.37151,  52:-0.05747,  53:-0.80143,  54: 0.86134,  55:  0.5336, 
                 56: 0.18153,  57: -0.9385,  58:-0.45668,  59:0.0045242
    68 |      |  24:-0.54268,  25:-0.93488,  26: 0.55312,  27: 0.28909,  28:-0.23529,  29:-0.81337,  30:-0.54908,  31: 0.64726, 
                 32: 0.61057,  33:  1.1803,  34:-0.37072,  35: 0.26888,  36: 0.79571,  37: 0.15633,  38: 0.66578,  39:-0.28351, 
                 40: 0.71045,  41:-0.63849,  42:  1.0426,  43:  1.0167,  44: 0.63671,  45:  -0.323,  46:  0.3413,  47: 0.81904, 
                 48:-0.47519,  49:-0.36083,  50:0.024224,  51:-0.35509,  52: 0.18043,  53:-0.78933,  54: 0.88367,  55: 0.75447, 
                 56:-0.77027,  57: 0.39475,  58:-0.0010694,  59:-0.19032
    69 |      |  24: 0.26776,  25:-0.61731,  26: 0.15831,  27: 0.17627,  28:-0.21222,  29:-0.72777,  30:0.0068696,  31: -1.0036, 
                 32: 0.97377,  33: 0.54526,  34: 0.78132,  35:-0.82819,  36: 0.39908,  37: 0.67918,  38: 0.67928,  39:-0.98929, 
                 40:-0.20488,  41: 0.38938,  42: -0.5582,  43: 0.41883,  44:-0.62544,  45:-0.070922,  46:-0.40876,  47:-0.48634, 
                 48:-0.23184,  49:-0.77128,  50:-0.34578,  51:-0.83279,  52: 0.12112,  53: 0.43537,  54: 0.68628,  55:-0.67476, 
                 56:  0.8172,  57: -0.1557,  58: 0.54777,  59:-0.37993
    70 |      |  60:  -2.918,  61: 0.11283,  62: 0.62756,  63:-0.079144,  64: -1.0542,  65:  0.9426,  66:  3.6934,  67: -3.7426, 
                 68:-0.18065,  69: 0.39664
-------|------|----------------------------------------------------------------------------------------------------------------
