SNNS network definition file V1.4-3D
generated at Thu May 09 10:11:49 1996

network name : edge_23
source files :
no. of units : 70
no. of connections : 622
no. of unit types : 0
no. of site types : 0


learning function : Std_Backpropagation
update function : Topological_Order


unit default section :

act      | bias     | st | subnet | layer | act func     | out func
---------|----------|----|--------|-------|--------------|-------------
 0.00000 |  0.00000 | h  |      0 |     1 | Act_Logistic | Out_Identity
---------|----------|----|--------|-------|--------------|-------------


unit definition section :

no. | typeName | unitName | act      | bias     | st | position | act func | out func | sites
----|----------|----------|----------|----------|----|----------|----------|----------|-------
  1 |          |           |        0 |        0 | i  |  2, 1, 0 |||
  2 |          |           |   8.2751 |        0 | i  |  2, 3, 0 |||
  3 |          |           |   40.555 |        0 | i  |  2, 4, 0 |||
  4 |          |           |   14.311 |        0 | i  |  2, 5, 0 |||
  5 |          |           |   4.6492 |        0 | i  |  2, 7, 0 |||
  6 |          |           |    2.115 |        0 | i  |  2, 8, 0 |||
  7 |          |           |     2.54 |        0 | i  |  2, 9, 0 |||
  8 |          |           |   5.2287 |        0 | i  |  2,11, 0 |||
  9 |          |           |  -1.5607 |        0 | i  |  2,12, 0 |||
 10 |          |           |   3.5595 |        0 | i  |  2,13, 0 |||
 11 |          |           |   2.0315 |        0 | i  |  2,14, 0 |||
 12 |          |           |   1.1823 |        0 | i  |  2,15, 0 |||
 13 |          |           |   1.9064 |        0 | i  |  2,16, 0 |||
 14 |          |           |  -1.6281 |        0 | i  |  2,17, 0 |||
 15 |          |           |  -1.8549 |        0 | i  |  2,18, 0 |||
 16 |          |           | -0.61381 |        0 | i  |  2,23, 0 |||
 17 |          |           |   2.2935 |        0 | i  |  2,24, 0 |||
 18 |          |           | 0.070151 |        0 | i  |  2,25, 0 |||
 19 |          |           |   9.1679 |        0 | i  |  2,27, 0 |||
 20 |          |           |   32.233 |        0 | i  |  2,28, 0 |||
 21 |          |           |   61.085 |        0 | i  |  2,19, 0 |||
 22 |          |           |     6.82 |        0 | i  |  2,20, 0 |||
 23 |          |           |   22.556 |        0 | i  |  2,21, 0 |||
 24 |          |           | 2.2649e-23 | -0.83414 | h  |  7, 3, 0 |||
 25 |          |           |        1 | -0.98418 | h  |  8, 3, 0 |||
 26 |          |           | 2.3473e-10 | 0.0013349 | h  |  7, 4, 0 |||
 27 |          |           | 0.0008904 |   4.1107 | h  |  8, 4, 0 |||
 28 |          |           |  0.01387 |   2.4772 | h  |  7, 5, 0 |||
 29 |          |           |        1 |  -1.1074 | h  |  8, 5, 0 |||
 30 |          |           |  0.43791 |  0.61596 | h  |  7, 7, 0 |||
 31 |          |           | 0.082807 |    1.184 | h  |  8, 7, 0 |||
 32 |          |           | 0.00056493 | -0.36975 | h  |  7, 8, 0 |||
 33 |          |           |  0.99928 |  0.86673 | h  |  8, 8, 0 |||
 34 |          |           |  0.98555 | -0.36682 | h  |  7, 9, 0 |||
 35 |          |           |  0.99516 |  0.69389 | h  |  8, 9, 0 |||
 36 |          |           | 2.3754e-33 | -0.48793 | h  |  7,11, 0 |||
 37 |          |           | 3.2406e-32 |  0.33438 | h  |  8,11, 0 |||
 38 |          |           | 6.1684e-13 |  0.97756 | h  |  7,12, 0 |||
 39 |          |           |        1 | -0.48566 | h  |  8,12, 0 |||
 40 |          |           | 8.7648e-32 |  0.66936 | h  |  7,13, 0 |||
 41 |          |           | 3.4892e-15 | -0.28259 | h  |  8,13, 0 |||
 42 |          |           |  0.99999 |  0.21018 | h  |  7,14, 0 |||
 43 |          |           | 2.679e-13 |  0.27528 | h  |  8,14, 0 |||
 44 |          |           |  0.94601 | -0.58381 | h  |  7,15, 0 |||
 45 |          |           |        1 |  0.95539 | h  |  8,15, 0 |||
 46 |          |           |        1 |  -1.5003 | h  |  7,16, 0 |||
 47 |          |           |        1 | -0.10133 | h  |  8,16, 0 |||
 48 |          |           |        1 |  0.87917 | h  |  7,17, 0 |||
 49 |          |           |        1 | -0.07085 | h  |  8,17, 0 |||
 50 |          |           |  0.61757 |  0.85446 | h  |  7,22, 0 |||
 51 |          |           |  0.15829 | 0.056622 | h  |  8,22, 0 |||
 52 |          |           | 0.072461 |  -1.3224 | h  |  7,23, 0 |||
 53 |          |           |  0.61035 |  0.77735 | h  |  8,23, 0 |||
 54 |          |           |  0.88242 | 0.0018205 | h  |  7,24, 0 |||
 55 |          |           |  0.16556 |  0.52844 | h  |  8,24, 0 |||
 56 |          |           | 0.00088105 | -0.22955 | h  |  7,26, 0 |||
 57 |          |           | 0.00032759 | -0.22561 | h  |  8,26, 0 |||
 58 |          |           |        1 |  0.35718 | h  |  7,27, 0 |||
 59 |          |           | 2.4364e-05 |   1.2139 | h  |  8,27, 0 |||
 60 |          |           |  0.36838 |  -1.1289 | h  | 13,12, 0 |||
 61 |          |           |  0.20818 | -0.11735 | h  | 14,12, 0 |||
 62 |          |           |   0.9833 | -0.23089 | h  | 13,13, 0 |||
 63 |          |           |  0.98627 | -0.074892 | h  | 14,13, 0 |||
 64 |          |           |  0.10847 | -0.56203 | h  | 13,14, 0 |||
 65 |          |           |  0.64847 |  0.57075 | h  | 14,14, 0 |||
 66 |          |           |  0.99977 |  0.48959 | h  | 13,15, 0 |||
 67 |          |           |  0.14856 |  0.32122 | h  | 14,15, 0 |||
 68 |          |           |  0.50025 |  0.54387 | h  | 13,16, 0 |||
 69 |          |           | 0.0058453 | 0.079349 | h  | 14,16, 0 |||
 70 |          |           |  0.99529 |  0.90445 | o  | 18,14, 0 |||
----|----------|----------|----------|----------|----|----------|----------|----------|-------


connection definition section :

target | site | source:weight
-------|------|------------------------------------------------------------------------------------------------------------
    24 |      |   1:0.093811,   2: 0.61987,   3: -1.0275,   4: -1.0319
    25 |      |   1: 0.71097,   2:-0.90182,   3: 0.71678,   4:-0.21547
    26 |      |   1: 0.71647,   2: 0.69127,   3:-0.68186,   4:-0.016851
    27 |      |   1: 0.92538,   2:-0.77836,   3:-0.12927,   4:0.038443
    28 |      |   1:-0.34214,   2:-0.32004,   3: -0.2784,   4: 0.50295
    29 |      |   1: -1.0608,   2:-0.68138,   3:  1.5268,   4:-0.26455
    30 |      |   1: 0.03722,   5: 0.20858,   6:-0.43819,   7: -0.3577
    31 |      |   1:-0.18056,   5:-0.58143,   6:-0.51621,   7: 0.08117
    32 |      |   1:-0.90247,   5:-0.91786,   6:-0.42813,   7:-0.76209
    33 |      |   1: 0.16047,   5: 0.91995,   6:  0.4473,   7: 0.45335
    34 |      |   1:0.053229,   5: 0.49161,   6: 0.23527,   7: 0.71111
    35 |      |   1: 0.23335,   5: 0.63405,   6: 0.36296,   7: 0.36118
    36 |      |   1:-0.48428,   8: -1.0301,   9:  0.2412,  10:-0.45319,  11:-0.39121,  12: -1.2409,  13: 0.91522,  14: 0.51593, 
                 15:  0.1403,  21: -1.0698,  22:-0.080245,  23:0.011405
    37 |      |   1: 0.67708,   8: 0.40926,   9: 0.46889,  10:-0.25474,  11: 0.21372,  12:-0.51314,  13:-0.67011,  14:0.025535, 
                 15: 0.65381,  21:  -1.045,  22:-0.50119,  23:-0.15016
    38 |      |   1: 0.90947,   8:   -0.18,   9:0.039628,  10: 0.10849,  11:-0.91258,  12:-0.20814,  13: 0.18337,  14: 0.34376, 
                 15:  0.7751,  21:-0.80966,  22: 0.63463,  23: 0.90452
    39 |      |   1:-0.032393,   8: 0.38739,   9: 0.39259,  10:-0.65666,  11:  1.2085,  12:-0.25608,  13: 0.58739,  14:0.060592, 
                 15: 0.57752,  21: 0.27614,  22: 0.52397,  23: 0.59651
    40 |      |   1: 0.19257,   8: 0.59347,   9: 0.45646,  10:-0.57506,  11:-0.10208,  12:-0.15387,  13: 0.26195,  14: 0.24984, 
                 15:  0.7779,  21:-0.95349,  22:-0.27029,  23:-0.47429
    41 |      |   1:-0.32123,   8: -0.2472,   9: 0.39867,  10:-0.94045,  11:-0.64412,  12:-0.92333,  13: 0.70858,  14: 0.55881, 
                 15:-0.52123,  21:-0.060947,  22:-0.87058,  23:-0.75773
    42 |      |   1: 0.51793,   8: 0.66443,   9:  1.2999,  10:-0.03105,  11: -1.3238,  12:-0.13981,  13:-0.20855,  14:-0.14549, 
                 15: 0.67516,  21: 0.46511,  22: -1.5792,  23:-0.13984
    43 |      |   1: 0.69548,   8:-0.13941,   9:  1.2911,  10:-0.63452,  11: -0.4832,  12:-0.31597,  13:0.039129,  14: 0.61311, 
                 15:-0.24529,  21:0.010699,  22:-0.86025,  23:-0.76182
    44 |      |   1:-0.17867,   8:  1.0672,   9: 0.21009,  10: 0.24448,  11:-0.67345,  12:-0.19921,  13: 0.15447,  14:-0.48606, 
                 15:  1.0571,  21: 0.12565,  22: 0.59943,  23:-0.53022
    45 |      |   1: 0.25329,   8:-0.69976,   9:0.013102,  10:-0.75344,  11:-0.089151,  12: -1.3881,  13: 0.52433,  14: 0.47501, 
                 15:-0.59542,  21:   1.052,  22:-0.52295,  23: 0.67871
    46 |      |   1:0.0056791,   8: 0.72114,   9:  0.6804,  10:-0.18097,  11:-0.55396,  12: -0.2397,  13: 0.76756,  14: 0.96305, 
                 15:-0.51639,  21: 0.43613,  22:-0.81315,  23: 0.53179
    47 |      |   1:-0.90207,   8:-0.54338,   9:-0.28938,  10:-0.19102,  11:  1.4098,  12:-0.099686,  13: 0.48668,  14: 0.81876, 
                 15: 0.15072,  21: 0.14977,  22: -0.8642,  23: 0.68372
    48 |      |   1:-0.094082,   8: 0.89451,   9:-0.31636,  10:-0.58471,  11:-0.45448,  12: 0.37309,  13: 0.63546,  14:0.038176, 
                 15: -0.2845,  21: 0.50938,  22:  1.2108,  23:-0.55918
    49 |      |   1: 0.89844,   8:-0.92074,   9: 0.73248,  10: 0.16866,  11:-0.86354,  12:-0.59443,  13: 0.91438,  14: 0.81339, 
                 15: 0.42661,  21: 0.66416,  22:-0.91096,  23: 0.20172
    50 |      |   1:-0.12724,  16: 0.57949,  17:0.0084327,  18:-0.55354
    51 |      |   1:-0.75266,  16: 0.95272,  17:-0.49117,  18:-0.23254
    52 |      |   1:-0.99317,  16: -1.3643,  17: -0.9187,  18: 0.60655
    53 |      |   1: 0.77094,  16: 0.37542,  17:-0.063174,  18: 0.66621
    54 |      |   1: 0.66347,  16: 0.19431,  17: 0.90729,  18: 0.74363
    55 |      |   1: 0.41606,  16:-0.31942,  17: -1.0401,  18: 0.62013
    56 |      |   1: 0.20642,  19:-0.53049,  20:-0.060203
    57 |      |   1:-0.26255,  19:-0.25088,  20:-0.17056
    58 |      |   1:  0.1481,  19: 0.54065,  20: 0.78525
    59 |      |   1: 0.82095,  19: 0.83614,  20:-0.60503
    60 |      |  24: 0.16766,  25: -1.1752,  26: 0.51486,  27:  1.5339,  28:  1.1156,  29:-0.14449,  30: -0.4638,  31:   1.027, 
                 32:-0.26323,  33: 0.17875,  34:0.060021,  35: 0.65955,  36: 0.20466,  37:-0.63967,  38: 0.39776,  39:-0.28066, 
                 40: 0.10819,  41:-0.85651,  42: 0.27648,  43: -1.2514,  44:-0.47392,  45:  1.3114,  46:-0.0025509,  47:-0.98799, 
                 48: 0.15147,  49:-0.010545,  50:  0.5904,  51: 0.63123,  52:-0.64668,  53: 0.66724,  54:-0.23891,  55:-0.45599, 
                 56:-0.92715,  57:-0.27358,  58: 0.56971,  59:  -1.015
    61 |      |  24: 0.92706,  25: 0.87187,  26:-0.041944,  27: 0.25436,  28: 0.16505,  29:-0.27778,  30:-0.58251,  31:  0.9366, 
                 32:-0.93339,  33:-0.15508,  34:0.052293,  35:-0.83856,  36: 0.98449,  37: 0.19895,  38:0.049151,  39: 0.94161, 
                 40:-0.87398,  41: 0.11364,  42:  0.4878,  43:-0.24575,  44:-0.50633,  45:-0.13734,  46: 0.31511,  47:-0.51767, 
                 48:-0.84127,  49: 0.57002,  50:-0.35503,  51: 0.14334,  52:0.071591,  53:  -0.233,  54: 0.19805,  55:0.049162, 
                 56:-0.42704,  57:-0.88472,  58:-0.88711,  59: 0.61503
    62 |      |  24:-0.42831,  25: 0.61706,  26:-0.063842,  27: 0.32929,  28: -0.4157,  29: 0.16157,  30: 0.33082,  31: 0.85425, 
                 32:-0.81146,  33: 0.15547,  34: 0.81549,  35: 0.17004,  36:-0.40607,  37:-0.40588,  38: 0.69468,  39: 0.47928, 
                 40: 0.79719,  41:-0.87191,  42: 0.58697,  43: 0.31494,  44:-0.23464,  45:-0.24514,  46:-0.54511,  47: 0.55715, 
                 48: 0.87352,  49: 0.40729,  50:-0.89214,  51: 0.92762,  52: 0.58148,  53: 0.66448,  54:-0.18306,  55: 0.89747, 
                 56: 0.13198,  57:  0.6443,  58: 0.26669,  59: 0.70045
    63 |      |  24:-0.78308,  25: 0.30768,  26:-0.43033,  27: 0.48724,  28: 0.20446,  29: 0.76482,  30:-0.93832,  31: 0.65221, 
                 32: 0.36818,  33: 0.63822,  34: 0.63067,  35: 0.69622,  36: 0.11645,  37:-0.15617,  38:-0.58194,  39: 0.79539, 
                 40:  0.2763,  41: 0.85502,  42: 0.56002,  43:-0.38106,  44: 0.88246,  45: 0.53319,  46:-0.92256,  47: 0.50861, 
                 48: -0.7036,  49: 0.94172,  50:-0.37057,  51: 0.92509,  52:-0.0029458,  53:-0.72579,  54:-0.53118,  55: 0.50974, 
                 56: 0.60852,  57:  0.1173,  58: 0.03959,  59:-0.18674
    64 |      |  24:0.038477,  25:-0.31805,  26:-0.48425,  27:0.029529,  28:-0.75027,  29:-0.77802,  30:  1.0985,  31: 0.30151, 
                 32:-0.34056,  33: 0.88464,  34:-0.59131,  35:-0.42074,  36: 0.41069,  37: 0.23079,  38:-0.43383,  39:-0.11948, 
                 40: 0.34029,  41: 0.88011,  42: 0.12836,  43:  0.2752,  44:-0.67995,  45:-0.014364,  46: -1.0943,  47:-0.42425, 
                 48:  0.4767,  49: 0.57508,  50:-0.47793,  51:-0.30111,  52:-0.28549,  53:   0.294,  54: 0.66056,  55:  1.1082, 
                 56: 0.86766,  57:-0.75411,  58:-0.29371,  59:  1.0755
    65 |      |  24:-0.39138,  25:-0.10439,  26:-0.37378,  27: -2.4484,  28:  -0.331,  29:0.069988,  30:-0.14926,  31:  -1.335, 
                 32:-0.051991,  33:-0.75411,  34: 0.52708,  35: 0.03117,  36: 0.25345,  37: -1.0571,  38: 0.28866,  39:-0.68329, 
                 40:-0.70598,  41:  1.1069,  42: 0.29772,  43: -1.0461,  44:-0.45664,  45:-0.47217,  46: 0.29999,  47: 0.43624, 
                 48:  1.2062,  49:-0.22449,  50:-0.084932,  51:  0.8154,  52: 0.19133,  53: -0.4199,  54: 0.97912,  55: 0.63539, 
                 56: 0.27148,  57:-0.50291,  58: -0.7699,  59:-0.24476
    66 |      |  24: 0.53902,  25:  1.3904,  26:-0.87227,  27:0.088699,  28: -1.9905,  29:  2.7105,  30:-0.24373,  31:-0.94159, 
                 32:-0.25127,  33: 0.32316,  34: 0.45171,  35: 0.14506,  36:-0.70515,  37: 0.19212,  38:-0.81645,  39: 0.51095, 
                 40: 0.23575,  41: -1.1245,  42:-0.63032,  43:-0.57925,  44:-0.023947,  45:-0.88771,  46:  1.6402,  47:  1.9877, 
                 48: -1.1061,  49:  1.1719,  50:0.0099684,  51: 0.10019,  52:  2.3541,  53:  0.5211,  54:-0.78908,  55:  1.0666, 
                 56:-0.24061,  57: 0.40496,  58: 0.42844,  59:-0.43659
    67 |      |  24:  -1.333,  25: 0.12737,  26:-0.99774,  27:  2.5902,  28:  1.5974,  29: 0.10985,  30:  1.4278,  31: 0.41759, 
                 32:-0.60955,  33:-0.21443,  34:-0.75613,  35:-0.48453,  36: 0.27125,  37: 0.17376,  38: 0.42645,  39:  0.5783, 
                 40:0.008452,  41: 0.30702,  42: 0.98204,  43:0.064068,  44:-0.89795,  45:-0.38137,  46:-0.63659,  47:-0.48585, 
                 48:-0.22142,  49:-0.61844,  50: 0.23208,  51:-0.32096,  52: 0.29136,  53:-0.82444,  54: 0.82483,  55: 0.70742, 
                 56: 0.35867,  57:-0.91622,  58:-0.36927,  59:0.029268
    68 |      |  24:-0.59323,  25:-0.96421,  26: 0.55729,  27: 0.61967,  28:-0.38279,  29:-0.89873,  30:-0.48448,  31: 0.71939, 
                 32: 0.68582,  33:  1.0737,  34:-0.48039,  35: 0.14669,  36: 0.78251,  37: 0.10687,  38: 0.78302,  39:-0.21513, 
                 40: 0.73059,  41:-0.80644,  42: 0.92039,  43: 0.80426,  44: 0.44401,  45: -0.3838,  46:0.083722,  47: 0.76963, 
                 48:-0.66834,  49:-0.43564,  50:-0.035442,  51:-0.47103,  52: 0.30327,  53: -0.8108,  54: 0.84036,  55: 0.82581, 
                 56:-0.79174,  57:   0.377,  58:-0.067673,  59:-0.15822
    69 |      |  24: 0.49076,  25:-0.65023,  26: 0.30138,  27: 0.34146,  28:-0.24527,  29: -0.8234,  30:0.069129,  31:-0.94767, 
                 32:  1.0517,  33: 0.38566,  34: 0.67997,  35:-0.99265,  36: 0.46359,  37: 0.67579,  38: 0.60912,  39: -1.0786, 
                 40:-0.25386,  41: 0.35311,  42:-0.66613,  43: 0.36034,  44:-0.75826,  45:-0.10442,  46:-0.43582,  47:-0.50681, 
                 48:-0.31153,  49:-0.74159,  50:-0.43116,  51:-0.89561,  52: 0.24026,  53: 0.37336,  54: 0.67226,  55:-0.71137, 
                 56: 0.80589,  57:-0.12169,  58: 0.48992,  59:-0.41103
    70 |      |  60: -1.2714,  61: 0.15688,  62: 0.55693,  63:-0.44308,  64:-0.71216,  65:  2.2051,  66:  4.1934,  67: -3.1618, 
                 68:-0.61304,  69: 0.81565
-------|------|----------------------------------------------------------------------------------------------------------------
