SNNS network definition file V1.4-3D
generated at Thu May 09 10:11:49 1996

network name : edge_23
source files :
no. of units : 70
no. of connections : 622
no. of unit types : 0
no. of site types : 0


learning function : Std_Backpropagation
update function : Topological_Order


unit default section :

act      | bias     | st | subnet | layer | act func     | out func
---------|----------|----|--------|-------|--------------|-------------
 0.00000 |  0.00000 | h  |      0 |     1 | Act_Logistic | Out_Identity
---------|----------|----|--------|-------|--------------|-------------


unit definition section :

no. | typeName | unitName | act      | bias     | st | position | act func | out func | sites
----|----------|----------|----------|----------|----|----------|----------|----------|-------
  1 |          |           |        0 |        0 | i  |  2, 1, 0 |||
  2 |          |           |        0 |        0 | i  |  2, 3, 0 |||
  3 |          |           |        0 |        0 | i  |  2, 4, 0 |||
  4 |          |           |        0 |        0 | i  |  2, 5, 0 |||
  5 |          |           |        0 |        0 | i  |  2, 7, 0 |||
  6 |          |           |        0 |        0 | i  |  2, 8, 0 |||
  7 |          |           |        0 |        0 | i  |  2, 9, 0 |||
  8 |          |           |        0 |        0 | i  |  2,11, 0 |||
  9 |          |           |        0 |        0 | i  |  2,12, 0 |||
 10 |          |           |        0 |        0 | i  |  2,13, 0 |||
 11 |          |           |        0 |        0 | i  |  2,14, 0 |||
 12 |          |           |        0 |        0 | i  |  2,15, 0 |||
 13 |          |           |        0 |        0 | i  |  2,16, 0 |||
 14 |          |           |        0 |        0 | i  |  2,17, 0 |||
 15 |          |           |        0 |        0 | i  |  2,18, 0 |||
 16 |          |           |        0 |        0 | i  |  2,23, 0 |||
 17 |          |           |        0 |        0 | i  |  2,24, 0 |||
 18 |          |           |        0 |        0 | i  |  2,25, 0 |||
 19 |          |           |        0 |        0 | i  |  2,27, 0 |||
 20 |          |           |        0 |        0 | i  |  2,28, 0 |||
 21 |          |           |        0 |        0 | i  |  2,19, 0 |||
 22 |          |           |        0 |        0 | i  |  2,20, 0 |||
 23 |          |           |        0 |        0 | i  |  2,21, 0 |||
 24 |          |           |        0 | -0.32041 | h  |  7, 3, 0 |||
 25 |          |           |        0 |   1.5991 | h  |  8, 3, 0 |||
 26 |          |           |        0 |  0.15449 | h  |  7, 4, 0 |||
 27 |          |           |        0 |  0.62885 | h  |  8, 4, 0 |||
 28 |          |           |        0 | -0.95799 | h  |  7, 5, 0 |||
 29 |          |           |        0 |    2.346 | h  |  8, 5, 0 |||
 30 |          |           |        0 | -0.11111 | h  |  7, 7, 0 |||
 31 |          |           |        0 |   -1.341 | h  |  8, 7, 0 |||
 32 |          |           |        0 |  -1.1962 | h  |  7, 8, 0 |||
 33 |          |           |        0 |  -1.6278 | h  |  8, 8, 0 |||
 34 |          |           |        0 |  -0.2942 | h  |  7, 9, 0 |||
 35 |          |           |        0 | -0.57702 | h  |  8, 9, 0 |||
 36 |          |           |        0 | 0.031234 | h  |  7,11, 0 |||
 37 |          |           |        0 |   1.4975 | h  |  8,11, 0 |||
 38 |          |           |        0 | -0.95235 | h  |  7,12, 0 |||
 39 |          |           |        0 | -0.13399 | h  |  8,12, 0 |||
 40 |          |           |        0 | -0.77916 | h  |  7,13, 0 |||
 41 |          |           |        0 |  0.54323 | h  |  8,13, 0 |||
 42 |          |           |        0 |  0.11695 | h  |  7,14, 0 |||
 43 |          |           |        0 |   0.4785 | h  |  8,14, 0 |||
 44 |          |           |        0 |   1.2692 | h  |  7,15, 0 |||
 45 |          |           |        0 |  0.85843 | h  |  8,15, 0 |||
 46 |          |           |        0 | -0.44085 | h  |  7,16, 0 |||
 47 |          |           |        0 | -0.060296 | h  |  8,16, 0 |||
 48 |          |           |        0 |   0.1024 | h  |  7,17, 0 |||
 49 |          |           |        0 |  0.33013 | h  |  8,17, 0 |||
 50 |          |           |        0 |  0.27433 | h  |  7,22, 0 |||
 51 |          |           |        0 | -0.53779 | h  |  8,22, 0 |||
 52 |          |           |        0 |  0.61681 | h  |  7,23, 0 |||
 53 |          |           |        0 |  0.15916 | h  |  8,23, 0 |||
 54 |          |           |        0 | 0.074075 | h  |  7,24, 0 |||
 55 |          |           |        0 |  0.65304 | h  |  8,24, 0 |||
 56 |          |           |        0 |  0.15761 | h  |  7,26, 0 |||
 57 |          |           |        0 | -0.33648 | h  |  8,26, 0 |||
 58 |          |           |        0 |  0.34658 | h  |  7,27, 0 |||
 59 |          |           |        0 |  0.03636 | h  |  8,27, 0 |||
 60 |          |           |        0 |  0.90086 | h  | 13,12, 0 |||
 61 |          |           |        0 |  0.95176 | h  | 14,12, 0 |||
 62 |          |           |        0 | -0.032448 | h  | 13,13, 0 |||
 63 |          |           |        0 |  -0.2896 | h  | 14,13, 0 |||
 64 |          |           |        0 | -0.46729 | h  | 13,14, 0 |||
 65 |          |           |        0 |  -0.6301 | h  | 14,14, 0 |||
 66 |          |           |        0 | -0.49713 | h  | 13,15, 0 |||
 67 |          |           |        0 | -0.55906 | h  | 14,15, 0 |||
 68 |          |           |        0 |  0.56536 | h  | 13,16, 0 |||
 69 |          |           |        0 |  0.35322 | h  | 14,16, 0 |||
 70 |          |           |        0 | -0.21822 | o  | 18,14, 0 |||
----|----------|----------|----------|----------|----|----------|----------|----------|-------


connection definition section :

target | site | source:weight
-------|------|------------------------------------------------------------------------------------------------------------
    24 |      |   1: 0.66557,   2:  1.6246,   3: 0.40767,   4: 0.19504
    25 |      |   1:  1.6619,   2:-0.68899,   3:-0.018756,   4:-0.18511
    26 |      |   1:-0.27031,   2: 0.74382,   3: 0.66535,   4: 0.47347
    27 |      |   1:  1.1349,   2: 0.88879,   3: -1.7494,   4:  1.0225
    28 |      |   1: 0.56277,   2: 0.10207,   3: 0.90902,   4: 0.36238
    29 |      |   1:0.095657,   2:-0.68347,   3:-0.17119,   4: 0.13409
    30 |      |   1:-0.17316,   5: 0.37015,   6: 0.66669,   7:-0.50894
    31 |      |   1:-0.64818,   5:-0.28998,   6: 0.40068,   7: 0.28468
    32 |      |   1: 0.53989,   5:-0.38344,   6: -1.1205,   7: -0.2217
    33 |      |   1: 0.17868,   5:-0.44948,   6:  1.9571,   7:-0.88289
    34 |      |   1:-0.83743,   5:  0.4338,   6:0.057821,   7:-0.032252
    35 |      |   1:  1.0057,   5:-0.010683,   6:-0.49123,   7:-0.75271
    36 |      |   1:-0.66129,   8: 0.24842,   9: 0.83274,  10: -1.0122,  11: 0.58145,  12:-0.96322,  13:-0.23831,  14: 0.61733, 
                 15: 0.56106,  21:-0.50482,  22:-0.79714,  23:-0.10673
    37 |      |   1:-0.29905,   8:-0.87104,   9:0.025886,  10: 0.76718,  11:-0.15853,  12: -1.1486,  13: -0.5463,  14: 0.60924, 
                 15: 0.35726,  21:-0.57024,  22:  0.4158,  23: 0.91086
    38 |      |   1: 0.13555,   8:-0.39664,   9:-0.54586,  10: 0.27811,  11:-0.33211,  12:0.042182,  13:-0.39077,  14:-0.96558, 
                 15: 0.19526,  21:-0.48887,  22:-0.21663,  23: 0.60803
    39 |      |   1:  -1.029,   8:-0.43502,   9:-0.16997,  10:  0.1694,  11: 0.63445,  12:-0.089156,  13: 0.16436,  14:-0.35909, 
                 15:-0.15622,  21: 0.97153,  22: 0.51864,  23: 0.54901
    40 |      |   1: -0.2512,   8:0.065126,   9: 0.04898,  10:-0.27802,  11:-0.40789,  12:  1.4846,  13:  0.6943,  14: 0.50413, 
                 15: 0.57212,  21:-0.91068,  22:-0.94376,  23:-0.71875
    41 |      |   1: 0.23216,   8:-0.65927,   9: 0.32956,  10:-0.22337,  11:-0.014355,  12:-0.33021,  13:-0.37082,  14: 0.44419, 
                 15:-0.49417,  21: -0.6154,  22:-0.71425,  23:-0.51786
    42 |      |   1:0.098323,   8:-0.73874,   9:-0.59865,  10:  0.6105,  11: 0.47152,  12: 0.68435,  13:0.092332,  14:-0.70538, 
                 15:-0.51788,  21: 0.64066,  22:-0.85078,  23: 0.62542
    43 |      |   1: 0.75276,   8: 0.92063,   9:0.019769,  10:-0.91651,  11:-0.71137,  12: 0.93929,  13:-0.18914,  14: 0.34871, 
                 15:-0.067723,  21: 0.84423,  22:-0.31015,  23: 0.74342
    44 |      |   1: 0.62068,   8:-0.98828,   9: 0.64592,  10:-0.98288,  11:0.074219,  12:-0.37227,  13:-0.25492,  14: 0.32117, 
                 15:-0.12506,  21: 0.97351,  22: 0.14047,  23: 0.21434
    45 |      |   1: 0.32978,   8:  1.2609,   9:-0.56824,  10:-0.10801,  11:-0.81909,  12:  1.2775,  13:-0.46626,  14: 0.30721, 
                 15: 0.45816,  21: 0.10627,  22: 0.36446,  23:-0.49301
    46 |      |   1: 0.82809,   8: 0.12533,   9: -0.3813,  10: 0.79084,  11: 0.78858,  12:-0.34289,  13: 0.99541,  14: 0.56986, 
                 15: -1.2376,  21:0.094311,  22: -0.5951,  23:-0.16045
    47 |      |   1:-0.10075,   8:-0.37416,   9: 0.92476,  10:-0.85261,  11:-0.50785,  12: 0.25504,  13: 0.43404,  14:-0.24172, 
                 15:-0.89501,  21: 0.98294,  22:-0.56961,  23:-0.086933
    48 |      |   1:-0.66135,   8: 0.95174,   9:-0.75956,  10: 0.20381,  11:   0.692,  12:  -1.234,  13: 0.34423,  14:-0.47291, 
                 15: 0.13698,  21:0.053322,  22:-0.65612,  23: 0.39482
    49 |      |   1:-0.096489,   8:-0.40975,   9: 0.25966,  10:-0.012806,  11:  0.3249,  12:-0.95013,  13: 0.58481,  14:-0.11391, 
                 15: 0.18153,  21:-0.69018,  22:-0.62732,  23:-0.58239
    50 |      |   1:-0.30607,  16: -0.8615,  17:-0.099707,  18: 0.14009
    51 |      |   1:  0.6101,  16: 0.24153,  17: 0.21866,  18:-0.0077749
    52 |      |   1: 0.48492,  16:-0.82924,  17:-0.14077,  18: 0.14654
    53 |      |   1:-0.072732,  16:-0.33984,  17:-0.26371,  18:  1.0209
    54 |      |   1:-0.75262,  16:-0.38996,  17:-0.32173,  18: -0.9172
    55 |      |   1: 0.37641,  16: 0.14975,  17:-0.14233,  18:  0.8152
    56 |      |   1: 0.86386,  19: -0.5765,  20: 0.92919
    57 |      |   1: 0.72135,  19:-0.25891,  20:-0.11421
    58 |      |   1:-0.84975,  19: 0.31157,  20: 0.10854
    59 |      |   1: 0.52443,  19: 0.74588,  20:-0.49527
    60 |      |  24:0.041057,  25:  1.4595,  26:  0.8815,  27:-0.44922,  28:-0.32968,  29:  1.5602,  30:0.021951,  31:-0.50715, 
                 32:-0.89474,  33:  1.0005,  34: -1.1437,  35: 0.15664,  36:-0.44469,  37:  1.1292,  38: 0.41327,  39:-0.16447, 
                 40: -1.1053,  41:-0.41081,  42:  0.8401,  43:  0.5936,  44: 0.24366,  45:-0.37574,  46:-0.69671,  47: -1.1027, 
                 48:-0.66358,  49:  1.2107,  50: 0.68929,  51: 0.47748,  52: 0.34314,  53:-0.065726,  54:-0.48237,  55: 0.94164, 
                 56:-0.74139,  57:-0.50134,  58: -1.2301,  59:-0.14725
    61 |      |  24:  0.1549,  25:  0.6587,  26:  1.0037,  27:-0.12276,  28: 0.75098,  29: 0.24277,  30: 0.53834,  31:  0.4924, 
                 32:-0.98074,  33:  -0.845,  34: 0.58993,  35:-0.31202,  36: 0.97411,  37: 0.47386,  38:-0.60682,  39:-0.37537, 
                 40: 0.88436,  41:-0.51744,  42:-0.34253,  43: 0.48524,  44:-0.64216,  45:-0.82474,  46:-0.14867,  47: 0.11308, 
                 48:  -0.246,  49:-0.28664,  50: 0.40057,  51:-0.055573,  52:-0.24637,  53:-0.78261,  54:-0.20676,  55: 0.80592, 
                 56:  0.8415,  57:-0.22866,  58:-0.42645,  59: 0.52553
    62 |      |  24: -1.1431,  25: -1.0429,  26: 0.82002,  27: -1.0382,  28:-0.41718,  29: -1.4855,  30:-0.76913,  31:  1.2199, 
                 32:-0.21626,  33:-0.31041,  34:  0.9475,  35:  0.2731,  36:-0.04995,  37: 0.26765,  38: 0.24487,  39: 0.47395, 
                 40:-0.93849,  41:-0.24535,  42: -0.4831,  43:-0.30448,  44: -1.2229,  45: 0.04894,  46: 0.83262,  47:-0.93763, 
                 48: 0.78335,  49:-0.12694,  50:-0.74511,  51:-0.32952,  52: 0.72171,  53: 0.48218,  54:-0.35835,  55: 0.76946, 
                 56:-0.58956,  57:  -0.632,  58:  1.0316,  59: 0.43455
    63 |      |  24:-0.99323,  25:-0.17173,  26: 0.83535,  27:-0.18944,  28:-0.17179,  29:-0.031889,  30:-0.64791,  31: -0.6537, 
                 32:-0.15156,  33: 0.78332,  34:-0.70173,  35: 0.71188,  36: 0.90534,  37:-0.30197,  38: 0.58289,  39: 0.10019, 
                 40:-0.55875,  41:-0.89914,  42: 0.18632,  43: 0.68186,  44:-0.80282,  45:  0.5226,  46: 0.35682,  47:  1.0069, 
                 48: -1.0388,  49: -0.1986,  50:-0.68522,  51:-0.42639,  52:-0.0051085,  53: 0.35797,  54: 0.50478,  55: 0.22044, 
                 56:-0.55997,  57: 0.27167,  58:  1.1965,  59: 0.23138
    64 |      |  24:-0.73213,  25: 0.50402,  26: 0.59046,  27: 0.97223,  28: 0.75636,  29: 0.29191,  30: 0.94897,  31:-0.33015, 
                 32:0.0068385,  33: 0.03949,  34:0.016025,  35:0.062052,  36:  1.0039,  37:-0.39251,  38: 0.24491,  39:  0.6174, 
                 40: 0.82046,  41:-0.08158,  42: 0.69529,  43:-0.14078,  44: 0.17561,  45:-0.72804,  46: 0.78492,  47:-0.54256, 
                 48: 0.75256,  49:-0.0028611,  50:-0.17845,  51: 0.12061,  52:0.0015491,  53:-0.93075,  54: 0.76136,  55: 0.22117, 
                 56: 0.48555,  57: 0.31255,  58:  0.1766,  59: 0.15602
    65 |      |  24: 0.43655,  25: 0.89138,  26:  1.0612,  27: -3.1075,  28:  1.0491,  29:  -1.546,  30: 0.50505,  31:  1.5292, 
                 32: 0.30987,  33:  3.2766,  34: 0.58672,  35:-0.75231,  36: 0.71477,  37: -1.4224,  38:  1.1725,  39: 0.94033, 
                 40:  1.7319,  41: -1.1892,  42: 0.42425,  43: 0.97593,  44:-0.15667,  45: 0.11739,  46: 0.85868,  47: 0.46405, 
                 48:-0.60065,  49: -1.2031,  50:-0.28909,  51: 0.46701,  52:-0.70719,  53:  1.1976,  54: -1.0347,  55:  0.7388, 
                 56: 0.89516,  57: 0.36391,  58: 0.88968,  59:-0.64993
    66 |      |  24: 0.70628,  25:  1.7188,  26: 0.90747,  27: 0.65955,  28:-0.11401,  29: 0.37428,  30:-0.32122,  31:-0.22258, 
                 32:-0.43681,  33:-0.43557,  34:-0.23711,  35:  -0.135,  36: 0.85522,  37: 0.88395,  38:  1.1714,  39:-0.52506, 
                 40: 0.68448,  41: 0.25775,  42:-0.40609,  43:-0.48067,  44: 0.66667,  45:-0.48268,  46:-0.28404,  47: 0.66552, 
                 48:-0.66581,  49: -0.3262,  50:-0.041717,  51: 0.87095,  52: 0.58259,  53: 0.45537,  54: 0.63454,  55:  0.2397, 
                 56: 0.25823,  57:  1.1063,  58:-0.67953,  59: -0.5367
    67 |      |  24: 0.39009,  25: 0.56165,  26: 0.14581,  27: 0.64276,  28:   -0.34,  29: 0.83397,  30:  0.7175,  31:-0.47906, 
                 32: 0.76761,  33:  1.1422,  34:-0.77043,  35:-0.13131,  36:-0.34824,  37:-0.11364,  38: -0.4177,  39:-0.15087, 
                 40: 0.83321,  41:-0.90108,  42: 0.13978,  43:-0.80098,  44: 0.26108,  45:0.021893,  46: 0.71436,  47:-0.26272, 
                 48:0.052552,  49:-0.069486,  50:-0.92586,  51:-0.10333,  52: 0.62733,  53: -0.5171,  54: 0.48452,  55:-0.055423, 
                 56:  1.0391,  57:-0.48593,  58:-0.30532,  59:-0.43526
    68 |      |  24:  -1.163,  25:-0.61539,  26: -1.0191,  27: -1.1288,  28:-0.038059,  29:-0.81966,  30: 0.04075,  31:  1.1683, 
                 32: 0.69349,  33:  1.0201,  34: 0.85822,  35:  1.0604,  36:0.092246,  37: 0.62592,  38:-0.25368,  39: 0.52308, 
                 40:  1.0629,  41:  1.3008,  42:-0.12875,  43:-0.40057,  44:  1.1586,  45: 0.39553,  46:-0.99742,  47:-0.097787, 
                 48:-0.45406,  49:0.059905,  50:-0.71879,  51: 0.73402,  52: 0.60315,  53:-0.065192,  54:-0.88625,  55:-0.79082, 
                 56: 0.64014,  57:-0.57026,  58:-0.69973,  59: 0.37714
    69 |      |  24:0.044577,  25:-0.050674,  26: 0.18588,  27:-0.24003,  28: -0.3168,  29: 0.16304,  30: 0.54804,  31: -0.5252, 
                 32:-0.70432,  33: 0.42962,  34:-0.86273,  35:-0.91268,  36:-0.61193,  37:-0.14431,  38: 0.92935,  39:-0.94055, 
                 40: 0.13097,  41:-0.70527,  42:  0.2015,  43:-0.86819,  44:-0.49106,  45: 0.10051,  46:-0.92113,  47: 0.33225, 
                 48:0.058313,  49:-0.83337,  50: 0.18256,  51: 0.48713,  52:-0.68065,  53:-0.88065,  54:0.037362,  55: 0.39344, 
                 56:0.027278,  57:-0.69965,  58:-0.78696,  59: 0.77279
    70 |      |  60: -2.4059,  61:-0.16802,  62:  2.0277,  63: 0.62046,  64:-0.29209,  65:  4.8667,  66: -2.0954,  67:-0.15828, 
                 68:  1.0541,  69:-0.42548
-------|------|----------------------------------------------------------------------------------------------------------------
