SNNS network definition file V1.4-3D
generated at Thu May 09 10:11:49 1996

network name : edge_23
source files :
no. of units : 70
no. of connections : 622
no. of unit types : 0
no. of site types : 0


learning function : Std_Backpropagation
update function : Topological_Order


unit default section :

act      | bias     | st | subnet | layer | act func     | out func
---------|----------|----|--------|-------|--------------|-------------
 0.00000 |  0.00000 | h  |      0 |     1 | Act_Logistic | Out_Identity
---------|----------|----|--------|-------|--------------|-------------


unit definition section :

no. | typeName | unitName | act      | bias     | st | position | act func | out func | sites
----|----------|----------|----------|----------|----|----------|----------|----------|-------
  1 |          |           |        0 |        0 | i  |  2, 1, 0 |||
  2 |          |           |        0 |        0 | i  |  2, 3, 0 |||
  3 |          |           |        0 |        0 | i  |  2, 4, 0 |||
  4 |          |           |        0 |        0 | i  |  2, 5, 0 |||
  5 |          |           |        0 |        0 | i  |  2, 7, 0 |||
  6 |          |           |        0 |        0 | i  |  2, 8, 0 |||
  7 |          |           |        0 |        0 | i  |  2, 9, 0 |||
  8 |          |           |        0 |        0 | i  |  2,11, 0 |||
  9 |          |           |        0 |        0 | i  |  2,12, 0 |||
 10 |          |           |        0 |        0 | i  |  2,13, 0 |||
 11 |          |           |        0 |        0 | i  |  2,14, 0 |||
 12 |          |           |        0 |        0 | i  |  2,15, 0 |||
 13 |          |           |        0 |        0 | i  |  2,16, 0 |||
 14 |          |           |        0 |        0 | i  |  2,17, 0 |||
 15 |          |           |        0 |        0 | i  |  2,18, 0 |||
 16 |          |           |        0 |        0 | i  |  2,23, 0 |||
 17 |          |           |        0 |        0 | i  |  2,24, 0 |||
 18 |          |           |        0 |        0 | i  |  2,25, 0 |||
 19 |          |           |        0 |        0 | i  |  2,27, 0 |||
 20 |          |           |        0 |        0 | i  |  2,28, 0 |||
 21 |          |           |        0 |        0 | i  |  2,19, 0 |||
 22 |          |           |        0 |        0 | i  |  2,20, 0 |||
 23 |          |           |        0 |        0 | i  |  2,21, 0 |||
 24 |          |           |        0 |  0.50882 | h  |  7, 3, 0 |||
 25 |          |           |        0 |  0.18152 | h  |  8, 3, 0 |||
 26 |          |           |        0 | -0.084597 | h  |  7, 4, 0 |||
 27 |          |           |        0 |  0.77871 | h  |  8, 4, 0 |||
 28 |          |           |        0 |  -1.0536 | h  |  7, 5, 0 |||
 29 |          |           |        0 |   1.7158 | h  |  8, 5, 0 |||
 30 |          |           |        0 |  0.53838 | h  |  7, 7, 0 |||
 31 |          |           |        0 | -0.85763 | h  |  8, 7, 0 |||
 32 |          |           |        0 |  -1.2123 | h  |  7, 8, 0 |||
 33 |          |           |        0 | -0.47957 | h  |  8, 8, 0 |||
 34 |          |           |        0 |  0.36073 | h  |  7, 9, 0 |||
 35 |          |           |        0 | -0.89979 | h  |  8, 9, 0 |||
 36 |          |           |        0 |  0.26162 | h  |  7,11, 0 |||
 37 |          |           |        0 |   1.2652 | h  |  8,11, 0 |||
 38 |          |           |        0 | -0.92411 | h  |  7,12, 0 |||
 39 |          |           |        0 | 0.087217 | h  |  8,12, 0 |||
 40 |          |           |        0 | -0.33096 | h  |  7,13, 0 |||
 41 |          |           |        0 |  0.50416 | h  |  8,13, 0 |||
 42 |          |           |        0 | 0.037902 | h  |  7,14, 0 |||
 43 |          |           |        0 |  0.67553 | h  |  8,14, 0 |||
 44 |          |           |        0 |   1.3414 | h  |  7,15, 0 |||
 45 |          |           |        0 |   1.3344 | h  |  8,15, 0 |||
 46 |          |           |        0 | -0.13828 | h  |  7,16, 0 |||
 47 |          |           |        0 | -0.15861 | h  |  8,16, 0 |||
 48 |          |           |        0 |  -0.1163 | h  |  7,17, 0 |||
 49 |          |           |        0 | -0.13347 | h  |  8,17, 0 |||
 50 |          |           |        0 |  0.90144 | h  |  7,22, 0 |||
 51 |          |           |        0 | -0.37826 | h  |  8,22, 0 |||
 52 |          |           |        0 |  0.62124 | h  |  7,23, 0 |||
 53 |          |           |        0 | -0.19688 | h  |  8,23, 0 |||
 54 |          |           |        0 | -0.31436 | h  |  7,24, 0 |||
 55 |          |           |        0 |  0.67915 | h  |  8,24, 0 |||
 56 |          |           |        0 |  0.30167 | h  |  7,26, 0 |||
 57 |          |           |        0 | -0.52856 | h  |  8,26, 0 |||
 58 |          |           |        0 |  0.50026 | h  |  7,27, 0 |||
 59 |          |           |        0 | -0.015137 | h  |  8,27, 0 |||
 60 |          |           |        0 |   1.0671 | h  | 13,12, 0 |||
 61 |          |           |        0 |   0.8768 | h  | 14,12, 0 |||
 62 |          |           |        0 |  0.20198 | h  | 13,13, 0 |||
 63 |          |           |        0 | -0.27708 | h  | 14,13, 0 |||
 64 |          |           |        0 | -0.53856 | h  | 13,14, 0 |||
 65 |          |           |        0 | -0.65885 | h  | 14,14, 0 |||
 66 |          |           |        0 | -0.45382 | h  | 13,15, 0 |||
 67 |          |           |        0 |  -0.7212 | h  | 14,15, 0 |||
 68 |          |           |        0 |  0.60395 | h  | 13,16, 0 |||
 69 |          |           |        0 |  0.53231 | h  | 14,16, 0 |||
 70 |          |           |        0 | -0.35269 | o  | 18,14, 0 |||
----|----------|----------|----------|----------|----|----------|----------|----------|-------


connection definition section :

target | site | source:weight
-------|------|------------------------------------------------------------------------------------------------------------
    24 |      |   1: 0.84802,   2:  1.0859,   3: 0.68815,   4: 0.52372
    25 |      |   1: 0.74159,   2:-0.96146,   3: 0.54647,   4:-0.70359
    26 |      |   1:-0.089332,   2:0.063832,   3: 0.91341,   4: 0.36525
    27 |      |   1: 0.77617,   2: 0.11898,   3: -1.2748,   4: 0.55304
    28 |      |   1: 0.68836,   2: 0.50617,   3:  0.7714,   4: 0.68099
    29 |      |   1:-0.68602,   2:-0.77803,   3:-0.34491,   4:  0.8048
    30 |      |   1:-0.18457,   5:-0.10418,   6:   0.094,   7:-0.76419
    31 |      |   1:-0.25552,   5:-0.44323,   6: 0.61477,   7:  1.0306
    32 |      |   1: 0.64106,   5:-0.58545,   6: -0.6393,   7:-0.13787
    33 |      |   1:  0.6005,   5:-0.00063558,   6:  1.2392,   7:0.061068
    34 |      |   1:-0.48212,   5:  0.4203,   6:  1.0167,   7:-0.51483
    35 |      |   1: 0.85303,   5:-0.51337,   6:-0.30353,   7:-0.78651
    36 |      |   1:-0.64541,   8:-0.17172,   9: 0.38007,  10: -0.7749,  11: 0.72349,  12:-0.57556,  13:-0.27404,  14:  1.0898, 
                 15: 0.18777,  21:-0.45297,  22:-0.80722,  23: 0.44827
    37 |      |   1:-0.71638,   8:-0.57709,   9:0.087597,  10: 0.93948,  11: 0.75736,  12:-0.050394,  13:-0.58533,  14: 0.27019, 
                 15: 0.98194,  21:-0.88705,  22: 0.25715,  23: 0.47654
    38 |      |   1: 0.22663,   8:-0.47677,   9:   -0.29,  10:  1.2088,  11:-0.28506,  12: 0.20967,  13: -1.2283,  14: 0.50563, 
                 15:-0.54736,  21: -0.2402,  22:-0.36548,  23: 0.78821
    39 |      |   1:-0.88375,   8:-0.71853,   9: -1.1978,  10: 0.24799,  11: 0.40751,  12: 0.24804,  13: 0.75019,  14: 0.19484, 
                 15:-0.95921,  21:  0.4944,  22: 0.46092,  23:-0.12503
    40 |      |   1:-0.0058912,   8:-0.011773,   9:0.0027996,  10:-0.31829,  11: -0.5612,  12: 0.63607,  13:  0.6175,  14:-0.12887, 
                 15: 0.48804,  21: -0.9488,  22:-0.97878,  23:-0.69655
    41 |      |   1:0.011837,   8:-0.15109,   9: 0.25385,  10:-0.66501,  11:-0.077084,  12: 0.46579,  13: 0.47994,  14:-0.15118, 
                 15:-0.31002,  21:-0.69254,  22:-0.77588,  23:-0.41607
    42 |      |   1:0.026862,   8:-0.75668,   9:-0.34395,  10: 0.97614,  11: 0.44409,  12: 0.37607,  13:-0.26339,  14:-0.86348, 
                 15:-0.76353,  21: 0.54661,  22: -1.0055,  23: 0.44774
    43 |      |   1: 0.71431,   8: 0.67123,   9:-0.014529,  10: -0.8724,  11:-0.91994,  12: 0.94188,  13:0.015419,  14: 0.20882, 
                 15: -0.3048,  21: 0.78134,  22:-0.36642,  23: 0.71489
    44 |      |   1: 0.49276,   8:-0.47594,   9: 0.70212,  10: -1.0988,  11: 0.28759,  12:-0.49058,  13:-0.60572,  14: 0.42296, 
                 15:-0.54756,  21: 0.66713,  22:-0.11148,  23: 0.15928
    45 |      |   1: 0.39639,   8:-0.14309,   9: -1.0111,  10: -0.1107,  11:-0.56511,  12:  1.2052,  13: -0.2241,  14:-0.0056232, 
                 15:  0.9874,  21:-0.17704,  22: 0.23001,  23:-0.47912
    46 |      |   1:  0.8007,   8:-0.84748,   9:-0.35606,  10: 0.70089,  11:  1.3329,  12:-0.025829,  13:0.096476,  14:  1.1427, 
                 15:-0.31563,  21:-0.073896,  22:-0.69877,  23: -0.6135
    47 |      |   1:-0.058283,   8:-0.36315,   9: 0.85047,  10: -0.7038,  11:-0.74461,  12: 0.33741,  13:  0.6801,  14:-0.41732, 
                 15:-0.29227,  21:  1.1295,  22: -0.2124,  23:-0.099424
    48 |      |   1:-0.71355,   8: 0.27811,   9:-0.86325,  10:-0.083172,  11: 0.49257,  12:-0.95396,  13: 0.55929,  14:-0.77315, 
                 15: 0.55292,  21: 0.51368,  22:-0.56116,  23: 0.57148
    49 |      |   1:-0.33979,   8:-0.52275,   9: 0.42213,  10: 0.28583,  11: 0.18263,  12:-0.59915,  13: 0.89095,  14: 0.26481, 
                 15:-0.25268,  21:-0.68373,  22:-0.62054,  23:-0.56765
    50 |      |   1:-0.35063,  16: -0.8685,  17: 0.98451,  18:0.044728
    51 |      |   1: 0.63324,  16:-0.0094628,  17: 0.56989,  18:-0.41714
    52 |      |   1: 0.39018,  16:-0.67316,  17:-0.54946,  18:-0.042192
    53 |      |   1:-0.15736,  16:-0.49028,  17:-0.90588,  18: 0.16108
    54 |      |   1: -0.9746,  16: -0.2329,  17:-0.36431,  18:-0.79438
    55 |      |   1: 0.35614,  16: 0.37488,  17:0.045397,  18:   0.683
    56 |      |   1: 0.96843,  19:-0.10904,  20:  1.1745
    57 |      |   1:    0.69,  19:0.051563,  20: -0.3066
    58 |      |   1:-0.81951,  19:0.040843,  20: 0.13951
    59 |      |   1: 0.49182,  19: 0.76021,  20:-0.11109
    60 |      |  24: -0.4089,  25:  1.3931,  26: 0.74027,  27:-0.52026,  28:-0.78887,  29:  1.6289,  30:  0.1618,  31:-0.20622, 
                 32:-0.62297,  33: 0.16707,  34: -1.3266,  35: 0.39071,  36:0.049208,  37: 0.71352,  38:-0.11575,  39:-0.40043, 
                 40:-0.89497,  41:-0.0085716,  42: 0.64042,  43: 0.80532,  44: 0.88844,  45: 0.13505,  46: 0.01766,  47:-0.93804, 
                 48: -0.8543,  49: 0.98823,  50: 0.96161,  51:  0.7708,  52: 0.27528,  53:-0.38934,  54:-0.60045,  55:  1.1339, 
                 56:-0.18712,  57:-0.90611,  58: -1.0092,  59:-0.17414
    61 |      |  24: 0.35221,  25: 0.61884,  26:  1.1841,  27:-0.27472,  28: 0.84433,  29: 0.34974,  30:  0.5496,  31: 0.36316, 
                 32:-0.89163,  33: -1.0165,  34: 0.43815,  35:-0.33237,  36: 0.98742,  37: 0.41081,  38: -0.8209,  39:-0.46011, 
                 40: 0.95306,  41:-0.37172,  42: -0.4608,  43: 0.51748,  44:-0.60492,  45:-0.63015,  46:-0.29518,  47: 0.17501, 
                 48:-0.25906,  49:-0.28077,  50: 0.53307,  51:-0.049352,  52:-0.30383,  53:-0.88722,  54:-0.34774,  55: 0.80468, 
                 56: 0.94729,  57:-0.35921,  58:-0.51979,  59: 0.48001
    62 |      |  24:-0.51377,  25: 0.32551,  26:   1.477,  27: -1.6512,  28: 0.78446,  29: -1.3331,  30:-0.87555,  31:  1.5729, 
                 32:-0.12992,  33:0.081992,  34: 0.83863,  35: 0.40891,  36: 0.47202,  37: 0.12822,  38:  1.6062,  39:   1.228, 
                 40: -1.0182,  41:-0.34005,  42:-0.034395,  43:0.057671,  44:-0.67139,  45:-0.80894,  46: 0.75837,  47: -0.6296, 
                 48: 0.91131,  49:0.022668,  50: -1.3057,  51:-0.55457,  52: 0.91262,  53:   1.014,  54:0.012022,  55:   0.755, 
                 56:-0.63984,  57:-0.43716,  58:  1.2402,  59: 0.21932
    63 |      |  24: -1.0917,  25: 0.07128,  26: 0.75199,  27:-0.26129,  28:0.084631,  29:-0.05008,  30:-0.82708,  31:-0.53249, 
                 32:-0.21462,  33:  1.0071,  34:-0.59975,  35: 0.66681,  36: 0.74676,  37:-0.049634,  38:  1.1954,  39: 0.25196, 
                 40:-0.61006,  41: -1.1559,  42: 0.30255,  43: 0.74236,  44:-0.96788,  45:  0.1161,  46: 0.11578,  47: 0.72634, 
                 48:-0.93817,  49:-0.21587,  50:-0.83926,  51:-0.48713,  52:  0.1121,  53: 0.47946,  54: 0.78859,  55:0.058803, 
                 56:-0.79702,  57: 0.44236,  58:  1.2117,  59: 0.30115
    64 |      |  24:-0.89486,  25: 0.62131,  26: 0.39905,  27:  1.1607,  28: 0.42922,  29: 0.44953,  30:  1.0707,  31:-0.47625, 
                 32:0.071047,  33:-0.14584,  34:-0.063548,  35: 0.14394,  36:  1.0585,  37:-0.34382,  38: 0.24937,  39: 0.45692, 
                 40: 0.83501,  41:-0.044135,  42: 0.65028,  43: -0.3438,  44:0.079865,  45:-0.54744,  46: 0.89134,  47:-0.67102, 
                 48: 0.65224,  49:0.075701,  50:-0.26663,  51:0.090873,  52:-0.088087,  53: -1.0071,  54: 0.66326,  55: 0.22448, 
                 56: 0.48674,  57: 0.22413,  58:0.064164,  59: 0.03953
    65 |      |  24: 0.24711,  25:  1.1722,  26: 0.81819,  27: -1.5877,  28: 0.72246,  29: -1.2587,  30:-0.89792,  31: 0.91159, 
                 32: 0.63916,  33:  1.0227,  34: 0.35194,  35:-0.27898,  36: 0.48195,  37: -1.0978,  38:  1.5904,  39:  1.1265, 
                 40: 0.62628,  41:-0.90668,  42: 0.89647,  43:-0.030198,  44: 0.17686,  45: -1.4064,  46:  1.1369,  47:0.042314, 
                 48:-0.57734,  49:0.049765,  50:-0.57074,  51: 0.39712,  52:-0.44938,  53:  1.2886,  54:  -0.536,  55: 0.32218, 
                 56: 0.47347,  57: 0.71208,  58: 0.63182,  59:-0.46996
    66 |      |  24: 0.35037,  25:   1.201,  26: 0.77581,  27: 0.50169,  28:-0.27656,  29:0.081142,  30:-0.093232,  31:-0.12177, 
                 32:  -0.368,  33:-0.87454,  34:-0.16226,  35:-0.096004,  36: 0.99282,  37: 0.96718,  38:  0.9156,  39:-0.73887, 
                 40: 0.72346,  41:  0.2709,  42:-0.48192,  43:-0.29539,  44: 0.83416,  45:-0.43917,  46:0.045764,  47: 0.42279, 
                 48: -0.7488,  49:-0.62508,  50: 0.14996,  51: 0.89777,  52: 0.75136,  53: 0.46062,  54: 0.89985,  55: 0.28588, 
                 56:  0.6801,  57: 0.72232,  58:-0.56031,  59:-0.68398
    67 |      |  24:-0.05634,  25: 0.68929,  26:-0.27184,  27: 0.73678,  28:-0.67505,  29: 0.78627,  30: 0.57687,  31:-0.59161, 
                 32: 0.75785,  33: 0.91414,  34:-0.95076,  35:-0.076526,  36: -0.4902,  37:-0.12075,  38:-0.14794,  39:-0.18198, 
                 40: 0.71135,  41: -1.0783,  42: 0.16029,  43:  -1.175,  44:-0.028291,  45:-0.18665,  46: 0.78378,  47:-0.50171, 
                 48:-0.12167,  49:0.014492,  50: -1.1797,  51: -0.1869,  52: 0.49872,  53:-0.57948,  54: 0.47847,  55:-0.18183, 
                 56: 0.85217,  57:-0.53416,  58:-0.44555,  59:-0.58115
    68 |      |  24:-0.63466,  25:-0.066666,  26:-0.66142,  27:-0.80244,  28: 0.28821,  29:0.048029,  30:-0.13177,  31:  1.1274, 
                 32: 0.69111,  33: 0.86065,  34:  1.0173,  35: 0.83994,  36:-0.21134,  37: 0.86471,  38: 0.11943,  39:  1.0275, 
                 40: 0.56849,  41: 0.74303,  42:0.00095918,  43:-0.17906,  44:  1.0178,  45: 0.62527,  46:-0.81226,  47:-0.54652, 
                 48: 0.32601,  49:0.088793,  50:-0.65803,  51: 0.75506,  52: 0.84507,  53:-0.093913,  54:-0.77423,  55:-0.90631, 
                 56: 0.77083,  57:-0.49918,  58:-0.58736,  59:0.098679
    69 |      |  24: 0.26039,  25:0.0048754,  26: 0.33982,  27:0.017726,  28:-0.38566,  29:  0.5571,  30: 0.79422,  31:-0.47538, 
                 32:-0.66302,  33: 0.48985,  34:-0.78071,  35:-0.90256,  36:-0.47792,  37:0.043389,  38: 0.91715,  39:-0.96627, 
                 40:0.059356,  41:-0.69415,  42: 0.25665,  43:-0.66142,  44:-0.19473,  45: 0.34018,  46: -1.0184,  47: 0.42526, 
                 48: 0.30909,  49:-0.88278,  50: 0.31158,  51: 0.56688,  52:-0.56178,  53:-0.77593,  54:-0.040599,  55: 0.60557, 
                 56: 0.30053,  57:-0.68113,  58:-0.67546,  59: 0.97248
    70 |      |  60: -2.3664,  61: -1.2419,  62:  2.8025,  63:  1.3666,  64:-0.89879,  65:  2.8073,  66: -1.4182,  67:  1.0782, 
                 68: 0.55019,  69:-0.84814
-------|------|----------------------------------------------------------------------------------------------------------------
