SNNS network definition file V1.4-3D
generated at Thu May 09 10:11:49 1996

network name : v27-23+8
source files :
no. of units : 59
no. of connections : 314
no. of unit types : 0
no. of site types : 0


learning function : Std_Backpropagation
update function : Topological_Order


unit default section :

act      | bias     | st | subnet | layer | act func     | out func
---------|----------|----|--------|-------|--------------|-------------
 0.00000 |  0.00000 | h  |      0 |     1 | Act_Logistic | Out_Identity
---------|----------|----|--------|-------|--------------|-------------


unit definition section :

no. | typeName | unitName | act      | bias     | st | position | act func | out func | sites
----|----------|----------|----------|----------|----|----------|----------|----------|-------
  1 |          |           |        0 |        0 | i  |  2, 1, 0 |||
  2 |          |           |  0.32444 |        0 | i  |  2, 3, 0 |||
  3 |          |           | -0.11124 |        0 | i  |  2, 4, 0 |||
  4 |          |           |  -2.9128 |        0 | i  |  2, 5, 0 |||
  5 |          |           |   -3.711 |        0 | i  |  2, 6, 0 |||
  6 |          |           |  0.30558 |        0 | i  |  2, 7, 0 |||
  7 |          |           |  0.10262 |        0 | i  |  2, 8, 0 |||
  8 |          |           |   2.5351 |        0 | i  |  2, 9, 0 |||
  9 |          |           |  0.83875 |        0 | i  |  2,10, 0 |||
 10 |          |           |   2.3139 |        0 | i  |  2,11, 0 |||
 11 |          |           |  0.96536 |        0 | i  |  2,12, 0 |||
 12 |          |           |        0 |        0 | i  |  2,14, 0 |||
 13 |          |           |  -4.0455 |        0 | i  |  2,15, 0 |||
 14 |          |           |  -2.8098 |        0 | i  |  2,16, 0 |||
 15 |          |           |  0.34476 |        0 | i  |  2,17, 0 |||
 16 |          |           |  0.39053 |        0 | i  |  2,18, 0 |||
 17 |          |           | -0.019443 |        0 | i  |  2,19, 0 |||
 18 |          |           |   2.7308 |        0 | i  |  2,20, 0 |||
 19 |          |           |    9.618 |        0 | i  |  2,22, 0 |||
 20 |          |           |  0.99578 |        0 | i  |  2,23, 0 |||
 21 |          |           | -0.35058 |        0 | i  |  2,24, 0 |||
 22 |          |           |        2 |        0 | i  |  2,26, 0 |||
 23 |          |           |        3 |        0 | i  |  2,27, 0 |||
 24 |          |           |        1 |        0 | i  |  2,28, 0 |||
 25 |          |           |    5.147 |        0 | i  |  2,29, 0 |||
 26 |          |           |   26.929 |        0 | i  |  2,30, 0 |||
 27 |          |           |   5.1322 |        0 | i  |  2,31, 0 |||
 28 |          |           |  0.99658 |  0.84258 | h  |  7, 3, 0 |||
 29 |          |           |  0.20451 |  0.60931 | h  |  7, 4, 0 |||
 30 |          |           |  0.39126 | -0.57358 | h  |  7, 5, 0 |||
 31 |          |           |  0.67449 |  0.48616 | h  |  8, 6, 0 |||
 32 |          |           |  0.05706 |  0.02337 | h  |  8, 7, 0 |||
 33 |          |           |  0.52929 | -0.25248 | h  |  8, 8, 0 |||
 34 |          |           |  0.53765 |  -1.0247 | h  |  7,10, 0 |||
 35 |          |           | 0.096576 |  0.38153 | h  |  7,11, 0 |||
 36 |          |           |   0.9175 | -0.76623 | h  |  7,12, 0 |||
 37 |          |           | 0.058648 |    0.891 | h  |  7,14, 0 |||
 38 |          |           |  0.97664 |  0.31722 | h  |  7,15, 0 |||
 39 |          |           |  0.32302 |  0.43222 | h  |  7,16, 0 |||
 40 |          |           |  0.85866 |   0.6407 | h  |  7,17, 0 |||
 41 |          |           | 0.0039925 |  0.28673 | h  |  7,19, 0 |||
 42 |          |           |  0.99793 | -0.53731 | h  |  7,20, 0 |||
 43 |          |           |  0.84123 |  0.51801 | h  |  7,22, 0 |||
 44 |          |           |  0.89452 |  0.83704 | h  |  7,23, 0 |||
 45 |          |           |  0.24227 | -0.25781 | h  |  7,24, 0 |||
 46 |          |           |        1 | -0.50307 | h  |  7,26, 0 |||
 47 |          |           |  0.88073 |   0.9039 | h  |  7,27, 0 |||
 48 |          |           |   0.9992 |  -1.8841 | h  |  7,28, 0 |||
 49 |          |           |  0.99968 | -0.26931 | h  |  7,29, 0 |||
 50 |          |           | 3.3687e-11 | -0.036414 | h  |  7,30, 0 |||
 51 |          |           |  0.97656 | -0.53032 | h  | 13,12, 0 |||
 52 |          |           |  0.80627 |  0.83353 | h  | 13,13, 0 |||
 53 |          |           |  0.56013 | -0.088333 | h  | 13,14, 0 |||
 54 |          |           |  0.95103 | -0.71165 | h  | 13,15, 0 |||
 55 |          |           |  0.96911 |   0.9991 | h  | 13,16, 0 |||
 56 |          |           |  0.95919 |  0.66973 | h  | 13,17, 0 |||
 57 |          |           |  0.72031 |  0.56752 | h  | 13,18, 0 |||
 58 |          |           |  0.07821 | -0.66747 | h  | 13,19, 0 |||
 59 |          |           |  0.99429 | -0.66858 | o  | 20,15, 0 |||
----|----------|----------|----------|----------|----|----------|----------|----------|-------


connection definition section :

target | site | source:weight
-------|------|------------------------------------------------------------------------------------------------------------
    28 |      |   1:0.095016,   2: 0.26398,   3:-0.95298,   4:-0.94906,   5:-0.50526
    29 |      |   1:-0.91154,   2: 0.78277,   3:-0.81967,   4:-0.18357,   5:  0.7673
    30 |      |   1: -1.0028,   2:-0.30869,   3:-0.47373,   4: 0.69744,   5:-0.59566
    31 |      |   1: 0.83634,   2: 0.76584,   6: -1.0486,   7: 0.96493,   8:0.084955
    32 |      |   1: 0.72619,   2:-0.93591,   6: -0.8115,   7: 0.85303,   8:-0.93257
    33 |      |   1:-0.0043818,   2: 0.10581,   6:-0.66243,   7:0.059501,   8: 0.20976
    34 |      |   1:-0.12151,   9: 0.67216,  10:   0.313,  11:-0.11647
    35 |      |   1:-0.78399,   9:-0.39555,  10:-0.97976,  11:-0.019252
    36 |      |   1: 0.85852,   9: 0.63538,  10:  1.0739,  11: 0.16301
    37 |      |   1: 0.74433,  12: 0.50653,  13: 0.95149,  14:-0.0038459,  15:  1.2053,  16: 0.84364,  17:-0.033366,  18:-0.21017
    38 |      |   1:-0.54155,  12: -0.9516,  13:-0.18045,  14:-0.19172,  15:0.029072,  16:-0.98305,  17: 0.56163,  18: 0.92725
    39 |      |   1:-0.92745,  12:-0.0095735,  13: 0.60689,  14:-0.63817,  15: 0.87489,  16: 0.53313,  17:0.048993,  18:-0.37313
    40 |      |   1: -0.4425,  12:-0.72974,  13:-0.45357,  14: 0.46799,  15: -1.0137,  16:-0.54733,  17: 0.27263,  18: 0.44384
    41 |      |   1:-0.12593,  19:-0.60366
    42 |      |   1:-0.22746,  19: 0.69841
    43 |      |   1: 0.58694,  20: 0.85474,  21:-0.85077
    44 |      |   1: 0.43969,  20:  1.2288,  21:-0.21995
    45 |      |   1:-0.060511,  20:-0.68006,  21: 0.58556
    46 |      |   1: 0.99019,  22: 0.12748,  23: 0.58679,  24: 0.40452,  25: 0.83982,  26: 0.29118,  27:-0.31305
    47 |      |   1: 0.56743,  22:-0.14189,  23:-0.81236,  24: -0.2082,  25:-0.66374,  26:  0.2218,  27: 0.28602
    48 |      |   1:-0.84863,  22:0.0097038,  23:0.078741,  24: 0.86151,  25: 0.67536,  26:-0.00051151,  27: 0.86397
    49 |      |   1:-0.42217,  22:-0.80356,  23: 0.57382,  24: 0.55563,  25:-0.45436,  26: 0.52498,  27: -0.8113
    50 |      |   1:-0.63056,  22: 0.35511,  23: 0.58473,  24:  0.9009,  25:-0.59015,  26:-0.86387,  27:-0.22258
    51 |      |  28: 0.14312,  29: 0.31065,  30: 0.94169,  31:  -1.234,  32: 0.17046,  33: 0.02623,  34: 0.66503,  35:-0.24633, 
                 36:  1.2869,  37: -1.6738,  38: 0.15068,  39: -1.1771,  40:  0.6665,  41:  0.3877,  42: 0.60498,  43: 0.38393, 
                 44:-0.91155,  45:-0.33596,  46:  1.2185,  47:-0.54501,  48:  2.0901,  49: -0.1202,  50: 0.19302
    52 |      |  28:-0.25776,  29:0.079095,  30:-0.65609,  31: 0.80308,  32: 0.33516,  33: 0.42467,  34:-0.40196,  35:-0.47099, 
                 36:0.067717,  37:-0.93838,  38:-0.33684,  39: -1.1767,  40: 0.61656,  41:-0.83696,  42:  0.1344,  43: 0.40002, 
                 44:-0.50325,  45:  0.7712,  46:-0.57588,  47: 0.38496,  48: 0.88237,  49: -0.1104,  50:0.073479
    53 |      |  28: 0.48325,  29:-0.66445,  30:-0.23262,  31:  0.3794,  32: 0.63336,  33:-0.85376,  34: 0.68524,  35:-0.55187, 
                 36: 0.31398,  37:-0.92216,  38:-0.66805,  39:-0.22221,  40: 0.50597,  41:0.048873,  42: 0.30899,  43:-0.37597, 
                 44: 0.36362,  45: 0.94635,  46:-0.39754,  47:-0.070667,  48:-0.82732,  49: 0.71567,  50:-0.52062
    54 |      |  28: 0.12394,  29:-0.86214,  30:-0.39166,  31:-0.36284,  32: 0.56468,  33: 0.22889,  34:-0.052945,  35:-0.48897, 
                 36:  1.1686,  37:-0.08879,  38:-0.54147,  39: -0.1874,  40:  0.9749,  41: -1.6407,  42:  1.4651,  43:-0.026129, 
                 44:-0.92969,  45:-0.85291,  46:  1.7092,  47:-0.17969,  48:  1.2276,  49:-0.43645,  50: -1.0574
    55 |      |  28: 0.30089,  29:-0.095225,  30: 0.49033,  31: 0.54853,  32:-0.37958,  33: 0.95281,  34:-0.65749,  35:  1.1551, 
                 36:-0.60582,  37:-0.034258,  38:-0.022021,  39:-0.61505,  40:-0.74367,  41:-0.62288,  42:0.034335,  43:-0.83883, 
                 44: 0.80722,  45: 0.80916,  46: 0.31597,  47:   1.016,  48:  0.4915,  49: 0.83459,  50:0.052035
    56 |      |  28: 0.72472,  29:-0.13547,  30: 0.41017,  31:-0.054411,  32:-0.92423,  33: 0.60843,  34: 0.46018,  35: 0.20268, 
                 36:-0.56668,  37:-0.13878,  38:-0.35721,  39:-0.13903,  40:-0.25682,  41:-0.18321,  42: -0.1621,  43: 0.23192, 
                 44: 0.59245,  45: 0.76521,  46: 0.41189,  47:  0.8099,  48: 0.89084,  49:-0.48821,  50: 0.95901
    57 |      |  28:-0.79093,  29: 0.58533,  30: 0.45254,  31: 0.89626,  32: 0.12687,  33: -0.6894,  34: 0.75217,  35:-0.19765, 
                 36: 0.25828,  37:0.080408,  38: 0.89874,  39: 0.16526,  40:-0.10428,  41:  0.2023,  42:-0.40336,  43: 0.22262, 
                 44:-0.82542,  45: 0.13262,  46:-0.70627,  47:-0.15079,  48:  1.0684,  49:-0.15341,  50:-0.91584
    58 |      |  28:-0.19162,  29:  0.5249,  30: 0.42866,  31:-0.28696,  32:    1.08,  33: 0.47153,  34:-0.70484,  35:-0.68923, 
                 36:-0.054198,  37:  1.1641,  38:-0.97247,  39:-0.42531,  40: 0.78388,  41:  1.2327,  42:-0.33042,  43: 0.38788, 
                 44: 0.34576,  45:-0.31626,  46: -1.0235,  47:   1.208,  48: -1.5762,  49: 0.14019,  50: 0.25543
    59 |      |  51:  3.2768,  52: 0.83359,  53:0.012346,  54:  3.0534,  55:-0.94859,  56: 0.05621,  57: 0.13624,  58: -2.3901
-------|------|----------------------------------------------------------------------------------------------------------------
