SNNS network definition file V1.4-3D
generated at Thu May 09 10:11:49 1996

network name : v27-23+8
source files :
no. of units : 59
no. of connections : 314
no. of unit types : 0
no. of site types : 0


learning function : Std_Backpropagation
update function : Topological_Order


unit default section :

act      | bias     | st | subnet | layer | act func     | out func
---------|----------|----|--------|-------|--------------|-------------
 0.00000 |  0.00000 | h  |      0 |     1 | Act_Logistic | Out_Identity
---------|----------|----|--------|-------|--------------|-------------


unit definition section :

no. | typeName | unitName | act      | bias     | st | position | act func | out func | sites
----|----------|----------|----------|----------|----|----------|----------|----------|-------
  1 |          |           |  0.32444 |        0 | i  |  2, 1, 0 |||
  2 |          |           |  0.32444 |        0 | i  |  2, 3, 0 |||
  3 |          |           | 0.043915 |        0 | i  |  2, 4, 0 |||
  4 |          |           |  -1.3981 |        0 | i  |  2, 5, 0 |||
  5 |          |           |  0.48684 |        0 | i  |  2, 6, 0 |||
  6 |          |           |  -2.7954 |        0 | i  |  2, 7, 0 |||
  7 |          |           |   1.6199 |        0 | i  |  2, 8, 0 |||
  8 |          |           | -0.88968 |        0 | i  |  2, 9, 0 |||
  9 |          |           | -0.68561 |        0 | i  |  2,10, 0 |||
 10 |          |           |   2.4324 |        0 | i  |  2,11, 0 |||
 11 |          |           | -0.44678 |        0 | i  |  2,12, 0 |||
 12 |          |           |  0.32444 |        0 | i  |  2,14, 0 |||
 13 |          |           | -0.61769 |        0 | i  |  2,15, 0 |||
 14 |          |           |  0.25179 |        0 | i  |  2,16, 0 |||
 15 |          |           | -0.83778 |        0 | i  |  2,17, 0 |||
 16 |          |           |   1.0864 |        0 | i  |  2,18, 0 |||
 17 |          |           |  0.68994 |        0 | i  |  2,19, 0 |||
 18 |          |           |  0.32786 |        0 | i  |  2,20, 0 |||
 19 |          |           |   5.9021 |        0 | i  |  2,22, 0 |||
 20 |          |           |   1.5856 |        0 | i  |  2,23, 0 |||
 21 |          |           |        0 |        0 | i  |  2,24, 0 |||
 22 |          |           |   3.7311 |        0 | i  |  2,26, 0 |||
 23 |          |           |   3.7311 |        0 | i  |  2,27, 0 |||
 24 |          |           |        0 |        0 | i  |  2,28, 0 |||
 25 |          |           |       30 |        0 | i  |  2,29, 0 |||
 26 |          |           | -0.40825 |        0 | i  |  2,30, 0 |||
 27 |          |           |   4.8903 |        0 | i  |  2,31, 0 |||
 28 |          |           |  0.77265 |   1.0687 | h  |  7, 3, 0 |||
 29 |          |           |  0.65706 |   1.2087 | h  |  7, 4, 0 |||
 30 |          |           | 0.098835 | -0.13782 | h  |  7, 5, 0 |||
 31 |          |           |  0.99189 |  0.83392 | h  |  8, 6, 0 |||
 32 |          |           |  0.97041 | -0.20155 | h  |  8, 7, 0 |||
 33 |          |           |  0.96268 | -0.23762 | h  |  8, 8, 0 |||
 34 |          |           |  0.12653 |  -1.0299 | h  |  7,10, 0 |||
 35 |          |           | 0.086666 |   0.2405 | h  |  7,11, 0 |||
 36 |          |           |  0.96156 |  0.27035 | h  |  7,12, 0 |||
 37 |          |           |  0.95335 |  0.97837 | h  |  7,14, 0 |||
 38 |          |           |  0.48879 |  0.64779 | h  |  7,15, 0 |||
 39 |          |           |  0.46598 |   0.9476 | h  |  7,16, 0 |||
 40 |          |           |  0.90277 |   1.5951 | h  |  7,17, 0 |||
 41 |          |           |  0.98966 | -0.61056 | h  |  7,19, 0 |||
 42 |          |           |  0.95924 | -0.55237 | h  |  7,20, 0 |||
 43 |          |           |  0.90837 |  0.53748 | h  |  7,22, 0 |||
 44 |          |           |  0.93828 |   0.8655 | h  |  7,23, 0 |||
 45 |          |           |  0.16329 | -0.027887 | h  |  7,24, 0 |||
 46 |          |           |        1 | -0.38775 | h  |  7,26, 0 |||
 47 |          |           | 6.1608e-12 |   1.2787 | h  |  7,27, 0 |||
 48 |          |           |        1 |  -2.5221 | h  |  7,28, 0 |||
 49 |          |           | 1.6246e-12 | -0.19037 | h  |  7,29, 0 |||
 50 |          |           |        1 | -0.21621 | h  |  7,30, 0 |||
 51 |          |           |  0.99386 | -0.72671 | h  | 13,12, 0 |||
 52 |          |           |  0.95303 |   1.0097 | h  | 13,13, 0 |||
 53 |          |           |   0.1643 |  0.01153 | h  | 13,14, 0 |||
 54 |          |           |  0.98214 | -0.53919 | h  | 13,15, 0 |||
 55 |          |           | 0.013358 |   0.7008 | h  | 13,16, 0 |||
 56 |          |           |  0.95309 |  0.69544 | h  | 13,17, 0 |||
 57 |          |           |  0.81078 |  0.64879 | h  | 13,18, 0 |||
 58 |          |           |  0.11307 |  -0.7986 | h  | 13,19, 0 |||
 59 |          |           |  0.99943 | -0.21696 | o  | 20,15, 0 |||
----|----------|----------|----------|----------|----|----------|----------|----------|-------


connection definition section :

target | site | source:weight
-------|------|------------------------------------------------------------------------------------------------------------
    28 |      |   1: 0.15497,   2: 0.32339,   3: -1.3589,   4:-0.17736,   5:-0.38793
    29 |      |   1:-0.73382,   2:  0.9546,   3: -1.2416,   4: 0.67124,   5: 0.74533
    30 |      |   1:-0.90723,   2:-0.24227,   3:-0.81926,   4:   1.054,   5:-0.39005
    31 |      |   1: 0.94771,   2: 0.79153,   6:-0.50207,   7: 0.92522,   8:-0.56857
    32 |      |   1: 0.70413,   2:-0.93812,   6:-0.54848,   7: 0.87293,   8:-0.92207
    33 |      |   1: 0.10282,   2: 0.23864,   6: -1.0048,   7: 0.43658,   8: 0.15604
    34 |      |   1:-0.038404,   9: 0.96795,  10:-0.15765,  11:-0.35249
    35 |      |   1:-0.85627,   9:-0.40991,  10: -1.0638,  11: 0.02473
    36 |      |   1:  1.2445,   9: 0.52719,  10:  1.2648,  11: 0.37974
    37 |      |   1: 0.82091,  12: 0.58311,  13:0.066267,  14: 0.77445,  15:-0.27806,  16: 0.66634,  17: 0.61825,  18: 0.14037
    38 |      |   1:-0.49174,  12:-0.90179,  13:-0.077532,  14:-0.038484,  15:-0.44676,  16: -1.3052,  17: 0.69803,  18: 0.86406
    39 |      |   1:-0.74685,  12: 0.17103,  13: 0.20811,  14: -1.7098,  15: 0.87595,  16:-0.17277,  17:  1.4907,  18: -1.3571
    40 |      |   1:-0.16864,  12:-0.45588,  13:  1.2025,  14:  1.8307,  15: -1.7617,  16:-0.68127,  17: 0.32073,  18: 0.48971
    41 |      |   1:-0.067443,  19:    0.88
    42 |      |   1:-0.22911,  19: 0.64133
    43 |      |   1: 0.57106,  20: 0.99084,  21:-0.72917
    44 |      |   1: 0.53198,  20:  1.0616,  21:-0.26687
    45 |      |   1:0.021981,  20: -1.0174,  21: 0.51493
    46 |      |   1: 0.76437,  22:-0.10508,  23: 0.43613,  24: 0.35291,  25:  0.7908,  26: 0.66769,  27:-0.61046
    47 |      |   1: 0.60542,  22:-0.095462,  23: -1.1927,  24: -0.2648,  25: -1.0171,  26: 0.17255,  27:  1.6566
    48 |      |   1:   -1.15,  22:-0.38171,  23:0.025807,  24: 0.82222,  25: 0.65806,  26:-0.40165,  27:  1.4561
    49 |      |   1:-0.35332,  22:-0.73026,  23: 0.38798,  24: 0.48476,  25:-0.77652,  26:  1.0629,  27:-0.37507
    50 |      |   1:-0.49532,  22: 0.56769,  23:  1.0791,  24:  1.0535,  25: 0.47189,  26: -1.0869,  27: 0.10908
    51 |      |  28:-0.19523,  29:0.042216,  30: 0.54946,  31:-0.75248,  32: 0.68778,  33:  1.0518,  34: 0.42516,  35:-0.55628, 
                 36:  1.4567,  37: -1.2884,  38: -1.0884,  39:  1.4707,  40: -2.1744,  41:  1.7963,  42: 0.80144,  43: 0.78846, 
                 44:-0.46517,  45: -0.9324,  46: 0.65081,  47: -1.0039,  48:  2.4445,  49: 0.23736,  50: 0.81058
    52 |      |  28:-0.15206,  29: 0.13833,  30:-0.71447,  31:  1.0722,  32: 0.56716,  33: 0.64416,  34:-0.34437,  35: -0.3823, 
                 36: 0.14061,  37: -0.6693,  38:-0.43723,  39:-0.87738,  40: 0.44432,  41: -0.6196,  42: 0.17039,  43: 0.66271, 
                 44:-0.24286,  45:   0.728,  46:-0.62822,  47: 0.40886,  48:  0.8366,  49:-0.071076,  50: 0.41305
    53 |      |  28: 0.71883,  29:-0.39428,  30:-0.16599,  31: 0.40034,  32:  0.5482,  33:-0.92901,  34: 0.71387,  35:-0.31111, 
                 36: 0.18726,  37:-0.72626,  38:-0.58122,  39:-0.61034,  40: 0.94921,  41:-0.099443,  42: 0.20694,  43:-0.30429, 
                 44: 0.39635,  45: 0.99914,  46:-0.42223,  47: 0.23379,  48: -1.0861,  49:  0.7441,  50:-0.64268
    54 |      |  28:-0.098122,  29: -1.0691,  30: -0.9342,  31: 0.13652,  32: 0.82186,  33:  0.8173,  34:0.059749,  35:-0.31119, 
                 36:  1.1782,  37: 0.42828,  38:-0.70221,  39:  1.1459,  40: -0.0372,  41:-0.60902,  42:  1.3005,  43: 0.19023, 
                 44:-0.82457,  45:-0.87835,  46:  1.3032,  47:-0.37829,  48:  1.0162,  49:-0.010661,  50:-0.20161
    55 |      |  28: 0.63618,  29: 0.60809,  30: 0.72416,  31: 0.19911,  32:-0.92902,  33: 0.45752,  34:-0.91299,  35:  1.3598, 
                 36: -1.0183,  37:-0.28031,  38:-0.23063,  39: -1.8874,  40: 0.13354,  41: -1.4008,  42:-0.39317,  43:-0.92747, 
                 44: 0.64934,  45: 0.60513,  46:  0.1853,  47:  2.0302,  48:-0.49858,  49:  1.1975,  50: -1.3751
    56 |      |  28: 0.68174,  29:-0.25352,  30: 0.36123,  31:0.015634,  32:-0.83399,  33: 0.67789,  34: 0.47625,  35:  0.1929, 
                 36:-0.53611,  37:-0.060094,  38:-0.38093,  39:-0.10264,  40:-0.31426,  41:-0.091893,  42:-0.16056,  43: 0.24595, 
                 44:   0.608,  45: 0.77564,  46:  0.3981,  47: 0.70485,  48: 0.90284,  49: -0.4787,  50:  1.0984
    57 |      |  28: -0.8954,  29: 0.53034,  30: 0.39486,  31:  1.0061,  32: 0.24233,  33:-0.57542,  34: 0.86572,  35:-0.24485, 
                 36: 0.40503,  37: 0.12573,  38: 0.87665,  39: 0.69266,  40:-0.43342,  41: 0.39515,  42:-0.31892,  43: 0.25685, 
                 44:-0.76953,  45: 0.18831,  46:-0.60436,  47:-0.28586,  48:  1.2227,  49:-0.017056,  50:-0.77166
    58 |      |  28: 0.25301,  29:  1.2967,  30: 0.61167,  31:-0.54278,  32: 0.62204,  33:-0.021252,  34:-0.89291,  35:-0.40308, 
                 36:-0.40771,  37: 0.88322,  38: -1.0876,  39:  -1.549,  40:  1.7234,  41: 0.64279,  42:-0.38851,  43: 0.25823, 
                 44: 0.12189,  45:-0.32267,  46:-0.83886,  47:  2.0065,  48: -1.9543,  49: 0.25372,  50:-0.78496
    59 |      |  51:  4.4161,  52: 0.52044,  53: -1.0115,  54:  2.2235,  55: -3.0564,  56: 0.48912,  57: 0.90959,  58: -3.3068
-------|------|----------------------------------------------------------------------------------------------------------------
