SNNS network definition file V1.4-3D
generated at Thu May 09 10:11:49 1996

network name : v27-23+8
source files :
no. of units : 59
no. of connections : 314
no. of unit types : 0
no. of site types : 0


learning function : Std_Backpropagation
update function : Topological_Order


unit default section :

act      | bias     | st | subnet | layer | act func     | out func
---------|----------|----|--------|-------|--------------|-------------
 0.00000 |  0.00000 | h  |      0 |     1 | Act_Logistic | Out_Identity
---------|----------|----|--------|-------|--------------|-------------


unit definition section :

no. | typeName | unitName | act      | bias     | st | position | act func | out func | sites
----|----------|----------|----------|----------|----|----------|----------|----------|-------
  1 |          |           |        0 |        0 | i  |  2, 1, 0 |||
  2 |          |           |        0 |        0 | i  |  2, 3, 0 |||
  3 |          |           |        0 |        0 | i  |  2, 4, 0 |||
  4 |          |           |        0 |        0 | i  |  2, 5, 0 |||
  5 |          |           |        0 |        0 | i  |  2, 6, 0 |||
  6 |          |           |        0 |        0 | i  |  2, 7, 0 |||
  7 |          |           |        0 |        0 | i  |  2, 8, 0 |||
  8 |          |           |        0 |        0 | i  |  2, 9, 0 |||
  9 |          |           |        0 |        0 | i  |  2,10, 0 |||
 10 |          |           |        0 |        0 | i  |  2,11, 0 |||
 11 |          |           |        0 |        0 | i  |  2,12, 0 |||
 12 |          |           |        0 |        0 | i  |  2,14, 0 |||
 13 |          |           |        0 |        0 | i  |  2,15, 0 |||
 14 |          |           |        0 |        0 | i  |  2,16, 0 |||
 15 |          |           |        0 |        0 | i  |  2,17, 0 |||
 16 |          |           |        0 |        0 | i  |  2,18, 0 |||
 17 |          |           |        0 |        0 | i  |  2,19, 0 |||
 18 |          |           |        0 |        0 | i  |  2,20, 0 |||
 19 |          |           |        0 |        0 | i  |  2,22, 0 |||
 20 |          |           |        0 |        0 | i  |  2,23, 0 |||
 21 |          |           |        0 |        0 | i  |  2,24, 0 |||
 22 |          |           |        0 |        0 | i  |  2,26, 0 |||
 23 |          |           |        0 |        0 | i  |  2,27, 0 |||
 24 |          |           |        0 |        0 | i  |  2,28, 0 |||
 25 |          |           |        0 |        0 | i  |  2,29, 0 |||
 26 |          |           |        0 |        0 | i  |  2,30, 0 |||
 27 |          |           |        0 |        0 | i  |  2,31, 0 |||
 28 |          |           |        0 |   1.0348 | h  |  7, 3, 0 |||
 29 |          |           |        0 |  0.72804 | h  |  7, 4, 0 |||
 30 |          |           |        0 | -0.44165 | h  |  7, 5, 0 |||
 31 |          |           |        0 |    1.174 | h  |  8, 6, 0 |||
 32 |          |           |        0 |  0.46808 | h  |  8, 7, 0 |||
 33 |          |           |        0 | -0.081691 | h  |  8, 8, 0 |||
 34 |          |           |        0 |  0.46305 | h  |  7,10, 0 |||
 35 |          |           |        0 |  0.96053 | h  |  7,11, 0 |||
 36 |          |           |        0 | -0.34902 | h  |  7,12, 0 |||
 37 |          |           |        0 | -0.03795 | h  |  7,14, 0 |||
 38 |          |           |        0 |  0.72564 | h  |  7,15, 0 |||
 39 |          |           |        0 |  0.38983 | h  |  7,16, 0 |||
 40 |          |           |        0 |  0.27237 | h  |  7,17, 0 |||
 41 |          |           |        0 |  0.34718 | h  |  7,19, 0 |||
 42 |          |           |        0 | -0.21442 | h  |  7,20, 0 |||
 43 |          |           |        0 | -0.64527 | h  |  7,22, 0 |||
 44 |          |           |        0 |  -0.4156 | h  |  7,23, 0 |||
 45 |          |           |        0 | -0.98409 | h  |  7,24, 0 |||
 46 |          |           |        0 |  -1.3704 | h  |  7,26, 0 |||
 47 |          |           |        0 |  0.17526 | h  |  7,27, 0 |||
 48 |          |           |        0 |   1.5525 | h  |  7,28, 0 |||
 49 |          |           |        0 | -0.83546 | h  |  7,29, 0 |||
 50 |          |           |        0 |  0.46452 | h  |  7,30, 0 |||
 51 |          |           |        0 |  0.31319 | h  | 13,12, 0 |||
 52 |          |           |        0 | -0.13422 | h  | 13,13, 0 |||
 53 |          |           |        0 | -0.59299 | h  | 13,14, 0 |||
 54 |          |           |        0 |  -0.2956 | h  | 13,15, 0 |||
 55 |          |           |        0 | -0.77876 | h  | 13,16, 0 |||
 56 |          |           |        0 | -0.39005 | h  | 13,17, 0 |||
 57 |          |           |        0 | -0.75482 | h  | 13,18, 0 |||
 58 |          |           |        0 | -0.55106 | h  | 13,19, 0 |||
 59 |          |           |        0 | -0.19888 | o  | 20,15, 0 |||
----|----------|----------|----------|----------|----|----------|----------|----------|-------


connection definition section :

target | site | source:weight
-------|------|------------------------------------------------------------------------------------------------------------
    28 |      |   1: 0.86805,   2:  1.0136,   3:  1.3754,   4:0.077355,   5: 0.18761
    29 |      |   1: -0.6925,   2:-0.073766,   3:-0.51603,   4:-0.65821,   5:-0.49417
    30 |      |   1: 0.56324,   2: 0.53657,   3:-0.11384,   4:  1.0428,   5:  0.5791
    31 |      |   1: 0.18042,   2:0.061818,   6:  1.1685,   7:-0.47814,   8:   1.482
    32 |      |   1:-0.70091,   2:-0.72771,   6: -0.1236,   7:-0.01705,   8: 0.63194
    33 |      |   1:-0.17464,   2: 0.43901,   6:  0.6183,   7:-0.38241,   8:-0.73441
    34 |      |   1:-0.76446,   9:-0.89054,  10:  1.1958,  11:-0.61047
    35 |      |   1:-0.40574,   9:  -1.116,  10: 0.37587,  11:-0.40563
    36 |      |   1:0.057283,   9: 0.77295,  10:-0.73983,  11:-0.52451
    37 |      |   1: 0.97938,  12:  0.5874,  13: -1.2128,  14: 0.59466,  15: 0.82954,  16:-0.53466,  17:-0.001105,  18:0.012351
    38 |      |   1:-0.51631,  12: 0.22279,  13: 0.88271,  14:-0.43455,  15: 0.99157,  16:-0.39007,  17: 0.40897,  18: 0.57699
    39 |      |   1:-0.47531,  12: -0.7764,  13: 0.24251,  14: 0.16086,  15:-0.94723,  16:-0.21679,  17:  -0.293,  18: 0.26083
    40 |      |   1:-0.13961,  12: -0.7747,  13: 0.93501,  14: 0.25488,  15:-0.43832,  16: 0.52124,  17:  1.3175,  18:  1.1013
    41 |      |   1:-0.47176,  19:-0.87012
    42 |      |   1:-0.28663,  19:-0.53378
    43 |      |   1:-0.64733,  20: 0.78043,  21:-0.51732
    44 |      |   1:  0.7554,  20:-0.75798,  21:-0.80976
    45 |      |   1:-0.49968,  20: 0.83511,  21: 0.43921
    46 |      |   1: 0.90886,  22: 0.39034,  23: 0.57643,  24: 0.33504,  25: 0.44363,  26: 0.14451,  27: 0.39776
    47 |      |   1:-0.020527,  22: 0.15625,  23: 0.44276,  24:-0.059276,  25: 0.85537,  26:0.0072296,  27:-0.19093
    48 |      |   1:-0.82625,  22: -2.1638,  23:-0.072198,  24:  1.6799,  25: 0.17834,  26:  0.7265,  27: 0.54152
    49 |      |   1:-0.008248,  22:  1.2961,  23: 0.72244,  24: 0.11053,  25:  0.4429,  26:-0.82684,  27: -0.8057
    50 |      |   1: 0.12326,  22:-0.42188,  23: -1.2043,  24:-0.42902,  25:  1.2729,  26:  0.5614,  27: 0.45956
    51 |      |  28: -1.8189,  29:-0.75042,  30:  1.1472,  31: -1.8139,  32:0.059167,  33:-0.017681,  34:  1.1827,  35:  1.1968, 
                 36:-0.28817,  37:-0.68666,  38: -1.0402,  39: 0.82206,  40: -1.0532,  41:-0.051913,  42:-0.34421,  43:  1.3873, 
                 44:-0.52156,  45:  1.5658,  46:  2.0751,  47:  1.0783,  48: -2.7722,  49:  2.4367,  50: -1.2059
    52 |      |  28: -0.3078,  29:-0.43612,  30: 0.73188,  31:-0.24754,  32: 0.96426,  33: 0.22736,  34: 0.53132,  35:  1.0665, 
                 36: 0.44564,  37: 0.17947,  38:-0.74946,  39: 0.08553,  40:-0.65989,  41: 0.89386,  42:-0.33343,  43: 0.29827, 
                 44: 0.93134,  45:-0.12893,  46: 0.37442,  47:-0.17768,  48: 0.83583,  49:  1.1776,  50:-0.45901
    53 |      |  28: 0.87914,  29: 0.92624,  30:-0.70799,  31: 0.82142,  32: 0.69184,  33:-0.59375,  34:0.095257,  35:-0.55693, 
                 36:-0.24001,  37: -0.1229,  38:0.020368,  39:-0.46398,  40: 0.90843,  41:  -0.468,  42:-0.45772,  43:  0.3023, 
                 44: 0.69992,  45:-0.46531,  46: -0.7903,  47: 0.86798,  48:-0.32954,  49:-0.32956,  50: 0.12865
    54 |      |  28: 0.93029,  29:-0.72133,  30: 0.22367,  31: 0.65358,  32: -0.8701,  33: 0.79254,  34:-0.65114,  35: 0.93206, 
                 36: 0.46721,  37:-0.23256,  38: 0.52494,  39: 0.17116,  40:-0.31064,  41:-0.45275,  42: 0.43454,  43: 0.40367, 
                 44: 0.12821,  45:-0.62973,  46: 0.83942,  47: 0.36211,  48: 0.56767,  49: -1.1724,  50:-0.11973
    55 |      |  28:-0.49082,  29:-0.22364,  30: -1.0129,  31: 0.32834,  32: 0.46701,  33:0.096917,  34: 0.53312,  35:-0.09983, 
                 36: 0.38023,  37: -0.7724,  38:-0.64669,  39: 0.49282,  40:-0.84408,  41:-0.42689,  42: 0.15004,  43: 0.60205, 
                 44:-0.051789,  45:-0.23156,  46:-0.28398,  47: 0.45374,  48:-0.37256,  49:-0.55397,  50:-0.38828
    56 |      |  28:-0.36801,  29:-0.40966,  30: 0.46749,  31:0.022071,  32:-0.26296,  33: 0.95345,  34:  0.5741,  35:  1.0186, 
                 36:-0.69259,  37:  1.3457,  38:-0.020335,  39: 0.68807,  40:-0.17057,  41:-0.52817,  42:-0.60532,  43:-0.39508, 
                 44:0.0053233,  45: 0.25723,  46:  1.0317,  47: 0.89348,  48:  1.3391,  49:-0.50823,  50: 0.32009
    57 |      |  28: 0.50832,  29: 0.79617,  30:-0.74905,  31:-0.33159,  32: 0.92973,  33:-0.038213,  34:-0.15791,  35:-0.89219, 
                 36:  0.8677,  37: -0.9717,  38: 0.48913,  39:-0.15234,  40: 0.91082,  41:0.033942,  42:-0.21035,  43:-0.87209, 
                 44:-0.073802,  45: 0.87186,  46: 0.94438,  47: 0.72187,  48: -0.5428,  49:-0.16175,  50:-0.97822
    58 |      |  28:0.061809,  29: 0.80508,  30: 0.29923,  31:0.079114,  32:-0.26115,  33:-0.70907,  34:  0.7888,  35:-0.81351, 
                 36:-0.83046,  37: -1.4057,  38:-0.13215,  39: 0.73552,  40:0.074872,  41: 0.49952,  42: 0.90487,  43:-0.20927, 
                 44: 0.71373,  45: 0.28499,  46: 0.60265,  47: 0.22992,  48: -1.8625,  49:-0.24877,  50:-0.11426
    59 |      |  51:  5.4404,  52: 0.36983,  53:-0.13231,  54:-0.89288,  55: 0.89932,  56: -1.7297,  57: 0.88897,  58:  1.4399
-------|------|----------------------------------------------------------------------------------------------------------------
