SNNS network definition file V1.4-3D
generated at Thu May 09 10:11:49 1996

network name : v27-23+8
source files :
no. of units : 59
no. of connections : 314
no. of unit types : 0
no. of site types : 0


learning function : Std_Backpropagation
update function : Topological_Order


unit default section :

act      | bias     | st | subnet | layer | act func     | out func
---------|----------|----|--------|-------|--------------|-------------
 0.00000 |  0.00000 | h  |      0 |     1 | Act_Logistic | Out_Identity
---------|----------|----|--------|-------|--------------|-------------


unit definition section :

no. | typeName | unitName | act      | bias     | st | position | act func | out func | sites
----|----------|----------|----------|----------|----|----------|----------|----------|-------
  1 |          |           |        0 |        0 | i  |  2, 1, 0 |||
  2 |          |           |        0 |        0 | i  |  2, 3, 0 |||
  3 |          |           |  0.92959 |        0 | i  |  2, 4, 0 |||
  4 |          |           |  -4.4267 |        0 | i  |  2, 5, 0 |||
  5 |          |           |  0.66921 |        0 | i  |  2, 6, 0 |||
  6 |          |           | -0.30381 |        0 | i  |  2, 7, 0 |||
  7 |          |           |   1.4371 |        0 | i  |  2, 8, 0 |||
  8 |          |           |   1.1969 |        0 | i  |  2, 9, 0 |||
  9 |          |           | -0.23564 |        0 | i  |  2,10, 0 |||
 10 |          |           | -0.58932 |        0 | i  |  2,11, 0 |||
 11 |          |           |   1.6893 |        0 | i  |  2,12, 0 |||
 12 |          |           |        0 |        0 | i  |  2,14, 0 |||
 13 |          |           |  0.56244 |        0 | i  |  2,15, 0 |||
 14 |          |           |  0.51812 |        0 | i  |  2,16, 0 |||
 15 |          |           | 0.054079 |        0 | i  |  2,17, 0 |||
 16 |          |           |  0.28237 |        0 | i  |  2,18, 0 |||
 17 |          |           | -0.80001 |        0 | i  |  2,19, 0 |||
 18 |          |           |  0.30872 |        0 | i  |  2,20, 0 |||
 19 |          |           |   25.371 |        0 | i  |  2,22, 0 |||
 20 |          |           |    6.249 |        0 | i  |  2,23, 0 |||
 21 |          |           |        0 |        0 | i  |  2,24, 0 |||
 22 |          |           | -0.19999 |        0 | i  |  2,26, 0 |||
 23 |          |           |   14.722 |        0 | i  |  2,27, 0 |||
 24 |          |           |       31 |        0 | i  |  2,28, 0 |||
 25 |          |           |   1.1634 |        0 | i  |  2,29, 0 |||
 26 |          |           |   8.5128 |        0 | i  |  2,30, 0 |||
 27 |          |           |   20.701 |        0 | i  |  2,31, 0 |||
 28 |          |           | 0.041245 |   1.5307 | h  |  7, 3, 0 |||
 29 |          |           | 0.093213 |  0.55934 | h  |  7, 4, 0 |||
 30 |          |           |   0.9171 | -0.78375 | h  |  7, 5, 0 |||
 31 |          |           |  0.29782 |  0.14558 | h  |  8, 6, 0 |||
 32 |          |           |  0.79925 |  0.24416 | h  |  8, 7, 0 |||
 33 |          |           |  0.24199 | -0.73692 | h  |  8, 8, 0 |||
 34 |          |           | 0.097229 | -0.88313 | h  |  7,10, 0 |||
 35 |          |           |  0.71893 | -0.45617 | h  |  7,11, 0 |||
 36 |          |           |  0.24228 | -0.053112 | h  |  7,12, 0 |||
 37 |          |           |  0.92974 |  0.59186 | h  |  7,14, 0 |||
 38 |          |           |  0.67713 | -0.10112 | h  |  7,15, 0 |||
 39 |          |           |  0.68707 |  0.47381 | h  |  7,16, 0 |||
 40 |          |           |  0.51766 | -0.22084 | h  |  7,17, 0 |||
 41 |          |           | 3.6493e-07 | -0.68866 | h  |  7,19, 0 |||
 42 |          |           |        1 | -0.38573 | h  |  7,20, 0 |||
 43 |          |           | 0.0013669 |  0.26744 | h  |  7,22, 0 |||
 44 |          |           | 0.0017544 |    1.251 | h  |  7,23, 0 |||
 45 |          |           | 0.0076402 |  -0.6997 | h  |  7,24, 0 |||
 46 |          |           |  0.99993 |   -0.983 | h  |  7,26, 0 |||
 47 |          |           | 0.023225 |  0.73385 | h  |  7,27, 0 |||
 48 |          |           |        1 | -0.59429 | h  |  7,28, 0 |||
 49 |          |           |   0.9046 | -0.90554 | h  |  7,29, 0 |||
 50 |          |           |        1 | -0.012725 | h  |  7,30, 0 |||
 51 |          |           |  0.93732 | -0.14741 | h  | 13,12, 0 |||
 52 |          |           |  0.51358 | -0.91507 | h  | 13,13, 0 |||
 53 |          |           |  0.09909 | -0.62149 | h  | 13,14, 0 |||
 54 |          |           |  0.89846 |   0.5356 | h  | 13,15, 0 |||
 55 |          |           |  0.39485 |  0.46369 | h  | 13,16, 0 |||
 56 |          |           |  0.40823 |  0.38188 | h  | 13,17, 0 |||
 57 |          |           |  0.95234 |   0.3017 | h  | 13,18, 0 |||
 58 |          |           |  0.18528 | -0.55412 | h  | 13,19, 0 |||
 59 |          |           |  0.98752 |  0.37715 | o  | 20,15, 0 |||
----|----------|----------|----------|----------|----|----------|----------|----------|-------


connection definition section :

target | site | source:weight
-------|------|------------------------------------------------------------------------------------------------------------
    28 |      |   1:-0.15966,   2: 0.41378,   3:-0.68665,   4: 0.89859,   5:-0.090728
    29 |      |   1: 0.79858,   2: 0.21104,   3: 0.10527,   4: 0.53184,   5: -0.8636
    30 |      |   1:-0.86267,   2:-0.91632,   3:-0.25239,   4:-0.66356,   5: 0.72418
    31 |      |   1: 0.78025,   2: 0.27087,   6:  0.7078,   7:-0.59536,   8: 0.05627
    32 |      |   1: 0.10177,   2: 0.53186,   6:-0.42397,   7: 0.72644,   8:-0.029519
    33 |      |   1:-0.34548,   2:  0.3721,   6:-0.17184,   7:  0.0787,   8:-0.47635
    34 |      |   1: 0.16709,   9:-0.23353,  10: 0.23507,  11:-0.74693
    35 |      |   1: 0.35527,   9: 0.81293,  10:-0.70729,  11: 0.69265
    36 |      |   1:-0.35661,   9: 0.14741,  10: 0.21407,  11: -0.5483
    37 |      |   1:-0.55462,  12:-0.20238,  13:  0.6347,  14:  0.7956,  15:  0.1687,  16: 0.47484,  17:-0.91567,  18:  1.1202
    38 |      |   1: 0.52343,  12:-0.68058,  13:  0.2441,  14: -0.3859,  15:-0.28946,  16:  1.2589,  17:-0.68864,  18:0.044167
    39 |      |   1: 0.53589,  12:-0.011861,  13:-0.19966,  14:-0.31773,  15:-0.59105,  16:-0.26259,  17:-0.58383,  18: 0.74048
    40 |      |   1: 0.45579,  12:-0.82337,  13:  1.0349,  14: 0.74214,  15:-0.73885,  16:-0.35329,  17: 0.48625,  18:-0.47405
    41 |      |   1:-0.44346,  19:-0.55713
    42 |      |   1:-0.78716,  19: 0.90946
    43 |      |   1: 0.24984,  20:  -1.098,  21:-0.96218
    44 |      |   1: -0.6377,  20: -1.2154,  21: 0.77487
    45 |      |   1: 0.67221,  20:-0.66682,  21: -0.2485
    46 |      |   1: 0.19665,  22: 0.34593,  23:  1.4739,  24:  0.4299,  25:-0.12436,  26: 0.37521,  27: -1.3244
    47 |      |   1:-0.47572,  22: 0.15962,  23: 0.93819,  24:-0.086197,  25: 0.79218,  26:-0.79372,  27:-0.47081
    48 |      |   1:-0.51864,  22: 0.36067,  23: 0.30738,  24:  1.5358,  25: 0.72346,  26:-0.81613,  27: -1.2131
    49 |      |   1: 0.20679,  22:0.066602,  23: 0.44376,  24:-0.15199,  25: 0.43163,  26: 0.62364,  27:-0.21566
    50 |      |   1:0.031443,  22: 0.46989,  23: 0.33474,  24:  0.6304,  25: 0.37572,  26:0.080556,  27:0.0096032
    51 |      |  28:-0.53519,  29: 0.74217,  30:-0.75266,  31:-0.69367,  32: 0.90342,  33: 0.28947,  34:-0.75114,  35:-0.28467, 
                 36:-0.90813,  37:-0.28224,  38:-0.41401,  39:-0.26127,  40:0.072527,  41: 0.50157,  42:-0.28911,  43:-0.96324, 
                 44: -1.4022,  45: 0.82842,  46:   1.564,  47: 0.93546,  48:  1.9576,  49:  0.1153,  50: 0.73149
    52 |      |  28: 0.82949,  29:-0.36619,  30:-0.70199,  31:-0.20269,  32:-0.93904,  33: -0.7823,  34:-0.60831,  35:-0.35004, 
                 36: 0.91458,  37:-0.42808,  38:  0.0503,  39: 0.77484,  40: 0.90901,  41: 0.34913,  42:-0.67023,  43:-0.90255, 
                 44:-0.96129,  45:  -0.233,  46: 0.28306,  47: 0.27144,  48:  1.0869,  49:  0.7879,  50: 0.64951
    53 |      |  28: 0.67639,  29: 0.03162,  30: 0.28424,  31: 0.47933,  32: 0.69381,  33:-0.18256,  34:-0.76906,  35: 0.48696, 
                 36: 0.35449,  37:-0.35162,  38:-0.76546,  39:  0.5003,  40:-0.19217,  41:-0.43408,  42:-0.95985,  43:-0.28255, 
                 44: 0.25222,  45:0.016269,  46:-0.52595,  47:0.022963,  48:-0.77091,  49:-0.12217,  50:0.075741
    54 |      |  28: 0.60527,  29:-0.70333,  30: 0.72069,  31: 0.59501,  32:-0.82313,  33: 0.31078,  34: 0.57861,  35: 0.78461, 
                 36:-0.76685,  37:0.014003,  38: 0.18875,  39:  1.0681,  40: 0.65128,  41: 0.28416,  42: 0.61308,  43:-0.088366, 
                 44: 0.89594,  45: 0.61933,  46:-0.40424,  47:-0.069885,  48:-0.55079,  49:-0.45019,  50: 0.52799
    55 |      |  28: 0.53345,  29: 0.91838,  30:-0.83145,  31: 0.72957,  32:-0.42679,  33: 0.39785,  34:  1.0163,  35:-0.85475, 
                 36:  0.7542,  37: 0.51538,  38: 0.66551,  39: 0.70566,  40: -0.2241,  41: 0.43169,  42:0.077683,  43:  0.1878, 
                 44:-0.60761,  45:-0.58645,  46:-0.35659,  47: 0.53638,  48: 0.22564,  49:-0.85272,  50:-0.35642
    56 |      |  28:  1.0132,  29: 0.11002,  30: -0.9544,  31:-0.84758,  32: 0.34385,  33: 0.44489,  34: 0.51377,  35:-0.43914, 
                 36: 0.24283,  37: 0.77856,  38:-0.79943,  39: 0.97891,  40: 0.12824,  41:-0.81188,  42:-0.95891,  43: -0.1796, 
                 44: 0.81563,  45: 0.80204,  46:-0.79368,  47:-0.65602,  48:-0.050388,  49: 0.63968,  50: 0.45762
    57 |      |  28: -1.2897,  29:-0.72769,  30: 0.15713,  31: 0.50104,  32:-0.48938,  33: -1.1064,  34:0.096607,  35:-0.37247, 
                 36:-0.018561,  37:0.018456,  38:-0.18413,  39: -0.9681,  40:-0.47026,  41:-0.57948,  42:0.0043657,  43: 0.74802, 
                 44: -1.3198,  45: 0.68928,  46:  1.3955,  47: 0.51329,  48:  1.5623,  49: 0.87475,  50: 0.68949
    58 |      |  28:  1.0045,  29:-0.48127,  30:-0.76757,  31: 0.11424,  32:-0.62494,  33: 0.61254,  34:-0.59308,  35:-0.66976, 
                 36:  1.0096,  37: 0.96233,  38: 0.93932,  39:0.0083444,  40: 0.80286,  41:-0.037604,  42: 0.32321,  43:0.020212, 
                 44:-0.23208,  45:   0.867,  46:-0.20101,  47:-0.12188,  48: -1.3785,  49:-0.53472,  50: 0.17676
    59 |      |  51:  2.8812,  52:  0.4751,  53:-0.62898,  54:0.078023,  55: -1.0121,  56: -1.1069,  57:  2.2668,  58: -1.4348
-------|------|----------------------------------------------------------------------------------------------------------------
