SNNS network definition file V1.4-3D
generated at Thu May 09 10:11:49 1996

network name : v27-23+8
source files :
no. of units : 59
no. of connections : 314
no. of unit types : 0
no. of site types : 0


learning function : Std_Backpropagation
update function : Topological_Order


unit default section :

act      | bias     | st | subnet | layer | act func     | out func
---------|----------|----|--------|-------|--------------|-------------
 0.00000 |  0.00000 | h  |      0 |     1 | Act_Logistic | Out_Identity
---------|----------|----|--------|-------|--------------|-------------


unit definition section :

no. | typeName | unitName | act      | bias     | st | position | act func | out func | sites
----|----------|----------|----------|----------|----|----------|----------|----------|-------
  1 |          |           |      0.2 |        0 | i  |  2, 1, 0 |||
  2 |          |           |      0.2 |        0 | i  |  2, 3, 0 |||
  3 |          |           |   1.5924 |        0 | i  |  2, 4, 0 |||
  4 |          |           |   1.4832 |        0 | i  |  2, 5, 0 |||
  5 |          |           |  -3.5024 |        0 | i  |  2, 6, 0 |||
  6 |          |           | -0.028672 |        0 | i  |  2, 7, 0 |||
  7 |          |           | -0.88538 |        0 | i  |  2, 8, 0 |||
  8 |          |           |  -1.1172 |        0 | i  |  2, 9, 0 |||
  9 |          |           |   1.3484 |        0 | i  |  2,10, 0 |||
 10 |          |           | -0.10944 |        0 | i  |  2,11, 0 |||
 11 |          |           |  -2.3428 |        0 | i  |  2,12, 0 |||
 12 |          |           |      0.2 |        0 | i  |  2,14, 0 |||
 13 |          |           | -0.65102 |        0 | i  |  2,15, 0 |||
 14 |          |           |   2.2812 |        0 | i  |  2,16, 0 |||
 15 |          |           |  0.76556 |        0 | i  |  2,17, 0 |||
 16 |          |           |   5.3399 |        0 | i  |  2,18, 0 |||
 17 |          |           |  0.21379 |        0 | i  |  2,19, 0 |||
 18 |          |           |  -2.5388 |        0 | i  |  2,20, 0 |||
 19 |          |           |   1.1732 |        0 | i  |  2,22, 0 |||
 20 |          |           |   1.6022 |        0 | i  |  2,23, 0 |||
 21 |          |           |        0 |        0 | i  |  2,24, 0 |||
 22 |          |           |     15.8 |        0 | i  |  2,26, 0 |||
 23 |          |           |    8.775 |        0 | i  |  2,27, 0 |||
 24 |          |           | -0.28868 |        0 | i  |  2,28, 0 |||
 25 |          |           |   39.955 |        0 | i  |  2,29, 0 |||
 26 |          |           | -0.56141 |        0 | i  |  2,30, 0 |||
 27 |          |           |    1.199 |        0 | i  |  2,31, 0 |||
 28 |          |           | 0.0010272 |  0.10433 | h  |  7, 3, 0 |||
 29 |          |           |  0.99721 |  0.19024 | h  |  7, 4, 0 |||
 30 |          |           | 2.8771e-06 |  -1.0971 | h  |  7, 5, 0 |||
 31 |          |           |  0.95513 |  0.89691 | h  |  8, 6, 0 |||
 32 |          |           |  0.23532 |  0.96335 | h  |  8, 7, 0 |||
 33 |          |           |  0.30001 |  -1.2016 | h  |  8, 8, 0 |||
 34 |          |           |  0.93973 | -0.39226 | h  |  7,10, 0 |||
 35 |          |           | 0.022066 |  -1.6242 | h  |  7,11, 0 |||
 36 |          |           |  0.98939 |  0.10394 | h  |  7,12, 0 |||
 37 |          |           |  0.44294 | 0.071132 | h  |  7,14, 0 |||
 38 |          |           |  0.82328 | -0.19932 | h  |  7,15, 0 |||
 39 |          |           |  0.31848 |  0.52942 | h  |  7,16, 0 |||
 40 |          |           |        1 |  -1.2682 | h  |  7,17, 0 |||
 41 |          |           |   0.1262 | -0.27251 | h  |  7,19, 0 |||
 42 |          |           |   0.7123 | -0.48908 | h  |  7,20, 0 |||
 43 |          |           |  0.21622 |  0.77353 | h  |  7,22, 0 |||
 44 |          |           |  0.37634 |   2.7551 | h  |  7,23, 0 |||
 45 |          |           |  0.11804 |  -0.2428 | h  |  7,24, 0 |||
 46 |          |           |  0.74087 |  -1.2847 | h  |  7,26, 0 |||
 47 |          |           |        1 |   1.2552 | h  |  7,27, 0 |||
 48 |          |           |        1 |  0.18002 | h  |  7,28, 0 |||
 49 |          |           |        1 |  -1.2027 | h  |  7,29, 0 |||
 50 |          |           |        1 | -0.69193 | h  |  7,30, 0 |||
 51 |          |           |  0.99997 |  0.31822 | h  | 13,12, 0 |||
 52 |          |           |  0.99968 | -0.34664 | h  | 13,13, 0 |||
 53 |          |           | 0.040978 | -0.80561 | h  | 13,14, 0 |||
 54 |          |           |  0.87229 |   0.5167 | h  | 13,15, 0 |||
 55 |          |           |  0.98056 |  0.30384 | h  | 13,16, 0 |||
 56 |          |           |   0.5066 |  0.35923 | h  | 13,17, 0 |||
 57 |          |           |  0.99928 |  0.50526 | h  | 13,18, 0 |||
 58 |          |           |  0.82902 | -0.97615 | h  | 13,19, 0 |||
 59 |          |           |  0.99639 | -0.87423 | o  | 20,15, 0 |||
----|----------|----------|----------|----------|----|----------|----------|----------|-------


connection definition section :

target | site | source:weight
-------|------|------------------------------------------------------------------------------------------------------------
    28 |      |   1:-0.17822,   2: 0.42963,   3: -2.7448,   4:0.090406,   5: 0.79883
    29 |      |   1: 0.82661,   2: 0.24258,   3: -0.2377,   4:  1.3379,   5:  -1.105
    30 |      |   1:-0.96215,   2: -1.0035,   3: -2.5632,   4: -1.1347,   5:  1.5715
    31 |      |   1: 0.94235,   2: 0.43337,   6: 0.98457,   7: -2.0913,   8:-0.056057
    32 |      |   1: 0.22007,   2: 0.64038,   6: 0.98297,   7:  1.9224,   8: 0.52247
    33 |      |   1:-0.36378,   2: 0.35706,   6: -1.6295,   7:-0.88229,   8: 0.42266
    34 |      |   1:  0.1213,   9:-0.70853,  10:-0.31283,  11: -1.7227
    35 |      |   1: 0.12607,   9:  2.8174,  10: -1.1601,  11:  2.6117
    36 |      |   1:-0.15931,   9:  1.1192,  10: -1.1542,  11:  -1.207
    37 |      |   1:-0.70559,  12:-0.35335,  13:  2.7958,  14:  1.0291,  15:  2.1599,  16:-0.34041,  17: 0.29102,  18: 0.20249
    38 |      |   1: 0.63176,  12:-0.57226,  13:  1.4657,  14: -1.1424,  15:  1.6722,  16:  1.0748,  17:-0.75965,  18: 0.61858
    39 |      |   1: 0.62496,  12:0.077218,  13:-0.84194,  14: 0.79931,  15:-0.49781,  16:-0.76189,  17:-0.59464,  18:-0.30506
    40 |      |   1:  0.3086,  12:-0.97055,  13:  2.5042,  14:  2.8819,  15: -1.4436,  16: 0.89288,  17: 0.21859,  18: -2.4265
    41 |      |   1:-0.30019,  19: -1.3659
    42 |      |   1:-0.83858,  19:  1.3326
    43 |      |   1: 0.24292,  20: -1.3169,  21:-0.96172
    44 |      |   1:-0.26187,  20: -2.0021,  21: 0.76645
    45 |      |   1: 0.67264,  20: -1.1876,  21:-0.25458
    46 |      |   1:0.095819,  22:-0.017976,  23:  1.4086,  24: 0.51543,  25:-0.21411,  26: 0.23637,  27:-0.77073
    47 |      |   1: 0.19194,  22: 0.83387,  23:  1.2588,  24:-0.18651,  25:  0.7832,  26:-0.37945,  27: -2.6003
    48 |      |   1:-0.11359,  22: 0.90512,  23: 0.75687,  24:  1.7228,  25: 0.86037,  26: 0.88467,  27:-0.55413
    49 |      |   1: 0.28605,  22:  1.0507,  23:0.059965,  24:  -1.033,  25: 0.60209,  26:-0.33532,  27: -1.0117
    50 |      |   1: 0.16963,  22: 0.29921,  23: 0.60822,  24:  1.1621,  25: 0.68895,  26:-0.27343,  27:-0.92574
    51 |      |  28:-0.63029,  29:  1.2738,  30: -2.8273,  31:-0.74195,  32:   1.848,  33:-0.17097,  34:-0.57956,  35: -2.4034, 
                 36: -1.3072,  37:  -1.754,  38: -1.6726,  39: 0.87395,  40:  3.6765,  41: 0.59022,  42:  0.1508,  43: -1.7502, 
                 44: -2.4216,  45:0.053656,  46: 0.79925,  47:  2.8879,  48:  3.2152,  49:  1.3312,  50:  2.4361
    52 |      |  28:  1.8361,  29: 0.49905,  30: -1.5372,  31:-0.41508,  32:-0.34409,  33:-0.39174,  34:  -0.839,  35: -1.4621, 
                 36: 0.22374,  37:-0.81042,  38:0.012139,  39:  1.4229,  40:  2.4539,  41: 0.47438,  42:-0.57349,  43:  -1.357, 
                 44: -1.4045,  45:-0.44287,  46: 0.89083,  47:   1.801,  48:   2.157,  49:  1.4701,  50:  1.6666
    53 |      |  28:   1.112,  29: 0.44595,  30: 0.59752,  31: 0.30529,  32: 0.39399,  33: 0.10493,  34: -1.0717,  35: 0.85181, 
                 36: 0.24511,  37: 0.11612,  38: -1.5245,  39: 0.45827,  40:-0.42628,  41:-0.50015,  42: -1.2084,  43:-0.14846, 
                 44: 0.54953,  45:-0.0093614,  46: 0.14287,  47:0.074223,  48:-0.44756,  49:-0.54235,  50: 0.58087
    54 |      |  28: 0.61294,  29:-0.58115,  30: 0.58158,  31: 0.75273,  32:-0.88022,  33: 0.26795,  34: 0.72291,  35: 0.77683, 
                 36:-0.58848,  37:0.078228,  38: 0.13882,  39:  1.0167,  40: 0.74597,  41: 0.27498,  42: 0.59035,  43:-0.061999, 
                 44: 0.95232,  45: 0.62391,  46:-0.64406,  47:-0.066681,  48:-0.48508,  49:-0.39806,  50: 0.61157
    55 |      |  28: 0.26776,  29: 0.89424,  30:-0.81002,  31: 0.87104,  32:-0.53699,  33:0.081217,  34: 0.88903,  35:-0.70605, 
                 36: 0.73119,  37: 0.29988,  38: 0.60099,  39: 0.59521,  40:-0.68515,  41: 0.15075,  42: 0.36236,  43:-0.11953, 
                 44:-0.89701,  45:-0.81019,  46: 0.35299,  47: 0.61028,  48:    0.66,  49: -1.1196,  50:0.089583
    56 |      |  28:  0.9033,  29:0.093995,  30:-0.88144,  31: -0.9317,  32: 0.35994,  33: 0.36368,  34: 0.45825,  35:-0.21583, 
                 36: 0.24803,  37: 0.76789,  38:-0.72922,  39: 0.87257,  40:-0.031663,  41:-0.73564,  42:-0.99638,  43:-0.20056, 
                 44: 0.79327,  45: 0.85715,  46:-0.64455,  47:-0.62863,  48: 0.10545,  49: 0.69028,  50: 0.36797
    57 |      |  28: -2.3326,  29:  -1.289,  30:-0.02639,  31:  2.1486,  32:-0.65048,  33: -1.6293,  34:  1.0961,  35: -1.5916, 
                 36: 0.29184,  37:-0.060228,  38:-0.0044114,  39:-0.79676,  40:  0.1022,  41:  -1.383,  42:  1.1662,  43:0.086436, 
                 44: -2.0196,  45: 0.10417,  46: 0.16449,  47: 0.51675,  48:   1.791,  49:  1.6135,  50:  1.5328
    58 |      |  28:-0.0092075,  29:-0.67258,  30: -1.1733,  31:  1.1069,  32:  -1.987,  33: 0.52403,  34:-0.99552,  35: 0.36724, 
                 36:  1.5896,  37:  1.5138,  38:  1.1331,  39:-0.96802,  40:-0.36288,  41: 0.28533,  42:-0.51101,  43: 0.78059, 
                 44: 0.49296,  45:  1.4889,  46:  2.4425,  47:0.030868,  48:-0.62405,  49:  -1.689,  50:  1.1716
    59 |      |  51:  6.2022,  52:  3.1978,  53:   -2.34,  54:  -1.235,  55: -2.0325,  56:  -1.251,  57:  4.6886,  58: -4.5704
-------|------|----------------------------------------------------------------------------------------------------------------
