SNNS network definition file V1.4-3D
generated at Thu May 09 10:11:49 1996

network name : v27-23+8
source files :
no. of units : 59
no. of connections : 314
no. of unit types : 0
no. of site types : 0


learning function : Std_Backpropagation
update function : Topological_Order


unit default section :

act      | bias     | st | subnet | layer | act func     | out func
---------|----------|----|--------|-------|--------------|-------------
 0.00000 |  0.00000 | h  |      0 |     1 | Act_Logistic | Out_Identity
---------|----------|----|--------|-------|--------------|-------------


unit definition section :

no. | typeName | unitName | act      | bias     | st | position | act func | out func | sites
----|----------|----------|----------|----------|----|----------|----------|----------|-------
  1 |          |           |  0.36116 |        0 | i  |  2, 1, 0 |||
  2 |          |           |  0.36116 |        0 | i  |  2, 3, 0 |||
  3 |          |           |   0.6507 |        0 | i  |  2, 4, 0 |||
  4 |          |           |  -1.5365 |        0 | i  |  2, 5, 0 |||
  5 |          |           |  0.37088 |        0 | i  |  2, 6, 0 |||
  6 |          |           |  -2.4413 |        0 | i  |  2, 7, 0 |||
  7 |          |           | -0.13037 |        0 | i  |  2, 8, 0 |||
  8 |          |           |   1.2185 |        0 | i  |  2, 9, 0 |||
  9 |          |           |  0.03382 |        0 | i  |  2,10, 0 |||
 10 |          |           | -0.010416 |        0 | i  |  2,11, 0 |||
 11 |          |           |   0.1547 |        0 | i  |  2,12, 0 |||
 12 |          |           |  0.36116 |        0 | i  |  2,14, 0 |||
 13 |          |           | -0.65734 |        0 | i  |  2,15, 0 |||
 14 |          |           | -0.83803 |        0 | i  |  2,16, 0 |||
 15 |          |           | -0.45261 |        0 | i  |  2,17, 0 |||
 16 |          |           |  0.76623 |        0 | i  |  2,18, 0 |||
 17 |          |           | -0.56357 |        0 | i  |  2,19, 0 |||
 18 |          |           |  0.31677 |        0 | i  |  2,20, 0 |||
 19 |          |           |   4.5689 |        0 | i  |  2,22, 0 |||
 20 |          |           |   3.4425 |        0 | i  |  2,23, 0 |||
 21 |          |           |        0 |        0 | i  |  2,24, 0 |||
 22 |          |           |   19.141 |        0 | i  |  2,26, 0 |||
 23 |          |           |   31.661 |        0 | i  |  2,27, 0 |||
 24 |          |           |        4 |        0 | i  |  2,28, 0 |||
 25 |          |           |    6.474 |        0 | i  |  2,29, 0 |||
 26 |          |           | -0.59579 |        0 | i  |  2,30, 0 |||
 27 |          |           |   5.8081 |        0 | i  |  2,31, 0 |||
 28 |          |           |  0.57619 |   1.3214 | h  |  7, 3, 0 |||
 29 |          |           |  0.50816 |  0.79461 | h  |  7, 4, 0 |||
 30 |          |           |  0.45144 | -0.68656 | h  |  7, 5, 0 |||
 31 |          |           |  0.06586 |  0.25645 | h  |  8, 6, 0 |||
 32 |          |           |  0.84841 |  0.22404 | h  |  8, 7, 0 |||
 33 |          |           | 0.054374 | -0.39192 | h  |  8, 8, 0 |||
 34 |          |           |  0.29683 |  -0.8474 | h  |  7,10, 0 |||
 35 |          |           |  0.46995 | -0.40259 | h  |  7,11, 0 |||
 36 |          |           |  0.42952 | -0.10397 | h  |  7,12, 0 |||
 37 |          |           |  0.72642 |   0.3749 | h  |  7,14, 0 |||
 38 |          |           |  0.41786 |  -0.5293 | h  |  7,15, 0 |||
 39 |          |           |  0.74236 |  0.44288 | h  |  7,16, 0 |||
 40 |          |           | 0.011092 | -0.77803 | h  |  7,17, 0 |||
 41 |          |           | 0.090604 | -0.60077 | h  |  7,19, 0 |||
 42 |          |           |  0.96719 | -0.44755 | h  |  7,20, 0 |||
 43 |          |           |  0.15865 |  0.39388 | h  |  7,22, 0 |||
 44 |          |           |  0.87377 |   1.1964 | h  |  7,23, 0 |||
 45 |          |           |   0.1308 | -0.49787 | h  |  7,24, 0 |||
 46 |          |           |        1 | -0.41589 | h  |  7,26, 0 |||
 47 |          |           |        1 |  0.83785 | h  |  7,27, 0 |||
 48 |          |           |  0.99955 | -0.062529 | h  |  7,28, 0 |||
 49 |          |           |        1 |  -1.1007 | h  |  7,29, 0 |||
 50 |          |           |        1 | -0.94671 | h  |  7,30, 0 |||
 51 |          |           |  0.93823 | -0.36401 | h  | 13,12, 0 |||
 52 |          |           |  0.89314 | -0.82295 | h  | 13,13, 0 |||
 53 |          |           |  0.15324 | -0.66393 | h  | 13,14, 0 |||
 54 |          |           |  0.92467 |  0.49528 | h  | 13,15, 0 |||
 55 |          |           | 0.048202 |  0.24932 | h  | 13,16, 0 |||
 56 |          |           |  0.91532 |  0.49034 | h  | 13,17, 0 |||
 57 |          |           |   0.9762 |  0.28069 | h  | 13,18, 0 |||
 58 |          |           | 0.016158 | -0.70636 | h  | 13,19, 0 |||
 59 |          |           |  0.99936 |  0.52335 | o  | 20,15, 0 |||
----|----------|----------|----------|----------|----|----------|----------|----------|-------


connection definition section :

target | site | source:weight
-------|------|------------------------------------------------------------------------------------------------------------
    28 |      |   1:-0.11256,   2: 0.66311,   3:-0.93582,   4: 0.71167,   5:  1.3193
    29 |      |   1: 0.89449,   2: 0.33879,   3:-0.02026,   4: 0.43476,   5: -1.4188
    30 |      |   1:-0.87269,   2:-0.92954,   3:-0.12414,   4:-0.50597,   5:  1.2024
    31 |      |   1: 0.83473,   2: 0.39124,   6:  1.3191,   7:-0.62376,   8:-0.17426
    32 |      |   1:  0.0717,   2: 0.47614,   6:-0.81081,   7: 0.82508,   8:-0.46907
    33 |      |   1: -0.1908,   2: 0.57224,   6: 0.51071,   7: 0.75284,   8: -1.0315
    34 |      |   1: 0.20908,   9:-0.13149,  10: 0.34716,  11:-0.53317
    35 |      |   1: 0.34728,   9: 0.67371,  10:-0.94947,  11: 0.80252
    36 |      |   1: -0.2284,   9: 0.59806,  10: 0.34324,  11:-0.73706
    37 |      |   1:-0.62033,  12:-0.26808,  13: 0.22472,  14:-0.25048,  15:0.042141,  16:-0.53183,  17: -1.3321,  18:  1.6926
    38 |      |   1: 0.44755,  12:-0.75647,  13:  1.7117,  14: -1.0822,  15: 0.32321,  16: 0.47155,  17: 0.10442,  18:  1.1723
    39 |      |   1: 0.51365,  12:-0.034097,  13:0.016485,  14:-0.39076,  15:-0.091478,  16:-0.57065,  17:-0.47399,  18: 0.80272
    40 |      |   1: 0.32532,  12:-0.95383,  13:  1.4189,  14:  1.6586,  15:-0.57274,  16: -1.0581,  17: 0.61627,  18:-0.83281
    41 |      |   1:-0.42601,  19:-0.33961
    42 |      |   1:-0.78225,  19: 0.90039
    43 |      |   1: 0.33986,  20:-0.63468,  21:-0.96857
    44 |      |   1:-0.54665,  20: 0.27183,  21: 0.76731
    45 |      |   1: 0.76418,  20: -0.4857,  21:-0.14634
    46 |      |   1: 0.29481,  22: 0.32977,  23:  1.3719,  24:-0.24972,  25: 0.39972,  26:  1.4434,  27: -2.0538
    47 |      |   1:-0.44981,  22: 0.25276,  23:  1.0431,  24:-0.25706,  25: 0.87213,  26:-0.87513,  27:-0.62561
    48 |      |   1:-0.59755,  22:  0.1641,  23: 0.17299,  24:  0.9695,  25: 0.74673,  26:-0.29103,  27: -1.6378
    49 |      |   1: 0.12045,  22: 0.07723,  23:  1.6176,  24: 0.25226,  25:  1.3016,  26:0.017567,  27: -1.7234
    50 |      |   1: -0.3744,  22:0.020482,  23: 0.43239,  24: 0.69004,  25: 0.79319,  26: 0.51289,  27:-0.073178
    51 |      |  28:-0.98003,  29: 0.19032,  30:-0.54229,  31: -1.0933,  32: 0.71876,  33:0.078002,  34:-0.62497,  35: -0.3733, 
                 36:-0.82552,  37:-0.96684,  38:  -1.284,  39: 0.04206,  40:-0.59081,  41:  0.1137,  42:-0.072993,  43:-0.74137, 
                 44: -1.1526,  45: 0.67238,  46:  1.4302,  47:  1.0334,  48: 0.87757,  49:  1.3028,  50:  1.6385
    52 |      |  28: 0.76165,  29:-0.27608,  30:-0.70069,  31:-0.18212,  32:-0.99873,  33:-0.83896,  34:-0.54077,  35:-0.29109, 
                 36: 0.97589,  37:-0.40203,  38: 0.19382,  39: 0.84266,  40:  0.7652,  41: 0.36468,  42:-0.62565,  43:-0.75689, 
                 44:-0.87131,  45:-0.18717,  46: 0.77518,  47:   0.522,  48:   1.372,  49:  1.2003,  50: 0.93308
    53 |      |  28: 0.59048,  29:0.010495,  30: 0.28256,  31: 0.42687,  32: 0.69232,  33:-0.17594,  34: -0.7707,  35: 0.46643, 
                 36:  0.3393,  37:-0.41291,  38:-0.75103,  39: 0.40722,  40:-0.14259,  41:-0.43486,  42:-0.95796,  43:-0.40009, 
                 44: 0.15079,  45:-0.0043894,  46:-0.49642,  47: 0.11313,  48:-0.73708,  49:-0.015241,  50:0.085894
    54 |      |  28:  0.5073,  29:-0.71001,  30: 0.66981,  31: 0.53573,  32:-0.87091,  33: 0.32831,  34: 0.67633,  35: 0.72677, 
                 36: -0.6553,  37:-0.22498,  38: 0.12812,  39:  1.0923,  40: 0.67127,  41: 0.25141,  42: 0.65576,  43:  -0.115, 
                 44: 0.89789,  45: 0.60542,  46: -0.3371,  47: 0.22603,  48:-0.70144,  49:0.049824,  50: 0.75482
    55 |      |  28:  0.3582,  29:  1.0601,  30: -1.0511,  31: 0.93303,  32:-0.38467,  33: 0.52633,  34: 0.84306,  35: -1.0933, 
                 36: 0.68192,  37:  1.0913,  38:  1.1737,  39: 0.85775,  40: 0.11247,  41: 0.42996,  42:-0.29889,  43:0.029744, 
                 44:-0.94819,  45:-0.63455,  46: -1.0119,  47:-0.092391,  48: 0.22098,  49: -1.9482,  50: -1.2286
    56 |      |  28: 0.98613,  29: 0.14509,  30:-0.88087,  31:-0.81587,  32: 0.47734,  33: 0.46765,  34: 0.49245,  35:-0.26533, 
                 36: 0.23529,  37: 0.85003,  38:-0.63842,  39: 0.95521,  40: 0.19688,  41:-0.74546,  42:-0.88294,  43: -0.2388, 
                 44: 0.76757,  45: 0.85969,  46:-0.60013,  47:-0.49737,  48: 0.18944,  49: 0.72578,  50: 0.44326
    57 |      |  28: -1.9672,  29:-0.91533,  30: 0.26636,  31: 0.47375,  32: -1.0777,  33: -1.4741,  34: 0.13039,  35:-0.059024, 
                 36:-0.037833,  37:-0.60893,  38:-0.89019,  39:-0.89474,  40: -1.7578,  41:-0.85386,  42: 0.15357,  43: 0.68951, 
                 44: -1.1076,  45: 0.38111,  46:  1.9687,  47: 0.95712,  48:  1.2704,  49:  2.1657,  50:  1.7543
    58 |      |  28:  1.1518,  29:-0.26231,  30: -1.0765,  31: 0.35441,  32:-0.61956,  33: 0.68569,  34: -0.6726,  35:-0.91653, 
                 36: 0.93136,  37:  1.1943,  38:  1.2344,  39:-0.15491,  40:  1.4033,  41: 0.17588,  42:-0.31495,  43:-0.10651, 
                 44:-0.59057,  45:  1.0062,  46:-0.39122,  47:-0.23556,  48:-0.99242,  49: -1.2076,  50:-0.51936
    59 |      |  51:  2.7413,  52: 0.78859,  53:-0.19487,  54: 0.39596,  55: -2.5833,  56:-0.28623,  57:  3.7276,  58: -1.9994
-------|------|----------------------------------------------------------------------------------------------------------------
