SNNS network definition file V1.4-3D
generated at Thu May 09 10:11:49 1996

network name : edge_23
source files :
no. of units : 70
no. of connections : 622
no. of unit types : 0
no. of site types : 0


learning function : Std_Backpropagation
update function : Topological_Order


unit default section :

act      | bias     | st | subnet | layer | act func     | out func
---------|----------|----|--------|-------|--------------|-------------
 0.00000 |  0.00000 | h  |      0 |     1 | Act_Logistic | Out_Identity
---------|----------|----|--------|-------|--------------|-------------


unit definition section :

no. | typeName | unitName | act      | bias     | st | position | act func | out func | sites
----|----------|----------|----------|----------|----|----------|----------|----------|-------
  1 |          |           |      0.2 |        0 | i  |  2, 1, 0 |||
  2 |          |           |   12.384 |        0 | i  |  2, 3, 0 |||
  3 |          |           |   14.422 |        0 | i  |  2, 4, 0 |||
  4 |          |           |    5.116 |        0 | i  |  2, 5, 0 |||
  5 |          |           |   27.461 |        0 | i  |  2, 7, 0 |||
  6 |          |           |   4.9526 |        0 | i  |  2, 8, 0 |||
  7 |          |           |   9.3381 |        0 | i  |  2, 9, 0 |||
  8 |          |           |   10.646 |        0 | i  |  2,11, 0 |||
  9 |          |           |  -1.3731 |        0 | i  |  2,12, 0 |||
 10 |          |           |   1.5057 |        0 | i  |  2,13, 0 |||
 11 |          |           |   3.8052 |        0 | i  |  2,14, 0 |||
 12 |          |           |  -1.9179 |        0 | i  |  2,15, 0 |||
 13 |          |           |   3.5532 |        0 | i  |  2,16, 0 |||
 14 |          |           |   1.9666 |        0 | i  |  2,17, 0 |||
 15 |          |           |  0.50002 |        0 | i  |  2,18, 0 |||
 16 |          |           |  -2.5094 |        0 | i  |  2,23, 0 |||
 17 |          |           | -0.95501 |        0 | i  |  2,24, 0 |||
 18 |          |           | 0.025115 |        0 | i  |  2,25, 0 |||
 19 |          |           |    129.8 |        0 | i  |  2,27, 0 |||
 20 |          |           |   1.4872 |        0 | i  |  2,28, 0 |||
 21 |          |           |      700 |        0 | i  |  2,19, 0 |||
 22 |          |           |       14 |        0 | i  |  2,20, 0 |||
 23 |          |           |   38.435 |        0 | i  |  2,21, 0 |||
 24 |          |           | 0.010483 |   1.7097 | h  |  7, 3, 0 |||
 25 |          |           | 0.038937 | -0.17156 | h  |  8, 3, 0 |||
 26 |          |           |  0.99339 | -0.12269 | h  |  7, 4, 0 |||
 27 |          |           | 2.1033e-08 |  -0.5322 | h  |  8, 4, 0 |||
 28 |          |           | 0.00018463 |  0.67799 | h  |  7, 5, 0 |||
 29 |          |           |  0.80787 | -0.025564 | h  |  8, 5, 0 |||
 30 |          |           |  0.20527 | -0.74754 | h  |  7, 7, 0 |||
 31 |          |           |  0.98352 |  0.33512 | h  |  8, 7, 0 |||
 32 |          |           |        1 | -0.70419 | h  |  7, 8, 0 |||
 33 |          |           | 1.8476e-19 | -0.28076 | h  |  8, 8, 0 |||
 34 |          |           | 4.8318e-10 |  0.61355 | h  |  7, 9, 0 |||
 35 |          |           | 0.002512 |   1.2734 | h  |  8, 9, 0 |||
 36 |          |           |        1 |  0.12318 | h  |  7,11, 0 |||
 37 |          |           | 2.377e-26 | 0.083296 | h  |  8,11, 0 |||
 38 |          |           |        1 | -0.50794 | h  |  7,12, 0 |||
 39 |          |           | 2.5069e-254 |  0.60808 | h  |  8,12, 0 |||
 40 |          |           |        1 | -0.74312 | h  |  7,13, 0 |||
 41 |          |           |        1 |   0.8262 | h  |  8,13, 0 |||
 42 |          |           | 5.9773e-224 |   0.9898 | h  |  7,14, 0 |||
 43 |          |           |        1 |  0.53212 | h  |  8,14, 0 |||
 44 |          |           |        1 | -0.44476 | h  |  7,15, 0 |||
 45 |          |           |        1 |  0.19821 | h  |  8,15, 0 |||
 46 |          |           | 1.6956e-66 |  0.33833 | h  |  7,16, 0 |||
 47 |          |           |        1 |  0.98135 | h  |  8,16, 0 |||
 48 |          |           |        1 |  0.85479 | h  |  7,17, 0 |||
 49 |          |           |        1 | -0.71632 | h  |  8,17, 0 |||
 50 |          |           |   0.4605 | -0.45514 | h  |  7,22, 0 |||
 51 |          |           |  0.91984 |  0.51016 | h  |  8,22, 0 |||
 52 |          |           |  0.41017 | -0.33204 | h  |  7,23, 0 |||
 53 |          |           |  0.20764 | -0.45151 | h  |  8,23, 0 |||
 54 |          |           |  0.29262 |  0.54972 | h  |  7,24, 0 |||
 55 |          |           |  0.10535 | -0.43433 | h  |  8,24, 0 |||
 56 |          |           | 5.4912e-52 |  0.85317 | h  |  7,26, 0 |||
 57 |          |           |        1 | -0.82565 | h  |  8,26, 0 |||
 58 |          |           | 6.5733e-09 | -0.66618 | h  |  7,27, 0 |||
 59 |          |           |        1 |  -0.3485 | h  |  8,27, 0 |||
 60 |          |           |  0.98128 |  0.30868 | h  | 13,12, 0 |||
 61 |          |           |  0.94245 |  0.94396 | h  | 14,12, 0 |||
 62 |          |           |  0.30395 |  0.20907 | h  | 13,13, 0 |||
 63 |          |           |  0.20394 |  0.78498 | h  | 14,13, 0 |||
 64 |          |           |  0.99812 |  0.83387 | h  | 13,14, 0 |||
 65 |          |           | 0.0046402 | -0.60945 | h  | 14,14, 0 |||
 66 |          |           | 0.002399 | -0.60287 | h  | 13,15, 0 |||
 67 |          |           |  0.90925 |  0.24912 | h  | 14,15, 0 |||
 68 |          |           |  0.99539 |   1.1247 | h  | 13,16, 0 |||
 69 |          |           |  0.24124 |   0.7551 | h  | 14,16, 0 |||
 70 |          |           |  0.97534 |  0.27961 | o  | 18,14, 0 |||
----|----------|----------|----------|----------|----|----------|----------|----------|-------


connection definition section :

target | site | source:weight
-------|------|------------------------------------------------------------------------------------------------------------
    24 |      |   1:  1.1182,   2:-0.53555,   3:0.0018233,   4:0.024523
    25 |      |   1: 0.64776,   2:-0.60943,   3: 0.49252,   4:-0.53163
    26 |      |   1:-0.58236,   2: 0.29719,   3: 0.33836,   4:-0.64667
    27 |      |   1:-0.45363,   2:-0.63606,   3:-0.58059,   4:-0.15705
    28 |      |   1: 0.57404,   2: 0.74982,   3: -1.5102,   4:  0.6067
    29 |      |   1:0.093245,   2:-0.29309,   3:  0.2184,   4: 0.37592
    30 |      |   1:-0.37606,   5:0.083734,   6:-0.49826,   7:-0.038837
    31 |      |   1:-0.87301,   5:0.037001,   6:-0.096512,   7: 0.36306
    32 |      |   1: 0.88276,   5: 0.57677,   6:-0.95502,   7: 0.68974
    33 |      |   1: 0.55904,   5: -1.2863,   6:-0.40682,   7:-0.60285
    34 |      |   1: 0.20898,   5:-0.81403,   6:-0.64643,   7:  0.3694
    35 |      |   1:-0.91555,   5:-0.22448,   6:-0.49855,   7: 0.16695
    36 |      |   1: 0.65397,   8: 0.75736,   9:0.052112,  10: 0.30635,  11:-0.34852,  12:  0.9905,  13:-0.62901,  14:  0.5109, 
                 15: 0.35546,  21: 0.35276,  22:-0.14314,  23:-0.0031799
    37 |      |   1:-0.019295,   8:-0.46712,   9:0.032053,  10:-0.67134,  11:-0.63018,  12:  1.0642,  13:0.079601,  14: 0.25331, 
                 15: 0.29868,  21:-0.032883,  22: 0.64009,  23: -0.9233
    38 |      |   1: 0.67737,   8:-0.087147,   9: 0.57598,  10:-0.35252,  11:-0.075408,  12:-0.019489,  13:-0.79007,  14:-0.86468, 
                 15:-0.13185,  21: 0.15797,  22: 0.74626,  23: 0.24842
    39 |      |   1:-0.31113,   8:-0.80161,   9: 0.30593,  10: 0.40908,  11:-0.022899,  12:-0.65308,  13: 0.97779,  14:-0.88334, 
                 15:-0.029314,  21: -0.8471,  22:-0.82027,  23: 0.66145
    40 |      |   1: 0.43442,   8: 0.44356,   9: 0.11993,  10: 0.84421,  11: 0.93801,  12:-0.55656,  13: 0.24807,  14: 0.52179, 
                 15: 0.27675,  21: 0.87059,  22:-0.55863,  23: 0.68575
    41 |      |   1: 0.54948,   8: -0.1106,   9: 0.85127,  10:-0.40863,  11:  0.2374,  12:-0.67714,  13:-0.19678,  14:-0.43124, 
                 15: -1.0396,  21: 0.22866,  22:-0.19999,  23:  -1.531
    42 |      |   1: 0.79372,   8:-0.61187,   9:-0.80198,  10: 0.31998,  11: 0.84673,  12:  0.6188,  13: -0.6904,  14:-0.077654, 
                 15:  0.4817,  21:-0.66176,  22:-0.98281,  23: -0.8557
    43 |      |   1: 0.43117,   8:-0.70823,   9:-0.80728,  10: 0.93804,  11:-0.42022,  12:0.061199,  13: 0.86028,  14: -0.7803, 
                 15: -1.2598,  21: 0.44883,  22:-0.24335,  23: 0.12241
    44 |      |   1:-0.15647,   8:-0.0062087,   9:-0.49652,  10:-0.72766,  11:-0.67583,  12:  1.5748,  13: -0.1696,  14:-0.95578, 
                 15: 0.89073,  21: 0.24694,  22: 0.57505,  23: 0.81432
    45 |      |   1:-0.25231,   8: -1.1118,   9:-0.30172,  10: 0.79195,  11:-0.81419,  12: 0.80074,  13: -0.3603,  14:-0.79261, 
                 15:-0.22568,  21: 0.42355,  22: 0.90794,  23:-0.079561
    46 |      |   1:  0.9676,   8: -1.1533,   9:-0.63707,  10:-0.12261,  11: 0.84684,  12:-0.10471,  13:-0.011164,  14:-0.77084, 
                 15: 0.81078,  21:-0.20574,  22:-0.75838,  23: 0.31164
    47 |      |   1: 0.66922,   8:-0.31341,   9:-0.095239,  10: 0.64556,  11:-0.019433,  12: 0.57344,  13: 0.70285,  14:  0.3619, 
                 15:-0.27585,  21: 0.66079,  22: 0.30017,  23: 0.87118
    48 |      |   1:-0.55405,   8: 0.29958,   9: 0.62422,  10:  1.0339,  11:-0.38653,  12:-0.29156,  13: 0.97036,  14: 0.26725, 
                 15: -1.1079,  21: 0.39957,  22:-0.95716,  23: 0.25464
    49 |      |   1:-0.98148,   8:-0.61755,   9: -1.0016,  10:-0.065822,  11:-0.86351,  12:  0.8225,  13:  1.0817,  14:-0.22217, 
                 15: 0.60035,  21:  0.1633,  22:-0.23778,  23:-0.13257
    50 |      |   1: 0.58585,  16:-0.31477,  17: 0.64486,  18: 0.22404
    51 |      |   1: 0.87937,  16:-0.35285,  17:-0.89115,  18: 0.70026
    52 |      |   1:-0.90289,  16:0.049399,  17:-0.30514,  18:-0.72052
    53 |      |   1:-0.59866,  16: 0.53471,  17:-0.61824,  18:-0.66155
    54 |      |   1:-0.36247,  16: 0.72756,  17: -0.4994,  18: -0.4416
    55 |      |   1: 0.63805,  16: 0.99801,  17:-0.71497,  18:-0.42959
    56 |      |   1:-0.59478,  19:-0.91406,  20:-0.081128
    57 |      |   1: 0.49786,  19: 0.67579,  20: 0.64359
    58 |      |   1:   1.041,  19:-0.15308,  20:  1.0001
    59 |      |   1:-0.93418,  19:  1.0943,  20:-0.026263
    60 |      |  24:-0.70745,  25:-0.32672,  26:  0.3775,  27:-0.093902,  28:-0.031681,  29:  1.0213,  30:-0.38983,  31: 0.89602, 
                 32:-0.62883,  33:-0.70397,  34: 0.59606,  35: 0.94684,  36:-0.53352,  37: -1.2168,  38:-0.43357,  39:-0.13121, 
                 40:-0.65721,  41: 0.75306,  42:-0.63366,  43: 0.72395,  44: 0.25567,  45:-0.75463,  46: 0.70427,  47: 0.45974, 
                 48: 0.48244,  49: 0.21675,  50: 0.49805,  51: 0.28386,  52: 0.35976,  53:-0.93508,  54:-0.96379,  55: 0.71538, 
                 56:-0.45926,  57: 0.53365,  58:-0.26234,  59:  1.0124
    61 |      |  24:0.010746,  25: 0.79485,  26: 0.80138,  27: 0.27301,  28: 0.20259,  29: 0.76631,  30: 0.70319,  31: 0.40586, 
                 32:-0.73394,  33:-0.43717,  34: 0.29356,  35: 0.77794,  36: 0.27371,  37:-0.048835,  38: 0.39072,  39:  0.1935, 
                 40:-0.19714,  41:-0.18121,  42:-0.54354,  43:-0.88522,  44: -0.8898,  45: 0.99369,  46: 0.31613,  47:-0.72645, 
                 48:  1.0788,  49:-0.049539,  50:-0.08678,  51:   0.346,  52: 0.72598,  53:-0.19824,  54:-0.36252,  55:-0.10408, 
                 56:-0.45998,  57: -0.6336,  58:-0.77616,  59:  1.0022
    62 |      |  24:  1.5911,  25: 0.49901,  26: -1.3721,  27:-0.50587,  28:-0.20094,  29: 0.61337,  30: 0.49304,  31: 0.32895, 
                 32:-0.12261,  33:-0.33179,  34:-0.70555,  35:  1.1041,  36:0.094919,  37: -1.0759,  38: 0.99379,  39: 0.47314, 
                 40: 0.42362,  41: -1.2937,  42: 0.33324,  43:-0.51265,  44:0.011201,  45:-0.64025,  46:-0.47692,  47: 0.67059, 
                 48:-0.045673,  49: 0.24766,  50: -0.7016,  51: 0.39896,  52: 0.30826,  53: -0.5751,  54: 0.34316,  55: 0.43291, 
                 56: 0.65845,  57: 0.20646,  58: 0.57745,  59:-0.86405
    63 |      |  24:  1.0643,  25:  1.0505,  26:-0.79756,  27:  -1.176,  28:-0.68077,  29:-0.96021,  30: 0.35205,  31:-0.86455, 
                 32:-0.96692,  33:-0.98628,  34: 0.67224,  35:-0.30637,  36: 0.25327,  37:-0.71446,  38: 0.41692,  39:-0.068464, 
                 40: -0.2485,  41:-0.31676,  42: 0.69756,  43:-0.98117,  44:    1.29,  45:-0.28234,  46:   1.019,  47:-0.65744, 
                 48:-0.97946,  49: 0.31577,  50: 0.67251,  51: 0.60135,  52:-0.54721,  53:-0.70161,  54:0.069661,  55:  1.0411, 
                 56: 0.75701,  57:  0.5327,  58: 0.65529,  59:  1.1492
    64 |      |  24: 0.39196,  25:-0.79008,  26:-0.73723,  27:-0.89161,  28: 0.98986,  29:-0.17211,  30:-0.98146,  31:-0.53961, 
                 32:-0.57915,  33:-0.55923,  34: 0.25613,  35: 0.85969,  36: 0.99821,  37: 0.29013,  38: 0.72182,  39:-0.084983, 
                 40:-0.23218,  41: 0.95997,  42: 0.12594,  43: 0.56355,  44: 0.78941,  45:-0.33173,  46:-0.87296,  47: 0.90837, 
                 48: 0.54376,  49: 0.92648,  50: 0.84044,  51:-0.052058,  52:  0.8474,  53: 0.78306,  54:-0.21741,  55: 0.22641, 
                 56: 0.98972,  57:0.016347,  58: 0.33101,  59: 0.97373
    65 |      |  24: 0.53269,  25:-0.82203,  26: -1.2538,  27: 0.67511,  28:  1.1098,  29: -1.2526,  30: 0.59872,  31:-0.31708, 
                 32: 0.67254,  33:-0.95946,  34: 0.41953,  35:  0.6798,  36: 0.33712,  37: 0.57361,  38: 0.31167,  39: -0.6301, 
                 40:-0.55393,  41:-0.23018,  42:    1.31,  43:-0.33925,  44: 0.66621,  45:-0.48246,  46: 0.15627,  47: -0.3736, 
                 48:-0.23412,  49:-0.20367,  50:-0.18092,  51:-0.66115,  52: 0.45619,  53: -0.1988,  54:-0.63926,  55:-0.082771, 
                 56: 0.40124,  57:-0.77239,  58:-0.45464,  59:-0.34456
    66 |      |  24: -0.5664,  25: 0.84856,  26:-0.58466,  27:0.031042,  28: 0.53765,  29: -0.8715,  30:-0.23295,  31:-0.28884, 
                 32: 0.61662,  33: 0.14396,  34:-0.96366,  35:-0.01655,  36:0.078274,  37: 0.30747,  38:-0.82608,  39: 0.89293, 
                 40:-0.65252,  41: 0.12477,  42: 0.54048,  43:-0.36028,  44:-0.89823,  45:-0.85289,  46:-0.71868,  47:-0.018897, 
                 48:-0.46216,  49: 0.20632,  50:-0.73859,  51: 0.17244,  52: 0.88653,  53: 0.18356,  54: 0.83967,  55:-0.69029, 
                 56:  0.0328,  57:-0.72823,  58:  0.3502,  59:-0.45776
    67 |      |  24:-0.64205,  25: 0.32901,  26: -1.0163,  27:   0.257,  28: 0.52074,  29:-0.025388,  30:-0.68439,  31:-0.33472, 
                 32: 0.14366,  33:-0.86081,  34:-0.04785,  35:-0.64337,  36: 0.76372,  37: 0.66182,  38:-0.56515,  39: 0.93094, 
                 40: 0.81259,  41: 0.23529,  42:-0.39577,  43:0.071356,  44: 0.78238,  45: 0.76748,  46:0.099972,  47:-0.12541, 
                 48: 0.45444,  49: 0.37882,  50:  0.8538,  51: 0.83549,  52:-0.38392,  53:-0.60351,  54:-0.77277,  55:-0.23591, 
                 56: 0.69019,  57:-0.80048,  58:  1.0089,  59:0.0040185
    68 |      |  24: -1.2383,  25: 0.85269,  26:0.091802,  27:-0.68363,  28: -1.5562,  29: 0.15217,  30:-0.78116,  31:-0.72724, 
                 32:-0.26257,  33: 0.13736,  34: 0.78777,  35: -1.0541,  36: 0.47684,  37:-0.16032,  38:  1.2928,  39: -0.9284, 
                 40:  1.2849,  41: 0.48699,  42: 0.60554,  43: 0.44975,  44: -1.3201,  45:  1.0747,  46: 0.20466,  47:0.056048, 
                 48:   1.394,  49: -1.3336,  50:-0.47917,  51:  1.4661,  52:-0.55866,  53: 0.40082,  54:0.014276,  55:-0.17693, 
                 56: 0.11026,  57: 0.29605,  58: 0.14277,  59:0.031658
    69 |      |  24: 0.90145,  25: 0.47979,  26:-0.34799,  27: 0.84661,  28:  0.2624,  29:-0.035124,  30:-0.46611,  31:-0.87946, 
                 32:-0.22561,  33:-0.17722,  34:  1.0813,  35: 0.61756,  36:-0.43118,  37:-0.046418,  38: 0.85513,  39:-0.54127, 
                 40:-0.12335,  41:-0.43201,  42:  0.9204,  43: 0.24478,  44: 0.19704,  45: 0.78774,  46: 0.62578,  47:-0.42986, 
                 48:-0.10498,  49:-0.71044,  50: 0.33928,  51:-0.88671,  52: 0.38229,  53:-0.31537,  54: 0.94732,  55:-0.037598, 
                 56:  0.9202,  57:-0.21485,  58:-0.22076,  59:  0.2864
    70 |      |  60: 0.69633,  61:  0.4033,  62: -1.7764,  63: -2.0982,  64: 0.40473,  65:  -2.198,  66: -0.1778,  67:-0.40154, 
                 68:   3.446,  69:-0.64531
-------|------|----------------------------------------------------------------------------------------------------------------
