SNNS network definition file V1.4-3D
generated at Thu May 09 10:11:49 1996

network name : edge_23
source files :
no. of units : 70
no. of connections : 622
no. of unit types : 0
no. of site types : 0


learning function : Std_Backpropagation
update function : Topological_Order


unit default section :

act      | bias     | st | subnet | layer | act func     | out func
---------|----------|----|--------|-------|--------------|-------------
 0.00000 |  0.00000 | h  |      0 |     1 | Act_Logistic | Out_Identity
---------|----------|----|--------|-------|--------------|-------------


unit definition section :

no. | typeName | unitName | act      | bias     | st | position | act func | out func | sites
----|----------|----------|----------|----------|----|----------|----------|----------|-------
  1 |          |           |  0.28868 |        0 | i  |  2, 1, 0 |||
  2 |          |           |   6.7292 |        0 | i  |  2, 3, 0 |||
  3 |          |           |   8.2824 |        0 | i  |  2, 4, 0 |||
  4 |          |           |   3.3204 |        0 | i  |  2, 5, 0 |||
  5 |          |           |   5.9738 |        0 | i  |  2, 7, 0 |||
  6 |          |           |   20.855 |        0 | i  |  2, 8, 0 |||
  7 |          |           |   9.4868 |        0 | i  |  2, 9, 0 |||
  8 |          |           |   18.292 |        0 | i  |  2,11, 0 |||
  9 |          |           |  -1.4154 |        0 | i  |  2,12, 0 |||
 10 |          |           |  0.47592 |        0 | i  |  2,13, 0 |||
 11 |          |           |   6.0027 |        0 | i  |  2,14, 0 |||
 12 |          |           |  0.46083 |        0 | i  |  2,15, 0 |||
 13 |          |           |    11.59 |        0 | i  |  2,16, 0 |||
 14 |          |           | -0.67256 |        0 | i  |  2,17, 0 |||
 15 |          |           |    1.274 |        0 | i  |  2,18, 0 |||
 16 |          |           |   1.0105 |        0 | i  |  2,23, 0 |||
 17 |          |           | -0.42124 |        0 | i  |  2,24, 0 |||
 18 |          |           | -0.89536 |        0 | i  |  2,25, 0 |||
 19 |          |           |     41.4 |        0 | i  |  2,27, 0 |||
 20 |          |           |   9.9397 |        0 | i  |  2,28, 0 |||
 21 |          |           |   113.59 |        0 | i  |  2,19, 0 |||
 22 |          |           |     25.8 |        0 | i  |  2,20, 0 |||
 23 |          |           |    17.74 |        0 | i  |  2,21, 0 |||
 24 |          |           | 0.0011978 |   1.1303 | h  |  7, 3, 0 |||
 25 |          |           |  0.95619 | -0.56978 | h  |  8, 3, 0 |||
 26 |          |           |  0.99929 |   0.3538 | h  |  7, 4, 0 |||
 27 |          |           | 0.0026761 | -0.48785 | h  |  8, 4, 0 |||
 28 |          |           | 0.0003621 |  0.61448 | h  |  7, 5, 0 |||
 29 |          |           |  0.99443 | -0.36131 | h  |  8, 5, 0 |||
 30 |          |           | 1.2028e-05 | -0.69091 | h  |  7, 7, 0 |||
 31 |          |           |  0.99949 |    0.327 | h  |  8, 7, 0 |||
 32 |          |           | 3.2401e-07 | -0.54667 | h  |  7, 8, 0 |||
 33 |          |           | 3.6469e-08 | -0.16852 | h  |  8, 8, 0 |||
 34 |          |           |  0.02684 |  0.90731 | h  |  7, 9, 0 |||
 35 |          |           | 0.012651 |   1.0732 | h  |  8, 9, 0 |||
 36 |          |           | 3.7911e-05 |  0.04988 | h  |  7,11, 0 |||
 37 |          |           |  0.99996 | -0.02865 | h  |  8,11, 0 |||
 38 |          |           | 1.9395e-17 | -0.36953 | h  |  7,12, 0 |||
 39 |          |           | 7.9024e-37 |  0.44797 | h  |  8,12, 0 |||
 40 |          |           |        1 | -0.81458 | h  |  7,13, 0 |||
 41 |          |           |        1 |  0.85657 | h  |  8,13, 0 |||
 42 |          |           | 5.3869e-55 |  0.91293 | h  |  7,14, 0 |||
 43 |          |           |        1 |  0.65958 | h  |  8,14, 0 |||
 44 |          |           |        1 | -0.62718 | h  |  7,15, 0 |||
 45 |          |           |        1 |  0.57303 | h  |  8,15, 0 |||
 46 |          |           | 2.7656e-12 |  0.44241 | h  |  7,16, 0 |||
 47 |          |           |        1 |  0.85337 | h  |  8,16, 0 |||
 48 |          |           |        1 |  0.81002 | h  |  7,17, 0 |||
 49 |          |           | 2.0928e-23 | -0.88362 | h  |  8,17, 0 |||
 50 |          |           |  0.24592 | -0.44307 | h  |  7,22, 0 |||
 51 |          |           |  0.58973 |  0.48088 | h  |  8,22, 0 |||
 52 |          |           |  0.55691 | -0.29837 | h  |  7,23, 0 |||
 53 |          |           |  0.71226 | -0.44189 | h  |  8,23, 0 |||
 54 |          |           |  0.89483 |  0.45441 | h  |  7,24, 0 |||
 55 |          |           |  0.81525 | -0.39051 | h  |  8,24, 0 |||
 56 |          |           | 1.2467e-17 |  0.79848 | h  |  7,26, 0 |||
 57 |          |           |        1 | -0.78658 | h  |  8,26, 0 |||
 58 |          |           |        1 | -0.86625 | h  |  7,27, 0 |||
 59 |          |           |        1 | -0.15614 | h  |  8,27, 0 |||
 60 |          |           |  0.99354 |  0.46276 | h  | 13,12, 0 |||
 61 |          |           |  0.78993 |  0.86441 | h  | 14,12, 0 |||
 62 |          |           |  0.40426 |   0.1867 | h  | 13,13, 0 |||
 63 |          |           |  0.37237 |  0.86296 | h  | 14,13, 0 |||
 64 |          |           |  0.99199 |  0.83899 | h  | 13,14, 0 |||
 65 |          |           | 0.074979 | -0.26949 | h  | 14,14, 0 |||
 66 |          |           | 0.0037347 | -0.61687 | h  | 13,15, 0 |||
 67 |          |           |  0.73809 |  0.15116 | h  | 14,15, 0 |||
 68 |          |           |  0.98754 |   1.1125 | h  | 13,16, 0 |||
 69 |          |           |   0.4586 |  0.73192 | h  | 14,16, 0 |||
 70 |          |           |  0.98964 |  0.53855 | o  | 18,14, 0 |||
----|----------|----------|----------|----------|----|----------|----------|----------|-------


connection definition section :

target | site | source:weight
-------|------|------------------------------------------------------------------------------------------------------------
    24 |      |   1:  1.1546,   2: -1.0387,   3:-0.11287,   4:-0.079816
    25 |      |   1: 0.55329,   2: 0.49106,   3:0.038168,   4:-0.038368
    26 |      |   1:-0.46371,   2: 0.04119,   3:  1.1242,   4:-0.77119
    27 |      |   1:-0.43155,   2:-0.56176,   3:-0.11859,   4:-0.16441
    28 |      |   1: 0.79058,   2: 0.21169,   3: -1.3752,   4: 0.36123
    29 |      |   1:-0.019928,   2: 0.69535,   3:0.0024042,   4: 0.25661
    30 |      |   1:-0.24358,   5: 0.37203,   6:-0.85265,   7: 0.52623
    31 |      |   1:-0.87639,   5:-0.23559,   6: 0.47436,   7:-0.10244
    32 |      |   1: 0.95683,   5: 0.65298,   6: -1.2897,   7: 0.87741
    33 |      |   1: 0.66835,   5:-0.72758,   6:-0.46102,   7:-0.33628
    34 |      |   1: 0.19949,   5: -1.0935,   6:0.099971,   7:-0.011377
    35 |      |   1:-0.93958,   5:-0.49009,   6:-0.11793,   7:0.024024
    36 |      |   1: 0.68558,   8: 0.33862,   9:0.0070825,  10:  1.0434,  11:-0.56974,  12: 0.12632,  13:-0.57701,  14: 0.65573, 
                 15: 0.38716,  21:0.063714,  22:-0.25766,  23:-0.43412
    37 |      |   1:-0.059365,   8:-0.43057,   9: 0.14188,  10:-0.67794,  11: -0.5938,  12: 0.90832,  13:-0.0095604,  14: 0.29136, 
                 15: 0.18499,  21:0.078847,  22: 0.72914,  23:-0.33812
    38 |      |   1: 0.66986,   8:-0.14451,   9: 0.49223,  10:-0.22136,  11:0.033949,  12:0.077755,  13: -1.0699,  14:-0.88346, 
                 15:-0.076368,  21:-0.36072,  22: 0.43659,  23: 0.36721
    39 |      |   1:-0.29488,   8:-0.86307,   9: 0.25197,  10: 0.47208,  11:-0.044519,  12:-0.87411,  13: 0.99089,  14:-0.80763, 
                 15:-0.090947,  21:-0.62534,  22:-0.82854,  23: 0.76638
    40 |      |   1: 0.35089,   8: 0.07173,   9: 0.20987,  10: 0.93336,  11: 0.89629,  12:-0.12094,  13:-0.013019,  14: 0.39811, 
                 15: 0.42926,  21: 0.90655,  22:-0.55427,  23:  0.7352
    41 |      |   1: 0.38156,   8:-0.26511,   9: 0.89017,  10:-0.55023,  11:  0.2454,  12:-0.38944,  13:-0.47125,  14:-0.51602, 
                 15:-0.88768,  21: 0.54717,  22: -0.2561,  23: -1.0245
    42 |      |   1: 0.63569,   8:-0.74565,   9:-0.97083,  10: 0.36962,  11: 0.75149,  12: 0.35614,  13:-0.49809,  14: 0.15386, 
                 15: 0.27017,  21: -0.6376,  22: -1.0032,  23:-0.83432
    43 |      |   1: 0.42253,   8:-0.53454,   9:-0.68542,  10: 0.14078,  11:-0.94397,  12: 0.89545,  13:  1.0981,  14:-0.83031, 
                 15: -1.0995,  21: 0.11073,  22: 0.33762,  23:-0.25186
    44 |      |   1:-0.10427,   8:-0.75219,   9:-0.60816,  10:-0.11203,  11:-0.76419,  12:  0.9117,  13: 0.36743,  14: -0.7961, 
                 15: 0.45233,  21: 0.25234,  22: 0.58225,  23:  0.8114
    45 |      |   1:-0.17589,   8: -0.7394,   9: -0.4766,  10:0.017382,  11: -1.0056,  12:  1.0471,  13:0.042304,  14:-0.79084, 
                 15:0.038904,  21: 0.32754,  22: 0.91472,  23: 0.16945
    46 |      |   1: 0.92122,   8:-0.90714,   9:-0.54843,  10: -0.2167,  11: 0.90016,  12: 0.41536,  13:-0.07745,  14:-0.91051, 
                 15:  0.6863,  21:0.0064553,  22:-0.83332,  23:  0.1793
    47 |      |   1: 0.61116,   8:-0.44322,   9: 0.04516,  10: 0.53987,  11:0.041302,  12: 0.93307,  13: 0.65843,  14: 0.35295, 
                 15:-0.35288,  21: 0.68844,  22: 0.31368,  23: 0.89894
    48 |      |   1:-0.62467,   8: 0.47259,   9: 0.91019,  10: 0.68329,  11:-0.024704,  12:  1.1144,  13: 0.89714,  14:-0.082855, 
                 15: -0.8322,  21: 0.59104,  22:-0.88554,  23: 0.70973
    49 |      |   1:-0.96578,   8:-0.21545,   9:-0.96765,  10: 0.25953,  11:-0.88709,  12: 0.63558,  13:  0.9491,  14: 0.10421, 
                 15:  0.3448,  21:-0.41298,  22:-0.17101,  23:-0.20433
    50 |      |   1: 0.60189,  16:-0.35134,  17: 0.38818,  18: 0.37151
    51 |      |   1: 0.85742,  16:-0.27664,  17:-0.63621,  18: 0.39536
    52 |      |   1:-0.87724,  16: 0.09687,  17:-0.64413,  18:-0.45904
    53 |      |   1:-0.63675,  16: 0.89457,  17:-0.48057,  18:-0.47541
    54 |      |   1:-0.35368,  16: 0.89424,  17:-0.51421,  18:-0.74655
    55 |      |   1: 0.68866,  16: 0.74408,  17: -0.7762,  18:-0.66712
    56 |      |   1:-0.59284,  19:-0.95015,  20:-0.021614
    57 |      |   1: 0.49707,  19: 0.67069,  20: 0.63939
    58 |      |   1:  1.0091,  19: 0.25118,  20: 0.64674
    59 |      |   1:-0.90459,  19: 0.90081,  20:-0.58231
    60 |      |  24:-0.73603,  25: -0.3213,  26: 0.80855,  27:-0.098003,  28: -0.1715,  29:  1.0311,  30:-0.61277,  31:   1.198, 
                 32: -1.0468,  33:-0.78013,  34: 0.52776,  35: 0.95804,  36:-0.51875,  37:-0.85107,  38: 0.01741,  39:-0.31436, 
                 40:-0.75247,  41: 0.89657,  42:-0.35463,  43: 0.68167,  44: 0.51687,  45:-0.51423,  46: 0.72818,  47: 0.66181, 
                 48: 0.71766,  49: 0.31189,  50: 0.64638,  51: 0.39141,  52: 0.29111,  53: -1.0259,  54: -1.0178,  55: 0.59007, 
                 56:-0.20297,  57: 0.42954,  58: -0.3321,  59: 0.97792
    61 |      |  24:-0.069455,  25: 0.83304,  26: 0.81588,  27: 0.25726,  28: 0.12153,  29: 0.71702,  30: 0.61942,  31: 0.38845, 
                 32: -0.9748,  33:-0.46755,  34: 0.25419,  35: 0.77347,  36:-0.0076545,  37:-0.038512,  38: 0.45142,  39: 0.16446, 
                 40:-0.29042,  41:-0.34305,  42:-0.46791,  43:-0.98112,  44:-0.90493,  45: 0.88647,  46: 0.26935,  47:-0.73841, 
                 48:  1.0951,  49:0.031617,  50:-0.064846,  51: 0.31502,  52: 0.61754,  53:-0.31379,  54:-0.50315,  55:-0.24163, 
                 56:-0.43362,  57:-0.73685,  58:-0.79413,  59: 0.93257
    62 |      |  24: 0.99917,  25: 0.15779,  26: -1.1098,  27:-0.63783,  28:-0.39289,  29: 0.84224,  30: 0.45242,  31: 0.52448, 
                 32: 0.23908,  33:-0.37708,  34:-0.83807,  35: 0.81496,  36: 0.35486,  37: -0.9587,  38: 0.73734,  39:    0.32, 
                 40: 0.50717,  41:-0.97097,  42:-0.0093973,  43:-0.51199,  44:0.077464,  45:-0.53799,  46:-0.64454,  47: 0.79211, 
                 48:-0.011943,  49: 0.23451,  50:-0.64894,  51: 0.29395,  52: 0.38057,  53:-0.65626,  54: 0.26529,  55: 0.36624, 
                 56: 0.46339,  57:  0.3815,  58: 0.74111,  59:-0.76728
    63 |      |  24: 0.81933,  25: 0.63656,  26:-0.65346,  27:-0.81653,  28:-0.80458,  29:-0.79917,  30: 0.50624,  31:-0.77771, 
                 32:-0.43082,  33:-0.40482,  34:  1.0673,  35: -0.2184,  36:  1.0468,  37: -0.8218,  38: 0.27849,  39:-0.12232, 
                 40:-0.29057,  41:   0.353,  42: 0.49856,  43: -1.0584,  44: 0.99465,  45:0.013963,  46: 0.82698,  47:-0.83799, 
                 48: -1.0582,  49:-0.16921,  50: 0.81651,  51: 0.54824,  52:-0.42612,  53:-0.80574,  54:-0.011519,  55: 0.97312, 
                 56: 0.83275,  57: 0.53465,  58: 0.98906,  59: 0.89256
    64 |      |  24:  0.3441,  25:-0.76783,  26: -0.7052,  27:-0.91992,  28: 0.96332,  29:-0.14869,  30:-0.98776,  31:-0.52124, 
                 32:-0.59386,  33:-0.58973,  34: 0.21949,  35: 0.82657,  36: 0.98553,  37: 0.31544,  38: 0.73103,  39:-0.15425, 
                 40:-0.21414,  41: 0.95769,  42: 0.13302,  43: 0.57001,  44: 0.78475,  45:-0.34539,  46:-0.87814,  47: 0.90398, 
                 48: 0.53832,  49: 0.93551,  50: 0.82844,  51:-0.044126,  52: 0.86247,  53: 0.80484,  54:-0.20205,  55: 0.24654, 
                 56: 0.99778,  57:0.012951,  58: 0.32793,  59: 0.97002
    65 |      |  24:  1.1534,  25:-0.87392,  26: -1.0091,  27:  1.0705,  28: 0.90581,  29: -1.3887,  30: 0.75129,  31:-0.13942, 
                 32:  0.8312,  33:-0.15157,  34:   1.138,  35:  1.1227,  36: 0.59775,  37:-0.054612,  38: 0.55564,  39: 0.13149, 
                 40:  0.1266,  41: 0.26202,  42: 0.74872,  43: 0.24082,  44: 0.49081,  45: 0.26291,  46: 0.46543,  47: 0.29967, 
                 48: 0.98029,  49:-0.61334,  50:  0.1705,  51:-0.36562,  52: 0.35414,  53:-0.35421,  54:-0.78413,  55:-0.29104, 
                 56: 0.19775,  57:-0.22414,  58:-0.045272,  59:-0.099603
    66 |      |  24:-0.37653,  25: 0.83187,  26:-0.96323,  27:0.064436,  28: 0.94592,  29:-0.92554,  30: 0.01069,  31:-0.51041, 
                 32:  1.0097,  33: 0.18295,  34:-0.88734,  35:0.079499,  36:0.074353,  37: 0.30186,  38:-0.93739,  39: 0.95846, 
                 40:-0.72554,  41: 0.09776,  42: 0.54235,  43:-0.42118,  44:-0.92672,  45:-0.87971,  46: -0.6828,  47:-0.13486, 
                 48:-0.66865,  49: 0.18942,  50:-0.77107,  51: 0.18322,  52: 0.90359,  53: 0.22846,  54: 0.87858,  55:-0.62821, 
                 56: 0.01753,  57:-0.72805,  58: 0.34831,  59:-0.47071
    67 |      |  24:-0.74369,  25: 0.25401,  26: -1.0775,  27: 0.29632,  28: 0.39789,  29:-0.04022,  30:-0.60884,  31:-0.45128, 
                 32: 0.25885,  33:-0.77053,  34:0.029454,  35:-0.63308,  36: 0.78273,  37: 0.51231,  38: -0.7358,  39:  1.0096, 
                 40: 0.84381,  41: 0.26157,  42:-0.52433,  43:-0.010922,  44: 0.59511,  45: 0.61845,  46:0.012977,  47:-0.25575, 
                 48: 0.37585,  49: 0.25894,  50:  0.7824,  51:  0.7613,  52:-0.36915,  53:-0.57288,  54:-0.78546,  55:-0.21118, 
                 56: 0.61428,  57: -0.8228,  58:  1.0177,  59:-0.071111
    68 |      |  24: -1.0124,  25: 0.66994,  26: 0.11693,  27:-0.37781,  28: -1.1341,  29:-0.20959,  30:-0.95437,  31: -0.4583, 
                 32:-0.66325,  33:-0.53077,  34: 0.84971,  35:-0.77555,  36:-0.012563,  37: 0.09361,  38:  1.4764,  39:-0.54225, 
                 40:  0.8163,  41: -0.1398,  42:  1.0417,  43: 0.47392,  44:-0.50993,  45: 0.81837,  46: 0.40999,  47:0.083947, 
                 48:  1.2981,  49:-0.29287,  50:-0.30149,  51: 0.98143,  52:-0.68476,  53: 0.19252,  54:-0.13545,  55:-0.56907, 
                 56: 0.31483,  57:0.081591,  58: 0.20493,  59: 0.26231
    69 |      |  24: 0.73779,  25: 0.28432,  26:-0.25043,  27:  0.8653,  28: 0.26623,  29:-0.058401,  30:-0.47797,  31:-0.86356, 
                 32:-0.11649,  33:-0.11427,  34:  1.0729,  35: 0.58153,  36:-0.29696,  37:0.050727,  38: 0.93819,  39:-0.63082, 
                 40:-0.27297,  41:-0.26903,  42:  0.9541,  43: 0.14375,  44: 0.18012,  45: 0.87424,  46: 0.57096,  47: -0.4834, 
                 48:-0.16941,  49:-0.82979,  50: 0.35723,  51:-0.92435,  52:  0.3634,  53:-0.36309,  54: 0.91357,  55:-0.065444, 
                 56: 0.98199,  57:-0.30188,  58:-0.24823,  59: 0.20771
    70 |      |  60:  1.5391,  61:  0.8869,  62:-0.67193,  63:  -1.575,  64: 0.68494,  65: -2.5747,  66: -1.4058,  67:-0.11484, 
                 68:  2.5211,  69:-0.51618
-------|------|----------------------------------------------------------------------------------------------------------------
