SNNS network definition file V1.4-3D
generated at Thu May 09 10:11:49 1996

network name : edge_23
source files :
no. of units : 70
no. of connections : 622
no. of unit types : 0
no. of site types : 0


learning function : Std_Backpropagation
update function : Topological_Order


unit default section :

act      | bias     | st | subnet | layer | act func     | out func
---------|----------|----|--------|-------|--------------|-------------
 0.00000 |  0.00000 | h  |      0 |     1 | Act_Logistic | Out_Identity
---------|----------|----|--------|-------|--------------|-------------


unit definition section :

no. | typeName | unitName | act      | bias     | st | position | act func | out func | sites
----|----------|----------|----------|----------|----|----------|----------|----------|-------
  1 |          |           |        0 |        0 | i  |  2, 1, 0 |||
  2 |          |           |   7.0868 |        0 | i  |  2, 3, 0 |||
  3 |          |           |       12 |        0 | i  |  2, 4, 0 |||
  4 |          |           |   10.042 |        0 | i  |  2, 5, 0 |||
  5 |          |           |   9.8114 |        0 | i  |  2, 7, 0 |||
  6 |          |           |        3 |        0 | i  |  2, 8, 0 |||
  7 |          |           |   5.2947 |        0 | i  |  2, 9, 0 |||
  8 |          |           |   5.5207 |        0 | i  |  2,11, 0 |||
  9 |          |           |  -1.5414 |        0 | i  |  2,12, 0 |||
 10 |          |           |   1.0742 |        0 | i  |  2,13, 0 |||
 11 |          |           | -0.77213 |        0 | i  |  2,14, 0 |||
 12 |          |           |  0.54424 |        0 | i  |  2,15, 0 |||
 13 |          |           | -0.98028 |        0 | i  |  2,16, 0 |||
 14 |          |           |   2.4813 |        0 | i  |  2,17, 0 |||
 15 |          |           |  0.75993 |        0 | i  |  2,18, 0 |||
 16 |          |           |    2.374 |        0 | i  |  2,23, 0 |||
 17 |          |           |  0.95345 |        0 | i  |  2,24, 0 |||
 18 |          |           | -0.26061 |        0 | i  |  2,25, 0 |||
 19 |          |           |       12 |        0 | i  |  2,27, 0 |||
 20 |          |           |    5.273 |        0 | i  |  2,28, 0 |||
 21 |          |           |    366.5 |        0 | i  |  2,19, 0 |||
 22 |          |           |        9 |        0 | i  |  2,20, 0 |||
 23 |          |           |    39.76 |        0 | i  |  2,21, 0 |||
 24 |          |           |  0.97631 |  0.19928 | h  |  7, 3, 0 |||
 25 |          |           |  0.92906 | -0.41684 | h  |  8, 3, 0 |||
 26 |          |           | 2.9188e-06 |  0.28681 | h  |  7, 4, 0 |||
 27 |          |           |  0.99992 |  0.33737 | h  |  8, 4, 0 |||
 28 |          |           |  0.28035 |   1.8636 | h  |  7, 5, 0 |||
 29 |          |           |        1 | -0.40262 | h  |  8, 5, 0 |||
 30 |          |           |  0.96435 | -0.42153 | h  |  7, 7, 0 |||
 31 |          |           |  0.66157 | -0.71917 | h  |  8, 7, 0 |||
 32 |          |           |  0.27593 |  0.58011 | h  |  7, 8, 0 |||
 33 |          |           |   0.9777 | -0.54901 | h  |  8, 8, 0 |||
 34 |          |           | 0.070048 |  0.64723 | h  |  7, 9, 0 |||
 35 |          |           |  0.41519 |  0.79086 | h  |  8, 9, 0 |||
 36 |          |           |        1 | -0.20561 | h  |  7,11, 0 |||
 37 |          |           | 1.7608e-88 | -0.79864 | h  |  8,11, 0 |||
 38 |          |           | 9.2252e-165 | -0.32223 | h  |  7,12, 0 |||
 39 |          |           | 2.0061e-72 | -0.62088 | h  |  8,12, 0 |||
 40 |          |           | 1.0426e-83 |  0.80458 | h  |  7,13, 0 |||
 41 |          |           |        1 | -0.21673 | h  |  8,13, 0 |||
 42 |          |           | 1.4731e-119 |  0.54929 | h  |  7,14, 0 |||
 43 |          |           | 2.4107e-92 |  0.44101 | h  |  8,14, 0 |||
 44 |          |           | 1.4423e-169 | -0.30008 | h  |  7,15, 0 |||
 45 |          |           | 6.2659e-89 |   1.1033 | h  |  8,15, 0 |||
 46 |          |           | 4.5226e-126 | -0.30643 | h  |  7,16, 0 |||
 47 |          |           | 1.4851e-22 |  0.29206 | h  |  8,16, 0 |||
 48 |          |           | 2.7055e-124 |   1.0765 | h  |  7,17, 0 |||
 49 |          |           | 2.5191e-123 |   0.3086 | h  |  8,17, 0 |||
 50 |          |           |  0.86268 |  0.40399 | h  |  7,22, 0 |||
 51 |          |           |  0.41404 |   1.0287 | h  |  8,22, 0 |||
 52 |          |           |  0.37694 | -0.088089 | h  |  7,23, 0 |||
 53 |          |           |   0.5734 |  0.56889 | h  |  8,23, 0 |||
 54 |          |           |  0.44861 | -0.051756 | h  |  7,24, 0 |||
 55 |          |           |  0.29431 |   0.4905 | h  |  8,24, 0 |||
 56 |          |           |  0.61512 | -0.72184 | h  |  7,26, 0 |||
 57 |          |           | 0.00051993 | -0.90311 | h  |  8,26, 0 |||
 58 |          |           |        1 | -0.61564 | h  |  7,27, 0 |||
 59 |          |           |  0.99958 |  0.35867 | h  |  8,27, 0 |||
 60 |          |           | 0.0023937 | -0.71807 | h  | 13,12, 0 |||
 61 |          |           |  0.85509 |   0.8936 | h  | 14,12, 0 |||
 62 |          |           |  0.28832 | -0.91213 | h  | 13,13, 0 |||
 63 |          |           |  0.38484 | -0.029118 | h  | 14,13, 0 |||
 64 |          |           | 0.0051023 | -0.065831 | h  | 13,14, 0 |||
 65 |          |           |  0.49804 |   0.8486 | h  | 14,14, 0 |||
 66 |          |           |  0.77246 |  -1.1287 | h  | 13,15, 0 |||
 67 |          |           |  0.29149 | -0.65007 | h  | 14,15, 0 |||
 68 |          |           |  0.20519 | -0.59623 | h  | 13,16, 0 |||
 69 |          |           |  0.87997 |  0.92477 | h  | 14,16, 0 |||
 70 |          |           |  0.98971 |  0.76206 | o  | 18,14, 0 |||
----|----------|----------|----------|----------|----|----------|----------|----------|-------


connection definition section :

target | site | source:weight
-------|------|------------------------------------------------------------------------------------------------------------
    24 |      |   1:-0.20921,   2:0.044708,   3:0.0059282,   4: 0.31184
    25 |      |   1: 0.97618,   2: 0.47928,   3:-0.0049504,   4:-0.034663
    26 |      |   1:-0.81056,   2: 0.52373,   3:-0.66107,   4:-0.87734
    27 |      |   1:-0.51673,   2: 0.78775,   3:-0.65811,   4:  1.1332
    28 |      |   1: 0.64288,   2:-0.52934,   3:-0.13361,   4: 0.25378
    29 |      |   1: 0.22761,   2:-0.36087,   3:  2.8406,   4:-0.52038
    30 |      |   1: -0.4671,   5: 0.19017,   6:-0.11907,   7: 0.41753
    31 |      |   1: -1.0133,   5: 0.09768,   6:-0.27636,   7:   0.238
    32 |      |   1:-0.95017,   5: 0.04848,   6: 0.77933,   7:-0.82319
    33 |      |   1:-0.42267,   5: 0.16007,   6:  0.1714,   7: 0.42402
    34 |      |   1:-0.57047,   5:-0.57173,   6: -0.2269,   7: 0.57738
    35 |      |   1:  1.1634,   5:-0.0091037,   6: -1.0558,   7: 0.40103
    36 |      |   1:  0.4464,   8:-0.93971,   9:-0.031452,  10:-0.41908,  11: 0.87893,  12: 0.64135,  13:-0.61939,  14:-0.31384, 
                 15:-0.64826,  21:  0.6084,  22:-0.0098447,  23:0.067723
    37 |      |   1:-0.12594,   8:-0.17881,   9:-0.54412,  10: 0.11496,  11: 0.26274,  12: 0.56571,  13:-0.93079,  14: 0.81831, 
                 15:  1.0486,  21:-0.54834,  22:-0.36674,  23:-0.020505
    38 |      |   1:-0.51957,   8:-0.59492,   9:-0.79174,  10:-0.70945,  11: -0.7057,  12: 0.68469,  13:-0.51242,  14: 0.31992, 
                 15: -1.0533,  21:-0.96075,  22: 0.16763,  23:-0.63786
    39 |      |   1: 0.77509,   8: 0.77048,   9: 0.98226,  10:-0.40687,  11:-0.0090133,  12:-0.67356,  13: 0.14994,  14: 0.15761, 
                 15: 0.45283,  21:-0.54462,  22:-0.52093,  23: 0.93797
    40 |      |   1:-0.48465,   8:-0.41562,   9: 0.19483,  10: 0.16776,  11:-0.93739,  12: 0.64983,  13:-0.40107,  14:-0.05479, 
                 15:  1.5471,  21:-0.46226,  22:-0.086513,  23:-0.54764
    41 |      |   1:-0.079072,   8: -0.5351,   9:-0.0072403,  10: 0.81026,  11: 0.57928,  12:-0.13497,  13: 0.06432,  14:-0.037014, 
                 15:-0.26777,  21: 0.95386,  22: 0.33604,  23:-0.69588
    42 |      |   1: 0.14593,   8:-0.23923,   9: 0.85289,  10:-0.10116,  11: 0.65259,  12: 0.79425,  13:  0.3699,  14:-0.57506, 
                 15: 0.54078,  21:-0.82349,  22:-0.66063,  23: 0.95027
    43 |      |   1:-0.54248,   8:-0.10856,   9:-0.66146,  10:-0.54285,  11: -1.0301,  12: 0.39736,  13:  0.3404,  14: 0.33649, 
                 15:0.047512,  21:-0.66538,  22:-0.96989,  23:  1.0012
    44 |      |   1: 0.11012,   8:  0.8752,   9:-0.78946,  10: 0.53946,  11:-0.31145,  12: 0.79094,  13:-0.33222,  14:-0.53498, 
                 15:-0.091351,  21:-0.98538,  22:-0.79066,  23:-0.66497
    45 |      |   1: 0.86135,   8:-0.60519,   9:-0.050119,  10: 0.71766,  11: 0.75345,  12: 0.20335,  13:-0.73234,  14: -1.0013, 
                 15:-0.89682,  21:-0.54571,  22: 0.20252,  23:-0.015182
    46 |      |   1: 0.84427,   8: 0.66988,   9:-0.95113,  10: 0.45588,  11:-0.25463,  12: 0.19527,  13: 0.56061,  14: 0.76056, 
                 15:-0.025353,  21:-0.84286,  22: 0.43471,  23: 0.23678
    47 |      |   1: -0.6734,   8: 0.54659,   9:-0.13492,  10:-0.60942,  11: -1.1538,  12:-0.22771,  13:0.093623,  14:-0.074949, 
                 15:-0.19539,  21:-0.090837,  22:-0.71533,  23:-0.34545
    48 |      |   1:-0.63641,   8: 0.63887,   9:-0.62328,  10: 0.31385,  11: 0.53787,  12:-0.87494,  13: 0.14164,  14: 0.57057, 
                 15: 0.74559,  21:-0.76018,  22:-0.17987,  23:-0.28043
    49 |      |   1: 0.61129,   8: 0.09041,   9: 0.37637,  10:0.051056,  11: 0.78048,  12: 0.45901,  13:-0.64251,  14:-0.26945, 
                 15:-0.85608,  21:-0.80325,  22: 0.29689,  23: 0.25622
    50 |      |   1: 0.68149,  16: 0.17343,  17:  1.0318,  18:-0.14674
    51 |      |   1: 0.98197,  16:-0.68625,  17: 0.35107,  18: 0.31281
    52 |      |   1: 0.56302,  16:-0.30523,  17: 0.37289,  18: 0.17412
    53 |      |   1:  -1.001,  16:-0.16111,  17: 0.34392,  18: 0.83878
    54 |      |   1:-0.52589,  16:-0.084089,  17:  0.3602,  18:  1.1448
    55 |      |   1:-0.94687,  16:-0.65806,  17: 0.26447,  18: 0.21089
    56 |      |   1:-0.27519,  19:-0.19695,  20: 0.67403
    57 |      |   1: 0.98245,  19:-0.19683,  20:-0.81477
    58 |      |   1:-0.24281,  19: 0.73679,  20: 0.85137
    59 |      |   1:-0.54971,  19: 0.28939,  20: 0.74728
    60 |      |  24: 0.36411,  25: -1.0861,  26:-0.18094,  27: 0.66156,  28: 0.98485,  29: -1.6762,  30: -1.1449,  31:-0.031908, 
                 32:-0.71027,  33:-0.032019,  34: 0.28109,  35:-0.029097,  36:-0.56866,  37:-0.51448,  38:-0.82484,  39:0.074803, 
                 40:  1.1695,  41: -1.2374,  42: 0.39336,  43: 0.51026,  44:0.035754,  45:  0.6816,  46: 0.64912,  47:  1.2121, 
                 48:  0.5178,  49:  0.4166,  50:-0.54613,  51:-0.67163,  52:0.051358,  53:-0.80058,  54:  0.4119,  55:-0.47638, 
                 56: -1.0163,  57:  0.8452,  58: 0.35492,  59: 0.64308
    61 |      |  24: 0.53211,  25: 0.27184,  26: -0.3555,  27:-0.81147,  28:  -1.773,  29:   1.942,  30: 0.17384,  31: 0.15087, 
                 32: -0.6869,  33:-0.64212,  34:-0.35383,  35: -1.3312,  36: 0.52035,  37:-0.055705,  38: 0.42823,  39: 0.71908, 
                 40:-0.91706,  41:0.091346,  42: 0.85965,  43:-0.62434,  44: 0.64803,  45:  0.7789,  46: 0.35201,  47: 0.42546, 
                 48: 0.23274,  49: 0.99741,  50: 0.97402,  51:-0.46235,  52:-0.10908,  53: 0.87939,  54: 0.43739,  55: -0.4508, 
                 56:-0.85998,  57:-0.68615,  58:-0.37113,  59:-0.28356
    62 |      |  24:-0.62264,  25:-0.94767,  26: -1.0108,  27:-0.17324,  28:-0.25631,  29:-0.98921,  30:-0.18775,  31: 0.54409, 
                 32: 0.19489,  33:-0.43177,  34: 0.89141,  35:-0.62654,  36: 0.96005,  37: -1.0029,  38: 0.94219,  39: 0.28275, 
                 40:-0.071554,  41: 0.64468,  42:-0.85368,  43:-0.72628,  44: 0.45986,  45:-0.29003,  46: 0.13951,  47: 0.10782, 
                 48: 0.87137,  49: 0.52738,  50: 0.88966,  51:-0.94163,  52:-0.29478,  53:-0.085504,  54:-0.94721,  55:0.062664, 
                 56:-0.027362,  57:-0.94074,  58: 0.88182,  59:  0.8385
    63 |      |  24:-0.56004,  25: 0.12122,  26: 0.36745,  27:0.003487,  28: 0.34283,  29: 0.80818,  30:0.062895,  31: 0.13669, 
                 32: 0.76013,  33:-0.49263,  34:-0.80877,  35: 0.33514,  36:-0.36409,  37:-0.44137,  38:-0.12423,  39:  0.5702, 
                 40: 0.74177,  41: -1.0893,  42: 0.38653,  43: 0.22575,  44: 0.94854,  45: 0.59517,  46:-0.99209,  47:-0.085353, 
                 48: 0.67985,  49: 0.10181,  50: 0.77485,  51: 0.66259,  52:-0.10274,  53: 0.61099,  54: 0.84531,  55: 0.50006, 
                 56:-0.081745,  57: 0.29285,  58:-0.29576,  59:-0.85713
    64 |      |  24: -0.8464,  25:  0.5983,  26: 0.17278,  27: 0.12229,  28: 0.92458,  29:  -1.789,  30: 0.28937,  31:-0.70302, 
                 32:-0.10017,  33: -0.1017,  34:-0.77213,  35: 0.43607,  36:-0.56968,  37: 0.34233,  38: 0.27351,  39:  -1.026, 
                 40: 0.81938,  41: -1.0914,  42: 0.68317,  43:-0.42218,  44: 0.92555,  45: 0.27207,  46: 0.40171,  47:  0.9691, 
                 48: 0.37653,  49:-0.053217,  50:-0.17249,  51:-0.00094204,  52:-0.81337,  53: 0.07806,  54: 0.77615,  55: -0.6957, 
                 56:-0.51978,  57:-0.27807,  58:-0.37707,  59:-0.71761
    65 |      |  24:-0.94212,  25:-0.24996,  26:-0.78713,  27:-0.0024981,  28:-0.031756,  29: 0.41138,  30: 0.41257,  31:-0.70053, 
                 32:-0.36801,  33:  0.4801,  34: 0.83937,  35:-0.24102,  36:  0.1654,  37:-0.59404,  38:-0.28543,  39:-0.32583, 
                 40:  1.0211,  41:-0.64164,  42:-0.93709,  43: 0.17834,  44: 0.08655,  45:-0.27001,  46: 0.19463,  47:-0.89541, 
                 48:-0.47068,  49: 0.26426,  50:-0.38321,  51: 0.22648,  52: 0.95521,  53:-0.010265,  54: -0.7847,  55:  1.0026, 
                 56: 0.73186,  57:-0.59143,  58:-0.031088,  59:-0.36848
    66 |      |  24:-0.32052,  25:  0.2898,  26:-0.72802,  27:  1.2195,  28: -1.1084,  29:0.049623,  30: 0.25076,  31: 0.44715, 
                 32: 0.62153,  33: 0.56728,  34:-0.034077,  35:-0.97466,  36: 0.33751,  37:-0.64314,  38: 0.27966,  39:-0.61112, 
                 40: 0.31224,  41: 0.17376,  42:-0.23072,  43:0.0023756,  44: 0.98665,  45: -1.3285,  46:-0.21826,  47:-0.086096, 
                 48:-0.60966,  49:-0.73883,  50:-0.39274,  51:-0.46161,  52: 0.50043,  53: 0.18033,  54:-0.69629,  55:  1.0133, 
                 56:-0.79547,  57:-0.19981,  58: 0.87056,  59:-0.060681
    67 |      |  24:-0.35995,  25: -1.1617,  26:  1.5016,  27:-0.47116,  28:  1.3244,  29: -1.4385,  30: -1.0468,  31:   0.142, 
                 32: 0.75254,  33:-0.34078,  34: 0.32711,  35: 0.19798,  36:  1.0337,  37: 0.50681,  38:-0.23931,  39: 0.42496, 
                 40:-0.59192,  41:  1.0813,  42:   1.053,  43:-0.54492,  44:-0.47375,  45:0.0067884,  46: -0.7935,  47:  0.5693, 
                 48:0.00072051,  49:-0.14481,  50: 0.90596,  51: 0.98944,  52:-0.72216,  53:-0.11332,  54:  1.0264,  55: 0.12426, 
                 56: 0.15343,  57: 0.99058,  58: 0.74716,  59: -0.6414
    68 |      |  24: 0.87914,  25: 0.67712,  26: 0.49759,  27:-0.50749,  28:-0.37316,  29:-0.73175,  30: 0.97788,  31:-0.79479, 
                 32:0.019427,  33: 0.55898,  34:-0.56056,  35: -0.3084,  36: 0.38809,  37: 0.24811,  38:0.014407,  39: 0.87846, 
                 40: 0.65641,  41:-0.39223,  42:-0.14568,  43:-0.96656,  44:-0.54182,  45: -0.2602,  46:-0.73451,  47: 0.28652, 
                 48:-0.30107,  49: 0.38876,  50:-0.76014,  51:-0.40919,  52:0.046253,  53:-0.56393,  54:-0.36441,  55:-0.065463, 
                 56:-0.88139,  57:-0.87408,  58: 0.42421,  59:-0.26701
    69 |      |  24: 0.50788,  25:0.063976,  26:  0.3834,  27:0.010506,  28: 0.35063,  29: -0.6728,  30:-0.52424,  31:-0.26266, 
                 32:  0.1906,  33:-0.73726,  34: -0.6948,  35: 0.74179,  36: 0.10798,  37:-0.60471,  38:-0.78924,  39: 0.86033, 
                 40: -0.3906,  41: 0.52216,  42:-0.48747,  43:  1.0558,  44: 0.74411,  45: 0.10565,  46: 0.10793,  47:-0.82291, 
                 48: 0.82685,  49: 0.93506,  50:-0.69005,  51: 0.90642,  52: 0.40495,  53:0.044851,  54:-0.70682,  55:-0.15173, 
                 56:  1.0365,  57: 0.71623,  58: 0.85819,  59: 0.44156
    70 |      |  60: -2.0486,  61:  2.7494,  62: 0.46474,  63:-0.64201,  64: -1.9079,  65:-0.0077759,  66:  2.0997,  67: -2.2306, 
                 68:0.057512,  69:  0.6833
-------|------|----------------------------------------------------------------------------------------------------------------
