SNNS network definition file V1.4-3D
generated at Thu May 09 10:11:49 1996

network name : edge_23
source files :
no. of units : 70
no. of connections : 622
no. of unit types : 0
no. of site types : 0


learning function : Std_Backpropagation
update function : Topological_Order


unit default section :

act      | bias     | st | subnet | layer | act func     | out func
---------|----------|----|--------|-------|--------------|-------------
 0.00000 |  0.00000 | h  |      0 |     1 | Act_Logistic | Out_Identity
---------|----------|----|--------|-------|--------------|-------------


unit definition section :

no. | typeName | unitName | act      | bias     | st | position | act func | out func | sites
----|----------|----------|----------|----------|----|----------|----------|----------|-------
  1 |          |           |        0 |        0 | i  |  2, 1, 0 |||
  2 |          |           | -0.19358 |        0 | i  |  2, 3, 0 |||
  3 |          |           |   -0.508 |        0 | i  |  2, 4, 0 |||
  4 |          |           |  0.28868 |        0 | i  |  2, 5, 0 |||
  5 |          |           | -0.40359 |        0 | i  |  2, 7, 0 |||
  6 |          |           |        0 |        0 | i  |  2, 8, 0 |||
  7 |          |           |  0.28868 |        0 | i  |  2, 9, 0 |||
  8 |          |           |   1.2369 |        0 | i  |  2,11, 0 |||
  9 |          |           | -0.34037 |        0 | i  |  2,12, 0 |||
 10 |          |           |  0.18493 |        0 | i  |  2,13, 0 |||
 11 |          |           |   -1.113 |        0 | i  |  2,14, 0 |||
 12 |          |           | -0.17929 |        0 | i  |  2,15, 0 |||
 13 |          |           |  0.64735 |        0 | i  |  2,16, 0 |||
 14 |          |           |   1.9017 |        0 | i  |  2,17, 0 |||
 15 |          |           |  0.30223 |        0 | i  |  2,18, 0 |||
 16 |          |           |  0.78567 |        0 | i  |  2,23, 0 |||
 17 |          |           |  0.64953 |        0 | i  |  2,24, 0 |||
 18 |          |           |  -0.2629 |        0 | i  |  2,25, 0 |||
 19 |          |           | -0.28868 |        0 | i  |  2,27, 0 |||
 20 |          |           | -0.25597 |        0 | i  |  2,28, 0 |||
 21 |          |           | -0.25597 |        0 | i  |  2,19, 0 |||
 22 |          |           | -0.28868 |        0 | i  |  2,20, 0 |||
 23 |          |           | -0.24818 |        0 | i  |  2,21, 0 |||
 24 |          |           |  0.65405 |  0.33712 | h  |  7, 3, 0 |||
 25 |          |           |  0.50842 | 0.034251 | h  |  8, 3, 0 |||
 26 |          |           |  0.45985 | -0.24298 | h  |  7, 4, 0 |||
 27 |          |           |  0.64221 |  0.26327 | h  |  8, 4, 0 |||
 28 |          |           |  0.76213 |    1.057 | h  |  7, 5, 0 |||
 29 |          |           |  0.37627 |  0.21445 | h  |  8, 5, 0 |||
 30 |          |           |  0.30269 | -0.57958 | h  |  7, 7, 0 |||
 31 |          |           |  0.35779 | -0.66688 | h  |  8, 7, 0 |||
 32 |          |           |  0.51275 |  0.58028 | h  |  7, 8, 0 |||
 33 |          |           |  0.35628 | -0.56976 | h  |  8, 8, 0 |||
 34 |          |           |   0.6924 |  0.41236 | h  |  7, 9, 0 |||
 35 |          |           |  0.65851 |  0.80887 | h  |  8, 9, 0 |||
 36 |          |           | 0.031928 | -0.39457 | h  |  7,11, 0 |||
 37 |          |           |    0.657 |  -0.8945 | h  |  8,11, 0 |||
 38 |          |           |  0.61297 | -0.25656 | h  |  7,12, 0 |||
 39 |          |           |  0.77348 | -0.71828 | h  |  8,12, 0 |||
 40 |          |           |   0.6948 |   1.0428 | h  |  7,13, 0 |||
 41 |          |           |  0.25998 | 0.010724 | h  |  8,13, 0 |||
 42 |          |           |  0.33754 |  0.51189 | h  |  7,14, 0 |||
 43 |          |           |  0.82214 |  0.38069 | h  |  8,14, 0 |||
 44 |          |           |  0.44083 | -0.46425 | h  |  7,15, 0 |||
 45 |          |           |  0.03198 |   1.3342 | h  |  8,15, 0 |||
 46 |          |           |  0.93742 | -0.39885 | h  |  7,16, 0 |||
 47 |          |           |  0.75708 |  0.16973 | h  |  8,16, 0 |||
 48 |          |           |  0.96749 |   1.0299 | h  |  7,17, 0 |||
 49 |          |           |  0.13436 |  0.29401 | h  |  8,17, 0 |||
 50 |          |           |  0.52114 |  0.31678 | h  |  7,22, 0 |||
 51 |          |           |  0.61908 |  0.99968 | h  |  8,22, 0 |||
 52 |          |           |  0.49806 | -0.025266 | h  |  7,23, 0 |||
 53 |          |           |  0.42137 |  0.44947 | h  |  8,23, 0 |||
 54 |          |           |  0.43947 |   0.3682 | h  |  7,24, 0 |||
 55 |          |           |  0.45702 |  0.24318 | h  |  8,24, 0 |||
 56 |          |           |  0.25553 | -0.73511 | h  |  7,26, 0 |||
 57 |          |           |  0.31724 | -0.92224 | h  |  8,26, 0 |||
 58 |          |           |   0.3027 |   -0.433 | h  |  7,27, 0 |||
 59 |          |           |  0.56537 |  0.45812 | h  |  8,27, 0 |||
 60 |          |           |  0.95352 | -0.34069 | h  | 13,12, 0 |||
 61 |          |           |  0.24643 |   1.1459 | h  | 14,12, 0 |||
 62 |          |           |  0.17916 | -0.83597 | h  | 13,13, 0 |||
 63 |          |           |  0.91588 | -0.039731 | h  | 14,13, 0 |||
 64 |          |           |  0.69276 | 0.049214 | h  | 13,14, 0 |||
 65 |          |           |  0.27936 |  0.86765 | h  | 14,14, 0 |||
 66 |          |           |  0.27058 | -0.75271 | h  | 13,15, 0 |||
 67 |          |           |  0.81532 | -0.78786 | h  | 14,15, 0 |||
 68 |          |           | 0.059508 | -0.58306 | h  | 13,16, 0 |||
 69 |          |           |  0.94019 |  0.89268 | h  | 14,16, 0 |||
 70 |          |           | 0.054269 |  0.34007 | o  | 18,14, 0 |||
----|----------|----------|----------|----------|----|----------|----------|----------|-------


connection definition section :

target | site | source:weight
-------|------|------------------------------------------------------------------------------------------------------------
    24 |      |   1:-0.18305,   2:  0.2405,   3:-0.48896,   4: 0.33917
    25 |      |   1: 0.97593,   2: 0.91647,   3:-0.19924,   4: 0.26201
    26 |      |   1:-0.89207,   2: 0.79769,   3:-0.94571,   4:-0.84509
    27 |      |   1:-0.51771,   2: 0.84184,   3:-0.45483,   4: 0.87849
    28 |      |   1: 0.69059,   2: -1.0568,   3:0.070529,   4:-0.21262
    29 |      |   1: 0.40778,   2:-0.82707,   3:  1.4954,   4:-0.41683
    30 |      |   1:-0.35513,   5: 0.61226,   6:  -0.173,   7:-0.027137
    31 |      |   1:-0.96316,   5:-0.090131,   6:-0.38343,   7: 0.15771
    32 |      |   1:-0.96754,   5: 0.57268,   6: 0.68526,   7: -1.0328
    33 |      |   1: -0.4732,   5:-0.25161,   6:-0.089769,   7:-0.42719
    34 |      |   1: -0.5937,   5:-0.37643,   6: 0.19781,   7:  0.8559
    35 |      |   1:    1.01,   5: 0.55819,   6: -2.7268,   7: 0.25308
    36 |      |   1: 0.51638,   8:-0.83293,   9:0.076052,  10:-0.69977,  11:  1.0632,  12:  0.3738,  13:-0.64747,  14: 0.06075, 
                 15:-0.68933,  21:0.078608,  22:-0.16637,  23: 0.39241
    37 |      |   1:-0.17443,   8:-0.001113,   9: -0.7371,  10: 0.35447,  11: 0.56733,  12:-0.14873,  13:-0.64999,  14: 0.97072, 
                 15:  1.0929,  21:-0.063371,  22:-0.19206,  23:-0.027911
    38 |      |   1:-0.44437,   8:-0.49173,   9:-0.62556,  10:-0.71343,  11:-0.86057,  12: 0.84436,  13:-0.38343,  14:   0.283, 
                 15:-0.91475,  21: -1.0203,  22:0.055051,  23:-0.71902
    39 |      |   1: 0.77669,   8: 0.78541,   9: 0.65066,  10:-0.34463,  11:-0.11218,  12: -0.6057,  13: 0.41546,  14: 0.34642, 
                 15: 0.61118,  21:-0.21714,  22:-0.47586,  23:  1.1234
    40 |      |   1: -0.5394,   8: 0.04498,   9: 0.22772,  10: 0.63533,  11:-0.080596,  12: 0.80463,  13:-0.93752,  14:-0.062806, 
                 15:  1.4672,  21: 0.23607,  22: 0.22844,  23:-0.59653
    41 |      |   1:-0.07318,   8:-0.32456,   9:-0.28882,  10: 0.59049,  11: 0.46784,  12:  0.2817,  13: 0.38364,  14:-0.089368, 
                 15:-0.084524,  21:  1.1592,  22:  0.4323,  23:-0.31036
    42 |      |   1: 0.15115,   8:0.029932,   9: 0.66229,  10:-0.0062546,  11: 0.57256,  12:  1.1377,  13:  0.5635,  14:-0.43836, 
                 15: 0.76757,  21:-0.74485,  22:-0.54319,  23:  1.0718
    43 |      |   1:-0.72137,   8:-0.53322,   9: -0.8819,  10:-0.36947,  11:-0.82296,  12:-0.10618,  13:0.060586,  14: 0.23669, 
                 15:-0.27543,  21:-0.41426,  22: -1.0686,  23: 0.71566
    44 |      |   1:  0.1904,   8: 0.66657,   9:-0.24992,  10: 0.90211,  11: 0.24571,  12:  0.5502,  13: -0.6395,  14:-0.28488, 
                 15:-0.54415,  21:-0.97509,  22:-0.82355,  23:-0.62464
    45 |      |   1: 0.86102,   8:-0.80475,   9:-0.044799,  10: 0.58595,  11: 0.65682,  12: 0.37341,  13:-0.67751,  14: -1.1488, 
                 15:-0.84952,  21: 0.19815,  22: 0.22072,  23: 0.32304
    46 |      |   1: 0.82098,   8: 0.75316,   9:-0.91637,  10: 0.62685,  11:-0.05317,  12: 0.10179,  13: 0.31361,  14:  0.7472, 
                 15:-0.095609,  21:-0.86507,  22: 0.39064,  23:-0.0055929
    47 |      |   1:-0.69385,   8:-0.0056184,   9: 0.26184,  10:-0.54472,  11: -1.0027,  12:-0.49696,  13:0.013426,  14:-0.069774, 
                 15: -0.5946,  21:0.079924,  22:-0.98196,  23:0.0022436
    48 |      |   1:-0.68086,   8: 0.58828,   9:-0.77018,  10: 0.49355,  11: 0.35781,  12:-0.79817,  13: 0.17815,  14: 0.53103, 
                 15: 0.84284,  21: -0.3059,  22: 0.04631,  23:-0.37298
    49 |      |   1: 0.62411,   8: 0.23225,   9: 0.38641,  10:0.0035638,  11: 0.90623,  12: 0.54676,  13:-0.86351,  14:-0.18904, 
                 15:-0.87793,  21:-0.66501,  22: 0.31908,  23: 0.40699
    50 |      |   1: 0.77274,  16:-0.82523,  17: 0.52084,  18:-0.29623
    51 |      |   1: 0.92768,  16: -1.0036,  17: 0.58026,  18: 0.38972
    52 |      |   1: 0.58474,  16:-0.12435,  17: 0.38686,  18: 0.51765
    53 |      |   1:-0.87523,  16:-0.56927,  17:-0.083158,  18:  1.0094
    54 |      |   1:-0.60114,  16:-0.77029,  17:  0.2534,  18: 0.65004
    55 |      |   1: -0.9015,  16:-0.87428,  17: 0.60685,  18: 0.46707
    56 |      |   1:-0.29588,  19: 0.36945,  20:   0.889
    57 |      |   1: 0.92117,  19:-0.064566,  20:-0.53567
    58 |      |   1:-0.25527,  19: 0.67756,  20: 0.80435
    59 |      |   1:-0.54771,  19:0.089228,  20: 0.66171
    60 |      |  24: 0.58382,  25: -1.0421,  26:-0.77141,  27: 0.19049,  28:  1.1649,  29:-0.40549,  30: -1.2246,  31: 0.30588, 
                 32:-0.55786,  33: 0.24764,  34: 0.55583,  35: 0.10349,  36:-0.22526,  37:-0.31361,  38:-0.72826,  39: 0.20888, 
                 40:  1.1364,  41:-0.80106,  42: 0.64159,  43: 0.78643,  44:0.073041,  45:  1.0435,  46: 0.61333,  47:  1.1191, 
                 48:  0.5283,  49: 0.58918,  50:-0.46926,  51:-0.75099,  52: 0.10168,  53:-0.68402,  54:  0.5339,  55:-0.54181, 
                 56:-0.60236,  57:  0.8078,  58: 0.80741,  59:  1.0643
    61 |      |  24:0.094901,  25: 0.12398,  26:-0.27982,  27:-0.65187,  28:-0.94236,  29:  1.7831,  30: 0.34023,  31:-0.26389, 
                 32:-0.73548,  33:-0.37159,  34: 0.11287,  35: -2.7628,  36:  1.3712,  37:-0.35232,  38: 0.32127,  39:  1.0849, 
                 40: -1.2808,  41:0.066388,  42: 0.30783,  43:-0.18189,  44: 0.80735,  45: 0.33623,  46: 0.13407,  47: 0.52886, 
                 48:-0.49997,  49: 0.68906,  50: 0.78981,  51: -0.4736,  52:-0.094262,  53: 0.91711,  54: 0.33564,  55:-0.50569, 
                 56:-0.41519,  57:-0.71267,  58:-0.12663,  59:0.022036
    62 |      |  24:-0.61721,  25:-0.93733,  26:-0.97998,  27:-0.16016,  28:-0.16545,  29:-0.92444,  30:-0.14541,  31: 0.49235, 
                 32: 0.24257,  33:-0.41813,  34: 0.97626,  35:-0.63993,  36: 0.98534,  37:-0.98907,  38: 0.98263,  39: 0.39224, 
                 40:-0.024393,  41: 0.64052,  42:-0.82264,  43:-0.66041,  44: 0.51097,  45:-0.17756,  46: 0.17449,  47: 0.16224, 
                 48: 0.91284,  49: 0.63691,  50: 0.89124,  51:-0.94226,  52:-0.28147,  53:-0.064708,  54:-0.92903,  55:0.056563, 
                 56:-0.046218,  57:-0.89924,  58: 0.84144,  59: 0.84828
    63 |      |  24:-0.54865,  25: 0.16791,  26: 0.38313,  27:0.037649,  28: 0.26599,  29: 0.76122,  30:-0.094656,  31: 0.21753, 
                 32: 0.75474,  33:-0.37936,  34:-0.86894,  35:  0.4018,  36:-0.37741,  37:-0.40093,  38:-0.16849,  39: 0.30739, 
                 40:  0.9187,  41:-0.89293,  42: 0.31825,  43:0.0050007,  44: 0.85922,  45:  0.6398,  46: -1.1061,  47:-0.18659, 
                 48: 0.71104,  49:-0.19917,  50:  1.0073,  51: 0.94404,  52:-0.039508,  53: 0.73782,  54: 0.98163,  55: 0.73852, 
                 56:0.059297,  57: 0.21944,  58:-0.11732,  59: -0.7613
    64 |      |  24:-0.74692,  25: 0.58352,  26:0.060817,  27:-0.20758,  28: 0.98238,  29: -1.0287,  30: 0.32571,  31:-0.50305, 
                 32: 0.22343,  33:-0.07247,  34:-0.96253,  35: 0.96458,  36:-0.61843,  37: 0.45268,  38: 0.27616,  39: -1.2063, 
                 40: 0.94066,  41:-0.70775,  42: 0.74802,  43:-0.81339,  44: 0.99333,  45: 0.60295,  46: 0.37409,  47: 0.79061, 
                 48:  0.6022,  49:0.032148,  50:-0.054249,  51:-0.036929,  52:-0.78631,  53:0.085757,  54: 0.89432,  55:-0.71994, 
                 56:-0.27998,  57:-0.32899,  58:-0.084772,  59:-0.51829
    65 |      |  24:-0.90237,  25:-0.19083,  26:-0.75871,  27:0.058627,  28:-0.13793,  29: 0.47969,  30: 0.51211,  31:-0.68153, 
                 32: -0.3887,  33: 0.46954,  34: 0.87661,  35:-0.36183,  36: 0.18799,  37:-0.58154,  38:-0.26883,  39:-0.32317, 
                 40: 0.94406,  41:-0.63646,  42:-0.97615,  43: 0.21977,  44: 0.16187,  45: -0.2467,  46: 0.24367,  47:-0.94641, 
                 48:-0.45957,  49: 0.38653,  50:-0.43917,  51: 0.13378,  52: 0.93475,  53:-0.031397,  54:-0.81185,  55: 0.95086, 
                 56: 0.68128,  57:-0.58523,  58:-0.093701,  59:-0.38501
    66 |      |  24:-0.64098,  25:  0.3471,  26:-0.53646,  27:  1.0105,  28:-0.70325,  29: 0.59536,  30: 0.38521,  31:-0.028579, 
                 32:  1.2701,  33: 0.80646,  34:0.031132,  35: -1.7229,  36: 0.70832,  37:-0.59066,  38: 0.57111,  39:-0.71854, 
                 40: 0.29946,  41: 0.32755,  42: -0.1839,  43:-0.29885,  44:  1.5333,  45:-0.87333,  46:-0.0029531,  47:-0.12165, 
                 48:-0.44931,  49:0.077957,  50:-0.23178,  51:-0.31913,  52: 0.69399,  53:  0.4031,  54:-0.31222,  55:  1.1281, 
                 56: -1.0442,  57:0.095076,  58: 0.52261,  59:-0.10387
    67 |      |  24:-0.065009,  25: -0.9003,  26:  1.0137,  27:-0.48869,  28: 0.53421,  29:-0.81083,  30:-0.90344,  31: 0.56365, 
                 32: 0.65519,  33:-0.23899,  34:-0.087084,  35: 0.12683,  36: 0.47201,  37: 0.67366,  38:-0.12977,  39: 0.52624, 
                 40:-0.44949,  41: 0.65309,  42:  1.0432,  43:-0.20172,  44:-0.61591,  45:-0.35444,  46:-0.57301,  47: 0.83714, 
                 48: 0.15858,  49:-0.64627,  50:  1.0232,  51:  1.1187,  52:-0.65027,  53:-0.052288,  54:  1.0926,  55: 0.28965, 
                 56:-0.00091055,  57: 0.93734,  58: 0.73623,  59:-0.71676
    68 |      |  24: 0.89741,  25: 0.69507,  26: 0.49411,  27:-0.48772,  28:-0.38377,  29:-0.71302,  30:  1.0065,  31:-0.78681, 
                 32:0.025534,  33: 0.54954,  34: -0.5531,  35:-0.31092,  36:  0.3953,  37: 0.24486,  38:0.0098971,  39: 0.89624, 
                 40: 0.64918,  41:-0.38068,  42:-0.13693,  43:-0.95432,  44:-0.53894,  45:-0.24822,  46:-0.72324,  47: 0.29083, 
                 48:-0.29971,  49: 0.40211,  50:-0.76104,  51:-0.41443,  52:0.050851,  53:-0.56172,  54:-0.36685,  55:-0.067749, 
                 56:-0.87166,  57:-0.87352,  58: 0.43384,  59:-0.25594
    69 |      |  24: 0.45091,  25:0.028218,  26: 0.45518,  27: 0.02114,  28: 0.36655,  29: -0.7989,  30:-0.61234,  31:-0.34161, 
                 32: 0.13796,  33:-0.72053,  34:-0.63376,  35: 0.64679,  36: 0.17927,  37:-0.59481,  38:-0.86451,  39: 0.85194, 
                 40:-0.44467,  41: 0.55256,  42:-0.48094,  43: 0.96121,  44: 0.73941,  45:  0.1365,  46: 0.10823,  47:-0.92223, 
                 48: 0.80853,  49:  1.0084,  50:-0.70904,  51: 0.90514,  52: 0.38527,  53:0.055123,  54:-0.67883,  55:-0.17008, 
                 56:  1.0195,  57: 0.71796,  58: 0.82334,  59: 0.41104
    70 |      |  60: -2.0015,  61:  3.5537,  62: 0.30571,  63:  -1.266,  64: -1.5973,  65: 0.45352,  66:  2.1682,  67:   -1.32, 
                 68: 0.19344,  69: 0.42256
-------|------|----------------------------------------------------------------------------------------------------------------
