SNNS network definition file V1.4-3D
generated at Thu May 09 10:11:49 1996

network name : edge_23
source files :
no. of units : 70
no. of connections : 622
no. of unit types : 0
no. of site types : 0


learning function : Std_Backpropagation
update function : Topological_Order


unit default section :

act      | bias     | st | subnet | layer | act func     | out func
---------|----------|----|--------|-------|--------------|-------------
 0.00000 |  0.00000 | h  |      0 |     1 | Act_Logistic | Out_Identity
---------|----------|----|--------|-------|--------------|-------------


unit definition section :

no. | typeName | unitName | act      | bias     | st | position | act func | out func | sites
----|----------|----------|----------|----------|----|----------|----------|----------|-------
  1 |          |           |        0 |        0 | i  |  2, 1, 0 |||
  2 |          |           |   5.3394 |        0 | i  |  2, 3, 0 |||
  3 |          |           |   2.7302 |        0 | i  |  2, 4, 0 |||
  4 |          |           |   5.1195 |        0 | i  |  2, 5, 0 |||
  5 |          |           |   21.242 |        0 | i  |  2, 7, 0 |||
  6 |          |           |   32.707 |        0 | i  |  2, 8, 0 |||
  7 |          |           |   10.027 |        0 | i  |  2, 9, 0 |||
  8 |          |           |    7.032 |        0 | i  |  2,11, 0 |||
  9 |          |           |   -1.754 |        0 | i  |  2,12, 0 |||
 10 |          |           |   1.3417 |        0 | i  |  2,13, 0 |||
 11 |          |           | -0.25859 |        0 | i  |  2,14, 0 |||
 12 |          |           |  0.79617 |        0 | i  |  2,15, 0 |||
 13 |          |           |  0.18372 |        0 | i  |  2,16, 0 |||
 14 |          |           |   1.3387 |        0 | i  |  2,17, 0 |||
 15 |          |           | -0.98917 |        0 | i  |  2,18, 0 |||
 16 |          |           | -0.68974 |        0 | i  |  2,23, 0 |||
 17 |          |           |    1.946 |        0 | i  |  2,24, 0 |||
 18 |          |           |  0.29948 |        0 | i  |  2,25, 0 |||
 19 |          |           |       12 |        0 | i  |  2,27, 0 |||
 20 |          |           |    5.273 |        0 | i  |  2,28, 0 |||
 21 |          |           |   272.46 |        0 | i  |  2,19, 0 |||
 22 |          |           |        6 |        0 | i  |  2,20, 0 |||
 23 |          |           |    14.36 |        0 | i  |  2,21, 0 |||
 24 |          |           |  0.97306 | 0.016101 | h  |  7, 3, 0 |||
 25 |          |           |        1 |  0.62823 | h  |  8, 3, 0 |||
 26 |          |           |  0.93067 |  -1.7593 | h  |  7, 4, 0 |||
 27 |          |           |  0.99226 |  0.29516 | h  |  8, 4, 0 |||
 28 |          |           |  0.95943 | -0.61236 | h  |  7, 5, 0 |||
 29 |          |           |  0.93409 | -0.33376 | h  |  8, 5, 0 |||
 30 |          |           | 1.9434e-22 |   -0.916 | h  |  7, 7, 0 |||
 31 |          |           | 8.1958e-10 | -0.34535 | h  |  8, 7, 0 |||
 32 |          |           |  0.99812 |   -1.578 | h  |  7, 8, 0 |||
 33 |          |           |        1 |  0.42117 | h  |  8, 8, 0 |||
 34 |          |           | 1.084e-24 |   1.3511 | h  |  7, 9, 0 |||
 35 |          |           |        1 | -0.073182 | h  |  8, 9, 0 |||
 36 |          |           | 4.8853e-10 |  0.45351 | h  |  7,11, 0 |||
 37 |          |           | 9.0972e-52 |  0.25583 | h  |  8,11, 0 |||
 38 |          |           |        1 |  0.80249 | h  |  7,12, 0 |||
 39 |          |           | 2.1e-105 |  0.13299 | h  |  8,12, 0 |||
 40 |          |           |        1 | -0.30584 | h  |  7,13, 0 |||
 41 |          |           | 1.1289e-16 |  0.93888 | h  |  8,13, 0 |||
 42 |          |           |        1 | 0.0085615 | h  |  7,14, 0 |||
 43 |          |           | 5.9087e-32 | -0.39501 | h  |  8,14, 0 |||
 44 |          |           | 9.7756e-31 |  0.47939 | h  |  7,15, 0 |||
 45 |          |           |        1 |  0.83642 | h  |  8,15, 0 |||
 46 |          |           | 1.4773e-28 |  -0.7915 | h  |  7,16, 0 |||
 47 |          |           | 2.7829e-108 |   1.3304 | h  |  8,16, 0 |||
 48 |          |           | 1.1806e-106 | 0.0012139 | h  |  7,17, 0 |||
 49 |          |           |        1 |  0.73424 | h  |  8,17, 0 |||
 50 |          |           | 0.070307 |  0.27298 | h  |  7,22, 0 |||
 51 |          |           |   0.1586 | 0.0057813 | h  |  8,22, 0 |||
 52 |          |           |  0.60414 |  0.65276 | h  |  7,23, 0 |||
 53 |          |           |  0.14517 |  0.54965 | h  |  8,23, 0 |||
 54 |          |           |  0.64042 | 0.0084896 | h  |  7,24, 0 |||
 55 |          |           |  0.59247 | -0.75776 | h  |  8,24, 0 |||
 56 |          |           | 5.2377e-08 |  -1.0453 | h  |  7,26, 0 |||
 57 |          |           |  0.89778 | -0.055021 | h  |  8,26, 0 |||
 58 |          |           |  0.11949 |  0.76216 | h  |  7,27, 0 |||
 59 |          |           | 0.014966 |  0.71953 | h  |  8,27, 0 |||
 60 |          |           |  0.99437 |  0.86547 | h  | 13,12, 0 |||
 61 |          |           |  0.44114 |   0.3613 | h  | 14,12, 0 |||
 62 |          |           |  0.34966 | -0.43595 | h  | 13,13, 0 |||
 63 |          |           | 0.088836 |  -0.4509 | h  | 14,13, 0 |||
 64 |          |           |  0.98784 |  0.80194 | h  | 13,14, 0 |||
 65 |          |           |  0.76271 |  -1.1104 | h  | 14,14, 0 |||
 66 |          |           |  0.99919 |  0.87585 | h  | 13,15, 0 |||
 67 |          |           |  0.99197 |   1.0293 | h  | 14,15, 0 |||
 68 |          |           |  0.33535 | -0.047058 | h  | 13,16, 0 |||
 69 |          |           |  0.49656 |  0.60717 | h  | 14,16, 0 |||
 70 |          |           |  0.99417 | -0.63344 | o  | 18,14, 0 |||
----|----------|----------|----------|----------|----|----------|----------|----------|-------


connection definition section :

target | site | source:weight
-------|------|------------------------------------------------------------------------------------------------------------
    24 |      |   1: 0.68067,   2: 0.92161,   3:-0.49422,   4:-0.00015784
    25 |      |   1: 0.60567,   2:  2.2614,   3:-0.18039,   4: 0.34206
    26 |      |   1:-0.40507,   2: 0.56771,   3:-0.49261,   4: 0.52154
    27 |      |   1: 0.70385,   2:  1.0572,   3:  1.0039,   4:-0.74766
    28 |      |   1: 0.84958,   2: 0.18058,   3: -0.0226,   4: 0.56124
    29 |      |   1: 0.90175,   2: 0.28856,   3:  0.9175,   4:-0.20718
    30 |      |   1: 0.57248,   5: -1.2846,   6:-0.54438,   7:-0.39737
    31 |      |   1:-0.66513,   5: 0.53759,   6: -1.2563,   7: 0.90687
    32 |      |   1:-0.88913,   5:-0.39654,   6: 0.26178,   7: 0.76926
    33 |      |   1: -1.0033,   5:-0.62178,   6:    1.79,   7: -1.4542
    34 |      |   1:0.082679,   5:-0.95821,   6: -1.0055,   7:-0.32817
    35 |      |   1:-0.41819,   5: -0.4118,   6:  1.1059,   7:-0.44934
    36 |      |   1:-0.53198,   8: -1.3151,   9:-0.52839,  10: 0.18371,  11:-0.60784,  12:0.086869,  13: 0.25917,  14:-0.23578, 
                 15:-0.07015,  21:-0.060115,  22:-0.18706,  23: 0.25454
    37 |      |   1:-0.30307,   8:-0.18076,   9: 0.21347,  10:-0.77215,  11: 0.86393,  12: -1.0058,  13: 0.73117,  14:-0.10421, 
                 15: -1.9615,  21:-0.40179,  22: 0.35795,  23:-0.60498
    38 |      |   1:-0.76363,   8:-0.36205,   9: -0.7329,  10: 0.57401,  11: -1.0351,  12:-0.67342,  13:0.095713,  14: 0.10917, 
                 15:  1.2452,  21: 0.50721,  22: 0.77767,  23: 0.37904
    39 |      |   1:-0.17718,   8: -1.1312,   9:0.0081268,  10: 0.82568,  11: 0.71067,  12:  1.0385,  13: -1.1647,  14: -1.6701, 
                 15: -1.5743,  21:-0.86331,  22: 0.82729,  23:-0.26455
    40 |      |   1:-0.75802,   8: -1.0748,   9:-0.24411,  10:0.031833,  11:-0.29953,  12:-0.27181,  13:  0.9942,  14: 0.68151, 
                 15:  1.2426,  21:  1.0093,  22: 0.88822,  23:-0.10677
    41 |      |   1:   1.017,   8: -1.5408,   9: 0.24256,  10: 0.66221,  11: 0.65563,  12: 0.73149,  13:-0.56074,  14: -2.2136, 
                 15:-0.095651,  21:-0.069274,  22: 0.74554,  23:-0.71918
    42 |      |   1: 0.62863,   8:-0.43135,   9: 0.24814,  10:-0.88563,  11:  1.3829,  12: 0.89103,  13:-0.40312,  14:-0.49072, 
                 15:-0.40658,  21: 0.88411,  22: 0.77798,  23: -1.2994
    43 |      |   1: 0.79048,   8: -1.3775,   9:-0.42091,  10:  -0.676,  11:-0.45682,  12:-0.80007,  13:-0.28693,  14:  1.3984, 
                 15:  1.5527,  21:-0.28201,  22: 0.36196,  23: 0.92218
    44 |      |   1:-0.10721,   8: -0.4683,   9: 0.69245,  10: 0.56669,  11:-0.15501,  12:-0.76377,  13: 0.32936,  14: 0.98396, 
                 15:  1.5821,  21:-0.21094,  22: 0.30239,  23:-0.65587
    45 |      |   1: -1.0415,   8: -1.8959,   9:-0.23237,  10:-0.66305,  11: 0.66909,  12:-0.74876,  13:-0.31253,  14: 0.29304, 
                 15: 0.63789,  21:  0.6541,  22: 0.81027,  23: 0.72492
    46 |      |   1: 0.44024,   8: -1.2223,   9:-0.068691,  10:-0.31699,  11: 0.75612,  12: 0.72475,  13:-0.49671,  14:-0.34993, 
                 15:-0.78937,  21:-0.21961,  22: 0.36357,  23: 0.18521
    47 |      |   1:-0.0083917,   8: 0.90219,   9: 0.45386,  10: 0.18772,  11: 0.38638,  12:-0.10711,  13:-0.14584,  14:-0.75147, 
                 15: 0.92143,  21:-0.89053,  22: 0.14565,  23:-0.75878
    48 |      |   1:-0.65079,   8: -1.2075,   9: 0.42094,  10: -0.8288,  11: 0.10906,  12: 0.24633,  13:-0.45757,  14:-0.97399, 
                 15:-0.39361,  21:-0.91017,  22:  0.6948,  23: 0.77149
    49 |      |   1:  1.1389,   8: 0.22992,   9:-0.82896,  10: 0.56001,  11: -0.3387,  12:-0.56461,  13: 0.21175,  14:  2.4309, 
                 15: -0.3222,  21: 0.44473,  22: 0.38693,  23:   1.292
    50 |      |   1:0.038667,  16:  1.4728,  17:-0.96138,  18: 0.10612
    51 |      |   1:-0.73174,  16:  1.0054,  17:-0.40891,  18:-0.61857
    52 |      |   1: 0.55814,  16:-0.33991,  17:-0.19813,  18:-0.26345
    53 |      |   1:0.017801,  16:-0.10764,  17: -1.2291,  18:-0.016587
    54 |      |   1:-0.35059,  16:  1.0678,  17: 0.52591,  18: 0.94093
    55 |      |   1: 0.56031,  16:-0.38543,  17:  0.4468,  18:-0.011318
    56 |      |   1:-0.93064,  19:-0.94478,  20:-0.83106
    57 |      |   1: 0.59875,  19: 0.44868,  20:-0.59857
    58 |      |   1:-0.68278,  19:-0.53495,  20: 0.69409
    59 |      |   1:-0.83574,  19:-0.055132,  20:-0.80501
    60 |      |  24:  1.2168,  25:-0.066698,  26: 0.72951,  27: -0.1703,  28: 0.71244,  29:-0.56953,  30:-0.55844,  31: 0.19281, 
                 32:-0.72417,  33:   0.658,  34:-0.29019,  35:-0.11652,  36:-0.16083,  37: 0.81707,  38:0.091882,  39:-0.21127, 
                 40: 0.71093,  41: 0.22953,  42:-0.12554,  43: 0.41216,  44:-0.25413,  45:0.054782,  46: -0.9077,  47:-0.074654, 
                 48: -1.0037,  49:  1.4731,  50:-0.83582,  51:-0.99274,  52: 0.23381,  53:-0.33102,  54: 0.38365,  55: 0.14209, 
                 56:-0.073735,  57: 0.21907,  58: 0.91579,  59:-0.41682
    61 |      |  24:-0.76707,  25:  0.5645,  26: 0.61986,  27: 0.63657,  28:-0.79983,  29:-0.73165,  30:-0.60315,  31: 0.79525, 
                 32: 0.27952,  33: 0.22678,  34: 0.51565,  35:-0.65961,  36: 0.90692,  37:-0.33661,  38: -0.1018,  39:0.014695, 
                 40:-0.29354,  41: 0.58864,  42: 0.23767,  43:  -0.458,  44: 0.86429,  45: 0.22568,  46: 0.54068,  47:-0.81008, 
                 48:-0.37141,  49:-0.66042,  50: 0.18739,  51: 0.74686,  52: 0.99564,  53: 0.64831,  54: 0.31371,  55:-0.84242, 
                 56:  0.1198,  57: -0.0876,  58: 0.97827,  59: 0.35321
    62 |      |  24: -1.0276,  25: 0.31333,  26: -1.6582,  27:-0.36605,  28:-0.79752,  29: -1.0881,  30:-0.84211,  31:0.099131, 
                 32:-0.047226,  33: -1.1339,  34:0.0079851,  35:-0.10312,  36: 0.59176,  37: -1.3257,  38: 0.60121,  39: -1.9407, 
                 40:  1.6118,  41:-0.18408,  42: -0.4761,  43:  2.0499,  44:  1.2926,  45:-0.25825,  46:-0.11941,  47: 0.69824, 
                 48:-0.10995,  49:  2.1966,  50:-0.19806,  51:-0.63653,  52:   0.633,  53:  1.1177,  54: 0.70929,  55: 0.87154, 
                 56:-0.33157,  57: 0.36905,  58: 0.56119,  59:0.013063
    63 |      |  24:-0.96531,  25:-0.50681,  26: 0.62262,  27: -1.0376,  28:-0.69904,  29:-0.52395,  30: 0.12736,  31:-0.62993, 
                 32: 0.34681,  33: 0.51214,  34: -1.1386,  35:-0.72292,  36: -1.0048,  37: 0.89506,  38:-0.96421,  39:-0.67632, 
                 40: 0.45157,  41: 0.73199,  42:  1.1155,  43: 0.40359,  44: -0.6815,  45:-0.66018,  46:0.086702,  47:-0.67047, 
                 48:    1.01,  49:-0.33017,  50: 0.27553,  51: 0.76604,  52: 0.80127,  53:-0.047302,  54:-0.75834,  55: 0.94679, 
                 56: 0.51927,  57: 0.93024,  58:-0.91605,  59: 0.82299
    64 |      |  24: 0.32448,  25:-0.91083,  26:  1.2977,  27:-0.13419,  28:-0.36063,  29:  1.2358,  30:-0.21666,  31: -1.2295, 
                 32:0.076722,  33: 0.79624,  34:0.065925,  35:  1.2923,  36:0.088543,  37: 0.13118,  38: -1.1607,  39: 0.47938, 
                 40:-0.97271,  41: -0.7222,  42:  0.6651,  43:-0.19733,  44: 0.52403,  45: 0.66351,  46:-0.011456,  47:-0.61516, 
                 48:  0.6191,  49:-0.89508,  50:-0.37007,  51: 0.75872,  52:-0.43332,  53: -1.0187,  54:  1.2768,  55: 0.82012, 
                 56:-0.32604,  57:  1.0098,  58:-0.44778,  59: 0.08082
    65 |      |  24: 0.80072,  25:0.030975,  26:  1.6223,  27:0.078793,  28:-0.14677,  29: 0.95602,  30: 0.92714,  31: 0.61285, 
                 32:  1.7664,  33: 0.35468,  34:  0.3306,  35:-0.72833,  36:-0.37743,  37:-0.78971,  38: -1.1418,  39:  -1.613, 
                 40: 0.63415,  41:-0.30613,  42:0.027216,  43: 0.88984,  44:0.036922,  45: 0.37112,  46:-0.61729,  47:  0.1727, 
                 48:-0.26034,  49:  -1.088,  50: 0.78752,  51: -0.3146,  52:0.020315,  53:-0.52489,  54:-0.60713,  55:-0.44623, 
                 56: 0.84921,  57:-0.37434,  58:-0.069535,  59: -0.5516
    66 |      |  24:-0.35645,  25: -1.9312,  26:-0.36187,  27:-0.39467,  28:-0.14522,  29: 0.11795,  30: 0.42313,  31:-0.62108, 
                 32:  1.0214,  33:  1.7308,  34: -1.7985,  35:  1.4914,  36:  0.1729,  37: -2.3712,  38:  1.0847,  39: -2.4788, 
                 40:  1.5439,  41: -1.7442,  42:-0.13014,  43:  1.3717,  44:-0.72742,  45:  1.8915,  46:-0.89057,  47:-0.65397, 
                 48:-0.76176,  49:-0.09883,  50:-0.15295,  51:-0.023656,  52:-0.40244,  53:  0.2525,  54: 0.57843,  55: 0.81038, 
                 56: 0.86213,  57: 0.17037,  58:-0.16022,  59:-0.98009
    67 |      |  24:-0.71343,  25: 0.41433,  26:-0.30644,  27: 0.89597,  28: 0.84797,  29: -0.6295,  30:-0.015158,  31:-0.86264, 
                 32: 0.34565,  33: 0.14392,  34:  0.0191,  35: 0.58126,  36:  1.0031,  37:-0.61665,  38: 0.67604,  39: 0.65876, 
                 40:-0.039242,  41:-0.41407,  42: 0.96436,  43:-0.86807,  44: 0.41788,  45:-0.23559,  46:-0.27287,  47:-0.16755, 
                 48: 0.74443,  49:-0.33648,  50:-0.17012,  51:0.018793,  52: 0.33647,  53: 0.14824,  54:-0.049008,  55: 0.59205, 
                 56: -0.4481,  57: 0.61408,  58: 0.50447,  59:-0.58817
    68 |      |  24:-0.31576,  25:-0.27175,  26: 0.75815,  27: 0.90992,  28: 0.86825,  29: 0.09187,  30:  1.0846,  31:-0.70647, 
                 32:-0.74948,  33:-0.063779,  34: 0.51711,  35:-0.29896,  36: 0.12152,  37: 0.27008,  38:-0.87551,  39:  1.0787, 
                 40: 0.39178,  41: 0.14049,  42: 0.66615,  43: -1.2021,  44: -1.1457,  45:-0.58292,  46: 0.92727,  47:0.037217, 
                 48: 0.72228,  49:-0.31547,  50: 0.73804,  51: 0.12275,  52:-0.37342,  53: -1.0762,  54: 0.10337,  55:0.020256, 
                 56:-0.14742,  57:-0.49437,  58:-0.63415,  59:-0.44506
    69 |      |  24: -1.0462,  25:-0.96029,  26: 0.50154,  27: 0.13379,  28: 0.38566,  29:-0.79763,  30:-0.72782,  31:-0.98882, 
                 32:0.054524,  33:-0.91954,  34: 0.53713,  35: 0.84196,  36: 0.45893,  37:  -1.174,  38: 0.88422,  39:   0.558, 
                 40: 0.91284,  41:-0.52325,  42: 0.16615,  43:-0.12671,  44:-0.46816,  45:-0.30868,  46: 0.44428,  47:-0.68682, 
                 48: 0.25465,  49:-0.72509,  50: 0.63539,  51: 0.71425,  52:-0.017072,  53: 0.58388,  54:-0.59698,  55:-0.16501, 
                 56:-0.94871,  57: 0.65306,  58:-0.95826,  59: 0.16584
    70 |      |  60:-0.99857,  61:-0.38563,  62:   -3.37,  63:-0.93221,  64:  1.2255,  65:  2.1693,  66:  4.4179,  67:0.044517, 
                 68:  1.5773,  69: 0.69279
-------|------|----------------------------------------------------------------------------------------------------------------
