SNNS network definition file V1.4-3D
generated at Thu May 09 10:11:49 1996

network name : edge_23
source files :
no. of units : 70
no. of connections : 622
no. of unit types : 0
no. of site types : 0


learning function : Std_Backpropagation
update function : Topological_Order


unit default section :

act      | bias     | st | subnet | layer | act func     | out func
---------|----------|----|--------|-------|--------------|-------------
 0.00000 |  0.00000 | h  |      0 |     1 | Act_Logistic | Out_Identity
---------|----------|----|--------|-------|--------------|-------------


unit definition section :

no. | typeName | unitName | act      | bias     | st | position | act func | out func | sites
----|----------|----------|----------|----------|----|----------|----------|----------|-------
  1 |          |           |        0 |        0 | i  |  2, 1, 0 |||
  2 |          |           |   11.622 |        0 | i  |  2, 3, 0 |||
  3 |          |           |    9.581 |        0 | i  |  2, 4, 0 |||
  4 |          |           |   9.0125 |        0 | i  |  2, 5, 0 |||
  5 |          |           |    8.171 |        0 | i  |  2, 7, 0 |||
  6 |          |           |     25.8 |        0 | i  |  2, 8, 0 |||
  7 |          |           |   11.068 |        0 | i  |  2, 9, 0 |||
  8 |          |           |   15.603 |        0 | i  |  2,11, 0 |||
  9 |          |           | -0.90856 |        0 | i  |  2,12, 0 |||
 10 |          |           | 0.038609 |        0 | i  |  2,13, 0 |||
 11 |          |           |  -2.5967 |        0 | i  |  2,14, 0 |||
 12 |          |           |    1.024 |        0 | i  |  2,15, 0 |||
 13 |          |           |  0.12305 |        0 | i  |  2,16, 0 |||
 14 |          |           |    3.249 |        0 | i  |  2,17, 0 |||
 15 |          |           |   1.0882 |        0 | i  |  2,18, 0 |||
 16 |          |           |   1.7636 |        0 | i  |  2,23, 0 |||
 17 |          |           |  0.20984 |        0 | i  |  2,24, 0 |||
 18 |          |           | -0.65041 |        0 | i  |  2,25, 0 |||
 19 |          |           |   8.7618 |        0 | i  |  2,27, 0 |||
 20 |          |           | -0.35565 |        0 | i  |  2,28, 0 |||
 21 |          |           |   6.7873 |        0 | i  |  2,19, 0 |||
 22 |          |           |   9.8416 |        0 | i  |  2,20, 0 |||
 23 |          |           |  0.18064 |        0 | i  |  2,21, 0 |||
 24 |          |           |  0.72733 |  0.41716 | h  |  7, 3, 0 |||
 25 |          |           |  0.99976 | -0.046879 | h  |  8, 3, 0 |||
 26 |          |           | 0.069869 | -0.02156 | h  |  7, 4, 0 |||
 27 |          |           |  0.99367 |   0.3546 | h  |  8, 4, 0 |||
 28 |          |           | 0.0031639 |   1.2067 | h  |  7, 5, 0 |||
 29 |          |           |  0.74009 |  0.26132 | h  |  8, 5, 0 |||
 30 |          |           |  0.98129 | -0.54519 | h  |  7, 7, 0 |||
 31 |          |           |  0.26924 | -0.59495 | h  |  8, 7, 0 |||
 32 |          |           |        1 |   0.4661 | h  |  7, 8, 0 |||
 33 |          |           |  0.95628 | -0.47667 | h  |  8, 8, 0 |||
 34 |          |           | 0.069992 |  0.81808 | h  |  7, 9, 0 |||
 35 |          |           | 0.00010176 |  0.17366 | h  |  8, 9, 0 |||
 36 |          |           | 1.9528e-09 | -0.23586 | h  |  7,11, 0 |||
 37 |          |           | 0.0059538 | -0.81411 | h  |  8,11, 0 |||
 38 |          |           |  0.64673 | -0.27701 | h  |  7,12, 0 |||
 39 |          |           |  0.99842 | -0.51661 | h  |  8,12, 0 |||
 40 |          |           | 0.053978 |  0.99432 | h  |  7,13, 0 |||
 41 |          |           |        1 | 0.046804 | h  |  8,13, 0 |||
 42 |          |           | 9.2713e-11 | 0.057068 | h  |  7,14, 0 |||
 43 |          |           | 1.0616e-06 |   0.6821 | h  |  8,14, 0 |||
 44 |          |           |  0.15259 |  0.13776 | h  |  7,15, 0 |||
 45 |          |           | 2.4284e-05 |   1.0601 | h  |  8,15, 0 |||
 46 |          |           |        1 | -0.29927 | h  |  7,16, 0 |||
 47 |          |           | 0.0014611 | 0.004763 | h  |  8,16, 0 |||
 48 |          |           |  0.99996 |   1.0877 | h  |  7,17, 0 |||
 49 |          |           | 0.0047562 |  0.40203 | h  |  8,17, 0 |||
 50 |          |           |   0.4783 |  0.38059 | h  |  7,22, 0 |||
 51 |          |           |   0.1313 |  0.71752 | h  |  8,22, 0 |||
 52 |          |           |  0.38842 | 0.014507 | h  |  7,23, 0 |||
 53 |          |           |  0.37641 |  0.57432 | h  |  8,23, 0 |||
 54 |          |           |  0.24015 |  0.11514 | h  |  7,24, 0 |||
 55 |          |           |  0.26093 |  0.48171 | h  |  8,24, 0 |||
 56 |          |           |  0.63215 | -0.76192 | h  |  7,26, 0 |||
 57 |          |           |  0.41384 | -0.79513 | h  |  8,26, 0 |||
 58 |          |           |   0.9894 | -0.42661 | h  |  7,27, 0 |||
 59 |          |           |  0.64077 |  0.50921 | h  |  8,27, 0 |||
 60 |          |           |  0.22054 | -0.24155 | h  | 13,12, 0 |||
 61 |          |           |  0.95756 |   1.2067 | h  | 14,12, 0 |||
 62 |          |           |  0.75864 | -0.77623 | h  | 13,13, 0 |||
 63 |          |           |   0.8574 |  0.11985 | h  | 14,13, 0 |||
 64 |          |           | 0.013803 | -0.11601 | h  | 13,14, 0 |||
 65 |          |           |  0.34677 |  0.83031 | h  | 14,14, 0 |||
 66 |          |           |  0.98567 | -0.58296 | h  | 13,15, 0 |||
 67 |          |           |  0.22495 | -0.86398 | h  | 14,15, 0 |||
 68 |          |           |  0.52787 | -0.53277 | h  | 13,16, 0 |||
 69 |          |           |  0.94706 |  0.88369 | h  | 14,16, 0 |||
 70 |          |           |   0.9848 | 0.083508 | o  | 18,14, 0 |||
----|----------|----------|----------|----------|----|----------|----------|----------|-------


connection definition section :

target | site | source:weight
-------|------|------------------------------------------------------------------------------------------------------------
    24 |      |   1:-0.23623,   2:  0.1584,   3: -0.5052,   4: 0.39539
    25 |      |   1: 0.97774,   2: 0.93879,   3:-0.079962,   4:-0.19574
    26 |      |   1:-0.84993,   2:  0.9981,   3:-0.97215,   4:-0.53844
    27 |      |   1: -0.5326,   2: 0.45846,   3: -0.7491,   4: 0.72687
    28 |      |   1: 0.69863,   2:-0.53753,   3:-0.11816,   4:0.046573
    29 |      |   1: 0.35288,   2: -1.0665,   3:  1.3891,   4:-0.014291
    30 |      |   1:-0.37694,   5: 0.39229,   6:0.070425,   7:-0.04672
    31 |      |   1: -0.9555,   5:  0.1462,   6:-0.22736,   7:  0.3856
    32 |      |   1:-0.96651,   5: 0.56763,   6: 0.97041,   7:-0.65317
    33 |      |   1:-0.49741,   5:-0.56187,   6: 0.43128,   7:-0.26869
    34 |      |   1: -0.5845,   5:-0.56255,   6:-0.26431,   7: 0.72378
    35 |      |   1:  1.0424,   5:  1.2054,   6: -1.0907,   7:  0.8064
    36 |      |   1: 0.40613,   8: -1.3176,   9:0.042091,  10:-0.45248,  11: 0.53996,  12: 0.14706,  13:-0.99158,  14:-0.11604, 
                 15:-0.85653,  21: 0.86122,  22:-0.24108,  23:0.035402
    37 |      |   1:-0.10056,   8:-0.13268,   9:-0.68801,  10:-0.54134,  11:  0.3636,  12: 0.62089,  13:-0.91012,  14: 0.91484, 
                 15:  1.2431,  21:-0.40521,  22:-0.40934,  23: 0.20365
    38 |      |   1:-0.44831,   8:-0.04804,   9:-0.73481,  10:-0.96023,  11:-0.78398,  12:  0.5421,  13:-0.46711,  14: 0.43422, 
                 15:-0.91816,  21:-0.93651,  22: 0.45895,  23:-0.57994
    39 |      |   1: 0.76911,   8: 0.78222,   9: 0.65223,  10:-0.41703,  11:-0.35271,  12:-0.37287,  13: 0.35381,  14: 0.29154, 
                 15: 0.69622,  21:-0.34833,  22:-0.48265,  23:  1.1017
    40 |      |   1:-0.62696,   8:-0.28584,   9:0.075276,  10: 0.59756,  11:-0.21194,  12: 0.49183,  13:-0.70302,  14:-0.22913, 
                 15:  1.0788,  21:-0.28592,  22: 0.13195,  23: -0.5956
    41 |      |   1:-0.053299,   8: 0.26771,   9:-0.13138,  10: 0.61386,  11: 0.17702,  12:-0.56426,  13: 0.35351,  14: 0.27419, 
                 15:-0.031842,  21:  1.0505,  22: 0.33309,  23:-0.52948
    42 |      |   1: 0.16886,   8:-0.39742,   9: 0.75666,  10:  0.1354,  11: 0.77655,  12: 0.46549,  13: 0.49559,  14:-0.70036, 
                 15: 0.71192,  21:-0.71943,  22:-0.86969,  23: 0.81032
    43 |      |   1: -0.7138,   8:-0.48442,   9: -1.0106,  10:-0.56719,  11:-0.90077,  12: 0.51127,  13: 0.15636,  14:-0.14092, 
                 15:-0.0036011,  21:-0.49852,  22:-0.70178,  23: 0.52256
    44 |      |   1:  0.1079,   8:  0.9267,   9:-0.55655,  10: 0.97316,  11:-0.34567,  12:   1.071,  13:-0.0098322,  14:-0.40367, 
                 15:-0.24642,  21: -1.2976,  22: -0.8498,  23:-0.54043
    45 |      |   1: 0.87463,   8:-0.32518,   9:-0.003517,  10: 0.76626,  11: 0.93598,  12: 0.12107,  13:-0.58451,  14: -1.1671, 
                 15:-0.91603,  21:-0.25633,  22: 0.22728,  23: 0.14068
    46 |      |   1: 0.80985,   8: 0.80374,   9: -1.0319,  10: 0.50593,  11:0.058864,  12: 0.32758,  13: 0.51554,  14:  0.6619, 
                 15:-0.081317,  21:-0.72507,  22: 0.59033,  23: 0.31288
    47 |      |   1:-0.78651,   8:-0.055443,   9:-0.076936,  10:-0.22257,  11: -1.1661,  12:-0.37433,  13:0.042777,  14:0.026051, 
                 15:-0.80761,  21: 0.11004,  22:-0.84672,  23:0.013161
    48 |      |   1:-0.64245,   8: 0.73802,   9:-0.84696,  10: 0.40478,  11: 0.52056,  12:-0.61849,  13: 0.34798,  14: 0.69738, 
                 15: 0.90745,  21:-0.70147,  22:0.0087329,  23:0.059289
    49 |      |   1: 0.60052,   8:-0.056905,   9: 0.34523,  10:0.046229,  11: 0.84892,  12: 0.69786,  13:-0.71337,  14:-0.42609, 
                 15:-0.82186,  21:-0.68139,  22:  0.3933,  23: 0.35703
    50 |      |   1: 0.74201,  16:-0.50655,  17: 0.62724,  18:-0.45242
    51 |      |   1:  1.0081,  16: -1.3461,  17: 0.44672,  18: 0.50259
    52 |      |   1: 0.58851,  16: -0.2321,  17:  0.4584,  18: 0.23881
    53 |      |   1:-0.89975,  16:-0.32561,  17:-0.021906,  18: 0.76922
    54 |      |   1:-0.57403,  16:-0.40089,  17: 0.45702,  18:  1.0084
    55 |      |   1:-0.89939,  16:-0.76169,  17: 0.38842,  18:  0.4014
    56 |      |   1:-0.24219,  19: 0.17696,  20: 0.69479
    57 |      |   1: 0.95665,  19:0.0097447,  20: -1.0168
    58 |      |   1:-0.27117,  19: 0.61098,  20:  1.0973
    59 |      |   1:-0.62649,  19:0.043496,  20: 0.87611
    60 |      |  24: 0.51606,  25: -1.2089,  26: -0.4334,  27: 0.27619,  28:  1.5321,  29:-0.28984,  30: -1.0861,  31: 0.44539, 
                 32: -0.3128,  33:0.010392,  34: 0.93991,  35: 0.19527,  36:-0.18313,  37:-0.22305,  38:-0.47597,  39:0.096392, 
                 40:  1.3262,  41:-0.83702,  42: 0.79456,  43:  1.0076,  44:-0.054634,  45:   1.307,  46: 0.70951,  47: 0.88182, 
                 48:  0.5227,  49:  0.9643,  50:-0.35706,  51:-0.74361,  52: 0.10221,  53:-0.69872,  54: 0.61088,  55:-0.47161, 
                 56: -0.7742,  57: 0.90209,  58: 0.65839,  59:   1.002
    61 |      |  24: 0.53062,  25:-0.37537,  26:-0.27269,  27:-0.55444,  28:-0.82074,  29:  1.6253,  30: 0.41515,  31:-0.18161, 
                 32:-0.92127,  33:0.059455,  34:-0.56588,  35: -1.6619,  36:  1.2383,  37: -0.6039,  38: 0.38658,  39: 0.79208, 
                 40:-0.44717,  41:  0.4434,  42: -0.2236,  43:-0.80823,  44: 0.98171,  45: 0.40942,  46:-0.07737,  47:  1.2768, 
                 48:-0.16406,  49: 0.38193,  50: 0.83778,  51:-0.66941,  52:-0.14133,  53: 0.69785,  54: 0.24142,  55: -0.6116, 
                 56:-0.082998,  57:-0.92965,  58:   0.257,  59: 0.32715
    62 |      |  24:-0.58046,  25:-0.96114,  26: -1.0473,  27:-0.17574,  28:-0.20484,  29:-0.81724,  30:-0.11845,  31: 0.51059, 
                 32:  0.1846,  33:-0.35405,  34: 0.87403,  35:-0.54696,  36:  1.0005,  37:-0.97733,  38: 0.97098,  39: 0.41288, 
                 40:-0.010418,  41: 0.70811,  42:-0.87642,  43:-0.69934,  44: 0.63601,  45:-0.19879,  46: 0.22563,  47:  0.3028, 
                 48:  1.0071,  49: 0.60653,  50:  0.9307,  51:-0.91923,  52:-0.27401,  53:-0.033924,  54:-0.91028,  55:0.092319, 
                 56:0.035869,  57:-0.91372,  58: 0.91225,  59: 0.93107
    63 |      |  24:-0.35663,  25: 0.34186,  26: 0.46073,  27: 0.24879,  28: 0.28199,  29: 0.76277,  30:  0.1977,  31:  0.2882, 
                 32: 0.80961,  33:-0.45395,  34:-0.69055,  35: 0.43489,  36:-0.25392,  37:-0.42231,  38:-0.098294,  39: 0.59076, 
                 40: 0.73382,  41:-0.94834,  42: 0.51242,  43: 0.34835,  44: 0.92356,  45: 0.55893,  46:-0.95831,  47:-0.068164, 
                 48:  0.6668,  49:0.089016,  50:  0.8708,  51: 0.76425,  52:-0.021097,  53: 0.70157,  54: 0.90169,  55: 0.60855, 
                 56:0.032198,  57: 0.30463,  58:-0.15291,  59:-0.71783
    64 |      |  24:  -1.023,  25: 0.55547,  26: -0.2129,  27:-0.40416,  28: 0.80009,  29:-0.83959,  30:  0.3162,  31:-0.59724, 
                 32:0.067873,  33:-0.19125,  34:-0.81447,  35: 0.37282,  36:-0.58138,  37: 0.56049,  38: 0.13481,  39:  -1.069, 
                 40: 0.49572,  41:-0.94469,  42:  0.8237,  43:-0.46271,  44: 0.81956,  45: 0.53121,  46:  0.5433,  47: 0.39403, 
                 48: 0.31709,  49: 0.19732,  50:-0.33445,  51:-0.25365,  52:-0.99241,  53:-0.024431,  54: 0.76052,  55:-0.94416, 
                 56:-0.54139,  57:  -0.299,  58:-0.40025,  59:-0.75683
    65 |      |  24:-0.93518,  25:-0.22601,  26:-0.79401,  27:0.021715,  28:-0.027804,  29: 0.37702,  30: 0.42236,  31:-0.63759, 
                 32: -0.3569,  33:   0.417,  34: 0.89613,  35:-0.17407,  36: 0.16784,  37: -0.5471,  38:-0.29067,  39:-0.37821, 
                 40:  1.0149,  41:-0.60491,  42:-0.91328,  43: 0.15013,  44:0.0073866,  45:-0.23922,  46: 0.19703,  47: -1.0394, 
                 48:-0.49005,  49: 0.27677,  50:-0.36571,  51: 0.25762,  52: 0.95893,  53:-0.0068743,  54:-0.79527,  55:  1.0195, 
                 56: 0.72674,  57:-0.59608,  58:-0.012462,  59:-0.37926
    66 |      |  24: -0.5095,  25:-0.28639,  26:-0.89787,  27: 0.79725,  28:-0.14735,  29: 0.96187,  30: 0.24599,  31:0.0014584, 
                 32:  1.1686,  33:  1.2565,  34:-0.099236,  35: -1.3528,  36: 0.88447,  37:-0.89306,  38: 0.23441,  39:-0.32409, 
                 40: 0.41646,  41: 0.64656,  42:-0.46041,  43:-0.31695,  44:   1.354,  45:-0.83618,  46:-0.33237,  47: 0.49019, 
                 48:-0.51293,  49:-0.33665,  50:-0.18535,  51:-0.37744,  52: 0.74103,  53: 0.46951,  54:-0.27264,  55:  1.1168, 
                 56: -0.4624,  57:-0.17072,  58:  1.1471,  59: 0.38752
    67 |      |  24:-0.071647,  25:-0.91111,  26: 0.92506,  27:-0.34794,  28: 0.67795,  29:-0.88627,  30:-0.84855,  31: 0.61003, 
                 32: 0.68033,  33:-0.43611,  34: 0.32721,  35:0.029449,  36: 0.45908,  37: 0.87983,  38:-0.19495,  39: 0.65118, 
                 40:-0.60151,  41: 0.67188,  42:  1.0646,  43:-0.091481,  44:-0.90666,  45:-0.36134,  46:-0.47414,  47: 0.34107, 
                 48: 0.10456,  49:-0.56922,  50:  1.0003,  51:  1.1364,  52:-0.64313,  53:-0.057274,  54:  1.0165,  55: 0.27008, 
                 56:-0.072779,  57: 0.97464,  58: 0.74242,  59:-0.80254
    68 |      |  24: 0.96376,  25: 0.80724,  26: 0.52923,  27:  -0.406,  28:-0.46355,  29:-0.71012,  30:  1.0834,  31: -0.7936, 
                 32:0.074791,  33: 0.61205,  34:-0.61269,  35:-0.32027,  36: 0.36839,  37: 0.27175,  38:-0.016683,  39: 0.95629, 
                 40: 0.63261,  41:-0.31063,  42:-0.14978,  43:-0.99645,  44:-0.43855,  45:-0.27534,  46:-0.62982,  47: 0.29958, 
                 48:-0.20964,  49: 0.38782,  50:-0.71685,  51:-0.35462,  52:0.068133,  53:-0.52233,  54:-0.34382,  55:-0.015241, 
                 56:-0.84211,  57:-0.85665,  58: 0.47559,  59:-0.21756
    69 |      |  24: 0.46545,  25:-0.034486,  26: 0.46566,  27:0.012881,  28: 0.40309,  29:-0.83694,  30:-0.61725,  31:-0.34634, 
                 32:  0.1349,  33:-0.71655,  34: -0.6985,  35: 0.73854,  36:0.057911,  37:-0.65383,  38:-0.81874,  39: 0.88582, 
                 40:-0.40773,  41: 0.50113,  42:-0.48217,  43:  1.0102,  44: 0.76902,  45:0.088928,  46:0.085442,  47:-0.77956, 
                 48: 0.84739,  49: 0.91051,  50:-0.69053,  51:  0.8857,  52: 0.38449,  53:0.025924,  54:-0.72031,  55:-0.16878, 
                 56: 0.98841,  57: 0.71954,  58: 0.79104,  59: 0.39094
    70 |      |  60: -2.3484,  61:  2.8086,  62: 0.54152,  63:-0.69503,  64:-0.88152,  65:-0.29872,  66:  2.1279,  67: -1.6422, 
                 68: 0.57067,  69: 0.19828
-------|------|----------------------------------------------------------------------------------------------------------------
