SNNS network definition file V1.4-3D
generated at Thu May 09 10:11:49 1996

network name : edge_23
source files :
no. of units : 70
no. of connections : 622
no. of unit types : 0
no. of site types : 0


learning function : Std_Backpropagation
update function : Topological_Order


unit default section :

act      | bias     | st | subnet | layer | act func     | out func
---------|----------|----|--------|-------|--------------|-------------
 0.00000 |  0.00000 | h  |      0 |     1 | Act_Logistic | Out_Identity
---------|----------|----|--------|-------|--------------|-------------


unit definition section :

no. | typeName | unitName | act      | bias     | st | position | act func | out func | sites
----|----------|----------|----------|----------|----|----------|----------|----------|-------
  1 |          |           |        0 |        0 | i  |  2, 1, 0 |||
  2 |          |           |   2.0274 |        0 | i  |  2, 3, 0 |||
  3 |          |           |    3.678 |        0 | i  |  2, 4, 0 |||
  4 |          |           |   13.432 |        0 | i  |  2, 5, 0 |||
  5 |          |           |   15.994 |        0 | i  |  2, 7, 0 |||
  6 |          |           |    39.52 |        0 | i  |  2, 8, 0 |||
  7 |          |           |    27.29 |        0 | i  |  2, 9, 0 |||
  8 |          |           |   76.901 |        0 | i  |  2,11, 0 |||
  9 |          |           |  -3.8463 |        0 | i  |  2,12, 0 |||
 10 |          |           |  0.52296 |        0 | i  |  2,13, 0 |||
 11 |          |           |  -6.6599 |        0 | i  |  2,14, 0 |||
 12 |          |           |   1.0954 |        0 | i  |  2,15, 0 |||
 13 |          |           | -0.31383 |        0 | i  |  2,16, 0 |||
 14 |          |           |    1.672 |        0 | i  |  2,17, 0 |||
 15 |          |           |   1.6987 |        0 | i  |  2,18, 0 |||
 16 |          |           |  -4.7309 |        0 | i  |  2,23, 0 |||
 17 |          |           |  0.11928 |        0 | i  |  2,24, 0 |||
 18 |          |           |  -2.2869 |        0 | i  |  2,25, 0 |||
 19 |          |           |       16 |        0 | i  |  2,27, 0 |||
 20 |          |           |    2.283 |        0 | i  |  2,28, 0 |||
 21 |          |           |   431.44 |        0 | i  |  2,19, 0 |||
 22 |          |           |        7 |        0 | i  |  2,20, 0 |||
 23 |          |           |    27.98 |        0 | i  |  2,21, 0 |||
 24 |          |           |  0.99162 |  0.19123 | h  |  7, 3, 0 |||
 25 |          |           |    0.677 |  0.13788 | h  |  8, 3, 0 |||
 26 |          |           | 1.1214e-06 |  -0.2911 | h  |  7, 4, 0 |||
 27 |          |           |  0.99999 |  0.37342 | h  |  8, 4, 0 |||
 28 |          |           | 0.074785 |  0.88274 | h  |  7, 5, 0 |||
 29 |          |           | 0.031709 |  0.33923 | h  |  8, 5, 0 |||
 30 |          |           |  0.99991 | -0.68766 | h  |  7, 7, 0 |||
 31 |          |           | 0.00012034 | -0.62419 | h  |  8, 7, 0 |||
 32 |          |           |        1 |   0.4432 | h  |  7, 8, 0 |||
 33 |          |           | 0.00019076 | -0.51976 | h  |  8, 8, 0 |||
 34 |          |           | 0.014464 |   0.7651 | h  |  7, 9, 0 |||
 35 |          |           | 0.0001192 |  0.88839 | h  |  8, 9, 0 |||
 36 |          |           | 1.0928e-20 | -0.15488 | h  |  7,11, 0 |||
 37 |          |           | 4.51e-26 | -0.83097 | h  |  8,11, 0 |||
 38 |          |           | 1.0633e-179 | -0.14215 | h  |  7,12, 0 |||
 39 |          |           |        1 | -0.49175 | h  |  8,12, 0 |||
 40 |          |           | 2.3094e-115 |   0.8396 | h  |  7,13, 0 |||
 41 |          |           |        1 | -0.0057129 | h  |  8,13, 0 |||
 42 |          |           | 4.6842e-187 |   0.2819 | h  |  7,14, 0 |||
 43 |          |           | 6.8006e-200 |  0.29063 | h  |  8,14, 0 |||
 44 |          |           | 8.9243e-231 | -0.13718 | h  |  7,15, 0 |||
 45 |          |           | 3.0675e-84 |   1.0195 | h  |  8,15, 0 |||
 46 |          |           | 1.0133e-107 | -0.36716 | h  |  7,16, 0 |||
 47 |          |           | 2.7554e-14 | 0.025649 | h  |  8,16, 0 |||
 48 |          |           | 6.9071e-139 |   1.0031 | h  |  7,17, 0 |||
 49 |          |           | 1.8379e-144 |  0.38829 | h  |  8,17, 0 |||
 50 |          |           |  0.96397 |  0.40347 | h  |  7,22, 0 |||
 51 |          |           |  0.99787 |  0.87284 | h  |  8,22, 0 |||
 52 |          |           |  0.78165 | -0.030394 | h  |  7,23, 0 |||
 53 |          |           |  0.72735 |  0.56575 | h  |  8,23, 0 |||
 54 |          |           | 0.070455 |   0.1108 | h  |  7,24, 0 |||
 55 |          |           |  0.99407 |  0.45833 | h  |  8,24, 0 |||
 56 |          |           | 0.003001 | -0.54397 | h  |  7,26, 0 |||
 57 |          |           | 0.021243 | -0.77451 | h  |  8,26, 0 |||
 58 |          |           |  0.99998 | -0.58462 | h  |  7,27, 0 |||
 59 |          |           |  0.99258 |  0.46572 | h  |  8,27, 0 |||
 60 |          |           |  0.12781 | -0.31488 | h  | 13,12, 0 |||
 61 |          |           |  0.95563 |   1.1424 | h  | 14,12, 0 |||
 62 |          |           |  0.85342 | -0.67802 | h  | 13,13, 0 |||
 63 |          |           |  0.90196 |  0.11464 | h  | 14,13, 0 |||
 64 |          |           | 0.0021091 | -0.097746 | h  | 13,14, 0 |||
 65 |          |           |  0.54706 |   0.8829 | h  | 14,14, 0 |||
 66 |          |           |  0.70181 |  -1.1472 | h  | 13,15, 0 |||
 67 |          |           |  0.37967 | -0.93976 | h  | 14,15, 0 |||
 68 |          |           |  0.70083 | -0.61486 | h  | 13,16, 0 |||
 69 |          |           |   0.9775 |  0.87154 | h  | 14,16, 0 |||
 70 |          |           |  0.98277 | -0.010418 | o  | 18,14, 0 |||
----|----------|----------|----------|----------|----|----------|----------|----------|-------


connection definition section :

target | site | source:weight
-------|------|------------------------------------------------------------------------------------------------------------
    24 |      |   1:-0.17674,   2:0.031891,   3:-0.23049,   4: 0.39949
    25 |      |   1: 0.97969,   2: 0.90186,   3:  0.1402,   4:-0.12969
    26 |      |   1:-0.87937,   2: 0.55134,   3:-0.81942,   4:-0.85721
    27 |      |   1:-0.51899,   2:  1.4122,   3:-0.46981,   4: 0.73455
    28 |      |   1: 0.58793,   2: 0.13076,   3:-0.24873,   4:-0.20462
    29 |      |   1: 0.50614,   2:-0.81501,   3: 0.76734,   4: -0.3669
    30 |      |   1:-0.33994,   5: 0.36139,   6:-0.12939,   7: 0.34148
    31 |      |   1:-0.96598,   5:0.016578,   6:-0.28821,   7: 0.09982
    32 |      |   1:-0.96346,   5: 0.40493,   6:  0.6838,   7:-0.73638
    33 |      |   1:-0.48068,   5: 0.08147,   6:-0.20579,   7:-0.044508
    34 |      |   1:-0.59186,   5:-0.76254,   6:0.012024,   7: 0.24677
    35 |      |   1: 0.92333,   5: 0.33859,   6:-0.48964,   7: 0.14703
    36 |      |   1: 0.44811,   8:-0.24126,   9: 0.07625,  10:-0.63841,  11: 0.47761,  12:   1.176,  13: -0.8173,  14:-0.58014, 
                 15:-0.66826,  21:0.023195,  22:-0.021495,  23: -1.1702
    37 |      |   1:-0.19063,   8:-0.66957,   9:-0.75714,  10:-0.023228,  11:0.097902,  12:  0.5677,  13:-0.77826,  14: 0.80852, 
                 15: 0.90291,  21:-0.07463,  22:-0.34213,  23: 0.80608
    38 |      |   1:-0.44653,   8:-0.53471,   9:-0.89853,  10:-0.56583,  11: -1.0973,  12: 0.92801,  13:-0.56821,  14: 0.63886, 
                 15:-0.69526,  21:-0.87781,  22: 0.21122,  23:-0.18394
    39 |      |   1: 0.77595,   8:  1.0016,   9: 0.76659,  10:-0.35351,  11:-0.42877,  12:-0.27107,  13: 0.37944,  14:-0.066031, 
                 15: 0.67276,  21:0.00065538,  22:-0.50443,  23:    1.05
    40 |      |   1:-0.64677,   8:-0.59744,   9:0.044188,  10: 0.57833,  11: 0.05389,  12: 0.50035,  13: -0.7284,  14:0.089209, 
                 15:  1.0267,  21:-0.47018,  22:-0.09928,  23:-0.63443
    41 |      |   1:-0.0064666,   8:-0.16361,   9:0.0088363,  10: 0.90087,  11:-0.055476,  12:-0.091248,  13: 0.31208,  14:-0.067967, 
                 15:0.096007,  21:  1.2637,  22: 0.35796,  23:-0.26753
    42 |      |   1: 0.11118,   8:-0.34513,   9: 0.65418,  10: 0.17278,  11: 0.63241,  12: 0.89373,  13: 0.44675,  14:-0.25334, 
                 15:  0.5546,  21:-0.96017,  22:-0.65719,  23: 0.76319
    43 |      |   1:-0.72595,   8:-0.35418,   9:-0.85236,  10:-0.91118,  11:-0.67822,  12:-0.18627,  13:-0.050485,  14: 0.29111, 
                 15:-0.44203,  21: -1.0098,  22:-0.96916,  23: 0.14051
    44 |      |   1: 0.18086,   8:  1.0076,   9:-0.78354,  10: 0.63791,  11: -0.2389,  12: 0.64386,  13:-0.20901,  14:-0.22015, 
                 15:  0.2012,  21: -1.3924,  22:-0.76317,  23:-0.23805
    45 |      |   1: 0.87903,   8:-0.34472,   9:0.061588,  10: 0.96175,  11: 0.86775,  12: 0.36652,  13:-0.57255,  14:-0.98978, 
                 15:-0.94743,  21:-0.38737,  22: 0.23246,  23: 0.24622
    46 |      |   1: 0.79353,   8: 0.45973,   9: -1.0022,  10: 0.62862,  11:-0.10652,  12: 0.25061,  13: 0.38237,  14: 0.68028, 
                 15:-0.18344,  21:-0.71272,  22: 0.44116,  23: 0.61405
    47 |      |   1:-0.76146,   8: 0.84304,   9:0.069451,  10: 0.14412,  11:-0.99519,  12:-0.17292,  13:-0.24296,  14: 0.11958, 
                 15:-0.67271,  21:-0.17637,  22:-0.68424,  23: -0.7354
    48 |      |   1:-0.69234,   8: 0.41206,   9:-0.76281,  10: 0.60005,  11: 0.37917,  12:-0.91787,  13:  0.2586,  14: 0.63452, 
                 15: 0.63356,  21:-0.81698,  22:-0.17726,  23:0.040196
    49 |      |   1: 0.62692,   8:  0.2034,   9: 0.37549,  10:0.0077737,  11: 0.74086,  12: 0.80889,  13:-0.61184,  14:-0.35936, 
                 15:-0.80687,  21:-0.82851,  22: 0.31943,  23: 0.55358
    50 |      |   1: 0.76667,  16:-0.34503,  17: 0.79578,  18:-0.50546
    51 |      |   1: 0.92236,  16: -1.2349,  17: 0.38455,  18: 0.26726
    52 |      |   1: 0.64061,  16:-0.35587,  17:  0.3644,  18: 0.18423
    53 |      |   1:-0.80736,  16:-0.48335,  17: 0.21646,  18: 0.82953
    54 |      |   1:-0.67529,  16:0.025191,  17: 0.36096,  18:  1.1432
    55 |      |   1:-0.90945,  16: -1.0916,  17: 0.22236,  18: 0.23079
    56 |      |   1:-0.29444,  19:-0.39518,  20: 0.46479
    57 |      |   1: 0.87797,  19:-0.093809,  20:-0.68103
    58 |      |   1:-0.25452,  19: 0.61288,  20: 0.81121
    59 |      |   1:-0.54582,  19: 0.17416,  20: 0.72032
    60 |      |  24:  0.4618,  25:-0.70076,  26:  -0.634,  27: 0.63904,  28: 0.91457,  29:-0.22272,  30: -1.0441,  31:  0.1774, 
                 32:-0.10043,  33: 0.25002,  34: 0.41096,  35:-0.20572,  36:-0.31133,  37: -0.1639,  38:-0.75019,  39: 0.34414, 
                 40: 0.92402,  41:-0.93542,  42: 0.48197,  43: 0.92121,  44: 0.14396,  45: 0.86472,  46:  1.0423,  47:  1.0416, 
                 48: 0.75649,  49: 0.65608,  50:-0.42826,  51:-0.74823,  52:-0.0089644,  53:-0.68141,  54:  0.5431,  55:-0.45083, 
                 56:-0.75617,  57: 0.90693,  58: 0.56357,  59: 0.93864
    61 |      |  24: 0.74242,  25:-0.18092,  26: 0.15378,  27:-0.93556,  28: -0.8441,  29:  1.0825,  30: 0.38196,  31:-0.35775, 
                 32:-0.36186,  33:-0.77549,  34:-0.49989,  35: -1.5679,  36: 0.87275,  37:-0.21604,  38: 0.74969,  39: 0.89756, 
                 40:-0.29178,  41: 0.35142,  42: 0.90628,  43:-0.76555,  44:  1.1119,  45: 0.88395,  46: 0.14374,  47: 0.90736, 
                 48:-0.11848,  49: 0.77645,  50:  1.0146,  51:-0.39099,  52:0.0090702,  53: 0.63677,  54: 0.11852,  55:-0.58547, 
                 56:-0.22772,  57:-0.85857,  58: 0.31239,  59: 0.24036
    62 |      |  24:-0.37036,  25:-0.98568,  26:-0.90173,  27:-0.36763,  28:-0.17395,  29:-0.90894,  30:-0.013108,  31: 0.48126, 
                 32: 0.33167,  33:-0.45718,  34:  1.0225,  35:-0.60417,  36:  0.9862,  37:-0.95883,  38:  1.1275,  39: 0.43213, 
                 40: 0.16744,  41: 0.81047,  42:-0.55952,  43:-0.69085,  44: 0.73827,  45:0.0085627,  46: 0.25063,  47: 0.36039, 
                 48:  1.0256,  49: 0.82434,  50:  1.0902,  51: -0.7907,  52:-0.12877,  53:4.9886e-05,  54:-0.91721,  55: 0.19087, 
                 56:-0.050298,  57:-0.90593,  58:  1.0214,  59:  1.0272
    63 |      |  24:-0.51104,  25:  0.2148,  26: 0.42177,  27: 0.23776,  28: 0.47532,  29: 0.97646,  30:-0.036527,  31: 0.30856, 
                 32:  0.7547,  33:-0.31104,  34:-0.58266,  35: 0.49739,  36:-0.21354,  37:-0.17842,  38:-0.16429,  39: 0.58585, 
                 40: 0.76473,  41:-0.99856,  42: 0.46808,  43: 0.36149,  44: 0.93873,  45: 0.57252,  46:-0.80789,  47:-0.17025, 
                 48:  0.7592,  49:0.089489,  50: 0.86765,  51: 0.82409,  52:-0.044402,  53: 0.73089,  54:  0.9349,  55: 0.66538, 
                 56:0.063641,  57: 0.34186,  58:-0.24713,  59:-0.78453
    64 |      |  24: -1.0295,  25: 0.54836,  26:-0.14896,  27:-0.43923,  28: 0.73475,  29:-0.73299,  30: 0.32381,  31:-0.63774, 
                 32: 0.14329,  33:-0.11083,  34:  -0.976,  35: 0.17787,  36:-0.57359,  37: 0.30415,  38: 0.14699,  39: -1.0184, 
                 40: 0.41641,  41:-0.94941,  42: 0.61695,  43: -0.4613,  44: 0.87642,  45: 0.43502,  46: 0.45114,  47: 0.59078, 
                 48: 0.27578,  49: 0.14733,  50:-0.34287,  51:-0.35823,  52:-0.99475,  53:-0.02677,  54: 0.80289,  55:-0.98091, 
                 56:-0.50741,  57: -0.3212,  58:-0.37276,  59:-0.71027
    65 |      |  24: -1.0386,  25:-0.18524,  26:-0.79142,  27: 0.35252,  28: 0.17299,  29: 0.46609,  30: 0.25531,  31:-0.53942, 
                 32:-0.36919,  33: 0.62999,  34: 0.96771,  35:-0.096872,  36: 0.18422,  37:-0.51242,  38:-0.29001,  39:-0.23256, 
                 40: 0.84595,  41:-0.65287,  42: -1.2011,  43: 0.29812,  44:-0.049508,  45:-0.45337,  46: 0.26584,  47:-0.95405, 
                 48:-0.45221,  49:0.0038858,  50: -0.3753,  51: 0.23417,  52: 0.85459,  53:-0.056842,  54:-0.80067,  55:  1.0573, 
                 56: 0.87365,  57:-0.57001,  58:-0.046364,  59:-0.37383
    66 |      |  24:-0.52282,  25:  0.1907,  26:-0.58961,  27: 0.77732,  28:-0.82335,  29:-0.31968,  30: 0.45232,  31:0.023941, 
                 32: 0.75353,  33: 0.37019,  34: -0.2812,  35:-0.99581,  36: 0.45866,  37: -1.0955,  38:  0.1958,  39: -0.7946, 
                 40:  0.4699,  41: 0.25031,  42:-0.15506,  43:-0.40215,  44: 0.90043,  45:-0.98893,  46:  -0.471,  47:-0.062678, 
                 48:-0.77121,  49:-0.45053,  50:-0.42493,  51:-0.56913,  52:  0.5596,  53: 0.16163,  54:-0.66725,  55: 0.80238, 
                 56: -1.0939,  57:-0.18011,  58: 0.80972,  59:-0.10201
    67 |      |  24:-0.20001,  25: -0.8983,  26: 0.92819,  27:-0.27377,  28: 0.42687,  29:-0.80532,  30: -0.8989,  31: 0.59871, 
                 32: 0.34173,  33:-0.27004,  34:0.062358,  35:-0.029416,  36: 0.45557,  37: 0.70853,  38:-0.30269,  39: 0.59373, 
                 40:-0.81926,  41: 0.61679,  42: 0.73368,  43:-0.077869,  44:-0.80602,  45:-0.59901,  46:-0.53149,  47: 0.46213, 
                 48: 0.03887,  49:-0.74609,  50: 0.79783,  51: 0.89554,  52: -0.8391,  53:-0.19512,  54: 0.94926,  55:  0.1434, 
                 56: 0.01678,  57: 0.91916,  58: 0.60761,  59:-0.83943
    68 |      |  24:  1.0419,  25: 0.87855,  26: 0.48981,  27:-0.45068,  28:-0.65618,  29:-0.97835,  30:  1.2241,  31:-0.82735, 
                 32:-0.003213,  33: 0.42358,  34:-0.70686,  35:-0.36984,  36: 0.40105,  37:0.012884,  38:0.018034,  39: 0.79129, 
                 40: 0.65584,  41:-0.40646,  42:-0.12113,  43:-0.95854,  44:-0.55226,  45:-0.27098,  46: -0.7618,  47: 0.32826, 
                 48:-0.30129,  49: 0.42345,  50:-0.69169,  51:-0.40652,  52: 0.12533,  53:-0.52617,  54:-0.40556,  55:-0.048318, 
                 56:-0.93784,  57:-0.91404,  58: 0.46259,  59:-0.23468
    69 |      |  24: 0.46525,  25:-0.024544,  26: 0.44384,  27:-0.0077333,  28: 0.39082,  29: -0.8832,  30:-0.59029,  31: -0.3638, 
                 32: 0.17344,  33:-0.75545,  34:-0.69197,  35: 0.72071,  36:  0.1124,  37:-0.67712,  38: -0.7758,  39: 0.84657, 
                 40:-0.40584,  41: 0.50387,  42: -0.4476,  43: 0.98009,  44: 0.74799,  45: 0.13336,  46:0.040378,  47:-0.77709, 
                 48: 0.77005,  49: 0.95271,  50:-0.69573,  51: 0.89188,  52: 0.39794,  53:0.018296,  54:-0.71938,  55:-0.17782, 
                 56: 0.99022,  57: 0.71403,  58: 0.81287,  59: 0.39396
    70 |      |  60: -1.2544,  61:  2.9507,  62:  1.0665,  63: -1.0252,  64:-0.49438,  65: -1.2123,  66:  1.7307,  67:-0.71467, 
                 68:  1.5291,  69: 0.05973
-------|------|----------------------------------------------------------------------------------------------------------------
