SNNS network definition file V1.4-3D
generated at Thu May 09 10:11:49 1996

network name : edge_23
source files :
no. of units : 70
no. of connections : 622
no. of unit types : 0
no. of site types : 0


learning function : Std_Backpropagation
update function : Topological_Order


unit default section :

act      | bias     | st | subnet | layer | act func     | out func
---------|----------|----|--------|-------|--------------|-------------
 0.00000 |  0.00000 | h  |      0 |     1 | Act_Logistic | Out_Identity
---------|----------|----|--------|-------|--------------|-------------


unit definition section :

no. | typeName | unitName | act      | bias     | st | position | act func | out func | sites
----|----------|----------|----------|----------|----|----------|----------|----------|-------
  1 |          |           |  0.60698 |        0 | i  |  2, 1, 0 |||
  2 |          |           |  0.14438 |        0 | i  |  2, 3, 0 |||
  3 |          |           |  0.59044 |        0 | i  |  2, 4, 0 |||
  4 |          |           |   1.3744 |        0 | i  |  2, 5, 0 |||
  5 |          |           |   1.6884 |        0 | i  |  2, 7, 0 |||
  6 |          |           |   0.4575 |        0 | i  |  2, 8, 0 |||
  7 |          |           |   1.3744 |        0 | i  |  2, 9, 0 |||
  8 |          |           |  0.45638 |        0 | i  |  2,11, 0 |||
  9 |          |           | -0.21729 |        0 | i  |  2,12, 0 |||
 10 |          |           | -0.92403 |        0 | i  |  2,13, 0 |||
 11 |          |           |   1.5494 |        0 | i  |  2,14, 0 |||
 12 |          |           |   1.4464 |        0 | i  |  2,15, 0 |||
 13 |          |           | -0.39302 |        0 | i  |  2,16, 0 |||
 14 |          |           |  0.60084 |        0 | i  |  2,17, 0 |||
 15 |          |           |   0.6119 |        0 | i  |  2,18, 0 |||
 16 |          |           |  0.31611 |        0 | i  |  2,23, 0 |||
 17 |          |           |  -1.4215 |        0 | i  |  2,24, 0 |||
 18 |          |           | -0.86108 |        0 | i  |  2,25, 0 |||
 19 |          |           |        0 |        0 | i  |  2,27, 0 |||
 20 |          |           |        0 |        0 | i  |  2,28, 0 |||
 21 |          |           |        0 |        0 | i  |  2,19, 0 |||
 22 |          |           |        0 |        0 | i  |  2,20, 0 |||
 23 |          |           |        0 |        0 | i  |  2,21, 0 |||
 24 |          |           |  0.19748 |   -1.147 | h  |  7, 3, 0 |||
 25 |          |           |  0.86824 |   0.7632 | h  |  8, 3, 0 |||
 26 |          |           |  0.89525 |   0.3606 | h  |  7, 4, 0 |||
 27 |          |           |  0.43077 | 0.027983 | h  |  8, 4, 0 |||
 28 |          |           |  0.93102 |   2.6504 | h  |  7, 5, 0 |||
 29 |          |           |  0.88404 |  0.50333 | h  |  8, 5, 0 |||
 30 |          |           |  0.36599 |  -1.4079 | h  |  7, 7, 0 |||
 31 |          |           |  0.08308 | -0.64048 | h  |  8, 7, 0 |||
 32 |          |           |   0.1471 |  0.91729 | h  |  7, 8, 0 |||
 33 |          |           |  0.14871 | -0.37584 | h  |  8, 8, 0 |||
 34 |          |           |  0.60662 |  0.28593 | h  |  7, 9, 0 |||
 35 |          |           | 0.031385 | -0.51595 | h  |  8, 9, 0 |||
 36 |          |           |   0.6028 |  0.28307 | h  |  7,11, 0 |||
 37 |          |           |  0.24821 |  0.31761 | h  |  8,11, 0 |||
 38 |          |           |  0.30673 |  0.68148 | h  |  7,12, 0 |||
 39 |          |           |  0.78612 |  0.82819 | h  |  8,12, 0 |||
 40 |          |           |  0.91646 |  0.67026 | h  |  7,13, 0 |||
 41 |          |           |  0.58102 |  0.45781 | h  |  8,13, 0 |||
 42 |          |           |   0.2893 | -0.63514 | h  |  7,14, 0 |||
 43 |          |           |  0.77586 | -0.74101 | h  |  8,14, 0 |||
 44 |          |           |  0.20495 | -0.11651 | h  |  7,15, 0 |||
 45 |          |           |  0.95002 |   1.0062 | h  |  8,15, 0 |||
 46 |          |           |  0.41229 | -0.94943 | h  |  7,16, 0 |||
 47 |          |           |  0.92937 |  0.10988 | h  |  8,16, 0 |||
 48 |          |           |  0.67333 |  -0.6686 | h  |  7,17, 0 |||
 49 |          |           |  0.43305 | -0.61955 | h  |  8,17, 0 |||
 50 |          |           |   0.4248 |  0.24286 | h  |  7,22, 0 |||
 51 |          |           |  0.38259 |  0.39911 | h  |  8,22, 0 |||
 52 |          |           |  0.58304 | -0.83067 | h  |  7,23, 0 |||
 53 |          |           |  0.46238 |  0.12579 | h  |  8,23, 0 |||
 54 |          |           |  0.10753 |   0.7045 | h  |  7,24, 0 |||
 55 |          |           |  0.76436 | -0.13711 | h  |  8,24, 0 |||
 56 |          |           |  0.35415 | -0.49132 | h  |  7,26, 0 |||
 57 |          |           |  0.39514 | -0.28978 | h  |  8,26, 0 |||
 58 |          |           |    0.621 | -0.028578 | h  |  7,27, 0 |||
 59 |          |           |  0.42915 |  -0.1287 | h  |  8,27, 0 |||
 60 |          |           |  0.98416 | -0.069063 | h  | 13,12, 0 |||
 61 |          |           | 0.089366 |  0.62735 | h  | 14,12, 0 |||
 62 |          |           |  0.91147 | -0.42846 | h  | 13,13, 0 |||
 63 |          |           |  0.96624 |  0.71916 | h  | 14,13, 0 |||
 64 |          |           |  0.93525 | -0.47692 | h  | 13,14, 0 |||
 65 |          |           |  0.59933 |  0.80809 | h  | 14,14, 0 |||
 66 |          |           |  0.69954 |  0.14931 | h  | 13,15, 0 |||
 67 |          |           |  0.20885 |  0.32509 | h  | 14,15, 0 |||
 68 |          |           | 0.043622 | -0.84356 | h  | 13,16, 0 |||
 69 |          |           |  0.62911 |  0.32182 | h  | 14,16, 0 |||
 70 |          |           |  0.19418 | -0.053872 | o  | 18,14, 0 |||
----|----------|----------|----------|----------|----|----------|----------|----------|-------


connection definition section :

target | site | source:weight
-------|------|------------------------------------------------------------------------------------------------------------
    24 |      |   1: 0.69013,   2: 0.41566,   3: 0.72968,   4:-0.84758
    25 |      |   1:-0.30667,   2:-0.12124,   3: 0.60697,   4: 0.70403
    26 |      |   1:-0.12992,   2: 0.94214,   3:  1.0317,   4: 0.81389
    27 |      |   1: -1.4053,   2: 0.16761,   3:-0.44199,   4: 0.56974
    28 |      |   1:  1.1135,   2:-0.087634,   3:-0.43646,   4:-0.32998
    29 |      |   1:   0.373,   2:-0.67046,   3:0.082079,   4: 0.98215
    30 |      |   1: -1.1719,   5:  0.2651,   6: 0.61367,   7: 0.61217
    31 |      |   1: 0.12139,   5:-0.78582,   6:-0.25288,   7:-0.28519
    32 |      |   1:-0.31211,   5:-0.99507,   6:-0.90935,   7:-0.28325
    33 |      |   1:-0.73154,   5:-0.75155,   6:0.046119,   7: 0.23497
    34 |      |   1: 0.65101,   5:-0.089226,   6: -1.8447,   7: 0.54326
    35 |      |   1:-0.19706,   5: -0.7169,   6:-0.17412,   7: -1.0942
    36 |      |   1: -0.7121,   8: -1.4397,   9:-0.25668,  10:-0.28879,  11: 0.57047,  12:-0.13247,  13: -1.0768,  14:-0.39476, 
                 15:0.036636,  21: 0.38489,  22:-0.10774,  23: 0.65963
    37 |      |   1:  0.1639,   8:-0.92738,   9:-0.22827,  10: 0.36031,  11:-0.81956,  12:-0.31448,  13:-0.38613,  14: 0.48735, 
                 15:  0.7541,  21:-0.50329,  22:-0.65514,  23: 0.42959
    38 |      |   1: 0.14191,   8: 0.65574,   9:-0.75195,  10: 0.78375,  11:-0.55379,  12:-0.52054,  13: 0.50528,  14:-0.093101, 
                 15: 0.88898,  21:0.054678,  22:-0.10633,  23:-0.97518
    39 |      |   1:  1.0037,   8: 0.20207,   9:-0.16293,  10: 0.71078,  11:-0.50157,  12: 0.78936,  13:  0.6108,  14: 0.55986, 
                 15:-0.11028,  21:-0.54355,  22:-0.90433,  23: 0.29337
    40 |      |   1: 0.94308,   8: -1.0922,   9: -1.0855,  10:-0.095936,  11: 0.46058,  12: 0.25886,  13:-0.25265,  14: 0.69022, 
                 15:-0.45035,  21:-0.23692,  22: 0.96825,  23: 0.71046
    41 |      |   1: 0.87524,   8: 0.19458,   9:-0.71614,  10:  1.0274,  11:0.0079543,  12: -0.5484,  13: 0.67265,  14: 0.58666, 
                 15:   1.202,  21: 0.77872,  22: 0.13126,  23: 0.58744
    42 |      |   1:-0.78628,   8:-0.92469,   9: 0.10032,  10: 0.57288,  11:  1.4654,  12:-0.39327,  13: 0.83578,  14:  0.6388, 
                 15:-0.93205,  21:-0.37947,  22: 0.22362,  23:-0.27374
    43 |      |   1: 0.49357,   8: 0.96829,   9: -1.1686,  10:  1.4516,  11:-0.049868,  12:  1.0048,  13:-0.92068,  14: 0.53062, 
                 15: 0.44433,  21: 0.56196,  22:  0.6509,  23: 0.05197
    44 |      |   1:  0.4576,   8: -1.4646,   9: 0.93443,  10:0.055568,  11: -1.1305,  12: 0.26869,  13: 0.28177,  14:  1.5502, 
                 15:-0.084624,  21: 0.42223,  22:-0.18367,  23: 0.16135
    45 |      |   1:0.074828,   8: 0.50929,   9:-0.65827,  10:  1.0069,  11: 0.41333,  12: 0.67112,  13: 0.30813,  14: 0.79337, 
                 15: 0.78687,  21: -0.6775,  22: 0.33176,  23: 0.80824
    46 |      |   1:0.030411,   8:-0.074606,   9: 0.75358,  10: 0.46157,  11: 0.43655,  12:  0.6395,  13:-0.086397,  14: 0.75522, 
                 15: -1.4518,  21: -0.6693,  22: 0.04125,  23: 0.21271
    47 |      |   1:-0.79485,   8:-0.68995,   9:-0.18886,  10:-0.28697,  11: 0.53037,  12: 0.85724,  13:-0.71465,  14: 0.10113, 
                 15: 0.90699,  21: 0.50597,  22: 0.38695,  23: 0.29133
    48 |      |   1:-0.33483,   8: 0.71435,   9:-0.67841,  10:-0.057283,  11: 0.56058,  12:0.043454,  13: 0.68562,  14: 0.20316, 
                 15: 0.46531,  21:-0.19472,  22:-0.96196,  23: -1.0973
    49 |      |   1:-0.75708,   8: -0.2677,   9:  0.4502,  10: 0.25025,  11:  0.1233,  12:  1.1177,  13: 0.95286,  14: 0.51767, 
                 15:-0.78974,  21:-0.15976,  22: 0.54698,  23:-0.56539
    50 |      |   1: 0.28984,  16:-0.88293,  17:  0.6808,  18:-0.60964
    51 |      |   1:-0.50904,  16: 0.90529,  17: 0.53132,  18: 0.11566
    52 |      |   1: 0.07185,  16:-0.42146,  17: -0.5679,  18: -0.5206
    53 |      |   1:-0.55074,  16:-0.85204,  17:-0.032063,  18:-0.32691
    54 |      |   1:-0.74104,  16:-0.92259,  17: 0.94223,  18: 0.85933
    55 |      |   1: 0.63982,  16:-0.26511,  17:-0.75052,  18:0.066863
    56 |      |   1:-0.18048,  19:-0.51249,  20: 0.41637
    57 |      |   1:-0.22405,  19:-0.81865,  20:-0.047533
    58 |      |   1: 0.86061,  19: 0.94855,  20:-0.92724
    59 |      |   1:-0.25803,  19:-0.48642,  20:  0.3387
    60 |      |  24:0.031988,  25: 0.83602,  26:   0.779,  27: 0.58482,  28:0.018833,  29: 0.82135,  30: 0.53068,  31:0.046304, 
                 32: 0.76687,  33: 0.26462,  34:-0.23552,  35:-0.87336,  36: 0.75507,  37: 0.98885,  38:0.003626,  39:-0.49858, 
                 40:-0.54206,  41: 0.90365,  42:-0.16884,  43: 0.26206,  44:-0.96617,  45: 0.67055,  46: 0.90777,  47: 0.84526, 
                 48: 0.64698,  49: -1.0598,  50:-0.33876,  51:-0.52955,  52:-0.53182,  53: -1.0135,  54: 0.39381,  55: 0.41255, 
                 56: 0.85256,  57:  0.0646,  58:0.020714,  59:-0.11097
    61 |      |  24:-0.30091,  25: 0.78685,  26:-0.77985,  27: 0.89392,  28:-0.89475,  29:-0.49893,  30: 0.87499,  31:-0.46058, 
                 32: 0.76766,  33:-0.84056,  34:-0.25203,  35: 0.72011,  36:-0.11039,  37:-0.71027,  38: 0.71887,  39:-0.32631, 
                 40:-0.91122,  41: 0.73361,  42:-0.54559,  43:-0.90377,  44:-0.61075,  45:-0.23325,  46:-0.19392,  47:-0.51401, 
                 48:-0.86892,  49:-0.76826,  50:-0.65174,  51:  0.2098,  52: 0.15925,  53: 0.18673,  54: -0.6363,  55: 0.80387, 
                 56:0.015839,  57:-0.063646,  58: 0.71328,  59: 0.68037
    62 |      |  24: 0.26847,  25:-0.50477,  26: 0.80241,  27: 0.46385,  28:   0.946,  29: 0.68874,  30:-0.38176,  31: 0.93372, 
                 32: 0.29485,  33: 0.37152,  34:-0.72761,  35: 0.15248,  36: 0.86836,  37:-0.31583,  38: 0.72373,  39:-0.29622, 
                 40: 0.43977,  41:-0.89984,  42:-0.0071841,  43: 0.71231,  44:-0.62162,  45:-0.59997,  46:-0.079961,  47: 0.63775, 
                 48:-0.26423,  49:-0.25456,  50:-0.18394,  51: 0.59765,  52:-0.48611,  53: -0.3284,  54: 0.41616,  55: 0.90749, 
                 56:0.076516,  57: 0.12037,  58:  0.5031,  59:-0.33126
    63 |      |  24:-0.89551,  25:-0.32497,  26: 0.87987,  27: 0.54685,  28:-0.048352,  29:0.085636,  30: 0.42882,  31: 0.46772, 
                 32:-0.29117,  33: -0.8744,  34:-0.19351,  35:-0.22785,  36:  0.1259,  37:-0.57794,  38: 0.19585,  39: 0.37293, 
                 40: 0.28257,  41:-0.13559,  42:  1.0153,  43:  1.0311,  44: 0.67985,  45: 0.64352,  46: -0.5346,  47:-0.63008, 
                 48:0.056957,  49:-0.63667,  50: 0.41323,  51:-0.82579,  52: 0.81936,  53:-0.90611,  54: -0.2603,  55: 0.93428, 
                 56:-0.29991,  57:-0.39113,  58: 0.42252,  59: 0.62585
    64 |      |  24:-0.73802,  25:-0.040097,  26: 0.14174,  27:-0.48295,  28:  2.2064,  29: 0.79058,  30: 0.70501,  31:-0.76101, 
                 32: -1.1102,  33: 0.16078,  34: 0.70357,  35:0.071363,  36:  0.6419,  37: 0.70752,  38:-0.31766,  39:0.011638, 
                 40:  1.2908,  41:-0.39283,  42: 0.74778,  43:-0.58884,  44:-0.45446,  45:-0.88538,  46:-0.69926,  47:-0.72423, 
                 48:-0.28258,  49:  1.1933,  50:  0.1984,  51: 0.14902,  52: 0.50277,  53:-0.17076,  54:  0.1568,  55:-0.64983, 
                 56: 0.70394,  57: 0.40074,  58:0.061854,  59: 0.53693
    65 |      |  24:-0.22082,  25: 0.60851,  26:-0.10192,  27:-0.84463,  28: 0.42466,  29: 0.92393,  30:   0.618,  31:-0.46066, 
                 32:-0.95518,  33:-0.56955,  34:  -0.542,  35:   0.149,  36: -0.6426,  37:-0.36825,  38: 0.49161,  39:-0.46553, 
                 40:-0.097531,  41:  0.6323,  42: 0.25993,  43:0.041491,  44:-0.58553,  45:-0.24609,  46:-0.74261,  47: 0.22261, 
                 48: 0.94651,  49:-0.46541,  50:-0.24503,  51: 0.13155,  52: 0.64126,  53:-0.74912,  54: 0.34214,  55:-0.41956, 
                 56:-0.99171,  57:-0.78913,  58:-0.081409,  59: 0.14865
    66 |      |  24:-0.047471,  25:   1.005,  26:-0.95715,  27:   0.621,  28: -1.1722,  29: 0.10254,  30:  1.5542,  31: 0.18196, 
                 32:-0.054034,  33:-0.25439,  34: -1.7439,  35:-0.15828,  36:   0.772,  37: 0.39621,  38: 0.63112,  39:-0.62385, 
                 40: 0.38564,  41: 0.60519,  42:-0.94058,  43: -1.2091,  44:  2.2081,  45: 0.50018,  46:  1.0807,  47:0.041353, 
                 48:-0.35797,  49:-0.41387,  50:-0.16399,  51:0.069528,  52: 0.54038,  53:  0.8799,  54:  0.5443,  55:-0.67772, 
                 56: 0.50778,  57: 0.45973,  58: 0.28313,  59:  1.0194
    67 |      |  24: 0.15311,  25: 0.10715,  26: -1.6107,  27:  0.3765,  28:-0.41996,  29:-0.54184,  30: 0.29491,  31:-0.55542, 
                 32:-0.45066,  33: 0.31366,  34: -1.2855,  35: 0.50884,  36: 0.27996,  37:   -1.08,  38: 0.43704,  39:-0.15581, 
                 40:   0.622,  41:  0.8982,  42: 0.85557,  43:-0.96911,  44:-0.63032,  45: -0.1252,  46: 0.71654,  47:  1.0899, 
                 48:-0.90061,  49: 0.82735,  50: 0.40943,  51: 0.52474,  52:-0.015281,  53:     0.2,  54:-0.42037,  55: -0.9608, 
                 56:-0.67566,  57:-0.50239,  58: 0.34544,  59: 0.75514
    68 |      |  24:-0.70148,  25:-0.52226,  26: 0.88377,  27: 0.58289,  28:-0.71769,  29:  0.4564,  30: 0.12027,  31:-0.38243, 
                 32: 0.19573,  33: 0.83652,  34:-0.53729,  35: 0.15202,  36: 0.47263,  37:-0.23726,  38: 0.63913,  39:-0.59821, 
                 40:-0.54996,  41: 0.59658,  42:-0.45358,  43:-0.49393,  44:-0.034169,  45:-0.94705,  46: 0.51233,  47:-0.65013, 
                 48:-0.36027,  49:  0.6288,  50:-0.20422,  51: 0.12247,  52:-0.032459,  53:-0.33701,  54:-0.41926,  55: 0.16477, 
                 56:0.068319,  57:-0.48705,  58:-0.41464,  59: 0.64231
    69 |      |  24:  1.1276,  25:-0.41134,  26: 0.42262,  27: 0.85006,  28:-0.60275,  29:-0.73267,  30: 0.51348,  31: 0.74071, 
                 32:-0.69533,  33: 0.73078,  34: -1.1803,  35: 0.78568,  36: 0.87904,  37: 0.22785,  38:-0.18363,  39:  1.3093, 
                 40:-0.59417,  41: 0.32271,  42:-0.39106,  43: -1.0333,  44:  1.7378,  45: 0.99606,  46: 0.41109,  47:-0.067977, 
                 48:-0.76337,  49:-0.54628,  50: 0.79162,  51:0.056766,  52:-0.16069,  53: 0.23961,  54: 0.44457,  55: -0.4239, 
                 56: 0.34736,  57:-0.52387,  58: 0.93672,  59:-0.70239
    70 |      |  60: -1.0065,  61:  1.1451,  62:  -0.909,  63:0.032857,  64: -2.6429,  65: -1.1346,  66:  2.6235,  67:  1.3683, 
                 68:  0.4085,  69:  2.1121
-------|------|----------------------------------------------------------------------------------------------------------------
