svm_type epsilon_svr
kernel_type rbf
gamma 0.0434783
nr_class 2
total_sv 224
rho -0.855765
SV
0.03010430630144123 1:0 2:3.2572759 3:15.274125 4:15.274125 5:4.7984629 6:2.1890296 7:2.950933 8:9.1748141 9:-0.46657892 10:-0.095919794 11:2.703841 12:-0.22760052 13:-1.1139954 14:-1.5869987 15:0.48861351 16:-0.52576047 17:1.7101417 18:0.69674409 19:5.5793359 20:-0.80004026 21:5.3371192 22:10.081607 23:2.5437731 
-0.1110093823779373 1:0 2:1.6210365 3:3.54106 4:1.5855493 5:-0.95293211 6:-0.70361666 7:-0.42590786 8:1.0386042 9:-0.46657892 10:-0.24178103 11:2.5861843 12:-1.0666319 13:0.68904709 14:-1.0896066 15:0.96447879 16:2.5623352 17:-1.2875097 18:0.45479607 19:-0.49229435 20:1.2999519 21:-0.24378966 22:-0.84364908 23:0.98517484 
0.005795692501421709 1:0 2:4.051332 3:19.185146 4:17.229635 5:3.0643023 6:3.153245 7:3.5137398 8:9.6570837 9:-0.46657892 10:-0.14718543 11:-1.1668688 12:0.23791472 13:0.2449297 14:0.3329171 15:-0.13671396 16:-0.41097725 17:0.70679336 18:1.0504196 19:2.8808336 20:0.32135554 21:4.8226535 22:2.2778525 23:2.2123243 
0.1491602194205945 1:0 2:0.85907504 3:1.5855493 4:1.5855493 5:-1.0135158 6:-1.1857244 7:-0.98871466 8:0.76407264 9:2.8870979 10:-0.039830673 11:-0.41595016 12:2.3728965 13:0.9685481 14:-0.61812441 15:-0.66652127 16:-1.3952701 17:-0.018394478 18:0.4818244 19:-1.1669199 20:-1.2494386 21:-1.1276914 22:-0.84364908 23:-1.4099368 
-0.8083415449090389 1:0 2:-1.0015873 3:3.54106 4:3.54106 5:0.20411573 6:1.2248142 7:1.2625126 8:1.2678427 9:-0.46657892 10:-0.17231498 11:-1.1527922 12:0.39695389 13:1.1659981 14:-0.068880367 15:0.084899449 16:-0.35627068 17:0.46778024 18:0.086548994 19:0.18233124 20:-0.14484268 21:-0.092973943 22:-0.84364908 23:1.3402983 
0.03334525193485638 1:0 2:3.4511053 3:7.4520816 4:7.4520816 5:1.4334641 6:1.2248142 7:1.2625126 8:9.4400097 9:-0.46657892 10:-0.073582315 11:-1.1658354 12:0.27792162 13:1.0768503 14:2.7075685 15:-0.14929193 16:0.91447799 17:-1.1250951 18:0.6518395 19:-1.1669199 20:-1.2494386 21:-1.1276914 22:0.71710172 23:0.26703588 
0.02222467098573074 1:0 2:2.2204608 3:11.363103 4:9.4075923 5:3.5850261 6:2.6711373 7:3.5137398 8:11.369199 9:-0.46657892 10:0.066278763 11:2.6925202 12:0.13363918 13:-0.4847249 14:0.94312395 15:-0.74629715 16:2.6693968 17:-1.142272 18:1.1119726 19:4.9047103 20:-0.21204246 21:4.0102292 22:6.9601049 23:1.1153868 
0.03645778042517472 1:0 2:5.1495383 3:23.096168 4:23.096168 5:2.24369 6:3.6353527 7:3.5137398 8:10.079659 9:-0.46657892 10:-0.081410812 11:2.6694117 12:-0.65381426 13:1.5413663 14:-0.93333497 15:-3.1232594 16:-1.4427287 17:-0.38269525 18:-0.054181364 19:2.8808336 20:-0.71184062 21:1.2550634 22:-0.84364908 23:0.59059303 
0.09907502590996289 1:0 2:0.50981444 3:1.5855493 4:1.5855493 5:0.34358179 6:0.74270647 7:0.69970576 8:-0.25548398 9:-0.46657892 10:1.3726274 11:0.76476217 12:0.0020886346 13:0.80608866 14:-0.3977031 15:-0.38746779 16:-0.59442072 17:0.77057675 18:-0.8690808 19:0.18233124 20:1.8879496 21:1.0021047 22:-0.84364908 23:1.5375892 
0.01868663036268412 1:0 2:1.0704199 3:17.229635 4:7.4520816 5:3.561731 6:1.2248142 7:0.13689895 8:1.8316953 9:-0.46657892 10:1.3714036 11:0.69369105 12:0.025065029 13:-1.2607148 14:0.79594337 15:-3.0032509 16:0.34907838 17:1.9927829 18:-0.65692123 19:-0.49229435 20:-0.073443013 21:-0.77878277 22:-0.84364908 23:-0.30510775 
0.04289448337586749 1:0 2:6.6942699 3:23.096168 4:21.140657 5:6.0996242 6:6.527999 7:6.8905807 8:17.104894 9:-0.46657892 10:-1.5461607 11:0.70457002 12:-0.070374969 13:1.8073675 14:0.81624468 15:1.5105256 16:-0.25650572 17:1.2122289 18:-0.76449738 19:10.976341 20:-0.42624166 21:8.6737319 22:10.081607 23:1.0127954 
0.004336672048267399 1:0 2:1.5248346 3:9.4075923 4:7.4520816 5:5.5022477 6:1.7069219 7:1.8253194 8:5.9653829 9:-0.46657892 10:-1.5439984 11:0.82920946 12:-0.21818682 13:0.28542839 14:1.0903163 15:1.3588184 16:1.6114562 17:-1.3709608 18:-1.6044748 19:0.85695683 20:-1.0142395 21:-0.75842979 22:2.2778525 23:0.78393803 
0.0237471087427408 1:0 2:0.33278818 3:11.363103 4:-0.3699615 5:-0.51701519 6:-1.1857244 7:-1.5515215 8:-3.5997777 9:4.9003583 10:0.12256599 11:-1.1074022 12:0.63081503 13:0.19953822 14:-1.340708 15:-6.9597941 16:0.17479119 17:-1.6974994 18:-0.43883636 19:-1.1669199 20:-1.2494386 21:-1.1276914 22:-0.84364908 23:-1.4099368 
0.0236931259780831 1:0 2:2.4389388 3:23.096168 4:23.096168 5:3.6598373 6:4.1174604 7:4.6393534 8:16.058328 9:-0.46657892 10:-0.044886358 11:-1.1058189 12:0.76369328 13:0.85032259 14:0.60594537 15:1.3634934 16:-0.60748619 17:1.7371925 18:1.0742656 19:4.9047103 20:-0.24984229 21:3.4066663 22:2.2778525 23:1.2574363 
0.02262670182456744 1:0 2:3.977927 3:15.274125 4:13.318614 5:6.4571654 6:3.153245 7:3.5137398 8:13.1878 9:-0.46657892 10:-0.073567727 11:-1.1658353 12:0.27792127 13:-0.55418605 14:1.699792 15:-0.21288888 16:1.8958119 17:-1.2172093 18:0.46404281 19:2.8808336 20:-1.0184395 21:2.3512178 22:3.8386033 23:0.60637629 
0.02165376920876356 1:0 2:3.4135741 3:17.229635 4:11.363103 5:5.2111539 6:3.6353527 7:3.5137398 8:7.99895 9:-0.46657892 10:-0.081513162 11:2.6694139 12:-0.65380085 13:-0.93428573 14:-0.06806359 15:2.0459429 16:2.5225393 17:-1.8715291 18:0.63972376 19:3.5554592 20:-0.71184062 21:1.9528805 22:0.71710172 23:-0.16700406 
0.01187339673521589 1:0 2:2.3706954 3:17.229635 4:15.274125 5:1.7517889 6:2.1890296 7:2.3881262 8:3.6369484 9:-0.46657892 10:1.3726249 11:0.76476217 12:0.0023737151 13:1.248288 14:1.0223603 15:1.3631411 16:2.150367 17:-1.8094172 18:0.89304204 19:-0.49229435 20:0.073556498 21:-0.7482533 22:0.71710172 23:-0.16700406 
0.03786937159039151 1:0 2:2.6412084 3:27.007189 4:23.096168 5:7.9415187 6:2.6711373 7:2.950933 8:8.2439023 9:-0.46657892 10:-0.092485868 11:-1.1398896 12:0.54380088 13:-0.12900632 14:0.60953493 15:2.0459429 16:2.5225393 17:-1.8715291 18:0.63972376 19:6.2539615 20:-0.22884238 21:5.9536988 22:3.8386033 23:1.5770475 
2.890554029930926 1:0 2:0.58469194 3:-0.3699615 4:-0.3699615 5:-0.84266068 6:0.26059876 7:0.69970576 8:0.56626208 9:1.8819838 10:-0.081510421 11:1.4941011 12:-2.8913564 13:1.3178508 14:0.35106499 15:-0.038501642 16:0.45662624 17:-0.80691699 18:-0.19896433 19:-1.1669199 20:-1.2494386 21:-1.1276914 22:-0.84364908 23:-1.4099368 
0.03429052578444911 1:0 2:1.4992556 3:19.185146 4:13.318614 5:3.3411337 6:4.1174604 7:3.5137398 8:4.8804933 9:-0.46657892 10:-0.17236226 11:-1.1527883 12:0.39695612 13:0.65794531 14:-1.0563987 15:-0.51690861 16:-0.83231763 17:0.5308148 18:-0.85561668 19:0.18233124 20:1.1109525 21:0.75350736 22:10.081607 23:1.7743383 
0.03988002534316224 1:0 2:3.7051206 3:21.140657 4:19.185146 5:7.4929769 6:4.5995681 7:5.2021602 8:9.84395 9:-0.46657892 10:-0.15442195 11:-1.1653039 12:0.25604034 13:0.41798287 14:-0.58701362 15:1.9969584 16:-0.72829072 17:1.4612675 18:0.62755999 19:10.976341 20:-1.0142395 21:9.4224316 22:8.5208557 23:0.43670599 
0.01701912695113341 1:0 2:4.282372 3:15.274125 4:13.318614 5:4.4051539 6:2.1890296 7:2.950933 8:10.081508 9:-0.46657892 10:-0.048290439 11:2.6488636 12:-0.79352934 13:-1.3169124 14:1.1412932 15:1.0266143 16:3.8458172 17:-1.1734413 18:0.8210496 19:3.5554592 20:-0.073443013 21:3.3586914 22:6.9601049 23:0.82339617 
5.235977529575992 1:0 2:-2.8505853 3:3.54106 4:3.54106 5:0.23188147 6:-0.22150895 7:0.13689895 8:-0.078009042 9:-0.46657892 10:-1.5444474 11:0.69921513 12:0.088265486 13:0.70265801 14:-1.3817019 15:-0.19667674 16:-0.22522731 17:1.2097229 18:0.87033054 19:0.18233124 20:0.17015615 21:0.052782657 22:0.71710172 23:-0.36034915 
0.02508452897068634 1:0 2:4.2980517 3:17.229635 4:15.274125 5:6.4655698 6:1.2248142 7:0.69970576 8:6.8222542 9:-0.46657892 10:-0.12570859 11:-1.1193393 12:0.68352936 13:-1.3112589 14:0.50066035 15:1.0266143 16:3.8458172 17:-1.1734413 18:0.8210496 19:2.206208 20:0.38855532 21:2.2343335 22:5.3993541 23:1.217978 
0.01833065585102319 1:0 2:-1.185361 3:11.363103 4:9.4075923 5:2.3759011 6:0.26059876 7:0.13689895 8:1.1633913 9:-0.46657892 10:0.067782002 11:-1.05666 12:0.95663189 13:0.71523821 14:-1.2718282 15:0.96447879 16:2.5623352 17:-1.2875097 18:-2.0653023 19:0.85695683 20:0.36335534 21:0.91923891 22:-0.84364908 23:0.98517484 
0.04280526950457355 1:0 2:-1.1894203 3:9.4075923 4:9.4075923 5:1.0428222 6:2.1890296 7:1.8253194 8:0.96558061 9:-0.46657892 10:-0.067915651 11:-1.1326341 12:0.59736885 13:1.872354 14:-0.26741819 15:-0.6387803 16:-1.3434404 17:0.75144855 18:0.23000867 19:2.8808336 20:0.09875638 21:3.9140374 22:3.8386033 23:1.6559638 
0.03607773356097418 1:0 2:-1.1103833 3:15.274125 4:3.54106 5:2.588281 6:1.2248142 7:-0.98871466 8:-3.4066073 9:-0.46657892 10:1.3719243 11:0.69737792 12:-0.086662332 13:-1.3104519 14:0.72766702 15:-1.3807251 16:-0.83275613 17:0.80219996 18:-1.3566253 19:0.85695683 20:-1.0142395 21:0.90324731 22:-0.84364908 23:1.3837024 
0.001128478103545105 1:0 2:2.5747999 3:3.54106 4:3.54106 5:1.4183515 6:0.26059876 7:0.69970576 8:6.4830182 9:-0.46657892 10:-0.0011338747 11:2.6772979 12:-0.55657062 13:2.149517 14:0.85853691 15:0.2304492 16:0.34437815 17:0.48701937 18:-1.3544857 19:-0.49229435 20:-0.80424029 21:-0.8689175 22:-0.84364908 23:-0.99168009 
-0.1819050136665487 1:0 2:0.60153388 3:3.54106 4:1.5855493 5:-0.86219767 6:0.26059876 7:0.69970576 8:1.0728052 9:-0.46657892 10:-1.5459233 11:0.83214641 12:-0.023337642 13:-0.61642923 14:-1.5041877 15:-1.3807251 16:-0.83275613 17:0.80219996 18:-1.3566253 19:0.85695683 20:1.1571524 21:1.942704 22:0.71710172 23:0.98122893 
0.009982479568067821 1:0 2:2.5759996 3:13.318614 4:11.363103 5:1.8596522 6:3.6353527 7:3.5137398 8:4.6391274 9:-0.46657892 10:-0.048275807 11:2.648864 12:-0.79352386 13:-0.3018892 14:0.42766958 15:-0.99851452 16:-1.0379245 17:1.0802859 18:-1.9812157 19:2.8808336 20:-0.098642894 21:2.0212085 22:2.2778525 23:0.45248925 
0.03091702214350947 1:0 2:1.8072204 3:19.185146 4:7.4520816 5:0.039501505 6:0.26059876 7:0.69970576 8:-1.0208447 9:-0.46657892 10:0.037040787 11:2.6165586 12:-0.94046521 13:1.2693366 14:1.1563041 15:-2.1636131 16:-0.090801455 17:1.0835117 18:1.0977108 19:2.206208 20:0.53975481 21:2.3148733 22:2.2778525 23:0.27098179 
-0.2530366959822352 1:0 2:0.82344294 3:3.54106 4:1.5855493 5:-0.76270591 6:-0.22150895 7:0.13689895 8:0.65222637 9:-0.46657892 10:1.3664585 11:0.58309073 12:-0.038143138 13:-0.32790155 14:1.5177685 15:-0.091967453 16:-0.78688269 17:0.14956156 18:-0.55315185 19:0.85695683 20:-0.19944252 21:0.41065582 22:2.2778525 23:1.1153868 
0.05204118703512594 1:0 2:-1.5995587 3:5.4965708 4:1.5855493 5:0.4342415 6:0.74270647 7:-0.98871466 8:-3.1348302 9:-0.46657892 10:-0.21104025 11:-1.0870336 12:0.8304687 13:-1.3197381 14:-0.86362714 15:-2.0859814 16:-1.15922 17:1.2679579 18:0.83670456 19:-0.49229435 20:-0.31704207 21:-0.85437964 22:-0.84364908 23:-0.53396517 
0.04044165071359545 1:0 2:-3.0113967 3:11.363103 4:9.4075923 5:3.6362144 6:2.6711373 7:1.2625126 8:-1.3896599 9:-0.46657892 10:-0.14718492 11:-1.1668485 12:0.2382486 13:-0.22514867 14:1.3763784 15:0.3793301 16:0.56583585 17:1.9634086 18:0.9258507 19:-0.49229435 20:1.4427513 21:-0.16673898 22:2.2778525 23:1.1193325 
0.04391006538135611 1:0 2:4.3769123 3:28.9627 4:28.9627 5:7.111003 6:4.5995681 7:4.6393534 8:17.593597 9:-0.46657892 10:-0.038945822 11:1.1032631 12:2.956832 13:-0.18861749 14:-0.68531172 15:-3.5826592 16:-1.7103013 17:0.99839507 18:-1.9757593 19:8.9524639 20:-0.91763983 21:7.1934001 22:8.5208557 23:2.0031957 
-0.06779934119535583 1:0 2:-0.84119393 3:9.4075923 4:7.4520816 5:-0.28165389 6:-0.22150895 7:0.13689895 8:-0.090820564 9:-0.46657892 10:-1.5466264 11:0.76476217 12:-0.11208861 13:-0.11019476 14:-1.5869987 15:-0.38746779 16:-0.59442072 17:0.77057675 18:-0.8690808 19:0.85695683 20:0.073556498 21:1.596703 22:0.71710172 23:-0.16700406 
0.007401077848972079 1:0 2:0.01369422 3:13.318614 4:13.318614 5:3.0141742 6:1.7069219 7:1.8253194 8:6.7806584 9:-0.46657892 10:-0.24026813 11:-1.1629973 12:-0.24363613 13:0.35463143 14:-1.3865684 15:0.6700792 16:-0.58910585 17:1.172491 18:1.0548135 19:3.5554592 20:-0.21204246 21:3.570944 22:3.8386033 23:0.37751887 
0.02945618619144149 1:0 2:1.0197795 3:13.318614 4:13.318614 5:3.0948339 6:5.5637836 7:5.2021602 8:10.95779 9:-0.46657892 10:-0.0016772822 11:2.6823203 12:-0.50690839 13:-1.1964301 14:1.1983934 15:0.52536629 16:0.67433083 17:1.8468014 18:-0.28621841 19:5.5793359 20:-0.35064191 21:5.8937156 22:10.081607 23:1.7743383 
0.01658853886295997 1:0 2:2.776916 3:7.4520816 4:7.4520816 5:-0.15793179 6:1.7069219 7:1.8253194 8:2.7006572 9:-0.46657892 10:0.066297874 11:2.6925176 12:0.13363576 13:-0.033877116 14:-0.87793991 15:0.5913626 16:-0.70011274 17:1.0746283 18:0.90489029 19:2.206208 20:-0.21204246 21:2.2160157 22:3.8386033 23:1.1153868 
0.01937345767132982 1:0 2:1.0106947 3:15.274125 4:15.274125 5:3.8302541 6:0.26059876 7:0.69970576 8:8.4093608 9:-0.46657892 10:-1.5404575 11:0.9464336 12:-0.071856836 13:0.40885591 14:1.5210804 15:-0.091967453 16:-0.78688269 17:0.14956156 18:-0.55315185 19:0.18233124 20:0.086156439 21:-0.146386 22:0.71710172 23:-0.15516662 
0.03200147030810063 1:0 2:5.9004542 3:7.4520816 4:7.4520816 5:3.9434255 6:3.6353527 7:2.950933 8:8.4474478 9:-0.46657892 10:-0.048290439 11:2.6488636 12:-0.79352934 13:-1.3169124 14:0.15056278 15:1.0266143 16:3.8458172 17:-1.1734413 18:0.8210496 19:6.2539615 20:-0.56904114 21:4.3743061 22:5.3993541 23:1.217978 
0.006408009172114004 1:0 2:1.0203673 3:15.274125 4:13.318614 5:2.2380612 6:0.74270647 7:1.2625126 8:9.4646159 9:-0.46657892 10:1.36871 11:0.76476217 12:-0.28618552 13:0.530682 14:-1.5192388 15:-1.5878435 16:2.1979516 17:-1.5194484 18:0.51411397 19:4.2300848 20:-0.04404315 21:5.7981437 22:5.3993541 23:1.4784021 
0.04344392862372903 1:0 2:5.2755535 3:21.140657 4:19.185146 5:10.134159 6:5.5637836 7:5.764967 8:16.244141 9:-0.46657892 10:-1.5439939 11:0.82938314 12:-0.21819538 13:1.1351881 14:-1.2689979 15:-5.3802483 16:-0.48768184 17:1.976544 18:1.0658252 19:12.325592 20:-1.0142395 21:12.046515 22:10.081607 23:0.2157402 
0.003086624197083087 1:0 2:0.11907966 3:9.4075923 4:7.4520816 5:1.4437775 6:0.26059876 7:-0.42590786 8:2.9196539 9:-0.46657892 10:-1.5453992 11:0.83584246 12:-0.1353146 13:0.95877349 14:-1.4268631 15:-0.39761957 16:-0.54159985 17:0.61665352 18:-0.77571797 19:0.85695683 20:0.43895509 21:0.75205354 22:2.2778525 23:0.33806054 
-0.1183268746952893 1:0 2:-2.8980822 3:7.4520816 4:-0.3699615 5:-0.26869284 6:-1.1857244 7:-0.98871466 8:-3.0470171 9:-0.46657892 10:1.3719287 11:0.69754893 12:-0.086665314 13:0.73158576 14:-0.87859356 15:-0.78297798 16:0.030423393 17:-0.14875475 18:0.47818532 19:-0.49229435 20:1.5015512 21:-0.25251236 22:-0.84364908 23:1.1745741 
0.04380367124721957 1:0 2:-2.1834202 3:11.363103 4:11.363103 5:3.9988923 6:2.1890296 7:0.69970576 8:1.5922891 9:-0.46657892 10:1.3698085 11:0.65596395 12:-0.15498444 13:-0.17744804 14:1.8974407 15:-0.3082276 16:1.9870125 17:-1.1101321 18:1.0203126 19:0.18233124 20:1.1109525 21:0.60522122 22:2.2778525 23:1.0601454 
0.8832746792815038 1:0 2:-1.2058729 3:-0.3699615 4:-0.3699615 5:0.31312436 6:0.26059876 7:0.13689895 8:-1.2611754 9:-0.46657892 10:-0.078066104 11:-1.1743161 12:0.11761313 13:-1.0975992 14:0.24104045 15:-0.057626314 16:-0.26261208 17:1.0944521 18:0.33263956 19:0.18233124 20:0.22475589 21:-0.095503482 22:0.71710172 23:-0.024954655 
0.3689059551985191 1:0 2:-2.624545 3:3.54106 4:3.54106 5:0.82918632 6:0.74270647 7:-0.42590786 8:-1.1789084 9:-0.46657892 10:-1.5207695 11:1.0155516 12:0.36436682 13:-1.1835269 14:0.60749053 15:-1.9989204 16:-0.030721438 17:0.98781517 18:-1.1824811 19:0.18233124 20:0.38015536 21:0.11965684 22:0.71710172 23:0.27098179 
0.0348526699469689 1:0 2:1.9742733 3:7.4520816 4:5.4965708 5:0.66267808 6:1.2248142 7:1.2625126 8:2.5800666 9:-0.46657892 10:-0.067915322 11:-1.1326296 12:0.59740114 13:0.62870372 14:-0.069369554 15:0.32173149 16:-0.53646113 17:1.1558943 18:0.98291116 19:0.18233124 20:1.2747521 21:0.65755752 22:0.71710172 23:0.41697701 
0.003567515704067272 1:0 2:1.0644266 3:13.318614 4:11.363103 5:4.0412699 6:1.2248142 7:0.13689895 8:2.6885666 9:-0.46657892 10:-0.12573761 11:-1.1193359 12:0.68354377 13:1.1079519 14:1.4393995 15:0.70805844 16:2.8088727 17:-1.3317516 18:-0.97604047 19:0.18233124 20:0.90935328 21:0.12052908 22:2.2778525 23:1.217978 
0.009577561303176366 1:0 2:-0.79816217 3:7.4520816 4:5.4965708 5:3.9713638 6:0.26059876 7:0.69970576 8:-0.55127565 9:-0.46657892 10:1.3622034 11:0.62787477 12:-0.35497057 13:0.83867196 14:-0.81962584 15:-0.68009472 16:-1.0188586 17:0.53488653 18:0.72037179 19:-0.49229435 20:-0.80424029 21:-0.97649765 22:0.71710172 23:-0.99168009 
-0.4676644223074284 1:0 2:-1.9018533 3:5.4965708 4:5.4965708 5:-0.27978812 6:-0.22150895 7:0.13689895 8:-1.1188257 9:-0.46657892 10:-0.10608293 11:2.6621606 12:-0.7073536 13:-1.191509 14:-0.84760583 15:-1.0146647 16:2.1179591 17:-1.5097343 18:-1.1552309 19:-0.49229435 20:1.2537521 21:-0.29612596 22:-0.84364908 23:0.94177078 
0.01173983694421088 1:0 2:3.7153077 3:15.274125 4:7.4520816 5:0.17190175 6:-0.22150895 7:-0.42590786 8:0.44428497 9:-0.46657892 10:0.037040787 11:2.6165586 12:-0.94046521 13:1.5114024 14:-1.5127487 15:-2.1636131 16:-0.090801455 17:1.0835117 18:1.0977108 19:0.85695683 20:0.53975481 21:1.2826853 22:0.71710172 23:0.27098179 
1.165994218005062 1:0 2:-0.065846785 3:1.5855493 4:-0.3699615 5:-0.45082882 6:-0.22150895 7:0.13689895 8:0.72525004 9:-0.46657892 10:1.3714003 11:0.69368482 12:0.025314642 13:-0.51994005 14:0.34172986 15:0.11358852 16:1.4152441 17:-1.7565254 18:-1.8005251 19:-0.49229435 20:-0.10284287 21:-0.72353893 22:-0.84364908 23:-0.33272845 
0.0849260535840583 1:0 2:-0.84081191 3:9.4075923 4:7.4520816 5:1.8637624 6:0.26059876 7:0.13689895 8:-0.11036115 9:-0.46657892 10:-0.10041655 11:2.6953391 12:-0.38821794 13:-0.36891606 14:0.24953351 15:-0.68790288 16:1.7061502 17:-1.9051871 18:-0.78007136 19:0.85695683 20:-1.0310394 21:-0.15801631 22:-0.84364908 23:0.05001591 
0.04990518346184792 1:0 2:-2.5016306 3:11.363103 4:7.4520816 5:5.3437709 6:0.74270647 7:1.2625126 8:1.8899294 9:-0.46657892 10:1.3719299 11:0.69754227 12:-0.086394606 13:0.55987218 14:0.16080211 15:-1.3644264 16:-0.60067407 17:0.31124254 18:0.87144687 19:0.18233124 20:1.2957519 21:0.59795226 22:0.71710172 23:0.98122893 
0.03633781721769051 1:0 2:1.4169928 3:30.918211 4:27.007189 5:5.8848274 6:2.1890296 7:2.3881262 8:11.768906 9:-0.46657892 10:-0.044884384 11:-1.105835 12:0.76360116 13:1.1603294 14:0.31831861 15:0.9900532 16:-0.55089145 17:0.54506704 18:-1.8080539 19:6.2539615 20:-0.42624166 21:5.4405124 22:3.8386033 23:1.1943031 
0.2026496922550652 1:0 2:-3.0705577 3:5.4965708 4:-0.3699615 5:-1.1247858 6:-0.70361666 7:-1.5515215 8:-3.8225457 9:-0.46657892 10:-0.24026813 11:-1.1629973 12:-0.24363613 13:0.35463143 14:-1.3865684 15:0.6700792 16:-0.58910585 17:1.172491 18:1.0548135 19:-0.49229435 20:0.32555552 21:-0.37608413 22:-0.84364908 23:0.069744982 
3.744538382430318 1:0 2:0.05337315 3:-0.3699615 4:-0.3699615 5:1.5643833 6:0.26059876 7:0.13689895 8:-0.012380302 9:-0.46657892 10:-0.21103982 11:-1.0870343 12:0.83046524 13:-1.3197384 14:0.68648334 15:-2.1636131 16:-0.090801455 17:1.0835117 18:1.0977108 19:0.85695683 20:0.38015536 21:0.9076087 22:2.2778525 23:0.27098179 
-0.004062490794024787 1:0 2:-1.2752541 3:-0.3699615 4:-2.3254723 5:-1.5444904 6:-1.6678321 7:-2.1143283 8:-3.9556519 9:15.735685 10:-0.086999515 11:0.76476217 12:-0.054999987 13:-1.400281 14:-1.5869987 15:1.5442022 16:2.356102 17:1.327453 18:4.322584 19:-1.1669199 20:-1.2494386 21:-1.1276914 22:-0.84364908 23:-1.4099368 
0.123208969690629 1:0 2:0.45970836 3:-0.3699615 4:-0.3699615 5:-1.6736522 6:-1.6678321 7:-1.5515215 8:-2.1051058 9:4.0290224 10:-0.26512866 11:-0.5850025 12:2.1136159 13:2.3940392 14:-1.2286657 15:-0.95240355 16:-0.64614155 17:-1.1375598 18:-1.6487274 19:-1.1669199 20:-1.2494386 21:-1.1276914 22:-0.84364908 23:-1.4099368 
0.8197461855894435 1:0 2:1.3076976 3:-0.3699615 4:-0.3699615 5:-1.2005556 6:-1.1857244 7:-0.98871466 8:-0.61228255 9:3.2846808 10:-0.28428976 11:-0.56504515 12:2.1368166 13:0.47111586 14:-0.31217396 15:0.97819457 16:-0.70257135 17:-0.11829887 18:0.70459767 19:-1.1669199 20:-1.2494386 21:-1.1276914 22:-0.84364908 23:-1.4099368 
0.0259269353625268 1:0 2:-0.95930961 3:13.318614 4:13.318614 5:5.9978639 6:1.7069219 7:1.8253194 8:10.805273 9:-0.46657892 10:-0.078079235 11:-1.1743167 12:0.11760054 13:-1.400281 14:0.50995818 15:0.48861351 16:-0.52576047 17:1.7101417 18:0.69674409 19:4.9047103 20:-0.30864211 21:5.3227559 22:2.2778525 23:0.88652938 
0.03238937080288053 1:0 2:1.1738455 3:25.051678 4:25.051678 5:4.3764378 6:5.0816759 7:5.764967 8:14.209649 9:-0.46657892 10:-0.12911267 11:2.6353432 12:-0.87369325 13:-0.42394108 14:0.48777187 15:1.3634934 16:-0.60748619 17:1.7371925 18:1.0742656 19:6.2539615 20:-0.13224274 21:4.43112 22:2.2778525 23:1.1943031 
0.02125760708173293 1:0 2:-1.4061123 3:13.318614 4:5.4965708 5:1.329723 6:-0.22150895 7:-0.42590786 8:-0.0068342365 9:-0.46657892 10:-0.078050995 11:-1.1743187 12:0.11753812 13:-0.011726502 14:-0.34491434 15:-0.87057243 16:2.5254988 17:-1.3940248 18:0.79290441 19:-0.49229435 20:0.43895509 21:-0.53600055 22:-0.84364908 23:0.17628206 
0.03085531719391382 1:0 2:1.6505085 3:15.274125 4:15.274125 5:4.4036088 6:3.6353527 7:4.0765466 8:15.164483 9:-0.46657892 10:-0.044886358 11:-1.1058189 12:0.76369328 13:1.0181991 14:0.4408113 15:1.3634934 16:-0.60748619 17:1.7371925 18:1.0742656 19:6.9285871 20:-0.42204168 21:5.3208369 22:2.2778525 23:1.0996035 
0.03325527157499097 1:0 2:0.87244628 3:25.051678 4:25.051678 5:4.7434051 6:2.1890296 7:2.950933 8:13.053733 9:-0.46657892 10:1.3721613 11:0.82496191 12:-0.039500824 13:-0.16088968 14:0.11470426 15:-3.4028531 16:-1.8908356 17:0.63541361 18:-1.5096545 19:7.6032127 20:-0.42624166 21:5.102769 22:3.8386033 23:1.2574363 
0.01733019288675739 1:0 2:0.64421723 3:17.229635 4:15.274125 5:5.1478397 6:2.1890296 7:1.8253194 8:6.5673224 9:-0.46657892 10:-0.048290439 11:2.6488636 12:-0.79352934 13:-1.3169124 14:1.1412932 15:1.0266143 16:3.8458172 17:-1.1734413 18:0.8210496 19:4.9047103 20:-0.56904114 21:3.8791467 22:5.3993541 23:0.82339617 
0.09242036605573767 1:0 2:-3.0558269 3:7.4520816 4:3.54106 5:-0.35278137 6:0.26059876 7:-0.98871466 8:-3.3668418 9:-0.46657892 10:1.3698092 11:0.65598287 12:-0.15498552 13:2.3412864 14:-0.99627978 15:0.24237797 16:2.4402024 17:-1.3211449 18:-0.52760276 19:0.18233124 20:-0.14484268 21:-0.13513372 22:2.2778525 23:1.7743383 
0.6625204949969397 1:0 2:0.79001677 3:3.54106 4:1.5855493 5:-1.3377186 6:-1.1857244 7:-0.98871466 8:-1.4478939 9:-0.46657892 10:1.3664585 11:0.58309073 12:-0.038143138 13:1.9712021 14:-1.4328962 15:-0.091967453 16:-0.78688269 17:0.14956156 18:-0.55315185 19:0.18233124 20:0.65315438 21:0.40750634 22:0.71710172 23:1.1153868 
0.8381069575948219 1:0 2:-1.447523 3:5.4965708 4:3.54106 5:-1.0132609 6:-1.6678321 7:-1.5515215 8:-2.2202982 9:-0.46657892 10:-0.095947993 11:2.7038404 12:-0.22761274 13:0.75877405 14:-1.476126 15:-0.38673396 16:-0.19409029 17:1.2475534 18:0.99002443 19:0.18233124 20:0.24575579 21:0.24758993 22:-0.84364908 23:0.92598753 
0.009615156074870986 1:0 2:1.942782 3:13.318614 4:11.363103 5:3.2839154 6:1.7069219 7:1.2625126 8:3.89022 9:-0.46657892 10:-0.12569481 11:-1.1193412 12:0.68351997 13:-0.060886947 14:0.85109565 15:0.33260885 16:2.7871567 17:-1.4267547 18:-1.9486969 19:2.206208 20:-0.073443013 21:0.98611309 22:5.3993541 23:0.073690796 
-0.09007948447090741 1:0 2:1.4033229 3:-0.3699615 4:-0.3699615 5:-1.2005556 6:-1.1857244 7:-0.98871466 8:-0.23607261 9:1.6065133 10:0.059095238 11:-0.92130367 12:-1.542834 13:0.102629 14:-0.21708442 15:0.75921965 16:-0.72671134 17:0.11664762 18:-0.044098264 19:-1.1669199 20:-1.2494386 21:-1.1276914 22:-0.84364908 23:-1.4099368 
0.01295735588430443 1:0 2:2.7065279 3:17.229635 4:17.229635 5:4.0918589 6:5.0816759 7:5.764967 8:13.257108 9:-0.46657892 10:-1.5461607 11:0.70457002 12:-0.070374969 13:0.021606632 14:0.61358848 15:1.5105256 16:-0.25650572 17:1.2122289 18:-0.76449738 19:5.5793359 20:-0.42624166 21:3.1910408 22:2.2778525 23:1.1943031 
0.2889700807938248 1:0 2:-1.5312297 3:1.5855493 4:-0.3699615 5:-1.0135158 6:-1.1857244 7:-0.98871466 8:-2.0098979 9:2.8870979 10:-0.039830673 11:-0.41595016 12:2.3728965 13:0.9685481 14:-0.61812441 15:-0.66652127 16:-1.3952701 17:-0.018394478 18:0.4818244 19:-1.1669199 20:-1.2494386 21:-1.1276914 22:-0.84364908 23:-1.4099368 
0.1151980005142391 1:0 2:-0.4460247 3:-0.3699615 4:-0.3699615 5:0.89821259 6:2.1890296 7:1.2625126 8:-0.35254064 9:-0.46657892 10:1.3702439 11:0.7091774 12:0.10668047 13:0.020542805 14:1.6606124 15:0.15600379 16:1.0034599 17:-0.53558732 18:1.1061872 19:1.5315824 20:0.32135554 21:3.2133127 22:0.71710172 23:2.2123243 
0.01164768412320743 1:0 2:3.6052273 3:13.318614 4:9.4075923 5:5.0380299 6:2.6711373 7:2.3881262 8:9.1685656 9:-0.46657892 10:-1.536216 11:0.90164909 12:0.24468266 13:-1.400281 14:0.73281241 15:-0.7166867 16:2.3681917 17:-1.7426867 18:0.88655513 19:4.2300848 20:-0.49344144 21:4.3763413 22:-0.84364908 23:1.2574363 
0.06614834913803667 1:0 2:-3.5428583 3:1.5855493 4:-0.3699615 5:0.92423541 6:-1.1857244 7:-1.5515215 8:-2.598708 9:5.2190999 10:-1.161573 11:-0.15915665 12:-1.5287638 13:-0.61955377 14:-0.30463062 15:-2.1745194 16:2.4538018 17:-2.2130332 18:-0.59112997 19:-1.1669199 20:-1.2494386 21:-1.1276914 22:-0.84364908 23:-1.4099368 
0.1796263736245872 1:0 2:-2.0652946 3:5.4965708 4:3.54106 5:-0.10280007 6:0.26059876 7:-0.42590786 8:-3.3076835 9:-0.46657892 10:-0.2417997 11:2.5862351 12:-1.0663918 13:-0.86073586 14:-0.48231797 15:0.91487794 16:2.6249376 17:-1.3064212 18:-0.24582086 19:-0.49229435 20:0.48935485 21:-0.57670658 22:-0.84364908 23:0.22363183 
0.5354278150628529 1:0 2:-0.13195147 3:-0.3699615 4:-0.3699615 5:2.1350699 6:0.74270647 7:0.69970576 8:1.5996838 9:-0.46657892 10:-0.21103982 11:-1.0870343 12:0.83046524 13:-1.3197384 14:0.68648334 15:-2.1636131 16:-0.090801455 17:1.0835117 18:1.0977108 19:1.5315824 20:0.38015536 21:1.8816451 22:0.71710172 23:0.27098179 
0.02236522975510551 1:0 2:7.447568 3:21.140657 4:11.363103 5:3.6481223 6:2.6711373 7:3.5137398 8:7.733662 9:-0.46657892 10:1.3726274 11:0.76476217 12:0.0020886346 13:0.44965584 14:-0.3977031 15:-0.38746779 16:-0.59442072 17:0.77057675 18:-0.8690808 19:1.5315824 20:-0.32964201 21:1.685384 22:0.71710172 23:-0.16700406 
0.01155695195490586 1:0 2:2.323374 3:11.363103 4:11.363103 5:3.1385347 6:2.6711373 7:2.950933 8:11.919113 9:-0.46657892 10:0.066278763 11:2.6925202 12:0.13363918 13:-0.079385664 14:0.94312395 15:-0.74629715 16:2.6693968 17:-1.142272 18:1.1119726 19:4.9047103 20:-0.21204246 21:4.1774146 22:3.8386033 23:-0.15516662 
0.03961613501692216 1:0 2:-2.9710919 3:3.54106 4:-0.3699615 5:1.6503289 6:-1.1857244 7:-1.5515215 8:-3.203232 9:4.1939257 10:-0.0090918287 11:2.0591395 12:2.220803 13:-0.2427828 14:0.57538069 15:0.55446759 16:0.63132522 17:-0.39157744 18:1.0586715 19:-1.1669199 20:-1.2494386 21:-1.1276914 22:-0.84364908 23:-1.4099368 
0.01306518775513769 1:0 2:2.5812465 3:15.274125 4:11.363103 5:2.8323903 6:4.5995681 7:5.2021602 8:10.380534 9:-0.46657892 10:-1.5461603 11:0.70456242 12:-0.070499149 13:-1.400281 14:-0.44443737 15:-3.4028531 16:-1.8908356 17:0.63541361 18:-1.5096545 19:3.5554592 20:-0.42624166 21:2.0590069 22:0.71710172 23:-0.63261062 
-0.9929201302383112 1:0 2:-0.74283799 3:-0.3699615 4:-0.3699615 5:-0.74682067 6:-0.70361666 7:-0.42590786 8:0.044004961 9:-0.46657892 10:-0.067915729 11:-1.1326345 12:0.59736625 13:0.1516493 14:-0.034190637 15:0.35005768 16:-0.68266436 17:0.45669207 18:0.36748533 19:0.18233124 20:1.5771508 21:1.0820629 22:-0.84364908 23:1.2455988 
0.02092466295925802 1:0 2:-1.6032717 3:9.4075923 4:7.4520816 5:3.4374954 6:1.2248142 7:1.2625126 8:1.751277 9:-0.46657892 10:-0.13579042 11:-1.147729 12:0.46838773 13:-0.41748486 14:0.31347528 15:-0.99435882 16:-0.37686009 17:1.281565 18:0.99745433 19:0.85695683 20:-1.0142395 21:0.84218823 22:-0.84364908 23:0.95360813 
0.005988357876348762 1:0 2:2.1171666 3:11.363103 4:11.363103 5:0.052912686 6:0.74270647 7:0.69970576 8:2.7181458 9:-0.46657892 10:-0.24178934 11:2.5862425 12:-1.066366 13:-0.040470711 14:-1.1033201 15:1.3507548 16:-0.34242292 17:1.9344277 18:1.0066364 19:0.85695683 20:-0.64464083 21:0.82474286 22:0.71710172 23:-0.84173896 
-0.1143583220963849 1:0 2:-0.2257342 3:7.4520816 4:7.4520816 5:0.43161967 6:0.74270647 7:0.69970576 8:0.77008094 9:-0.46657892 10:1.3721566 11:0.82515683 12:-0.039500873 13:0.69117068 14:0.25428684 15:0.35953342 16:-0.4840875 17:0.67538952 18:-0.90041282 19:6.2539615 20:-0.42624166 21:5.4245207 22:-0.84364908 23:2.1294621 
0.01117851876042082 1:0 2:-1.3728915 3:13.318614 4:13.318614 5:5.1221648 6:2.1890296 7:2.3881262 8:7.4443408 9:-0.46657892 10:-0.15601384 11:2.6527492 12:-0.75834091 13:-0.84793502 14:1.7883906 15:-1.6476189 16:0.64643796 17:2.1816624 18:0.52193552 19:2.8808336 20:-0.19104256 21:2.3802936 22:0.71710172 23:-0.41559065 
0.02101754025644025 1:0 2:1.5014602 3:17.229635 4:15.274125 5:8.1203858 6:4.5995681 7:4.6393534 8:10.420744 9:-0.46657892 10:-0.15441992 11:-1.1653078 12:0.25598391 13:-0.041455211 14:-0.042065638 15:1.9517413 16:-1.2129294 17:0.1951547 18:0.17143091 19:5.5793359 20:-1.0142395 21:4.7950317 22:6.9601049 23:0.78393803 
-0.01644081235468414 1:0 2:-0.02919081 3:5.4965708 4:3.54106 5:0.44786875 6:0.74270647 7:0.69970576 8:3.6951825 9:-0.46657892 10:-0.095932941 11:2.7038437 12:-0.22752437 13:0.17476889 14:0.70522746 15:-0.011465806 16:-0.35090576 17:-0.42568896 18:0.54446109 19:2.206208 20:-0.30864211 21:1.5661736 22:-0.84364908 23:0.2157402 
0.003616425972444018 1:0 2:-0.32290056 3:15.274125 4:9.4075923 5:1.3246633 6:0.74270647 7:0.69970576 8:-0.2406944 9:-0.46657892 10:-1.546626 11:0.76476217 12:-0.11213669 13:1.1733931 14:-0.11604251 15:0.42059095 16:-0.48210194 17:1.340545 18:0.40847786 19:0.85695683 20:-0.35904197 21:0.014984195 22:0.71710172 23:-0.18673323 
-0.2271914331771576 1:0 2:-0.63695741 3:9.4075923 4:3.54106 5:1.2131472 6:-0.22150895 7:-0.42590786 8:-1.6817541 9:-0.46657892 10:0.037040787 11:2.6165586 12:-0.94046521 13:1.0658745 14:1.1563041 15:-2.1636131 16:-0.090801455 17:1.0835117 18:1.0977108 19:0.18233124 20:0.53975481 21:0.28248082 22:2.2778525 23:0.27098179 
-0.005085513044926981 1:0 2:-3.0222365 3:5.4965708 4:-2.3254723 5:-0.4080458 6:0.26059876 7:-2.1143283 8:-3.9556519 9:15.735685 10:-0.086999515 11:0.76476217 12:-0.054999987 13:-1.400281 14:-1.5869987 15:1.5442022 16:2.356102 17:1.327453 18:4.322584 19:-1.1669199 20:-1.2494386 21:-1.1276914 22:-0.84364908 23:-1.4099368 
0.01643587633674184 1:0 2:3.740174 3:15.274125 4:11.363103 5:0.70029217 6:1.7069219 7:1.8253194 8:1.904719 9:-0.46657892 10:0.037041863 11:2.6165626 12:-0.94044369 13:0.35103306 14:0.58585885 15:-1.4447923 16:3.0478445 17:-1.3294976 18:-1.2258865 19:1.5315824 20:-0.40944174 21:1.3495595 22:0.71710172 23:-0.62077318 
0.1281642237368787 1:0 2:0.52770439 3:-0.3699615 4:-0.3699615 5:1.5136415 6:0.26059876 7:-0.42590786 8:1.3482611 9:1.1861552 10:-0.048262422 11:2.6488641 12:-0.79351971 13:-0.6503775 14:-0.14738374 15:-0.75959244 16:-0.91475809 17:0.30156623 18:-1.1994765 19:-1.1669199 20:-1.2494386 21:-1.1276914 22:-0.84364908 23:-1.4099368 
0.02889809699069061 1:0 2:2.8771954 3:19.185146 4:13.318614 5:2.5908479 6:0.26059876 7:0.13689895 8:4.1166854 9:-0.46657892 10:0.037071286 11:2.6165589 12:-0.94044451 13:1.841614 14:0.47572684 15:-3.6688006 16:-0.261418 17:-0.61990571 18:0.97482561 19:-0.49229435 20:-0.098642894 21:-0.76133736 22:0.71710172 23:-0.32878264 
-0.148931050316424 1:0 2:-3.1907018 3:1.5855493 4:1.5855493 5:-0.050816924 6:-1.1857244 7:-0.98871466 8:-1.7649455 9:2.2503576 10:0.53848092 11:-0.35342597 12:2.0762201 13:-0.83948121 14:0.85200957 15:0.53743305 16:-0.32611297 17:0.69612875 18:0.78266571 19:-1.1669199 20:-1.2494386 21:-1.1276914 22:-0.84364908 23:-1.4099368 
0.07861262294354902 1:0 2:-2.93045 3:5.4965708 4:-0.3699615 5:-1.4949108 6:-1.6678321 7:-1.5515215 8:-3.3964209 9:-0.46657892 10:-1.5394871 11:0.76476217 12:0.25260921 13:0.64344228 14:-1.5869987 15:-1.7489128 16:2.2436356 17:-1.5979582 18:-0.42118208 19:-0.49229435 20:1.1949523 21:-0.25541993 22:0.71710172 23:0.88652938 
0.03043186837017358 1:0 2:1.2299828 3:7.4520816 4:3.54106 5:1.862445 6:-0.22150895 7:0.13689895 8:0.33702357 9:-0.46657892 10:-1.5440033 11:0.82928743 12:-0.21791923 13:-0.69076557 14:-1.5869987 15:1.7295464 16:2.3558596 17:-1.7263845 18:0.36422934 19:-0.49229435 20:0.71615399 21:-0.47784917 22:2.2778525 23:0.78393803 
-0.1442350090634789 1:0 2:-1.5920916 3:3.54106 4:3.54106 5:3.0604223 6:0.26059876 7:-0.42590786 8:1.6135491 9:-0.46657892 10:-0.10042956 11:2.6953461 12:-0.38811588 13:0.6279898 14:0.41814582 15:0.4807393 16:-0.29521112 17:1.117078 18:-0.17064108 19:-0.49229435 20:-0.46824151 21:-0.85874099 22:0.71710172 23:-0.67601462 
0.0149428542275993 1:0 2:3.7894531 3:13.318614 4:13.318614 5:0.37101824 6:0.26059876 7:0.13689895 8:3.4835065 9:-0.46657892 10:0.037040787 11:2.6165586 12:-0.94046521 13:1.0658745 14:-1.5127487 15:-2.1636131 16:-0.090801455 17:1.0835117 18:1.0977108 19:0.18233124 20:0.53975481 21:0.45111994 22:0.71710172 23:0.27098179 
0.02871899601754987 1:0 2:4.3854058 3:25.051678 4:23.096168 5:5.7469498 6:1.7069219 7:2.3881262 8:13.231818 9:-0.46657892 10:-1.546626 11:0.76476217 12:-0.11213669 13:1.1733931 14:-0.11604251 15:0.42059095 16:-0.48210194 17:1.340545 18:0.40847786 19:2.8808336 20:-0.35904197 21:2.6361597 22:0.71710172 23:-0.16700406 
6.774189110849514 1:0 2:-0.18806339 3:-0.3699615 4:-0.3699615 5:-0.13311604 6:0.26059876 7:0.69970576 8:1.3861594 9:-0.46657892 10:1.3714003 11:0.69368482 12:0.025314642 13:-0.51994005 14:0.34172986 15:0.11358852 16:1.4152441 17:-1.7565254 18:-1.8005251 19:-0.49229435 20:-0.10284287 21:-0.72353893 22:-0.84364908 23:-0.33272845 
0.01272440887466946 1:0 2:0.95711101 3:9.4075923 4:9.4075923 5:2.7094704 6:0.26059876 7:-0.42590786 8:2.0221852 9:-0.46657892 10:-0.2402969 11:-1.1629933 12:-0.24363573 13:-1.3207296 14:0.26925675 15:0.5913626 16:-0.70011274 17:1.0746283 18:0.90489029 19:1.5315824 20:-0.19944252 21:1.7740649 22:3.8386033 23:1.1153868 
-7.201414728611566 1:0 2:-0.18806339 3:-0.3699615 4:-0.3699615 5:-0.45082882 6:-0.22150895 7:0.13689895 8:0.72525004 9:-0.46657892 10:1.3714003 11:0.69368482 12:0.025314642 13:-0.51994005 14:0.34172986 15:0.11358852 16:1.4152441 17:-1.7565254 18:-1.8005251 19:-0.49229435 20:-0.10284287 21:-0.72353893 22:-0.84364908 23:-0.33272845 
-0.04269094149063384 1:0 2:-0.96785814 3:3.54106 4:3.54106 5:4.2165019 6:3.153245 7:1.8253194 8:-0.34144848 9:-0.46657892 10:1.3726274 11:0.76476217 12:0.0020886346 13:-1.400281 14:-0.3977031 15:-0.38746779 16:-0.59442072 17:0.77057675 18:-0.8690808 19:0.18233124 20:0.073556498 21:0.30283377 22:0.71710172 23:-0.16700406 
0.03494859096994441 1:0 2:1.2774598 3:7.4520816 4:7.4520816 5:3.1317445 6:2.6711373 7:2.950933 8:8.9261458 9:-0.46657892 10:-0.14977135 11:-1.1501516 12:0.43902383 13:0.18084888 14:0.018348007 15:-5.7402939 16:1.1632197 17:-2.3911879 18:-1.3254865 19:0.85695683 20:-0.34224195 21:0.66482641 22:-0.84364908 23:0.8312878 
0.05244475944975434 1:0 2:-1.6541319 3:1.5855493 4:-0.3699615 5:3.8535141 6:0.74270647 7:-0.42590786 8:-1.339745 9:-0.46657892 10:0.037071286 11:2.6165589 12:-0.94044451 13:-1.2579097 14:-0.086841981 15:-3.6688006 16:-0.261418 17:-0.61990571 18:0.97482561 19:-0.49229435 20:-0.098642894 21:-0.76133736 22:2.2778525 23:0.64978015 
-0.1516066672676671 1:0 2:1.6848185 3:3.54106 4:1.5855493 5:0.81977249 6:2.1890296 7:2.3881262 8:1.9037946 9:-0.46657892 10:-1.5466239 11:0.76476217 12:-0.11237369 13:-1.3207598 14:-0.06217298 15:1.3631411 16:2.150367 17:-1.8094172 18:0.89304204 19:0.85695683 20:0.073556498 21:1.3815428 22:0.71710172 23:-0.16700406 
-0.05834595771968343 1:0 2:-2.2554924 3:9.4075923 4:3.54106 5:0.38685367 6:1.2248142 7:-0.42590786 8:-2.2788833 9:-0.46657892 10:1.3698093 11:0.65609689 12:-0.15529045 13:0.79641711 14:1.1873611 15:-0.1300786 16:-0.035262778 17:-0.10051198 18:1.0940893 19:0.85695683 20:1.6779504 21:1.5937955 22:0.71710172 23:1.7743383 
0.8168540358807069 1:0 2:-0.74283799 3:-0.3699615 4:-0.3699615 5:-0.81828194 6:-1.1857244 7:-0.98871466 8:-1.7131819 9:-0.46657892 10:-0.067915729 11:-1.1326345 12:0.59736625 13:0.1516493 14:-0.034190637 15:0.35005768 16:-0.68266436 17:0.45669207 18:0.36748533 19:0.18233124 20:1.5771508 21:1.0820629 22:-0.84364908 23:1.2455988 
0.01647549921563334 1:0 2:2.3889353 3:11.363103 4:11.363103 5:3.2473148 6:2.6711373 7:2.950933 8:9.9725269 9:-0.46657892 10:-0.095919794 11:2.703841 12:-0.22760052 13:-1.1139954 14:-1.5869987 15:0.48861351 16:-0.52576047 17:1.7101417 18:0.69674409 19:4.2300848 20:-0.30864211 21:4.2396855 22:3.8386033 23:0.88652938 
0.02559327986910491 1:0 2:-1.6282369 3:9.4075923 4:9.4075923 5:7.6409869 6:4.1174604 7:2.950933 8:6.2825085 9:-0.46657892 10:1.3714003 11:0.69368392 12:0.025313981 13:-1.400281 14:1.0236877 15:0.060965841 16:3.1459623 17:-1.6729331 18:-0.062483769 19:1.5315824 20:-0.10284287 21:1.2216263 22:3.8386033 23:1.1864115 
0.02719545569646985 1:0 2:-0.32143972 3:21.140657 4:19.185146 5:3.3756488 6:1.7069219 7:2.3881262 8:6.5580013 9:-0.46657892 10:-0.026813595 11:2.6963932 12:-0.34791469 13:0.68234416 14:-0.070323461 15:-0.13671396 16:-0.41097725 17:0.70679336 18:1.0504196 19:1.5315824 20:0.10715634 21:2.771362 22:2.2778525 23:1.1193325 
0.02703855311998508 1:0 2:-0.66187751 3:7.4520816 4:7.4520816 5:6.3202966 6:2.1890296 7:1.2625126 8:11.28501 9:-0.46657892 10:-0.1004313 11:2.6953596 12:-0.38792125 13:0.25714092 14:1.6421704 15:-0.21288888 16:1.8958119 17:-1.2172093 18:0.46404281 19:0.85695683 20:-1.0184395 21:1.5603584 22:0.71710172 23:-1.1929168 
0.03219669312964681 1:0 2:2.8995299 3:23.096168 4:19.185146 5:2.7062292 6:2.1890296 7:2.950933 8:7.3464522 9:-0.46657892 10:-1.5394864 11:0.76476217 12:0.25262332 13:-1.400281 14:-1.3870044 15:-7.0779056 16:-1.6034065 17:0.25630595 18:0.37056866 19:4.9047103 20:-0.30864211 21:4.860452 22:2.2778525 23:2.0229248 
-0.1010402842022187 1:0 2:-1.4505884 3:7.4520816 4:5.4965708 5:3.9759711 6:-0.70361666 7:-0.42590786 8:2.1228653 9:-0.46657892 10:0.067780578 11:-1.056657 12:0.95664603 13:2.2674372 14:0.35274017 15:0.49488185 16:-0.42171292 17:1.1688414 18:-0.32865344 19:0.18233124 20:-1.0142395 21:-0.92416136 22:3.8386033 23:1.7151511 
0.01381444988463144 1:0 2:1.5142906 3:11.363103 4:7.4520816 5:-0.34093754 6:-0.22150895 7:-0.98871466 8:-0.50413382 9:-0.46657892 10:-1.5362025 11:0.90164956 12:0.2449706 13:0.91390391 14:-1.3678796 15:-0.68009472 16:-1.0188586 17:0.53488653 18:0.72037179 19:-0.49229435 20:-0.80424029 21:-0.97649765 22:0.71710172 23:-0.99168009 
0.2428590260509112 1:0 2:0.60990033 3:3.54106 4:3.54106 5:-0.38304123 6:-0.22150895 7:-0.42590786 8:-0.23607265 9:-0.46657892 10:-1.536216 11:0.90164909 12:0.24468266 13:-1.400281 14:-0.69369067 15:-0.7166867 16:2.3681917 17:-1.7426867 18:0.88655513 19:0.18233124 20:-0.80424029 21:-0.64067314 22:-0.84364908 23:-0.69968956 
0.01140808834376056 1:0 2:2.3883027 3:21.140657 4:15.274125 5:4.8310955 6:3.6353527 7:2.950933 8:6.7234597 9:-0.46657892 10:-0.14718492 11:-1.1668485 12:0.2382486 13:-0.22514867 14:1.3763784 15:0.3793301 16:0.56583585 17:1.9634086 18:0.9258507 19:4.2300848 20:0.10715634 21:6.0554638 22:5.3993541 23:2.2123243 
0.04445689563346296 1:0 2:10.511399 3:30.918211 4:27.007189 5:3.5389794 6:3.6353527 7:4.6393534 8:15.297681 9:-0.46657892 10:0.066193248 11:2.6925331 12:0.13361536 13:0.49631075 14:-1.2825765 15:-10.382917 16:-1.4009292 17:0.47115359 18:-2.01461 19:10.976341 20:-0.80844027 21:11.386496 22:14.763859 23:1.3639734 
-0.4463518363479434 1:0 2:-2.6918518 3:1.5855493 4:1.5855493 5:1.5140167 6:-0.22150895 7:-0.42590786 8:-1.2778137 9:-0.46657892 10:-1.5426975 11:0.76476217 12:0.17650426 13:-1.3259357 14:0.78839963 15:-0.45356701 16:-0.13683377 17:-0.76839583 18:0.41538253 19:0.18233124 20:1.5771508 21:1.0980546 22:2.2778525 23:1.6559638 
-0.2347187306025572 1:0 2:-2.5815122 3:11.363103 4:7.4520816 5:5.2822977 6:1.7069219 7:0.13689895 8:-0.98664385 9:-0.46657892 10:1.36871 11:0.76476217 12:-0.28618552 13:-0.85177845 14:1.0282915 15:-1.5878435 16:2.1979516 17:-1.5194484 18:0.51411397 19:1.5315824 20:0.85055356 21:1.9813165 22:0.71710172 23:1.4784021 
-0.3579404964413607 1:0 2:0.52770439 3:-0.3699615 4:-0.3699615 5:1.7068719 6:0.74270647 7:0.13689895 8:2.0119434 9:-0.46657892 10:-1.5374029 11:0.76476217 12:-0.40315146 13:-1.3112589 14:-0.19673912 15:-1.6413238 16:-1.328213 17:0.00074636522 18:0.97833105 19:-0.49229435 20:0.80015379 21:-0.4007985 22:-0.84364908 23:0.51562247 
0.03314254188646783 1:0 2:4.2389129 3:19.185146 4:17.229635 5:2.2454998 6:3.6353527 7:4.6393534 8:12.512083 9:-0.46657892 10:-1.5461603 11:0.70456242 12:-0.070499149 13:0.44563818 14:-0.44443737 15:-3.4028531 16:-1.8908356 17:0.63541361 18:-1.5096545 19:4.9047103 20:-0.42624166 21:3.0010601 22:0.71710172 23:-0.63261062 
0.01706475563937023 1:0 2:5.7747751 3:13.318614 4:11.363103 5:3.8788981 6:4.1174604 7:4.0765466 8:9.6673994 9:-0.46657892 10:1.372627 11:0.76476217 12:0.0021367171 13:0.19533605 14:0.48410521 15:0.42059095 16:-0.48210194 17:1.340545 18:0.40847786 19:2.206208 20:-0.35904197 21:2.1171583 22:0.71710172 23:-0.16700406 
0.03559638148225966 1:0 2:3.3740917 3:25.051678 4:17.229635 5:4.801834 6:4.5995681 7:3.5137398 8:8.2914879 9:-0.46657892 10:-0.17233062 11:-1.1528216 12:0.39663024 13:-0.83217514 14:1.2232824 15:1.7819602 16:3.212084 17:-0.67060672 18:1.022174 19:2.8808336 20:0.1155563 21:3.3005399 22:3.8386033 23:2.0347622 
0.005977552375457496 1:0 2:0.94424266 3:13.318614 4:11.363103 5:3.6196602 6:2.6711373 7:1.8253194 8:3.3189726 9:-0.46657892 10:-0.044886358 11:-1.1058189 12:0.76369328 13:-1.400281 14:0.60594537 15:1.3634934 16:-0.60748619 17:1.7371925 18:1.0742656 19:0.18233124 20:-0.22044242 21:-0.33973949 22:-0.84364908 23:-0.084141963 
-0.01743631816137775 1:0 2:-1.3743265 3:1.5855493 4:-0.3699615 5:2.0214914 6:-1.1857244 7:-0.98871466 8:-2.8307195 9:-0.46657892 10:0.067779348 11:-1.0566654 12:0.95660936 13:-0.093721888 14:0.28997341 15:0.84628441 16:-0.24947592 17:0.072980686 18:0.94841001 19:-0.49229435 20:1.8669498 21:-0.92416136 22:2.2778525 23:1.7151511 
0.0941607635195513 1:0 2:-1.8460101 3:7.4520816 4:3.54106 5:1.3687952 6:0.26059876 7:-0.42590786 8:-1.3377669 9:-0.46657892 10:1.3704524 11:0.83030239 12:-0.19809457 13:0.78407647 14:1.768686 15:0.56830092 16:-1.0878393 17:0.15754374 18:0.96823051 19:0.18233124 20:-0.19104256 21:-0.1027724 22:0.71710172 23:-0.41559065 
2.083225355880611 1:0 2:0.41311735 3:-0.3699615 4:-0.3699615 5:-0.71287827 6:-0.22150895 7:-0.98871466 8:-1.217731 9:-0.46657892 10:-0.073582315 11:-1.1658354 12:0.27792162 13:-1.400281 14:1.795302 15:-0.14929193 16:0.91447799 17:-1.1250951 18:0.6518395 19:-1.1669199 20:-1.2494386 21:-1.1276914 22:0.71710172 23:0.26703588 
0.03720260749654632 1:0 2:6.7024075 3:23.096168 4:17.229635 5:4.5456049 6:2.1890296 7:2.950933 8:10.492196 9:-0.46657892 10:1.3622053 11:0.62786055 12:-0.354915 13:-1.2297701 14:-1.4783045 15:-7.4381375 16:-1.9269554 17:0.97703034 18:0.72257044 19:6.2539615 20:-0.80424029 21:6.2021508 22:2.2778525 23:0.41303111 
0.01798798039934394 1:0 2:3.2800737 3:5.4965708 4:5.4965708 5:0.76029626 6:2.6711373 7:2.950933 8:6.2473093 9:-0.46657892 10:-0.038197384 11:2.6772624 12:-0.57830193 13:-0.22857769 14:-0.81860204 15:-0.57811652 16:2.1906615 17:-1.3826919 18:0.14733289 19:0.18233124 20:0.72875403 21:0.34063219 22:0.71710172 23:0.85496268 
0.08775636802862659 1:0 2:-1.9790482 3:5.4965708 4:5.4965708 5:1.0609995 6:1.2248142 7:0.69970576 8:0.097617229 9:-0.46657892 10:1.3719287 11:0.69749606 12:-0.086394581 13:-0.14659822 14:-1.5041887 15:-0.397158 16:2.0120764 17:-1.4478519 18:0.4803342 19:1.5315824 20:0.25835573 21:1.7682498 22:0.71710172 23:0.0066118592 
0.05594964000166874 1:0 2:-1.7371363 3:11.363103 4:3.54106 5:-0.51075555 6:-0.22150895 7:-0.42590786 8:-2.4295521 9:-0.46657892 10:0.067790312 11:-1.0567182 12:0.95636603 13:-0.87561152 14:-1.3996302 15:1.3507548 16:-0.34242292 17:1.9344277 18:1.0066364 19:0.18233124 20:-0.64464083 21:-0.13184812 22:2.2778525 23:1.7151511 
0.02915523426521899 1:0 2:0.28392576 3:13.318614 4:3.54106 5:3.4882589 6:1.7069219 7:0.69970576 8:3.2959377 9:-0.46657892 10:1.3714003 11:0.69368392 12:0.025313981 13:-1.400281 14:1.0236877 15:0.060965841 16:3.1459623 17:-1.6729331 18:-0.062483769 19:0.18233124 20:-0.10284287 21:-0.11585653 22:2.2778525 23:1.1864115 
-0.0322534156650432 1:0 2:-1.8123543 3:9.4075923 4:7.4520816 5:0.031787362 6:-0.70361666 7:-0.42590786 8:1.1338121 9:-0.46657892 10:-1.5459233 11:0.83214641 12:-0.023337642 13:-1.2098623 14:-1.5869987 15:-1.3807251 16:-0.83275613 17:0.80219996 18:0.92517476 19:2.206208 20:0.85475364 21:3.3034475 22:0.71710172 23:0.98122893 
0.003780938814412788 1:0 2:-0.24400293 3:9.4075923 4:5.4965708 5:3.390449 6:1.7069219 7:1.2625126 8:3.5358617 9:-0.46657892 10:-0.15603204 11:2.6527918 12:-0.75804914 13:-1.219683 14:0.46382664 15:-0.0053541359 16:2.6193611 17:-1.8215542 18:0.61484565 19:2.206208 20:0.17015615 21:2.4326298 22:0.71710172 23:-0.36034915 
0.01468508626544917 1:0 2:4.2945207 3:9.4075923 4:9.4075923 5:3.1053342 6:2.6711373 7:2.950933 8:5.5745684 9:-0.46657892 10:-0.048275807 11:2.648864 12:-0.79352386 13:-0.3018892 14:0.42766958 15:-0.99851452 16:-1.0379245 17:1.0802859 18:-1.9812157 19:2.206208 20:-0.098642894 21:1.4920305 22:-0.84364908 23:0.60243038 
0.01638490967530154 1:0 2:3.6347838 3:19.185146 4:19.185146 5:6.1006795 6:3.153245 7:3.5137398 8:14.579388 9:-0.46657892 10:-0.073582482 11:-1.1658148 12:0.27821797 13:-0.54226739 14:1.2442848 15:-0.68790288 16:1.7061502 17:-1.9051871 18:-0.78007136 19:3.5554592 20:-0.46824151 21:4.6830901 22:3.8386033 23:1.2298155 
-6.158771292072282 1:0 2:-2.8505853 3:3.54106 4:3.54106 5:0.10993654 6:-0.70361666 7:-0.42590786 8:-0.83689934 9:-0.46657892 10:-1.5444474 11:0.69921513 12:0.088265486 13:0.70265801 14:-1.3817019 15:-0.19667674 16:-0.22522731 17:1.2097229 18:0.87033054 19:0.18233124 20:0.17015615 21:0.052782657 22:0.71710172 23:-0.36034915 
6.277059947334428 1:0 2:0.85866393 3:-0.3699615 4:-0.3699615 5:-1.0228439 6:-1.1857244 7:-0.98871466 8:-1.1964709 9:-0.46657892 10:1.3699993 11:0.70031487 12:0.10818685 13:-0.23750394 14:-1.4583087 15:1.3588184 16:1.6114562 17:-1.3709608 18:-1.6044748 19:-0.49229435 20:-0.34224195 21:-0.83257286 22:-0.84364908 23:-0.55764005 
0.01394701333864244 1:0 2:0.99656543 3:19.185146 4:15.274125 5:5.4200278 6:4.1174604 7:4.6393534 8:10.690395 9:-0.46657892 10:-0.14718543 11:-1.1668688 12:0.23791472 13:1.9899357 14:0.3329171 15:-0.13671396 16:-0.41097725 17:0.70679336 18:1.0504196 19:4.2300848 20:0.18275609 21:6.0292956 22:6.9601049 23:2.2123243 
0.006855653286664667 1:0 2:-1.2212814 3:13.318614 4:13.318614 5:3.1885444 6:2.1890296 7:1.2625126 8:1.4693506 9:-0.46657892 10:1.3714003 11:0.69368392 12:0.025313981 13:-1.400281 14:1.0236877 15:0.060965841 16:3.1459623 17:-1.6729331 18:-0.062483769 19:-0.49229435 20:0.57335466 21:-0.52000895 22:2.2778525 23:1.1864115 
0.005725236040911072 1:0 2:-0.88602805 3:9.4075923 4:7.4520816 5:3.6160111 6:2.1890296 7:2.3881262 8:6.101983 9:-0.46657892 10:-0.15603204 11:2.6527918 12:-0.75804914 13:-1.219683 14:0.46382664 15:-0.0053541359 16:2.6193611 17:-1.8215542 18:0.61484565 19:2.206208 20:0.031556595 21:1.9935866 22:-0.84364908 23:0.96939158 
-0.07286262436306984 1:0 2:0.69095174 3:1.5855493 4:1.5855493 5:3.3875918 6:1.7069219 7:0.69970576 8:4.4355859 9:-0.46657892 10:-1.5374029 11:0.76476217 12:-0.40315146 13:3.2296937 14:-0.19673912 15:-1.6413238 16:-1.328213 17:0.00074636522 18:0.97833105 19:-0.49229435 20:0.80015379 21:-0.4007985 22:-0.84364908 23:0.51562247 
0.03553724263164763 1:0 2:2.3889486 3:15.274125 4:15.274125 5:5.1155375 6:6.0458913 7:5.764967 8:9.19979 9:-0.46657892 10:-0.02679815 11:2.696372 12:-0.34824814 13:0.36324472 14:2.8896773 15:-2.1576583 16:1.6449788 17:0.73196234 18:-0.37706876 19:6.9285871 20:-0.24984229 21:8.2695795 22:5.3993541 23:0.93782488 
0.03373256775743244 1:0 2:-0.28832726 3:9.4075923 4:3.54106 5:-0.4504839 6:-0.70361666 7:-0.42590786 8:-2.0191413 9:-0.46657892 10:-1.5362154 11:0.9016573 12:0.2446854 13:0.032460166 14:0.27683266 15:-0.70948264 16:2.0958636 17:-1.5543039 18:-0.53085995 19:-0.49229435 20:1.4721512 21:-0.19436092 22:-0.84364908 23:1.1469533 
-0.3757905316706022 1:0 2:-0.37517507 3:-0.3699615 4:-0.3699615 5:0.20411573 6:1.2248142 7:1.2625126 8:0.16971645 9:-0.46657892 10:-0.17231498 11:-1.1527922 12:0.39695389 13:-1.400281 14:-0.068880367 15:0.084899449 16:-0.35627068 17:0.46778024 18:0.086548994 19:0.85695683 20:-0.14484268 21:-0.076139105 22:-0.84364908 23:1.3402983 
-5.584904424872751 1:0 2:0.85866393 3:-0.3699615 4:-0.3699615 5:-0.65599175 6:-1.1857244 7:-0.98871466 8:-0.32111271 9:-0.46657892 10:1.3699993 11:0.70031487 12:0.10818685 13:-0.23750394 14:-1.4583087 15:1.3588184 16:1.6114562 17:-1.3709608 18:-1.6044748 19:-0.49229435 20:-0.34224195 21:-0.83257286 22:-0.84364908 23:-0.55764005 
0.001887068274562657 1:0 2:1.3962333 3:17.229635 4:15.274125 5:2.0271701 6:2.1890296 7:2.3881262 8:6.6567956 9:-0.46657892 10:-0.17236226 11:-1.1527883 12:0.39695612 13:0.65794531 14:-1.0563987 15:-0.51690861 16:-0.83231763 17:0.5308148 18:-0.85561668 19:2.206208 20:-0.35064191 21:1.6964037 22:5.3993541 23:1.1469533 
-0.06452092919826158 1:0 2:-3.8186469 3:1.5855493 4:1.5855493 5:4.5197335 6:-1.1857244 7:-0.98871466 8:-1.917463 9:-0.46657892 10:-1.5439984 11:0.82920946 12:-0.21818682 13:-1.2606848 14:-0.51506599 15:1.3588184 16:1.6114562 17:-1.3709608 18:-1.6044748 19:-0.49229435 20:-0.34224195 21:-0.83257286 22:-0.84364908 23:-0.55764005 
0.006060490115314694 1:0 2:-0.31655214 3:11.363103 4:5.4965708 5:3.4876236 6:0.26059876 7:0.69970576 8:-0.096680833 9:-0.46657892 10:-0.12569481 11:-1.1193412 12:0.68351997 13:-0.060886947 14:1.330366 15:0.33260885 16:2.7871567 17:-1.4267547 18:-1.8670187 19:-0.49229435 20:-0.098642894 21:-0.70318592 22:-0.84364908 23:-0.32878264 
0.4915131407285573 1:0 2:-0.9660463 3:1.5855493 4:1.5855493 5:-0.48790117 6:-0.70361666 7:-0.42590786 8:0.18820336 9:-0.46657892 10:-0.067915729 11:-1.1326345 12:0.59736625 13:0.1516493 14:-0.034190637 15:0.35005768 16:-0.68266436 17:0.45669207 18:0.36748533 19:0.18233124 20:1.5771508 21:1.0980546 22:0.71710172 23:1.6559638 
0.03996753299541558 1:0 2:3.5440624 3:27.007189 4:15.274125 5:2.0328842 6:2.1890296 7:2.950933 8:2.4939728 9:-0.46657892 10:-0.067803261 11:-1.1326282 12:0.59739708 13:-0.05519419 14:-0.80852917 15:-6.603912 16:-1.6471647 17:0.94455068 18:-1.285966 19:6.9285871 20:0.027356615 21:5.3242096 22:3.8386033 23:1.4981311 
0.008654372113080478 1:0 2:-0.57284576 3:15.274125 4:15.274125 5:4.3263422 6:1.2248142 7:1.8253194 8:9.3882461 9:-0.46657892 10:-1.5427031 11:0.76476217 12:0.17634846 13:0.98547264 14:-1.4551131 15:0.56029894 16:-0.21066774 17:1.2538882 18:0.81895746 19:2.8808336 20:0.25835573 21:4.079769 22:6.9601049 23:1.6559638 
0.009896140078369111 1:0 2:-0.17694891 3:13.318614 4:11.363103 5:1.3346168 6:3.153245 7:2.950933 8:2.0640027 9:-0.46657892 10:-0.0016772822 11:2.6823203 12:-0.50690839 13:-1.1964301 14:2.2466769 15:0.52536629 16:0.67433083 17:1.8468014 18:-0.28621841 19:0.18233124 20:-0.052443111 21:0.090581049 22:0.71710172 23:0.081582425 
0.02423033425287228 1:0 2:2.5336372 3:17.229635 4:13.318614 5:2.257623 6:1.2248142 7:0.13689895 8:0.87323817 9:-0.46657892 10:-0.026814231 11:2.6963729 12:-0.34824796 13:1.1283279 14:-1.4846175 15:-0.12122936 16:-0.35767367 17:0.70239386 18:-2.0408921 19:3.5554592 20:0.32135554 21:5.5161093 22:6.9601049 23:2.2123243 
-0.1658347594986078 1:0 2:-1.8046467 3:9.4075923 4:3.54106 5:-1.067302 6:-1.1857244 7:-0.98871466 8:-2.1525804 9:-0.46657892 10:1.3704524 11:0.83030239 12:-0.19809457 13:3.0324502 14:-1.4252542 15:0.56830092 16:-1.0878393 17:0.15754374 18:-2.0390178 19:0.85695683 20:0.17015615 21:1.0224577 22:-0.84364908 23:0.96939158 
0.0377764136050481 1:0 2:-1.3766636 3:7.4520816 4:5.4965708 5:1.1876493 6:1.2248142 7:0.69970576 8:0.24643736 9:-0.46657892 10:-0.048274474 11:2.6488637 12:-0.79352514 13:-0.5620519 14:-0.96167529 15:-8.5643236 16:-1.7084127 17:0.26915384 18:0.14579744 19:-0.49229435 20:-0.15744272 21:-0.82530394 22:2.2778525 23:0.41303111 
0.03406362577483604 1:0 2:3.7720367 3:15.274125 4:11.363103 5:5.2557835 6:3.6353527 7:2.950933 8:7.2492848 9:-0.46657892 10:-1.5454023 11:0.83584493 12:-0.1350644 13:1.457851 14:2.6812642 15:-7.457967 16:-1.1937988 17:-0.94816106 18:-0.36124282 19:2.206208 20:-0.10284287 21:2.2392764 22:0.71710172 23:0.9733373 
-0.3596021631193663 1:0 2:-3.6914087 3:-0.3699615 4:-0.3699615 5:1.1836358 6:-0.70361666 7:-1.5515215 8:-3.640449 9:-0.46657892 10:-0.067915729 11:-1.1326345 12:0.59736625 13:-1.3259357 14:-0.034190637 15:0.35005768 16:-0.68266436 17:0.45669207 18:0.36748533 19:-0.49229435 20:1.5771508 21:-0.041713463 22:-0.84364908 23:1.2455988 
0.02261158332329406 1:0 2:3.3446628 3:7.4520816 4:7.4520816 5:3.069155 6:1.2248142 7:1.8253194 8:6.4210868 9:-0.46657892 10:-0.019566994 11:2.6948257 12:-0.36607003 13:2.0355052 14:-0.47184421 15:1.9000717 16:0.59697905 17:1.4873398 18:1.0411143 19:0.18233124 20:-1.0142395 21:-0.58979064 22:0.71710172 23:-1.188971 
0.005977893232084548 1:0 2:1.6232734 3:19.185146 4:17.229635 5:4.3983622 6:1.7069219 7:2.3881262 8:7.9715707 9:-0.46657892 10:1.365488 11:0.76476217 12:-0.36260918 13:-1.3104452 14:0.15154635 15:-1.7489128 16:2.2436356 17:-1.5979582 18:0.17428408 19:4.9047103 20:0.24575579 21:4.5740562 22:0.71710172 23:0.88652938 
-0.7814375436340719 1:0 2:0.86314558 3:-0.3699615 4:-0.3699615 5:0.33736863 6:1.7069219 7:2.3881262 8:0.20068205 9:-0.46657892 10:1.3721617 11:0.82495431 12:-0.039625005 13:0.7471966 14:0.63401821 15:1.5105256 16:-0.25650572 17:1.2122289 18:-0.58488653 19:2.8808336 20:-0.42624166 21:1.6999218 22:0.71710172 23:-0.63261062 
0.02371351148333916 1:0 2:-1.065985 3:19.185146 4:17.229635 5:5.3771313 6:3.6353527 7:1.8253194 8:6.612427 9:-0.46657892 10:1.3721617 11:0.82495431 12:-0.039625005 13:1.1590567 14:0.63401821 15:1.5105256 16:-0.25650572 17:1.2122289 18:-0.76449738 19:2.206208 20:-0.42204168 21:1.7886028 22:2.2778525 23:1.0996035 
2.437074226469778 1:0 2:0.35482365 3:1.5855493 4:1.5855493 5:-1.2819157 6:-0.70361666 7:-0.42590786 8:-0.66034871 9:-0.46657892 10:1.3664585 11:0.58309073 12:-0.038143138 13:-0.32790155 14:0.080795674 15:-0.091967453 16:-0.78688269 17:0.14956156 18:-0.55315185 19:0.18233124 20:0.65315438 21:0.40750634 22:0.71710172 23:1.1153868 
0.07554119786180094 1:0 2:-1.4891202 3:3.54106 4:1.5855493 5:-0.31869888 6:0.26059876 7:-0.42590786 8:-1.2685702 9:3.613507 10:-0.43794899 11:-0.50414317 12:2.1420009 13:1.5505844 14:-0.41253665 15:0.072954367 16:-0.029483156 17:-0.99543093 18:-0.47649701 19:-1.1669199 20:-1.2494386 21:-1.1276914 22:-0.84364908 23:-1.4099368 
0.03430989537098919 1:0 2:2.896728 3:19.185146 4:19.185146 5:6.0210204 6:5.0816759 7:4.6393534 8:12.08642 9:-0.46657892 10:-0.081513162 11:2.6694139 12:-0.65380085 13:-1.241241 14:0.54203455 15:2.0459429 16:2.5225393 17:-1.8715291 18:0.63972376 19:5.5793359 20:-0.71184062 21:5.0072843 22:0.71710172 23:1.5770475 
-0.002691514692577697 1:0 2:-4.1752383 3:-0.3699615 4:-2.3254723 5:-0.17894227 6:-0.22150895 7:-2.1143283 8:-3.9556519 9:15.735685 10:-0.086999515 11:0.76476217 12:-0.054999987 13:-1.400281 14:-1.5869987 15:1.5442022 16:2.356102 17:1.327453 18:4.322584 19:-1.1669199 20:-1.2494386 21:-1.1276914 22:-0.84364908 23:-1.4099368 
0.03259145636793569 1:0 2:3.671866 3:19.185146 4:13.318614 5:3.7879909 6:3.6353527 7:4.6393534 8:8.7850901 9:-0.46657892 10:-0.10619577 11:2.6621526 12:-0.70739706 13:-0.55583758 14:-0.34699956 15:-6.603912 16:-1.6471647 17:0.94455068 18:-1.285966 19:11.650966 20:-0.04404315 21:10.749098 22:3.8386033 23:0.94177078 
-0.001343713235131231 1:0 2:-1.8958915 3:3.54106 4:3.54106 5:1.0120953 6:1.7069219 7:1.2625126 8:-1.514447 9:-0.46657892 10:-0.0016367709 11:2.6823126 12:-0.50695609 13:-0.2726637 14:-1.324393 15:-0.51690861 16:-0.83231763 17:0.5308148 18:-0.85561668 19:2.206208 20:0.61115438 21:3.3717754 22:3.8386033 23:0.98912056 
0.03489708813416971 1:0 2:3.3828042 3:9.4075923 4:9.4075923 5:6.9099596 6:6.0458913 7:6.8905807 8:12.232467 9:-0.46657892 10:-0.092471476 11:-1.139926 12:0.54351285 13:-0.19680268 14:-0.06806359 15:2.0474785 16:2.5797966 17:-1.8813188 18:-0.46203813 19:4.2300848 20:-0.71184062 21:3.387767 22:0.71710172 23:-0.16700406 
0.04396071587481498 1:0 2:10.34997 3:23.096168 4:21.140657 5:2.0000274 6:3.153245 7:4.0765466 8:9.7081448 9:-0.46657892 10:0.066291718 11:2.6925184 12:0.133637 13:-1.0482867 14:-0.22094368 15:-0.50918498 16:2.9458282 17:-1.9551517 18:-0.25295735 19:5.5793359 20:-0.19944252 21:7.5077957 22:6.9601049 23:1.4981311 
0.2098646529094764 1:0 2:0.74716492 3:1.5855493 4:1.5855493 5:0.54859638 6:1.2248142 7:1.2625126 8:2.609997 9:-0.46657892 10:-0.092471767 11:-1.1398878 12:0.54381502 13:1.9823832 14:-0.65548793 15:-0.16242642 16:-0.56579257 17:0.76619244 18:1.0829482 19:0.85695683 20:0.073556498 21:1.3815428 22:0.71710172 23:-0.16700406 
0.01807970894268923 1:0 2:0.21654337 3:9.4075923 4:9.4075923 5:2.884254 6:1.2248142 7:0.13689895 8:1.6597665 9:-0.46657892 10:-0.100418 11:2.6953458 12:-0.38812076 13:2.3336641 14:-1.5869987 15:-2.2580124 16:-1.8434326 17:1.139424 18:0.044957023 19:0.18233124 20:0.18275609 21:0.49618725 22:-0.84364908 23:1.6520181 
-3.251585958740208 1:0 2:0.58469194 3:-0.3699615 4:-0.3699615 5:-1.2578782 6:-0.22150895 7:0.13689895 8:0.46920547 9:1.8819838 10:-0.081510421 11:1.4941011 12:-2.8913564 13:1.3178508 14:-0.18590717 15:-0.038501642 16:0.45662624 17:-0.80691699 18:-0.19896433 19:-1.1669199 20:-1.2494386 21:-1.1276914 22:-0.84364908 23:-1.4099368 
0.0292765840883497 1:0 2:6.8772701 3:19.185146 4:11.363103 5:1.9799913 6:2.6711373 7:2.3881262 8:8.4694435 9:-0.46657892 10:0.067790312 11:-1.0567182 12:0.95636603 13:1.5450373 14:-0.33342639 15:1.3507548 16:-0.34242292 17:1.9344277 18:1.0066364 19:2.206208 20:-0.38844184 21:2.6448826 22:0.71710172 23:-0.6010441 
0.03927052728426773 1:0 2:0.2812665 3:13.318614 4:5.4965708 5:1.7120481 6:-0.22150895 7:0.13689895 8:0.63523688 9:-0.46657892 10:-0.1060833 11:2.6621588 12:-0.70736623 13:0.32696888 14:1.0506789 15:0.35005768 16:-0.68266436 17:0.45669207 18:0.36748533 19:0.85695683 20:1.2747521 21:1.8845526 22:0.71710172 23:0.57480977 
-0.5881686031665446 1:0 2:0.68195915 3:-0.3699615 4:-0.3699615 5:0.69622447 6:1.2248142 7:1.8253194 8:1.1661643 9:-0.46657892 10:-1.5466239 11:0.76476217 12:-0.11237369 13:-1.3207598 14:0.063497849 15:1.3631411 16:2.150367 17:-1.8094172 18:0.89304204 19:0.85695683 20:0.073556498 21:1.3815428 22:0.71710172 23:-0.16700406 
0.02099142113067759 1:0 2:2.7715238 3:21.140657 4:15.274125 5:6.3262965 6:2.1890296 7:2.3881262 8:7.6666467 9:-0.46657892 10:-0.14718543 11:-1.1668688 12:0.23791472 13:0.2449297 14:0.3329171 15:-0.13671396 16:-0.41097725 17:0.70679336 18:1.0504196 19:5.5793359 20:-0.27084229 21:7.5077958 22:5.3993541 23:2.0584373 
0.007520661669846379 1:0 2:2.3049777 3:11.363103 4:7.4520816 5:2.5044751 6:1.2248142 7:1.2625126 8:4.0892137 9:-0.46657892 10:-0.095933879 11:2.7038431 12:-0.22753961 13:1.1710755 14:-1.3997577 15:-1.4569784 16:-1.5514884 17:0.56528188 18:-0.0095006058 19:2.8808336 20:-0.1406427 21:2.9240094 22:2.2778525 23:0.88652938 
0.005211644480629952 1:0 2:1.8493052 3:11.363103 4:11.363103 5:1.1959551 6:1.7069219 7:2.3881262 8:6.6832505 9:-0.46657892 10:1.368704 11:0.76476217 12:-0.28634844 13:0.9365181 14:-0.15400653 15:0.56029894 16:-0.21066774 17:1.2538882 18:0.81895746 19:2.8808336 20:0.25835573 21:3.9387518 22:5.3993541 23:1.6559638 
0.03838627153962841 1:0 2:-0.51448699 3:17.229635 4:11.363103 5:3.2418342 6:3.6353527 7:2.3881262 8:0.57180808 9:-0.46657892 10:-0.044873817 11:-1.1058487 12:0.76352127 13:-1.0759039 14:-1.3950943 15:-1.7043271 16:0.2789036 17:2.3312541 18:0.69546422 19:6.2539615 20:-0.014643188 21:4.78439 22:-0.84364908 23:1.2455988 
0.03931501306863557 1:0 2:2.0223721 3:28.9627 4:23.096168 5:5.5058033 6:3.6353527 7:3.5137398 8:8.5175096 9:-0.46657892 10:-0.044886358 11:-1.1058189 12:0.76369328 13:0.85032259 14:-0.68693734 15:1.3634934 16:-0.60748619 17:1.7371925 18:1.0742656 19:2.206208 20:-0.24984229 21:1.2056348 22:-0.84364908 23:1.9519004 
0.01554911319859689 1:0 2:-1.5735587 3:11.363103 4:5.4965708 5:0.46009961 6:-0.22150895 7:-0.98871466 8:-0.7897576 9:-0.46657892 10:-0.15601423 11:2.6527501 12:-0.75833534 13:0.36820042 14:0.75583783 15:0.52220214 16:0.41965327 17:-0.72164051 18:-1.8400642 19:-0.49229435 20:-1.0268394 21:-1.1276914 22:0.71710172 23:-1.2008084 
0.005701640069976127 1:0 2:2.0940698 3:13.318614 4:13.318614 5:0.77400924 6:0.74270647 7:0.69970576 8:7.3103104 9:-0.46657892 10:-0.10042956 11:2.6953461 12:-0.38811588 13:-0.12434353 14:0.77799584 15:0.4807393 16:-0.29521112 17:1.117078 18:-0.17064108 19:0.85695683 20:-1.0310394 21:0.34499353 22:0.71710172 23:-0.67601462 
0.08007729647511157 1:0 2:1.8699057 3:5.4965708 4:1.5855493 5:2.001553 6:1.2248142 7:0.13689895 8:2.8311752 9:-0.46657892 10:-0.078066104 11:-1.1743161 12:0.11761313 13:0.82597114 14:0.24104045 15:-0.057626314 16:-0.26261208 17:1.0944521 18:0.33263956 19:0.85695683 20:0.24575579 21:0.36970792 22:-0.84364908 23:0.2157402 
-6.802328979671113 1:0 2:0.05337315 3:-0.3699615 4:-0.3699615 5:1.9200951 6:0.74270647 7:0.69970576 8:1.1338121 9:-0.46657892 10:-0.21103982 11:-1.0870343 12:0.83046524 13:-1.3197384 14:0.68648334 15:-2.1636131 16:-0.090801455 17:1.0835117 18:1.0977108 19:0.85695683 20:0.38015536 21:0.9076087 22:2.2778525 23:0.27098179 
0.06779418486311953 1:0 2:-2.5010694 3:5.4965708 4:5.4965708 5:6.8858668 6:0.26059876 7:0.13689895 8:0.36660268 9:-0.46657892 10:1.3622034 11:0.62787477 12:-0.35497057 13:0.83867196 14:-0.81962584 15:-0.68009472 16:-1.0188586 17:0.53488653 18:0.72037179 19:0.18233124 20:-0.80424029 21:-0.74825328 22:0.71710172 23:-0.99168009 
-0.01048707647117264 1:0 2:-0.35478531 3:13.318614 4:13.318614 5:2.420958 6:-1.6678321 7:-1.5515215 8:0.89545957 9:-0.46657892 10:-1.5466264 11:0.76476217 12:-0.11208861 13:-0.11019476 14:-1.5869987 15:-0.38746779 16:-0.59442072 17:0.77057675 18:-0.8690808 19:0.85695683 20:0.073556498 21:1.596703 22:0.71710172 23:-0.16700406 
0.0419888368631419 1:0 2:2.6513692 3:30.918211 4:23.096168 5:3.8410408 6:3.6353527 7:2.950933 8:6.4631262 9:-0.46657892 10:-0.17236226 11:-1.1527883 12:0.39695612 13:0.50824384 14:-0.54747882 15:-0.51690861 16:-0.83231763 17:0.5308148 18:-0.85561668 19:1.5315824 20:1.1109525 21:2.5518403 22:6.9601049 23:1.1469533 
2.728100997672843 1:0 2:0.05337315 3:-0.3699615 4:-0.3699615 5:2.4576086 6:1.2248142 7:1.2625126 8:1.3685966 9:-0.46657892 10:-0.21103982 11:-1.0870343 12:0.83046524 13:-1.3197384 14:0.68648334 15:-2.1636131 16:-0.090801455 17:1.0835117 18:1.0977108 19:1.5315824 20:0.38015536 21:1.8147709 22:2.2778525 23:0.27098179 
-0.8368799157481343 1:0 2:-0.29924825 3:-0.3699615 4:-0.3699615 5:0.72795332 6:1.7069219 7:0.69970576 8:-1.1872275 9:-0.46657892 10:-0.14718543 11:-1.1668688 12:0.23791472 13:1.7057203 14:0.3329171 15:-0.13671396 16:-0.41097725 17:0.70679336 18:1.0504196 19:0.18233124 20:2.6061471 21:1.8932753 22:0.71710172 23:2.2123243 
0.009697161428779962 1:0 2:0.55967877 3:11.363103 4:7.4520816 5:2.0770203 6:-0.70361666 7:-0.42590786 8:2.7273893 9:-0.46657892 10:0.067782002 11:-1.05666 12:0.95663189 13:-0.20888147 14:0.33909635 15:0.96447879 16:2.5623352 17:-1.2875097 18:-2.0653023 19:0.18233124 20:0.48935485 21:-0.37317658 22:2.2778525 23:1.7151511 
0.0291101819678099 1:0 2:3.3193432 3:19.185146 4:15.274125 5:3.0024952 6:1.2248142 7:1.8253194 8:3.749719 9:-0.46657892 10:1.3719269 11:0.69747839 12:-0.086665274 13:0.0047031348 14:0.65391839 15:-0.28412926 16:2.552627 17:-1.7108845 18:-1.745876 19:3.5554592 20:0.4137552 21:4.9767549 22:0.71710172 23:0.98122893 
0.01390821668391102 1:0 2:-3.2325367 3:5.4965708 4:-0.3699615 5:-1.5597256 6:-1.6678321 7:-1.5515215 8:-3.8595197 9:5.0196282 10:-0.01358974 11:0.59845911 12:-3.1002297 13:-1.2781589 14:-1.347254 15:1.4163025 16:2.6976906 17:-1.3225164 18:0.94306272 19:-1.1669199 20:-1.2494386 21:-1.1276914 22:-0.84364908 23:-1.4099368 
-1.526860337209979 1:0 2:0.45970836 3:-0.3699615 4:-0.3699615 5:-1.0135158 6:-1.1857244 7:-0.98871466 8:-0.75370796 9:2.8870979 10:-0.039830673 11:-0.41595016 12:2.3728965 13:0.9685481 14:-0.61812441 15:-0.66652127 16:-1.3952701 17:-0.018394478 18:0.4818244 19:-1.1669199 20:-1.2494386 21:-1.1276914 22:-0.84364908 23:-1.4099368 
0.01752704941224562 1:0 2:1.1232745 3:11.363103 4:11.363103 5:6.4672003 6:3.153245 7:3.5137398 8:6.3275427 9:-0.46657892 10:-0.12569481 11:-1.1193412 12:0.68351997 13:-0.060886947 14:1.330366 15:0.33260885 16:2.7871567 17:-1.4267547 18:-1.8670187 19:2.8808336 20:-0.15744272 21:2.2575941 22:3.8386033 23:1.217978 
0.01196234519151376 1:0 2:2.2851542 3:17.229635 4:13.318614 5:3.8798608 6:0.26059876 7:0.69970576 8:9.8079005 9:-0.46657892 10:0.067800667 11:-1.0567108 12:0.95639184 13:-0.20198059 14:-1.0896066 15:0.91487794 16:2.6249376 17:-1.3064212 18:-0.24582086 19:3.5554592 20:-1.0142395 21:2.5460251 22:5.3993541 23:1.7151511 
-3.224801736542066 1:0 2:0.35482365 3:1.5855493 4:1.5855493 5:-1.3377186 6:-1.1857244 7:-0.98871466 8:-1.4478939 9:-0.46657892 10:1.3664585 11:0.58309073 12:-0.038143138 13:-0.32790155 14:-1.4328962 15:-0.091967453 16:-0.78688269 17:0.14956156 18:-0.55315185 19:0.18233124 20:0.65315438 21:0.40750634 22:0.71710172 23:1.1153868 
0.03772854732553949 1:0 2:1.1852939 3:23.096168 4:21.140657 5:4.848878 6:4.5995681 7:5.2021602 8:15.0961 9:-0.46657892 10:1.3721613 11:0.82496191 12:-0.039500824 13:-0.66886123 14:0.11470426 15:-3.4028531 16:-1.8908356 17:0.63541361 18:-1.5096545 19:8.2778383 20:-0.24984229 21:6.5250365 22:-0.84364908 23:2.1294621 
0.03217357022908675 1:0 2:2.3960874 3:7.4520816 4:5.4965708 5:-0.1392857 6:1.2248142 7:1.8253194 8:5.1085117 9:-0.46657892 10:-1.5459277 11:0.83202827 12:-0.023605393 13:-0.36950292 14:-1.4322797 15:-0.397158 16:2.0120764 17:-1.4478519 18:-1.6227219 19:2.206208 20:0.72875403 21:2.8266058 22:-0.84364908 23:1.1745741 
0.01789416713756812 1:0 2:1.1834405 3:17.229635 4:13.318614 5:2.898086 6:1.7069219 7:0.69970576 8:6.4626824 9:-0.46657892 10:-0.017997688 11:-1.1232232 12:0.64835771 13:-0.18946953 14:-1.394525 15:-0.42055141 16:2.6334264 17:-1.7408082 18:-2.0229758 19:0.85695683 20:0.75815399 21:1.5545432 22:2.2778525 23:2.0031957 
0.05392039387430204 1:0 2:0.36321682 3:9.4075923 4:7.4520816 5:1.4873088 6:-0.22150895 7:0.13689895 8:0.12072594 9:-0.46657892 10:-1.5439947 11:0.82938565 12:-0.21815922 13:0.75957484 14:-1.4560523 15:1.1327755 16:-0.50564187 17:0.92686307 18:-1.8046685 19:0.18233124 20:-0.073443013 21:-0.10422619 22:0.71710172 23:0.2157402 
-0.8102196014115486 1:0 2:-0.10470911 3:-0.3699615 4:-0.3699615 5:0.79757894 6:0.26059876 7:0.13689895 8:0.64509052 9:-0.46657892 10:1.365488 11:0.76476217 12:-0.36260918 13:0.42902668 14:2.6109451 15:-1.1667714 16:1.1447804 17:-0.94180021 18:-1.8963029 19:0.85695683 20:0.24575579 21:0.36970792 22:-0.84364908 23:0.2157402 
0.09616117126002903 1:0 2:1.6540826 3:1.5855493 4:1.5855493 5:-0.35501855 6:-0.22150895 7:0.13689895 8:3.9447566 9:-0.46657892 10:0.067771626 11:-1.0567206 12:0.95636739 13:-0.24481507 14:-1.5038329 15:-2.7745097 16:-1.557292 17:-0.27546431 18:-1.5655186 19:0.18233124 20:-0.64464083 21:0.14000979 22:0.71710172 23:-0.84173896 
0.03037650248198369 1:0 2:1.9006054 3:15.274125 4:5.4965708 5:-0.38182604 6:-1.1857244 7:-0.98871466 8:0.86852409 9:-0.46657892 10:0.067771626 11:-1.0567206 12:0.95636739 13:-0.24481507 14:-1.5038329 15:-2.7745097 16:-1.557292 17:-0.27546431 18:-1.5655186 19:0.85695683 20:-1.0142395 21:-0.11585646 22:2.2778525 23:-0.84173896 
0.01894611756354816 1:0 2:-1.5637854 3:15.274125 4:13.318614 5:4.4372787 6:4.1174604 7:4.0765466 8:6.5772648 9:-0.46657892 10:1.3698092 11:0.65598287 12:-0.15498552 13:-0.76426561 14:1.2517798 15:0.24237797 16:2.4402024 17:-1.3211449 18:-0.33550414 19:0.85695683 20:0.61115438 21:1.5167449 22:5.3993541 23:1.1469533 
0.1671020423512469 1:0 2:0.61365931 3:1.5855493 4:-0.3699615 5:2.3309071 6:1.7069219 7:0.13689895 8:1.3464124 9:-0.46657892 10:-1.5374029 11:0.76476217 12:-0.40315146 13:-1.3112589 14:-0.19673912 15:-1.6413238 16:-1.328213 17:0.00074636522 18:0.97833105 19:-0.49229435 20:0.80015379 21:-0.4007985 22:-0.84364908 23:0.51562247 
0.3190740584711172 1:0 2:-2.185465 3:3.54106 4:1.5855493 5:0.36788004 6:-0.22150895 7:-0.42590786 8:-1.3600807 9:-0.46657892 10:-1.5459289 11:0.83198206 12:-0.023605367 13:-0.41224437 14:0.0066667214 15:-1.3644264 16:-0.60067407 17:0.31124254 18:0.87144687 19:0.85695683 20:0.59015458 21:1.1125925 22:0.71710172 23:0.98122893 
0.02841694614269478 1:0 2:1.2993083 3:17.229635 4:13.318614 5:10.000756 6:2.6711373 7:2.3881262 8:13.74008 9:-0.46657892 10:-0.24177961 11:2.5861813 12:-1.066646 13:0.7038472 14:-0.22409054 15:0.49488185 16:-0.42171292 17:1.1688414 18:-0.32865344 19:7.6032127 20:-1.0142395 21:7.8203597 22:6.9601049 23:1.7151511 
0.009947225168896125 1:0 2:3.6777033 3:15.274125 4:13.318614 5:2.9960533 6:1.7069219 7:1.2625126 8:5.4237515 9:-0.46657892 10:-0.21103982 11:-1.0870343 12:0.83046524 13:0.095149126 14:0.68648334 15:-2.1636131 16:-0.090801455 17:1.0835117 18:1.0977108 19:4.2300848 20:-0.40944174 21:3.876239 22:5.3993541 23:0.64978015 
0.05316918077298796 1:0 2:4.0185298 3:5.4965708 4:3.54106 5:2.6904868 6:2.6711373 7:2.3881262 8:3.3023342 9:-0.46657892 10:1.3700042 11:0.7002369 12:0.10791925 13:-1.400281 14:0.54830818 15:1.7295464 16:2.3558596 17:-1.7263845 18:-1.3553022 19:2.206208 20:-1.0142395 21:1.0457182 22:0.71710172 23:0.43670599 
0.02571552263119592 1:0 2:1.0359074 3:5.4965708 4:-0.3699615 5:2.2731267 6:2.1890296 7:1.8253194 8:3.9789574 9:-0.46657892 10:-0.095948035 11:2.7038431 12:-0.2275381 13:-1.1984775 14:-0.30692788 15:-0.87057243 16:2.5254988 17:-1.3940248 18:0.79290441 19:2.206208 20:-0.1406427 21:2.5620168 22:0.71710172 23:0.88652938 
0.01886374198172776 1:0 2:4.1720839 3:13.318614 4:9.4075923 5:1.1840289 6:0.74270647 7:1.2625126 8:5.2899613 9:-0.46657892 10:-1.536216 11:0.90164909 12:0.24468266 13:-0.19766667 14:-0.69369067 15:-0.7166867 16:2.3681917 17:-1.7426867 18:0.88655513 19:3.5554592 20:-0.80424029 21:3.3514224 22:2.2778525 23:0.41303111 
0.007242165302535294 1:0 2:-0.34210743 3:17.229635 4:17.229635 5:4.9619919 6:2.6711373 7:3.5137398 8:11.339528 9:-0.46657892 10:-0.0382129 11:2.67726 12:-0.57833034 13:-1.2324491 14:1.2190228 15:-0.35965488 16:0.24912222 17:1.4613031 18:0.57651948 19:5.5793359 20:-1.0142395 21:5.8810095 22:2.2778525 23:0.98122893 
0.4916243700558212 1:0 2:-1.4137833 3:-0.3699615 4:-0.3699615 5:0.9709944 6:0.26059876 7:-0.42590786 8:-0.70009575 9:-0.46657892 10:-1.5453992 11:0.83584304 12:-0.13531524 13:-1.2617265 14:0.72231899 15:-0.37247818 16:0.085550506 17:-1.1766988 18:0.16139862 19:0.18233124 20:0.42635514 21:0.013530411 22:0.71710172 23:0.16444462 
0.04948455158650501 1:0 2:-1.958608 3:5.4965708 4:1.5855493 5:1.3866297 6:-0.70361666 7:-0.98871466 8:-3.3661763 9:-0.46657892 10:-0.026814231 11:2.6963729 12:-0.34824796 13:0.74876733 14:0.038339732 15:-0.12122936 16:-0.35767367 17:0.70239386 18:-1.5940356 19:0.18233124 20:0.5859545 21:1.0195501 22:0.71710172 23:2.2123243 
0.0273248520659305 1:0 2:3.2893171 3:19.185146 4:17.229635 5:2.1761541 6:2.6711373 7:2.950933 8:5.3063222 9:-0.46657892 10:-1.5459285 11:0.83197005 12:-0.023444053 13:-1.2324544 14:0.89337309 15:-6.234488 16:-1.8621401 17:1.1472298 18:0.70350948 19:1.5315824 20:-0.13644272 21:1.7159135 22:2.2778525 23:-0.21435393 
-0.04644542674904302 1:0 2:-3.1840532 3:7.4520816 4:7.4520816 5:3.4534443 6:0.26059876 7:0.13689895 8:1.2539775 9:-0.46657892 10:1.3719243 11:0.69737792 12:-0.086662332 13:-1.3104519 14:-0.86438697 15:-1.3807251 16:-0.83275613 17:0.80219996 18:-1.3566253 19:2.8808336 20:0.25835573 21:4.0521472 22:2.2778525 23:0.98122893 
-2.564747436682387 1:0 2:0.41311735 3:-0.3699615 4:-0.3699615 5:-0.39197356 6:0.26059876 7:-0.42590786 8:-0.28691185 9:-0.46657892 10:-0.073582315 11:-1.1658354 12:0.27792162 13:-1.400281 14:1.795302 15:-0.14929193 16:0.91447799 17:-1.1250951 18:0.6518395 19:-1.1669199 20:-1.2494386 21:-1.1276914 22:0.71710172 23:0.26703588 
0.01716044326487915 1:0 2:1.4143495 3:11.363103 4:9.4075923 5:3.7813551 6:1.2248142 7:1.2625126 8:5.2249795 9:-0.46657892 10:-0.073581034 11:-1.1658215 12:0.27812079 13:-1.400281 14:-0.98774738 15:-2.2580124 16:-1.8434326 17:1.139424 18:0.044957023 19:2.206208 20:-1.0184395 21:2.5736471 22:0.71710172 23:-1.1929168 
