svm_type epsilon_svr
kernel_type rbf
gamma 0.00201808
nr_class 2
total_sv 96
rho -0.862293
SV
-3.009458912310801 1:0 2:-0.40889617 3:8.5899496 4:-0.48304589 5:-0.49562082 6:-1.2906224 7:-0.48304589 8:-0.38059311 9:0.48295185 10:-0.40403984 11:-0.11116265 12:-0.22546744 13:-0.26870701 14:-0.4007456 15:0.44190983 16:-0.48187915 17:0.42608139 18:0.47532056 19:0 20:0 21:0 22:0 23:0 
0.01352536787265428 1:0 2:9.0106617 3:33.517646 4:22.496137 5:18.35726 6:7.1363824 7:17.389652 8:12.242251 9:-3.1407554 10:-0.23650763 11:4.6840917 12:-0.85078368 13:6.5834884 14:4.8257926 15:-1.0398503 16:1.4845006 17:0.98625128 18:-2.2933116 19:14 20:3.48 21:124.24 22:7 23:18.120001 
0.005409126680744249 1:0 2:3.8502039 3:5.4739875 4:2.0701967 5:5.8383477 6:4.3273808 7:2.0701967 8:0.51139269 9:-2.1469296 10:-3.1429554 11:2.6104037 12:1.4821482 13:0.30919182 14:0.3862183 15:-2.8697946 16:1.9865772 17:-2.2377427 18:-2.6161207 19:0 20:0 21:0 22:0 23:0 
-1.690497627372448 1:0 2:-2.2078148 3:7.0319685 4:-0.48304589 5:0.39869427 6:0.11387844 7:-0.48304589 8:-0.38059311 9:0.48295185 10:-0.40403984 11:-0.11116265 12:-0.22546744 13:-0.26870701 14:-0.4007456 15:0.44190983 16:-0.48187915 17:0.42608139 18:0.47532056 19:0 20:0 21:0 22:0 23:0 
-0.07360095272460893 1:0 2:0.46747086 3:0.80004433 4:2.0701967 5:5.1908545 6:2.92288 7:2.0701967 8:0.65427375 9:-3.1407554 10:-0.81807647 11:4.4499144 12:-1.5061545 13:4.0707099 14:8.2736887 15:-6.3566154 16:1.8545219 17:-1.5747618 18:-2.1567304 19:5 20:11.38 21:37.936663 22:0 23:22.379999 
-1.30251691804013 1:0 2:-1.475803 3:3.9160064 4:2.0701967 5:0.40977239 6:2.92288 7:2.0701967 8:0.3623882 9:-3.1407554 10:-0.072780376 11:4.52604 12:-1.3464511 13:4.0610808 14:-0.07423545 15:-5.5850337 16:1.9367011 17:-1.3953786 18:-3.0807781 19:1 20:16.219999 21:18.08 22:0 23:16.219999 
0.08606491207460293 1:0 2:4.4179921 3:7.0319685 4:2.0701967 5:0.6451198 6:1.5183792 7:7.1766818 8:8.1922682 9:-3.1407554 10:-4.277835 11:0.23162307 12:0.15429748 13:3.2350278 14:0.35632766 15:-3.6273911 16:2.0802051 17:-1.7611494 18:-1.7444348 19:3 20:11.56 21:46.440001 22:1 23:10.34 
4.030739751355672 1:0 2:3.6480161 3:5.4739875 4:2.0701967 5:-0.49562082 6:-1.2906224 7:2.0701967 8:0.10520238 9:-2.0439639 10:3.2944275 11:0.99524216 12:0.64093231 13:3.1377696 14:7.8428612 15:-3.7813334 16:2.2653014 17:0.039658026 18:-2.9229437 19:0 20:0 21:0 22:0 23:0 
-0.03714834374840884 1:0 2:8.2908175 3:10.147931 4:4.6234392 5:-0.79489835 6:1.5183792 7:4.6234392 8:3.756833 9:-3.1407554 10:-0.27371218 11:4.6780718 12:-0.88770551 13:1.6162858 14:5.271088 15:-0.48051057 16:2.0914848 17:-0.76063299 18:-1.4855208 19:0 20:0 21:0 22:1 23:10.92 
0.198582921978525 1:0 2:0.14371592 3:14.821874 4:9.7299244 5:8.8377494 6:1.5183792 7:7.1766818 8:7.2282704 9:-3.1407554 10:-0.56487545 11:-4.9482126 12:0.1456141 13:1.2412826 14:7.7349029 15:1.3242147 16:1.6386743 17:0.075204836 18:-1.6263591 19:2 20:1.02 21:7.0000001 22:1 23:5.6999998 
-0.36394724651123 1:0 2:-1.5777339 3:0.80004433 4:2.0701967 5:2.0467653 6:2.92288 7:2.0701967 8:0.3562647 9:-3.1407554 10:-4.2951937 11:-0.11116265 12:0.067653644 13:0.23675937 14:0.25738854 15:-7.4652304 16:1.9562837 17:-1.7976659 18:-1.5788677 19:2 20:6.8600001 21:11.56 22:0 23:8.8800001 
0.01525810575813573 1:0 2:1.2559007 3:3.9160064 4:4.6234392 5:2.8974733 6:2.92288 7:4.6234392 8:4.4467443 9:-3.1407554 10:-0.51650885 11:4.5728406 12:-1.2625133 13:2.008931 14:4.6113538 15:-1.6496376 16:2.2000477 17:-0.16260423 18:-2.2200191 19:1 20:5.1799998 21:5.6799998 22:0 23:5.1799998 
-1.288382647678513 1:0 2:1.3271935 3:16.379855 4:4.6234392 5:-0.2704721 6:4.3273808 7:4.6234392 8:0.47669298 9:-2.2875066 10:-0.60942208 11:0.28885005 12:3.6304461 13:5.3610138 14:6.4749777 15:-4.9406423 16:2.2370538 17:0.67887258 18:-1.5675114 19:0 20:0 21:0 22:0 23:0 
0.0100945259277671 1:0 2:-1.0557595 3:7.0319685 4:2.0701967 5:1.7850966 6:2.92288 7:2.0701967 8:1.2911147 9:-2.3394767 10:-0.5657548 11:0.028399948 12:-4.0949703 13:1.2799393 14:0.70198112 15:-0.14446587 16:1.6126965 17:-2.6333498 18:-2.3043879 19:0 20:0 21:0 22:0 23:0 
-0.2687348612984823 1:0 2:-2.8035136 3:7.0319685 4:7.1766818 5:4.1017646 6:1.5183792 7:7.1766818 8:1.1090028 9:-3.1407554 10:-0.42783868 11:4.7445461 12:-0.44426123 13:6.659672 14:0.19608137 15:-6.2029825 16:1.8164274 17:-2.099258 18:-2.9983928 19:2 20:22.959999 21:52.279999 22:1 23:12.36 
0.1339607821814744 1:0 2:1.327249 3:5.4739875 4:7.1766818 5:2.5157696 6:1.5183792 7:7.1766818 8:5.7469616 9:-3.1407554 10:-0.22416821 11:4.7220207 12:-0.61921476 13:7.2597683 14:9.7266228 15:-6.7814964 16:1.8012627 17:-2.2246412 18:-1.8578119 19:1 20:23.959999 21:23.98 22:1 23:23.959999 
-1.009738456360834 1:0 2:-1.8927257 3:3.9160064 4:4.6234392 5:-2.2041374 6:-1.2906224 7:2.0701967 8:1.5605476 9:-3.1407554 10:-0.22377763 11:4.7219992 12:-0.61920576 13:5.3216344 14:-0.040420784 15:0.12181614 16:1.5255358 17:-0.73820487 18:-1.5086299 19:2 20:3.76 21:9.4399998 22:1 23:3.76 
4.359418897737006 1:0 2:6.3078647 3:5.4739875 4:4.6234392 5:-0.016422796 6:1.5183792 7:4.6234392 8:3.7731622 9:-2.1019212 10:-0.15484626 11:2.6065386 12:2.9780959 13:4.150734 14:-0.087619904 15:-3.33377 16:1.9449473 17:-3.1138455 18:-2.0646688 19:0 20:0 21:0 22:0 23:0 
0.05460212643697959 1:0 2:1.295506 3:8.5899496 4:12.283167 5:-0.95469713 6:2.92288 7:9.7299244 8:5.9041307 9:-3.1407554 10:3.4912496 11:-0.25033602 12:-0.020807709 13:6.1634386 14:-0.4007456 15:-6.7769723 16:1.7242624 17:-2.4884198 18:-2.3947975 19:3 20:5.6999998 21:24.04 22:2 23:8.1000004 
0.0925977394548699 1:0 2:3.3442352 3:2.3580254 4:2.0701967 5:7.0151618 6:5.7318816 7:9.7299244 8:4.4447031 9:-3.1407554 10:3.4731045 11:0.44043467 12:-0.21480233 13:2.7874812 14:9.8350386 15:-7.8573788 16:1.8287778 17:-1.2140907 18:-2.2127119 19:9 20:10.66 21:51.684799 22:1 23:16.48 
0.5884030134541128 1:0 2:1.7575614 3:5.4739875 4:4.6234392 5:1.2931028 6:1.5183792 7:7.1766818 8:4.5549256 9:-3.1407554 10:-0.17439837 11:4.6780892 12:-0.86045773 13:7.3168252 14:0.27960451 15:-6.7429899 16:1.7239967 17:-2.942488 18:-1.7264389 19:5 20:12.54 21:57.62 22:0 23:24.68 
0.01033814284308246 1:0 2:11.58989 3:21.053798 4:14.83641 5:6.8870253 6:9.945384 7:14.83641 8:6.8506971 9:-3.1407554 10:-4.2986629 11:0.050643214 12:-0.43205892 13:9.5968207 14:0.57382378 15:-6.4280816 16:1.812856 17:-2.2219879 18:-1.6051029 19:13 20:8.2399998 21:147.98 22:6 23:17.6 
0.01013587718972462 1:0 2:3.1511202 3:14.821874 4:17.389652 5:5.0345314 6:1.5183792 7:4.6234392 8:11.429544 9:-3.1407554 10:3.4284846 11:-0.73962139 12:-0.75617901 13:6.8515648 14:-0.07937318 15:-1.411004 16:1.654142 17:-2.6949306 18:-1.954138 19:7 20:1.02 21:80.160001 22:1 23:1.02 
0.9200067108078107 1:0 2:1.3674175 3:3.9160064 4:2.0701967 5:1.3573954 6:4.3273808 7:4.6234392 8:1.9973553 9:-3.1407554 10:3.4285325 11:-0.739173 12:-0.75617439 13:0.65035725 14:-0.4007456 15:-4.3907612 16:2.0327333 17:-1.0110028 18:-2.0843184 19:1 20:13.24 21:13.92 22:0 23:13.24 
0.0123947275809657 1:0 2:5.9414556 3:24.16976 4:9.7299244 5:12.609934 6:11.349885 7:19.942895 8:7.3900933 9:-3.1407554 10:-0.43975521 11:4.7232794 12:-0.64730886 13:7.8602937 14:-0.06542895 15:-4.2737857 16:1.6823473 17:-2.7597681 18:-3.1907154 19:9 20:5.5 21:93.379999 22:5 23:27.379999 
0.01484683347611782 1:0 2:4.7455259 3:16.379855 4:19.942895 5:15.967772 6:2.92288 7:4.6234392 8:20.692316 9:-3.1407554 10:-0.38941218 11:4.6583473 12:-0.98358447 13:0.18971314 14:11.566765 15:1.6965283 16:1.8268508 17:-1.8437505 18:-1.7893924 19:9 20:3.3800001 21:61.78 22:2 23:11.46 
0.007325330163367463 1:0 2:3.1438834 3:10.147931 4:14.83641 5:5.442888 6:2.92288 7:9.7299244 8:23.762217 9:-3.1407554 10:3.4810937 11:-0.56656477 12:-0.20411976 13:7.7017065 14:-0.4007456 15:-7.0925316 16:1.5406955 17:-2.670898 18:-2.5565272 19:11 20:1 21:109.64 22:4 23:15.16 
0.1156953823782779 1:0 2:2.6530297 3:7.0319685 4:4.6234392 5:0.8020985 6:2.92288 7:2.0701967 8:4.6039133 9:-3.1407554 10:3.4905833 11:-0.27296851 12:-0.018875961 13:7.262316 14:7.721875 15:-6.4280816 16:1.812856 17:-2.2219879 18:-1.6051029 19:0 20:0 21:0 22:1 23:15.66 
0.007101464610031945 1:0 2:6.9539437 3:30.401684 4:19.942895 5:15.327395 6:9.945384 7:12.283167 8:19.921698 9:-3.1407554 10:-0.81779523 11:4.449946 12:-1.5061725 13:10.013576 14:5.1385272 15:0.53058745 16:1.2380058 17:-2.1567324 18:-2.1376151 19:15 20:3.1400001 21:131.9616 22:7 23:13.14 
-0.7140951221296037 1:0 2:0.72684625 3:0.80004433 4:2.0701967 5:-0.41017581 6:0.11387844 7:2.0701967 8:0.60936823 9:-3.1407554 10:-4.2864816 11:-0.11116265 12:0.16527486 13:0.39782475 14:2.6031828 15:-7.3745425 16:1.8294936 17:-1.8322844 18:-1.8549015 19:1 20:12.02 21:13.16 22:0 23:12.02 
0.01618031338449846 1:0 2:2.2486952 3:7.0319685 4:7.1766818 5:1.9050481 6:2.92288 7:9.7299244 8:9.9068403 9:-3.1407554 10:-4.2892076 11:0.34378624 12:-0.24680832 13:6.1827494 14:3.5459262 15:-5.8712386 16:1.9686315 17:-1.463881 18:-2.4579006 19:7 20:1 21:98.120001 22:1 23:1 
0.01490366699828381 1:0 2:1.9943742 3:3.9160064 4:7.1766818 5:1.147592 6:4.3273808 7:7.1766818 8:5.1938079 9:-3.1407554 10:3.4284846 11:-0.73962139 12:-0.75617901 13:2.7997259 14:0.32015121 15:-1.411004 16:1.654142 17:-2.6949306 18:-3.0865179 19:3 20:11.46 21:37.76 22:0 23:14.52 
0.03146884214793966 1:0 2:3.3538303 3:5.4739875 4:4.6234392 5:2.0900435 6:0.11387844 7:4.6234392 8:9.2414231 9:-3.1407554 10:-0.21921996 11:-4.8390142 12:0.66467901 13:6.82551 14:-0.4007456 15:-7.0943291 16:2.0237289 17:-0.96139538 18:-1.4109941 19:4 20:10.38 21:50.34 22:2 23:15.36 
0.03627900549674004 1:0 2:13.415776 3:31.959665 4:27.602622 5:17.534385 6:12.754386 7:27.602622 8:33.690406 9:-3.1407554 10:-0.50755389 11:-4.8292199 12:0.70950986 13:2.5225929 14:0.17674669 15:-4.3326401 16:1.5278307 17:1.6032414 18:-2.4474128 19:19 20:3.8800001 21:228.4 22:12 23:33.040001 
1.459105357871719 1:0 2:0.71122662 3:-0.75793673 4:-0.48304589 5:-0.96218232 6:0.11387844 7:-0.48304589 8:-0.38059311 9:0.48295185 10:-0.40403984 11:-0.11116265 12:-0.22546744 13:-0.26870701 14:-0.4007456 15:0.44190983 16:-0.48187915 17:0.42608139 18:0.47532056 19:0 20:0 21:0 22:0 23:0 
-0.1576216705462097 1:0 2:5.8669161 3:11.705912 4:4.6234392 5:-0.23506289 6:5.7318816 7:12.283167 8:6.5960832 9:-3.1407554 10:3.4905947 11:-0.27254128 12:-0.018875009 13:4.1333115 14:-0.4007456 15:-4.0311693 16:1.9565366 17:-2.321755 18:-2.5210901 19:2 20:5.5599999 21:12.8 22:2 23:11.16 
0.1656944608711738 1:0 2:0.7333659 3:11.705912 4:12.283167 5:0.53475455 6:0.11387844 7:4.6234392 8:2.7178838 9:-3.1407554 10:-4.2951937 11:-0.11116265 12:0.067653644 13:6.4462092 14:0.25738854 15:-7.4652304 16:1.9562837 17:-1.7976659 18:-3.2649914 19:3 20:5.3600001 21:29.740001 22:2 23:14.38 
0.009766814658842854 1:0 2:6.453386 3:16.379855 4:19.942895 5:10.81352 6:2.92288 7:7.1766818 8:11.643865 9:-3.1407554 10:-2.3802265 11:0.20902336 12:3.1056707 13:7.2364476 14:-0.4007456 15:-5.3852206 16:1.5498898 17:-3.0618467 18:-1.6941258 19:9 20:6.1399999 21:134.74 22:6 23:23.58 
0.07397055415975193 1:0 2:4.8781353 3:10.147931 4:2.0701967 5:7.005652 6:5.7318816 7:2.0701967 8:1.4829837 9:-2.2197411 10:1.2218348 11:3.1142206 12:2.1835775 13:1.7594827 14:-0.4007456 15:-4.1527001 16:1.9594323 17:-2.2424422 18:-2.65161 19:0 20:0 21:0 22:0 23:0 
-1.047076675304604 1:0 2:4.9028166 3:8.5899496 4:4.6234392 5:-0.19062556 6:0.11387844 7:4.6234392 8:5.236672 9:-2.3509759 10:-2.1367657 11:2.8050599 12:2.3542035 13:-0.26870701 14:1.8511507 15:-1.1628916 16:2.2102762 17:-1.4366739 18:-1.854817 19:0 20:0 21:0 22:0 23:0 
0.224538804530532 1:0 2:1.2948521 3:0.80004433 4:2.0701967 5:6.2443391 6:5.7318816 7:4.6234392 8:3.6057873 9:-3.1407554 10:-0.51644489 11:4.5729928 12:-1.2620837 13:1.0555192 14:5.6250177 15:-6.6587158 16:1.9119438 17:-1.5839368 18:-3.0829402 19:1 20:15.7 21:16.120001 22:0 23:15.7 
2.141137680676739 1:0 2:1.8361818 3:5.4739875 4:4.6234392 5:0.055227573 6:-1.2906224 7:2.0701967 8:3.3873835 9:-2.0932896 10:-1.9311399 11:2.381305 12:2.735943 13:-0.26870701 14:3.6733083 15:-1.8056715 16:2.2689388 17:-0.96091574 18:-3.032368 19:0 20:0 21:0 22:0 23:0 
1.806036777013652 1:0 2:-3.5466979 3:3.9160064 4:2.0701967 5:-0.12602635 6:0.11387844 7:2.0701967 8:0.54405125 9:-2.4319375 10:-1.2875338 11:-4.7204033 12:0.64597625 13:-0.028889441 14:1.2599269 15:-0.50798138 16:1.766251 17:-0.095029444 18:-1.5659557 19:0 20:0 21:0 22:0 23:0 
-0.2196415646240406 1:0 2:2.0753371 3:3.9160064 4:7.1766818 5:3.4576698 6:4.3273808 7:9.7299244 8:1.3176499 9:-3.1407554 10:3.4729652 11:-0.11116265 12:0.21528709 13:4.7934916 14:9.6397329 15:-5.2191418 16:2.1125313 17:-1.6679902 18:-1.4571374 19:2 20:9.2399998 21:21.96 22:1 23:9.2399998 
-1.675140220492637 1:0 2:-0.78232951 3:5.4739875 4:7.1766818 5:1.7745412 6:2.92288 7:9.7299244 8:8.4045485 9:-3.1407554 10:-0.6321919 11:-4.912983 12:0.34670958 13:1.8365834 14:7.503421 15:0.42308056 16:1.6152516 17:-0.3987612 18:-1.5576984 19:0 20:0 21:0 22:1 23:5.2600002 
0.01056627101661628 1:0 2:8.2997682 3:14.821874 4:17.389652 5:2.7778209 6:5.7318816 7:14.83641 8:17.619331 9:-3.1407554 10:-0.1758966 11:4.6907351 12:-0.79723536 13:6.5182446 14:-0.10764753 15:-5.4791312 16:1.748073 17:-3.26548 18:-1.5389507 19:5 20:8.2600002 21:93.440001 22:6 23:29.74 
0.0134514887366922 1:0 2:1.9060137 3:11.705912 4:9.7299244 5:2.2733199 6:2.92288 7:9.7299244 8:4.0992576 9:-3.1407554 10:0.0096595503 11:-4.672282 12:1.0552314 13:6.0824584 14:0.13102123 15:-3.17267 16:1.7131179 17:-3.188141 18:-2.4900845 19:12 20:9.3400002 21:116.9272 22:2 23:20.76 
-3.508891795108704 1:0 2:0.43087478 3:-0.75793673 4:2.0701967 5:-0.35701634 6:-1.2906224 7:2.0701967 8:1.1829335 9:-2.0022543 10:3.0697051 11:-0.96700701 12:-1.853794 13:0.28293174 14:2.1898037 15:-1.5412219 16:2.3167796 17:-0.27670688 18:-1.6953391 19:0 20:0 21:0 22:0 23:0 
0.02327199620898669 1:0 2:15.948381 3:35.075628 4:35.26235 5:21.660442 6:9.945384 7:19.942895 8:33.103737 9:-3.1407554 10:-0.51644785 11:4.5731163 12:-1.2617287 13:8.599766 14:4.4204838 15:-7.4596637 16:1.8723169 17:-1.9612494 18:-2.5974236 19:22 20:5.7399998 21:287.76 22:9 23:28.219999 
0.6551046301431096 1:0 2:-1.9919569 3:3.9160064 4:4.6234392 5:-2.1110366 6:0.11387844 7:4.6234392 8:0.96452967 9:-3.1407554 10:-0.22375653 11:4.7219932 12:-0.61924389 13:0.22680931 14:2.5021152 15:-3.1657597 16:2.2016472 17:-0.68357018 18:-1.7971708 19:1 20:8.2399998 21:7.1999998 22:2 23:11.16 
0.02375274518481615 1:0 2:9.3669732 3:28.843703 4:22.496137 5:21.162247 6:4.3273808 7:7.1766818 8:17.375436 9:-3.1407554 10:-0.21962908 11:-4.8391171 12:0.66441638 13:3.0478754 14:13.868444 15:-1.0395724 16:2.1278161 17:-1.4415426 18:-1.7057082 19:16 20:1 21:164 22:10 23:24.719999 
0.01742988163308851 1:0 2:6.4626465 3:22.611779 4:12.283167 5:14.202748 6:9.945384 7:17.389652 8:15.856202 9:-3.1407554 10:-4.2811828 11:-0.66277569 12:-0.23613349 13:0.34099224 14:9.9370306 15:-6.9218975 16:2.0666888 17:1.2629833 18:-2.8702494 19:11 20:1.12 21:74.017465 22:1 23:1.12 
0.01267970847660991 1:0 2:10.270442 3:30.401684 4:19.942895 5:12.147547 6:5.7318816 7:14.83641 8:12.568918 9:-3.1407554 10:3.4963628 11:0.040074085 12:-0.20623844 13:5.2718477 14:5.1467049 15:-8.4233323 16:1.9904068 17:-0.84405515 18:-3.2030107 19:10 20:9.5200005 21:161.58 22:3 23:28.16 
0.02820952840848784 1:0 2:2.4936198 3:21.053798 4:7.1766818 5:0.73093286 6:0.11387844 7:4.6234392 8:0.51343387 9:-3.1407554 10:3.4963617 11:0.040074221 12:-0.20600264 13:5.6462098 14:-0.4007456 15:-0.35601273 16:1.5033995 17:0.057871717 18:-1.4228594 19:0 20:0 21:0 22:1 23:17.360001 
0.02453619214259127 1:0 2:11.325711 3:30.401684 4:27.602622 5:12.806089 6:15.563387 7:27.602622 8:26.471119 9:-3.1407554 10:3.4900643 11:-0.38375906 12:-0.35243897 13:7.1634787 14:4.36592 15:0.27424002 16:1.3742465 17:-1.6462004 18:-1.5119967 19:17 20:1.34 21:162.4 22:5 23:13.58 
2.47657333575513 1:0 2:0.034524794 3:-0.75793673 4:2.0701967 5:-2.5020057 6:-1.2906224 7:2.0701967 8:0.94820043 9:-3.1407554 10:3.4976191 11:-0.11116265 12:-0.15319099 13:2.9652288 14:0.47592457 15:-3.1627231 16:2.1549934 17:-1.4061994 18:-2.0493815 19:1 20:6.9200001 21:6.8200002 22:0 23:6.9200001 
0.01130978286692422 1:0 2:7.061353 3:13.263893 4:17.389652 5:4.0814403 6:4.3273808 7:12.283167 8:12.517807 9:-3.1407554 10:-0.23649997 11:4.6840328 12:-0.85106842 13:-0.071520897 14:6.5641364 15:-3.7966099 16:2.326376 17:0.058514541 18:-2.8635694 19:9 20:2.9400001 21:113.78 22:1 23:2.9400001 
-0.1858092909211412 1:0 2:0.83842369 3:10.147931 4:4.6234392 5:-0.86888557 6:1.5183792 7:4.6234392 8:2.1463599 9:-3.1407554 10:-0.51650885 11:4.5728406 12:-1.2625133 13:-0.0045625958 14:8.5387322 15:-1.6496376 16:2.2000477 17:-0.16260423 18:-2.2200191 19:2 20:5.1799998 21:21.800001 22:0 23:15.7 
-0.371323283427067 1:0 2:-1.2775936 3:3.9160064 4:7.1766818 5:1.2011612 6:1.5183792 7:7.1766818 8:4.3303982 9:-2.3509759 10:-2.1367657 11:2.8050599 12:2.3542035 13:3.887357 14:5.5834615 15:-1.1628916 16:2.2102762 17:-1.4366739 18:-1.854817 19:4 20:10.06 21:52.259999 22:0 23:23.440001 
0.4967041447972707 1:0 2:-1.1922256 3:2.3580254 4:2.0701967 5:2.4398852 6:0.11387844 7:4.6234392 8:1.7524164 9:-2.0939229 10:-0.45590186 11:3.3926421 12:2.4611035 13:0.1182033 14:0.64293456 15:-1.6144457 16:1.9937228 17:-2.91809 18:-2.969437 19:1 20:16.92 21:9.8199997 22:0 23:16.92 
0.03278856875790974 1:0 2:15.631781 3:19.495817 4:9.7299244 5:12.380466 6:12.754386 7:17.389652 8:18.840986 9:-3.1407554 10:-3.2965179 11:-3.3250097 12:0.23196895 13:9.0137235 14:4.6663667 15:1.3659993 16:1.741674 17:-1.9610975 18:-2.8835716 19:22 20:7.46 21:208.1916 22:5 23:15.46 
2.161847287362876 1:0 2:1.2922709 3:2.3580254 4:4.6234392 5:1.9940758 6:1.5183792 7:4.6234392 8:1.0012705 9:-2.2933353 10:-2.4501676 11:3.9959324 12:-0.64912599 13:4.771907 14:-0.4007456 15:0.44805554 16:1.7219278 17:-2.7517769 18:-1.4321791 19:0 20:0 21:0 22:0 23:0 
0.1224444139336023 1:0 2:4.7052078 3:5.4739875 4:7.1766818 5:-0.59116954 6:1.5183792 7:7.1766818 8:5.1427788 9:-3.1407554 10:-4.2986739 11:0.050219248 12:-0.43206405 13:6.4669748 14:-0.4007456 15:0.23444242 16:1.3428398 17:-1.0834075 18:-3.1004336 19:3 20:5.1799998 21:19.88 22:3 23:11.16 
0.1700299901485672 1:0 2:1.7413602 3:28.843703 4:7.1766818 5:4.0273047 6:7.1363824 7:12.283167 8:7.9779466 9:-3.1407554 10:-0.56487545 11:-4.9482126 12:0.1456141 13:1.2412826 14:7.6075307 15:1.3242147 16:1.6386743 17:0.075204836 18:-1.6263591 19:2 20:1.02 21:12.44 22:0 23:11.56 
0.6775516707934943 1:0 2:1.1201431 3:7.0319685 4:4.6234392 5:2.773689 6:1.5183792 7:2.0701967 8:0.97473545 9:-3.1407554 10:-0.22416821 11:4.7220207 12:-0.61921476 13:4.243984 14:2.6917257 15:-6.7814964 16:1.8012627 17:-2.2246412 18:-1.8578119 19:1 20:23.959999 21:23.98 22:1 23:23.959999 
0.02250663973622774 1:0 2:8.8455844 3:38.19159 4:30.155865 5:19.296604 6:9.945384 7:22.496137 8:30.13267 9:-3.1407554 10:-4.2864853 11:-0.11116265 12:0.16523878 13:9.0023902 14:0.35850578 15:-5.1476966 16:1.6053147 17:-3.0321452 18:-3.2061886 19:24 20:5.5999999 21:284.9636 22:14 23:24.08 
3.181341373723842 1:0 2:-3.4363222 3:2.3580254 4:2.0701967 5:0.95548813 6:1.5183792 7:2.0701967 8:2.9750698 9:-2.3061046 10:-3.4436109 11:0.26195865 12:2.1860742 13:0.24148194 14:4.2476345 15:-3.4008358 16:2.38233 17:-0.34395698 18:-2.4312315 19:0 20:0 21:0 22:0 23:0 
0.01808483571537237 1:0 2:10.777658 3:19.495817 4:12.283167 5:9.3402745 6:9.945384 7:19.942895 8:13.437879 9:-3.1407554 10:3.4905937 11:-0.27257444 12:-0.018874706 13:9.833734 14:0.51206403 15:-6.6358581 16:1.83674 17:-2.3316853 18:-2.4477996 19:15 20:3.76 21:183.48 22:7 23:23.959999 
-6.842302144086069 1:0 2:2.0974441 3:-0.75793673 4:2.0701967 5:-0.40046465 6:0.11387844 7:2.0701967 8:3.7731622 9:-2.1019212 10:-0.15484626 11:2.6065386 12:2.9780959 13:4.150734 14:-0.087619904 15:-3.33377 16:1.9449473 17:-3.1138455 18:-2.0646688 19:0 20:0 21:0 22:0 23:0 
0.2610800867532929 1:0 2:0.5208623 3:0.80004433 4:4.6234392 5:0.77944356 6:2.92288 7:9.7299244 8:4.2140523 9:-3.1407554 10:-0.51644785 11:4.5731163 12:-1.2617287 13:5.5108966 14:-0.085549562 15:-7.4596637 16:1.8723169 17:-1.9612494 18:-2.5974236 19:1 20:10.24 21:10 22:2 23:17.540001 
1.731721674223164 1:0 2:1.230393 3:2.3580254 4:2.0701967 5:-0.76157374 6:0.11387844 7:2.0701967 8:1.1298634 9:-3.1407554 10:3.4918165 11:0.052511288 12:-0.40664038 13:4.8031309 14:3.342057 15:-6.0138603 16:1.9632553 17:-2.1660383 18:-2.3645869 19:2 20:12.24 21:21.76 22:0 23:13.66 
-1.320861100795693 1:0 2:2.3976031 3:2.3580254 4:7.1766818 5:-1.2157402 6:0.11387844 7:4.6234392 8:4.3487686 9:-3.1407554 10:3.4900634 11:-0.38377575 12:-0.35244675 13:5.0392356 14:-0.4007456 15:-6.1653857 16:2.0030576 17:-2.3223068 18:-2.57423 19:1 20:18.799999 21:18.42 22:0 23:18.799999 
0.004819865608448864 1:0 2:14.318023 3:27.285722 4:22.496137 5:9.8017469 6:11.349885 7:25.04938 8:22.298707 9:-3.1407554 10:-0.27362874 11:4.677995 12:-0.88804157 13:5.7728815 14:-0.04229955 15:-1.7412447 16:1.5437049 17:0.99930751 18:-2.934213 19:14 20:6.5 21:156.34 22:6 23:17 
-1.058928100438899 1:0 2:-2.9359263 3:7.0319685 4:7.1766818 5:-0.55218157 6:0.11387844 7:4.6234392 8:0.43995218 9:-2.6937876 10:-3.3062535 11:-3.3379269 12:0.092087721 13:6.0144946 14:3.2615407 15:-5.2619034 16:1.9998136 17:-2.2398821 18:-3.180481 19:0 20:0 21:0 22:0 23:0 
0.03810404776993305 1:0 2:3.3490138 3:7.0319685 4:4.6234392 5:2.0309871 6:0.11387844 7:4.6234392 8:11.680606 9:-2.7948737 10:-0.24311625 11:4.7259128 12:-0.59630058 13:2.1711909 14:8.4366511 15:1.2581157 16:1.7357201 17:-0.62498798 18:-1.7741011 19:0 20:0 21:0 22:0 23:0 
0.462528247976438 1:0 2:-0.3304685 3:5.4739875 4:4.6234392 5:0.26425211 6:4.3273808 7:2.0701967 8:0.89513029 9:-2.3221343 10:-3.1470459 11:0.16958247 12:2.5212274 13:5.2583524 14:-0.4007456 15:-4.1120659 16:1.8278609 17:-2.7743774 18:-3.1042068 19:0 20:0 21:0 22:0 23:0 
-1.535106122078653 1:0 2:0.92670934 3:2.3580254 4:4.6234392 5:0.24410269 6:0.11387844 7:4.6234392 8:2.8689295 9:-2.2463256 10:-3.161496 11:3.1122458 12:-1.185769 13:1.5388842 14:0.75421261 15:-1.0403129 16:2.2312753 17:-0.6834217 18:-2.1619293 19:1 20:6.48 21:3.04 22:1 23:6.48 
3.215654482661586 1:0 2:-0.048046544 3:-0.75793673 4:-0.48304589 5:1.4184204 6:0.11387844 7:-0.48304589 8:-0.38059311 9:0.48295185 10:-0.40403984 11:-0.11116265 12:-0.22546744 13:-0.26870701 14:-0.4007456 15:0.44190983 16:-0.48187915 17:0.42608139 18:0.47532056 19:0 20:0 21:0 22:0 23:0 
0.004521641033733003 1:0 2:6.156632 3:8.5899496 4:7.1766818 5:5.2628637 6:2.92288 7:9.7299244 8:11.560627 9:-3.1407554 10:-0.17451198 11:4.6781736 12:-0.86009511 13:6.7594822 14:-0.072076744 15:-0.38049753 16:1.8805434 17:-2.72614 18:-2.0627549 19:10 20:1.0599999 21:120.62 22:1 23:11.38 
0.02974335769776533 1:0 2:2.0488523 3:11.705912 4:12.283167 5:-0.63914781 6:1.5183792 7:7.1766818 8:4.5059378 9:-3.1407554 10:-0.50751281 11:-4.8292217 12:0.70950847 13:0.38430116 14:2.0562712 15:-0.54717756 16:1.9343432 17:-0.076747802 18:-2.4707822 19:4 20:8.8000002 21:46.6 22:2 23:11.4 
-0.7211545207255855 1:0 2:0.052384462 3:3.9160064 4:4.6234392 5:-1.0004481 6:0.11387844 7:4.6234392 8:2.0055199 9:-3.1407554 10:-0.23656653 11:4.6841334 12:-0.85059552 13:6.1389482 14:0.28491959 15:-7.9418388 16:1.9679891 17:-1.1578584 18:-1.6581599 19:4 20:10.44 21:49.9 22:0 23:25.42 
0.008827123996947475 1:0 2:9.522248 3:24.16976 4:22.496137 5:10.605251 6:8.5408832 7:19.942895 8:15.066437 9:-3.1407554 10:3.4697553 11:-0.45394836 12:-0.60523235 13:9.0336606 14:5.9855285 15:-3.6273911 16:2.0802051 17:-1.7611494 18:-1.7444348 19:15 20:1.02 21:120.4316 22:12 23:22.360001 
-1.132234635149679 1:0 2:0.24111145 3:-0.75793673 4:2.0701967 5:-0.76157374 6:0.11387844 7:2.0701967 8:1.1298634 9:-3.1407554 10:3.4918165 11:0.052511288 12:-0.40664038 13:2.8058741 14:3.342057 15:-6.0138603 16:1.9632553 17:-2.1660383 18:-2.3645869 19:2 20:12.24 21:21.76 22:0 23:13.66 
-0.9816388930670755 1:0 2:4.3139866 3:10.147931 4:4.6234392 5:3.8714366 6:0.11387844 7:2.0701967 8:3.3873835 9:-2.0932896 10:-1.9311399 11:2.381305 12:2.735943 13:-0.26870701 14:3.6733083 15:-1.8056715 16:2.2689388 17:-0.96091574 18:-3.032368 19:0 20:0 21:0 22:0 23:0 
-7.132540174439306 1:0 2:1.0303307 3:-0.75793673 4:2.0701967 5:1.2022295 6:1.5183792 7:2.0701967 8:0.17868403 9:-2.109455 10:2.0485262 11:1.8969893 12:2.3284846 13:-0.26870701 14:3.2118802 15:-1.270991 16:1.979296 17:-1.9777496 18:-1.8797216 19:0 20:0 21:0 22:0 23:0 
0.03177927398321172 1:0 2:1.4111475 3:8.5899496 4:9.7299244 5:7.4719374 6:2.92288 7:7.1766818 8:10.475752 9:-3.1407554 10:-0.24341393 11:4.7259281 12:-0.59630176 13:4.1585493 14:-0.4007456 15:-4.7305624 16:1.5708975 17:-2.9911361 18:-1.822987 19:3 20:6.9000001 21:26.919999 22:1 23:8.9200001 
0.01271351503229753 1:0 2:10.086185 3:24.16976 4:17.389652 5:9.2262896 6:5.7318816 7:14.83641 8:19.835479 9:-3.1407554 10:-0.17451198 11:4.6781736 12:-0.86009511 13:11.397627 14:-0.072076744 15:-0.38049753 16:1.8805434 17:-2.72614 18:-2.0627549 19:18 20:1.0599999 21:181.0832 22:9 23:22.360001 
3.443181260352267 1:0 2:-1.5854635 3:2.3580254 4:2.0701967 5:-0.7080894 6:0.11387844 7:2.0701967 8:0.23175412 9:-2.1273145 10:-0.46125636 11:3.0221173 12:2.7372547 13:0.46343838 14:-0.4007456 15:1.6452204 16:1.5071065 17:-0.9499053 18:-3.0917684 19:0 20:0 21:0 22:0 23:0 
0.4643922979214564 1:0 2:0.23604286 3:7.0319685 4:4.6234392 5:2.4089698 6:1.5183792 7:4.6234392 8:2.4015045 9:-3.1407554 10:-0.23625364 11:4.6840531 12:-0.85090463 13:5.4551553 14:-0.016351678 15:-4.5228473 16:1.9214126 17:-2.2809565 18:-2.3594977 19:3 20:10.44 21:44.7 22:0 23:25.42 
0.1178272378366727 1:0 2:6.8556788 3:5.4739875 4:7.1766818 5:0.066037546 6:4.3273808 7:12.283167 8:13.89118 9:-3.1407554 10:3.4871315 11:-0.11116265 12:-0.51835917 13:-0.12772809 14:2.0060267 15:-0.81826668 16:1.8882879 17:0.28311207 18:-1.5708569 19:2 20:5.3600001 21:9.9799995 22:3 23:16.620001 
0.0175868444373291 1:0 2:1.0944547 3:16.379855 4:17.389652 5:6.6637259 6:2.92288 7:9.7299244 8:9.8313174 9:-3.1407554 10:-0.29147707 11:-4.795363 12:0.81100317 13:2.3837608 14:10.298427 15:-0.12277924 16:1.789142 17:0.14922435 18:-1.5366094 19:3 20:5.6399999 21:65.980002 22:3 23:28.219999 
0.01543532826158894 1:0 2:5.3460857 3:33.517646 4:19.942895 5:7.6969909 6:9.945384 7:17.389652 8:8.5265689 9:-3.1407554 10:-4.236512 11:0.51728754 12:0.3056228 13:4.9922695 14:5.8617246 15:0.12047338 16:1.5212846 17:1.1256028 18:-1.4609968 19:5 20:8.4799995 21:82.9 22:4 23:20.02 
0.003512167863041134 1:0 2:8.5243281 3:27.285722 4:22.496137 5:16.501935 6:9.945384 7:17.389652 8:15.509817 9:-3.1407554 10:3.4943388 11:-0.28915893 12:-0.12378801 13:10.517936 14:-0.4007456 15:0.28218648 16:1.2219086 17:-2.299527 18:-3.2631365 19:9 20:9.1800003 21:125.58 22:6 23:20.6 
0.9028790269801485 1:0 2:2.7621842 3:3.9160064 4:4.6234392 5:5.6031655 6:4.3273808 7:9.7299244 8:9.7925356 9:-2.6131493 10:-0.81047114 11:-1.5795333 12:3.4460544 13:-0.26870701 14:5.9789903 15:-0.88068547 16:2.1239079 17:0.23510046 18:-2.1874087 19:0 20:0 21:0 22:0 23:0 
0.01772267468493963 1:0 2:9.1860732 3:30.401684 4:19.942895 5:13.575876 6:9.945384 7:12.283167 8:21.875534 9:-3.1407554 10:3.4284846 11:-0.73962139 12:-0.75617901 13:10.417388 14:5.0376452 15:-1.411004 16:1.654142 17:-2.6949306 18:-3.0865179 19:10 20:3.4400001 21:103.06 22:1 23:9 
0.01859262099214522 1:0 2:4.5590953 3:10.147931 4:9.7299244 5:6.459056 6:5.7318816 7:12.283167 8:12.436161 9:-3.1407554 10:-0.23656653 11:4.6841334 12:-0.85059552 13:6.1389482 14:0.28491959 15:-7.9418388 16:1.9679891 17:-1.1578584 18:-1.6581599 19:10 20:6.6999998 21:143.16 22:1 23:6.6999998 
