svm_type epsilon_svr
kernel_type rbf
gamma 0.0434783
nr_class 2
total_sv 30
rho -0.636812
SV
-0.03032507072966532 1:0 2:9.964053 3:1 4:1.4832397 5:4.2670261 6:1 7:1.4832397 8:-0.19822547 9:-1.4324789 10:-1.5911391 11:-0.31019874 12:-1.5743118 13:13.410441 14:1.4980751 15:-0.69452128 16:0.43773788 17:-1.6660826 18:-1.6753241 19:0 20:0 21:0 22:0 23:0 
-0.01829175993484352 1:0 2:6.2648403 3:3 4:1.4832397 5:2.0663233 6:1 7:1.4832397 8:2.8572587 9:-1.5019632 10:-1.0802151 11:-3.7806453 12:-1.0131319 13:34.726497 14:2.083844 15:-1.5137841 16:1.1065652 17:-1.6398695 18:-1.3713577 19:0 20:0 21:0 22:0 23:0 
0.1001093131425633 1:0 2:4.5605186 3:0 4:1.4832397 5:4.4354408 6:3 7:3.6406793 8:17.212954 9:-2.0116695 10:0.16378963 11:-5.620128 12:1.3766056 13:14.727242 14:29.483317 15:-1.7096689 16:1.5127952 17:-1.3616061 18:-1.6198833 19:0 20:0 21:0 22:0 23:0 
0.01723625393561381 1:0 2:7.5348105 3:0 4:1.4832397 5:3.6067649 6:2 7:1.4832397 8:3.1548239 9:-2.3087391 10:-2.127142 11:-3.8658128 12:-0.70408912 13:5.6266684 14:-0.6729901 15:-1.7231066 16:2.9173818 17:-1.2355758 18:-1.658396 19:0 20:0 21:0 22:0 23:0 
0.105455505597943 1:0 2:14.19337 3:1 4:3.6406793 5:2.9764297 6:2 7:3.6406793 8:12.46643 9:-2.4403678 10:0.71307788 11:-5.8775738 12:0.93444963 13:10.357233 14:-0.6729901 15:-0.2480635 16:2.6421526 17:-1.133699 18:-1.4277768 19:0 20:0 21:0 22:0 23:0 
0.03966917300400376 1:0 2:0.28207162 3:0 4:1.4832397 5:3.9011759 6:1 7:1.4832397 8:2.1024598 9:-1.3374792 10:-3.5660493 11:-3.8687713 12:0.35261835 13:1.5047653 14:1.2122601 15:-1.1838478 16:0.55198658 17:-1.6125754 18:-1.6536081 19:0 20:0 21:0 22:0 23:0 
-0.0360110380058127 1:0 2:21.552211 3:1 4:-0.67419986 5:7.5481717 6:2 7:-0.67419986 8:-0.66271713 9:0.67378876 10:0.65951488 11:0.43016296 12:0.66774421 13:-0.37796447 14:-0.6729901 15:0.60360606 16:-0.66417327 17:0.67294547 18:0.6712578 19:0 20:0 21:0 22:0 23:0 
-0.03475594986917356 1:0 2:21.552211 3:1 4:-0.67419986 5:-1.1792203 6:0 7:-0.67419986 8:-0.66271713 9:0.67378876 10:0.65951488 11:0.43016296 12:0.66774421 13:-0.37796447 14:-0.6729901 15:0.60360606 16:-0.66417327 17:0.67294547 18:0.6712578 19:0 20:0 21:0 22:0 23:0 
0.02954243814904109 1:0 2:5.3468285 3:1 4:3.6406793 5:5.9328227 6:2 7:3.6406793 8:17.996784 9:-1.8634687 10:0.35251877 11:6.5356183 12:0.012570301 13:8.1771139 14:18.740895 15:-2.0963411 16:1.9478063 17:-1.7327801 18:-1.5551315 19:0 20:0 21:0 22:0 23:0 
-0.4053779929175902 1:0 2:-0.97824881 3:0 4:1.4832397 5:0.50183236 6:0 7:1.4832397 8:1.0791267 9:-1.4087644 10:-1.0196667 11:-0.66639408 12:-1.6399011 13:2.6457513 14:1.5970454 15:-2.3020347 16:1.1222559 17:-1.359021 18:-1.6805781 19:0 20:0 21:0 22:0 23:0 
-0.005839440788376882 1:0 2:2.6420789 3:1 4:1.4832397 5:20.497603 6:4 7:1.4832397 8:1.6089375 9:-1.1532651 10:-4.7413034 11:-1.9700703 12:0.64530153 13:7.1718175 14:-0.6729901 15:-3.9952338 16:3.4403305 17:-1.5453267 18:-1.5223638 19:0 20:0 21:0 22:0 23:0 
0.1598622032255729 1:0 2:36.510798 3:0 4:1.4832397 5:22.036625 6:4 7:3.6406793 8:13.533309 9:-2.7956944 10:6.4881519 11:0.19792592 12:0.73203525 13:12.048197 14:0.8799272 15:-0.22282483 16:1.8109573 17:-1.1145056 18:-1.7114314 19:2 20:16.5 21:35.24 22:1 23:9.0200005 
-0.02379688216847127 1:0 2:8.2312683 3:3 4:-0.67419986 5:-1.5442323 6:0 7:-0.67419986 8:-0.66271713 9:0.67378876 10:0.65951488 11:0.43016296 12:0.66774421 13:-0.37796447 14:-0.6729901 15:0.60360606 16:-0.66417327 17:0.67294547 18:0.6712578 19:0 20:0 21:0 22:0 23:0 
-0.4015737293634073 1:0 2:2.2374922 3:0 4:1.4832397 5:0.46882009 6:0 7:1.4832397 8:1.8121526 9:-1.5470033 10:-1.8460264 11:0.10697965 12:-1.5411509 13:-0.37796447 14:1.4479391 15:-0.72382916 16:1.8092371 17:-1.6029021 18:-1.3288273 19:0 20:0 21:0 22:0 23:0 
0.2476673690115718 1:0 2:26.482195 3:2 4:3.6406793 5:18.377182 6:4 7:3.6406793 8:21.277256 9:-2.7956944 10:0.046905039 11:-5.868352 12:0.51674417 13:22.866361 14:28.001462 15:-0.89280687 16:2.1764964 17:-1.0166362 18:-1.5881126 19:1 20:3.5599999 21:3.76 22:1 23:3.5599999 
0.003385684180358193 1:0 2:5.3468285 3:1 4:3.6406793 5:4.5759004 6:1 7:1.4832397 8:8.5037353 9:-1.6419778 10:-5.0706541 11:1.2497612 12:1.0034718 13:1.1221936 14:1.113076 15:-5.9203605 16:1.6974236 17:-1.7263929 18:-1.3772096 19:0 20:0 21:0 22:0 23:0 
-0.02887075449130322 1:0 2:12.896542 3:1 4:-0.67419986 5:0.42606048 6:1 7:-0.67419986 8:-0.66271713 9:0.67378876 10:0.65951488 11:0.43016296 12:0.66774421 13:-0.37796447 14:-0.6729901 15:0.60360606 16:-0.66417327 17:0.67294547 18:0.6712578 19:0 20:0 21:0 22:0 23:0 
0.05670460704407426 1:0 2:2.1630944 3:0 4:1.4832397 5:18.812581 6:4 7:3.6406793 8:20.667611 9:-1.6986868 10:-0.56075686 11:-5.7628193 12:0.51635715 13:1.9314793 14:34.776681 15:-2.4870124 16:1.7603119 17:-1.6902742 18:-1.546665 19:0 20:0 21:0 22:0 23:0 
0.05827077856555712 1:0 2:1.6078901 3:1 4:3.6406793 5:-1.2811023 6:0 7:1.4832397 8:9.0335463 9:-2.7956944 10:1.2780943 11:-5.5209466 12:1.4775302 13:14.089466 14:5.6486192 15:0.41430387 16:1.904603 17:-1.1619189 18:-1.7103108 19:1 20:6.98 21:6.7600002 22:0 23:6.98 
0.1299561979341868 1:0 2:42.876186 3:2 4:3.6406793 5:30.981241 6:5 7:3.6406793 8:8.0750969 9:-2.7956944 10:-5.174026 11:0.43016296 12:0.6220394 13:12.855054 14:1.1859436 15:-4.3842205 16:2.9786019 17:-1.5492556 18:-1.0994776 19:2 20:6.7199998 21:13.86 22:2 23:8.8599997 
0.004034916100007502 1:0 2:4.5210643 3:2 4:5.7981188 5:7.8656774 6:3 7:5.7981188 8:16.327517 9:-1.7181123 10:0.42999803 11:6.3390199 12:-0.2202935 13:17.01119 14:23.458675 15:-1.8107681 16:1.8922551 17:-1.5559917 18:-1.7583637 19:0 20:0 21:0 22:0 23:0 
0.05724962803685335 1:0 2:9.5704882 3:2 4:5.7981188 5:6.12557 6:3 7:3.6406793 8:9.0843504 9:-2.7956944 10:6.3896835 11:-0.38919899 12:0.33193025 13:15.028954 14:1.5581572 15:-0.78877172 16:2.8413327 17:-0.84812575 18:-0.62893921 19:2 20:7.52 21:15.44 22:0 23:9.3199997 
-0.02036714217807354 1:0 2:8.1751868 3:1 4:3.6406793 5:7.9772647 6:3 7:3.6406793 8:12.77851 9:-2.7956944 10:6.4881519 11:0.19793077 12:0.73203525 13:-0.37796447 14:2.0304463 15:-0.48088379 16:0.27675406 17:-1.1240366 18:-1.6802933 19:1 20:7.7800002 21:6.96 22:1 23:9.0200005 
-0.01086176014868284 1:0 2:-0.85094817 3:0 4:1.4832397 5:3.1025692 6:1 7:1.4832397 8:0.97026138 9:-1.6045596 10:-3.9163641 11:-0.2203058 12:-0.83126755 13:4.2372812 14:26.276708 15:-3.4342677 16:0.90616946 17:-1.4872726 18:-1.3771098 19:0 20:0 21:0 22:0 23:0 
-0.01839125195719942 1:0 2:2.1809008 3:0 4:-0.67419986 5:5.6356197 6:0 7:-0.67419986 8:-0.66271713 9:0.67378876 10:0.65951488 11:0.43016296 12:0.66774421 13:-0.37796447 14:-0.6729901 15:0.60360606 16:-0.66417327 17:0.67294547 18:0.6712578 19:0 20:0 21:0 22:0 23:0 
-0.03128768141294128 1:0 2:2.9328491 3:1 4:-0.67419986 5:14.661945 6:2 7:-0.67419986 8:-0.66271713 9:0.67378876 10:0.65951488 11:0.43016296 12:0.66774421 13:-0.37796447 14:-0.6729901 15:0.60360606 16:-0.66417327 17:0.67294547 18:0.6712578 19:0 20:0 21:0 22:0 23:0 
-0.01775903366425208 1:0 2:3.4915604 3:0 4:1.4832397 5:6.6303165 6:2 7:1.4832397 8:0.64366564 9:-2.0225926 10:1.8794896 11:-5.6885741 12:1.0668437 13:3.7608056 14:1.5543319 15:0.098333608 16:1.5714542 17:-1.0575945 18:-1.1956941 19:0 20:0 21:0 22:0 23:0 
0.05005311365749057 1:0 2:-0.17329253 3:0 4:1.4832397 5:3.7105421 6:3 7:3.6406793 8:10.267352 9:-2.7956944 10:1.2780559 11:-5.5209496 12:1.4775321 13:1.7289204 14:21.777586 15:-3.1081086 16:1.4553449 17:-1.7754446 18:-1.2628993 19:1 20:9.3599997 21:9.7799997 22:0 23:9.3599997 
-0.03126196336230541 1:0 2:6.2264038 3:0 4:-0.67419986 5:19.647892 6:4 7:-0.67419986 8:-0.66271713 9:0.67378876 10:0.65951488 11:0.43016296 12:0.66774421 13:-0.37796447 14:-0.6729901 15:0.60360606 16:-0.66417327 17:0.67294547 18:0.6712578 19:0 20:0 21:0 22:0 23:0 
0.05557426940726101 1:0 2:2.9618477 3:1 4:3.6406793 5:3.9011759 6:1 7:3.6406793 8:13.663947 9:-2.7956944 10:0.92903871 11:6.7362226 12:0.41877825 13:2.4298105 14:17.841663 15:-4.6661772 16:0.96927132 17:-1.6488042 18:-1.0481073 19:1 20:10.42 21:10.36 22:0 23:10.42 
