svm_type epsilon_svr
kernel_type rbf
gamma 0.00201808
nr_class 2
total_sv 104
rho -0.884059
SV
-5.994842503189409 1:0 2:0.37843913 3:0.87287156 4:0.29704426 5:-0.36653102 6:-0.48304589 7:0.16666667 8:0.67683502 9:-0.99475975 10:-2.8779194 11:0.96268924 12:1.2779509 13:-0.15018971 14:1.1081759 15:-0.45067036 16:0.47333652 17:0.33565589 18:-0.86364374 19:0.87287156 20:1.0846869 21:0.17450867 22:1.7638342 23:1.0846869 
-0.1459390057732081 1:0 2:1.2220134 3:4.9099025 4:7.6241361 5:-0.43531106 6:4.6234392 7:3.25 8:0.17229395 9:-0.99475975 10:-2.869828 11:0.88727206 12:1.4393714 13:-0.54383169 14:-1.7027519 15:-0.2364285 16:0.3249422 17:0.31841261 18:0.1125713 19:7.6012565 20:2.2402741 21:8.9931173 22:11.086958 23:6.6368191 
-3.067192259513896 1:0 2:-0.52021099 3:2.891387 4:0.29704426 5:0.64728896 6:9.7299244 7:3.25 8:0.83450418 9:-0.51667639 10:-2.1164832 11:-0.43704971 12:1.1387324 13:-0.77245458 14:0.80871412 15:-0.28712531 16:0.34497532 17:2.0603572 18:0.028480504 19:-0.47280543 20:-0.40296574 21:-0.37546393 22:-0.56694671 23:-0.40296574 
-4.528254440965788 1:0 2:0.8036538 3:6.928418 4:7.6241361 5:1.2267322 6:4.6234392 7:3.25 8:3.5668168 9:-0.52476169 10:0.83195076 11:0.34130869 12:-1.1401119 13:2.5739257 14:-0.43108157 15:-0.22954125 16:0.87107572 17:-1.012531 18:0.11020699 19:2.2185486 20:2.432872 21:2.2958316 22:-0.56694671 23:5.5941336 
0.7471689199674287 1:0 2:-1.382684 3:2.891387 4:7.6241361 5:5.3014225 6:7.1766818 7:6.3333333 8:4.3440327 9:-0.99475975 10:-2.869828 11:0.88727206 12:1.4393714 13:0.72102049 14:1.5139462 15:-0.2364285 16:0.3249422 17:0.31841261 18:0.1125713 19:3.5642255 20:6.231699 21:7.076546 22:1.7638342 23:6.231699 
5.994842503189409 1:0 2:2.7450669 3:0.87287156 4:0.29704426 5:-2.6048859 6:-0.48304589 7:0.16666667 8:-0.49177117 9:0.12748877 10:0.80608809 11:-0.05511185 12:-0.97514435 13:-0.77245458 14:-0.77011087 15:-0.39084183 16:-0.63893228 17:0.023607397 18:-0.96592679 19:-0.47280543 20:-0.40296574 21:-0.37546393 22:-0.56694671 23:-0.40296574 
5.994842503189409 1:0 2:1.082951 3:2.891387 4:3.9605902 5:-1.7327468 6:-0.48304589 7:0.16666667 8:1.1220184 9:0.14871536 10:-0.67580292 11:-0.53105582 12:-0.34058485 13:2.5295944 14:-0.72722045 15:-0.20485852 16:0.46533958 17:0.93565556 18:0.24297949 19:-0.47280543 20:-0.40296574 21:-0.37546393 22:-0.56694671 23:-0.40296574 
-0.3251438087670626 1:0 2:2.2509923 3:12.983964 4:11.287682 5:-3.868995 6:9.7299244 7:6.3333333 8:-0.0020694974 9:-0.99475975 10:-2.8615972 11:0.88727206 12:1.5019899 13:-0.77245458 14:-0.59780749 15:0.33937591 16:1.5008806 17:-4.9894304 18:-1.5154222 19:2.2185486 20:1.9812631 21:1.8958515 22:1.7638342 23:1.9812631 
-0.1247432739479385 1:0 2:0.48261121 3:-1.1456439 4:0.29704426 5:-1.7327468 6:-0.48304589 7:0.16666667 8:-0.38418521 9:0.14871536 10:-0.67580292 11:-0.53105582 12:-0.34058485 13:1.1679506 14:-0.72722045 15:-0.20485852 16:0.46533958 17:0.93565556 18:0.24297949 19:-0.47280543 20:-0.40296574 21:-0.37546393 22:-0.56694671 23:-0.40296574 
3.77118073192099 1:0 2:-0.049066484 3:-1.1456439 4:0.29704426 5:-0.9818272 6:2.0701967 7:3.25 8:0.59521815 9:-0.99475975 10:0.95571043 11:3.0475516 12:1.0012168 13:0.44210675 14:-0.19137413 15:0.32559171 16:1.7424191 17:-0.20985256 18:-1.3658801 19:3.5642255 20:2.5457743 21:4.1695478 22:6.425396 23:6.1586449 
-3.150303841937612 1:0 2:1.9191327 3:2.891387 4:0.29704426 5:-7.0578549 6:-0.48304589 7:0.16666667 8:-0.59193741 9:-0.99475975 10:1.0021212 11:3.0279631 12:0.84757192 13:-0.60419516 14:-1.7566006 15:-0.19327471 16:-1.8659632 17:1.6953976 18:-0.28126987 19:2.2185486 20:3.1833397 21:0.82447631 22:-0.56694671 23:3.7478506 
3.513616741179428 1:0 2:-1.5457466 3:-1.1456439 4:0.29704426 5:-6.7243401 6:2.0701967 7:0.16666667 8:-1.4118167 9:-0.99475975 10:-2.8779282 11:0.96251118 12:1.2780604 13:-0.56797567 14:-1.5907881 15:0.4101812 16:2.2218912 17:-3.2779185 18:-0.038995922 19:0.87287156 20:1.4366761 21:0.32926289 22:1.7638342 23:1.4366761 
0.9451544543840426 1:0 2:-1.7691482 3:0.87287156 4:3.9605902 5:2.7564783 6:2.0701967 7:0.16666667 8:0.0044598657 9:-0.99475975 10:-2.8616236 11:0.88727206 12:1.5018145 13:-0.11555707 14:-0.53919201 15:0.37005258 16:1.870505 17:0.26603034 18:-1.5564099 19:4.9099025 20:3.2099049 21:5.543289 22:-0.56694671 23:4.365492 
-1.861134166918964 1:0 2:0.48261121 3:-1.1456439 4:0.29704426 5:-1.7327468 6:-0.48304589 7:0.16666667 8:-0.38418521 9:0.14871536 10:-0.67580292 11:-0.53105582 12:-0.34058485 13:1.1679506 14:-0.72722045 15:-0.20485852 16:0.46533958 17:0.93565556 18:0.24297949 19:-0.47280543 20:-0.40296574 21:-0.37546393 22:-0.56694671 23:-0.40296574 
3.322467479018662 1:0 2:-0.64484821 3:2.891387 4:3.9605902 5:0.39606155 6:2.0701967 7:3.25 8:1.0218522 9:-0.99475975 10:1.0007018 11:3.0335868 12:0.88771537 13:0.56618803 14:1.0624405 15:-0.073953026 16:0.86511999 17:2.2601082 18:-0.71416549 19:2.2185486 20:2.0211111 21:1.6006282 22:-0.56694671 23:2.9376114 
0.3654978889441541 1:0 2:1.3766557 3:15.00248 4:11.287682 5:4.1890334 6:12.283167 7:6.3333333 8:3.053706 9:-0.99475975 10:0.80001555 11:3.0191072 12:0.76879068 13:1.6964102 14:1.3385964 15:-0.00048706536 16:0.49739649 17:-3.4909128 18:-0.87519127 19:3.5642255 20:3.5087635 21:3.4100618 22:-0.56694671 23:5.7933729 
0.9571335947782659 1:0 2:1.4304386 3:6.928418 4:3.9605902 5:5.8388922 6:4.6234392 7:6.3333333 8:5.7445052 9:-0.99475975 10:1.1711594 11:3.0449813 12:1.4048587 13:1.7071786 14:2.3066782 15:-0.27952589 16:0.70348594 17:-0.43783331 18:-0.12675331 19:-0.47280543 20:-0.40296574 21:-0.37546393 22:4.0946151 23:8.9081459 
-1.427895411717495 1:0 2:-0.10922636 3:0.87287156 4:3.9605902 5:2.5351907 6:2.0701967 7:0.16666667 8:0.048013679 9:-0.99475975 10:0.75276676 11:3.0481276 12:0.98333497 13:0.74329065 14:-1.7138113 15:-0.012829735 16:1.2708251 17:-2.8611843 18:-0.34081443 19:-0.47280543 20:-0.40296574 21:-0.37546393 22:1.7638342 23:6.0391012 
1.911474887897252 1:0 2:-0.021826529 3:2.891387 4:3.9605902 5:0.67434393 6:2.0701967 7:0.16666667 8:1.5876059 9:-0.99475975 10:0.5719898 11:-1.2590326 12:1.6173345 13:1.2915268 14:0.49803512 15:-0.38513433 16:-0.18926273 17:0.58898286 18:-0.3411477 19:0.87287156 20:4.6112206 21:1.5506307 22:1.7638342 23:4.6112206 
3.37158068479448 1:0 2:3.2694708 3:2.891387 4:0.29704426 5:-2.6048859 6:-0.48304589 7:0.16666667 8:-0.49177117 9:0.12748877 10:0.80608809 11:-0.05511185 12:-0.97514435 13:3.0074885 14:-0.77011087 15:-0.39084183 16:-0.63893228 17:0.023607397 18:-0.96592679 19:-0.47280543 20:-0.40296574 21:-0.37546393 22:-0.56694671 23:-0.40296574 
-0.1283925366548709 1:0 2:-0.7025902 3:0.87287156 4:0.29704426 5:0.068226777 6:-0.48304589 7:0.16666667 8:1.5356679 9:-0.99475975 10:0.88358781 11:2.9961084 12:0.65594044 13:-0.10338447 14:0.74011149 15:-0.44172948 16:-0.17003317 17:0.075040411 18:0.3055932 19:0.87287156 20:-0.031052591 21:-0.12785722 22:1.7638342 23:-0.031052591 
0.05287570432445907 1:0 2:-1.1841631 3:8.9469335 4:14.951228 5:5.8144171 6:12.283167 7:6.3333333 8:8.7550577 9:-0.99475975 10:-2.8616302 11:0.88727206 12:1.5017712 13:2.9444861 14:0.1663814 15:0.3629745 16:1.7932863 17:-4.101566 18:-1.2065755 19:4.9099025 20:1.8417958 21:4.5361962 22:4.0946151 23:3.8209051 
-0.3945766561857046 1:0 2:3.9409621 3:12.983964 4:3.9605902 5:4.8854902 6:7.1766818 7:3.25 8:2.2553808 9:-0.99475975 10:-2.8766037 11:0.96682668 12:1.1876734 13:1.8933708 14:3.2408984 15:-0.26406749 16:0.3945328 17:-0.39133461 18:-1.4226844 19:0.87287156 20:0.9983498 21:0.093560339 22:1.7638342 23:0.9983498 
-5.627226727775833 1:0 2:-0.7025902 3:0.87287156 4:0.29704426 5:0.068226777 6:-0.48304589 7:0.16666667 8:1.5356679 9:-0.99475975 10:0.88358781 11:2.9961084 12:0.65594044 13:-0.10338447 14:0.74011149 15:-0.44172948 16:-0.17003317 17:0.075040411 18:0.3055932 19:0.87287156 20:-0.031052591 21:-0.12785722 22:1.7638342 23:-0.031052591 
0.6215037452603477 1:0 2:1.3069999 3:15.00248 4:11.287682 5:-2.9911026 6:22.496137 7:6.3333333 8:0.91983093 9:-0.99475975 10:0.63502916 11:-1.2747581 12:1.4890911 13:1.5977824 14:3.385514 15:0.016133525 16:0.23153253 17:-3.1220184 18:-0.57022727 19:0.87287156 20:5.7003944 21:1.8434731 22:1.7638342 23:5.7003944 
0.3871397997982357 1:0 2:1.3049071 3:4.9099025 4:11.287682 5:4.872507 6:9.7299244 7:3.25 8:5.644339 9:-0.99475975 10:0.57196691 11:-1.2590265 12:1.6173741 13:1.7602566 14:4.5860844 15:-0.36289661 16:0.13018198 17:1.1683705 18:0.25114107 19:3.5642255 20:3.7412092 21:5.5528122 22:4.0946151 23:3.7412092 
-0.8498328172656804 1:0 2:1.8147603 3:-1.1456439 4:0.29704426 5:-0.23555971 6:-0.48304589 7:0.16666667 8:0.16672921 9:-0.02389042 10:0.39124645 11:0.77858526 12:-1.2020382 13:-0.59957403 14:0.77478228 15:-0.4414606 16:-0.86514561 17:1.0141236 18:0.10299318 19:-0.47280543 20:-0.40296574 21:-0.37546393 22:-0.56694671 23:-0.40296574 
5.994842503189409 1:0 2:-0.45510998 3:0.87287156 4:0.29704426 5:-0.35142762 6:2.0701967 7:0.16666667 8:-1.3357646 9:-0.38855829 10:0.52114825 11:-0.97444385 12:-0.011244081 13:-0.57277546 14:0.45637096 15:-0.36572851 16:0.095808848 17:1.0647903 18:-0.64816259 19:-0.47280543 20:-0.40296574 21:-0.37546393 22:-0.56694671 23:-0.40296574 
5.994842503189409 1:0 2:2.6201922 3:0.87287156 4:0.29704426 5:-2.6048859 6:-0.48304589 7:0.16666667 8:-0.49177117 9:0.12748877 10:0.80608809 11:-0.05511185 12:-0.97514435 13:-0.77245458 14:-0.77011087 15:-0.39084183 16:-0.63893228 17:0.023607397 18:-0.96592679 19:-0.47280543 20:-0.40296574 21:-0.37546393 22:-0.56694671 23:-0.40296574 
-2.103280166653571 1:0 2:-1.6408746 3:2.891387 4:7.6241361 5:-0.78708396 6:7.1766818 7:3.25 8:-0.56782327 9:0.31405323 10:-1.1703627 11:0.063893838 12:-0.6167327 13:0.11203185 14:1.6094439 15:0.19217286 16:1.3638627 17:2.9176685 18:-1.5074369 19:6.2555795 20:3.867394 21:7.019406 22:6.425396 23:6.829417 
0.1421144340378234 1:0 2:0.46065205 3:-1.1456439 4:0.29704426 5:0.80255566 6:4.6234392 7:3.25 8:1.2178071 9:-0.99475975 10:-2.0337011 11:-0.50109639 12:1.3125664 13:-0.64531687 14:2.034928 15:-0.095980117 16:0.48975566 17:-0.60080922 18:0.25556555 19:7.6012565 20:-0.06425913 21:9.9954484 22:11.086958 23:6.829417 
-0.1979212757282566 1:0 2:2.8520967 3:8.9469335 4:3.9605902 5:-4.1135023 6:9.7299244 7:3.25 8:2.4390192 9:-0.99475975 10:-2.8535115 11:1.0404947 12:1.4947208 13:1.6143324 14:1.3242786 15:-0.17370458 16:0.33861031 17:-1.0530225 18:-1.4744589 19:0.87287156 20:3.0770786 21:0.54829962 22:-0.56694671 23:3.0770786 
-5.994842503189409 1:0 2:-0.8704332 3:0.87287156 4:0.29704426 5:0.30756915 6:-0.48304589 7:0.16666667 8:-1.3357646 9:-0.38855829 10:0.52114825 11:-0.97444385 12:-0.011244081 13:-0.57277546 14:0.45637096 15:-0.36572851 16:0.095808848 17:1.0647903 18:-0.64816259 19:-0.47280543 20:-0.40296574 21:-0.37546393 22:-0.56694671 23:-0.40296574 
-0.5129780121593739 1:0 2:5.6527628 3:6.928418 4:7.6241361 5:10.071486 6:9.7299244 7:3.25 8:7.6680682 9:-0.99475975 10:0.76399519 11:3.0576424 12:1.1130673 13:-0.60512072 14:3.936107 15:-0.29911059 16:-1.3550659 17:0.33298626 18:-1.1773313 19:0.87287156 20:5.0960356 21:1.6220557 22:-0.56694671 23:5.0960356 
-3.525133456554561 1:0 2:-0.25155511 3:4.9099025 4:3.9605902 5:1.1244419 6:4.6234392 7:3.25 8:1.8955245 9:-0.99475975 10:0.4750556 11:-1.1854051 12:1.9677769 13:0.41257829 14:-1.6280993 15:0.21332383 16:1.409178 17:-2.956297 18:0.13198133 19:0.87287156 20:-0.07090043 21:-0.37546393 22:4.0946151 23:7.1282756 
5.994842503189409 1:0 2:-0.29435393 3:0.87287156 4:0.29704426 5:-0.51757021 6:-0.48304589 7:0.16666667 8:-1.3357646 9:-0.38855829 10:0.52114825 11:-0.97444385 12:-0.011244081 13:-0.57277546 14:0.45637096 15:-0.36572851 16:0.095808848 17:1.0647903 18:-0.64816259 19:-0.47280543 20:-0.40296574 21:-0.37546393 22:-0.56694671 23:-0.40296574 
2.016488894468798 1:0 2:-0.21592092 3:2.891387 4:0.29704426 5:-3.8563691 6:9.7299244 7:3.25 8:1.1145987 9:-0.017175068 10:1.2577732 11:0.91344657 12:-1.1988432 13:1.0420354 14:1.0931236 15:-0.33001954 16:0.85599775 17:-1.4319569 18:0.050693197 19:-0.47280543 20:-0.40296574 21:-0.37546393 22:-0.56694671 23:-0.40296574 
-0.5117952935023496 1:0 2:-2.1013669 3:0.87287156 4:3.9605902 5:3.2553787 6:9.7299244 7:0.16666667 8:0.36706169 9:-0.99475975 10:0.89233164 11:-1.2064263 12:1.9137915 13:-0.68115798 14:-0.85829086 15:0.3182369 16:2.17334 17:-0.63819868 18:-1.2060823 19:2.2185486 20:1.5097305 21:1.0220855 22:-0.56694671 23:2.432872 
3.886991138639229 1:0 2:-1.2304768 3:2.891387 4:3.9605902 5:0.42311652 6:2.0701967 7:0.16666667 8:0.78813083 9:-0.99475975 10:-2.8698302 11:0.88727206 12:1.4393519 13:-0.77245458 14:0.48743338 15:-0.17844036 16:0.43341744 17:0.99214134 18:0.0082065705 19:3.5642255 20:1.2440782 21:1.3171184 22:4.0946151 23:3.448992 
-1.293830851245716 1:0 2:-0.30530598 3:6.928418 4:7.6241361 5:8.6332961 6:7.1766818 7:3.25 8:2.8582333 9:-0.99475975 10:0.68071211 11:2.9809929 12:0.59124667 13:1.9530958 14:-0.33967692 15:-0.049125774 16:1.4317212 17:-1.505057 18:0.065021685 19:3.5642255 20:1.3702631 21:5.8694631 22:1.7638342 23:6.596971 
0.09791142788576275 1:0 2:0.48237599 3:6.928418 4:14.951228 5:1.3173845 6:14.83641 7:3.25 8:3.4944745 9:-0.99475975 10:-2.8730886 11:0.9596013 12:1.1208828 13:-0.36805709 14:5.2247579 15:-0.21153029 16:-0.18733076 17:3.3479339 18:-1.7050193 19:3.5642255 20:1.1776652 21:4.3314446 22:1.7638342 23:1.1776652 
2.4221949192635 1:0 2:0.84896318 3:4.9099025 4:3.9605902 5:-0.46238202 6:2.0701967 7:0.16666667 8:1.5542172 9:-0.99475975 10:0.68907599 11:-1.2215633 12:1.849035 13:2.0897387 14:-1.5853767 15:-0.34852011 16:0.26563065 17:-1.0378267 18:-0.15715316 19:2.2185486 20:-0.031052591 21:3.3576836 22:4.0946151 23:8.8550149 
2.001713771258382 1:0 2:-2.0998448 3:-1.1456439 4:-3.3665016 5:-0.65406198 6:2.0701967 7:-2.9166667 8:-1.9293423 9:2.9673583 10:0.78634532 11:0.88727206 12:1.2524863 13:-0.77245458 14:-1.9116484 15:3.3346106 16:-2.5781952 17:0.045474481 18:2.9044128 19:-0.47280543 20:-0.40296574 21:-0.37546393 22:-0.56694671 23:-0.40296574 
1.335063720864961 1:0 2:1.6031565 3:2.891387 4:3.9605902 5:6.5232808 6:9.7299244 7:3.25 8:2.8545236 9:-0.99475975 10:0.57200589 11:-1.2590333 12:1.6173337 13:0.62237291 14:2.3214524 15:0.34137315 16:2.0746158 17:-0.56705831 18:-1.3269908 19:3.5642255 20:3.7412092 21:4.2719713 22:4.0946151 23:3.7412092 
-0.07085467708167197 1:0 2:4.3258505 3:8.9469335 4:11.287682 5:3.4031805 6:14.83641 7:15.583333 8:10.768548 9:-0.99475975 10:1.0021212 11:3.0279631 12:0.84757192 13:-0.60419516 14:2.0085035 15:-0.19327471 16:-1.8659632 17:1.6953976 18:-0.28126987 19:8.9469335 20:0.55338239 21:8.9431197 22:1.7638342 23:0.65300197 
0.8182310753619704 1:0 2:-0.39683227 3:0.87287156 4:-3.3665016 5:0.062307584 6:-0.48304589 7:-2.9166667 8:-1.9293423 9:2.9673583 10:0.78634532 11:0.88727206 12:1.2524863 13:-0.77245458 14:-1.9116484 15:3.3346106 16:-2.5781952 17:0.045474481 18:2.9044128 19:-0.47280543 20:-0.40296574 21:-0.37546393 22:-0.56694671 23:-0.40296574 
0.2601493106819942 1:0 2:0.39325903 3:2.891387 4:3.9605902 5:4.7699117 6:12.283167 7:3.25 8:-1.404397 9:0.36097955 10:1.8191624 11:1.1390191 12:-1.1021076 13:1.8847731 14:1.2296789 15:-0.034118133 16:1.6153115 17:0.38550383 18:0.00085583898 19:-0.47280543 20:-0.40296574 21:-0.37546393 22:-0.56694671 23:-0.40296574 
1.129827434118579 1:0 2:2.2110481 3:10.965449 4:7.6241361 5:6.0834531 6:14.83641 7:3.25 8:5.2807726 9:-0.99475975 10:0.68073261 11:2.9809384 12:0.59102285 13:1.270821 14:-0.37969075 15:0.27486053 16:2.0913037 17:-2.6273649 18:0.040531306 19:7.6012565 20:0.9917085 21:8.0598302 22:-0.56694671 23:5.7402425 
0.4215240563177608 1:0 2:0.38193214 3:4.9099025 4:0.29704426 5:2.1609001 6:9.7299244 7:0.16666667 8:-0.62161631 9:-0.44698494 10:0.97587358 11:0.102534 12:3.5542835 13:0.10832151 14:1.0784395 15:-0.24966186 16:-0.21005553 17:1.9804475 18:-0.14048757 19:-0.47280543 20:-0.40296574 21:-0.37546393 22:-0.56694671 23:-0.40296574 
5.994842503189409 1:0 2:0.524152 3:4.9099025 4:0.29704426 5:0.068226777 6:-0.48304589 7:0.16666667 8:1.5356679 9:-0.99475975 10:0.88358781 11:2.9961084 12:0.65594044 13:-0.10338447 14:0.74011149 15:-0.44172948 16:-0.17003317 17:0.075040411 18:0.3055932 19:0.87287156 20:-0.031052591 21:-0.12785722 22:1.7638342 23:-0.031052591 
0.2077735733047321 1:0 2:-0.051388325 3:10.965449 4:11.287682 5:1.2967248 6:22.496137 7:9.4166667 8:3.7819888 9:-0.098177882 10:1.7529567 11:1.8836909 12:-0.84569368 13:3.7831419 14:1.5818579 15:0.061619905 16:1.4937184 17:0.58814921 18:0.15666372 19:0.87287156 20:3.867394 21:0.39830706 22:4.0946151 23:3.9670137 
-0.8414263113059445 1:0 2:-0.22061874 3:8.9469335 4:7.6241361 5:7.0371368 6:25.04938 7:3.25 8:0.2112475 9:-0.99475975 10:0.68910287 11:-1.2215634 12:1.8490362 13:-0.77245458 14:1.4848092 15:-0.22423782 16:0.75826761 17:-3.0489128 18:-0.90089467 19:0.87287156 20:1.390187 21:0.57210794 22:-0.56694671 23:1.390187 
0.5633413375645803 1:0 2:1.5883121 3:6.928418 4:11.287682 5:9.3887098 6:9.7299244 7:9.4166667 8:5.5144939 9:-0.99475975 10:0.95961917 11:-1.2259033 12:1.820667 13:1.0238604 14:-1.2111931 15:-0.22137641 16:0.72574512 17:-1.7255809 18:-0.76848817 19:3.5642255 20:1.2108717 21:3.4743445 22:-0.56694671 23:5.2952749 
5.994842503189409 1:0 2:2.5856353 3:2.891387 4:0.29704426 5:0.041530365 6:2.0701967 7:0.16666667 8:0.16672921 9:-0.02389042 10:0.39124645 11:0.77858526 12:-1.2020382 13:-0.59957403 14:0.77478228 15:-0.4414606 16:-0.86514561 17:1.0141236 18:0.10299318 19:-0.47280543 20:-0.40296574 21:-0.37546393 22:-0.56694671 23:-0.40296574 
-0.684826342842269 1:0 2:1.5313363 3:6.928418 4:7.6241361 5:1.5366884 6:7.1766818 7:6.3333333 8:5.1824614 9:-0.99475975 10:0.47473179 11:-1.1854013 12:1.967727 13:0.37709615 14:3.5984678 15:-0.28331981 16:-1.0409293 17:0.74593444 18:-0.47107432 19:0.87287156 20:1.5495783 21:0.40068789 22:4.0946151 23:7.1282756 
2.651416456985513 1:0 2:-0.7687151 3:0.87287156 4:3.9605902 5:0.2831649 6:4.6234392 7:0.16666667 8:1.4726003 9:-0.12308389 10:-0.1338613 11:0.50088013 12:-1.0997405 13:-0.77245458 14:0.53178612 15:-0.34889468 16:-0.32071604 17:0.04360972 18:-0.87254677 19:-0.47280543 20:-0.40296574 21:-0.37546393 22:-0.56694671 23:-0.40296574 
-5.994842503189409 1:0 2:1.8147603 3:-1.1456439 4:0.29704426 5:-0.23555971 6:-0.48304589 7:0.16666667 8:0.16672921 9:-0.02389042 10:0.39124645 11:0.77858526 12:-1.2020382 13:-0.59957403 14:0.77478228 15:-0.4414606 16:-0.86514561 17:1.0141236 18:0.10299318 19:-0.47280543 20:-0.40296574 21:-0.37546393 22:-0.56694671 23:-0.40296574 
-5.994842503189409 1:0 2:-1.3099094 3:0.87287156 4:0.29704426 5:0.53530383 6:2.0701967 7:0.16666667 8:-0.20240201 9:0.43315926 10:-0.40842535 11:-0.49834322 12:-0.47360361 13:0.96058063 14:-0.77942161 15:-0.078001273 16:1.3033347 17:0.36910739 18:-0.38205156 19:-0.47280543 20:-0.40296574 21:-0.37546393 22:-0.56694671 23:-0.40296574 
-5.994842503189409 1:0 2:0.487636 3:6.928418 4:3.9605902 5:1.1572545 6:12.283167 7:0.16666667 8:1.2852524 9:0.079395245 10:0.91655302 11:0.2536122 12:-1.1105611 13:1.5527098 14:1.5322795 15:-0.45677671 16:-0.49997302 17:0.76249571 18:-0.097179156 19:-0.47280543 20:-0.40296574 21:-0.37546393 22:-0.56694671 23:-0.40296574 
1.383019297063942 1:0 2:0.93343341 3:0.87287156 4:3.9605902 5:11.490896 6:4.6234392 7:3.25 8:1.160972 9:-0.51667639 10:-2.1164832 11:-0.43704971 12:1.1387324 13:-0.77245458 14:4.4714725 15:-0.28712531 16:0.34497532 17:2.0603572 18:0.028480504 19:-0.47280543 20:-0.40296574 21:-0.37546393 22:-0.56694671 23:-0.40296574 
-1.231923250744763 1:0 2:1.6408495 3:10.965449 4:3.9605902 5:8.143573 6:19.942895 7:6.3333333 8:1.2945269 9:-0.44698494 10:0.97587358 11:0.102534 12:3.5542835 13:0.10832151 14:3.8174454 15:-0.24966186 16:-0.21005553 17:1.9804475 18:-0.14048757 19:3.5642255 20:3.8806766 21:3.1172193 22:-0.56694671 23:8.1776019 
0.007876236665290455 1:0 2:5.6387204 3:29.132088 4:33.268957 5:23.336476 6:40.368835 7:15.583333 8:8.9164366 9:-0.99475975 10:-2.8796768 11:0.88727206 12:1.2061418 13:-0.77245458 14:3.3893759 15:-0.1359868 16:-1.0174698 17:-3.1092031 18:-1.6614482 19:22.403703 20:1.1909478 21:14.884395 22:8.756177 23:8.2174494 
0.4441340749697048 1:0 2:2.3327378 3:4.9099025 4:7.6241361 5:1.9816136 6:17.389652 7:6.3333333 8:0.80853509 9:-0.41833898 10:3.0333767 11:0.50807874 12:-0.65276664 13:-0.77245458 14:0.2158935 15:-0.31069477 16:-0.65636117 17:-2.9221894 18:-1.204213 19:3.5642255 20:4.3920572 21:4.2243069 22:4.0946151 23:6.6235362 
-5.994842503189409 1:0 2:-0.8704332 3:0.87287156 4:0.29704426 5:0.30756915 6:-0.48304589 7:0.16666667 8:-1.3357646 9:-0.38855829 10:0.52114825 11:-0.97444385 12:-0.011244081 13:-0.57277546 14:0.45637096 15:-0.36572851 16:0.095808848 17:1.0647903 18:-0.64816259 19:-0.47280543 20:-0.40296574 21:-0.37546393 22:-0.56694671 23:-0.40296574 
-4.845247740453016 1:0 2:0.83215851 3:-1.1456439 4:0.29704426 5:0.27785482 6:2.0701967 7:0.16666667 8:0.49067433 9:-0.99475975 10:-2.0337011 11:-0.50109639 12:1.3125664 13:-0.64531687 14:0.73190023 15:-0.095980117 16:0.48975566 17:-0.60080922 18:0.25556555 19:3.5642255 20:-0.06425913 21:3.9100371 22:1.7638342 23:-0.06425913 
0.2720501386030513 1:0 2:5.5742062 3:6.928418 4:3.9605902 5:6.1731058 6:22.496137 7:6.3333333 8:6.150735 9:-0.22914565 10:2.6595962 11:0.7998837 12:-0.87026261 13:3.9569357 14:0.3553498 15:0.21452056 16:2.0933483 17:-0.79181028 18:-1.1954106 19:-0.47280543 20:-0.40296574 21:-0.37546393 22:-0.56694671 23:-0.40296574 
-5.994842503189409 1:0 2:0.37843913 3:0.87287156 4:0.29704426 5:-0.36653102 6:-0.48304589 7:0.16666667 8:0.67683502 9:-0.99475975 10:-2.8779194 11:0.96268924 12:1.2779509 13:-0.15018971 14:1.1081759 15:-0.45067036 16:0.47333652 17:0.33565589 18:-0.86364374 19:0.87287156 20:1.0846869 21:0.17450867 22:1.7638342 23:1.0846869 
1.981411735734484 1:0 2:-0.20757502 3:4.9099025 4:0.29704426 5:-1.7130738 6:7.1766818 7:3.25 8:0.31141374 9:-0.99475975 10:-2.8766046 11:0.96682718 12:1.1876929 13:1.5242998 14:0.52539857 15:-0.27950647 16:-0.24460086 17:-0.93971102 18:0.038611933 19:-0.47280543 20:-0.40296574 21:-0.37546393 22:1.7638342 23:2.9907418 
-0.180637178029342 1:0 2:3.0390876 3:17.020995 4:3.9605902 5:13.543791 6:14.83641 7:6.3333333 8:5.6684531 9:-0.99475975 10:1.0021185 11:3.0279359 12:0.84738446 13:2.9890807 14:3.5105587 15:-0.24649235 16:-0.81655722 17:-0.33514661 18:-1.4311583 19:0.87287156 20:0.55338239 21:-0.15880805 22:-0.56694671 23:0.55338239 
-5.994842503189409 1:0 2:2.5505981 3:0.87287156 4:0.29704426 5:-2.6048859 6:-0.48304589 7:0.16666667 8:-0.49177117 9:0.12748877 10:0.80608809 11:-0.05511185 12:-0.97514435 13:-0.77245458 14:-0.77011087 15:-0.39084183 16:-0.63893228 17:0.023607397 18:-0.96592679 19:-0.47280543 20:-0.40296574 21:-0.37546393 22:-0.56694671 23:-0.40296574 
1.326668935748606 1:0 2:-1.9826877 3:6.928418 4:3.9605902 5:1.6028812 6:7.1766818 7:3.25 8:-1.1484166 9:0.097345464 10:2.8792358 11:2.6686456 12:1.1238898 13:0.86412527 14:0.44231513 15:0.12757644 16:1.6292265 17:1.3244746 18:-0.79501938 19:3.5642255 20:3.4357094 21:3.3553028 22:-0.56694671 23:7.3872862 
5.994842503189409 1:0 2:-1.0202857 3:2.891387 4:0.29704426 5:0.23870487 6:2.0701967 7:0.16666667 8:-0.2988584 9:-0.25107115 10:0.13879513 11:-0.77654899 12:-0.27740862 13:-0.77245458 14:1.0780447 15:-0.089014445 16:1.146434 17:-2.3594543 18:-1.35702 19:-0.47280543 20:-0.40296574 21:-0.37546393 22:-0.56694671 23:-0.40296574 
-5.994842503189409 1:0 2:2.5505981 3:0.87287156 4:0.29704426 5:-2.6048859 6:-0.48304589 7:0.16666667 8:-0.49177117 9:0.12748877 10:0.80608809 11:-0.05511185 12:-0.97514435 13:-0.77245458 14:-0.77011087 15:-0.39084183 16:-0.63893228 17:0.023607397 18:-0.96592679 19:-0.47280543 20:-0.40296574 21:-0.37546393 22:-0.56694671 23:-0.40296574 
5.994842503189409 1:0 2:0.33564856 3:0.87287156 4:0.29704426 5:1.4859256 6:4.6234392 7:0.16666667 8:-0.53443457 9:0.14106829 10:0.063011923 11:-0.58411316 12:-0.50066251 13:-0.5816294 14:0.49973613 15:-0.29262966 16:0.26568694 17:1.339038 18:0.2276507 19:-0.47280543 20:-0.40296574 21:-0.37546393 22:-0.56694671 23:-0.40296574 
-4.43821737484556 1:0 2:-0.78683117 3:0.87287156 4:0.29704426 5:-0.20300372 6:-0.48304589 7:0.16666667 8:0.14261509 9:-0.52476169 10:0.83195076 11:0.34130869 12:-1.1401119 13:0.23104872 14:-0.83689859 15:-0.22954125 16:0.87107572 17:-1.012531 18:0.11020699 19:-0.47280543 20:-0.40296574 21:-0.37546393 22:-0.56694671 23:-0.40296574 
0.2904531057127148 1:0 2:1.8472966 3:4.9099025 4:11.287682 5:-3.4085262 6:7.1766818 7:6.3333333 8:6.1897629 9:-0.99475975 10:4.449295 11:0.80771773 12:1.3172844 13:2.7595185 14:-1.7814049 15:-0.18236872 16:1.3734539 17:0.83122778 18:0.41447976 19:8.9469335 20:2.3996653 21:10.778743 22:8.756177 23:8.0381345 
0.3288284074993983 1:0 2:-2.2764321 3:4.9099025 4:-3.3665016 5:13.370539 6:25.04938 7:-2.9166667 8:-1.9293423 9:2.9673583 10:0.78634532 11:0.88727206 12:1.2524863 13:-0.77245458 14:-1.9116484 15:3.3346106 16:-2.5781952 17:0.045474481 18:2.9044128 19:-0.47280543 20:-0.40296574 21:-0.37546393 22:-0.56694671 23:-0.40296574 
0.6331670276321048 1:0 2:0.93959206 3:12.983964 4:7.6241361 5:-3.431129 6:17.389652 7:3.25 8:-0.18622702 9:-0.99475975 10:0.63541336 11:-1.2747541 12:1.4892505 13:2.2522699 14:-1.2263978 15:1.0493702 16:2.7166288 17:-0.96343425 18:-1.6978077 19:3.5642255 20:0.048643087 21:1.503014 22:6.425396 23:2.7782199 
-5.994842503189409 1:0 2:-1.3099094 3:0.87287156 4:0.29704426 5:0.53530383 6:2.0701967 7:0.16666667 8:-0.20240201 9:0.43315926 10:-0.40842535 11:-0.49834322 12:-0.47360361 13:0.96058063 14:-0.77942161 15:-0.078001273 16:1.3033347 17:0.36910739 18:-0.38205156 19:-0.47280543 20:-0.40296574 21:-0.37546393 22:-0.56694671 23:-0.40296574 
0.00366439655054156 1:0 2:4.5196213 3:19.039511 4:25.941866 5:24.504714 6:45.47532 7:15.583333 8:12.30354 9:-0.99475975 10:-2.8736865 11:0.94969594 12:1.1218861 13:3.9063371 14:-1.6372718 15:0.77221598 16:2.4008291 17:-1.3639775 18:-0.10960357 19:17.020995 20:0.84559983 21:17.918863 22:11.086958 23:14.639593 
0.5981248116471291 1:0 2:0.70981852 3:6.928418 4:7.6241361 5:-4.0337898 6:7.1766818 7:9.4166667 8:5.1843163 9:-0.99475975 10:0.62899907 11:-1.2560668 12:1.651481 13:-0.60669943 14:-0.52979399 15:-0.24350434 16:-1.7338316 17:0.27904097 18:0.48168212 19:3.5642255 20:2.3996653 21:3.5124377 22:1.7638342 23:5.6871121 
1.844094116093544 1:0 2:2.8156238 3:10.965449 4:3.9605902 5:1.3810899 6:14.83641 7:0.16666667 8:1.6673679 9:0.079608574 10:1.0076097 11:1.9985412 12:-0.8668927 13:2.687371 14:2.7065224 15:-0.23450483 16:0.79852443 17:1.4163924 18:0.30696003 19:-0.47280543 20:-0.40296574 21:-0.37546393 22:-0.56694671 23:-0.40296574 
-2.651949546286828 1:0 2:0.10075021 3:4.9099025 4:-3.3665016 5:-6.4799666 6:2.0701967 7:-2.9166667 8:-1.9293423 9:2.9673583 10:0.78634532 11:0.88727206 12:1.2524863 13:-0.77245458 14:-1.9116484 15:3.3346106 16:-2.5781952 17:0.045474481 18:2.9044128 19:-0.47280543 20:-0.40296574 21:-0.37546393 22:-0.56694671 23:-0.40296574 
0.04272878041059085 1:0 2:-1.9407445 3:4.9099025 4:7.6241361 5:-2.3852823 6:14.83641 7:3.25 8:-0.18199773 9:0.15806822 10:-0.5529562 11:0.1543238 12:3.3974647 13:2.1707618 14:1.0706512 15:0.23527287 16:2.0163957 17:-0.81600019 18:0.11488288 19:-0.47280543 20:-0.40296574 21:-0.37546393 22:-0.56694671 23:-0.40296574 
-0.899004878852904 1:0 2:-1.5565485 3:0.87287156 4:3.9605902 5:-5.3344372 6:9.7299244 7:3.25 8:0.19084324 9:-0.99475975 10:4.4425208 11:0.88727206 12:1.0656206 13:1.352861 14:-1.3764796 15:-0.17844036 16:0.43341744 17:0.99214134 18:0.0082065705 19:2.2185486 20:3.448992 21:2.5243916 22:6.425396 23:6.6368191 
-4.318809416863759 1:0 2:-0.46594014 3:6.928418 4:-3.3665016 5:0.097880625 6:4.6234392 7:-2.9166667 8:-1.9293423 9:2.9673583 10:0.78634532 11:0.88727206 12:1.2524863 13:-0.77245458 14:-1.9116484 15:3.3346106 16:-2.5781952 17:0.045474481 18:2.9044128 19:-0.47280543 20:-0.40296574 21:-0.37546393 22:-0.56694671 23:-0.40296574 
0.6459447192465119 1:0 2:2.1162809 3:0.87287156 4:3.9605902 5:12.662287 6:4.6234392 7:0.16666667 8:-0.013199103 9:-0.10326383 10:1.1680928 11:-1.27094 12:1.1059254 13:1.2432044 14:1.3601809 15:0.056338138 16:1.3015781 17:-1.1861186 18:0.0054004762 19:-0.47280543 20:-0.40296574 21:-0.37546393 22:-0.56694671 23:-0.40296574 
0.2646627945387091 1:0 2:3.0959582 3:8.9469335 4:7.6241361 5:7.5720129 6:12.283167 7:3.25 8:6.1859788 9:-0.99475975 10:1.0021185 11:3.0279359 12:0.84738446 13:0.17496451 14:0.9358478 15:-0.24649235 16:-0.81655722 17:-0.33514661 18:-1.4311583 19:3.5642255 20:0.55338239 21:1.1220806 22:-0.56694671 23:6.6434599 
0.5212210804046626 1:0 2:1.038294 3:6.928418 4:3.9605902 5:-3.5777303 6:14.83641 7:6.3333333 8:1.4855848 9:-0.99475975 10:0.62899907 11:-1.2560668 12:1.651481 13:-0.60669943 14:-0.52979399 15:-0.24350434 16:-1.7338316 17:0.27904097 18:0.48168212 19:0.87287156 20:2.3996653 21:0.48163622 22:1.7638342 23:5.6871121 
-0.3283043555932386 1:0 2:4.2737282 3:6.928418 4:7.6241361 5:3.1225438 6:9.7299244 7:3.25 8:3.3850337 9:-0.99475975 10:1.175061 11:-1.1514159 12:2.0696205 13:-0.52282252 14:3.5502182 15:-0.34970246 16:-1.1004472 17:3.3133523 18:0.066613733 19:3.5642255 20:2.9176874 21:8.264582 22:1.7638342 23:2.9176874 
-0.9904913369078983 1:0 2:2.2127258 3:10.965449 4:7.6241361 5:-5.5430048 6:9.7299244 7:3.25 8:1.0218521 9:-0.99475975 10:-1.961812 11:-0.39297255 12:1.9999307 13:2.7001557 14:2.7480327 15:0.095392138 16:1.3988424 17:-0.25941511 18:-0.66021557 19:0.87287156 20:-0.07090043 21:-0.37546393 22:1.7638342 23:-0.07090043 
-0.1013785958699538 1:0 2:3.9002609 3:2.891387 4:0.29704426 5:-3.3871641 6:2.0701967 7:3.25 8:-0.23022595 9:-0.99475975 10:1.0021212 11:3.0279631 12:0.84757192 13:-0.60419516 14:-1.7566006 15:-0.19327471 16:-1.8659632 17:1.6953976 18:-0.28126987 19:4.9099025 20:3.1833397 21:7.0574992 22:-0.56694671 23:9.0343304 
-0.524952477165917 1:0 2:4.6173949 3:2.891387 4:7.6241361 5:-3.6428769 6:4.6234392 7:3.25 8:1.2333142 9:-0.99475975 10:0.57056678 11:-1.2533827 12:1.6576486 13:-0.60419516 14:2.6427884 15:-0.19623621 16:-1.9292629 17:1.7215962 18:0.35033496 19:4.9099025 20:3.1833397 21:5.6361414 22:-0.56694671 23:9.0343304 
4.353059989641896 1:0 2:0.62346782 3:0.87287156 4:0.29704426 5:2.4869957 6:4.6234392 7:0.16666667 8:-0.88316149 9:0.045545636 10:1.8183774 11:2.9084707 12:1.8390773 13:2.668852 14:-0.09385802 15:-0.27348078 16:0.12189739 17:0.90523366 18:0.092958759 19:-0.47280543 20:-0.40296574 21:-0.37546393 22:-0.56694671 23:-0.40296574 
1.034132378317775 1:0 2:2.0238954 3:8.9469335 4:3.9605902 5:11.468341 6:27.602622 7:3.25 8:-1.8365958 9:0.68027926 10:-0.43036661 11:-1.0821186 12:0.60235606 13:-0.77245458 14:4.1001127 15:-0.21645466 16:-0.95108045 17:4.13567 18:-1.576403 19:0.87287156 20:2.7715788 21:0.15070035 22:1.7638342 23:2.7715788 
-0.5971387586306278 1:0 2:2.0820992 3:2.891387 4:-3.3665016 5:14.185199 6:19.942895 7:-2.9166667 8:-1.9293423 9:2.9673583 10:0.78634532 11:0.88727206 12:1.2524863 13:-0.77245458 14:-1.9116484 15:3.3346106 16:-2.5781952 17:0.045474481 18:2.9044128 19:-0.47280543 20:-0.40296574 21:-0.37546393 22:-0.56694671 23:-0.40296574 
5.994842503189409 1:0 2:-0.39683227 3:0.87287156 4:-3.3665016 5:0.062307584 6:-0.48304589 7:-2.9166667 8:-1.9293423 9:2.9673583 10:0.78634532 11:0.88727206 12:1.2524863 13:-0.77245458 14:-1.9116484 15:3.3346106 16:-2.5781952 17:0.045474481 18:2.9044128 19:-0.47280543 20:-0.40296574 21:-0.37546393 22:-0.56694671 23:-0.40296574 
-0.224728157624726 1:0 2:-1.9875298 3:0.87287156 4:0.29704426 5:0.77148746 6:4.6234392 7:0.16666667 8:-1.9258922 9:-0.99475975 10:-2.8796827 11:0.88727206 12:1.2063483 13:0.32597359 14:2.4257548 15:0.64958306 16:1.8381295 17:-0.85708956 18:-1.7013345 19:0.87287156 20:5.8398619 21:1.7696674 22:-0.56694671 23:5.8398619 
-1.468546033970632 1:0 2:-0.866623 3:0.87287156 4:3.9605902 5:0.53603649 6:7.1766818 7:6.3333333 8:1.3501749 9:-0.99475975 10:0.88361022 11:2.9960956 12:0.65588331 13:1.6135045 14:-0.80374632 15:0.45119602 16:2.2852384 17:-2.012217 18:0.30049735 19:6.2555795 20:3.1434919 21:7.6336612 22:4.0946151 23:8.8550149 
-5.357244868233416 1:0 2:0.70444779 3:0.87287156 4:0.29704426 5:1.9753722 6:4.6234392 7:3.25 8:0.21495736 9:-0.50559941 10:3.6054279 11:2.2759604 12:1.1822626 13:0.99344778 14:0.63472645 15:0.27122122 16:1.6845458 17:-1.9982507 18:-0.16894728 19:0.87287156 20:0.79246935 21:-0.37546393 22:1.7638342 23:0.79246935 
0.1385329211355624 1:0 2:1.1658738 3:4.9099025 4:3.9605902 5:3.1982681 6:4.6234392 7:3.25 8:2.0735978 9:-0.99475975 10:0.40156935 11:-1.2704403 12:1.100126 13:-0.16666431 14:2.622381 15:-0.16519467 16:-0.4551546 17:-2.5947353 18:-0.49598911 19:3.5642255 20:5.5742099 21:6.7575142 22:6.425396 23:7.2079712 
-0.4226538552018178 1:0 2:0.50096724 3:8.9469335 4:7.6241361 5:1.3906059 6:30.155865 7:6.3333333 8:-1.7086056 9:0.38668486 10:-0.49146793 11:2.5048821 12:-0.15644866 13:1.4566512 14:3.1140072 15:-0.3824055 16:-0.17883986 17:1.5985464 18:0.36426645 19:3.5642255 20:2.0277524 21:2.185361 22:4.0946151 23:4.146329 
5.994842503189409 1:0 2:-0.68795275 3:-1.1456439 4:0.29704426 5:-1.1534004 6:2.0701967 7:3.25 8:0.65086602 9:-0.99475975 10:-2.8730726 11:0.9595946 12:1.1206754 13:-0.61112206 14:-1.541777 15:0.21500755 16:1.6552771 17:-1.9995571 18:-0.73574137 19:0.87287156 20:1.6359152 21:0.3673562 22:1.7638342 23:1.6359152 
-0.07624447405479713 1:0 2:2.8464602 3:12.983964 4:7.6241361 5:-4.0026311 6:9.7299244 7:3.25 8:4.0027256 9:-0.99475975 10:-2.8730726 11:0.9595946 12:1.1206754 13:0.83366998 14:-1.6112508 15:0.96624424 16:2.9123051 17:-1.534345 18:-1.5176515 19:6.2555795 20:0.79246935 21:5.4171047 22:11.086958 23:7.0087319 
