SNNS network definition file V1.4-3D
generated at Thu May 09 10:11:49 1996

network name : v27-23+8
source files :
no. of units : 59
no. of connections : 314
no. of unit types : 0
no. of site types : 0


learning function : Std_Backpropagation
update function : Topological_Order


unit default section :

act      | bias     | st | subnet | layer | act func     | out func
---------|----------|----|--------|-------|--------------|-------------
 0.00000 |  0.00000 | h  |      0 |     1 | Act_Logistic | Out_Identity
---------|----------|----|--------|-------|--------------|-------------


unit definition section :

no. | typeName | unitName | act      | bias     | st | position | act func | out func | sites
----|----------|----------|----------|----------|----|----------|----------|----------|-------
  1 |          |           |  0.36116 |        0 | i  |  2, 1, 0 |||
  2 |          |           |  0.54772 |        0 | i  |  2, 3, 0 |||
  3 |          |           |  0.48276 |        0 | i  |  2, 4, 0 |||
  4 |          |           | -0.99282 |        0 | i  |  2, 5, 0 |||
  5 |          |           |  0.13408 |        0 | i  |  2, 6, 0 |||
  6 |          |           |  0.10231 |        0 | i  |  2, 7, 0 |||
  7 |          |           |   1.1415 |        0 | i  |  2, 8, 0 |||
  8 |          |           |  -1.8208 |        0 | i  |  2, 9, 0 |||
  9 |          |           |  0.20064 |        0 | i  |  2,10, 0 |||
 10 |          |           |   1.0761 |        0 | i  |  2,11, 0 |||
 11 |          |           | -0.22716 |        0 | i  |  2,12, 0 |||
 12 |          |           |  0.36116 |        0 | i  |  2,14, 0 |||
 13 |          |           |  0.43396 |        0 | i  |  2,15, 0 |||
 14 |          |           | -0.70589 |        0 | i  |  2,16, 0 |||
 15 |          |           |  -1.0104 |        0 | i  |  2,17, 0 |||
 16 |          |           | -0.53459 |        0 | i  |  2,18, 0 |||
 17 |          |           |  -0.9626 |        0 | i  |  2,19, 0 |||
 18 |          |           |  0.84761 |        0 | i  |  2,20, 0 |||
 19 |          |           |   7.1737 |        0 | i  |  2,22, 0 |||
 20 |          |           |    2.353 |        0 | i  |  2,23, 0 |||
 21 |          |           |  -0.3327 |        0 | i  |  2,24, 0 |||
 22 |          |           |   12.881 |        0 | i  |  2,26, 0 |||
 23 |          |           |   19.141 |        0 | i  |  2,27, 0 |||
 24 |          |           |        2 |        0 | i  |  2,28, 0 |||
 25 |          |           |    7.823 |        0 | i  |  2,29, 0 |||
 26 |          |           | -0.39904 |        0 | i  |  2,30, 0 |||
 27 |          |           |   7.0285 |        0 | i  |  2,31, 0 |||
 28 |          |           |  0.76676 |  0.65508 | h  |  7, 3, 0 |||
 29 |          |           |  0.49974 |  0.51566 | h  |  7, 4, 0 |||
 30 |          |           |  0.42037 |  0.53114 | h  |  7, 5, 0 |||
 31 |          |           |   0.8801 |  0.86474 | h  |  8, 6, 0 |||
 32 |          |           |  0.76342 |  0.12758 | h  |  8, 7, 0 |||
 33 |          |           |  0.15534 | -0.66782 | h  |  8, 8, 0 |||
 34 |          |           |  0.19906 |  -1.6638 | h  |  7,10, 0 |||
 35 |          |           |  0.80836 | -0.048802 | h  |  7,11, 0 |||
 36 |          |           |  0.15354 |  0.27911 | h  |  7,12, 0 |||
 37 |          |           |  0.74628 |     1.32 | h  |  7,14, 0 |||
 38 |          |           |   0.2417 |   0.2882 | h  |  7,15, 0 |||
 39 |          |           |  0.99389 |   2.9709 | h  |  7,16, 0 |||
 40 |          |           |  0.85736 | -0.94675 | h  |  7,17, 0 |||
 41 |          |           | 0.00020884 | -0.027133 | h  |  7,19, 0 |||
 42 |          |           | 0.038611 |  0.16277 | h  |  7,20, 0 |||
 43 |          |           |  0.99946 |  0.43103 | h  |  7,22, 0 |||
 44 |          |           |  0.33121 |  -0.8762 | h  |  7,23, 0 |||
 45 |          |           |  0.58522 | -0.30949 | h  |  7,24, 0 |||
 46 |          |           |        1 |  -1.9432 | h  |  7,26, 0 |||
 47 |          |           | 0.00013599 |   2.1224 | h  |  7,27, 0 |||
 48 |          |           |  0.99999 |  0.37583 | h  |  7,28, 0 |||
 49 |          |           |        1 |  -1.4454 | h  |  7,29, 0 |||
 50 |          |           | 3.0979e-11 |  0.38938 | h  |  7,30, 0 |||
 51 |          |           |  0.64553 |   1.3058 | h  | 13,12, 0 |||
 52 |          |           |  0.64067 | -0.27563 | h  | 13,13, 0 |||
 53 |          |           |  0.72006 | -0.54016 | h  | 13,14, 0 |||
 54 |          |           |  0.62204 |  0.89963 | h  | 13,15, 0 |||
 55 |          |           |  0.20918 |  0.46469 | h  | 13,16, 0 |||
 56 |          |           |   0.9067 |   1.0894 | h  | 13,17, 0 |||
 57 |          |           |  0.13847 | -0.93333 | h  | 13,18, 0 |||
 58 |          |           |  0.15476 | -0.83511 | h  | 13,19, 0 |||
 59 |          |           |  0.99704 |   2.1362 | o  | 20,15, 0 |||
----|----------|----------|----------|----------|----|----------|----------|----------|-------


connection definition section :

target | site | source:weight
-------|------|------------------------------------------------------------------------------------------------------------
    28 |      |   1: 0.76664,   2:  0.9114,   3:-0.085182,   4: 0.24705,   5: 0.33847
    29 |      |   1: 0.90919,   2: 0.49989,   3:-0.36975,   4: 0.89985,   5:-0.35037
    30 |      |   1: 0.44357,   2:   0.518,   3: -1.2657,   4: 0.80355,   5: 0.83931
    31 |      |   1:-0.47889,   2: 0.44289,   6:  1.3177,   7: 0.73975,   8:-0.043825
    32 |      |   1: -0.3343,   2:   1.038,   6: 0.93962,   7:  1.0086,   8: 0.35771
    33 |      |   1: 0.55872,   2:-0.23661,   6:-0.59814,   7: -1.6827,   8:-0.48563
    34 |      |   1: 0.61047,   9: -1.7885,  10:-0.023458,  11: -1.9163
    35 |      |   1:-0.47466,   9:  1.5036,  10: 0.85545,  11: -1.9255
    36 |      |   1:-0.017462,   9:   1.564,  10: -2.3575,  11: -1.0697
    37 |      |   1: -0.6906,  12:-0.46556,  13: -1.7896,  14:-0.15021,  15:-0.69157,  16: -1.2669,  17: 0.65301,  18: 0.11744
    38 |      |   1:-0.44862,  12:-0.76186,  13:-0.12209,  14: 0.68005,  15: -1.2404,  16:-0.27592,  17:0.011822,  18: -2.1836
    39 |      |   1: 0.52143,  12: 0.35889,  13:  1.7449,  14: -2.1996,  15: 0.20702,  16:-0.56369,  17:  1.4087,  18: 0.89333
    40 |      |   1: 0.13056,  12:-0.085085,  13: 0.98286,  14:  -1.393,  15:-0.26882,  16:-0.26989,  17: -1.0957,  18:-0.18467
    41 |      |   1: -0.1872,  19:  -1.168
    42 |      |   1: -0.6531,  19:-0.43795
    43 |      |   1: -0.3252,  20:  2.9403,  21:-0.85443
    44 |      |   1: 0.36554,  20: 0.10437,  21: 0.61345
    45 |      |   1:-0.19275,  20: 0.42052,  21: 0.79992
    46 |      |   1:-0.41768,  22: 0.26626,  23:0.079552,  24:-0.54718,  25:  1.4832,  26:0.069136,  27: 0.64269
    47 |      |   1:-0.53644,  22: 0.12455,  23:-0.35284,  24: -0.3061,  25: -0.5442,  26:  -0.288,  27:-0.13193
    48 |      |   1:  1.0892,  22: 0.92376,  23:-0.14355,  24:-0.13892,  25: 0.80718,  26:-0.69282,  27:-0.57415
    49 |      |   1: 0.83575,  22: 0.30639,  23: 0.37555,  24:-0.43726,  25: 0.48611,  26:0.042745,  27: 0.22628
    50 |      |   1: 0.44501,  22: 0.15311,  23: -1.6518,  24: 0.53581,  25:-0.58794,  26: 0.26326,  27:  1.2136
    51 |      |  28:0.093819,  29:-0.10306,  30: 0.61943,  31:  1.3872,  32: 0.42857,  33:-0.92518,  34:  1.9734,  35: -1.1368, 
                 36:  -1.669,  37:-0.52298,  38:  2.0428,  39:   -1.86,  40: -1.1571,  41:  1.4596,  42: 0.66661,  43: -1.5433, 
                 44:  0.4283,  45: 0.20873,  46:  1.3056,  47:  -1.115,  48:0.012794,  49:  1.0622,  50:-0.90052
    52 |      |  28:-0.15262,  29:0.017171,  30: 0.33892,  31: 0.67567,  32: 0.10874,  33:0.069175,  34:-0.12593,  35: 0.17218, 
                 36: -1.4401,  37: -1.1775,  38:  0.7207,  39: -1.3806,  40:-0.61745,  41:-0.074176,  42:-0.53873,  43:-0.15532, 
                 44: 0.18842,  45: 0.67432,  46:  1.1699,  47: 0.39145,  48: 0.68263,  49: 0.71084,  50:-0.79511
    53 |      |  28:-0.40691,  29: 0.71921,  30: 0.70449,  31:-0.37683,  32: -0.5131,  33: -0.6316,  34:-0.57775,  35: 0.52134, 
                 36: 0.42173,  37:-0.93617,  38:-0.16585,  39:  1.2346,  40: 0.63183,  41: 0.31118,  42: 0.43541,  43: 0.69679, 
                 44:  0.4103,  45:-0.39825,  46: 0.57752,  47:-0.64268,  48: 0.18088,  49:-0.81284,  50: 0.64836
    54 |      |  28:-0.93653,  29: 0.36368,  30:-0.71042,  31: 0.50543,  32:-0.48171,  33:-0.10341,  34: -1.0614,  35: 0.30167, 
                 36:-0.35619,  37: 0.67381,  38: 0.61405,  39: 0.28094,  40: 0.96903,  41:-0.69279,  42:-0.68651,  43: 0.37511, 
                 44:-0.42536,  45: 0.25289,  46:-0.23506,  47:  1.3424,  48:-0.65311,  49:-0.83402,  50: 0.80256
    55 |      |  28:-0.37733,  29: 0.09808,  30:  1.4485,  31: -1.4731,  32:-0.29851,  33: 0.85752,  34: -1.1113,  35: 0.79841, 
                 36:-0.19106,  37:-0.85468,  38:-0.89305,  39:  1.1324,  40: 0.61524,  41: -0.1522,  42:-0.36034,  43: 0.95648, 
                 44:0.016423,  45:-0.32535,  46: -1.2459,  47: 0.33554,  48:-0.59175,  49:-0.88564,  50:  1.4875
    56 |      |  28:  1.1593,  29:-0.050729,  30: 0.88758,  31:-0.53936,  32: 0.45653,  33:-0.10503,  34: -0.2723,  35: -1.2681, 
                 36: -1.6546,  37: -0.7882,  38:-0.33347,  39:  0.1608,  40: 0.12981,  41:-0.79905,  42:-0.36192,  43:-0.94287, 
                 44: 0.26802,  45:  1.2338,  46:  1.4393,  47: -1.9432,  48: 0.46522,  49: 0.06287,  50:-0.061711
    57 |      |  28:-0.42351,  29: 0.73192,  30:-0.23993,  31:  0.5675,  32:-0.64526,  33:-0.39128,  34: 0.11149,  35: -0.7855, 
                 36: 0.47934,  37:-0.34838,  38:-0.39468,  39:-0.29634,  40: 0.59264,  41:-0.14256,  42:-0.27995,  43: 0.67073, 
                 44:0.042149,  45:-0.22985,  46: 0.13701,  47:-0.39728,  48: 0.16969,  49: -0.9456,  50:-0.20966
    58 |      |  28:  0.5718,  29:-0.82568,  30: -1.0198,  31:-0.16698,  32: -1.0559,  33: 0.61132,  34:  -1.153,  35: 0.24351, 
                 36:  1.1045,  37: 0.88427,  38: -1.9118,  39:   1.753,  40: 0.19448,  41: 0.31748,  42: 0.97824,  43:  1.6277, 
                 44:  -1.047,  45:-0.80522,  46: -1.4344,  47:  1.6749,  48:-0.54046,  49:-0.71747,  50:  1.1646
    59 |      |  51:  3.9385,  52:  1.5796,  53:-0.74827,  54:-0.79964,  55: -2.3794,  56:   2.346,  57:0.085539,  58: -3.0757
-------|------|----------------------------------------------------------------------------------------------------------------
