svm_type epsilon_svr
kernel_type rbf
gamma 0.037037
nr_class 2
total_sv 171
rho -0.921465
SV
-0.6012323213371805 1:0 2:0 3:1.0150347 4:-1.1141892 5:1.3008413 6:-1.128418 7:-0.11751359 8:0.49251361 9:-0.14682659 10:-0.28092849 11:0.7382165 12:0 13:-1.1222493 14:0.79850826 15:0.61723599 16:0.42413332 17:0.56792902 18:-1.202205 19:0.28956189 20:-0.25899306 21:0 22:-0.35675303 23:0.046597111 24:-0.012765033 25:0.1094196 26:-0.48463812 27:0.080662372 
-0.774263682681127 1:0 2:0 3:1.184817 4:2.0696955 5:1.8375379 6:0.34651161 7:-0.34034479 8:-0.21311237 9:1.5598297 10:-0.72560038 11:0.8183042 12:0 13:-1.0547679 14:0.13159667 15:0.32777512 16:-0.046743649 17:-0.18556341 18:-1.0838185 19:-0.095512018 20:-0.37071569 21:0 22:2.8030596 23:-0.91640984 24:-1.5956291 25:5.061903 26:-0.48463812 27:0.64711181 
-0.774263682681127 1:0 2:0 3:0.4485063 4:-0.3924478 5:1.0359056 6:-0.55820445 7:1.0557905 8:-0.29430221 9:-1.2810806 10:0.74259598 11:0.060610975 12:0 13:-1.2580031 14:0.25685271 15:0.13274871 16:0.52548694 17:0.97718351 18:-1.0355462 19:0.27845256 20:0.0050785327 21:0 22:2.8030596 23:1.0096041 24:0.77866701 25:0.28741474 26:0.71726442 27:0.56619051 
0.6497515601849351 1:0 2:0 3:1.1821416 4:2.1753589 5:1.7185502 6:0.91013085 7:-0.27778294 8:-0.68753533 9:0.96849254 10:-0.27035741 11:0.11714601 12:0 13:-1.3896504 14:-0.091850977 15:-0.37966667 16:-0.18066741 17:0.039041147 18:-0.87869698 19:0.64562213 20:-0.17774041 21:0 22:2.8030596 23:1.0096041 24:-0.012765033 25:-0.0046629624 26:-0.48463812 27:0.67023319 
-0.774263682681127 1:0 2:0 3:0.74436859 4:-0.94434611 5:0.47089988 6:-0.47601679 7:-0.47848149 8:0.058685579 9:0.53261941 10:-0.51954097 11:0.15531912 12:0 13:0.33766971 14:0.0229057 15:0.86140111 16:-0.61003985 17:-0.15254688 18:-0.31654538 19:-0.076687753 20:-0.73635261 21:0 22:-0.35675303 23:-0.91640984 24:-0.80419707 25:-0.34931407 26:5.5248746 27:0.49683073 
0.01805268504258561 1:0 2:0 3:1.184817 4:2.0696955 5:1.8375379 6:-1.248217 7:0.47241542 8:-0.25434223 9:-0.9133112 10:0.98030684 11:-0.11256138 12:0 13:-1.4300522 14:0.85152817 15:0.17511665 16:2.4196983 17:1.1822135 18:-1.9814818 19:1.701167 20:3.0723684 21:0 22:2.8030596 23:4.8616319 24:4.7358272 25:-0.20945063 26:-0.48463812 27:1.7222094 
0.774263682681127 1:0 2:0 3:-1.3111408 4:-0.24041661 5:0.53594192 6:0.71044713 7:1.0033187 8:-1.1898743 9:-1.5570164 10:1.2115144 11:-0.46201099 12:0 13:0.18691156 14:-0.056738271 15:0.83736101 16:-0.43395616 17:0.56255684 18:0.10565306 19:1.0702709 20:0.30977596 21:0 22:-0.35675303 23:1.0096041 24:0.77866701 25:-0.11161388 26:1.919167 27:3.0634482 
0.774263682681127 1:0 2:0 3:1.2307754 4:0.016463671 5:0.58363983 6:-1.2133579 7:0.67600836 8:0.69224013 9:-0.81277012 10:0.20191915 11:0.71132182 12:0 13:0.76512724 14:-0.29580449 15:0.35259438 16:-0.60233971 17:-0.86245614 18:1.0048396 19:1.3103977 20:1.0715203 21:0 22:-0.35675303 23:1.0096041 24:1.570099 25:0.18125133 26:0.71726442 27:2.4042607 
0.1809360076786714 1:0 2:0 3:0.5851618 4:-0.64656226 5:-0.1056907 6:-0.38192103 7:2.4454548 8:-1.9766438 9:0.19683725 10:0.69275 11:-0.6611222 12:0 13:-0.59937793 14:-0.13591117 15:0.56315725 16:-0.21503814 17:0.68680831 18:-0.371663 19:4.3850392 20:2.0973362 21:0 22:-0.35675303 23:3.8986249 24:4.7358272 25:0.37487433 26:-0.48463812 27:3.0169506 
-0.774263682681127 1:0 2:0 3:-1.0931966 4:0.27250658 5:0.52810653 6:-0.54239833 7:0.27119811 8:-0.014821413 9:0.55841806 10:-0.34279565 11:1.1232145 12:0 13:-0.44443926 14:0.81529638 15:1.2117734 16:-0.71100324 17:-0.13263422 18:0.46552953 19:-0.96315155 20:-1.0004242 21:0 22:-0.35675303 23:0.046597111 24:-0.012765033 25:1.6674698 26:-0.48463812 27:-0.52545162 
-0.6255829231435357 1:0 2:0 3:-1.2302493 4:-0.91106939 5:-0.13439596 6:1.1573005 7:-1.1535831 8:0.69936174 9:-0.80323807 10:-0.77008964 11:0.34318539 12:0 13:0.39349391 14:-0.7835793 15:0.054042145 16:-0.34142636 17:-0.17524903 18:1.2781284 19:-0.93230859 20:-0.93948471 21:0 22:-0.35675303 23:0.046597111 24:-0.012765033 25:-0.16927975 26:-0.48463812 27:-0.58982874 
-0.4038629983722902 1:0 2:0 3:-1.070423 4:-0.87902566 5:0.68669775 6:-0.98946504 7:-0.9472052 8:0.69189967 9:-1.4767961 10:-1.1086159 11:0.85356742 12:0 13:0.39400331 14:-0.38536565 15:0.49475735 16:0.15286373 17:0.81241338 18:1.3013746 19:0.01165988 20:-0.68556994 21:0 22:-0.35675303 23:0.046597111 24:-0.012765033 25:-1.0384058 26:0.71726442 27:0.10089404 
-0.774263682681127 1:0 2:0 3:-1.3111408 4:-0.24041661 5:0.53594192 6:0.56786562 7:0.24184226 8:-0.41573737 9:-1.2925324 10:0.3801598 11:0.18139085 12:0 13:0.69100589 14:-0.59504972 15:0.099641931 16:-0.66044375 17:-0.00059544195 18:0.53283049 19:-0.27733568 20:0.19805333 21:0 22:2.8030596 23:1.0096041 24:-0.012765033 25:-0.11161388 26:1.919167 27:1.0028237 
-0.6532913364107434 1:0 2:0 3:0.66080843 4:-0.47790425 5:0.30626665 6:0.56443932 7:0.79612143 8:-0.81606437 9:0.69990351 10:0.57404244 11:0.14633748 12:0 13:-0.73513924 14:1.4297908 15:1.1608555 16:-0.43602391 17:0.51792215 18:-0.029382231 19:0.69350232 20:0.40118543 21:0 22:-0.35675303 23:-0.91640984 24:-0.80419707 25:-0.80924717 26:0.71726442 27:0.93611646 
-0.774263682681127 1:0 2:0 3:1.2307754 4:0.016463671 5:0.58363983 6:-1.7719106 7:-0.62119129 8:2.1416857 9:0.24881456 10:-0.59599399 11:0.78564485 12:0 13:-0.014666171 14:0.11290181 15:0.97035422 16:-0.70422866 17:-0.062919828 18:0.35703139 19:0.35672375 20:-0.68556994 21:0 22:-0.35675303 23:0.046597111 24:-0.012765033 25:-0.33719192 26:0.71726442 27:1.2829227 
0.005215681278901383 1:0 2:0 3:-0.41060662 4:0.11198812 5:1.8672879 6:0.1589944 7:1.3339338 8:-0.9637133 9:0.56890233 10:1.3863373 11:1.1924921 12:0 13:-0.012121729 14:1.1544581 15:1.4197987 16:4.603147 17:1.8569683 18:-2.2340404 19:4.0153079 20:2.5239126 21:0 22:2.8030596 23:1.972611 24:0.77866701 25:0.24621624 26:3.1210695 27:3.6800637 
0.7459907516637595 1:0 2:0 3:-1.7751284 4:-0.33066312 5:-0.67180485 6:-0.018625859 7:2.4992783 8:-2.4156157 9:-1.1211011 10:1.6567436 11:-2.3851625 12:0 13:1.4344571 14:-1.0158121 15:-1.5813337 16:0.45393079 17:-1.5704297 18:1.9442441 19:2.1180755 20:1.0410508 21:0 22:-0.35675303 23:1.0096041 24:0.77866701 25:-0.04090928 26:-0.48463812 27:1.0748394 
0.6220395002370036 1:0 2:0 3:-1.0344204 4:-0.62572728 5:-0.087128526 6:0.36507004 7:-0.044028922 8:-0.049886467 9:0.75585972 10:-0.58523971 11:0.034675093 12:0 13:1.7815488 14:0.10437834 15:-0.87326871 16:1.7965855 17:2.4506102 18:-0.30702429 19:0.48442011 20:1.8738909 21:0 22:-0.35675303 23:1.0096041 24:0.77866701 25:0.93797193 26:-0.48463812 27:-0.34706283 
-0.774263682681127 1:0 2:0 3:-0.26968844 4:-0.20481582 5:-1.2032901 6:0.011177718 7:2.2419165 8:-1.5591755 9:0.88639025 10:2.3143523 11:-1.7614405 12:0 13:1.9574879 14:-0.34835215 15:-1.940752 16:0.60211466 17:1.6196757 18:-0.36779672 19:1.3949713 20:0.35040229 21:0 22:-0.35675303 23:-0.91640984 24:-0.80419707 25:0.95836408 26:-0.48463812 27:0.64711616 
0.4742594832783089 1:0 2:0 3:0.74436859 4:-0.94434611 5:0.47089988 6:0.026635646 7:-0.34411369 8:0.20249747 9:0.71523923 10:-1.0343987 11:0.55388941 12:0 13:0.12956641 14:0.29328813 15:1.0820099 16:-0.21882393 17:0.44515744 18:-0.60348021 19:-0.41201906 20:-1.2441821 21:0 22:-0.35675303 23:-0.91640984 24:-0.80419707 25:-0.34931407 26:5.5248746 27:0.1153446 
0.05092818599758227 1:0 2:0 3:-1.788405 4:0.86186494 5:-1.3714071 6:1.2916396 7:-1.1051802 8:-0.46050031 9:-2.2380427 10:0.93377156 11:-0.7769247 12:0 13:1.939656 14:-1.2758555 15:-4.5309934 16:4.3467177 17:1.052612 18:-2.5543424 19:-0.077266123 20:2.5543825 21:0 22:-0.35675303 23:0.046597111 24:-0.012765033 25:0.48715062 26:-0.48463812 27:-1.0637954 
0.08499858916805708 1:0 2:0 3:-0.14324013 4:-0.50783148 5:0.97787833 6:-0.47839841 7:4.8925425 8:-1.9229099 9:0.45078816 10:1.9584139 11:-0.45095484 12:0 13:0.25905431 14:1.138724 15:1.3941717 16:-0.61333384 17:0.20386452 18:0.18064569 19:1.0220776 20:-0.68556994 21:0 22:2.8030596 23:1.0096041 24:-0.012765033 25:-0.33719192 26:0.71726442 27:2.2308583 
0.5879973231025437 1:0 2:0 3:1.0150347 4:-1.1141892 5:1.3008413 6:-1.128418 7:-0.11751359 8:0.49251361 9:-0.51344666 10:0.069905867 11:0.85347289 12:0 13:-0.71944213 14:-0.099714569 15:0.49962072 16:-0.039729919 17:0.85246108 18:-0.48749743 19:-0.65190765 20:-0.25899306 21:0 22:2.8030596 23:0.046597111 24:-0.80419707 25:-0.31703526 26:-0.48463812 27:-0.70542859 
-0.774263682681127 1:0 2:0 3:0.62036176 4:-0.43372392 5:-0.13882462 6:-0.9587176 7:-0.74094967 8:1.1485555 9:0.70568938 10:-0.8379878 11:1.2934624 12:0 13:0.18369044 14:0.88643278 15:1.3421264 16:-0.64004495 17:0.0019770029 18:0.61501323 19:-0.57286274 20:-0.4722815 21:0 22:-0.35675303 23:0.046597111 24:-0.012765033 25:-0.11254405 26:-0.48463812 27:-0.63606881 
-0.774263682681127 1:0 2:0 3:1.14029 4:1.698315 5:-0.69230047 6:-1.8544576 7:-1.0862425 8:2.0483874 9:0.057357541 10:-0.27826448 11:-0.05401612 12:0 13:-0.18890106 14:0.47784173 15:1.1601461 16:-0.70236653 17:-0.32150531 18:-0.1699005 19:0.30507226 20:0.33008913 21:0 22:-0.35675303 23:1.0096041 24:1.570099 25:-0.080226821 26:-0.48463812 27:0.31229525 
0.2216241617097421 1:0 2:0 3:-0.17957677 4:-1.2119455 5:1.2718056 6:-0.047968967 7:-0.49502954 8:0.65640219 9:1.9394507 10:-1.2886918 11:0.79104409 12:0 13:0.75738589 14:-0.93819502 15:-0.399542 16:-0.54689377 17:-1.8968362 18:0.44922162 19:-0.62732826 20:-0.37071569 21:0 22:-0.35675303 23:1.972611 24:3.1529631 25:0.72560906 26:-0.48463812 27:0.20782575 
-0.774263682681127 1:0 2:0 3:0.65842129 4:-0.87681691 5:0.76257902 6:1.2722981 7:2.0307999 8:-1.7155743 9:-0.21020207 10:1.5910603 11:-0.98840981 12:0 13:-0.76976176 14:-1.4448196 15:-1.3848413 16:-0.67498902 17:0.033733549 18:0.16682432 19:0.72061945 20:-0.38087203 21:0 22:-0.35675303 23:1.972611 24:1.570099 25:-0.33719192 26:0.71726442 27:2.3811363 
0.774263682681127 1:0 2:0 3:0.085584904 4:-0.18081939 5:0.53710192 6:-0.36967609 7:1.0274451 8:-0.79905184 9:-1.1842318 10:1.181867 11:0.14219439 12:0 13:-1.7101153 14:1.1490623 15:-0.28212163 16:1.0152288 17:1.18549 18:-1.2697764 19:1.9229889 20:1.9145172 21:0 22:-0.35675303 23:1.0096041 24:0.77866701 25:-0.20945063 26:-0.48463812 27:0.68178936 
-0.774263682681127 1:0 2:0 3:-0.33158594 4:-0.54717739 5:0.91306535 6:0.22849893 7:-0.31542662 8:-0.22136593 9:-1.5364054 10:0.44948487 11:-0.21812636 12:0 13:-0.62084469 14:-0.91220309 15:-0.31045037 16:-0.4530822 17:0.42506075 18:-0.1485603 19:0.50463794 20:0.16758383 21:0 22:-0.35675303 23:1.0096041 24:0.77866701 25:-0.6102648 26:-0.48463812 27:0.27718687 
0.0571842894574013 1:0 2:0 3:0.8581492 4:0.81786912 5:1.2618807 6:-0.52779405 7:2.5362938 8:-1.5225647 9:-0.83778082 10:2.7088096 11:-1.0101451 12:0 13:-0.5705587 14:-0.86762378 15:-0.20802463 16:1.4788089 17:1.1061837 18:-1.600535 19:1.9277382 20:2.3817204 21:0 22:-0.35675303 23:1.0096041 24:1.570099 25:0.9202504 26:3.1210695 27:2.7443218 
-0.774263682681127 1:0 2:0 3:-1.7751284 4:-0.33066312 5:-0.67180485 6:-0.018625859 7:2.4992783 8:-2.4156157 9:-1.127334 10:1.7224004 11:-2.4943525 12:0 13:1.1916103 14:-1.0260351 15:-1.1078834 16:0.067532767 17:-1.2462199 18:1.7232804 19:2.4861274 20:1.0410508 21:0 22:-0.35675303 23:0.046597111 24:-0.012765033 25:-0.04090928 26:0.71726442 27:1.5256863 
-0.774263682681127 1:0 2:0 3:0.54156346 4:-0.249115 5:0.62809868 6:0.60200572 7:-1.2025184 8:0.59688991 9:-0.221373 10:-1.5964616 11:1.4779643 12:0 13:-1.1195788 14:0.11358675 15:0.22913172 16:0.15997151 17:0.27963219 18:-1.1151029 19:-0.75216679 20:-1.0816768 21:0 22:-0.35675303 23:0.046597111 24:-0.012765033 25:0.21656057 26:-0.48463812 27:-0.90195192 
0.5955439553296605 1:0 2:0 3:-1.4305928 4:0.69957947 5:0.34816735 6:-0.1666446 7:-0.14428913 8:-0.23427503 9:-1.1197842 10:0.4848708 11:0.34414554 12:0 13:2.5946734 14:1.8357197 15:-3.2671938 16:0.9001584 17:1.9914565 18:0.19691465 19:0.745096 20:1.7316988 21:0 22:-0.35675303 23:0.046597111 24:-0.012765033 25:-0.47720019 26:-0.48463812 27:-0.13898049 
0.774263682681127 1:0 2:0 3:0.66080843 4:-0.47790425 5:0.30626665 6:0.56443932 7:0.79612143 8:-0.81606437 9:1.1522439 10:0.80978895 11:0.15981952 12:0 13:-0.71599098 14:0.30347195 15:0.79249318 16:-0.37522324 17:0.54970555 18:0.69569024 19:1.1252056 20:0.40118543 21:0 22:-0.35675303 23:0.046597111 24:-0.012765033 25:-0.37670415 26:0.71726442 27:1.444764 
-0.774263682681127 1:0 2:0 3:0.72005819 4:1.1881807 5:-3.0752259 6:-1.1438871 7:-0.10945807 8:-0.1200257 9:-0.28374588 10:0.79064866 11:-1.6087805 12:0 13:-0.88931551 14:-1.3866941 15:-1.4298862 16:-0.4242293 17:0.5948801 18:0.25940436 19:-0.86504612 20:-0.14727042 21:0 22:-0.35675303 23:-0.91640984 24:-0.80419707 25:-0.80924717 26:-0.48463812 27:-1.2718789 
-0.004956131844182523 1:0 2:0 3:0.57718433 4:-1.6531792 5:0.14089908 6:2.3989273 7:0.075347145 8:-0.45643338 9:2.8893206 10:0.77819379 11:0.082491818 12:0 13:-0.27209367 14:-0.42772627 15:0.46935643 16:3.2194086 17:2.7247905 18:1.5419546 19:-0.6006911 20:-1.0816768 21:0 22:2.8030596 23:2.935618 24:2.3615311 25:0.54389085 26:-0.48463812 27:-0.20834127 
-0.1790903930942173 1:0 2:0 3:0.40477438 4:-0.52462152 5:-0.1794253 6:-1.7605869 7:-0.50744097 8:0.67710435 9:-0.36433578 10:0.29946688 11:-0.73980087 12:0 13:0.19363498 14:-0.44508079 15:0.4932484 16:-0.76525446 17:-0.91493554 18:0.59965153 19:-0.27008215 20:-0.34024571 21:0 22:-0.35675303 23:0.046597111 24:-0.012765033 25:1.3253988 26:-0.48463812 27:-0.29054704 
0.01276674417952331 1:0 2:0 3:-2.1642281 4:1.8201165 5:-0.88917048 6:0.99658743 7:-1.5579158 8:0.80373804 9:-1.1680605 10:-0.30089977 11:0.66528738 12:0 13:-0.089487128 14:0.12712703 15:0.97282943 16:-0.14966072 17:0.9981843 18:0.3476672 19:-0.87418107 20:-0.68556994 21:0 22:2.8030596 23:0.046597111 24:-0.80419707 25:-1.3832628 26:-0.48463812 27:-0.57826721 
-0.774263682681127 1:0 2:0 3:0.83907696 4:-1.238454 5:1.2162513 6:1.2640569 7:-0.95928849 8:-0.18964055 9:0.20812645 10:-1.5034264 11:1.0440692 12:0 13:-0.13067778 14:-0.63002415 15:0.29378697 16:-0.68221688 17:-0.26663209 18:0.71001264 19:0.47050499 20:-0.66525678 21:0 22:-0.35675303 23:1.0096041 24:0.77866701 25:0.021781194 26:0.71726442 27:2.2395277 
0.774263682681127 1:0 2:0 3:-0.97836437 4:-0.37131121 5:-1.8590724 6:0.90396339 7:-1.8530441 8:0.83061412 9:0.17502216 10:-1.3218584 11:-0.41473767 12:0 13:1.0515524 14:-0.55367842 15:-0.22245363 16:0.21060605 17:-1.0945882 18:1.8566305 19:-1.8818789 20:-1.5895064 21:0 22:-0.35675303 23:-1.8794168 24:-1.5956291 25:-1.7279139 26:-0.48463812 27:-2.057971 
-0.774263682681127 1:0 2:0 3:-0.90187293 4:-0.16228541 5:-1.419446 6:1.028357 7:0.88414783 8:-1.8756353 9:-0.87953559 10:2.8523232 11:-2.8526452 12:0 13:0.87427058 14:-1.166332 15:-0.88472268 16:-0.29669489 17:0.7543695 18:-0.019547477 19:0.7951409 20:0.58400389 21:0 22:-0.35675303 23:1.0096041 24:0.77866701 25:-0.059732902 26:-0.48463812 27:1.0914317 
0.5213873766839903 1:0 2:0 3:1.1355014 4:-0.050739099 5:-1.813062 6:-0.54832977 7:-1.3131561 8:1.7020242 9:2.0495838 10:-1.3042543 11:0.0066020384 12:0 13:1.0676357 14:-0.14958861 15:0.17824845 16:-0.1665469 17:-1.041292 18:1.5420206 19:-1.7301323 20:-1.6910724 21:0 22:-0.35675303 23:-0.91640984 24:-0.80419707 25:-0.41044497 26:-0.48463812 27:-1.7574059 
0.1602500859318685 1:0 2:0 3:1.2904064 4:1.0204771 5:-0.14088178 6:1.18916 7:-0.13066255 8:0.023841299 9:2.4518617 10:-0.93075377 11:0.8044281 12:0 13:-0.48218217 14:-0.82184638 15:-0.084506969 16:0.65559541 17:-2.2825485 18:-1.3015176 19:-0.82825102 20:0.63478704 21:0 22:2.8030596 23:-0.91640984 24:-1.5956291 25:5.061903 26:-0.48463812 27:-1.2894709 
-0.774263682681127 1:0 2:0 3:-2.3651253 4:1.4032056 5:-0.49957348 6:0.52041341 7:-1.4349349 8:1.1292148 9:-1.8604898 10:-0.24550284 11:0.42912526 12:0 13:1.2227767 14:-0.85963259 15:-0.89064457 16:1.3335428 17:-0.51401783 18:2.504376 19:-1.5309225 20:-0.84807524 21:0 22:-0.35675303 23:-1.8794168 24:-1.5956291 25:-1.7279139 26:-0.48463812 27:-1.1893301 
0.1085731395216601 1:0 2:0 3:0.99842308 4:0.15200818 5:1.503039 6:1.0753038 7:-0.44161597 8:-0.24107442 9:1.013173 10:-0.38848117 11:-0.22404038 12:0 13:1.0782144 14:-0.99688062 15:-0.87612419 16:-0.15797673 17:-1.3977398 18:1.4833751 19:-1.3760667 20:-0.92932789 21:0 22:2.8030596 23:0.046597111 24:-0.80419707 25:-0.79474191 26:-0.48463812 27:-1.2222124 
0.774263682681127 1:0 2:0 3:-0.14728703 4:-0.79059405 5:0.014139843 6:-1.1985066 7:0.91594752 8:-0.13037713 9:-1.0838336 10:1.1057296 11:-0.29814383 12:0 13:-1.5235195 14:0.085121048 15:-0.48050809 16:-0.092537266 17:0.74039476 18:-0.52768989 19:0.093286769 20:0.67541336 21:0 22:-0.35675303 23:1.972611 24:2.3615311 25:0.21902765 26:-0.48463812 27:0.18076602 
0.08880814352494674 1:0 2:0 3:0.081843302 4:-1.0908882 5:-0.56209832 6:-2.1474285 7:2.3361281 8:-1.3663038 9:-1.2936758 10:3.3655013 11:-2.7408083 12:0 13:-0.90087539 14:-0.36598323 15:0.07279356 16:0.35842019 17:1.5275535 18:0.0036305171 19:1.4856787 20:2.767671 21:0 22:-0.35675303 23:0.046597111 24:-0.012765033 25:-0.24378674 26:3.1210695 27:0.55343216 
0.774263682681127 1:0 2:0 3:-1.070423 4:-0.87902566 5:0.68669775 6:0.8701042 7:-2.3483657 8:1.4968875 9:-1.4235824 10:-1.4555977 11:1.3176255 12:0 13:1.2355913 14:-0.30701523 15:-0.20394692 16:0.96940516 17:0.10083723 18:2.2335099 19:-0.55150108 20:-0.68556994 21:0 22:-0.35675303 23:-0.91640984 24:-0.80419707 25:-1.0384058 26:0.71726442 27:-0.41931399 
0.1044252663680191 1:0 2:0 3:0.46019197 4:0.90325638 5:-2.8262314 6:-1.7817178 7:1.3468505 8:-1.1358733 9:-0.88211682 10:3.7565596 11:-3.4476593 12:0 13:0.89903548 14:-1.3834481 15:-1.324615 16:0.42686997 17:1.3752593 18:-0.51417983 19:0.080736517 20:0.58400389 21:0 22:-0.35675303 23:-0.91640984 24:-0.80419707 25:-1.1209745 26:-0.48463812 27:-0.12014 
0.05023253614421631 1:0 2:0 3:-0.95656413 4:0.86374903 5:2.2185291 6:1.6452556 7:-1.6645387 8:2.2246698 9:-0.43777446 10:-1.8656705 11:3.0690281 12:0 13:-0.05760254 14:2.3401418 15:1.3550352 16:-0.71283285 17:-0.35143291 18:-0.15361119 19:0.31587873 20:-0.65509996 21:0 22:-0.35675303 23:-1.8794168 24:-1.5956291 25:-1.7279139 26:0.71726442 27:0.43902914 
0.5400298804876408 1:0 2:0 3:-1.6103579 4:0.89576881 5:0.12841991 6:2.0480438 7:-1.1528461 8:1.2147292 9:0.75209136 10:-0.78991415 11:1.4604165 12:0 13:0.78545328 14:2.364642 15:1.0707833 16:-0.52436118 17:-0.66786637 18:1.1294375 19:-0.40973616 20:-0.94964105 21:0 22:-0.35675303 23:-1.8794168 24:-1.5956291 25:-1.7279139 26:0.71726442 27:-0.30082376 
0.1214189249143752 1:0 2:0 3:-0.96464847 4:-0.15037945 5:-1.9036349 6:0.6987189 7:-1.6863167 8:0.78286109 9:-0.028548701 10:-0.94574685 11:-0.71521675 12:0 13:0.55278247 14:-1.0139032 15:-0.34551133 16:-0.26840483 17:-1.1540915 18:1.4212011 19:-1.9662093 20:-1.6707593 21:0 22:-0.35675303 23:-1.8794168 24:-1.5956291 25:-1.7279139 26:-0.48463812 27:-2.1504525 
-0.774263682681127 1:0 2:0 3:-1.395535 4:-0.36531122 5:0.61567751 6:1.6685346 7:0.59766256 8:-0.021289826 9:0.26681585 10:0.14420582 11:0.70663344 12:0 13:0.73402244 14:0.62640446 15:1.0090373 16:-0.71046192 17:-0.17625323 18:-0.018326144 19:0.10644763 20:0.16758383 21:0 22:2.8030596 23:0.046597111 24:-0.80419707 25:-0.35347389 26:-0.48463812 27:0.27718653 
-0.04553375256486256 1:0 2:0 3:-0.14728703 4:-0.79059405 5:0.014139843 6:-1.1985066 7:0.91594752 8:-0.13037713 9:-1.8604707 10:1.0085891 11:0.23129829 12:0 13:-1.2330226 14:0.095530904 15:0.050581179 16:0.040230802 17:0.97311205 18:-0.46998616 19:1.1243864 20:3.1637779 21:0 22:-0.35675303 23:2.935618 24:4.7358272 25:0.96909188 26:-0.48463812 27:1.3316467 
0.2352543865243722 1:0 2:0 3:-0.062692228 4:-0.57436009 5:-0.42307699 6:-0.90999605 7:-0.65060183 8:0.81020645 9:-0.78739529 10:-0.17579152 11:0.50851937 12:0 13:-2.1869963 14:1.4347587 15:-1.6055536 16:2.92669 17:0.93756702 18:-2.2546644 19:-1.1483071 20:0.055861196 21:0 22:-0.35675303 23:-1.8794168 24:-1.5956291 25:-1.7279139 26:-0.48463812 27:-1.4886314 
-0.2034483879145092 1:0 2:0 3:-1.655638 4:1.0595889 5:0.19111714 6:2.0707161 7:-1.0750873 8:2.2173917 9:-0.20167754 10:-0.16895602 11:1.9872202 12:0 13:-0.30308177 14:1.2207732 15:1.3756867 16:-0.53712888 17:0.3089436 18:-0.041683046 19:0.48171816 20:2.4426599 21:0 22:-0.35675303 23:0.046597111 24:-0.012765033 25:-0.11254405 26:-0.48463812 27:-0.17366155 
0.1551446282295823 1:0 2:0 3:0.59625466 4:-0.37719412 5:0.59193616 6:0.91013085 7:-0.27778294 8:-0.68753533 9:1.3403268 10:0.11093434 11:-0.51751457 12:0 13:-1.1604115 14:-0.48494678 15:-0.40835142 16:0.74762441 17:1.7057385 18:-0.44139394 19:1.0482408 20:-0.0761746 21:0 22:2.8030596 23:1.0096041 24:0.77866701 25:1.218595 26:-0.48463812 27:0.41590943 
-0.774263682681127 1:0 2:0 3:1.0549898 4:0.80340669 5:-0.7325393 6:-1.3343138 7:0.54027487 8:0.32211977 9:0.28099511 10:0.63990893 11:-0.4989066 12:0 13:-0.41864214 14:-0.70565465 15:0.098947226 16:-0.71501416 17:-0.2117805 18:-0.036848135 19:0.41531479 20:-0.30977621 21:0 22:-0.35675303 23:1.0096041 24:0.77866701 25:-0.043944241 26:0.71726442 27:0.18996316 
0.01300831060027805 1:0 2:0 3:0.62036176 4:-0.43372392 5:-0.13882462 6:-0.9587176 7:-0.74094967 8:1.1485555 9:0.2114814 10:-0.65696284 11:1.4786389 12:0 13:0.20073291 14:1.5649628 15:1.4541273 16:-0.3033509 17:0.56069838 18:0.85762187 19:-0.99005954 20:-0.4722815 21:0 22:2.8030596 23:-0.91640984 24:-1.5956291 25:5.061903 26:-0.48463812 27:-1.2487583 
-0.774263682681127 1:0 2:0 3:0.99842308 4:0.15200818 5:1.503039 6:0.23882293 7:0.77035635 8:-1.1299296 9:1.4711492 10:0.40682312 11:-0.056940318 12:0 13:-1.3047652 14:0.88552967 15:0.39320996 16:-0.45194151 17:-0.23320732 18:-0.6359657 19:0.20188758 20:0.24883648 21:0 22:-0.35675303 23:1.0096041 24:0.77866701 25:2.5062837 26:-0.48463812 27:0.47670678 
0.774263682681127 1:0 2:0 3:-1.395535 4:-0.36531122 5:0.61567751 6:0.45090887 7:1.1640933 8:-0.82178763 9:0.32376014 10:0.62634056 11:0.34899246 12:0 13:0.53020144 14:0.20010203 15:0.90300548 16:-0.59361245 17:0.25629192 18:0.27290838 19:0.45521298 20:0.16758383 21:0 22:-0.35675303 23:1.972611 24:1.570099 25:0.45883942 26:-0.48463812 27:0.98235854 
-0.774263682681127 1:0 2:0 3:0.5851618 4:-0.64656226 5:-0.1056907 6:-0.38192103 7:2.4454548 8:-1.9766438 9:-0.70071698 10:0.41283647 11:-0.95000982 12:0 13:-0.93744345 14:0.23049484 15:0.53563583 16:-0.45189598 17:0.33569466 18:-0.27294081 19:2.698039 20:2.0973362 21:0 22:-0.35675303 23:1.972611 24:1.570099 25:-0.20945063 26:-0.48463812 27:1.4794462 
0.05913211219595312 1:0 2:0 3:-2.3651253 4:1.4032056 5:-0.49957348 6:0.0077065297 7:-1.4188238 8:1.7100384 9:-2.5596746 10:-0.095079831 11:0.56479161 12:0 13:0.62961324 14:-1.6599513 15:-1.6167429 16:0.56767289 17:-0.081726611 18:2.0392979 19:-1.7134179 20:-0.84807524 21:0 22:-0.35675303 23:-1.8794168 24:-1.5956291 25:-1.7279139 26:-0.48463812 27:-1.6496824 
0.774263682681127 1:0 2:0 3:-0.062692228 4:-0.57436009 5:-0.42307699 6:1.7678451 7:0.13415415 8:-0.2737931 9:0.57061841 10:1.7349976 11:-0.45730532 12:0 13:-1.5308026 14:-0.027974407 15:-0.60037682 16:2.1436668 17:2.467549 18:-0.68690566 19:-0.23730184 20:0.055861196 21:0 22:-0.35675303 23:0.046597111 24:-0.012765033 25:0.29956624 26:-0.48463812 27:-0.22375435 
0.08060037468215775 1:0 2:0 3:0.57718433 4:-1.6531792 5:0.14089908 6:0.36507004 7:-0.044028922 8:-0.049886467 9:0.57652831 10:-0.49541034 11:-0.27767417 12:0 13:2.032632 14:-0.080976753 15:-1.8243121 16:2.0667214 17:2.199912 18:-1.0319838 19:-0.012920957 20:1.8738909 21:0 22:-0.35675303 23:0.046597111 24:-0.012765033 25:0.1094196 26:-0.48463812 27:-0.65918835 
-0.774263682681127 1:0 2:0 3:-1.4305928 4:0.69957947 5:0.34816735 6:-0.1666446 7:-0.14428913 8:-0.23427503 9:-0.31132412 10:0.23713402 11:0.35884755 12:0 13:2.3502928 14:2.4386273 15:-2.1997212 16:2.9034615 17:2.0652833 18:-1.6064283 19:0.013056551 20:0.99026762 21:0 22:-0.35675303 23:-0.91640984 24:-0.80419707 25:-0.78506181 26:-0.48463812 27:-0.6707487 
0.2809901234661754 1:0 2:0 3:-1.3284738 4:2.1447344 5:-2.8241645 6:-0.2607065 7:0.52367214 8:-0.55747912 9:-0.85758634 10:1.8280626 11:-2.0513064 12:0 13:-0.73949063 14:-1.4488074 15:-1.3548243 16:-0.2262379 17:0.43993752 18:-0.59657994 19:-1.6752559 20:-1.6402893 21:0 22:-0.35675303 23:-1.8794168 24:-1.5956291 25:-1.7279139 26:-0.48463812 27:-1.6186842 
0.05222286005712678 1:0 2:0 3:1.1233405 4:0.50527334 5:0.37731639 6:1.2835692 7:-1.7035205 8:1.5725291 9:2.9188953 10:-0.22961476 11:1.1793212 12:0 13:-0.18808988 14:0.24888013 15:1.032834 16:2.5293614 17:-2.70833 18:-2.040442 19:-1.7019453 20:-1.1629295 21:0 22:-0.35675303 23:0.046597111 24:-0.012765033 25:-0.0073946646 26:-0.48463812 27:-1.6379511 
-0.774263682681127 1:0 2:0 3:0.59625466 4:-0.37719412 5:0.59193616 6:0.91013085 7:-0.27778294 8:-0.68753533 9:0.5982306 10:-0.20233014 11:-0.53315729 12:0 13:-1.2784629 14:-0.5547149 15:-0.69576282 16:0.22891759 17:0.64966285 18:-0.98631034 19:0.27960174 20:-0.17774041 21:0 22:2.8030596 23:0.046597111 24:-0.80419707 25:-0.0046629624 26:-0.48463812 27:-0.046497832 
0.774263682681127 1:0 2:0 3:-1.659179 4:0.45330297 5:0.33966529 6:1.450753 7:-0.63442202 8:-0.031751113 9:0.171849 10:-0.17695247 11:0.2739629 12:0 13:0.7524725 14:-1.018493 15:-0.51397912 16:-0.40471603 17:-0.31392458 18:1.2371432 19:-0.90014635 20:0.076174358 21:0 22:-0.35675303 23:0.046597111 24:-0.012765033 25:1.0962652 26:-0.48463812 27:-0.89617299 
-0.774263682681127 1:0 2:0 3:1.2209695 4:1.2188522 5:-0.46690623 6:0.70239236 7:-0.55686792 8:0.0014459669 9:1.0386004 10:-0.59478558 11:0.85671444 12:0 13:-0.010345736 14:1.7628903 15:1.4624166 16:-0.79285911 17:-0.74171245 18:0.48345031 19:-0.88650084 20:-1.3762179 21:0 22:-0.35675303 23:-0.91640984 24:-0.80419707 25:0.99629645 26:-0.48463812 27:-0.93663281 
-0.774263682681127 1:0 2:0 3:1.0766811 4:2.1365718 5:1.5432625 6:-0.57167394 7:-1.1248831 8:0.83677893 9:0.85385762 10:-1.607047 11:1.4918848 12:0 13:-0.065775727 14:0.2754047 15:1.0699145 16:-0.80207817 17:-0.61728774 18:0.14327272 19:0.21034054 20:2.3918773 21:0 22:2.8030596 23:2.935618 24:1.570099 25:0.11167386 26:-0.48463812 27:1.3590443 
0.774263682681127 1:0 2:0 3:0.24673777 4:-0.49443705 5:1.4773938 6:-0.21214223 7:0.15165849 8:-0.10540552 9:0.48525316 10:0.0047114543 11:1.0311365 12:0 13:0.73678971 14:0.6953254 15:1.0366834 16:-0.76098589 17:-0.31573077 18:0.11328315 19:0.32926974 20:0.16758383 21:0 22:2.8030596 23:1.0096041 24:-0.012765033 25:-0.32453352 26:-0.48463812 27:0.53151029 
-0.774263682681127 1:0 2:0 3:0.64051926 4:-0.84365727 5:-0.73537748 6:-0.94150737 7:0.35309405 8:0.12720569 9:0.43867323 10:-0.13151194 11:0.027719624 12:0 13:-0.10282718 14:0.23051271 15:1.037826 16:-0.46708664 17:0.4629195 18:0.53263826 19:0.56533655 20:-0.20820991 21:0 22:-0.35675303 23:1.0096041 24:2.3615311 25:-0.21322798 26:-0.48463812 27:0.26562668 
0.774263682681127 1:0 2:0 3:1.2401888 4:0.71167171 5:-0.27002678 6:-1.3099251 7:-0.32043775 8:1.1608756 9:-0.0041326606 10:-0.90545336 11:0.52820038 12:0 13:0.15194422 14:-0.78924456 15:0.11487261 16:-0.65313484 17:0.10416827 18:0.2219287 19:0.23857483 20:0.35040229 21:0 22:-0.35675303 23:0.046597111 24:0.77866701 25:-0.15797468 26:0.71726442 27:0.080663543 
-0.774263682681127 1:0 2:0 3:-0.17957677 4:-1.2119455 5:1.2718056 6:2.3476498 7:-0.69010287 8:1.4666439 9:2.5202458 10:-1.2853149 11:0.82717348 12:0 13:0.7370631 14:-1.1949853 15:-0.78396485 16:-0.27123003 17:-2.4027908 18:0.23180424 19:-0.91681413 20:-0.37071569 21:0 22:-0.35675303 23:0.046597111 24:-0.012765033 25:0.72560906 26:-0.48463812 27:-0.57826721 
0.008539877180664786 1:0 2:0 3:-0.56255836 4:-0.25546272 5:0.92581793 6:0.82214642 7:0.14393058 8:-0.06481973 9:-0.74945324 10:-0.1691679 11:1.2410127 12:0 13:-1.1423012 14:1.1146234 15:0.69110431 16:0.5373571 17:0.038663727 18:-1.4795266 19:2.0430831 20:3.39738 21:0 22:-0.35675303 23:-0.91640984 24:-0.80419707 25:-0.34931407 26:6.7267771 27:1.2713632 
0.264016914849088 1:0 2:0 3:-0.96464847 4:-0.15037945 5:-1.9036349 6:-0.64136939 7:1.7162421 8:-1.0786432 9:-1.8051888 10:2.7616518 11:-2.0591372 12:0 13:0.67118818 14:-1.7582081 15:-1.9083602 16:-0.11019491 17:-0.84819612 18:1.6083312 19:0.28793085 20:1.8738909 21:0 22:-0.35675303 23:0.046597111 24:-0.012765033 25:-0.20443067 26:-0.48463812 27:-0.65918952 
0.774263682681127 1:0 2:0 3:0.081843302 4:-1.0908882 5:-0.56209832 6:-0.67245388 7:-0.31900384 8:-0.70279993 9:-0.19384896 10:-0.33772144 11:-0.92329259 12:0 13:1.3639085 14:0.94647121 15:0.44380565 16:-0.65009401 17:0.10706319 18:0.33641716 19:-0.7321203 20:-0.12695726 21:0 22:-0.35675303 23:-0.91640984 24:-0.80419707 25:-0.57386686 26:1.919167 27:-0.8276247 
0.3835571189007627 1:0 2:0 3:0.34152633 4:0.9424852 5:-2.599437 6:-0.2335316 7:-1.0191065 8:0.59677023 9:0.6526131 10:0.52383559 11:-0.96830152 12:0 13:0.42228706 14:-1.7855943 15:-1.7542088 16:-0.67918055 17:-0.18184736 18:0.65944674 19:-1.6692861 20:-0.6043173 21:0 22:-0.35675303 23:-1.8794168 24:-1.5956291 25:-1.7279139 26:-0.48463812 27:-1.9539292 
-0.774263682681127 1:0 2:0 3:0.55785821 4:-0.29036629 5:1.3793198 6:-1.5613861 7:-0.17898373 8:1.4723576 9:-0.85557951 10:-1.1422483 11:1.8050747 12:0 13:-0.34694441 14:1.5181411 15:1.3921231 16:-0.49083196 17:0.39275444 18:-0.070955514 19:1.9711611 20:0.13711384 21:0 22:-0.35675303 23:-0.91640984 24:-0.80419707 25:-1.2240824 26:0.71726442 27:1.5603705 
0.06536431112013405 1:0 2:0 3:0.59625466 4:-0.37719412 5:0.59193616 6:0.67427381 7:-1.867053 8:0.68370157 9:1.557257 10:-1.6393021 11:1.6056613 12:0 13:-1.6635503 14:0.30390951 15:-0.60744645 16:0.87146159 17:-0.62956575 18:-1.7716961 19:-1.2210805 20:-0.17774041 21:0 22:2.8030596 23:-0.91640984 24:-1.5956291 25:5.061903 26:-0.48463812 27:-1.4799614 
0.1955004043084252 1:0 2:0 3:0.4485063 4:-0.3924478 5:1.0359056 6:-0.22663401 7:-2.1153076 8:3.6669137 9:0.4762298 10:-1.7921066 11:3.5352349 12:0 13:0.68585528 14:2.6309156 15:1.0392595 16:-0.66674255 17:-1.3972047 18:0.68944244 19:-1.7217193 20:-0.99026738 21:0 22:-0.35675303 23:-1.8794168 24:-1.5956291 25:-1.7279139 26:-0.48463812 27:-1.9192493 
0.05836230378129707 1:0 2:0 3:0.66080843 4:-0.47790425 5:0.30626665 6:0.56443932 7:0.79612143 8:-0.81606437 9:0.3860361 10:0.68925389 11:0.23449041 12:0 13:-0.8216961 14:2.5409001 15:0.90915041 16:-0.10644015 17:0.99698609 18:-0.088785896 19:0.17785687 20:0.40118543 21:0 22:2.8030596 23:-0.91640984 24:-1.5956291 25:5.061903 26:0.71726442 27:0.41590843 
-0.774263682681127 1:0 2:0 3:0.57718433 4:-1.6531792 5:0.14089908 6:0.36507004 7:-0.044028922 8:-0.049886467 9:0.44676628 10:-0.74121367 11:0.07283416 12:0 13:1.7258171 14:0.16074608 15:-0.68738521 16:0.93618062 17:1.7686663 18:-0.59618384 19:0.42790351 20:1.8738909 21:0 22:-0.35675303 23:0.046597111 24:-0.012765033 25:-0.21322798 26:-0.48463812 27:-0.34706283 
0.3129518300422139 1:0 2:0 3:0.66595879 4:0.81635759 5:-0.57286049 6:-1.7270646 7:-0.70342891 8:1.8885658 9:0.13396882 10:-0.067127544 11:0.7808433 12:0 13:0.40577181 14:0.011658716 15:0.82897864 16:1.0383292 17:1.841424 18:1.1160841 19:-0.21846913 20:0.53322123 21:0 22:-0.35675303 23:1.0096041 24:1.570099 25:0.58320397 26:-0.48463812 27:-0.20834244 
0.774263682681127 1:0 2:0 3:-1.5919653 4:-0.29994641 5:-0.51097362 6:1.8200493 7:-1.0468102 8:0.62332445 9:-0.68516004 10:0.72002469 11:-1.1203517 12:0 13:-0.50839478 14:-0.014690833 15:0.71991466 16:-0.2721796 17:0.83373411 18:0.20691395 19:-0.3191183 20:-0.035548276 21:0 22:-0.35675303 23:-0.91640984 24:-0.80419707 25:0.0055693737 26:-0.48463812 27:-0.6707487 
0.4267498658102842 1:0 2:0 3:0.52067294 4:-0.26697306 5:-0.45042983 6:-1.1664226 7:-0.21959002 8:1.0158124 9:-1.3749583 10:-0.53940851 11:0.73559345 12:0 13:-1.4631378 14:-0.39575329 15:-0.8607757 16:0.79942565 17:1.2117602 18:-1.0872209 19:-0.16707158 20:0.38087227 21:0 22:-0.35675303 23:-1.8794168 24:-1.5956291 25:-1.7279139 26:0.71726442 27:-0.13031035 
0.04971972048336327 1:0 2:0 3:1.0071221 4:0.89955916 5:0.74942452 6:-2.2151916 7:-0.52020762 8:1.5216843 9:-0.20739688 10:0.39180797 11:0.87289381 12:0 13:-0.70964392 14:0.50336172 15:0.90933665 16:-0.35230042 17:0.42462613 18:-0.39612627 19:2.0175494 20:3.996618 21:0 22:2.8030596 23:3.8986249 24:2.3615311 25:0.039758281 26:-0.48463812 27:1.1562744 
-0.774263682681127 1:0 2:0 3:0.09579769 4:-0.66641972 5:-0.21167339 6:1.502509 7:-1.8415061 8:2.6661898 9:2.0623065 10:-1.7325691 11:1.9345903 12:0 13:1.329454 14:1.940795 15:0.58130578 16:-0.31650333 17:-1.9147203 18:1.0397049 19:-2.0975888 20:-2.6965749 21:0 22:-0.35675303 23:-1.8794168 24:-1.5956291 25:-1.7279139 26:-0.48463812 27:-2.2641277 
0.774263682681127 1:0 2:0 3:1.1312855 4:1.3485368 5:0.011673146 6:-0.89661634 7:-0.24524572 8:1.3785441 9:0.8647126 10:-0.67033588 11:1.1125184 12:0 13:-0.23883967 14:0.073550086 15:0.90398473 16:-0.76303112 17:-0.91628353 18:-0.096208131 19:-0.56368198 20:-0.54337781 21:0 22:-0.35675303 23:0.046597111 24:-0.012765033 25:-0.28405485 26:-0.48463812 27:-0.22375535 
0.1742447799302726 1:0 2:0 3:-0.74679046 4:-0.79857039 5:-1.3972456 6:0.81294584 7:-0.65155759 8:-0.5126516 9:-0.5440201 10:-0.43093987 11:-1.0514063 12:0 13:2.3277534 14:0.017232122 15:-2.999554 16:3.4889173 17:-2.04802 18:3.0559853 19:-1.5027101 20:-1.1426163 21:0 22:2.8030596 23:0.046597111 24:-0.80419707 25:0.84266539 26:-0.48463812 27:-1.430467 
0.774263682681127 1:0 2:0 3:0.60578317 4:-0.80549823 5:-1.9512548 6:-1.0850099 7:0.1463062 8:0.044083652 9:0.2697519 10:0.35751789 11:-1.7513173 12:0 13:-1.0175111 14:-1.0318352 15:-0.96074485 16:0.31235741 17:1.2793702 18:-0.48238837 19:-0.4402379 20:-0.4722815 21:0 22:-0.35675303 23:-0.91640984 24:-0.80419707 25:-0.0046629624 26:-0.48463812 27:-0.63606764 
0.774263682681127 1:0 2:0 3:-0.94386972 4:0.035460695 5:-0.37181896 6:1.7781062 7:-0.75674716 8:1.1925824 9:0.60308534 10:-0.69419282 11:0.13565836 12:0 13:0.026863505 14:0.32527365 15:1.1047061 16:-0.79511147 17:-1.0463477 18:0.16096904 19:-1.0866151 20:-0.42149835 21:0 22:-0.35675303 23:-0.91640984 24:-0.80419707 25:1.3253988 26:-0.48463812 27:-1.002997 
0.4783637162888136 1:0 2:0 3:0.73596066 4:0.10859427 5:1.1094193 6:0.03189321 7:0.95737363 8:-0.61205963 9:0.19656894 10:0.2341588 11:0.22201659 12:0 13:-1.4789834 14:1.5739496 15:0.23981737 16:-0.34517012 17:-1.432521 18:-0.74770111 19:-0.83502091 20:-0.53322099 21:0 22:2.8030596 23:-0.91640984 24:-1.5956291 25:5.061903 26:-0.48463812 27:-0.62450863 
0.6260188342663685 1:0 2:0 3:0.014619896 4:-0.16884247 5:2.2889397 6:0.17835034 7:0.70170468 8:0.054600395 9:-1.4829891 10:0.12902072 11:2.1999728 12:0 13:-0.41725916 14:0.93880634 15:1.2645884 16:-0.68813895 17:-0.047849527 18:0.052179053 19:2.3199326 20:0.73635285 21:0 22:-0.35675303 23:1.0096041 24:0.77866701 25:0.21049043 26:-0.48463812 27:0.86771902 
0.774263682681127 1:0 2:0 3:0.77980144 4:-0.067412056 5:1.1603333 6:-0.33704135 7:-0.36411656 8:0.35421298 9:-1.2922373 10:-0.21340776 11:1.3905127 12:0 13:-0.55213501 14:0.85557789 15:1.1669446 16:-0.46642124 17:-0.16059237 18:-0.58754214 19:1.77504 20:2.6356352 21:0 22:-0.35675303 23:0.046597111 24:-0.012765033 25:0.13348949 26:-0.48463812 27:0.011307111 
-0.774263682681127 1:0 2:0 3:0.081843302 4:-1.0908882 5:-0.56209832 6:-0.67245388 7:-0.31900384 8:-0.70279993 9:-0.13584622 10:-0.26319525 11:-1.0232123 12:0 13:1.3676703 14:0.75393746 15:0.36491891 16:-0.68382735 17:-0.070998455 18:0.52287775 19:-0.64754297 20:-0.12695726 21:0 22:-0.35675303 23:-0.91640984 24:-0.80419707 25:-0.57386686 26:3.1210695 27:-0.68513471 
0.774263682681127 1:0 2:0 3:0.25476485 4:-1.116421 5:-0.59188925 6:1.1795663 7:0.51198417 8:-1.510585 9:0.87827037 10:-0.27549231 11:-0.68459276 12:0 13:-0.64519511 14:0.4392714 15:0.92454654 16:-0.60259236 17:-0.0359164 18:-0.25414681 19:1.2755787 20:0.72619603 21:0 22:-0.35675303 23:1.0096041 24:1.570099 25:0.17974626 26:0.71726442 27:1.467323 
-0.774263682681127 1:0 2:0 3:0.20705085 4:0.094199251 5:1.5061943 6:-1.1228122 7:-0.074859306 8:0.65792936 9:0.06379146 10:0.384797 11:0.5998223 12:0 13:-1.3593748 14:0.45273546 15:0.097126439 16:0.21564109 17:0.84617388 18:-0.83242637 19:1.9427189 20:2.077023 21:0 22:-0.35675303 23:1.0096041 24:0.77866701 25:-0.0046629624 26:-0.48463812 27:0.38122586 
-0.774263682681127 1:0 2:0 3:-0.7363868 4:-0.37031062 5:0.87685235 6:-0.1356051 7:0.61314598 8:0.28613477 9:0.74875119 10:-0.36079264 11:0.93591734 12:0 13:-0.1478178 14:-0.13278498 15:0.76999755 16:-0.76149219 17:-0.28383601 18:0.20885508 19:0.055097893 20:-0.54337781 21:0 22:-0.35675303 23:1.0096041 24:0.77866701 25:0.057006685 26:-0.48463812 27:1.1037391 
0.1179896515629092 1:0 2:0 3:-0.97873648 4:-0.27894821 5:-0.36049493 6:0.35686925 7:2.1655911 8:-1.3317632 9:0.019585779 10:2.0691173 11:-1.2148314 12:0 13:0.23675701 14:-1.147772 15:-0.40203021 16:-0.63377817 17:-0.50973189 18:0.91925419 19:-0.70547369 20:-0.70588311 21:0 22:2.8030596 23:0.046597111 24:-0.80419707 25:0.99704327 26:-0.48463812 27:-0.87855057 
0.774263682681127 1:0 2:0 3:0.22312422 4:-1.0607286 5:0.39021187 6:-0.22249987 7:-0.90307586 8:0.48021173 9:-0.76461812 10:-1.1033431 11:0.52528834 12:0 13:-0.94941537 14:0.53134965 15:0.70017532 16:-0.23807503 17:0.40758228 18:-0.60384326 19:-0.74911595 20:-0.17774041 21:0 22:-0.35675303 23:0.046597111 24:-0.012765033 25:0.48588103 26:-0.48463812 27:-0.6707477 
0.774263682681127 1:0 2:0 3:0.83907696 4:-1.238454 5:1.2162513 6:1.2640569 7:-0.95928849 8:-0.18964055 9:0.73045915 10:-1.3442167 11:1.0878676 12:0 13:-0.24145233 14:-0.65700514 15:0.23389764 16:-0.39627894 17:0.24492277 18:0.98390185 19:0.64262889 20:-0.49259466 21:0 22:-0.35675303 23:1.972611 24:1.570099 25:1.1580751 26:0.71726442 27:2.1817265 
0.0006204772876638128 1:0 2:0 3:-2.3408721 4:0.53822364 5:0.08956684 6:-2.2271107 7:-0.82462068 8:2.1934874 9:-5.6039901 10:0.068457985 11:1.7159572 12:0 13:-1.8391307 14:3.4603516 15:-1.6089682 16:4.1796962 17:1.1990818 18:-2.466943 19:-1.7260934 20:-0.78713576 21:0 22:-0.35675303 23:-1.8794168 24:-1.5956291 25:-1.7279139 26:-0.48463812 27:-2.0088405 
0.3390470818881393 1:0 2:0 3:-0.14728703 4:-0.79059405 5:0.014139843 6:0.52041341 7:-1.4349349 8:1.1292148 9:1.343408 10:-0.74391521 11:1.2534428 12:0 13:1.510569 14:1.9455671 15:0.29658398 16:2.9253082 17:-3.3759553 18:2.3194061 19:-1.6677939 20:-1.3559048 21:0 22:-0.35675303 23:-0.91640984 24:-0.80419707 25:0.21902765 26:-0.48463812 27:-1.3098985 
-0.774263682681127 1:0 2:0 3:1.005805 4:2.2982301 5:-0.83409332 6:-0.2607065 7:0.52367214 8:-0.55747912 9:0.80289687 10:0.68410133 11:-0.61273371 12:0 13:-0.9619169 14:-0.75163363 15:-0.459346 16:0.3486563 17:-1.0812924 18:-1.4451711 19:-0.46828628 20:-0.086330939 21:0 22:-0.35675303 23:-0.91640984 24:-0.80419707 25:-0.6939629 26:-0.48463812 27:-0.65918835 
0.02057440114798906 1:0 2:0 3:1.2401888 4:0.71167171 5:-0.27002678 6:-2.0029259 7:-0.72755539 8:2.7512624 9:-0.36206502 10:-0.39941864 11:0.71052616 12:0 13:0.61613348 14:-0.96294715 15:-0.31613058 16:-0.57588226 17:0.2620942 18:0.054216529 19:0.91260983 20:2.3410941 21:0 22:-0.35675303 23:1.0096041 24:1.570099 25:0.29214493 26:1.919167 27:0.60087174 
-0.09232657326538539 1:0 2:0 3:-1.8924518 4:0.53796817 5:0.76999153 6:1.8434991 7:-0.48358794 8:0.036796376 9:-1.6524355 10:-0.40597605 11:1.5319335 12:0 13:-1.3950851 14:1.1259559 15:0.32244789 16:0.4328911 17:-0.054587126 18:-1.4322425 19:2.388456 20:3.0418989 21:0 22:-0.35675303 23:1.972611 24:1.570099 25:0.021781194 26:0.71726442 27:3.0776405 
0.774263682681127 1:0 2:0 3:-0.90187293 4:-0.16228541 5:-1.419446 6:-0.66610654 7:1.1099828 8:-1.2107881 9:-0.54025174 10:1.3648563 11:-2.100526 12:0 13:1.2638534 14:-0.95923643 15:-1.1241141 16:0.58288606 17:1.1353744 18:-0.9616663 19:-0.2274382 20:-0.025391453 21:0 22:-0.35675303 23:0.046597111 24:-0.012765033 25:-0.059732902 26:-0.48463812 27:0.13948234 
-0.774263682681127 1:0 2:0 3:0.22312422 4:-1.0607286 5:0.39021187 6:-1.8275414 7:-1.2931939 8:1.3531769 9:-0.83239987 10:-1.2331315 11:0.80120141 12:0 13:-0.86664302 14:0.81364285 15:0.90822356 16:-0.30602952 17:0.26179557 18:-0.60616786 19:-0.93039815 20:-0.17774041 21:0 22:-0.35675303 23:-0.91640984 24:-0.80419707 25:0.48588103 26:-0.48463812 27:-0.86727086 
-0.774263682681127 1:0 2:0 3:-0.72602118 4:-0.41507462 5:1.3581013 6:0.17835034 7:0.70170468 8:0.054600395 9:-1.3220025 10:0.15307741 11:1.1521548 12:0 13:0.54574135 14:0.56368236 15:1.0972519 16:-0.54310049 17:-0.092961274 18:0.93565086 19:0.53534136 20:0.73635285 21:0 22:-0.35675303 23:0.046597111 24:-0.012765033 25:0.21049043 26:-0.48463812 27:-0.13898032 
-0.774263682681127 1:0 2:0 3:-0.97836437 4:-0.37131121 5:-1.8590724 6:1.2916396 7:-1.1051802 8:-0.46050031 9:0.67348063 10:-0.13538988 11:-1.5028704 12:0 13:0.80616183 14:-1.2330662 15:-0.92298605 16:0.070684668 17:-0.22683293 18:1.7081576 19:-1.5103412 20:-0.89885839 21:0 22:-0.35675303 23:-0.91640984 24:-0.80419707 25:0.48715062 26:-0.48463812 27:-1.6880451 
0.02754159770762545 1:0 2:0 3:0.60033602 4:-0.23769692 5:2.2121099 6:0.90443521 7:2.3146642 8:-1.6207119 9:-1.1466626 10:0.215418 11:2.3464298 12:0 13:-2.2455394 14:1.969412 15:-1.8666766 16:3.7526519 17:0.28956628 18:-2.6463038 19:-0.064957137 20:3.33644 21:0 22:2.8030596 23:1.0096041 24:-0.012765033 25:0.45290289 26:-0.48463812 27:-0.60138675 
0.774263682681127 1:0 2:0 3:-0.2621386 4:0.13807798 5:1.4225186 6:1.18916 7:-0.13066255 8:0.023841299 9:1.683229 10:-0.7134832 11:0.61687512 12:0 13:-0.14337619 14:-0.61914744 15:0.3033998 16:-0.28979422 17:-1.5603013 18:-0.76883457 19:0.059936766 20:0.63478704 21:0 22:-0.35675303 23:1.0096041 24:0.77866701 25:1.7198872 26:-0.48463812 27:-0.36371773 
0.4054606914268616 1:0 2:0 3:0.70944735 4:1.8968062 5:-0.41871499 6:-2.1040879 7:0.15915462 8:1.2489294 9:-1.1426265 10:-0.23407097 11:1.0901936 12:0 13:0.42620001 14:0.54550263 15:1.1433614 16:-0.19137087 17:-1.7886553 18:1.2945019 19:-0.72794229 20:0.066018019 21:0 22:-0.35675303 23:1.0096041 24:1.570099 25:0.96909188 26:-0.48463812 27:0.082119103 
-0.009035522375789692 1:0 2:0 3:0.56134967 4:-0.19732913 5:2.1176321 6:-0.53098455 7:-0.93508025 8:0.52673208 9:0.85613331 10:0.37606667 11:2.4726447 12:0 13:-0.38884132 14:0.82860304 15:1.241958 16:-0.55170868 17:-0.22205716 18:-0.47013772 19:1.9855845 20:1.924674 21:0 22:2.8030596 23:1.972611 24:0.77866701 25:0.45953206 26:-0.48463812 27:0.55462999 
0.01756815670563809 1:0 2:0 3:0.50945605 4:-1.1141644 5:-0.60706091 6:-1.3820585 7:1.5414316 8:-1.1621791 9:-0.3822845 10:0.50386983 11:-0.98807382 12:0 13:1.0533483 14:-0.46895967 15:-0.12680431 16:0.2216412 17:-0.73703988 18:1.8807612 19:-0.76726578 20:-0.14727042 21:0 22:2.8030596 23:1.0096041 24:-0.012765033 25:0.48715062 26:-0.48463812 27:-0.99443441 
-0.774263682681127 1:0 2:0 3:0.73596066 4:0.10859427 5:1.1094193 6:0.03189321 7:0.95737363 8:-0.61205963 9:-0.36485816 10:-0.5339911 11:0.83442874 12:0 13:-0.54911778 14:2.4198062 15:1.1600426 16:-0.7823948 17:-1.0220502 18:0.031944953 19:0.36145611 20:0.6551002 21:0 22:2.8030596 23:0.046597111 24:-0.80419707 25:-0.32421439 26:-0.48463812 27:0.2771857 
0.1667441319018235 1:0 2:0 3:-0.16051603 4:0.1553559 5:-1.3465972 6:-1.7719106 7:-0.62119129 8:2.1416857 9:-2.2319198 10:0.52164943 11:0.18591962 12:0 13:0.29112819 14:-0.95786951 15:-0.13774938 16:0.51234352 17:1.0751447 18:1.4580463 19:-1.3399288 20:-0.84807524 21:0 22:-0.35675303 23:-1.8794168 24:-1.5956291 25:-1.7279139 26:-0.48463812 27:-1.3412398 
0.774263682681127 1:0 2:0 3:0.88760896 4:1.3277941 5:-1.2073472 6:-1.0983671 7:0.31857706 8:-0.18400048 9:0.070133936 10:1.0685592 11:-1.3481426 12:0 13:-1.0706241 14:0.52478731 15:0.55659826 16:0.099243391 17:0.25106011 18:-1.0727938 19:-0.59593172 20:-0.035548276 21:0 22:-0.35675303 23:-0.91640984 24:-0.80419707 25:0.22002117 26:-0.48463812 27:-0.93663281 
0.009615031225370321 1:0 2:0 3:0.50945605 4:-1.1141644 5:-0.60706091 6:0.059596289 7:-1.8159187 8:2.7463123 9:1.1736694 10:-1.9874383 11:1.5171625 12:0 13:-0.013665172 14:2.6150505 15:1.257909 16:-0.47946311 17:0.32915257 18:0.72029655 19:-1.749187 20:-1.701229 21:0 22:-0.35675303 23:-1.8794168 24:-1.5956291 25:-1.7279139 26:-0.48463812 27:-2.057971 
0.1204720190218536 1:0 2:0 3:0.55785821 4:-0.29036629 5:1.3793198 6:-1.5613861 7:-0.17898373 8:1.4723576 9:-1.1094872 10:-0.68518329 11:2.2502376 12:0 13:-0.71631482 14:2.2057585 15:1.1098917 16:0.023734854 17:0.087983612 18:-1.0670116 19:3.8349819 20:1.9145172 21:0 22:-0.35675303 23:0.046597111 24:-0.012765033 25:-0.20159698 26:0.71726442 27:2.9129129 
-0.774263682681127 1:0 2:0 3:-1.1885102 4:0.12821932 5:-0.98701019 6:-0.36967609 7:1.0274451 8:-0.79905184 9:-0.95115579 10:1.8504463 11:-1.2793749 12:0 13:-1.9334595 14:0.16811415 15:-1.4658104 16:1.718722 17:1.789792 18:-1.2456126 19:0.29972328 20:-0.22852307 21:0 22:-0.35675303 23:0.046597111 24:-0.012765033 25:-0.6102648 26:-0.48463812 27:-0.11586313 
0.01645695745414508 1:0 2:0 3:0.56444217 4:1.0294292 5:1.8120585 6:0.56786562 7:0.24184226 8:-0.41573737 9:-1.1835577 10:0.37179255 11:0.33553796 12:0 13:0.64875422 14:-0.46404961 15:0.2746791 16:-0.67630882 17:-0.028867461 18:0.49641899 19:-0.20822746 20:0.19805333 21:0 22:2.8030596 23:1.972611 24:0.77866701 25:1.3001407 26:1.919167 27:1.2001175 
0.08804168813838967 1:0 2:0 3:0.77980144 4:-0.067412056 5:1.1603333 6:-1.0983671 7:0.31857706 8:-0.18400048 9:-1.1192601 10:0.19977602 11:0.98672416 12:0 13:-0.99728148 14:1.3087177 15:0.90087718 16:0.18030828 17:-0.029924006 18:-1.2387545 19:2.1722088 20:2.6356352 21:0 22:-0.35675303 23:0.046597111 24:-0.012765033 25:1.7081635 26:-0.48463812 27:0.30031176 
0.774263682681127 1:0 2:0 3:0.59508353 4:-0.41205156 5:0.59066948 6:-1.1228122 7:-0.074859306 8:0.65792936 9:0.026335097 10:0.40736498 11:0.53175982 12:0 13:-1.350492 14:0.41504372 15:0.08882419 16:0.21564109 17:0.84617388 18:-0.83242637 19:1.8638106 20:2.077023 21:0 22:-0.35675303 23:0.046597111 24:-0.012765033 25:-0.243248 26:-0.48463812 27:0.33498495 
-0.5119594557358988 1:0 2:0 3:0.51019481 4:-0.68453502 5:-1.1580606 6:-1.7005525 7:0.2023282 8:-0.12631019 9:-1.8422328 10:0.29569598 11:-0.64432785 12:0 13:-0.48868192 14:-0.59222677 15:0.18988477 16:-0.56533189 17:0.32057065 18:0.23871452 19:-0.45050602 20:0.44181176 21:0 22:-0.35675303 23:0.046597111 24:-0.012765033 25:0.054188969 26:-0.48463812 27:-0.43303703 
0.7655822394721985 1:0 2:0 3:0.52067294 4:-0.26697306 5:-0.45042983 6:-1.1664226 7:-0.21959002 8:1.0158124 9:-1.3749583 10:-0.53940851 11:0.73559345 12:0 13:-1.4631378 14:-0.39575329 15:-0.8607757 16:0.79942565 17:1.2117602 18:-1.0872209 19:-0.16707158 20:0.38087227 21:0 22:-0.35675303 23:-1.8794168 24:-1.5956291 25:-1.7279139 26:0.71726442 27:-0.13031035 
0.6935749092011201 1:0 2:0 3:-0.26968844 4:-0.20481582 5:-1.2032901 6:0.16057829 7:3.9473669 8:-1.9854586 9:0.899398 10:2.7129028 11:-1.9447637 12:0 13:1.8198969 14:-0.55766148 15:-1.8185986 16:0.59536709 17:1.6716098 18:-0.23057189 19:1.6083014 20:0.35040229 21:0 22:-0.35675303 23:0.046597111 24:-0.012765033 25:0.95836408 26:-0.48463812 27:0.88987973 
0.07117860359650388 1:0 2:0 3:0.65842129 4:-0.87681691 5:0.76257902 6:1.2722981 7:2.0307999 8:-1.7155743 9:-0.14240553 10:1.8993443 11:-1.2144819 12:0 13:-1.9043084 14:0.1190652 15:-1.4237365 16:0.58687346 17:0.69401968 18:-1.2625851 19:-0.40628017 20:-1.1426163 21:0 22:5.9628721 23:1.0096041 24:-0.80419707 25:-0.46274015 26:0.71726442 27:0.94767698 
0.2250533750339816 1:0 2:0 3:-1.659179 4:0.45330297 5:0.33966529 6:1.450753 7:-0.63442202 8:-0.031751113 9:0.64089844 10:0.033880977 11:-0.10312276 12:0 13:1.2048901 14:-1.2264593 15:-1.5057685 16:-0.15654537 17:-0.50943761 18:1.5499723 19:-1.2382983 20:0.076174358 21:0 22:2.8030596 23:0.046597111 24:-0.80419707 25:1.0962652 26:-0.48463812 27:-1.3585803 
-0.774263682681127 1:0 2:0 3:-1.6026839 4:0.42012027 5:-0.50477355 6:1.450753 7:-0.63442202 8:-0.031751113 9:0.47334685 10:-0.18507364 11:0.033608262 12:0 13:0.77752698 14:-1.1259706 15:-0.70889466 16:-0.40471603 17:-0.31392458 18:1.2371432 19:-1.0231108 20:-0.70588311 21:0 22:-0.35675303 23:-0.91640984 24:-0.80419707 25:1.0962652 26:-0.48463812 27:-0.96360741 
-0.412606829959098 1:0 2:0 3:0.25476485 4:-1.116421 5:-0.59188925 6:1.1795663 7:0.51198417 8:-1.510585 9:1.0694136 10:-0.32961131 11:-0.69776448 12:0 13:-0.57421576 14:0.48619948 15:0.99737193 16:-0.61740129 17:-0.303546 18:-0.37594647 19:1.0773417 20:0.72619603 21:0 22:-0.35675303 23:0.046597111 24:-0.012765033 25:-0.36367676 26:0.71726442 27:1.2924759 
-0.774263682681127 1:0 2:0 3:1.2904064 4:1.0204771 5:-0.14088178 6:1.18916 7:-0.13066255 8:0.023841299 9:1.7029105 10:-0.67771875 11:0.42588344 12:0 13:-0.18928054 14:-0.7982638 15:0.079866649 16:-0.17471983 17:-1.7060866 18:-0.84277727 19:-0.063422599 20:0.63478704 21:0 22:-0.35675303 23:0.046597111 24:-0.012765033 25:-0.28453693 26:-0.48463812 27:-0.61392149 
-0.774263682681127 1:0 2:0 3:-1.5919653 4:-0.29994641 5:-0.51097362 6:0.42428443 7:-1.7295038 8:0.89242679 9:-1.1728046 10:-1.1916197 11:0.25284315 12:0 13:2.0195917 14:-0.17575469 15:-1.9062345 16:2.4814085 17:-0.93887542 18:2.9381227 19:-1.6309755 20:-1.6098195 21:0 22:-0.35675303 23:-1.8794168 24:-1.5956291 25:-1.7279139 26:-0.48463812 27:-1.8845683 
0.0008349238032105735 1:0 2:0 3:-1.369497 4:-0.39863407 5:2.04845 6:1.8434991 7:-0.48358794 8:0.036796376 9:-1.5062536 10:-1.2874889 11:2.9359276 12:0 13:-0.59547881 14:1.5850447 15:1.2681585 16:0.14499898 17:0.65722465 18:-0.89736512 19:-0.40240536 20:2.615322 21:0 22:5.9628721 23:1.0096041 24:-0.80419707 25:-0.66700504 26:0.71726442 27:-0.14476008 
-0.774263682681127 1:0 2:0 3:0.52332833 4:0.29078332 5:-1.8408149 6:-1.4723793 7:0.37321984 8:1.057401 9:-1.1391872 10:1.3786884 11:-0.39670228 12:0 13:-0.3989578 14:-0.54438063 15:0.29358687 16:0.16853168 17:1.3492668 18:0.46405253 19:0.37737474 20:3.4887885 21:0 22:-0.35675303 23:-0.91640984 24:-0.80419707 25:-0.21322798 26:-0.48463812 27:-0.69387041 
-0.1177712221702178 1:0 2:0 3:0.62036176 4:-0.43372392 5:-0.13882462 6:-1.5684635 7:1.9160391 8:-0.4162249 9:-1.014609 10:0.98930092 11:0.69212534 12:0 13:1.6667759 14:0.23900192 15:-0.48924085 16:0.57075424 17:-1.4473919 18:2.0490422 19:-0.21361002 20:0.14727067 21:0 22:5.9628721 23:1.0096041 24:-0.80419707 25:-0.11254405 26:-0.48463812 27:-0.50890526 
-0.2088255425675426 1:0 2:0 3:0.014619896 4:-0.16884247 5:2.2889397 6:0.17835034 7:0.70170468 8:0.054600395 9:-1.0904597 10:0.34456862 11:2.1952769 12:0 13:-0.28271704 14:1.0320981 15:1.3423858 16:0.032817832 17:1.2213456 18:0.2954477 19:4.0792088 20:0.90901497 21:0 22:-0.35675303 23:2.935618 24:3.1529631 25:0.7957026 26:0.71726442 27:2.17113 
0.774263682681127 1:0 2:0 3:0.74436859 4:-0.94434611 5:0.47089988 6:-0.47601679 7:-0.47848149 8:0.058685579 9:0.69982958 10:-0.33329061 11:-0.0020157969 12:0 13:-0.033303339 14:0.22660363 15:1.043125 16:-0.74602036 17:-0.2158277 18:0.1879416 19:-0.32818632 20:-0.73635261 21:0 22:2.8030596 23:0.046597111 24:-0.80419707 25:-0.34931407 26:1.919167 27:0.11534443 
0.1647916223370192 1:0 2:0 3:1.2852435 4:3.428161 5:0.6496581 6:0.011177718 7:2.2419165 8:-1.5591755 9:1.404864 10:2.1039426 11:-1.1791587 12:0 13:1.8349969 14:-0.35520757 15:-1.5532683 16:1.3293147 17:2.244966 18:-0.067166552 19:1.9875564 20:0.35040229 21:0 22:-0.35675303 23:0.046597111 24:-0.012765033 25:0.95836408 26:-0.48463812 27:1.5603708 
0.774263682681127 1:0 2:0 3:1.2307754 4:0.016463671 5:0.58363983 6:-1.7719106 7:-0.62119129 8:2.1416857 9:-0.4521514 10:-0.53347794 11:0.9695579 12:0 13:-0.23520307 14:0.24213544 15:1.0164122 16:-0.39816958 17:0.63600888 18:0.32705369 19:-0.19773786 20:-0.68556994 21:0 22:-0.35675303 23:0.046597111 24:-0.012765033 25:-0.33719192 26:0.71726442 27:0.45058932 
-0.774263682681127 1:0 2:0 3:-0.062692228 4:-0.57436009 5:-0.42307699 6:-0.64658196 7:0.60614154 8:0.1783356 9:-0.61315654 10:0.38980168 11:-0.043183327 12:0 13:-2.0182351 14:0.54640952 15:-1.4086046 16:1.8162509 17:1.083021 18:-1.7795491 19:-0.81089759 20:0.055861196 21:0 22:-0.35675303 23:-0.91640984 24:-0.80419707 25:0.057006685 26:-0.48463812 27:-0.88750118 
0.08253560056869617 1:0 2:0 3:0.26830881 4:-0.66590878 5:-1.159013 6:-1.8275414 7:-1.2931939 8:1.3531769 9:-1.2004792 10:-0.88022357 11:0.03021709 12:0 13:-0.9623483 14:0.39267152 15:0.60999356 16:-0.21618383 17:0.40294472 18:-0.63885755 19:-1.3188608 20:-0.17774041 21:0 22:-0.35675303 23:-1.8794168 24:-1.5956291 25:-1.7279139 26:-0.48463812 27:-1.3990402 
0.05566243252243946 1:0 2:0 3:1.0766811 4:2.1365718 5:1.5432625 6:-0.57167394 7:-1.1248831 8:0.83677893 9:1.317864 10:-1.3156255 11:1.512486 12:0 13:-0.29196835 14:0.11129197 15:0.91313717 16:-0.73389004 17:-0.92577282 18:-0.1927548 19:-0.35635645 20:2.3918773 21:0 22:5.9628721 23:1.972611 24:-0.012765033 25:-1.4336886 26:-0.48463812 27:0.7346752 
0.3553310177514171 1:0 2:0 3:0.8581492 4:0.81786912 5:1.2618807 6:0.2349247 7:-0.16887968 8:0.079397207 9:1.6009244 10:-0.81076718 11:0.88857974 12:0 13:0.11212999 14:1.4365723 15:1.4575753 16:-0.3663549 17:0.47036172 18:0.82842906 19:-1.3622312 20:-1.6098195 21:0 22:-0.35675303 23:0.046597111 24:-0.012765033 25:0.40683391 26:0.71726442 27:-0.16113751 
-0.1006337585745116 1:0 2:0 3:-0.14728703 4:-0.79059405 5:0.014139843 6:-1.1985066 7:0.91594752 8:-0.13037713 9:-1.7503066 10:1.1824795 11:0.17875456 12:0 13:-1.5206248 14:0.6064333 15:-0.10604024 16:0.52230753 17:1.0655577 18:-0.9636353 19:0.67727238 20:3.1637779 21:0 22:-0.35675303 23:2.935618 24:3.1529631 25:0.21902765 26:-0.48463812 27:0.55343216 
-0.774263682681127 1:0 2:0 3:1.2401888 4:0.71167171 5:-0.27002678 6:-0.2335316 7:-1.0191065 8:0.59677023 9:0.69219019 10:-1.0938325 11:0.56510977 12:0 13:0.30715459 14:-0.9365086 15:-0.11347367 16:-0.79955615 17:-0.61802444 18:0.11563625 19:0.24999925 20:0.35040229 21:0 22:-0.35675303 23:0.046597111 24:0.77866701 25:-0.22816331 26:0.71726442 27:0.25406633 
0.1879947644262641 1:0 2:0 3:0.72005819 4:1.1881807 5:-3.0752259 6:-2.0979426 7:0.81171424 8:0.059026041 9:-2.3043394 10:1.8137659 11:-1.2975078 12:0 13:-1.7825502 14:0.44448136 15:-0.7938631 16:1.9210811 17:1.9728682 18:-1.1941474 19:0.74135138 20:1.9043609 21:0 22:-0.35675303 23:0.046597111 24:0.77866701 25:-0.048613453 26:-0.48463812 27:-0.54358733 
0.774263682681127 1:0 2:0 3:1.184817 4:2.0696955 5:1.8375379 6:0.34651161 7:-0.34034479 8:-0.21311237 9:1.3615571 10:-0.80807226 11:0.78248649 12:0 13:-1.1268317 14:0.28104141 15:0.33893156 16:0.15683212 17:0.068586063 18:-1.1903497 19:0.2311572 20:-0.37071569 21:0 22:-0.35675303 23:0.046597111 24:-0.012765033 25:0.5699411 26:-0.48463812 27:1.0748384 
0.1178960074972041 1:0 2:0 3:0.64051926 4:-0.84365727 5:-0.73537748 6:-0.94150737 7:0.35309405 8:0.12720569 9:0.13662836 10:0.088379604 11:0.031679323 12:0 13:-0.32381737 14:0.33590979 15:1.0429483 16:-0.34775168 17:0.71696873 18:0.33788909 19:0.13493697 20:-0.20820991 21:0 22:2.8030596 23:-0.91640984 24:-1.5956291 25:5.061903 26:-0.48463812 27:-0.40486443 
-0.774263682681127 1:0 2:0 3:0.8581492 4:0.81786912 5:1.2618807 6:0.2349247 7:-0.16887968 8:0.079397207 9:0.10763246 10:0.29292823 11:0.035345172 12:0 13:-0.092435335 14:-0.45681721 15:0.48511117 16:-0.30532259 17:0.26255281 18:1.1185304 19:-0.80583935 20:0.67541336 21:0 22:-0.35675303 23:0.046597111 24:-0.012765033 25:0.40683391 26:0.71726442 27:0.51513302 
0.774263682681127 1:0 2:0 3:-1.5154453 4:0.13942806 5:-0.36832364 6:0.23799156 7:-0.021131143 8:-0.092358484 9:-0.90200503 10:-0.41088803 11:0.52147341 12:0 13:-1.283989 14:-0.67539366 15:-0.87009749 16:0.58604597 17:0.68375956 18:-1.2673638 19:0.2133607 20:0.38087227 21:0 22:-0.35675303 23:0.046597111 24:0.77866701 25:0.55301192 26:0.71726442 27:0.75115348 
0.5476313112533069 1:0 2:0 3:-1.395535 4:-0.36531122 5:0.61567751 6:0.45090887 7:1.1640933 8:-0.82178763 9:0.20641311 10:0.65436237 11:0.35315418 12:0 13:0.56671804 14:0.28207888 15:0.93479734 16:-0.65866068 17:0.080320878 18:0.16060592 19:0.34864569 20:0.16758383 21:0 22:2.8030596 23:1.0096041 24:-0.012765033 25:0.44588887 26:-0.48463812 27:0.68179337 
0.774263682681127 1:0 2:0 3:-0.33158594 4:-0.54717739 5:0.91306535 6:0.22849893 7:-0.31542662 8:-0.22136593 9:-1.2755097 10:0.50026558 11:-0.26897234 12:0 13:-0.62630563 14:-1.2277507 15:-0.80938353 16:-0.63570783 17:0.14150972 18:0.15156161 19:-0.12818737 20:0.16758383 21:0 22:2.8030596 23:1.0096041 24:-0.012765033 25:-0.6102648 26:-0.48463812 27:-0.17366038 
-0.774263682681127 1:0 2:0 3:0.31369393 4:-1.6624116 5:-0.013374847 6:-0.32822261 7:-0.86076221 8:0.36882439 9:-0.042684707 10:-1.2855819 11:0.27423325 12:0 13:-0.6443646 14:-0.29597219 15:0.38662758 16:-0.33146686 17:0.52443458 18:-0.32913692 19:-1.1068612 20:-1.4473142 21:0 22:-0.35675303 23:-0.91640984 24:-0.80419707 25:-0.7896586 26:-0.48463812 27:-0.76323019 
0.1051996154843864 1:0 2:0 3:-0.90187293 4:-0.16228541 5:-1.419446 6:1.028357 7:0.88414783 8:-1.8756353 9:-0.94931651 10:2.9415026 11:-2.8602567 12:0 13:0.11140944 14:-1.1196768 15:-0.33653474 16:-0.57207496 17:0.0096772535 18:0.80622748 19:0.13676792 20:0.58400389 21:0 22:2.8030596 23:1.972611 24:0.77866701 25:-0.059732902 26:-0.48463812 27:0.55776288 
0.6279592135313693 1:0 2:0 3:0.99333096 4:0.18802766 5:1.5244993 6:0.81294584 7:-0.65155759 8:-0.5126516 9:1.1678304 10:-0.85599583 11:0.68386996 12:0 13:0.31953714 14:2.4298999 15:1.29148 16:0.19942281 17:0.53463594 18:-1.0264868 19:-0.98585085 20:-0.6347868 21:0 22:-0.35675303 23:1.0096041 24:0.77866701 25:1.512594 26:0.71726442 27:-0.73993855 
0.5884818735611294 1:0 2:0 3:-0.30598703 4:-0.28850527 5:-1.25911 6:0.12528123 7:1.7137983 8:-0.75763806 9:-1.061069 10:2.1633323 11:-0.92412391 12:0 13:0.23750672 14:-0.67734547 15:0.23356242 16:-0.35067744 17:0.30740105 18:1.0146611 19:1.2349305 20:3.4887885 21:0 22:-0.35675303 23:0.046597111 24:-0.012765033 25:-0.04090928 26:-0.48463812 27:-0.081180898 
0.01024418318159359 1:0 2:0 3:-0.5435262 4:0.27229724 5:1.3852704 6:-0.79664527 7:3.7115917 8:-1.5771266 9:-0.6956476 10:2.4732684 11:-0.44354266 12:0 13:-1.6120278 14:0.46517619 15:-0.3773686 16:1.2321876 17:1.6956171 18:-0.98887983 19:4.0408412 20:1.9145172 21:0 22:-0.35675303 23:2.935618 24:3.1529631 25:0.31809999 26:-0.48463812 27:2.4273774 
0.774263682681127 1:0 2:0 3:0.31369393 4:-1.6624116 5:-0.013374847 6:1.1365289 7:-1.4732885 8:0.65834353 9:-0.013855271 10:-1.6336364 11:0.69724883 12:0 13:-1.0606467 14:0.0089375534 15:0.22471705 16:0.069316843 17:0.665999 18:-0.80841929 19:-1.3044242 20:-1.4473142 21:0 22:-0.35675303 23:-1.8794168 24:-1.5956291 25:-1.7279139 26:-0.48463812 27:-1.052235 
-0.774263682681127 1:0 2:0 3:-1.5154453 4:0.13942806 5:-0.36832364 6:0.23799156 7:-0.021131143 8:-0.092358484 9:-1.30885 10:-0.42268187 11:0.60977381 12:0 13:-1.3731219 14:-0.57991935 15:-0.91269064 16:0.56829476 17:1.1489908 18:-0.93608349 19:-0.060550317 20:0.38087227 21:0 22:-0.35675303 23:-0.91640984 24:-0.80419707 25:-0.1972606 26:0.71726442 27:0.40434824 
0.774263682681127 1:0 2:0 3:1.2307754 4:0.016463671 5:0.58363983 6:-1.7719106 7:-0.62119129 8:2.1416857 9:0.47031826 10:-0.6256557 11:0.91657663 12:0 13:0.14540013 14:0.18524809 15:1.0138495 16:-0.75776194 17:-0.32390391 18:0.43805892 19:0.0018682825 20:-0.68556994 21:0 22:-0.35675303 23:1.972611 24:1.570099 25:-0.33719192 26:-0.48463812 27:0.75115449 
-0.774263682681127 1:0 2:0 3:0.19582631 4:-0.35861401 5:0.72414505 6:0.39196424 7:0.98653833 8:-1.1531989 9:-0.18510814 10:1.0195718 11:-0.55282047 12:0 13:1.1003812 14:0.29199967 15:0.47949289 16:2.2272792 17:1.4806947 18:-1.7420714 19:2.5603878 20:0.93948447 21:0 22:-0.35675303 23:1.0096041 24:1.570099 25:0.046819783 26:-0.48463812 27:1.2598043 
0.283897014174277 1:0 2:0 3:-0.17957677 4:-1.2119455 5:1.2718056 6:2.3476498 7:-0.69010287 8:1.4666439 9:2.7888885 10:-0.77549492 11:0.9594989 12:0 13:0.49045557 14:-0.98556152 15:-0.2655284 16:-0.79951562 17:-1.0164647 18:0.32731618 19:-0.55227568 20:-0.37071569 21:0 22:-0.35675303 23:0.046597111 24:-0.012765033 25:0.72560906 26:0.71726442 27:-0.33550365 
0.4673126749993984 1:0 2:0 3:-0.72602118 4:-0.41507462 5:1.3581013 6:0.17835034 7:0.70170468 8:0.054600395 9:-1.6407838 10:0.59007178 11:0.66483904 12:0 13:0.67120645 14:0.15294257 15:0.78731018 16:-0.18447921 17:0.10709429 18:1.3579045 19:-0.021552479 20:0.73635285 21:0 22:2.8030596 23:0.046597111 24:-0.80419707 25:-1.1921091 26:-0.48463812 27:-0.57345097 
-0.04883102181933989 1:0 2:0 3:-1.5159415 4:1.4738723 5:-0.99973424 6:2.0213923 7:-0.24445402 8:-0.040427961 9:0.3579634 10:2.2197026 11:-0.46858051 12:0 13:-0.29954223 14:-0.66124043 15:0.2078332 16:1.6614505 17:2.2313865 18:1.152889 19:1.6289439 20:3.4887885 21:0 22:-0.35675303 23:1.0096041 24:0.77866701 25:0.97450111 26:-0.48463812 27:0.43902713 
0.774263682681127 1:0 2:0 3:1.1312855 4:1.3485368 5:0.011673146 6:-0.89661634 7:-0.24524572 8:1.3785441 9:0.8647126 10:-0.67033588 11:1.1125184 12:0 13:-0.23883967 14:0.073550086 15:0.90398473 16:-0.76303112 17:-0.91628353 18:-0.096208131 19:-0.56368198 20:-0.54337781 21:0 22:-0.35675303 23:0.046597111 24:-0.012765033 25:-0.28405485 26:-0.48463812 27:-0.22375535 
-0.1941764770094361 1:0 2:0 3:-1.0344204 4:-0.62572728 5:-0.087128526 6:2.3989273 7:0.075347145 8:-0.45643338 9:1.0822119 10:-0.042436303 11:-0.14678614 12:0 13:1.3002927 14:-0.28313275 15:-0.28017048 16:1.4021271 17:2.3177453 18:0.16199188 19:0.99306308 20:1.8738909 21:0 22:-0.35675303 23:1.972611 24:1.570099 25:1.3376884 26:-0.48463812 27:0.56619285 
0.1979335585901221 1:0 2:0 3:1.005805 4:2.2982301 5:-0.83409332 6:-0.78824221 7:-0.43058325 8:0.27230572 9:0.925618 10:0.51931648 11:-0.42260522 12:0 13:-0.8386133 14:-0.85251079 15:-0.44523837 16:0.33305139 17:-1.396729 18:-1.3875165 19:-0.60515918 20:-0.086330939 21:0 22:-0.35675303 23:-0.91640984 24:-0.80419707 25:-0.6939629 26:-0.48463812 27:-1.0175539 
