svm_type epsilon_svr
kernel_type rbf
gamma 0.037037
nr_class 2
total_sv 109
rho -0.915968
SV
0.08579763910898393 1:0 2:0.24743583 3:-4.5031776 4:0.70320817 5:0.60184895 6:-1.7627827 7:0.33302733 8:1.5546625 9:-4.23664 10:2.1391661 11:2.3235131 12:0 13:0.35492246 14:0.17417219 15:-0.55537882 16:0.29758018 17:2.674233 18:-1.4470815 19:-1.6176993 20:-2.6798739 21:-0.22680322 22:0 23:0 24:0 25:0 26:-0.39519895 27:-1.2409788 
0.774263682681127 1:0 2:0.24743583 3:0.3406273 4:-0.12867702 5:-0.36134679 6:-0.037637854 7:0.2513794 8:-0.47470931 9:-0.13055631 10:0.43358217 11:-0.47273836 12:0 13:-0.28434301 14:-0.49454857 15:-0.70274498 16:0.13034839 17:-1.3741113 18:0.50215842 19:0.81524787 20:0.003585166 21:-0.22680322 22:0 23:0 24:0 25:0 26:-0.39519895 27:0.70323789 
-0.5517830771492205 1:0 2:0.24743583 3:0.40109324 4:0.36560467 5:0.9583854 6:0.56704534 7:0.59530155 8:-0.32593709 9:0.45533957 10:0.99082157 11:0.70378682 12:0 13:-0.076233299 14:-1.2606463 15:0.34151975 16:-0.5795445 17:-0.75522842 18:1.0417628 19:0.29553572 20:1.3085213 21:-0.22680322 22:0 23:0 24:0 25:0 26:-0.39519895 27:0.43695098 
0.774263682681127 1:0 2:0.24743583 3:0.3406273 4:-0.12867702 5:-0.36134679 6:-0.037637854 7:0.2513794 8:-0.47470931 9:-0.13055631 10:0.43358217 11:-0.47273836 12:0 13:-0.28434301 14:-0.49454857 15:-0.70274498 16:0.13034839 17:-1.3741113 18:0.50215842 19:0.81524787 20:0.003585166 21:-0.22680322 22:0 23:0 24:0 25:0 26:-0.39519895 27:0.70323789 
0.774263682681127 1:0 2:0.24743583 3:-0.3846156 4:0.45949236 5:-0.4445199 6:0.19285453 7:0.33703883 8:-0.42595403 9:-0.11593406 10:-0.089036813 11:0.21066846 12:0 13:0.88862226 14:0.024172742 15:0.86030295 16:-0.22427884 17:0.74480782 18:0.89564485 19:0.0516183 20:1.3526733 21:-0.22680322 22:0 23:0 24:0 25:0 26:-0.39519895 27:-0.60122332 
0.774263682681127 1:0 2:0.24743583 3:0.42985184 4:0.22801693 5:1.1054846 6:-0.43986612 7:0.70553074 8:0.85389727 9:-0.32970265 10:1.0685036 11:2.7281265 12:0 13:-1.2043174 14:-0.54178976 15:-1.0917996 16:0.73667288 17:-1.171516 18:-0.068514279 19:0.86016835 20:0.73454554 21:-0.22680322 22:0 23:0 24:0 25:0 26:-0.39519895 27:0.25178161 
0.774263682681127 1:0 2:0.24743583 3:-0.43349642 4:0.70697677 5:-0.7577427 6:-1.5002068 7:0.62061787 8:0.68031053 9:-0.95923547 10:1.2867178 11:-0.44476838 12:0 13:-1.7698 14:0.71975269 15:-1.6296725 16:1.2428772 17:-0.39630945 18:-1.9380673 19:0.32736711 20:0.14094674 21:-0.22680322 22:0 23:0 24:0 25:0 26:0.46106545 27:0.70654304 
0.1343831962094266 1:0 2:0.24743583 3:0.99880004 4:-0.41277739 5:-0.26301602 6:1.1633109 7:0.53059294 8:1.031318 9:1.0394138 10:-0.12576231 11:1.8328256 12:0 13:0.13365271 14:2.4517243 15:2.8989867 16:-0.83491639 17:-2.47785 18:0.33541378 19:-0.051340036 20:0.89643608 21:-0.22680322 22:0 23:0 24:0 25:0 26:-0.39519895 27:0.32286631 
0.774263682681127 1:0 2:0.24743583 3:0.69497513 4:-0.021136865 5:0.2012922 6:0.29410977 7:-0.40427335 8:-1.0394537 9:0.37105239 10:-0.91468289 11:-0.052841812 12:0 13:0.20740711 14:-0.85265111 15:0.15630308 16:0.27893544 17:-0.41551895 18:0.63734121 19:0.01520298 20:1.2202172 21:-0.22680322 22:0 23:1 24:1 25:2.5766101 26:-0.39519895 27:0.70197792 
0.07801747707423885 1:0 2:0.24743583 3:0.62843935 4:-0.035490644 5:-0.42726592 6:-1.1422284 7:0.2835093 8:0.037985229 9:-0.33323206 10:0.42273729 11:0.39705992 12:0 13:-0.70110985 14:-1.1228168 15:-0.51091913 16:1.2576811 17:-0.31623734 18:-1.0508817 19:1.7553155 20:1.2104058 21:-0.22680322 22:0 23:0 24:0 25:0 26:3.886123 27:1.6300194 
-0.774263682681127 1:0 2:0.24743583 3:-0.58942588 4:0.5563043 5:-1.3744146 6:-1.5002068 7:0.62061787 8:0.68031053 9:-0.86551075 10:1.3033287 11:-0.5135293 12:0 13:-1.4994895 14:0.57593953 15:-1.5640619 16:1.2726229 17:-0.37052761 18:-1.7343808 19:0.50812324 20:0.14094674 21:-0.22680322 22:0 23:0 24:0 25:0 26:0.46106545 27:1.2681932 
-0.624536692399855 1:0 2:0.24743583 3:-0.11716975 4:0.15168387 5:-0.16888547 6:1.4756693 7:-0.391086 8:-0.17326691 9:0.81017207 10:-1.2923733 11:-0.25876193 12:0 13:0.87491921 14:1.2495847 15:2.0604845 16:-1.9872338 17:1.7160164 18:0.7319852 19:-1.2364747 20:-0.17792892 21:-0.22680322 22:0 23:0 24:0 25:0 26:-0.39519895 27:-0.50644597 
0.1381453213555656 1:0 2:0.24743583 3:-0.063881352 4:-0.19221651 5:0.98561227 6:-1.3196507 7:0.33093397 8:0.57192269 9:-0.15068011 10:0.33142613 11:0.63525221 12:0 13:-0.089907639 14:-0.19740634 15:-0.73915255 16:0.48823779 17:-0.96134557 18:0.33126388 19:0.9214505 20:-0.59491952 21:-0.22680322 22:0 23:1 24:1 25:2.5402501 26:-0.39519895 27:2.3356338 
-0.774263682681127 1:0 2:-4.0414519 3:1.0499214 4:-3.826368 5:2.7395991 6:1.7987532 7:-3.8753219 8:3.3933509 9:-0.34504334 10:-1.1227619 11:0.51725575 12:0 13:1.0817832 14:1.1324557 15:1.6599649 16:-1.3057281 17:-0.02255265 18:-1.4677891 19:-1.611215 20:-0.28094975 21:5.290317 22:0 23:0 24:0 25:0 26:-0.39519895 27:-1.8096495 
0.774263682681127 1:0 2:-4.0414519 3:1.0499214 4:-3.826368 5:2.7395991 6:1.7987532 7:-3.8753219 8:3.3933509 9:0.35808108 10:-0.20249695 11:1.5990032 12:0 13:0.94964143 14:0.2669815 15:0.42462808 16:-1.3057281 17:-0.02255265 18:-1.4677891 19:-0.80868569 20:0.62171247 21:4.1404773 22:0 23:0 24:0 25:0 26:-0.39519895 27:-1.8096495 
-0.01639153035719903 1:0 2:-4.0414519 3:1.0499214 4:-3.826368 5:2.7395991 6:1.7987532 7:-3.8753219 8:3.3933509 9:-0.069816662 10:-0.6386604 11:1.3560798 12:0 13:-0.47079232 14:1.7151913 15:-1.5037604 16:-1.3057281 17:-0.02255265 18:-1.4677891 19:-1.4828555 20:-1.0904029 21:3.6235772 22:0 23:0 24:0 25:0 26:-0.39519895 27:-1.8096495 
0.774263682681127 1:0 2:0.24743583 3:-0.053011871 4:0.20145625 5:0.42806293 6:0.022077428 7:0.27605802 8:-0.85388218 9:-0.34400432 10:-1.6675395 11:0.1220735 12:0 13:-0.26013477 14:-1.0009242 15:-0.2882844 16:-0.055920405 17:-1.2027254 18:0.6948011 19:2.7996881 20:1.2839923 21:-0.22680322 22:0 23:0 24:0 25:0 26:-0.39519895 27:0.89152815 
-0.4336144422724015 1:0 2:0.24743583 3:0.15981017 4:0.030214653 5:-0.074016464 6:1.4328124 7:-0.01210462 8:0.30760591 9:0.2036022 10:-0.70924683 11:0.2244405 12:0 13:0.5616541 14:-0.058797335 15:1.7838562 16:-2.1072074 17:-0.22037642 18:1.0780782 19:-1.4428408 20:-0.28094975 21:-0.22680322 22:0 23:0 24:0 25:0 26:-0.39519895 27:-1.1698941 
0.05421678973707125 1:0 2:0.24743583 3:0.55405931 4:-0.27393042 5:1.6381813 6:1.3719072 7:-0.11184903 8:1.8480679 9:1.8974476 10:-0.63545864 11:2.999975 12:0 13:-1.9233143 14:-1.7927628 15:-0.27863354 16:-1.1586886 17:-1.4157731 18:0.97591572 19:-1.7234496 20:-3.3470594 21:-0.22680322 22:0 23:0 24:0 25:0 26:-0.39519895 27:-1.3357561 
-0.774263682681127 1:0 2:0.24743583 3:0.47980935 4:-0.28800251 5:-2.5864465 6:-0.81674819 7:-0.063715635 8:-0.99341058 9:0.099647313 10:-1.0896284 11:-2.2862019 12:0 13:0.27127444 14:-0.028686236 15:-0.52432244 16:0.69817718 17:0.73826948 18:0.13776958 19:0.90371982 20:-1.2768224 21:-0.22680322 22:0 23:0 24:0 25:0 26:2.1735942 27:1.3417346 
0.7415118682354502 1:0 2:0.24743583 3:0.54004759 4:0.22008887 5:-2.3088429 6:-1.013876 7:-0.17200756 8:-0.48687173 9:-0.67834229 10:-1.2915319 11:-2.4498472 12:0 13:-2.7644375 14:-0.72768713 15:-1.0484356 16:0.94938771 17:0.66696265 18:-2.69588 19:-0.085098798 20:-0.18283434 21:-0.22680322 22:0 23:0 24:0 25:0 26:-0.39519895 27:0.12541033 
-0.1001863220794701 1:0 2:0.24743583 3:0.48959237 4:-0.066625679 5:1.1299244 6:-0.97316561 7:0.62234749 8:0.26179684 9:-0.10137543 10:0.84168124 11:0.85673989 12:0 13:-1.6763428 14:-0.53030496 15:-1.1882651 16:0.4920631 17:-1.465097 18:0.10888162 19:1.5232912 20:0.01830236 21:-0.22680322 22:0 23:1 24:1 25:5.5632901 26:-0.39519895 27:1.6260699 
-0.6757633836300321 1:0 2:0.24743583 3:-1.145601 4:0.32401292 5:-0.53020974 6:-0.834859 7:-0.095755777 8:-0.035144449 9:-1.0084616 10:-0.99774077 11:-0.074646716 12:0 13:-0.49475186 14:-0.28995282 15:-0.9425179 16:0.97654413 17:1.3649394 18:-0.76915966 19:0.13436067 20:0.64624144 21:-0.22680322 22:0 23:0 24:0 25:0 26:-0.39519895 27:-0.45905623 
-0.02447055722257777 1:0 2:0.24743583 3:0.26148832 4:-0.93541344 5:0.14094705 6:-0.84342148 7:0.51359703 8:0.47008813 9:0.20832087 10:0.021358052 11:0.047403811 12:0 13:-2.5414561 14:-0.71395759 15:-1.0932026 16:0.20572229 17:-2.2297893 18:-0.1348622 19:1.5948285 20:0.63643013 21:-0.22680322 22:1 23:2 24:1 25:2.8284299 26:-0.39519895 27:3.1328716 
0.1472083150988605 1:0 2:0.24743583 3:-0.3846156 4:0.45949236 5:-0.4445199 6:-1.4086015 7:0.44444216 8:0.5978872 9:-0.29901007 10:0.17021578 11:0.12249341 12:0 13:0.73344522 14:-0.25366702 15:0.58778896 16:0.053698249 17:0.74622832 18:0.73809286 19:0.29696673 20:1.3526733 21:-0.22680322 22:0 23:1 24:1 25:3.8654101 26:-0.39519895 27:0.82045236 
-0.774263682681127 1:0 2:0.24743583 3:0.48959237 4:-0.066625679 5:1.1299244 6:-0.97316561 7:0.62234749 8:0.26179684 9:-0.17588958 10:0.91628352 11:0.89554416 12:0 13:-1.5313966 14:-0.49511735 15:-1.1845424 16:0.52684652 17:-1.3867456 18:0.10926796 19:1.5071781 20:0.01830236 21:-0.22680322 22:0 23:0 24:0 25:0 26:-0.39519895 27:1.2232612 
0.505921299503 1:0 2:0.24743583 3:-0.53906826 4:0.5576971 5:-0.51622731 6:-1.2876042 7:0.64345405 8:1.2293072 9:-1.3935604 10:0.68983371 11:0.47437561 12:0 13:1.3382224 14:2.1027706 15:1.394332 16:-2.1261784 17:1.2093551 18:0.88626622 19:2.7617796 20:0.4696337 21:-0.22680322 22:0 23:0 24:0 25:0 26:1.3173298 27:0.91523219 
0.2873103100937918 1:0 2:-4.0414519 3:1.0499214 4:-3.826368 5:2.7395991 6:1.7987532 7:-3.8753219 8:3.3933509 9:0.50957492 10:0.69960598 11:-0.17517428 12:0 13:0.82316983 14:0.92186764 15:2.0055318 16:-1.3057281 17:-0.02255265 18:-1.4677891 19:-1.7276179 20:-1.4534302 21:2.9378929 22:0 23:0 24:0 25:0 26:-0.39519895 27:-1.8096495 
-0.774263682681127 1:0 2:0.24743583 3:0.0095293845 4:-0.18830016 5:0.051842701 6:0.66055846 7:0.27092216 8:-0.1849391 9:0.53189051 10:-0.81550863 11:-0.20829828 12:0 13:-0.19005958 14:-0.78258447 15:-0.42316717 16:-0.239676 17:-1.8020852 18:0.54190695 19:-0.88134984 20:-0.64888288 21:-0.22680322 22:0 23:0 24:0 25:0 26:-0.39519895 27:-0.38797376 
0.774263682681127 1:0 2:0.24743583 3:0.47979148 4:-0.30876745 5:-1.2490873 6:-0.37046398 7:0.35497489 8:0.58664808 9:-0.034721644 10:-0.37591863 11:0.13791837 12:0 13:-1.9042016 14:-0.22289075 15:-1.3423788 16:1.0029438 17:-0.75782303 18:-0.36808323 19:0.10541355 20:0.037925442 21:-0.22680322 22:0 23:0 24:0 25:0 26:-0.39519895 27:1.5964506 
-0.774263682681127 1:0 2:-4.0414519 3:1.0499214 4:-3.826368 5:2.7395991 6:1.7987532 7:-3.8753219 8:3.3933509 9:0.35621235 10:-0.7364377 11:2.8774032 12:0 13:0.74668165 14:-0.25351911 15:0.71255868 16:-1.3057281 17:-0.02255265 18:-1.4677891 19:-1.443005 20:-0.19264612 21:2.8640501 22:0 23:0 24:0 25:0 26:-0.39519895 27:-1.8096495 
0.774263682681127 1:0 2:0.24743583 3:0.2500675 4:-0.042178398 5:0.44452288 6:-0.30928309 7:0.24192958 8:-0.86957312 9:0.77475399 10:0.053194202 11:-0.9605849 12:0 13:-0.34294771 14:-0.9622753 15:-0.39797183 16:-0.10943164 17:-0.96327822 18:0.7965127 19:-0.39193451 20:-1.5809804 21:-0.22680322 22:0 23:0 24:0 25:0 26:-0.39519895 27:0.90873708 
0.6812404937566936 1:0 2:0.24743583 3:-3.3641214 4:0.71725151 5:-0.15966693 6:-1.5578484 7:-0.44490824 8:-0.55551383 9:-4.0648732 10:0.79231249 11:-0.72579172 12:0 13:1.1899701 14:1.5864266 15:0.013813062 16:-0.51363658 17:2.6032205 18:0.045579453 19:0.2091493 20:-0.27604433 21:-0.22680322 22:0 23:0 24:0 25:0 26:-0.39519895 27:0.51241432 
0.774263682681127 1:0 2:0.24743583 3:-0.14941872 4:0.42301433 5:-0.77560004 6:-0.63422883 7:0.47678475 8:-0.15071014 9:-0.26442752 10:1.1361339 11:-0.70684604 12:0 13:-0.99435402 14:0.22046482 15:-1.3498776 16:1.2250985 17:-0.11086201 18:-0.83712397 19:0.38794729 20:-0.33000769 21:-0.22680322 22:0 23:0 24:0 25:0 26:1.3173298 27:0.1747748 
0.774263682681127 1:0 2:0.24743583 3:0.58765815 4:-0.7375633 5:1.8045115 6:0.66055846 7:0.27092216 8:-0.1849391 9:0.8265209 10:-1.3697936 11:1.2109561 12:0 13:-0.60594176 14:-1.143482 15:-0.43165581 16:-0.66167738 17:-1.6306877 18:0.80365652 19:0.42149365 20:-0.3251018 21:-0.22680322 22:0 23:0 24:0 25:0 26:-0.39519895 27:1.5549851 
-0.774263682681127 1:0 2:0.24743583 3:0.62843935 4:-0.035490644 5:-0.42726592 6:-1.1422284 7:0.2835093 8:0.037985229 9:-0.271832 10:0.45623694 11:0.40852244 12:0 13:-0.60666899 14:-1.1345798 15:-0.44027119 16:1.225867 17:-0.2555792 18:-0.86357014 19:1.9234885 20:1.2104058 21:-0.22680322 22:0 23:0 24:0 25:0 26:5.5986518 27:1.8867114 
0.07343049917815934 1:0 2:0.24743583 3:-3.9700492 4:0.71209521 5:0.87537919 6:-1.140938 7:0.65153365 8:1.6088848 9:-3.771208 10:1.82141 11:2.2995105 12:0 13:-1.7389142 14:-0.12645077 15:-1.3681146 16:-1.3057281 17:-0.02255265 18:-1.4677891 19:-1.6391318 20:-1.2719165 21:-0.22680322 22:0 23:0 24:0 25:0 26:-0.39519895 27:-1.7148711 
-0.3235879920201564 1:0 2:0.24743583 3:1.5185929 4:0.24385413 5:-0.18058137 6:1.0014805 7:0.30680365 8:-0.8495869 9:2.8793361 10:0.12089038 11:-0.80801274 12:0 13:0.50638799 14:-0.56775756 15:0.39660133 16:-0.8702697 17:0.60015426 18:1.1297045 19:-0.2351279 20:-0.55567336 21:-0.22680322 22:0 23:0 24:0 25:0 26:-0.39519895 27:0.34261182 
0.1794415343628635 1:0 2:0.24743583 3:0.87738613 4:-0.44364093 5:-0.71397653 6:1.5054348 7:-0.17897218 8:0.25399416 9:0.87287618 10:-1.5588515 11:-0.35713212 12:0 13:0.75208188 14:-0.054661856 15:0.2461143 16:-0.93656832 17:-3.1965173 18:-0.54077838 19:-1.0166501 20:-0.030755578 21:-0.22680322 22:0 23:0 24:0 25:0 26:-0.39519895 27:-1.1698941 
-0.1361991737184234 1:0 2:0.24743583 3:0.22135772 4:-0.69975471 5:2.6432914 6:-1.7147452 7:0.21936305 8:0.71928221 9:-0.46142993 10:-0.90762264 11:2.1255239 12:0 13:-1.1971669 14:-1.0969587 15:-0.7557615 16:0.54167062 17:-1.1189943 18:0.21555335 19:3.5678146 20:1.4066367 21:-0.22680322 22:0 23:0 24:0 25:0 26:-0.39519895 27:2.4948639 
-0.774263682681127 1:0 2:0.24743583 3:-2.0493288 4:0.33079166 5:-1.7892554 6:-0.64815535 7:0.41717451 8:-0.3634817 9:-1.7140054 10:1.2609078 11:-2.2228164 12:0 13:0.59954849 14:3.1855978 15:2.5287659 16:0.60354122 17:-1.2852618 18:-2.9997104 19:-1.6504217 20:-3.0478071 21:-0.22680322 22:0 23:0 24:0 25:0 26:-0.39519895 27:-1.1462014 
0.774263682681127 1:0 2:0.24743583 3:0.59349707 4:-0.23814424 5:0.19163705 6:1.4153798 7:-0.36377545 8:0.91503489 9:0.52984792 10:-2.1255083 11:1.3105714 12:0 13:-0.042271993 14:1.4120176 15:2.8968502 16:-1.3057281 17:-0.02255265 18:-1.4677891 19:-1.4766093 20:-0.53605028 21:-0.22680322 22:0 23:0 24:0 25:0 26:-0.39519895 27:-1.6437873 
-0.774263682681127 1:0 2:-4.0414519 3:1.0499214 4:-3.826368 5:2.7395991 6:1.7987532 7:-3.8753219 8:3.3933509 9:-0.14563922 10:-1.4930757 11:1.6265917 12:0 13:1.2056457 14:0.9852714 15:0.50255127 16:-1.3057281 17:-0.02255265 18:-1.4677891 19:-1.1480438 20:0.94058813 21:2.2205617 22:0 23:0 24:0 25:0 26:-0.39519895 27:-1.8096495 
0.4572260920417358 1:0 2:0.24743583 3:0.26342377 4:0.2161485 5:0.17061933 6:1.2171257 7:-0.1485856 8:0.61775993 9:1.3642408 10:-0.074725238 11:0.2750563 12:0 13:-0.081257241 14:-0.0010899443 15:2.4776803 16:-0.84562042 17:2.0764 18:0.59570202 19:-1.7523607 20:-3.2587554 21:-0.22680322 22:0 23:0 24:0 25:0 26:-0.39519895 27:-1.2646737 
0.5831867245275096 1:0 2:0.24743583 3:0.48731697 4:-0.22224517 5:2.2898286 6:-0.2234845 7:0.4996631 8:0.060058822 9:0.25073976 10:-0.065693193 11:1.941674 12:0 13:-0.017379782 14:-0.80345985 15:-0.23253302 16:-0.6580925 17:-0.99653446 18:1.0140267 19:2.5722754 20:0.54322014 21:-0.22680322 22:0 23:0 24:0 25:0 26:1.3173298 27:0.58350793 
0.774263682681127 1:0 2:0.24743583 3:-0.8784593 4:0.21252803 5:-0.8772181 6:-0.49448457 7:0.1046119 8:-0.33214234 9:-0.46204082 10:-1.0929441 11:-0.085130891 12:0 13:0.52486616 14:0.066789269 15:-0.29093301 16:0.9689238 17:-0.50615333 18:-0.21769847 19:-0.22943976 20:0.78360301 21:-0.22680322 22:0 23:0 24:0 25:0 26:-0.39519895 27:-0.67230802 
-0.4049714668010336 1:0 2:0.24743583 3:0.44392536 4:-0.58078503 5:1.6041022 6:0.89172097 7:0.2839062 8:0.52088123 9:-0.094896817 10:-0.79872428 11:2.1382663 12:0 13:-2.8183243 14:0.1772989 15:-1.4266433 16:-0.9639319 17:-2.4929803 18:0.35342808 19:3.0964156 20:2.0591047 21:-0.22680322 22:0 23:0 24:0 25:0 26:0.46106545 27:0.90837491 
-0.774263682681127 1:0 2:-4.0414519 3:1.0499214 4:-3.826368 5:2.7395991 6:1.7987532 7:-3.8753219 8:3.3933509 9:-0.67714745 10:-1.3620573 11:1.4408489 12:0 13:0.89284974 14:0.51253055 15:1.6517116 16:-1.3057281 17:-0.02255265 18:-1.4677891 19:-1.3689746 20:1.1319131 21:6.0287459 22:0 23:0 24:0 25:0 26:-0.39519895 27:-1.8096495 
-0.774263682681127 1:0 2:0.24743583 3:-0.76316152 4:0.76275961 5:0.21747424 6:-1.2836411 7:0.58250171 8:1.5445593 9:-1.7239139 10:1.9234424 11:1.4327432 12:0 13:-2.5075204 14:-0.51871653 15:-1.1955277 16:1.2288045 17:0.38614867 18:-1.9970702 19:-0.71770992 20:-2.5964757 21:-0.22680322 22:0 23:0 24:0 25:0 26:-0.39519895 27:-0.19693413 
-0.03899310716845234 1:0 2:-4.0414519 3:1.0499214 4:-3.826368 5:2.7395991 6:1.7987532 7:-3.8753219 8:3.3933509 9:-1.0713524 10:-0.55422002 11:1.333702 12:0 13:-0.015996224 14:3.2699809 15:-1.3159706 16:-1.3057281 17:-0.02255265 18:-1.4677891 19:-1.7637332 20:0.15566393 21:7.9170146 22:0 23:0 24:0 25:0 26:-0.39519895 27:-1.8096495 
0.0009567104553524516 1:0 2:0.24743583 3:0.44489472 4:-0.42633924 5:1.4358028 6:0.56570895 7:-0.1309473 8:-1.1680766 9:0.14213686 10:-0.60042876 11:0.69726236 12:0 13:-1.7726972 14:-0.97601584 15:-0.95689616 16:-0.059122182 17:-1.9277098 18:0.35226825 19:4.2953518 20:0.95039943 21:-0.22680322 22:0 23:0 24:0 25:0 26:2.1735942 27:5.6304485 
0.774263682681127 1:0 2:0.24743583 3:0.3406273 4:-0.12867702 5:-0.36134679 6:-0.037637854 7:0.2513794 8:-0.47470931 9:-0.13055631 10:0.43358217 11:-0.47273836 12:0 13:-0.28434301 14:-0.49454857 15:-0.70274498 16:0.13034839 17:-1.3741113 18:0.50215842 19:0.81524787 20:0.003585166 21:-0.22680322 22:0 23:0 24:0 25:0 26:-0.39519895 27:0.70323789 
-0.774263682681127 1:0 2:0.24743583 3:0.45517215 4:-0.66490785 5:-0.37018399 6:-1.2375943 7:0.20651094 8:-0.50007742 9:-0.29428125 10:-0.018267333 11:-0.88628332 12:0 13:-0.73325128 14:-0.35310809 15:-1.0235192 16:1.0284703 17:-0.98693607 18:-0.54862011 19:0.85741796 20:-1.2670106 21:-0.22680322 22:0 23:0 24:0 25:0 26:-0.39519895 27:2.2895291 
-0.774263682681127 1:0 2:0.24743583 3:0.39885692 4:0.20819205 5:-0.70965728 6:-1.0773978 7:-0.323018 8:-0.94447762 9:-0.034350715 10:-0.60071297 11:-1.303144 12:0 13:-0.8175246 14:-0.10098257 15:-1.1710661 16:0.93188522 17:0.92703582 18:-0.31458175 19:1.6424156 20:0.54322014 21:-0.22680322 22:0 23:0 24:0 25:0 26:-0.39519895 27:1.2193073 
0.1927603583553519 1:0 2:0.24743583 3:0.42985184 4:0.22801693 5:1.1054846 6:-0.43986612 7:0.70553074 8:0.85389727 9:-0.23846459 10:0.82841658 11:2.7479829 12:0 13:-0.89057847 14:-0.65055483 15:-0.93038918 16:0.73667288 17:-1.171516 18:-0.068514279 19:1.277572 20:0.73454554 21:-0.22680322 22:0 23:0 24:0 25:0 26:-0.39519895 27:0.25178161 
0.5692686864962282 1:0 2:0.24743583 3:0.31518178 4:0.56222888 5:-0.16325591 6:1.590593 7:0.42439905 8:0.17469471 9:1.6914906 10:1.761365 11:-0.16877034 12:0 13:0.3637936 14:-0.8298109 15:1.0740688 16:-1.5928825 17:0.35102959 18:1.180376 19:-1.6512362 20:-2.6651567 21:-0.22680322 22:0 23:0 24:0 25:0 26:-0.39519895 27:-1.4068408 
-0.774263682681127 1:0 2:0.24743583 3:0.23385522 4:0.19394782 5:0.26916469 6:-0.5136185 7:0.43900384 8:-1.0333903 9:-0.09355505 10:-0.12281104 11:-0.70333514 12:0 13:0.81070093 14:-0.093058963 15:0.54850318 16:-0.112554 17:-1.0819446 18:0.76588795 19:1.9284034 20:0.44019885 21:-0.22680322 22:0 23:0 24:0 25:0 26:-0.39519895 27:1.4365086 
-0.774263682681127 1:0 2:0.24743583 3:0.72886186 4:-0.030004618 5:0.68792014 6:1.7697835 7:-0.4941094 8:0.70846181 9:1.7293291 10:-1.2597937 11:1.4131868 12:0 13:0.12315278 14:-0.14916334 15:2.2366058 16:-1.7380004 17:1.8254869 18:0.74400735 19:-1.406368 20:-1.2277645 21:-0.22680322 22:0 23:0 24:0 25:0 26:-0.39519895 27:-0.90925476 
0.1207186791422269 1:0 2:0.24743583 3:0.94274988 4:0.50140838 5:-0.94672621 6:-0.22714351 7:0.0024107749 8:-0.81566318 9:0.58293463 10:0.43505941 11:-1.1634631 12:0 13:0.22989287 14:-0.50973293 15:-0.21476017 16:0.82099304 17:1.3196958 18:-0.33192498 19:-0.15887473 20:0.082077492 21:-0.22680322 22:0 23:0 24:0 25:0 26:-0.39519895 27:-0.22210948 
-0.774263682681127 1:0 2:0.24743583 3:-4.037904 4:0.75548992 5:-0.61399439 6:-1.1721368 7:0.41434901 8:-0.20986005 9:-2.9013724 10:1.3918588 11:-0.79456737 12:0 13:1.3825536 14:3.4882289 15:0.71452641 16:-0.72260556 17:1.3530925 18:0.91219958 19:-1.4488282 20:-1.3111627 21:-0.22680322 22:0 23:0 24:0 25:0 26:-0.39519895 27:-0.73128128 
0.2170716474164122 1:0 2:-4.0414519 3:1.0499214 4:-3.826368 5:2.7395991 6:1.7987532 7:-3.8753219 8:3.3933509 9:-0.64103393 10:0.17145216 11:1.1156483 12:0 13:0.45817622 14:3.0845502 15:2.6576977 16:-1.3057281 17:-0.02255265 18:-1.4677891 19:-0.5909364 20:1.8972142 21:5.427454 22:0 23:0 24:0 25:0 26:-0.39519895 27:-1.8096495 
-0.774263682681127 1:0 2:0.24743583 3:0.68259144 4:0.51452658 5:-0.85994837 6:-0.17916099 7:0.7551479 8:1.0053181 9:0.54628399 10:1.8879485 11:0.68827405 12:0 13:-2.6278953 14:0.10487868 15:-1.4325048 16:1.2110032 17:-0.90197739 18:-1.5249846 19:-0.26233145 20:-0.25642125 21:-0.22680322 22:0 23:0 24:0 25:0 26:-0.39519895 27:0.22808682 
0.5542029599349406 1:0 2:0.24743583 3:-2.8961476 4:0.77220457 5:0.49486333 6:0.030344916 7:0.67060381 8:-0.23590256 9:-0.77096956 10:1.5758877 11:0.39298677 12:0 13:1.4176022 14:2.5590464 15:0.5143373 16:-1.779744 17:-0.57128693 18:1.1327903 19:-0.67625665 20:-0.065095853 21:-0.22680322 22:0 23:1 24:1 25:2.4154799 26:-0.39519895 27:-0.22210931 
-0.774263682681127 1:0 2:0.24743583 3:-1.6864065 4:0.7713555 5:0.067087893 6:0.030344916 7:0.67060381 8:-0.23590256 9:-0.63391956 10:1.4425779 11:0.33924726 12:0 13:1.4289895 14:2.8583481 15:0.63750931 16:-2.0179999 17:-0.44154066 18:1.0896974 19:-0.75736289 20:-0.065095853 21:-0.22680322 22:0 23:0 24:0 25:0 26:-0.39519895 27:-0.64861289 
0.1420011465817188 1:0 2:0.24743583 3:0.16494652 4:-1.2650505 5:-0.41973843 6:1.3077383 7:-1.3759049 8:-0.76364181 9:1.3594735 10:-5.5964668 11:-1.5460114 12:0 13:-2.2301703 14:-2.2214565 15:0.91319416 16:-1.2096825 17:0.44543733 18:1.1858082 19:-1.3539181 20:-2.2481657 21:-0.22680322 22:0 23:0 24:0 25:0 26:-0.39519895 27:-0.60319813 
0.1593014984102834 1:0 2:-4.0414519 3:1.0499214 4:-3.826368 5:2.7395991 6:1.7987532 7:-3.8753219 8:3.3933509 9:-0.71078341 10:-1.9695133 11:2.2039575 12:0 13:-0.19366514 14:-1.0419082 15:1.8208382 16:-1.3057281 17:-0.02255265 18:-1.4677891 19:-1.8183708 20:0.52359706 21:7.9064659 22:0 23:0 24:0 25:0 26:-0.39519895 27:-1.8096495 
0.774263682681127 1:0 2:-4.0414519 3:1.0499214 4:-3.826368 5:2.7395991 6:1.7987532 7:-3.8753219 8:3.3933509 9:-0.32856955 10:-2.2073957 11:0.8366929 12:0 13:0.64295074 14:0.18724669 15:-0.20711886 16:-1.3057281 17:-0.02255265 18:-1.4677891 19:-1.4669454 20:0.64624144 21:5.4801986 22:0 23:0 24:0 25:0 26:-0.39519895 27:-1.8096495 
-0.774263682681127 1:0 2:0.24743583 3:-0.50496357 4:0.49958613 5:-0.27299664 6:0.89172097 7:0.2839062 8:0.52088123 9:-0.31562228 10:1.0976759 11:0.41571276 12:0 13:-0.16508485 14:-1.0739897 15:-0.10754006 16:-1.3057281 17:-0.02255265 18:-1.4677891 19:-1.3115551 20:-0.45755795 21:-0.22680322 22:0 23:0 24:0 25:0 26:-0.39519895 27:-1.6045151 
0.774263682681127 1:0 2:0.24743583 3:0.47980935 4:-0.28800251 5:-2.5864465 6:-1.6132412 7:-0.041120631 8:-0.0034074976 9:-0.45229929 10:-1.0779742 11:-2.3938712 12:0 13:-0.50071808 14:-0.55847756 15:-0.79823376 16:0.58684283 17:0.42901919 18:0.33978514 19:0.86209109 20:-1.2768224 21:-0.22680322 22:0 23:0 24:0 25:0 26:0.46106545 27:1.5786814 
-0.774263682681127 1:0 2:0.24743583 3:0.37114573 4:0.040795106 5:1.1380789 6:-0.31959666 7:0.62354756 8:-0.33031768 9:0.21785663 10:0.2246778 11:0.30625579 12:0 13:0.37438385 14:-0.1692401 15:-0.31504303 16:-0.18569914 17:-0.83096655 18:0.86805652 19:2.0921117 20:1.1073846 21:-0.22680322 22:0 23:0 24:0 25:0 26:-0.39519895 27:2.0525713 
0.774263682681127 1:0 2:0.24743583 3:0.42051286 4:0.2526218 5:0.25757208 6:-0.2234845 7:0.4996631 8:0.060058822 9:0.35970446 10:1.2074638 11:-0.13219325 12:0 13:-0.4330313 14:-1.0638679 15:-0.37784426 16:0.97752631 17:-0.55053805 18:-0.24563967 19:-0.48446495 20:-0.53605028 21:-0.22680322 22:0 23:0 24:0 25:0 26:1.3173298 27:-0.079942309 
0.08335942572615669 1:0 2:0.24743583 3:-3.907903 4:-0.27753197 5:-2.1025976 6:-1.2995766 7:-0.66302309 8:-1.4614252 9:-3.0462894 10:-2.6385718 11:-3.3104254 12:0 13:1.1487342 14:3.4786899 15:-0.13635272 16:-0.6506069 17:1.9036334 18:0.64276007 19:-1.5827562 20:-2.1206156 21:-0.22680322 22:0 23:0 24:0 25:0 26:-0.39519895 27:-1.0682714 
0.774263682681127 1:0 2:0.24743583 3:0.34653942 4:-0.08707581 5:0.82969949 6:-1.7147452 7:0.21936305 8:0.71928221 9:-1.0219249 10:0.088161461 11:1.2884373 12:0 13:-1.8281135 14:-0.41884156 15:-1.2545822 16:1.188339 17:-0.42406459 18:-0.76124083 19:1.4520871 20:1.4066367 21:-0.22680322 22:0 23:0 24:0 25:0 26:-0.39519895 27:1.0534407 
-0.774263682681127 1:0 2:0.24743583 3:-2.4205621 4:0.52486356 5:-1.0114465 6:-0.77632348 7:0.18086838 8:-0.57797121 9:-2.0245111 10:0.84219346 11:-1.2410111 12:0 13:1.0640369 14:1.5404425 15:-0.22153186 16:0.077971487 17:1.8578972 18:0.2608286 19:-1.4293925 20:-1.2571993 21:-0.22680322 22:0 23:0 24:0 25:0 26:-0.39519895 27:-0.88555981 
-0.774263682681127 1:0 2:0.24743583 3:0.4388834 4:0.48718344 5:0.54102735 6:-0.80346684 7:0.46791135 8:0.47794065 9:-0.23277012 10:1.1675269 11:0.79197768 12:0 13:-0.86921997 14:-0.24801855 15:-1.1262472 16:1.0349041 17:-0.076941126 18:-0.29223324 19:0.80551206 20:0.53340883 21:-0.22680322 22:0 23:0 24:0 25:0 26:-0.39519895 27:0.53611596 
0.5171995711868825 1:0 2:0.24743583 3:-2.8632773 4:0.5893715 5:-0.36738132 6:-0.9874054 7:0.63877131 8:0.75627294 9:-2.3591574 10:2.3395459 11:0.51185197 12:0 13:-4.0028798 14:-0.8232845 15:-0.39358025 16:0.97285344 17:-1.031816 18:-2.4984247 19:-1.7045979 20:-2.1696733 21:-0.22680322 22:0 23:0 24:0 25:0 26:-0.39519895 27:-1.3661975 
0.4680344076886137 1:0 2:0.24743583 3:-2.5227509 4:0.68109811 5:-0.076319054 6:0.030344916 7:0.67060381 8:-0.23590256 9:-1.0190076 10:2.1258854 11:-0.61971641 12:0 13:1.1662916 14:3.9663635 15:1.54794 16:-2.0179999 17:-0.44154066 18:1.0896974 19:-1.4629877 20:-1.7330594 21:-0.22680322 22:0 23:0 24:0 25:0 26:-0.39519895 27:-0.81447511 
0.408480461446123 1:0 2:0.24743583 3:0.069936731 4:0.041773011 5:0.50810746 6:-0.45276952 7:1.0037434 8:0.99481725 9:-0.43953023 10:1.5236704 11:1.2590018 12:0 13:-3.7053321 14:0.68392929 15:-1.3117995 16:0.63341035 17:-2.2633541 18:-1.8173219 19:0.3523505 20:1.1417248 21:-0.22680322 22:0 23:0 24:0 25:0 26:-0.39519895 27:0.59421301 
0.008498985237801069 1:0 2:0.24743583 3:-0.042223745 4:1.0839152 5:0.47075701 6:-0.58028316 7:-0.086031623 8:-0.90484564 9:-1.917413 10:1.1217774 11:-0.26411117 12:0 13:0.70863953 14:0.6864768 15:-0.40955375 16:0.43891036 17:1.333125 18:0.21579638 19:5.3544638 20:0.14094674 21:-0.22680322 22:0 23:1 24:1 25:3.6598499 26:0.46106545 27:6.3946115 
-0.774263682681127 1:0 2:0.24743583 3:0.18523459 4:0.0064064502 5:-0.03048867 6:-0.70823014 7:0.12581759 8:-0.65719238 9:-0.050596555 10:-0.28593859 11:-0.67613518 12:0 13:-1.0341385 14:-1.1245156 15:-0.67560245 16:0.40159758 17:-0.61449778 18:0.50291353 19:0.12551435 20:-0.81567931 21:-0.22680322 22:0 23:0 24:0 25:0 26:-0.39519895 27:1.2232725 
0.09276875468468181 1:0 2:0.24743583 3:-3.6084928 4:0.86337327 5:0.18624556 6:-0.35223311 7:-0.3422392 8:-1.615721 9:-2.3872091 10:0.46933943 11:-0.84724783 12:0 13:1.3412941 14:2.5865834 15:1.453743 16:-1.7338405 17:1.811851 18:0.75181633 19:1.6565612 20:0.23415626 21:-0.22680322 22:0 23:0 24:0 25:0 26:-0.39519895 27:1.5786735 
0.5215167185450905 1:0 2:0.24743583 3:-3.4902838 4:0.51749815 5:-0.8437109 6:-1.1721368 7:0.41434901 8:-0.20986005 9:-2.8861473 10:0.79300936 11:-0.97222193 12:0 13:1.1200325 14:2.8558878 15:-0.28666777 16:0.55568581 17:-0.17427455 18:0.40362847 19:-1.6513517 20:-1.3111627 21:-0.22680322 22:0 23:0 24:0 25:0 26:-0.39519895 27:-1.4052614 
-0.774263682681127 1:0 2:0.24743583 3:-0.4973226 4:0.44553928 5:-0.63417038 6:-0.99104613 7:0.41018141 8:0.022919121 9:-0.99304177 10:0.33874811 11:-0.10804175 12:0 13:-2.936816 14:-0.8489889 15:-0.93801898 16:1.2607448 17:-0.56853139 18:-1.302964 19:0.10310868 20:1.3968249 21:-0.22680322 22:0 23:0 24:0 25:0 26:-0.39519895 27:0.064199587 
0.774263682681127 1:0 2:-4.0414519 3:1.0499214 4:-3.826368 5:2.7395991 6:1.7987532 7:-3.8753219 8:3.3933509 9:0.34035049 10:-1.5681421 11:0.90814535 12:0 13:-0.20678846 14:0.7582773 15:2.837625 16:-1.3057281 17:-0.02255265 18:-1.4677891 19:-1.5113042 20:0.74435684 21:3.8451057 22:0 23:0 24:0 25:0 26:-0.39519895 27:-1.8096495 
0.08308659081147142 1:0 2:0.24743583 3:0.018982179 4:-0.15245174 5:-0.071316782 6:0.62532288 7:0.50265875 8:0.53976702 9:0.066631774 10:0.29217327 11:1.008473 12:0 13:0.098592742 14:3.1509339 15:2.902707 16:-0.33670367 17:-3.1489146 18:-1.0281614 19:-0.55756519 20:-0.33491357 21:-0.22680322 22:0 23:0 24:0 25:0 26:-0.39519895 27:-0.31688914 
0.401865082382724 1:0 2:0.24743583 3:0.45517215 4:-0.66490785 5:-0.37018399 6:-1.2375943 7:0.20651094 8:-0.50007742 9:-0.36294654 10:-0.015929438 11:-0.93436492 12:0 13:-0.83626435 14:-0.22544058 15:-1.124278 16:1.031762 17:-1.0933816 18:-0.63373696 19:0.74936988 20:-1.2670106 21:-0.22680322 22:0 23:0 24:0 25:0 26:-0.39519895 27:1.7445533 
-0.1048596951405042 1:0 2:0.24743583 3:0.57437018 4:-0.45840487 5:1.7982706 6:-0.97316561 7:0.62234749 8:0.26179684 9:0.014168392 10:0.56774777 11:1.1915047 12:0 13:-1.5274647 14:-0.44087708 15:-1.2092428 16:0.39385506 17:-1.6424717 18:0.118494 19:1.9261125 20:0.01830236 21:-0.22680322 22:0 23:0 24:0 25:0 26:1.3173298 27:1.7445434 
-0.2413556107923948 1:0 2:0.24743583 3:-0.28762158 4:0.23761475 5:-0.31931165 6:-0.60075367 7:0.24087118 8:0.076047958 9:-0.76712641 10:-0.32016563 11:-0.15876334 12:0 13:0.25881293 14:-0.44035867 15:-0.24024373 16:0.93373312 17:-0.54367837 18:-0.1609519 19:0.1092278 20:0.11151188 21:-0.22680322 22:0 23:0 24:0 25:0 26:-0.39519895 27:-0.31688914 
-0.774263682681127 1:0 2:0.24743583 3:-0.063881352 4:-0.19221651 5:0.98561227 6:1.068689 7:0.3151338 8:0.41600079 9:0.83583369 10:-0.7618623 11:0.9462862 12:0 13:0.62351531 14:-0.057758182 15:-0.036648534 16:-0.92457303 17:-1.9550143 18:0.70941628 19:-0.525759 20:-0.59491952 21:-0.22680322 22:0 23:0 24:0 25:0 26:-0.39519895 27:-0.1682248 
-0.5093679823843266 1:0 2:0.24743583 3:-0.53906826 4:0.5576971 5:-0.51622731 6:-0.2234845 7:0.4996631 8:0.060058822 9:0.060633715 10:0.28734172 11:0.66994679 12:0 13:0.94374084 14:0.20771031 15:0.51848693 16:1.2097735 17:0.35612468 18:-0.83816416 19:0.33121583 20:0.45982193 21:-0.22680322 22:0 23:0 24:0 25:0 26:1.3173298 27:-1.004032 
0.774263682681127 1:0 2:0.24743583 3:0.61232627 4:0.16092357 5:0.70217275 6:1.5389792 7:0.11620699 8:1.3637306 9:1.1171595 10:0.034651616 11:0.97826607 12:0 13:0.92529391 14:0.57483336 15:0.011583968 16:-1.3057281 17:-0.02255265 18:-1.4677891 19:-0.77188507 20:-1.0266278 21:-0.22680322 22:0 23:0 24:0 25:0 26:-0.39519895 27:-1.7148711 
-0.6928987316001595 1:0 2:0.24743583 3:0.054999601 4:0.40943356 5:0.35357633 6:-0.88854661 7:0.42881214 8:0.098710902 9:-0.40797478 10:0.097590113 11:0.80667898 12:0 13:0.90562781 14:0.15920492 15:0.43214424 16:-0.0094986654 17:-0.37075584 18:0.84131005 19:0.65629283 20:2.2896763 21:-0.22680322 22:0 23:0 24:0 25:0 26:-0.39519895 27:0.41448497 
0.774263682681127 1:0 2:0.24743583 3:-0.35086718 4:0.13287947 5:-1.1909573 6:1.1135331 7:-0.21747118 8:-0.48531682 9:1.189306 10:-0.47491786 11:-1.1316054 12:0 13:1.2771712 14:1.5634322 15:1.3738793 16:-0.78148375 17:2.1755075 18:0.51458241 19:-1.5190554 20:-1.7281535 21:-0.22680322 22:0 23:0 24:0 25:0 26:-0.39519895 27:-1.2409788 
-0.1204095333624302 1:0 2:0.24743583 3:-0.42014667 4:0.83347818 5:0.10615347 6:-0.86644489 7:0.46356891 8:0.15514861 9:-0.44374182 10:1.1190252 11:0.94596854 12:0 13:0.32325153 14:-0.17455078 15:-0.37267794 16:1.0212015 17:0.42448301 18:-0.31503272 19:0.80785125 20:0.62171247 21:-0.22680322 22:0 23:0 24:0 25:0 26:1.3173298 27:0.82149706 
0.3435750374126738 1:0 2:0.24743583 3:-0.70373159 4:0.80542935 5:0.12583695 6:-1.7253077 7:0.41428268 8:0.94654461 9:-2.8255994 10:2.7290943 11:2.0406831 12:0 13:-1.6998197 14:-0.64387676 15:-1.1349833 16:1.2414638 17:0.62330853 18:-1.7097222 19:0.23493762 20:-1.1590839 21:-0.22680322 22:0 23:1 24:1 25:1.60278 26:-0.39519895 27:1.7326957 
-0.02899929952338194 1:0 2:0.24743583 3:-4.3313289 4:0.58503042 5:-0.12016458 6:-1.0829647 7:-0.46656273 8:-0.88238853 9:-2.436926 10:-0.65048154 11:-0.21752599 12:0 13:1.345959 14:1.7538832 15:0.43614135 16:-1.0487611 17:1.7485248 18:0.81057266 19:2.4888401 20:0.78360301 21:-0.22680322 22:0 23:1 24:1 25:4.1455698 26:-0.39519895 27:1.8393239 
0.3948890261378308 1:0 2:0.24743583 3:-1.3298759 4:0.47321616 5:-0.54851991 6:-0.48783 7:-0.12565066 8:-0.61410987 9:-1.1927683 10:-0.9367002 11:0.18219404 12:0 13:-1.3094079 14:-0.74372452 15:-1.0114954 16:1.220481 17:-0.15851131 18:-0.82287867 19:2.0925247 20:0.71492246 21:-0.22680322 22:0 23:0 24:0 25:0 26:4.7423874 27:0.41764597 
-0.5090094650525656 1:0 2:0.24743583 3:-0.12699504 4:0.67590324 5:0.44403052 6:0.037662933 7:0.40965222 8:0.0066317891 9:-0.0059388347 10:1.8622637 11:0.28092798 12:0 13:0.26077979 14:-0.61867804 15:-0.061163774 16:0.13390913 17:0.4630895 18:0.73359768 19:-0.40775498 20:-0.64888288 21:-0.22680322 22:0 23:0 24:0 25:0 26:2.1735942 27:0.032562889 
-0.774263682681127 1:0 2:0.24743583 3:0.59349707 4:-0.23814424 5:0.19163705 6:-0.26938383 7:0.21622573 8:-0.66101206 9:0.26321415 10:-1.2967135 11:-0.67178336 12:0 13:-0.48564805 14:-1.146572 15:-0.34006795 16:-0.26697612 17:-0.8027564 18:0.91328079 19:1.2979393 20:0.11151188 21:-0.22680322 22:0 23:0 24:0 25:0 26:0.46106545 27:1.1758716 
0.5875269058456268 1:0 2:0.24743583 3:0.62286393 4:-0.39662066 5:0.54078913 6:-1.2430598 7:-0.13246856 8:-0.75980805 9:-0.077689049 10:-1.0214553 11:0.095464144 12:0 13:-1.1844421 14:-0.45773537 15:-1.1279187 16:0.30449376 17:-1.332969 18:0.3723424 19:3.2118272 20:0.59227808 21:-0.22680322 22:0 23:0 24:0 25:0 26:0.46106545 27:1.8097025 
-0.7399510743458123 1:0 2:0.24743583 3:0.67131538 4:0.13126249 5:-0.49513811 6:-0.27242545 7:-0.024653916 8:-0.60603717 9:0.79398404 10:-0.85867458 11:-1.3630971 12:0 13:-0.66277386 14:-0.046224751 15:-1.1328502 16:0.98084111 17:-0.22223215 18:-0.19334475 19:0.39208864 20:-0.43302898 21:-0.22680322 22:0 23:0 24:0 25:0 26:-0.39519895 27:0.23203627 
-0.774263682681127 1:0 2:0.24743583 3:-0.14941872 4:0.42301433 5:-0.77560004 6:-0.63422883 7:0.47678475 8:-0.15071014 9:-0.42589664 10:1.1026054 11:-0.8667803 12:0 13:-1.5352597 14:0.35222512 15:-1.5065633 16:1.2250985 17:-0.11086201 18:-0.83712397 19:0.097115383 20:-0.33000769 21:-0.22680322 22:0 23:0 24:0 25:0 26:0.46106545 27:0.026683457 
-0.0196010204096074 1:0 2:0.24743583 3:0.95709324 4:-0.2892763 5:1.2871474 6:-0.80346684 7:0.46791135 8:0.47794065 9:0.089365755 10:-0.1904173 11:1.7798111 12:0 13:-1.8197859 14:-0.10700994 15:-1.3822582 16:0.38511531 17:-1.9612918 18:-0.10711673 19:3.5267776 20:1.5341869 21:-0.22680322 22:0 23:0 24:0 25:0 26:-0.39519895 27:1.8630144 
0.5260945501768771 1:0 2:0.24743583 3:-1.4040901 4:0.50901217 5:-1.4493775 6:0.019118789 7:-0.11383351 8:-0.91091628 9:-0.31479671 10:0.69689075 11:-2.3711354 12:0 13:1.0926277 14:1.3453799 15:-0.096663002 16:-0.24537499 17:2.6702796 18:-0.22475377 19:-1.5084797 20:-3.1459227 21:-0.22680322 22:0 23:0 24:0 25:0 26:-0.39519895 27:-0.79078023 
-0.567688119750744 1:0 2:0.24743583 3:1.3969909 4:0.099883979 5:-0.50048992 6:2.3564975 7:-0.46781507 8:-0.20188675 9:2.4541477 10:-1.2941412 11:-0.5873079 12:0 13:0.47902581 14:0.13575134 15:2.0384921 16:-1.8325246 17:2.6487996 18:0.11735239 19:-0.82835999 20:0.20472187 21:-0.22680322 22:0 23:0 24:0 25:0 26:-0.39519895 27:-1.1891205 
0.1818059167199529 1:0 2:0.24743583 3:-0.58942588 4:0.5563043 5:-1.3744146 6:-1.6072965 7:0.54786282 8:0.88563395 9:-1.5506526 10:1.3202656 11:-0.2541538 12:0 13:-2.0511493 14:0.42427483 15:-1.5657692 16:1.2080945 17:-0.012876071 18:-2.1701493 19:1.3184111 20:0.14094674 21:-0.22680322 22:0 23:0 24:0 25:0 26:1.3173298 27:1.6725813 
-0.774263682681127 1:0 2:0.24743583 3:-0.8784593 4:0.21252803 5:-0.8772181 6:-0.49448457 7:0.1046119 8:-0.33214234 9:-0.58590939 10:-1.1690847 11:-0.4108869 12:0 13:0.085141046 14:0.41418999 15:-0.89714156 16:0.9689238 17:-0.50615333 18:-0.21769847 19:-0.51938975 20:0.78360301 21:-0.22680322 22:0 23:0 24:0 25:0 26:-0.39519895 27:-0.67230802 
0.01393600950801146 1:0 2:0.24743583 3:1.3969909 4:0.099883979 5:-0.50048992 6:2.0639265 7:-1.020638 8:-0.18008995 9:2.6076907 10:-1.679229 11:-0.68241641 12:0 13:0.18151923 14:-0.22833979 15:2.1314938 16:-1.7480976 17:2.5608937 18:0.23009105 19:-0.60281292 20:0.20472187 21:-0.22680322 22:0 23:1 24:1 25:6.5425501 26:-0.39519895 27:-0.67809524 
0.774263682681127 1:0 2:0.24743583 3:-1.3298759 4:0.47321616 5:-0.54851991 6:-0.834859 7:-0.095755777 8:-0.035144449 9:-0.90283071 10:-0.56138945 11:0.24170708 12:0 13:-1.6640104 14:-0.55158268 15:-1.1765058 16:1.2753453 17:-0.13033888 18:-1.1165438 19:1.0127888 20:0.64624144 21:-0.22680322 22:0 23:0 24:0 25:0 26:0.46106545 27:-0.0088577793 
