svm_type epsilon_svr
kernel_type rbf
gamma 0.00936711
nr_class 2
total_sv 187
rho -0.847623
SV
0.03313602124131239 1:0 2:7.0303393 3:33.484654 4:17.281975 5:5.7068158 6:2 7:6.0949823 8:25.164989 9:-1.9152423 10:0.010322843 11:-0.045408797 12:-3.4716189 13:19.875165 14:4.8056582 15:1.0180568 16:-0.66451428 17:-1.5818518 18:-2.2439793 19:6.9020139 20:2.1727365 21:7.3986894 22:4.2817442 23:2.6650187 
0.01492251840279331 1:0 2:8.0801883 3:23.236053 4:10.569779 5:1.1778651 6:1 7:3.8575837 8:10.620587 9:-1.9152423 10:4.2524256 11:-0.39203916 12:0.44686908 13:22.841749 14:0.32394039 15:1.4291248 16:-1.0025641 17:-1.5692577 18:-1.9680376 19:5.082392 20:2.3988805 21:4.4100951 22:-0.23354968 23:3.2190603 
0.03550059617466986 1:0 2:5.0643429 3:21.527952 4:10.569779 5:3.9726633 6:4 7:8.3323809 8:16.340954 9:-1.9152423 10:-4.3928488 11:-0.38465513 12:0.34015795 13:16.87297 14:5.1732443 15:3.8267995 16:2.3230369 17:-2.3254809 18:-1.1839187 19:5.082392 20:1.7133816 21:3.0174996 22:17.827626 23:3.1201245 
0.01611634583133218 1:0 2:3.6920982 3:14.695552 4:3.8575837 5:3.9693223 6:4 7:8.3323809 8:9.12753 9:-1.9152423 10:-0.112767 11:2.4150605 12:0.11443037 13:9.4517327 14:-0.03896571 15:3.4304481 16:1.3396348 17:-1.5189931 18:-1.9830757 19:5.082392 20:2.4695505 21:5.6187003 22:-0.23354968 23:5.079058 
-0.0553689550960809 1:0 2:-1.608576 3:4.4469505 4:1.6201852 5:1.5476217 6:1 7:1.6201852 8:1.6383976 9:-1.9152423 10:-4.3692969 11:-0.82220371 12:0.43291192 13:0.081875396 14:1.9874575 15:4.0065651 16:2.2395699 17:-1.9187197 18:-0.95025799 19:1.4431484 20:1.2822946 21:0.16105123 22:-0.23354968 23:1.1743821 
0.002515800154505722 1:0 2:1.8906958 3:12.987451 4:6.0949823 5:5.1419378 6:1 7:3.8575837 8:12.810391 9:-1.9152423 10:-0.14976497 11:-0.90693272 12:4.3655284 13:3.3275502 14:0.69966254 15:0.92191215 16:3.0301447 17:-1.3730527 18:-2.2738373 19:3.2627702 20:0.66746581 21:1.9386413 22:-0.23354968 23:2.5265082 
-0.4071329309833842 1:0 2:-0.49017888 3:6.1550507 4:1.6201852 5:2.584244 6:3 7:6.0949823 8:4.7162628 9:-1.9152423 10:-0.064831519 11:2.4222189 12:0.62555565 13:7.6102356 14:4.1714675 15:-0.31348492 16:1.5959934 17:-1.5223732 18:-2.0064656 19:1.4431484 20:4.7875258 21:2.6327349 22:-0.23354968 23:4.4458673 
0.02764166892845903 1:0 2:1.8016706 3:7.8631509 4:6.0949823 5:2.7047913 6:2 7:6.0949823 8:8.3704569 9:-1.9152423 10:-0.059529683 11:-3.3756442 12:-0.14542401 13:13.831476 14:-0.19098833 15:3.3440124 16:-1.0179044 17:-1.7422742 18:-1.1697315 19:1.4431484 20:229.29194 21:0.65788933 22:-0.23354968 23:213.97922 
0.008878663637632138 1:0 2:5.1687335 3:11.279351 4:12.807178 5:2.4883552 6:0 7:1.6201852 8:7.5666198 9:-1.9152423 10:4.2441892 11:-0.39131887 12:0.68766084 13:8.4107788 14:0.80329346 15:0.23116121 16:1.2670457 17:-1.736351 18:-1.6737087 19:1.4431484 20:3.3599922 21:2.2061702 22:-0.23354968 23:3.1135286 
0.0190013007016209 1:0 2:2.6635575 3:12.987451 4:10.569779 5:-0.75319748 6:2 7:6.0949823 8:10.172169 9:-1.9152423 10:-0.059529683 11:-3.3756442 12:-0.14542401 13:13.831476 14:-0.19098833 15:3.3440124 16:-1.0179044 17:-1.7422742 18:-1.1697315 19:3.2627702 20:229.29194 21:1.7364173 22:-0.23354968 23:213.97922 
1.25359619737582 1:0 2:1.6515034 3:4.4469505 4:3.8575837 5:-1.0644385 6:0 7:1.6201852 8:4.1879105 9:-1.6154956 10:-0.0074725529 11:-2.2357523 12:-2.7315892 13:10.093652 14:-0.46315869 15:0.22978269 16:0.21974963 17:-1.6201983 18:-1.7810263 19:-0.37647348 20:-0.39258394 21:-0.35323068 22:-0.23354968 23:-0.38880727 
0.01405965769118701 1:0 2:4.3119551 3:26.652253 4:8.3323809 5:3.7175778 6:4 7:8.3323809 8:9.6704656 9:-1.9152423 10:-4.3610855 11:-0.49139576 12:0.95501964 13:4.5692911 14:5.7336868 15:3.4468691 16:4.003126 17:-1.3451834 18:-1.8183711 19:5.082392 20:1.6427117 21:4.9788502 22:-0.23354968 23:5.079058 
3.400253756353786 1:0 2:0.72748353 3:2.7388503 4:1.6201852 5:1.8398818 6:0 7:1.6201852 8:0.71217585 9:-1.1439719 10:0.78324956 11:1.8955795 12:-1.6947291 13:2.378902 14:-0.46315869 15:2.7243319 16:3.3692014 17:-1.5984242 18:-2.1612449 19:-0.37647348 20:-0.39258394 21:-0.35323068 22:-0.23354968 23:-0.38880727 
-8.5846568030966 1:0 2:2.0908299 3:1.0307501 4:1.6201852 5:-0.13297864 6:0 7:1.6201852 8:1.5265627 9:-1.5247584 10:-0.054311511 11:-0.10323422 12:-3.4836516 13:4.2098974 14:-0.19188098 15:0.21297054 16:2.5277212 17:-1.613637 18:-2.1013822 19:-0.37647348 20:-0.39258394 21:-0.35323068 22:-0.23354968 23:-0.38880727 
-1.622627870866955 1:0 2:-0.21894519 3:1.0307501 4:1.6201852 5:0.75358112 6:0 7:1.6201852 8:0.96101232 9:-1.9152423 10:-0.27561436 11:2.3438664 12:-0.46690585 13:0.60075057 14:0.48399171 15:1.7774 16:1.1101084 17:-1.6329248 18:-2.3747267 19:3.2627702 20:2.3988805 21:2.57349 22:-0.23354968 23:2.2165086 
0.0924533752072 1:0 2:0.66946231 3:11.279351 4:1.6201852 5:15.323095 6:2 7:3.8575837 8:3.6304022 9:-1.9152423 10:0.091841519 11:2.4192309 12:0.23673993 13:7.5972588 14:1.4555229 15:0.9873484 16:0.93141529 17:-1.2445992 18:-1.7395495 19:1.4431484 20:-0.060435019 21:-0.13994771 22:4.2817442 23:-0.078807674 
0.01999443437569016 1:0 2:3.1680815 3:26.652253 4:8.3323809 5:15.513679 6:3 7:1.6201852 8:8.9239455 9:-1.9152423 10:-4.3944558 11:-0.39466958 12:0.497282 13:15.346676 14:2.8656977 15:1.2166916 16:0.56457171 17:-1.4588178 18:-2.0235738 19:3.2627702 20:2.1374014 21:3.4858707 22:-0.23354968 23:2.5265082 
-16.68100537200059 1:0 2:-0.11713247 3:-0.67735007 4:1.6201852 5:0.43868681 6:0 7:1.6201852 8:2.0638334 9:-1.9152423 10:-4.395195 11:-0.49139576 12:0.32235004 13:-0.29564746 14:1.860361 15:2.5316167 16:1.6020239 17:-1.4993266 18:-1.6262814 19:3.2627702 20:2.3988805 21:3.0355988 22:-0.23354968 23:2.2165086 
0.02335478213218882 1:0 2:2.4468977 3:11.279351 4:3.8575837 5:4.9866607 6:2 7:6.0949823 8:8.2452889 9:-1.9152423 10:-0.064835213 11:2.422219 12:0.62555496 13:10.54151 14:0.62378343 15:-0.45278286 16:-0.075733948 17:-1.7591514 18:-1.7738432 19:3.2627702 20:0.73813582 21:1.2819391 22:-0.23354968 23:1.1611907 
0.01892248341793232 1:0 2:0.57034017 3:9.571251 4:6.0949823 5:-0.16367007 6:0 7:1.6201852 8:3.9702959 9:-1.9152423 10:-4.3692943 11:-0.82221805 12:0.43291145 13:4.538744 14:1.3228407 15:14.35895 16:1.2124311 17:-2.2471312 18:-2.2259074 19:1.4431484 20:2.7168954 21:1.3181844 22:-0.23354968 23:2.5133167 
-0.2282845400255939 1:0 2:3.3574396 3:7.8631509 4:1.6201852 5:-1.0641375 6:0 7:1.6201852 8:1.2551025 9:-1.1041456 10:0.36892797 11:2.3943545 12:0.032930613 13:2.2979376 14:0.32239094 15:1.8983439 16:2.27401 17:-1.6974781 18:-1.6825216 19:-0.37647348 20:-0.39258394 21:-0.35323068 22:-0.23354968 23:-0.38880727 
0.4008942486033478 1:0 2:0.67116396 3:9.571251 4:3.8575837 5:-0.55291418 6:0 7:1.6201852 8:3.0940138 9:-1.9152423 10:4.254271 11:-0.49139576 12:0.5133983 13:0.069287596 14:2.04098 15:2.2056469 16:2.9591862 17:-1.8918994 18:-1.2742046 19:3.2627702 20:1.6356445 21:1.6016013 22:-0.23354968 23:1.7284241 
-0.1257504086669754 1:0 2:1.6605097 3:9.571251 4:3.8575837 5:-0.25855411 6:1 7:3.8575837 8:2.4088219 9:-1.2895073 10:-0.52494658 11:1.0082391 12:-2.9294968 13:12.040229 14:2.7780835 15:0.46051238 16:-1.0948467 17:-1.3125458 18:-2.2933808 19:-0.37647348 20:-0.39258394 21:-0.35323068 22:-0.23354968 23:-0.38880727 
-0.1785507777094461 1:0 2:8.3166411 3:18.111752 4:-0.6172134 5:0.34312259 6:1 7:-0.6172134 8:-0.50941081 9:0.60532086 10:-0.071145569 11:-0.49139576 12:0.44384081 13:-0.29564746 14:-0.46315869 15:-0.52701466 16:-0.58384232 17:0.61391107 18:0.60698938 19:-0.37647348 20:-0.39258394 21:-0.35323068 22:-0.23354968 23:-0.38880727 
0.0255128573303883 1:0 2:2.3029053 3:9.571251 4:1.6201852 5:-1.1666532 6:1 7:1.6201852 8:1.5944294 9:-1.2222768 10:0.38035731 11:2.4068119 12:0.60904275 13:3.8837807 14:1.7207052 15:-0.17250343 16:1.634045 17:-2.0949211 18:-0.95358261 19:-0.37647348 20:-0.39258394 21:-0.35323068 22:-0.23354968 23:-0.38880727 
16.68100537200059 1:0 2:0.6853325 3:1.0307501 4:1.6201852 5:-0.0011360344 6:0 7:1.6201852 8:2.1373561 9:-0.82733092 10:-0.30757132 11:1.907726 12:-1.7993251 13:5.473481 14:-0.46315869 15:1.4456506 16:0.53554866 17:-2.0444085 18:-1.2969131 19:-0.37647348 20:-0.39258394 21:-0.35323068 22:-0.23354968 23:-0.38880727 
0.04821157735245893 1:0 2:3.742735 3:7.8631509 4:6.0949823 5:4.833736 6:3 7:8.3323809 8:13.19949 9:-1.9152423 10:-0.1138064 11:2.4026015 12:-0.047928455 13:1.2766149 14:7.4401025 15:-0.41246429 16:3.6029765 17:-1.438229 18:-2.3644464 19:1.4431484 20:4.1302951 21:2.2061702 22:-0.23354968 23:3.832464 
0.7365607530297753 1:0 2:0.29876999 3:-0.67735007 4:1.6201852 5:1.6506408 6:0 7:1.6201852 8:2.6633144 9:-1.9152423 10:-0.20707897 11:2.355396 12:-0.40944846 13:0.079010917 14:3.0912275 15:2.1546306 16:0.8262843 17:-1.734895 18:-1.5177495 19:1.4431484 20:1.4024336 21:0.29846783 22:4.2817442 23:1.2865097 
4.667259699288008 1:0 2:2.2948765 3:2.7388503 4:1.6201852 5:-0.13297864 6:0 7:1.6201852 8:1.5265627 9:-1.5247584 10:-0.054311511 11:-0.10323422 12:-3.4836516 13:4.2098974 14:-0.19188098 15:0.21297054 16:2.5277212 17:-1.613637 18:-2.1013822 19:-0.37647348 20:-0.39258394 21:-0.35323068 22:-0.23354968 23:-0.38880727 
0.03312440394426419 1:0 2:3.0834803 3:23.236053 4:1.6201852 5:0.59261853 6:2 7:3.8575837 8:2.8838761 9:-1.9152423 10:4.2461968 11:-0.60479937 12:0.64297242 13:15.1533 14:1.1033039 15:15.274193 16:0.92919591 17:-2.1009258 18:-1.7701617 19:1.4431484 20:2.3564785 21:1.1397486 22:-0.23354968 23:2.1769342 
0.01654474014279941 1:0 2:2.4955945 3:23.236053 4:12.807178 5:-0.31194718 6:2 7:6.0949823 8:6.9548258 9:-1.9152423 10:0.0058873719 11:-0.070474989 12:-3.4768134 13:19.9167 14:0.38740603 15:0.97125907 16:-0.27064955 17:-1.6089752 18:-1.5025781 19:6.9020139 20:0.81587281 21:2.8823534 22:4.2817442 23:0.73906364 
0.01318689559665876 1:0 2:6.7086843 3:21.527952 4:12.807178 5:8.5783662 6:4 7:8.3323809 8:16.999976 9:-1.9152423 10:0.09204964 11:2.4232084 12:0.45178235 13:21.796591 14:0.29773585 15:2.6088503 16:-1.5583537 17:-1.3727799 18:-1.5685509 19:12.360879 20:1.8052525 21:13.08361 22:4.2817442 23:2.7177845 
0.04882770702976219 1:0 2:1.1385299 3:16.403652 4:3.8575837 5:-0.88748759 6:1 7:3.8575837 8:0.81397329 9:-1.9152423 10:-0.27561436 11:2.3438664 12:-0.46690585 13:10.061719 14:-0.19788404 15:1.7774 16:1.1101084 17:-1.6329248 18:-2.3747267 19:1.4431484 20:2.3988805 21:0.80205486 22:-0.23354968 23:2.2165086 
0.1082570973978883 1:0 2:1.7147273 3:11.279351 4:3.8575837 5:0.17408782 6:1 7:3.8575837 8:4.0592168 9:-1.9152423 10:0.00600472 11:-0.070285972 12:-3.4767737 13:12.67404 14:0.20252976 15:1.6876534 16:0.17330755 17:-1.4031621 18:-1.3378979 19:1.4431484 20:229.29194 21:0.65788933 22:-0.23354968 23:213.97922 
0.1900616928665153 1:0 2:2.4880026 3:4.4469505 4:3.8575837 5:5.7355092 6:0 7:1.6201852 8:2.7877414 9:-1.9152423 10:4.2518175 11:-0.39137957 12:0.50846985 13:7.0404031 14:1.8386912 15:2.2089402 16:1.5930733 17:-1.2158985 18:-1.247127 19:3.2627702 20:3.1479824 21:3.4917891 22:-0.23354968 23:2.9156567 
-0.8197504459465539 1:0 2:1.6056042 3:6.1550507 4:-0.6172134 5:-0.93217955 6:1 7:-0.6172134 8:-0.50941081 9:0.60532086 10:-0.071145569 11:-0.49139576 12:0.44384081 13:-0.29564746 14:-0.46315869 15:-0.52701466 16:-0.58384232 17:0.61391107 18:0.60698938 19:-0.37647348 20:-0.39258394 21:-0.35323068 22:-0.23354968 23:-0.38880727 
0.008424726360853547 1:0 2:3.8828618 3:9.571251 4:10.569779 5:5.5402485 6:1 7:3.8575837 8:16.542509 9:-1.9152423 10:-0.14971677 11:-0.92127201 12:4.3626751 13:8.9117667 14:6.2743786 15:1.69614 16:1.6700281 17:-1.4549718 18:-2.006908 19:5.082392 20:0.46252289 21:2.2082733 22:13.312332 23:2.6650187 
-4.281148032493977 1:0 2:1.752627 3:-0.67735007 4:1.6201852 5:-1.5387737 6:0 7:1.6201852 8:0.93273762 9:-1.3576906 10:1.1388683 11:1.1901779 12:-2.5984054 13:-0.29564746 14:-0.18530846 15:1.1306992 16:1.3576579 17:-1.5519751 18:-1.5148743 19:-0.37647348 20:-0.39258394 21:-0.35323068 22:-0.23354968 23:-0.38880727 
0.02416545726908545 1:0 2:1.2016883 3:9.571251 4:6.0949823 5:14.693397 6:1 7:3.8575837 8:3.6304061 9:-1.2940986 10:-0.40651068 11:-0.54056463 12:4.3941227 13:7.1320755 14:0.38292958 15:1.0097625 16:-0.84655571 17:-1.7571348 18:-2.0496121 19:-0.37647348 20:-0.39258394 21:-0.35323068 22:-0.23354968 23:-0.38880727 
0.02420981813985527 1:0 2:-0.50350732 3:14.695552 4:1.6201852 5:0.52455657 6:0 7:1.6201852 8:2.0610922 9:-1.202799 10:0.18688096 11:2.0134154 12:-1.5726144 13:7.1612107 14:-0.46315869 15:-1.5178978 16:0.65562285 17:-1.8530077 18:-0.97959412 19:-0.37647348 20:-0.39258394 21:-0.35323068 22:-0.23354968 23:-0.38880727 
-0.08090572280956757 1:0 2:1.227539 3:4.4469505 4:1.6201852 5:0.34415315 6:0 7:1.6201852 8:1.1633568 9:-1.1237723 10:2.7227678 11:1.7156643 12:0.041523998 13:0.26999805 14:-0.46315869 15:7.8733004 16:1.1323225 17:-2.4200399 18:-1.5391395 19:-0.37647348 20:-0.39258394 21:-0.35323068 22:-0.23354968 23:-0.38880727 
0.03043376091535375 1:0 2:3.2487129 3:19.819852 4:15.044577 5:16.668699 6:1 7:3.8575837 8:19.103821 9:-1.9152423 10:4.2086475 11:-0.21358662 12:0.88179088 13:19.909823 14:-0.035265034 15:2.1337322 16:-0.36617219 17:-1.7004946 18:-1.2536628 19:10.541258 20:1.7699175 21:9.8843527 22:-0.23354968 23:2.8365076 
-0.2571449059330745 1:0 2:-0.0948512 3:11.279351 4:1.6201852 5:1.3143762 6:2 7:1.6201852 8:0.10138191 9:-1.2222768 10:4.2211769 11:-0.74377345 12:0.79960416 13:-0.29564746 14:5.5056109 15:7.7922176 16:2.632185 17:-2.4934078 18:-2.1726646 19:-0.37647348 20:-0.39258394 21:-0.35323068 22:-0.23354968 23:-0.38880727 
1.402246375695653 1:0 2:1.0246417 3:4.4469505 4:1.6201852 5:2.5560574 6:2 7:1.6201852 8:2.9517493 9:-1.1794101 10:-0.071145569 11:2.3382758 12:-0.51688929 13:-0.29564746 14:5.7410742 15:6.1414816 16:0.079673394 17:-2.4687612 18:-2.1318756 19:-0.37647348 20:-0.39258394 21:-0.35323068 22:-0.23354968 23:-0.38880727 
0.001762537499128871 1:0 2:5.768036 3:28.360353 4:10.569779 5:4.287634 6:4 7:6.0949823 8:12.874738 9:-1.9152423 10:0.010322843 11:-0.045408797 12:-3.4716189 13:19.875165 14:0.60701356 15:1.0180568 16:-0.66451428 17:-1.5818518 18:-2.2439793 19:3.2627702 20:2.1727365 21:3.0171694 22:-0.23354968 23:3.4828898 
0.02435504854081418 1:0 2:1.6355531 3:16.403652 4:3.8575837 5:3.3820686 6:4 7:6.0949823 8:4.3543056 9:-1.9152423 10:-0.30283177 11:-3.2812276 12:1.5801635 13:16.283673 14:6.2925108 15:-1.1816826 16:1.1609803 17:-1.6927595 18:-1.3033564 19:1.4431484 20:2.0101956 21:0.59469433 22:-0.23354968 23:1.8537431 
0.8002794875706358 1:0 2:0.30520719 3:-0.67735007 4:1.6201852 5:-1.2479397 6:0 7:1.6201852 8:-0.17008147 9:-1.9152423 10:4.2536267 11:-0.49139576 12:0.34628456 13:0.7831055 14:-0.19598202 15:0.53778881 16:1.5319464 17:-1.3746887 18:-2.3612377 19:1.4431484 20:3.7910792 21:2.4905443 22:-0.23354968 23:3.5158686 
0.01545809477312588 1:0 2:3.5429483 3:7.8631509 4:8.3323809 5:4.9805244 6:3 7:6.0949823 8:16.849012 9:-1.9152423 10:0.11457619 11:2.3843125 12:-0.19585457 13:12.737937 14:-0.015503142 15:1.4876915 16:-0.1847201 17:-1.6257179 18:-0.90802971 19:8.7216357 20:1.7133816 21:8.7832228 22:13.312332 23:3.1201245 
0.01143055975232146 1:0 2:4.8659584 3:14.695552 4:8.3323809 5:7.4232276 6:3 7:8.3323809 8:22.07634 9:-1.9152423 10:-0.15400198 11:-0.93660784 12:4.3594389 13:9.9170394 14:-0.18660301 15:2.5287564 16:-0.38777562 17:-1.4497758 18:-1.3709436 19:10.541258 20:-0.039234023 21:6.7246094 22:8.7970381 23:1.1743821 
0.03429708757368841 1:0 2:3.0132784 3:23.236053 4:15.044577 5:17.806929 6:1 7:3.8575837 8:13.335227 9:-1.9152423 10:4.2296712 11:-0.29664015 12:0.10786556 13:5.941206 14:7.344821 15:0.99315625 16:3.6840395 17:-1.1050893 18:-1.7271198 19:3.2627702 20:3.932419 21:4.1968094 22:-0.23354968 23:4.8548029 
0.03705555135071356 1:0 2:4.2960735 3:19.819852 4:10.569779 5:9.1990455 6:4 7:10.569779 8:26.838008 9:-1.9152423 10:0.011713122 11:-0.046239573 12:-3.4717688 13:11.618679 14:0.32357252 15:0.98053838 16:-0.9118162 17:-1.4412927 18:-0.98801099 19:10.541258 20:-0.039234023 21:6.2527534 22:13.312332 23:2.6650187 
0.003128755977447128 1:0 2:1.27243 3:18.111752 4:6.0949823 5:0.014837352 6:2 7:6.0949823 8:1.8658927 9:-1.9152423 10:4.2463846 11:-0.58843862 12:0.65514875 13:10.036244 14:1.7725579 15:2.3460958 16:1.4809042 17:-1.2651425 18:-1.8158415 19:1.4431484 20:2.2646074 21:1.1397486 22:4.2817442 23:2.0911895 
-16.68100537200059 1:0 2:0.52072759 3:1.0307501 4:1.6201852 5:-0.0011360344 6:0 7:1.6201852 8:2.1373561 9:-0.82733092 10:-0.30757132 11:1.907726 12:-1.7993251 13:5.473481 14:-0.46315869 15:1.4456506 16:0.53554866 17:-2.0444085 18:-1.2969131 19:-0.37647348 20:-0.39258394 21:-0.35323068 22:-0.23354968 23:-0.38880727 
0.01461938414418661 1:0 2:3.9117456 3:21.527952 4:12.807178 5:13.855311 6:4 7:8.3323809 8:12.430349 9:-1.9152423 10:4.2527902 11:-0.40070184 12:0.46389866 13:18.814035 14:6.411382 15:0.49187962 16:0.41358233 17:-1.7602118 18:-1.1999104 19:3.2627702 20:2.6320915 21:2.881558 22:-0.23354968 23:3.6741661 
0.2980548069526542 1:0 2:1.9479027 3:16.403652 4:1.6201852 5:-0.14512484 6:1 7:1.6201852 8:0.2627516 9:-1.0529039 10:-0.033659683 11:-3.04762 12:-1.4641566 13:4.384538 14:0.42676749 15:-0.0033394424 16:3.3912156 17:-0.96340921 18:-2.3619238 19:-0.37647348 20:-0.39258394 21:-0.35323068 22:-0.23354968 23:-0.38880727 
-5.383861058044172 1:0 2:-0.415042 3:-0.67735007 4:1.6201852 5:-0.3203039 6:0 7:1.6201852 8:0.50857595 9:-1.6042004 10:-0.23242928 11:1.3406623 12:-2.636084 13:0.20083768 14:0.42168005 15:0.14856657 16:1.9041635 17:-1.3304191 18:-1.6997995 19:-0.37647348 20:-0.39258394 21:-0.35323068 22:-0.23354968 23:-0.38880727 
0.3032033515688533 1:0 2:1.5566615 3:4.4469505 4:1.6201852 5:1.6397078 6:1 7:1.6201852 8:0.16924787 9:-1.9152423 10:0.12873349 11:2.4070583 12:0.041117026 13:0.61607597 14:0.061135172 15:2.059401 16:0.66089304 17:-1.6149644 18:-1.4767174 19:3.2627702 20:2.8653024 21:3.3436735 22:8.7970381 23:2.9618267 
-0.4216703676240647 1:0 2:0.1147753 3:9.571251 4:1.6201852 5:-1.5195186 6:0 7:1.6201852 8:-0.17008147 9:-1.9152423 10:-0.11074977 11:2.3930992 12:-0.14216906 13:0.60769006 14:-0.19019592 15:2.6622134 16:-0.049763238 17:-1.9433003 18:-1.9889459 19:1.4431484 20:2.2716744 21:0.85537461 22:-0.23354968 23:2.0977853 
0.06037259797102727 1:0 2:2.9830858 3:14.695552 4:1.6201852 5:0.10643497 6:1 7:3.8575837 8:2.8838828 9:-1.9152423 10:0.12533397 11:-3.3887014 12:0.024785624 13:17.766163 14:1.403022 15:0.085128581 16:-0.36594391 17:-1.5936524 18:-2.2380571 19:3.2627702 20:2.5331533 21:2.70383 22:8.7970381 23:2.9090608 
0.009532795699114294 1:0 2:1.5995389 3:14.695552 4:3.8575837 5:-1.5174485 6:0 7:1.6201852 8:1.7527806 9:-1.9152423 10:4.2541849 11:-0.49139576 12:0.51775773 13:6.188467 14:0.55186915 15:2.971011 16:-0.14773107 17:-1.7543892 18:-1.7448154 19:1.4431484 20:2.0101956 21:0.95016364 22:-0.23354968 23:1.8537431 
1.446032248991269 1:0 2:1.0605965 3:6.1550507 4:1.6201852 5:0.18313913 6:1 7:1.6201852 8:0.05613765 9:-1.1326162 10:0.32570115 11:1.7731131 12:2.914753 13:7.1290606 14:0.57591236 15:1.3189793 16:-0.13186849 17:-1.3823311 18:-0.89349714 19:-0.37647348 20:-0.39258394 21:-0.35323068 22:-0.23354968 23:-0.38880727 
0.742602843345525 1:0 2:2.208495 3:2.7388503 4:1.6201852 5:0.17083454 6:0 7:1.6201852 8:0.4407106 9:-1.9152423 10:-4.3719515 11:-0.68626054 12:0.77981828 13:3.156477 14:-0.19239208 15:2.3128381 16:-0.092711603 17:-1.7040262 18:-1.0763262 19:3.2627702 20:3.3317242 21:3.770238 22:-0.23354968 23:3.0871457 
6.684513620011955 1:0 2:0.1046083 3:1.0307501 4:1.6201852 5:-0.3203039 6:0 7:1.6201852 8:0.50857595 9:-1.6042004 10:-0.23242928 11:1.3406623 12:-2.636084 13:0.20083768 14:0.42168005 15:0.14856657 16:1.9041635 17:-1.3304191 18:-1.6997995 19:-0.37647348 20:-0.39258394 21:-0.35323068 22:-0.23354968 23:-0.38880727 
-0.1724803229466199 1:0 2:-0.80288217 3:6.1550507 4:1.6201852 5:-1.1202447 6:0 7:1.6201852 8:0.58448594 9:-1.9152423 10:-0.059529683 11:-3.3756442 12:-0.14542401 13:12.758755 14:-0.19098833 15:3.3440124 16:-1.0179044 17:-1.7422742 18:-1.1697315 19:1.4431484 20:229.29194 21:0.65788933 22:-0.23354968 23:213.97922 
1.930952658857764 1:0 2:0.30520719 3:-0.67735007 4:1.6201852 5:0.0034114486 6:1 7:3.8575837 8:1.2551051 9:-1.9152423 10:4.2536362 11:-0.49139576 12:0.34665338 13:0.062596233 14:2.1463715 15:1.2699641 16:1.7484089 17:-1.4101569 18:-1.2901842 19:3.2627702 20:2.3988805 21:4.7655644 22:-0.23354968 23:3.5158686 
0.5436130409873831 1:0 2:1.249584 3:2.7388503 4:1.6201852 5:4.6925633 6:1 7:1.6201852 8:1.0147413 9:-1.9152423 10:-4.3928393 11:-0.38465313 12:0.33984274 13:-0.29564746 14:-0.16247713 15:1.429673 16:0.87790553 17:-1.7923209 18:-1.7998898 19:1.4431484 20:1.8335206 21:1.0660246 22:-0.23354968 23:1.6888497 
0.03055317586200058 1:0 2:2.4065031 3:12.987451 4:6.0949823 5:0.25135995 6:0 7:1.6201852 8:8.5634975 9:-1.4366306 10:-0.03743569 11:2.1389309 12:-1.2682392 13:5.6631661 14:-0.46315869 15:1.8476314 16:1.5671993 17:-1.8841984 18:-1.7132763 19:-0.37647348 20:-0.39258394 21:-0.35323068 22:-0.23354968 23:-0.38880727 
-0.02474079743241546 1:0 2:1.5729242 3:7.8631509 4:3.8575837 5:1.0369542 6:1 7:3.8575837 8:7.0236964 9:-1.2797969 10:0.50216092 11:-0.27716474 12:-3.4731794 13:3.5593446 14:0.88062442 15:0.28059755 16:3.4892453 17:-1.3620245 18:-1.0939621 19:-0.37647348 20:-0.39258394 21:-0.35323068 22:-0.23354968 23:-0.38880727 
-1.034728699655873 1:0 2:0.10178068 3:-0.67735007 4:1.6201852 5:-0.55140582 6:0 7:1.6201852 8:0.16924787 9:-1.9152423 10:0.12873349 11:2.4070583 12:0.041117026 13:0.61607597 14:0.061135172 15:2.059401 16:0.66089304 17:-1.6149644 18:-1.4767174 19:1.4431484 20:3.1974512 21:1.6374085 22:4.2817442 23:2.9618267 
0.03622204353170994 1:0 2:3.9560666 3:6.1550507 4:3.8575837 5:16.136167 6:3 7:8.3323809 8:6.3620085 9:-1.9152423 10:-0.10416793 11:2.3241263 12:-0.59034264 13:2.2255119 14:-0.46315869 15:0.49916925 16:0.18323415 17:-1.4325653 18:-1.3798866 19:6.9020139 20:1.2045577 21:6.845077 22:8.7970381 23:3.2916135 
-0.3813584337348047 1:0 2:2.500941 3:2.7388503 4:1.6201852 5:2.783211 6:1 7:3.8575837 8:5.0684586 9:-1.9152423 10:4.2412326 11:-0.38612245 12:0.72470031 13:3.74464 14:1.6877775 15:1.3214834 16:0.14978255 17:-1.4640723 18:-2.1217945 19:3.2627702 20:3.0066422 21:5.0726213 22:-0.23354968 23:3.7335278 
0.03750496833514073 1:0 2:2.0324359 3:24.944153 4:8.3323809 5:-0.45837149 6:2 7:3.8575837 8:12.72443 9:-1.9152423 10:-0.039100493 11:2.3676796 12:-0.33933739 13:23.00317 14:7.3019879 15:13.578653 16:-0.37881759 17:-2.0813083 18:-2.0676872 19:1.4431484 20:0.77347077 21:0.35771475 22:-0.23354968 23:0.69948918 
0.008660003588963341 1:0 2:2.7217347 3:18.111752 4:3.8575837 5:0.16452683 6:1 7:3.8575837 8:4.6453267 9:-1.9152423 10:4.2270063 11:-0.16059025 12:0.45475628 13:20.671346 14:1.8304833 15:2.0397949 16:-0.20583636 17:-1.7398353 18:-2.155053 19:1.4431484 20:2.0808655 21:1.1896172 22:-0.23354968 23:1.9197004 
0.009810018240838499 1:0 2:3.3369518 3:12.987451 4:6.0949823 5:2.7534602 6:2 7:6.0949823 8:9.8740629 9:-1.9152423 10:4.2184777 11:-0.21027438 12:0.78691177 13:13.897339 14:3.1510561 15:10.220821 16:-0.59854018 17:-2.2664817 18:-1.4689928 19:5.082392 20:1.9395255 21:4.3389998 22:-0.23354968 23:2.3418274 
0.6453164543389668 1:0 2:-1.3876051 3:1.0307501 4:1.6201852 5:-1.4089683 6:0 7:1.6201852 8:2.7990478 9:-1.284228 10:0.71248973 11:-3.3153048 12:-0.24016721 13:1.7090999 14:-0.46315869 15:0.21526639 16:1.812972 17:-2.1879124 18:-1.848914 19:-0.37647348 20:-0.39258394 21:-0.35323068 22:-0.23354968 23:-0.38880727 
0.013978453957782 1:0 2:-0.0064710343 3:9.571251 4:6.0949823 5:15.251628 6:2 7:6.0949823 8:13.87815 9:-1.9152423 10:-4.3944558 11:-0.39466955 12:0.49729599 13:0.50652474 14:7.4102729 15:2.7725859 16:1.2711293 17:-2.1386057 18:-1.5446237 19:3.2627702 20:1.9395255 21:3.2725851 22:-0.23354968 23:2.5265082 
-2.883134351266722 1:0 2:-0.5604684 3:6.1550507 4:1.6201852 5:0.12762837 6:1 7:1.6201852 8:1.3568993 9:-1.4019966 10:1.0765442 11:2.2578525 12:1.2475752 13:5.7841754 14:0.51279932 15:-0.22346522 16:0.59782083 17:-1.4201929 18:-1.0083306 19:-0.37647348 20:-0.39258394 21:-0.35323068 22:-0.23354968 23:-0.38880727 
0.7093956667437381 1:0 2:3.1156092 3:2.7388503 4:1.6201852 5:4.8940024 6:2 7:3.8575837 8:6.0057029 9:-1.4644708 10:-1.1932546 11:2.0416961 12:-1.230206 13:7.6610905 14:5.4091814 15:0.19775366 16:2.0522325 17:-1.2519727 18:-1.9465 19:-0.37647348 20:-0.39258394 21:-0.35323068 22:-0.23354968 23:-0.38880727 
0.01167216916390052 1:0 2:5.9885421 3:30.068453 4:12.807178 5:14.790479 6:2 7:6.0949823 8:24.855443 9:-1.9152423 10:4.2268531 11:-0.49139576 12:0.89465304 13:15.603565 14:1.0129089 15:1.3812794 16:0.87591981 17:-1.2904309 18:-0.91957729 19:5.082392 20:0.97841378 21:3.7346952 22:-0.23354968 23:2.876082 
0.006905178192065186 1:0 2:2.7642342 3:28.360353 4:3.8575837 5:2.6600728 6:2 7:6.0949823 8:4.806744 9:-1.9152423 10:-4.3964686 11:-0.49139576 12:0.36954892 13:17.756709 14:-0.0013883751 15:2.9309609 16:0.097518861 17:-1.6411334 18:-1.8944395 19:5.082392 20:1.3458977 21:2.07583 22:8.7970381 23:1.5239563 
0.01716352705241047 1:0 2:3.4660482 3:24.944153 4:8.3323809 5:13.23221 6:3 7:6.0949823 8:14.01387 9:-1.9152423 10:-0.031372766 11:-3.3906481 12:0.87493129 13:9.8734246 14:1.8126111 15:0.028332714 16:0.76106428 17:-1.5260297 18:-1.4528454 19:3.2627702 20:2.5260865 21:3.3436734 22:13.312332 23:4.3601227 
0.175273751543183 1:0 2:3.2028223 3:4.4469505 4:1.6201852 5:1.1864357 6:2 7:1.6201852 8:2.1373561 9:-0.82733092 10:-0.30757132 11:1.907726 12:-1.7993251 13:5.473481 14:3.2209346 15:1.4456506 16:0.53554866 17:-2.0444085 18:-1.2969131 19:-0.37647348 20:-0.39258394 21:-0.35323068 22:-0.23354968 23:-0.38880727 
-0.001713842500379998 1:0 2:2.5617902 3:7.8631509 4:1.6201852 5:1.8731645 6:1 7:3.8575837 8:7.7913351 9:-1.2023194 10:-0.059569309 11:-3.3791774 12:-0.11256522 13:11.797173 14:3.9072737 15:-0.37579872 16:0.46158137 17:-2.0148008 18:-0.9708175 19:-0.37647348 20:-0.39258394 21:-0.35323068 22:-0.23354968 23:-0.38880727 
0.02744302215421351 1:0 2:4.5741625 3:4.4469505 4:6.0949823 5:1.7916069 6:3 7:6.0949823 8:11.548087 9:-1.9152423 10:-0.19594671 11:2.3176894 12:-0.61644908 13:17.411977 14:0.24061724 15:-0.25851208 16:-0.95482934 17:-1.5025097 18:-0.93693602 19:8.7216357 20:0.50492484 21:6.578471 22:8.7970381 23:3.1399115 
0.1020435768799344 1:0 2:1.1085573 3:2.7388503 4:1.6201852 5:0.42476564 6:1 7:1.6201852 8:0.23711579 9:-1.9152423 10:0.076525598 11:2.4021344 12:0.92348141 13:1.3966369 14:1.3689855 15:0.42556436 16:3.3838368 17:-1.4719381 18:-1.0028872 19:1.4431484 20:3.1338481 21:2.6327349 22:-0.23354968 23:2.9024649 
0.0250737910418892 1:0 2:5.7987832 3:30.068453 4:15.044577 5:16.260738 6:2 7:6.0949823 8:26.297591 9:-1.9152423 10:4.2268531 11:-0.49139576 12:0.89465304 13:15.603565 14:1.0129089 15:1.3812794 16:0.87591981 17:-1.2904309 18:-0.91957729 19:5.082392 20:0.97841378 21:5.0677153 22:4.2817442 23:3.2322517 
0.01237870588247753 1:0 2:4.0129096 3:28.360353 4:3.8575837 5:0.78613586 6:3 7:6.0949823 8:4.0325701 9:-1.9152423 10:-4.3835238 11:-0.59666907 12:0.16298132 13:12.884763 14:0.21890289 15:1.3214834 16:0.14978255 17:-1.4640723 18:-2.1217945 19:5.082392 20:3.0066422 21:7.0760142 22:4.2817442 23:3.2190603 
-0.8214787170035363 1:0 2:-0.81350893 3:4.4469505 4:1.6201852 5:7.5772567 6:5 7:1.6201852 8:-0.21532567 9:-1.9152423 10:-0.19592998 11:2.317699 12:-0.61640384 13:0.74982985 14:3.2458934 15:0.62483472 16:1.1750367 17:-1.2892873 18:-2.0034096 19:1.4431484 20:3.3882601 21:1.5722452 22:4.2817442 23:3.1399115 
0.8047605507116529 1:0 2:-2.0168008 3:-0.67735007 4:1.6201852 5:-0.98104605 6:0 7:1.6201852 8:1.3229692 9:-1.9152423 10:-0.23438348 11:-3.4059987 12:0.43589953 13:0.052878575 14:0.11878407 15:2.3589755 16:1.2143684 17:-1.8341232 18:-1.0258876 19:1.4431484 20:2.7310294 21:1.4952248 22:-0.23354968 23:2.5265082 
0.00472333852075222 1:0 2:4.9007064 3:19.819852 4:10.569779 5:8.9504249 6:3 7:8.3323809 8:15.706 9:-1.4670156 10:-1.485588 11:-3.2181521 12:-0.10375964 13:11.320547 14:4.7572152 15:2.1624361 16:1.7668214 17:-1.5056813 18:-1.2530558 19:-0.37647348 20:-0.39258394 21:-0.35323068 22:-0.23354968 23:-0.38880727 
0.02729939912469061 1:0 2:-0.18165315 3:7.8631509 4:6.0949823 5:2.8496173 6:3 7:8.3323809 8:6.1799261 9:-1.9152423 10:4.2505481 11:-0.59813839 12:0.54783889 13:6.9588842 14:2.4422637 15:1.429673 16:0.87790553 17:-1.7923209 18:-1.6219214 19:5.082392 20:1.7133816 21:3.4610174 22:8.7970381 23:2.1505511 
-1.062801273633197 1:0 2:3.1869875 3:7.8631509 4:1.6201852 5:2.1222861 6:2 7:1.6201852 8:1.5265627 9:-1.5247584 10:-0.054311511 11:-0.10323422 12:-3.4836516 13:4.2098974 14:-0.19188098 15:0.21297054 16:2.5277212 17:-1.613637 18:-2.1013822 19:-0.37647348 20:-0.39258394 21:-0.35323068 22:-0.23354968 23:-0.38880727 
0.02089916886086525 1:0 2:3.5239031 3:9.571251 4:6.0949823 5:-0.44823693 6:1 7:3.8575837 8:7.7702196 9:-1.9152423 10:0.076525598 11:2.4021344 12:0.92348141 13:1.3966369 14:1.3689855 15:0.42556436 16:3.3838368 17:-1.4719381 18:-1.0028872 19:3.2627702 20:2.1020665 21:3.9124353 22:-0.23354968 23:2.9024649 
0.006393777205875951 1:0 2:3.1054268 3:4.4469505 4:3.8575837 5:13.132526 6:2 7:6.0949823 8:12.215433 9:-1.9152423 10:-0.18585315 11:-3.3208205 12:1.4001573 13:1.8367619 14:3.7777941 15:1.5065749 16:0.17266802 17:-1.929994 18:-0.93256177 19:3.2627702 20:0.97841378 21:2.4905457 22:-0.23354968 23:2.876082 
-0.2619293025111989 1:0 2:2.6674496 3:2.7388503 4:3.8575837 5:-0.82172204 6:1 7:1.6201852 8:2.0016292 9:-1.9152423 10:-0.23438348 11:-3.4059987 12:0.43589953 13:10.07342 14:0.11878407 15:2.3589755 16:1.2143684 17:-1.8341232 18:-1.0258876 19:1.4431484 20:2.7310294 21:1.4952248 22:-0.23354968 23:2.5265082 
0.01422249842057916 1:0 2:5.2814836 3:26.652253 4:6.0949823 5:14.316453 6:3 7:6.0949823 8:8.3979845 9:-1.2788313 10:-0.034753567 11:2.3022008 12:1.5824184 13:11.073815 14:4.339409 15:-0.25161607 16:2.191672 17:-1.5071924 18:-1.3476659 19:-0.37647348 20:-0.39258394 21:-0.35323068 22:4.2817442 23:3.2916135 
0.0327932096115043 1:0 2:2.9964018 3:6.1550507 4:8.3323809 5:15.229913 6:4 7:10.569779 8:18.09148 9:-1.9152423 10:4.2528059 11:-0.40099426 12:0.46351601 13:8.0705603 14:3.583907 15:1.1811324 16:0.41656583 17:-1.7600243 18:-2.2449303 19:6.9020139 20:0.50492484 21:4.7300155 22:13.312332 23:3.1399115 
0.3856375325653618 1:0 2:1.3126629 3:7.8631509 4:3.8575837 5:2.3757598 6:0 7:1.6201852 8:6.1004539 9:-1.9152423 10:-0.1619887 11:2.3725875 12:-0.30144714 13:8.6995408 14:3.0165179 15:-1.1469221 16:1.0599087 17:-1.1313472 18:-0.89094804 19:-0.37647348 20:-0.39258394 21:-0.35323068 22:4.2817442 23:2.2165086 
-0.1979389863061973 1:0 2:1.7512478 3:11.279351 4:3.8575837 5:-1.5727904 6:0 7:1.6201852 8:3.6982695 9:-1.9152423 10:4.2086475 11:-0.21358662 12:0.88179088 13:10.649266 14:-0.035265034 15:2.1337322 16:-0.36617219 17:-1.7004946 18:-2.3614906 19:1.4431484 20:1.4731037 21:0.71318412 22:-0.23354968 23:1.3524672 
0.01547782539651721 1:0 2:6.1386477 3:28.360353 4:8.3323809 5:-0.054930565 6:1 7:3.8575837 8:6.3450403 9:-1.9152423 10:4.2461958 11:-0.60479454 12:0.64299807 13:12.692783 14:0.052705119 15:4.0116185 16:2.2386694 17:-1.9983212 18:-1.4334295 19:1.4431484 20:0.2717139 21:-0.068853175 22:-0.23354968 23:0.23119193 
0.02808669557202458 1:0 2:10.462115 3:24.944153 4:1.6201852 5:2.773767 6:2 7:6.0949823 8:6.5316693 9:-1.9152423 10:-4.3944052 11:-0.39044735 12:0.48483064 13:-0.29564746 14:5.5069399 15:1.2707952 16:3.5429449 17:-1.6541573 18:-1.969296 19:3.2627702 20:2.6674263 21:4.9788433 22:8.7970381 23:3.4169325 
0.01998121233393573 1:0 2:0.4535394 3:12.987451 4:6.0949823 5:1.0411755 6:2 7:6.0949823 8:8.6278444 9:-1.9152423 10:-0.14817867 11:-0.91234461 12:4.3644891 13:11.983606 14:-0.46315869 15:0.89109554 16:-0.36120571 17:-1.3674553 18:-0.89555803 19:6.9020139 20:-0.039234023 21:2.2082733 22:8.7970381 23:0.73906364 
0.06358261091958711 1:0 2:1.3960891 3:4.4469505 4:1.6201852 5:0.51713761 6:1 7:3.8575837 8:4.571096 9:-1.9152423 10:4.2505577 11:-0.59813639 12:0.54752367 13:0.28419998 14:2.9112077 15:3.8267995 16:2.3230369 17:-2.3254809 18:-1.1839187 19:1.4431484 20:2.4412826 21:0.97732237 22:-0.23354968 23:2.2560831 
0.003340311793250409 1:0 2:2.789392 3:12.987451 4:8.3323809 5:12.093918 6:4 7:8.3323809 8:13.335223 9:-1.9152423 10:4.2443163 11:-0.49139576 12:0.16632611 13:5.6343445 14:8.9319723 15:-0.65704003 16:3.6883273 17:-1.3388797 18:-0.96658338 19:5.082392 20:2.0031286 21:4.0546122 22:8.7970381 23:2.4077847 
-3.458401971306662 1:0 2:0.94173466 3:1.0307501 4:1.6201852 5:-0.05850451 6:0 7:1.6201852 8:1.3229692 9:-1.2054341 10:0.23280157 11:2.1668919 12:-1.1629211 13:-0.29564746 14:2.4452782 15:2.9492504 16:2.2056942 17:-1.9105868 18:-1.2482315 19:-0.37647348 20:-0.39258394 21:-0.35323068 22:-0.23354968 23:-0.38880727 
0.009482441459474553 1:0 2:3.6721127 3:14.695552 4:8.3323809 5:1.6281652 6:2 7:3.8575837 8:4.0375969 9:-1.9152423 10:-0.52861508 11:-3.3751581 12:0.023223163 13:17.790234 14:4.5758688 15:2.7054385 16:0.079207136 17:-1.3576012 18:-0.90762366 19:1.4431484 20:3.7486772 21:1.8506942 22:4.2817442 23:2.704593 
0.00545227241356875 1:0 2:2.4358824 3:18.111752 4:3.8575837 5:4.6742092 6:4 7:3.8575837 8:3.6304027 9:-1.9152423 10:4.2461888 11:-0.31098876 12:0.50189674 13:18.656947 14:-0.023553846 15:1.3564244 16:0.5671562 17:-1.6904683 18:-1.7042946 19:1.4431484 20:1.1409548 21:0.64208891 22:-0.23354968 23:1.0424675 
0.198653132938733 1:0 2:-0.87261032 3:-0.67735007 4:1.6201852 5:5.2665744 6:1 7:3.8575837 8:3.2870544 9:-1.9152423 10:0.0074253782 11:-0.061526204 12:-3.4749951 13:-0.29564746 14:2.9437695 15:1.7095156 16:1.6851552 17:-1.4944601 18:-1.3579671 19:3.2627702 20:0.46252289 21:1.3993773 22:4.2817442 23:0.40927683 
1.294814326298039 1:0 2:0.42310442 3:-0.67735007 4:1.6201852 5:-1.2479397 6:0 7:1.6201852 8:-0.17008147 9:-1.9152423 10:4.2536267 11:-0.49139576 12:0.34628456 13:3.8549611 14:-0.19598202 15:0.53778881 16:1.5319464 17:-1.3746887 18:-2.3612377 19:3.2627702 20:2.3988805 21:4.3389998 22:-0.23354968 23:3.5158686 
0.04592898587446402 1:0 2:4.2265761 3:19.819852 4:10.569779 5:6.7484141 6:3 7:6.0949823 8:16.156428 9:-1.9152423 10:-0.083027955 11:2.396266 12:1.0013898 13:-0.29564746 14:-0.18659534 15:15.195824 16:1.1523022 17:-2.3046785 18:-2.0252763 19:5.082392 20:-0.039234023 21:2.2082733 22:8.7970381 23:1.0160846 
0.01023523270499907 1:0 2:8.3387533 3:16.403652 4:10.569779 5:4.3524043 6:2 7:6.0949823 8:13.606687 9:-1.9152423 10:4.2411359 11:-0.28648904 12:0.59396235 13:3.0752221 14:0.34069053 15:-0.47947006 16:3.0997405 17:-0.79523094 18:-1.4310351 19:8.7216357 20:1.4024336 21:5.6186934 22:8.7970381 23:2.9090608 
0.006280375793004569 1:0 2:2.2043822 3:21.527952 4:3.8575837 5:2.5816046 6:2 7:1.6201852 8:3.3928727 9:-1.253242 10:-0.98583685 11:2.3416551 12:0.012976145 13:23.638913 14:-0.16030804 15:-0.61151017 16:-0.99832271 17:-1.5191881 18:-1.9306856 19:-0.37647348 20:-0.39258394 21:-0.35323068 22:-0.23354968 23:-0.38880727 
1.34889758446916 1:0 2:0.89525399 3:6.1550507 4:1.6201852 5:0.75358112 6:0 7:1.6201852 8:0.96101232 9:-1.9152423 10:-0.27561436 11:2.3438664 12:-0.46690585 13:0.60075057 14:0.48399171 15:1.7774 16:1.1101084 17:-1.6329248 18:-2.3747267 19:3.2627702 20:2.3988805 21:2.57349 22:-0.23354968 23:2.2165086 
0.01780125831382048 1:0 2:3.9740392 3:18.111752 4:3.8575837 5:1.3835256 6:0 7:1.6201852 8:4.9521519 9:-1.1845633 10:-2.01289 11:2.0558727 12:-0.30604181 13:23.922085 14:0.42785601 15:12.180279 16:0.0051545768 17:-2.2607631 18:-1.0164836 19:-0.37647348 20:-0.39258394 21:-0.35323068 22:-0.23354968 23:-0.38880727 
0.04139292949541781 1:0 2:7.5740346 3:31.776553 4:15.044577 5:14.787897 6:3 7:8.3323809 8:23.107902 9:-1.9152423 10:-4.3959178 11:-0.49139576 12:0.54138175 13:23.234628 14:-0.03545189 15:1.1725622 16:-1.2061969 17:-1.6534017 18:-0.88723099 19:16.000123 20:0.2717139 21:8.2491789 22:4.2817442 23:1.7218283 
0.005877720095470074 1:0 2:2.9189156 3:7.8631509 4:8.3323809 5:7.0910694 6:2 7:6.0949823 8:18.215528 9:-1.9152423 10:-0.14971677 11:-0.92127201 12:4.3626751 13:9.9007978 14:6.2743786 15:1.69614 16:1.6700281 17:-1.4549718 18:-2.006908 19:5.082392 20:0.46252289 21:2.2082733 22:13.312332 23:2.6650187 
1.61440676111099 1:0 2:-0.6094375 3:2.7388503 4:1.6201852 5:-0.82382357 6:0 7:1.6201852 8:2.3409561 9:-1.2919131 10:-0.036366117 11:2.0508972 12:-1.4982546 13:0.88327492 14:0.96533408 15:-0.18969972 16:3.0008248 17:-1.8383457 18:-1.0092372 19:-0.37647348 20:-0.39258394 21:-0.35323068 22:-0.23354968 23:-0.38880727 
0.01895612133008985 1:0 2:3.4914174 3:14.695552 4:6.0949823 5:-0.96569891 6:1 7:3.8575837 8:5.5391948 9:-1.3253428 10:0.72310406 11:-3.2762737 12:1.3700834 13:21.333365 14:-0.46315869 15:13.240488 16:1.6933952 17:-2.4912963 18:-1.9521115 19:-0.37647348 20:-0.39258394 21:-0.35323068 22:-0.23354968 23:-0.38880727 
0.02127728858030472 1:0 2:9.6342218 3:23.236053 4:6.0949823 5:6.850847 6:3 7:6.0949823 8:17.282749 9:-1.9152423 10:0.39900426 11:-0.062693464 12:4.3398426 13:11.816419 14:3.4729838 15:-1.9137077 16:1.9977007 17:-1.3265412 18:-1.3179382 19:1.4431484 20:0.73813582 21:0.1859019 22:-0.23354968 23:0.66651053 
0.001295878464549226 1:0 2:5.1717504 3:14.695552 4:6.0949823 5:5.8072354 6:2 7:6.0949823 8:19.180731 9:-1.9152423 10:0.011713122 11:-0.046239573 12:-3.4717688 13:14.569278 14:0.32357252 15:0.98053838 16:-0.9118162 17:-1.4412927 18:-0.98801099 19:3.2627702 20:1.7275156 21:1.6016013 22:4.2817442 23:2.6650187 
3.453744979181876 1:0 2:1.9924885 3:2.7388503 4:1.6201852 5:1.5896296 6:1 7:1.6201852 8:1.5469928 9:-1.5194473 10:1.2207827 11:1.391974 12:-2.3409993 13:-0.29564746 14:2.4728144 15:-0.90351316 16:1.6506763 17:-1.5547265 18:-1.916815 19:-0.37647348 20:-0.39258394 21:-0.35323068 22:-0.23354968 23:-0.38880727 
0.0251150669895278 1:0 2:3.8258349 3:12.987451 4:6.0949823 5:4.2245669 6:1 7:3.8575837 8:5.2930023 9:-1.9152423 10:4.2425722 11:-0.49139576 12:0.74324735 13:15.593333 14:-0.053521222 15:2.9693068 16:1.0837967 17:-1.5607688 18:-2.3119614 19:6.9020139 20:2.1656694 21:6.4371075 22:-0.23354968 23:4.78225 
0.0008053636359421357 1:0 2:4.5973359 3:11.279351 4:1.6201852 5:3.6519952 6:3 7:3.8575837 8:5.2591895 9:-1.1794101 10:-0.071145569 11:2.3382758 12:-0.51688929 13:21.687957 14:5.7410742 15:6.1414816 16:0.079673394 17:-2.4687612 18:-2.1318756 19:-0.37647348 20:-0.39258394 21:-0.35323068 22:-0.23354968 23:-0.38880727 
0.0164825906323057 1:0 2:4.420952 3:28.360353 4:8.3323809 5:16.03507 6:2 7:3.8575837 8:17.13571 9:-1.9152423 10:-0.10421478 11:2.3241183 12:-0.59038138 13:6.7466317 14:7.2898708 15:0.54655704 16:3.8516062 17:-1.3447875 18:-1.6912552 19:1.4431484 20:2.2434065 21:2.4016735 22:-0.23354968 23:2.0714023 
0.1433670929233594 1:0 2:2.593497 3:12.987451 4:1.6201852 5:-0.995863 6:0 7:1.6201852 8:0.78004255 9:-1.0698197 10:-0.19011717 11:2.4117619 12:0.078518496 13:6.5000155 14:0.95616747 15:-0.20776986 16:1.9140048 17:-1.6378253 18:-0.93369535 19:-0.37647348 20:-0.39258394 21:-0.35323068 22:-0.23354968 23:-0.38880727 
-1.298225557796856 1:0 2:-0.88214385 3:2.7388503 4:-0.6172134 5:0.61660101 6:2 7:-0.6172134 8:-0.50941081 9:0.60532086 10:-0.071145569 11:-0.49139576 12:0.44384081 13:-0.29564746 14:-0.46315869 15:-0.52701466 16:-0.58384232 17:0.61391107 18:0.60698938 19:-0.37647348 20:-0.39258394 21:-0.35323068 22:-0.23354968 23:-0.38880727 
0.008195063504138749 1:0 2:2.6964707 3:19.819852 4:8.3323809 5:18.641775 6:3 7:6.0949823 8:7.9059537 9:-1.9152423 10:0.12541824 11:-3.3886986 12:0.024785949 13:15.338048 14:-0.073941848 15:0.82808994 16:-0.27509523 17:-1.5316194 18:-1.5992924 19:5.082392 20:2.5331533 21:4.5522855 22:4.2817442 23:2.3418274 
-0.1238589101972003 1:0 2:-0.71424172 3:7.8631509 4:1.6201852 5:14.884324 6:3 7:1.6201852 8:1.3568993 9:-1.2222768 10:-0.13670439 11:-1.0826447 12:-3.4361922 13:13.441041 14:4.0000317 15:0.54279233 16:1.3060073 17:-0.87676951 18:-1.1540856 19:-0.37647348 20:-0.39258394 21:-0.35323068 22:-0.23354968 23:-0.38880727 
-0.05555372029166071 1:0 2:-0.73423956 3:6.1550507 4:3.8575837 5:1.8723451 6:1 7:3.8575837 8:4.4447962 9:-1.1900535 10:-0.37063472 11:1.760782 12:2.9468594 13:8.7155435 14:7.4401025 15:-0.18995011 16:3.3029302 17:-1.5526342 18:-1.1406118 19:-0.37647348 20:-0.39258394 21:-0.35323068 22:-0.23354968 23:-0.38880727 
4.784047156521199 1:0 2:1.6424449 3:1.0307501 4:1.6201852 5:-1.5387737 6:0 7:1.6201852 8:0.93273762 9:-1.3576906 10:1.1388683 11:1.1901779 12:-2.5984054 13:-0.29564746 14:-0.18530846 15:1.1306992 16:1.3576579 17:-1.5519751 18:-1.5148743 19:-0.37647348 20:-0.39258394 21:-0.35323068 22:-0.23354968 23:-0.38880727 
0.3537063637944174 1:0 2:-0.6298384 3:-0.67735007 4:1.6201852 5:-0.91847854 6:0 7:1.6201852 8:0.97056715 9:-1.9152423 10:0.0074253782 11:-0.061526204 12:-3.4749951 13:-0.29564746 14:0.37154122 15:1.7095156 16:1.6851552 17:-1.4944601 18:-1.3579671 19:1.4431484 20:2.3776795 21:1.1971533 22:-0.23354968 23:2.1967214 
0.01847884367396706 1:0 2:5.4540091 3:23.236053 4:6.0949823 5:0.70417672 6:0 7:1.6201852 8:4.9877216 9:-1.9152423 10:-4.3886757 11:-0.3943529 12:0.23253288 13:11.736209 14:-0.027442703 15:2.3460958 16:1.4809042 17:-1.2651425 18:-1.8158415 19:5.082392 20:2.2646074 21:4.8366528 22:13.312332 23:2.9618267 
-0.15854714010793 1:0 2:1.813902 3:11.279351 4:3.8575837 5:1.0439252 6:1 7:3.8575837 8:5.7634617 9:-1.9152423 10:-0.071145569 11:2.3811516 12:-0.24295709 13:10.431883 14:3.4853108 15:0.12201487 16:0.4508843 17:-1.3478343 18:-1.4982992 19:3.2627702 20:1.5579076 21:1.7973676 22:4.2817442 23:1.4316159 
1.251858164343393 1:0 2:1.2195975 3:-0.67735007 4:-0.6172134 5:1.0295488 6:0 7:-0.6172134 8:-0.50941081 9:0.60532086 10:-0.071145569 11:-0.49139576 12:0.44384081 13:-0.29564746 14:-0.46315869 15:-0.52701466 16:-0.58384232 17:0.61391107 18:0.60698938 19:-0.37647348 20:-0.39258394 21:-0.35323068 22:-0.23354968 23:-0.38880727 
-0.1612354395178704 1:0 2:0.98538304 3:23.236053 4:-0.6172134 5:-1.5260179 6:0 7:-0.6172134 8:-0.50941081 9:0.60532086 10:-0.071145569 11:-0.49139576 12:0.44384081 13:-0.29564746 14:-0.46315869 15:-0.52701466 16:-0.58384232 17:0.61391107 18:0.60698938 19:-0.37647348 20:-0.39258394 21:-0.35323068 22:-0.23354968 23:-0.38880727 
0.0125977812479778 1:0 2:3.5641392 3:14.695552 4:12.807178 5:8.6759015 6:3 7:8.3323809 8:22.90431 9:-1.9152423 10:-0.52865211 11:-3.3751569 12:0.023241794 13:14.025805 14:3.5829371 15:2.4468396 16:-0.39920032 17:-1.4887947 18:-1.6316448 19:8.7216357 20:1.0702847 21:8.7468428 22:4.2817442 23:2.704593 
-0.6926444687782141 1:0 2:2.5058152 3:6.1550507 4:6.0949823 5:1.2483278 6:0 7:1.6201852 8:3.6304028 9:-1.297833 10:-0.037779439 11:-1.0724874 12:-3.4393679 13:6.5692202 14:-0.20602501 15:-0.48411691 16:2.1962666 17:-1.2903779 18:-1.7806903 19:-0.37647348 20:-0.39258394 21:-0.35323068 22:-0.23354968 23:-0.38880727 
0.03472371435793073 1:0 2:8.8930743 3:30.068453 4:12.807178 5:4.0670359 6:5 7:10.569779 8:15.586732 9:-1.9152423 10:4.2412563 11:-0.38607003 12:0.72435377 13:4.4691497 14:7.5811023 15:1.2790162 16:3.176262 17:-1.0055107 18:-1.1579066 19:5.082392 20:3.9818881 21:8.9124575 22:4.2817442 23:2.9618267 
-0.07829589600655161 1:0 2:2.7629304 3:9.571251 4:3.8575837 5:2.1970251 6:1 7:3.8575837 8:5.5249934 9:-1.9152423 10:-0.20707897 11:2.355396 12:-0.40944846 13:12.415434 14:3.0912275 15:2.1546306 16:0.8262843 17:-1.734895 18:-1.5177495 19:3.2627702 20:1.4024336 21:2.0580526 22:4.2817442 23:1.2865097 
-5.094558937138827 1:0 2:2.500941 3:2.7388503 4:1.6201852 5:1.9510988 6:0 7:1.6201852 8:3.6341476 9:-1.3052869 10:-0.2288608 11:2.4192987 12:0.23508338 13:-0.29564746 14:2.6227422 15:0.46593255 16:1.1123231 17:-1.8486468 18:-1.690903 19:-0.37647348 20:-0.39258394 21:-0.35323068 22:-0.23354968 23:-0.38880727 
0.03449558190900573 1:0 2:8.2531074 3:23.236053 4:8.3323809 5:4.8643842 6:2 7:6.0949823 8:13.119835 9:-1.9152423 10:-4.3972287 11:-0.49139576 12:0.44384081 13:21.451717 14:-0.13076807 15:11.477336 16:-0.34040588 17:-2.2647169 18:-0.97136208 19:14.180501 20:2.3494115 21:9.2647451 22:4.2817442 23:3.2190603 
0.01047879174721117 1:0 2:0.96245793 3:16.403652 4:10.569779 5:9.2804702 6:2 7:3.8575837 8:5.0887667 9:-1.5587809 10:-0.082713405 11:2.3941662 12:1.0211178 13:22.396054 14:5.2114858 15:1.0791311 16:-0.46284336 17:-1.880557 18:-1.7488475 19:3.2627702 20:3.310523 21:3.6912494 22:-0.23354968 23:3.7928896 
1.120588416971275 1:0 2:2.8006921 3:4.4469505 4:1.6201852 5:-1.1186 6:0 7:1.6201852 8:2.0694862 9:-1.0382928 10:1.0170745 11:0.76607636 12:-2.9899642 13:3.0749655 14:0.23003324 15:1.1311848 16:0.79715431 17:-1.8556471 18:-1.7277826 19:-0.37647348 20:-0.39258394 21:-0.35323068 22:-0.23354968 23:-0.38880727 
-0.04535604183271887 1:0 2:-0.3871239 3:1.0307501 4:3.8575837 5:0.77456311 6:1 7:1.6201852 8:2.5445494 9:-1.9152423 10:0.087791074 11:-3.401599 12:0.66414419 13:3.8109721 14:0.3206595 15:-0.03333324 16:0.13018633 17:-1.5442967 18:-2.2212749 19:1.4431484 20:2.1374014 21:1.3530343 22:-0.23354968 23:1.9724662 
0.3052690916148331 1:0 2:0.76578651 3:6.1550507 4:3.8575837 5:-1.5142296 6:0 7:1.6201852 8:3.4268029 9:-1.1871538 10:-3.0961081 11:-0.93940336 12:3.2106174 13:0.056044115 14:0.061426884 15:1.3701975 16:1.8572584 17:-2.4121474 18:-1.9245718 19:-0.37647348 20:-0.39258394 21:-0.35323068 22:-0.23354968 23:-0.38880727 
0.02951135733041728 1:0 2:6.2351411 3:23.236053 4:8.3323809 5:15.072138 6:3 7:6.0949823 8:13.063747 9:-1.9152423 10:-4.3751373 11:-0.49139576 12:0.84380641 13:20.24789 14:-0.46315869 15:0.61254166 16:-0.28931224 17:-1.8999263 18:-1.8105552 19:5.082392 20:2.3988805 21:4.1968092 22:13.312332 23:4.3601227 
0.02227309932860232 1:0 2:2.5663589 3:9.571251 4:8.3323809 5:16.136167 6:3 7:8.3323809 8:18.238529 9:-1.9152423 10:-0.10421307 11:2.3241289 12:-0.59032788 13:8.5674728 14:0.045356361 15:1.9187183 16:0.18323415 17:-1.4351405 18:-1.7138 19:5.082392 20:1.2045577 21:5.9563969 22:-0.23354968 23:3.806081 
0.1301155014640692 1:0 2:-1.6485657 3:1.0307501 4:3.8575837 5:-0.72955658 6:1 7:3.8575837 8:2.2052233 9:-1.9152423 10:-4.3751373 11:-0.49139576 12:0.84380641 13:5.5557012 14:-0.46315869 15:0.61254166 16:-0.28931224 17:-1.8999263 18:-1.8105552 19:1.4431484 20:2.5614213 21:1.1397486 22:-0.23354968 23:2.3682103 
0.01022281688100124 1:0 2:3.7969325 3:18.111752 4:15.044577 5:15.872306 6:4 7:8.3323809 8:17.407177 9:-1.9152423 10:0.44876244 11:2.3752554 12:-0.11054967 13:20.634571 14:-0.46315869 15:1.2620573 16:-1.2213386 17:-1.5900906 18:-1.489231 19:6.9020139 20:1.8335206 21:5.4054078 22:4.2817442 23:1.6888497 
-0.2069504557705412 1:0 2:3.8384986 3:38.608954 4:-0.6172134 5:-1.4989648 6:0 7:-0.6172134 8:-0.50941081 9:0.60532086 10:-0.071145569 11:-0.49139576 12:0.44384081 13:-0.29564746 14:-0.46315869 15:-0.52701466 16:-0.58384232 17:0.61391107 18:0.60698938 19:-0.37647348 20:-0.39258394 21:-0.35323068 22:-0.23354968 23:-0.38880727 
0.05441533738968513 1:0 2:1.5408797 3:11.279351 4:6.0949823 5:4.3760403 6:4 7:3.8575837 8:7.6626414 9:-1.9152423 10:-0.15154527 11:-0.92768848 12:4.3613346 13:10.295585 14:2.6870919 15:0.15851802 16:1.7695032 17:-1.3641756 18:-2.2800223 19:1.4431484 20:4.7027219 21:2.1408653 22:4.2817442 23:4.3667185 
2.12175826306505 1:0 2:-0.04982317 3:-0.67735007 4:1.6201852 5:-1.0120745 6:0 7:1.6201852 8:0.84790403 9:-1.5391696 10:-0.31125453 11:1.6843258 12:3.0738441 13:0.20477437 14:0.30822534 15:0.46907911 16:0.76063595 17:-1.4603173 18:-1.3903383 19:-0.37647348 20:-0.39258394 21:-0.35323068 22:-0.23354968 23:-0.38880727 
-3.773313850151958 1:0 2:0.30520719 3:-0.67735007 4:1.6201852 5:-0.64543768 6:0 7:1.6201852 8:0.57644513 9:-1.9152423 10:4.2536362 11:-0.49139576 12:0.34665338 13:0.062596233 14:0.65370437 15:1.2699641 16:1.7484089 17:-1.4101569 18:-1.2901842 19:3.2627702 20:2.3988805 21:4.7655644 22:-0.23354968 23:3.5158686 
16.29329108962174 1:0 2:-0.11713247 3:-0.67735007 4:1.6201852 5:0.46180626 6:1 7:1.6201852 8:2.0638334 9:-1.9152423 10:-4.395195 11:-0.49139576 12:0.32235004 13:-0.29564746 14:1.860361 15:2.5316167 16:1.6020239 17:-1.4993266 18:-1.6262814 19:3.2627702 20:2.3988805 21:3.0355988 22:-0.23354968 23:2.2165086 
0.02820980422553892 1:0 2:8.3964529 3:30.068453 4:15.044577 5:3.633664 6:4 7:10.569779 8:23.447225 9:-1.9152423 10:-0.112767 11:2.4150605 12:0.11443037 13:13.494384 14:3.118198 15:3.4304481 16:1.3396348 17:-1.5189931 18:-1.9830757 19:8.7216357 20:1.6427117 21:9.3156112 22:-0.23354968 23:5.079058 
0.1154296875925426 1:0 2:1.9785089 3:12.987451 4:1.6201852 5:3.1038243 6:1 7:1.6201852 8:2.3861982 9:-1.9152423 10:0.0074738307 11:-0.075858801 12:-3.4778467 13:1.2635055 14:0.13646119 15:0.92191215 16:3.0301447 17:-1.3730527 18:-2.2738373 19:1.4431484 20:2.7310294 21:1.3993773 22:-0.23354968 23:2.5265082 
0.02992229391103523 1:0 2:4.6289482 3:9.571251 4:10.569779 5:3.784699 6:2 7:6.0949823 8:14.556804 9:-1.9152423 10:4.2524256 11:-0.39204047 12:0.44685459 13:19.392341 14:-0.014046612 15:12.095658 16:0.093868491 17:-2.301077 18:-1.0635878 19:5.082392 20:1.5084387 21:5.8319792 22:4.2817442 23:3.7796981 
0.164651911743483 1:0 2:3.5307448 3:6.1550507 4:1.6201852 5:2.3366176 6:1 7:3.8575837 8:3.9018667 9:-1.2612667 10:-0.13315313 11:2.0516418 12:-1.4958848 13:-0.29564746 14:4.3196976 15:0.83419114 16:0.67021997 17:-2.1277747 18:-1.3779653 19:1.4431484 20:4.066692 21:2.3128097 22:4.2817442 23:3.2916135 
0.3602194159746748 1:0 2:1.7252746 3:7.8631509 4:1.6201852 5:-0.55140582 6:0 7:1.6201852 8:2.2730881 9:-1.9152423 10:0.12873349 11:2.4070583 12:0.041117026 13:0.61607597 14:0.061135172 15:2.059401 16:0.66089304 17:-1.6149644 18:-1.4767174 19:1.4431484 20:3.1974512 21:1.6374085 22:4.2817442 23:2.9618267 
-0.07601013309063014 1:0 2:8.1255591 3:28.360353 4:-0.6172134 5:-0.99698344 6:0 7:-0.6172134 8:-0.50941081 9:0.60532086 10:-0.071145569 11:-0.49139576 12:0.44384081 13:-0.29564746 14:-0.46315869 15:-0.52701466 16:-0.58384232 17:0.61391107 18:0.60698938 19:-0.37647348 20:-0.39258394 21:-0.35323068 22:-0.23354968 23:-0.38880727 
-1.018192983544215 1:0 2:0.44438423 3:2.7388503 4:1.6201852 5:0.88816779 6:1 7:1.6201852 8:-0.23794746 9:-1.2777551 10:-1.1642968 11:-2.9431674 12:2.3424056 13:0.22455537 14:0.70141672 15:-0.20670957 16:2.4626908 17:-1.2847863 18:-0.96697919 19:-0.37647348 20:-0.39258394 21:-0.35323068 22:-0.23354968 23:-0.38880727 
-0.1178547986199174 1:0 2:-0.60996327 3:7.8631509 4:3.8575837 5:8.1649643 6:1 7:1.6201852 8:1.2551013 9:-1.9152423 10:-0.029524133 11:-3.397852 12:0.77325126 13:2.9494972 14:-0.46315869 15:3.4304481 16:1.3396348 17:-1.5189931 18:-1.9830757 19:1.4431484 20:2.4695505 21:0.92646976 22:-0.23354968 23:2.282466 
0.01647101481505459 1:0 2:4.5364198 3:26.652253 4:1.6201852 5:1.4864142 6:2 7:1.6201852 8:1.0515026 9:-0.97296966 10:-0.056444194 11:2.12463 12:-1.3084398 13:20.506632 14:0.95619201 15:0.77578848 16:0.093839527 17:-2.0025384 18:-0.95817373 19:-0.37647348 20:-0.39258394 21:-0.35323068 22:-0.23354968 23:-0.38880727 
-0.2133450583092467 1:0 2:0.72251452 3:6.1550507 4:3.8575837 5:2.8069745 6:1 7:1.6201852 8:0.30497605 9:-1.9152423 10:-0.52861508 11:-3.3751581 12:0.023223163 13:14.144861 14:0.12342048 15:2.7054385 16:0.079207136 17:-1.3576012 18:-0.90762366 19:1.4431484 20:3.932419 21:1.7085036 22:4.2817442 23:2.704593 
0.07274695178673279 1:0 2:3.3888909 3:14.695552 4:1.6201852 5:-0.20885486 6:2 7:1.6201852 8:2.0016227 9:-1.3695244 10:0.081853826 11:2.4195992 12:0.23993191 13:7.948901 14:-0.46315869 15:0.81703661 16:1.6619193 17:-1.7320791 18:-1.2732193 19:-0.37647348 20:-0.39258394 21:-0.35323068 22:-0.23354968 23:-0.38880727 
0.01339896194961019 1:0 2:3.8814056 3:19.819852 4:3.8575837 5:0.12996502 6:2 7:3.8575837 8:0.37284523 9:-1.9152423 10:4.2459875 11:-0.58188844 12:0.22069016 13:0.52691216 14:5.286559 15:5.77279 16:3.0123745 17:-2.2114588 18:-1.9197468 19:1.4431484 20:2.8016993 21:0.92646976 22:-0.23354968 23:2.5924655 
0.1289097174293499 1:0 2:2.5601995 3:14.695552 4:3.8575837 5:-0.13162764 6:1 7:3.8575837 8:3.8340028 9:-1.2919131 10:-0.26502126 11:-3.3146383 12:1.4228959 13:-0.29564746 14:-0.10297342 15:-1.2872712 16:2.1277856 17:-2.017236 18:-1.0323106 19:-0.37647348 20:-0.39258394 21:-0.35323068 22:-0.23354968 23:-0.38880727 
-2.419646435385225 1:0 2:-0.31903408 3:6.1550507 4:1.6201852 5:-0.90509653 6:0 7:1.6201852 8:1.6783827 9:-1.9152423 10:0.0058870416 11:-0.070319525 12:-3.4767824 13:0.069287596 14:0.19558881 15:1.8322862 16:2.9667351 17:-1.9123877 18:-1.5298362 19:1.4431484 20:1.8759226 21:0.59048133 22:-0.23354968 23:1.7284241 
0.005312511208255717 1:0 2:3.8913035 3:16.403652 4:8.3323809 5:13.21976 6:0 7:1.6201852 8:8.7203436 9:-1.9152423 10:-4.3599571 11:-0.19724245 12:0.11262926 13:15.24171 14:0.0067942516 15:0.68311173 16:0.095565217 17:-1.2660191 18:-0.9657451 19:5.082392 20:2.5684884 21:5.4765031 22:-0.23354968 23:3.027784 
-0.3318604657681624 1:0 2:-2.0161792 3:2.7388503 4:1.6201852 5:-0.53653202 6:1 7:1.6201852 8:0.50857595 9:-1.9152423 10:0.077054087 11:-3.3146205 12:1.4296626 13:2.8262848 14:-0.46315869 15:-0.11258253 16:3.5712767 17:-0.7140388 18:-1.4743942 19:1.4431484 20:-0.060435019 21:-0.28213613 22:4.2817442 23:-0.078807674 
0.007408164664035823 1:0 2:5.4007039 3:23.236053 4:12.807178 5:1.8476244 6:3 7:6.0949823 8:16.032883 9:-1.9152423 10:4.2477339 11:-0.39323906 12:0.25817406 13:9.4662863 14:5.8858264 15:2.0946143 16:1.1320548 17:-1.6969499 18:-1.6028888 19:3.2627702 20:2.3988805 21:2.57349 22:-0.23354968 23:2.2165086 
0.003749526114363808 1:0 2:4.9717852 3:11.279351 4:3.8575837 5:4.2122349 6:2 7:6.0949823 8:11.706443 9:-1.217951 10:-2.3804694 11:1.9641284 12:0.75753858 13:20.300592 14:3.7803758 15:8.7453 16:-0.19931513 17:-2.2107827 18:-1.9377265 19:-0.37647348 20:-0.39258394 21:-0.35323068 22:-0.23354968 23:-0.38880727 
0.005646066089543943 1:0 2:6.1929661 3:26.652253 4:6.0949823 5:3.766723 6:1 7:3.8575837 8:6.9558252 9:-1.9152423 10:-0.034069974 11:2.409085 12:0.028074969 13:13.92991 14:-0.02910934 15:2.0040018 16:0.74092387 17:-1.541818 18:-1.5513825 19:8.7216357 20:1.0702847 21:7.680434 22:8.7970381 23:2.5331037 
-0.4389793275953028 1:0 2:0.33672985 3:2.7388503 4:1.6201852 5:1.2483278 6:0 7:1.6201852 8:1.5265627 9:-1.1415584 10:-0.65500508 11:2.3069592 12:-0.53713425 13:1.8826253 14:-0.46315869 15:9.0595075 16:0.56442809 17:-2.3496373 18:-2.2973443 19:-0.37647348 20:-0.39258394 21:-0.35323068 22:-0.23354968 23:-0.38880727 
0.1980272316565508 1:0 2:2.1470322 3:7.8631509 4:1.6201852 5:5.5593673 6:1 7:3.8575837 8:2.96532 9:-1.9152423 10:-4.3966372 11:-0.49139576 12:0.37830639 13:0.222116 14:7.4648851 15:-0.2862435 16:0.019599351 17:-1.1699418 18:-0.92749276 19:-0.37647348 20:-0.39258394 21:-0.35323068 22:4.2817442 23:2.6650187 
0.1766363209689269 1:0 2:2.0841153 3:4.4469505 4:3.8575837 5:5.4639946 6:1 7:1.6201852 8:1.6783827 9:-1.9152423 10:-0.059479394 11:-3.3778802 12:-0.12485462 13:9.9602249 14:3.0457964 15:0.13199884 16:0.63110597 17:-1.2876757 18:-1.0877905 19:1.4431484 20:2.2858084 21:0.72529733 22:-0.23354968 23:2.1109767 
-0.2871508368808128 1:0 2:0.11292784 3:6.1550507 4:1.6201852 5:3.7876346 6:3 7:6.0949823 8:2.2052213 9:-1.9152423 10:-4.3964686 11:-0.49139576 12:0.36954892 13:2.4939015 14:3.0155358 15:2.9309609 16:0.097518861 17:-1.6411334 18:-1.8944395 19:3.2627702 20:1.3458977 21:0.95016769 22:8.7970381 23:1.9065089 
0.7133710687206553 1:0 2:-2.2208788 3:-0.67735007 4:1.6201852 5:-0.78669284 6:0 7:1.6201852 8:0.51988815 9:-1.9152423 10:-4.395195 11:-0.49139576 12:0.32235004 13:-0.29564746 14:-0.016477724 15:2.5316167 16:1.6020239 17:-1.4993266 18:-1.0752226 19:1.4431484 20:2.3988805 21:1.1101296 22:-0.23354968 23:2.2165086 
0.02494596207815659 1:0 2:1.2630938 3:9.571251 4:3.8575837 5:3.553489 6:1 7:1.6201852 8:2.4766828 9:-1.6042004 10:-0.23242928 11:1.3406623 12:-2.636084 13:6.7620205 14:4.8266781 15:0.14856657 16:1.9041635 17:-1.3304191 18:-1.6997995 19:1.4431484 20:2.2292725 21:0.92646976 22:-0.23354968 23:2.0582109 
0.02051063270417415 1:0 2:5.5457096 3:19.819852 4:8.3323809 5:8.808246 6:6 7:10.569779 8:16.768106 9:-1.9152423 10:-0.19619266 11:2.3176948 12:-0.61639829 13:17.748968 14:-0.11125937 15:11.489385 16:-0.84400774 17:-2.0034737 18:-0.93125859 19:8.7216357 20:2.6320915 21:10.198359 22:4.2817442 23:2.8299121 
0.006008690874350007 1:0 2:1.2848575 3:33.484654 4:6.0949823 5:2.197954 6:1 7:3.8575837 8:7.2386057 9:-1.9152423 10:-4.3964686 11:-0.49139576 12:0.36954892 13:16.534766 14:-0.0013883751 15:2.9309609 16:0.097518861 17:-1.6411334 18:-1.8944395 19:3.2627702 20:1.3458977 21:1.3648846 22:4.2817442 23:1.2337439 
0.01097237221305145 1:0 2:1.2442454 3:23.236053 4:6.0949823 5:-1.2387427 6:0 7:1.6201852 8:3.6087887 9:-1.0934421 10:-1.7709862 11:1.772184 12:2.398529 13:24.340537 14:0.76305979 15:3.4635523 16:-0.29140272 17:-2.2456409 18:-1.81444 19:-0.37647348 20:-0.39258394 21:-0.35323068 22:-0.23354968 23:-0.38880727 
0.02127470630149906 1:0 2:5.8583941 3:26.652253 4:8.3323809 5:3.179339 6:4 7:10.569779 8:15.371198 9:-1.9152423 10:-0.077455925 11:-3.4050106 12:0.26212667 13:19.855469 14:0.049427905 15:-0.45278286 16:-0.075733948 17:-1.7591514 18:-1.7738432 19:8.7216357 20:0.73813582 21:7.6093463 22:-0.23354968 23:4.4458673 
0.02673617548087711 1:0 2:8.4099087 3:19.819852 4:3.8575837 5:3.8098828 6:2 7:6.0949823 8:6.8879637 9:-1.9152423 10:4.2350237 11:-0.49139576 12:0.82363139 13:2.4372067 14:7.3820868 15:2.0530381 16:3.9473874 17:-0.86103212 18:-1.3570811 19:10.541258 20:1.6073765 21:9.8132574 22:8.7970381 23:2.0977853 
0.04113336716898239 1:0 2:-1.3240443 3:2.7388503 4:3.8575837 5:2.1297914 6:1 7:3.8575837 8:5.0555831 9:-1.9152423 10:0.38632394 11:2.3923666 12:0.86445847 13:10.026582 14:1.6707302 15:2.7054385 16:0.079207136 17:-1.3576012 18:-0.90762366 19:1.4431484 20:1.0702847 21:0.5709937 22:4.2817442 23:2.704593 
-0.08780952219664229 1:0 2:0.017801882 3:7.8631509 4:3.8575837 5:-0.286813 6:1 7:3.8575837 8:4.7106001 9:-1.0668978 10:1.9832906 11:2.0151128 12:-0.30762452 13:0.31359785 14:-0.46315869 15:8.2990327 16:1.7340995 17:-2.4212991 18:-2.3383893 19:-0.37647348 20:-0.39258394 21:-0.35323068 22:-0.23354968 23:-0.38880727 
0.0238419537304476 1:0 2:11.180555 3:24.944153 4:10.569779 5:2.8729978 6:2 7:6.0949823 8:12.724432 9:-1.9152423 10:-4.3944052 11:-0.39044735 12:0.48483064 13:-0.29564746 14:5.5069399 15:1.2707952 16:3.5429449 17:-1.6541573 18:-1.969296 19:3.2627702 20:2.6674263 21:4.9788433 22:8.7970381 23:3.4169325 
