svm_type epsilon_svr
kernel_type rbf
gamma 0.00936711
nr_class 2
total_sv 194
rho -0.930745
SV
-4.750750565577925 1:0 2:-1.3808339 3:0.24019223 4:1.372065 5:0.80774257 6:0 7:0.22941573 8:0.41994882 9:0.73895424 10:-0.76503773 11:0.92933402 12:-1.6088088 13:-0.29008477 14:-1.0886504 15:0.88898313 16:-0.62229873 17:0.75033765 18:-1.2010299 19:-0.79335096 20:-0.88124482 21:-0.88740945 22:-0.66208471 23:-1.0303776 
2.920856088986749 1:0 2:0.3670583 3:0.24019223 4:-0.41758499 5:-1.4689664 6:0 7:0.22941573 8:-0.61597234 9:-0.50076367 10:1.7025988 11:0.38986277 12:0.30798697 13:0.95078232 14:-0.95582575 15:0.22528684 16:0.77324166 17:1.5237018 18:0.42428416 19:1.6067024 20:-0.39198588 21:2.187061 22:-0.66208471 23:1.3990651 
-1.345376451189726 1:0 2:-0.80510862 3:0.24019223 4:-0.41758499 5:-0.88841133 6:0 7:0.22941573 8:-0.43098753 9:-0.50076367 10:1.7021105 11:0.33016928 12:0.49759394 13:-0.86476237 14:-0.16024556 15:-0.17119338 16:0.36261668 17:-1.5945467 18:-0.89270507 19:0.0066668148 20:-0.063708913 21:-0.51533947 22:0.16552118 23:-0.36663746 
0.2579351771236105 1:0 2:4.3790043 3:6.244998 4:4.9513649 5:-0.69912744 6:1 7:4.8177304 8:3.2500767 9:-0.50076367 10:0.20252803 11:-1.1844622 12:1.2572941 13:1.1608284 14:0.014062822 15:0.13760009 16:0.29686682 17:-0.14613652 18:-0.7095256 19:2.4067201 20:-0.18996924 21:2.5477601 22:0.99312707 23:1.1889235 
0.05617251365724111 1:0 2:-0.72205 3:6.244998 4:8.5306648 5:2.9021762 6:3 7:13.99436 8:7.5604125 9:-0.50076367 10:-1.6576591 11:0.44373226 12:0.44622816 13:-0.89165084 14:1.7808609 15:0.89857972 16:-0.52259462 17:2.3430518 18:-0.75162116 19:1.2066935 20:-0.24362993 21:1.5604152 22:-0.66208471 23:1.4067534 
0.02202000074072433 1:0 2:3.6388586 3:1.4411534 4:-0.41758499 5:-0.49459963 6:7 7:27.759304 8:3.4167283 9:-0.50076367 10:0.036669117 11:2.1456143 12:-0.038659147 13:2.7829124 14:2.8589611 15:-0.70159757 16:0.97174785 17:-0.45688129 18:0.60497157 19:4.0067557 20:-0.73288888 21:4.2823987 22:3.4759447 23:1.0197851 
-0.8648515451855364 1:0 2:-1.0120372 3:1.4411534 4:-0.41758499 5:1.6246592 6:4 7:0.22941573 8:-1.466908 9:3.8506453 10:0.024211306 11:0.44373226 12:0.44622816 13:-1.1041074 14:-1.0886504 15:-4.0921331 16:-4.0934905 17:0.68320389 18:3.2588258 19:-0.39334207 20:1.0158174 21:-0.51533927 22:-0.66208471 23:0.50980719 
-2.779980274464828 1:0 2:0.096540673 3:1.4411534 4:3.1617149 5:4.3199778 6:2 7:4.8177304 8:2.4208864 9:-0.50076367 10:0.072832881 11:-1.2284112 12:1.1025791 13:-0.028643561 14:3.253868 15:-0.013811469 16:0.31067908 17:0.0094868439 18:0.79858938 19:1.2066935 20:1.0978866 21:3.2706317 22:0.99312707 23:1.6066442 
0.9132189350963269 1:0 2:1.5412789 3:2.6421145 4:1.372065 5:3.9257103 6:1 7:0.22941573 8:2.0478312 9:0.17335373 10:0.093648033 11:0.29414468 12:-1.9960608 13:1.4792595 14:0.78716137 15:0.53708555 16:0.085884186 17:-0.28838237 18:0.14770703 19:-0.79335096 20:-0.88124482 21:-0.88740945 22:-0.66208471 23:-1.0303776 
-0.1144662162672203 1:0 2:2.3368925 3:3.8430757 4:3.1617149 5:3.4974259 6:3 7:13.99436 8:4.4834786 9:-0.50076367 10:-1.6573663 11:0.44373226 12:0.40045407 13:2.1299143 14:2.2172713 15:-0.021001524 16:0.39680527 17:-3.5109869 18:0.85984229 19:0.0066668148 20:-0.26256896 21:-0.21833634 22:0.16552118 23:-0.52808774 
0.03280714095980734 1:0 2:6.4559993 3:5.0440368 4:6.7410148 5:2.9256514 6:2 7:9.4060451 8:6.9037132 9:-0.50076367 10:0.037167104 11:-1.232218 12:1.0865542 13:-1.0070018 14:2.0560906 15:-1.0514792 16:0.32675088 17:-3.1485933 18:0.43866293 19:3.6067468 20:-0.019517748 21:7.5086338 22:2.6483388 23:1.3554994 
-0.3106798209090775 1:0 2:1.0974282 3:3.8430757 4:3.1617149 5:-1.6439468 6:2 7:9.4060451 8:1.640857 9:-0.50076367 10:0.024211306 11:-1.2924415 12:0.44622816 13:4.012678 14:1.0605434 15:0.032429099 16:0.39803295 17:-1.8820277 18:0.95377968 19:-0.39334207 20:0.053081974 21:-0.51533927 22:-0.66208471 23:-0.2718174 
5.994842503189409 1:0 2:-1.5532445 3:0.24019223 4:-0.41758499 5:0.80774257 6:0 7:0.22941573 8:-0.94894708 9:0.73895424 10:-0.76503773 11:0.92933402 12:-1.6088088 13:-0.29008477 14:-1.0886504 15:0.88898313 16:-0.62229873 17:0.75033765 18:-1.2010299 19:-0.79335096 20:-0.88124482 21:-0.88740945 22:-0.66208471 23:-1.0303776 
5.994842503189409 1:0 2:-0.92329261 3:1.4411534 4:-0.41758499 5:0.39120327 6:0 7:0.22941573 8:-0.43098405 9:-0.50076367 10:0.083586783 11:2.1765217 12:0.31996181 13:-1.1041074 14:1.205579 15:0.1825736 16:0.85503778 17:1.3706111 18:-0.95464755 19:2.0067113 20:-0.73288888 21:1.8149905 22:-0.66208471 23:0.96853108 
-1.199864644718074 1:0 2:-1.3053935 3:0.24019223 4:1.372065 5:0.66174419 6:0 7:0.22941573 8:1.085899 9:0.17552424 10:0.75434577 11:-1.0236041 12:-0.31890595 13:0.51838424 14:-0.15465836 15:0.90532067 16:-0.48056126 17:1.0583861 18:0.69375749 19:-0.79335096 20:-0.88124482 21:-0.88740945 22:-0.66208471 23:-1.0303776 
-0.1034189688413772 1:0 2:-0.059946116 3:7.4459592 4:4.9513649 5:4.385932 6:7 7:13.99436 8:3.3038153 9:-0.50076367 10:0.054193104 11:0.69449531 12:-1.9811637 13:2.0040432 14:4.7255507 15:0.18817899 16:0.5314457 17:0.42891624 18:-0.66696234 19:0.0066668148 20:-0.3414817 21:-0.27469154 22:-0.66208471 23:82.260048 
0.2225478246738747 1:0 2:1.1065255 3:3.8430757 4:6.7410148 5:2.1652892 6:4 7:18.582674 8:7.5974108 9:-0.50076367 10:-1.6576591 11:0.44373226 12:0.44622816 13:1.9254991 14:1.9302129 15:0.32114597 16:0.31433956 17:-0.67485624 18:-0.0043888611 19:1.2066935 20:-0.24362993 21:1.579998 22:0.99312707 23:1.4041906 
1.172428974363163 1:0 2:-2.0873092 3:-0.96076892 4:-0.41758499 5:2.2892252 6:4 7:0.22941573 8:-0.65297 9:0.60090448 10:-0.94359434 11:1.2612043 12:2.0869268 13:-0.67754797 14:2.3857096 15:0.83469777 16:-0.55906554 17:0.82622414 18:0.7547802 19:-0.79335096 20:-0.88124482 21:-0.88740945 22:-0.66208471 23:-1.0303776 
-0.5310622826609265 1:0 2:-1.1113844 3:0.24019223 4:1.372065 5:-0.55910393 6:2 7:4.8177304 8:-0.98594544 9:-0.50076367 10:-0.055435056 11:2.1314523 12:-0.11752103 13:-0.088521666 14:0.11355726 15:0.52121549 16:-0.13698022 17:0.85867507 18:0.49924803 19:0.0066668148 20:0.79486165 21:0.89460636 22:-0.66208471 23:1.6963389 
1.982501631473073 1:0 2:-1.5510546 3:0.24019223 4:1.372065 5:1.1759612 6:1 7:4.8177304 8:0.75292644 9:-0.50076367 10:-0.039298984 11:-1.2911997 12:0.4413089 13:-0.35094291 14:2.1785508 15:0.41573442 16:0.0064174317 17:-0.50292287 18:0.88609323 19:0.80668459 20:-0.1079 21:1.8149901 22:0.99312707 23:0.77889097 
-0.1100148523393638 1:0 2:4.0030133 3:3.8430757 4:3.1617149 5:7.0140126 6:7 7:27.759304 8:4.1289274 9:-0.50076367 10:-1.2121575 11:-0.71236201 12:0.75851762 13:4.163263 14:3.9309846 15:0.13560254 16:-0.023787589 17:-1.8381945 18:0.34386619 19:2.806729 20:-0.31622965 21:3.4452411 22:0.99312707 23:-0.13855683 
-5.042722606020541 1:0 2:-0.34819779 3:0.24019223 4:1.372065 5:-0.0047036574 6:0 7:0.22941573 8:-0.098832951 9:0.65051094 10:-0.72788894 11:1.9692324 12:0.035733583 13:1.1763172 14:-1.0886504 15:0.90572185 16:-0.57198215 17:0.22727763 18:0.33999326 19:-0.79335096 20:-0.88124482 21:-0.88740945 22:-0.66208471 23:-1.0303776 
-0.2602228139753501 1:0 2:0.66408741 3:1.4411534 4:-0.41758499 5:-2.0359923 6:1 7:4.8177304 8:0.38295404 9:-0.50076367 10:0.18934379 11:0.37460558 12:2.8859307 13:-0.40313138 14:-0.35889958 15:-0.18683693 16:0.58223948 17:-2.9490163 18:0.75304872 19:0.0066668148 20:-0.73288888 21:-0.064939834 22:-0.66208471 23:1.2632419 
-0.005010451885799028 1:0 2:1.3702748 3:7.4459592 4:8.5306648 5:5.4585769 6:1 7:4.8177304 8:8.4483469 9:-0.50076367 10:-0.18953102 11:2.1322356 12:0.92456559 13:1.6466975 14:-0.35583364 15:0.19103461 16:-0.53706222 17:2.7762105 18:-0.70020698 19:1.6067024 20:-0.31622965 21:2.950781 22:0.99312707 23:1.332435 
-1.554546295620184 1:0 2:-1.842925 3:1.4411534 4:1.372065 5:5.7301384 6:3 7:4.8177304 8:0.41994812 9:-0.50076367 10:-0.035163025 11:-1.2890594 12:0.32002671 13:-0.86620301 14:2.5815093 15:0.0055168192 16:0.29263209 17:0.66636545 18:-1.1593211 19:0.80668459 20:-0.15524767 21:-0.20201726 22:0.16552118 23:-0.44095584 
-0.9050361776952762 1:0 2:0.42482068 3:1.4411534 4:1.372065 5:1.3294951 6:3 7:9.4060451 8:0.49493265 9:-0.50076367 10:1.6948838 11:0.44373226 12:0.16357779 13:-0.84160092 14:2.0997657 15:0.075792587 16:0.52738933 17:-1.1832687 18:0.75201313 19:2.806729 20:0.71279248 21:3.3721553 22:3.4759447 23:1.4938853 
-1.366338319134694 1:0 2:-2.1912799 3:0.24019223 4:-2.2072349 5:-1.3468147 6:1 7:-4.3588989 8:-1.466908 9:3.8506453 10:0.024211306 11:0.44373226 12:0.44622816 13:-1.1041074 14:-1.0886504 15:-4.0921331 16:-4.0934905 17:0.68320389 18:3.2588258 19:-0.79335096 20:-0.88124482 21:-0.88740945 22:-0.66208471 23:-1.0303776 
1.678561766735601 1:0 2:0.92178102 3:0.24019223 4:1.372065 5:1.6400873 6:2 7:4.8177304 8:0.38295185 9:-0.50076367 10:-0.053304068 11:-1.2815981 12:0.69556925 13:-1.0012127 14:1.2091301 15:0.43191483 16:-0.055412274 17:0.22128875 18:-0.54615937 19:1.2066935 20:0.45711509 21:2.2066434 22:0.99312707 23:0.056208568 
0.7086711327381104 1:0 2:-1.2815417 3:2.6421145 4:3.1617149 5:0.58152331 6:5 7:13.99436 8:0.18380543 9:-0.50076367 10:-0.036995909 11:2.176339 12:0.31685421 13:-0.3928225 14:2.874519 15:0.53078645 16:-0.76400258 17:-0.41901724 18:0.8169538 19:2.0067113 20:0.38135894 21:2.5844861 22:2.6483388 23:1.3990651 
-5.994842503189409 1:0 2:-2.1876973 3:0.24019223 4:1.372065 5:-0.52024636 6:0 7:0.22941573 8:-0.17200744 9:-0.50076367 10:-0.035163025 11:-1.2890594 12:0.32002671 13:-0.86620301 14:-0.87707286 15:0.0055168192 16:0.29263209 17:0.66636545 18:-1.1593211 19:-0.39334207 20:-0.15524767 21:-0.67200012 22:0.16552118 23:-0.44095584 
0.2401663933812196 1:0 2:-1.6399634 3:0.24019223 4:1.372065 5:2.8029139 6:8 7:9.4060451 8:0.48788505 9:-0.50076367 10:1.7007578 11:0.50642674 12:0.62001087 13:-0.93065051 14:-0.52790122 15:0.54214321 16:-0.90897356 17:1.570544 18:-0.77193913 19:-0.39334207 20:1.571363 21:0.055290494 22:0.16552118 23:0.96084292 
1.284646260680918 1:0 2:0.24678101 3:3.8430757 4:3.1617149 5:-1.6498148 6:2 7:9.4060451 8:-0.98594544 9:0.6002718 10:-0.78987665 11:1.8702439 12:1.1847878 13:1.3851081 14:-1.0886504 15:0.21680046 16:0.38935916 17:-1.3761848 18:-0.18566684 19:0.80668459 20:0.41608058 21:0.11130313 22:0.99312707 23:0.26378765 
0.05641521376037096 1:0 2:3.0811505 3:6.244998 4:6.7410148 5:-0.51622455 6:5 7:13.99436 8:4.0210171 9:-0.50076367 10:-1.6573663 11:0.44373226 12:0.40045407 13:4.9576392 14:0.35424765 15:-0.021001524 16:0.39680527 17:-3.5109869 18:0.85984229 19:2.0067113 20:0.22668997 21:3.322852 22:2.6483388 23:1.7091522 
-1.08201004929085 1:0 2:-0.22785058 3:0.24019223 4:1.372065 5:0.1509541 6:0 7:0.22941573 8:0.65734991 9:-0.50076367 10:0.072832881 11:-1.2284112 12:1.1025791 13:1.8978962 14:1.1182351 15:-0.013811469 16:0.31067908 17:0.0094868439 18:0.79858938 19:0.4066757 20:1.2746511 21:1.467401 22:0.99312707 23:1.6066442 
-0.2326323650474194 1:0 2:1.8280766 3:7.4459592 4:6.7410148 5:5.9248993 6:7 7:13.99436 8:5.4885699 9:-0.50076367 10:-0.031196422 11:-1.2892365 12:0.32104335 13:2.8870485 14:0.81220041 15:0.29219965 16:-0.55525437 17:0.43640083 18:-0.048971806 19:0.4066757 20:-0.31622965 21:0.32671005 22:0.99312707 23:1.0274731 
1.304979294183661 1:0 2:3.724631 3:2.6421145 4:-0.41758499 5:-1.7192592 6:1 7:0.22941573 8:-1.1709302 9:0.0002779786 10:-1.27923 11:1.538492 12:0.54968759 13:2.73253 14:-0.87045345 15:0.15326203 16:0.038446945 17:0.15987459 18:-0.80567529 19:0.4066757 20:-0.39198588 21:0.22879905 22:0.16552118 23:-0.6331586 
0.08273968397138884 1:0 2:0.83431561 3:6.244998 4:1.372065 5:4.1930641 6:4 7:4.8177304 8:2.1812922 9:-0.50076367 10:0.055578998 11:0.70343149 12:-1.979249 13:-0.86609851 14:4.0016778 15:-1.3702894 16:0.83926438 17:-2.5862454 18:-0.11004634 19:0.0066668148 20:0.39714154 21:0.5794001 22:0.99312707 23:1.5272003 
-1.072017066898903 1:0 2:-1.6670724 3:-0.96076892 4:-0.41758499 5:0.066395406 6:3 7:0.22941573 8:-1.0229431 9:-0.50076367 10:1.7051763 11:0.44373226 12:0.36574031 13:-0.79085469 14:0.74053085 15:0.0060533988 16:-0.15612931 17:3.5086342 18:-1.1990714 19:-0.39334207 20:1.5177023 21:-0.1041053 22:-0.66208471 23:0.91727694 
-0.2435433008048546 1:0 2:-0.96167508 3:1.4411534 4:3.1617149 5:-1.5248742 6:4 7:13.99436 8:0.086977966 9:-0.50076367 10:1.6968226 11:0.49863183 12:0.20112064 13:1.3027478 14:0.27967008 15:-0.78608573 16:1.0252447 17:-1.2446435 18:-1.0737217 19:0.0066668148 20:1.0757909 21:0.50295517 22:-0.66208471 23:1.2632419 
-1.850850590228491 1:0 2:-1.682684 3:-0.96076892 4:-0.41758499 5:0.41887442 6:0 7:0.22941573 8:-0.063754103 9:-0.50076367 10:-0.0064131058 11:0.1878494 12:2.8725357 13:-0.85919947 14:0.957612 15:0.4449404 16:-0.014084488 17:0.63987232 18:-0.010608866 19:-0.39334207 20:1.0379129 21:-0.34896038 22:0.16552118 23:0.52774603 
0.1177023750957612 1:0 2:0.61587598 3:-0.96076892 4:-0.41758499 5:2.7042673 6:1 7:4.8177304 8:-0.13500975 9:0.55356756 10:-0.45513873 11:0.88360728 12:2.7143387 13:-0.12615495 14:2.4683915 15:-0.034300952 16:0.30649756 17:0.66510715 18:-0.69854983 19:-0.79335096 20:-0.88124482 21:-0.88740945 22:-0.66208471 23:-1.0303776 
5.994842503189409 1:0 2:2.2494093 3:0.24019223 4:-0.41758499 5:-0.032145767 6:0 7:0.22941573 8:1.2338861 9:0.32215783 10:0.97610239 11:-0.52517132 12:-1.0426225 13:0.44630052 14:-1.0886504 15:0.04533069 16:0.43454835 17:1.6848187 18:0.3668811 19:-0.79335096 20:-0.88124482 21:-0.88740945 22:-0.66208471 23:-1.0303776 
2.5833432196968 1:0 2:2.7366961 3:0.24019223 4:1.372065 5:0.72128507 6:1 7:0.22941573 8:1.6038628 9:-0.50076367 10:-1.6535407 11:0.44373226 12:0.61782379 13:-0.42415584 14:0.73884743 15:-0.22008509 16:0.41032466 17:-2.2860056 18:-0.46992055 19:0.0066668148 20:0.73804453 21:0.28754586 22:-0.66208471 23:0.57131201 
1.372061950994677 1:0 2:0.49414562 3:0.24019223 4:1.372065 5:-0.58948505 6:0 7:0.22941573 8:1.4558686 9:-0.50076367 10:-1.639659 11:0.27838251 12:0.17500597 13:1.6674255 14:-0.8578762 15:-0.046230794 16:0.55629132 17:0.87360194 18:-0.93655701 19:0.0066668148 20:2.2657951 21:1.3645906 22:0.99312707 23:1.9090433 
-0.02676124154837717 1:0 2:2.5505555 3:0.24019223 4:1.372065 5:2.6412499 6:5 7:18.582674 8:2.2865287 9:-0.50076367 10:0.054192638 11:0.69434536 12:-1.9811944 13:-0.99239386 14:2.0380096 15:-0.52700917 16:1.1429905 17:-0.44087196 18:0.69992825 19:1.2066935 20:101.70847 21:3.048839 22:-0.66208471 23:82.260048 
-1.106163658100597 1:0 2:-0.049312883 3:3.8430757 4:6.7410148 5:0.50193308 6:5 7:13.99436 8:1.8628405 9:-0.50076367 10:0.036670314 11:2.1456077 12:-0.038705725 13:1.3157496 14:2.7241363 15:-0.45138014 16:0.87605052 17:-0.84218768 18:-1.1046259 19:2.0067113 20:-0.03530028 21:1.3841724 22:0.99312707 23:0.92240235 
-2.837176722810396 1:0 2:0.84339408 3:1.4411534 4:3.1617149 5:1.093284 6:0 7:0.22941573 8:2.9357617 9:-0.50076367 10:0.036670314 11:2.1456077 12:-0.038705725 13:1.3157496 14:0.13117312 15:-0.45138014 16:0.87605052 17:-0.84218768 18:-1.1046259 19:4.0067557 20:-0.03530028 21:2.4612148 22:-0.66208471 23:1.5272003 
5.994842503189409 1:0 2:-0.95719585 3:0.24019223 4:-0.41758499 5:-1.869466 6:0 7:0.22941573 8:-1.2449249 9:0.73895424 10:0.81346034 11:-0.041869494 12:2.5012651 13:0.57465274 14:-0.12977387 15:0.88898313 16:-0.62229873 17:0.75033765 18:-1.2010299 19:-0.79335096 20:-0.88124482 21:-0.88740945 22:-0.66208471 23:-1.0303776 
0.0602857113519172 1:0 2:4.4711068 3:2.6421145 4:4.9513649 5:1.4373232 6:4 7:18.582674 8:4.2059984 9:-0.50076367 10:1.7057883 11:0.44373226 12:0.49203875 13:-0.062341327 14:1.4785675 15:-0.15191663 16:1.1934659 17:0.27807141 18:0.95907778 19:0.0066668148 20:0.45080208 21:0.010127618 22:-0.66208471 23:0.27916386 
-1.666976365633792 1:0 2:-0.058553217 3:0.24019223 4:1.372065 5:0.22538371 6:2 7:4.8177304 8:-0.28299546 9:-0.50076367 10:1.7019033 11:0.50330164 12:0.59718205 13:1.3012493 14:-1.0886504 15:0.3026649 16:0.205901 17:2.3449142 18:0.65214143 19:-0.39334207 20:2.0416829 21:0.032972714 22:-0.66208471 23:1.3426858 
3.629188024700302 1:0 2:-0.26912978 3:2.6421145 4:3.1617149 5:-0.0047036574 6:0 7:0.22941573 8:1.0938479 9:-0.50076367 10:-1.6574106 11:0.44373226 12:0.40405764 13:-0.94770663 14:0.51489102 15:0.59862671 16:-0.1726336 17:-1.1259076 18:0.46748384 19:0.0066668148 20:0.09096005 21:-0.29325875 22:-0.66208471 23:-0.18724821 
0.174089249198796 1:0 2:3.541832 3:2.6421145 4:3.1617149 5:-1.6723595 6:3 7:13.99436 8:2.6027873 9:-0.50076367 10:1.688069 11:0.6090926 12:0.71760219 13:1.9719304 14:-0.63860234 15:0.12774803 16:-0.10340802 17:2.1644886 18:-1.0927402 19:0.0066668148 20:0.068864506 21:0.072138382 22:0.99312707 23:0.80195534 
0.5972178976049306 1:0 2:1.0132391 3:-0.96076892 4:-0.41758499 5:-1.5142312 6:1 7:4.8177304 8:0.48788501 9:-0.50076367 10:0.085418521 11:-1.2888745 12:0.5756021 13:1.769473 14:-0.25079361 15:0.53078645 16:-0.76400258 17:-0.41901724 18:-0.84126478 19:1.2066935 20:0.51708879 21:2.3775508 22:1.820733 23:1.3990651 
-5.994842503189409 1:0 2:1.1281295 3:1.4411534 4:-0.41758499 5:-0.061259187 6:0 7:0.22941573 8:-0.2829969 9:0.67289208 10:-1.1685094 11:0.8220028 12:-1.198938 13:1.0802473 14:-0.043275572 15:0.32989534 16:0.41125648 17:-0.68176462 18:-0.91519416 19:-0.79335096 20:-0.88124482 21:-0.88740945 22:-0.66208471 23:-1.0303776 
-1.719348778188834 1:0 2:-1.7900242 3:-0.96076892 4:-0.41758499 5:0.73878276 6:4 7:4.8177304 8:-0.48470028 9:0.69487098 10:0.45413372 11:0.66357832 12:2.7977931 13:-0.84059296 14:1.8606126 15:0.91439126 16:-0.60150352 17:1.2611727 18:0.75717192 19:-0.79335096 20:-0.88124482 21:-0.88740945 22:-0.66208471 23:-1.0303776 
-0.2193800599821138 1:0 2:0.40541052 3:-0.96076892 4:-0.41758499 5:1.2147301 6:0 7:0.22941573 8:3.2876646 9:0.64664523 10:0.033267155 11:-0.3089084 12:-1.7647174 13:0.45362441 14:2.6223673 15:1.0141065 16:-0.27089783 17:1.2758096 18:-0.73804745 19:-0.79335096 20:-0.88124482 21:-0.88740945 22:-0.66208471 23:-1.0303776 
5.994842503189409 1:0 2:1.5199976 3:1.4411534 4:-0.41758499 5:-0.013456788 6:1 7:0.22941573 8:-0.57897326 9:-0.50076367 10:-1.6566848 11:0.38465694 12:0.44432295 13:-0.77829055 14:-0.96437899 15:0.23855339 16:0.33542722 17:0.038717818 18:0.036829187 19:0.4066757 20:0.33716777 21:0.052555364 22:0.16552118 23:0.58668822 
-0.9056358724841028 1:0 2:1.310194 3:0.24019223 4:-0.41758499 5:1.7363236 6:0 7:0.22941573 8:-1.226426 9:0.95814638 10:1.0147915 11:-0.73999462 12:-0.61830781 13:2.1134305 14:-0.4834437 15:0.810243 16:-0.26540221 17:-0.7467303 18:-1.2350169 19:-0.79335096 20:-0.88124482 21:-0.88740945 22:-0.66208471 23:-1.0303776 
-0.7679721994073796 1:0 2:-0.26522674 3:2.6421145 4:-0.41758499 5:-1.1277043 6:5 7:0.22941573 8:-1.0005874 9:-0.50076367 10:-1.6576591 11:0.44373226 12:0.44622816 13:-0.56290598 14:2.7569485 15:0.82678503 16:-0.60886577 17:1.3600206 18:0.79983549 19:-0.39334207 20:0.1256817 21:-0.57476736 22:-0.66208471 23:-0.21287521 
3.770284390092197 1:0 2:0.53732533 3:-0.96076892 4:-0.41758499 5:-2.2841412 6:0 7:0.22941573 8:-0.68996769 9:0.77556398 10:-1.2865818 11:1.037462 12:-0.84190227 13:0.062034513 14:-1.0886504 15:-1.132878 16:1.196942 17:0.71354362 18:-0.59002429 19:-0.79335096 20:-0.88124482 21:-0.88740945 22:-0.66208471 23:-1.0303776 
1.470150231949056 1:0 2:-1.5717574 3:1.4411534 4:3.1617149 5:2.9302189 6:3 7:4.8177304 8:3.5647144 9:-0.50076367 10:1.6962712 11:0.55966819 12:0.23842961 13:0.5161134 14:-0.45636384 15:-0.32946263 16:-0.67465138 17:2.5869883 18:-1.214388 19:0.4066757 20:0.77592261 21:1.07085 22:-0.66208471 23:0.80964338 
-1.464990414063121 1:0 2:-0.56245234 3:-0.96076892 4:-0.41758499 5:0.085311443 6:0 7:0.22941573 8:-1.0599383 9:-0.50076367 10:-1.6543266 11:0.4983493 12:0.31253619 13:0.10247207 14:1.0997534 15:0.17799818 16:0.30167666 17:1.1520485 18:0.33986358 19:0.4066757 20:-0.1079 21:1.0121032 22:0.16552118 23:-0.40251527 
1.092852865069541 1:0 2:2.7327109 3:-0.96076892 4:-0.41758499 5:0.72600474 6:2 7:4.8177304 8:0.049979238 9:-0.50076367 10:-1.6542495 11:0.33619227 12:0.41035304 13:0.31877252 14:-0.75053897 15:0.34682072 16:0.46147516 17:1.4378057 18:0.70672072 19:2.0067113 20:0.70647947 21:1.9912329 22:0.16552118 23:0.97365649 
0.0253887262697554 1:0 2:6.3331821 3:11.048843 4:8.5306648 5:7.0880851 6:10 7:13.99436 8:5.8677919 9:-0.50076367 10:-0.07469895 11:-1.2659514 12:0.84806488 13:-0.51007664 14:2.7428181 15:-1.2446913 16:1.530064 17:0.89813387 18:-1.0842594 19:1.2066935 20:0.39398496 21:3.2069871 22:0.99312707 23:0.41242443 
0.6365899924180864 1:0 2:-0.69127712 3:1.4411534 4:-0.41758499 5:-1.0572504 6:3 7:0.22941573 8:-0.61199091 9:0.47860501 10:0.70440974 11:1.5318753 12:-1.1879358 13:0.90206363 14:3.8674113 15:-0.22840012 16:0.7444678 17:2.9348846 18:-0.21035593 19:-0.79335096 20:-0.88124482 21:-0.88740945 22:-0.66208471 23:-1.0303776 
-0.4120759854770565 1:0 2:0.96126057 3:-0.96076892 4:-0.41758499 5:-1.353911 6:4 7:18.582674 8:0.67893249 9:-0.50076367 10:-0.022033096 11:2.1718606 12:0.22015124 13:-0.071638184 14:1.3274698 15:-0.82537361 16:0.81282839 17:1.720013 18:0.14677862 19:2.806729 20:0.037299442 21:2.4612154 22:-0.66208471 23:1.7450301 
0.188998208724237 1:0 2:1.8082567 3:7.4459592 4:4.9513649 5:1.6666517 6:6 7:13.99436 8:3.0467545 9:-0.50076367 10:-1.6568093 11:0.49891156 12:0.4475408 13:-0.99018935 14:1.2510693 15:-1.0352442 16:0.76502847 17:-3.3022058 18:0.59884733 19:0.4066757 20:-0.28466455 21:-0.22160066 22:1.820733 23:0.44061408 
0.1056712454451955 1:0 2:0.38489622 3:1.4411534 4:3.1617149 5:0.72226137 6:5 7:18.582674 8:6.2855174 9:-0.50076367 10:0.055966103 11:0.70932017 12:-1.9779647 13:-0.99523467 14:2.2865332 15:0.76083979 16:0.070077164 17:0.43592618 18:0.52905798 19:0.80668459 20:0.32454175 21:2.1761801 22:-0.66208471 23:1.5989561 
0.6439483564095976 1:0 2:1.6829999 3:2.6421145 4:3.1617149 5:2.2967058 6:4 7:9.4060451 8:3.8236967 9:-0.50076367 10:0.23795363 11:-1.244771 12:-0.032109281 13:1.7245634 14:1.1251453 15:0.19103461 16:-0.53706222 17:2.7762105 18:0.26437893 19:2.806729 20:0.21722046 21:4.3411454 22:0.99312707 23:1.8424129 
-1.41525396734429 1:0 2:4.9469375 3:2.6421145 4:1.372065 5:-2.1477661 6:0 7:0.22941573 8:0.90707963 9:1.0033265 10:-1.0863958 11:1.6208981 12:1.2383558 13:3.1019861 14:-1.0886504 15:0.092049332 16:0.055567636 17:2.2503444 18:0.45594647 19:-0.79335096 20:-0.88124482 21:-0.88740945 22:-0.66208471 23:-1.0303776 
0.3405772250410115 1:0 2:-0.65648758 3:3.8430757 4:1.372065 5:-0.40068196 6:2 7:4.8177304 8:1.6173191 9:0.34204709 10:1.3534519 11:-0.34815502 12:1.4498741 13:2.1909229 14:1.6488957 15:-0.13909194 16:-0.096539562 17:-0.05612541 18:-0.27698875 19:-0.39334207 20:0.66228823 21:-0.84142405 22:0.16552118 23:0.22278431 
0.06653900744084362 1:0 2:-0.1434794 3:1.4411534 4:1.372065 5:-0.74433164 6:2 7:9.4060451 8:1.6729741 9:-0.50076367 10:1.7060817 11:0.44373226 12:0.44622816 13:2.1065142 14:-0.40224889 15:0.82678503 16:-0.60886577 17:1.3600206 18:0.79983549 19:0.0066668148 20:-0.016361242 21:-0.17985208 22:0.16552118 23:-0.32819688 
0.2643059945468159 1:0 2:2.2567615 3:5.0440368 4:6.7410148 5:7.4271403 6:6 7:9.4060451 8:4.526645 9:-0.50076367 10:1.6947685 11:0.26888329 12:0.58643388 13:-0.77003377 14:4.2158234 15:0.30980759 16:0.26870169 17:-1.5863331 18:0.1611422 19:2.0067113 20:-0.73288888 21:3.1074402 22:0.99312707 23:0.86089752 
-5.994842503189409 1:0 2:0.72870638 3:-0.96076892 4:-0.41758499 5:-0.89354538 6:0 7:0.22941573 8:-0.11034373 9:0.66673079 10:0.52718056 11:-0.60344446 12:-1.3680021 13:0.61070558 14:-0.85479702 15:0.41571241 16:0.16883817 17:1.2326862 18:0.49834946 19:-0.79335096 20:-0.88124482 21:-0.88740945 22:-0.66208471 23:-1.0303776 
0.08016626837951114 1:0 2:5.2280567 3:7.4459592 4:8.5306648 5:-0.20925409 6:3 7:13.99436 8:6.0936432 9:-0.50076367 10:-0.15408967 11:2.0719463 12:-0.36476617 13:1.7958427 14:1.4296137 15:0.043935472 16:0.36904114 17:-0.06433284 18:0.59679557 19:2.806729 20:-0.28782105 21:1.8394771 22:0.99312707 23:1.5682037 
5.994842503189409 1:0 2:-1.6414794 3:0.24019223 4:1.372065 5:1.2712129 6:0 7:0.22941573 8:1.9708191 9:-0.50076367 10:-1.6574286 11:0.44373226 12:0.40560776 13:-0.19747187 14:0.34648969 15:0.71993772 16:0.0061913921 17:0.47203091 18:0.11677074 19:0.0066668148 20:2.2405431 21:1.2292524 22:-0.66208471 23:1.5989561 
0.1813623276375221 1:0 2:1.4255164 3:7.4459592 4:6.7410148 5:3.2673241 6:6 7:13.99436 8:3.7867023 9:-0.50076367 10:0.0079961383 11:2.1738013 12:0.24202349 13:2.9495262 14:-0.39378328 15:-1.0588047 16:-0.80622303 17:3.3187671 18:-0.29655513 19:0.0066668148 20:0.30560271 21:0.032972714 22:-0.66208471 23:-0.0052962546 
-0.818761077607413 1:0 2:0.34565384 3:0.24019223 4:1.372065 5:0.29707193 6:0 7:0.22941573 8:0.4754471 9:-0.50076367 10:0.036998897 11:-1.2322446 12:1.0864227 13:0.72995917 14:0.7471882 15:-0.39774475 16:0.43371401 17:-0.28083948 18:-0.86506453 19:0.0066668148 20:2.4741247 21:2.0744597 22:-0.66208471 23:1.6937761 
-0.7176067248154823 1:0 2:0.57497211 3:2.6421145 4:4.9513649 5:3.4784396 6:3 7:13.99436 8:5.9695311 9:-0.50076367 10:-0.10096925 11:-1.2491741 12:-0.066558368 13:1.5376496 14:3.0530814 15:0.69119254 16:-0.54790361 17:-0.81568948 18:0.89049955 19:0.80668459 20:-0.063708913 21:0.95335465 22:0.16552118 23:-0.36663746 
-0.2384648874052356 1:0 2:1.4794299 3:6.244998 4:4.9513649 5:2.5768991 6:4 7:9.4060451 8:2.8617657 9:-0.50076367 10:1.7026018 11:0.38986747 12:0.30806198 13:-0.33019156 14:-0.91702722 15:-1.5760337 16:0.52597733 17:3.7813802 18:0.31152465 19:4.4067646 20:-0.73288888 21:4.7719628 22:0.16552118 23:0.24584868 
-0.8843246482270426 1:0 2:-0.09977107 3:2.6421145 4:3.1617149 5:-0.12848598 6:2 7:9.4060451 8:1.6729744 9:-0.50076367 10:-1.6576591 11:0.44373226 12:0.44622816 13:-0.87310129 14:1.6818662 15:0.21616498 16:0.12676032 17:0.28526656 18:0.032123623 19:1.6067024 20:0.1256817 21:2.3212848 22:1.820733 23:1.4554446 
5.994842503189409 1:0 2:1.2263848 3:2.6421145 4:-0.41758499 5:-0.061259187 6:0 7:0.22941573 8:-0.2829969 9:0.67289208 10:-1.1685094 11:0.8220028 12:-1.198938 13:1.0802473 14:-0.043275572 15:0.32989534 16:0.41125648 17:-0.68176462 18:-0.91519416 19:-0.79335096 20:-0.88124482 21:-0.88740945 22:-0.66208471 23:-1.0303776 
-1.769735939753055 1:0 2:2.8023616 3:1.4411534 4:1.372065 5:3.0480112 6:3 7:9.4060451 8:3.5832141 9:-0.50076367 10:0.029700018 11:2.1698933 12:0.18322957 13:1.8455202 14:0.39837275 15:1.1038417 16:-1.1659095 17:1.8574281 18:-0.42796943 19:-0.39334207 20:0.1888119 21:-0.42069108 22:0.99312707 23:0.36885845 
0.312239274088529 1:0 2:0.44162859 3:-0.96076892 4:-0.41758499 5:0.54102408 6:1 7:4.8177304 8:-0.46798519 9:-0.50076367 10:1.6999223 11:0.49865545 12:0.64112926 13:0.81709315 14:2.3747266 15:0.0090806437 16:0.17284728 17:-0.43570232 18:-0.29608245 19:0.0066668148 20:1.6755279 21:0.072137258 22:-0.66208471 23:1.3349975 
-4.593880303861158 1:0 2:-0.58301689 3:0.24019223 4:1.372065 5:-1.4933922 6:2 7:9.4060451 8:1.0489013 9:-0.50076367 10:0.083585637 11:2.1765239 12:0.5724296 13:-0.92449208 14:0.87454619 15:0.0055168192 16:0.29263209 17:0.66636545 18:-1.1593211 19:-0.39334207 20:-0.15524767 21:-0.67200012 22:0.16552118 23:-0.44095584 
-0.5554738353315983 1:0 2:0.071880791 3:1.4411534 4:1.372065 5:4.9740108 6:7 7:4.8177304 8:2.5657914 9:0.17335373 10:0.093648033 11:0.29414468 12:-1.9960608 13:2.4338954 14:0.78716137 15:0.53708555 16:0.085884186 17:-0.28838237 18:0.14770703 19:-0.79335096 20:-0.88124482 21:-0.88740945 22:-0.66208471 23:-1.0303776 
0.08624340637907478 1:0 2:-1.3941329 3:3.8430757 4:3.1617149 5:5.9269151 6:9 7:13.99436 8:1.4558721 9:0.0002779786 10:-1.2441944 11:1.5747831 12:0.24339285 13:-1.1041074 14:3.0644778 15:-0.15013444 16:0.92073995 17:2.541308 18:-0.76883263 19:-0.39334207 20:1.583989 21:0.032972714 22:-0.66208471 23:0.97109372 
-3.063202149272385 1:0 2:-0.31702135 3:-0.96076892 4:-0.41758499 5:-2.1028471 6:0 7:0.22941573 8:-1.466908 9:3.8506453 10:0.024211306 11:0.44373226 12:0.44622816 13:-1.1041074 14:-1.0886504 15:-4.0921331 16:-4.0934905 17:0.68320389 18:3.2588258 19:-0.39334207 20:1.7923187 21:0.3462943 22:-0.66208471 23:1.1402322 
-5.994842503189409 1:0 2:-1.6950926 3:0.24019223 4:1.372065 5:-0.77362897 6:0 7:0.22941573 8:0.21687668 9:0.47224097 10:1.0547537 11:-0.91568751 12:0.18346618 13:-1.1041074 14:-0.83271942 15:0.39827246 16:0.3227954 17:0.79049391 18:0.46797667 19:-0.79335096 20:-0.88124482 21:-0.88740945 22:-0.66208471 23:-1.0303776 
-2.518828612521587 1:0 2:-1.8825245 3:0.24019223 4:1.372065 5:-0.8226042 6:1 7:4.8177304 8:-0.1339118 9:-0.50076367 10:-1.6574 11:0.44373226 12:0.40317049 13:-0.9519614 14:0.52422858 15:0.34637524 16:0.19519328 17:-1.3765666 18:0.6073371 19:0.4066757 20:0.27403765 21:0.46799684 22:0.16552118 23:-0.0052962546 
0.1949226179800661 1:0 2:3.4722243 3:1.4411534 4:1.372065 5:3.5863029 6:3 7:9.4060451 8:2.3438055 9:-0.50076367 10:-1.6484172 11:0.38899217 12:0.69115916 13:-0.830612 14:3.0044396 15:0.23452932 16:0.35692823 17:0.042939226 18:0.54350825 19:4.0067557 20:-0.73288888 21:2.4024698 22:4.3035506 23:1.2734927 
2.819885461609127 1:0 2:1.4118285 3:0.24019223 4:1.372065 5:-2.0072971 6:0 7:0.22941573 8:-0.2829969 9:0.60090448 10:0.99201695 11:-0.37373974 12:-1.1944705 13:2.1743835 14:-0.58618547 15:0.83469777 16:-0.55906554 17:0.82622414 18:0.7547802 19:-0.79335096 20:-0.88124482 21:-0.88740945 22:-0.66208471 23:-1.0303776 
-0.1705002698720295 1:0 2:3.3680555 3:3.8430757 4:-0.41758499 5:8.0295645 6:5 7:0.22941573 8:0.41995166 9:0.77581841 10:-0.22373534 11:0.62025185 12:-1.9676204 13:0.24434632 14:-0.87285878 15:1.2184525 16:-1.0194209 17:-1.8139509 18:0.82396698 19:-0.79335096 20:-0.88124482 21:-0.88740945 22:-0.66208471 23:-1.0303776 
-4.338312417977024 1:0 2:0.61587598 3:-0.96076892 4:-0.41758499 5:0.90087082 6:0 7:0.22941573 8:-0.65297 9:1.0430792 10:0.96705427 11:-0.0059899812 12:-1.483549 13:1.5242351 14:-1.0886504 15:0.61022084 16:-0.60620693 17:1.9715378 18:-0.051775095 19:-0.79335096 20:-0.88124482 21:-0.88740945 22:-0.66208471 23:-1.0303776 
0.10064189801812 1:0 2:0.15930888 3:3.8430757 4:3.1617149 5:1.4096473 6:3 7:9.4060451 8:1.8998378 9:-0.50076367 10:0.040910341 11:-1.2789344 12:0.75070652 13:2.3388385 14:0.89609396 15:-0.41833648 16:0.57244954 17:2.1685387 18:0.68661219 19:0.0066668148 20:-0.25309945 21:-0.24118328 22:-0.66208471 23:1.194049 
-4.135701065574533 1:0 2:1.4716188 3:1.4411534 4:1.372065 5:0.070232326 6:0 7:0.22941573 8:1.9006614 9:-0.50076367 10:0.056360657 11:0.70869616 12:-1.9780898 13:0.26190456 14:1.8576652 15:-0.26734839 16:0.49636401 17:-1.3547016 18:0.21989854 19:0.80668459 20:-0.4330205 21:1.0250131 22:0.99312707 23:1.2914318 
-1.933048649973066 1:0 2:-0.91501976 3:6.244998 4:3.1617149 5:3.8450092 6:5 7:0.22941573 8:0.49394375 9:-0.50076367 10:-1.6560822 11:0.49973358 12:0.37538113 13:2.2610062 14:-0.70136079 15:0.21271789 16:-0.23302959 17:2.8869187 18:0.31104091 19:0.4066757 20:-0.31938615 21:0.072138351 22:0.16552118 23:-0.57421642 
-0.5952524615983862 1:0 2:-2.1832854 3:0.24019223 4:-0.41758499 5:-1.8952157 6:1 7:0.22941573 8:-1.4268276 9:0.87872224 10:1.0421037 11:-0.93233509 12:0.26389968 13:0.12895859 14:0.57083197 15:0.18091204 16:0.51042444 17:0.90052724 18:0.5857768 19:-0.79335096 20:-0.88124482 21:-0.88740945 22:-0.66208471 23:-1.0303776 
-0.628134987682069 1:0 2:-1.5566461 3:-0.96076892 4:-0.41758499 5:3.7719972 6:4 7:4.8177304 8:0.2146702 9:-0.50076367 10:-1.6464611 11:0.44373226 12:0.72887852 13:-0.76422207 14:2.0372592 15:0.075792587 16:0.52738933 17:-1.1832687 18:0.75201313 19:3.2067379 20:0.037299442 21:4.029104 22:2.6483388 23:1.4938853 
-3.403307210281717 1:0 2:0.62699497 3:0.24019223 4:1.372065 5:-0.17239107 6:1 7:4.8177304 8:1.5298688 9:-0.50076367 10:0.23795363 11:-1.244771 12:-0.032109281 13:0.7227651 14:-0.8119879 15:0.19103461 16:-0.53706222 17:2.7762105 18:0.26437893 19:1.6067024 20:0.21722046 21:3.2836845 22:-0.66208471 23:1.4913226 
-3.937311524377984 1:0 2:0.4332322 3:2.6421145 4:1.372065 5:-0.86581978 6:0 7:0.22941573 8:-0.46798413 9:-0.50076367 10:-0.03912513 11:-1.2888357 12:0.57444903 13:1.6763937 14:-0.91478507 15:0.16294247 16:0.42138868 17:-0.14225107 18:-0.102248 19:0.80668459 20:0.52971481 21:0.85544252 22:1.820733 23:0.28428926 
-0.07522915699717647 1:0 2:1.739682 3:1.4411534 4:3.1617149 5:3.631114 6:2 7:4.8177304 8:1.7796022 9:-0.50076367 10:0.029706507 11:2.1698744 12:0.18298165 13:1.094713 14:-1.0886504 15:0.15072038 16:-0.13552692 17:2.684086 18:0.8060848 19:-0.39334207 20:0.71594891 21:-0.463119 22:1.820733 23:1.1658591 
0.1060459890815955 1:0 2:-0.2973352 3:3.8430757 4:4.9513649 5:1.3809664 6:5 7:9.4060451 8:3.8976887 9:-0.50076367 10:0.007668549 11:2.1663945 12:0.14168318 13:1.9447807 14:1.8885877 15:-0.33064946 16:0.89904909 17:0.82593625 18:-0.0048450654 19:0.80668459 20:0.39398496 21:1.6387467 22:0.16552118 23:0.0049545492 
0.8092686764895536 1:0 2:2.536051 3:3.8430757 4:1.372065 5:0.92694443 6:0 7:0.22941573 8:-0.076428826 9:-0.50076367 10:-0.028609365 11:2.138309 12:-0.082032647 13:4.5596937 14:-1.0886504 15:0.73624238 16:-0.47782154 17:-1.3477209 18:-0.22809953 19:-0.39334207 20:-0.436177 21:-0.76175438 22:-0.66208471 23:-0.66903644 
0.450092969438939 1:0 2:0.39971185 3:1.4411534 4:3.1617149 5:-0.27530958 6:3 7:13.99436 8:3.8802183 9:-0.50076367 10:1.7060817 11:0.44373226 12:0.44622816 13:2.7677621 14:-0.97799384 15:0.62324975 16:-0.73636423 17:1.6799855 18:-1.0010729 19:2.0067113 20:0.29297668 21:2.2883726 22:0.99312707 23:1.4554446 
0.5523063345660266 1:0 2:0.62272568 3:0.24019223 4:1.372065 5:-0.63860017 6:3 7:13.99436 8:1.6408598 9:-0.50076367 10:-1.6499274 11:0.44373226 12:0.2112413 13:2.2785954 14:1.7395552 15:-0.31001427 16:0.67017016 17:0.70398794 18:-0.66040686 19:0.0066668148 20:0.76645302 21:0.34629434 22:-0.66208471 23:0.81476878 
5.994842503189409 1:0 2:0.68974822 3:0.24019223 4:1.372065 5:-1.3116118 6:0 7:0.22941573 8:0.21646455 9:-0.50076367 10:-1.6548568 11:0.38514269 12:0.56106684 13:1.403045 14:-0.77825406 15:0.18909167 16:0.52140801 17:-0.08153288 18:0.010478134 19:0.0066668148 20:2.284734 21:1.3188968 22:-0.66208471 23:1.660461 
0.6055857027398169 1:0 2:1.2099302 3:3.8430757 4:3.1617149 5:-1.2266517 6:3 7:9.4060451 8:-0.63446871 9:-0.50076367 10:-1.6567178 11:0.44373226 12:0.52829656 13:-0.83370156 14:2.5261917 15:-0.63043809 16:0.7716513 17:1.0371526 18:-0.62922625 19:0.4066757 20:0.99372178 21:0.85054666 22:-0.66208471 23:1.2017371 
-4.289175088964742 1:0 2:0.15309017 3:0.24019223 4:-0.41758499 5:-1.0298222 6:0 7:0.22941573 8:-0.84515018 9:-0.50076367 10:-1.6576591 11:0.44373226 12:0.44622816 13:-0.29350372 14:-0.89737775 15:0.21616498 16:0.12676032 17:0.28526656 18:0.032123623 19:0.4066757 20:0.29297668 21:0.72516388 22:0.16552118 23:1.4554446 
4.499117135389722 1:0 2:-0.88832456 3:1.4411534 4:3.1617149 5:0.66890441 6:0 7:0.22941573 8:0.19796813 9:-0.50076367 10:-0.039122755 11:-1.2912065 12:0.44131139 13:0.72118588 14:-0.72654928 15:0.32952285 16:0.059272386 17:1.8609519 18:0.47994298 19:1.2066935 20:-0.1079 21:2.794119 22:0.16552118 23:-0.40251527 
0.004276068920300226 1:0 2:5.0408088 3:2.6421145 4:3.1617149 5:-0.61026772 6:4 7:18.582674 8:6.5661482 9:-0.50076367 10:0.019681225 11:2.1627076 12:0.79065172 13:1.4135364 14:1.8940047 15:-1.1637416 16:1.4678324 17:-0.69562241 18:0.18829972 19:0.4066757 20:0.32454175 21:0.69080336 22:-0.66208471 23:1.478509 
5.994842503189409 1:0 2:0.8952371 3:0.24019223 4:-0.41758499 5:-0.89354538 6:0 7:0.22941573 8:-0.11034373 9:0.66673079 10:0.52718056 11:-0.60344446 12:-1.3680021 13:0.61070558 14:-0.85479702 15:0.41571241 16:0.16883817 17:1.2326862 18:0.49834946 19:-0.79335096 20:-0.88124482 21:-0.88740945 22:-0.66208471 23:-1.0303776 
0.0656389645459203 1:0 2:3.1789964 3:1.4411534 4:3.1617149 5:8.5356013 6:6 7:9.4060451 8:8.8923197 9:-0.50076367 10:0.20208178 11:2.1603069 12:0.70663885 13:-0.82477851 14:4.1459367 15:0.11629627 16:0.36368515 17:-1.4351865 18:0.82162695 19:2.4067201 20:-0.73288888 21:4.0082416 22:3.4759447 23:1.660461 
0.1754068477235651 1:0 2:2.0333066 3:6.244998 4:6.7410148 5:2.2126972 6:4 7:13.99436 8:3.457716 9:-0.50076367 10:1.6949002 11:0.44373226 12:0.16378377 13:3.2972026 14:2.3819952 15:0.1628146 16:0.25804165 17:-2.0497048 18:-0.72320372 19:2.4067201 20:0.15409025 21:3.8595698 22:2.6483388 23:0.78657913 
-5.994842503189409 1:0 2:1.0313812 3:-0.96076892 4:-0.41758499 5:-0.032145767 6:0 7:0.22941573 8:1.2338861 9:0.32215783 10:0.97610239 11:-0.52517132 12:-1.0426225 13:1.7653644 14:-1.0886504 15:0.04533069 16:0.43454835 17:1.6848187 18:0.3668811 19:-0.79335096 20:-0.88124482 21:-0.88740945 22:-0.66208471 23:-1.0303776 
-0.2709938275822675 1:0 2:1.6700438 3:2.6421145 4:1.372065 5:0.28618723 6:0 7:0.22941573 8:1.5298671 9:-0.50076367 10:1.7052275 11:0.38841689 12:0.4447038 13:-0.24301866 14:1.8288095 15:-0.14355424 16:0.4261734 17:-0.62055469 18:0.3033884 19:2.806729 20:-0.60031549 21:1.5408324 22:2.6483388 23:-0.54602667 
-5.994842503189409 1:0 2:-1.056777 3:0.24019223 4:-0.41758499 5:0.39120327 6:0 7:0.22941573 8:-0.43098405 9:-0.50076367 10:0.083586783 11:2.1765217 12:0.31996181 13:-1.1041074 14:1.205579 15:0.1825736 16:0.85503778 17:1.3706111 18:-0.95464755 19:2.0067113 20:-0.73288888 21:1.8149905 22:-0.66208471 23:0.96853108 
-0.3847092123360449 1:0 2:0.27785812 3:5.0440368 4:1.372065 5:2.1037412 6:4 7:9.4060451 8:-0.20900225 9:0.45641376 10:1.3262343 11:-0.58704845 12:-0.092424587 13:1.0274856 14:0.98587449 15:-1.2662944 16:1.5056593 17:0.14856797 18:-0.040465082 19:-0.79335096 20:-0.88124482 21:-0.88740945 22:-0.66208471 23:-1.0303776 
-2.660952201245455 1:0 2:4.3381589 3:3.8430757 4:1.372065 5:-2.2798814 6:0 7:0.22941573 8:0.012980911 9:0.5937978 10:-0.93451273 11:1.5859623 12:-0.76130733 13:1.6232322 14:-1.0886504 15:-0.19027678 16:0.66216385 17:-0.27291172 18:-0.79602494 19:-0.79335096 20:-0.88124482 21:-0.88740945 22:-0.66208471 23:-1.0303776 
3.168757009508777 1:0 2:-1.439686 3:0.24019223 4:1.372065 5:-1.0499814 6:1 7:4.8177304 8:0.70667914 9:-0.50076367 10:-0.031998024 11:-1.2658849 12:0.86578106 13:-0.54062561 14:2.114398 15:0.0043884976 16:-0.08709315 17:-2.5622187 18:0.69953906 19:-0.39334207 20:0.24878552 21:-0.2999318 22:0.16552118 23:-0.11292982 
0.4116960408696094 1:0 2:-0.90573976 3:2.6421145 4:3.1617149 5:0.81522405 6:2 7:9.4060451 8:1.1968927 9:-0.50076367 10:1.7026899 11:0.37639351 12:0.56951743 13:-0.74594132 14:1.1906649 15:-0.54408778 16:0.27555865 17:0.74850434 18:-0.99199064 19:0.80668459 20:-0.24362993 21:1.5604153 22:-0.66208471 23:1.1914863 
1.369860384215976 1:0 2:1.1661235 3:3.8430757 4:1.372065 5:4.9597532 6:0 7:0.22941573 8:1.6960604 9:-0.50076367 10:1.6948838 11:0.44373226 12:0.16357779 13:-0.84160092 14:2.7268503 15:0.075792587 16:0.52738933 17:-1.1832687 18:0.75201313 19:1.6067024 20:0.71279248 21:2.0582597 22:1.820733 23:1.4938853 
5.994842503189409 1:0 2:-2.2428878 3:-0.96076892 4:-0.41758499 5:1.8973745 6:0 7:0.22941573 8:-0.43098753 9:0.37591513 10:0.090600672 11:0.82809297 12:-1.9444434 13:-1.1041074 14:0.44340263 15:0.41333179 16:0.30747919 17:0.052205255 18:-0.37284923 19:-0.79335096 20:-0.88124482 21:-0.88740945 22:-0.66208471 23:-1.0303776 
-0.5421098482969828 1:0 2:1.0388915 3:3.8430757 4:1.372065 5:-0.38449215 6:6 7:9.4060451 8:4.2158654 9:-0.50076367 10:-0.0075434911 11:0.17814436 12:2.870421 13:3.7281856 14:-0.96040397 15:0.76083979 16:0.070077164 17:0.43592618 18:0.52905798 19:1.2066935 20:0.32454175 21:2.4918227 22:-0.66208471 23:1.5041361 
3.52841273579681 1:0 2:-1.947273 3:0.24019223 4:-0.41758499 5:-1.1921362 6:0 7:0.22941573 8:-1.466908 9:3.8506453 10:0.024211306 11:0.44373226 12:0.44622816 13:-1.1041074 14:-1.0886504 15:-4.0921331 16:-4.0934905 17:0.68320389 18:3.2588258 19:-0.39334207 20:3.1717133 21:0.59796731 22:-0.66208471 23:2.2601336 
5.994842503189409 1:0 2:-0.53884028 3:-0.96076892 4:-0.41758499 5:-1.6189091 6:0 7:0.22941573 8:-0.063754103 9:-0.50076367 10:0.054835718 11:0.69961513 12:-1.9800794 13:0.63303377 14:-0.80016155 15:0.4449404 16:-0.014084488 17:0.63987232 18:-0.010608866 19:-0.39334207 20:1.0379129 21:-0.34896038 22:0.16552118 23:0.52774603 
0.1993528666176585 1:0 2:2.1079786 3:6.244998 4:1.372065 5:2.8118925 6:7 7:4.8177304 8:-0.61597234 9:-0.50076367 10:0.14668344 11:-1.2780284 12:0.70625 13:3.6930729 14:3.0379848 15:0.94305286 16:-1.0897486 17:-1.9114615 18:-0.081517225 19:-0.39334207 20:-0.047926306 21:-0.61325346 22:-0.66208471 23:-0.35382389 
-0.5706288485499502 1:0 2:3.0615145 3:6.244998 4:4.9513649 5:2.3537135 6:7 7:13.99436 8:3.1947398 9:-0.50076367 10:-0.19908819 11:2.1631439 12:0.54401591 13:-0.79481801 14:1.893073 15:-1.6899646 16:1.8204521 17:0.60590895 18:-0.1139335 19:2.0067113 20:-0.4014554 21:3.2641046 22:1.820733 23:1.9090433 
-1.093599702144174 1:0 2:2.5685784 3:1.4411534 4:1.372065 5:1.6183903 6:2 7:4.8177304 8:-0.63447011 9:0.55907289 10:-0.074465543 11:1.1648472 12:-1.780994 13:0.075064285 14:1.2932267 15:0.37719876 16:0.30006416 17:0.42261867 18:0.46711296 19:-0.39334207 20:1.5050763 21:-0.22649665 22:-0.66208471 23:0.90702614 
5.994842503189409 1:0 2:-1.0253334 3:0.24019223 4:1.372065 5:-0.74775232 6:1 7:0.22941573 8:-0.024016746 9:-0.50076367 10:0.14937906 11:2.136637 12:0.95903241 13:0.14261258 14:-0.33297286 15:-0.39689391 16:0.57826612 17:0.97661341 18:-0.24258677 19:0.0066668148 20:-0.063708913 21:-0.2607663 22:0.99312707 23:0.2971027 
-5.500622071719985 1:0 2:1.4187669 3:1.4411534 4:-0.41758499 5:-0.86006945 6:0 7:0.22941573 8:-0.50497972 9:-0.50076367 10:0.039680134 11:-1.2732755 12:0.80908181 13:0.20139795 14:-0.87455357 15:-0.34431747 16:0.65405366 17:-1.2752225 18:0.90133884 19:0.0066668148 20:-0.45195954 21:-0.67200067 22:0.99312707 23:-0.57165371 
-5.994842503189409 1:0 2:0.75692709 3:0.24019223 4:-0.41758499 5:1.3403816 6:0 7:0.22941573 8:-0.63447011 9:0.55907289 10:-0.074465543 11:1.1648472 12:-1.780994 13:0.22064791 14:-1.0886504 15:0.37719876 16:0.30006416 17:0.42261867 18:0.46711296 19:-0.79335096 20:-0.88124482 21:-0.88740945 22:-0.66208471 23:-1.0303776 
-5.994842503189409 1:0 2:-1.2951872 3:1.4411534 4:-0.41758499 5:-1.4597251 6:0 7:0.22941573 8:-0.94894778 9:-0.50076367 10:-1.6576591 11:0.44373226 12:0.44622816 13:0.15271383 14:-0.87763223 15:0.73359849 16:-0.02043403 17:-0.37306856 18:0.27762025 19:-0.39334207 20:2.1205957 21:0.30712867 22:-0.66208471 23:1.4067534 
-5.994842503189409 1:0 2:-1.2924553 3:0.24019223 4:1.372065 5:0.81523063 6:0 7:0.22941573 8:1.3744787 9:-0.50076367 10:-1.6574286 11:0.44373226 12:0.40560776 13:0.088522758 14:-1.0886504 15:0.71993772 16:0.0061913921 17:0.47203091 18:0.11677074 19:0.0066668148 20:2.1995084 21:0.93217708 22:-0.66208471 23:1.5989561 
-0.1162044776688203 1:0 2:6.7577544 3:5.0440368 4:6.7410148 5:-1.2643639 6:0 7:0.22941573 8:2.4917944 9:-0.50076367 10:0.079778477 11:2.1766942 12:0.57145176 13:2.5437946 14:-0.95993668 15:-0.069053256 16:-0.12647385 17:0.59787629 18:0.20904474 19:0.4066757 20:-0.24362993 21:0.9925186 22:-0.66208471 23:1.1402322 
-5.994842503189409 1:0 2:-0.52212364 3:0.24019223 4:-0.41758499 5:-0.43483346 6:0 7:0.22941573 8:-0.20900298 9:0.47026767 10:-0.18476589 11:0.84614764 12:-1.920919 13:-1.1041074 14:0.42872019 15:-0.044678725 16:-0.021829005 17:1.2051809 18:-0.80639744 19:-0.79335096 20:-0.88124482 21:-0.88740945 22:-0.66208471 23:-1.0303776 
0.2568603520990393 1:0 2:0.53786286 3:7.4459592 4:1.372065 5:0.083028572 6:8 7:9.4060451 8:1.0938479 9:-0.50076367 10:-0.0079380456 11:0.17876837 12:2.8705461 13:3.9111211 14:2.113998 15:-0.26734839 16:0.49636401 17:-1.3547016 18:0.21989854 19:0.0066668148 20:-0.00057870992 21:0.1894887 22:0.99312707 23:1.2914318 
1.195992383296397 1:0 2:2.822868 3:1.4411534 4:-0.41758499 5:-1.0800869 6:0 7:0.22941573 8:1.1537294 9:-0.50076367 10:0.030481766 11:2.1463365 12:-0.033826001 13:2.5569123 14:-1.0886504 15:0.60821605 16:0.28779459 17:-0.088746609 18:0.24153481 19:0.80668459 20:0.22668997 21:1.2829953 22:2.6483388 23:1.7091522 
2.168714686307186 1:0 2:1.6481322 3:0.24019223 4:1.372065 5:0.011414127 6:2 7:9.4060451 8:0.9009121 9:-0.50076367 10:0.041578083 11:2.1225086 12:-0.17891197 13:-0.70057514 14:2.6111179 15:-0.13504224 16:0.68293608 17:-0.38481633 18:-1.0807692 19:0.0066668148 20:-0.58453293 21:-0.53492249 22:0.99312707 23:-0.2820682 
1.002426618810087 1:0 2:-0.24451898 3:3.8430757 4:1.372065 5:5.7212371 6:4 7:4.8177304 8:0.67893175 9:0.17335373 10:-0.16859142 11:0.31187365 12:-1.9839761 13:1.7275811 14:2.0951461 15:1.0141867 16:-0.55324598 17:1.4717694 18:-0.82849283 19:-0.79335096 20:-0.88124482 21:-0.88740945 22:-0.66208471 23:-1.0303776 
-0.3143405875353854 1:0 2:-0.94804947 3:5.0440368 4:1.372065 5:0.99357174 6:7 7:4.8177304 8:-0.31999453 9:0.69993981 10:0.97026188 11:0.10604008 12:2.4178554 13:0.17355437 14:4.128947 15:-0.77641225 16:1.2077804 17:-1.1830931 18:-1.2733594 19:-0.39334207 20:0.91796547 21:-0.47617548 22:-0.66208471 23:0.43036327 
0.243435629439374 1:0 2:2.6596838 3:2.6421145 4:3.1617149 5:2.0514811 6:4 7:9.4060451 8:0.38295326 9:-0.50076367 10:1.7051405 11:0.44373226 12:0.36415975 13:-0.7144438 14:2.2687428 15:-0.63043809 16:0.7716513 17:1.0371526 18:-0.62922625 19:0.80668459 20:0.66544481 21:2.4905898 22:-0.66208471 23:1.2017371 
5.994842503189409 1:0 2:-0.10042491 3:0.24019223 4:1.372065 5:0.29707193 6:0 7:0.22941573 8:-0.49573047 9:0.42430636 10:-0.69313607 11:1.1582452 12:-1.5298986 13:1.0922577 14:-0.16307669 15:0.35337919 16:-0.063865559 17:0.11714894 18:-1.1503699 19:-0.79335096 20:-0.88124482 21:-0.88740945 22:-0.66208471 23:-1.0303776 
1.37241654709871 1:0 2:-0.59569972 3:1.4411534 4:1.372065 5:4.3695408 6:4 7:9.4060451 8:2.1588186 9:-0.50076367 10:0.081945823 11:-1.2368033 12:1.0565931 13:1.3889223 14:2.2026664 15:0.21092483 16:0.1211668 17:-1.104058 18:0.1948183 19:0.80668459 20:0.33716777 21:0.58128638 22:0.99312707 23:0.58668822 
0.06193467140512459 1:0 2:-0.032083591 3:1.4411534 4:1.372065 5:0.093015805 6:3 7:9.4060451 8:-0.10563053 9:0.73095719 10:0.19367501 11:-0.28436111 12:2.6598063 13:0.90565969 14:2.0854129 15:0.89060791 16:-0.20252574 17:0.76368732 18:-1.1974342 19:0.80668459 20:0.24562901 21:1.0834341 22:0.99312707 23:0.78657913 
-0.2753665650308811 1:0 2:-0.9285714 3:6.244998 4:4.9513649 5:-0.0010487792 6:6 7:9.4060451 8:1.0858997 9:-0.50076367 10:-1.6499322 11:0.44373226 12:0.21131321 13:3.4606698 14:1.6729441 15:-0.24780474 16:0.51648111 17:2.2196673 18:0.56213286 19:0.0066668148 20:0.76645302 21:0.50295517 22:-0.66208471 23:1.2478658 
0.11151616039219 1:0 2:1.8330935 3:2.6421145 4:1.372065 5:1.1153481 6:2 7:4.8177304 8:1.6408605 9:0.17335373 10:0.20492575 11:0.51477871 12:-1.9910128 13:3.8714348 14:0.70635499 15:0.86214357 16:-0.11658387 17:-0.24095614 18:0.50275088 19:-0.79335096 20:-0.88124482 21:-0.88740945 22:-0.66208471 23:-1.0303776 
-5.994842503189409 1:0 2:1.0234565 3:1.4411534 4:-0.41758499 5:-0.62831813 6:0 7:0.22941573 8:-0.57897326 9:-0.50076367 10:-1.6566848 11:0.38465694 12:0.44432295 13:-0.64160464 14:-0.96437899 15:0.23855339 16:0.33542722 17:0.038717818 18:0.036829187 19:0.4066757 20:0.33716777 21:0.052555364 22:0.16552118 23:0.58668822 
-4.065420327651167 1:0 2:0.21785604 3:-0.96076892 4:-0.41758499 5:-0.58948505 6:0 7:0.22941573 8:-0.35699222 9:-0.50076367 10:-1.639659 11:0.27838251 12:0.17500597 13:0.77059692 14:-0.8578762 15:-0.046230794 16:0.55629132 17:0.87360194 18:-0.93655701 19:0.0066668148 20:2.2657951 21:1.3645906 22:0.99312707 23:1.9090433 
-0.1941263921735457 1:0 2:-0.96121151 3:0.24019223 4:-0.41758499 5:1.1870337 6:3 7:9.4060451 8:1.6408643 9:-0.50076367 10:-0.098261254 11:2.1654928 12:0.1862054 13:-1.1041074 14:2.2330416 15:0.13947338 16:0.22171611 17:-1.4330918 18:0.91046075 19:0.4066757 20:1.262025 21:1.7366608 22:-0.66208471 23:1.3708754 
0.3626556818885838 1:0 2:0.057928434 3:3.8430757 4:4.9513649 5:1.6057731 6:3 7:13.99436 8:3.4090519 9:-0.50076367 10:0.056361312 11:0.70870159 12:-1.9780886 13:-0.85620645 14:2.0873159 15:-0.22149841 16:0.52229769 17:1.1921021 18:-1.2583099 19:4.8067735 20:-0.49930717 21:3.2345111 22:1.820733 23:-0.0052962546 
0.119033953978231 1:0 2:4.9278077 3:3.8430757 4:1.372065 5:7.7020344 6:4 7:13.99436 8:5.3868262 9:-0.50076367 10:-1.6453573 11:0.56609827 12:0.68671905 13:2.6439201 14:2.1272681 15:0.43369674 16:-0.25891006 17:2.2486831 18:0.11520299 19:0.4066757 20:-0.33201218 21:-0.16611699 22:1.820733 23:0.67125741 
5.043100740827517 1:0 2:2.2407554 3:1.4411534 4:-0.41758499 5:1.3403816 6:0 7:0.22941573 8:-0.63447011 9:0.55907289 10:-0.074465543 11:1.1648472 12:-1.780994 13:0.22064791 14:-1.0886504 15:0.37719876 16:0.30006416 17:0.42261867 18:0.46711296 19:-0.79335096 20:-0.88124482 21:-0.88740945 22:-0.66208471 23:-1.0303776 
5.994842503189409 1:0 2:1.269432 3:0.24019223 4:-0.41758499 5:-0.032145767 6:0 7:0.22941573 8:1.2338861 9:0.32215783 10:0.97610239 11:-0.52517132 12:-1.0426225 13:2.2368912 14:-1.0886504 15:0.04533069 16:0.43454835 17:1.6848187 18:0.3668811 19:-0.79335096 20:-0.88124482 21:-0.88740945 22:-0.66208471 23:-1.0303776 
-0.422816381021559 1:0 2:3.0397817 3:3.8430757 4:-0.41758499 5:0.51150968 6:5 7:4.8177304 8:-0.61597337 9:-0.50076367 10:1.6999223 11:0.49865545 12:0.64112926 13:4.3453396 14:3.7002975 15:0.0090806437 16:0.17284728 17:-0.43570232 18:-0.29608245 19:0.80668459 20:1.6755279 21:1.6583284 22:-0.66208471 23:1.478509 
-0.3840385447756209 1:0 2:0.66830863 3:-0.96076892 4:-0.41758499 5:-0.34681049 6:2 7:4.8177304 8:-0.17200393 9:-0.50076367 10:1.7027582 11:0.38597142 12:0.57700934 13:-0.85473093 14:2.9871566 15:0.31040296 16:-0.024069393 17:0.20665336 18:0.52105359 19:0.80668459 20:0.45711509 21:1.7170781 22:0.16552118 23:0.056208568 
-0.2042221231415742 1:0 2:-2.346687 3:-0.96076892 4:-2.2072349 5:-1.1505495 6:2 7:-4.3588989 8:-1.466908 9:3.8506453 10:0.024211306 11:0.44373226 12:0.44622816 13:-1.1041074 14:-1.0886504 15:-4.0921331 16:-4.0934905 17:0.68320389 18:3.2588258 19:-0.79335096 20:-0.88124482 21:-0.88740945 22:-0.66208471 23:-1.0303776 
0.136808098968173 1:0 2:0.85447173 3:1.4411534 4:3.1617149 5:4.1467158 6:4 7:13.99436 8:3.8620811 9:-0.50076367 10:1.7012777 11:0.44373226 12:0.63153843 13:1.4302123 14:2.5697918 15:0.52395077 16:0.016363174 17:-0.27275801 18:-0.88068223 19:-0.39334207 20:1.217834 21:-0.29915014 22:-0.66208471 23:0.67382017 
0.4273156394838939 1:0 2:-2.3308093 3:-0.96076892 4:-0.41758499 5:5.3753289 6:5 7:0.22941573 8:-0.85028852 9:-0.50076367 10:-0.065828162 11:-1.2169378 12:1.1497486 13:-0.99478088 14:2.2302513 15:-0.93809962 16:1.3468816 17:1.2679505 18:-0.26661854 19:-0.39334207 20:0.7191055 21:-0.39784411 22:-0.66208471 23:0.26891305 
-3.873348610341417 1:0 2:-0.19892981 3:0.24019223 4:-0.41758499 5:1.4360044 6:0 7:0.22941573 8:0.23496682 9:0.17335373 10:0.093648033 11:0.29414468 12:-1.9960608 13:1.4792595 14:0.78716137 15:0.53708555 16:0.085884186 17:-0.28838237 18:0.14770703 19:-0.79335096 20:-0.88124482 21:-0.88740945 22:-0.66208471 23:-1.0303776 
5.994842503189409 1:0 2:-0.51277758 3:1.4411534 4:-0.41758499 5:-1.912943 6:0 7:0.22941573 8:-1.0969349 9:-0.50076367 10:0.039680134 11:-1.2732755 12:0.80908181 13:-0.65821229 14:-0.87455357 15:-0.34431747 16:0.65405366 17:-1.2752225 18:0.90133884 19:-0.39334207 20:-0.45195954 21:-0.84824415 22:0.16552118 23:-0.68184995 
-3.742547332088173 1:0 2:1.490684 3:1.4411534 4:-0.41758499 5:0.66034496 6:0 7:0.22941573 8:0.99957341 9:-0.50076367 10:0.017940846 11:-1.258872 12:0.92628231 13:-1.1041074 14:0.53825979 15:0.60821605 16:0.28779459 17:-0.088746609 18:0.24153481 19:0.0066668148 20:-0.26256896 21:-0.21833634 22:0.99312707 23:0.051083166 
0.05955145037895198 1:0 2:3.0776588 3:12.249804 4:6.7410148 5:2.833983 6:10 7:18.582674 8:1.5359101 9:-0.50076367 10:1.6948839 11:0.44373226 12:0.16357644 13:0.15328928 14:3.105758 15:-1.2422848 16:1.6836415 17:0.8317322 18:0.14529755 19:1.2066935 20:0.81380069 21:1.3589276 22:2.6483388 23:1.3068079 
-5.994842503189409 1:0 2:-0.30309622 3:-0.96076892 4:-0.41758499 5:-1.408892 6:0 7:0.22941573 8:0.049978188 9:0.24846758 10:-0.60020418 11:2.0508279 12:0.26711423 13:0.89395963 14:-0.65996279 15:0.42740155 16:0.32382726 17:1.1140173 18:-0.95929044 19:-0.79335096 20:-0.88124482 21:-0.88740945 22:-0.66208471 23:-1.0303776 
0.007156402477028847 1:0 2:-1.4045945 3:2.6421145 4:4.9513649 5:-0.15865014 6:1 7:4.8177304 8:1.5668665 9:-0.50076367 10:-0.039298984 11:-1.2911997 12:0.4413089 13:1.7233512 14:2.8290857 15:0.41573442 16:0.0064174317 17:-0.50292287 18:0.88609323 19:-0.39334207 20:0.72226193 21:-0.22160043 22:-0.66208471 23:0.27147569 
3.852081121710392 1:0 2:-1.5349231 3:1.4411534 4:-0.41758499 5:-0.9828826 6:0 7:0.22941573 8:-0.94072531 9:-0.50076367 10:0.054119203 11:0.6942346 12:-1.9812192 13:-0.95059783 14:-0.73020554 15:0.69094737 16:0.054616226 17:-0.3420251 18:0.35087054 19:-0.39334207 20:0.35610689 21:-0.53463247 22:-0.66208471 23:-0.025797862 
0.6425968674560429 1:0 2:-1.0402244 3:0.24019223 4:-0.41758499 5:1.4992765 6:1 7:4.8177304 8:1.0119072 9:-0.50076367 10:0.20208178 11:2.1603069 12:0.70663885 13:-0.82477851 14:2.3937917 15:0.11629627 16:0.36368515 17:-1.4351865 18:0.82162695 19:-0.39334207 20:-0.39198588 21:-0.71116597 22:0.99312707 23:1.0787272 
-0.1836393481645194 1:0 2:0.49541296 3:0.24019223 4:-0.41758499 5:2.7917174 6:1 7:4.8177304 8:5.8265138 9:-0.50076367 10:0.09638974 11:2.1555145 12:0.050163704 13:2.190191 14:-0.88115525 15:-0.077222305 16:0.33368659 17:2.9392957 18:0.029838125 19:0.4066757 20:0.47605428 21:1.2382557 22:0.16552118 23:0.071584896 
0.01235853670871136 1:0 2:5.1735812 3:12.249804 4:10.320315 5:3.4976719 6:7 7:13.99436 8:6.561488 9:-0.50076367 10:-1.6535375 11:0.44373226 12:0.61789126 13:2.1008268 14:0.95765052 15:-0.5765801 16:0.97702381 17:1.5310146 18:-0.24132193 19:1.2066935 20:0.39398496 21:1.4820855 22:0.16552118 23:0.0049545492 
5.893981120003252 1:0 2:-2.2281092 3:-0.96076892 4:-0.41758499 5:-0.75610635 6:0 7:0.22941573 8:-0.87495247 9:0.87959351 10:0.72623172 11:-0.9990353 12:-0.45593541 13:-1.1041074 14:-0.70576424 15:0.3301146 16:0.089087052 17:-0.68049027 18:0.28020541 19:-0.79335096 20:-0.88124482 21:-0.88740945 22:-0.66208471 23:-1.0303776 
0.6624767638538158 1:0 2:0.54503662 3:2.6421145 4:3.1617149 5:2.2281169 6:1 7:4.8177304 8:1.8628425 9:-0.50076367 10:1.7025988 11:0.38986277 12:0.30798697 13:2.8706602 14:-0.95582575 15:0.22528684 16:0.77324166 17:1.5237018 18:0.42428416 19:1.6067024 20:-0.39198588 21:1.3058426 22:-0.66208471 23:0.46624121 
-0.4767714803932511 1:0 2:0.91961343 3:1.4411534 4:1.372065 5:-0.69619897 6:1 7:4.8177304 8:-0.28299968 9:-0.50076367 10:-0.037524099 11:2.1760492 12:0.30982888 13:3.5714028 14:-0.9656668 15:0.06258816 16:0.081292304 17:3.4123153 18:-0.76081894 19:0.0066668148 20:0.45711509 21:-0.045356781 22:-0.66208471 23:1.1197306 
0.2395567857943399 1:0 2:-0.71326819 3:3.8430757 4:3.1617149 5:0.67304876 6:12 7:4.8177304 8:0.77813825 9:-0.50076367 10:-0.0062528449 11:0.18787926 12:2.8725461 13:0.21168783 14:0.3810444 15:-0.77201598 16:0.97651044 17:2.4200698 18:0.50741941 19:0.4066757 20:0.19828142 21:0.15235428 22:-0.66208471 23:-0.059113036 
0.4988116026126847 1:0 2:-0.40564115 3:2.6421145 4:3.1617149 5:2.5162163 6:2 7:4.8177304 8:1.4928719 9:-0.50076367 10:1.705789 11:0.44373226 12:0.49199361 13:3.6866614 14:-0.7126572 15:0.45886417 16:0.12655939 17:2.130298 18:-0.15262337 19:0.4066757 20:0.22668997 21:0.48337239 22:0.16552118 23:-0.13086872 
0.2126797256883931 1:0 2:-1.5552281 3:1.4411534 4:3.1617149 5:2.3027296 6:4 7:9.4060451 8:-0.91194941 9:-0.50076367 10:0.080416043 11:2.1533537 12:0.026709543 13:-0.23263601 14:0.099320792 15:-0.86123975 16:-0.18736066 17:2.9078911 18:-0.94878008 19:1.2066935 20:-0.00057870992 21:2.2947637 22:0.16552118 23:-0.31538338 
-5.994842503189409 1:0 2:-1.8855226 3:1.4411534 4:1.372065 5:-0.74604698 6:0 7:0.22941573 8:0.0064035937 9:-0.50076367 10:0.054193104 11:0.69449531 12:-1.9811637 13:0.20385907 14:0.55189748 15:0.18817899 16:0.5314457 17:0.42891624 18:-0.66696234 19:-0.39334207 20:-0.3414817 21:-0.75743899 22:-0.66208471 23:-0.59215532 
0.9371282080719476 1:0 2:-2.1747884 3:1.4411534 4:-0.41758499 5:2.6583635 6:1 7:0.22941573 8:-0.57897468 9:-0.50076367 10:0.085952657 11:-1.2885835 12:0.58265119 13:-0.999702 14:-1.0886504 15:1.3249159 16:-1.9081554 17:0.95353692 18:-0.19506481 19:-0.39334207 20:0.20143792 21:-0.55450494 22:0.16552118 23:-0.15137033 
0.09362714741402985 1:0 2:1.7062067 3:1.4411534 4:3.1617149 5:1.3933676 6:2 7:9.4060451 8:4.0826747 9:-0.50076367 10:0.041579764 11:2.1224967 12:-0.17897486 13:-0.83080978 14:0.70508888 15:-0.46920372 16:0.53081228 17:-2.7036814 18:0.85052287 19:2.0067113 20:-0.52455926 21:2.3437195 22:3.4759447 23:1.5630782 
-0.5543652711256811 1:0 2:0.26688031 3:3.8430757 4:3.1617149 5:-1.2392421 6:2 7:4.8177304 8:0.14671899 9:-0.50076367 10:0.0563575 11:0.70872224 12:-1.9780841 13:-0.88045182 14:1.6098221 15:-0.1825429 16:0.58064315 17:-1.6479609 18:0.64450208 19:0.0066668148 20:-0.066865419 21:-0.44179642 22:0.16552118 23:0.85064672 
1.235751610649927 1:0 2:0.46383464 3:2.6421145 4:3.1617149 5:-0.43884451 6:2 7:9.4060451 8:2.2698066 9:0.14847472 10:1.4709694 11:0.73575213 12:-0.73490832 13:1.6335971 14:-0.50920976 15:-0.18857511 16:-0.42589544 17:3.4848962 18:0.31065647 19:-0.79335096 20:-0.88124482 21:-0.88740945 22:-0.66208471 23:-1.0303776 
2.441549977483697 1:0 2:0.16443036 3:0.24019223 4:1.372065 5:-0.16428881 6:1 7:4.8177304 8:0.79917365 9:-0.50076367 10:0.011422446 11:2.1196824 12:-0.19410558 13:-0.90171897 14:1.6401764 15:0.32015277 16:-0.33318812 17:2.0986148 18:-0.06499091 19:0.80668459 20:0.23615949 21:3.6410679 22:0.16552118 23:1.2017371 
-0.8713920358550246 1:0 2:0.71813197 3:2.6421145 4:3.1617149 5:-0.86260617 6:2 7:9.4060451 8:1.3620934 9:-0.50076367 10:1.7060817 11:0.44373226 12:0.44622816 13:1.1454516 14:-0.97799384 15:0.62324975 16:-0.73636423 17:1.6799855 18:-1.0010729 19:1.6067024 20:0.1256817 21:1.8440926 22:0.99312707 23:1.4554446 
5.994842503189409 1:0 2:0.81362567 3:0.24019223 4:1.372065 5:0.075045109 6:0 7:0.22941573 8:2.2865287 9:-0.50076367 10:-1.6574216 11:0.44373226 12:0.40500384 13:0.0002654842 14:-0.72984873 15:0.65125051 16:-0.36046953 17:1.0301627 18:0.49370059 19:0.4066757 20:-0.4330205 21:0.22662312 22:1.820733 23:0.83014511 
-0.7123119932900895 1:0 2:1.9563844 3:1.4411534 4:-0.41758499 5:1.671683 6:2 7:4.8177304 8:-0.60364003 9:0.72653039 10:-1.1021652 11:1.7029571 12:0.054910166 13:5.2548672 14:1.3171932 15:-1.0617698 16:0.77286451 17:-2.583898 18:0.16281482 19:-0.79335096 20:-0.88124482 21:-0.88740945 22:-0.66208471 23:-1.0303776 
0.2706944030011125 1:0 2:2.5255025 3:0.24019223 4:-0.41758499 5:0.69014899 6:3 7:9.4060451 8:1.4928698 9:-0.50076367 10:0.075005039 11:2.1467093 12:0.91793778 13:1.5988899 14:2.4127911 15:0.43737424 16:0.21994185 17:-0.23170393 18:-0.92877556 19:-0.39334207 20:-0.0068917227 21:-0.55450494 22:-0.66208471 23:-0.32050878 
1.82773731500725 1:0 2:0.032060375 3:-0.96076892 4:-2.2072349 5:-0.58375481 6:0 7:-4.3588989 8:-1.466908 9:3.8506453 10:0.024211306 11:0.44373226 12:0.44622816 13:-1.1041074 14:-1.0886504 15:-4.0921331 16:-4.0934905 17:0.68320389 18:3.2588258 19:-0.79335096 20:-0.88124482 21:-0.88740945 22:-0.66208471 23:-1.0303776 
3.938729592816505 1:0 2:-1.2094272 3:-0.96076892 4:-0.41758499 5:-1.7728014 6:2 7:4.8177304 8:0.12705722 9:-0.50076367 10:-0.028770425 11:2.1383189 12:-0.08193558 13:0.6003768 14:-0.58060896 15:0.44244249 16:-0.001544611 17:0.76521049 18:0.14089354 19:-0.39334207 20:0.88955699 21:-0.22323252 22:-0.66208471 23:0.40729903 
0.2721345051086705 1:0 2:-0.40526397 3:5.0440368 4:4.9513649 5:2.8537005 6:1 7:0.22941573 8:0.34595667 9:-0.50076367 10:1.6968398 11:0.49847235 12:0.20129715 13:1.1101545 14:3.3149771 15:0.23452932 16:0.35692823 17:0.042939226 18:0.54350825 19:0.80668459 20:0.412924 21:0.58128467 22:0.99312707 23:0.26378765 
-5.888377206609634 1:0 2:-0.028741271 3:-0.96076892 4:-0.41758499 5:-1.3875643 6:0 7:0.22941573 8:-1.0599373 9:-0.50076367 10:1.7027582 11:0.38597142 12:0.57700934 13:-0.85473093 14:-0.87748395 15:0.31040296 16:-0.024069393 17:0.20665336 18:0.52105359 19:0.0066668148 20:0.45711509 21:0.4050429 22:0.16552118 23:0.056208568 
0.85154951727527 1:0 2:1.2040917 3:-0.96076892 4:-0.41758499 5:1.9262332 6:0 7:0.22941573 8:0.49703042 9:-0.50076367 10:1.7052928 11:0.44373226 12:0.52136351 13:0.8831554 14:1.1884298 15:0.48026606 16:-0.017873099 17:0.067463897 18:-0.53591498 19:-0.79335096 20:-0.88124482 21:-0.88740945 22:0.16552118 23:0.36885845 
5.994842503189409 1:0 2:-2.1922344 3:-0.96076892 4:-0.41758499 5:-0.92819129 6:1 7:0.22941573 8:-1.2665064 9:-0.50076367 10:0.018716043 11:-1.282429 12:0.70922439 13:-0.73355146 14:-0.66885495 15:-0.15460065 16:0.50910226 17:2.3887941 18:-0.93781907 19:-0.39334207 20:0.71594891 21:-0.463119 22:0.16552118 23:0.26635029 
0.01607548287164197 1:0 2:6.2755487 3:3.8430757 4:3.1617149 5:6.4393868 6:3 7:9.4060451 8:3.4629684 9:-0.50076367 10:-1.645362 11:0.56609861 12:0.68664935 13:3.2502415 14:2.3251295 15:0.49788515 16:-0.016868904 17:1.7031348 18:-0.20373412 19:0.80668459 20:-0.33201218 21:1.7644012 22:-0.66208471 23:2.0551173 
-0.03382396573882875 1:0 2:4.8827622 3:5.0440368 4:8.5306648 5:-0.33320044 6:4 7:4.8177304 8:5.2295881 9:-0.50076367 10:-0.1051145 11:2.1660388 12:0.69155507 13:3.6993311 14:-0.90982779 15:-0.11702113 16:-0.42949121 17:4.1625075 18:-0.46752843 19:0.80668459 20:0.31822873 21:1.0316862 22:-0.66208471 23:0.98390729 
0.02515929266280677 1:0 2:4.0474126 3:5.0440368 4:6.7410148 5:4.0765524 6:4 7:13.99436 8:8.3823331 9:-0.50076367 10:-1.6464613 11:0.44373226 12:0.72887753 13:2.8238243 14:2.4027801 15:0.74365531 16:-0.41453514 17:-1.5872824 18:0.91157895 19:2.0067113 20:0.15409025 21:2.1430265 22:4.3035506 23:1.581017 
