SNNS network definition file V1.4-3D
generated at Thu May 09 10:11:49 1996

network name : edge_23
source files :
no. of units : 70
no. of connections : 622
no. of unit types : 0
no. of site types : 0


learning function : Std_Backpropagation
update function : Topological_Order


unit default section :

act      | bias     | st | subnet | layer | act func     | out func
---------|----------|----|--------|-------|--------------|-------------
 0.00000 |  0.00000 | h  |      0 |     1 | Act_Logistic | Out_Identity
---------|----------|----|--------|-------|--------------|-------------


unit definition section :

no. | typeName | unitName | act      | bias     | st | position | act func | out func | sites
----|----------|----------|----------|----------|----|----------|----------|----------|-------
  1 |          |           |  0.85635 |        0 | i  |  2, 1, 0 |||
  2 |          |           | -0.048825 |        0 | i  |  2, 3, 0 |||
  3 |          |           |  0.37907 |        0 | i  |  2, 4, 0 |||
  4 |          |           |  0.46188 |        0 | i  |  2, 5, 0 |||
  5 |          |           | -0.11451 |        0 | i  |  2, 7, 0 |||
  6 |          |           |   0.6868 |        0 | i  |  2, 8, 0 |||
  7 |          |           |   0.6868 |        0 | i  |  2, 9, 0 |||
  8 |          |           |  0.54534 |        0 | i  |  2,11, 0 |||
  9 |          |           |   1.2902 |        0 | i  |  2,12, 0 |||
 10 |          |           | -0.063772 |        0 | i  |  2,13, 0 |||
 11 |          |           |  -2.0862 |        0 | i  |  2,14, 0 |||
 12 |          |           |  0.33277 |        0 | i  |  2,15, 0 |||
 13 |          |           |  0.61279 |        0 | i  |  2,16, 0 |||
 14 |          |           |  0.24816 |        0 | i  |  2,17, 0 |||
 15 |          |           |   1.7284 |        0 | i  |  2,18, 0 |||
 16 |          |           |   1.1128 |        0 | i  |  2,23, 0 |||
 17 |          |           | -0.93131 |        0 | i  |  2,24, 0 |||
 18 |          |           |  -0.2664 |        0 | i  |  2,25, 0 |||
 19 |          |           | -0.28868 |        0 | i  |  2,27, 0 |||
 20 |          |           | -0.24282 |        0 | i  |  2,28, 0 |||
 21 |          |           | -0.24282 |        0 | i  |  2,19, 0 |||
 22 |          |           |     -0.2 |        0 | i  |  2,20, 0 |||
 23 |          |           | -0.21307 |        0 | i  |  2,21, 0 |||
 24 |          |           |  0.53856 |  0.13752 | h  |  7, 3, 0 |||
 25 |          |           |  0.71144 |  0.26666 | h  |  8, 3, 0 |||
 26 |          |           |  0.12822 | -0.38609 | h  |  7, 4, 0 |||
 27 |          |           |  0.47726 |  0.31259 | h  |  8, 4, 0 |||
 28 |          |           |  0.98603 |     2.11 | h  |  7, 5, 0 |||
 29 |          |           |  0.64781 |  0.29976 | h  |  8, 5, 0 |||
 30 |          |           |  0.52028 | -0.037806 | h  |  7, 7, 0 |||
 31 |          |           |  0.16148 | -0.69288 | h  |  8, 7, 0 |||
 32 |          |           |  0.43908 |   0.5407 | h  |  7, 8, 0 |||
 33 |          |           |  0.29946 | -0.50136 | h  |  8, 8, 0 |||
 34 |          |           |  0.60338 |  0.57507 | h  |  7, 9, 0 |||
 35 |          |           |   0.8025 |  0.76009 | h  |  8, 9, 0 |||
 36 |          |           |  0.21205 |  0.44934 | h  |  7,11, 0 |||
 37 |          |           |  0.28357 | -0.89325 | h  |  8,11, 0 |||
 38 |          |           |  0.30063 | -0.21468 | h  |  7,12, 0 |||
 39 |          |           |  0.97379 |  -0.6448 | h  |  8,12, 0 |||
 40 |          |           |  0.93634 |  0.74764 | h  |  7,13, 0 |||
 41 |          |           |  0.24002 |  0.32316 | h  |  8,13, 0 |||
 42 |          |           |   0.9018 |  0.19234 | h  |  7,14, 0 |||
 43 |          |           |  0.53131 |  0.27745 | h  |  8,14, 0 |||
 44 |          |           |  0.53005 | -0.27899 | h  |  7,15, 0 |||
 45 |          |           |   0.2135 |    1.061 | h  |  8,15, 0 |||
 46 |          |           |  0.54951 |  -0.4761 | h  |  7,16, 0 |||
 47 |          |           |  0.79751 | -0.11746 | h  |  8,16, 0 |||
 48 |          |           |  0.57897 |  0.84199 | h  |  7,17, 0 |||
 49 |          |           | 0.088404 |  0.30268 | h  |  8,17, 0 |||
 50 |          |           |  0.50224 |  0.30355 | h  |  7,22, 0 |||
 51 |          |           |  0.69825 |  0.97949 | h  |  8,22, 0 |||
 52 |          |           |  0.49097 |  0.10668 | h  |  7,23, 0 |||
 53 |          |           |  0.31058 |  0.64921 | h  |  8,23, 0 |||
 54 |          |           |  0.25229 | 0.041605 | h  |  7,24, 0 |||
 55 |          |           |  0.20353 |  0.60947 | h  |  8,24, 0 |||
 56 |          |           |  0.26377 | -0.51829 | h  |  7,26, 0 |||
 57 |          |           |  0.50817 | -0.93312 | h  |  8,26, 0 |||
 58 |          |           |  0.23741 | -0.56496 | h  |  7,27, 0 |||
 59 |          |           |  0.37492 |  0.25352 | h  |  8,27, 0 |||
 60 |          |           |  0.47381 |  -1.0057 | h  | 13,12, 0 |||
 61 |          |           | 0.049001 |  0.79708 | h  | 14,12, 0 |||
 62 |          |           | 0.081216 | -0.83175 | h  | 13,13, 0 |||
 63 |          |           |  0.99444 |  0.17569 | h  | 14,13, 0 |||
 64 |          |           |  0.61736 | -0.01436 | h  | 13,14, 0 |||
 65 |          |           |  0.53264 |  0.92757 | h  | 14,14, 0 |||
 66 |          |           |  0.61886 | -0.66341 | h  | 13,15, 0 |||
 67 |          |           |  0.83319 | -0.81519 | h  | 14,15, 0 |||
 68 |          |           |  0.12714 | -0.58576 | h  | 13,16, 0 |||
 69 |          |           |  0.94482 |  0.91476 | h  | 14,16, 0 |||
 70 |          |           |  0.13392 |  0.46158 | o  | 18,14, 0 |||
----|----------|----------|----------|----------|----|----------|----------|----------|-------


connection definition section :

target | site | source:weight
-------|------|------------------------------------------------------------------------------------------------------------
    24 |      |   1:-0.26634,   2: 0.53731,   3:-0.50875,   4:   1.005
    25 |      |   1: 0.88084,   2: 0.41377,   3:0.085074,   4:-0.28285
    26 |      |   1:-0.95382,   2: 0.64027,   3:-0.71625,   4:-0.89012
    27 |      |   1:-0.38877,   2: 0.83088,   3:  -1.858,   4:  1.4597
    28 |      |   1:  2.6476,   2:  -1.366,   3:-0.20932,   4:-0.23416
    29 |      |   1: 0.28558,   2: -1.4453,   3:  2.3613,   4: -1.9498
    30 |      |   1:-0.39508,   5: 0.69471,   6: 0.29996,   7: 0.48171
    31 |      |   1:-0.95976,   5: 0.37166,   6: -0.3341,   7: 0.20314
    32 |      |   1:-0.86895,   5:0.042425,   6: 0.95576,   7: -1.0091
    33 |      |   1:-0.40479,   5:-0.15849,   6: 0.23422,   7:-0.26337
    34 |      |   1:-0.56755,   5: -0.3637,   6:-0.12662,   7: 0.54721
    35 |      |   1:  1.1281,   5:-0.0027393,   6: -1.0053,   7: 0.53285
    36 |      |   1: 0.97986,   8: -1.5971,   9: 0.11567,  10:-0.62909,  11: 0.57816,  12: 0.74475,  13: -1.2136,  14:-0.04031, 
                 15:0.015625,  21: 0.69074,  22: 0.39605,  23:-0.058727
    37 |      |   1:-0.17349,   8:-0.43209,   9:-0.62588,  10:0.089748,  11: 0.13314,  12: 0.52853,  13:-0.86738,  14: 0.89969, 
                 15: 0.88339,  21:-0.32075,  22: 0.14773,  23:0.0057166
    38 |      |   1:-0.40961,   8:-0.48499,   9:-0.66989,  10:-0.72698,  11:-0.76573,  12: 0.79457,  13:-0.60598,  14: 0.67656, 
                 15:-0.72417,  21: -1.1999,  22:0.079376,  23:-0.56922
    39 |      |   1: 0.65626,   8:  1.0008,   9: 0.61856,  10: -0.7602,  11:-0.37348,  12:-0.30553,  13: 0.43939,  14:-0.14599, 
                 15: 0.86565,  21:-0.052078,  22:-0.33521,  23: 0.84889
    40 |      |   1:-0.67612,   8:-0.29343,   9: 0.16313,  10: 0.98009,  11:-0.27035,  12:  0.6018,  13:-0.74481,  14:0.056926, 
                 15:   1.088,  21:-0.56352,  22:-0.51839,  23:-0.41707
    41 |      |   1: 0.15692,   8:-0.78755,   9:-0.10695,  10: 0.48731,  11: 0.73523,  12:-0.034345,  13: 0.14381,  14:-0.27838, 
                 15: 0.47034,  21:  1.1179,  22: 0.54048,  23:-0.38129
    42 |      |   1:0.098024,   8: 0.19989,   9: 0.72229,  10:-0.078258,  11: 0.45203,  12: 0.67909,  13: 0.74332,  14:-0.44677, 
                 15: 0.60537,  21: -0.8189,  22:-0.92148,  23: 0.75929
    43 |      |   1:-0.68955,   8:-0.48423,   9:-0.60314,  10:0.035209,  11:-0.81054,  12:0.065279,  13: 0.25155,  14: 0.37871, 
                 15:-0.31413,  21:-0.34074,  22:  -1.049,  23:  1.0674
    44 |      |   1: 0.16743,   8: 0.86876,   9: -0.6259,  10: 0.70298,  11:-0.19744,  12: 0.68882,  13:-0.32439,  14:-0.48983, 
                 15:-0.072197,  21:-0.81589,  22:-0.68314,  23:-0.48733
    45 |      |   1: 0.94393,   8:-0.023245,   9:  0.3552,  10:  1.2453,  11: 0.83521,  12: 0.16536,  13:-0.50558,  14:-0.79191, 
                 15:-0.76439,  21:-0.09254,  22: 0.18447,  23:0.047581
    46 |      |   1:  0.7649,   8:  1.1564,   9:-0.59119,  10: 0.62809,  11:-0.32252,  12:-0.089625,  13: 0.63054,  14: 0.72836, 
                 15: -0.5794,  21: -0.5718,  22: 0.72208,  23:0.052473
    47 |      |   1: -0.8082,   8: 0.74675,   9:0.039234,  10:-0.40007,  11: -1.2377,  12:-0.57291,  13: 0.45881,  14:0.072672, 
                 15:-0.71541,  21:-0.091455,  22:-0.66557,  23:-0.41154
    48 |      |   1:-0.67299,   8: 0.81744,   9: -0.5461,  10: 0.65597,  11: 0.47202,  12: -1.1911,  13: 0.35271,  14: 0.78999, 
                 15: 0.59304,  21:-0.87595,  22:-0.24589,  23:-0.16651
    49 |      |   1: 0.62028,   8: 0.40455,   9: 0.31534,  10:-0.12516,  11: 0.96207,  12: 0.44458,  13:-0.70355,  14:-0.29302, 
                 15:-0.84107,  21:-0.62222,  22: 0.36107,  23: 0.30412
    50 |      |   1: 0.69305,  16:-0.50212,  17: 0.57558,  18:-0.77598
    51 |      |   1:  1.1198,  16:-0.61216,  17: 0.40732,  18: 0.14583
    52 |      |   1: 0.68431,  16:-0.42616,  17: 0.21354,  18: 0.20912
    53 |      |   1:-0.84584,  16:-0.61143,  17:-0.25548,  18:  1.0503
    54 |      |   1:-0.58915,  16:0.066068,  17: 0.51585,  18: 0.81324
    55 |      |   1:-0.79115,  16:-0.93728,  17: 0.22404,  18: 0.16769
    56 |      |   1:-0.15384,  19: 0.52683,  20: 0.92398
    57 |      |   1: 0.93398,  19:-0.10673,  20:-0.55671
    58 |      |   1:-0.20258,  19: 0.76047,  20: 0.86057
    59 |      |   1:-0.68079,  19:0.032552,  20: 0.70957
    60 |      |  24:  1.1744,  25: -1.2356,  26:-0.51072,  27:  1.8896,  28:  1.0919,  29: -2.5948,  30: -1.1821,  31: 0.07842, 
                 32: -1.0312,  33:-0.093515,  34:0.0067178,  35:-0.09031,  36: -1.7831,  37:-0.59897,  38: -1.2446,  39: 0.68286, 
                 40: 0.95806,  41: -1.2281,  42: 0.53899,  43: 0.64032,  44:-0.041585,  45: 0.66102,  46:  1.1749,  47:  1.0257, 
                 48:  0.9811,  49:0.093802,  50:-0.87223,  51: -1.2162,  52:-0.24129,  53: -1.0175,  54: 0.33347,  55:-0.80715, 
                 56:-0.63284,  57: 0.39217,  58: 0.73372,  59: 0.88514
    61 |      |  24:-0.12162,  25: 0.23163,  26: 0.15027,  27:-0.98555,  28: -3.5263,  29:  1.2951,  30: 0.39289,  31:0.083041, 
                 32:-0.83921,  33:-0.67133,  34:-0.27567,  35:  -1.313,  36: 0.24447,  37: -0.0538,  38:0.077904,  39: 0.62952, 
                 40: -0.7456,  41:0.049765,  42: 0.42987,  43:-0.56045,  44: 0.61461,  45: 0.10766,  46: 0.44924,  47: 0.84976, 
                 48:  0.5301,  49:-0.22889,  50: 0.45537,  51:-0.63261,  52:-0.41434,  53: 0.83916,  54: 0.18282,  55: -0.7618, 
                 56:-0.36088,  57:-0.92298,  58:-0.0091544,  59:-0.018154
    62 |      |  24:-0.69073,  25:-0.94769,  26:-0.99921,  27:-0.30912,  28:-0.17564,  29:-0.84249,  30:-0.20894,  31: 0.50341, 
                 32: 0.27308,  33:-0.39678,  34:   0.946,  35:-0.56435,  36: 0.97776,  37:-0.95382,  38: 0.98636,  39: 0.40535, 
                 40:0.010426,  41: 0.63886,  42:-0.78948,  43:-0.70037,  44: 0.48737,  45:-0.17383,  46: 0.19924,  47: 0.18981, 
                 48: 0.95667,  49: 0.58674,  50: 0.92292,  51:-0.88413,  52:-0.25794,  53:-0.046191,  54:-0.90291,  55:0.083405, 
                 56:-0.028598,  57:-0.88599,  58: 0.87137,  59: 0.84447
    63 |      |  24:-0.29104,  25: 0.35663,  26: 0.40125,  27: 0.28888,  28: 0.40276,  29: 0.82442,  30: 0.23359,  31: 0.28576, 
                 32: 0.80989,  33:-0.42073,  34:-0.69675,  35: 0.45911,  36:-0.19048,  37:-0.41003,  38:-0.10132,  39: 0.59874, 
                 40: 0.74519,  41:-0.89704,  42: 0.48784,  43: 0.32298,  44: 0.96074,  45: 0.59303,  46:-0.95804,  47:-0.08122, 
                 48: 0.67953,  49: 0.11941,  50: 0.90664,  51: 0.81023,  52:0.0077374,  53:  0.7173,  54: 0.91393,  55: 0.62471, 
                 56:0.082181,  57: 0.31362,  58:-0.10247,  59:-0.67347
    64 |      |  24:-0.75257,  25: 0.58407,  26: -0.1239,  27:0.005513,  28:  1.1305,  29: -1.1617,  30: 0.24799,  31:-0.64606, 
                 32:-0.014429,  33:-0.059708,  34: -0.7967,  35: 0.36232,  36:-0.77542,  37: 0.34569,  38: 0.13457,  39:-0.74643, 
                 40: 0.43665,  41:-0.92945,  42: 0.74199,  43:-0.38105,  44: 0.92856,  45: 0.42116,  46: 0.66441,  47: 0.78271, 
                 48:  0.4311,  49:0.035495,  50:-0.41233,  51: -0.3175,  52:-0.94966,  53:0.063249,  54: 0.81878,  55:-0.98565, 
                 56:-0.33875,  57:-0.35583,  58:-0.18252,  59:-0.58076
    65 |      |  24:-0.94646,  25:-0.13105,  26:-0.77713,  27:-0.009485,  28:-0.20493,  29: 0.55944,  30: 0.51438,  31:-0.65614, 
                 32: -0.2715,  33:  0.4847,  34: 0.82136,  35: -0.2302,  36: 0.21218,  37:-0.52083,  38:-0.29225,  39:-0.26199, 
                 40:  1.0347,  41:-0.58468,  42:-0.86181,  43: 0.25343,  44:0.091172,  45:-0.21858,  46:  0.2449,  47:-0.90925, 
                 48:-0.40506,  49: 0.35675,  50:-0.37112,  51: 0.27804,  52: 0.99574,  53:0.057096,  54:-0.74073,  55:  1.0275, 
                 56: 0.71064,  57: -0.5401,  58:-0.059535,  59:-0.35317
    66 |      |  24:-0.71166,  25: 0.19854,  26:-0.42357,  27: 0.86889,  28:-0.95799,  29: 0.51254,  30: 0.33118,  31: 0.24254, 
                 32:  1.3004,  33: 0.71213,  34:0.045638,  35:-0.78185,  36: 0.81953,  37:-0.38235,  38: 0.40066,  39:-0.59461, 
                 40: 0.74371,  41: 0.41914,  42: 0.41984,  43: 0.11227,  44:  1.1025,  45:-0.60787,  46: -0.1331,  47:-0.066138, 
                 48:-0.38884,  49: 0.02239,  50:-0.30045,  51:-0.17686,  52: 0.66706,  53:  0.5947,  54:-0.35428,  55:  1.1042, 
                 56: -1.0164,  57: 0.11719,  58: 0.55201,  59:0.0086636
    67 |      |  24: 0.17782,  25:-0.80091,  26: 0.90016,  27:-0.17626,  28:  1.2689,  29: -1.0582,  30:-0.95859,  31: 0.55876, 
                 32: 0.36671,  33:-0.33238,  34:0.025939,  35:0.073046,  36: 0.57151,  37: 0.57533,  38:-0.14663,  39: 0.86809, 
                 40:-0.60501,  41: 0.75365,  42: 0.95074,  43: -0.1646,  44:-0.64792,  45:-0.43288,  46:-0.63191,  47: 0.64288, 
                 48: -0.1085,  49:-0.65278,  50: 0.90213,  51: 0.98298,  52:-0.64912,  53:-0.20427,  54:  0.9836,  55:0.090666, 
                 56: 0.16216,  57: 0.93113,  58: 0.92201,  59:-0.70506
    68 |      |  24: 0.92369,  25: 0.69446,  26: 0.48595,  27:-0.46209,  28:-0.32651,  29:-0.74985,  30: 0.97327,  31:-0.79684, 
                 32:0.0029043,  33: 0.56149,  34:-0.54007,  35:-0.29546,  36: 0.37549,  37: 0.21877,  38:0.0041505,  39:  0.8964, 
                 40:  0.6437,  41:-0.38662,  42:-0.16291,  43:  -0.973,  44:-0.54308,  45:-0.25946,  46:-0.72436,  47: 0.30196, 
                 48:-0.31045,  49: 0.37261,  50:-0.75232,  51:-0.40013,  52:0.057674,  53:-0.55922,  54:-0.35934,  55:-0.058086, 
                 56:-0.85999,  57:-0.87481,  58: 0.44774,  59:-0.25302
    69 |      |  24: 0.42752,  25:0.041907,  26: 0.43286,  27:-0.038738,  28: 0.34948,  29:-0.78502,  30: -0.5728,  31:-0.33498, 
                 32: 0.18693,  33:-0.74543,  34:-0.69023,  35: 0.78743,  36: 0.10244,  37:-0.65905,  38:-0.80504,  39: 0.88736, 
                 40:-0.38731,  41: 0.51236,  42:-0.41378,  43: 0.99585,  44: 0.74598,  45: 0.14994,  46:0.085495,  47:-0.80628, 
                 48:  0.8332,  49: 0.96991,  50:-0.68872,  51: 0.92831,  52: 0.42063,  53:0.048333,  54:-0.68822,  55:-0.17917, 
                 56: 0.99845,  57:  0.7466,  58:  0.8059,  59: 0.39955
    70 |      |  60: -3.9217,  61:  4.0435,  62:-0.12836,  63:-0.19957,  64:-0.97837,  65:  0.1635,  66:  1.4922,  67: -1.4348, 
                 68:-0.070381,  69: 0.35827
-------|------|----------------------------------------------------------------------------------------------------------------
