SNNS network definition file V1.4-3D
generated at Thu May 09 10:11:49 1996

network name : edge_23
source files :
no. of units : 70
no. of connections : 622
no. of unit types : 0
no. of site types : 0


learning function : Std_Backpropagation
update function : Topological_Order


unit default section :

act      | bias     | st | subnet | layer | act func     | out func
---------|----------|----|--------|-------|--------------|-------------
 0.00000 |  0.00000 | h  |      0 |     1 | Act_Logistic | Out_Identity
---------|----------|----|--------|-------|--------------|-------------


unit definition section :

no. | typeName | unitName | act      | bias     | st | position | act func | out func | sites
----|----------|----------|----------|----------|----|----------|----------|----------|-------
  1 |          |           |      0.2 |        0 | i  |  2, 1, 0 |||
  2 |          |           |   5.8735 |        0 | i  |  2, 3, 0 |||
  3 |          |           |   33.889 |        0 | i  |  2, 4, 0 |||
  4 |          |           |   7.1667 |        0 | i  |  2, 5, 0 |||
  5 |          |           |    2.797 |        0 | i  |  2, 7, 0 |||
  6 |          |           |   10.817 |        0 | i  |  2, 8, 0 |||
  7 |          |           |   4.3378 |        0 | i  |  2, 9, 0 |||
  8 |          |           |   8.3087 |        0 | i  |  2,11, 0 |||
  9 |          |           |   -1.045 |        0 | i  |  2,12, 0 |||
 10 |          |           |  0.45753 |        0 | i  |  2,13, 0 |||
 11 |          |           |   1.0555 |        0 | i  |  2,14, 0 |||
 12 |          |           | 0.031697 |        0 | i  |  2,15, 0 |||
 13 |          |           |  0.98304 |        0 | i  |  2,16, 0 |||
 14 |          |           |  0.53833 |        0 | i  |  2,17, 0 |||
 15 |          |           |  -1.2411 |        0 | i  |  2,18, 0 |||
 16 |          |           |  0.88145 |        0 | i  |  2,23, 0 |||
 17 |          |           | -0.40427 |        0 | i  |  2,24, 0 |||
 18 |          |           | -0.10802 |        0 | i  |  2,25, 0 |||
 19 |          |           |   6.8571 |        0 | i  |  2,27, 0 |||
 20 |          |           |  0.75943 |        0 | i  |  2,28, 0 |||
 21 |          |           |     4.86 |        0 | i  |  2,19, 0 |||
 22 |          |           |   9.0289 |        0 | i  |  2,20, 0 |||
 23 |          |           |   0.5174 |        0 | i  |  2,21, 0 |||
 24 |          |           |        1 |  -1.6559 | h  |  7, 3, 0 |||
 25 |          |           |        1 |   0.6794 | h  |  8, 3, 0 |||
 26 |          |           |        1 |  0.98466 | h  |  7, 4, 0 |||
 27 |          |           |  0.48352 | -0.24885 | h  |  8, 4, 0 |||
 28 |          |           | 0.00045441 |   1.9993 | h  |  7, 5, 0 |||
 29 |          |           |  0.27534 |   1.1049 | h  |  8, 5, 0 |||
 30 |          |           |  0.99532 |  -1.0709 | h  |  7, 7, 0 |||
 31 |          |           | 0.0034871 | -0.71199 | h  |  8, 7, 0 |||
 32 |          |           | 9.1243e-06 |   0.7416 | h  |  7, 8, 0 |||
 33 |          |           |  0.99937 | -0.25238 | h  |  8, 8, 0 |||
 34 |          |           | 0.028115 | -0.32926 | h  |  7, 9, 0 |||
 35 |          |           |  0.99831 |  -0.4172 | h  |  8, 9, 0 |||
 36 |          |           | 0.0048453 | 0.062836 | h  |  7,11, 0 |||
 37 |          |           | 0.0071379 |   0.6894 | h  |  8,11, 0 |||
 38 |          |           |  0.99945 |  0.90023 | h  |  7,12, 0 |||
 39 |          |           |  0.02765 |  0.86624 | h  |  8,12, 0 |||
 40 |          |           |  0.59613 |  0.52041 | h  |  7,13, 0 |||
 41 |          |           |  0.99886 |  0.25318 | h  |  8,13, 0 |||
 42 |          |           | 0.0063447 | -0.80297 | h  |  7,14, 0 |||
 43 |          |           |        1 |  -0.5532 | h  |  8,14, 0 |||
 44 |          |           |  0.99013 | -0.24161 | h  |  7,15, 0 |||
 45 |          |           |  0.99827 |   1.0191 | h  |  8,15, 0 |||
 46 |          |           |  0.34735 |  -1.0717 | h  |  7,16, 0 |||
 47 |          |           | 0.0049836 | -0.19271 | h  |  8,16, 0 |||
 48 |          |           |  0.27045 | -0.48047 | h  |  7,17, 0 |||
 49 |          |           |  0.99649 | -0.46627 | h  |  8,17, 0 |||
 50 |          |           |    0.291 |  0.24857 | h  |  7,22, 0 |||
 51 |          |           |  0.71167 |  0.46554 | h  |  8,22, 0 |||
 52 |          |           |  0.40393 | -0.77619 | h  |  7,23, 0 |||
 53 |          |           |  0.49189 |   0.1902 | h  |  8,23, 0 |||
 54 |          |           |  0.30113 |  0.66772 | h  |  7,24, 0 |||
 55 |          |           |  0.44387 | -0.16376 | h  |  8,24, 0 |||
 56 |          |           | 0.0091588 | -0.58888 | h  |  7,26, 0 |||
 57 |          |           | 0.0013055 | -0.34342 | h  |  8,26, 0 |||
 58 |          |           |  0.99763 | -0.079594 | h  |  7,27, 0 |||
 59 |          |           |  0.17789 | -0.22582 | h  |  8,27, 0 |||
 60 |          |           |  0.27905 | -0.25426 | h  | 13,12, 0 |||
 61 |          |           |  0.66496 |   0.4608 | h  | 14,12, 0 |||
 62 |          |           |  0.45442 | -0.45648 | h  | 13,13, 0 |||
 63 |          |           |  0.87492 |  0.66242 | h  | 14,13, 0 |||
 64 |          |           |  0.47779 | -0.31741 | h  | 13,14, 0 |||
 65 |          |           |  0.61737 |  0.84628 | h  | 14,14, 0 |||
 66 |          |           |    0.809 | -0.16891 | h  | 13,15, 0 |||
 67 |          |           |  0.98178 |  0.48717 | h  | 14,15, 0 |||
 68 |          |           |  0.51302 | -0.89472 | h  | 13,16, 0 |||
 69 |          |           |  0.99936 |  0.40235 | h  | 14,16, 0 |||
 70 |          |           |  0.98702 |  0.10043 | o  | 18,14, 0 |||
----|----------|----------|----------|----------|----|----------|----------|----------|-------


connection definition section :

target | site | source:weight
-------|------|------------------------------------------------------------------------------------------------------------
    24 |      |   1:  0.6758,   2: 0.15119,   3:  1.4344,   4: -1.9287
    25 |      |   1:-0.20702,   2:-0.28675,   3: 0.76284,   4: 0.73863
    26 |      |   1: 0.26415,   2:  1.7525,   3: 0.60861,   4: 0.54638
    27 |      |   1: -1.2496,   2: 0.79502,   3:-0.13833,   4:0.062939
    28 |      |   1: 0.24792,   2:-0.19644,   3:-0.08807,   4:-0.78229
    29 |      |   1: 0.49725,   2:-0.73338,   3:-0.30491,   4:  1.7398
    30 |      |   1:-0.97664,   5: 0.68683,   6:0.061325,   7: 0.93172
    31 |      |   1:-0.029455,   5:-0.38994,   6:-0.19788,   7:-0.39334
    32 |      |   1:-0.40791,   5:-0.73933,   6:  -0.803,   7:-0.34831
    33 |      |   1:-0.84327,   5:-0.38545,   6: 0.82447,   7:-0.01229
    34 |      |   1: 0.41268,   5:-0.80992,   6:-0.24125,   7: 0.36394
    35 |      |   1:-0.16657,   5: 0.19639,   6: 0.98364,   7: -1.0038
    36 |      |   1:-0.78043,   8:-0.98425,   9:-0.38825,  10:-0.068304,  11: 0.25071,  12:-0.28084,  13:-0.85384,  14: -1.0069, 
                 15:-0.33857,  21: 0.26317,  22: 0.18769,  23: 0.58667
    37 |      |   1: 0.38074,   8:-0.044982,   9:-0.071185,  10: 0.31054,  11:-0.060514,  12:-0.80349,  13:-0.69141,  14:0.095337, 
                 15:  0.7202,  21:0.028525,  22: -0.4647,  23: 0.24189
    38 |      |   1: 0.12018,   8: 0.69607,   9: -1.0461,  10: 0.13094,  11: -0.5411,  12:-0.41434,  13: 0.47208,  14:-0.18803, 
                 15: 0.91609,  21: 0.50242,  22:-0.13056,  23:-0.50693
    39 |      |   1: 0.95202,   8: 0.22467,   9:-0.38301,  10: 0.54928,  11:-0.66983,  12:  1.0871,  13:  0.3252,  14: 0.78228, 
                 15:-0.16067,  21:0.046856,  22:-0.91499,  23:  1.2196
    40 |      |   1: 0.97223,   8:-0.91125,   9: -0.7231,  10: -0.1029,  11:-0.057901,  12:  0.1346,  13:-0.71883,  14: 0.40361, 
                 15:-0.42621,  21:-0.15023,  22: 0.76792,  23: 0.67865
    41 |      |   1: 0.70636,   8:-0.059446,   9:-0.71293,  10:  1.0076,  11:-0.38361,  12: -0.5184,  13: 0.12155,  14: 0.47011, 
                 15: 0.73048,  21: 0.84954,  22: 0.23686,  23: 0.69467
    42 |      |   1:-0.88904,   8:-0.97529,   9: 0.54795,  10:  1.0748,  11: 0.95275,  12:   0.732,  13:-0.22389,  14:  1.2414, 
                 15:-0.90651,  21:-0.60502,  22: 0.50029,  23:-0.13056
    43 |      |   1: 0.74613,   8:  1.4012,   9:-0.57396,  10: 0.30439,  11: 0.48388,  12: 0.49882,  13: 0.28485,  14: 0.58608, 
                 15: 0.73365,  21:-0.11601,  22: 0.41772,  23:-0.42787
    44 |      |   1: 0.33473,   8: 0.23963,   9: 0.87135,  10:-0.24101,  11: -1.4157,  12:  1.2013,  13: 0.72294,  14: 0.23379, 
                 15:-0.061803,  21:  0.2228,  22: 0.41305,  23:-0.88308
    45 |      |   1:-0.054442,   8: 0.35373,   9:  -1.128,  10: 0.75531,  11:  0.1827,  12:   1.275,  13:-0.18494,  14: 0.95863, 
                 15: 0.44744,  21:-0.31575,  22: 0.19222,  23:  1.3039
    46 |      |   1:-0.073575,   8: 0.14589,   9: 0.37905,  10: 0.94706,  11: 0.53488,  12:-0.070298,  13:-0.031142,  14:0.011499, 
                 15: -0.9373,  21:-0.31883,  22: -0.1226,  23: 0.31244
    47 |      |   1: -0.8986,   8:-0.61116,   9:0.064924,  10:0.0045895,  11:-0.10655,  12:  1.1576,  13: -1.2086,  14: 0.43577, 
                 15: 0.42765,  21: 0.31914,  22:0.032263,  23:-0.12122
    48 |      |   1:0.018877,   8: 0.85156,   9:-0.48494,  10:-0.015205,  11:  0.6713,  12: 0.62243,  13:  1.0272,  14: 0.72133, 
                 15: 0.51632,  21: 0.31346,  22: -1.1893,  23:-0.69857
    49 |      |   1:-0.77696,   8:-0.38988,   9: 0.42338,  10: 0.79284,  11:-0.18604,  12:   1.153,  13:-0.080871,  14:  1.1992, 
                 15:-0.41343,  21: 0.26605,  22: 0.82414,  23:-0.12572
    50 |      |   1: 0.23241,  16: -1.0436,  17:  0.7427,  18:-0.31968
    51 |      |   1:-0.53548,  16: 0.91362,  17: 0.61001,  18: 0.12632
    52 |      |   1: 0.12832,  16:0.030729,  17:-0.63676,  18:-0.71169
    53 |      |   1:-0.51104,  16:-0.41247,  17:-0.53363,  18:-0.25355
    54 |      |   1:-0.77536,  16: -1.0156,  17: 0.88249,  18:  0.9495
    55 |      |   1:  0.6691,  16:-0.45089,  17:-0.47565,  18:-0.08906
    56 |      |   1:-0.32432,  19:-0.57017,  20:-0.15848
    57 |      |   1:-0.12244,  19:-0.89449,  20:-0.18218
    58 |      |   1: 0.74727,  19: 0.97377,  20:-0.92539
    59 |      |   1:-0.21102,  19:-0.26042,  20: 0.68876
    60 |      |  24:-0.33522,  25: 0.72921,  26: 0.91756,  27: 0.43229,  28:-0.045013,  29:  1.2944,  30: 0.36363,  31:0.00049289, 
                 32: 0.58791,  33:0.087685,  34:-0.35022,  35:-0.99254,  36: 0.78273,  37: 0.86416,  38:-0.11236,  39:-0.68842, 
                 40:-0.57156,  41: 0.90247,  42:-0.36956,  43:0.064957,  44: -1.0287,  45: 0.37131,  46: 0.81059,  47: 0.80435, 
                 48: 0.31749,  49: -1.1377,  50:-0.31394,  51:-0.69659,  52:-0.59198,  53: -1.0473,  54: 0.36033,  55: 0.37359, 
                 56: 0.72919,  57:-0.14636,  58:-0.025022,  59:-0.15164
    61 |      |  24: 0.23635,  25: 0.75324,  26:-0.89815,  27:  1.3904,  28: -1.1664,  29: -1.2946,  30: 0.92506,  31:-0.63825, 
                 32: 0.33755,  33:-0.66266,  34:-0.25981,  35: 0.75944,  36:-0.036883,  37:-0.73781,  38: 0.56664,  39:-0.42078, 
                 40:-0.60669,  41: 0.71162,  42:-0.43995,  43:-0.85458,  44:-0.85499,  45:0.097065,  46:-0.33353,  47:-0.46217, 
                 48:-0.93588,  49:-0.68629,  50:-0.92748,  51: 0.17496,  52: 0.13275,  53:0.079199,  54:-0.82698,  55: 0.68281, 
                 56:0.038667,  57:-0.18791,  58: 0.44954,  59: 0.70137
    62 |      |  24: 0.12841,  25: -0.6801,  26:  1.0135,  27: 0.37217,  28: 0.95287,  29:  0.8636,  30:-0.39367,  31: 0.96198, 
                 32: 0.31426,  33: 0.27135,  34:-0.79447,  35: 0.12419,  36: 0.78671,  37:-0.47346,  38: 0.54728,  39: -0.3064, 
                 40: 0.28855,  41:-0.98169,  42:0.017339,  43: 0.53085,  44:-0.55462,  45: -0.9289,  46:-0.15794,  47: 0.70965, 
                 48:-0.42539,  49:-0.15798,  50:-0.11829,  51: 0.66898,  52:-0.52798,  53: -0.3649,  54: 0.37515,  55: 0.82631, 
                 56:0.074021,  57:0.034825,  58: 0.47036,  59:-0.28328
    63 |      |  24:-0.80407,  25:-0.35564,  26: 0.89285,  27: 0.60413,  28:-0.18719,  29:0.00024972,  30: 0.45748,  31: 0.42701, 
                 32:-0.42224,  33:-0.81702,  34:-0.23792,  35: -0.2284,  36:-0.013288,  37:-0.69949,  38: 0.17202,  39: 0.36155, 
                 40: 0.23469,  41:-0.20792,  42:  1.0149,  43:  0.9859,  44: 0.66821,  45: 0.62397,  46:-0.53489,  47:-0.73385, 
                 48:0.013539,  49:-0.57862,  50: 0.36332,  51: -0.8027,  52: 0.77638,  53:-0.95132,  54:-0.28993,  55: 0.86227, 
                 56:-0.32891,  57:-0.42506,  58: 0.45966,  59:  0.5499
    64 |      |  24:-0.55355,  25:0.092405,  26: 0.01628,  27:-0.45215,  28:  1.4974,  29: 0.91261,  30: 0.79024,  31:-0.56022, 
                 32:-0.52018,  33: 0.17334,  34: 0.66145,  35: 0.32689,  36: 0.42468,  37: 0.45518,  38:-0.26389,  39:-0.056837, 
                 40:  1.0403,  41:-0.12452,  42: 0.97782,  43:-0.82896,  44:-0.29845,  45: -1.2557,  46:-0.74633,  47:-0.45812, 
                 48:-0.49748,  49:  1.1441,  50: 0.24797,  51: 0.55123,  52: 0.45722,  53:-0.34339,  54: 0.16892,  55:-0.67776, 
                 56:  0.5833,  57: 0.36518,  58: 0.40539,  59: 0.49921
    65 |      |  24:-0.50786,  25: 0.43059,  26:-0.13388,  27:-0.96749,  28: 0.51289,  29:  1.2036,  30:  0.3737,  31:-0.32411, 
                 32:-0.57237,  33: -0.6525,  34: -0.3101,  35:0.015297,  36:-0.58974,  37:-0.25014,  38: 0.49239,  39: -0.5536, 
                 40:-0.048778,  41: 0.86106,  42: 0.36679,  43:0.061159,  44:-0.31788,  45: -0.3566,  46:-0.63116,  47: 0.34854, 
                 48: 0.76857,  49:-0.37686,  50:-0.16375,  51: 0.13568,  52: 0.71759,  53:-0.69065,  54: 0.29224,  55:-0.40107, 
                 56: -1.0582,  57:-0.88198,  58:0.015379,  59: 0.16792
    66 |      |  24:0.086216,  25: 0.89248,  26: -1.2876,  27:  0.3033,  28: -1.0265,  29:-0.037961,  30: 0.99159,  31: 0.10285, 
                 32: -0.1964,  33:  -0.642,  34:-0.93237,  35:-0.30423,  36: 0.61657,  37: 0.18433,  38: 0.74834,  39:-0.52255, 
                 40:  0.6194,  41:  0.2787,  42: -1.0117,  43:-0.85383,  44: 0.70218,  45: 0.86948,  46:    0.59,  47:-0.69577, 
                 48:-0.012877,  49:-0.82932,  50:-0.71651,  51:-0.053672,  52: 0.47888,  53: 0.62914,  54: 0.16395,  55:-0.83402, 
                 56: 0.33733,  57: 0.29008,  58: 0.23484,  59: 0.76859
    67 |      |  24: 0.21942,  25: 0.25606,  26: -1.0216,  27: 0.29892,  28: 0.35995,  29:-0.28896,  30:-0.074554,  31:-0.41597, 
                 32: -0.3851,  33: 0.36348,  34:-0.90317,  35: 0.64532,  36: 0.55323,  37:-0.85555,  38: 0.61436,  39:-0.025288, 
                 40:  1.0548,  41:  1.0594,  42: 0.83285,  43:-0.55245,  44:-0.53865,  45: 0.19248,  46: 0.82807,  47:  1.1194, 
                 48:-0.92166,  49: 0.92896,  50: 0.47151,  51: 0.51948,  52: 0.12262,  53: 0.34667,  54:-0.38543,  55:-0.86757, 
                 56:-0.50182,  57:-0.45581,  58: 0.31378,  59: 0.91397
    68 |      |  24:-0.63519,  25:-0.54875,  26: 0.93191,  27: 0.55139,  28:-0.63677,  29: 0.42895,  30:0.084274,  31:-0.39295, 
                 32: 0.08019,  33: 0.88536,  34: -0.5411,  35: 0.19321,  36: 0.42086,  37:-0.26933,  38: 0.57829,  39: -0.5568, 
                 40:-0.43801,  41: 0.54992,  42:-0.44566,  43: -0.5267,  44:-0.006066,  45:-0.85739,  46: 0.57792,  47:-0.76341, 
                 48:-0.42097,  49: 0.68398,  50:-0.27113,  51: 0.15566,  52:-0.083308,  53:-0.36949,  54:-0.43753,  55:0.077774, 
                 56:0.065317,  57:-0.51371,  58:-0.37518,  59: 0.56478
    69 |      |  24:  2.7642,  25:  0.5014,  26:-0.44394,  27:0.040891,  28:-0.77918,  29: -1.3658,  30: 0.32324,  31: 0.77729, 
                 32:-0.82142,  33: 0.85727,  34:-0.68699,  35:  1.1731,  36: 0.92826,  37:-0.26828,  38:0.085072,  39:  1.7665, 
                 40:-0.059085,  41:-0.093034,  42: -1.1137,  43: -1.0897,  44:   1.743,  45:  1.6099,  46:0.052324,  47:-0.54533, 
                 48: -1.0079,  49: -1.0169,  50: 0.75867,  51:0.018844,  52:-0.40484,  53:   0.275,  54:  1.0119,  55:-0.29913, 
                 56: 0.67276,  57:-0.22968,  58:  0.9203,  59:-0.71239
    70 |      |  60: -1.2348,  61:  2.1017,  62: -1.2469,  63:-0.30684,  64: -2.0502,  65: -1.2298,  66:  1.4267,  67: 0.61799, 
                 68:-0.066186,  69:  4.0277
-------|------|----------------------------------------------------------------------------------------------------------------
