SNNS network definition file V1.4-3D
generated at Thu May 09 10:11:49 1996

network name : edge_23
source files :
no. of units : 70
no. of connections : 622
no. of unit types : 0
no. of site types : 0


learning function : Std_Backpropagation
update function : Topological_Order


unit default section :

act      | bias     | st | subnet | layer | act func     | out func
---------|----------|----|--------|-------|--------------|-------------
 0.00000 |  0.00000 | h  |      0 |     1 | Act_Logistic | Out_Identity
---------|----------|----|--------|-------|--------------|-------------


unit definition section :

no. | typeName | unitName | act      | bias     | st | position | act func | out func | sites
----|----------|----------|----------|----------|----|----------|----------|----------|-------
  1 |          |           |        0 |        0 | i  |  2, 1, 0 |||
  2 |          |           |   12.889 |        0 | i  |  2, 3, 0 |||
  3 |          |           |        6 |        0 | i  |  2, 4, 0 |||
  4 |          |           |        2 |        0 | i  |  2, 5, 0 |||
  5 |          |           |   15.582 |        0 | i  |  2, 7, 0 |||
  6 |          |           |   11.577 |        0 | i  |  2, 8, 0 |||
  7 |          |           |   10.445 |        0 | i  |  2, 9, 0 |||
  8 |          |           |   5.2121 |        0 | i  |  2,11, 0 |||
  9 |          |           | -0.73267 |        0 | i  |  2,12, 0 |||
 10 |          |           |  -2.6912 |        0 | i  |  2,13, 0 |||
 11 |          |           |  0.44344 |        0 | i  |  2,14, 0 |||
 12 |          |           |  0.52067 |        0 | i  |  2,15, 0 |||
 13 |          |           | -0.24453 |        0 | i  |  2,16, 0 |||
 14 |          |           |  -1.6911 |        0 | i  |  2,17, 0 |||
 15 |          |           |  -2.1032 |        0 | i  |  2,18, 0 |||
 16 |          |           |  0.15393 |        0 | i  |  2,23, 0 |||
 17 |          |           |  -2.5914 |        0 | i  |  2,24, 0 |||
 18 |          |           |  -1.2255 |        0 | i  |  2,25, 0 |||
 19 |          |           |    28.89 |        0 | i  |  2,27, 0 |||
 20 |          |           |   -0.708 |        0 | i  |  2,28, 0 |||
 21 |          |           |   31.667 |        0 | i  |  2,19, 0 |||
 22 |          |           |     21.2 |        0 | i  |  2,20, 0 |||
 23 |          |           |    7.624 |        0 | i  |  2,21, 0 |||
 24 |          |           | 0.010715 |  -0.2947 | h  |  7, 3, 0 |||
 25 |          |           | 2.3673e-05 |  0.23297 | h  |  8, 3, 0 |||
 26 |          |           |  0.35424 |  -0.3518 | h  |  7, 4, 0 |||
 27 |          |           | 2.359e-05 |   0.9077 | h  |  8, 4, 0 |||
 28 |          |           | 0.00056264 |  0.87726 | h  |  7, 5, 0 |||
 29 |          |           | 0.036744 | -0.42803 | h  |  8, 5, 0 |||
 30 |          |           | 0.0053863 |  0.56407 | h  |  7, 7, 0 |||
 31 |          |           | 0.00032549 |  0.54757 | h  |  8, 7, 0 |||
 32 |          |           | 9.0943e-13 | -0.48809 | h  |  7, 8, 0 |||
 33 |          |           |        1 |  0.91325 | h  |  8, 8, 0 |||
 34 |          |           |        1 | -0.29108 | h  |  7, 9, 0 |||
 35 |          |           |  0.99987 |  0.44996 | h  |  8, 9, 0 |||
 36 |          |           | 2.4646e-16 | -0.53035 | h  |  7,11, 0 |||
 37 |          |           | 3.2524e-12 |  0.92407 | h  |  8,11, 0 |||
 38 |          |           | 3.0263e-07 |  0.90703 | h  |  7,12, 0 |||
 39 |          |           |        1 | -0.47636 | h  |  8,12, 0 |||
 40 |          |           | 1.8324e-20 |  0.59436 | h  |  7,13, 0 |||
 41 |          |           | 4.8674e-11 | -0.46581 | h  |  8,13, 0 |||
 42 |          |           |  0.95067 |  0.43609 | h  |  7,14, 0 |||
 43 |          |           | 1.0722e-08 |  0.10103 | h  |  8,14, 0 |||
 44 |          |           |        1 | -0.44044 | h  |  7,15, 0 |||
 45 |          |           | 0.00038578 |  0.82968 | h  |  8,15, 0 |||
 46 |          |           |        1 |  -1.2936 | h  |  7,16, 0 |||
 47 |          |           |  0.99997 | -0.74803 | h  |  8,16, 0 |||
 48 |          |           |        1 |  0.35641 | h  |  7,17, 0 |||
 49 |          |           | 1.0374e-07 |  0.16375 | h  |  8,17, 0 |||
 50 |          |           |   0.5985 |  0.87014 | h  |  7,22, 0 |||
 51 |          |           |  0.48782 | -0.36875 | h  |  8,22, 0 |||
 52 |          |           |  0.81414 | -0.89358 | h  |  7,23, 0 |||
 53 |          |           |  0.11227 |  0.60477 | h  |  8,23, 0 |||
 54 |          |           | 0.058168 | -0.016391 | h  |  7,24, 0 |||
 55 |          |           |  0.90413 |  0.60241 | h  |  8,24, 0 |||
 56 |          |           | 7.3529e-06 | -0.25617 | h  |  7,26, 0 |||
 57 |          |           |   0.9657 | -0.48272 | h  |  8,26, 0 |||
 58 |          |           |  0.99944 |  0.08345 | h  |  7,27, 0 |||
 59 |          |           |        1 |  0.91192 | h  |  8,27, 0 |||
 60 |          |           |  0.27549 | -0.88524 | h  | 13,12, 0 |||
 61 |          |           |  0.24983 | -0.033956 | h  | 14,12, 0 |||
 62 |          |           |  0.97657 | -0.45533 | h  | 13,13, 0 |||
 63 |          |           |  0.95687 | 0.0062356 | h  | 14,13, 0 |||
 64 |          |           |  0.12282 | -0.63525 | h  | 13,14, 0 |||
 65 |          |           |  0.92466 |  0.86101 | h  | 14,14, 0 |||
 66 |          |           |  0.98584 |  0.29253 | h  | 13,15, 0 |||
 67 |          |           |  0.11367 |  0.49033 | h  | 14,15, 0 |||
 68 |          |           |  0.97322 |  0.55326 | h  | 13,16, 0 |||
 69 |          |           | 0.023103 | 0.061792 | h  | 14,16, 0 |||
 70 |          |           |  0.97753 |  0.58697 | o  | 18,14, 0 |||
----|----------|----------|----------|----------|----|----------|----------|----------|-------


connection definition section :

target | site | source:weight
-------|------|------------------------------------------------------------------------------------------------------------
    24 |      |   1: 0.19462,   2: 0.32855,   3: -1.1069,   4:-0.91202
    25 |      |   1: 0.88028,   2:-0.90724,   3: 0.47462,   4: -1.0193
    26 |      |   1: 0.69855,   2: 0.54878,   3: -1.1006,   4:-0.35917
    27 |      |   1: 0.79527,   2:   -0.49,   3: -1.0637,   4: 0.56752
    28 |      |   1:-0.72313,   2:0.064952,   3:  -1.516,   4:-0.05029
    29 |      |   1:-0.96517,   2:-0.82837,   3:  1.5082,   4:-0.60538
    30 |      |   1:0.035639,   5:0.095861,   6:-0.61195,   7:-0.018387
    31 |      |   1:-0.17509,   5:-0.027953,   6:0.054535,   7:-0.83997
    32 |      |   1:-0.90268,   5:-0.87068,   6:-0.53545,   7:-0.71539
    33 |      |   1: 0.16245,   5: 0.98665,   6: 0.51599,   7: 0.32921
    34 |      |   1:0.056333,   5: 0.70058,   6:  0.4131,   7: 0.93654
    35 |      |   1: 0.19503,   5: 0.33941,   6: 0.20855,   7: 0.07622
    36 |      |   1:-0.46107,   8:-0.48126,   9: -0.1617,  10: 0.35987,  11:-0.091946,  12: -1.0264,  13: 0.73666,  14:  1.3226, 
                 15:-0.035693,  21:-0.94726,  22:0.009629,  23:0.086434
    37 |      |   1: 0.69142,   8:  1.4599,   9:-0.073502,  10: 0.20584,  11: 0.31035,  12: -0.3566,  13:-0.69702,  14: 0.23084, 
                 15:-0.012208,  21:-0.95646,  22:-0.29365,  23: 0.29787
    38 |      |   1: 0.80785,   8:-0.28253,   9:-0.37502,  10:-0.39819,  11:-0.20882,  12: 0.20535,  13:-0.057583,  14: 0.46096, 
                 15: 0.84007,  21:-0.97462,  22: 0.60453,  23: 0.62613
    39 |      |   1:-0.033654,   8: 0.67975,   9: -0.0748,  10:-0.31962,  11: 0.79508,  12:-0.55771,  13: 0.98892,  14:-0.15437, 
                 15: 0.27105,  21: 0.36189,  22: 0.53567,  23: 0.64601
    40 |      |   1: 0.13801,   8: 0.35181,   9:0.0017832,  10:-0.96762,  11:-0.065417,  12:-0.22581,  13: 0.43722,  14: 0.50037, 
                 15: 0.65037,  21: -1.1399,  22:-0.45577,  23:-0.29507
    41 |      |   1:-0.29721,   8:-0.017722,   9: 0.12747,  10:-0.37869,  11:-0.99897,  12:-0.89751,  13: 0.84897,  14: 0.60229, 
                 15:-0.79125,  21:0.032645,  22:-0.85567,  23:-0.85714
    42 |      |   1: 0.53517,   8:  1.2136,   9: 0.63428,  10: 0.32498,  11:-0.93256,  12:  0.2619,  13:-0.48181,  14:0.085476, 
                 15: 0.37657,  21: 0.61475,  22:-0.95608,  23:-0.074242
    43 |      |   1: 0.71854,   8: 0.18523,   9: 0.96191,  10:-0.38006,  11: -0.5293,  12:-0.41382,  13: 0.15776,  14:  1.0283, 
                 15:-0.33232,  21: 0.17328,  22:-0.81187,  23:-0.85027
    44 |      |   1:-0.17491,   8: 0.88834,   9: 0.33648,  10: 0.33769,  11:-0.63813,  12:-0.21143,  13: 0.17934,  14:-0.61817, 
                 15:  1.0321,  21: 0.34265,  22: 0.47601,  23:-0.34947
    45 |      |   1: 0.12158,   8:-0.56936,   9:-0.32276,  10:-0.76343,  11: 0.49396,  12:-0.74464,  13: 0.14391,  14: 0.69361, 
                 15:-0.53427,  21: 0.33999,  22: -1.0065,  23: 0.36891
    46 |      |   1:0.0060661,   8:0.099479,   9:  1.1334,  10: 0.22237,  11:-0.45778,  12:-0.25487,  13: 0.23143,  14: 0.56675, 
                 15:-0.28986,  21: 0.99994,  22:-0.35659,  23:  0.3892
    47 |      |   1:-0.74083,   8:-0.66593,   9: 0.39747,  10:-0.58412,  11: 0.41119,  12:-0.24918,  13: 0.13574,  14: 0.38194, 
                 15: 0.34316,  21: 0.68326,  22:-0.61208,  23: 0.77476
    48 |      |   1:   -0.21,   8:  0.1324,   9:-0.24043,  10:-0.92795,  11:  0.1181,  12: 0.66959,  13:  0.6342,  14:-0.15401, 
                 15: 0.43385,  21: 0.74905,  22: 0.64566,  23:-0.72954
    49 |      |   1: 0.93311,   8:-0.71602,   9: 0.80143,  10:  0.3586,  11:-0.98016,  12:-0.84316,  13: 0.96719,  14: 0.66419, 
                 15:0.058517,  21: 0.31808,  22:-0.73481,  23:-0.40652
    50 |      |   1:-0.21367,  16: 0.28283,  17:  0.4366,  18:-0.50341
    51 |      |   1:-0.75521,  16: 0.58238,  17: 0.10259,  18:-0.40493
    52 |      |   1:-0.96419,  16:-0.91327,  17: -1.0744,  18:  0.2228
    53 |      |   1: 0.73397,  16: 0.76434,  17: 0.74329,  18: 0.70499
    54 |      |   1: 0.51842,  16: -0.1728,  17: 0.81714,  18: 0.50913
    55 |      |   1: 0.41018,  16:-0.20703,  17:  -0.899,  18: 0.53555
    56 |      |   1:  0.2755,  19:-0.40429,  20:-0.16318
    57 |      |   1:-0.24437,  19:  0.1354,  20:  0.1291
    58 |      |   1: 0.15326,  19: 0.27524,  20: 0.77908
    59 |      |   1: 0.95931,  19:  1.3027,  20:-0.41884
    60 |      |  24: 0.61126,  25: -0.7903,  26: 0.53866,  27: 0.33538,  28: 0.90542,  29: 0.18399,  30:-0.69058,  31: 0.74102, 
                 32:-0.13753,  33: 0.18629,  34: 0.23992,  35: 0.81408,  36: 0.26632,  37:-0.19094,  38: 0.30248,  39:-0.44479, 
                 40: 0.22187,  41:-0.90906,  42:0.089162,  43:-0.91461,  44:-0.10088,  45:  1.0677,  46:-0.05791,  47:-0.86883, 
                 48: 0.58629,  49:-0.35762,  50: 0.43801,  51: 0.40028,  52:  -0.439,  53: 0.98437,  54: 0.35173,  55:-0.76045, 
                 56:-0.85916,  57:0.0029931,  58: 0.62695,  59:-0.89503
    61 |      |  24:  1.2034,  25: 0.92242,  26: 0.23765,  27: 0.43963,  28: 0.40475,  29:-0.40525,  30:-0.50275,  31:  1.0298, 
                 32: -1.0274,  33: 0.13235,  34: 0.14565,  35:-0.63367,  36: 0.95894,  37: 0.50509,  38: 0.21423,  39: 0.94697, 
                 40: -1.0844,  41: 0.25826,  42: 0.64896,  43:-0.26844,  44:-0.39445,  45:-0.25233,  46: 0.23142,  47:-0.58486, 
                 48:-0.90752,  49: 0.55563,  50:-0.29415,  51: 0.21117,  52:-0.033058,  53:-0.11327,  54: 0.12838,  55:0.084322, 
                 56:-0.41188,  57:-0.84649,  58:-0.78657,  59: 0.93404
    62 |      |  24:-0.71378,  25: 0.42633,  26:-0.30767,  27:0.037217,  28:-0.66591,  29:0.086996,  30:0.089903,  31: 0.60068, 
                 32:  -1.005,  33: 0.04514,  34: 0.84229,  35:0.072943,  36:-0.37968,  37:-0.67054,  38: 0.63498,  39: 0.44221, 
                 40: 0.73541,  41: -1.0193,  42: 0.29407,  43: 0.18105,  44:-0.50145,  45:-0.12911,  46:-0.54073,  47: 0.64653, 
                 48: 0.75752,  49: 0.24857,  50: -1.0175,  51: 0.87319,  52: 0.52806,  53: 0.44598,  54:-0.30551,  55: 0.81347, 
                 56:0.049891,  57: 0.57999,  58: 0.16706,  59: 0.51286
    63 |      |  24:-0.54074,  25: 0.41966,  26:-0.26756,  27: 0.61959,  28: 0.19828,  29: 0.85268,  30:-0.74678,  31:  0.8215, 
                 32: 0.57063,  33: 0.51993,  34: 0.51252,  35: 0.58428,  36: 0.12908,  37:-0.012418,  38:-0.53411,  39: 0.73996, 
                 40: 0.32944,  41: 0.85412,  42: 0.60265,  43: -0.3716,  44:  0.8649,  45: 0.50085,  46: -1.0251,  47: 0.49355, 
                 48:-0.73932,  49: 0.98421,  50:-0.38054,  51: 0.83805,  52: 0.11994,  53:-0.71392,  54:-0.46061,  55: 0.51342, 
                 56: 0.68951,  57: 0.15973,  58:0.022481,  59:-0.17041
    64 |      |  24: 0.53625,  25:-0.40098,  26: -0.1237,  27: 0.16876,  28:-0.35184,  29: -1.0879,  30:   1.096,  31: 0.30573, 
                 32:-0.41919,  33: 0.92212,  34:-0.66132,  35: -0.4412,  36: 0.24048,  37: 0.31661,  38:-0.60812,  39:-0.21211, 
                 40:-0.061247,  41: 0.97121,  42: 0.28569,  43:0.059367,  44:-0.48034,  45:-0.18039,  46: -0.9231,  47:-0.57942, 
                 48: 0.46472,  49: 0.77343,  50:-0.61744,  51:-0.26918,  52:-0.33402,  53: 0.24676,  54: 0.54556,  55:  1.0478, 
                 56: 0.69678,  57: -0.8794,  58:-0.18094,  59:  1.1766
    65 |      |  24:-0.85549,  25:-0.18113,  26:-0.68688,  27: -1.2633,  28:-0.064577,  29: 0.33362,  30: 0.29619,  31: -1.0451, 
                 32: 0.23047,  33:-0.78254,  34: 0.57357,  35: 0.05534,  36: 0.25173,  37: -1.0549,  38: 0.24465,  39:-0.48792, 
                 40:-0.37629,  41: 0.63802,  42: 0.56214,  43: -0.8141,  44:-0.68669,  45: -0.4347,  46: 0.27878,  47: 0.56648, 
                 48:  1.0966,  49:-0.33933,  50:0.028971,  51:  0.8651,  52: 0.62701,  53:-0.32835,  54:  1.2163,  55:  1.0079, 
                 56: 0.46062,  57:-0.18527,  58:-0.66314,  59:-0.31573
    66 |      |  24:-0.0029806,  25:-0.22211,  26:-0.62398,  27: 0.13747,  28:  -1.402,  29:  1.1595,  30:-0.37693,  31:-0.99333, 
                 32:-0.058344,  33:0.099653,  34: 0.17847,  35:0.033806,  36: -0.3838,  37:-0.65474,  38:-0.11136,  39:0.076059, 
                 40: 0.84815,  41:-0.99079,  42:-0.58895,  43:-0.50898,  44:0.070386,  45:-0.15601,  46:  1.2982,  47:  1.1822, 
                 48:-0.40176,  49: 0.67608,  50: 0.33356,  51:-0.080092,  52:  1.1126,  53: 0.90209,  54:-0.23652,  55: 0.48813, 
                 56:-0.33889,  57: 0.45524,  58: 0.40509,  59:-0.28487
    67 |      |  24:-0.52868,  25: 0.70951,  26:-0.53782,  27: 0.94578,  28:  1.0559,  29: 0.58908,  30:  1.3899,  31: 0.25512, 
                 32:-0.41378,  33:-0.31113,  34:-0.65589,  35:-0.52049,  36: 0.25214,  37:  0.2394,  38: 0.98174,  39: 0.31461, 
                 40:0.040269,  41: 0.55609,  42: 0.73648,  43:-0.33121,  44:-0.73095,  45:-0.043398,  46:-0.78604,  47: -0.4295, 
                 48: 0.23091,  49:-0.77055,  50: 0.43432,  51:-0.31858,  52: 0.35186,  53:-0.85648,  54: 0.80384,  55: 0.53676, 
                 56: 0.54863,  57:-0.85136,  58:-0.51288,  59: 0.31833
    68 |      |  24:-0.49974,  25: -0.9456,  26: 0.57622,  27: 0.20912,  28:-0.36035,  29:-0.90875,  30:-0.57519,  31: 0.60481, 
                 32: 0.70112,  33:  1.0428,  34: -0.4552,  35: 0.15235,  36: 0.81898,  37: 0.19323,  38: 0.73103,  39: -0.3734, 
                 40: 0.80848,  41:-0.74027,  42: 0.91028,  43: 0.91993,  44: 0.58976,  45:-0.40012,  46: 0.20409,  47: 0.67476, 
                 48:-0.51769,  49:-0.43266,  50:-0.0097209,  51:-0.41685,  52: 0.19126,  53:-0.79413,  54: 0.88027,  55: 0.70529, 
                 56:-0.79746,  57: 0.41238,  58:-0.093634,  59:-0.15623
    69 |      |  24: 0.13787,  25:-0.70791,  26:0.078599,  27: 0.07668,  28:-0.23364,  29:-0.78531,  30:-0.099625,  31: -1.0919, 
                 32: 0.86019,  33: 0.57981,  34: 0.84682,  35:-0.80419,  36: 0.39637,  37: 0.57594,  38: 0.64707,  39:-0.95549, 
                 40:-0.22915,  41: 0.33107,  42:-0.64603,  43: 0.36655,  44:-0.68009,  45:-0.024839,  46:-0.36519,  47:-0.52273, 
                 48:-0.17516,  49:-0.84569,  50:-0.34906,  51: -0.8144,  52:0.072711,  53: 0.40691,  54:  0.6707,  55:-0.71372, 
                 56: 0.75757,  57:-0.18009,  58: 0.54809,  59:-0.38165
    70 |      |  60:-0.010802,  61: -1.4239,  62: 0.82633,  63:-0.26877,  64: -1.3923,  65:  1.5273,  66:   2.001,  67: -2.0277, 
                 68:0.0063562,  69: 0.22095
-------|------|----------------------------------------------------------------------------------------------------------------
