SNNS network definition file V1.4-3D
generated at Thu May 09 10:11:49 1996

network name : edge_23
source files :
no. of units : 70
no. of connections : 622
no. of unit types : 0
no. of site types : 0


learning function : Std_Backpropagation
update function : Topological_Order


unit default section :

act      | bias     | st | subnet | layer | act func     | out func
---------|----------|----|--------|-------|--------------|-------------
 0.00000 |  0.00000 | h  |      0 |     1 | Act_Logistic | Out_Identity
---------|----------|----|--------|-------|--------------|-------------


unit definition section :

no. | typeName | unitName | act      | bias     | st | position | act func | out func | sites
----|----------|----------|----------|----------|----|----------|----------|----------|-------
  1 |          |           |        0 |        0 | i  |  2, 1, 0 |||
  2 |          |           |   2.7404 |        0 | i  |  2, 3, 0 |||
  3 |          |           |   21.644 |        0 | i  |  2, 4, 0 |||
  4 |          |           |   9.6613 |        0 | i  |  2, 5, 0 |||
  5 |          |           |   6.6543 |        0 | i  |  2, 7, 0 |||
  6 |          |           |   6.0961 |        0 | i  |  2, 8, 0 |||
  7 |          |           |   5.7282 |        0 | i  |  2, 9, 0 |||
  8 |          |           |   7.0409 |        0 | i  |  2,11, 0 |||
  9 |          |           |  -1.3671 |        0 | i  |  2,12, 0 |||
 10 |          |           |  -1.9816 |        0 | i  |  2,13, 0 |||
 11 |          |           |  0.67843 |        0 | i  |  2,14, 0 |||
 12 |          |           | 0.036723 |        0 | i  |  2,15, 0 |||
 13 |          |           | -0.60981 |        0 | i  |  2,16, 0 |||
 14 |          |           |   1.4689 |        0 | i  |  2,17, 0 |||
 15 |          |           |  -6.0865 |        0 | i  |  2,18, 0 |||
 16 |          |           | -0.77072 |        0 | i  |  2,23, 0 |||
 17 |          |           |  0.26199 |        0 | i  |  2,24, 0 |||
 18 |          |           |   -0.823 |        0 | i  |  2,25, 0 |||
 19 |          |           |        7 |        0 | i  |  2,27, 0 |||
 20 |          |           |    15.82 |        0 | i  |  2,28, 0 |||
 21 |          |           |   150.29 |        0 | i  |  2,19, 0 |||
 22 |          |           |        0 |        0 | i  |  2,20, 0 |||
 23 |          |           |   29.004 |        0 | i  |  2,21, 0 |||
 24 |          |           | 1.8507e-15 |  -0.6523 | h  |  7, 3, 0 |||
 25 |          |           |        1 | 0.033021 | h  |  8, 3, 0 |||
 26 |          |           | 1.8668e-12 | -0.36013 | h  |  7, 4, 0 |||
 27 |          |           |  0.15674 |   1.2894 | h  |  8, 4, 0 |||
 28 |          |           | 1.8036e-05 |  0.58331 | h  |  7, 5, 0 |||
 29 |          |           |        1 |  0.21066 | h  |  8, 5, 0 |||
 30 |          |           | 0.0057402 |  0.53898 | h  |  7, 7, 0 |||
 31 |          |           |  0.05698 |  0.72805 | h  |  8, 7, 0 |||
 32 |          |           | 2.598e-06 |  -0.4371 | h  |  7, 8, 0 |||
 33 |          |           |        1 |  0.92018 | h  |  8, 8, 0 |||
 34 |          |           |  0.99999 |  -0.2731 | h  |  7, 9, 0 |||
 35 |          |           |  0.99952 |  0.59221 | h  |  8, 9, 0 |||
 36 |          |           | 5.3341e-64 | -0.67744 | h  |  7,11, 0 |||
 37 |          |           | 3.019e-63 |  0.30256 | h  |  8,11, 0 |||
 38 |          |           | 9.7976e-65 |  0.90526 | h  |  7,12, 0 |||
 39 |          |           |        1 | -0.51026 | h  |  8,12, 0 |||
 40 |          |           | 1.686e-67 |  0.70305 | h  |  7,13, 0 |||
 41 |          |           |  0.99978 |  -0.5129 | h  |  8,13, 0 |||
 42 |          |           |        1 |  0.37471 | h  |  7,14, 0 |||
 43 |          |           |        1 |  0.20557 | h  |  8,14, 0 |||
 44 |          |           |  0.99997 | -0.36326 | h  |  7,15, 0 |||
 45 |          |           |        1 |  0.84623 | h  |  8,15, 0 |||
 46 |          |           |        1 |  -1.2587 | h  |  7,16, 0 |||
 47 |          |           |        1 | -0.65238 | h  |  8,16, 0 |||
 48 |          |           |        1 |   0.5506 | h  |  7,17, 0 |||
 49 |          |           |        1 |  0.12979 | h  |  8,17, 0 |||
 50 |          |           |   0.7396 |  0.84478 | h  |  7,22, 0 |||
 51 |          |           |  0.31615 | -0.036485 | h  |  8,22, 0 |||
 52 |          |           |  0.30555 | -0.90019 | h  |  7,23, 0 |||
 53 |          |           |  0.33695 |  0.54093 | h  |  8,23, 0 |||
 54 |          |           |  0.45221 | -0.13352 | h  |  7,24, 0 |||
 55 |          |           |  0.53539 |  0.56697 | h  |  8,24, 0 |||
 56 |          |           | 0.0023744 | -0.34616 | h  |  7,26, 0 |||
 57 |          |           |  0.27052 | -0.18631 | h  |  8,26, 0 |||
 58 |          |           |        1 |  0.34689 | h  |  7,27, 0 |||
 59 |          |           |  0.24254 |   1.0569 | h  |  8,27, 0 |||
 60 |          |           |  0.14911 |  -0.8085 | h  | 13,12, 0 |||
 61 |          |           |  0.11123 | -0.15893 | h  | 14,12, 0 |||
 62 |          |           |  0.97826 | -0.30022 | h  | 13,13, 0 |||
 63 |          |           |  0.99802 | 0.0071295 | h  | 14,13, 0 |||
 64 |          |           |  0.19767 | -0.56437 | h  | 13,14, 0 |||
 65 |          |           |  0.61426 |  0.59209 | h  | 14,14, 0 |||
 66 |          |           |  0.99221 |  0.28142 | h  | 13,15, 0 |||
 67 |          |           | 0.097036 |  0.35329 | h  | 14,15, 0 |||
 68 |          |           | 0.088109 |  0.34732 | h  | 13,16, 0 |||
 69 |          |           | 0.0099443 | 0.056449 | h  | 14,16, 0 |||
 70 |          |           |  0.98306 |  0.87411 | o  | 18,14, 0 |||
----|----------|----------|----------|----------|----|----------|----------|----------|-------


connection definition section :

target | site | source:weight
-------|------|------------------------------------------------------------------------------------------------------------
    24 |      |   1:0.055542,   2:-0.053118,   3:-0.97277,   4: -1.2494
    25 |      |   1:   0.783,   2: -0.7678,   3:  1.3248,   4:-0.46604
    26 |      |   1: 0.66324,   2:  0.6333,   3: -1.1735,   4:-0.30884
    27 |      |   1: 0.76675,   2:-0.95887,   3:-0.22403,   4: 0.46623
    28 |      |   1:-0.50063,   2: 0.91905,   3:-0.85006,   4: 0.45265
    29 |      |   1: -1.0135,   2:-0.81758,   3:  1.8258,   4:-0.55649
    30 |      |   1:0.032577,   5:-0.36226,   6:-0.69288,   7: 0.16427
    31 |      |   1:-0.16189,   5:-0.38826,   6: 0.12483,   7:-0.29883
    32 |      |   1:-0.90399,   5:-0.70605,   6:-0.29633,   7: -1.0333
    33 |      |   1:  0.1575,   5: 0.96874,   6: 0.39074,   7: 0.53204
    34 |      |   1: 0.05231,   5: 0.81399,   6: 0.54979,   7: 0.49116
    35 |      |   1: 0.21136,   5: 0.72402,   6: 0.42144,   7:-0.05753
    36 |      |   1: -0.3938,   8:-0.96423,   9:-0.17272,  10:0.076719,  11: -0.1693,  12: -1.0599,  13: 0.72765,  14:  1.0458, 
                 15: 0.16142,  21:-0.93741,  22:-0.046072,  23:0.090388
    37 |      |   1: 0.65094,   8: 0.39962,   9:  0.1859,  10:-0.18036,  11: 0.37786,  12:-0.50483,  13:-0.67667,  14: 0.11692, 
                 15:  0.5665,  21:-0.99353,  22:-0.41234,  23: 0.16444
    38 |      |   1: 0.91317,   8:-0.22357,   9:-0.28546,  10:-0.15331,  11:-0.45736,  12:-0.016422,  13:-0.011659,  14: 0.63495, 
                 15: 0.88878,  21: -1.0048,  22: 0.61784,  23: 0.28907
    39 |      |   1:-0.016054,   8: 0.61578,   9:-0.11134,  10:-0.69409,  11: 0.75899,  12:-0.36325,  13: 0.95061,  14:0.043445, 
                 15:  0.2111,  21: 0.28985,  22: 0.55099,  23: 0.61869
    40 |      |   1: 0.14789,   8: 0.43062,   9:-0.034071,  10:-0.30884,  11:-0.26291,  12:-0.39353,  13:  0.4031,  14: 0.51555, 
                 15: 0.86002,  21:-0.93538,  22:-0.25372,  23:-0.43606
    41 |      |   1:-0.30078,   8:-0.11418,   9: 0.24374,  10: -1.1232,  11: -0.3256,  12:-0.61982,  13: 0.67931,  14: 0.69641, 
                 15:-0.44981,  21: 0.16625,  22:-0.84149,  23:-0.69831
    42 |      |   1: 0.57303,   8: 0.89121,   9: 0.78997,  10: 0.24817,  11: -1.0891,  12:0.073371,  13:-0.11859,  14: 0.18512, 
                 15: 0.54421,  21: 0.62619,  22:  -1.028,  23: -0.1089
    43 |      |   1: 0.69839,   8:0.058646,   9:  0.9343,  10:-0.69182,  11:-0.18866,  12:-0.27086,  13:-0.027474,  14:  1.0591, 
                 15:-0.21195,  21: 0.51785,  22:-0.78892,  23: -0.6056
    44 |      |   1:-0.23395,   8: 0.81859,   9: 0.36114,  10: 0.42438,  11:-0.62174,  12:-0.12706,  13:0.099691,  14:-0.68608, 
                 15: 0.95517,  21: 0.19211,  22:  0.5163,  23:-0.52458
    45 |      |   1: 0.13678,   8:-0.77922,   9:-0.48687,  10:-0.76564,  11: 0.34462,  12:-0.72059,  13: 0.13428,  14: 0.54574, 
                 15:-0.38565,  21: 0.73229,  22:-0.78988,  23: 0.52353
    46 |      |   1:-0.0016578,   8: 0.56341,   9:  1.2004,  10: 0.22491,  11:-0.74401,  12: 0.10581,  13: 0.15571,  14: 0.56391, 
                 15:-0.62819,  21: 0.67706,  22:-0.58533,  23: 0.39071
    47 |      |   1:-0.77311,   8:-0.038036,   9: 0.68748,  10:-0.086991,  11: 0.33279,  12:-0.27625,  13: 0.31254,  14: 0.85414, 
                 15: 0.07974,  21:   0.221,  22:-0.75376,  23: 0.75904
    48 |      |   1:-0.091391,   8: 0.48966,   9:-0.43696,  10:-0.58658,  11:0.015695,  12: 0.60592,  13: 0.70118,  14:0.099962, 
                 15:-0.09398,  21: 0.88233,  22: 0.78265,  23:-0.59558
    49 |      |   1: 0.85651,   8:-0.86505,   9: 0.95352,  10: 0.21445,  11:-0.83268,  12:-0.84423,  13: 0.78831,  14:  0.5412, 
                 15: 0.19724,  21: 0.72233,  22:-0.79314,  23:-0.26015
    50 |      |   1:  -0.192,  16: 0.42414,  17:  0.2599,  18:-0.55642
    51 |      |   1:-0.79152,  16:  1.0278,  17:-0.34811,  18:-0.18021
    52 |      |   1:-0.88244,  16:-0.66908,  17:-0.91492,  18:  0.2391
    53 |      |   1: 0.64706,  16:  1.0828,  17:  1.1252,  18: 0.82391
    54 |      |   1: 0.63591,  16:-0.38856,  17: 0.39215,  18: 0.55948
    55 |      |   1: 0.45388,  16:-0.26547,  17: -1.0901,  18: 0.41823
    56 |      |   1: 0.26125,  19:-0.56437,  20:-0.11023
    57 |      |   1:-0.26887,  19:  0.2222,  20:-0.14924
    58 |      |   1:  0.1171,  19: 0.55327,  20:  0.7936
    59 |      |   1:  0.8658,  19: 0.79796,  20:-0.49188
    60 |      |  24: 0.69172,  25:-0.78347,  26:  0.7792,  27: 0.89716,  28:  1.0397,  29:0.029996,  30:-0.33415,  31:  1.1226, 
                 32:0.044516,  33: 0.20745,  34:0.059721,  35: 0.77959,  36: 0.48317,  37:-0.23205,  38: 0.39779,  39:-0.76778, 
                 40: 0.31955,  41:-0.95104,  42: 0.20163,  43:-0.96715,  44:-0.12904,  45: 0.94755,  46:-0.20375,  47: -1.0064, 
                 48:   0.406,  49: 0.17921,  50: 0.47722,  51: 0.52887,  52:-0.35814,  53: 0.86729,  54: 0.22588,  55:-0.59315, 
                 56: -0.7912,  57:-0.075891,  58: 0.63603,  59:-0.98659
    61 |      |  24: 0.88454,  25: 0.83565,  26:-0.051402,  27:  0.1872,  28:0.075255,  29:-0.30252,  30:-0.59732,  31: 0.90791, 
                 32:-0.97733,  33:-0.15406,  34:0.042834,  35:-0.84558,  36: 0.98084,  37:  0.1694,  38:0.061489,  39: 0.85425, 
                 40:-0.89023,  41:0.079805,  42: 0.46831,  43:-0.26942,  44:-0.50444,  45:-0.22677,  46: 0.25328,  47:-0.58314, 
                 48:-0.87197,  49: 0.52633,  50:-0.38468,  51:0.084215,  52:0.085767,  53:-0.33955,  54: 0.14524,  55:0.020422, 
                 56: -0.4199,  57:-0.89934,  58:-0.93003,  59: 0.59346
    62 |      |  24:-0.48009,  25: 0.54865,  26:-0.15264,  27: 0.30909,  28:-0.44152,  29: 0.12253,  30: 0.28351,  31: 0.77951, 
                 32:-0.87121,  33: 0.15032,  34: 0.81256,  35: 0.16722,  36:-0.37505,  37:-0.39703,  38: 0.69963,  39: 0.49092, 
                 40:  0.8489,  41:-0.85392,  42: 0.58104,  43: 0.32569,  44:-0.16468,  45:-0.28877,  46:-0.59227,  47: 0.51139, 
                 48: 0.85756,  49: 0.36907,  50:-0.88921,  51: 0.99766,  52: 0.42526,  53: 0.73988,  54: -0.1942,  55: 0.86807, 
                 56: 0.11867,  57: 0.63716,  58: 0.22172,  59: 0.68725
    63 |      |  24:-0.61996,  25: 0.37001,  26:-0.31843,  27: 0.55478,  28: 0.20822,  29: 0.81067,  30:-0.84749,  31: 0.74825, 
                 32: 0.49778,  33: 0.57692,  34: 0.59537,  35: 0.64411,  36:  0.1254,  37:-0.096445,  38:-0.59714,  39: 0.77411, 
                 40: 0.29745,  41: 0.85454,  42: 0.61019,  43:-0.34362,  44: 0.86863,  45: 0.52684,  46:-0.90816,  47: 0.50787, 
                 48:-0.70097,  49: 0.98137,  50:-0.37626,  51: 0.88135,  52:  0.1427,  53: -0.7357,  54:-0.49524,  55: 0.52954, 
                 56: 0.65702,  57: 0.17355,  58:0.055046,  59:-0.15506
    64 |      |  24: 0.16971,  25:-0.29686,  26:-0.36781,  27: 0.14404,  28:-0.71686,  29:-0.83934,  30:  1.1382,  31: 0.32898, 
                 32:-0.40188,  33: 0.87855,  34: -0.5892,  35:-0.48311,  36: 0.46371,  37:0.013134,  38:-0.56078,  39:-0.29969, 
                 40: 0.24013,  41: 0.71696,  42: 0.18228,  43:0.037327,  44:-0.59564,  45:0.049169,  46:-0.85108,  47: -0.3941, 
                 48: 0.51096,  49: 0.95164,  50:-0.57249,  51:-0.30999,  52:-0.13102,  53:0.058631,  54: 0.61539,  55:  1.1594, 
                 56: 0.76839,  57:-0.87273,  58:-0.20143,  59: 0.89056
    65 |      |  24:-0.49938,  25:-0.049985,  26:-0.52195,  27: -1.3479,  28: 0.02831,  29: 0.22336,  30:0.058411,  31: -1.2179, 
                 32:-0.018185,  33: -0.6866,  34: 0.51883,  35: 0.11869,  36:0.056531,  37:-0.72977,  38: 0.13458,  39:-0.54163, 
                 40:-0.62366,  41:  1.0924,  42: 0.67255,  43:-0.70109,  44:-0.66842,  45:-0.76781,  46:0.068094,  47:  0.3753, 
                 48:  0.9046,  49:-0.43758,  50:-0.17954,  51: 0.73533,  52: 0.35492,  53:-0.27082,  54:   1.022,  55: 0.81152, 
                 56: 0.40265,  57:-0.36482,  58:-0.82799,  59: -0.2256
    66 |      |  24: 0.54823,  25: 0.52332,  26:-0.67787,  27: 0.25888,  28: -1.4396,  29:   1.755,  30:-0.12305,  31:-0.68525, 
                 32: 0.31882,  33:-0.098246,  34: -0.2636,  35:-0.12095,  36:-0.47754,  37:-0.15177,  38:-0.16837,  39:0.019911, 
                 40: 0.48602,  41:-0.61526,  42:-0.11608,  43:-0.35769,  44: 0.46277,  45:-0.60415,  46:  1.3277,  47:  0.9198, 
                 48:-0.65541,  49: 0.91742,  50: 0.40071,  51: 0.14726,  52: 0.81402,  53:  1.2127,  54:-0.34649,  55: 0.32736, 
                 56:-0.37933,  57: 0.35123,  58: 0.40962,  59:-0.21724
    67 |      |  24: -1.3262,  25:-0.083585,  26:-0.66029,  27:  1.1321,  28:  1.2595,  29:-0.20746,  30:  1.3574,  31: 0.33583, 
                 32:-0.59892,  33:-0.30321,  34:-0.76359,  35:-0.60884,  36: 0.34536,  37:-0.28953,  38: 0.55981,  39: 0.23587, 
                 40:-0.12814,  41: 0.32131,  42: 0.97567,  43:-0.36072,  44:-0.61608,  45:-0.21153,  46:-0.43389,  47:-0.65247, 
                 48:  0.3784,  49:-0.31499,  50: 0.23098,  51:-0.44266,  52: 0.58629,  53: -1.4234,  54: 0.66169,  55:  0.8314, 
                 56: 0.30387,  57: -1.0227,  58:-0.32602,  59:-0.066786
    68 |      |  24:-0.62941,  25: -1.0848,  26: 0.59473,  27: 0.33023,  28:-0.47226,  29: -1.1421,  30:-0.57298,  31: 0.65012, 
                 32: 0.61257,  33: 0.98099,  34:-0.61269,  35:0.052512,  36: 0.83709,  37:0.058118,  38: 0.65777,  39:-0.68626, 
                 40: 0.75463,  41:-0.93556,  42:  0.8379,  43: 0.71218,  44: 0.47423,  45:-0.60149,  46:-0.02535,  47:  0.4876, 
                 48: -0.7611,  49:-0.31274,  50:-0.15849,  51:-0.54068,  52:  0.1469,  53: -1.0018,  54: 0.74949,  55: 0.66684, 
                 56:-0.84106,  57: 0.29877,  58:-0.25144,  59:-0.39471
    69 |      |  24: 0.23773,  25:-0.60447,  26: 0.11142,  27: 0.12019,  28:-0.28017,  29:-0.69138,  30:-0.023182,  31:  -1.022, 
                 32: 0.95095,  33: 0.51062,  34: 0.75389,  35:-0.86181,  36: 0.41184,  37: 0.66817,  38: 0.66283,  39: -1.0104, 
                 40:-0.22525,  41: 0.35617,  42:-0.62014,  43: 0.36571,  44:-0.66701,  45:-0.087232,  46:-0.42113,  47:-0.50982, 
                 48:-0.26425,  49:-0.80498,  50:-0.34821,  51:-0.80255,  52:0.027635,  53: 0.46797,  54: 0.68047,  55:-0.73819, 
                 56: 0.78458,  57:-0.16401,  58: 0.51157,  59:-0.40499
    70 |      |  60: -1.4895,  61:-0.27484,  62: 0.77139,  63:-0.0053502,  64: -1.0691,  65:  1.1734,  66:  2.5497,  67: -2.5314, 
                 68: -1.1861,  69: 0.14466
-------|------|----------------------------------------------------------------------------------------------------------------
