SNNS network definition file V1.4-3D
generated at Thu May 09 10:11:49 1996

network name : edge_23
source files :
no. of units : 70
no. of connections : 622
no. of unit types : 0
no. of site types : 0


learning function : Std_Backpropagation
update function : Topological_Order


unit default section :

act      | bias     | st | subnet | layer | act func     | out func
---------|----------|----|--------|-------|--------------|-------------
 0.00000 |  0.00000 | h  |      0 |     1 | Act_Logistic | Out_Identity
---------|----------|----|--------|-------|--------------|-------------


unit definition section :

no. | typeName | unitName | act      | bias     | st | position | act func | out func | sites
----|----------|----------|----------|----------|----|----------|----------|----------|-------
  1 |          |           |        0 |        0 | i  |  2, 1, 0 |||
  2 |          |           |   17.203 |        0 | i  |  2, 3, 0 |||
  3 |          |           |   27.857 |        0 | i  |  2, 4, 0 |||
  4 |          |           |       12 |        0 | i  |  2, 5, 0 |||
  5 |          |           |    7.765 |        0 | i  |  2, 7, 0 |||
  6 |          |           |   3.3136 |        0 | i  |  2, 8, 0 |||
  7 |          |           |   8.0688 |        0 | i  |  2, 9, 0 |||
  8 |          |           |   18.612 |        0 | i  |  2,11, 0 |||
  9 |          |           | -0.22361 |        0 | i  |  2,12, 0 |||
 10 |          |           |  -0.3721 |        0 | i  |  2,13, 0 |||
 11 |          |           |  -2.0232 |        0 | i  |  2,14, 0 |||
 12 |          |           |   1.0616 |        0 | i  |  2,15, 0 |||
 13 |          |           | -0.93579 |        0 | i  |  2,16, 0 |||
 14 |          |           | -0.015271 |        0 | i  |  2,17, 0 |||
 15 |          |           |   1.3019 |        0 | i  |  2,18, 0 |||
 16 |          |           |  -4.5711 |        0 | i  |  2,23, 0 |||
 17 |          |           |   5.4568 |        0 | i  |  2,24, 0 |||
 18 |          |           |  -1.4279 |        0 | i  |  2,25, 0 |||
 19 |          |           |   9.7199 |        0 | i  |  2,27, 0 |||
 20 |          |           |  -1.1475 |        0 | i  |  2,28, 0 |||
 21 |          |           |   10.685 |        0 | i  |  2,19, 0 |||
 22 |          |           |   11.599 |        0 | i  |  2,20, 0 |||
 23 |          |           | -0.37811 |        0 | i  |  2,21, 0 |||
 24 |          |           | 8.4676e-13 | -0.011871 | h  |  7, 3, 0 |||
 25 |          |           |  0.99995 | -0.36563 | h  |  8, 3, 0 |||
 26 |          |           | 4.9879e-11 | -0.17587 | h  |  7, 4, 0 |||
 27 |          |           | 1.119e-14 |  0.92777 | h  |  8, 4, 0 |||
 28 |          |           | 2.6678e-06 |   2.2313 | h  |  7, 5, 0 |||
 29 |          |           |  0.99991 | -0.37964 | h  |  8, 5, 0 |||
 30 |          |           |  0.65551 |  0.23836 | h  |  7, 7, 0 |||
 31 |          |           |  0.22595 |  0.39854 | h  |  8, 7, 0 |||
 32 |          |           | 1.6221e-07 | -0.26363 | h  |  7, 8, 0 |||
 33 |          |           |        1 |  0.70815 | h  |  8, 8, 0 |||
 34 |          |           |        1 |  0.15482 | h  |  7, 9, 0 |||
 35 |          |           |  0.99956 |  0.79265 | h  |  8, 9, 0 |||
 36 |          |           | 9.4331e-11 | -0.46614 | h  |  7,11, 0 |||
 37 |          |           | 0.0065768 |  0.47018 | h  |  8,11, 0 |||
 38 |          |           |  0.71656 |  0.93511 | h  |  7,12, 0 |||
 39 |          |           |        1 | -0.65441 | h  |  8,12, 0 |||
 40 |          |           |  0.99959 |  0.18813 | h  |  7,13, 0 |||
 41 |          |           | 4.3111e-06 | -0.40316 | h  |  8,13, 0 |||
 42 |          |           |  0.99991 |   0.3538 | h  |  7,14, 0 |||
 43 |          |           |  0.99999 | -0.23347 | h  |  8,14, 0 |||
 44 |          |           |        1 | -0.93324 | h  |  7,15, 0 |||
 45 |          |           | 4.9372e-08 |    1.346 | h  |  8,15, 0 |||
 46 |          |           |        1 |  -1.3178 | h  |  7,16, 0 |||
 47 |          |           | 4.9232e-10 | -0.81584 | h  |  8,16, 0 |||
 48 |          |           |        1 |  0.64867 | h  |  7,17, 0 |||
 49 |          |           | 2.4223e-13 |  0.21303 | h  |  8,17, 0 |||
 50 |          |           |  0.72969 |  0.89698 | h  |  7,22, 0 |||
 51 |          |           | 0.0012374 |  0.27392 | h  |  8,22, 0 |||
 52 |          |           |  0.25474 |  -1.2941 | h  |  7,23, 0 |||
 53 |          |           |   0.8098 |  0.51488 | h  |  8,23, 0 |||
 54 |          |           |  0.78437 | 0.055044 | h  |  7,24, 0 |||
 55 |          |           |  0.02128 |  0.44148 | h  |  8,24, 0 |||
 56 |          |           | 0.012348 | -0.33441 | h  |  7,26, 0 |||
 57 |          |           |  0.53716 |  -0.3393 | h  |  8,26, 0 |||
 58 |          |           |  0.96452 |  0.28298 | h  |  7,27, 0 |||
 59 |          |           |  0.99979 |   1.0164 | h  |  8,27, 0 |||
 60 |          |           | 0.0022707 |  -1.1256 | h  | 13,12, 0 |||
 61 |          |           |  0.14312 | -0.060456 | h  | 14,12, 0 |||
 62 |          |           |  0.96586 |  -0.5166 | h  | 13,13, 0 |||
 63 |          |           |  0.17925 | -0.10405 | h  | 14,13, 0 |||
 64 |          |           | 0.071624 | -0.70282 | h  | 13,14, 0 |||
 65 |          |           | 0.097519 |  0.62259 | h  | 14,14, 0 |||
 66 |          |           |  0.98701 |  0.26634 | h  | 13,15, 0 |||
 67 |          |           |  0.21302 |  0.30099 | h  | 14,15, 0 |||
 68 |          |           |  0.82019 |  0.42735 | h  | 13,16, 0 |||
 69 |          |           |  0.11471 |  0.07452 | h  | 14,16, 0 |||
 70 |          |           |  0.99038 |  0.62405 | o  | 18,14, 0 |||
----|----------|----------|----------|----------|----|----------|----------|----------|-------


connection definition section :

target | site | source:weight
-------|------|------------------------------------------------------------------------------------------------------------
    24 |      |   1: 0.15171,   2: 0.23356,   3: -0.6076,   4: -1.2398
    25 |      |   1: 0.81656,   2:-0.48883,   3: 0.86925,   4:-0.46532
    26 |      |   1: 0.72025,   2: 0.29468,   3:-0.73387,   4:-0.68098
    27 |      |   1: 0.74814,   2:-0.58087,   3: -1.0013,   4: 0.40284
    28 |      |   1:-0.61035,   2: 0.49682,   3:-0.41735,   4:-0.99887
    29 |      |   1:-0.94592,   2:-0.30531,   3: 0.69572,   4:-0.37214
    30 |      |   1:0.0074349,   5: 0.33714,   6: -0.6102,   7:-0.023656
    31 |      |   1:-0.18624,   5: 0.41587,   6: -0.2523,   7: -0.4986
    32 |      |   1: -0.9019,   5: -0.8834,   6: -0.3227,   7: -0.9223
    33 |      |   1: 0.15737,   5: 0.86882,   6: 0.27927,   7: 0.50672
    34 |      |   1:0.058751,   5: 0.65402,   6: 0.57035,   7: 0.72516
    35 |      |   1: 0.23303,   5: 0.74202,   6: 0.20764,   7:0.059075
    36 |      |   1:-0.52168,   8: -0.6453,   9: 0.14552,  10:0.00021468,  11: 0.14486,  12: -1.0041,  13: 0.41456,  14:  1.0938, 
                 15: 0.27843,  21: -0.8841,  22:0.034413,  23: 0.33492
    37 |      |   1: 0.61333,   8: 0.46713,   9:  0.1001,  10:-0.082647,  11: 0.28025,  12:-0.38868,  13:-0.80649,  14: 0.13106, 
                 15: 0.61628,  21:-0.91081,  22:-0.42607,  23: 0.24283
    38 |      |   1: 0.82448,   8:0.033638,   9:-0.42779,  10:-0.051263,  11:-0.34167,  12: 0.18189,  13:-0.011918,  14: 0.63768, 
                 15:  0.8953,  21:-0.98163,  22: 0.67773,  23: 0.45544
    39 |      |   1:-0.070242,   8: 0.42498,   9:-0.01381,  10:-0.88817,  11:  1.0445,  12:-0.45722,  13: 0.73004,  14: -0.2304, 
                 15: 0.39416,  21: 0.57443,  22: 0.87391,  23: 0.59778
    40 |      |   1: 0.15645,   8: 0.88174,   9: 0.18031,  10:-0.84567,  11:0.058365,  12:-0.27024,  13: 0.48032,  14: 0.51196, 
                 15: 0.69111,  21:-0.86602,  22:0.0010453,  23: -0.3661
    41 |      |   1: -0.3141,   8: -0.1748,   9: 0.37735,  10:-0.75961,  11:-0.38338,  12:-0.77684,  13: 0.56692,  14: 0.49581, 
                 15:-0.36563,  21: 0.42358,  22: -1.0756,  23: -0.3087
    42 |      |   1: 0.50533,   8: 0.73872,   9: 0.95514,  10: 0.22872,  11:-0.75727,  12: 0.14783,  13:-0.35048,  14: 0.21783, 
                 15: 0.46283,  21: 0.53761,  22: -1.1123,  23:-0.036897
    43 |      |   1: 0.69089,   8:  0.4036,   9:  1.1283,  10:-0.69849,  11:-0.42179,  12: -0.2305,  13:-0.040636,  14:  1.0397, 
                 15: 0.04822,  21: 0.85975,  22:-0.47814,  23: -0.3642
    44 |      |   1:-0.17191,   8: 0.84696,   9: 0.52438,  10:-0.17257,  11:-0.63138,  12:-0.17894,  13: 0.14092,  14:-0.92173, 
                 15: 0.76663,  21: 0.70902,  22:  0.4907,  23:-0.27892
    45 |      |   1:  0.1306,   8:-0.49878,   9:-0.82483,  10:-0.37064,  11: 0.57439,  12: -0.5609,  13:-0.09002,  14: 0.96392, 
                 15:-0.47777,  21: 0.16612,  22:-0.72971,  23:  0.5552
    46 |      |   1:0.0065575,   8: 0.79016,   9: 0.99183,  10:-0.18885,  11:-0.91972,  12:-0.31184,  13: 0.37829,  14: 0.62424, 
                 15: -1.0818,  21:  1.2334,  22:-0.049183,  23: 0.37922
    47 |      |   1:-0.67365,   8:-0.65192,   9:   0.594,  10:-0.38183,  11: 0.38862,  12:-0.39304,  13: 0.16546,  14:  1.1064, 
                 15:-0.97602,  21: 0.11901,  22:-0.59243,  23: 0.65057
    48 |      |   1:-0.12815,   8: 0.54542,   9:-0.43163,  10:-0.40431,  11:0.084806,  12:  0.5808,  13: 0.70082,  14:0.055896, 
                 15:-0.04293,  21:  1.0135,  22: 0.80558,  23:-0.57332
    49 |      |   1: 0.88718,   8: -1.0929,   9: 0.89646,  10:0.058729,  11:-0.71438,  12:-0.89319,  13:  1.0769,  14: 0.54294, 
                 15: 0.53181,  21: 0.19867,  22:-0.96124,  23:-0.40807
    50 |      |   1:-0.19877,  16: 0.42315,  17: 0.24804,  18:-0.47399
    51 |      |   1:-0.75268,  16: 0.63494,  17:-0.80954,  18:-0.24683
    52 |      |   1: -0.8692,  16:-0.61381,  17:-0.50929,  18:-0.13581
    53 |      |   1: 0.82983,  16: 0.68364,  17: 0.91932,  18: 0.67067
    54 |      |   1:  0.5278,  16: 0.12369,  17: 0.60207,  18:  1.0391
    55 |      |   1: 0.41731,  16:-0.27978,  17:-0.85871,  18: 0.60441
    56 |      |   1: 0.22846,  19:-0.43963,  20:-0.19679
    57 |      |   1:-0.16805,  19:0.038764,  20:-0.097124
    58 |      |   1:  0.1972,  19: 0.40972,  20: 0.83905
    59 |      |   1: 0.80073,  19: 0.70701,  20:-0.51712
    60 |      |  24:  1.3532,  25: -1.1111,  26:  1.2028,  27: 0.85067,  28:  1.8134,  29:-0.36299,  30:-0.42646,  31: 0.83884, 
                 32:-0.13246,  33:0.045835,  34:-0.068958,  35: 0.69341,  36: 0.17063,  37:-0.11023,  38: 0.35485,  39: -1.3748, 
                 40: 0.04219,  41:-0.84062,  42:-0.25291,  43: -1.2036,  44:-0.94922,  45:  1.2168,  46:-0.92983,  47:-0.99431, 
                 48: 0.38766,  49:-0.43605,  50: 0.13645,  51: 0.56052,  52:-0.39151,  53: 0.70959,  54: 0.15063,  55:-0.30325, 
                 56:-0.86891,  57:-0.21094,  58: 0.41359,  59: -1.0007
    61 |      |  24:   1.133,  25:  0.8084,  26: 0.13239,  27: 0.26385,  28: 0.41146,  29:-0.33257,  30:-0.54187,  31: 0.95257, 
                 32:-0.97709,  33:-0.037035,  34: 0.15083,  35:-0.71398,  36: 0.95866,  37: 0.32198,  38:0.083782,  39: 0.80377, 
                 40:-0.86033,  41: 0.17205,  42: 0.53121,  43:-0.18186,  44: -0.4866,  45:-0.12009,  46: 0.28191,  47:-0.44573, 
                 48: -0.8342,  49:  0.4979,  50:-0.32002,  51: 0.19503,  52:0.098878,  53:-0.22892,  54: 0.27498,  55: 0.13641, 
                 56:-0.38529,  57: -0.8557,  58:-0.87455,  59: 0.70147
    62 |      |  24:-0.85543,  25: 0.53351,  26:-0.43228,  27: 0.16167,  28:-0.93517,  29:0.095262,  30: 0.12316,  31: 0.61959, 
                 32:-0.97388,  33:-0.013166,  34:  0.6967,  35:-0.029874,  36: -0.3871,  37:-0.63478,  38: 0.62877,  39: 0.50531, 
                 40: 0.67337,  41:-0.95429,  42: 0.39603,  43: 0.19898,  44:-0.34595,  45:-0.35182,  46:-0.61882,  47: 0.35032, 
                 48: 0.76464,  49: 0.33047,  50:-0.97917,  51: 0.78996,  52: 0.33327,  53: 0.59697,  54:-0.41672,  55: 0.58526, 
                 56: 0.10283,  57: 0.51761,  58:0.072209,  59:  0.4472
    63 |      |  24: -0.4648,  25: 0.31734,  26:-0.20776,  27: 0.68078,  28: 0.40886,  29: 0.68096,  30:-0.80437,  31: 0.83134, 
                 32: 0.55832,  33: 0.42669,  34: 0.42499,  35: 0.50658,  36: 0.18557,  37:-0.0077708,  38:-0.61747,  39: 0.45829, 
                 40: 0.12665,  41: 0.89763,  42: 0.39145,  43:-0.52389,  44: 0.55738,  45: 0.65858,  46: -1.2049,  47: 0.58886, 
                 48:-0.90015,  49: 0.99252,  50:-0.46537,  51: 0.98359,  52: 0.14468,  53:-0.88071,  54:-0.65985,  55: 0.64103, 
                 56: 0.70911,  57:0.054415,  58:-0.12258,  59: -0.2976
    64 |      |  24: 0.48055,  25:-0.48215,  26:-0.25224,  27:-0.081622,  28:-0.35552,  29:-0.96869,  30:  1.0374,  31: 0.19751, 
                 32:-0.46178,  33: 0.79072,  34:-0.60415,  35:-0.49536,  36: 0.20651,  37: 0.17912,  38: -0.7899,  39:-0.32292, 
                 40: 0.21015,  41:  0.8361,  42: 0.15362,  43: 0.18942,  44:-0.61774,  45:0.0015358,  46:-0.81269,  47:-0.29128, 
                 48: 0.47979,  49: 0.64765,  50: -0.7308,  51:-0.28489,  52:-0.19628,  53: 0.17433,  54: 0.79605,  55:  1.1893, 
                 56: 0.66166,  57:-0.86363,  58:-0.25976,  59: 0.95993
    65 |      |  24:-0.62874,  25:-0.068648,  26:-0.48661,  27:-0.98418,  28:-0.12058,  29: 0.13614,  30: 0.30908,  31:-0.95528, 
                 32: 0.15261,  33:-0.79841,  34: 0.29361,  35:-0.058466,  36: 0.19916,  37:-0.84397,  38: 0.24307,  39:-0.62686, 
                 40:-0.55516,  41: 0.81707,  42: 0.58925,  43:-0.90908,  44:-0.80673,  45:-0.91316,  46:-0.068806,  47: 0.13244, 
                 48: 0.79626,  49:-0.30983,  50:-0.19192,  51: 0.67998,  52: 0.43067,  53:-0.40394,  54: 0.91374,  55: 0.86586, 
                 56: 0.43385,  57:-0.37967,  58:-0.82675,  59:-0.30898
    66 |      |  24:-0.19052,  25: 0.15169,  26:-0.80972,  27:  0.3509,  28: -2.1245,  29:  1.2557,  30:-0.25331,  31:-0.73156, 
                 32: 0.24024,  33:-0.12726,  34:-0.27942,  35:-0.26524,  36:-0.11368,  37:-0.15422,  38:-0.034973,  39: 0.80618, 
                 40: 0.91282,  41:-0.63219,  42:-0.25155,  43:-0.29028,  44: 0.65717,  45:-0.78666,  46:  1.4067,  47:  0.7899, 
                 48:-0.63492,  49: 0.95668,  50: 0.24555,  51:-0.45639,  52: 0.99397,  53: 0.92977,  54: -0.3885,  55:0.022272, 
                 56:-0.20388,  57: 0.42858,  58: 0.22463,  59:-0.24464
    67 |      |  24:-0.44782,  25:0.0050409,  26:-0.38399,  27: 0.54288,  28:  1.6029,  29:-0.067385,  30:  1.0048,  31:-0.0065808, 
                 32:-0.69328,  33:-0.30299,  34:-0.52369,  35: -0.4589,  36: 0.25881,  37: 0.22848,  38: 0.60595,  39: 0.07183, 
                 40:-0.19245,  41: 0.46118,  42: 0.75854,  43:-0.38073,  44:-0.57682,  45:-0.18256,  46:-0.56012,  47:-0.28895, 
                 48: 0.10263,  49:-0.87074,  50: 0.25345,  51:-0.14935,  52:  0.3249,  53:-0.95276,  54: 0.89722,  55: 0.68097, 
                 56: 0.38266,  57:-0.89327,  58:-0.53514,  59: 0.20123
    68 |      |  24:-0.71799,  25:-0.88199,  26: 0.36656,  27:  0.0137,  28:-0.78094,  29:-0.81401,  30:-0.68295,  31: 0.50164, 
                 32:  0.6737,  33: 0.90134,  34:-0.54365,  35:0.0080199,  36: 0.83351,  37:  0.1078,  38: 0.64794,  39:-0.27333, 
                 40: 0.83126,  41:-0.76561,  42: 0.89771,  43: 0.92348,  44: 0.62815,  45:-0.53341,  46: 0.27649,  47: 0.64477, 
                 48:-0.59847,  49:-0.44571,  50:-0.13398,  51:-0.59223,  52: 0.19366,  53: -0.9015,  54: 0.83476,  55: 0.55471, 
                 56:-0.82712,  57: 0.36589,  58:-0.16931,  59:-0.30551
    69 |      |  24: 0.13325,  25:-0.61253,  26:0.060175,  27:0.080057,  28:-0.34168,  29:-0.68891,  30:-0.066158,  31:  -1.076, 
                 32: 0.89166,  33: 0.57184,  34: 0.81943,  35:-0.81853,  36: 0.39843,  37: 0.60888,  38: 0.69219,  39:-0.93281, 
                 40: -0.1493,  41: 0.34555,  42:-0.55829,  43: 0.39204,  44:-0.59708,  45:-0.15038,  46:-0.36165,  47:-0.57577, 
                 48:-0.17103,  49:-0.80445,  50:-0.34084,  51:-0.87767,  52:0.041585,  53: 0.44571,  54: 0.71422,  55: -0.7664, 
                 56: 0.76195,  57:-0.16197,  58: 0.55176,  59:-0.34555
    70 |      |  60: -3.0721,  61:-0.61516,  62:  1.0201,  63:-0.92448,  64: -1.1038,  65: 0.40072,  66:  3.1333,  67: -1.3425, 
                 68: 0.61401,  69: 0.13524
-------|------|----------------------------------------------------------------------------------------------------------------
