SNNS network definition file V1.4-3D
generated at Thu May 09 10:11:49 1996

network name : edge_23
source files :
no. of units : 70
no. of connections : 622
no. of unit types : 0
no. of site types : 0


learning function : Std_Backpropagation
update function : Topological_Order


unit default section :

act      | bias     | st | subnet | layer | act func     | out func
---------|----------|----|--------|-------|--------------|-------------
 0.00000 |  0.00000 | h  |      0 |     1 | Act_Logistic | Out_Identity
---------|----------|----|--------|-------|--------------|-------------


unit definition section :

no. | typeName | unitName | act      | bias     | st | position | act func | out func | sites
----|----------|----------|----------|----------|----|----------|----------|----------|-------
  1 |          |           |  0.22361 |        0 | i  |  2, 1, 0 |||
  2 |          |           |  0.76365 |        0 | i  |  2, 3, 0 |||
  3 |          |           |  0.22361 |        0 | i  |  2, 4, 0 |||
  4 |          |           |  0.32444 |        0 | i  |  2, 5, 0 |||
  5 |          |           |   1.7012 |        0 | i  |  2, 7, 0 |||
  6 |          |           |        0 |        0 | i  |  2, 8, 0 |||
  7 |          |           |  0.32444 |        0 | i  |  2, 9, 0 |||
  8 |          |           |   0.6049 |        0 | i  |  2,11, 0 |||
  9 |          |           |  0.92013 |        0 | i  |  2,12, 0 |||
 10 |          |           |  0.01709 |        0 | i  |  2,13, 0 |||
 11 |          |           |  0.71391 |        0 | i  |  2,14, 0 |||
 12 |          |           |  -1.5475 |        0 | i  |  2,15, 0 |||
 13 |          |           |   3.0298 |        0 | i  |  2,16, 0 |||
 14 |          |           |   2.6292 |        0 | i  |  2,17, 0 |||
 15 |          |           | -0.48028 |        0 | i  |  2,18, 0 |||
 16 |          |           |  0.76575 |        0 | i  |  2,23, 0 |||
 17 |          |           |   0.2244 |        0 | i  |  2,24, 0 |||
 18 |          |           |  -1.1369 |        0 | i  |  2,25, 0 |||
 19 |          |           | -0.81111 |        0 | i  |  2,27, 0 |||
 20 |          |           | -0.64799 |        0 | i  |  2,28, 0 |||
 21 |          |           | -0.60881 |        0 | i  |  2,19, 0 |||
 22 |          |           | -0.94812 |        0 | i  |  2,20, 0 |||
 23 |          |           | -0.88524 |        0 | i  |  2,21, 0 |||
 24 |          |           |  0.25578 | -0.88083 | h  |  7, 3, 0 |||
 25 |          |           |  0.34798 | 0.056272 | h  |  8, 3, 0 |||
 26 |          |           |  0.42457 | -0.64079 | h  |  7, 4, 0 |||
 27 |          |           |  0.68154 |  0.93851 | h  |  8, 4, 0 |||
 28 |          |           |  0.79635 |   1.4143 | h  |  7, 5, 0 |||
 29 |          |           |  0.20298 | -0.49987 | h  |  8, 5, 0 |||
 30 |          |           |  0.90234 |  0.67238 | h  |  7, 7, 0 |||
 31 |          |           |  0.71945 |  0.66571 | h  |  8, 7, 0 |||
 32 |          |           | 0.034342 | -0.57653 | h  |  7, 8, 0 |||
 33 |          |           |  0.88406 |  0.61525 | h  |  8, 8, 0 |||
 34 |          |           |  0.62124 | -0.16184 | h  |  7, 9, 0 |||
 35 |          |           |  0.72998 |  0.59764 | h  |  8, 9, 0 |||
 36 |          |           |  0.99191 | -0.51869 | h  |  7,11, 0 |||
 37 |          |           |  0.71665 |  0.38464 | h  |  8,11, 0 |||
 38 |          |           |  0.91932 |   1.1292 | h  |  7,12, 0 |||
 39 |          |           |  0.91296 | -0.43527 | h  |  8,12, 0 |||
 40 |          |           |  0.99401 |  0.53482 | h  |  7,13, 0 |||
 41 |          |           |  0.99563 | -0.13334 | h  |  8,13, 0 |||
 42 |          |           |  0.95512 | 0.024271 | h  |  7,14, 0 |||
 43 |          |           |  0.98736 | 0.014484 | h  |  8,14, 0 |||
 44 |          |           | 0.011392 | -0.82315 | h  |  7,15, 0 |||
 45 |          |           |  0.99339 |   1.1265 | h  |  8,15, 0 |||
 46 |          |           |  0.90613 |  -1.2699 | h  |  7,16, 0 |||
 47 |          |           |  0.99433 |  -1.0722 | h  |  8,16, 0 |||
 48 |          |           |  0.58094 |  0.64409 | h  |  7,17, 0 |||
 49 |          |           |   0.9924 |  0.26455 | h  |  8,17, 0 |||
 50 |          |           |  0.87251 |  0.79813 | h  |  7,22, 0 |||
 51 |          |           |  0.66159 | -0.038617 | h  |  8,22, 0 |||
 52 |          |           | 0.068927 |  -1.0504 | h  |  7,23, 0 |||
 53 |          |           |  0.66817 |  0.57731 | h  |  8,23, 0 |||
 54 |          |           |   0.3457 | -0.097895 | h  |  7,24, 0 |||
 55 |          |           |  0.40614 |  0.61848 | h  |  8,24, 0 |||
 56 |          |           |  0.49358 | -0.28176 | h  |  7,26, 0 |||
 57 |          |           |  0.40803 | -0.45271 | h  |  8,26, 0 |||
 58 |          |           |  0.38981 |  0.29938 | h  |  7,27, 0 |||
 59 |          |           |  0.66681 |   1.0532 | h  |  8,27, 0 |||
 60 |          |           |  0.57978 | -0.86742 | h  | 13,12, 0 |||
 61 |          |           |  0.95341 | 0.089706 | h  | 14,12, 0 |||
 62 |          |           |  0.97981 | -0.35968 | h  | 13,13, 0 |||
 63 |          |           |  0.96816 | -0.073588 | h  | 14,13, 0 |||
 64 |          |           |  0.88652 | -0.52377 | h  | 13,14, 0 |||
 65 |          |           | 0.030425 |  0.57437 | h  | 14,14, 0 |||
 66 |          |           |  0.44018 |  0.33606 | h  | 13,15, 0 |||
 67 |          |           |  0.71616 | 0.013624 | h  | 14,15, 0 |||
 68 |          |           |  0.88636 |    0.464 | h  | 13,16, 0 |||
 69 |          |           |  0.15684 |  0.14343 | h  | 14,16, 0 |||
 70 |          |           | 0.033823 |  0.41336 | o  | 18,14, 0 |||
----|----------|----------|----------|----------|----|----------|----------|----------|-------


connection definition section :

target | site | source:weight
-------|------|------------------------------------------------------------------------------------------------------------
    24 |      |   1:0.015277,   2:  0.5188,   3:-0.99282,   4: -1.1243
    25 |      |   1: 0.92752,   2: -1.0145,   3: 0.74705,   4:-0.87526
    26 |      |   1: 0.55137,   2: 0.78612,   3:-0.98995,   4:-0.51017
    27 |      |   1: 0.82413,   2:-0.49017,   3: -1.0274,   4:  0.7462
    28 |      |   1:-0.57936,   2: 0.30209,   3: -1.3818,   4:  0.4844
    29 |      |   1:-0.98706,   2:-0.95024,   3:  1.4863,   4: -0.7826
    30 |      |   1: 0.14665,   5: 0.87183,   6: -1.4959,   7: 0.10849
    31 |      |   1:0.019571,   5: 0.24974,   6:-0.52984,   7:-0.47218
    32 |      |   1: -1.0076,   5: -1.2794,   6:-0.24318,   7: -1.1038
    33 |      |   1: 0.13584,   5: 0.70961,   6: 0.58167,   7: 0.55051
    34 |      |   1:-0.034005,   5: 0.29844,   6:  0.4209,   7: 0.48248
    35 |      |   1: 0.21506,   5:  0.2034,   6: 0.56331,   7:0.0085608
    36 |      |   1:-0.47319,   8:-0.68971,   9:-0.10195,  10:-0.12889,  11: -0.1304,  12: -1.3011,  13: 0.43055,  14: 0.83819, 
                 15:  0.2035,  21: -1.1537,  22:-0.029425,  23: 0.12851
    37 |      |   1: 0.67137,   8: 0.39243,   9: 0.17068,  10:-0.28834,  11: 0.30876,  12:-0.63293,  13:-0.72489,  14: 0.21267, 
                 15: 0.55481,  21:-0.88435,  22:-0.45703,  23: 0.29862
    38 |      |   1: 0.89243,   8: 0.20376,   9:-0.51583,  10: 0.18422,  11:-0.36195,  12:-0.22712,  13:  0.1627,  14: 0.59731, 
                 15: 0.69114,  21:-0.77815,  22: 0.46388,  23: 0.45844
    39 |      |   1:0.061744,   8: 0.52035,   9:-0.08305,  10:-0.56133,  11: 0.77242,  12:-0.47898,  13: 0.92585,  14:-0.0020146, 
                 15: 0.23748,  21: 0.42778,  22: 0.62687,  23: 0.65596
    40 |      |   1:0.085016,   8: 0.86339,   9: 0.17834,  10:-0.40771,  11: 0.15206,  12:-0.25095,  13: 0.35542,  14: 0.53369, 
                 15: 0.81504,  21:-0.91308,  22: -0.3818,  23:-0.42338
    41 |      |   1:-0.16647,   8:-0.14257,   9: 0.12276,  10:-0.62723,  11:-0.86882,  12:-0.95773,  13: 0.26845,  14:   0.874, 
                 15:-0.63861,  21:-0.019114,  22:-0.93933,  23:-0.45234
    42 |      |   1: 0.60389,   8:  1.4184,   9:  1.1069,  10:0.076623,  11:-0.88442,  12:0.036557,  13:-0.070953,  14: 0.49186, 
                 15: 0.51842,  21: 0.36497,  22: -1.0458,  23:-0.12444
    43 |      |   1:   0.664,   8:0.078762,   9:  1.0371,  10: -1.0071,  11:-0.21921,  12:-0.30508,  13:0.045508,  14: 0.83525, 
                 15:-0.12551,  21: 0.75269,  22:-0.73255,  23: -0.2987
    44 |      |   1:-0.25752,   8:   0.396,   9: 0.28742,  10:-0.51931,  11:-0.64484,  12: 0.82776,  13:  0.5503,  14:-0.98331, 
                 15:  1.1926,  21: 0.62929,  22: 0.72326,  23:-0.25212
    45 |      |   1: 0.35858,   8:-0.87066,   9:-0.40379,  10:-0.54139,  11: 0.24746,  12: -1.1159,  13: 0.47111,  14: 0.36013, 
                 15:-0.60069,  21: 0.42935,  22:-0.79199,  23: 0.38759
    46 |      |   1:-0.055576,   8:-0.0033776,   9:  1.1789,  10: 0.58753,  11:-0.25819,  12:0.045445,  13:  0.3419,  14: 0.57745, 
                 15:-0.65699,  21:  0.6021,  22:-0.52063,  23: 0.32214
    47 |      |   1: -1.0256,   8: -1.0245,   9: 0.96405,  10:-0.23284,  11: 0.70846,  12:-0.097719,  13:   1.347,  14: 0.52378, 
                 15: 0.36439,  21:-0.10447,  22:-0.72618,  23: 0.54958
    48 |      |   1:-0.0078949,   8: 0.49245,   9:-0.41109,  10:-0.55195,  11:0.028038,  12: 0.55535,  13: 0.47733,  14:0.041866, 
                 15:-0.084945,  21:  1.0113,  22: 0.84398,  23: -0.4883
    49 |      |   1: 0.90435,   8:-0.97204,   9: 0.81478,  10:0.094279,  11:-0.95399,  12:-0.48549,  13: 0.80009,  14: 0.42792, 
                 15:  0.1937,  21: 0.66798,  22:-0.68676,  23:-0.53216
    50 |      |   1: -0.1516,  16: 0.60014,  17: 0.18994,  18:-0.57784
    51 |      |   1:-0.72069,  16: 0.95959,  17:-0.50651,  18:-0.21904
    52 |      |   1:-0.96815,  16:-0.80369,  17:-0.65732,  18: 0.50438
    53 |      |   1: 0.76595,  16:  1.2527,  17:  1.1181,  18:  1.1072
    54 |      |   1: 0.59061,  16:-0.25211,  17: 0.68116,  18: 0.55586
    55 |      |   1: 0.46074,  16:-0.099153,  17:-0.91104,  18: 0.72222
    56 |      |   1: 0.21259,  19:-0.33969,  20: 0.10338
    57 |      |   1:-0.36777,  19: 0.27246,  20: -0.5923
    58 |      |   1:  0.1533,  19: 0.43702,  20: 0.65942
    59 |      |   1: 0.86371,  19: 0.99765,  20:-0.39608
    60 |      |  24: 0.62104,  25:-0.61659,  26: 0.60376,  27: 0.61114,  28:  1.0569,  29:0.042139,  30:-0.52201,  31: 0.80301, 
                 32:-0.17092,  33: 0.26663,  34: 0.24036,  35: 0.84365,  36: 0.24518,  37:-0.0015344,  38:  0.5993,  39:-0.76115, 
                 40: 0.21462,  41:-0.78259,  42: 0.18712,  43: -1.0171,  44:-0.29966,  45:  1.1047,  46:-0.31972,  47:   -1.12, 
                 48: 0.50907,  49:-0.30156,  50:  0.4144,  51:  0.3398,  52:-0.48459,  53: 0.88981,  54: 0.32878,  55:-0.68404, 
                 56:-0.72277,  57:-0.092745,  58: 0.53944,  59:-0.85884
    61 |      |  24: 0.85547,  25:  1.2015,  26:-0.12402,  27: 0.20946,  28:0.084583,  29:-0.047559,  30:-0.50854,  31: 0.89377, 
                 32: -1.0208,  33: 0.12796,  34: 0.32562,  35:-0.60463,  36:  1.0247,  37: 0.34229,  38: 0.37199,  39: 0.91921, 
                 40:-0.81367,  41: 0.26469,  42: 0.71673,  43: -0.1766,  44:-0.40274,  45:0.028002,  46: 0.32551,  47: -0.5332, 
                 48:-0.68813,  49: 0.64703,  50:-0.22976,  51: 0.12754,  52: 0.12531,  53:-0.19363,  54: 0.31958,  55:0.098783, 
                 56:-0.31363,  57:-0.79644,  58:-0.79932,  59: 0.84054
    62 |      |  24:-0.54564,  25: 0.47376,  26:-0.14014,  27: 0.27487,  28:-0.43625,  29:0.036079,  30: 0.24106,  31: 0.74476, 
                 32:-0.93273,  33: 0.15694,  34: 0.80663,  35: 0.16421,  36:-0.37707,  37:-0.43122,  38: 0.68018,  39: 0.42703, 
                 40: 0.85823,  41:-0.85569,  42: 0.57496,  43: 0.32154,  44:-0.22212,  45:-0.34074,  46:-0.61625,  47: 0.46908, 
                 48: 0.83716,  49: 0.36429,  50:-0.95508,  51: 0.93291,  52: 0.46405,  53: 0.63995,  54:-0.23279,  55: 0.88218, 
                 56:  0.1137,  57: 0.61987,  58: 0.16546,  59: 0.65696
    63 |      |  24:-0.69606,  25: 0.46345,  26:-0.42408,  27: 0.64325,  28: 0.16504,  29: 0.78614,  30: -0.8307,  31: 0.72877, 
                 32: 0.44238,  33: 0.54105,  34:  0.5505,  35: 0.58855,  36: 0.11077,  37:-0.12776,  38:-0.59216,  39: 0.72884, 
                 40: 0.15926,  41: 0.85888,  42: 0.49038,  43:-0.43089,  44: 0.72451,  45: 0.63869,  46:-0.98893,  47: 0.48589, 
                 48:-0.75151,  49:  1.0001,  50:-0.44182,  51: 0.82707,  52:0.075972,  53:-0.75548,  54:-0.50984,  55: 0.50554, 
                 56: 0.64218,  57: 0.10099,  58:0.029089,  59:-0.18941
    64 |      |  24:0.0017943,  25: 0.33502,  26:-0.76951,  27:   -0.29,  28: -1.0142,  29:-0.38606,  30:  1.1834,  31: 0.16209, 
                 32:-0.58346,  33:  1.0561,  34: -0.3367,  35:-0.36484,  36: 0.36778,  37: 0.31814,  38: -0.2168,  39:-0.43951, 
                 40: 0.14534,  41: 0.93296,  42: 0.48363,  43:0.092282,  44:-0.63761,  45:  0.2651,  46:-0.86467,  47:-0.50921, 
                 48: 0.53798,  49: 0.88516,  50:-0.67883,  51:-0.56393,  52:-0.093513,  53: 0.10405,  54: 0.85498,  55:  1.0047, 
                 56: 0.81415,  57:-0.86201,  58:-0.23009,  59:  1.0687
    65 |      |  24: -0.3897,  25:-0.31154,  26:-0.27955,  27:-0.97001,  28: 0.17744,  29:0.020936,  30: 0.31372,  31:-0.84818, 
                 32: 0.28441,  33:-0.93867,  34: 0.14747,  35:-0.15387,  36: 0.25209,  37:-0.76937,  38: 0.12441,  39:-0.81528, 
                 40:-0.62567,  41: 0.80119,  42: 0.42292,  43:-0.97272,  44:-0.90193,  45:-0.95527,  46:-0.21653,  47:  0.2345, 
                 48: 0.65409,  49:-0.41047,  50:-0.15742,  51: 0.78145,  52: 0.41734,  53:-0.33003,  54: 0.96237,  55: 0.80752, 
                 56: 0.46244,  57:-0.38953,  58:-0.96118,  59:-0.46086
    66 |      |  24: 0.56588,  25:0.070815,  26:-0.19343,  27:-0.17855,  28: -1.5365,  29:  1.4831,  30:  -1.223,  31: -1.3735, 
                 32: 0.12753,  33: 0.29929,  34:  0.3025,  35: 0.32931,  36:-0.44668,  37:-0.41296,  38:-0.26891,  39: 0.21582, 
                 40: 0.65201,  41:-0.90445,  42:-0.62283,  43:-0.20134,  44: 0.89266,  45:-0.88917,  46:  1.1414,  47:  1.2526, 
                 48:-0.36207,  49: 0.69806,  50: 0.43552,  51:0.098183,  52: 0.90858,  53:  1.5271,  54:-0.21552,  55: 0.27297, 
                 56:-0.38969,  57: 0.69295,  58: 0.24152,  59:-0.041611
    67 |      |  24: -0.8837,  25:-0.41064,  26:-0.54748,  27:  1.2234,  28:  1.7558,  29: -1.0482,  30:  2.1995,  31:  0.6168, 
                 32:-0.96717,  33:-0.51379,  34: -1.0507,  35:-0.92079,  36: 0.36195,  37: 0.18225,  38: 0.67097,  39: 0.14477, 
                 40:-0.27753,  41: 0.78275,  42:   1.027,  43:-0.48183,  44: -1.4714,  45: 0.31264,  46:-0.53836,  47: -1.1771, 
                 48:-0.13309,  49:-0.58259,  50:0.097822,  51:-0.47052,  52: 0.10287,  53: -1.6185,  54: 0.47816,  55: 0.57476, 
                 56: 0.33609,  57: -1.2948,  58:-0.34419,  59:0.072837
    68 |      |  24:-0.48284,  25:  -1.055,  26: 0.57786,  27: 0.18731,  28:-0.38599,  29:-0.93906,  30:-0.73713,  31: 0.54666, 
                 32: 0.74545,  33:  0.9274,  34:-0.52654,  35:0.076454,  36: 0.85705,  37: 0.16616,  38: 0.58518,  39:-0.41719, 
                 40: 0.79138,  41:-0.71063,  42: 0.78916,  43: 0.93118,  44:  0.5641,  45:-0.48062,  46: 0.22113,  47: 0.75229, 
                 48:-0.67639,  49:-0.35818,  50:-0.026878,  51:-0.35765,  52: 0.13789,  53:-0.76525,  54: 0.80283,  55: 0.66687, 
                 56:-0.82056,  57:   0.391,  58:-0.16656,  59:-0.27036
    69 |      |  24: 0.38772,  25:-0.71916,  26: 0.28302,  27:-0.017355,  28:-0.18267,  29:-0.63974,  30:-0.018128,  31:-0.96017, 
                 32:  1.0018,  33: 0.53939,  34: 0.79432,  35:-0.81315,  36: 0.50387,  37: 0.69411,  38: 0.69881,  39: -1.0431, 
                 40:-0.094997,  41: 0.41865,  42:-0.54168,  43: 0.42594,  44:-0.60626,  45: -0.1399,  46:-0.40835,  47:-0.48656, 
                 48:-0.22275,  49: -0.8078,  50:-0.27225,  51:-0.76586,  52: 0.14059,  53: 0.47454,  54: 0.70887,  55:-0.74458, 
                 56: 0.82741,  57:-0.10288,  58: 0.50161,  59:-0.42068
    70 |      |  60:-0.57995,  61:-0.69093,  62:-0.059724,  63:-0.66746,  64: -1.3597,  65: 0.38603,  66:  2.5582,  67: -3.4617, 
                 68:  0.4514,  69: 0.51479
-------|------|----------------------------------------------------------------------------------------------------------------
