SNNS network definition file V1.4-3D
generated at Thu May 09 10:11:49 1996

network name : edge_23
source files :
no. of units : 70
no. of connections : 622
no. of unit types : 0
no. of site types : 0


learning function : Std_Backpropagation
update function : Topological_Order


unit default section :

act      | bias     | st | subnet | layer | act func     | out func
---------|----------|----|--------|-------|--------------|-------------
 0.00000 |  0.00000 | h  |      0 |     1 | Act_Logistic | Out_Identity
---------|----------|----|--------|-------|--------------|-------------


unit definition section :

no. | typeName | unitName | act      | bias     | st | position | act func | out func | sites
----|----------|----------|----------|----------|----|----------|----------|----------|-------
  1 |          |           |        0 |        0 | i  |  2, 1, 0 |||
  2 |          |           |   6.0295 |        0 | i  |  2, 3, 0 |||
  3 |          |           |   23.255 |        0 | i  |  2, 4, 0 |||
  4 |          |           |   13.864 |        0 | i  |  2, 5, 0 |||
  5 |          |           |   13.659 |        0 | i  |  2, 7, 0 |||
  6 |          |           |        9 |        0 | i  |  2, 8, 0 |||
  7 |          |           |        3 |        0 | i  |  2, 9, 0 |||
  8 |          |           |   7.1724 |        0 | i  |  2,11, 0 |||
  9 |          |           |  -2.1747 |        0 | i  |  2,12, 0 |||
 10 |          |           |  -1.0765 |        0 | i  |  2,13, 0 |||
 11 |          |           |   3.5992 |        0 | i  |  2,14, 0 |||
 12 |          |           | -0.13482 |        0 | i  |  2,15, 0 |||
 13 |          |           |  -1.0441 |        0 | i  |  2,16, 0 |||
 14 |          |           | -0.09571 |        0 | i  |  2,17, 0 |||
 15 |          |           |   2.9461 |        0 | i  |  2,18, 0 |||
 16 |          |           |    1.978 |        0 | i  |  2,23, 0 |||
 17 |          |           |  -1.7966 |        0 | i  |  2,24, 0 |||
 18 |          |           | 0.067236 |        0 | i  |  2,25, 0 |||
 19 |          |           |   16.738 |        0 | i  |  2,27, 0 |||
 20 |          |           |   2.9559 |        0 | i  |  2,28, 0 |||
 21 |          |           |   96.276 |        0 | i  |  2,19, 0 |||
 22 |          |           |   4.4721 |        0 | i  |  2,20, 0 |||
 23 |          |           |   1.0719 |        0 | i  |  2,21, 0 |||
 24 |          |           | 7.2812e-16 | -0.47913 | h  |  7, 3, 0 |||
 25 |          |           | 0.0013027 |  0.26289 | h  |  8, 3, 0 |||
 26 |          |           | 5.6849e-12 | -0.34498 | h  |  7, 4, 0 |||
 27 |          |           | 0.017177 |   1.0432 | h  |  8, 4, 0 |||
 28 |          |           | 0.016096 |   1.8369 | h  |  7, 5, 0 |||
 29 |          |           |  0.99992 | -0.36441 | h  |  8, 5, 0 |||
 30 |          |           | 0.023657 |  0.94296 | h  |  7, 7, 0 |||
 31 |          |           | 2.909e-07 |  0.94858 | h  |  8, 7, 0 |||
 32 |          |           | 6.1619e-08 |  -1.3274 | h  |  7, 8, 0 |||
 33 |          |           |        1 |   0.5352 | h  |  8, 8, 0 |||
 34 |          |           |        1 | -0.39958 | h  |  7, 9, 0 |||
 35 |          |           |   0.9999 |  0.53531 | h  |  8, 9, 0 |||
 36 |          |           | 7.8041e-44 | -0.76232 | h  |  7,11, 0 |||
 37 |          |           | 8.452e-40 |  0.32837 | h  |  8,11, 0 |||
 38 |          |           | 1.4754e-47 |   1.0136 | h  |  7,12, 0 |||
 39 |          |           |        1 | -0.68473 | h  |  8,12, 0 |||
 40 |          |           | 2.4724e-40 |  0.57258 | h  |  7,13, 0 |||
 41 |          |           | 1.4147e-07 | -0.38051 | h  |  8,13, 0 |||
 42 |          |           |        1 |  0.54222 | h  |  7,14, 0 |||
 43 |          |           |        1 | 0.0097223 | h  |  8,14, 0 |||
 44 |          |           |        1 | -0.63713 | h  |  7,15, 0 |||
 45 |          |           |        1 |   0.8611 | h  |  8,15, 0 |||
 46 |          |           |        1 |  -1.4013 | h  |  7,16, 0 |||
 47 |          |           |        1 |  -1.0108 | h  |  8,16, 0 |||
 48 |          |           |        1 |  0.65039 | h  |  7,17, 0 |||
 49 |          |           |        1 |  0.20089 | h  |  8,17, 0 |||
 50 |          |           |  0.49759 |  0.78295 | h  |  7,22, 0 |||
 51 |          |           |  0.95572 |  0.10695 | h  |  8,22, 0 |||
 52 |          |           |  0.33214 | -0.91558 | h  |  7,23, 0 |||
 53 |          |           |  0.53248 |  0.67641 | h  |  8,23, 0 |||
 54 |          |           |  0.51145 | 0.040351 | h  |  7,24, 0 |||
 55 |          |           |  0.82995 |  0.72824 | h  |  8,24, 0 |||
 56 |          |           | 0.0003002 | -0.30238 | h  |  7,26, 0 |||
 57 |          |           | 0.00020246 | -0.35363 | h  |  8,26, 0 |||
 58 |          |           |  0.99999 |  0.34032 | h  |  7,27, 0 |||
 59 |          |           |        1 |    1.166 | h  |  8,27, 0 |||
 60 |          |           | 0.0014554 |   -1.234 | h  | 13,12, 0 |||
 61 |          |           |  0.41279 | -0.025786 | h  | 14,12, 0 |||
 62 |          |           |  0.99845 | -0.17782 | h  | 13,13, 0 |||
 63 |          |           |  0.99614 | -0.0047155 | h  | 14,13, 0 |||
 64 |          |           | 0.017265 | -0.76294 | h  | 13,14, 0 |||
 65 |          |           |  0.53541 |  0.70937 | h  | 14,14, 0 |||
 66 |          |           |  0.99839 |  0.43089 | h  | 13,15, 0 |||
 67 |          |           |  0.19789 |  0.29693 | h  | 14,15, 0 |||
 68 |          |           |  0.82415 |  0.47384 | h  | 13,16, 0 |||
 69 |          |           | 0.0030064 |  0.10659 | h  | 14,16, 0 |||
 70 |          |           |  0.97799 |  0.94469 | o  | 18,14, 0 |||
----|----------|----------|----------|----------|----|----------|----------|----------|-------


connection definition section :

target | site | source:weight
-------|------|------------------------------------------------------------------------------------------------------------
    24 |      |   1:0.094673,   2: 0.38647,   3: -1.0197,   4:-0.93731
    25 |      |   1: 0.88453,   2: -1.1315,   3: 0.33215,   4:-0.56312
    26 |      |   1: 0.66445,   2: 0.51343,   3:  -1.115,   4:-0.19585
    27 |      |   1: 0.77428,   2:-0.43201,   3:-0.37329,   4:  0.4469
    28 |      |   1:-0.71661,   2:-0.10954,   3: -0.1301,   4:-0.16331
    29 |      |   1:-0.94321,   2:-0.75853,   3:  1.1063,   4:-0.82094
    30 |      |   1: 0.20049,   5: 0.31924,   6: -1.2158,   7: 0.63948
    31 |      |   1:-0.051647,   5: 0.56713,   6: -2.3645,   7:-0.82154
    32 |      |   1:-0.90277,   5: -0.9046,   6:-0.00087122,   7:-0.97026
    33 |      |   1: 0.15583,   5: 0.88344,   6: 0.47748,   7: 0.49665
    34 |      |   1:0.057594,   5: 0.98582,   6: 0.70104,   7: 0.59339
    35 |      |   1: 0.22682,   5:   0.474,   6: 0.28747,   7:-0.12311
    36 |      |   1:-0.46604,   8: -0.3947,   9: 0.44843,  10:-0.0040224,  11:-0.17848,  12:-0.99939,  13: 0.42351,  14:  1.3045, 
                 15: 0.09698,  21:-0.96331,  22:-0.27144,  23:0.048037
    37 |      |   1: 0.61584,   8: 0.60366,   9: 0.19202,  10:-0.12437,  11: 0.29498,  12:-0.53711,  13:-0.69947,  14:0.051097, 
                 15: 0.48299,  21:-0.98992,  22:-0.54209,  23: 0.09671
    38 |      |   1: 0.82511,   8:0.077316,   9: -0.2226,  10:-0.10959,  11:-0.37298,  12: 0.17177,  13:-0.16546,  14: 0.69485, 
                 15: 0.94933,  21: -1.1876,  22: 0.55533,  23: 0.29388
    39 |      |   1:0.024491,   8: 0.73576,   9: 0.56729,  10:-0.80921,  11: 0.49342,  12:-0.30682,  13: 0.82497,  14: 0.14815, 
                 15: 0.21873,  21: 0.29543,  22: 0.63667,  23: 0.56458
    40 |      |   1: 0.13938,   8: 0.38052,   9: 0.21901,  10:-0.77764,  11:0.029499,  12:-0.21587,  13: 0.22686,  14: 0.40013, 
                 15: 0.96824,  21: -0.9891,  22:-0.43285,  23:-0.38365
    41 |      |   1:-0.31299,   8:-0.22835,   9: 0.35071,  10:-0.33066,  11:-0.65239,  12: -1.0856,  13: 0.83185,  14: 0.62559, 
                 15:-0.44367,  21:-0.041672,  22:-0.96564,  23:-0.53957
    42 |      |   1: 0.52472,   8:  1.0667,   9: 0.96178,  10: 0.73557,  11:-0.75424,  12:-0.033227,  13:-0.05057,  14: 0.81846, 
                 15: -0.2755,  21: 0.76112,  22: -1.3592,  23: 0.15286
    43 |      |   1: 0.69343,   8:-0.33461,   9:  1.0831,  10: -1.0351,  11:-0.05268,  12:-0.16846,  13:-0.086609,  14: 0.56429, 
                 15: -0.1348,  21: 0.91242,  22:-0.78424,  23:-0.21674
    44 |      |   1:-0.22611,   8:  1.0995,   9:  1.2284,  10:-0.22881,  11:-0.53513,  12: 0.35859,  13: 0.31662,  14:-0.67977, 
                 15:  1.2371,  21: 0.17171,  22: 0.58288,  23: -0.7969
    45 |      |   1: 0.13586,   8:-0.62776,   9:-0.50688,  10:-0.76195,  11: 0.75984,  12:-0.96874,  13: 0.23129,  14: 0.66021, 
                 15: -1.0247,  21: 0.77224,  22: -0.9168,  23: 0.29361
    46 |      |   1:0.0065418,   8:-0.10218,   9:  1.1357,  10:-0.040701,  11:-0.45261,  12:-0.47216,  13: 0.23347,  14: 0.41045, 
                 15:-0.49727,  21: 0.56496,  22:-0.52371,  23: 0.32129
    47 |      |   1:-0.71666,   8:-0.72461,   9: 0.98202,  10:-0.51596,  11: 0.37445,  12:0.045004,  13: 0.11313,  14: 0.99198, 
                 15: 0.32599,  21: 0.36328,  22: 0.16715,  23:   1.013
    48 |      |   1:-0.16508,   8: 0.15966,   9:-0.49607,  10:-0.47181,  11: 0.22936,  12:  0.6135,  13: 0.65003,  14:-0.13068, 
                 15: 0.16251,  21: 0.99335,  22: 0.78909,  23:-0.43141
    49 |      |   1: 0.88854,   8: -1.3908,   9: 0.82286,  10:  0.1554,  11:-0.66117,  12:-0.75696,  13: 0.83755,  14: 0.53054, 
                 15: 0.38334,  21: 0.90152,  22:-0.81016,  23:-0.040335
    50 |      |   1:-0.19693,  16: 0.20227,  17: 0.64334,  18:-0.54811
    51 |      |   1:-0.74859,  16: 0.89716,  17:-0.66642,  18: -0.1025
    52 |      |   1:-0.87483,  16:-0.77717,  17:-0.99195,  18:-0.41461
    53 |      |   1: 0.72433,  16: 0.52276,  17:  0.9092,  18: 0.79072
    54 |      |   1:  0.5651,  16: 0.32162,  17: 0.38355,  18: 0.86861
    55 |      |   1: 0.43022,  16:-0.12336,  17:-0.58287,  18: 0.80123
    56 |      |   1: 0.29139,  19:-0.45899,  20:-0.042535
    57 |      |   1:-0.28964,  19:-0.40687,  20:-0.45365
    58 |      |   1:0.056915,  19: 0.53932,  20: 0.73466
    59 |      |   1: 0.88817,  19: 0.95084,  20:-0.11052
    60 |      |  24: 0.84834,  25:-0.92572,  26: 0.81335,  27: 0.66812,  28:  1.1089,  29:-0.28263,  30: 0.17856,  31:  1.8259, 
                 32:-0.13509,  33:-0.24829,  34:-0.59566,  35: 0.48866,  36:  0.4113,  37:-0.17133,  38:  0.4546,  39: -1.0574, 
                 40: 0.48908,  41:-0.70286,  42: 0.38333,  43: -1.2002,  44: -0.5428,  45: 0.90564,  46:-0.31884,  47: -1.5536, 
                 48:-0.014246,  49:-0.77885,  50:-0.021897,  51: 0.49168,  52:-0.52113,  53: 0.89838,  54: 0.27453,  55:-0.53306, 
                 56:-0.81262,  57:-0.013336,  58: 0.26171,  59: -1.2382
    61 |      |  24: 0.93478,  25:  1.0511,  26:-0.033452,  27: 0.29087,  28: 0.46103,  29:-0.36594,  30:-0.11337,  31:  1.1347, 
                 32: -1.1343,  33: 0.11691,  34: 0.14891,  35:-0.58111,  36:   1.029,  37: 0.35757,  38: 0.32755,  39:  1.0143, 
                 40: -0.6815,  41: 0.11973,  42: 0.96289,  43:-0.013179,  44:-0.62254,  45:-0.082534,  46: 0.40548,  47:-0.55228, 
                 48: -1.0094,  49: 0.47036,  50: -0.2747,  51: 0.14607,  52: 0.10778,  53:-0.29608,  54:0.043016,  55:0.053001, 
                 56: -0.3267,  57:-0.80101,  58:-0.86108,  59: 0.68455
    62 |      |  24:-0.42414,  25: 0.61894,  26:-0.0077408,  27: 0.37768,  28:-0.31303,  29: 0.17833,  30: 0.18126,  31: 0.75119, 
                 32:  -0.751,  33: 0.14725,  34: 0.82398,  35: 0.15338,  36:-0.29729,  37:-0.27231,  38: 0.79564,  39:  0.5273, 
                 40:  0.9729,  41:-0.80508,  42: 0.56063,  43: 0.36502,  44:-0.089096,  45:-0.17675,  46:-0.60608,  47: 0.51182, 
                 48:  0.9941,  49: 0.40601,  50:-0.77325,  51: 0.94037,  52: 0.45093,  53: 0.80605,  54:-0.079778,  55: 0.88667, 
                 56: 0.16871,  57:   0.683,  58: 0.26931,  59: 0.78666
    63 |      |  24:-0.67694,  25: 0.32743,  26:-0.39596,  27: 0.54943,  28: 0.18174,  29: 0.78693,  30:-0.77885,  31: 0.77447, 
                 32:  0.4546,  33: 0.60801,  34:  0.5985,  35: 0.67908,  36:0.095678,  37:-0.17235,  38:-0.62873,  39: 0.80086, 
                 40: 0.21451,  41: 0.86229,  42: 0.68394,  43:-0.32363,  44: 0.78356,  45: 0.55211,  46: -0.8856,  47: 0.55291, 
                 48:-0.74441,  49: 0.99922,  50:-0.41941,  51: 0.92412,  52: 0.16903,  53:-0.76959,  54:-0.54137,  55: 0.58344, 
                 56: 0.64201,  57: 0.15299,  58:0.082152,  59:-0.13849
    64 |      |  24: 0.32162,  25:-0.37365,  26:-0.37293,  27:0.053701,  28:-0.58425,  29: -1.0215,  30:  1.3405,  31: 0.55575, 
                 32:-0.47246,  33: 0.62942,  34:-0.88885,  35:-0.61903,  36: 0.43484,  37: 0.08381,  38: -0.3927,  39:-0.41147, 
                 40: 0.22637,  41: 0.84428,  42: 0.13087,  43:-0.24176,  44:-0.83884,  45:-0.0015349,  46: -1.0533,  47:-0.70479, 
                 48: 0.24112,  49: 0.38401,  50:-0.75683,  51: -0.1859,  52: -0.2766,  53: 0.19283,  54: 0.61049,  55:  1.1248, 
                 56: 0.77084,  57: -0.7987,  58:-0.40957,  59: 0.80124
    65 |      |  24:-0.50277,  25:-0.18979,  26: -0.3603,  27:-0.91487,  28:0.069007,  29: 0.11592,  30:  0.2343,  31:-0.98195, 
                 32: 0.21947,  33:-0.73789,  34: 0.37609,  35:0.0054862,  36: 0.18829,  37:  -0.773,  38: 0.19261,  39:-0.65977, 
                 40:-0.63419,  41: 0.86893,  42: 0.57985,  43:-0.81905,  44:-0.72446,  45:-0.78007,  46:-0.07957,  47:  0.3419, 
                 48: 0.91726,  49:-0.17385,  50:-0.092426,  51: 0.85402,  52: 0.43576,  53:-0.32238,  54: 0.99896,  55: 0.96928, 
                 56: 0.44648,  57:-0.42204,  58:-0.76595,  59:-0.21278
    66 |      |  24: 0.38074,  25: 0.37026,  26:-0.30387,  27: 0.11017,  28: -1.2598,  29:  1.5199,  30: -1.3403,  31: -1.9808, 
                 32: 0.18463,  33: 0.36465,  34: 0.61705,  35: 0.06003,  36: -0.3771,  37: 0.13009,  38:-0.11438,  39: 0.31165, 
                 40: 0.73999,  41:-0.84914,  42: -1.2179,  43:-0.054448,  44:  0.6169,  45:-0.57022,  46: 0.93692,  47:   1.542, 
                 48:-0.08194,  49:  1.2948,  50: 0.76384,  51:-0.35531,  52: 0.85231,  53: 0.96684,  54:-0.40059,  55:-0.17946, 
                 56:-0.23021,  57: 0.42513,  58: 0.29539,  59:-0.071312
    67 |      |  24: -1.0128,  25:  1.0299,  26:-0.91932,  27:  0.7724,  28:  1.6882,  29:-0.0088385,  30:  1.9397,  31:0.047994, 
                 32:-0.94676,  33: -0.1518,  34:-0.67889,  35:-0.46383,  36: 0.36885,  37:0.023868,  38:  1.1037,  39:  0.7012, 
                 40:   0.103,  41: 0.17423,  42:  1.1582,  43: 0.05079,  44:-0.99452,  45:-0.23173,  46:-0.14882,  47:0.031713, 
                 48:-0.25246,  49:-0.60229,  50: 0.29386,  51: -0.2311,  52: 0.23867,  53: -0.9908,  54: 0.49949,  55: 0.46672, 
                 56: 0.45282,  57:-0.77726,  58:-0.43156,  59: 0.11883
    68 |      |  24: -0.4825,  25:-0.93959,  26: 0.57419,  27: 0.04431,  28:-0.59937,  29:-0.82191,  30:-0.80478,  31: 0.49881, 
                 32: 0.73921,  33: 0.95935,  34:-0.43337,  35:0.051461,  36: 0.71614,  37: 0.21555,  38: 0.58247,  39:-0.37144, 
                 40: 0.79119,  41:-0.84529,  42: 0.88383,  43: 0.93179,  44: 0.76329,  45:-0.57667,  46: 0.22714,  47: 0.74115, 
                 48:-0.51056,  49:-0.42723,  50:-0.047769,  51:-0.50323,  52: 0.18489,  53:-0.88365,  54: 0.86199,  55: 0.58644, 
                 56:-0.86412,  57:  0.3493,  58:-0.12083,  59: -0.2096
    69 |      |  24: 0.45567,  25: -0.7716,  26: 0.45456,  27: 0.30434,  28:-0.014254,  29:-0.95213,  30:-0.28748,  31: -1.3216, 
                 32:  1.0362,  33: 0.46933,  34: 0.83849,  35: -0.9778,  36:  0.4927,  37: 0.79697,  38: 0.52491,  39: -1.0369, 
                 40:-0.16881,  41: 0.46885,  42:-0.86138,  43: 0.31936,  44:-0.53384,  45:0.0092737,  46:-0.52291,  47:-0.73899, 
                 48:-0.051513,  49:-0.84151,  50:-0.17524,  51: -0.9136,  52:0.057137,  53: 0.39427,  54: 0.61859,  55:-0.94086, 
                 56: 0.77429,  57:-0.16093,  58: 0.53802,  59:-0.36974
    70 |      |  60:  -2.271,  61: -1.0833,  62: 0.52814,  63:-0.31988,  64: -1.3284,  65: 0.18877,  66:  3.1594,  67: -3.2595, 
                 68: 0.60619,  69:  1.3639
-------|------|----------------------------------------------------------------------------------------------------------------
