SNNS network definition file V1.4-3D
generated at Thu May 09 10:11:49 1996

network name : edge_23
source files :
no. of units : 70
no. of connections : 622
no. of unit types : 0
no. of site types : 0


learning function : Std_Backpropagation
update function : Topological_Order


unit default section :

act      | bias     | st | subnet | layer | act func     | out func
---------|----------|----|--------|-------|--------------|-------------
 0.00000 |  0.00000 | h  |      0 |     1 | Act_Logistic | Out_Identity
---------|----------|----|--------|-------|--------------|-------------


unit definition section :

no. | typeName | unitName | act      | bias     | st | position | act func | out func | sites
----|----------|----------|----------|----------|----|----------|----------|----------|-------
  1 |          |           |        0 |        0 | i  |  2, 1, 0 |||
  2 |          |           |   8.9416 |        0 | i  |  2, 3, 0 |||
  3 |          |           |   5.8137 |        0 | i  |  2, 4, 0 |||
  4 |          |           |    19.29 |        0 | i  |  2, 5, 0 |||
  5 |          |           |   16.302 |        0 | i  |  2, 7, 0 |||
  6 |          |           |   25.931 |        0 | i  |  2, 8, 0 |||
  7 |          |           |   13.607 |        0 | i  |  2, 9, 0 |||
  8 |          |           |   50.978 |        0 | i  |  2,11, 0 |||
  9 |          |           |  -1.8898 |        0 | i  |  2,12, 0 |||
 10 |          |           |  -71.482 |        0 | i  |  2,13, 0 |||
 11 |          |           |  0.69302 |        0 | i  |  2,14, 0 |||
 12 |          |           |  0.32906 |        0 | i  |  2,15, 0 |||
 13 |          |           |   2.9179 |        0 | i  |  2,16, 0 |||
 14 |          |           | -0.086535 |        0 | i  |  2,17, 0 |||
 15 |          |           |  -1.0552 |        0 | i  |  2,18, 0 |||
 16 |          |           |   2.2589 |        0 | i  |  2,23, 0 |||
 17 |          |           |  -6.8591 |        0 | i  |  2,24, 0 |||
 18 |          |           |  -2.4387 |        0 | i  |  2,25, 0 |||
 19 |          |           |   30.614 |        0 | i  |  2,27, 0 |||
 20 |          |           | -0.16449 |        0 | i  |  2,28, 0 |||
 21 |          |           |   21.604 |        0 | i  |  2,19, 0 |||
 22 |          |           |   13.302 |        0 | i  |  2,20, 0 |||
 23 |          |           |  0.96407 |        0 | i  |  2,21, 0 |||
 24 |          |           | 6.4163e-05 | -0.093839 | h  |  7, 3, 0 |||
 25 |          |           | 4.6909e-05 |  0.63874 | h  |  8, 3, 0 |||
 26 |          |           |  0.99998 | -0.89426 | h  |  7, 4, 0 |||
 27 |          |           | 0.0025208 |  0.89708 | h  |  8, 4, 0 |||
 28 |          |           |        1 |  0.83971 | h  |  7, 5, 0 |||
 29 |          |           | 5.8531e-14 | -0.04383 | h  |  8, 5, 0 |||
 30 |          |           |  0.80977 |  -0.3143 | h  |  7, 7, 0 |||
 31 |          |           | 0.0068397 |   1.4907 | h  |  8, 7, 0 |||
 32 |          |           | 1.0661e-26 |  0.27057 | h  |  7, 8, 0 |||
 33 |          |           |  0.13578 | 0.027061 | h  |  8, 8, 0 |||
 34 |          |           |        1 | -0.20211 | h  |  7, 9, 0 |||
 35 |          |           |  0.68633 | -0.38691 | h  |  8, 9, 0 |||
 36 |          |           | 4.4933e-32 |  -0.5502 | h  |  7,11, 0 |||
 37 |          |           |        1 |  0.33733 | h  |  8,11, 0 |||
 38 |          |           |        1 |  0.56138 | h  |  7,12, 0 |||
 39 |          |           |        1 | -0.32544 | h  |  8,12, 0 |||
 40 |          |           |        1 | -0.23737 | h  |  7,13, 0 |||
 41 |          |           |        1 | -0.18689 | h  |  8,13, 0 |||
 42 |          |           |        1 |   0.5216 | h  |  7,14, 0 |||
 43 |          |           |        1 |  -0.1608 | h  |  8,14, 0 |||
 44 |          |           |        1 | -0.89373 | h  |  7,15, 0 |||
 45 |          |           |        1 |   1.1496 | h  |  8,15, 0 |||
 46 |          |           | 2.0157e-21 |   -1.075 | h  |  7,16, 0 |||
 47 |          |           |        1 | -0.99656 | h  |  8,16, 0 |||
 48 |          |           |        1 |  0.39668 | h  |  7,17, 0 |||
 49 |          |           | 4.2199e-38 |  0.82972 | h  |  8,17, 0 |||
 50 |          |           |   0.8477 |  0.82853 | h  |  7,22, 0 |||
 51 |          |           |  0.99896 | 0.097546 | h  |  8,22, 0 |||
 52 |          |           |  0.96651 |  -1.0157 | h  |  7,23, 0 |||
 53 |          |           |  0.21356 |  0.86393 | h  |  8,23, 0 |||
 54 |          |           | 0.00039031 | -0.31317 | h  |  7,24, 0 |||
 55 |          |           |  0.99948 |  0.51948 | h  |  8,24, 0 |||
 56 |          |           | 0.007063 | -0.28286 | h  |  7,26, 0 |||
 57 |          |           |  0.99496 | -0.36572 | h  |  8,26, 0 |||
 58 |          |           |   0.9387 |  0.14213 | h  |  7,27, 0 |||
 59 |          |           |        1 |  0.86857 | h  |  8,27, 0 |||
 60 |          |           |   0.2558 | -0.91484 | h  | 13,12, 0 |||
 61 |          |           | 0.096116 | 0.0059269 | h  | 14,12, 0 |||
 62 |          |           |  0.99448 | -0.39493 | h  | 13,13, 0 |||
 63 |          |           |  0.94345 | -0.085251 | h  | 14,13, 0 |||
 64 |          |           | 0.0033044 |  -1.1042 | h  | 13,14, 0 |||
 65 |          |           |  0.35583 |  0.60582 | h  | 14,14, 0 |||
 66 |          |           |  0.98179 |  0.59868 | h  | 13,15, 0 |||
 67 |          |           |  0.56425 |  0.23465 | h  | 14,15, 0 |||
 68 |          |           |  0.92461 |  0.28815 | h  | 13,16, 0 |||
 69 |          |           |  0.97388 |  0.46087 | h  | 14,16, 0 |||
 70 |          |           |  0.99559 |  0.43137 | o  | 18,14, 0 |||
----|----------|----------|----------|----------|----|----------|----------|----------|-------


connection definition section :

target | site | source:weight
-------|------|------------------------------------------------------------------------------------------------------------
    24 |      |   1: 0.10849,   2: 0.51018,   3:-0.75565,   4:-0.50435
    25 |      |   1:  0.8986,   2: 0.02078,   3:-0.0082345,   4:-0.55697
    26 |      |   1: 0.66768,   2:  1.5811,   3:0.016992,   4:-0.13075
    27 |      |   1: 0.74415,   2:-0.90812,   3:-0.78964,   4: 0.30239
    28 |      |   1:-0.73645,   2:  1.8719,   3: 0.32361,   4: 0.79778
    29 |      |   1: -0.9199,   2:-0.67794,   3: 0.52955,   4: -1.4226
    30 |      |   1:0.041251,   5:  0.6405,   6:-0.97348,   7:  1.2173
    31 |      |   1:-0.18794,   5: 0.29083,   6:-0.22693,   7:-0.39139
    32 |      |   1:-0.90197,   5:-0.41802,   6:-0.91394,   7: -2.1724
    33 |      |   1: 0.15611,   5:  1.1919,   6:-0.79959,   7:-0.042217
    34 |      |   1:0.058097,   5: 0.13373,   6:  1.2268,   7:-0.36191
    35 |      |   1: 0.22651,   5: 0.48617,   6: 0.30024,   7: -1.0686
    36 |      |   1:-0.52579,   8: -0.7993,   9:-0.22932,  10: 0.29556,  11:-0.16993,  12: -1.0535,  13:  0.8562,  14: 0.98263, 
                 15: 0.23209,  21:-0.58386,  22:-0.0037391,  23: 0.79897
    37 |      |   1: 0.60377,   8: 0.78647,   9: 0.12913,  10:-0.57049,  11: 0.45255,  12:-0.59921,  13:-0.79343,  14: 0.13117, 
                 15: 0.57382,  21: -0.7818,  22:-0.32827,  23: 0.34277
    38 |      |   1: 0.79856,   8: 0.49358,   9:-0.41016,  10: 0.19891,  11:-0.21534,  12: 0.46192,  13: 0.41896,  14:  1.1046, 
                 15: 0.84523,  21:-0.63031,  22:  1.5126,  23:-0.0025649
    39 |      |   1:-0.0073688,   8: 0.83576,   9:0.086911,  10: -1.0293,  11: 0.43576,  12:-0.10119,  13: 0.82868,  14: 0.17694, 
                 15: 0.33354,  21:0.072917,  22:  1.0099,  23:0.041516
    40 |      |   1: 0.11386,   8:  1.0948,   9:-0.13662,  10:-0.95107,  11: 0.67576,  12:-0.79456,  13: 0.55806,  14: 0.47264, 
                 15:  0.6149,  21: -0.6086,  22: 0.21746,  23:-0.98602
    41 |      |   1: -0.2943,   8:-0.44175,   9:0.032758,  10: -1.3628,  11: -0.6814,  12:-0.64906,  13: 0.55081,  14:  1.0757, 
                 15:-0.74575,  21:0.091415,  22:-0.53173,  23:-0.58502
    42 |      |   1: 0.51757,   8: 0.84814,   9: 0.82153,  10:  0.2625,  11:-0.58963,  12:-0.29973,  13:-0.28857,  14:0.054311, 
                 15: 0.38309,  21: 0.78151,  22: -1.3482,  23: 0.34687
    43 |      |   1: 0.69287,   8: 0.10491,   9:  1.1504,  10: -1.1253,  11:0.033582,  12:-0.47876,  13:0.0058525,  14: 0.78085, 
                 15:-0.053179,  21:  0.8794,  22:-0.51128,  23:-0.41963
    44 |      |   1:-0.17747,   8: 0.64192,   9: 0.90338,  10:  0.2151,  11:-0.70974,  12:-0.27307,  13: 0.30729,  14:-0.59278, 
                 15:  1.4991,  21: 0.49902,  22: 0.67133,  23:-0.36485
    45 |      |   1: 0.10025,   8: -1.1385,   9:-0.31992,  10: -1.2018,  11:0.017268,  12:-0.44994,  13:-0.24882,  14: 0.85782, 
                 15:-0.38241,  21: 0.62065,  22:-0.64236,  23: 0.57347
    46 |      |   1:0.0060205,   8:0.049992,   9: 0.96165,  10: 0.88314,  11:-0.80576,  12:-0.20372,  13: 0.47213,  14: 0.86625, 
                 15:-0.87917,  21: 0.71814,  22:-0.11696,  23: 0.26472
    47 |      |   1:-0.69344,   8:-0.28075,   9: 0.56166,  10: -0.6751,  11:  1.2001,  12:-0.17835,  13: 0.45952,  14: 0.76501, 
                 15:-0.26548,  21:-0.19387,  22:-0.12321,  23: 0.79596
    48 |      |   1:-0.14687,   8: 0.71587,   9:-0.45101,  10:-0.78038,  11:-0.021089,  12: 0.44473,  13: 0.54821,  14:0.073231, 
                 15:-0.039311,  21: 0.72542,  22: 0.89482,  23:-0.72003
    49 |      |   1: 0.90422,   8:  -1.188,   9: 0.81058,  10: 0.14818,  11: -1.1872,  12: -1.4134,  13:  1.0049,  14:  0.8843, 
                 15:0.055831,  21:0.051615,  22: -1.2496,  23:-0.21056
    50 |      |   1:-0.19665,  16: 0.61572,  17: 0.28501,  18:-0.59548
    51 |      |   1:-0.75876,  16:  1.0038,  17:-0.50781,  18: -0.4191
    52 |      |   1:-0.89235,  16:-0.79134,  17: -1.0244,  18: 0.35304
    53 |      |   1: 0.81688,  16:  0.8715,  17: 0.44918,  18: 0.43266
    54 |      |   1: 0.52257,  16:-0.26073,  17: 0.74086,  18: 0.76452
    55 |      |   1: 0.43287,  16:-0.02899,  17: -1.2617,  18: 0.63727
    56 |      |   1: 0.24231,  19:-0.15201,  20:0.056592
    57 |      |   1:-0.16298,  19: 0.18464,  20:0.007738
    58 |      |   1: 0.15527,  19:0.088914,  20:  0.8226
    59 |      |   1: 0.85258,  19:  1.3856,  20:0.020982
    60 |      |  24: 0.62698,  25:-0.83172,  26: 0.58884,  27: 0.38099,  28: 0.93762,  29: 0.10472,  30:-0.79394,  31: 0.66612, 
                 32: -0.1252,  33: 0.16419,  34: 0.23378,  35: 0.83509,  36: 0.24839,  37:-0.19316,  38: 0.31797,  39:-0.49045, 
                 40: 0.25718,  41:-0.87628,  42:0.084977,  43:-0.88049,  44:-0.061249,  45: 0.93882,  46:-0.10028,  47:-0.90677, 
                 48: 0.54915,  49: -0.3894,  50: 0.41173,  51: 0.41816,  52:-0.43886,  53:  0.9303,  54: 0.29173,  55: -0.8205, 
                 56:-0.86872,  57:-0.012558,  58:  0.6118,  59:-0.88801
    61 |      |  24:  1.3656,  25:  1.3875,  26:-0.27697,  27: 0.70986,  28: 0.52798,  29:0.076962,  30:-0.91051,  31:  1.3606, 
                 32: -1.1068,  33:-0.30725,  34: 0.51902,  35:-0.57494,  36: 0.75573,  37: 0.37906,  38:-0.12871,  39: 0.85751, 
                 40:  -1.051,  41: 0.30993,  42: 0.85903,  43:-0.10326,  44:-0.47457,  45: 0.15076,  46:-0.020846,  47:-0.58923, 
                 48:-0.91024,  49: 0.56362,  50:-0.36087,  51:-0.24858,  52:0.0076522,  53:0.034613,  54: 0.54334,  55: 0.36347, 
                 56:-0.35437,  57:-0.74989,  58: -1.0438,  59:  0.7503
    62 |      |  24: -0.5782,  25: 0.41482,  26:-0.16098,  27: 0.26326,  28:-0.44225,  29:-0.046828,  30: 0.20032,  31: 0.69852, 
                 32:-0.98394,  33: 0.18529,  34: 0.79899,  35: 0.19535,  36:-0.39981,  37:-0.50024,  38: 0.67625,  39: 0.42637, 
                 40: 0.80231,  41:-0.89132,  42: 0.55766,  43: 0.27808,  44:-0.22482,  45:-0.36249,  46:-0.57331,  47: 0.45761, 
                 48: 0.83508,  49:  0.3045,  50:-0.95659,  51: 0.97012,  52: 0.44055,  53: 0.61035,  54:-0.29511,  55: 0.84573, 
                 56:0.075414,  57: 0.59851,  58: 0.19015,  59: 0.67731
    63 |      |  24:-0.49898,  25: 0.42026,  26:-0.35554,  27: 0.56596,  28: 0.16725,  29: 0.81481,  30: -0.8638,  31: 0.80024, 
                 32: 0.48503,  33: 0.52186,  34: 0.56703,  35: 0.61042,  36: 0.14486,  37:-0.17316,  38: -0.6697,  39: 0.69136, 
                 40: 0.20626,  41: 0.85525,  42: 0.55932,  43:-0.40701,  44: 0.84339,  45: 0.49326,  46:-0.98349,  47: 0.43258, 
                 48:-0.80372,  49:  1.0256,  50:-0.47789,  51: 0.77315,  52: 0.11892,  53:-0.76808,  54:-0.48293,  55:  0.5373, 
                 56: 0.65092,  57: 0.12371,  58:-0.036093,  59:-0.25294
    64 |      |  24: 0.43327,  25:-0.55292,  26:-0.15723,  27:-0.26617,  28:-0.17314,  29: -1.2892,  30:  1.9176,  31: 0.44176, 
                 32: -1.1419,  33:  1.1607,  34: -1.4225,  35: -1.0293,  36: 0.32875,  37:-0.74334,  38:-0.80972,  39:0.071569, 
                 40:-0.90776,  41:  1.2267,  42: 0.44786,  43:-0.30004,  44:   -1.17,  45: 0.15054,  46:-0.67052,  47: -1.0299, 
                 48: 0.57758,  49:  1.4376,  50: -1.0347,  51:-0.82834,  52:-0.26809,  53:-0.19585,  54: 0.60388,  55:  1.0557, 
                 56: 0.50319,  57: -1.0679,  58:-0.32755,  59: 0.94456
    65 |      |  24: -0.7459,  25:-0.42285,  26:-0.30084,  27: -1.0257,  28: 0.15949,  29:-0.22096,  30: 0.11273,  31: -1.1874, 
                 32: 0.11113,  33:-0.90146,  34: 0.25644,  35:-0.10172,  36: 0.20655,  37:-0.71432,  38: 0.27145,  39:-0.70799, 
                 40:-0.51239,  41: 0.79792,  42: 0.52755,  43:-0.93356,  44:-0.83724,  45:-0.95987,  46:-0.11882,  47: 0.25244, 
                 48: 0.84403,  49:-0.32262,  50: -0.1652,  51: 0.93339,  52: 0.54093,  53:-0.51818,  54: 0.81537,  55: 0.88719, 
                 56: 0.36926,  57:-0.31965,  58:-0.85763,  59:-0.20184
    66 |      |  24: 0.22852,  25: -0.1624,  26:-0.15081,  27: 0.49069,  28: -1.0801,  29:  1.0113,  30: -1.2618,  31: -1.2784, 
                 32: 0.50821,  33: -0.1709,  34:  0.5958,  35: 0.60658,  36:-0.38535,  37: 0.36121,  38: 0.46775,  39: -0.0807, 
                 40:  1.4592,  41:-0.99556,  42:-0.68127,  43:-0.15846,  44: 0.74181,  45:-0.65564,  46: 0.87626,  47:  1.1316, 
                 48:-0.45573,  49: 0.06069,  50: 0.63082,  51: 0.43059,  52:  1.0159,  53:  1.1517,  54:-0.46467,  55: 0.31876, 
                 56:-0.19421,  57: 0.58626,  58:  0.4473,  59:0.012783
    67 |      |  24:-0.63289,  25: 0.45832,  26: -1.2003,  27: 0.84962,  28:  1.3568,  29: 0.18947,  30: 0.95853,  31:  0.1659, 
                 32:-0.76802,  33:-0.70233,  34:-0.31077,  35: -0.9074,  36:-0.033935,  37:-0.23608,  38: 0.72016,  39: 0.61565, 
                 40:-0.16989,  41: 0.76533,  42: 0.62728,  43:-0.24437,  44:-0.46034,  45:-0.36528,  46:-0.44946,  47:-0.53378, 
                 48: 0.41925,  49:  -1.276,  50: 0.43468,  51:-0.31769,  52:-0.12504,  53:-0.58758,  54: 0.76575,  55: 0.40652, 
                 56: 0.37624,  57:-0.87433,  58:-0.55415,  59: 0.15485
    68 |      |  24:-0.73487,  25: -1.4856,  26:   1.199,  27:-0.84152,  28:-0.66866,  29:  -1.311,  30:-0.70074,  31:-0.087744, 
                 32: 0.88491,  33:  1.1641,  34:-0.84231,  35: 0.34812,  36: 0.99262,  37: 0.10443,  38: 0.63651,  39: -0.1485, 
                 40: 0.90666,  41:-0.75028,  42: 0.51791,  43: 0.94294,  44: 0.49684,  45: -0.4862,  46: 0.32359,  47: 0.98856, 
                 48:-0.39506,  49:-0.42713,  50:-0.17616,  51:-0.25196,  52:  0.3125,  53: -1.1429,  54: 0.58323,  55: 0.25691, 
                 56:  -1.053,  57: 0.43936,  58:-0.15856,  59:-0.30478
    69 |      |  24:-0.12377,  25:-0.70029,  26: -0.1074,  27: 0.22831,  28: -0.5499,  29:-0.54348,  30:-0.87525,  31: -1.4634, 
                 32:  1.0927,  33: 0.78509,  34:  1.4714,  35:-0.065899,  36: 0.38798,  37: 0.96751,  38:  1.0541,  39:-0.55021, 
                 40: 0.41377,  41: 0.33883,  42: -0.6935,  43:  0.8309,  44:-0.10164,  45:0.0040872,  46:-0.25509,  47:-0.12962, 
                 48: 0.31563,  49: -1.0738,  50:-0.05019,  51:-0.21345,  52: 0.46733,  53: 0.41203,  54: 0.50404,  55:-0.62545, 
                 56: 0.67649,  57: 0.15049,  58: 0.84105,  59:-0.052429
    70 |      |  60:-0.049139,  61: -2.2474,  62: 0.50034,  63:-0.71804,  64:  -3.176,  65: 0.97609,  66:  2.3372,  67: -1.8575, 
                 68:  2.4817,  69:  1.5592
-------|------|----------------------------------------------------------------------------------------------------------------
