SNNS network definition file V1.4-3D
generated at Thu May 09 10:11:49 1996

network name : edge_23
source files :
no. of units : 70
no. of connections : 622
no. of unit types : 0
no. of site types : 0


learning function : Std_Backpropagation
update function : Topological_Order


unit default section :

act      | bias     | st | subnet | layer | act func     | out func
---------|----------|----|--------|-------|--------------|-------------
 0.00000 |  0.00000 | h  |      0 |     1 | Act_Logistic | Out_Identity
---------|----------|----|--------|-------|--------------|-------------


unit definition section :

no. | typeName | unitName | act      | bias     | st | position | act func | out func | sites
----|----------|----------|----------|----------|----|----------|----------|----------|-------
  1 |          |           |        0 |        0 | i  |  2, 1, 0 |||
  2 |          |           |        0 |        0 | i  |  2, 3, 0 |||
  3 |          |           |        0 |        0 | i  |  2, 4, 0 |||
  4 |          |           |        0 |        0 | i  |  2, 5, 0 |||
  5 |          |           |        0 |        0 | i  |  2, 7, 0 |||
  6 |          |           |        0 |        0 | i  |  2, 8, 0 |||
  7 |          |           |        0 |        0 | i  |  2, 9, 0 |||
  8 |          |           |        0 |        0 | i  |  2,11, 0 |||
  9 |          |           |        0 |        0 | i  |  2,12, 0 |||
 10 |          |           |        0 |        0 | i  |  2,13, 0 |||
 11 |          |           |        0 |        0 | i  |  2,14, 0 |||
 12 |          |           |        0 |        0 | i  |  2,15, 0 |||
 13 |          |           |        0 |        0 | i  |  2,16, 0 |||
 14 |          |           |        0 |        0 | i  |  2,17, 0 |||
 15 |          |           |        0 |        0 | i  |  2,18, 0 |||
 16 |          |           |        0 |        0 | i  |  2,23, 0 |||
 17 |          |           |        0 |        0 | i  |  2,24, 0 |||
 18 |          |           |        0 |        0 | i  |  2,25, 0 |||
 19 |          |           |        0 |        0 | i  |  2,27, 0 |||
 20 |          |           |        0 |        0 | i  |  2,28, 0 |||
 21 |          |           |        0 |        0 | i  |  2,19, 0 |||
 22 |          |           |        0 |        0 | i  |  2,20, 0 |||
 23 |          |           |        0 |        0 | i  |  2,21, 0 |||
 24 |          |           |        0 |   0.5236 | h  |  7, 3, 0 |||
 25 |          |           |        0 |  0.72313 | h  |  8, 3, 0 |||
 26 |          |           |        0 |  0.09787 | h  |  7, 4, 0 |||
 27 |          |           |        0 |  0.77361 | h  |  8, 4, 0 |||
 28 |          |           |        0 |  -1.7542 | h  |  7, 5, 0 |||
 29 |          |           |        0 |  0.68804 | h  |  8, 5, 0 |||
 30 |          |           |        0 | 0.013622 | h  |  7, 7, 0 |||
 31 |          |           |        0 | -0.94473 | h  |  8, 7, 0 |||
 32 |          |           |        0 |  -1.2616 | h  |  7, 8, 0 |||
 33 |          |           |        0 | -0.73072 | h  |  8, 8, 0 |||
 34 |          |           |        0 |  0.10114 | h  |  7, 9, 0 |||
 35 |          |           |        0 | -0.84421 | h  |  8, 9, 0 |||
 36 |          |           |        0 |  0.10287 | h  |  7,11, 0 |||
 37 |          |           |        0 |   1.0891 | h  |  8,11, 0 |||
 38 |          |           |        0 | -0.98577 | h  |  7,12, 0 |||
 39 |          |           |        0 |  0.30417 | h  |  8,12, 0 |||
 40 |          |           |        0 | -0.67966 | h  |  7,13, 0 |||
 41 |          |           |        0 |  0.22407 | h  |  8,13, 0 |||
 42 |          |           |        0 |  0.12476 | h  |  7,14, 0 |||
 43 |          |           |        0 |  0.38843 | h  |  8,14, 0 |||
 44 |          |           |        0 |   1.1076 | h  |  7,15, 0 |||
 45 |          |           |        0 |  0.89867 | h  |  8,15, 0 |||
 46 |          |           |        0 | -0.27691 | h  |  7,16, 0 |||
 47 |          |           |        0 | -0.15328 | h  |  8,16, 0 |||
 48 |          |           |        0 |   0.3533 | h  |  7,17, 0 |||
 49 |          |           |        0 | 0.033664 | h  |  8,17, 0 |||
 50 |          |           |        0 |  0.27048 | h  |  7,22, 0 |||
 51 |          |           |        0 | -0.51922 | h  |  8,22, 0 |||
 52 |          |           |        0 |   0.6213 | h  |  7,23, 0 |||
 53 |          |           |        0 | 0.031806 | h  |  8,23, 0 |||
 54 |          |           |        0 |  -0.3289 | h  |  7,24, 0 |||
 55 |          |           |        0 |   0.7664 | h  |  8,24, 0 |||
 56 |          |           |        0 |  0.10148 | h  |  7,26, 0 |||
 57 |          |           |        0 | -0.34917 | h  |  8,26, 0 |||
 58 |          |           |        0 |  0.79538 | h  |  7,27, 0 |||
 59 |          |           |        0 | -0.068866 | h  |  8,27, 0 |||
 60 |          |           |        0 |   1.1393 | h  | 13,12, 0 |||
 61 |          |           |        0 |  0.94936 | h  | 14,12, 0 |||
 62 |          |           |        0 |  0.18387 | h  | 13,13, 0 |||
 63 |          |           |        0 | -0.18203 | h  | 14,13, 0 |||
 64 |          |           |        0 | -0.45785 | h  | 13,14, 0 |||
 65 |          |           |        0 | -0.62079 | h  | 14,14, 0 |||
 66 |          |           |        0 | -0.44352 | h  | 13,15, 0 |||
 67 |          |           |        0 | -0.41554 | h  | 14,15, 0 |||
 68 |          |           |        0 |  0.49788 | h  | 13,16, 0 |||
 69 |          |           |        0 |  0.54307 | h  | 14,16, 0 |||
 70 |          |           |        0 | -0.32731 | o  | 18,14, 0 |||
----|----------|----------|----------|----------|----|----------|----------|----------|-------


connection definition section :

target | site | source:weight
-------|------|------------------------------------------------------------------------------------------------------------
    24 |      |   1:   0.848,   2: 0.83251,   3: 0.93606,   4: 0.92554
    25 |      |   1: 0.71499,   2:-0.77722,   3: 0.20883,   4:0.069042
    26 |      |   1:-0.090883,   2: 0.43348,   3:  1.4122,   4: 0.13307
    27 |      |   1: 0.91675,   2: 0.50084,   3:  -3.143,   4:0.080824
    28 |      |   1: 0.68754,   2:  0.2233,   3: 0.21458,   4: 0.14041
    29 |      |   1:-0.63956,   2:0.099847,   3: -1.4985,   4: 0.63885
    30 |      |   1:-0.074683,   5:-0.013569,   6:0.062993,   7:-0.42239
    31 |      |   1:-0.29652,   5:-0.19759,   6: 0.60841,   7: 0.59947
    32 |      |   1: 0.61622,   5:-0.54647,   6:-0.86022,   7: -0.1596
    33 |      |   1: 0.58643,   5: 0.42665,   6:  1.5463,   7:-0.15762
    34 |      |   1:-0.52847,   5: 0.59699,   6:  1.2096,   7: -0.7116
    35 |      |   1: 0.82988,   5:-0.30805,   6:-0.35323,   7:-0.92585
    36 |      |   1:-0.67923,   8:-0.75239,   9: 0.53066,  10: -1.3732,  11: 0.86888,  12: -0.4913,  13:-0.67321,  14: 0.90922, 
                 15: 0.29726,  21:-0.88229,  22:-0.58893,  23:0.012051
    37 |      |   1:-0.67508,   8:-0.84073,   9: 0.24245,  10: 0.67834,  11:-0.30652,  12:-0.57425,  13:-0.93747,  14: 0.44931, 
                 15: 0.24101,  21:-0.48574,  22:-0.12906,  23: 0.78734
    38 |      |   1: 0.21995,   8: -1.0559,   9:-0.43741,  10: 0.14965,  11: 0.67027,  12:-0.15956,  13:-0.97825,  14: -1.1553, 
                 15:  0.2076,  21:-0.56757,  22:-0.23817,  23: 0.60375
    39 |      |   1:-0.85727,   8: -1.3906,   9:-0.63322,  10: 0.26774,  11: 0.97277,  12: 0.28959,  13: 0.09752,  14: -0.2846, 
                 15:-0.28021,  21: 0.69677,  22: 0.79144,  23: 0.22528
    40 |      |   1:-0.082905,   8:-0.055985,   9:-0.18362,  10:-0.48577,  11:-0.012805,  12: 0.95936,  13: 0.16689,  14: 0.12832, 
                 15: 0.75844,  21:-0.85853,  22:-0.89757,  23: -0.6076
    41 |      |   1:0.059624,   8:0.088162,   9:-0.0062566,  10: 0.21352,  11:-0.54186,  12:  0.1337,  13:  0.3321,  14: 0.96542, 
                 15:-0.77387,  21:-0.44925,  22:-0.29479,  23:-0.22269
    42 |      |   1:0.035405,   8:-0.73239,   9:-0.46927,  10: 0.99556,  11: 0.44576,  12: 0.30052,  13:-0.009713,  14:-0.85547, 
                 15:-0.74124,  21: 0.50006,  22:-0.89068,  23: 0.39064
    43 |      |   1: 0.71501,   8: 0.56118,   9:-0.017099,  10:  -1.128,  11:-0.95438,  12:  1.1816,  13:-0.20885,  14: 0.21329, 
                 15:-0.39613,  21: 0.60141,  22:-0.59801,  23: 0.79869
    44 |      |   1: 0.55173,   8:-0.84006,   9: 0.74009,  10:-0.78203,  11:-0.048571,  12:-0.64704,  13:-0.55751,  14:  0.5868, 
                 15:-0.53364,  21: 0.63871,  22: 0.25749,  23: 0.33393
    45 |      |   1: 0.38447,   8: 0.58357,   9:-0.86765,  10:-0.40215,  11:-0.98448,  12: 0.91854,  13:-0.012417,  14:0.060274, 
                 15: 0.68081,  21:-0.057613,  22: 0.18944,  23:-0.38138
    46 |      |   1: 0.80464,   8: -0.4283,   9:-0.35854,  10: 0.38234,  11:   1.488,  12:-0.64226,  13: 0.44031,  14: 0.43131, 
                 15:-0.50391,  21: 0.32838,  22:-0.11091,  23:-0.21265
    47 |      |   1:-0.063925,   8:-0.38277,   9: 0.81616,  10:-0.57537,  11: -0.6894,  12: 0.19595,  13: 0.86293,  14:-0.26083, 
                 15:-0.75155,  21: 0.89816,  22:-0.53621,  23:-0.13891
    48 |      |   1:-0.72698,   8: 0.49228,   9: -1.1729,  10:-0.54501,  11: 0.63234,  12:-0.83945,  13: 0.76907,  14:-0.82785, 
                 15: 0.35218,  21:  0.3785,  22:-0.50837,  23: 0.74539
    49 |      |   1:-0.35769,   8:-0.59963,   9:  0.4066,  10: 0.37428,  11: 0.11415,  12:-0.60998,  13: 0.89971,  14:-0.021593, 
                 15:-0.20638,  21:-0.73564,  22:-0.63986,  23:-0.61596
    50 |      |   1:-0.23472,  16:-0.57826,  17:-0.47408,  18: 0.32321
    51 |      |   1:  0.6511,  16:0.097975,  17: 0.27082,  18:-0.27191
    52 |      |   1: 0.43866,  16:-0.92944,  17:-0.38292,  18: 0.28588
    53 |      |   1:-0.23993,  16:-0.22006,  17: 0.20753,  18: 0.58578
    54 |      |   1:-0.84776,  16:-0.32806,  17: -1.2907,  18:-0.61001
    55 |      |   1: 0.32994,  16: 0.20183,  17:-0.075585,  18: 0.67691
    56 |      |   1: 0.91799,  19:-0.69246,  20: 0.90323
    57 |      |   1: 0.70145,  19: 0.18632,  20:-0.28275
    58 |      |   1:-0.79449,  19:-0.023621,  20: 0.20514
    59 |      |   1: 0.52671,  19: 0.87315,  20: 0.12186
    60 |      |  24:-0.35207,  25:  1.3155,  26: 0.70888,  27:-0.32932,  28: -1.3961,  29:  1.3285,  30:  0.3119,  31:-0.30997, 
                 32:-0.69103,  33: 0.46235,  34:-0.93945,  35: 0.43602,  36:-0.12438,  37:   0.891,  38:0.078857,  39:-0.43357, 
                 40:-0.65711,  41:-0.03821,  42: 0.84747,  43: 0.67892,  44:   0.714,  45:-0.10511,  46:-0.52414,  47:-0.62327, 
                 48: -1.0572,  49:  1.0372,  50: 0.99411,  51: 0.57664,  52: 0.55268,  53:-0.019809,  54:-0.29269,  55:  1.1387, 
                 56:-0.44899,  57:-0.54858,  58: -0.8661,  59:-0.11344
    61 |      |  24:  0.1653,  25:  0.6608,  26:  1.0314,  27:-0.15184,  28: 0.63384,  29: 0.19422,  30: 0.50355,  31: 0.54324, 
                 32:-0.96549,  33:-0.88322,  34:  0.5391,  35:-0.35331,  36: 0.87215,  37: 0.46221,  38:-0.75599,  39:-0.44682, 
                 40: 0.88075,  41:-0.41234,  42:-0.36322,  43:  0.4753,  44:-0.71444,  45:-0.79183,  46:-0.17704,  47: 0.19649, 
                 48:-0.36097,  49:-0.29593,  50: 0.37969,  51:-0.077081,  52:-0.26237,  53:-0.80773,  54:-0.13806,  55: 0.81349, 
                 56: 0.90033,  57:-0.24956,  58:-0.40319,  59: 0.56393
    62 |      |  24:-0.70259,  25:0.076773,  26:  1.2476,  27: -2.1305,  28: 0.26912,  29: -1.1977,  30:-0.60545,  31:  1.0255, 
                 32:-0.22635,  33: 0.27097,  34:  1.3351,  35: 0.50204,  36:  1.1067,  37: 0.26491,  38:  1.2913,  39: 0.95551, 
                 40:-0.37016,  41:-0.40441,  42:-0.42819,  43: 0.24589,  44:-0.62989,  45:-0.040415,  46:0.088033,  47:-0.60807, 
                 48:   1.417,  49:  0.2501,  50:-0.71088,  51:-0.27528,  52:  0.7476,  53: 0.74982,  54:-0.68231,  55: 0.95016, 
                 56:-0.46765,  57:-0.55594,  58:   1.093,  59:-0.051974
    63 |      |  24:-0.64445,  25:-0.11274,  26:  1.0928,  27:-0.47297,  28: 0.40222,  29:0.067249,  30:-0.64671,  31:-0.69281, 
                 32:-0.15234,  33: 0.98472,  34:-0.48421,  35: 0.72015,  36:   1.288,  37:0.031509,  38:  1.0052,  39: 0.34775, 
                 40:-0.51773,  41: -1.0231,  42: 0.16161,  43: 0.78721,  44: -0.5783,  45: 0.51083,  46: 0.29787,  47: 0.70412, 
                 48:-0.43242,  49:0.080087,  50:-0.63349,  51:-0.37757,  52:0.057554,  53: 0.38246,  54: 0.53176,  55: 0.20087, 
                 56:-0.67402,  57: 0.40213,  58:  1.1566,  59:  0.2439
    64 |      |  24:-0.78057,  25: 0.53715,  26: 0.53678,  27:  1.0447,  28: 0.59128,  29: 0.25148,  30: 0.98212,  31: -0.3466, 
                 32:0.017924,  33:0.016154,  34:0.060407,  35: 0.10108,  36:  1.0084,  37:-0.38448,  38: 0.24531,  39: 0.64768, 
                 40: 0.83681,  41:-0.07116,  42: 0.76834,  43:-0.18084,  44: 0.18035,  45:-0.74793,  46: 0.85232,  47:-0.49731, 
                 48: 0.75055,  49:-0.018945,  50:-0.15728,  51: 0.12804,  52:0.012203,  53: -0.9223,  54:  0.7507,  55:  0.2214, 
                 56: 0.51667,  57: 0.29589,  58: 0.20965,  59: 0.18209
    65 |      |  24:  0.5989,  25: 0.95144,  26:  1.1536,  27: -2.7962,  28:  0.8188,  29: -1.6467,  30:-0.69523,  31: 0.80756, 
                 32: 0.61439,  33:  1.4678,  34: 0.64641,  35: -0.1954,  36:  1.3985,  37: -0.9245,  38:  1.6392,  39:  1.4016, 
                 40:  1.1414,  41:  -1.139,  42: 0.58634,  43: 0.45587,  44: 0.39608,  45:-0.61166,  46:  0.6005,  47: 0.10348, 
                 48: 0.41045,  49:0.0023452,  50:-0.22695,  51: 0.69257,  52:-0.88055,  53: 0.86972,  54: -1.0779,  55: 0.42284, 
                 56:   0.628,  57: 0.59749,  58: 0.60888,  59: -0.6989
    66 |      |  24: 0.49989,  25:  1.5546,  26: 0.90422,  27: 0.65373,  28: -1.0726,  29:0.041947,  30:-0.17064,  31: 0.02888, 
                 32:-0.31159,  33:-0.83633,  34:-0.19365,  35:-0.066082,  36: 0.85443,  37:  1.1607,  38:   1.055,  39:-0.63699, 
                 40:  0.6736,  41: 0.22041,  42: -0.3179,  43:-0.66614,  44: 0.79082,  45:-0.55269,  46:-0.17844,  47: 0.49576, 
                 48: -1.0416,  49:-0.61014,  50:0.026958,  51: 0.81111,  52: 0.70595,  53: 0.48857,  54:  1.0398,  55: 0.31778, 
                 56: 0.45728,  57:  1.0707,  58:-0.46668,  59:-0.54733
    67 |      |  24:  0.4568,  25: 0.94289,  26: 0.21437,  27: 0.71327,  28:-0.67319,  29: 0.76384,  30: 0.78743,  31:-0.57973, 
                 32: 0.80717,  33:  1.1244,  34: -0.6431,  35:0.013789,  36:-0.22938,  37:-0.039116,  38:-0.39383,  39:0.068605, 
                 40: 0.92121,  41:-0.88444,  42: 0.33923,  43: -1.0044,  44: 0.36357,  45:-0.0036874,  46: 0.83909,  47:-0.023013, 
                 48:0.036826,  49:0.028221,  50:-0.74547,  51:-0.020806,  52: 0.84637,  53:-0.32421,  54: 0.43063,  55:0.030105, 
                 56:  1.1316,  57:-0.45158,  58:-0.16096,  59:-0.24972
    68 |      |  24:-0.63256,  25:-0.36108,  26:-0.61956,  27: -1.1952,  28: 0.71817,  29:-0.14349,  30:-0.12314,  31: 0.98913, 
                 32: 0.65403,  33: 0.91382,  34:  1.0326,  35: 0.88462,  36:-0.0046628,  37: 0.78879,  38: 0.29957,  39: 0.96871, 
                 40: 0.62382,  41: 0.69552,  42: -0.1176,  43:-0.17876,  44:  1.0169,  45: 0.48177,  46:-0.74284,  47:-0.83032, 
                 48: 0.33178,  49: 0.17854,  50:-0.69509,  51: 0.72076,  52: 0.70327,  53:-0.11507,  54: -1.0359,  55:-0.87536, 
                 56: 0.63766,  57: -0.6563,  58:-0.75102,  59:-0.20525
    69 |      |  24: 0.16875,  25: 0.11563,  26: 0.34912,  27:-0.030764,  28:-0.60109,  29: 0.15143,  30: 0.66798,  31:-0.29522, 
                 32:-0.63114,  33: 0.49321,  34: -0.9022,  35:-0.88943,  36:-0.69618,  37:-0.069841,  38: 0.72714,  39:-0.96291, 
                 40: 0.18314,  41:-0.53378,  42: 0.43691,  43:-0.77894,  44:-0.46227,  45:  0.2456,  46:-0.86283,  47: 0.78443, 
                 48:0.054067,  49:-0.81906,  50: 0.32162,  51: 0.57786,  52:-0.44904,  53:-0.73066,  54: 0.14705,  55: 0.52156, 
                 56: 0.37199,  57: -0.6694,  58:-0.58645,  59:  1.0707
    70 |      |  60: -2.0053,  61:-0.52499,  62:  2.5004,  63: 0.81799,  64:-0.45218,  65:  3.7988,  66: -2.5971,  67: -1.0829, 
                 68:  1.1218,  69: -1.0752
-------|------|----------------------------------------------------------------------------------------------------------------
