SNNS network definition file V1.4-3D
generated at Thu May 09 10:11:49 1996

network name : edge_23
source files :
no. of units : 70
no. of connections : 622
no. of unit types : 0
no. of site types : 0


learning function : Std_Backpropagation
update function : Topological_Order


unit default section :

act      | bias     | st | subnet | layer | act func     | out func
---------|----------|----|--------|-------|--------------|-------------
 0.00000 |  0.00000 | h  |      0 |     1 | Act_Logistic | Out_Identity
---------|----------|----|--------|-------|--------------|-------------


unit definition section :

no. | typeName | unitName | act      | bias     | st | position | act func | out func | sites
----|----------|----------|----------|----------|----|----------|----------|----------|-------
  1 |          |           |        0 |        0 | i  |  2, 1, 0 |||
  2 |          |           |        0 |        0 | i  |  2, 3, 0 |||
  3 |          |           |        0 |        0 | i  |  2, 4, 0 |||
  4 |          |           |        0 |        0 | i  |  2, 5, 0 |||
  5 |          |           |        0 |        0 | i  |  2, 7, 0 |||
  6 |          |           |        0 |        0 | i  |  2, 8, 0 |||
  7 |          |           |        0 |        0 | i  |  2, 9, 0 |||
  8 |          |           |        0 |        0 | i  |  2,11, 0 |||
  9 |          |           |        0 |        0 | i  |  2,12, 0 |||
 10 |          |           |        0 |        0 | i  |  2,13, 0 |||
 11 |          |           |        0 |        0 | i  |  2,14, 0 |||
 12 |          |           |        0 |        0 | i  |  2,15, 0 |||
 13 |          |           |        0 |        0 | i  |  2,16, 0 |||
 14 |          |           |        0 |        0 | i  |  2,17, 0 |||
 15 |          |           |        0 |        0 | i  |  2,18, 0 |||
 16 |          |           |        0 |        0 | i  |  2,23, 0 |||
 17 |          |           |        0 |        0 | i  |  2,24, 0 |||
 18 |          |           |        0 |        0 | i  |  2,25, 0 |||
 19 |          |           |        0 |        0 | i  |  2,27, 0 |||
 20 |          |           |        0 |        0 | i  |  2,28, 0 |||
 21 |          |           |        0 |        0 | i  |  2,19, 0 |||
 22 |          |           |        0 |        0 | i  |  2,20, 0 |||
 23 |          |           |        0 |        0 | i  |  2,21, 0 |||
 24 |          |           |        0 |  0.44104 | h  |  7, 3, 0 |||
 25 |          |           |        0 | -0.095868 | h  |  8, 3, 0 |||
 26 |          |           |        0 |  0.65378 | h  |  7, 4, 0 |||
 27 |          |           |        0 |  0.38122 | h  |  8, 4, 0 |||
 28 |          |           |        0 | -0.65198 | h  |  7, 5, 0 |||
 29 |          |           |        0 |  0.75848 | h  |  8, 5, 0 |||
 30 |          |           |        0 |  0.29095 | h  |  7, 7, 0 |||
 31 |          |           |        0 |   -1.086 | h  |  8, 7, 0 |||
 32 |          |           |        0 |  -1.5353 | h  |  7, 8, 0 |||
 33 |          |           |        0 |  -1.1783 | h  |  8, 8, 0 |||
 34 |          |           |        0 | -0.045563 | h  |  7, 9, 0 |||
 35 |          |           |        0 |  -1.0257 | h  |  8, 9, 0 |||
 36 |          |           |        0 | 0.026843 | h  |  7,11, 0 |||
 37 |          |           |        0 |  0.88988 | h  |  8,11, 0 |||
 38 |          |           |        0 | -0.69019 | h  |  7,12, 0 |||
 39 |          |           |        0 | -0.38004 | h  |  8,12, 0 |||
 40 |          |           |        0 |  -0.7403 | h  |  7,13, 0 |||
 41 |          |           |        0 |   0.2382 | h  |  8,13, 0 |||
 42 |          |           |        0 |  0.25056 | h  |  7,14, 0 |||
 43 |          |           |        0 |  0.42005 | h  |  8,14, 0 |||
 44 |          |           |        0 |   1.3542 | h  |  7,15, 0 |||
 45 |          |           |        0 |    1.016 | h  |  8,15, 0 |||
 46 |          |           |        0 | -0.27645 | h  |  7,16, 0 |||
 47 |          |           |        0 | -0.075785 | h  |  8,16, 0 |||
 48 |          |           |        0 |  0.13808 | h  |  7,17, 0 |||
 49 |          |           |        0 |  -0.1493 | h  |  8,17, 0 |||
 50 |          |           |        0 |  0.39034 | h  |  7,22, 0 |||
 51 |          |           |        0 | -0.57079 | h  |  8,22, 0 |||
 52 |          |           |        0 |  0.48889 | h  |  7,23, 0 |||
 53 |          |           |        0 |  0.14079 | h  |  8,23, 0 |||
 54 |          |           |        0 | -0.16725 | h  |  7,24, 0 |||
 55 |          |           |        0 |  0.68749 | h  |  8,24, 0 |||
 56 |          |           |        0 |  0.20673 | h  |  7,26, 0 |||
 57 |          |           |        0 | -0.21135 | h  |  8,26, 0 |||
 58 |          |           |        0 |  0.71744 | h  |  7,27, 0 |||
 59 |          |           |        0 | 0.075514 | h  |  8,27, 0 |||
 60 |          |           |        0 |  0.77972 | h  | 13,12, 0 |||
 61 |          |           |        0 |  0.93061 | h  | 14,12, 0 |||
 62 |          |           |        0 | -0.12549 | h  | 13,13, 0 |||
 63 |          |           |        0 | -0.24856 | h  | 14,13, 0 |||
 64 |          |           |        0 | -0.52805 | h  | 13,14, 0 |||
 65 |          |           |        0 | -0.70511 | h  | 14,14, 0 |||
 66 |          |           |        0 | -0.46385 | h  | 13,15, 0 |||
 67 |          |           |        0 | -0.59699 | h  | 14,15, 0 |||
 68 |          |           |        0 |  0.38474 | h  | 13,16, 0 |||
 69 |          |           |        0 |  0.44461 | h  | 14,16, 0 |||
 70 |          |           |        0 | -0.16722 | o  | 18,14, 0 |||
----|----------|----------|----------|----------|----|----------|----------|----------|-------


connection definition section :

target | site | source:weight
-------|------|------------------------------------------------------------------------------------------------------------
    24 |      |   1: 0.84801,   2: 0.58656,   3:  1.2855,   4: 0.44762
    25 |      |   1: 0.71745,   2:-0.79122,   3: 0.10638,   4:-0.56587
    26 |      |   1:-0.088927,   2: 0.53669,   3: 0.46582,   4: 0.69585
    27 |      |   1: 0.74672,   2:-0.44906,   3:0.032933,   4:0.065294
    28 |      |   1: 0.68834,   2: 0.32224,   3: 0.83832,   4: 0.69314
    29 |      |   1: -0.7246,   2: 0.09971,   3:-0.59136,   4: 0.50674
    30 |      |   1:-0.21251,   5: 0.13391,   6:-0.46572,   7:-0.85652
    31 |      |   1:-0.25894,   5:-0.32077,   6: 0.65303,   7:  1.0234
    32 |      |   1: 0.72791,   5: -1.1478,   6:-0.78676,   7: 0.20034
    33 |      |   1:  0.6102,   5:-0.18995,   6: 0.55548,   7:-0.051865
    34 |      |   1:-0.38166,   5:  1.3206,   6: 0.56181,   7:-0.57498
    35 |      |   1: 0.87773,   5:-0.70026,   6:-0.63139,   7:-0.85149
    36 |      |   1:-0.61348,   8:0.045134,   9: 0.76273,  10:-0.86485,  11: 0.66077,  12:-0.65724,  13: -0.6001,  14: 0.77233, 
                 15: 0.53903,  21:-0.46459,  22:-0.78439,  23: 0.13942
    37 |      |   1:-0.70296,   8:-0.37739,   9: 0.02117,  10: 0.98727,  11: 0.79426,  12:-0.18665,  13:-0.83193,  14: 0.85088, 
                 15: 0.35676,  21:-0.87476,  22: 0.41936,  23:  1.0434
    38 |      |   1:  0.2757,   8:-0.55918,   9:-0.46416,  10: 0.75356,  11:-0.39014,  12:0.037063,  13:-0.96852,  14:-0.75821, 
                 15:-0.069459,  21:-0.30981,  22:0.052801,  23:  0.9138
    39 |      |   1:-0.83839,   8:-0.19667,   9:0.045655,  10: 0.56675,  11: 0.31763,  12:-0.35738,  13: 0.63748,  14:-0.055683, 
                 15:-0.40817,  21: 0.95095,  22:  0.2128,  23:0.040696
    40 |      |   1:-0.086008,   8:0.051229,   9:-0.19859,  10:-0.27672,  11:-0.20503,  12:  1.0852,  13:  0.1455,  14: 0.11743, 
                 15: 0.69161,  21:-0.88957,  22:-0.87659,  23: -0.6921
    41 |      |   1:-0.0046517,   8:-0.39712,   9:-0.11754,  10:-0.61597,  11: 0.16355,  12:  0.3534,  13: 0.59765,  14: 0.31951, 
                 15:-0.36644,  21:-0.70936,  22:-0.71789,  23: -0.2965
    42 |      |   1:0.026249,   8: -1.2966,   9:-0.65559,  10: 0.69068,  11: 0.42658,  12: 0.22565,  13: 0.79337,  14:-0.81294, 
                 15:-0.83803,  21: 0.66774,  22: -1.0805,  23: 0.77317
    43 |      |   1: 0.71395,   8: 0.64409,   9:0.025218,  10:-0.94815,  11:-0.87906,  12: 0.95348,  13:-0.18379,  14: 0.32479, 
                 15:-0.27911,  21: 0.81548,  22:-0.29588,  23: 0.70681
    44 |      |   1: 0.50297,   8: -1.0676,   9: 0.39346,  10:-0.83897,  11: 0.37007,  12:-0.26329,  13:-0.59224,  14: 0.52321, 
                 15:-0.60367,  21: 0.44389,  22:-0.19186,  23: 0.56955
    45 |      |   1: 0.39674,   8: 0.53132,   9:-0.98334,  10:-0.34353,  11:-0.80531,  12: 0.92185,  13:-0.40372,  14: 0.50309, 
                 15: 0.92415,  21: 0.46486,  22: 0.58414,  23: 0.20404
    46 |      |   1: 0.90507,   8: -0.4205,   9:-0.29627,  10: 0.70993,  11: 0.85766,  12: -0.9087,  13: 0.73621,  14: 0.74297, 
                 15:-0.60541,  21:0.068912,  22:-0.60015,  23:-0.32065
    47 |      |   1:-0.062955,   8:-0.46354,   9: 0.93424,  10:-0.56842,  11:-0.49763,  12: 0.55742,  13: 0.50741,  14:-0.43407, 
                 15:-0.77579,  21: 0.98602,  22:-0.48836,  23:-0.041969
    48 |      |   1:-0.71727,   8: 0.48405,   9:-0.93661,  10:-0.18998,  11: 0.31596,  12:-0.89045,  13: 0.93028,  14:-0.82085, 
                 15: 0.78552,  21: 0.41249,  22:-0.68098,  23: 0.53735
    49 |      |   1:-0.36096,   8:-0.53205,   9: 0.37868,  10:  0.3488,  11: 0.14632,  12:-0.67988,  13:  0.9881,  14:0.088869, 
                 15:-0.27281,  21:-0.67049,  22: -0.6247,  23: -0.5576
    50 |      |   1:-0.37168,  16:  -1.777,  17:-0.21703,  18:0.026531
    51 |      |   1: 0.62256,  16:-0.27799,  17: 0.17992,  18:-0.43858
    52 |      |   1:  0.4155,  16: -1.0401,  17:-0.47441,  18:0.061514
    53 |      |   1:-0.090723,  16:-0.12867,  17:0.039664,  18: 0.74951
    54 |      |   1:-0.95355,  16:-0.44247,  17: -1.2335,  18:-0.61791
    55 |      |   1: 0.32337,  16:-0.050551,  17:-0.14228,  18: 0.54685
    56 |      |   1: 0.90658,  19:-0.45833,  20:  0.9692
    57 |      |   1:  0.7319,  19:-0.035329,  20:0.019784
    58 |      |   1:-0.65522,  19:0.054288,  20:-0.059443
    59 |      |   1: 0.48653,  19: 0.68105,  20:-0.068271
    60 |      |  24:-0.46648,  25: 0.57124,  26: 0.59796,  27:-0.95586,  28:-0.60837,  29:  0.5023,  30:0.097696,  31:-0.75352, 
                 32: -1.0274,  33: 0.25636,  34: -1.0183,  35: 0.18514,  36:-0.30823,  37:  0.9335,  38:-0.21511,  39:-0.41971, 
                 40:-0.99886,  41:-0.30158,  42:  1.0978,  43: 0.49298,  44: 0.44251,  45:  -0.725,  46:-0.35797,  47: -1.2545, 
                 48:-0.79382,  49: 0.74555,  50:  1.0643,  51: 0.52149,  52: 0.48535,  53:-0.19823,  54:-0.30709,  55: 0.76897, 
                 56:-0.65236,  57:-0.76308,  58: -1.0863,  59:-0.26178
    61 |      |  24: 0.10182,  25: 0.66191,  26: 0.96342,  27: -0.1778,  28: 0.70478,  29: 0.15853,  30: 0.51003,  31: 0.47489, 
                 32:  -1.059,  33:-0.87141,  34: 0.62282,  35:-0.36221,  36:  1.0313,  37: 0.50713,  38:  -0.667,  39:-0.44634, 
                 40: 0.94815,  41:-0.52226,  42:-0.36537,  43: 0.42919,  44:-0.74798,  45:-0.86744,  46:-0.22069,  47:-0.0088963, 
                 48:-0.28472,  49:-0.28538,  50: 0.41648,  51:-0.076315,  52:-0.25902,  53:-0.77237,  54:-0.19868,  55: 0.78166, 
                 56: 0.81118,  57:-0.24212,  58:-0.43319,  59:  0.4838
    62 |      |  24:-0.98278,  25:-0.19442,  26: 0.83431,  27:-0.82852,  28:-0.38025,  29:-0.41248,  30: -0.8912,  31:  1.2328, 
                 32:-0.14187,  33:-0.011439,  34: 0.86144,  35: 0.29245,  36: 0.56774,  37:  0.1956,  38: 0.44074,  39: 0.24111, 
                 40:-0.90995,  41:-0.22559,  42: -1.3469,  43:-0.30323,  44:-0.83128,  45:   0.142,  46: 0.36532,  47:-0.76877, 
                 48: 0.71636,  49:  0.1362,  50: -1.1082,  51:-0.38652,  52: 0.49877,  53: 0.39751,  54:-0.63017,  55: 0.73213, 
                 56:-0.57787,  57:-0.66881,  58: 0.94021,  59:-0.065242
    63 |      |  24: -1.0391,  25:0.0041334,  26: 0.78209,  27:0.051368,  28:-0.16526,  29: 0.50818,  30:-0.89338,  31:-0.12631, 
                 32:0.0084413,  33:  1.3063,  34:-0.52255,  35: 0.70918,  36:   1.011,  37:-0.018086,  38:   1.021,  39:  0.1506, 
                 40:-0.58599,  41: -1.1027,  42:-0.38926,  43: 0.67396,  44:-0.75993,  45: 0.86665,  46: 0.21307,  47: 0.90185, 
                 48: -1.1308,  49:0.016351,  50:-0.94742,  51:-0.48539,  52:-0.22044,  53:    0.38,  54: 0.19413,  55: 0.28922, 
                 56:-0.77154,  57: 0.38159,  58:   1.119,  59: 0.24632
    64 |      |  24:-0.91207,  25:  0.5375,  26: 0.43343,  27:  1.0519,  28: 0.52873,  29: 0.19546,  30: 0.95077,  31:-0.43747, 
                 32:-0.012111,  33:-0.06105,  34:0.0076477,  35:0.045228,  36: 0.91798,  37:-0.40868,  38: 0.21696,  39:  0.5843, 
                 40:  0.7179,  41:-0.19658,  42: 0.80079,  43:-0.10985,  44: 0.17311,  45:-0.74445,  46: 0.77218,  47:-0.61892, 
                 48: 0.76046,  49:-0.12834,  50:-0.13832,  51: 0.12435,  52:0.0020526,  53:-0.97809,  54: 0.78214,  55: 0.15367, 
                 56: 0.53847,  57: 0.28844,  58: 0.14638,  59: 0.17308
    65 |      |  24:-0.037759,  25: 0.72631,  26:  0.4367,  27:-0.61672,  28:-0.14208,  29:-0.029346,  30: -1.0372,  31:  1.1382, 
                 32: 0.89003,  33:  1.3221,  34: 0.49719,  35:-0.26372,  36:  0.4271,  37: -1.0749,  38:  1.0947,  39: 0.82043, 
                 40: 0.82821,  41: -1.0181,  42:-0.078755,  43: 0.21057,  44: 0.22906,  45:-0.0027405,  46: 0.63283,  47: 0.45539, 
                 48:-0.92435,  49:-0.13666,  50:-0.55719,  51: 0.55709,  52:  -1.013,  53: 0.86268,  54: -1.2483,  55: 0.50643, 
                 56: 0.42645,  57: 0.53715,  58: 0.63075,  59:-0.43991
    66 |      |  24: 0.49777,  25:  1.0893,  26: 0.85059,  27: 0.32194,  28:-0.088976,  29: -0.5259,  30:-0.37615,  31:-0.030364, 
                 32:-0.66834,  33:-0.70538,  34:0.030907,  35:-0.27211,  36:  0.8501,  37:  1.0533,  38:  1.0783,  39:-0.73268, 
                 40: 0.71033,  41:0.072757,  42:-0.12026,  43:-0.33749,  44: 0.77431,  45:-0.79106,  46:-0.14718,  47:  0.3637, 
                 48:-0.72967,  49:-0.91028,  50: 0.21224,  51: 0.85767,  52: 0.83822,  53: 0.56201,  54:  1.0665,  55: 0.20688, 
                 56: 0.48604,  57: 0.97966,  58:-0.51525,  59: -0.6065
    67 |      |  24: 0.33437,  25: 0.44888,  26:0.074055,  27: 0.79691,  28:-0.38564,  29: 0.93176,  30: 0.59798,  31:-0.36152, 
                 32: 0.78856,  33:  1.1827,  34:-0.78464,  35:-0.092737,  36:-0.41816,  37:-0.22155,  38:-0.34605,  39:-0.13514, 
                 40: 0.81447,  41:-0.94042,  42:0.034078,  43:-0.82007,  44: 0.22918,  45: 0.11197,  46: 0.65756,  47:-0.18985, 
                 48: -0.1034,  49:-0.066052,  50: -1.0465,  51:-0.11956,  52: 0.47628,  53:-0.57029,  54: 0.36145,  55:-0.063874, 
                 56:  0.9152,  57: -0.5057,  58:-0.32023,  59:-0.43747
    68 |      |  24:-0.87639,  25:-0.26823,  26:-0.87178,  27:-0.86937,  28: 0.12437,  29: 0.16931,  30:-0.33688,  31:  1.4156, 
                 32: 0.78258,  33:   1.067,  34: 0.91309,  35: 0.88974,  36:-0.13989,  37:  0.6204,  38: 0.18823,  39: 0.83298, 
                 40: 0.60408,  41: 0.64745,  42:  -0.601,  43:-0.33974,  44: 0.79616,  45: 0.78214,  46: -0.8333,  47:-0.48959, 
                 48:-0.072807,  49:0.071142,  50: -1.0109,  51: 0.61061,  52: 0.50058,  53:-0.17255,  54: -1.1752,  55:-0.95535, 
                 56: 0.64445,  57:-0.73539,  58:-0.77218,  59:-0.17997
    69 |      |  24:0.043463,  25:-0.027462,  26: 0.20746,  27:-0.19437,  28:-0.35719,  29:0.091605,  30: 0.60005,  31:  -0.431, 
                 32:-0.75589,  33: 0.51483,  34:-0.83223,  35:-0.95018,  36:-0.60104,  37:-0.059923,  38: 0.95948,  39:-0.94699, 
                 40: 0.17397,  41:-0.66223,  42: 0.44322,  43:-0.73011,  44:-0.48968,  45:0.012749,  46:-0.89692,  47: 0.31818, 
                 48: 0.21562,  49:-0.88884,  50: 0.28134,  51: 0.56184,  52:-0.58587,  53:-0.83498,  54: 0.12836,  55: 0.44269, 
                 56: 0.17378,  57: -0.6683,  58:-0.71398,  59: 0.82725
    70 |      |  60: -1.3665,  61:-0.73159,  62:  1.4166,  63:  1.5669,  64:-0.79693,  65:  1.8818,  66: -2.0573,  67: 0.25793, 
                 68:  1.4056,  69:-0.72213
-------|------|----------------------------------------------------------------------------------------------------------------
