SNNS network definition file V1.4-3D
generated at Thu May 09 10:11:49 1996

network name : edge_23
source files :
no. of units : 70
no. of connections : 622
no. of unit types : 0
no. of site types : 0


learning function : Std_Backpropagation
update function : Topological_Order


unit default section :

act      | bias     | st | subnet | layer | act func     | out func
---------|----------|----|--------|-------|--------------|-------------
 0.00000 |  0.00000 | h  |      0 |     1 | Act_Logistic | Out_Identity
---------|----------|----|--------|-------|--------------|-------------


unit definition section :

no. | typeName | unitName | act      | bias     | st | position | act func | out func | sites
----|----------|----------|----------|----------|----|----------|----------|----------|-------
  1 |          |           |        0 |        0 | i  |  2, 1, 0 |||
  2 |          |           |   4.2445 |        0 | i  |  2, 3, 0 |||
  3 |          |           |   15.759 |        0 | i  |  2, 4, 0 |||
  4 |          |           |   5.3932 |        0 | i  |  2, 5, 0 |||
  5 |          |           |    5.076 |        0 | i  |  2, 7, 0 |||
  6 |          |           |        2 |        0 | i  |  2, 8, 0 |||
  7 |          |           |    3.334 |        0 | i  |  2, 9, 0 |||
  8 |          |           |   4.4713 |        0 | i  |  2,11, 0 |||
  9 |          |           |  -2.0101 |        0 | i  |  2,12, 0 |||
 10 |          |           | -0.71531 |        0 | i  |  2,13, 0 |||
 11 |          |           |     2.15 |        0 | i  |  2,14, 0 |||
 12 |          |           | -0.85373 |        0 | i  |  2,15, 0 |||
 13 |          |           | -0.37101 |        0 | i  |  2,16, 0 |||
 14 |          |           |   5.4883 |        0 | i  |  2,17, 0 |||
 15 |          |           | -0.12453 |        0 | i  |  2,18, 0 |||
 16 |          |           |   1.1236 |        0 | i  |  2,23, 0 |||
 17 |          |           |  -1.3449 |        0 | i  |  2,24, 0 |||
 18 |          |           |  -1.4833 |        0 | i  |  2,25, 0 |||
 19 |          |           |        2 |        0 | i  |  2,27, 0 |||
 20 |          |           |   27.686 |        0 | i  |  2,28, 0 |||
 21 |          |           |   79.102 |        0 | i  |  2,19, 0 |||
 22 |          |           |        0 |        0 | i  |  2,20, 0 |||
 23 |          |           |   51.416 |        0 | i  |  2,21, 0 |||
 24 |          |           |        1 |  0.46329 | h  |  7, 3, 0 |||
 25 |          |           |  0.05151 |  0.52842 | h  |  8, 3, 0 |||
 26 |          |           |        1 |  -0.2623 | h  |  7, 4, 0 |||
 27 |          |           | 2.025e-05 |  0.42584 | h  |  8, 4, 0 |||
 28 |          |           |  0.97747 |  -1.6847 | h  |  7, 5, 0 |||
 29 |          |           | 0.045103 |   1.7742 | h  |  8, 5, 0 |||
 30 |          |           | 0.081937 | 0.031776 | h  |  7, 7, 0 |||
 31 |          |           | 0.059204 | -0.95037 | h  |  8, 7, 0 |||
 32 |          |           | 0.0001457 |  -1.2586 | h  |  7, 8, 0 |||
 33 |          |           |  0.96836 | -0.73165 | h  |  8, 8, 0 |||
 34 |          |           |  0.99657 |  0.24446 | h  |  7, 9, 0 |||
 35 |          |           | 0.00031372 | -0.71157 | h  |  8, 9, 0 |||
 36 |          |           | 1.9591e-11 |  0.37589 | h  |  7,11, 0 |||
 37 |          |           |        1 |   1.1121 | h  |  8,11, 0 |||
 38 |          |           | 9.6529e-12 | -0.51728 | h  |  7,12, 0 |||
 39 |          |           |        1 |  0.22495 | h  |  8,12, 0 |||
 40 |          |           | 3.0558e-46 | -0.44902 | h  |  7,13, 0 |||
 41 |          |           | 3.1681e-27 |  0.25686 | h  |  8,13, 0 |||
 42 |          |           |        1 |  0.19431 | h  |  7,14, 0 |||
 43 |          |           |        1 |  0.46921 | h  |  8,14, 0 |||
 44 |          |           |        1 |   1.1139 | h  |  7,15, 0 |||
 45 |          |           | 2.6793e-19 |  0.91283 | h  |  8,15, 0 |||
 46 |          |           |        1 |  -0.2966 | h  |  7,16, 0 |||
 47 |          |           |        1 |  0.20379 | h  |  8,16, 0 |||
 48 |          |           |        1 | -0.30341 | h  |  7,17, 0 |||
 49 |          |           | 6.9273e-40 | 0.098396 | h  |  8,17, 0 |||
 50 |          |           |  0.24891 |    0.285 | h  |  7,22, 0 |||
 51 |          |           | 0.076525 | -0.48084 | h  |  8,22, 0 |||
 52 |          |           |  0.69235 |  0.63179 | h  |  7,23, 0 |||
 53 |          |           | 0.037036 | -0.068033 | h  |  8,23, 0 |||
 54 |          |           |  0.91776 | -0.35038 | h  |  7,24, 0 |||
 55 |          |           |  0.56238 |  0.76266 | h  |  8,24, 0 |||
 56 |          |           |        1 | 0.092019 | h  |  7,26, 0 |||
 57 |          |           | 0.00053322 | -0.27135 | h  |  8,26, 0 |||
 58 |          |           |        1 |  0.59667 | h  |  7,27, 0 |||
 59 |          |           | 0.00011494 |   0.1438 | h  |  8,27, 0 |||
 60 |          |           |  0.27184 |   1.1637 | h  | 13,12, 0 |||
 61 |          |           |  0.93996 |  0.97373 | h  | 14,12, 0 |||
 62 |          |           |   0.2374 | -0.22758 | h  | 13,13, 0 |||
 63 |          |           |  0.99809 | -0.086453 | h  | 14,13, 0 |||
 64 |          |           |  0.97507 | -0.48303 | h  | 13,14, 0 |||
 65 |          |           |  0.99991 | -0.54661 | h  | 14,14, 0 |||
 66 |          |           |   0.4926 | -0.47068 | h  | 13,15, 0 |||
 67 |          |           |  0.65499 | -0.74865 | h  | 14,15, 0 |||
 68 |          |           |  0.95144 |  0.60653 | h  | 13,16, 0 |||
 69 |          |           |   0.1212 |  0.46355 | h  | 14,16, 0 |||
 70 |          |           |  0.98272 | -0.35295 | o  | 18,14, 0 |||
----|----------|----------|----------|----------|----|----------|----------|----------|-------


connection definition section :

target | site | source:weight
-------|------|------------------------------------------------------------------------------------------------------------
    24 |      |   1: 0.84868,   2: 0.88579,   3: 0.95889,   4:  1.2409
    25 |      |   1: 0.74134,   2: -1.0234,   3: 0.18104,   4:-0.36167
    26 |      |   1:-0.088863,   2:  1.4023,   3: 0.80231,   4:-0.15642
    27 |      |   1: 0.94119,   2: 0.33821,   3:-0.75831,   4:-0.13321
    28 |      |   1: 0.67587,   2:-0.091633,   3: 0.26026,   4: 0.32308
    29 |      |   1:-0.70303,   2:-0.46662,   3:-0.33855,   4:  0.4615
    30 |      |   1:-0.11491,   5:-0.14804,   6: 0.23307,   7:-0.64871
    31 |      |   1:-0.27523,   5: -0.8677,   6: 0.10363,   7: 0.71442
    32 |      |   1: 0.61554,   5:-0.81443,   6: -1.0136,   7:-0.42412
    33 |      |   1: 0.58641,   5: 0.13405,   6:  1.5819,   7:0.092516
    34 |      |   1:-0.50695,   5:  1.0283,   6:  1.0163,   7:-0.54701
    35 |      |   1: 0.82956,   5: -0.7046,   6:-0.45136,   7:-0.86258
    36 |      |   1:-0.70778,   8:-0.25382,   9: 0.60273,  10: -1.1249,  11: 0.31365,  12:-0.80085,  13:  0.6048,  14:  1.2926, 
                 15: 0.51404,  21:-0.63807,  22:-0.74015,  23: 0.36602
    37 |      |   1:-0.51282,   8: -1.1725,   9: 0.44523,  10: 0.56368,  11:  1.2685,  12: -1.0016,  13:-0.56983,  14: 0.57782, 
                 15: 0.12763,  21:-0.58017,  22: 0.31298,  23:  1.1306
    38 |      |   1: 0.25125,   8: -1.1213,   9:-0.29465,  10: 0.46134,  11:-0.58811,  12: 0.21848,  13:-0.24053,  14:-0.47653, 
                 15: 0.14507,  21: -0.6511,  22:-0.25738,  23: 0.68856
    39 |      |   1:-0.90138,   8:-0.45707,   9:-0.82149,  10: -0.4159,  11: 0.46335,  12: 0.10641,  13: 0.94352,  14: 0.14916, 
                 15:-0.76464,  21: 0.58425,  22: 0.50869,  23: 0.31588
    40 |      |   1:-0.13066,   8:-0.44884,   9:-0.28038,  10: 0.10638,  11:-0.28751,  12:  1.1725,  13: 0.74766,  14: 0.62344, 
                 15: 0.60497,  21:-0.89817,  22:-0.93078,  23:-0.64642
    41 |      |   1:0.043054,   8:0.084673,   9:-0.14591,  10: 0.08573,  11: 0.44082,  12:-0.025169,  13:0.091053,  14: 0.14374, 
                 15:-0.79347,  21:-0.58682,  22:-0.67386,  23:-0.33626
    42 |      |   1:0.052284,   8:-0.91111,   9:-0.32639,  10: 0.84961,  11: 0.43014,  12: 0.45572,  13:0.061243,  14:-0.63717, 
                 15:-0.67386,  21: 0.68965,  22:-0.89212,  23: 0.42011
    43 |      |   1: 0.62628,   8: 0.48864,   9:0.067627,  10: -1.0909,  11: -1.1474,  12:  1.1204,  13:-0.23232,  14: 0.20851, 
                 15:-0.12828,  21: 0.87517,  22:-0.30844,  23: 0.76232
    44 |      |   1: 0.53496,   8: -1.8112,   9:  1.1059,  10:-0.46073,  11: 0.19182,  12: -0.3997,  13:-0.68152,  14:  1.0461, 
                 15:-0.30686,  21: 0.76931,  22: 0.15788,  23: 0.28043
    45 |      |   1: 0.38689,   8: 0.35921,   9:-0.77063,  10: 0.23065,  11:-0.88019,  12:  1.0551,  13:-0.31025,  14:  0.7941, 
                 15: 0.78252,  21: -0.4821,  22: 0.21231,  23:-0.19671
    46 |      |   1: 0.89721,   8:-0.26809,   9:-0.37997,  10: 0.59398,  11: 0.90912,  12:-0.80344,  13:   0.806,  14: 0.74115, 
                 15: -0.7012,  21: 0.44502,  22:-0.62567,  23:0.099035
    47 |      |   1:-0.14732,   8: -1.7443,   9: 0.90559,  10:-0.022048,  11:-0.66648,  12: 0.58074,  13:  1.0427,  14:-0.015571, 
                 15:-0.75821,  21: 0.92037,  22:-0.57304,  23:0.001776
    48 |      |   1:-0.71833,   8: 0.96018,   9:-0.97997,  10:-0.29084,  11: 0.41252,  12:-0.90663,  13: 0.39438,  14:-0.50516, 
                 15: 0.48733,  21: 0.45689,  22:-0.67396,  23: 0.57563
    49 |      |   1:-0.33873,   8:-0.58125,   9: 0.40913,  10: 0.29958,  11: 0.16022,  12:-0.54174,  13: 0.99888,  14:-0.25767, 
                 15:-0.05447,  21: -0.7042,  22:-0.62863,  23:-0.58262
    50 |      |   1:-0.26855,  16:-0.027997,  17: 0.22901,  18: 0.70784
    51 |      |   1: 0.65928,  16:-0.69605,  17:  0.6826,  18:  0.2087
    52 |      |   1: 0.49885,  16:-0.41185,  17:-0.64474,  18: 0.15173
    53 |      |   1:-0.19383,  16: -1.2749,  17: 0.20598,  18: 0.99815
    54 |      |   1:-0.86892,  16: 0.20718,  17: -1.1379,  18:-0.67379
    55 |      |   1: 0.35155,  16: 0.54948,  17:-0.036304,  18: 0.79418
    56 |      |   1: 0.87016,  19:-0.56415,  20: 0.94318
    57 |      |   1: 0.71197,  19:-0.085477,  20:-0.25622
    58 |      |   1:-0.77339,  19: 0.58154,  20:  0.4443
    59 |      |   1: 0.46711,  19: 0.82177,  20: -0.3922
    60 |      |  24:-0.22416,  25:  1.5378,  26: 0.82901,  27: 0.14625,  28: -1.4497,  29:  2.3258,  30: 0.62125,  31:0.081148, 
                 32:-0.64953,  33: 0.20261,  34: -1.0953,  35: 0.53142,  36:-0.063565,  37: 0.87286,  38: 0.12466,  39:-0.69785, 
                 40:-0.68571,  41:-0.23391,  42: 0.45599,  43: 0.83284,  44:  0.7896,  45: 0.15153,  46: -0.6045,  47:-0.57638, 
                 48: -1.0558,  49:  1.1962,  50:  1.0784,  51: 0.59719,  52:  0.4064,  53:-0.059351,  54:-0.69124,  55:  1.3328, 
                 56:-0.55034,  57:-0.63468,  58:-0.85578,  59:-0.22925
    61 |      |  24: 0.14385,  25: 0.63536,  26: 0.99894,  27:-0.19775,  28: 0.76427,  29: 0.21014,  30:   0.516,  31: 0.57727, 
                 32:-0.96695,  33: -0.8698,  34: 0.57445,  35:-0.30773,  36:  1.0034,  37: 0.45899,  38:-0.58962,  39:-0.33319, 
                 40: 0.90565,  41:-0.51157,  42:-0.31915,  43: 0.50511,  44:-0.62614,  45:-0.82177,  46:-0.17861,  47: 0.13308, 
                 48:-0.24201,  49:-0.31005,  50: 0.38405,  51:-0.084862,  52:-0.26961,  53:-0.80574,  54:-0.14605,  55: 0.81379, 
                 56: 0.83033,  57:-0.24418,  58: -0.3859,  59: 0.53219
    62 |      |  24:   -1.16,  25: -0.4988,  26: 0.76112,  27: -1.1988,  28:-0.14404,  29: -1.1141,  30: -1.0342,  31: 0.84082, 
                 32:-0.16577,  33:-0.15478,  34: 0.81811,  35: 0.27846,  36: 0.19513,  37:-0.030645,  38: 0.41027,  39:  0.4885, 
                 40:-0.99004,  41:-0.29217,  42:-0.74708,  43:-0.30494,  44:-0.97373,  45:-0.022023,  46:  0.2599,  47:  -0.752, 
                 48: 0.83608,  49:-0.11099,  50: -1.0538,  51:-0.45326,  52:  0.4875,  53: 0.42436,  54:-0.51537,  55: 0.62856, 
                 56: -0.5669,  57:-0.70394,  58: 0.90015,  59:0.088872
    63 |      |  24:-0.63707,  25:0.071605,  26:  1.4454,  27:-0.85593,  28: 0.62697,  29: -0.5537,  30:-0.54714,  31:-0.62581, 
                 32:-0.087604,  33:   1.151,  34:-0.42034,  35: 0.78531,  36:  1.2292,  37: -0.1595,  38: 0.85989,  39: 0.29551, 
                 40:-0.22754,  41: -1.0358,  42: 0.26537,  43:  1.3572,  44:0.050771,  45: 0.75553,  46:0.067384,  47:  1.6436, 
                 48:-0.85863,  49:-0.25317,  50: -0.4536,  51:-0.26981,  52: 0.13876,  53: 0.69773,  54: 0.57785,  55: 0.28467, 
                 56:-0.36234,  57:  0.3157,  58:  1.3556,  59: 0.37351
    64 |      |  24:-0.70528,  25: 0.42549,  26: 0.59559,  27: 0.96236,  28: 0.73331,  29: 0.18897,  30: 0.95105,  31:-0.33857, 
                 32:-0.0042202,  33:0.037807,  34: 0.05183,  35: 0.06752,  36: 0.99616,  37:-0.41282,  38: 0.22145,  39: 0.60744, 
                 40: 0.80974,  41:-0.074696,  42: 0.73031,  43:-0.16031,  44:  0.1573,  45:-0.75146,  46: 0.85556,  47:-0.53166, 
                 48: 0.74335,  49:-0.026343,  50:-0.18322,  51: 0.11802,  52:-0.023425,  53:-0.95172,  54: 0.74716,  55: 0.20588, 
                 56: 0.47437,  57: 0.28922,  58: 0.18861,  59: 0.14976
    65 |      |  24: 0.34048,  25: 0.84758,  26:  1.5011,  27: -2.0866,  28: 0.91329,  29: -1.6729,  30:-0.51655,  31: 0.56909, 
                 32:  0.7833,  33:  1.4189,  34: 0.76882,  35:-0.11241,  36:  1.1637,  37:-0.95551,  38:  1.0105,  39: 0.71339, 
                 40:  1.6828,  41:-0.88552,  42:  0.4674,  43:  1.1084,  44:  1.7363,  45: 0.30805,  46: 0.33921,  47:  1.6874, 
                 48: -1.0656,  49:-0.52392,  50:  0.1847,  51:  1.0062,  52:-0.44252,  53:  1.6895,  54:  -0.979,  55: 0.36432, 
                 56:  0.9023,  57:  0.4548,  58: 0.86572,  59: -0.5273
    66 |      |  24: 0.71534,  25:  1.4582,  26: 0.99496,  27: 0.87726,  28:-0.79263,  29: 0.81689,  30:0.019364,  31:-0.03853, 
                 32:-0.46661,  33:-0.83149,  34:0.031865,  35:-0.17645,  36: 0.74953,  37:  1.1146,  38: 0.98465,  39:-0.90325, 
                 40: 0.60073,  41: 0.21931,  42:-0.58651,  43:-0.67487,  44: 0.47246,  45:-0.71736,  46:-0.076757,  47: 0.37397, 
                 48: -0.8478,  49:-0.29623,  50: 0.11261,  51:  0.9115,  52: 0.74608,  53: 0.57149,  54: 0.77809,  55: 0.37315, 
                 56: 0.31686,  57: 0.99085,  58:-0.58077,  59:-0.74496
    67 |      |  24: 0.52446,  25:  0.5001,  26: 0.14872,  27: 0.63621,  28:-0.60587,  29: 0.77781,  30: 0.69923,  31:-0.80142, 
                 32:  0.6108,  33:  1.1922,  34:-0.63614,  35:-0.27299,  36:-0.59364,  37:-0.034012,  38: -0.5986,  39:-0.17816, 
                 40: 0.55648,  41: -1.0966,  42:0.010333,  43:-0.80959,  44:0.029138,  45:-0.23889,  46: 0.96331,  47:-0.55608, 
                 48: 0.20727,  49:-0.22595,  50: -1.0157,  51:-0.11478,  52: 0.59935,  53:-0.54861,  54: 0.43989,  55:-0.26218, 
                 56:  1.0643,  57:-0.67354,  58:-0.36784,  59:-0.76086
    68 |      |  24: -0.7931,  25:-0.10545,  26:-0.72165,  27: -1.3138,  28: 0.67409,  29:-0.58111,  30:-0.12421,  31:  1.1372, 
                 32: 0.80228,  33: 0.86679,  34: 0.82144,  35:  1.0168,  36:0.011378,  37: 0.52553,  38:0.011204,  39: 0.90925, 
                 40: 0.86944,  41: 0.80461,  42:0.031451,  43:0.046423,  44:  1.4394,  45: 0.86163,  46: -1.0422,  47:0.057958, 
                 48:0.031051,  49:-0.015636,  50:-0.48855,  51: 0.83616,  52: 0.81198,  53:  0.1302,  54:-0.90963,  55:-0.84597, 
                 56: 0.92137,  57: -0.6491,  58:-0.57816,  59: 0.17413
    69 |      |  24: 0.38658,  25:-0.22388,  26: 0.55704,  27:-0.23756,  28:-0.14958,  29:-0.0054144,  30: 0.74813,  31:-0.38993, 
                 32:-0.70151,  33: 0.52543,  34:-0.81963,  35:-0.88743,  36:-0.64371,  37:-0.062924,  38: 0.97054,  39:-0.96509, 
                 40: 0.10894,  41:-0.72543,  42: 0.26746,  43:-0.80707,  44:-0.46058,  45:0.036901,  46: -0.8462,  47: 0.38786, 
                 48: 0.11932,  49: -0.7462,  50: 0.33361,  51: 0.61605,  52:-0.51732,  53:-0.67877,  54:-0.052732,  55: 0.50949, 
                 56: 0.12002,  57:-0.66663,  58:-0.69769,  59: 0.79689
    70 |      |  60: -3.3224,  61:0.089293,  62: 0.93613,  63:  1.7979,  64:-0.082897,  65:  4.0122,  66: -2.3486,  67:  -1.271, 
                 68:   1.412,  69:-0.73182
-------|------|----------------------------------------------------------------------------------------------------------------
