SNNS network definition file V1.4-3D
generated at Thu May 09 10:11:49 1996

network name : edge_23
source files :
no. of units : 70
no. of connections : 622
no. of unit types : 0
no. of site types : 0


learning function : Std_Backpropagation
update function : Topological_Order


unit default section :

act      | bias     | st | subnet | layer | act func     | out func
---------|----------|----|--------|-------|--------------|-------------
 0.00000 |  0.00000 | h  |      0 |     1 | Act_Logistic | Out_Identity
---------|----------|----|--------|-------|--------------|-------------


unit definition section :

no. | typeName | unitName | act      | bias     | st | position | act func | out func | sites
----|----------|----------|----------|----------|----|----------|----------|----------|-------
  1 |          |           |        0 |        0 | i  |  2, 1, 0 |||
  2 |          |           |        0 |        0 | i  |  2, 3, 0 |||
  3 |          |           |        0 |        0 | i  |  2, 4, 0 |||
  4 |          |           |        0 |        0 | i  |  2, 5, 0 |||
  5 |          |           |        0 |        0 | i  |  2, 7, 0 |||
  6 |          |           |        0 |        0 | i  |  2, 8, 0 |||
  7 |          |           |        0 |        0 | i  |  2, 9, 0 |||
  8 |          |           |        0 |        0 | i  |  2,11, 0 |||
  9 |          |           |        0 |        0 | i  |  2,12, 0 |||
 10 |          |           |        0 |        0 | i  |  2,13, 0 |||
 11 |          |           |        0 |        0 | i  |  2,14, 0 |||
 12 |          |           |        0 |        0 | i  |  2,15, 0 |||
 13 |          |           |        0 |        0 | i  |  2,16, 0 |||
 14 |          |           |        0 |        0 | i  |  2,17, 0 |||
 15 |          |           |        0 |        0 | i  |  2,18, 0 |||
 16 |          |           |        0 |        0 | i  |  2,23, 0 |||
 17 |          |           |        0 |        0 | i  |  2,24, 0 |||
 18 |          |           |        0 |        0 | i  |  2,25, 0 |||
 19 |          |           |        0 |        0 | i  |  2,27, 0 |||
 20 |          |           |        0 |        0 | i  |  2,28, 0 |||
 21 |          |           |        0 |        0 | i  |  2,19, 0 |||
 22 |          |           |        0 |        0 | i  |  2,20, 0 |||
 23 |          |           |        0 |        0 | i  |  2,21, 0 |||
 24 |          |           |        0 |  0.91728 | h  |  7, 3, 0 |||
 25 |          |           |        0 | -0.21299 | h  |  8, 3, 0 |||
 26 |          |           |        0 |  0.35352 | h  |  7, 4, 0 |||
 27 |          |           |        0 |  0.41408 | h  |  8, 4, 0 |||
 28 |          |           |        0 |  -1.1459 | h  |  7, 5, 0 |||
 29 |          |           |        0 |   1.3006 | h  |  8, 5, 0 |||
 30 |          |           |        0 | 0.065818 | h  |  7, 7, 0 |||
 31 |          |           |        0 | -0.94008 | h  |  8, 7, 0 |||
 32 |          |           |        0 |  -1.3103 | h  |  7, 8, 0 |||
 33 |          |           |        0 |   -0.782 | h  |  8, 8, 0 |||
 34 |          |           |        0 | 0.011471 | h  |  7, 9, 0 |||
 35 |          |           |        0 | -0.91182 | h  |  8, 9, 0 |||
 36 |          |           |        0 | -0.092825 | h  |  7,11, 0 |||
 37 |          |           |        0 |  0.93854 | h  |  8,11, 0 |||
 38 |          |           |        0 |  -0.7676 | h  |  7,12, 0 |||
 39 |          |           |        0 |  0.10941 | h  |  8,12, 0 |||
 40 |          |           |        0 | -0.50386 | h  |  7,13, 0 |||
 41 |          |           |        0 | 0.052402 | h  |  8,13, 0 |||
 42 |          |           |        0 |  0.23008 | h  |  7,14, 0 |||
 43 |          |           |        0 |  0.46308 | h  |  8,14, 0 |||
 44 |          |           |        0 |  0.99561 | h  |  7,15, 0 |||
 45 |          |           |        0 |  0.85459 | h  |  8,15, 0 |||
 46 |          |           |        0 | -0.34567 | h  |  7,16, 0 |||
 47 |          |           |        0 | -0.089867 | h  |  8,16, 0 |||
 48 |          |           |        0 |  0.10817 | h  |  7,17, 0 |||
 49 |          |           |        0 | -0.15747 | h  |  8,17, 0 |||
 50 |          |           |        0 |  0.20005 | h  |  7,22, 0 |||
 51 |          |           |        0 | -0.55969 | h  |  8,22, 0 |||
 52 |          |           |        0 |  0.50239 | h  |  7,23, 0 |||
 53 |          |           |        0 | 0.037743 | h  |  8,23, 0 |||
 54 |          |           |        0 | -0.31353 | h  |  7,24, 0 |||
 55 |          |           |        0 |  0.67525 | h  |  8,24, 0 |||
 56 |          |           |        0 |  0.19187 | h  |  7,26, 0 |||
 57 |          |           |        0 | -0.34343 | h  |  8,26, 0 |||
 58 |          |           |        0 |  0.75449 | h  |  7,27, 0 |||
 59 |          |           |        0 | 0.086599 | h  |  8,27, 0 |||
 60 |          |           |        0 |   1.0043 | h  | 13,12, 0 |||
 61 |          |           |        0 |  0.93941 | h  | 14,12, 0 |||
 62 |          |           |        0 |  0.14438 | h  | 13,13, 0 |||
 63 |          |           |        0 | -0.22764 | h  | 14,13, 0 |||
 64 |          |           |        0 | -0.46089 | h  | 13,14, 0 |||
 65 |          |           |        0 | -0.68413 | h  | 14,14, 0 |||
 66 |          |           |        0 | -0.55174 | h  | 13,15, 0 |||
 67 |          |           |        0 |  -0.7078 | h  | 14,15, 0 |||
 68 |          |           |        0 |   0.4456 | h  | 13,16, 0 |||
 69 |          |           |        0 |   0.5821 | h  | 14,16, 0 |||
 70 |          |           |        0 | -0.29058 | o  | 18,14, 0 |||
----|----------|----------|----------|----------|----|----------|----------|----------|-------


connection definition section :

target | site | source:weight
-------|------|------------------------------------------------------------------------------------------------------------
    24 |      |   1: 0.84799,   2:  1.2564,   3:  0.7563,   4: 0.81868
    25 |      |   1: 0.71567,   2:-0.77479,   3: 0.34579,   4:-0.83489
    26 |      |   1:-0.090052,   2: 0.23189,   3: 0.78551,   4: 0.38073
    27 |      |   1: 0.84383,   2: 0.45116,   3:-0.87255,   4: -0.1767
    28 |      |   1: 0.68798,   2: 0.21126,   3: 0.63015,   4: 0.66252
    29 |      |   1:-0.70708,   2:-0.60422,   3:-0.47947,   4: 0.68612
    30 |      |   1:-0.13095,   5: 0.21554,   6:-0.56694,   7:-0.36218
    31 |      |   1:-0.33656,   5:-0.73122,   6: 0.99864,   7: 0.43536
    32 |      |   1:   0.709,   5:-0.38583,   6:-0.091962,   7: 0.60073
    33 |      |   1: 0.59009,   5:  0.1549,   6:   1.364,   7:-0.47805
    34 |      |   1:-0.43928,   5: 0.65842,   6:  1.0982,   7:-0.76481
    35 |      |   1: 0.84785,   5:-0.80539,   6:-0.24927,   7:-0.99714
    36 |      |   1: -0.6916,   8: 0.41767,   9: 0.79689,  10: -0.8053,  11:  0.6707,  12:-0.48355,  13:-0.49488,  14:  1.0484, 
                 15: 0.81585,  21:-0.25174,  22:-0.95293,  23: 0.78021
    37 |      |   1:-0.70014,   8:-0.72186,   9: 0.17116,  10: 0.73584,  11: 0.71278,  12:-0.19719,  13:-0.81657,  14:  0.6279, 
                 15: 0.29343,  21: -0.8328,  22: 0.35989,  23: 0.85143
    38 |      |   1: 0.24989,   8: -0.8183,   9: -0.2031,  10: 0.51309,  11:0.061665,  12:-0.13341,  13:-0.54554,  14:-0.46388, 
                 15: 0.33601,  21:-0.47801,  22:-0.64698,  23:  0.9601
    39 |      |   1:-0.88932,   8: -0.7655,   9:-0.26531,  10: 0.52117,  11: 0.71302,  12: 0.10072,  13: 0.84598,  14:-0.35514, 
                 15:0.012754,  21: 0.91562,  22: 0.71395,  23: 0.23994
    40 |      |   1:-0.086266,   8: 0.08126,   9:-0.38879,  10:-0.21979,  11:-0.29036,  12: 0.86561,  13: 0.32929,  14: 0.35381, 
                 15: 0.54857,  21:-0.97304,  22:-0.92401,  23:-0.66304
    41 |      |   1:0.026417,   8: 0.12378,   9:-0.061787,  10:-0.25215,  11:-0.0013204,  12: 0.30303,  13: 0.24292,  14: 0.45239, 
                 15:-0.60051,  21:-0.65831,  22:-0.60251,  23:-0.50505
    42 |      |   1: 0.11576,   8:-0.87629,   9:-0.69667,  10:  1.1582,  11: 0.10139,  12: 0.32815,  13:0.068979,  14: -0.8943, 
                 15: -1.2019,  21:   0.416,  22:-0.78121,  23: 0.64937
    43 |      |   1: 0.71704,   8: 0.81433,   9:-0.037571,  10: -0.9223,  11:-0.75634,  12: 0.93803,  13:-0.18866,  14: 0.31155, 
                 15:-0.33225,  21: 0.99144,  22: -0.2895,  23: 0.76879
    44 |      |   1: 0.58228,   8: -1.0335,   9: 0.55116,  10: -0.9342,  11:  0.3201,  12:-0.52371,  13:-0.69826,  14: 0.44409, 
                 15:-0.81977,  21: 0.41204,  22: 0.29486,  23: 0.37615
    45 |      |   1: 0.37547,   8: 0.16091,   9:-0.78025,  10:-0.10839,  11: -1.0452,  12:  1.0933,  13:-0.071679,  14: 0.46768, 
                 15: 0.82571,  21:-0.029441,  22:-0.13025,  23:-0.059329
    46 |      |   1: 0.88099,   8:-0.17382,   9:-0.19759,  10: 0.58781,  11:  1.0876,  12:-0.83294,  13:  0.5868,  14: 0.90705, 
                 15:-0.47279,  21: 0.30687,  22:-0.71834,  23:-0.14523
    47 |      |   1:-0.051152,   8:-0.60769,   9: 0.79794,  10:-0.72139,  11:-0.50646,  12:  0.1624,  13: 0.73629,  14:-0.38435, 
                 15: -0.8337,  21: 0.69097,  22:-0.48441,  23:-0.23911
    48 |      |   1:-0.72844,   8: 0.56552,   9:-0.81383,  10:-0.14496,  11:  0.5057,  12: -0.8306,  13:  0.4561,  14:-0.54461, 
                 15: 0.78908,  21: 0.52788,  22:-0.66279,  23: 0.46805
    49 |      |   1:-0.36793,   8:-0.64215,   9:  0.4849,  10:  0.3759,  11: 0.28188,  12:-0.57392,  13:  0.7452,  14:0.085506, 
                 15:-0.13792,  21:-0.63298,  22:-0.64557,  23:-0.56767
    50 |      |   1:-0.32218,  16: -1.4244,  17: 0.16679,  18: 0.60451
    51 |      |   1: 0.66859,  16:-0.29068,  17: 0.16948,  18: -0.2196
    52 |      |   1: 0.42008,  16:-0.88109,  17:-0.51649,  18: 0.18875
    53 |      |   1:-0.13177,  16:0.009049,  17:-0.49394,  18: 0.52982
    54 |      |   1:-0.91548,  16:-0.41052,  17:-0.75577,  18:-0.40093
    55 |      |   1: 0.32936,  16: 0.18025,  17: -0.1589,  18: 0.75033
    56 |      |   1: 0.91319,  19:-0.70112,  20: 0.76454
    57 |      |   1: 0.71072,  19:0.065199,  20:-0.20162
    58 |      |   1:-0.76097,  19: 0.46745,  20: 0.20472
    59 |      |   1: 0.49758,  19: 0.69555,  20:-0.20415
    60 |      |  24:-0.26523,  25: 0.71957,  26: 0.79289,  27:-0.54923,  28:-0.79313,  29:  1.3522,  30:0.084137,  31:-0.43159, 
                 32:-0.82843,  33:  0.4125,  34:-0.97722,  35: 0.19631,  36:-0.42584,  37: 0.83411,  38:-0.021077,  39:-0.072526, 
                 40:-0.96136,  41:-0.35172,  42:  1.1812,  43: 0.94206,  44: 0.93671,  45:-0.47606,  46:-0.30276,  47:-0.60754, 
                 48:-0.79974,  49:  0.7314,  50:  1.0424,  51: 0.52678,  52: 0.55567,  53:0.020596,  54:-0.33142,  55:  1.0529, 
                 56:-0.44387,  57:-0.74549,  58:-0.90531,  59:-0.15999
    61 |      |  24: 0.11698,  25: 0.62099,  26: 0.97145,  27:-0.18289,  28: 0.71998,  29: 0.21399,  30: 0.53137,  31:  0.5107, 
                 32:-0.97613,  33:-0.86123,  34:  0.5971,  35:-0.32302,  36: 0.97742,  37: 0.43082,  38: -0.6225,  39: -0.3741, 
                 40: 0.89648,  41: -0.5508,  42:-0.34097,  43: 0.51002,  44:-0.64043,  45:-0.83288,  46:-0.23161,  47: 0.11332, 
                 48:-0.26209,  49:-0.35287,  50: 0.38536,  51:-0.071912,  52:-0.27605,  53:-0.79876,  54:-0.18252,  55: 0.78755, 
                 56: 0.79774,  57:-0.25653,  58:-0.40513,  59: 0.52143
    62 |      |  24:  -1.065,  25: 0.22828,  26: 0.96681,  27: -1.4205,  28: 0.37161,  29: -1.0025,  30:-0.76054,  31:  1.4565, 
                 32:-0.12863,  33: 0.31085,  34:  1.1498,  35: 0.66294,  36: 0.99639,  37: 0.49577,  38: 0.86323,  39: 0.52671, 
                 40:-0.69627,  41:-0.12024,  42: -1.0685,  43:-0.15261,  44:-0.67299,  45: 0.51165,  46: 0.19877,  47:-0.51757, 
                 48: 0.84763,  49: 0.24026,  50: -1.1701,  51:-0.37579,  52: 0.48402,  53:  0.5487,  54:-0.41704,  55: 0.88806, 
                 56:-0.49636,  57:-0.54528,  58:  1.1442,  59:  0.1932
    63 |      |  24:-0.89833,  25:0.093631,  26: 0.96617,  27:-0.47255,  28:  0.4598,  29:-0.19995,  30:-0.73565,  31:-0.41454, 
                 32:-0.10367,  33:    1.12,  34:-0.45209,  35: 0.79884,  36:  1.3689,  37:0.049218,  38: 0.88274,  39:0.079005, 
                 40:-0.57274,  41:-0.91555,  42:-0.15331,  43: 0.64679,  44:-0.84642,  45:  0.8327,  46: 0.26065,  47: 0.67661, 
                 48:-0.72902,  49:0.032579,  50:-0.89794,  51:-0.44545,  52:-0.082262,  53: 0.30068,  54: 0.62515,  55:  0.1638, 
                 56:-0.68561,  57: 0.41834,  58:  1.1606,  59: 0.35966
    64 |      |  24:-0.76334,  25: 0.49619,  26: 0.55049,  27:  1.0283,  28: 0.62969,  29: 0.32927,  30:  0.9783,  31:-0.36158, 
                 32:-0.0027426,  33:-0.015263,  34:0.013643,  35: 0.10818,  36: 0.99106,  37:-0.35334,  38: 0.28253,  39: 0.62838, 
                 40: 0.85716,  41:-0.041721,  42: 0.75569,  43:-0.19095,  44: 0.22736,  45:-0.74295,  46:  0.8228,  47:-0.49356, 
                 48: 0.70089,  49:0.028867,  50:-0.16157,  51: 0.12342,  52:-0.03136,  53:-0.93754,  54: 0.71046,  55: 0.24036, 
                 56: 0.49557,  57: 0.30384,  58: 0.17965,  59: 0.13876
    65 |      |  24:0.0090861,  25: 0.99379,  26: 0.54122,  27: -1.2247,  28: 0.39884,  29:-0.81409,  30:-0.79785,  31: 0.80018, 
                 32: 0.74053,  33:  1.1528,  34: 0.55122,  35:-0.093426,  36: 0.98069,  37:-0.67816,  38:  1.0389,  39: 0.68957, 
                 40: 0.84818,  41:-0.79706,  42: 0.20408,  43:-0.025544,  44: 0.23482,  45:-0.18405,  46: 0.75982,  47:0.052645, 
                 48:-0.57764,  49:-0.085614,  50: -0.5197,  51: 0.56879,  52: -0.9228,  53:  0.8015,  54: -0.8512,  55: 0.42693, 
                 56: 0.50194,  57: 0.62295,  58: 0.67054,  59:-0.35556
    66 |      |  24: 0.47133,  25: 0.95421,  26: 0.79245,  27:   0.479,  28:-0.38327,  29:-0.014886,  30:-0.23203,  31:-0.15957, 
                 32:-0.54989,  33:-0.79602,  34:-0.16917,  35:-0.21089,  36: 0.72843,  37:  1.0685,  38:  1.0765,  39:-0.55381, 
                 40: 0.72993,  41: 0.18998,  42:-0.11554,  43:-0.46947,  44:   0.908,  45: -1.0074,  46:-0.0013301,  47: 0.62828, 
                 48: -0.8607,  49:-0.59063,  50:0.073285,  51: 0.77975,  52: 0.72044,  53: 0.54375,  54: 0.94188,  55: 0.25875, 
                 56: 0.44918,  57:  0.8703,  58:-0.58735,  59:-0.76465
    67 |      |  24: 0.17052,  25: 0.55415,  26:-0.071429,  27: 0.64375,  28:-0.48318,  29: 0.75585,  30: 0.56966,  31:-0.57798, 
                 32: 0.75388,  33: 0.98349,  34:-0.91426,  35:-0.076203,  36:-0.33389,  37:-0.16326,  38:-0.38566,  39:-0.24295, 
                 40: 0.81723,  41:-0.89506,  42:0.022576,  43: -1.0497,  44: 0.11424,  45:-0.050418,  46: 0.65937,  47:-0.35603, 
                 48:-0.097962,  49:0.023076,  50: -1.0595,  51:-0.15724,  52: 0.45481,  53:  -0.618,  54: 0.38086,  55:-0.15186, 
                 56: 0.90918,  57:-0.52057,  58:-0.44048,  59:-0.54577
    68 |      |  24:-0.84628,  25:-0.10435,  26:-0.74423,  27: -1.1124,  28: 0.53563,  29:-0.33141,  30:-0.20314,  31:  1.1732, 
                 32:   0.695,  33: 0.93059,  34: 0.96206,  35: 0.92689,  36:-0.041571,  37: 0.76821,  38: 0.16932,  39: 0.78257, 
                 40: 0.53959,  41: 0.71504,  42:-0.28116,  43: -0.3192,  44: 0.69023,  45: 0.79467,  46:-0.82696,  47:-0.77618, 
                 48: 0.19352,  49:0.060647,  50: -0.8131,  51: 0.68858,  52: 0.71866,  53: -0.1906,  54: -0.8354,  55: -1.0048, 
                 56: 0.73398,  57:-0.66654,  58:-0.73154,  59:-0.04162
    69 |      |  24: 0.28769,  25:-0.047975,  26: 0.40231,  27:0.0055933,  28: -0.4325,  29: 0.41918,  30: 0.70212,  31:-0.40942, 
                 32:-0.61023,  33:  0.4446,  34:-0.85776,  35:-0.91285,  36:-0.70546,  37:-0.0008157,  38: 0.99722,  39:-0.80991, 
                 40: 0.24744,  41:-0.58941,  42: 0.47134,  43:-0.72432,  44:-0.25028,  45:0.051158,  46:-0.84719,  47: 0.55926, 
                 48: 0.10709,  49:-0.73004,  50: 0.40711,  51: 0.61089,  52:-0.49477,  53:-0.71361,  54: 0.01862,  55: 0.59999, 
                 56: 0.19614,  57:-0.60777,  58:-0.64875,  59:  0.8967
    70 |      |  60: -2.1353,  61:-0.24238,  62:   2.337,  63:  1.3845,  64:-0.44363,  65:  1.6495,  66: -1.7061,  67: 0.19427, 
                 68:  1.3644,  69:-0.96377
-------|------|----------------------------------------------------------------------------------------------------------------
