SNNS network definition file V1.4-3D
generated at Thu May 09 10:11:49 1996

network name : edge_23
source files :
no. of units : 70
no. of connections : 622
no. of unit types : 0
no. of site types : 0


learning function : Std_Backpropagation
update function : Topological_Order


unit default section :

act      | bias     | st | subnet | layer | act func     | out func
---------|----------|----|--------|-------|--------------|-------------
 0.00000 |  0.00000 | h  |      0 |     1 | Act_Logistic | Out_Identity
---------|----------|----|--------|-------|--------------|-------------


unit definition section :

no. | typeName | unitName | act      | bias     | st | position | act func | out func | sites
----|----------|----------|----------|----------|----|----------|----------|----------|-------
  1 |          |           |        0 |        0 | i  |  2, 1, 0 |||
  2 |          |           |   9.9943 |        0 | i  |  2, 3, 0 |||
  3 |          |           |   14.542 |        0 | i  |  2, 4, 0 |||
  4 |          |           |   14.646 |        0 | i  |  2, 5, 0 |||
  5 |          |           |    5.292 |        0 | i  |  2, 7, 0 |||
  6 |          |           |        3 |        0 | i  |  2, 8, 0 |||
  7 |          |           |   5.2548 |        0 | i  |  2, 9, 0 |||
  8 |          |           |   6.6194 |        0 | i  |  2,11, 0 |||
  9 |          |           | -0.73514 |        0 | i  |  2,12, 0 |||
 10 |          |           |  -2.3844 |        0 | i  |  2,13, 0 |||
 11 |          |           |  -1.3965 |        0 | i  |  2,14, 0 |||
 12 |          |           |  0.30098 |        0 | i  |  2,15, 0 |||
 13 |          |           |   1.6332 |        0 | i  |  2,16, 0 |||
 14 |          |           |   1.5112 |        0 | i  |  2,17, 0 |||
 15 |          |           | -0.29824 |        0 | i  |  2,18, 0 |||
 16 |          |           | -0.36386 |        0 | i  |  2,23, 0 |||
 17 |          |           |  -1.0905 |        0 | i  |  2,24, 0 |||
 18 |          |           | -0.75579 |        0 | i  |  2,25, 0 |||
 19 |          |           |   11.571 |        0 | i  |  2,27, 0 |||
 20 |          |           | -0.55315 |        0 | i  |  2,28, 0 |||
 21 |          |           |   9.4056 |        0 | i  |  2,19, 0 |||
 22 |          |           |   6.4846 |        0 | i  |  2,20, 0 |||
 23 |          |           |   1.0002 |        0 | i  |  2,21, 0 |||
 24 |          |           |        1 |  0.66484 | h  |  7, 3, 0 |||
 25 |          |           | 0.0015066 | -0.17494 | h  |  8, 3, 0 |||
 26 |          |           |        1 |  0.31295 | h  |  7, 4, 0 |||
 27 |          |           | 2.5777e-07 |  0.72118 | h  |  8, 4, 0 |||
 28 |          |           |        1 | -0.93393 | h  |  7, 5, 0 |||
 29 |          |           | 0.041533 |   1.5042 | h  |  8, 5, 0 |||
 30 |          |           | 0.013423 | 0.037599 | h  |  7, 7, 0 |||
 31 |          |           |  0.64034 | -0.79219 | h  |  8, 7, 0 |||
 32 |          |           |  0.97912 |  -1.2753 | h  |  7, 8, 0 |||
 33 |          |           |  0.97465 | -0.86929 | h  |  8, 8, 0 |||
 34 |          |           |  0.90359 |   0.3308 | h  |  7, 9, 0 |||
 35 |          |           | 4.4622e-05 | -0.88308 | h  |  8, 9, 0 |||
 36 |          |           | 7.7331e-05 |  0.23932 | h  |  7,11, 0 |||
 37 |          |           | 1.4965e-06 |  0.71738 | h  |  8,11, 0 |||
 38 |          |           | 1.7311e-07 | -0.51063 | h  |  7,12, 0 |||
 39 |          |           |  0.94953 |  0.41785 | h  |  8,12, 0 |||
 40 |          |           | 2.0847e-06 | -0.52782 | h  |  7,13, 0 |||
 41 |          |           | 0.045772 |  0.11858 | h  |  8,13, 0 |||
 42 |          |           | 0.00071557 | -0.19404 | h  |  7,14, 0 |||
 43 |          |           |        1 |  0.54144 | h  |  8,14, 0 |||
 44 |          |           |  0.96386 |   1.1959 | h  |  7,15, 0 |||
 45 |          |           |  0.99938 |  0.49472 | h  |  8,15, 0 |||
 46 |          |           | 2.5811e-05 | -0.39149 | h  |  7,16, 0 |||
 47 |          |           |  0.99845 | 0.038806 | h  |  8,16, 0 |||
 48 |          |           |  0.96068 | -0.077058 | h  |  7,17, 0 |||
 49 |          |           | 1.3932e-08 | -0.11085 | h  |  8,17, 0 |||
 50 |          |           |  0.76424 |  0.62129 | h  |  7,22, 0 |||
 51 |          |           |  0.33965 | -0.57423 | h  |  8,22, 0 |||
 52 |          |           |  0.79722 |  0.57199 | h  |  7,23, 0 |||
 53 |          |           |  0.51325 | -0.21269 | h  |  8,23, 0 |||
 54 |          |           |  0.78824 |  -0.3611 | h  |  7,24, 0 |||
 55 |          |           |  0.48348 |  0.64973 | h  |  8,24, 0 |||
 56 |          |           | 0.090058 |  0.26763 | h  |  7,26, 0 |||
 57 |          |           |  0.27334 | -0.27622 | h  |  8,26, 0 |||
 58 |          |           |  0.85049 |  0.59817 | h  |  7,27, 0 |||
 59 |          |           |  0.99967 | -0.0015648 | h  |  8,27, 0 |||
 60 |          |           |  0.16921 |   0.9686 | h  | 13,12, 0 |||
 61 |          |           |  0.39027 |  0.88526 | h  | 14,12, 0 |||
 62 |          |           |  0.94595 |  0.16815 | h  | 13,13, 0 |||
 63 |          |           |  0.96142 | -0.18209 | h  | 14,13, 0 |||
 64 |          |           |  0.26755 | -0.53447 | h  | 13,14, 0 |||
 65 |          |           |  0.97513 | -0.56809 | h  | 14,14, 0 |||
 66 |          |           |  0.37615 | -0.55232 | h  | 13,15, 0 |||
 67 |          |           | 0.018273 |  -0.7084 | h  | 14,15, 0 |||
 68 |          |           |  0.92112 |  0.45962 | h  | 13,16, 0 |||
 69 |          |           |  0.15469 |  0.45727 | h  | 14,16, 0 |||
 70 |          |           |   0.9906 | -0.21131 | o  | 18,14, 0 |||
----|----------|----------|----------|----------|----|----------|----------|----------|-------


connection definition section :

target | site | source:weight
-------|------|------------------------------------------------------------------------------------------------------------
    24 |      |   1: 0.84803,   2:  1.0997,   3: 0.40154,   4: 0.73315
    25 |      |   1: 0.71625,   2:-0.93116,   3: 0.58793,   4:-0.37993
    26 |      |   1:-0.089391,   2: 0.38613,   3:  1.0188,   4: 0.52148
    27 |      |   1: 0.98024,   2: 0.23773,   3:-0.80311,   4:-0.44994
    28 |      |   1: 0.68804,   2:  0.1349,   3:    0.76,   4: 0.67753
    29 |      |   1:-0.70709,   2:-0.50521,   3:-0.20186,   4: 0.22815
    30 |      |   1:-0.09273,   5:-0.19729,   6:-0.30597,   7:-0.45157
    31 |      |   1:-0.36285,   5:-0.55149,   6: 0.62033,   7: 0.46177
    32 |      |   1: 0.69119,   5: 0.30419,   6:-0.076921,   7: 0.71255
    33 |      |   1: 0.56897,   5:  0.2203,   6:  1.5084,   7:-0.22312
    34 |      |   1:-0.50281,   5: 0.39988,   6:  1.0537,   7: -0.6414
    35 |      |   1: 0.81028,   5: -0.5935,   6:-0.35071,   7:-0.94034
    36 |      |   1:-0.64345,   8:-0.0085591,   9: 0.72819,  10:-0.85523,  11: 0.40102,  12:-0.50873,  13:-0.18119,  14: 0.77885, 
                 15: 0.65333,  21:-0.63141,  22:-0.82035,  23: 0.13146
    37 |      |   1:-0.54945,   8:-0.68861,   9: 0.34703,  10: 0.84097,  11:  1.3063,  12:-0.12401,  13:-0.87822,  14: 0.43381, 
                 15:0.028163,  21:-0.67547,  22: 0.13591,  23: 0.80927
    38 |      |   1: 0.21969,   8:-0.87409,   9:-0.62015,  10:   0.681,  11:-0.69686,  12:-0.21172,  13:-0.33735,  14:-0.36114, 
                 15: 0.10324,  21: -0.7633,  22:-0.23561,  23: 0.82015
    39 |      |   1:-0.94535,   8:-0.80916,   9:-0.52269,  10: 0.40899,  11:-0.38904,  12:0.052858,  13:  0.8206,  14:  -0.358, 
                 15:0.087853,  21: 0.42398,  22: 0.44923,  23: 0.23062
    40 |      |   1:-0.077686,   8:0.016147,   9:-0.25004,  10:0.038235,  11:-0.35738,  12:  1.0589,  13: 0.18002,  14: 0.15431, 
                 15: 0.66944,  21:-0.82834,  22: -0.8549,  23: -0.5631
    41 |      |   1:0.099345,   8:-0.13279,   9:0.0079702,  10: -0.4593,  11: 0.64941,  12: 0.43389,  13: 0.47993,  14: 0.59425, 
                 15:-0.75577,  21:-0.18524,  22:-0.35871,  23:-0.42861
    42 |      |   1: 0.13002,   8:-0.56564,   9:-0.33629,  10: 0.92715,  11:  0.4895,  12: 0.29483,  13:-0.14284,  14:  -1.212, 
                 15: -0.9351,  21: 0.65331,  22:-0.88018,  23: 0.60357
    43 |      |   1: 0.74203,   8: 0.77394,   9:0.015307,  10: -1.0285,  11:-0.86101,  12: 0.89158,  13:-0.32631,  14:  0.4146, 
                 15:-0.36206,  21:  1.0843,  22:-0.14959,  23: 0.78782
    44 |      |   1: 0.55946,   8: -1.0038,   9: 0.71218,  10:  -1.453,  11: 0.68863,  12:-0.54893,  13:-0.30437,  14: 0.23187, 
                 15:-0.63355,  21: 0.68122,  22:0.020622,  23: 0.33432
    45 |      |   1: 0.38362,   8: 0.41534,   9:-0.57509,  10: 0.40938,  11:-0.67363,  12: 0.46036,  13:-0.50145,  14: 0.56731, 
                 15:  1.3488,  21: 0.31454,  22: 0.11937,  23: 0.24686
    46 |      |   1: 0.89153,   8:-0.56181,   9:-0.23122,  10: 0.69718,  11: 0.74986,  12:-0.83611,  13: 0.68296,  14: 0.61167, 
                 15:-0.55056,  21:-0.098846,  22:-0.70225,  23:-0.38346
    47 |      |   1:-0.048327,   8:-0.35056,   9: 0.78563,  10:-0.61377,  11:-0.41984,  12: 0.28895,  13: 0.72529,  14:-0.26091, 
                 15:-0.88411,  21: 0.93559,  22:-0.39724,  23:-0.084212
    48 |      |   1:-0.78058,   8: 0.41369,   9:-0.86584,  10:-0.086845,  11: 0.62044,  12: -1.0446,  13: 0.47847,  14:-0.77995, 
                 15: 0.84907,  21: 0.45628,  22:-0.48932,  23: 0.40365
    49 |      |   1:-0.42022,   8:-0.59546,   9: 0.42564,  10: 0.56536,  11: 0.21352,  12:-0.67256,  13: 0.71584,  14:0.085173, 
                 15:-0.057213,  21:-0.75908,  22:-0.83564,  23:-0.63149
    50 |      |   1:-0.19065,  16: -1.1977,  17:-0.06445,  18:-0.064446
    51 |      |   1: 0.72435,  16:-0.0011525,  17: 0.29976,  18:-0.31208
    52 |      |   1:  0.4334,  16:-0.95918,  17:-0.47321,  18:0.089963
    53 |      |   1:-0.16677,  16:-0.84627,  17:-0.68511,  18:  1.0444
    54 |      |   1:-0.76237,  16: 0.33348,  17: -0.9124,  18: -1.0609
    55 |      |   1: 0.32296,  16:0.033548,  17:0.075101,  18: 0.82262
    56 |      |   1: 0.95917,  19:-0.17629,  20: 0.97759
    57 |      |   1: 0.73242,  19:-0.072034,  20:-0.23861
    58 |      |   1:-0.89152,  19: 0.11195,  20: 0.28038
    59 |      |   1: 0.47727,  19: 0.68714,  20:-0.10278
    60 |      |  24:-0.31214,  25: 0.74304,  26: 0.77559,  27:-0.45122,  28:-0.75783,  29:  1.3933,  30:0.063499,  31:-0.21609, 
                 32:-0.89466,  33: 0.45341,  34: -1.0663,  35: 0.28348,  36:-0.26663,  37: 0.80854,  38:-0.095333,  39:-0.18441, 
                 40:-0.73063,  41:-0.20874,  42: 0.88997,  43: 0.99062,  44: 0.76491,  45:-0.42137,  46:-0.43696,  47:-0.69457, 
                 48: -1.0062,  49: 0.61125,  50: 0.78877,  51: 0.57941,  52: 0.29171,  53:-0.31639,  54:-0.48317,  55:  1.0144, 
                 56:-0.53277,  57:-0.66049,  58: -1.0381,  59:-0.11997
    61 |      |  24:0.087902,  25: 0.62676,  26: 0.94423,  27:-0.080721,  28: 0.59415,  29: 0.38285,  30: 0.51343,  31: 0.43758, 
                 32: -1.0033,  33: -0.9632,  34: 0.53963,  35:-0.35499,  36: 0.99141,  37: 0.50871,  38:-0.63209,  39:-0.41742, 
                 40: 0.90668,  41: -0.4697,  42:-0.28189,  43: 0.52301,  44:-0.67886,  45:-0.93433,  46:-0.13157,  47:0.077457, 
                 48:-0.29006,  49:-0.37316,  50: 0.35648,  51:-0.078519,  52:-0.28917,  53:-0.86625,  54:-0.17426,  55: 0.74998, 
                 56: 0.87334,  57:-0.25317,  58:-0.49531,  59: 0.47232
    62 |      |  24:   -1.02,  25: 0.25525,  26:  0.9118,  27: -1.3331,  28: 0.16298,  29: -1.0139,  30:-0.60854,  31:  1.1466, 
                 32: -0.2191,  33: 0.18912,  34:  1.1161,  35: 0.57995,  36: 0.56439,  37: 0.20269,  38: 0.98599,  39: 0.47831, 
                 40: -0.5339,  41:-0.32666,  42:-0.92294,  43:-0.52403,  44: -1.0101,  45: 0.53676,  46: 0.15587,  47:-0.59816, 
                 48: 0.82499,  49: 0.56834,  50:-0.68418,  51:-0.38899,  52: 0.83795,  53: 0.98949,  54:-0.55711,  55:  0.9367, 
                 56:-0.47154,  57:-0.56857,  58:  1.2273,  59:-0.07663
    63 |      |  24:-0.67642,  25: 0.12262,  26:  1.1305,  27: -0.6596,  28: 0.57737,  29:-0.27239,  30:-0.68976,  31:-0.53545, 
                 32:-0.062971,  33:  1.1491,  34:-0.41389,  35: 0.71569,  36:  1.0443,  37:-0.052822,  38: 0.96721,  39:0.094837, 
                 40:-0.47871,  41: -1.0544,  42:-0.11371,  43: 0.40587,  44:-0.99203,  45: 0.94866,  46: 0.11102,  47: 0.72313, 
                 48:-0.83817,  49: 0.22125,  50:-0.53669,  51: -0.4622,  52: 0.13838,  53: 0.68751,  54: 0.38217,  55: 0.27925, 
                 56:-0.69208,  57:  0.4301,  58:  1.2256,  59: 0.25908
    64 |      |  24:-0.75101,  25: 0.65448,  26: 0.56927,  27:  1.0604,  28: 0.53774,  29: 0.52294,  30:   1.015,  31:-0.40712, 
                 32:-0.084257,  33: -0.1656,  34: -0.1099,  35: 0.17933,  36: 0.86179,  37:-0.37515,  38: 0.44426,  39: 0.84463, 
                 40: 0.99645,  41:-0.15505,  42: 0.78591,  43:-0.28034,  44:-0.013699,  45:-0.77485,  46: 0.74485,  47: -0.4487, 
                 48: 0.67832,  49:0.042875,  50:-0.44223,  51: 0.11611,  52:-0.29998,  53: -1.2052,  54: 0.59814,  55: 0.23762, 
                 56: 0.45056,  57: 0.32479,  58:0.096044,  59:  0.1666
    65 |      |  24:  0.1948,  25:  1.1279,  26: 0.69725,  27: -1.4929,  28: 0.66285,  29:-0.93954,  30:-0.70114,  31: 0.70366, 
                 32: 0.78732,  33:  1.2906,  34: 0.70086,  35:-0.14603,  36: 0.48593,  37:-0.86442,  38:  1.3628,  39: 0.69713, 
                 40:  1.0299,  41: -1.1297,  42: 0.12098,  43:-0.34141,  44:-0.30836,  45: 0.41922,  46: 0.34696,  47:0.025132, 
                 48:-0.88027,  49: 0.10125,  50:-0.12428,  51: 0.55216,  52:-0.65852,  53:  1.2889,  54: -1.0491,  55: 0.57485, 
                 56: 0.63649,  57:   0.619,  58:   0.781,  59:-0.52497
    66 |      |  24: 0.77769,  25: 0.84766,  26:  1.1697,  27: 0.39386,  28:-0.0097759,  29:-0.020975,  30:-0.33128,  31:-0.04177, 
                 32:-0.48519,  33:-0.79214,  34:-0.15862,  35:-0.28622,  36: 0.84436,  37: 0.94235,  38: 0.85068,  39:-0.63296, 
                 40: 0.77359,  41:  0.3066,  42: -0.2233,  43:-0.22149,  44: 0.72497,  45: -1.0056,  46: 0.05093,  47: 0.59207, 
                 48: -0.9486,  49:-0.82674,  50:0.025359,  51: 0.82857,  52: 0.71805,  53: 0.45169,  54: 0.88806,  55: 0.25004, 
                 56: 0.49825,  57: 0.98349,  58:-0.69382,  59:-0.68487
    67 |      |  24: 0.16506,  25: 0.57356,  26:-0.092801,  27: 0.65486,  28:-0.51932,  29: 0.78525,  30: 0.60815,  31:-0.63858, 
                 32: 0.73119,  33: 0.94731,  34:-0.93453,  35:-0.047781,  36:-0.46489,  37:-0.20511,  38:-0.33098,  39:-0.19796, 
                 40: 0.81255,  41:-0.98293,  42:0.061599,  43: -1.0712,  44:0.047001,  45:-0.0020185,  46: 0.58143,  47:-0.34984, 
                 48:-0.11206,  49:0.0025661,  50: -1.0308,  51:-0.15406,  52: 0.46558,  53:-0.60636,  54: 0.37066,  55:-0.15531, 
                 56: 0.90626,  57:-0.52841,  58:-0.41992,  59:-0.55533
    68 |      |  24:-0.70151,  25:-0.13803,  26:-0.67497,  27: -1.1082,  28: 0.49701,  29:-0.34702,  30:-0.15647,  31:  1.0761, 
                 32: 0.68931,  33: 0.85458,  34: 0.91605,  35:  0.8883,  36:-0.20306,  37: 0.64063,  38:0.094707,  39: 0.79886, 
                 40: 0.55462,  41: 0.64215,  42: -0.2343,  43:-0.41464,  44: 0.76173,  45: 0.79999,  46:-0.85402,  47:-0.63558, 
                 48: 0.17765,  49: 0.13004,  50: -0.6386,  51: 0.67982,  52: 0.84358,  53:-0.0044627,  54:-0.91092,  55: -0.9646, 
                 56: 0.75019,  57:-0.67199,  58:-0.68406,  59: -0.1041
    69 |      |  24: 0.22204,  25:-0.095913,  26: 0.38652,  27:-0.21801,  28:-0.18814,  29: 0.17085,  30: 0.64514,  31:-0.38514, 
                 32:-0.68424,  33: 0.58097,  34:-0.78023,  35:-0.96173,  36:-0.59009,  37:-0.089622,  38: 0.96243,  39:-0.83335, 
                 40: 0.12544,  41:-0.70924,  42: 0.36937,  43:-0.70952,  44:-0.38071,  45:0.00092806,  46:-0.87374,  47: 0.45847, 
                 48: 0.12926,  49:-0.89733,  50:  0.2268,  51: 0.54406,  52:-0.62382,  53:-0.80767,  54:-0.0069119,  55:  0.5236, 
                 56: 0.17207,  57:-0.67121,  58: -0.7192,  59: 0.86694
    70 |      |  60: -1.5635,  61:-0.79655,  62:  2.1883,  63:  1.2997,  64: -1.4041,  65:  2.4377,  66: -1.9143,  67: 0.37643, 
                 68:  1.0302,  69: -0.7235
-------|------|----------------------------------------------------------------------------------------------------------------
