SNNS network definition file V1.4-3D
generated at Thu May 09 10:11:49 1996

network name : edge_23
source files :
no. of units : 70
no. of connections : 622
no. of unit types : 0
no. of site types : 0


learning function : Std_Backpropagation
update function : Topological_Order


unit default section :

act      | bias     | st | subnet | layer | act func     | out func
---------|----------|----|--------|-------|--------------|-------------
 0.00000 |  0.00000 | h  |      0 |     1 | Act_Logistic | Out_Identity
---------|----------|----|--------|-------|--------------|-------------


unit definition section :

no. | typeName | unitName | act      | bias     | st | position | act func | out func | sites
----|----------|----------|----------|----------|----|----------|----------|----------|-------
  1 |          |           |  0.48507 |        0 | i  |  2, 1, 0 |||
  2 |          |           |   8.2866 |        0 | i  |  2, 3, 0 |||
  3 |          |           |   2.7674 |        0 | i  |  2, 4, 0 |||
  4 |          |           |   4.1275 |        0 | i  |  2, 5, 0 |||
  5 |          |           |   7.1281 |        0 | i  |  2, 7, 0 |||
  6 |          |           |   8.1249 |        0 | i  |  2, 8, 0 |||
  7 |          |           |   5.0596 |        0 | i  |  2, 9, 0 |||
  8 |          |           |   6.3172 |        0 | i  |  2,11, 0 |||
  9 |          |           | -0.74313 |        0 | i  |  2,12, 0 |||
 10 |          |           |   1.9547 |        0 | i  |  2,13, 0 |||
 11 |          |           | -0.42842 |        0 | i  |  2,14, 0 |||
 12 |          |           | -0.73157 |        0 | i  |  2,15, 0 |||
 13 |          |           |   2.9789 |        0 | i  |  2,16, 0 |||
 14 |          |           |   10.135 |        0 | i  |  2,17, 0 |||
 15 |          |           | 0.075635 |        0 | i  |  2,18, 0 |||
 16 |          |           | -0.25622 |        0 | i  |  2,23, 0 |||
 17 |          |           |   1.1875 |        0 | i  |  2,24, 0 |||
 18 |          |           | -0.42614 |        0 | i  |  2,25, 0 |||
 19 |          |           |   3.1334 |        0 | i  |  2,27, 0 |||
 20 |          |           |  0.88465 |        0 | i  |  2,28, 0 |||
 21 |          |           |    1.934 |        0 | i  |  2,19, 0 |||
 22 |          |           |   6.4888 |        0 | i  |  2,20, 0 |||
 23 |          |           |  0.34622 |        0 | i  |  2,21, 0 |||
 24 |          |           |        1 |  0.28068 | h  |  7, 3, 0 |||
 25 |          |           |  0.18762 |   1.2564 | h  |  8, 3, 0 |||
 26 |          |           |  0.99999 |  0.62184 | h  |  7, 4, 0 |||
 27 |          |           |  0.99261 | -0.34376 | h  |  8, 4, 0 |||
 28 |          |           |  0.97905 |  -1.1756 | h  |  7, 5, 0 |||
 29 |          |           | 0.0063584 |   1.4346 | h  |  8, 5, 0 |||
 30 |          |           |   0.9707 |  0.02263 | h  |  7, 7, 0 |||
 31 |          |           |  0.97999 |  -1.8945 | h  |  8, 7, 0 |||
 32 |          |           | 2.7877e-06 | -0.91697 | h  |  7, 8, 0 |||
 33 |          |           |   0.9995 |  -1.5828 | h  |  8, 8, 0 |||
 34 |          |           |  0.99761 |    -0.73 | h  |  7, 9, 0 |||
 35 |          |           | 7.3778e-07 | -0.86438 | h  |  8, 9, 0 |||
 36 |          |           |  0.99993 | -0.21886 | h  |  7,11, 0 |||
 37 |          |           |  0.36163 |   1.1642 | h  |  8,11, 0 |||
 38 |          |           | 9.7406e-11 |  -1.2318 | h  |  7,12, 0 |||
 39 |          |           |        1 | -0.048734 | h  |  8,12, 0 |||
 40 |          |           |  0.34043 | -0.71715 | h  |  7,13, 0 |||
 41 |          |           | 0.000177 |     0.09 | h  |  8,13, 0 |||
 42 |          |           | 0.00029737 |  0.14655 | h  |  7,14, 0 |||
 43 |          |           |  0.96747 |  0.67963 | h  |  8,14, 0 |||
 44 |          |           | 0.0060149 |   1.1968 | h  |  7,15, 0 |||
 45 |          |           |  0.99856 |   1.0743 | h  |  8,15, 0 |||
 46 |          |           |        1 | -0.17777 | h  |  7,16, 0 |||
 47 |          |           | 1.0084e-06 |  0.10774 | h  |  8,16, 0 |||
 48 |          |           |  0.99353 |   -0.146 | h  |  7,17, 0 |||
 49 |          |           | 0.072026 |  0.11745 | h  |  8,17, 0 |||
 50 |          |           |  0.30315 | 0.026072 | h  |  7,22, 0 |||
 51 |          |           |  0.56161 | -0.49686 | h  |  8,22, 0 |||
 52 |          |           |  0.67624 |  0.68656 | h  |  7,23, 0 |||
 53 |          |           |  0.33386 |  0.10076 | h  |  8,23, 0 |||
 54 |          |           |  0.29455 | -0.051084 | h  |  7,24, 0 |||
 55 |          |           |  0.66652 |  0.73355 | h  |  8,24, 0 |||
 56 |          |           |  0.42918 |  0.15507 | h  |  7,26, 0 |||
 57 |          |           |  0.54558 | -0.27569 | h  |  8,26, 0 |||
 58 |          |           |  0.77299 |  0.90349 | h  |  7,27, 0 |||
 59 |          |           |   0.9215 | 0.014535 | h  |  8,27, 0 |||
 60 |          |           |  0.18919 |   1.0965 | h  | 13,12, 0 |||
 61 |          |           |  0.99184 |  0.79603 | h  | 14,12, 0 |||
 62 |          |           |  0.99996 |  0.18547 | h  | 13,13, 0 |||
 63 |          |           |  0.99808 | -0.16909 | h  | 14,13, 0 |||
 64 |          |           |  0.98492 |  -0.5946 | h  | 13,14, 0 |||
 65 |          |           |  0.99876 | -0.73717 | h  | 14,14, 0 |||
 66 |          |           |  0.23621 | -0.38098 | h  | 13,15, 0 |||
 67 |          |           |  0.92288 | -0.50171 | h  | 14,15, 0 |||
 68 |          |           |  0.99895 |  0.62555 | h  | 13,16, 0 |||
 69 |          |           | 0.067203 |  0.43269 | h  | 14,16, 0 |||
 70 |          |           |  0.99248 | -0.45533 | o  | 18,14, 0 |||
----|----------|----------|----------|----------|----|----------|----------|----------|-------


connection definition section :

target | site | source:weight
-------|------|------------------------------------------------------------------------------------------------------------
    24 |      |   1: 0.95712,   2:  1.7489,   3:  1.0589,   4:  0.6036
    25 |      |   1:  1.4632,   2:-0.48955,   3:0.091417,   4:0.090139
    26 |      |   1:-0.051661,   2: 0.81642,   3: 0.50418,   4:  0.6264
    27 |      |   1:  0.5827,   2: 0.33682,   3:-0.21117,   4: 0.66727
    28 |      |   1: 0.46322,   2: 0.13573,   3: 0.17015,   4: 0.77527
    29 |      |   1:-0.40498,   2: -1.0425,   3:-0.65975,   4:  1.0114
    30 |      |   1:-0.081285,   5: 0.27991,   6:  0.5388,   7:-0.56438
    31 |      |   1:-0.81793,   5: -1.2406,   6:  1.2761,   7: 0.92061
    32 |      |   1: 0.80366,   5:-0.93221,   6: -0.9188,   7: 0.36503
    33 |      |   1: 0.22122,   5:-0.80626,   6:  2.2991,   7: -0.7615
    34 |      |   1:-0.97847,   5:  1.0125,   6: 0.35824,   7:-0.57071
    35 |      |   1:  0.8254,   5:-0.65223,   6:-0.38761,   7: -1.1576
    36 |      |   1:-0.74078,   8: 0.22861,   9: 0.79265,  10: -1.3892,  11: -0.1549,  12:-0.84782,  13: -0.2144,  14:  1.5907, 
                 15:0.082855,  21:-0.37771,  22:-0.53629,  23: 0.24575
    37 |      |   1:-0.55847,   8:-0.67472,   9: 0.13701,  10: 0.98679,  11: 0.86524,  12:-0.11782,  13:-0.17194,  14: 0.33654, 
                 15: 0.51606,  21:-0.87176,  22:-0.049102,  23: 0.93909
    38 |      |   1:0.074435,   8: -1.3152,   9: 0.38096,  10: 0.15391,  11: -2.2408,  12: -0.6461,  13:-0.24405,  14:-0.85367, 
                 15:-0.69767,  21:-0.85645,  22:-0.66346,  23:  1.1411
    39 |      |   1: -0.8742,   8:0.090897,   9:-0.30716,  10: 0.19764,  11: -1.8024,  12:-0.54531,  13:  1.9286,  14:-0.28452, 
                 15: -1.9301,  21:-0.063828,  22:  1.5056,  23: -0.2071
    40 |      |   1: -0.1053,   8:-0.10207,   9:  -0.578,  10:-3.9125e-05,  11: 0.68475,  12:  1.1977,  13: 0.47316,  14: 0.66015, 
                 15: 0.96674,  21:-0.88792,  22: -0.7253,  23:-0.74505
    41 |      |   1:-0.073243,   8:  -0.493,   9:-0.25298,  10:-0.082903,  11: 0.63761,  12:  0.9236,  13: 0.13741,  14:-0.05273, 
                 15:-0.077546,  21:-0.67595,  22:-0.47139,  23:-0.46016
    42 |      |   1: 0.08294,   8: -1.4113,   9: -1.0689,  10:  1.2106,  11: 0.13221,  12: 0.14165,  13: 0.91277,  14: -0.3518, 
                 15: -1.2903,  21:  1.5146,  22:-0.70556,  23: 0.57983
    43 |      |   1: 0.85713,   8: 0.51066,   9: 0.32928,  10:-0.95209,  11:-0.84893,  12: 0.95627,  13:-0.073345,  14: 0.12352, 
                 15:-0.010774,  21: 0.94907,  22:-0.25216,  23: 0.81156
    44 |      |   1: 0.57942,   8:-0.84644,   9:  0.6037,  10:-0.71104,  11: 0.12928,  12: -0.5496,  13:-0.27625,  14:-0.20454, 
                 15:-0.44771,  21: 0.81039,  22: 0.21675,  23: 0.60549
    45 |      |   1:  0.4534,   8: 0.54296,   9:-0.47333,  10:-0.67854,  11:-0.64132,  12: 0.52454,  13: -1.0888,  14: 0.11001, 
                 15: 0.98096,  21:  0.7422,  22:  0.5347,  23: 0.15031
    46 |      |   1: 0.96184,   8:-0.12232,   9:-0.15964,  10: 0.83999,  11: 0.71703,  12: -1.0205,  13: 0.89033,  14: 0.74361, 
                 15: -1.1083,  21:-0.099085,  22: 0.17382,  23: -0.4738
    47 |      |   1:0.057094,   8:-0.63968,   9: 0.84608,  10:-0.65492,  11:-0.16008,  12: 0.47361,  13:  0.6523,  14:-0.50743, 
                 15:-0.48449,  21: 0.70971,  22:-0.88892,  23:-0.23945
    48 |      |   1:-0.80613,   8: 0.95571,   9: -0.8665,  10:-0.15201,  11: 0.62846,  12: -1.0866,  13:0.068276,  14:-0.19403, 
                 15: 0.28767,  21: 0.91384,  22:-0.25056,  23: 0.75363
    49 |      |   1:-0.25728,   8:-0.56924,   9: 0.77947,  10:  0.1361,  11:-0.14761,  12: -0.8933,  13:  1.0784,  14: 0.72245, 
                 15:-0.12309,  21:-0.75358,  22: -1.2892,  23:-0.16886
    50 |      |   1:-0.52668,  16: -1.5997,  17:-0.36762,  18:  1.3523
    51 |      |   1: 0.63214,  16:-0.20772,  17:0.045858,  18:-0.77494
    52 |      |   1:  0.4587,  16:-0.75249,  17:-0.28713,  18:0.057206
    53 |      |   1:-0.049638,  16:  0.2163,  17:-0.46439,  18: 0.37684
    54 |      |   1:-0.86111,  16:  -0.586,  17:-0.48962,  18:-0.06261
    55 |      |   1: 0.35409,  16:  0.1154,  17:0.003265,  18: 0.43914
    56 |      |   1: 0.91186,  19:-0.56606,  20:  1.0073
    57 |      |   1: 0.78903,  19:0.059421,  20:-0.12482
    58 |      |   1:-0.52359,  19: 0.15447,  20: 0.10367
    59 |      |   1: 0.48618,  19: 0.78011,  20: -0.2621
    60 |      |  24:-0.099613,  25:  1.7953,  26: 0.78914,  27: -1.5549,  28: -1.0185,  29:  2.0865,  30: 0.16063,  31:-0.014024, 
                 32:-0.97581,  33:  1.0212,  34:-0.79485,  35: 0.23422,  36: -0.1607,  37: 0.31779,  38:-0.002838,  39:-0.15556, 
                 40:-0.68592,  41:-0.36626,  42: 0.29591,  43: 0.54846,  44: 0.43607,  45: 0.20739,  46:-0.95014,  47:-0.36957, 
                 48: -0.7253,  49: 0.72972,  50:  0.7358,  51: 0.51117,  52:  0.3628,  53:-0.015025,  54:-0.45758,  55:  1.0316, 
                 56:-0.43801,  57:-0.72257,  58:-0.85285,  59:-0.18435
    61 |      |  24: 0.10229,  25: 0.66406,  26: 0.97373,  27: -0.3334,  28: 0.72346,  29: 0.39723,  30: 0.71263,  31:  1.1507, 
                 32: -1.1748,  33:-0.15744,  34: 0.52748,  35:-0.49245,  36:  1.2145,  37: 0.39497,  38:-0.71593,  39:-0.78914, 
                 40: 0.93263,  41: -0.4298,  42:-0.19721,  43: 0.76243,  44:-0.67823,  45:-0.88853,  46:-0.43527,  47: 0.24319, 
                 48:-0.13788,  49:-0.41952,  50: 0.33254,  51:-0.10476,  52:-0.32801,  53: -0.9061,  54: -0.3505,  55: 0.68135, 
                 56: 0.84034,  57: -0.3309,  58:-0.48097,  59: 0.46541
    62 |      |  24: -1.4413,  25: -0.5376,  26: 0.70049,  27:-0.34592,  28: -0.6475,  29: -2.0224,  30:-0.050467,  31:  2.5247, 
                 32:-0.25575,  33:  1.6475,  34:  1.3931,  35: 0.27666,  36:  1.0229,  37: 0.48542,  38:  2.1706,  39:  2.2918, 
                 40: -1.6337,  41:-0.37686,  42: -1.8311,  43: 0.48158,  44:-0.02802,  45: 0.46973,  46: 0.84822,  47:-0.31038, 
                 48: 0.83548,  49:  1.0265,  50: -1.5577,  51:-0.10519,  52: 0.42288,  53: 0.35225,  54:-0.28628,  55: 0.68303, 
                 56:-0.23477,  57:-0.47913,  58:  1.0376,  59:-0.0094062
    63 |      |  24: -0.7709,  25: -0.4094,  26:  1.1013,  27: 0.53535,  28: 0.30413,  29:-0.41847,  30:-0.23388,  31:-0.003449, 
                 32:-0.28469,  33:  1.7264,  34:-0.38985,  35: 0.55851,  36:  1.3666,  37:-0.039297,  38:  1.4775,  39: 0.55687, 
                 40:-0.99191,  41: -1.0126,  42:-0.46915,  43: 0.97054,  44:-0.44931,  45: 0.88628,  46: 0.35301,  47:  1.0511, 
                 48:-0.64338,  49: 0.52266,  50:-0.94059,  51:-0.35209,  52:-0.06434,  53: 0.30804,  54: 0.60875,  55: 0.20897, 
                 56: -0.5568,  57: 0.49399,  58:  1.1406,  59: 0.30813
    64 |      |  24:-0.63781,  25: 0.22019,  26: 0.64599,  27:  1.0284,  28: 0.71792,  29:0.096539,  30: 0.84219,  31:-0.32474, 
                 32: 0.05024,  33:-0.021738,  34:  -0.107,  35:0.052665,  36: 0.89045,  37:-0.55408,  38:  0.1301,  39: 0.65971, 
                 40:   0.825,  41:-0.097718,  42: 0.78341,  43:-0.14494,  44:0.0014105,  45: -0.8386,  46:   0.836,  47:-0.60365, 
                 48: 0.73754,  49:-0.12927,  50:-0.20658,  51: 0.10389,  52:-0.045499,  53:  -1.009,  54: 0.74677,  55: 0.10646, 
                 56: 0.41539,  57: 0.23626,  58: 0.11945,  59: 0.10622
    65 |      |  24:-0.065981,  25: 0.46298,  26: 0.53512,  27:-0.38997,  28:0.082658,  29: -1.3792,  30:-0.23605,  31:  1.3931, 
                 32: 0.52992,  33:  1.9806,  34: 0.70247,  35: -0.4113,  36:  1.0881,  37:  -0.902,  38:    1.64,  39:  1.5216, 
                 40: 0.32452,  41: -1.0693,  42:-0.59616,  43: 0.21727,  44: 0.58588,  45:-0.26569,  46:   1.113,  47: 0.22772, 
                 48:-0.41133,  49: 0.57895,  50:-0.78554,  51: 0.65078,  52:-0.96083,  53: 0.79573,  54:-0.83097,  55: 0.34828, 
                 56: 0.71989,  57: 0.65464,  58: 0.51656,  59:-0.55943
    66 |      |  24: 0.53528,  25:  1.9766,  26: 0.76659,  27:-0.49313,  28: -0.7496,  29: 0.83447,  30:-0.28655,  31:-0.30207, 
                 32: -0.6285,  33:-0.77637,  34:-0.12477,  35:-0.19295,  36: 0.52383,  37: 0.77469,  38:  1.1737,  39:-0.46016, 
                 40: 0.54137,  41:0.099279,  42:-0.14723,  43:-0.43884,  44: 0.51018,  45:-0.70218,  46:-0.22081,  47: 0.93248, 
                 48:-0.44348,  49:-0.60989,  50:-0.047872,  51: 0.93391,  52: 0.75998,  53: 0.49985,  54: 0.93798,  55: 0.20969, 
                 56: 0.56817,  57: 0.91468,  58:-0.39687,  59:-0.55949
    67 |      |  24: 0.39961,  25: 0.40695,  26: 0.20265,  27:   1.032,  28:-0.23967,  29: 0.71898,  30: 0.91838,  31:-0.22913, 
                 32:  0.7356,  33:  1.4846,  34:-0.61044,  35:-0.13181,  36:-0.30521,  37:-0.19687,  38: -0.3223,  39: 0.10409, 
                 40: 0.70248,  41:-0.88013,  42:0.016574,  43:-0.67551,  44: 0.32418,  45:0.082521,  46: 0.86049,  47:-0.22675, 
                 48:-0.027072,  49:0.067549,  50:-0.93883,  51:-0.052543,  52:  0.6047,  53:-0.50921,  54: 0.47605,  55:-0.011184, 
                 56: 0.97457,  57:-0.41045,  58: -0.2573,  59:-0.34719
    68 |      |  24: -1.1604,  25:-0.41773,  26:-0.90636,  27:-0.41319,  28:0.054783,  29:-0.94132,  30: 0.33183,  31:  1.9571, 
                 32: 0.68862,  33:  1.7635,  34:   1.125,  35:  0.8395,  36: 0.27217,  37: 0.91008,  38: 0.97519,  39:  2.0954, 
                 40:-0.20961,  41: 0.39442,  42:-0.86606,  43: 0.18733,  44:  1.3071,  45: 0.70265,  46:-0.056082,  47:-0.67483, 
                 48: 0.75412,  49: 0.57297,  50: -1.0043,  51: 0.89366,  52: 0.73019,  53:-0.21428,  54:-0.58077,  55: -1.0324, 
                 56: 0.85186,  57:-0.57422,  58:-0.61546,  59:0.029152
    69 |      |  24: 0.20672,  25:-0.045964,  26: 0.29599,  27:-0.24389,  28:-0.40139,  29: 0.35677,  30: 0.56337,  31:-0.49039, 
                 32:-0.66236,  33: 0.31482,  34:-0.90301,  35:-0.93913,  36:-0.71092,  37:-0.31974,  38: 0.77565,  39:-0.62199, 
                 40: 0.20009,  41:-0.71138,  42: 0.67499,  43:-0.52644,  44: -0.5757,  45:0.084288,  46:-0.86777,  47: 0.39557, 
                 48: 0.17613,  49: -1.0216,  50: 0.40761,  51: 0.55404,  52:-0.50509,  53:-0.77675,  54:0.068891,  55: 0.48161, 
                 56: 0.10393,  57:-0.71215,  58:-0.67127,  59: 0.93155
    70 |      |  60: -3.1557,  61:  -1.522,  62:   3.533,  63:  1.6362,  64:-0.80704,  65:  2.0362,  66: -2.6559,  67:-0.54109, 
                 68:  2.2111,  69:-0.62154
-------|------|----------------------------------------------------------------------------------------------------------------
