SNNS network definition file V1.4-3D
generated at Thu May 09 10:11:49 1996

network name : edge_23
source files :
no. of units : 70
no. of connections : 622
no. of unit types : 0
no. of site types : 0


learning function : Std_Backpropagation
update function : Topological_Order


unit default section :

act      | bias     | st | subnet | layer | act func     | out func
---------|----------|----|--------|-------|--------------|-------------
 0.00000 |  0.00000 | h  |      0 |     1 | Act_Logistic | Out_Identity
---------|----------|----|--------|-------|--------------|-------------


unit definition section :

no. | typeName | unitName | act      | bias     | st | position | act func | out func | sites
----|----------|----------|----------|----------|----|----------|----------|----------|-------
  1 |          |           |        0 |        0 | i  |  2, 1, 0 |||
  2 |          |           |        0 |        0 | i  |  2, 3, 0 |||
  3 |          |           |        0 |        0 | i  |  2, 4, 0 |||
  4 |          |           |        0 |        0 | i  |  2, 5, 0 |||
  5 |          |           |        0 |        0 | i  |  2, 7, 0 |||
  6 |          |           |        0 |        0 | i  |  2, 8, 0 |||
  7 |          |           |        0 |        0 | i  |  2, 9, 0 |||
  8 |          |           |        0 |        0 | i  |  2,11, 0 |||
  9 |          |           |        0 |        0 | i  |  2,12, 0 |||
 10 |          |           |        0 |        0 | i  |  2,13, 0 |||
 11 |          |           |        0 |        0 | i  |  2,14, 0 |||
 12 |          |           |        0 |        0 | i  |  2,15, 0 |||
 13 |          |           |        0 |        0 | i  |  2,16, 0 |||
 14 |          |           |        0 |        0 | i  |  2,17, 0 |||
 15 |          |           |        0 |        0 | i  |  2,18, 0 |||
 16 |          |           |        0 |        0 | i  |  2,23, 0 |||
 17 |          |           |        0 |        0 | i  |  2,24, 0 |||
 18 |          |           |        0 |        0 | i  |  2,25, 0 |||
 19 |          |           |        0 |        0 | i  |  2,27, 0 |||
 20 |          |           |        0 |        0 | i  |  2,28, 0 |||
 21 |          |           |        0 |        0 | i  |  2,19, 0 |||
 22 |          |           |        0 |        0 | i  |  2,20, 0 |||
 23 |          |           |        0 |        0 | i  |  2,21, 0 |||
 24 |          |           |        0 | -0.10665 | h  |  7, 3, 0 |||
 25 |          |           |        0 |  0.24157 | h  |  8, 3, 0 |||
 26 |          |           |        0 |  0.30078 | h  |  7, 4, 0 |||
 27 |          |           |        0 |  0.83139 | h  |  8, 4, 0 |||
 28 |          |           |        0 |  -1.0206 | h  |  7, 5, 0 |||
 29 |          |           |        0 |   1.7551 | h  |  8, 5, 0 |||
 30 |          |           |        0 | -0.10971 | h  |  7, 7, 0 |||
 31 |          |           |        0 | -0.71381 | h  |  8, 7, 0 |||
 32 |          |           |        0 |  -1.0646 | h  |  7, 8, 0 |||
 33 |          |           |        0 | -0.78236 | h  |  8, 8, 0 |||
 34 |          |           |        0 |  0.47495 | h  |  7, 9, 0 |||
 35 |          |           |        0 | -0.85682 | h  |  8, 9, 0 |||
 36 |          |           |        0 |  0.71629 | h  |  7,11, 0 |||
 37 |          |           |        0 |   1.0143 | h  |  8,11, 0 |||
 38 |          |           |        0 | -0.41434 | h  |  7,12, 0 |||
 39 |          |           |        0 |  0.18423 | h  |  8,12, 0 |||
 40 |          |           |        0 | -0.65824 | h  |  7,13, 0 |||
 41 |          |           |        0 |   0.1763 | h  |  8,13, 0 |||
 42 |          |           |        0 |  0.15276 | h  |  7,14, 0 |||
 43 |          |           |        0 |  0.42826 | h  |  8,14, 0 |||
 44 |          |           |        0 |   1.2972 | h  |  7,15, 0 |||
 45 |          |           |        0 |  0.87463 | h  |  8,15, 0 |||
 46 |          |           |        0 |  -0.3677 | h  |  7,16, 0 |||
 47 |          |           |        0 | 0.0027968 | h  |  8,16, 0 |||
 48 |          |           |        0 | -0.24095 | h  |  7,17, 0 |||
 49 |          |           |        0 | -0.25005 | h  |  8,17, 0 |||
 50 |          |           |        0 |  0.22141 | h  |  7,22, 0 |||
 51 |          |           |        0 | -0.56545 | h  |  8,22, 0 |||
 52 |          |           |        0 |  0.58106 | h  |  7,23, 0 |||
 53 |          |           |        0 | 0.0073818 | h  |  8,23, 0 |||
 54 |          |           |        0 | -0.079391 | h  |  7,24, 0 |||
 55 |          |           |        0 |  0.68162 | h  |  8,24, 0 |||
 56 |          |           |        0 |  0.13858 | h  |  7,26, 0 |||
 57 |          |           |        0 | -0.37489 | h  |  8,26, 0 |||
 58 |          |           |        0 |  0.82408 | h  |  7,27, 0 |||
 59 |          |           |        0 |  0.10317 | h  |  8,27, 0 |||
 60 |          |           |        0 |  0.98115 | h  | 13,12, 0 |||
 61 |          |           |        0 |  0.94555 | h  | 14,12, 0 |||
 62 |          |           |        0 |  0.24254 | h  | 13,13, 0 |||
 63 |          |           |        0 | -0.22293 | h  | 14,13, 0 |||
 64 |          |           |        0 | -0.46577 | h  | 13,14, 0 |||
 65 |          |           |        0 | -0.95216 | h  | 14,14, 0 |||
 66 |          |           |        0 | -0.59243 | h  | 13,15, 0 |||
 67 |          |           |        0 | -0.63849 | h  | 14,15, 0 |||
 68 |          |           |        0 |  0.49735 | h  | 13,16, 0 |||
 69 |          |           |        0 |  0.50939 | h  | 14,16, 0 |||
 70 |          |           |        0 | -0.22276 | o  | 18,14, 0 |||
----|----------|----------|----------|----------|----|----------|----------|----------|-------


connection definition section :

target | site | source:weight
-------|------|------------------------------------------------------------------------------------------------------------
    24 |      |   1: 0.75728,   2:   2.506,   3: 0.80109,   4: 0.56302
    25 |      |   1: 0.95502,   2:-0.57336,   3: 0.13805,   4:-0.70511
    26 |      |   1:-0.15741,   2:-0.40332,   3:  0.7326,   4: 0.30707
    27 |      |   1:  1.0467,   2:-0.094418,   3:-0.92757,   4:-0.11436
    28 |      |   1: 0.52001,   2:0.0038061,   3: 0.56521,   4: 0.57775
    29 |      |   1:-0.18086,   2:-0.71773,   3:-0.41752,   4: 0.56473
    30 |      |   1:-0.21366,   5:-0.32571,   6:  0.4625,   7:-0.35393
    31 |      |   1: -0.2995,   5:-0.77675,   6:-0.043722,   7: 0.56115
    32 |      |   1: 0.68307,   5:-0.70234,   6:-0.87847,   7:  0.2579
    33 |      |   1: 0.62096,   5: 0.40409,   6: 0.92469,   7:-0.50599
    34 |      |   1:-0.42979,   5: 0.65238,   6: 0.53357,   7:-0.76896
    35 |      |   1: 0.89927,   5:-0.62619,   6:-0.23647,   7:-0.87006
    36 |      |   1:-0.18197,   8:-0.028525,   9: 0.76604,  10:-0.83725,  11: 0.51461,  12: 0.22292,  13: 0.10407,  14:  1.2223, 
                 15: 0.18141,  21:-0.18412,  22:-0.79443,  23: 0.34558
    37 |      |   1:-0.58988,   8: -1.1938,   9: 0.24874,  10:  1.1225,  11: 0.70328,  12:-0.041933,  13: -1.0388,  14: 0.44528, 
                 15: 0.23681,  21:-0.72395,  22: 0.55115,  23:  0.6204
    38 |      |   1: 0.46125,   8: -1.0374,   9:0.041487,  10: 0.51418,  11: 0.23165,  12:0.072447,  13:-0.45604,  14:-0.57727, 
                 15:0.059128,  21:-0.33326,  22:-0.30948,  23:  1.0596
    39 |      |   1:-0.79876,   8:-0.56145,   9:-0.20497,  10: 0.41855,  11: 0.62843,  12:-0.29115,  13: 0.81696,  14: 0.16806, 
                 15:-0.10131,  21:   1.027,  22: 0.39508,  23: 0.62366
    40 |      |   1:-0.18471,   8:0.094152,   9: -0.7469,  10:-0.34316,  11:-0.22219,  12: 0.96265,  13: 0.48119,  14:-0.020351, 
                 15: 0.59023,  21: -0.8801,  22:-0.58976,  23:-0.60671
    41 |      |   1:-0.015103,   8:-0.24675,   9:-0.37522,  10: 0.12673,  11:-0.37658,  12: 0.40415,  13: 0.28076,  14: 0.20215, 
                 15:-0.57038,  21:-0.67652,  22:-0.39294,  23:-0.33685
    42 |      |   1:0.087317,   8:-0.72463,   9:-0.80017,  10:  0.4213,  11: 0.51025,  12:0.043002,  13:-0.009042,  14:-0.95406, 
                 15:  -1.113,  21: 0.33868,  22:-0.63371,  23: 0.36816
    43 |      |   1: 0.74828,   8: 0.70313,   9:0.043358,  10: -1.0868,  11:-0.74665,  12:  1.0376,  13:-0.24388,  14: 0.29251, 
                 15:-0.31719,  21: 0.95163,  22:-0.26995,  23: 0.73779
    44 |      |   1: 0.59578,   8: -1.4041,   9: 0.38686,  10: -1.3185,  11: 0.35813,  12:-0.47392,  13:-0.66658,  14: 0.50066, 
                 15:-0.73392,  21: 0.34758,  22: 0.53618,  23: 0.29261
    45 |      |   1: 0.38317,   8: 0.43721,   9:-0.55262,  10:-0.099325,  11:-0.65042,  12: 0.90395,  13:-0.69283,  14: 0.38922, 
                 15:  1.1419,  21: 0.22016,  22:-0.027331,  23:-0.35042
    46 |      |   1: 0.87315,   8:-0.16369,   9:-0.03839,  10: 0.61953,  11: 0.89028,  12:-0.97292,  13: 0.71371,  14: 0.58785, 
                 15:-0.42371,  21: 0.37099,  22:-0.80701,  23:-0.25864
    47 |      |   1:-0.0094917,   8:-0.45931,   9: 0.77933,  10:-0.45165,  11:-0.66043,  12:0.092986,  13: 0.81417,  14:-0.46167, 
                 15:-0.87262,  21: 0.78319,  22:-0.43194,  23: 0.10245
    48 |      |   1:-0.87648,   8: 0.82996,   9:-0.48808,  10: -0.6591,  11: 0.53895,  12:-0.83759,  13: 0.23887,  14:-0.45005, 
                 15:  1.1558,  21:   0.849,  22:-0.67569,  23: 0.49474
    49 |      |   1:-0.40415,   8:-0.68455,   9: 0.67585,  10: 0.26578,  11: 0.38014,  12:-0.49994,  13: 0.67279,  14: 0.11168, 
                 15:-0.085962,  21:-0.67309,  22:-0.86944,  23:-0.70857
    50 |      |   1:-0.41949,  16: -1.3625,  17: 0.32134,  18: 0.70456
    51 |      |   1: 0.56237,  16:-0.094002,  17:  0.3039,  18:-0.34414
    52 |      |   1: 0.41218,  16: -0.7495,  17:-0.53387,  18:  0.1917
    53 |      |   1:-0.078583,  16:-0.17267,  17:-0.35578,  18: 0.33472
    54 |      |   1:-0.83899,  16:-0.19632,  17:-0.71742,  18: -0.3693
    55 |      |   1: 0.33202,  16: 0.19016,  17:-0.12491,  18:  0.5703
    56 |      |   1: 0.84217,  19:-0.68801,  20: 0.79041
    57 |      |   1: 0.74025,  19:0.012152,  20:-0.22191
    58 |      |   1:-0.52595,  19: 0.16347,  20:-0.055524
    59 |      |   1: 0.56745,  19: 0.71417,  20:-0.0049496
    60 |      |  24:-0.37299,  25:  1.2208,  26: 0.36204,  27:0.088361,  28: -1.0603,  29:  1.7668,  30:0.051461,  31: -0.1983, 
                 32:-0.83284,  33: 0.59964,  34: -0.8529,  35: 0.34581,  36:-0.29718,  37: 0.79768,  38:-0.022333,  39:-0.38412, 
                 40:-0.68921,  41:-0.12917,  42: 0.95654,  43: 0.83463,  44:  1.0339,  45:-0.27303,  46:-0.46468,  47:-0.74458, 
                 48: -1.2589,  49: 0.68955,  50: 0.91354,  51: 0.45344,  52: 0.46781,  53:-0.047548,  54:-0.37194,  55:  1.0123, 
                 56:-0.45675,  57:-0.78588,  58:-0.95192,  59:-0.19932
    61 |      |  24: 0.13778,  25: 0.64481,  26: 0.96692,  27:-0.14742,  28: 0.71824,  29: 0.22734,  30: 0.52746,  31: 0.51749, 
                 32:-0.97237,  33:-0.85089,  34: 0.60378,  35:-0.30943,  36: 0.95442,  37: 0.41745,  38: -0.6018,  39:-0.37162, 
                 40: 0.91086,  41: -0.5231,  42:-0.33486,  43: 0.49955,  44:-0.65655,  45:-0.83294,  46:-0.18847,  47: 0.11875, 
                 48:-0.29859,  49:-0.32808,  50: 0.40348,  51:-0.068698,  52:-0.25416,  53:-0.78264,  54:-0.19756,  55: 0.80625, 
                 56: 0.84451,  57:-0.24877,  58:-0.41963,  59: 0.51755
    62 |      |  24: -1.8178,  25:-0.14222,  26:  1.4292,  27: -1.5634,  28: 0.30312,  29: -1.1935,  30:-0.59952,  31: 0.81506, 
                 32:-0.085994,  33: 0.11806,  34:  1.1377,  35: 0.60386,  36:  1.1489,  37:  1.1828,  38: 0.66287,  39: 0.36505, 
                 40:-0.90695,  41:-0.19097,  42: -0.8409,  43:0.0043904,  44:-0.98204,  45: 0.23598,  46: 0.26892,  47:-0.39547, 
                 48:  1.3037,  49: 0.84674,  50: -1.1142,  51:-0.22543,  52: 0.57566,  53:  0.5664,  54:-0.14251,  55: 0.82478, 
                 56:-0.46287,  57:-0.40163,  58:  1.0858,  59: 0.11074
    63 |      |  24: -1.4611,  25:-0.17882,  26:   1.271,  27:-0.73609,  28: 0.47324,  29:-0.41636,  30: -0.6614,  31:-0.87873, 
                 32:-0.17327,  33:  1.0848,  34:-0.50845,  35: 0.71383,  36:  1.3723,  37: 0.59497,  38: 0.85819,  39:0.064742, 
                 40:-0.89069,  41: -1.1246,  42:-0.031328,  43: 0.79567,  44:-0.95811,  45: 0.61636,  46: 0.18413,  47: 0.75978, 
                 48:-0.46429,  49: 0.28006,  50:-0.86756,  51:-0.35763,  52:-0.028637,  53: 0.31309,  54: 0.70869,  55: 0.14639, 
                 56:-0.60899,  57: 0.51009,  58:  1.0711,  59: 0.33538
    64 |      |  24:-0.72019,  25: 0.45725,  26: 0.56846,  27:   1.016,  28: 0.70136,  29: 0.25424,  30: 0.94544,  31:-0.34267, 
                 32:0.0073223,  33:0.026389,  34:0.066518,  35:0.079807,  36: 0.98399,  37: -0.4416,  38: 0.22833,  39: 0.61422, 
                 40: 0.82913,  41:-0.049753,  42: 0.73191,  43:-0.13699,  44: 0.18099,  45:-0.73113,  46: 0.85064,  47:-0.51374, 
                 48: 0.71691,  49:-0.024732,  50:-0.16307,  51: 0.12494,  52:-0.0072716,  53:-0.93939,  54: 0.73883,  55: 0.22641, 
                 56: 0.47325,  57: 0.30337,  58: 0.19397,  59: 0.17347
    65 |      |  24:-0.10845,  25: 0.28525,  26: 0.64793,  27: -1.6057,  28: 0.24023,  29: -1.3558,  30:-0.82445,  31: 0.31253, 
                 32: 0.70823,  33: 0.83808,  34: 0.23858,  35:-0.29812,  36: 0.67731,  37: -0.8956,  38: 0.57252,  39: 0.49781, 
                 40: 0.80497,  41:-0.75672,  42: 0.17911,  43:-0.24377,  44:-0.094177,  45:-0.60119,  46: 0.70045,  47: 0.10725, 
                 48:-0.54729,  49:  0.2123,  50:-0.49207,  51: 0.60942,  52: -1.0349,  53: 0.60138,  54: -0.9781,  55: 0.17949, 
                 56:  0.3667,  57: 0.58091,  58: 0.39804,  59: -0.6768
    66 |      |  24:  0.4949,  25:   1.206,  26: 0.58239,  27: 0.69004,  28:-0.44994,  29: 0.15597,  30:-0.32442,  31:0.0073871, 
                 32: -0.4952,  33:-0.75035,  34:-0.054362,  35:-0.16464,  36: 0.58051,  37: 0.79197,  38: 0.98688,  39:-0.67283, 
                 40: 0.74901,  41: 0.18652,  42:-0.20844,  43:-0.54491,  44: 0.80637,  45: -1.0301,  46:-0.14717,  47: 0.61329, 
                 48: -1.1228,  49:-0.67115,  50:-0.087492,  51: 0.75851,  52: 0.58581,  53:  0.4158,  54: 0.87578,  55: 0.15189, 
                 56: 0.38788,  57: 0.79337,  58:-0.56548,  59:-0.74361
    67 |      |  24:  0.4163,  25: 0.47594,  26:0.042174,  27: 0.68784,  28:-0.44707,  29: 0.82836,  30: 0.60045,  31:-0.55743, 
                 32: 0.79658,  33: 0.94568,  34:-0.89236,  35:-0.11331,  36:-0.33682,  37:-0.17914,  38:-0.39817,  39:-0.14376, 
                 40: 0.78948,  41:-0.90619,  42: 0.10066,  43:-0.99145,  44: 0.20005,  45:-0.054358,  46: 0.73385,  47:-0.33264, 
                 48:-0.014043,  49:-0.036692,  50:-0.95389,  51:-0.11518,  52: 0.54611,  53:-0.58149,  54: 0.41216,  55:-0.12062, 
                 56:  0.9447,  57:-0.50867,  58:-0.35794,  59:-0.47452
    68 |      |  24: -1.1975,  25:-0.23897,  26:-0.66543,  27: -1.0368,  28: 0.31647,  29:-0.22986,  30:-0.10585,  31: 0.94039, 
                 32: 0.72113,  33: 0.81782,  34: 0.88412,  35: 0.89061,  36:-0.11472,  37:   1.056,  38: 0.10976,  39: 0.86377, 
                 40: 0.46923,  41: 0.62289,  42:-0.13051,  43:-0.28319,  44: 0.69933,  45: 0.71757,  46:-0.85068,  47:-0.71853, 
                 48: 0.45787,  49: 0.18226,  50:  -0.791,  51: 0.72456,  52: 0.73656,  53: -0.1765,  54:-0.69968,  55: -1.0161, 
                 56: 0.66476,  57:-0.61288,  58:-0.68432,  59:-0.029813
    69 |      |  24: 0.27511,  25:0.041044,  26: 0.24743,  27:-0.069568,  28:-0.32553,  29: 0.34286,  30:  0.6939,  31:-0.36157, 
                 32:-0.66242,  33: 0.51202,  34:-0.81834,  35:-0.86532,  36:-0.67373,  37:-0.096709,  38:  1.0694,  39:-0.73355, 
                 40: 0.13416,  41:-0.65665,  42: 0.43252,  43:-0.87136,  44:-0.33408,  45:-0.024279,  46:-0.75956,  47: 0.45749, 
                 48: 0.10603,  49:-0.82837,  50: 0.30397,  51:   0.563,  52:-0.57931,  53:-0.78318,  54:-0.012478,  55: 0.53676, 
                 56: 0.19139,  57:-0.68715,  58:-0.66572,  59: 0.87728
    70 |      |  60: -2.0511,  61:-0.16713,  62:  2.8887,  63:  2.1184,  64:-0.20924,  65:  1.4607,  66: -1.7122,  67:-0.40425, 
                 68:  1.1193,  69:-0.78559
-------|------|----------------------------------------------------------------------------------------------------------------
