SNNS network definition file V1.4-3D
generated at Thu May 09 10:11:49 1996

network name : v27-23+8
source files :
no. of units : 59
no. of connections : 314
no. of unit types : 0
no. of site types : 0


learning function : Std_Backpropagation
update function : Topological_Order


unit default section :

act      | bias     | st | subnet | layer | act func     | out func
---------|----------|----|--------|-------|--------------|-------------
 0.00000 |  0.00000 | h  |      0 |     1 | Act_Logistic | Out_Identity
---------|----------|----|--------|-------|--------------|-------------


unit definition section :

no. | typeName | unitName | act      | bias     | st | position | act func | out func | sites
----|----------|----------|----------|----------|----|----------|----------|----------|-------
  1 |          |           |  0.36116 |        0 | i  |  2, 1, 0 |||
  2 |          |           |  0.36116 |        0 | i  |  2, 3, 0 |||
  3 |          |           |  -0.6071 |        0 | i  |  2, 4, 0 |||
  4 |          |           |   1.6273 |        0 | i  |  2, 5, 0 |||
  5 |          |           |  0.77159 |        0 | i  |  2, 6, 0 |||
  6 |          |           |  -1.0749 |        0 | i  |  2, 7, 0 |||
  7 |          |           |  -2.5229 |        0 | i  |  2, 8, 0 |||
  8 |          |           |  0.42502 |        0 | i  |  2, 9, 0 |||
  9 |          |           | -0.62616 |        0 | i  |  2,10, 0 |||
 10 |          |           | -0.050123 |        0 | i  |  2,11, 0 |||
 11 |          |           |  0.29601 |        0 | i  |  2,12, 0 |||
 12 |          |           |  0.36116 |        0 | i  |  2,14, 0 |||
 13 |          |           |  0.93383 |        0 | i  |  2,15, 0 |||
 14 |          |           | -0.41115 |        0 | i  |  2,16, 0 |||
 15 |          |           |   -2.045 |        0 | i  |  2,17, 0 |||
 16 |          |           | -0.15931 |        0 | i  |  2,18, 0 |||
 17 |          |           |  -1.7473 |        0 | i  |  2,19, 0 |||
 18 |          |           |  0.45554 |        0 | i  |  2,20, 0 |||
 19 |          |           |   4.7636 |        0 | i  |  2,22, 0 |||
 20 |          |           |     1.72 |        0 | i  |  2,23, 0 |||
 21 |          |           |        0 |        0 | i  |  2,24, 0 |||
 22 |          |           |   6.6212 |        0 | i  |  2,26, 0 |||
 23 |          |           |   4.6664 |        0 | i  |  2,27, 0 |||
 24 |          |           | -0.28868 |        0 | i  |  2,28, 0 |||
 25 |          |           |   13.853 |        0 | i  |  2,29, 0 |||
 26 |          |           |   3.4641 |        0 | i  |  2,30, 0 |||
 27 |          |           |   4.3167 |        0 | i  |  2,31, 0 |||
 28 |          |           |  0.99969 |   2.0098 | h  |  7, 3, 0 |||
 29 |          |           |  0.79958 |  0.61583 | h  |  7, 4, 0 |||
 30 |          |           | 0.082606 | -0.49125 | h  |  7, 5, 0 |||
 31 |          |           |  0.90279 | 0.0062174 | h  |  8, 6, 0 |||
 32 |          |           |  0.19514 |  0.67794 | h  |  8, 7, 0 |||
 33 |          |           |  0.67335 | -0.71658 | h  |  8, 8, 0 |||
 34 |          |           |  0.25816 | -0.78795 | h  |  7,10, 0 |||
 35 |          |           |  0.29253 | -0.78597 | h  |  7,11, 0 |||
 36 |          |           |  0.33083 |  0.21117 | h  |  7,12, 0 |||
 37 |          |           |  0.71262 |   1.6162 | h  |  7,14, 0 |||
 38 |          |           |  0.91544 |   -1.129 | h  |  7,15, 0 |||
 39 |          |           |   0.6923 |   0.6409 | h  |  7,16, 0 |||
 40 |          |           |  0.29021 |  -1.4611 | h  |  7,17, 0 |||
 41 |          |           |  0.21693 | -0.51508 | h  |  7,19, 0 |||
 42 |          |           |  0.76113 |   -1.216 | h  |  7,20, 0 |||
 43 |          |           |  0.36866 |  0.56852 | h  |  7,22, 0 |||
 44 |          |           |  0.46414 |    1.208 | h  |  7,23, 0 |||
 45 |          |           |  0.41524 | -0.42932 | h  |  7,24, 0 |||
 46 |          |           | 0.013413 | -0.60294 | h  |  7,26, 0 |||
 47 |          |           |        1 |   1.1183 | h  |  7,27, 0 |||
 48 |          |           |        1 |  -1.0615 | h  |  7,28, 0 |||
 49 |          |           |  0.99999 |  -1.1234 | h  |  7,29, 0 |||
 50 |          |           |  0.99998 |  -0.7973 | h  |  7,30, 0 |||
 51 |          |           |   0.8928 | -0.097747 | h  | 13,12, 0 |||
 52 |          |           |  0.93528 | -0.84943 | h  | 13,13, 0 |||
 53 |          |           |  0.27016 | -0.55872 | h  | 13,14, 0 |||
 54 |          |           |  0.84542 |   0.1925 | h  | 13,15, 0 |||
 55 |          |           |  0.93318 |   0.3539 | h  | 13,16, 0 |||
 56 |          |           |  0.86102 |  0.34031 | h  | 13,17, 0 |||
 57 |          |           |     0.92 |  0.33292 | h  | 13,18, 0 |||
 58 |          |           |  0.32962 | -0.74538 | h  | 13,19, 0 |||
 59 |          |           |  0.99927 | -0.019767 | o  | 20,15, 0 |||
----|----------|----------|----------|----------|----|----------|----------|----------|-------


connection definition section :

target | site | source:weight
-------|------|------------------------------------------------------------------------------------------------------------
    28 |      |   1:-0.16126,   2: 0.40419,   3:-0.15541,   4:  2.8627,   5:  1.6105
    29 |      |   1: 0.82839,   2: 0.24073,   3:-0.044044,   4: 0.69208,   5:-0.99959
    30 |      |   1:-0.80236,   2:-0.85602,   3:-0.13432,   4: -1.1202,   5:  0.5496
    31 |      |   1: 0.80016,   2: 0.29096,   6: 0.77306,   7:  -1.035,   8: 0.11354
    32 |      |   1:   0.226,   2: 0.65614,   6:-0.35767,   7: 0.96616,   8:  -0.848
    33 |      |   1:-0.65522,   2: 0.06105,   6:-0.84965,   7:-0.36409,   8:-0.41722
    34 |      |   1: 0.17325,   9:-0.14697,  10: -0.2578,  11:   -1.47
    35 |      |   1: 0.38595,   9: 0.85081,  10:-0.90657,  11: 0.84713
    36 |      |   1:-0.30124,   9: 0.20483,  10:-0.50137,  11: -2.3772
    37 |      |   1: -0.4339,  12:-0.081656,  13:-0.084257,  14:0.028131,  15: 0.89551,  16: 0.22161,  17:-0.37213,  18:  1.7228
    38 |      |   1:-0.015195,  12: -1.2192,  13:-0.25177,  14: -1.1942,  15: -1.2307,  16:  2.1784,  17:-0.88737,  18:-0.042894
    39 |      |   1: 0.67032,  12: 0.12258,  13:-0.91253,  14:-0.059542,  15: 0.10938,  16:-0.34216,  17: -0.5075,  18:-0.013912
    40 |      |   1:0.077108,  12:  -1.202,  13: 0.33143,  14:  1.2237,  15:-0.71993,  16:-0.35912,  17: -0.5039,  18: -2.7293
    41 |      |   1:-0.55407,  19:-0.11933
    42 |      |   1:-0.89366,  19: 0.56631
    43 |      |   1: 0.28318,  20:-0.70278,  21:-0.96165
    44 |      |   1:-0.57449,  20:-0.66528,  21: 0.77715
    45 |      |   1: 0.85239,  20:-0.12843,  21:-0.26022
    46 |      |   1: 0.25264,  22:0.0024367,  23: 0.58308,  24:-0.61685,  25:-0.67631,  26:  1.0112,  27:-0.19362
    47 |      |   1:-0.083626,  22: 0.55794,  23:  1.2547,  24:-0.011538,  25: 0.86556,  26: -1.1945,  27:0.0038411
    48 |      |   1:-0.01256,  22: 0.69868,  23: 0.81924,  24:  2.0833,  25:   1.181,  26: 0.57988,  27: -2.5752
    49 |      |   1: 0.27419,  22:-0.05323,  23: 0.83183,  24: 0.60956,  25: 0.77915,  26: 0.49136,  27:-0.61451
    50 |      |   1:0.070776,  22: 0.19498,  23: 0.39721,  24:  1.0765,  25: 0.66886,  26: 0.39837,  27:-0.40507
    51 |      |  28:-0.88565,  29: 0.91444,  30:-0.92638,  31:-0.57733,  32:  1.0311,  33:-0.00063544,  34: -1.2871,  35:-0.19534, 
                 36: -1.7168,  37:-0.56745,  38: -2.1614,  39: 0.80542,  40:  1.7577,  41:-0.14958,  42: 0.73182,  43:-0.78828, 
                 44: -1.1887,  45:  0.8298,  46:-0.025747,  47:  1.1643,  48:  2.1152,  49: 0.52524,  50:  1.2101
    52 |      |  28: 0.64806,  29:-0.097089,  30:-0.94365,  31:-0.38285,  32:-0.62555,  33:   -0.95,  34:-0.99463,  35:-0.21219, 
                 36:  0.2386,  37:-0.73582,  38:-0.81465,  39:  1.2001,  40:  2.0833,  41:0.071836,  42:-0.077204,  43:-0.89443, 
                 44: -1.0112,  45:-0.14894,  46:-0.010506,  47:  0.9624,  48:  1.9487,  49:  1.1813,  50:  1.0217
    53 |      |  28: 0.85489,  29: 0.12317,  30: 0.23937,  31: 0.54309,  32: 0.75757,  33:-0.15939,  34:-0.64049,  35: 0.48196, 
                 36: 0.54726,  37:-0.26812,  38:-0.48719,  39: 0.45794,  40:-0.39482,  41:-0.39833,  42: -1.0061,  43:-0.29172, 
                 44: 0.23863,  45:0.053968,  46:-0.38061,  47:-0.029708,  48:-0.81497,  49:-0.081964,  50:0.097449
    54 |      |  28:0.086459,  29:-0.90187,  30: 0.59271,  31: 0.41871,  32: -1.2563,  33:0.086755,  34: 0.11917,  35: 0.86123, 
                 36: -1.3596,  37:-0.43258,  38:-0.57146,  39: 0.69332,  40:  1.5801,  41:0.060428,  42:  1.0424,  43:-0.21234, 
                 44: 0.67093,  45: 0.51491,  46: -1.0861,  47:  0.1187,  48: 0.10102,  49:-0.16523,  50: 0.66766
    55 |      |  28: 0.45088,  29: 0.66637,  30:-0.66721,  31: 0.56523,  32:-0.48374,  33: 0.31975,  34:  0.9899,  35:-0.98064, 
                 36: 0.70335,  37: 0.46025,  38: 0.66247,  39: 0.51079,  40:-0.58898,  41: 0.45109,  42:0.080773,  43:0.034668, 
                 44:-0.75842,  45:-0.69403,  46:-0.092459,  47: 0.59119,  48: 0.42066,  49:-0.81783,  50:-0.32022
    56 |      |  28:  1.1819,  29:-0.007628,  30:-0.93545,  31: -1.0255,  32: 0.41427,  33: 0.41579,  34: 0.50343,  35:-0.50974, 
                 36: 0.20488,  37: 0.86519,  38:-0.65806,  39: 0.94465,  40:-0.07606,  41:-0.73976,  42: -1.0561,  43:-0.24293, 
                 44:  0.7224,  45: 0.81131,  46:-0.65295,  47:-0.60188,  48: 0.13463,  49: 0.69662,  50: 0.41675
    57 |      |  28: -2.5834,  29:-0.59863,  30: 0.24495,  31: 0.98771,  32:-0.71285,  33: -1.1713,  34:-0.26184,  35: 0.33802, 
                 36:-0.31853,  37: 0.15152,  38:-0.91142,  39:-0.62782,  40: 0.42181,  41: -1.1478,  42:  0.7231,  43: 0.66366, 
                 44: -1.2817,  45: 0.55147,  46: 0.23137,  47: 0.93711,  48:  2.2008,  49:  1.5223,  50:  1.4558
    58 |      |  28:  1.6826,  29:-0.49509,  30: -1.0292,  31: 0.15582,  32:-0.67716,  33: 0.66547,  34:-0.10856,  35: -1.0021, 
                 36:  1.6668,  37: 0.94547,  38:  2.1166,  39:-0.47534,  40:  -0.575,  41: 0.19376,  42:-0.38981,  43:-0.20269, 
                 44:-0.50431,  45: 0.85829,  46: 0.62965,  47:-0.58115,  48: -2.0354,  49:-0.88739,  50: -0.2655
    59 |      |  51:  3.9016,  52:  2.5534,  53:-0.56719,  54:  1.7155,  55: -1.2387,  56: -1.0983,  57:   3.493,  58: -3.1699
-------|------|----------------------------------------------------------------------------------------------------------------
