SNNS network definition file V1.4-3D
generated at Thu May 09 10:11:49 1996

network name : edge_23
source files :
no. of units : 70
no. of connections : 622
no. of unit types : 0
no. of site types : 0


learning function : Std_Backpropagation
update function : Topological_Order


unit default section :

act      | bias     | st | subnet | layer | act func     | out func
---------|----------|----|--------|-------|--------------|-------------
 0.00000 |  0.00000 | h  |      0 |     1 | Act_Logistic | Out_Identity
---------|----------|----|--------|-------|--------------|-------------


unit definition section :

no. | typeName | unitName | act      | bias     | st | position | act func | out func | sites
----|----------|----------|----------|----------|----|----------|----------|----------|-------
  1 |          |           |  0.48507 |        0 | i  |  2, 1, 0 |||
  2 |          |           |    3.639 |        0 | i  |  2, 3, 0 |||
  3 |          |           |   24.578 |        0 | i  |  2, 4, 0 |||
  4 |          |           |   19.596 |        0 | i  |  2, 5, 0 |||
  5 |          |           |   2.0669 |        0 | i  |  2, 7, 0 |||
  6 |          |           |   13.218 |        0 | i  |  2, 8, 0 |||
  7 |          |           |   13.218 |        0 | i  |  2, 9, 0 |||
  8 |          |           |    12.12 |        0 | i  |  2,11, 0 |||
  9 |          |           | -0.62463 |        0 | i  |  2,12, 0 |||
 10 |          |           |  0.20884 |        0 | i  |  2,13, 0 |||
 11 |          |           |   2.3181 |        0 | i  |  2,14, 0 |||
 12 |          |           |  -1.5893 |        0 | i  |  2,15, 0 |||
 13 |          |           |   3.1174 |        0 | i  |  2,16, 0 |||
 14 |          |           | -0.89199 |        0 | i  |  2,17, 0 |||
 15 |          |           |   -1.193 |        0 | i  |  2,18, 0 |||
 16 |          |           |   1.2602 |        0 | i  |  2,23, 0 |||
 17 |          |           |  -1.6121 |        0 | i  |  2,24, 0 |||
 18 |          |           |  0.90595 |        0 | i  |  2,25, 0 |||
 19 |          |           |   8.9249 |        0 | i  |  2,27, 0 |||
 20 |          |           | -0.57788 |        0 | i  |  2,28, 0 |||
 21 |          |           |   5.8838 |        0 | i  |  2,19, 0 |||
 22 |          |           |   2.2419 |        0 | i  |  2,20, 0 |||
 23 |          |           | -0.063152 |        0 | i  |  2,21, 0 |||
 24 |          |           | 5.9602e-20 | -0.46728 | h  |  7, 3, 0 |||
 25 |          |           | 6.422e-13 | -0.013358 | h  |  8, 3, 0 |||
 26 |          |           | 2.0696e-19 | -0.19087 | h  |  7, 4, 0 |||
 27 |          |           | 0.00077416 |   2.5763 | h  |  8, 4, 0 |||
 28 |          |           |  0.56933 |    1.315 | h  |  7, 5, 0 |||
 29 |          |           |        1 | -0.059113 | h  |  8, 5, 0 |||
 30 |          |           | 0.00040845 |   0.5817 | h  |  7, 7, 0 |||
 31 |          |           | 1.287e-07 |    1.002 | h  |  8, 7, 0 |||
 32 |          |           | 1.7001e-11 | -0.24983 | h  |  7, 8, 0 |||
 33 |          |           |        1 |  0.54466 | h  |  8, 8, 0 |||
 34 |          |           |        1 |  -0.2212 | h  |  7, 9, 0 |||
 35 |          |           |  0.99979 |  0.45604 | h  |  8, 9, 0 |||
 36 |          |           | 9.298e-07 | -0.50806 | h  |  7,11, 0 |||
 37 |          |           |  0.83487 |   0.3712 | h  |  8,11, 0 |||
 38 |          |           | 0.0016079 |   1.3858 | h  |  7,12, 0 |||
 39 |          |           |  0.99966 | -0.87684 | h  |  8,12, 0 |||
 40 |          |           |  0.99972 |  0.89718 | h  |  7,13, 0 |||
 41 |          |           | 0.026216 | -0.24315 | h  |  8,13, 0 |||
 42 |          |           |  0.99989 |  0.20402 | h  |  7,14, 0 |||
 43 |          |           |   0.9935 |  0.25423 | h  |  8,14, 0 |||
 44 |          |           |  0.99955 | -0.85111 | h  |  7,15, 0 |||
 45 |          |           |  0.01851 | -0.20231 | h  |  8,15, 0 |||
 46 |          |           |  0.98348 |  -1.1002 | h  |  7,16, 0 |||
 47 |          |           |  0.98478 |   -1.118 | h  |  8,16, 0 |||
 48 |          |           |        1 |  0.88081 | h  |  7,17, 0 |||
 49 |          |           | 0.0001704 |  0.38172 | h  |  8,17, 0 |||
 50 |          |           |  0.48576 |  0.81595 | h  |  7,22, 0 |||
 51 |          |           |  0.77912 | -0.03083 | h  |  8,22, 0 |||
 52 |          |           |  0.26465 |  -1.1848 | h  |  7,23, 0 |||
 53 |          |           |  0.83129 |  0.71094 | h  |  8,23, 0 |||
 54 |          |           |  0.36938 | 0.023743 | h  |  7,24, 0 |||
 55 |          |           |  0.95879 |  0.52162 | h  |  8,24, 0 |||
 56 |          |           | 0.066157 | -0.45696 | h  |  7,26, 0 |||
 57 |          |           |  0.89114 | -0.30566 | h  |  8,26, 0 |||
 58 |          |           |  0.83728 |  0.20299 | h  |  7,27, 0 |||
 59 |          |           |  0.99994 |    1.019 | h  |  8,27, 0 |||
 60 |          |           |  0.22361 | -0.86495 | h  | 13,12, 0 |||
 61 |          |           |  0.20015 |  0.15202 | h  | 14,12, 0 |||
 62 |          |           |  0.99887 | -0.27069 | h  | 13,13, 0 |||
 63 |          |           |   0.9816 | -5.6303e-05 | h  | 14,13, 0 |||
 64 |          |           | 0.034785 | -0.82288 | h  | 13,14, 0 |||
 65 |          |           |  0.12968 |   0.6383 | h  | 14,14, 0 |||
 66 |          |           |  0.99998 |  0.52706 | h  | 13,15, 0 |||
 67 |          |           | 0.097084 |  0.29928 | h  | 14,15, 0 |||
 68 |          |           |  0.97323 |    0.582 | h  | 13,16, 0 |||
 69 |          |           | 0.027431 | 0.089941 | h  | 14,16, 0 |||
 70 |          |           |   0.9967 |    0.763 | o  | 18,14, 0 |||
----|----------|----------|----------|----------|----|----------|----------|----------|-------


connection definition section :

target | site | source:weight
-------|------|------------------------------------------------------------------------------------------------------------
    24 |      |   1: 0.11509,   2: 0.29368,   3:-0.85563,   4: -1.2193
    25 |      |   1: 0.94651,   2: -1.1507,   3: 0.15976,   4: -1.4421
    26 |      |   1: 0.84994,   2:  1.3479,   3:  -1.584,   4:-0.47033
    27 |      |   1:  1.6467,   2:-0.93266,   3:-0.26046,   4:-0.037881
    28 |      |   1:-0.20296,   2:   0.547,   3:-0.66813,   4: 0.68859
    29 |      |   1: -1.0098,   2: -1.9323,   3:  2.3903,   4:-0.029811
    30 |      |   1: 0.30336,   5: 0.24906,   6:-0.63795,   7:-0.046434
    31 |      |   1: 0.33767,   5:-0.75493,   6:-0.76859,   7:-0.40185
    32 |      |   1:-0.97395,   5:-0.63706,   6:-0.72653,   7:-0.99524
    33 |      |   1:0.076069,   5: 0.63591,   6:  0.5501,   7:  0.3998
    34 |      |   1:-0.18801,   5: 0.72328,   6: 0.44068,   7:  0.5417
    35 |      |   1:0.042993,   5: 0.62282,   6: 0.60121,   7:-0.092821
    36 |      |   1:-0.34376,   8: -1.0053,   9:-0.30046,  10:-0.46399,  11:-0.12379,  12: -1.0842,  13: 0.19283,  14:  1.0902, 
                 15: 0.21107,  21:-0.46483,  22: 0.37624,  23: 0.65812
    37 |      |   1: 0.74462,   8: 0.75896,   9: 0.34939,  10:-0.0070571,  11: 0.22848,  12:-0.58539,  13:-0.89158,  14:-0.15581, 
                 15:   0.625,  21:-0.85528,  22: -0.5016,  23: 0.12841
    38 |      |   1:  1.0963,   8:-0.38673,   9: -0.8076,  10: 0.38816,  11:-0.28302,  12:-0.096799,  13: 0.31548,  14:  0.1559, 
                 15:  1.0731,  21: -0.8002,  22: 0.64211,  23:  0.6385
    39 |      |   1: -0.1588,   8:-0.084601,   9: 0.42159,  10:-0.15473,  11:  1.1632,  12:-0.18699,  13:  1.3584,  14:-0.27288, 
                 15: 0.34081,  21: 0.38311,  22: 0.45256,  23: 0.95298
    40 |      |   1: 0.15012,   8:  1.2734,   9:-0.33186,  10: -1.6372,  11: 0.12029,  12:  -0.288,  13: 0.59581,  14:  1.1521, 
                 15: 0.15035,  21: -1.4673,  22:-0.36348,  23: 0.23992
    41 |      |   1: 0.01043,   8:-0.30467,   9: 0.60765,  10: -0.9496,  11:-0.59319,  12: -1.0221,  13: 0.32623,  14: 0.86398, 
                 15:-0.38934,  21: 0.39063,  22: -1.0689,  23: -0.4997
    42 |      |   1: 0.55119,   8: 0.96893,   9:  1.2035,  10:-0.16864,  11:-0.54665,  12: 0.11234,  13:-0.68398,  14:-0.15459, 
                 15: 0.83255,  21: 0.72662,  22:-0.97109,  23:-0.14566
    43 |      |   1: 0.75885,   8: 0.65042,   9:  1.5988,  10:  -0.697,  11:-0.61075,  12:-0.33371,  13:-0.58466,  14: 0.92159, 
                 15:-0.27996,  21: 0.51307,  22: -0.9794,  23:-0.63887
    44 |      |   1:-0.47268,   8: 0.84756,   9:-0.19197,  10: 0.20088,  11: -0.6718,  12:-0.25492,  13:-0.49653,  14:-0.62387, 
                 15:  1.3204,  21:0.028288,  22: 0.84421,  23:-0.28706
    45 |      |   1: -0.2486,   8:-0.53821,   9:-0.72842,  10: -1.1648,  11: 0.85471,  12:-0.34478,  13:-0.34183,  14: 0.97632, 
                 15:-0.44297,  21:  0.6006,  22: -0.8703,  23: 0.63787
    46 |      |   1:-0.052211,   8: 0.12266,   9: 0.67649,  10:  0.1149,  11:-0.56627,  12:-0.29056,  13: 0.84266,  14:  1.1388, 
                 15: -1.1135,  21: 0.36661,  22:-0.040866,  23: 0.47486
    47 |      |   1: -1.1612,   8:-0.11189,   9: 0.90903,  10:-0.15871,  11:  1.4254,  12: -0.2473,  13: 0.66884,  14: 0.45315, 
                 15:-0.40308,  21: 0.44891,  22:-0.28153,  23: 0.96421
    48 |      |   1: 0.10968,   8:  1.6323,   9:-0.076497,  10:-0.72827,  11:-0.072532,  12: 0.48391,  13: 0.24647,  14:-0.65572, 
                 15:  0.5731,  21:  1.9773,  22: 0.74667,  23:-0.39122
    49 |      |   1: 0.94323,   8:-0.99612,   9: 0.88736,  10: 0.61095,  11:-0.68336,  12:-0.73232,  13:  1.0799,  14: 0.22831, 
                 15:-0.025902,  21:  0.4249,  22: -1.0289,  23:-0.26288
    50 |      |   1:-0.21195,  16: 0.26016,  17: 0.23713,  18:-0.78998
    51 |      |   1:-0.78032,  16: 0.75271,  17: -0.7177,  18:-0.48099
    52 |      |   1: -1.1466,  16:-0.58199,  17:-0.78521,  18: 0.20602
    53 |      |   1:   0.624,  16: 0.83424,  17: 0.63203,  18: 0.60572
    54 |      |   1: 0.66596,  16:-0.21778,  17: 0.74651,  18: 0.65819
    55 |      |   1: 0.45485,  16:0.047498,  17: -1.1102,  18:  0.6127
    56 |      |   1: 0.26176,  19:-0.30592,  20:-0.71465
    57 |      |   1:-0.33796,  19: 0.27917,  20:-0.13922
    58 |      |   1:0.053036,  19: 0.24979,  20:  1.4189
    59 |      |   1: 0.91224,  19: 0.89591,  20:-0.60592
    60 |      |  24: 0.47514,  25:-0.85551,  26: 0.63424,  27:  1.5609,  28:  1.1209,  29:0.043908,  30:-0.53831,  31: 0.64017, 
                 32:-0.24144,  33: 0.30589,  34:  0.3589,  35: 0.85729,  36:0.038409,  37:-0.47937,  38: 0.59395,  39:-0.48996, 
                 40:-0.18194,  41:-0.83289,  42:-0.017709,  43:-0.86177,  44:-0.54381,  45:  1.1379,  46:0.016352,  47:-0.75644, 
                 48: 0.72611,  49:-0.018362,  50:  0.6383,  51: 0.52414,  52: -0.2621,  53: 0.52278,  54:-0.12728,  55:-0.55761, 
                 56:-0.77511,  57:-0.086789,  58: 0.55338,  59:-0.92962
    61 |      |  24: 0.99225,  25:  1.1282,  26: 0.16855,  27:  1.5716,  28: 0.47169,  29:-0.29716,  30:-0.23965,  31: 0.96491, 
                 32:-0.95933,  33: 0.11364,  34: 0.31468,  35:-0.60285,  36:  1.1829,  37: 0.35829,  38: 0.38814,  39:  1.0042, 
                 40: -1.0026,  41: 0.27665,  42: 0.26367,  43:-0.19727,  44:-0.67439,  45:  0.2455,  46: 0.39259,  47:-0.16082, 
                 48: -0.7667,  49:  0.6744,  50:-0.12654,  51:0.066399,  52: 0.11404,  53:-0.24498,  54: 0.32423,  55: 0.27506, 
                 56:-0.22383,  57:-0.89463,  58:-0.80989,  59: 0.78667
    62 |      |  24:-0.47542,  25: 0.55048,  26:-0.095914,  27: 0.30054,  28: -0.3977,  29:0.094124,  30: 0.28324,  31: 0.79804, 
                 32: -0.8682,  33: 0.18801,  34: 0.83212,  35: 0.20944,  36:-0.30282,  37:-0.37862,  38: 0.66021,  39: 0.50022, 
                 40: 0.90256,  41:-0.77905,  42: 0.57916,  43: 0.35992,  44:-0.21326,  45:-0.24393,  46:-0.54318,  47:  0.5524, 
                 48: 0.82502,  49: 0.38457,  50: -0.8945,  51: 0.98152,  52: 0.46665,  53:  0.7089,  54:-0.18099,  55: 0.91439, 
                 56: 0.14523,  57: 0.64938,  58: 0.22775,  59: 0.70209
    63 |      |  24:-0.59968,  25: 0.39186,  26:-0.30292,  27: 0.56853,  28:  0.2321,  29: 0.81572,  30:-0.81897,  31: 0.77053, 
                 32: 0.50326,  33: 0.56048,  34:  0.5778,  35: 0.62779,  36: 0.13919,  37:-0.075016,  38:-0.56554,  39: 0.74193, 
                 40:  0.3013,  41: 0.87171,  42: 0.58791,  43:-0.34911,  44: 0.82571,  45: 0.54348,  46:-0.92878,  47: 0.52652, 
                 48: -0.7468,  49:  1.0255,  50:-0.39779,  51: 0.88805,  52: 0.14507,  53:-0.72939,  54:-0.49884,  55: 0.55222, 
                 56:  0.6776,  57: 0.17527,  58:0.030109,  59:-0.17598
    64 |      |  24: 0.11915,  25:-0.38662,  26:-0.32601,  27:  0.3614,  28:-0.82681,  29: -1.1402,  30: 0.79781,  31: 0.15447, 
                 32:-0.50069,  33: 0.61279,  34:-0.76809,  35:-0.72506,  36:-0.32244,  37:  0.1012,  38:-0.83767,  39:-0.34056, 
                 40:-0.54177,  41: 0.90745,  42: 0.55557,  43: 0.67844,  44:-0.79988,  45:-0.46094,  46:-0.52811,  47:-0.12591, 
                 48: 0.70395,  49: 0.76673,  50:-0.72358,  51:-0.39628,  52:-0.37189,  53: 0.10582,  54:   0.557,  55:  1.2155, 
                 56: 0.76207,  57: -0.8792,  58:-0.67537,  59: 0.88143
    65 |      |  24:-0.44723,  25:-0.23286,  26:-0.46139,  27: -1.4872,  28:-0.029954,  29: 0.23355,  30: 0.31525,  31:-0.78166, 
                 32: 0.24817,  33:-0.84194,  34: 0.19474,  35:-0.070063,  36:  0.2024,  37:-0.78433,  38:  0.1361,  39:-0.73345, 
                 40:-0.40433,  41: 0.69368,  42: 0.49931,  43: -1.0693,  44:-0.70863,  45:-0.91657,  46:-0.24848,  47:0.075292, 
                 48: 0.76622,  49:-0.42944,  50:-0.19614,  51: 0.87877,  52: 0.47742,  53:-0.32749,  54: 0.94316,  55: 0.87297, 
                 56: 0.42628,  57:-0.32455,  58:-0.79582,  59: -0.2756
    66 |      |  24: 0.13976,  25:  1.1747,  26: -1.6389,  27: 0.26498,  28: -1.9211,  29:  3.0332,  30: -1.1051,  31: -1.9214, 
                 32:-0.09948,  33: 0.86047,  34:  1.0336,  35: 0.94609,  36:-0.39215,  37:-0.55252,  38: -1.1135,  39:  1.4337, 
                 40:  1.9729,  41: -0.6852,  42:-0.72926,  43: -1.4038,  44: 0.69997,  45: -1.3223,  46:  1.6191,  47:  2.2254, 
                 48:  -2.247,  49:  1.7119,  50: 0.39452,  51: 0.23513,  52:  1.2199,  53: 0.93646,  54:-0.35286,  55: 0.20842, 
                 56:-0.39926,  57: 0.34752,  58:  1.1886,  59:-0.32966
    67 |      |  24: -1.4269,  25: 0.49007,  26:-0.96937,  27:   2.555,  28:  1.3958,  29: 0.17381,  30:  1.0381,  31:-0.13565, 
                 32:-0.96141,  33:-0.20132,  34:-0.42064,  35:-0.49836,  36:-0.020888,  37:-0.19705,  38: 0.95263,  39: 0.50797, 
                 40:-0.65492,  41: 0.57912,  42: 0.52605,  43:-0.46384,  44:-0.60948,  45:-0.27135,  46:-0.61041,  47:-0.16312, 
                 48: 0.32533,  49:-0.32997,  50: 0.36191,  51:-0.39887,  52: 0.22781,  53: -1.0705,  54: 0.77844,  55: 0.54555, 
                 56: 0.35097,  57:-0.93486,  58:-0.44973,  59:  0.2399
    68 |      |  24:-0.42804,  25:-0.85387,  26: 0.61253,  27:0.068911,  28:-0.40002,  29:-0.86004,  30:-0.51596,  31: 0.71875, 
                 32: 0.75789,  33:  1.0104,  34:-0.51745,  35: 0.13222,  36: 0.91672,  37: 0.20302,  38: 0.75091,  39:-0.37064, 
                 40: 0.90629,  41:-0.71293,  42: 0.85455,  43: 0.90182,  44: 0.60205,  45:-0.44036,  46: 0.19491,  47: 0.58285, 
                 48:-0.55216,  49:-0.39598,  50:-0.050404,  51:-0.40535,  52:  0.2158,  53:-0.73283,  54: 0.94037,  55: 0.75843, 
                 56: -0.7339,  57: 0.41082,  58:-0.12663,  59:-0.16468
    69 |      |  24: 0.19485,  25:-0.71029,  26:0.094432,  27: 0.14596,  28:-0.27049,  29:-0.69433,  30:-0.07168,  31:  -1.052, 
                 32: 0.93955,  33: 0.56352,  34: 0.80029,  35:-0.82037,  36:  0.4231,  37: 0.63301,  38: 0.65418,  39:-0.91659, 
                 40:-0.19241,  41: 0.33847,  42:-0.65209,  43: 0.35459,  44: -0.5937,  45:-0.094006,  46:-0.42654,  47:-0.53622, 
                 48:-0.09576,  49:-0.91598,  50:-0.28533,  51:-0.78139,  52: 0.04732,  53: 0.41953,  54: 0.65139,  55:-0.75305, 
                 56: 0.76384,  57:-0.15146,  58: 0.55201,  59:-0.35521
    70 |      |  60: -1.2617,  61: -1.8383,  62: 0.50634,  63: 0.10378,  64:-0.98074,  65: 0.81748,  66:  5.0892,  67: -3.4566, 
                 68: 0.17491,  69:-0.15297
-------|------|----------------------------------------------------------------------------------------------------------------
