SNNS network definition file V1.4-3D
generated at Thu May 09 10:11:49 1996

network name : edge_23
source files :
no. of units : 70
no. of connections : 622
no. of unit types : 0
no. of site types : 0


learning function : Std_Backpropagation
update function : Topological_Order


unit default section :

act      | bias     | st | subnet | layer | act func     | out func
---------|----------|----|--------|-------|--------------|-------------
 0.00000 |  0.00000 | h  |      0 |     1 | Act_Logistic | Out_Identity
---------|----------|----|--------|-------|--------------|-------------


unit definition section :

no. | typeName | unitName | act      | bias     | st | position | act func | out func | sites
----|----------|----------|----------|----------|----|----------|----------|----------|-------
  1 |          |           |        0 |        0 | i  |  2, 1, 0 |||
  2 |          |           |   10.168 |        0 | i  |  2, 3, 0 |||
  3 |          |           |   22.454 |        0 | i  |  2, 4, 0 |||
  4 |          |           |        3 |        0 | i  |  2, 5, 0 |||
  5 |          |           |   9.0496 |        0 | i  |  2, 7, 0 |||
  6 |          |           |   23.522 |        0 | i  |  2, 8, 0 |||
  7 |          |           |   13.302 |        0 | i  |  2, 9, 0 |||
  8 |          |           |   13.093 |        0 | i  |  2,11, 0 |||
  9 |          |           | -0.80293 |        0 | i  |  2,12, 0 |||
 10 |          |           |   0.8453 |        0 | i  |  2,13, 0 |||
 11 |          |           | -0.21207 |        0 | i  |  2,14, 0 |||
 12 |          |           |  -4.5477 |        0 | i  |  2,15, 0 |||
 13 |          |           |   4.4182 |        0 | i  |  2,16, 0 |||
 14 |          |           |   1.3689 |        0 | i  |  2,17, 0 |||
 15 |          |           |   2.7819 |        0 | i  |  2,18, 0 |||
 16 |          |           |  0.37651 |        0 | i  |  2,23, 0 |||
 17 |          |           |   5.9303 |        0 | i  |  2,24, 0 |||
 18 |          |           |   1.7965 |        0 | i  |  2,25, 0 |||
 19 |          |           | -0.30619 |        0 | i  |  2,27, 0 |||
 20 |          |           | -0.30181 |        0 | i  |  2,28, 0 |||
 21 |          |           | -0.32429 |        0 | i  |  2,19, 0 |||
 22 |          |           | -0.30619 |        0 | i  |  2,20, 0 |||
 23 |          |           | -0.31193 |        0 | i  |  2,21, 0 |||
 24 |          |           | 6.576e-12 | -0.62631 | h  |  7, 3, 0 |||
 25 |          |           |        1 | -0.18513 | h  |  8, 3, 0 |||
 26 |          |           | 6.9913e-12 | -0.29796 | h  |  7, 4, 0 |||
 27 |          |           | 0.00074386 |   2.3352 | h  |  8, 4, 0 |||
 28 |          |           |  0.76241 |   1.4649 | h  |  7, 5, 0 |||
 29 |          |           |        1 | -0.32192 | h  |  8, 5, 0 |||
 30 |          |           | 2.7255e-08 |  0.65838 | h  |  7, 7, 0 |||
 31 |          |           | 0.012757 |   1.4216 | h  |  8, 7, 0 |||
 32 |          |           | 3.8542e-11 | -0.55819 | h  |  7, 8, 0 |||
 33 |          |           |        1 |  0.92783 | h  |  8, 8, 0 |||
 34 |          |           |        1 | -0.078669 | h  |  7, 9, 0 |||
 35 |          |           |        1 |  0.64885 | h  |  8, 9, 0 |||
 36 |          |           | 0.00047755 |  -0.5692 | h  |  7,11, 0 |||
 37 |          |           |  0.99994 |  0.25928 | h  |  8,11, 0 |||
 38 |          |           |  0.99903 |  0.95435 | h  |  7,12, 0 |||
 39 |          |           |        1 | -0.12094 | h  |  8,12, 0 |||
 40 |          |           |        1 |  0.42239 | h  |  7,13, 0 |||
 41 |          |           |  0.21549 | -0.15926 | h  |  8,13, 0 |||
 42 |          |           |        1 |  0.89471 | h  |  7,14, 0 |||
 43 |          |           |  0.99983 |   0.1925 | h  |  8,14, 0 |||
 44 |          |           |        1 | -0.61378 | h  |  7,15, 0 |||
 45 |          |           | 1.5353e-09 |   1.1621 | h  |  8,15, 0 |||
 46 |          |           |  0.76692 |  -1.4896 | h  |  7,16, 0 |||
 47 |          |           |   0.2389 |  -1.1109 | h  |  8,16, 0 |||
 48 |          |           |  0.99998 |  0.57811 | h  |  7,17, 0 |||
 49 |          |           | 0.0066408 |  0.12294 | h  |  8,17, 0 |||
 50 |          |           |  0.60814 |    0.899 | h  |  7,22, 0 |||
 51 |          |           |  0.26964 |  0.26745 | h  |  8,22, 0 |||
 52 |          |           | 0.0065163 |  -0.9325 | h  |  7,23, 0 |||
 53 |          |           |  0.99671 |  0.83483 | h  |  8,23, 0 |||
 54 |          |           |  0.99818 | 0.077553 | h  |  7,24, 0 |||
 55 |          |           |  0.40691 |   0.6639 | h  |  8,24, 0 |||
 56 |          |           |  0.46413 | -0.36671 | h  |  7,26, 0 |||
 57 |          |           |  0.48979 | -0.27378 | h  |  8,26, 0 |||
 58 |          |           |  0.46567 |  0.29466 | h  |  7,27, 0 |||
 59 |          |           |  0.72856 |   1.0981 | h  |  8,27, 0 |||
 60 |          |           |  0.12376 | -0.99943 | h  | 13,12, 0 |||
 61 |          |           |  0.29835 | -0.060104 | h  | 14,12, 0 |||
 62 |          |           |  0.99161 | -0.32973 | h  | 13,13, 0 |||
 63 |          |           |   0.3397 | -0.29564 | h  | 14,13, 0 |||
 64 |          |           |   0.1401 | -0.57265 | h  | 13,14, 0 |||
 65 |          |           |  0.36027 |  0.73618 | h  | 14,14, 0 |||
 66 |          |           |  0.97759 |  0.36823 | h  | 13,15, 0 |||
 67 |          |           |  0.24282 |  0.11772 | h  | 14,15, 0 |||
 68 |          |           |  0.97053 |   0.6531 | h  | 13,16, 0 |||
 69 |          |           |    0.275 |  0.18414 | h  | 14,16, 0 |||
 70 |          |           |  0.98466 |  0.76441 | o  | 18,14, 0 |||
----|----------|----------|----------|----------|----|----------|----------|----------|-------


connection definition section :

target | site | source:weight
-------|------|------------------------------------------------------------------------------------------------------------
    24 |      |   1:0.078097,   2: 0.20955,   3: -1.0724,   4: -1.0578
    25 |      |   1: 0.85617,   2:-0.63943,   3:  1.1966,   4:-0.87382
    26 |      |   1: 0.65186,   2: 0.27033,   3:   -1.21,   4:-0.32303
    27 |      |   1: 0.75715,   2:-0.92561,   3:-0.033174,   4: 0.20604
    28 |      |   1:-0.48521,   2: 0.59681,   3:-0.34999,   4: 0.49716
    29 |      |   1:-0.95519,   2:-0.56887,   3:  1.4957,   4:-0.89405
    30 |      |   1:0.058439,   5:-0.090709,   6: -1.0793,   7:  0.6114
    31 |      |   1:-0.20849,   5:-0.13032,   6:-0.11592,   7:-0.14015
    32 |      |   1:-0.90191,   5:-0.93963,   6: -0.2125,   7:-0.74569
    33 |      |   1: 0.15606,   5: 0.80685,   6: 0.41444,   7: 0.34911
    34 |      |   1:0.058409,   5:  1.0331,   6: 0.88232,   7: 0.77853
    35 |      |   1: 0.22386,   5: 0.86719,   6: 0.51044,   7: 0.22929
    36 |      |   1:-0.49358,   8: -1.0855,   9: 0.20115,  10:-0.44528,  11:0.022957,  12:-0.74267,  13: 0.47933,  14:  1.0724, 
                 15: 0.20647,  21: -0.8931,  22:-0.052713,  23: 0.52921
    37 |      |   1: 0.65556,   8: 0.76088,   9: 0.56248,  10:-0.34361,  11: 0.38784,  12:-0.49558,  13:-0.74919,  14: 0.14347, 
                 15: 0.25521,  21: -1.0759,  22: -0.4753,  23:-0.017393
    38 |      |   1: 0.81589,   8: 0.17492,   9:-0.75342,  10:-0.083693,  11:-0.17934,  12:0.092142,  13:  0.1054,  14:    0.68, 
                 15: 0.85972,  21:-0.54157,  22: 0.61867,  23: 0.74697
    39 |      |   1: -0.0141,   8:  0.8916,   9: 0.34818,  10:-0.58039,  11: 0.95668,  12:-0.48223,  13:  1.0728,  14:-0.014467, 
                 15: 0.33836,  21: 0.56839,  22: 0.60239,  23: 0.93278
    40 |      |   1:0.058615,   8: 0.80829,   9:-0.51266,  10:-0.96783,  11:-0.083077,  12:0.071307,  13: 0.50193,  14: 0.64462, 
                 15:  1.0705,  21:-0.70462,  22:-0.080014,  23:-0.20426
    41 |      |   1:  -0.288,   8:-0.18164,   9: 0.65733,  10:-0.70152,  11:-0.010538,  12:-0.52016,  13: 0.25435,  14: 0.70256, 
                 15: -0.9282,  21:  0.1053,  22: -1.0265,  23:-0.68925
    42 |      |   1: 0.52686,   8:  1.2868,   9: 0.73306,  10: 0.62987,  11:-0.89044,  12:-0.037303,  13:  -0.333,  14:  0.3569, 
                 15: 0.27304,  21:  0.5251,  22: -1.1427,  23:  0.2804
    43 |      |   1: 0.69585,   8: 0.59628,   9:  1.1098,  10: -0.5408,  11:-0.25934,  12:-0.31891,  13:0.047096,  14: 0.92388, 
                 15:-0.43284,  21: 0.32722,  22:-0.89114,  23:-0.29751
    44 |      |   1:-0.20525,   8: 0.76531,   9: 0.34581,  10: 0.06182,  11: -0.6274,  12:-0.30598,  13: 0.32144,  14:-0.82299, 
                 15: 0.95697,  21: 0.14684,  22: 0.26967,  23:-0.78913
    45 |      |   1: 0.22421,   8: -1.5029,   9: -0.1222,  10:-0.96444,  11: 0.14559,  12:-0.70999,  13:-0.17832,  14: 0.40403, 
                 15: -1.3552,  21: 0.62445,  22:-0.50857,  23: 0.66832
    46 |      |   1:0.0060418,   8: 0.41888,   9:  1.4294,  10:  1.0452,  11:-0.28148,  12:0.070318,  13:-0.04331,  14: 0.40481, 
                 15:-0.87083,  21:  1.0574,  22:-0.85773,  23:  0.4471
    47 |      |   1:-0.68642,   8:-0.10266,   9: 0.50452,  10:-0.28788,  11:  1.0998,  12:-0.33866,  13: 0.48198,  14:  1.1079, 
                 15:-0.96041,  21: 0.50042,  22:-0.63262,  23:  1.1791
    48 |      |   1:-0.11485,   8: 0.75668,   9:-0.028197,  10:-0.55236,  11:0.053041,  12: 0.34769,  13: 0.61792,  14:-0.0023927, 
                 15:0.0058906,  21: 0.92126,  22: 0.86022,  23:-0.74668
    49 |      |   1: 0.89757,   8: -0.9947,   9: 0.59564,  10: 0.12801,  11: -1.0629,  12:-0.55431,  13: 0.68956,  14: 0.89805, 
                 15: 0.33888,  21: 0.42218,  22:-0.57929,  23:-0.82591
    50 |      |   1:-0.20305,  16: 0.14544,  17: 0.11704,  18:-0.67262
    51 |      |   1:-0.75267,  16:   1.187,  17:-0.23324,  18:-0.18237
    52 |      |   1:-0.86927,  16:-0.97409,  17:-0.85409,  18: 0.74442
    53 |      |   1: 0.82195,  16:  0.3161,  17: 0.40437,  18:  1.3141
    54 |      |   1: 0.51783,  16:-0.07528,  17: 0.84105,  18: 0.70678
    55 |      |   1: 0.42799,  16:-0.28665,  17:-0.38016,  18: 0.73573
    56 |      |   1: 0.32597,  19:-0.60523,  20:-0.12483
    57 |      |   1:-0.26725,  19:-0.34217,  20:-0.42471
    58 |      |   1: 0.10419,  19: 0.57312,  20: 0.85058
    59 |      |   1:  0.9011,  19: 0.80276,  20:-0.44741
    60 |      |  24: 0.75184,  25: -1.1783,  26: 0.79447,  27:  1.1292,  28:  1.3022,  29:-0.28225,  30:-0.52034,  31: 0.94553, 
                 32:-0.10166,  33: 0.14888,  34:0.060798,  35: 0.71332,  36: 0.15404,  37: -0.2867,  38:   0.473,  39:-0.26025, 
                 40: 0.13798,  41:-0.94333,  42:0.058989,  43:-0.95161,  44:-0.26662,  45:  1.0747,  46:-0.41938,  47: -1.0189, 
                 48: 0.62515,  49:-0.26767,  50: 0.29386,  51: 0.34413,  52:-0.30253,  53: 0.69107,  54:0.065068,  55:-0.69267, 
                 56:-0.89029,  57:-0.15404,  58: 0.61529,  59:-0.99503
    61 |      |  24: 0.95344,  25: 0.73584,  26:0.055128,  27:  0.8444,  28: 0.32818,  29:-0.39362,  30:-0.42638,  31:  1.1949, 
                 32:-0.93818,  33:-0.01124,  34:0.079472,  35:-0.69607,  36: 0.95549,  37: 0.37932,  38: 0.12001,  39:  1.0694, 
                 40: -1.0777,  41: 0.29572,  42: 0.70301,  43:-0.094584,  44:-0.44992,  45:-0.089207,  46: 0.36196,  47:-0.65099, 
                 48:-0.86288,  49: 0.62176,  50:-0.46904,  51:  0.1917,  52:0.025618,  53:-0.26229,  54:  0.1614,  55: 0.15488, 
                 56: -0.3682,  57:-0.82214,  58:-0.88104,  59: 0.68915
    62 |      |  24:-0.43446,  25: 0.54359,  26:-0.093126,  27:  0.3001,  28:-0.40562,  29: 0.10331,  30: 0.28808,  31:  0.8084, 
                 32:-0.80675,  33:0.043153,  34:  0.7022,  35:0.060236,  36:-0.34092,  37:-0.48115,  38: 0.70073,  39: 0.40279, 
                 40: 0.83955,  41:-0.86444,  42: 0.46328,  43: 0.27682,  44:-0.23259,  45:-0.28497,  46:-0.62596,  47: 0.45397, 
                 48: 0.86886,  49: 0.27825,  50:-0.88693,  51: 0.88122,  52:  0.3976,  53: 0.78586,  54:-0.091725,  55: 0.82452, 
                 56: 0.11014,  57: 0.62411,  58: 0.19059,  59: 0.67751
    63 |      |  24:-0.94603,  25: 0.11474,  26:-0.52754,  27:  1.0442,  28: 0.35011,  29: 0.57968,  30:-0.78834,  31:  0.9154, 
                 32: 0.22308,  33: 0.59711,  34:  0.4865,  35:  0.6093,  36:-0.041014,  37:-0.083461,  38:-0.66098,  39: 0.70404, 
                 40:-0.059918,  41: 0.88113,  42: 0.45752,  43:-0.60901,  44: 0.63053,  45:  0.5686,  46: -1.3013,  47: -0.1079, 
                 48:-0.89784,  49: 0.99274,  50: -0.6571,  51:  0.8608,  52: 0.10473,  53:-0.98214,  54:-0.71546,  55: 0.47872, 
                 56:  0.6018,  57:0.084727,  58:-0.19703,  59:-0.34862
    64 |      |  24:0.025653,  25:-0.25883,  26:-0.57267,  27: 0.61826,  28:-0.52454,  29:-0.69233,  30:  1.0725,  31: 0.50649, 
                 32:-0.10268,  33: 0.69619,  34:-0.86088,  35:-0.61052,  36: 0.37401,  37: 0.28477,  38:-0.75159,  39:-0.061187, 
                 40:-0.079243,  41:  1.1736,  42: 0.22222,  43: 0.49777,  44:-0.60538,  45: 0.23668,  46:-0.77351,  47:-0.47922, 
                 48: 0.57408,  49:  1.0211,  50:-0.83786,  51:-0.38894,  52:-0.19933,  53: 0.17214,  54: 0.64132,  55:  1.1047, 
                 56: 0.78159,  57:-0.78549,  58:-0.21855,  59: 0.99033
    65 |      |  24:-0.37328,  25:-0.0016013,  26:-0.30917,  27: -1.2729,  28:0.083136,  29: 0.12843,  30: 0.45679,  31: -1.0543, 
                 32: 0.17372,  33:-0.76433,  34: 0.39991,  35:-0.0060384,  36:0.099143,  37:-0.88273,  38: 0.32549,  39:-0.76733, 
                 40:-0.30215,  41: 0.58813,  42: 0.53567,  43: -1.0167,  44:-0.81144,  45:-0.84034,  46:-0.16352,  47: 0.49459, 
                 48: 0.86076,  49:-0.40079,  50: 0.14044,  51: 0.95688,  52: 0.50382,  53:-0.34117,  54: 0.94629,  55: 0.91855, 
                 56: 0.46374,  57:-0.40006,  58:-0.73853,  59:-0.23949
    66 |      |  24: 0.36394,  25: 0.76615,  26:-0.61643,  27:-0.014881,  28: -1.5725,  29:  1.9045,  30: -1.4247,  31: -1.0085, 
                 32: 0.26932,  33:-0.08064,  34: 0.46916,  35:-0.063536,  36: 0.39067,  37:-0.74791,  38: 0.03709,  39:-0.53892, 
                 40: 0.88981,  41:-0.59656,  42:-0.50982,  43:-0.59497,  44:  0.1986,  45: -1.2282,  46:  1.8923,  47:  1.9654, 
                 48: -1.1036,  49:  1.0116,  50: 0.27214,  51:-0.71448,  52:   1.207,  53:  1.5981,  54: 0.30178,  55: 0.16042, 
                 56:-0.36391,  57: 0.35363,  58: 0.44347,  59:0.058926
    67 |      |  24:-0.89369,  25:-0.51038,  26:-0.53286,  27:  1.2433,  28:  1.4333,  29:-0.56115,  30:  1.1031,  31: -0.1129, 
                 32:-0.92585,  33:-0.25877,  34:-0.58048,  35:-0.50777,  36: 0.12556,  37:-0.23067,  38:  0.7525,  39: 0.89207, 
                 40: -0.3142,  41: 0.53901,  42: 0.91377,  43:-0.24736,  44:-0.88357,  45:0.062037,  46:-0.46721,  47:-0.37668, 
                 48: 0.39265,  49:-0.94211,  50: 0.11876,  51:-0.34623,  52:   0.296,  53: -1.1379,  54: 0.59923,  55: 0.42091, 
                 56: 0.15588,  57:-0.96649,  58:-0.40204,  59: 0.14732
    68 |      |  24:-0.44397,  25:-0.78463,  26: 0.58791,  27: 0.16143,  28:-0.44855,  29:-0.75401,  30: -0.5984,  31:   0.635, 
                 32: 0.77956,  33:  1.0495,  34:-0.41673,  35: 0.17144,  36: 0.95124,  37: 0.22633,  38: 0.69106,  39:-0.44363, 
                 40: 0.93702,  41:-0.66698,  42: 0.93015,  43: 0.96815,  44: 0.57699,  45:-0.34751,  46: 0.31313,  47: 0.87109, 
                 48:-0.53802,  49:-0.33675,  50: 0.10955,  51:-0.39914,  52: 0.26358,  53:-0.72656,  54: 0.95422,  55: 0.69294, 
                 56:-0.73186,  57: 0.49432,  58:-0.093613,  59:-0.096493
    69 |      |  24: 0.31624,  25:-0.47923,  26: 0.17111,  27:-0.05386,  28:-0.23801,  29: -0.5566,  30:-0.062351,  31: -1.0074, 
                 32:  1.1772,  33: 0.38557,  34: 0.66805,  35:-0.97076,  36: 0.48382,  37: 0.54375,  38: 0.85056,  39: -0.9741, 
                 40:-0.024082,  41: 0.29604,  42:-0.79681,  43: 0.27094,  44:-0.63191,  45:-0.064985,  46:-0.49603,  47:  -0.446, 
                 48:-0.10395,  49: -0.8535,  50:-0.16611,  51: -0.8637,  52:0.058889,  53: 0.65865,  54:  0.9106,  55:-0.75433, 
                 56: 0.81039,  57:-0.13817,  58: 0.62984,  59:-0.32639
    70 |      |  60: -1.1662,  61: -1.4181,  62: 0.28473,  63: -1.5402,  64: -1.5939,  65:  1.1156,  66:  3.9251,  67: -1.9856, 
                 68: 0.41496,  69: 0.97938
-------|------|----------------------------------------------------------------------------------------------------------------
