SNNS network definition file V1.4-3D
generated at Thu May 09 10:11:49 1996

network name : edge_23
source files :
no. of units : 70
no. of connections : 622
no. of unit types : 0
no. of site types : 0


learning function : Std_Backpropagation
update function : Topological_Order


unit default section :

act      | bias     | st | subnet | layer | act func     | out func
---------|----------|----|--------|-------|--------------|-------------
 0.00000 |  0.00000 | h  |      0 |     1 | Act_Logistic | Out_Identity
---------|----------|----|--------|-------|--------------|-------------


unit definition section :

no. | typeName | unitName | act      | bias     | st | position | act func | out func | sites
----|----------|----------|----------|----------|----|----------|----------|----------|-------
  1 |          |           |        0 |        0 | i  |  2, 1, 0 |||
  2 |          |           |   12.385 |        0 | i  |  2, 3, 0 |||
  3 |          |           |        5 |        0 | i  |  2, 4, 0 |||
  4 |          |           |   3.1754 |        0 | i  |  2, 5, 0 |||
  5 |          |           |   19.572 |        0 | i  |  2, 7, 0 |||
  6 |          |           |   32.647 |        0 | i  |  2, 8, 0 |||
  7 |          |           |   7.2169 |        0 | i  |  2, 9, 0 |||
  8 |          |           |   6.8054 |        0 | i  |  2,11, 0 |||
  9 |          |           |  -1.7713 |        0 | i  |  2,12, 0 |||
 10 |          |           |  0.24648 |        0 | i  |  2,13, 0 |||
 11 |          |           |   1.8915 |        0 | i  |  2,14, 0 |||
 12 |          |           |  -1.5087 |        0 | i  |  2,15, 0 |||
 13 |          |           |  0.42502 |        0 | i  |  2,16, 0 |||
 14 |          |           | 0.078144 |        0 | i  |  2,17, 0 |||
 15 |          |           | -0.23915 |        0 | i  |  2,18, 0 |||
 16 |          |           |  -2.3216 |        0 | i  |  2,23, 0 |||
 17 |          |           |  0.43987 |        0 | i  |  2,24, 0 |||
 18 |          |           |  -1.3959 |        0 | i  |  2,25, 0 |||
 19 |          |           |   70.212 |        0 | i  |  2,27, 0 |||
 20 |          |           |  0.26883 |        0 | i  |  2,28, 0 |||
 21 |          |           |   152.47 |        0 | i  |  2,19, 0 |||
 22 |          |           |       10 |        0 | i  |  2,20, 0 |||
 23 |          |           |   10.178 |        0 | i  |  2,21, 0 |||
 24 |          |           |  0.32454 | -0.27721 | h  |  7, 3, 0 |||
 25 |          |           | 2.0294e-06 |  0.30937 | h  |  8, 3, 0 |||
 26 |          |           | 0.00067959 | 0.090997 | h  |  7, 4, 0 |||
 27 |          |           | 0.0019455 |   2.3005 | h  |  8, 4, 0 |||
 28 |          |           |        1 |  0.99683 | h  |  7, 5, 0 |||
 29 |          |           | 0.018226 |  0.28673 | h  |  8, 5, 0 |||
 30 |          |           | 1.112e-12 |    0.633 | h  |  7, 7, 0 |||
 31 |          |           | 6.3501e-12 |  0.58045 | h  |  8, 7, 0 |||
 32 |          |           | 2.1124e-22 | -0.054282 | h  |  7, 8, 0 |||
 33 |          |           |        1 |  0.54723 | h  |  8, 8, 0 |||
 34 |          |           |        1 |  0.11792 | h  |  7, 9, 0 |||
 35 |          |           |        1 |  0.57743 | h  |  8, 9, 0 |||
 36 |          |           | 2.2551e-26 | -0.60609 | h  |  7,11, 0 |||
 37 |          |           | 3.4941e-34 |  0.50333 | h  |  8,11, 0 |||
 38 |          |           | 7.4106e-59 |   1.0225 | h  |  7,12, 0 |||
 39 |          |           |        1 | -0.47813 | h  |  8,12, 0 |||
 40 |          |           | 7.9858e-57 |  0.67907 | h  |  7,13, 0 |||
 41 |          |           |        1 | -0.76972 | h  |  8,13, 0 |||
 42 |          |           |        1 |  0.30887 | h  |  7,14, 0 |||
 43 |          |           |        1 | 0.094911 | h  |  8,14, 0 |||
 44 |          |           |        1 | -0.57238 | h  |  7,15, 0 |||
 45 |          |           |        1 |  0.74939 | h  |  8,15, 0 |||
 46 |          |           |        1 |  -1.2308 | h  |  7,16, 0 |||
 47 |          |           |        1 | -0.67754 | h  |  8,16, 0 |||
 48 |          |           |        1 |  0.34687 | h  |  7,17, 0 |||
 49 |          |           |        1 |  0.11638 | h  |  8,17, 0 |||
 50 |          |           |  0.55082 |  0.91285 | h  |  7,22, 0 |||
 51 |          |           |  0.12159 | -0.17586 | h  |  8,22, 0 |||
 52 |          |           |  0.60302 |  -0.8356 | h  |  7,23, 0 |||
 53 |          |           |   0.3336 |  0.76855 | h  |  8,23, 0 |||
 54 |          |           |  0.53888 | -0.071407 | h  |  7,24, 0 |||
 55 |          |           |  0.13741 |  0.70239 | h  |  8,24, 0 |||
 56 |          |           | 1.0805e-19 | -0.24883 | h  |  7,26, 0 |||
 57 |          |           | 8.4442e-12 | -0.26249 | h  |  8,26, 0 |||
 58 |          |           |        1 |  0.28147 | h  |  7,27, 0 |||
 59 |          |           |        1 |   1.0925 | h  |  8,27, 0 |||
 60 |          |           | 0.036535 |  -1.3275 | h  | 13,12, 0 |||
 61 |          |           |  0.41664 | -0.073435 | h  | 14,12, 0 |||
 62 |          |           |  0.95608 | -0.30308 | h  | 13,13, 0 |||
 63 |          |           |  0.99291 | 0.054858 | h  | 14,13, 0 |||
 64 |          |           |  0.17045 | -0.78307 | h  | 13,14, 0 |||
 65 |          |           |  0.46907 |  0.69461 | h  | 14,14, 0 |||
 66 |          |           |  0.99727 |   0.5763 | h  | 13,15, 0 |||
 67 |          |           |  0.14542 |  0.41586 | h  | 14,15, 0 |||
 68 |          |           |  0.70381 |   0.4383 | h  | 13,16, 0 |||
 69 |          |           |  0.23779 |   0.1661 | h  | 14,16, 0 |||
 70 |          |           |  0.98798 |  0.69783 | o  | 18,14, 0 |||
----|----------|----------|----------|----------|----|----------|----------|----------|-------


connection definition section :

target | site | source:weight
-------|------|------------------------------------------------------------------------------------------------------------
    24 |      |   1: 0.15337,   2: 0.44664,   3: -1.0325,   4:-0.25966
    25 |      |   1:  0.8366,   2: -1.1886,   3:  0.7861,   4:-0.82731
    26 |      |   1: 0.69613,   2:  0.1921,   3: -2.0028,   4:0.078939
    27 |      |   1: 0.79245,   2:-0.60668,   3:-0.27499,   4: 0.10949
    28 |      |   1:-0.65057,   2:  1.6046,   3: -0.2087,   4: 0.97828
    29 |      |   1:-0.92654,   2: -0.8298,   3:  1.7638,   4:-0.88665
    30 |      |   1:0.0001664,   5:0.069956,   6: -1.0313,   7: 0.57366
    31 |      |   1: -0.1575,   5:-0.20052,   6:-0.72765,   7: 0.18246
    32 |      |   1:-0.90287,   5: -1.0566,   6:-0.66265,   7: -1.0451
    33 |      |   1: 0.15758,   5:  1.1575,   6: 0.53273,   7: 0.40589
    34 |      |   1:0.058632,   5: 0.75067,   6: 0.41904,   7: 0.57865
    35 |      |   1: 0.22944,   5: 0.80546,   6:  0.2668,   7:-0.16394
    36 |      |   1:-0.49058,   8:-0.66929,   9:-0.18848,  10:-0.61378,  11: 0.22221,  12:-0.81279,  13: 0.75154,  14:  1.4052, 
                 15: 0.15529,  21:-0.39019,  22:-0.056307,  23: 0.38738
    37 |      |   1: 0.65298,   8: 0.58938,   9: 0.18725,  10:-0.066895,  11: 0.44231,  12:-0.48485,  13:-0.89822,  14:  0.3214, 
                 15:  0.7372,  21:-0.54989,  22:-0.49363,  23: 0.64277
    38 |      |   1: 0.83981,   8:-0.28058,   9:-0.20997,  10:-0.23525,  11: -0.4274,  12:-0.086852,  13:0.0013306,  14: 0.43681, 
                 15:  1.0013,  21:-0.93858,  22: 0.59635,  23: 0.46688
    39 |      |   1:-0.036503,   8: 0.53158,   9:-0.0079861,  10:-0.50656,  11: 0.70386,  12:-0.52814,  13: 0.89063,  14: 0.16671, 
                 15: 0.37754,  21: 0.39131,  22: 0.57962,  23: 0.68698
    40 |      |   1: 0.15754,   8: 0.68289,   9:-0.10441,  10: -1.0171,  11:-0.19306,  12:-0.68978,  13: 0.44539,  14: 0.23166, 
                 15:  0.7382,  21:-0.86567,  22:-0.18905,  23:-0.12312
    41 |      |   1:-0.37321,   8: 0.46583,   9:-0.083179,  10: -1.3501,  11:-0.35167,  12:-0.86241,  13: 0.66206,  14: 0.70942, 
                 15:-0.81117,  21: 0.18528,  22:-0.51642,  23:-0.37023
    42 |      |   1: 0.49016,   8: 0.88707,   9: 0.95591,  10:-0.11166,  11:-0.88403,  12:0.035929,  13:-0.11041,  14: 0.28323, 
                 15: 0.60774,  21: 0.55123,  22: -1.0393,  23:-0.13163
    43 |      |   1: 0.67882,   8: 0.27065,   9: 0.90863,  10:-0.95148,  11: -0.3114,  12:-0.41806,  13:-0.11936,  14: 0.88927, 
                 15:-0.25903,  21: 0.19853,  22:-0.67762,  23:-0.69622
    44 |      |   1:-0.22804,   8:  1.1674,   9:0.051091,  10: 0.57678,  11: -0.4098,  12:-0.27598,  13:-0.26064,  14:-0.0058526, 
                 15:  0.6214,  21:0.071558,  22: 0.93956,  23: -1.0361
    45 |      |   1: 0.20008,   8:-0.56399,   9:-0.23515,  10:-0.87356,  11: 0.73985,  12:-0.46439,  13: 0.22286,  14: 0.89527, 
                 15:-0.49512,  21: 0.71616,  22:-0.79126,  23: 0.61939
    46 |      |   1:-0.0045175,   8:  0.1726,   9:  1.1822,  10: 0.44814,  11: -1.2971,  12:-0.25725,  13:-0.071219,  14: 0.50367, 
                 15:-0.86711,  21: 0.42136,  22: -0.3823,  23:-0.037414
    47 |      |   1: -0.7829,   8:-0.43258,   9:-0.045518,  10: 0.14752,  11: 0.51329,  12: -1.2635,  13: 0.47808,  14:-0.080261, 
                 15:-0.10562,  21: 0.47103,  22:-0.54758,  23:  1.2069
    48 |      |   1:-0.11281,   8:   0.278,   9:-0.26411,  10:-0.47477,  11: 0.35237,  12: 0.95306,  13: 0.74575,  14:  0.3492, 
                 15:0.032192,  21: 0.93709,  22: 0.72618,  23:-0.69394
    49 |      |   1: 0.82813,   8:-0.88104,   9: 0.74481,  10:-0.071472,  11:-0.98379,  12: -1.0413,  13:  1.0196,  14: 0.70219, 
                 15: 0.27948,  21: 0.73026,  22: -0.6752,  23:-0.48503
    50 |      |   1: -0.1816,  16: 0.53499,  17:  0.2592,  18:-0.30027
    51 |      |   1:-0.76433,  16: 0.94573,  17:-0.23563,  18:-0.35651
    52 |      |   1:-0.96398,  16:-0.89517,  17: -1.0375,  18: 0.26375
    53 |      |   1: 0.85026,  16: 0.28815,  17: 0.66514,  18:  0.7766
    54 |      |   1: 0.52949,  16:-0.17819,  17: 0.98074,  18:  0.4426
    55 |      |   1: 0.30864,  16: 0.53823,  17:-0.95961,  18: 0.62162
    56 |      |   1: 0.21004,  19:-0.61792,  20:-0.13701
    57 |      |   1:-0.16015,  19:-0.35823,  20:-0.30932
    58 |      |   1: 0.22261,  19: 0.56104,  20: 0.80402
    59 |      |   1: 0.78062,  19: 0.68292,  20: -0.5164
    60 |      |  24: 0.93159,  25: -1.2961,  26:  1.3974,  27:  1.1898,  28:  1.1127,  29:-0.67796,  30:-0.24989,  31: 0.83748, 
                 32:-0.73525,  33: 0.34444,  34: 0.25575,  35: 0.71846,  36:0.031196,  37:-0.52547,  38:-0.13095,  39:-0.75355, 
                 40:-0.24445,  41: -1.0501,  42:0.093158,  43:-0.59129,  44:-0.47805,  45: 0.84289,  46: -0.3621,  47: -1.2965, 
                 48:  0.4063,  49:-0.65102,  50:0.095491,  51:-0.021114,  52:-0.61222,  53: 0.58956,  54:0.016866,  55:-0.97543, 
                 56: -0.9735,  57: -0.1973,  58: 0.35959,  59:-0.94128
    61 |      |  24: 0.87536,  25: 0.98122,  26:-0.008785,  27: 0.51105,  28: 0.35616,  29:-0.23118,  30:-0.65119,  31: 0.85982, 
                 32: -1.0463,  33:-0.07178,  34:  0.1941,  35:-0.77727,  36: 0.98396,  37: 0.22923,  38:0.095389,  39: 0.87539, 
                 40:-0.97406,  41:0.033669,  42: 0.56318,  43:-0.16428,  44:-0.64478,  45:-0.14878,  46: 0.28911,  47:-0.52959, 
                 48:-0.86486,  49: 0.51779,  50:-0.28589,  51: 0.18899,  52:0.066829,  53:-0.29804,  54: 0.10322,  55:0.079693, 
                 56:-0.38551,  57:-0.84491,  58:-0.87998,  59: 0.83497
    62 |      |  24:-0.56973,  25: 0.48902,  26:-0.19677,  27: 0.19317,  28:-0.39812,  29:0.053923,  30: 0.15316,  31: 0.68585, 
                 32:  -0.953,  33: 0.23866,  34: 0.89628,  35: 0.25836,  36:-0.33583,  37: -0.4728,  38: 0.72806,  39: 0.44299, 
                 40: 0.91644,  41:-0.73383,  42: 0.57382,  43: 0.43163,  44:-0.11104,  45:-0.29405,  46:-0.56258,  47: 0.44673, 
                 48: 0.90268,  49: 0.45958,  50:-0.92718,  51: 0.97847,  52: 0.49611,  53: 0.67629,  54:-0.20567,  55:   0.919, 
                 56: 0.15399,  57: 0.65105,  58: 0.17695,  59: 0.69063
    63 |      |  24:-0.60153,  25: 0.38791,  26:-0.30567,  27: 0.58553,  28: 0.24142,  29: 0.83493,  30:-0.81961,  31: 0.76573, 
                 32:  0.5093,  33: 0.60986,  34: 0.62993,  35: 0.67426,  36:  0.1456,  37:-0.075857,  38:-0.57601,  39: 0.82177, 
                 40: 0.32259,  41: 0.86352,  42: 0.61113,  43:-0.33543,  44: 0.87043,  45: 0.56659,  46:-0.89414,  47: 0.53764, 
                 48:-0.66254,  49: 0.97764,  50: -0.3341,  51: 0.89559,  52: 0.13984,  53:-0.70085,  54:-0.46243,  55: 0.52375, 
                 56:  0.6752,  57: 0.19415,  58:0.081128,  59:-0.12558
    64 |      |  24: 0.29554,  25:-0.47325,  26:-0.19378,  27: 0.27509,  28:-0.66215,  29: -1.0929,  30:   1.075,  31: 0.14925, 
                 32:-0.62767,  33:  0.8053,  34: -0.5359,  35:-0.58297,  36: 0.33375,  37:0.0055484,  38:-0.83826,  39:-0.19331, 
                 40:-0.021334,  41: 0.76785,  42:0.051022,  43: 0.22504,  44: -1.0322,  45:0.057172,  46:-0.92556,  47:-0.41633, 
                 48: 0.62312,  49: 0.51513,  50:-0.70823,  51:-0.47296,  52:-0.29237,  53:-0.034255,  54: 0.57721,  55: 0.76575, 
                 56: 0.64696,  57: -0.9396,  58:-0.29508,  59:  0.9422
    65 |      |  24:-0.58298,  25:-0.98525,  26:-0.64729,  27: -2.2519,  28: 0.51162,  29: -0.3861,  30: 0.44562,  31:-0.90142, 
                 32: 0.42871,  33: -1.0146,  34:0.095613,  35:-0.16842,  36: 0.34444,  37:-0.91501,  38: 0.10321,  39:-0.26054, 
                 40:-0.33183,  41:   1.424,  42: 0.13565,  43:-0.86045,  44:-0.31633,  45:-0.45844,  46:-0.23764,  47: 0.26822, 
                 48:   1.276,  49:-0.67391,  50:-0.047859,  51: 0.76381,  52: 0.25526,  53:-0.37883,  54:  1.1534,  55: 0.52634, 
                 56:  0.4997,  57:-0.36688,  58:-0.85306,  59:-0.27304
    66 |      |  24:-0.012298,  25:0.094747,  26: -1.3499,  27:-0.45049,  28:-0.62814,  29:  1.5366,  30: -1.4751,  31: -1.3024, 
                 32: 0.38761,  33:0.071045,  34:0.0067662,  35: 0.23159,  36:-0.16902,  37:-0.13871,  38: 0.24403,  39: 0.30927, 
                 40:  1.1547,  41: 0.11563,  42:-0.29138,  43:-0.33598,  44: 0.95829,  45: -0.4592,  46:   1.361,  47:  1.2268, 
                 48:-0.59187,  49:  1.3976,  50: 0.35343,  51: 0.17153,  52:  1.2485,  53:  1.2546,  54:-0.17737,  55: 0.77912, 
                 56:-0.13689,  57:  0.4998,  58: 0.43555,  59:0.098255
    67 |      |  24:-0.77373,  25:  1.2753,  26:-0.61959,  27:  2.1608,  28:  0.5894,  29: 0.92174,  30:  1.3753,  31:  0.3992, 
                 32:-0.53255,  33: -0.4459,  34:-0.66262,  35:-0.74676,  36: 0.33423,  37:-0.14015,  38: 0.85098,  39: 0.23217, 
                 40:-0.07612,  41:0.017586,  42:  1.1718,  43:-0.39738,  44:-0.77666,  45:-0.42532,  46:-0.16307,  47:-0.29619, 
                 48:-0.25507,  49:-0.17586,  50: 0.30641,  51:-0.042661,  52:  0.4597,  53: -0.6515,  54: 0.77976,  55: 0.91182, 
                 56: 0.44464,  57:-0.71985,  58:-0.43808,  59: 0.04674
    68 |      |  24:-0.55787,  25: -1.0239,  26:  0.3938,  27:-0.20593,  28:-0.52387,  29:-0.89477,  30:-0.72355,  31: 0.50381, 
                 32: 0.72522,  33: 0.90454,  34:-0.56929,  35:0.047387,  36: 0.78624,  37: 0.15114,  38: 0.63757,  39:-0.38231, 
                 40: 0.77448,  41:-0.62794,  42: 0.83597,  43: 0.85981,  44: 0.76624,  45:-0.43355,  46: 0.20324,  47:  0.6971, 
                 48:-0.57123,  49:-0.40646,  50:-0.050348,  51:-0.38834,  52: 0.13217,  53:-0.80872,  54: 0.83375,  55: 0.64237, 
                 56: -0.8672,  57: 0.34699,  58:-0.14586,  59:-0.30156
    69 |      |  24: 0.26079,  25:-0.67922,  26: 0.26524,  27: 0.35122,  28:-0.022212,  29:-0.82094,  30:0.075134,  31:-0.98785, 
                 32: 0.88857,  33: 0.66707,  34: 0.90029,  35:-0.74404,  36: 0.50168,  37: 0.65519,  38: 0.67641,  39:-0.95852, 
                 40: -0.2421,  41: 0.49784,  42:-0.52871,  43:  0.5724,  44:-0.71041,  45:0.049444,  46:-0.37915,  47:-0.47887, 
                 48: -0.1091,  49:-0.70784,  50:-0.29018,  51: -0.7907,  52: 0.10076,  53: 0.41517,  54: 0.68539,  55:-0.70378, 
                 56: 0.81865,  57:-0.13925,  58: 0.59131,  59:-0.25689
    70 |      |  60: -1.9753,  61:-0.86492,  62: 0.63257,  63:0.030987,  64:-0.97231,  65:  2.2095,  66:  2.9397,  67: -2.9018, 
                 68: 0.32807,  69:-0.43372
-------|------|----------------------------------------------------------------------------------------------------------------
