SNNS network definition file V1.4-3D
generated at Thu May 09 10:11:49 1996

network name : edge_23
source files :
no. of units : 70
no. of connections : 622
no. of unit types : 0
no. of site types : 0


learning function : Std_Backpropagation
update function : Topological_Order


unit default section :

act      | bias     | st | subnet | layer | act func     | out func
---------|----------|----|--------|-------|--------------|-------------
 0.00000 |  0.00000 | h  |      0 |     1 | Act_Logistic | Out_Identity
---------|----------|----|--------|-------|--------------|-------------


unit definition section :

no. | typeName | unitName | act      | bias     | st | position | act func | out func | sites
----|----------|----------|----------|----------|----|----------|----------|----------|-------
  1 |          |           |        0 |        0 | i  |  2, 1, 0 |||
  2 |          |           |   2.1184 |        0 | i  |  2, 3, 0 |||
  3 |          |           |   5.8137 |        0 | i  |  2, 4, 0 |||
  4 |          |           |   3.3933 |        0 | i  |  2, 5, 0 |||
  5 |          |           |    3.831 |        0 | i  |  2, 7, 0 |||
  6 |          |           |   9.4088 |        0 | i  |  2, 8, 0 |||
  7 |          |           |   8.2219 |        0 | i  |  2, 9, 0 |||
  8 |          |           |   5.8961 |        0 | i  |  2,11, 0 |||
  9 |          |           | -0.53793 |        0 | i  |  2,12, 0 |||
 10 |          |           | 0.013645 |        0 | i  |  2,13, 0 |||
 11 |          |           | -0.99384 |        0 | i  |  2,14, 0 |||
 12 |          |           | -0.10193 |        0 | i  |  2,15, 0 |||
 13 |          |           | -0.48841 |        0 | i  |  2,16, 0 |||
 14 |          |           |  -0.3885 |        0 | i  |  2,17, 0 |||
 15 |          |           |   5.9142 |        0 | i  |  2,18, 0 |||
 16 |          |           |   2.2027 |        0 | i  |  2,23, 0 |||
 17 |          |           |   1.1001 |        0 | i  |  2,24, 0 |||
 18 |          |           |  -1.2864 |        0 | i  |  2,25, 0 |||
 19 |          |           |   2.7418 |        0 | i  |  2,27, 0 |||
 20 |          |           |  0.63484 |        0 | i  |  2,28, 0 |||
 21 |          |           |   4.0832 |        0 | i  |  2,19, 0 |||
 22 |          |           |   2.3606 |        0 | i  |  2,20, 0 |||
 23 |          |           |  0.30371 |        0 | i  |  2,21, 0 |||
 24 |          |           | 0.00059488 | -0.52569 | h  |  7, 3, 0 |||
 25 |          |           | 0.010921 |  0.84664 | h  |  8, 3, 0 |||
 26 |          |           |  0.23707 | -0.59235 | h  |  7, 4, 0 |||
 27 |          |           | 0.042447 |   1.0187 | h  |  8, 4, 0 |||
 28 |          |           |  0.94037 |   1.0882 | h  |  7, 5, 0 |||
 29 |          |           | 0.023609 |  0.36681 | h  |  8, 5, 0 |||
 30 |          |           |  0.10633 |   1.0133 | h  |  7, 7, 0 |||
 31 |          |           | 0.0068781 |  0.64531 | h  |  8, 7, 0 |||
 32 |          |           | 1.0019e-06 | -0.68335 | h  |  7, 8, 0 |||
 33 |          |           |  0.99995 |  0.30488 | h  |  8, 8, 0 |||
 34 |          |           |  0.99987 | -0.37334 | h  |  7, 9, 0 |||
 35 |          |           |  0.99958 |  0.54779 | h  |  8, 9, 0 |||
 36 |          |           | 5.4463e-05 | -0.62862 | h  |  7,11, 0 |||
 37 |          |           |  0.99369 |    0.322 | h  |  8,11, 0 |||
 38 |          |           |  0.99014 |  0.66918 | h  |  7,12, 0 |||
 39 |          |           |  0.99984 | -0.14118 | h  |  8,12, 0 |||
 40 |          |           |  0.89436 |  0.57094 | h  |  7,13, 0 |||
 41 |          |           | 0.0034409 |  -0.4449 | h  |  8,13, 0 |||
 42 |          |           |   0.9999 |    0.482 | h  |  7,14, 0 |||
 43 |          |           |  0.91355 |  0.14711 | h  |  8,14, 0 |||
 44 |          |           |        1 | -0.67376 | h  |  7,15, 0 |||
 45 |          |           | 0.0021138 |  0.82213 | h  |  8,15, 0 |||
 46 |          |           |  0.42408 |  -1.0497 | h  |  7,16, 0 |||
 47 |          |           | 0.00036983 | -0.61778 | h  |  8,16, 0 |||
 48 |          |           |  0.99993 |  0.57756 | h  |  7,17, 0 |||
 49 |          |           | 0.0012464 |  0.12728 | h  |  8,17, 0 |||
 50 |          |           |  0.96785 |  0.84673 | h  |  7,22, 0 |||
 51 |          |           |  0.79687 |  0.16828 | h  |  8,22, 0 |||
 52 |          |           | 0.014641 |  -1.0416 | h  |  7,23, 0 |||
 53 |          |           |   0.8513 |  0.60135 | h  |  8,23, 0 |||
 54 |          |           |   0.4626 | -0.10885 | h  |  7,24, 0 |||
 55 |          |           |  0.15247 |  0.40437 | h  |  8,24, 0 |||
 56 |          |           |  0.12337 | -0.31634 | h  |  7,26, 0 |||
 57 |          |           |  0.61758 | -0.30251 | h  |  8,26, 0 |||
 58 |          |           |   0.9351 |  0.23239 | h  |  7,27, 0 |||
 59 |          |           |  0.96471 |   1.1252 | h  |  8,27, 0 |||
 60 |          |           |  0.87723 | -0.91351 | h  | 13,12, 0 |||
 61 |          |           |  0.16198 | 0.024613 | h  | 14,12, 0 |||
 62 |          |           |  0.94564 | -0.46738 | h  | 13,13, 0 |||
 63 |          |           |  0.34963 |  -0.1112 | h  | 14,13, 0 |||
 64 |          |           |  0.12962 | -0.65123 | h  | 13,14, 0 |||
 65 |          |           | 0.073543 |  0.64086 | h  | 14,14, 0 |||
 66 |          |           |  0.44551 |  0.11976 | h  | 13,15, 0 |||
 67 |          |           |  0.18698 |  0.28075 | h  | 14,15, 0 |||
 68 |          |           |  0.93962 |  0.47514 | h  | 13,16, 0 |||
 69 |          |           |  0.94633 |  0.29504 | h  | 14,16, 0 |||
 70 |          |           |   0.9915 |   0.4276 | o  | 18,14, 0 |||
----|----------|----------|----------|----------|----|----------|----------|----------|-------


connection definition section :

target | site | source:weight
-------|------|------------------------------------------------------------------------------------------------------------
    24 |      |   1: 0.10444,   2: 0.53929,   3:-0.91826,   4:-0.79709
    25 |      |   1: 0.84829,   2:-0.80453,   3:-0.085937,   4:-0.92795
    26 |      |   1: 0.66671,   2:   1.019,   3: -0.4393,   4:-0.053367
    27 |      |   1: 0.74917,   2:-0.43535,   3:-0.95699,   4: 0.69286
    28 |      |   1: -0.7205,   2:  1.3602,   3:-0.71398,   4: 0.86623
    29 |      |   1:-0.92466,   2:-0.79619,   3: 0.24436,   4: -1.1266
    30 |      |   1:0.049746,   5: 0.86769,   6:-0.85036,   7: 0.18666
    31 |      |   1:-0.22409,   5: 0.24163,   6:-0.31655,   7:-0.43361
    32 |      |   1:-0.90234,   5: -1.2437,   6:-0.027451,   7:-0.98608
    33 |      |   1: 0.15439,   5: 0.26899,   6: 0.55776,   7: 0.40932
    34 |      |   1:0.056352,   5:0.089465,   6: 0.58187,   7: 0.42686
    35 |      |   1: 0.22515,   5: 0.44656,   6: 0.58821,   7:-0.0031206
    36 |      |   1: -0.5373,   8:   -1.16,   9:-0.13747,  10:-0.19726,  11: 0.13597,  12:-0.98615,  13: 0.61951,  14:  0.9546, 
                 15: 0.30888,  21:-0.95086,  22: 0.09572,  23: 0.38407
    37 |      |   1: 0.61202,   8: 0.75437,   9:  0.1367,  10:-0.18591,  11: 0.60818,  12:-0.60209,  13:-0.60567,  14: 0.16743, 
                 15: 0.67747,  21:-0.73389,  22:-0.17344,  23: 0.25466
    38 |      |   1: 0.82428,   8:0.0010134,   9:-0.20397,  10: 0.20343,  11:0.048061,  12: 0.17023,  13: 0.22767,  14:  1.0664, 
                 15:  0.6961,  21:-0.64743,  22:  1.2177,  23: 0.21377
    39 |      |   1:-0.026943,   8:  0.5954,   9:-0.061741,  10: -1.1111,  11: 0.45575,  12:-0.32995,  13:  0.9178,  14:-0.28447, 
                 15: 0.48837,  21: 0.45809,  22: 0.48183,  23: 0.62299
    40 |      |   1: 0.16687,   8: 0.42383,   9: 0.18554,  10:-0.20501,  11: 0.21384,  12:-0.68677,  13: 0.34248,  14: 0.75158, 
                 15: 0.53321,  21:-0.75916,  22:-0.049812,  23:-0.54481
    41 |      |   1:-0.32375,   8:-0.40586,   9: 0.11019,  10:-0.95975,  11: -1.1891,  12: -0.2908,  13: 0.38574,  14: 0.25959, 
                 15:-0.43363,  21: 0.32734,  22:-0.95698,  23:-0.63722
    42 |      |   1: 0.50263,   8: 0.83003,   9: 0.80901,  10:-0.010243,  11:-0.88406,  12: 0.17235,  13:-0.42947,  14:-0.15959, 
                 15: 0.59602,  21: 0.61803,  22: -1.2332,  23:0.095467
    43 |      |   1: 0.69113,   8: 0.37436,   9:  1.1753,  10:-0.46514,  11:-0.10593,  12:-0.53869,  13: 0.24965,  14:  1.2553, 
                 15:-0.098041,  21: 0.72656,  22: -0.4607,  23:-0.68455
    44 |      |   1:-0.16582,   8: 0.69727,   9:  0.3422,  10: 0.55394,  11:-0.62479,  12:-0.18252,  13: 0.15571,  14:-0.52968, 
                 15: 0.88838,  21:  0.4396,  22: 0.59861,  23:-0.35734
    45 |      |   1:0.088079,   8:-0.64959,   9:-0.28186,  10: -1.1125,  11: 0.23651,  12:-0.45957,  13:0.00033409,  14: 0.64533, 
                 15:-0.52884,  21: 0.60136,  22: -1.0057,  23: 0.65759
    46 |      |   1:0.0065614,   8: 0.55018,   9: 0.86093,  10: 0.47584,  11:-0.54405,  12:-0.28324,  13: 0.32004,  14: 0.65735, 
                 15:-0.86635,  21: 0.93256,  22:-0.41018,  23: 0.27221
    47 |      |   1:-0.68287,   8: -0.7388,   9:  0.5438,  10: -0.0412,  11: 0.45155,  12:-0.40989,  13: 0.34168,  14:  1.0028, 
                 15:0.0081333,  21:-0.13655,  22:-0.53026,  23: 0.29441
    48 |      |   1:-0.13498,   8: 0.68932,   9:-0.38619,  10:-0.73235,  11: 0.21929,  12: 0.54192,  13: 0.58512,  14:-0.03925, 
                 15:0.035336,  21: 0.89254,  22: 0.64199,  23:-0.45759
    49 |      |   1: 0.91939,   8:-0.78421,   9:  0.9334,  10:0.061834,  11: -1.2687,  12:-0.54805,  13: 0.78818,  14: 0.51703, 
                 15:-0.11088,  21: 0.11185,  22:-0.87118,  23:-0.53951
    50 |      |   1: -0.1977,  16: 0.60181,  17: 0.45727,  18:-0.56691
    51 |      |   1:-0.75267,  16: 0.85217,  17:-0.77887,  18:-0.13863
    52 |      |   1: -0.8692,  16:-0.94959,  17:-0.76022,  18: 0.18616
    53 |      |   1: 0.82983,  16: 0.64435,  17: 0.70475,  18: 0.81713
    54 |      |   1: 0.51208,  16:-0.087792,  17: 0.87765,  18: 0.63212
    55 |      |   1: 0.43323,  16:-0.020239,  17: -1.0711,  18: 0.69711
    56 |      |   1: 0.25244,  19:-0.57183,  20:-0.12087
    57 |      |   1:-0.15239,  19: 0.37079,  20:-0.36989
    58 |      |   1:   0.184,  19: 0.74013,  20: 0.63964
    59 |      |   1: 0.84899,  19:  0.8703,  20:-0.31983
    60 |      |  24: 0.64514,  25:-0.79661,  26: 0.59492,  27:  0.4157,  28:  0.9628,  29: 0.12376,  30: -0.6814,  31: 0.75345, 
                 32:-0.19121,  33: 0.21411,  34: 0.23094,  35:  0.8297,  36: 0.24755,  37:-0.18989,  38: 0.28038,  39:-0.46049, 
                 40: 0.22525,  41:-0.85087,  42: 0.12207,  43:-0.90057,  44:-0.11612,  45: 0.99189,  46:-0.11703,  47:-0.92923, 
                 48: 0.55301,  49:-0.31656,  50:  0.4042,  51: 0.37202,  52:-0.47046,  53: 0.96408,  54: 0.33624,  55:-0.78888, 
                 56:-0.84859,  57:-0.051598,  58: 0.61045,  59:-0.90368
    61 |      |  24:  1.1946,  25:  1.0171,  26:0.061073,  27:  0.5506,  28: 0.33565,  29:-0.16215,  30:-0.21105,  31:  1.1878, 
                 32:-0.85099,  33:-0.14833,  34:-0.021244,  35:-0.82082,  36: 0.80847,  37: 0.23797,  38: 0.11478,  39: 0.92121, 
                 40:-0.90093,  41: 0.19756,  42: 0.63905,  43:-0.32219,  44:-0.46488,  45:-0.0076681,  46: 0.25438,  47:-0.46414, 
                 48: -0.8117,  49: 0.52567,  50:-0.24776,  51: 0.26729,  52:   0.114,  53:-0.13671,  54: 0.20207,  55: 0.17691, 
                 56:-0.32343,  57:-0.82904,  58:-0.83402,  59: 0.70996
    62 |      |  24:-0.76877,  25: 0.45458,  26:-0.36173,  27:0.034444,  28:-0.76836,  29:0.058726,  30:-0.095209,  31: 0.50364, 
                 32:-0.92329,  33: 0.10012,  34: 0.86964,  35:0.097528,  36:-0.22254,  37:-0.40115,  38: 0.67433,  39:  0.4296, 
                 40: 0.82313,  41: -1.0942,  42: 0.31559,  43: 0.27595,  44:-0.29844,  45:-0.41352,  46:-0.77599,  47: 0.39158, 
                 48: 0.72753,  49: 0.20669,  50: -1.2013,  51: 0.79534,  52: 0.61481,  53:  0.5006,  54:-0.26991,  55: 0.89658, 
                 56:0.056432,  57: 0.57762,  58: 0.10994,  59: 0.60268
    63 |      |  24: -0.4657,  25: 0.47598,  26:-0.36708,  27: 0.62918,  28: 0.08247,  29: 0.90889,  30:-0.76482,  31: 0.84874, 
                 32: 0.57158,  33: 0.38652,  34: 0.37608,  35: 0.46634,  36:0.097013,  37:-0.28057,  38:-0.71378,  39: 0.53752, 
                 40: 0.13965,  41: 0.89345,  42: 0.49622,  43:-0.48261,  44: 0.72465,  45: 0.50267,  46:-0.99631,  47:  0.5334, 
                 48:-0.87539,  49:  1.0546,  50:-0.47228,  51: 0.84703,  52: 0.11921,  53:-0.79561,  54:-0.57127,  55: 0.50737, 
                 56: 0.67977,  57: 0.11727,  58:-0.099548,  59:    -0.3
    64 |      |  24: 0.40838,  25:-0.41932,  26:-0.27431,  27: 0.22422,  28:-0.35122,  29:-0.97261,  30:  1.3902,  31: 0.38218, 
                 32:-0.51803,  33: 0.73199,  34:-0.73243,  35:-0.59041,  36:-0.03344,  37:-0.072032,  38:-0.70698,  39:-0.060989, 
                 40: 0.15159,  41: 0.94399,  42: 0.27868,  43:-0.013816,  44:-0.54292,  45:0.051059,  46:-0.86481,  47: -0.3982, 
                 48: 0.66718,  49: 0.78278,  50:-0.56736,  51:-0.19147,  52:-0.30508,  53: 0.29813,  54: 0.62803,  55:  1.1309, 
                 56: 0.72144,  57:-0.86616,  58:-0.21597,  59: 0.93979
    65 |      |  24:-0.57867,  25:-0.19386,  26:-0.39117,  27:-0.96493,  28: 0.12984,  29:-0.0033646,  30: 0.26373,  31:-0.93973, 
                 32: 0.19454,  33: -0.7565,  34: 0.33114,  35:-0.002309,  36: 0.29574,  37:-0.70522,  38: 0.26957,  39:-0.82958, 
                 40:-0.54175,  41: 0.85753,  42: 0.55871,  43:-0.87165,  44:-0.85654,  45:-0.85881,  46:-0.14048,  47: 0.20419, 
                 48: 0.72811,  49:-0.25477,  50:-0.17853,  51: 0.77147,  52: 0.44779,  53:-0.38095,  54: 0.95838,  55: 0.93732, 
                 56: 0.48051,  57:-0.38721,  58:-0.86491,  59:-0.31447
    66 |      |  24:  0.2713,  25:-0.33127,  26:-0.29083,  27:  0.2899,  28: -1.1461,  29: 0.70486,  30:-0.52049,  31: -1.0208, 
                 32:-0.020151,  33: 0.17738,  34:-0.0037388,  35:0.013791,  36:-0.20675,  37:-0.0031304,  38: 0.13167,  39:-0.074064, 
                 40: 0.84045,  41:-0.93338,  42:-0.53853,  43:-0.43529,  44: 0.25585,  45:-0.89031,  46: 0.87451,  47: 0.65052, 
                 48:-0.65444,  49: 0.64224,  50: 0.16963,  51:-0.20051,  52:  0.9471,  53: 0.84404,  54:-0.44388,  55: 0.33218, 
                 56:-0.36041,  57: 0.36899,  58: 0.20134,  59:-0.13808
    67 |      |  24:-0.51066,  25: 0.32378,  26:-0.57745,  27: 0.72456,  28:  1.2008,  29: 0.23517,  30:  1.5128,  31: 0.29391, 
                 32:-0.62752,  33:-0.54559,  34:-0.86334,  35:-0.71533,  36:-0.030288,  37:-0.15295,  38: 0.47779,  39: 0.33636, 
                 40:-0.31713,  41: 0.57341,  42: 0.96997,  43:-0.52706,  44:-0.56007,  45:-0.03604,  46:-0.43333,  47: -0.3885, 
                 48:  0.1307,  49:-0.80939,  50: 0.32895,  51:-0.27925,  52:  0.1876,  53:-0.86035,  54: 0.83005,  55: 0.45177, 
                 56: 0.39346,  57: -0.9117,  58:-0.48031,  59:0.076148
    68 |      |  24:-0.80012,  25: -0.9505,  26:  0.3345,  27:  -0.354,  28:-0.88845,  29: -0.7737,  30: -1.2175,  31: 0.19478, 
                 32: 0.76365,  33:  1.0777,  34:-0.22117,  35: 0.20212,  36:  1.2524,  37: 0.20724,  38: 0.81823,  39:-0.39934, 
                 40: 0.84347,  41: -0.8946,  42:  0.6436,  43:  1.0426,  44: 0.67591,  45:-0.59837,  46: 0.24102,  47: 0.63633, 
                 48:-0.56031,  49:-0.41355,  50:-0.11999,  51:-0.53554,  52: 0.27132,  53: -1.0021,  54: 0.83312,  55: 0.57017, 
                 56:-0.87937,  57: 0.44119,  58:-0.13981,  59:-0.16021
    69 |      |  24:-0.18756,  25:-0.65199,  26: -0.0615,  27:-0.40426,  28:-0.48636,  29:-0.60578,  30:-0.74228,  31: -1.5265, 
                 32: 0.91434,  33: 0.91723,  34:  1.3711,  35:-0.46173,  36: 0.94063,  37: 0.84353,  38:  1.0218,  39:-0.63343, 
                 40:0.048606,  41: 0.22361,  42:-0.76069,  43: 0.67433,  44:-0.31428,  45:-0.20364,  46:-0.15004,  47:-0.56518, 
                 48:0.054892,  49: -0.8237,  50:-0.21161,  51:-0.78294,  52: 0.19273,  53: 0.44938,  54: 0.76547,  55:-0.76723, 
                 56: 0.70126,  57:0.0080285,  58: 0.73693,  59:-0.018493
    70 |      |  60:-0.30318,  61:-0.90725,  62:  1.0162,  63:-0.81238,  64: -1.3569,  65: 0.52013,  66:  1.1054,  67: -1.6703, 
                 68:  1.9864,  69:  2.2812
-------|------|----------------------------------------------------------------------------------------------------------------
