SNNS network definition file V1.4-3D
generated at Thu May 09 10:11:49 1996

network name : edge_23
source files :
no. of units : 70
no. of connections : 622
no. of unit types : 0
no. of site types : 0


learning function : Std_Backpropagation
update function : Topological_Order


unit default section :

act      | bias     | st | subnet | layer | act func     | out func
---------|----------|----|--------|-------|--------------|-------------
 0.00000 |  0.00000 | h  |      0 |     1 | Act_Logistic | Out_Identity
---------|----------|----|--------|-------|--------------|-------------


unit definition section :

no. | typeName | unitName | act      | bias     | st | position | act func | out func | sites
----|----------|----------|----------|----------|----|----------|----------|----------|-------
  1 |          |           |        0 |        0 | i  |  2, 1, 0 |||
  2 |          |           |        0 |        0 | i  |  2, 3, 0 |||
  3 |          |           |        0 |        0 | i  |  2, 4, 0 |||
  4 |          |           |        0 |        0 | i  |  2, 5, 0 |||
  5 |          |           |        0 |        0 | i  |  2, 7, 0 |||
  6 |          |           |        0 |        0 | i  |  2, 8, 0 |||
  7 |          |           |        0 |        0 | i  |  2, 9, 0 |||
  8 |          |           |        0 |        0 | i  |  2,11, 0 |||
  9 |          |           |        0 |        0 | i  |  2,12, 0 |||
 10 |          |           |        0 |        0 | i  |  2,13, 0 |||
 11 |          |           |        0 |        0 | i  |  2,14, 0 |||
 12 |          |           |        0 |        0 | i  |  2,15, 0 |||
 13 |          |           |        0 |        0 | i  |  2,16, 0 |||
 14 |          |           |        0 |        0 | i  |  2,17, 0 |||
 15 |          |           |        0 |        0 | i  |  2,18, 0 |||
 16 |          |           |        0 |        0 | i  |  2,23, 0 |||
 17 |          |           |        0 |        0 | i  |  2,24, 0 |||
 18 |          |           |        0 |        0 | i  |  2,25, 0 |||
 19 |          |           |        0 |        0 | i  |  2,27, 0 |||
 20 |          |           |        0 |        0 | i  |  2,28, 0 |||
 21 |          |           |        0 |        0 | i  |  2,19, 0 |||
 22 |          |           |        0 |        0 | i  |  2,20, 0 |||
 23 |          |           |        0 |        0 | i  |  2,21, 0 |||
 24 |          |           |        0 |  0.42304 | h  |  7, 3, 0 |||
 25 |          |           |        0 | -0.0062745 | h  |  8, 3, 0 |||
 26 |          |           |        0 |  0.56684 | h  |  7, 4, 0 |||
 27 |          |           |        0 |  0.21762 | h  |  8, 4, 0 |||
 28 |          |           |        0 | -0.91993 | h  |  7, 5, 0 |||
 29 |          |           |        0 |   1.1894 | h  |  8, 5, 0 |||
 30 |          |           |        0 | -0.061569 | h  |  7, 7, 0 |||
 31 |          |           |        0 | -0.86835 | h  |  8, 7, 0 |||
 32 |          |           |        0 |  -1.1019 | h  |  7, 8, 0 |||
 33 |          |           |        0 | -0.88884 | h  |  8, 8, 0 |||
 34 |          |           |        0 |  0.43463 | h  |  7, 9, 0 |||
 35 |          |           |        0 |   -0.844 | h  |  8, 9, 0 |||
 36 |          |           |        0 | 0.047981 | h  |  7,11, 0 |||
 37 |          |           |        0 |  0.88552 | h  |  8,11, 0 |||
 38 |          |           |        0 |  -0.6097 | h  |  7,12, 0 |||
 39 |          |           |        0 |  0.30794 | h  |  8,12, 0 |||
 40 |          |           |        0 | -0.61274 | h  |  7,13, 0 |||
 41 |          |           |        0 | 0.065296 | h  |  8,13, 0 |||
 42 |          |           |        0 | 0.087075 | h  |  7,14, 0 |||
 43 |          |           |        0 |  0.48691 | h  |  8,14, 0 |||
 44 |          |           |        0 |    1.102 | h  |  7,15, 0 |||
 45 |          |           |        0 |  0.89201 | h  |  8,15, 0 |||
 46 |          |           |        0 | -0.16175 | h  |  7,16, 0 |||
 47 |          |           |        0 | -0.11017 | h  |  8,16, 0 |||
 48 |          |           |        0 | 0.028121 | h  |  7,17, 0 |||
 49 |          |           |        0 | -0.095791 | h  |  8,17, 0 |||
 50 |          |           |        0 |  0.19612 | h  |  7,22, 0 |||
 51 |          |           |        0 | -0.54468 | h  |  8,22, 0 |||
 52 |          |           |        0 |  0.54538 | h  |  7,23, 0 |||
 53 |          |           |        0 |  0.11382 | h  |  8,23, 0 |||
 54 |          |           |        0 | -0.21105 | h  |  7,24, 0 |||
 55 |          |           |        0 |  0.67061 | h  |  8,24, 0 |||
 56 |          |           |        0 |  0.15921 | h  |  7,26, 0 |||
 57 |          |           |        0 | -0.30593 | h  |  8,26, 0 |||
 58 |          |           |        0 |   0.7279 | h  |  7,27, 0 |||
 59 |          |           |        0 | 0.016862 | h  |  8,27, 0 |||
 60 |          |           |        0 |  0.97478 | h  | 13,12, 0 |||
 61 |          |           |        0 |  0.91301 | h  | 14,12, 0 |||
 62 |          |           |        0 |  0.16766 | h  | 13,13, 0 |||
 63 |          |           |        0 | -0.28743 | h  | 14,13, 0 |||
 64 |          |           |        0 | -0.48054 | h  | 13,14, 0 |||
 65 |          |           |        0 | -0.64989 | h  | 14,14, 0 |||
 66 |          |           |        0 | -0.40582 | h  | 13,15, 0 |||
 67 |          |           |        0 | -0.66365 | h  | 14,15, 0 |||
 68 |          |           |        0 |  0.48577 | h  | 13,16, 0 |||
 69 |          |           |        0 |  0.50788 | h  | 14,16, 0 |||
 70 |          |           |        0 | -0.23715 | o  | 18,14, 0 |||
----|----------|----------|----------|----------|----|----------|----------|----------|-------


connection definition section :

target | site | source:weight
-------|------|------------------------------------------------------------------------------------------------------------
    24 |      |   1: 0.93007,   2:  1.2352,   3: 0.72341,   4: 0.84423
    25 |      |   1: 0.83333,   2:-0.94523,   3: 0.29941,   4:-0.43711
    26 |      |   1:-0.082501,   2: 0.29237,   3: 0.77888,   4: 0.46122
    27 |      |   1:  0.8205,   2: 0.56504,   3:  -1.167,   4:-0.18243
    28 |      |   1: 0.63929,   2: 0.12638,   3: 0.72163,   4: 0.52854
    29 |      |   1:-0.62434,   2:-0.61333,   3:-0.46298,   4:  0.7219
    30 |      |   1: -0.1872,   5: 0.71219,   6: 0.69247,   7: -0.1887
    31 |      |   1:-0.33544,   5:-0.68127,   6:  0.5031,   7: 0.68688
    32 |      |   1: 0.65017,   5:-0.59775,   6:  -1.001,   7:-0.092915
    33 |      |   1: 0.58155,   5: 0.28707,   6: 0.77175,   7:-0.73904
    34 |      |   1:-0.47809,   5: 0.40651,   6: 0.71544,   7:-0.70089
    35 |      |   1:  0.8563,   5:-0.34756,   6:-0.46101,   7: -0.8721
    36 |      |   1:-0.63361,   8: 0.20312,   9: 0.81326,  10:-0.67363,  11: 0.59888,  12:-0.65982,  13:-0.21015,  14: 0.90484, 
                 15:  0.6985,  21:-0.44508,  22:-0.73292,  23: 0.26474
    37 |      |   1:-0.69448,   8:-0.83776,   9: 0.18359,  10: 0.89402,  11: 0.47308,  12:0.0064678,  13:-0.79993,  14:  0.4865, 
                 15: 0.28041,  21: -0.8539,  22:  0.2813,  23: 0.81658
    38 |      |   1: 0.28645,   8:-0.69577,   9:-0.36377,  10: 0.93982,  11:-0.22711,  12:-0.29563,  13:-0.43952,  14:-0.76443, 
                 15: 0.16168,  21: -0.5713,  22:-0.16698,  23: 0.87036
    39 |      |   1:-0.80683,   8:-0.24884,   9:-0.15668,  10: 0.77682,  11: 0.78867,  12:-0.49396,  13: 0.79254,  14: 0.29976, 
                 15:  0.1519,  21: 0.33848,  22: 0.38762,  23:0.050545
    40 |      |   1:-0.063137,   8:-0.009047,   9:-0.33054,  10:-0.20705,  11:-0.17797,  12: 0.92272,  13: 0.28523,  14: 0.22859, 
                 15: 0.57747,  21:-0.86013,  22:-0.91635,  23:-0.62137
    41 |      |   1:-0.005869,   8:-0.15715,   9:-0.048903,  10:-0.31328,  11: 0.25571,  12: 0.44981,  13: 0.26363,  14: 0.47194, 
                 15: -0.4583,  21:-0.50027,  22: -0.7386,  23:  -0.265
    42 |      |   1:0.099867,   8:-0.69025,   9:-0.73592,  10: 0.87826,  11: 0.61393,  12:  0.5306,  13: 0.16795,  14:-0.75062, 
                 15: -1.0885,  21: 0.77096,  22:-0.83651,  23: 0.59773
    43 |      |   1: 0.73709,   8:  0.7918,   9:-0.11137,  10:-0.89062,  11:-0.71254,  12:  0.9709,  13:0.0062633,  14: 0.47046, 
                 15:-0.39275,  21:  0.8915,  22: -0.3732,  23: 0.86964
    44 |      |   1: 0.52121,   8: -1.1625,   9: 0.58487,  10:-0.74378,  11:  0.5052,  12:-0.30755,  13:-0.55859,  14:   0.485, 
                 15:-0.59681,  21: 0.52135,  22:-0.081992,  23: 0.45387
    45 |      |   1: 0.32005,   8: 0.48932,   9:-0.77483,  10:-0.13422,  11:-0.83849,  12: 0.80467,  13:-0.16865,  14: 0.29259, 
                 15:   1.009,  21:-0.087602,  22: 0.15494,  23:-0.27809
    46 |      |   1: 0.93083,   8:-0.077314,   9:-0.15466,  10: 0.85478,  11:  1.1672,  12:-0.96315,  13: 0.94498,  14: 0.92999, 
                 15:-0.42716,  21: 0.29893,  22: -0.3152,  23:-0.06603
    47 |      |   1:-0.067504,   8:-0.55545,   9: 0.81654,  10:-0.63162,  11:-0.51337,  12: 0.31595,  13: 0.62693,  14:-0.47085, 
                 15:-0.84679,  21: 0.56057,  22:-0.69203,  23:-0.28296
    48 |      |   1:-0.72106,   8: 0.63668,   9:-0.76997,  10:-0.039269,  11: 0.59837,  12:-0.88661,  13: 0.68016,  14:-0.54511, 
                 15: 0.75998,  21: 0.54626,  22:-0.71211,  23: 0.45643
    49 |      |   1:-0.36509,   8: -0.5356,   9: 0.45938,  10: 0.36064,  11: 0.14879,  12:-0.62823,  13: 0.83458,  14:0.062596, 
                 15:-0.17193,  21:-0.69954,  22:-0.64142,  23:-0.58898
    50 |      |   1: -0.3106,  16: -1.1468,  17: 0.50285,  18:  0.1403
    51 |      |   1: 0.61588,  16:-0.00033202,  17: 0.26696,  18:-0.30242
    52 |      |   1: 0.41625,  16:-0.82816,  17:-0.44471,  18: 0.17143
    53 |      |   1:-0.09218,  16:-0.21918,  17:-0.56615,  18: 0.75673
    54 |      |   1:-0.94697,  16:-0.30234,  17:-0.81182,  18:-0.73868
    55 |      |   1: 0.34428,  16:  0.2114,  17:-0.21427,  18: 0.77095
    56 |      |   1: 0.89146,  19:-0.56437,  20:  0.8986
    57 |      |   1: 0.73935,  19: 0.01305,  20:0.012539
    58 |      |   1:-0.64239,  19: 0.23725,  20:-0.014738
    59 |      |   1: 0.48318,  19:  0.6803,  20: -0.2166
    60 |      |  24:-0.33808,  25: 0.87941,  26: 0.64683,  27: -0.3663,  28: -0.7553,  29:  1.4222,  30:-0.13488,  31:-0.37279, 
                 32:-0.82259,  33: 0.46309,  34:-0.99455,  35:  0.3064,  36:-0.34023,  37: 0.83678,  38:-0.055183,  39:-0.34379, 
                 40:-0.80453,  41:-0.21511,  42:  1.0849,  43: 0.79149,  44: 0.79436,  45:-0.32026,  46:-0.61844,  47:-0.80198, 
                 48:-0.96535,  49: 0.73803,  50: 0.90039,  51: 0.56435,  52: 0.35605,  53:-0.15738,  54: -0.4144,  55: 0.94521, 
                 56:-0.48741,  57:-0.77063,  58:-0.96423,  59: -0.2224
    61 |      |  24: 0.13088,  25: 0.61801,  26:  0.9816,  27:-0.16528,  28: 0.71207,  29: 0.24174,  30:   0.494,  31: 0.51123, 
                 32:-0.98047,  33: -0.9023,  34: 0.56237,  35:-0.33667,  36: 0.95678,  37:  0.3942,  38:-0.64936,  39:-0.40026, 
                 40: 0.92811,  41:-0.50221,  42:-0.29819,  43: 0.53787,  44:-0.66875,  45:-0.83524,  46:-0.22798,  47: 0.13053, 
                 48:-0.28882,  49:-0.34059,  50: 0.38693,  51:-0.074031,  52:-0.27007,  53:-0.81055,  54:-0.18516,  55: 0.76097, 
                 56: 0.82694,  57:-0.26898,  58:-0.43923,  59: 0.48834
    62 |      |  24:-0.91933,  25: 0.14013,  26:   1.077,  27: -1.4527,  28: 0.14835,  29:-0.94216,  30:-0.52619,  31:    1.32, 
                 32:-0.10629,  33: 0.19836,  34:  1.0758,  35: 0.43279,  36:  0.4851,  37: 0.71287,  38: 0.98844,  39: 0.49068, 
                 40:-0.72756,  41:-0.20628,  42:-0.92976,  43:-0.29466,  44:-0.48713,  45: 0.25229,  46: 0.66397,  47:-0.48154, 
                 48: 0.82712,  49: 0.15044,  50:-0.96212,  51:-0.38852,  52: 0.74304,  53: 0.74192,  54:-0.41402,  55:  1.0345, 
                 56:-0.49924,  57:-0.47961,  58:  1.1172,  59: 0.20331
    63 |      |  24:-0.94846,  25:-0.14558,  26: 0.90302,  27:-0.44387,  28: 0.16534,  29:-0.21962,  30:-0.50704,  31:-0.68945, 
                 32:-0.15406,  33:  1.0183,  34:-0.54052,  35: 0.67377,  36:   1.107,  37:0.031139,  38: 0.77033,  39:0.061062, 
                 40:-0.63447,  41:-0.96801,  42:-0.24565,  43: 0.63372,  44:-0.84236,  45: 0.67118,  46: 0.41224,  47: 0.69696, 
                 48:-0.77926,  49:-0.048659,  50:-0.75666,  51:-0.47034,  52:0.041335,  53: 0.37165,  54:  0.5835,  55: 0.19812, 
                 56:-0.73194,  57: 0.43015,  58:  1.0976,  59: 0.32271
    64 |      |  24:-0.75468,  25: 0.50288,  26: 0.54605,  27:    1.06,  28: 0.63626,  29: 0.34157,  30: 0.90356,  31:-0.38475, 
                 32:0.024168,  33:-0.04437,  34:0.011937,  35: 0.09382,  36: 0.98266,  37:-0.41636,  38: 0.25064,  39: 0.60843, 
                 40: 0.81689,  41:-0.079961,  42: 0.75349,  43:-0.19948,  44: 0.18826,  45:-0.75501,  46: 0.81682,  47:-0.50354, 
                 48: 0.72077,  49:-0.025552,  50:-0.20071,  51: 0.11087,  52:-0.043471,  53:-0.94075,  54: 0.72056,  55:  0.2305, 
                 56: 0.52049,  57: 0.28588,  58: 0.17114,  59: 0.13575
    65 |      |  24: 0.16174,  25: 0.89851,  26: 0.69683,  27: -1.4015,  28: 0.39168,  29:-0.92338,  30:-0.47266,  31: 0.73353, 
                 32: 0.72035,  33:  1.2227,  34: 0.57549,  35:-0.24251,  36: 0.56459,  37:-0.53662,  38:   1.137,  39: 0.80047, 
                 40: 0.76489,  41:-0.90964,  42:0.071592,  43:-0.17115,  44: 0.30004,  45:-0.31749,  46:  1.0046,  47:0.045351, 
                 48: -0.6796,  49:-0.14199,  50:-0.38523,  51: 0.54847,  52:-0.74082,  53:  0.9763,  54:-0.87296,  55:  0.5803, 
                 56: 0.57675,  57: 0.68092,  58: 0.64218,  59:-0.38929
    66 |      |  24: 0.50549,  25:   1.262,  26: 0.83762,  27: 0.78397,  28:-0.31225,  29: 0.49982,  30:-0.49492,  31:-0.16451, 
                 32:-0.39277,  33: -0.9553,  34:-0.14479,  35:-0.097516,  36: 0.71828,  37: 0.97975,  38:  1.0437,  39:-0.61658, 
                 40: 0.69001,  41: 0.14482,  42:-0.076453,  43:-0.37227,  44: 0.83671,  45:-0.77489,  46:-0.23016,  47: 0.54895, 
                 48:-0.79441,  49:-0.72518,  50:0.064435,  51:  0.8179,  52: 0.76063,  53: 0.60583,  54:  1.0217,  55: 0.34122, 
                 56: 0.58959,  57: 0.90801,  58:-0.50384,  59:-0.69372
    67 |      |  24: 0.29544,  25: 0.49411,  26:0.039414,  27: 0.63758,  28:-0.42914,  29: 0.74139,  30:  0.6278,  31:-0.55832, 
                 32: 0.76126,  33:  1.0432,  34:-0.84353,  35:-0.11268,  36:-0.38554,  37:-0.14072,  38:-0.39723,  39: -0.1969, 
                 40: 0.72978,  41:-0.95215,  42: 0.05849,  43: -1.0014,  44: 0.15281,  45:-0.049785,  46: 0.71814,  47:-0.37094, 
                 48:-0.048663,  49:-0.021751,  50: -0.9982,  51:-0.13381,  52:   0.526,  53:-0.58212,  54: 0.40559,  55:-0.11666, 
                 56: 0.90396,  57:-0.49686,  58:-0.38153,  59:-0.46878
    68 |      |  24: -0.8126,  25:-0.17663,  26:-0.73463,  27: -1.2273,  28: 0.44504,  29:-0.42027,  30:0.024794,  31:  1.1377, 
                 32: 0.69463,  33: 0.94962,  34: 0.90595,  35: 0.88434,  36:-0.15569,  37: 0.88263,  38: 0.16552,  39: 0.77709, 
                 40: 0.52854,  41: 0.62366,  42:-0.49031,  43:-0.42086,  44: 0.78446,  45: 0.77473,  46:-0.76176,  47:-0.72373, 
                 48: 0.18472,  49:-0.037592,  50:-0.77259,  51: 0.68156,  52: 0.72911,  53: -0.1399,  54:-0.88133,  55:-0.91234, 
                 56: 0.66751,  57:-0.63086,  58:-0.69836,  59:-0.011977
    69 |      |  24: 0.20763,  25:0.012116,  26: 0.31698,  27:-0.07617,  28:-0.30683,  29: 0.33319,  30: 0.61948,  31:-0.40908, 
                 32:-0.67779,  33: 0.47743,  34:-0.83108,  35:-0.88848,  36:-0.62669,  37:-0.14925,  38: 0.95434,  39:-0.85883, 
                 40: 0.14961,  41:-0.67484,  42: 0.38806,  43:-0.72643,  44:-0.31179,  45: 0.09634,  46:-0.96459,  47: 0.51662, 
                 48: 0.15358,  49:-0.87951,  50: 0.27768,  51: 0.56929,  52:-0.61034,  53:-0.78995,  54:0.028795,  55:  0.5252, 
                 56: 0.17105,  57:-0.67122,  58:-0.65959,  59: 0.86748
    70 |      |  60: -1.7883,  61:-0.43239,  62:  2.2943,  63:  1.1978,  64:-0.42897,  65:   1.823,  66:  -2.169,  67:-0.041887, 
                 68:   1.258,  69:-0.81926
-------|------|----------------------------------------------------------------------------------------------------------------
