SNNS network definition file V1.4-3D
generated at Thu May 09 10:11:49 1996

network name : edge_23
source files :
no. of units : 70
no. of connections : 622
no. of unit types : 0
no. of site types : 0


learning function : Std_Backpropagation
update function : Topological_Order


unit default section :

act      | bias     | st | subnet | layer | act func     | out func
---------|----------|----|--------|-------|--------------|-------------
 0.00000 |  0.00000 | h  |      0 |     1 | Act_Logistic | Out_Identity
---------|----------|----|--------|-------|--------------|-------------


unit definition section :

no. | typeName | unitName | act      | bias     | st | position | act func | out func | sites
----|----------|----------|----------|----------|----|----------|----------|----------|-------
  1 |          |           |        0 |        0 | i  |  2, 1, 0 |||
  2 |          |           |   18.664 |        0 | i  |  2, 3, 0 |||
  3 |          |           |   16.167 |        0 | i  |  2, 4, 0 |||
  4 |          |           |   15.765 |        0 | i  |  2, 5, 0 |||
  5 |          |           |   5.2676 |        0 | i  |  2, 7, 0 |||
  6 |          |           |       11 |        0 | i  |  2, 8, 0 |||
  7 |          |           |   18.311 |        0 | i  |  2, 9, 0 |||
  8 |          |           |   22.157 |        0 | i  |  2,11, 0 |||
  9 |          |           |  -0.6583 |        0 | i  |  2,12, 0 |||
 10 |          |           |  -2.7529 |        0 | i  |  2,13, 0 |||
 11 |          |           | -0.044226 |        0 | i  |  2,14, 0 |||
 12 |          |           | -0.37208 |        0 | i  |  2,15, 0 |||
 13 |          |           |  -1.0391 |        0 | i  |  2,16, 0 |||
 14 |          |           |   7.5833 |        0 | i  |  2,17, 0 |||
 15 |          |           | -0.31504 |        0 | i  |  2,18, 0 |||
 16 |          |           | -0.66158 |        0 | i  |  2,23, 0 |||
 17 |          |           |   2.2428 |        0 | i  |  2,24, 0 |||
 18 |          |           | -0.14175 |        0 | i  |  2,25, 0 |||
 19 |          |           |   7.2668 |        0 | i  |  2,27, 0 |||
 20 |          |           | -0.24971 |        0 | i  |  2,28, 0 |||
 21 |          |           |   8.6117 |        0 | i  |  2,19, 0 |||
 22 |          |           |   6.3228 |        0 | i  |  2,20, 0 |||
 23 |          |           |  0.68959 |        0 | i  |  2,21, 0 |||
 24 |          |           |        1 |  0.91176 | h  |  7, 3, 0 |||
 25 |          |           | 2.2713e-10 | -0.21446 | h  |  8, 3, 0 |||
 26 |          |           |        1 |  0.35868 | h  |  7, 4, 0 |||
 27 |          |           | 0.00036734 |  0.40426 | h  |  8, 4, 0 |||
 28 |          |           |        1 |  -1.1304 | h  |  7, 5, 0 |||
 29 |          |           | 0.0022912 |   1.2836 | h  |  8, 5, 0 |||
 30 |          |           | 9.7177e-06 |  0.06614 | h  |  7, 7, 0 |||
 31 |          |           |        1 |  -0.9366 | h  |  8, 7, 0 |||
 32 |          |           |  0.99959 |  -1.2983 | h  |  7, 8, 0 |||
 33 |          |           |  0.99866 | -0.78229 | h  |  8, 8, 0 |||
 34 |          |           |  0.89962 | 0.023321 | h  |  7, 9, 0 |||
 35 |          |           | 4.2115e-12 | -0.90953 | h  |  8, 9, 0 |||
 36 |          |           |  0.99999 | -0.10055 | h  |  7,11, 0 |||
 37 |          |           | 9.5716e-08 |  0.93746 | h  |  8,11, 0 |||
 38 |          |           | 4.0686e-14 | -0.76803 | h  |  7,12, 0 |||
 39 |          |           | 8.0663e-05 | 0.089917 | h  |  8,12, 0 |||
 40 |          |           | 2.0113e-05 | -0.51147 | h  |  7,13, 0 |||
 41 |          |           | 0.030002 | 0.047525 | h  |  8,13, 0 |||
 42 |          |           | 1.7038e-13 |  0.23331 | h  |  7,14, 0 |||
 43 |          |           |        1 |  0.46747 | h  |  8,14, 0 |||
 44 |          |           | 8.082e-05 |  0.99671 | h  |  7,15, 0 |||
 45 |          |           |  0.99939 |  0.84499 | h  |  8,15, 0 |||
 46 |          |           |  0.31944 | -0.34268 | h  |  7,16, 0 |||
 47 |          |           | 2.5079e-06 | -0.093496 | h  |  8,16, 0 |||
 48 |          |           |  0.99996 |  0.10153 | h  |  7,17, 0 |||
 49 |          |           | 7.959e-12 | -0.15441 | h  |  8,17, 0 |||
 50 |          |           |  0.79362 |  0.22074 | h  |  7,22, 0 |||
 51 |          |           |    0.511 | -0.56119 | h  |  8,22, 0 |||
 52 |          |           |  0.47973 |  0.49958 | h  |  7,23, 0 |||
 53 |          |           |  0.25324 | 0.040254 | h  |  8,23, 0 |||
 54 |          |           |  0.15384 | -0.32104 | h  |  7,24, 0 |||
 55 |          |           |  0.53183 |  0.68276 | h  |  8,24, 0 |||
 56 |          |           | 0.0060788 |  0.18643 | h  |  7,26, 0 |||
 57 |          |           |  0.50941 | -0.34417 | h  |  8,26, 0 |||
 58 |          |           |  0.98609 |  0.74318 | h  |  7,27, 0 |||
 59 |          |           |  0.99456 |  0.08213 | h  |  8,27, 0 |||
 60 |          |           |  0.21516 |   1.0165 | h  | 13,12, 0 |||
 61 |          |           |  0.92836 |  0.93787 | h  | 14,12, 0 |||
 62 |          |           |  0.99735 |  0.13581 | h  | 13,13, 0 |||
 63 |          |           |  0.97159 | -0.23691 | h  | 14,13, 0 |||
 64 |          |           |  0.71492 | -0.46922 | h  | 13,14, 0 |||
 65 |          |           |  0.98637 | -0.67641 | h  | 14,14, 0 |||
 66 |          |           | 0.059556 | -0.56607 | h  | 13,15, 0 |||
 67 |          |           | 0.014387 | -0.70827 | h  | 14,15, 0 |||
 68 |          |           |  0.81358 |  0.42552 | h  | 13,16, 0 |||
 69 |          |           |  0.16053 |  0.57298 | h  | 14,16, 0 |||
 70 |          |           |  0.99194 | -0.28515 | o  | 18,14, 0 |||
----|----------|----------|----------|----------|----|----------|----------|----------|-------


connection definition section :

target | site | source:weight
-------|------|------------------------------------------------------------------------------------------------------------
    24 |      |   1: 0.84799,   2:  1.2249,   3: 0.73667,   4:  0.8115
    25 |      |   1:  0.7157,   2:-0.76481,   3: 0.34438,   4:-0.84263
    26 |      |   1:-0.090021,   2: 0.25061,   3: 0.77704,   4: 0.37993
    27 |      |   1: 0.84503,   2: 0.46041,   3:-0.85869,   4:-0.19183
    28 |      |   1: 0.68797,   2:  0.2269,   3: 0.63401,   4: 0.67388
    29 |      |   1:-0.70699,   2: -0.5792,   3: -0.4625,   4: 0.69315
    30 |      |   1:-0.12988,   5: 0.25413,   6:-0.55329,   7:-0.37464
    31 |      |   1:-0.33789,   5:-0.76911,   6: 0.98159,   7: 0.46328
    32 |      |   1: 0.70833,   5:-0.38787,   6:-0.077429,   7: 0.65497
    33 |      |   1: 0.58955,   5:   0.119,   6:  1.3603,   7:-0.44743
    34 |      |   1:-0.44044,   5: 0.63518,   6:  1.1038,   7:-0.72732
    35 |      |   1: 0.84768,   5:-0.81473,   6: -0.2506,   7:-0.99585
    36 |      |   1:-0.69256,   8: 0.40729,   9: 0.80485,  10:-0.81716,  11: 0.65355,  12:-0.47424,  13:-0.50322,  14:  1.0514, 
                 15: 0.82793,  21:-0.25131,  22:-0.93124,  23: 0.73734
    37 |      |   1: -0.6999,   8:  -0.724,   9:  0.1708,  10: 0.72612,  11: 0.71329,  12:-0.20096,  13:-0.81886,  14: 0.61749, 
                 15: 0.29567,  21:-0.84202,  22: 0.35364,  23: 0.84925
    38 |      |   1: 0.24974,   8: -0.8193,   9:-0.21221,  10: 0.51466,  11:0.044785,  12:-0.12878,  13:-0.55414,  14:-0.48339, 
                 15: 0.33011,  21:-0.48838,  22:-0.62086,  23: 0.93516
    39 |      |   1: -0.8907,   8:-0.76711,   9:-0.25493,  10:  0.5411,  11: 0.69681,  12: 0.10009,  13: 0.81277,  14:-0.34951, 
                 15: 0.02969,  21: 0.89547,  22:  0.7182,  23: 0.17921
    40 |      |   1:-0.086486,   8:0.075819,   9:-0.38307,  10:-0.21592,  11:-0.28331,  12: 0.87343,  13:  0.3283,  14: 0.34573, 
                 15: 0.55381,  21:-0.96705,  22:-0.92345,  23: -0.6614
    41 |      |   1:0.026841,   8: 0.10538,   9:-0.053544,  10:-0.24792,  11:-0.00022145,  12: 0.30675,  13: 0.24249,  14: 0.45375, 
                 15:-0.59559,  21:-0.65802,  22:-0.60557,  23:-0.49753
    42 |      |   1: 0.11668,   8:-0.86822,   9:-0.69846,  10:   1.118,  11: 0.12329,  12: 0.32441,  13: 0.11008,  14: -0.8953, 
                 15: -1.2127,  21: 0.40983,  22:-0.80888,  23: 0.65839
    43 |      |   1: 0.71704,   8: 0.81448,   9:-0.038353,  10:-0.92831,  11:-0.75806,  12: 0.93638,  13:-0.18487,  14: 0.31005, 
                 15:-0.33287,  21: 0.98929,  22:-0.28584,  23: 0.76578
    44 |      |   1: 0.58341,   8: -1.0259,   9: 0.55191,  10:-0.94323,  11: 0.32854,  12:-0.51971,  13:-0.68421,  14: 0.44804, 
                 15:-0.82437,  21: 0.40653,  22: 0.27834,  23: 0.39039
    45 |      |   1: 0.37482,   8: 0.17321,   9:-0.76782,  10:-0.033644,  11: -1.0528,  12:  1.1067,  13:-0.080406,  14: 0.42893, 
                 15: 0.84607,  21:-0.0031071,  22:-0.077613,  23:-0.096031
    46 |      |   1: 0.88071,   8:-0.16978,   9:-0.19963,  10: 0.59722,  11:  1.0871,  12:-0.83808,  13:  0.5785,  14: 0.90542, 
                 15:-0.47018,  21: 0.31626,  22:-0.70203,  23:-0.14604
    47 |      |   1:-0.051088,   8:-0.60195,   9:  0.7969,  10:-0.73061,  11:-0.50114,  12: 0.16287,  13: 0.73537,  14:-0.38762, 
                 15:-0.83574,  21:  0.6834,  22:-0.50674,  23:-0.22361
    48 |      |   1:-0.72861,   8: 0.57074,   9:-0.80948,  10:-0.12544,  11: 0.50852,  12:-0.83815,  13: 0.43833,  14:-0.53903, 
                 15: 0.79972,  21: 0.54381,  22:-0.65105,  23:  0.4683
    49 |      |   1:-0.36805,   8:-0.63918,   9:  0.4846,  10: 0.37653,  11:  0.2732,  12:-0.57464,  13: 0.74695,  14:0.075408, 
                 15:-0.13848,  21:-0.63671,  22:-0.63981,  23:-0.57527
    50 |      |   1:-0.32182,  16: -1.4317,  17:  0.1134,  18: 0.53139
    51 |      |   1: 0.66913,  16:-0.29653,  17: 0.16732,  18:-0.23802
    52 |      |   1: 0.42029,  16:-0.88162,  17:-0.50712,  18: 0.18772
    53 |      |   1:-0.13233,  16:0.0074839,  17:-0.46311,  18: 0.55078
    54 |      |   1:-0.91481,  16:-0.40736,  17:-0.76329,  18:-0.41347
    55 |      |   1:    0.33,  16: 0.16937,  17:-0.15123,  18: 0.73407
    56 |      |   1: 0.91315,  19:-0.70065,  20: 0.76795
    57 |      |   1:  0.7102,  19:0.045832,  20:-0.19528
    58 |      |   1:-0.76268,  19: 0.48988,  20: 0.16726
    59 |      |   1: 0.49756,  19: 0.69863,  20:-0.19962
    60 |      |  24:-0.25938,  25: 0.71125,  26: 0.80515,  27:-0.54859,  28:-0.77605,  29:  1.3367,  30:0.090773,  31:-0.42855, 
                 32:-0.82716,  33: 0.42257,  34:-0.96659,  35: 0.19828,  36:-0.41513,  37: 0.83593,  38:-0.019227,  39:-0.07165, 
                 40:-0.94842,  41:-0.32779,  42:  1.1943,  43: 0.94615,  44: 0.94781,  45:-0.48121,  46:-0.28862,  47: -0.5895, 
                 48:-0.78833,  49: 0.74919,  50:  1.0487,  51: 0.53619,  52: 0.56886,  53:0.020434,  54:-0.31465,  55:    1.05, 
                 56:-0.42501,  57:-0.74136,  58:-0.90371,  59:-0.16392
    61 |      |  24: 0.11316,  25: 0.62061,  26: 0.96957,  27:-0.18386,  28: 0.71916,  29: 0.21075,  30: 0.53137,  31: 0.50866, 
                 32:-0.97781,  33:-0.86079,  34: 0.59794,  35:-0.32356,  36: 0.97964,  37: 0.43019,  38:-0.62111,  39:-0.37583, 
                 40: 0.89749,  41:-0.54874,  42: -0.3419,  43: 0.50968,  44:-0.64024,  45:-0.83387,  46:-0.23038,  47:   0.114, 
                 48:-0.26314,  49:-0.35139,  50: 0.38415,  51:-0.072265,  52:-0.27667,  53: -0.7998,  54:-0.18225,  55: 0.78589, 
                 56: 0.80102,  57:-0.25787,  58:-0.40732,  59: 0.51775
    62 |      |  24: -1.0476,  25: 0.21775,  26: 0.95888,  27: -1.4083,  28: 0.35253,  29:-0.99455,  30:-0.76652,  31:  1.4566, 
                 32:-0.12402,  33: 0.29507,  34:  1.1294,  35: 0.65803,  36: 0.96374,  37: 0.50242,  38: 0.84004,  39: 0.50463, 
                 40:-0.70214,  41:-0.13097,  42: -1.0774,  43:-0.16552,  44:-0.68554,  45: 0.50479,  46: 0.18134,  47:-0.54725, 
                 48: 0.83211,  49: 0.21934,  50: -1.1604,  51:-0.37806,  52: 0.47539,  53: 0.54283,  54:-0.43974,  55:  0.8897, 
                 56:-0.52268,  57:-0.54394,  58:  1.1406,  59: 0.20097
    63 |      |  24:-0.89608,  25:0.091465,  26:  0.9534,  27:-0.46163,  28: 0.43769,  29:-0.18715,  30:-0.73946,  31:-0.41723, 
                 32:-0.10439,  33:  1.1088,  34:-0.46626,  35: 0.79969,  36:  1.3411,  37:0.049185,  38: 0.86834,  39:0.063871, 
                 40: -0.5745,  41:-0.92687,  42:-0.16224,  43: 0.64322,  44:-0.86135,  45: 0.83869,  46: 0.23601,  47: 0.65786, 
                 48:-0.74716,  49:0.011549,  50:-0.89443,  51:-0.45087,  52:-0.090752,  53: 0.29907,  54:  0.6073,  55: 0.16703, 
                 56:-0.70524,  57: 0.41733,  58:  1.1573,  59: 0.36402
    64 |      |  24:-0.77082,  25: 0.49094,  26: 0.54408,  27:  1.0256,  28: 0.62613,  29: 0.32027,  30: 0.97584,  31:-0.36729, 
                 32:-0.0065724,  33:-0.017724,  34:0.011257,  35:  0.1058,  36: 0.98952,  37:-0.35987,  38: 0.27991,  39:   0.623, 
                 40: 0.85483,  41:-0.04337,  42: 0.75223,  43:-0.19609,  44: 0.22055,  45:-0.75006,  46: 0.82165,  47:-0.49684, 
                 48: 0.69916,  49:0.027028,  50: -0.1665,  51: 0.12076,  52:-0.035702,  53:-0.94228,  54: 0.70836,  55: 0.23377, 
                 56: 0.49326,  57: 0.30002,  58: 0.17294,  59: 0.13259
    65 |      |  24:0.031535,  25: 0.99185,  26: 0.54523,  27: -1.2101,  28: 0.39256,  29:-0.79811,  30:-0.80056,  31: 0.81374, 
                 32: 0.75303,  33:  1.1457,  34: 0.53781,  35:-0.092816,  36: 0.95838,  37:-0.67037,  38:  1.0257,  39: 0.69163, 
                 40: 0.84779,  41:-0.80077,  42: 0.20717,  43:-0.025515,  44: 0.23373,  45:-0.18229,  46: 0.75633,  47:0.041543, 
                 48:-0.57855,  49:-0.093989,  50:-0.50775,  51: 0.57141,  52:-0.91966,  53: 0.80551,  54: -0.8573,  55: 0.43621, 
                 56: 0.48939,  57: 0.62916,  58: 0.67987,  59:-0.34078
    66 |      |  24: 0.44935,  25: 0.94441,  26: 0.78187,  27: 0.46837,  28:-0.38445,  29:-0.046253,  30:-0.23107,  31:-0.17973, 
                 32: -0.5659,  33:-0.79383,  34:-0.16298,  35:-0.21703,  36: 0.73784,  37:  1.0519,  38:  1.0732,  39:-0.57048, 
                 40: 0.73739,  41: 0.19894,  42:-0.12691,  43: -0.4735,  44: 0.90245,  45:  -1.021,  46:-0.0024337,  47: 0.63278, 
                 48: -0.8668,  49:-0.58707,  50:0.067032,  51: 0.77888,  52: 0.71105,  53: 0.52849,  54: 0.93546,  55: 0.24219, 
                 56: 0.45865,  57: 0.86184,  58:-0.60541,  59:-0.78585
    67 |      |  24: 0.17156,  25: 0.55419,  26: -0.0714,  27: 0.64376,  28:-0.48387,  29: 0.75602,  30: 0.56951,  31:-0.57793, 
                 32:  0.7535,  33: 0.98325,  34:-0.91476,  35:-0.075396,  36:-0.33606,  37:-0.16332,  38:  -0.387,  39:-0.24379, 
                 40: 0.81714,  41:-0.89671,  42:0.021448,  43: -1.0506,  44: 0.11287,  45:-0.050307,  46: 0.65701,  47:-0.35708, 
                 48:-0.098854,  49:0.021898,  50: -1.0596,  51:-0.15778,  52: 0.45361,  53:-0.61798,  54: 0.37897,  55: -0.1512, 
                 56: 0.90704,  57:-0.52045,  58:-0.44043,  59:-0.54491
    68 |      |  24:-0.84813,  25:-0.11046,  26:-0.75864,  27: -1.1134,  28: 0.51896,  29:-0.32992,  30:-0.21803,  31:  1.1765, 
                 32: 0.69765,  33: 0.91786,  34: 0.94094,  35: 0.92493,  36:-0.081308,  37: 0.75943,  38: 0.14833,  39: 0.77283, 
                 40: 0.53105,  41: 0.69502,  42:-0.29722,  43:-0.33423,  44: 0.66776,  45: 0.79367,  46: -0.8553,  47:-0.79838, 
                 48: 0.16389,  49:0.039464,  50:-0.81892,  51: 0.67888,  52: 0.70182,  53:-0.19783,  54: -0.8576,  55: -1.0089, 
                 56: 0.70079,  57:-0.67009,  58:-0.74019,  59:-0.037659
    69 |      |  24:  0.2746,  25:-0.060582,  26: 0.39466,  27:0.0030765,  28:-0.43212,  29: 0.40613,  30: 0.70236,  31:-0.42473, 
                 32:-0.61994,  33: 0.44523,  34:-0.85199,  35:-0.92481,  36:-0.69441,  37:-0.01056,  38:  1.0012,  39:-0.81231, 
                 40: 0.24008,  41:-0.58803,  42:  0.4755,  43:-0.72379,  44:-0.25452,  45:0.040597,  46:-0.83642,  47: 0.55673, 
                 48: 0.11395,  49:-0.73141,  50: 0.40335,  51: 0.61045,  52:-0.49398,  53:-0.72072,  54:0.024136,  55: 0.58761, 
                 56: 0.20451,  57:-0.61436,  58:-0.65672,  59:  0.8848
    70 |      |  60:  -2.104,  61:-0.24177,  62:  2.3172,  63:  1.3746,  64:-0.45947,  65:  1.6258,  66: -1.7265,  67: 0.19216, 
                 68:  1.3572,  69: -0.9404
-------|------|----------------------------------------------------------------------------------------------------------------
