SNNS network definition file V1.4-3D
generated at Thu May 09 10:11:49 1996

network name : edge_23
source files :
no. of units : 70
no. of connections : 622
no. of unit types : 0
no. of site types : 0


learning function : Std_Backpropagation
update function : Topological_Order


unit default section :

act      | bias     | st | subnet | layer | act func     | out func
---------|----------|----|--------|-------|--------------|-------------
 0.00000 |  0.00000 | h  |      0 |     1 | Act_Logistic | Out_Identity
---------|----------|----|--------|-------|--------------|-------------


unit definition section :

no. | typeName | unitName | act      | bias     | st | position | act func | out func | sites
----|----------|----------|----------|----------|----|----------|----------|----------|-------
  1 |          |           |        0 |        0 | i  |  2, 1, 0 |||
  2 |          |           |        0 |        0 | i  |  2, 3, 0 |||
  3 |          |           |        0 |        0 | i  |  2, 4, 0 |||
  4 |          |           |        0 |        0 | i  |  2, 5, 0 |||
  5 |          |           |        0 |        0 | i  |  2, 7, 0 |||
  6 |          |           |        0 |        0 | i  |  2, 8, 0 |||
  7 |          |           |        0 |        0 | i  |  2, 9, 0 |||
  8 |          |           |        0 |        0 | i  |  2,11, 0 |||
  9 |          |           |        0 |        0 | i  |  2,12, 0 |||
 10 |          |           |        0 |        0 | i  |  2,13, 0 |||
 11 |          |           |        0 |        0 | i  |  2,14, 0 |||
 12 |          |           |        0 |        0 | i  |  2,15, 0 |||
 13 |          |           |        0 |        0 | i  |  2,16, 0 |||
 14 |          |           |        0 |        0 | i  |  2,17, 0 |||
 15 |          |           |        0 |        0 | i  |  2,18, 0 |||
 16 |          |           |        0 |        0 | i  |  2,23, 0 |||
 17 |          |           |        0 |        0 | i  |  2,24, 0 |||
 18 |          |           |        0 |        0 | i  |  2,25, 0 |||
 19 |          |           |        0 |        0 | i  |  2,27, 0 |||
 20 |          |           |        0 |        0 | i  |  2,28, 0 |||
 21 |          |           |        0 |        0 | i  |  2,19, 0 |||
 22 |          |           |        0 |        0 | i  |  2,20, 0 |||
 23 |          |           |        0 |        0 | i  |  2,21, 0 |||
 24 |          |           |        0 |  0.46864 | h  |  7, 3, 0 |||
 25 |          |           |        0 | -0.10734 | h  |  8, 3, 0 |||
 26 |          |           |        0 |  0.36661 | h  |  7, 4, 0 |||
 27 |          |           |        0 |  0.87502 | h  |  8, 4, 0 |||
 28 |          |           |        0 | -0.82749 | h  |  7, 5, 0 |||
 29 |          |           |        0 |   1.3507 | h  |  8, 5, 0 |||
 30 |          |           |        0 |  0.37937 | h  |  7, 7, 0 |||
 31 |          |           |        0 |  -1.0116 | h  |  8, 7, 0 |||
 32 |          |           |        0 |  -1.3651 | h  |  7, 8, 0 |||
 33 |          |           |        0 |  -1.3457 | h  |  8, 8, 0 |||
 34 |          |           |        0 |  0.15193 | h  |  7, 9, 0 |||
 35 |          |           |        0 | -0.75512 | h  |  8, 9, 0 |||
 36 |          |           |        0 | -0.0081928 | h  |  7,11, 0 |||
 37 |          |           |        0 |   1.1735 | h  |  8,11, 0 |||
 38 |          |           |        0 |  -1.0701 | h  |  7,12, 0 |||
 39 |          |           |        0 | 0.056694 | h  |  8,12, 0 |||
 40 |          |           |        0 | -0.54058 | h  |  7,13, 0 |||
 41 |          |           |        0 |  0.65282 | h  |  8,13, 0 |||
 42 |          |           |        0 | -0.086079 | h  |  7,14, 0 |||
 43 |          |           |        0 |  0.34189 | h  |  8,14, 0 |||
 44 |          |           |        0 |   1.1862 | h  |  7,15, 0 |||
 45 |          |           |        0 |  0.90502 | h  |  8,15, 0 |||
 46 |          |           |        0 | -0.43674 | h  |  7,16, 0 |||
 47 |          |           |        0 | -0.17416 | h  |  8,16, 0 |||
 48 |          |           |        0 |  0.11354 | h  |  7,17, 0 |||
 49 |          |           |        0 | -0.16672 | h  |  8,17, 0 |||
 50 |          |           |        0 |  0.63497 | h  |  7,22, 0 |||
 51 |          |           |        0 | -0.50997 | h  |  8,22, 0 |||
 52 |          |           |        0 |  0.58999 | h  |  7,23, 0 |||
 53 |          |           |        0 | -0.06889 | h  |  8,23, 0 |||
 54 |          |           |        0 | -0.044526 | h  |  7,24, 0 |||
 55 |          |           |        0 |  0.66533 | h  |  8,24, 0 |||
 56 |          |           |        0 |  0.27738 | h  |  7,26, 0 |||
 57 |          |           |        0 | -0.50524 | h  |  8,26, 0 |||
 58 |          |           |        0 |  0.42142 | h  |  7,27, 0 |||
 59 |          |           |        0 | 0.051836 | h  |  8,27, 0 |||
 60 |          |           |        0 |   1.0457 | h  | 13,12, 0 |||
 61 |          |           |        0 |  0.90865 | h  | 14,12, 0 |||
 62 |          |           |        0 | -0.021109 | h  | 13,13, 0 |||
 63 |          |           |        0 | -0.34366 | h  | 14,13, 0 |||
 64 |          |           |        0 | -0.46696 | h  | 13,14, 0 |||
 65 |          |           |        0 |  -0.7394 | h  | 14,14, 0 |||
 66 |          |           |        0 | -0.55059 | h  | 13,15, 0 |||
 67 |          |           |        0 | -0.70233 | h  | 14,15, 0 |||
 68 |          |           |        0 |  0.57207 | h  | 13,16, 0 |||
 69 |          |           |        0 |  0.48515 | h  | 14,16, 0 |||
 70 |          |           |        0 | -0.33003 | o  | 18,14, 0 |||
----|----------|----------|----------|----------|----|----------|----------|----------|-------


connection definition section :

target | site | source:weight
-------|------|------------------------------------------------------------------------------------------------------------
    24 |      |   1: 0.84793,   2: 0.89451,   3: 0.92567,   4: 0.77256
    25 |      |   1: 0.71446,   2:-0.93444,   3: 0.42953,   4:-0.54922
    26 |      |   1:-0.089772,   2: 0.40397,   3: 0.62949,   4: 0.19284
    27 |      |   1:  0.7988,   2: 0.77003,   3: -1.0774,   4: 0.29031
    28 |      |   1: 0.68839,   2: 0.61713,   3: 0.66366,   4: 0.55393
    29 |      |   1:-0.70526,   2:0.088405,   3: -0.7488,   4: 0.52196
    30 |      |   1:-0.22306,   5: 0.53508,   6:-0.03728,   7: -0.7079
    31 |      |   1:-0.30342,   5:-0.22997,   6: 0.16238,   7: 0.64614
    32 |      |   1: 0.73266,   5:-0.79492,   6:-0.55423,   7: 0.76888
    33 |      |   1: 0.55214,   5:-0.56635,   6: 0.98255,   7:-0.86811
    34 |      |   1:-0.37584,   5: 0.74719,   6: 0.94796,   7:-0.32744
    35 |      |   1: 0.88517,   5:-0.27689,   6:-0.50256,   7:-0.66008
    36 |      |   1:-0.61537,   8: 0.29062,   9: 0.54943,  10:-0.99217,  11:  0.6564,  12:-0.73127,  13:-0.13529,  14: 0.74305, 
                 15: 0.57169,  21:-0.57183,  22:-0.69445,  23: 0.49484
    37 |      |   1:-0.71695,   8:-0.40286,   9:-0.23532,  10:  1.4017,  11: 0.39236,  12:-0.80272,  13:-0.81314,  14:  0.8118, 
                 15:  0.3514,  21:-0.68297,  22:-0.24449,  23:  1.2645
    38 |      |   1: 0.27418,   8:-0.74776,   9:-0.20973,  10: 0.25353,  11:-0.18221,  12:-0.10112,  13:-0.91987,  14:-0.72501, 
                 15: 0.49556,  21:-0.45552,  22: -0.2488,  23:  1.0204
    39 |      |   1:-0.83096,   8: -1.0813,   9:-0.13152,  10: 0.19581,  11:  0.9434,  12:-0.34601,  13: 0.77753,  14:-0.39074, 
                 15:-0.099545,  21: 0.47806,  22: 0.53601,  23: 0.15176
    40 |      |   1:-0.087436,   8: 0.11925,   9:-0.34309,  10:-0.22656,  11:-0.33635,  12:  1.0454,  13: 0.21648,  14: 0.15575, 
                 15: 0.79549,  21:-0.73635,  22:-0.91449,  23:-0.50802
    41 |      |   1:-0.023941,   8:0.095548,   9:-0.36076,  10:0.033508,  11: 0.32666,  12: 0.18361,  13: 0.35494,  14: 0.93353, 
                 15:-0.61964,  21:-0.32002,  22:-0.26459,  23:-0.43793
    42 |      |   1: 0.01047,   8:-0.77197,   9:-0.48868,  10: 0.83134,  11: 0.39479,  12: 0.30674,  13:0.087866,  14:-0.92084, 
                 15:-0.80855,  21: 0.67697,  22:-0.97235,  23: 0.43604
    43 |      |   1: 0.71338,   8: 0.78325,   9:-0.064525,  10:-0.91518,  11:-0.86492,  12: 0.87379,  13:-0.067133,  14: 0.29758, 
                 15:-0.23607,  21: 0.89256,  22:-0.27594,  23: 0.77093
    44 |      |   1: 0.47509,   8: -0.5925,   9: 0.34702,  10:-0.89422,  11:0.028331,  12:-0.83133,  13:-0.39648,  14:  0.6942, 
                 15:-0.53956,  21:  0.8998,  22: 0.22324,  23: 0.64807
    45 |      |   1: 0.39702,   8:0.090435,   9:-0.73606,  10: 0.12415,  11:-0.89576,  12:  1.1127,  13:-0.41784,  14: 0.19749, 
                 15: 0.79547,  21:-0.51137,  22: 0.28469,  23:-0.22706
    46 |      |   1: 0.90539,   8:-0.69652,   9:-0.04941,  10: 0.72627,  11: 0.85011,  12:-0.76568,  13: 0.87353,  14: 0.38389, 
                 15:-0.46985,  21: 0.21394,  22:-0.45763,  23:-0.68279
    47 |      |   1:-0.058321,   8:-0.57262,   9:   1.052,  10:-0.55947,  11:-0.51422,  12: 0.60514,  13: 0.28727,  14:-0.34595, 
                 15:-0.56216,  21:  1.0114,  22:-0.36505,  23:0.037554
    48 |      |   1:-0.71087,   8: 0.16593,   9: -0.5644,  10:0.063689,  11: 0.46212,  12:-0.65948,  13: 0.56822,  14:-0.96963, 
                 15:  0.9329,  21: 0.29958,  22: -0.8255,  23: 0.58784
    49 |      |   1:-0.35931,   8:-0.41934,   9: 0.34141,  10: 0.34851,  11: 0.17947,  12:-0.70597,  13: 0.93698,  14: 0.06152, 
                 15: -0.2275,  21:-0.65852,  22:-0.58907,  23:-0.53912
    50 |      |   1:-0.31993,  16:-0.61124,  17: 0.16384,  18: 0.51189
    51 |      |   1: 0.61377,  16: 0.10217,  17:0.070849,  18:-0.39282
    52 |      |   1: 0.42023,  16:-0.71373,  17:-0.45418,  18: 0.19023
    53 |      |   1:-0.13699,  16:-0.77261,  17:-0.27666,  18: 0.31074
    54 |      |   1:-0.97062,  16:0.058593,  17:-0.77112,  18:-0.75815
    55 |      |   1: 0.32221,  16: 0.19627,  17:-0.25146,  18: 0.66332
    56 |      |   1: 0.90693,  19:-0.052811,  20:  1.2448
    57 |      |   1: 0.70021,  19:0.065548,  20:-0.59746
    58 |      |   1:-0.68071,  19:0.023147,  20: 0.25326
    59 |      |   1: 0.50522,  19: 0.69358,  20:-0.32537
    60 |      |  24:-0.45531,  25: 0.84892,  26: 0.68676,  27:-0.42433,  28: -0.6076,  29:  1.2947,  30:-0.004591,  31:-0.77927, 
                 32:-0.82521,  33: 0.38113,  34:-0.91132,  35: 0.66278,  36:-0.090102,  37: 0.94309,  38:0.011326,  39:-0.20232, 
                 40: -1.1291,  41:-0.31786,  42: 0.91201,  43: 0.75129,  44: 0.77666,  45:-0.42363,  46:-0.23707,  47: -1.0038, 
                 48:-0.49748,  49: 0.86279,  50: 0.84566,  51: 0.53924,  52: 0.45212,  53:-0.094485,  54:-0.23562,  55:  1.0412, 
                 56:-0.048486,  57: -1.2579,  58: -0.9557,  59:-0.065021
    61 |      |  24: 0.18127,  25: 0.58982,  26:  1.0444,  27:-0.022316,  28: 0.72014,  29: 0.33088,  30: 0.42741,  31: 0.33768, 
                 32:-0.93337,  33: -1.0176,  34: 0.50379,  35:-0.20295,  36:  1.0602,  37: 0.55476,  38:-0.65513,  39: -0.4944, 
                 40: 0.87368,  41:-0.46834,  42:-0.46909,  43: 0.43578,  44:-0.74142,  45:-0.78384,  46:-0.23591,  47:-0.10998, 
                 48:-0.22503,  49:-0.28166,  50: 0.37064,  51:-0.12131,  52:-0.28262,  53:-0.78692,  54:-0.21881,  55: 0.83519, 
                 56: 0.99891,  57:-0.44503,  58:-0.49723,  59: 0.53377
    62 |      |  24: -1.0408,  25:0.052218,  26:  0.7882,  27: -1.4109,  28:-0.23794,  29: -1.1213,  30:-0.52408,  31:  1.4738, 
                 32:-0.19132,  33: 0.36963,  34:  1.0656,  35: 0.13322,  36: 0.55766,  37: 0.48902,  38:  1.0512,  39: 0.41011, 
                 40:-0.76995,  41: -0.4025,  42:-0.91592,  43:-0.43937,  44:-0.78819,  45: 0.12655,  46: 0.14271,  47: -0.5607, 
                 48: 0.74516,  49:0.079578,  50:-0.78645,  51:-0.37603,  52: 0.74034,  53: 0.60521,  54:-0.59354,  55: 0.76738, 
                 56: -1.0666,  57:-0.11084,  58:  1.0434,  59:-0.10469
    63 |      |  24:-0.88471,  25:-0.012489,  26: 0.85339,  27:-0.43052,  28:0.070345,  29:-0.18275,  30:-0.65446,  31:-0.38368, 
                 32:-0.039893,  33:  1.0751,  34:-0.74279,  35: 0.53406,  36: 0.93567,  37:-0.14694,  38: 0.86898,  39:  0.3349, 
                 40:-0.66801,  41: -1.1688,  42:  0.1009,  43: 0.59669,  44:-0.69563,  45: 0.36382,  46: 0.13375,  47: 0.94771, 
                 48:-0.80726,  49:-0.16279,  50:-0.72422,  51:-0.43408,  52:0.059961,  53: 0.35315,  54: 0.54286,  55:0.073579, 
                 56:-0.93282,  57: 0.64099,  58:  1.1634,  59: 0.17091
    64 |      |  24:-0.77111,  25: 0.46649,  26: 0.54777,  27:  1.0191,  28: 0.66307,  29: 0.27564,  30: 0.97311,  31:-0.36865, 
                 32:-0.00036624,  33:0.016305,  34:0.053113,  35: 0.11299,  36:  1.0114,  37:-0.37574,  38: 0.26871,  39:  0.5756, 
                 40: 0.84679,  41:-0.048244,  42: 0.72986,  43: -0.1576,  44: 0.14606,  45: -0.6868,  46: 0.84106,  47:-0.54196, 
                 48: 0.71673,  49:-0.011307,  50:-0.17437,  51: 0.11493,  52:-0.034486,  53: -0.9548,  54: 0.73609,  55: 0.23753, 
                 56: 0.47674,  57: 0.29398,  58: 0.18071,  59: 0.15587
    65 |      |  24: 0.20488,  25: 0.87487,  26: 0.56656,  27: -1.4645,  28: 0.43039,  29: -1.1184,  30:-0.52154,  31:  1.3621, 
                 32: 0.68163,  33:  2.0493,  34: 0.70649,  35:-0.57142,  36: 0.57111,  37: -1.2737,  38:  1.4314,  39: 0.96923, 
                 40: 0.86232,  41: -1.4486,  42: 0.39786,  43:0.027829,  44: 0.30758,  45:-0.66839,  46:0.020162,  47: 0.70628, 
                 48:-0.25088,  49:-0.38907,  50:-0.20997,  51: 0.63972,  52: -0.5489,  53: 0.92628,  54:-0.79733,  55: 0.20728, 
                 56: 0.52987,  57: 0.61441,  58: 0.70636,  59:-0.67776
    66 |      |  24: 0.28947,  25: 0.99536,  26: 0.73044,  27: 0.58985,  28:-0.32504,  29:-0.033019,  30:-0.49473,  31:-0.38191, 
                 32:-0.45935,  33:  -1.026,  34: -0.1708,  35:0.042978,  36:  1.0409,  37:  1.1676,  38:  1.0943,  39:-0.91204, 
                 40: 0.64769,  41: 0.25009,  42:-0.54044,  43:-0.60929,  44: 0.45592,  45:-0.64366,  46:0.091178,  47:-0.10565, 
                 48: -0.8268,  49: -0.5845,  50:-0.045065,  51: 0.73712,  52: 0.59276,  53: 0.45598,  54: 0.92887,  55: 0.29474, 
                 56: 0.46291,  57: 0.75002,  58:-0.67538,  59: -0.5548
    67 |      |  24: 0.24497,  25: 0.49256,  26:-0.017288,  27:  0.6553,  28: -0.4939,  29: 0.76967,  30: 0.57138,  31:-0.52323, 
                 32: 0.77307,  33:  1.0332,  34:-0.91523,  35:-0.13955,  36:-0.43253,  37:-0.21057,  38:-0.37618,  39: -0.2053, 
                 40: 0.80573,  41:-0.94978,  42: 0.10065,  43:-0.98616,  44: 0.12211,  45:-0.047797,  46:  0.6276,  47:-0.31207, 
                 48:-0.099497,  49:-0.069244,  50:      -1,  51:-0.13956,  52: 0.52664,  53:-0.59874,  54: 0.40783,  55:-0.16999, 
                 56: 0.88885,  57:-0.49434,  58:-0.41764,  59:-0.53379
    68 |      |  24:-0.59637,  25:-0.11235,  26:-0.62343,  27:-0.96986,  28: 0.36962,  29:-0.10471,  30:0.075995,  31:  1.2751, 
                 32: 0.68421,  33: 0.99614,  34:  1.0105,  35: 0.76535,  36:-0.28653,  37: 0.62044,  38:-0.00083737,  39:  1.0186, 
                 40: 0.52436,  41: 0.63073,  42: 0.03574,  43:-0.073819,  44:  1.0814,  45: 0.58198,  46:-0.80152,  47:-0.37252, 
                 48:   0.334,  49:-0.06877,  50:-0.67185,  51: 0.75334,  52: 0.78321,  53:-0.15941,  54:-0.85367,  55:  -0.884, 
                 56: 0.71332,  57:-0.45799,  58:-0.54286,  59: 0.10618
    69 |      |  24: 0.12174,  25:-0.017502,  26: 0.28728,  27:-0.10372,  28:-0.33671,  29:  0.2879,  30: 0.65153,  31:-0.44932, 
                 32:-0.75681,  33: 0.61723,  34:-0.70609,  35:-0.87907,  36:-0.58658,  37:-0.091162,  38: 0.99642,  39: -1.0241, 
                 40: 0.18035,  41:-0.60543,  42: 0.28269,  43: -0.6746,  44:-0.43142,  45:  0.2515,  46:-0.91558,  47: 0.41057, 
                 48:0.062551,  49:-0.83777,  50: 0.28821,  51:   0.509,  52:-0.62816,  53:-0.78341,  54:-0.019712,  55: 0.57918, 
                 56: 0.22103,  57:-0.74989,  58:-0.71756,  59: 0.88087
    70 |      |  60: -2.1369,  61:-0.97482,  62:  1.8563,  63:  1.1317,  64: -0.3593,  65:  3.2296,  66: -1.6896,  67: 0.10503, 
                 68:  0.6109,  69:-0.85246
-------|------|----------------------------------------------------------------------------------------------------------------
