svm_type epsilon_svr
kernel_type rbf
gamma 0.00936711
nr_class 2
total_sv 266
rho -0.871439
SV
0.002257550635253346 1:0 2:11.956597 3:79.054622 4:3.1574089 5:8.1402391 6:1 7:3.1574089 8:4.553739 9:-0.68341644 10:2.1464753 11:-0.90418993 12:0.76212956 13:-1.2335098 14:3.1190027 15:0.30590531 16:-1.6083775 17:0.50049568 18:-0.14671347 19:10.067551 20:0.20002412 21:11.094388 22:-0.63960215 23:4.1552008 
0.01484795924292225 1:0 2:3.9183855 3:101.69382 4:3.1574089 5:8.3063241 6:1 7:3.1574089 8:2.5243201 9:-0.094100698 10:1.4180865 11:1.5240806 12:-0.16922357 13:4.8931275 14:0.34481468 15:0.70755373 16:0.195171 17:-1.0848468 18:0.34953663 19:11.045902 20:-0.24646989 21:17.880262 22:-0.63960215 23:5.772078 
0.009455300545266334 1:0 2:0.34642327 3:67.735023 4:0.43852901 5:6.1715802 6:2 7:0.43852901 8:-0.6173887 9:-0.68341644 10:0.11745835 11:-1.5518488 12:1.0902003 13:2.8140138 14:0.12007413 15:0.46423951 16:0.18552236 17:1.5715917 18:0.18266818 19:7.1324968 20:0.10972199 21:14.267876 22:4.6477756 23:4.1643354 
0.01182255899682451 1:0 2:8.0169348 3:5.4772256 4:0.43852901 5:11.693791 6:1 7:3.1574089 8:0.72905855 9:-0.21881529 10:1.1499588 11:0.45329733 12:-1.1438628 13:2.9257946 14:-1.0585452 15:0.40279326 16:-0.70554219 17:-0.0330239 18:-0.39736994 19:12.024253 20:1.8104126 21:18.538577 22:4.6477756 23:3.4563806 
0.02160152082019228 1:0 2:5.6719558 3:22.456625 4:5.8762887 5:2.1110613 6:2 7:5.8762887 8:5.7245686 9:-0.68341644 10:-2.4759785 11:0.28812178 12:0.7443805 13:5.1305921 14:6.894147 15:0.72263046 16:0.46549458 17:-5.7884598 18:-0.10499204 19:5.1757941 20:0.30537666 21:2.8399266 22:2.0040867 23:4.4840568 
0.01257825570920004 1:0 2:13.127194 3:39.436024 4:0.43852901 5:5.3558596 6:3 7:8.5951686 8:2.6023758 9:-0.68341644 10:0.125977 11:-1.5621301 12:0.85471793 13:4.9494306 14:6.9849868 15:0.83184096 16:1.6360916 17:-1.677297 18:-0.92917361 19:11.045902 20:0.37059483 21:13.828985 22:8.6133089 23:5.7583753 
-0.1154148063821464 1:0 2:-4.2164311 3:22.456625 4:-2.2803509 5:-0.64481801 6:0 7:-2.2803509 8:-1.378423 9:2.2109661 10:0.125977 11:0.21896521 12:0.85471793 13:-1.2335098 14:-1.0585452 15:-2.2424144 16:1.8855792 17:0.9204985 18:2.1625855 19:-0.69431384 20:-0.6929639 21:-0.65429409 22:-0.63960215 23:-0.74110557 
0.1016311672895007 1:0 2:6.2259754 3:50.755624 4:0.43852901 5:-0.95847481 6:0 7:0.43852901 8:-1.378423 9:2.2109661 10:0.125977 11:0.21896521 12:0.85471793 13:-1.2335098 14:-1.0585452 15:-2.2424144 16:1.8855792 17:0.9204985 18:2.1625855 19:3.2190915 20:1.4742881 21:3.7514591 22:-0.63960215 23:2.0084992 
0.01907899246042718 1:0 2:6.4197448 3:11.137025 4:3.1574089 5:11.822635 6:1 7:3.1574089 8:5.1781814 9:-0.68341644 10:-2.4784791 11:0.27367923 12:0.77949018 13:1.837734 14:0.93352692 15:0.22032412 16:-1.0346122 17:0.32024991 18:-0.32221392 19:7.1324968 20:1.4341536 21:22.235359 22:-0.63960215 23:6.0552598 
0.00257807010536519 1:0 2:1.244492 3:16.796825 4:8.5951686 5:2.7473744 6:1 7:3.1574089 8:3.9293153 9:-0.68341644 10:0.10368681 11:-1.5522404 12:1.0850276 13:0.41018593 14:3.2170545 15:0.35724018 16:-1.0704987 17:1.2932019 18:-0.30370755 19:6.1541454 20:0.32042701 21:6.6886274 22:-0.63960215 23:2.5474582 
-0.1635247165471481 1:0 2:-2.7094141 3:62.075223 4:5.8762887 5:3.2127542 6:2 7:5.8762887 8:0.18267051 9:-0.68341644 10:0.2464001 11:1.9889299 12:0.6315855 13:3.9340754 14:7.8499001 15:0.69566657 16:0.94288977 17:-6.2376609 18:0.1358205 19:2.2407401 20:2.7736357 21:4.9668388 22:-0.63960215 23:3.7943722 
0.4370289469778452 1:0 2:1.0808134 3:5.4772256 4:0.43852901 5:3.3952705 6:0 7:0.43852901 8:-0.67592942 9:-0.68341644 10:2.0032607 11:-1.0169364 12:0.83844221 13:-0.76428694 14:-0.090748911 15:0.24745777 16:-0.45658247 17:1.3303957 18:-0.60516069 19:1.2623888 20:0.1348059 21:0.71300953 22:0.68224229 23:0.012523636 
0.003450622282307203 1:0 2:5.5410462 3:67.735023 4:8.5951686 5:13.256241 6:1 7:3.1574089 8:8.6125935 9:-0.68341644 10:2.7268025 11:0.21896521 12:0.7010501 13:4.2570978 14:1.2869923 15:0.4155652 16:-0.72767916 17:0.74742634 18:-0.34500337 19:6.1541454 20:0.1348059 21:10.385415 22:-0.63960215 23:6.7951866 
0.02006810463532356 1:0 2:3.003597 3:45.095824 4:0.43852901 5:2.5160183 6:1 7:3.1574089 8:4.31958 9:-0.68341644 10:0.054020526 11:1.9917964 12:0.65231544 13:5.7143263 14:0.07859545 15:0.74665881 16:1.6022827 17:-1.0104835 18:-1.095129 19:5.1757941 20:0.69668602 21:8.1065752 22:4.6477756 23:4.0318794 
-0.2617723278903795 1:0 2:-1.1293428 3:5.4772256 4:3.1574089 5:3.0580931 6:0 7:0.43852901 8:-1.378423 9:2.2109661 10:0.125977 11:0.21896521 12:0.85471793 13:-1.2335098 14:-1.0585452 15:-2.2424144 16:1.8855792 17:0.9204985 18:2.1625855 19:3.2190915 20:1.5946908 21:5.3719632 22:-0.63960215 23:5.9273713 
0.002949200314951383 1:0 2:0.84700083 3:67.735023 4:8.5951686 5:3.072097 6:3 7:5.8762887 8:3.3111021 9:-0.68341644 10:-2.4737954 11:0.21896521 12:0.68889365 13:0.54496116 14:-1.0585452 15:0.19309513 16:-1.5184749 17:2.0361184 18:-0.66434348 19:13.980956 20:0.024436575 21:12.373826 22:8.6133089 23:3.0407428 
-0.1989829523486233 1:0 2:-1.2712213 3:-0.18257419 4:0.43852901 5:-0.33418951 6:0 7:0.43852901 8:-0.5257799 9:-0.68341644 10:0.125977 11:-0.06738981 12:-1.3125108 13:-0.42099221 14:2.4671577 15:0.32823747 16:-0.077976424 17:0.033266703 18:-0.18697781 19:2.2407401 20:-0.47724207 21:0.026545503 22:2.0040867 23:0.40532433 
0.02084971770316487 1:0 2:15.565844 3:84.714422 4:11.314048 5:7.9749129 6:4 7:11.314048 8:10.718999 9:-0.68341644 10:0.2208695 11:-1.558475 12:0.9703966 13:3.0691245 14:0.70569633 15:0.46459563 16:-1.1590881 17:1.7864943 18:-1.0629102 19:25.721172 20:0.39066208 21:34.902403 22:12.578842 23:7.18342 
-0.1007096571133206 1:0 2:3.7352671 3:16.796825 4:0.43852901 5:5.2290738 6:0 7:0.43852901 8:-1.378423 9:2.2109661 10:0.125977 11:0.21896521 12:0.85471793 13:-1.2335098 14:-1.0585452 15:-2.2424144 16:1.8855792 17:0.9204985 18:2.1625855 19:3.2190915 20:4.4793434 21:15.348205 22:-0.63960215 23:6.0552598 
-0.213856727545676 1:0 2:-4.7839495 3:22.456625 4:-2.2803509 5:5.2358392 6:1 7:-2.2803509 8:-1.378423 9:2.2109661 10:0.125977 11:0.21896521 12:0.85471793 13:-1.2335098 14:-1.0585452 15:-2.2424144 16:1.8855792 17:0.9204985 18:2.1625855 19:-0.69431384 20:-0.6929639 21:-0.65429409 22:-0.63960215 23:-0.74110557 
-0.5523593227423635 1:0 2:-0.056565763 3:5.4772256 4:3.1574089 5:3.0580931 6:0 7:0.43852901 8:-1.378423 9:2.2109661 10:0.125977 11:0.21896521 12:0.85471793 13:-1.2335098 14:-1.0585452 15:-2.2424144 16:1.8855792 17:0.9204985 18:2.1625855 19:4.1974428 20:1.5946908 21:7.0431115 22:-0.63960215 23:5.9273713 
-0.04042534424653965 1:0 2:-1.6577808 3:-0.18257419 4:0.43852901 5:3.8782651 6:0 7:0.43852901 8:0.80710835 9:-0.68341644 10:-2.4804544 11:0.21896521 12:0.90864592 13:-0.62067693 14:10.560342 15:0.64512114 16:1.2127719 17:1.6631718 18:0.40010835 19:-0.69431384 20:-0.6929639 21:-0.65429409 22:0.68224229 23:3.945098 
0.005379037760906036 1:0 2:8.2732174 3:73.394823 4:0.43852901 5:13.332822 6:2 7:3.1574089 8:1.4315469 9:-0.68341644 10:0.047246331 11:-1.5280778 12:0.43257603 13:3.9810597 14:3.0298803 15:0.41361464 16:-0.18800457 17:-0.3991734 18:-0.45579416 19:5.1757941 20:1.4341536 21:13.77834 22:-0.63960215 23:6.0552598 
0.01480133122290717 1:0 2:8.2667853 3:96.034022 4:3.1574089 5:9.9665546 6:2 7:3.1574089 8:1.6657142 9:0.057084061 10:-0.98648559 11:-1.1760056 12:-0.13831049 13:7.8902225 14:16.820682 15:0.71337601 16:0.50670194 17:-6.2008898 18:0.071044884 19:9.0891994 20:3.3405326 21:10.739894 22:-0.63960215 23:7.2108245 
0.774263682681127 1:0 2:2.1940271 3:-0.18257419 4:0.43852901 5:1.824814 6:0 7:0.43852901 8:-0.3637101 9:-0.10373732 10:-0.52839515 11:-0.097611668 12:-1.234651 13:0.50970719 14:1.8906304 15:0.67641011 16:-0.13711369 17:-1.3279913 18:0.45172935 19:-0.69431384 20:-0.6929639 21:-0.65429409 22:-0.63960215 23:-0.74110557 
0.07804741440618473 1:0 2:3.1198102 3:16.796825 4:3.1574089 5:1.8471858 6:1 7:3.1574089 8:3.6951413 9:-0.68341644 10:-2.4679483 11:0.21896521 12:1.0761655 13:2.7261222 14:0.65170781 15:0.62800801 16:0.80335213 17:-1.0408814 18:-0.64552594 19:2.2407401 20:0.67661889 21:2.3841535 22:3.3259312 23:1.0401999 
-0.2725039165939817 1:0 2:3.6600385 3:79.054622 4:-2.2803509 5:-1.1948412 6:0 7:-2.2803509 8:-1.378423 9:2.2109661 10:0.125977 11:0.21896521 12:0.85471793 13:-1.2335098 14:-1.0585452 15:-2.2424144 16:1.8855792 17:0.9204985 18:2.1625855 19:-0.69431384 20:-0.6929639 21:-0.65429409 22:-0.63960215 23:-0.74110557 
0.001644698336709583 1:0 2:7.438754 3:62.075223 4:3.1574089 5:13.249238 6:2 7:3.1574089 8:7.8320524 9:-0.68341644 10:0.47234559 11:-1.5449134 12:0.76715947 13:1.6748357 14:1.0458103 15:0.055546241 16:-1.7178323 17:0.58273512 18:-0.14430486 19:10.067551 20:1.4843216 21:26.539858 22:-0.63960215 23:4.9088298 
0.006224576642280757 1:0 2:5.542199 3:33.776224 4:0.43852901 5:1.8548714 6:0 7:0.43852901 8:-1.378423 9:2.2109661 10:0.125977 11:0.21896521 12:0.85471793 13:-1.2335098 14:-1.0585452 15:-2.2424144 16:1.8855792 17:0.9204985 18:2.1625855 19:9.0891994 20:3.2251465 21:9.557019 22:-0.63960215 23:6.260795 
0.007476514635093813 1:0 2:4.2171033 3:22.456625 4:0.43852901 5:-0.22775964 6:1 7:3.1574089 8:-1.378423 9:2.2109661 10:0.125977 11:0.21896521 12:0.85471793 13:-1.2335098 14:-1.0585452 15:-2.2424144 16:1.8855792 17:0.9204985 18:2.1625855 19:6.1541454 20:3.3907007 21:10.182841 22:2.0040867 23:4.1780381 
-0.2951805804227336 1:0 2:-1.5379958 3:11.137025 4:3.1574089 5:4.5926701 6:0 7:0.43852901 8:1.4185364 9:-0.68341644 10:0.13569738 11:1.9656228 12:0.42509018 13:0.74354027 14:1.0947101 15:0.4749202 16:-0.2958878 17:0.45721758 18:0.17124394 19:3.2190915 20:0.72176993 21:4.4097887 22:0.68224229 23:0.54691525 
0.01211115034780055 1:0 2:6.9094243 3:22.456625 4:3.1574089 5:8.7585318 6:4 7:8.5951686 8:6.1473707 9:-0.68341644 10:2.7141314 11:0.093426416 12:0.63955079 13:-1.0719706 14:13.243651 15:0.11447693 16:-1.3766754 17:-0.65140538 18:-0.74262543 19:8.1108481 20:1.5144223 21:18.60189 22:2.0040867 23:3.945098 
0.01393220825682313 1:0 2:2.8607551 3:39.436024 4:0.43852901 5:4.6499398 6:3 7:8.5951686 8:-1.378423 9:2.2109661 10:0.125977 11:0.21896521 12:0.85471793 13:-1.2335098 14:-1.0585452 15:-2.2424144 16:1.8855792 17:0.9204985 18:2.1625855 19:6.1541454 20:2.1365038 21:9.6485557 22:5.9696201 23:5.6487566 
0.3543420950814447 1:0 2:0.66260152 3:28.116425 4:0.43852901 5:1.5822037 6:0 7:0.43852901 8:-0.12029491 9:-0.68341644 10:0.079383704 11:-0.038167728 12:3.0271544 13:1.978199 14:1.2433403 15:0.37812292 16:-0.83389187 17:-0.0042258372 18:-1.0032408 19:1.2623888 20:2.2669403 21:0.88218657 22:2.0040867 23:1.9536899 
0.4840876711739673 1:0 2:3.3676201 3:5.4772256 4:0.43852901 5:0.20962543 6:0 7:0.43852901 8:-1.378423 9:2.2109661 10:0.125977 11:0.21896521 12:0.85471793 13:-1.2335098 14:-1.0585452 15:-2.2424144 16:1.8855792 17:0.9204985 18:2.1625855 19:0.28403748 20:0.39066208 21:0.17813755 22:-0.63960215 23:0.24546363 
0.2054127824161289 1:0 2:3.8910059 3:11.137025 4:0.43852901 5:4.0979297 6:0 7:0.43852901 8:-1.378423 9:2.2109661 10:0.125977 11:0.21896521 12:0.85471793 13:-1.2335098 14:-1.0585452 15:-2.2424144 16:1.8855792 17:0.9204985 18:2.1625855 19:3.2190915 20:5.3572811 21:6.6379866 22:0.68224229 23:4.7672391 
-0.2794108421813932 1:0 2:6.0637913 3:39.436024 4:-2.2803509 5:-0.041991987 6:0 7:-2.2803509 8:-1.378423 9:2.2109661 10:0.125977 11:0.21896521 12:0.85471793 13:-1.2335098 14:-1.0585452 15:-2.2424144 16:1.8855792 17:0.9204985 18:2.1625855 19:-0.69431384 20:-0.6929639 21:-0.65429409 22:-0.63960215 23:-0.74110557 
0.02181699346971892 1:0 2:11.280958 3:67.735023 4:5.8762887 5:8.9464062 6:1 7:3.1574089 8:6.1018379 9:-0.68341644 10:0.13569725 11:1.9656553 12:0.42529186 13:5.8427543 14:8.8167547 15:0.59342581 16:0.23370562 17:-4.5875097 18:0.38974537 19:22.786118 20:1.2184318 21:28.970607 22:-0.63960215 23:6.4160883 
0.01559863731003274 1:0 2:7.6557735 3:67.735023 4:0.43852901 5:7.2368062 6:3 7:3.1574089 8:0.54577291 9:-0.18209468 10:-0.72155289 11:-0.76956721 12:-0.82659005 13:2.0019799 14:-1.0585452 15:0.50431502 16:-0.39568288 17:-0.74976477 18:-0.72987005 19:3.2190915 20:3.6365231 21:8.2284847 22:0.68224229 23:4.1734705 
0.02255396533991231 1:0 2:14.674364 3:67.735023 4:0.43852901 5:0.6862454 6:4 7:3.1574089 8:-1.378423 9:2.2109661 10:0.125977 11:0.21896521 12:0.85471793 13:-1.2335098 14:-1.0585452 15:-2.2424144 16:1.8855792 17:0.9204985 18:2.1625855 19:13.002605 20:3.5562546 21:15.731619 22:5.9696201 23:4.4977595 
0.1315308048645465 1:0 2:1.4752439 3:11.137025 4:0.43852901 5:0.79753205 6:0 7:0.43852901 8:-0.20760159 9:-0.2041483 10:1.0160996 11:-0.63311665 12:-0.92180188 13:-0.66534315 14:0.43213789 15:0.49885805 16:0.01166867 17:0.68668979 18:-0.51592725 19:-0.69431384 20:-0.6929639 21:-0.65429409 22:-0.63960215 23:-0.74110557 
0.01114675165974446 1:0 2:4.4879567 3:39.436024 4:0.43852901 5:12.200516 6:1 7:3.1574089 8:2.9926507 9:-0.68341644 10:2.7112231 11:0.3906892 12:1.0447249 13:1.4286896 14:1.3091935 15:0.46412391 16:-0.27130703 17:0.86886989 18:-0.46249306 19:20.829415 20:1.0980289 21:20.868064 22:4.6477756 23:4.0821216 
0.02410303424318747 1:0 2:13.654319 3:101.69382 4:5.8762887 5:4.8714104 6:5 7:14.032928 8:12.593379 9:-0.68341644 10:0.0055501246 11:-1.5509981 12:1.077866 13:2.4626407 14:2.9516846 15:0.27465509 16:-0.84282797 17:2.2371926 18:-0.89068222 19:16.91601 20:0.8170889 21:29.780846 22:-0.63960215 23:5.8634269 
0.01234701244392262 1:0 2:5.5657302 3:28.116425 4:0.43852901 5:1.2120104 6:0 7:0.43852901 8:6.1928957 9:-0.059580638 10:1.5452403 11:1.4133394 12:1.9613411 13:6.7318524 14:8.7003277 15:0.78420095 16:0.12637511 17:-5.5577361 18:0.31988974 19:-0.69431384 20:-0.6929639 21:-0.65429409 22:-0.63960215 23:-0.74110557 
-0.4260915288337415 1:0 2:-0.78981377 3:-0.18257419 4:0.43852901 5:-0.40092659 6:0 7:0.43852901 8:1.5096026 9:-0.36635272 10:-0.078785736 11:-0.011645175 12:-1.3157524 13:0.30976355 14:-1.0585452 15:0.57333458 16:-0.12417078 17:-0.46087853 18:-0.46731597 19:-0.69431384 20:-0.6929639 21:-0.65429409 22:-0.63960215 23:-0.74110557 
0.1037108963255902 1:0 2:-1.1293493 3:-0.18257419 4:0.43852901 5:1.7602493 6:1 7:3.1574089 8:4.117939 9:-0.68341644 10:0.11745835 11:-1.5518488 12:1.0902003 13:0.88154811 14:0.12007413 15:0.46423951 16:0.18552236 17:1.5715917 18:0.18266818 19:1.2623888 20:1.2083983 21:2.1984751 22:3.3259312 23:2.077011 
0.00995504921759203 1:0 2:5.1794192 3:45.095824 4:5.8762887 5:1.0545618 6:3 7:5.8762887 8:3.4609742 9:-0.078983707 10:1.3421042 11:1.6993632 12:1.5192113 13:4.3507895 14:7.7159983 15:0.47771211 16:0.24504444 17:-0.71496907 18:-0.52626005 19:2.2407401 20:4.5696453 21:2.0296688 22:-0.63960215 23:4.9316671 
0.02456686909985329 1:0 2:1.606319 3:33.776224 4:3.1574089 5:1.7723253 6:1 7:3.1574089 8:3.6951414 9:-0.68341644 10:0.027501387 11:-1.5608554 12:0.8501941 13:0.67320675 14:1.6737498 15:0.67276301 16:0.68279672 17:1.0994798 18:-0.83202317 19:3.2190915 20:0.8170889 21:3.8021 22:3.3259312 23:6.1192043 
0.0781902587787395 1:0 2:4.3896471 3:16.796825 4:3.1574089 5:9.8483244 6:0 7:0.43852901 8:3.2268068 9:-0.68341644 10:2.1464753 11:-0.90418993 12:0.76212956 13:-1.2335098 14:3.1190027 15:0.30590531 16:-1.6083775 17:0.50049568 18:-0.14671347 19:6.1541454 20:0.20002412 21:13.525154 22:-0.63960215 23:7.3843881 
0.1623976280571727 1:0 2:6.9107581 3:39.436024 4:0.43852901 5:1.0196259 6:0 7:0.43852901 8:1.1583569 9:-0.68341644 10:0.038849659 11:-1.5348837 12:1.2302193 13:3.8036091 14:0.54271564 15:0.019106229 16:-1.0755445 17:1.0224528 18:-0.4742889 19:0.28403748 20:0.31039345 21:-0.27448759 22:0.68224229 23:0.17238439 
-0.774263682681127 1:0 2:2.1940271 3:-0.18257419 4:0.43852901 5:-1.1771173 6:0 7:0.43852901 8:-0.78650702 9:-0.10373732 10:-0.52839515 11:-0.097611668 12:-1.234651 13:0.50970719 14:1.8906304 15:0.67641011 16:-0.13711369 17:-1.3279913 18:0.45172935 19:-0.69431384 20:-0.6929639 21:-0.65429409 22:-0.63960215 23:-0.74110557 
0.04844813384490718 1:0 2:5.9952366 3:22.456625 4:0.43852901 5:0.095476027 6:1 7:3.1574089 8:0.18267051 9:-0.68341644 10:-2.4692554 11:0.21896521 12:0.64441571 13:2.918556 14:-1.0585452 15:0.23041265 16:-1.4414986 17:1.9218355 18:-0.64603696 19:6.1541454 20:-0.010680899 21:9.2713159 22:-0.63960215 23:1.2320328 
0.01432372419823334 1:0 2:11.131412 3:28.116425 4:3.1574089 5:6.4960466 6:3 7:8.5951686 8:13.764207 9:-0.68341644 10:0.034880034 11:1.9961657 12:0.97791459 13:4.6047116 14:7.7159983 15:0.52867268 16:0.49109628 17:-0.5617393 18:-1.236414 19:21.807767 20:-0.126067 21:21.931526 22:-0.63960215 23:5.1600396 
0.01132482952706101 1:0 2:12.749589 3:79.054622 4:8.5951686 5:5.8594601 6:1 7:3.1574089 8:10.329798 9:-0.68341644 10:-2.4792769 11:0.21896521 12:0.93992606 13:1.8247631 14:0.085333495 15:0.19799196 16:-1.1494867 17:1.0053811 18:-1.0835067 19:6.1541454 20:1.2184318 21:5.9796538 22:0.68224229 23:1.195493 
0.01471215177635514 1:0 2:7.2234958 3:67.735023 4:0.43852901 5:15.731692 6:2 7:5.8762887 8:5.022072 9:-0.68341644 10:-2.4747715 11:0.15801607 12:0.71962086 13:-0.65717888 14:2.5052861 15:0.13805882 16:-1.5875124 17:1.9083203 18:-0.81531523 19:23.764469 20:0.556216 21:35.300698 22:2.0040867 23:0.39618944 
0.00765754130441691 1:0 2:5.2465282 3:101.69382 4:3.1574089 5:10.878334 6:1 7:3.1574089 8:3.2072925 9:-0.68341644 10:-2.47954 11:0.28060407 12:0.87737833 13:3.6636103 14:1.2492109 15:0.048344795 16:-0.75805412 17:1.3487573 18:-0.39668585 19:9.0891994 20:0.250192 21:13.968253 22:0.68224229 23:0.62912937 
0.07870101113783722 1:0 2:4.9204344 3:28.116425 4:0.43852901 5:-0.132264 6:1 7:0.43852901 8:0.27716994 9:0.0019902004 10:0.15419039 11:-0.35815547 12:-1.2224729 13:3.2382711 14:0.73301913 15:0.63490317 16:0.12342664 17:-1.1508765 18:-0.24394701 19:-0.69431384 20:-0.6929639 21:-0.65429409 22:-0.63960215 23:-0.74110557 
0.03416431016696844 1:0 2:3.4855797 3:16.796825 4:0.43852901 5:9.4591551 6:0 7:0.43852901 8:3.5800818 9:-0.68341644 10:0.13320789 11:-1.5417806 12:0.52379812 13:0.14134446 14:5.7437447 15:0.58583657 16:0.20882312 17:-0.39010812 18:0.053696015 19:8.1108481 20:-0.19128523 21:11.829611 22:2.0040867 23:0.95341833 
0.02196482806405841 1:0 2:14.996444 3:62.075223 4:0.43852901 5:7.4791915 6:4 7:5.8762887 8:3.2673852 9:-0.68341644 10:0.071177988 11:1.9678519 12:0.4415913 13:4.3957689 14:0.12844213 15:0.44902711 16:-0.18112159 17:-1.7732903 18:-0.049868442 19:20.829415 20:1.4793047 21:26.089286 22:15.222531 23:5.9867478 
-0.1267333010893488 1:0 2:-5.4682231 3:5.4772256 4:0.43852901 5:-0.40774845 6:0 7:0.43852901 8:-1.0662037 9:-0.68341644 10:2.7310883 11:0.21896521 12:0.94296726 13:-1.2335098 14:0.62119856 15:0.27770795 16:-1.676152 17:0.117962 18:0.45239459 19:0.28403748 20:3.8973958 21:1.8777493 22:-0.63960215 23:3.4381108 
0.0130195610627339 1:0 2:0.88772697 3:28.116425 4:0.43852901 5:8.2123884 6:1 7:3.1574089 8:0.98981812 9:-0.68341644 10:0.16436623 11:-0.8462873 12:-0.90476006 13:0.37650332 14:-0.092099472 15:0.074750614 16:-0.8626954 17:2.5865216 18:-0.36113457 19:0.28403748 20:3.8472282 21:0.35402134 22:0.68224229 23:5.9273713 
0.01770489033684576 1:0 2:2.7699101 3:-0.18257419 4:0.43852901 5:3.8982032 6:2 7:5.8762887 8:4.6188902 9:-0.68341644 10:0.18077602 11:-1.5299215 12:1.2678446 13:3.7791395 14:4.8930279 15:0.44902711 16:-0.18112159 17:-1.7732903 18:-0.049868442 19:4.1974428 20:0.24517522 21:6.9084309 22:4.6477756 23:4.4977595 
0.01991712409546236 1:0 2:10.482784 3:28.116425 4:0.43852901 5:4.4684091 6:0 7:0.43852901 8:-1.378423 9:2.2109661 10:0.125977 11:0.21896521 12:0.85471793 13:-1.2335098 14:-1.0585452 15:-2.2424144 16:1.8855792 17:0.9204985 18:2.1625855 19:7.1324968 20:2.0010505 21:18.741129 22:-0.63960215 23:5.3884121 
0.01960243561961397 1:0 2:7.9490518 3:107.35362 4:11.314048 5:-0.32895972 6:2 7:5.8762887 8:2.1340494 9:-0.68341644 10:0.1159963 11:-1.5276895 12:1.2843593 13:5.9712281 14:-1.0585452 15:0.59359592 16:0.39552666 17:-4.630621 18:0.42331457 19:6.1541454 20:1.5244559 21:7.4904416 22:-0.63960215 23:4.4292475 
0.01537981050318237 1:0 2:11.011269 3:84.714422 4:5.8762887 5:11.269333 6:2 7:5.8762887 8:8.3784269 9:-0.68341644 10:0.24439302 11:-1.5502895 12:0.62245197 13:0.66877464 14:2.5105785 15:0.49248687 16:-1.1858136 17:-0.40825753 18:-0.35203712 19:16.91601 20:0.250192 21:32.971248 22:-0.63960215 23:7.3843881 
0.774263682681127 1:0 2:-0.31530524 3:-0.18257419 4:0.43852901 5:0.83292499 6:0 7:0.43852901 8:0.54577291 9:-0.18209468 10:-0.72155289 11:-0.76956721 12:-0.82659005 13:-0.0044944419 14:-1.0585452 15:0.50431502 16:-0.39568288 17:-0.74976477 18:-0.72987005 19:-0.69431384 20:-0.6929639 21:-0.65429409 22:-0.63960215 23:-0.74110557 
0.007881932481942392 1:0 2:6.1751616 3:28.116425 4:5.8762887 5:1.6874628 6:1 7:3.1574089 8:6.9104209 9:-0.68341644 10:0.079507953 11:-0.038133942 12:3.0271623 13:3.0459997 14:-0.067956995 15:0.16357986 16:-0.97519255 17:0.91856897 18:-0.68009918 19:5.1757941 20:162.35763 21:4.9634633 22:-0.63960215 23:147.70559 
0.001938074478615076 1:0 2:7.7825066 3:39.436024 4:5.8762887 5:4.3935226 6:2 7:5.8762887 8:9.7834233 9:-0.68341644 10:-0.11204509 11:1.9715166 12:0.51839106 13:4.4027305 14:2.9003105 15:0.57603149 16:1.3831966 17:0.32961272 18:-1.1385093 19:7.1324968 20:-0.45717493 21:5.9796547 22:4.6477756 23:3.0179054 
0.008969642364756532 1:0 2:5.8887454 3:28.116425 4:3.1574089 5:1.8371152 6:1 7:3.1574089 8:3.0121584 9:-0.68341644 10:2.7317357 11:0.21896521 12:0.78127005 13:0.77538595 14:4.5503511 15:0.40707336 16:-0.90969616 17:0.30546673 18:-0.78366593 19:10.067551 20:0.20504091 21:13.588444 22:16.544376 23:2.6936167 
0.010733063112012 1:0 2:5.2144891 3:67.735023 4:3.1574089 5:13.914485 6:1 7:3.1574089 8:7.3637216 9:-0.68341644 10:-2.4592691 11:0.047241218 12:0.66471097 13:4.1270616 14:0.97271473 15:0.46412391 16:-0.27130703 17:0.86886989 18:-0.20998321 19:20.829415 20:1.0980289 21:25.729589 22:4.6477756 23:4.0821216 
0.02161266787438183 1:0 2:11.891758 3:73.394823 4:3.1574089 5:13.266064 6:5 7:5.8762887 8:3.1487577 9:-0.68341644 10:-2.4679458 11:0.21896521 12:1.0761856 13:2.6299145 14:0.81630018 15:0.27154305 16:-2.5372073 17:1.7185984 18:0.44882705 19:21.807767 20:-0.24646989 21:21.27319 22:20.509909 23:3.3376273 
0.03372311480458884 1:0 2:1.377946 3:67.735023 4:3.1574089 5:6.433261 6:2 7:3.1574089 8:-1.378423 9:2.2109661 10:0.125977 11:0.21896521 12:0.85471793 13:-1.2335098 14:-1.0585452 15:-2.2424144 16:1.8855792 17:0.9204985 18:2.1625855 19:4.1974428 20:0.099688424 21:8.7269214 22:2.0040867 23:5.8223198 
0.004231661978146839 1:0 2:9.5276708 3:62.075223 4:3.1574089 5:10.566575 6:1 7:0.43852901 8:1.8998814 9:-0.68341644 10:-2.4792769 11:0.21896521 12:0.93992606 13:1.8247631 14:0.085333495 15:0.19799196 16:-1.1494867 17:1.0053811 18:-1.0835067 19:11.045902 20:1.2184318 21:23.197519 22:-0.63960215 23:5.1326347 
-0.774263682681127 1:0 2:0.56461048 3:-0.18257419 4:0.43852901 5:0.028076077 6:0 7:0.43852901 8:-0.051490039 9:-0.28708679 10:0.47234574 11:-1.5449134 12:0.76715943 13:-0.76917105 14:-0.33454637 15:0.12499876 16:-0.63592245 17:0.37944916 18:-0.48261364 19:-0.69431384 20:-0.6929639 21:-0.65429409 22:-0.63960215 23:-0.74110557 
-0.1874165654914971 1:0 2:2.0203698 3:11.137025 4:0.43852901 5:8.3646292 6:0 7:0.43852901 8:-1.378423 9:2.2109661 10:0.125977 11:0.21896521 12:0.85471793 13:-1.2335098 14:-1.0585452 15:-2.2424144 16:1.8855792 17:0.9204985 18:2.1625855 19:3.2190915 20:1.0528779 21:4.7895961 22:-0.63960215 23:2.5154862 
0.005711012995458668 1:0 2:15.896469 3:62.075223 4:3.1574089 5:9.4062535 6:4 7:8.5951686 8:4.8659628 9:-0.68341644 10:0.22416077 11:1.9963616 12:0.73996382 13:4.0476341 14:0.63132823 15:0.28888753 16:-0.50218637 17:1.2220861 18:-0.87814264 19:10.067551 20:0.22510809 21:12.917452 22:2.0040867 23:1.4055958 
0.009956598364153864 1:0 2:9.5722001 3:73.394823 4:3.1574089 5:8.6879288 6:3 7:8.5951686 8:7.6759401 9:-0.68341644 10:2.7188679 11:0.27512057 12:0.63551478 13:2.6853372 14:10.22518 15:0.34753477 16:-0.2451883 17:-1.1685628 18:0.29286213 19:13.002605 20:0.73682027 21:13.77835 22:-0.63960215 23:5.0595556 
0.04896621720190326 1:0 2:4.9993608 3:56.415423 4:3.1574089 5:6.8258416 6:1 7:3.1574089 8:5.948323 9:-0.68341644 10:0.11909148 11:1.9810418 12:1.1746963 13:6.3001346 14:17.876298 15:0.44946024 16:-1.9671576 17:-5.0552415 18:-0.61742619 19:0.28403748 20:2.3321586 21:0.73814151 22:0.68224229 23:2.0130668 
0.005156859038895142 1:0 2:6.4564617 3:62.075223 4:0.43852901 5:8.4698015 6:4 7:8.5951686 8:5.1803528 9:-0.68341644 10:2.7331948 11:0.21896521 12:0.85471793 13:3.6721884 14:0.85058619 15:0.18074057 16:-0.21054047 17:0.214233 18:0.17974698 19:13.002605 20:-0.47724207 21:11.34548 22:8.6133089 23:4.65762 
0.01686912686360037 1:0 2:8.666606 3:16.796825 4:0.43852901 5:7.1088689 6:1 7:3.1574089 8:0.57294699 9:-0.68341644 10:2.7317357 11:0.21896521 12:0.78127005 13:0.77538595 14:4.5503511 15:0.40707336 16:-0.90969616 17:0.30546673 18:-0.78366593 19:11.045902 20:0.54618244 21:12.765533 22:17.86622 23:3.2691152 
0.01529496762636299 1:0 2:4.6570456 3:90.374222 4:11.314048 5:10.719438 6:2 7:5.8762887 8:12.905606 9:-0.68341644 10:-2.4791343 11:0.21896521 12:0.76646828 13:2.7780197 14:2.0645538 15:0.16723146 16:-0.95884121 17:1.4399043 18:-1.104901 19:14.959307 20:0.22510809 21:22.893702 22:2.0040867 23:0.95798577 
0.02377538222700768 1:0 2:8.4387408 3:62.075223 4:0.43852901 5:7.9940503 6:3 7:8.5951686 8:9.7967148 9:-0.39397819 10:0.17581468 11:0.4907869 12:-1.3149477 13:7.0394237 14:13.596566 15:0.64650238 16:0.089127314 17:-6.361289 18:0.039508489 19:14.959307 20:0.27025913 21:12.981972 22:9.9351534 23:5.9182362 
0.01422371924267622 1:0 2:2.1492811 3:45.095824 4:3.1574089 5:13.386874 6:1 7:3.1574089 8:3.695143 9:-0.68341644 10:2.7277653 11:0.21896521 12:0.71308238 13:3.4752442 14:0.53555781 15:0.27280645 16:-1.2199791 17:1.7089691 18:-0.88531699 19:8.1108481 20:0.46089702 21:16.411654 22:4.6477756 23:7.4574672 
-0.1035476280291711 1:0 2:0.61137453 3:22.456625 4:0.43852901 5:-1.0169312 6:0 7:0.43852901 8:-1.378423 9:2.2109661 10:0.125977 11:0.21896521 12:0.85471793 13:-1.2335098 14:-1.0585452 15:-2.2424144 16:1.8855792 17:0.9204985 18:2.1625855 19:2.2407401 20:3.4057509 21:1.9994251 22:0.68224229 23:4.3835732 
0.0008546244666954306 1:0 2:9.2268576 3:16.796825 4:0.43852901 5:6.3967774 6:2 7:5.8762887 8:10.56397 9:-0.68341644 10:0.10109479 11:1.9938032 12:0.67201784 13:-1.2335098 14:4.9306938 15:0.20367372 16:-0.30160716 17:1.1448345 18:0.15078667 19:11.045902 20:-0.45717493 21:7.4482436 22:7.2914645 23:0.90774376 
-0.1501304425168979 1:0 2:-2.5983478 3:28.116425 4:0.43852901 5:2.0727266 6:1 7:0.43852901 8:-0.72254526 9:-0.36433259 10:1.9804657 11:-1.0140393 12:1.1220632 13:5.8826207 14:-1.0585452 15:0.60215577 16:2.0128578 17:-1.2070136 18:-1.063153 19:-0.69431384 20:-0.6929639 21:-0.65429409 22:-0.63960215 23:-0.74110557 
0.01563585823601224 1:0 2:-0.54670082 3:56.415423 4:3.1574089 5:10.125484 6:2 7:3.1574089 8:2.9926469 9:-0.68341644 10:0.10200921 11:1.9803764 12:0.52979413 13:7.1333075 14:0.35354687 15:0.80459155 16:2.0197386 17:-1.3528001 18:-0.68542142 19:7.1324968 20:1.8555637 21:14.993713 22:2.0040867 23:7.4574672 
0.004602421386714047 1:0 2:13.552625 3:79.054622 4:3.1574089 5:8.2177446 6:2 7:5.8762887 8:7.6786449 9:-0.68341644 10:0.23785952 11:1.975045 12:0.50030865 13:4.4342138 14:0.69078938 15:0.57456165 16:0.23835854 17:-0.17140273 18:-0.79497193 19:13.002605 20:0.88732397 21:10.971538 22:7.2914645 23:5.2422539 
0.004903214292677948 1:0 2:9.9487456 3:101.69382 4:8.5951686 5:3.4339872 6:2 7:3.1574089 8:6.1343631 9:-0.68341644 10:0.19513174 11:1.9467761 12:0.3248318 13:4.1057862 14:0.10990899 15:0.49730877 16:0.48776538 17:0.84749009 18:-0.71187765 19:5.1757941 20:0.4408299 21:5.8657137 22:3.3259312 23:1.6613731 
0.01648093551875291 1:0 2:2.9630358 3:73.394823 4:0.43852901 5:6.002313 6:6 7:11.314048 8:0.72585098 9:-0.68341644 10:0.13533121 11:1.9981212 12:0.75258165 13:4.210793 14:14.546363 15:0.57210977 16:0.44091207 17:-5.3045732 18:0.35148528 19:11.045902 20:1.1883311 21:11.554695 22:4.6477756 23:5.0960952 
0.005399846109200396 1:0 2:3.1045439 3:39.436024 4:3.1574089 5:4.2376527 6:0 7:0.43852901 8:8.6018475 9:-0.68341644 10:-2.4737954 11:0.21896521 12:0.68889365 13:1.9746775 14:-1.0585452 15:0.19309513 16:-1.5184749 17:2.0361184 18:0.32848994 19:11.045902 20:0.024436575 21:9.1362993 22:12.578842 23:3.4152739 
-0.774263682681127 1:0 2:-0.38921966 3:-0.18257419 4:0.43852901 5:0.17667061 6:0 7:0.43852901 8:1.197387 9:-0.16673714 10:-0.64964111 11:-0.58365471 12:-0.9934444 13:-0.4340489 14:0.4732194 15:0.079055284 16:-0.14708911 17:0.76244999 18:0.17591441 19:-0.69431384 20:-0.6929639 21:-0.65429409 22:-0.63960215 23:-0.74110557 
-0.08932294527709929 1:0 2:-1.9057029 3:28.116425 4:0.43852901 5:-0.98032168 6:1 7:0.43852901 8:-1.378423 9:2.2109661 10:0.125977 11:0.21896521 12:0.85471793 13:-1.2335098 14:-1.0585452 15:-2.2424144 16:1.8855792 17:0.9204985 18:2.1625855 19:1.2623888 20:0.68163567 21:1.794472 22:-0.63960215 23:1.7344523 
0.1358888739370143 1:0 2:2.3104761 3:11.137025 4:3.1574089 5:5.444517 6:1 7:3.1574089 8:0.49489641 9:-0.68341644 10:-2.4812408 11:0.21896521 12:0.85471793 13:2.0230309 14:-1.0585452 15:0.6689183 16:0.3316296 17:-3.8628294 18:-1.017407 19:6.1541454 20:1.1481969 21:14.234112 22:3.3259312 23:6.4115208 
0.009632209464341809 1:0 2:3.9677702 3:16.796825 4:0.43852901 5:5.1160298 6:2 7:5.8762887 8:6.1703456 9:-0.68341644 10:-2.4808732 11:0.21896521 12:0.81783973 13:0.98908993 14:-1.0585452 15:0.15075341 16:-2.1010018 17:1.2883489 18:0.35154656 19:22.786118 20:-0.25650345 21:21.816736 22:0.68224229 23:0.49667335 
0.02465767089074572 1:0 2:5.1332858 3:107.35362 4:0.43852901 5:-1.0732039 6:1 7:0.43852901 8:-1.0401856 9:0.19849862 10:-0.0598759 11:-1.3122469 12:-0.25590689 13:6.5412659 14:-0.15585492 15:0.77922936 16:2.8185569 17:-4.2490343 18:-0.94383285 19:-0.69431384 20:-0.6929639 21:-0.65429409 22:-0.63960215 23:-0.74110557 
0.02701842789195003 1:0 2:8.0731029 3:113.01342 4:8.5951686 5:10.084265 6:2 7:3.1574089 8:13.673144 9:-0.68341644 10:0.20107759 11:-1.4964481 12:1.4421283 13:1.7599052 14:2.04079 15:0.50980194 16:-0.36816776 17:1.2906982 18:0.16592835 19:19.851064 20:-0.45717493 21:29.190038 22:17.86622 23:6.3475768 
0.007949473860322865 1:0 2:5.3053556 3:79.054622 4:5.8762887 5:8.9892468 6:3 7:5.8762887 8:2.0999311 9:-0.68341644 10:0.078749202 11:-0.043528568 12:3.0261699 13:0.42204392 14:0.99816297 15:-0.02315381 16:-0.92406051 17:2.3295099 18:-0.89844653 19:13.002605 20:0.3505277 21:21.048495 22:7.2914645 23:5.772078 
0.01517680443331237 1:0 2:3.61495 3:84.714422 4:3.1574089 5:8.763072 6:2 7:3.1574089 8:8.6866018 9:-0.68341644 10:0.078747429 11:-0.043538414 12:3.0261679 13:5.3539787 14:9.2613991 15:0.39397489 16:-2.7712788 17:-3.442894 18:0.23536092 19:2.2407401 20:2.3321586 21:3.6670578 22:2.0040867 23:2.0496063 
0.01546977536421811 1:0 2:3.9170184 3:39.436024 4:3.1574089 5:9.6145849 6:1 7:3.1574089 8:15.080119 9:-0.68341644 10:-2.478598 11:0.28414473 12:0.79716498 13:0.48463905 14:0.89362616 15:0.36528989 16:-0.59138276 17:0.27905909 18:0.25921194 19:14.959307 20:0.88732397 21:14.699381 22:12.578842 23:4.3835732 
0.02235518258940747 1:0 2:6.1315517 3:96.034022 4:3.1574089 5:10.24194 6:3 7:8.5951686 8:0.67051415 9:-0.68341644 10:0.10615176 11:1.9382931 12:0.28171048 13:2.7132673 14:0.67114703 15:0.30073178 16:-1.7360622 17:1.8127299 18:-0.35005981 19:21.807767 20:0.044503763 21:22.957014 22:21.831753 23:5.0778254 
0.774263682681127 1:0 2:0.60691219 3:-0.18257419 4:0.43852901 5:-1.1205589 6:0 7:0.43852901 8:0.18267711 9:-0.11650302 10:0.79909867 11:-0.14066161 12:-1.2197854 13:1.8247285 14:-0.35956614 15:0.80564643 16:-0.20408146 17:0.11995937 18:-0.27261759 19:-0.69431384 20:-0.6929639 21:-0.65429409 22:-0.63960215 23:-0.74110557 
-0.1704800626534449 1:0 2:-3.0800705 3:50.755624 4:8.5951686 5:-0.10352108 6:0 7:0.43852901 8:0.5729485 9:-0.68341644 10:0.21310427 11:1.972814 12:0.4792149 13:4.4703899 14:0.29641453 15:0.38325578 16:-0.21693304 17:0.79483994 18:-0.67867943 19:2.2407401 20:0.77193787 21:2.0043524 22:-0.63960215 23:2.3556255 
-0.01085485457896053 1:0 2:-0.82166109 3:5.4772256 4:3.1574089 5:2.39844 6:0 7:0.43852901 8:1.6657216 9:-0.68341644 10:0.10342626 11:-1.5522385 12:1.0850319 13:3.3040515 14:0.50532606 15:0.76968489 16:1.5839247 17:-1.114341 18:0.34860676 19:1.2623888 20:0.72176993 21:3.8021001 22:-0.63960215 23:1.8258012 
0.1520240621118611 1:0 2:-0.95556462 3:45.095824 4:5.8762887 5:-0.52992825 6:0 7:0.43852901 8:-1.378423 9:2.2109661 10:0.125977 11:0.21896521 12:0.85471793 13:-1.2335098 14:-1.0585452 15:-2.2424144 16:1.8855792 17:0.9204985 18:2.1625855 19:2.2407401 20:0.35554448 21:3.3969684 22:3.3259312 23:1.8669083 
-0.04275086042821959 1:0 2:-0.17975289 3:-0.18257419 4:0.43852901 5:-0.75136004 6:0 7:0.43852901 8:-0.23610192 9:-0.68341644 10:0.13532094 11:1.9981256 12:0.75269727 13:1.1365398 14:-0.20446809 15:0.5396844 16:-0.051799496 17:-0.2818474 18:-0.13927373 19:1.2623888 20:1.6900098 21:0.90595737 22:0.68224229 23:1.4467029 
0.002350918781837344 1:0 2:9.2652192 3:50.755624 4:0.43852901 5:13.358039 6:2 7:5.8762887 8:1.7437736 9:-0.68341644 10:-1.6849562 11:1.4805841 12:1.1307984 13:2.342772 14:-1.0585452 15:0.23792488 16:-0.87558012 17:0.898629 18:2.1625855 19:14.959307 20:1.1933479 21:20.513568 22:4.6477756 23:2.7941005 
0.01549049039781926 1:0 2:11.302236 3:96.034022 4:8.5951686 5:11.305808 6:2 7:3.1574089 8:6.1735346 9:-0.68341644 10:-0.15044688 11:1.8892913 12:0.12886004 13:3.226789 14:0.58233083 15:0.5653643 16:-0.79546983 17:1.020978 18:-0.33026382 19:24.742821 20:2.0662688 21:25.766905 22:-0.63960215 23:6.3384417 
0.01169401042884029 1:0 2:4.8067668 3:28.116425 4:5.8762887 5:5.2103577 6:1 7:3.1574089 8:6.0367845 9:-0.68341644 10:2.7327407 11:0.21896521 12:0.89569635 13:-0.25313599 14:0.57899208 15:0.05054714 16:-1.0589271 17:1.656438 18:-0.98806398 19:21.807767 20:0.62143417 21:23.948718 22:2.0040867 23:0.77528774 
0.774263682681127 1:0 2:-0.57334386 3:-0.18257419 4:0.43852901 5:-1.0996573 6:0 7:0.43852901 8:-0.59787295 9:-0.68341644 10:0.15111361 11:-1.5558724 12:1.0373963 13:-1.2335098 14:0.41014722 15:0.24815393 16:0.035210433 17:1.0783828 18:0.42854905 19:-0.69431384 20:-0.6929639 21:-0.65429409 22:0.68224229 23:1.944555 
0.02812275289941329 1:0 2:0.78968948 3:28.116425 4:0.43852901 5:8.930246 6:1 7:3.1574089 8:0.98981812 9:-0.68341644 10:0.16436623 11:-0.8462873 12:-0.90476006 13:-0.83848133 14:0.99941745 15:0.074750614 16:-0.8626954 17:2.5865216 18:-0.36113457 19:3.2190915 20:3.8472282 21:6.7400191 22:0.68224229 23:4.1140936 
0.006585078489274467 1:0 2:5.8649927 3:22.456625 4:3.1574089 5:11.162937 6:3 7:5.8762887 8:6.8238432 9:-0.68341644 10:-2.4621751 11:0.34450231 12:1.0699065 13:0.27338116 14:10.969533 15:0.23225662 16:-0.055107881 17:-0.99700055 18:-0.16316825 19:12.024253 20:1.5144223 21:23.155347 22:3.3259312 23:4.6393502 
-0.1089065369479117 1:0 2:4.6863789 3:22.456625 4:0.43852901 5:2.6241176 6:1 7:3.1574089 8:1.8413399 9:-0.68341644 10:2.731494 11:0.15732635 12:0.83205752 13:3.6130482 14:0.79458792 15:0.048344795 16:-0.75805412 17:1.3487573 18:-0.39668585 19:4.1974428 20:0.31039345 21:7.8280519 22:0.68224229 23:0.17238439 
0.01433526602210784 1:0 2:8.6861488 3:79.054622 4:3.1574089 5:7.7790008 6:1 7:3.1574089 8:1.5096056 9:-0.68341644 10:0.21828755 11:1.9965846 12:0.96766269 13:3.8262729 14:0.68568428 15:0.19358502 16:-0.79472177 17:0.77953173 18:-0.31787637 19:20.829415 20:1.3137508 21:36.060317 22:-0.63960215 23:6.6490284 
-0.774263682681127 1:0 2:-1.0164082 3:-0.18257419 4:0.43852901 5:1.3864077 6:0 7:0.43852901 8:1.4120393 9:-0.68341644 10:0.11745921 11:-1.5518528 12:1.090154 13:-0.57232577 14:0.66030838 15:0.12645026 16:-1.2940127 17:1.404196 18:-1.1398355 19:0.28403748 20:1.2083983 21:0.113759 22:0.68224229 23:0.98995789 
0.0294386855064243 1:0 2:1.8502781 3:22.456625 4:0.43852901 5:3.8265698 6:1 7:3.1574089 8:0.54577291 9:-0.15630336 10:0.98016208 11:-0.076782958 12:-1.1875955 13:1.6861519 14:6.912443 15:0.39979958 16:-0.035963769 17:1.593062 18:-0.34340207 19:3.2190915 20:0.45588024 21:6.1158238 22:3.3259312 23:5.9273713 
0.01850711302176768 1:0 2:8.5523203 3:90.374222 4:0.43852901 5:11.576342 6:1 7:3.1574089 8:6.9844285 9:-0.68341644 10:-2.4808732 11:0.21896521 12:0.81783973 13:0.98908993 14:-1.0585452 15:0.15075341 16:-2.1010018 17:1.2883489 18:0.35154656 19:28.656226 20:-0.25650345 21:35.212926 22:0.68224229 23:0.49667335 
0.01341733064923669 1:0 2:3.9302446 3:39.436024 4:3.1574089 5:2.4213001 6:4 7:5.8762887 8:3.2268187 9:-0.68341644 10:0.03984672 11:-1.5588352 12:0.74264628 13:3.1674699 14:14.45815 15:0.48607486 16:-1.2641037 17:0.76977784 18:-0.71194177 19:3.2190915 20:0.37059483 21:1.4726225 22:0.68224229 23:2.4378395 
0.007368500605863301 1:0 2:3.3969748 3:39.436024 4:5.8762887 5:7.9575494 6:1 7:0.43852901 8:-0.31973778 9:-0.68341644 10:-0.15044688 11:1.8892913 12:0.12886004 13:0.35661512 14:0.58233083 15:0.5653643 16:-0.79546983 17:1.020978 18:-0.33026382 19:14.959307 20:2.2418563 21:11.022321 22:-0.63960215 23:6.260795 
0.01888768639400788 1:0 2:10.600857 3:16.796825 4:0.43852901 5:0.82633718 6:0 7:0.43852901 8:-1.378423 9:2.2109661 10:0.125977 11:0.21896521 12:0.85471793 13:-1.2335098 14:-1.0585452 15:-2.2424144 16:1.8855792 17:0.9204985 18:2.1625855 19:12.024253 20:-0.24646989 21:20.868052 22:9.9351534 23:1.620266 
-0.6553406705478191 1:0 2:0.75073839 3:-0.18257419 4:0.43852901 5:-0.3935154 6:0 7:0.43852901 8:1.071182 9:-0.68341644 10:0.071177988 11:1.9678519 12:0.4415913 13:0.163294 14:0.12844213 15:0.44902711 16:-0.18112159 17:-1.7732903 18:-0.049868442 19:1.2623888 20:1.4793047 21:2.1406266 22:0.68224229 23:1.752722 
0.005031317919574079 1:0 2:4.195549 3:84.714422 4:11.314048 5:6.5499475 6:2 7:0.43852901 8:13.530047 9:-0.68341644 10:0.15186344 11:-1.5482675 12:1.1272716 13:2.5215247 14:1.6501707 15:0.35119087 16:-1.2863983 17:1.4649708 18:-1.0085777 19:8.1108481 20:0.29032632 21:15.348215 22:-0.63960215 23:3.355897 
0.4498801015202494 1:0 2:-0.65292582 3:11.137025 4:0.43852901 5:1.3285252 6:1 7:3.1574089 8:-1.378423 9:2.2109661 10:0.125977 11:0.21896521 12:0.85471793 13:-1.2335098 14:-1.0585452 15:-2.2424144 16:1.8855792 17:0.9204985 18:2.1625855 19:2.2407401 20:2.2769739 21:3.5488975 22:0.68224229 23:3.0635801 
0.04374791915551251 1:0 2:3.8181085 3:16.796825 4:0.43852901 5:2.8918208 6:2 7:5.8762887 8:4.0241271 9:-0.68341644 10:0.17460319 11:0.48539209 12:-1.315984 13:0.98235437 14:1.0226202 15:0.1765264 16:-2.2643815 17:1.1409024 18:-1.2114723 19:7.1324968 20:-0.25650345 21:7.2201693 22:0.68224229 23:0.49667335 
0.01483196734201748 1:0 2:4.7786816 3:90.374222 4:5.8762887 5:7.244436 6:5 7:5.8762887 8:1.0607914 9:0.2033347 10:1.0881381 11:1.6091146 12:-0.25329231 13:-0.036045075 14:16.789345 15:0.29576002 16:-3.2080745 17:-2.5966176 18:0.40440738 19:9.0891994 20:0.28029275 21:12.575622 22:7.2914645 23:2.7073191 
0.01741853050601358 1:0 2:7.3862146 3:84.714422 4:5.8762887 5:4.5962484 6:3 7:5.8762887 8:0.027720163 9:-0.68341644 10:0.17581949 11:0.4908115 12:-1.3149428 13:5.5701324 14:0.43859237 15:0.54043525 16:-1.8554504 17:-4.9176466 18:-0.22580598 19:21.807767 20:0.37561173 21:18.599729 22:5.9696201 23:3.876586 
0.008284638040806723 1:0 2:13.131473 3:84.714422 4:5.8762887 5:9.7730146 6:3 7:8.5951686 8:6.4270628 9:-0.68341644 10:0.21310434 11:1.9728141 12:0.4792166 13:3.7553922 14:2.4735952 15:0.019106229 16:-1.0755445 17:1.0224528 18:-0.4742889 19:21.807767 20:0.250192 21:27.008277 22:2.0040867 23:0.62912937 
-0.2401141529496294 1:0 2:-4.1180364 3:39.436024 4:3.1574089 5:5.6369405 6:1 7:3.1574089 8:2.1340487 9:-0.68341644 10:-2.4592691 11:0.047241218 12:0.66471097 13:1.0866698 14:0.97271473 15:0.46412391 16:-0.27130703 17:0.86886989 18:-0.20998321 19:1.2623888 20:1.8154295 21:2.6880028 22:-0.63960215 23:2.5291884 
0.01777932355806651 1:0 2:6.2812193 3:16.796825 4:3.1574089 5:8.5244859 6:3 7:8.5951686 8:14.388653 9:-0.68341644 10:-2.4804544 11:0.21896521 12:0.90864543 13:3.2696724 14:-1.0585452 15:0.25936552 16:-1.3948637 17:2.1253013 18:-0.78451383 19:10.067551 20:-0.45717493 21:12.056559 22:11.256998 23:4.1277959 
0.01179836759014826 1:0 2:5.1729919 3:73.394823 4:3.1574089 5:2.8869465 6:6 7:11.314048 8:7.2856592 9:-0.68341644 10:0.10368678 11:-1.5522423 12:1.0850057 13:2.4316836 14:2.7201154 15:0.19554458 16:-1.9768586 17:2.617115 18:-1.0631529 19:14.959307 20:-0.010680899 21:15.145659 22:0.68224229 23:1.6156985 
0.02589313559031495 1:0 2:11.490826 3:84.714422 4:5.8762887 5:15.278593 6:4 7:3.1574089 8:5.0220742 9:-0.68341644 10:-2.4679483 11:0.21896521 12:1.0761655 13:5.6858797 14:9.1765015 15:0.62800801 16:0.80335213 17:-1.0408814 18:-0.64552594 19:23.764469 20:-0.24646989 21:26.590457 22:25.797287 23:2.3099508 
-0.774263682681127 1:0 2:-0.2046304 3:-0.18257419 4:0.43852901 5:2.1019661 6:0 7:0.43852901 8:-0.72796636 9:-0.68341644 10:0.11625663 11:-1.5276923 12:1.2843457 13:0.88117132 14:1.0947101 15:0.47508805 16:-0.1340712 17:0.41409715 18:-0.27286301 19:1.2623888 20:0.72176993 21:0.99153122 22:2.0040867 23:0.77528774 
0.00491098852178186 1:0 2:3.3793618 3:73.394823 4:11.314048 5:10.262432 6:1 7:3.1574089 8:5.2757618 9:-0.68341644 10:-2.4793624 11:0.15788947 12:0.81900576 13:4.1543034 14:-1.0585452 15:0.23772519 16:-1.7486146 17:1.3419469 18:0.075255197 19:12.024253 20:0.94250857 21:13.318364 22:7.2914645 23:5.447789 
0.000551293245980078 1:0 2:6.9135603 3:45.095824 4:3.1574089 5:9.5702729 6:1 7:0.43852901 8:-1.378423 9:2.2109661 10:0.125977 11:0.21896521 12:0.85471793 13:-1.2335098 14:-1.0585452 15:-2.2424144 16:1.8855792 17:0.9204985 18:2.1625855 19:11.045902 20:0.35554448 21:13.373223 22:-0.63960215 23:5.8908318 
0.0153289687785875 1:0 2:3.4826256 3:113.01342 4:11.314048 5:7.6808786 6:2 7:5.8762887 8:8.0662019 9:-0.68341644 10:2.7248557 11:0.34425268 12:0.93799991 13:4.8018354 14:0.33232872 15:0.5023918 16:-0.70540932 17:0.54422229 18:-0.71055287 19:8.1108481 20:1.1030457 21:11.853994 22:2.0040867 23:5.4888961 
0.283067947278522 1:0 2:4.1664157 3:11.137025 4:0.43852901 5:-1.1866606 6:0 7:0.43852901 8:-1.378423 9:2.2109661 10:0.125977 11:0.21896521 12:0.85471793 13:-1.2335098 14:-1.0585452 15:-2.2424144 16:1.8855792 17:0.9204985 18:2.1625855 19:3.2190915 20:2.4776454 21:3.0931247 22:0.68224229 23:2.5017838 
0.774263682681127 1:0 2:-0.083557141 3:-0.18257419 4:0.43852901 5:2.6110558 6:0 7:0.43852901 8:2.7649924 9:-0.68341644 10:-2.4621751 11:0.34450231 12:1.0699065 13:0.080286754 14:0.10803245 15:0.23225662 16:-0.055107881 17:-0.99700055 18:-0.16316825 19:0.28403748 20:1.5144223 21:0.99153126 22:0.68224229 23:1.2685724 
0.2695233181977373 1:0 2:0.30282585 3:-0.18257419 4:0.43852901 5:1.214438 6:1 7:3.1574089 8:0.41683406 9:-0.68341644 10:2.7277653 11:0.21896521 12:0.71308238 13:2.3291839 14:0.53555781 15:0.27280645 16:-1.2199791 17:1.7089691 18:-0.88531699 19:7.1324968 20:1.1532137 21:7.8027222 22:2.0040867 23:2.5017838 
0.01498628593554741 1:0 2:7.8031808 3:96.034022 4:3.1574089 5:9.9701941 6:4 7:5.8762887 8:4.0073642 9:-0.68341644 10:-2.4679483 11:0.21896521 12:1.0761655 13:5.6858797 14:0.65170781 15:0.62800801 16:0.80335213 17:-1.0408814 18:-0.64552594 19:14.959307 20:-0.24646989 21:14.487309 22:15.222531 23:3.3376273 
0.1306451168669395 1:0 2:-1.3849633 3:11.137025 4:0.43852901 5:3.1087122 6:0 7:0.43852901 8:0.54577291 9:-0.15630336 10:0.98016208 11:-0.076782958 12:-1.1875955 13:0.473995 14:0.48343884 15:0.39979958 16:-0.035963769 17:1.593062 18:-0.34340207 19:-0.69431384 20:-0.6929639 21:-0.65429409 22:-0.63960215 23:-0.74110557 
0.01589055750297017 1:0 2:0.96479432 3:16.796825 4:0.43852901 5:2.1894054 6:1 7:3.1574089 8:2.2121043 9:-0.68341644 10:2.7318706 11:0.16221259 12:0.85347078 13:-0.9720255 14:6.8715149 15:0.52867043 16:0.18824886 17:0.096371815 18:0.40634557 19:1.2623888 20:0.8170889 21:0.81428859 22:-0.63960215 23:1.3644889 
0.06698714875742702 1:0 2:8.7606485 3:73.394823 4:0.43852901 5:-0.39303343 6:3 7:3.1574089 8:1.3534993 9:-0.68341644 10:0.10368605 11:-1.5522416 12:1.0850143 13:6.3190368 14:0.22750168 15:0.77084394 16:2.0769939 17:-1.1837981 18:-1.0250123 19:0.28403748 20:0.32042701 21:-0.24916735 22:-0.63960215 23:0.18151928 
0.009116978177262584 1:0 2:4.1788679 3:45.095824 4:3.1574089 5:5.9984163 6:1 7:3.1574089 8:2.3682115 9:-0.68341644 10:0.22167817 11:-1.5581725 12:0.9768105 13:1.1390806 14:0.11789608 15:0.27809108 16:-0.69200074 17:-0.097916529 18:-0.15264338 19:5.1757941 20:1.0930122 21:9.879001 22:-0.63960215 23:3.8948558 
-0.774263682681127 1:0 2:2.9462714 3:-0.18257419 4:0.43852901 5:0.97892409 6:0 7:0.43852901 8:0.67051556 9:-0.68341644 10:2.7317357 11:0.21896521 12:0.78127005 13:0.61913703 14:1.87894 15:0.40707336 16:-0.90969616 17:0.30546673 18:-0.78366593 19:3.2190915 20:0.20504091 21:3.0171677 22:3.3259312 23:1.7801267 
-0.05289123985694173 1:0 2:-2.6390679 3:39.436024 4:0.43852901 5:-1.3052535 6:0 7:0.43852901 8:-0.67592939 9:-0.68341644 10:-2.4533447 11:0.049333688 12:0.61204499 13:2.3234653 14:-1.0585452 15:0.3031224 16:-1.4195525 17:-4.9961533 18:-0.85377897 19:0.28403748 20:0.43581311 21:-0.24916735 22:-0.63960215 23:0.28657064 
-0.1970500610711075 1:0 2:-4.128621 3:28.116425 4:3.1574089 5:3.0573505 6:0 7:0.43852901 8:-1.378423 9:2.2109661 10:0.125977 11:0.21896521 12:0.85471793 13:-1.2335098 14:-1.0585452 15:-2.2424144 16:1.8855792 17:0.9204985 18:2.1625855 19:1.2623888 20:0.51608175 21:0.71300953 22:-0.63960215 23:5.8908318 
0.01159048411110388 1:0 2:7.7335721 3:50.755624 4:5.8762887 5:8.0273059 6:1 7:3.1574089 8:7.6759372 9:-0.68341644 10:0.12216321 11:-1.5602544 12:0.75402104 13:1.675846 14:0.2403927 15:0.05869445 16:-1.6712308 17:2.4579275 18:-0.38875547 19:16.91601 20:1.1983647 21:24.058441 22:0.68224229 23:1.3005444 
0.003597278145635035 1:0 2:5.6713091 3:45.095824 4:0.43852901 5:0.46108874 6:1 7:3.1574089 8:0.10462144 9:-0.19801374 10:0.36390216 11:-1.5335914 12:1.1910521 13:3.2724132 14:-1.0585452 15:0.32730978 16:-1.0505811 17:-0.027706772 18:-0.76280851 19:3.2190915 20:4.0980675 21:2.4347964 22:0.68224229 23:3.6208091 
0.01154431031581511 1:0 2:11.371906 3:90.374222 4:3.1574089 5:13.328832 6:3 7:3.1574089 8:6.1148399 9:-0.68341644 10:0.21549477 11:-1.5050455 12:1.4010006 13:2.8509919 14:-1.0585452 15:0.33228603 16:0.087805609 17:1.322142 18:-0.044690966 19:9.0891994 20:2.0712857 21:14.386026 22:7.2914645 23:4.0912563 
0.1934677050733617 1:0 2:1.0319212 3:16.796825 4:0.43852901 5:1.9149279 6:1 7:3.1574089 8:0.18267711 9:-0.32624448 10:0.07709796 11:-0.7227798 12:-1.0085749 13:1.8615493 14:-1.0585452 15:0.76546847 16:0.91953835 17:-1.1141588 18:-0.77638467 19:2.2407401 20:1.1732808 21:1.8777444 22:-0.63960215 23:1.6842103 
0.01614147334036083 1:0 2:5.0691993 3:22.456625 4:0.43852901 5:5.2833871 6:1 7:3.1574089 8:6.1969637 9:-0.68341644 10:-2.4737954 11:0.21896521 12:0.68889365 13:1.9746775 14:-1.0585452 15:0.19309513 16:-1.5184749 17:2.0361184 18:-0.66434348 19:27.677875 20:0.024436575 21:18.419809 22:21.831753 23:5.447789 
0.01713464242227719 1:0 2:14.137988 3:67.735023 4:5.8762887 5:10.890005 6:3 7:8.5951686 8:12.65844 9:-0.68341644 10:0.27940591 11:1.9728526 12:0.49488052 13:2.5316209 14:0.56926389 15:0.48387926 16:0.54929411 17:2.3997585 18:-0.91505991 19:16.91601 20:1.0077269 21:28.31227 22:4.6477756 23:4.6393502 
0.774263682681127 1:0 2:-0.084310392 3:-0.18257419 4:0.43852901 5:1.0640172 6:1 7:3.1574089 8:2.4462686 9:-0.68341644 10:0.03984672 11:-1.5588352 12:0.74264628 13:0.57734888 14:0.33947759 15:0.48607486 16:-1.2641037 17:0.76977784 18:-0.71194177 19:2.2407401 20:0.37059483 21:1.675184 22:0.68224229 23:0.82552975 
0.02365959965407049 1:0 2:6.0890886 3:39.436024 4:14.032928 5:6.2450274 6:0 7:0.43852901 8:9.2526463 9:-0.68341644 10:0.030841128 11:1.9964042 12:0.73914771 13:5.638499 14:-1.0585452 15:0.7834932 16:2.4100448 17:-1.3744282 18:-1.226359 19:16.91601 20:-0.44714135 21:24.97268 22:8.6133089 23:7.0875031 
0.01426397621947137 1:0 2:5.4577134 3:107.35362 4:8.5951686 5:7.9328755 6:4 7:11.314048 8:7.5978754 9:-0.68341644 10:0.14528939 11:1.9648658 12:0.4206672 13:4.6171656 14:1.585431 15:0.59483648 16:0.28301223 17:0.29859752 18:-0.47800455 19:11.045902 20:-0.010680899 21:13.373214 22:8.6133089 23:1.5563218 
0.01277494954255624 1:0 2:4.5849825 3:90.374222 4:3.1574089 5:6.2111677 6:2 7:5.8762887 8:1.242918 9:-0.68341644 10:-0.02745535 11:-1.5349441 12:1.2143923 13:8.241906 14:0.097164163 15:0.71346461 16:2.4723109 17:-7.4542889 18:0.12274027 19:4.1974428 20:1.8455302 21:5.7095745 22:-0.63960215 23:3.1275245 
0.002795428829971061 1:0 2:3.1732118 3:33.776224 4:5.8762887 5:2.4522777 6:2 7:5.8762887 8:5.1342401 9:-0.68341644 10:0.17581514 11:0.49078942 12:-1.3149471 13:3.3744622 14:0.82503344 15:0.77530055 16:0.16640299 17:-0.8726454 18:-0.38829135 19:17.894361 20:1.1431801 21:14.518452 22:3.3259312 23:3.8628838 
0.01765676436142904 1:0 2:6.021302 3:84.714422 4:3.1574089 5:14.831262 6:1 7:0.43852901 8:7.7539951 9:-0.68341644 10:-2.4592691 11:0.047241218 12:0.66471097 13:4.1270616 14:0.97271473 15:0.46412391 16:-0.27130703 17:0.86886989 18:-0.20998321 19:29.634577 20:1.1231128 21:33.426996 22:5.9696201 23:4.0821216 
0.05164579851672123 1:0 2:3.6456969 3:22.456625 4:3.1574089 5:-0.37756997 6:2 7:5.8762887 8:2.6804316 9:-0.68341644 10:2.7156687 11:0.039617491 12:0.98008092 13:3.5232089 14:1.383769 15:0.76699957 16:2.1530914 17:-0.66568222 18:-0.7555831 19:4.1974428 20:0.9073911 21:3.2450557 22:-0.63960215 23:2.6936167 
0.774263682681127 1:0 2:2.3744607 3:-0.18257419 4:0.43852901 5:0.82062967 6:0 7:0.43852901 8:2.9145914 9:-0.68341644 10:2.7162558 11:0.21896521 12:1.1046119 13:-1.2335098 14:0.48682143 15:0.34645964 16:-0.48030721 17:1.9203288 18:-0.70802678 19:1.2623888 20:0.72176993 21:4.0932871 22:-0.63960215 23:3.090985 
-0.774263682681127 1:0 2:1.7509241 3:-0.18257419 4:0.43852901 5:0.079985966 6:0 7:0.43852901 8:1.6657142 9:-0.68341644 10:0.12215354 11:-1.5602536 12:0.75400067 13:2.5428354 14:1.0389247 15:0.6597007 16:0.63772889 17:-0.53308683 18:-0.82849933 19:0.28403748 20:2.9492234 21:1.7764663 22:-0.63960215 23:2.5748631 
0.774263682681127 1:0 2:-1.3538802 3:-0.18257419 4:0.43852901 5:0.087137234 6:0 7:0.43852901 8:-0.51981721 9:-0.68341644 10:-0.068059598 11:-1.5177403 12:0.39577271 13:-0.75157415 14:0.58539748 15:0.5932012 16:1.8782153 17:-0.61385619 18:0.36955325 19:-0.69431384 20:-0.6929639 21:-0.65429409 22:0.68224229 23:2.8534774 
0.01951378810671284 1:0 2:5.3607055 3:73.394823 4:8.5951686 5:7.7483754 6:2 7:3.1574089 8:4.397635 9:-0.68341644 10:0.054020526 11:1.9917964 12:0.65231544 13:5.8428883 14:11.584901 15:0.74665881 16:1.6022827 17:-1.0104835 18:-1.095129 19:13.980956 20:0.69668602 21:14.943086 22:12.578842 23:6.0415576 
0.01533255198164933 1:0 2:4.9555055 3:90.374222 4:11.314048 5:14.39996 6:2 7:3.1574089 8:8.168549 9:-0.68341644 10:0.13299737 11:-1.5444787 12:0.5464031 13:3.7337474 14:2.7404801 15:0.62410463 16:0.15598853 17:-0.33303379 18:0.30374452 19:19.851064 20:-0.19128523 21:14.806543 22:9.9351534 23:3.0818499 
0.008187938541505901 1:0 2:2.0939836 3:56.415423 4:14.032928 5:6.6550745 6:1 7:3.1574089 8:10.352407 9:-0.68341644 10:0.2211162 11:-1.558469 12:0.9703962 13:2.0859179 14:6.9144683 15:0.37097373 16:-1.3579965 17:1.4628369 18:-0.64698908 19:15.937659 20:-0.44714135 21:23.129446 22:7.2914645 23:7.18342 
0.1496814267640332 1:0 2:1.1327954 3:11.137025 4:0.43852901 5:-0.48617958 6:0 7:0.43852901 8:-1.378423 9:2.2109661 10:0.125977 11:0.21896521 12:0.85471793 13:-1.2335098 14:-1.0585452 15:-2.2424144 16:1.8855792 17:0.9204985 18:2.1625855 19:1.2623888 20:-0.24646989 21:5.2200259 22:2.0040867 23:1.5106471 
-0.1928181813347062 1:0 2:-2.2556744 3:11.137025 4:-2.2803509 5:0.58458534 6:0 7:-2.2803509 8:-1.378423 9:2.2109661 10:0.125977 11:0.21896521 12:0.85471793 13:-1.2335098 14:-1.0585452 15:-2.2424144 16:1.8855792 17:0.9204985 18:2.1625855 19:-0.69431384 20:-0.6929639 21:-0.65429409 22:-0.63960215 23:-0.74110557 
-0.774263682681127 1:0 2:0.010678371 3:-0.18257419 4:0.43852901 5:-0.35220479 6:0 7:0.43852901 8:1.8348361 9:-0.68341644 10:-2.4621751 11:0.34450231 12:1.0699065 13:0.080286754 14:0.10803245 15:0.23225662 16:-0.055107881 17:-0.99700055 18:-0.16316825 19:0.28403748 20:1.5144223 21:0.99153126 22:0.68224229 23:1.2685724 
0.01620027481407374 1:0 2:12.932742 3:101.69382 4:3.1574089 5:10.656805 6:3 7:8.5951686 8:11.422563 9:-0.68341644 10:0.25695475 11:0.066454189 12:-1.3302282 13:4.0001705 14:-1.0585452 15:0.51486887 16:0.44898453 17:0.35368988 18:-0.4041758 19:21.807767 20:-0.45717493 21:27.096884 22:5.9696201 23:4.1140936 
0.001812051017229915 1:0 2:9.8622283 3:11.137025 4:0.43852901 5:-0.1391764 6:1 7:3.1574089 8:0.47537698 9:-0.68341644 10:0.038849737 11:-1.5348836 12:1.230221 13:4.5370442 14:0.92554697 15:0.38325578 16:-0.21693304 17:0.79483994 18:-0.67867943 19:11.045902 20:0.250192 21:16.247098 22:-0.63960215 23:2.7941005 
-0.4296576445856082 1:0 2:-0.057928164 3:16.796825 4:0.43852901 5:-1.0372628 6:0 7:0.43852901 8:-1.378423 9:2.2109661 10:0.125977 11:0.21896521 12:0.85471793 13:-1.2335098 14:-1.0585452 15:-2.2424144 16:1.8855792 17:0.9204985 18:2.1625855 19:1.2623888 20:0.32042701 21:2.9412052 22:-0.63960215 23:2.7392911 
0.01286586372267114 1:0 2:4.9268963 3:96.034022 4:8.5951686 5:5.4834186 6:3 7:5.8762887 8:7.4157498 9:-0.68341644 10:-2.4768998 11:0.15902858 12:0.95758702 13:6.1429691 14:10.661666 15:0.57611974 16:-0.8358034 17:-2.7045683 18:-0.84065226 19:9.0891994 20:0.24517522 21:8.1783107 22:5.9696201 23:3.387869 
-0.7215617111916631 1:0 2:-0.084310392 3:-0.18257419 4:0.43852901 5:-1.1205589 6:0 7:0.43852901 8:0.18267711 9:-0.11650302 10:0.79909867 11:-0.14066161 12:-1.2197854 13:1.8247285 14:-0.35956614 15:0.80564643 16:-0.20408146 17:0.11995937 18:-0.27261759 19:-0.69431384 20:-0.6929639 21:-0.65429409 22:-0.63960215 23:-0.74110557 
-0.1595176362886026 1:0 2:1.056489 3:16.796825 4:3.1574089 5:5.3811179 6:2 7:3.1574089 8:4.4756928 9:-0.68341644 10:0.40171 11:1.9799613 12:1.0876936 13:4.4802951 14:5.9523791 15:0.44375581 16:-0.97608204 17:-0.53652527 18:-0.056300476 19:0.28403748 20:-0.39195669 21:-0.55301217 22:-0.63960215 23:-0.46705857 
0.01481320625180876 1:0 2:2.8198872 3:107.35362 4:11.314048 5:16.508414 6:1 7:3.1574089 8:3.7731971 9:-0.68341644 10:0.24438988 11:-1.5502956 12:0.62252344 13:4.1785372 14:10.756194 15:0.76775232 16:0.65855082 17:-4.7651077 18:-0.33208849 19:8.1108481 20:0.250192 21:11.398234 22:-0.63960215 23:6.5668141 
-0.2188975050205419 1:0 2:-0.35918967 3:-0.18257419 4:0.43852901 5:0.8767464 6:0 7:0.43852901 8:-0.75398443 9:-0.018200698 10:-0.43426507 11:-1.1040814 12:-0.5375491 13:-0.1345613 14:0.5052372 15:0.38949544 16:-1.3465746 17:0.93947956 18:-0.3931924 19:-0.69431384 20:-0.6929639 21:-0.65429409 22:-0.63960215 23:-0.74110557 
0.01861895644475466 1:0 2:14.342689 3:45.095824 4:5.8762887 5:1.3097083 6:2 7:5.8762887 8:3.460975 9:-0.68341644 10:-2.4812408 11:0.21896521 12:0.85471793 13:5.4924946 14:-1.0585452 15:0.6689183 16:0.3316296 17:-3.8628294 18:-1.017407 19:13.002605 20:2.3722929 21:16.411673 22:2.0040867 23:4.790076 
0.02541174458581752 1:0 2:11.359113 3:56.415423 4:0.43852901 5:-0.64485515 6:1 7:3.1574089 8:0.17573523 9:-0.68341644 10:0.11893007 11:1.9802449 12:1.1812926 13:2.9314624 14:-0.36471904 15:0.065893473 16:-1.3507477 17:0.22367581 18:-1.0858163 19:8.1108481 20:162.35763 21:9.5729053 22:-0.63960215 23:147.70559 
-0.3337839926094793 1:0 2:-1.3495459 3:5.4772256 4:-2.2803509 5:2.8560935 6:0 7:-2.2803509 8:-1.378423 9:2.2109661 10:0.125977 11:0.21896521 12:0.85471793 13:-1.2335098 14:-1.0585452 15:-2.2424144 16:1.8855792 17:0.9204985 18:2.1625855 19:-0.69431384 20:-0.6929639 21:-0.65429409 22:-0.63960215 23:-0.74110557 
0.7537560442562271 1:0 2:-1.3845893 3:-0.18257419 4:0.43852901 5:-0.23649165 6:0 7:0.43852901 8:-1.378423 9:2.2109661 10:0.125977 11:0.21896521 12:0.85471793 13:-1.2335098 14:-1.0585452 15:-2.2424144 16:1.8855792 17:0.9204985 18:2.1625855 19:3.2190915 20:2.9642736 21:4.6629929 22:0.68224229 23:3.7532651 
-0.4339329849483805 1:0 2:-0.028381689 3:-0.18257419 4:0.43852901 5:0.56820488 6:0 7:0.43852901 8:0.26073212 9:-0.68341644 10:-2.4812408 11:0.21896521 12:0.85471793 13:1.1256165 14:0.87718478 15:0.6689183 16:0.8057229 17:-2.0547645 18:-0.78888802 19:1.2623888 20:1.1481969 21:1.7258248 22:0.68224229 23:0.93514855 
0.002554463869589796 1:0 2:11.064037 3:50.755624 4:0.43852901 5:7.171988 6:2 7:5.8762887 8:2.3682078 9:-0.68341644 10:0.12215354 11:-1.5602536 12:0.75400067 13:4.5194461 14:7.8353452 15:0.6597007 16:0.63772889 17:-0.53308683 18:-0.82849933 19:13.002605 20:1.7552281 21:12.259123 22:-0.63960215 23:5.3838446 
0.009099019515775637 1:0 2:7.8029319 3:67.735023 4:0.43852901 5:5.5320859 6:2 7:5.8762887 8:5.7050596 9:-0.68341644 10:2.7331948 11:0.21896521 12:0.85471793 13:3.6721884 14:0.85058619 15:0.18074057 16:-0.21054047 17:0.214233 18:0.17974698 19:6.1541454 20:-0.47724207 21:4.6222039 22:4.6477756 23:2.9722312 
0.005610980305271719 1:0 2:6.1515781 3:28.116425 4:8.5951686 5:10.604615 6:0 7:0.43852901 8:4.9440251 9:-0.68341644 10:2.7268028 11:0.21896521 12:0.70105408 13:5.2124394 14:0.052792621 15:0.8385956 16:1.593802 17:-1.2917977 18:0.32136482 19:14.959307 20:-0.010680899 21:22.691138 22:-0.63960215 23:6.7951866 
0.004785551688875784 1:0 2:3.7763534 3:39.436024 4:3.1574089 5:8.7609591 6:1 7:3.1574089 8:4.5622357 9:-0.23077167 10:-1.1702812 11:-1.3086591 12:1.1425463 13:5.2362236 14:0.60153417 15:0.81683968 16:1.9877335 17:-5.1523562 18:0.34270907 19:7.1324968 20:1.5645901 21:9.2023877 22:3.3259312 23:5.8953989 
0.774263682681127 1:0 2:1.5505333 3:22.456625 4:0.43852901 5:0.34459323 6:0 7:0.43852901 8:-1.378423 9:2.2109661 10:0.125977 11:0.21896521 12:0.85471793 13:-1.2335098 14:-1.0585452 15:-2.2424144 16:1.8855792 17:0.9204985 18:2.1625855 19:1.2623888 20:1.0378275 21:0.0040369934 22:0.68224229 23:0.83466464 
0.0135664348732147 1:0 2:7.7677214 3:79.054622 4:8.5951686 5:9.390048 6:2 7:5.8762887 8:7.7601354 9:-0.68341644 10:2.725749 11:0.21896521 12:1.0205474 13:1.6219812 14:0.20209939 15:0.14092116 16:-1.6714134 17:2.3206845 18:0.37826167 19:17.894361 20:0.024436575 21:12.334818 22:13.900687 23:5.0960952 
-0.1597838422544233 1:0 2:0.15629807 3:11.137025 4:0.43852901 5:3.2829641 6:0 7:0.43852901 8:-1.222313 9:-0.68341644 10:0.32645132 11:-1.5479009 12:0.63511862 13:1.907328 14:1.318933 15:0.35484039 16:0.42250999 17:0.50038132 18:2.1625855 19:1.2623888 20:0.51608175 21:2.0296736 22:0.68224229 23:0.35964987 
0.774263682681127 1:0 2:-0.38921966 3:-0.18257419 4:0.43852901 5:0.7579468 6:0 7:0.43852901 8:1.197387 9:-0.16673714 10:-0.64964111 11:-0.58365471 12:-0.9934444 13:-0.4340489 14:0.4732194 15:0.079055284 16:-0.14708911 17:0.76244999 18:0.17591441 19:-0.69431384 20:-0.6929639 21:-0.65429409 22:-0.63960215 23:-0.74110557 
-0.007082301172732368 1:0 2:3.6139288 3:62.075223 4:3.1574089 5:5.1121873 6:2 7:5.8762887 8:3.6170858 9:-0.28708679 10:0.47234574 11:-1.5449134 12:0.76715943 13:3.5744036 14:2.6245571 15:0.12499876 16:-0.63592245 17:0.37944916 18:-0.48261364 19:1.2623888 20:3.6766574 21:-0.40108976 22:-0.63960215 23:3.7715349 
0.00692311759503438 1:0 2:12.128543 3:28.116425 4:0.43852901 5:2.4181152 6:1 7:3.1574089 8:1.6657141 9:-0.68341644 10:0.21681282 11:-1.5582456 12:0.73160857 13:4.5640492 14:1.0926294 15:0.41856598 16:-0.47187817 17:-1.5427551 18:-0.034341299 19:17.894361 20:0.97762605 21:16.968722 22:-0.63960215 23:4.3241963 
0.001102240988301023 1:0 2:9.5469516 3:11.137025 4:3.1574089 5:8.3079236 6:1 7:3.1574089 8:9.5492522 9:-0.68341644 10:0.32001108 11:1.9556718 12:1.3136572 13:1.701999 14:-1.0585452 15:0.14818819 16:-1.2769136 17:1.4417574 18:-0.37466326 19:19.851064 20:0.32042701 21:19.956524 22:11.256998 23:3.4563806 
0.5376723380948984 1:0 2:2.9089167 3:5.4772256 4:0.43852901 5:2.0871615 6:0 7:0.43852901 8:2.4197021 9:-0.68341644 10:-2.4785975 11:0.28414472 12:0.79714734 13:-0.12600305 14:1.3919479 15:0.48277471 16:-0.47079746 17:-0.31337661 18:-1.1355511 19:1.2623888 20:1.5645901 21:3.0103707 22:2.0040867 23:3.3467619 
0.0164228146400136 1:0 2:5.7871811 3:101.69382 4:11.314048 5:11.02814 6:2 7:5.8762887 8:3.2840517 9:-0.68341644 10:0.17581949 11:0.4908115 12:-1.3149428 13:5.5701324 14:0.43859237 15:0.54043525 16:-1.8554504 17:-4.9176466 18:-0.22580598 19:25.721172 20:0.27025913 21:25.417862 22:11.256998 23:5.9273713 
0.02133421531017509 1:0 2:6.6066569 3:28.116425 4:3.1574089 5:3.3772028 6:3 7:8.5951686 8:4.5407378 9:-0.68341644 10:0.13569725 11:1.9656553 12:0.42529186 13:5.8427543 14:8.8167547 15:0.59342581 16:0.23370562 17:-4.5875097 18:0.38974537 19:25.721172 20:0.30537666 21:28.295391 22:-0.63960215 23:6.4160883 
0.009142017654616683 1:0 2:6.1760513 3:84.714422 4:0.43852901 5:5.5912015 6:3 7:5.8762887 8:6.9844285 9:-0.68341644 10:-2.4808732 11:0.21896521 12:0.81783973 13:0.98908993 14:-1.0585452 15:0.15075341 16:-2.1010018 17:1.2883489 18:0.35154656 19:12.024253 20:0.66658532 21:14.182347 22:0.68224229 23:0.49667335 
0.0394461170749775 1:0 2:7.0180996 3:16.796825 4:0.43852901 5:-1.1304647 6:0 7:0.43852901 8:5.4904049 9:-0.68341644 10:2.7318706 11:0.16221259 12:0.85347078 13:4.1876366 14:-1.0585452 15:0.52867043 16:0.18824886 17:0.096371815 18:0.40634557 19:3.2190915 20:0.58129991 21:1.8271031 22:-0.63960215 23:0.95798577 
0.02115897982060002 1:0 2:1.8627791 3:28.116425 4:5.8762887 5:2.2836139 6:0 7:0.43852901 8:-1.378423 9:2.2109661 10:0.125977 11:0.21896521 12:0.85471793 13:-1.2335098 14:-1.0585452 15:-2.2424144 16:1.8855792 17:0.9204985 18:2.1625855 19:5.1757941 20:2.9893576 21:8.6606199 22:-0.63960215 23:5.1737419 
-0.2415126346403606 1:0 2:1.5862034 3:11.137025 4:0.43852901 5:7.7470332 6:2 7:3.1574089 8:1.5096026 9:-0.36635272 10:-0.078785736 11:-0.011645175 12:-1.3157524 13:0.30976355 14:-1.0585452 15:0.57333458 16:-0.12417078 17:-0.46087853 18:-0.46731597 19:4.1974428 20:2.7786526 21:12.512322 22:-0.63960215 23:5.8999665 
0.002041003174672575 1:0 2:7.4808384 3:11.137025 4:0.43852901 5:1.1825593 6:0 7:0.43852901 8:-1.378423 9:2.2109661 10:0.125977 11:0.21896521 12:0.85471793 13:-1.2335098 14:-1.0585452 15:-2.2424144 16:1.8855792 17:0.9204985 18:2.1625855 19:11.045902 20:1.9960339 21:14.993721 22:4.6477756 23:5.4432215 
0.3595295553311308 1:0 2:-4.3274085 3:-0.18257419 4:0.43852901 5:-1.0996573 6:0 7:0.43852901 8:-0.59787295 9:-0.68341644 10:0.15111361 11:-1.5558724 12:1.0373963 13:-1.2335098 14:0.41014722 15:0.24815393 16:0.035210433 17:1.0783828 18:0.42854905 19:-0.69431384 20:-0.6929639 21:-0.65429409 22:0.68224229 23:1.944555 
-0.2689314569023217 1:0 2:6.0572032 3:62.075223 4:-2.2803509 5:-1.0139127 6:0 7:-2.2803509 8:-1.378423 9:2.2109661 10:0.125977 11:0.21896521 12:0.85471793 13:-1.2335098 14:-1.0585452 15:-2.2424144 16:1.8855792 17:0.9204985 18:2.1625855 19:-0.69431384 20:-0.6929639 21:-0.65429409 22:-0.63960215 23:-0.74110557 
0.002225304687077307 1:0 2:4.673323 3:73.394823 4:0.43852901 5:6.7639642 6:1 7:3.1574089 8:3.7280969 9:-0.68341644 10:0.17460299 11:0.4855607 12:-1.3159524 13:1.4516974 14:1.1050407 15:0.58357072 16:-0.16650784 17:0.16586993 18:-1.0952587 19:23.764469 20:-0.25650345 21:25.994042 22:0.68224229 23:0.49667335 
0.0437445276198592 1:0 2:4.3409043 3:22.456625 4:3.1574089 5:7.012361 6:1 7:0.43852901 8:0.18267711 9:-0.68341644 10:-2.4799166 11:0.27571784 12:0.85596507 13:4.302566 14:-1.0585452 15:0.52867043 16:0.18824886 17:0.096371815 18:-0.59569063 19:5.1757941 20:0.58129991 21:7.296321 22:-0.63960215 23:5.772078 
-0.1845427929030383 1:0 2:-2.7734958 3:45.095824 4:-2.2803509 5:-0.4280929 6:0 7:-2.2803509 8:-1.378423 9:2.2109661 10:0.125977 11:0.21896521 12:0.85471793 13:-1.2335098 14:-1.0585452 15:-2.2424144 16:1.8855792 17:0.9204985 18:2.1625855 19:-0.69431384 20:-0.6929639 21:-0.65429409 22:-0.63960215 23:-0.74110557 
0.1019161412245555 1:0 2:-1.3491967 3:22.456625 4:0.43852901 5:5.3715162 6:1 7:3.1574089 8:0.54577291 9:-0.68341644 10:2.7328492 11:0.21896521 12:0.89047399 13:1.6045831 14:0.438664 15:0.8005634 16:0.52698844 17:-0.91600788 18:-0.89102886 19:7.1324968 20:1.5645901 21:7.9884096 22:2.0040867 23:2.108983 
0.009507728931136484 1:0 2:4.379828 3:33.776224 4:0.43852901 5:5.3726643 6:1 7:3.1574089 8:6.1928957 9:-0.059580638 10:1.5452403 11:1.4133394 12:1.9613411 13:6.7318524 14:8.7003277 15:0.78420095 16:0.12637511 17:-5.5577361 18:0.31988974 19:8.1108481 20:1.945866 21:15.044361 22:2.0040867 23:4.1826052 
0.00975569186591474 1:0 2:8.5198168 3:22.456625 4:3.1574089 5:9.3560384 6:2 7:5.8762887 8:11.422564 9:-0.68341644 10:0.15186344 11:-1.5482675 12:1.1272716 13:2.1458722 14:1.6501707 15:0.35119087 16:-1.2863983 17:1.4649708 18:-1.0085777 19:12.024253 20:0.014403011 21:24.007805 22:0.68224229 23:1.7709918 
-0.774263682681127 1:0 2:-0.58974567 3:-0.18257419 4:0.43852901 5:0.79753205 6:0 7:0.43852901 8:-0.20760159 9:-0.2041483 10:1.0160996 11:-0.63311665 12:-0.92180188 13:-0.66534315 14:0.43213789 15:0.49885805 16:0.01166867 17:0.68668979 18:-0.51592725 19:-0.69431384 20:-0.6929639 21:-0.65429409 22:-0.63960215 23:-0.74110557 
0.00377754663941488 1:0 2:6.2897272 3:101.69382 4:3.1574089 5:11.176996 6:2 7:3.1574089 8:5.4904013 9:-0.68341644 10:0.21549477 11:-1.5050455 12:1.4010006 13:2.8509919 14:0.83503988 15:0.33228603 16:0.087805609 17:1.322142 18:-0.044690966 19:10.067551 20:2.1064031 21:16.310377 22:5.9696201 23:4.0912563 
0.01658861734692019 1:0 2:10.07117 3:56.415423 4:3.1574089 5:7.1210565 6:3 7:8.5951686 8:2.3219538 9:-0.68341644 10:0.13320789 11:-1.5417806 12:0.52379812 13:1.9718451 14:0.67385518 15:0.58583657 16:0.20882312 17:-0.39010812 18:-0.68616029 19:19.851064 20:1.168264 21:28.154718 22:2.0040867 23:1.3507864 
0.01318513020354524 1:0 2:5.0264194 3:22.456625 4:0.43852901 5:5.7844607 6:3 7:8.5951686 8:4.8141537 9:-0.68341644 10:2.725749 11:0.21896521 12:1.0205474 13:1.6219812 14:0.20209939 15:0.14092116 16:-1.6714134 17:2.3206845 18:0.37826167 19:23.764469 20:0.4408299 21:20.175092 22:12.578842 23:5.447789 
0.02356758623740426 1:0 2:9.7013805 3:22.456625 4:3.1574089 5:-0.030538526 6:1 7:3.1574089 8:5.3562627 9:-0.68341644 10:0.11893007 11:1.9802449 12:1.1812931 13:3.6795847 14:0.52071432 15:0.16624025 16:-1.5270951 17:0.19684294 18:0.42942506 19:8.1108481 20:162.35763 21:7.5562745 22:-0.63960215 23:147.70559 
0.02199150163666432 1:0 2:10.909473 3:39.436024 4:3.1574089 5:8.1713907 6:2 7:5.8762887 8:3.8902756 9:-0.68341644 10:0.10615176 11:1.9382931 12:0.28171048 13:-0.54409926 14:0.67114703 15:0.30073178 16:-1.7360622 17:1.8127299 18:-0.35005981 19:13.980956 20:0.044503763 21:17.51311 22:20.509909 23:2.6936167 
0.007177239242968605 1:0 2:7.7908739 3:56.415423 4:3.1574089 5:7.4223499 6:6 7:8.5951686 8:4.6318014 9:-0.68341644 10:2.715661 11:0.039585125 12:0.98012015 13:3.7551209 14:3.4364091 15:-0.14459652 16:-1.0822113 17:0.2361807 18:-1.1353782 19:12.024253 20:0.75187074 21:13.170657 22:-0.63960215 23:3.9359629 
0.01072381727646492 1:0 2:12.413517 3:96.034022 4:5.8762887 5:6.9984467 6:2 7:5.8762887 8:7.2076058 9:-0.68341644 10:0.36373077 11:-1.5336029 12:1.191048 13:4.4649655 14:-1.0585452 15:0.52657918 16:0.98734986 17:-0.21726331 18:-0.60336823 19:8.1108481 20:-0.45717493 21:6.1315804 22:2.0040867 23:4.0775541 
0.02279671043982555 1:0 2:7.508689 3:33.776224 4:3.1574089 5:12.516907 6:1 7:3.1574089 8:11.574161 9:-0.68341644 10:0.014095862 11:-1.5371114 12:1.2091524 13:2.6633793 14:14.131996 15:0.63754314 16:-0.21168776 17:-2.3764411 18:0.33028778 19:19.851064 20:0.88732397 21:18.364044 22:11.256998 23:6.2333905 
0.009052678168638653 1:0 2:10.904063 3:79.054622 4:3.1574089 5:10.139336 6:2 7:5.8762887 8:8.6126017 9:-0.68341644 10:0.15085921 11:-1.5558728 12:1.037418 13:3.0762582 14:-1.0585452 15:0.20367372 16:-0.30160716 17:1.1448345 18:0.15078667 19:22.786118 20:-0.45717493 21:18.893074 22:8.6133089 23:1.9491223 
-0.7336920185582237 1:0 2:2.2496397 3:11.137025 4:0.43852901 5:-0.83148413 6:1 7:3.1574089 8:-1.378423 9:2.2109661 10:0.125977 11:0.21896521 12:0.85471793 13:-1.2335098 14:-1.0585452 15:-2.2424144 16:1.8855792 17:0.9204985 18:2.1625855 19:2.2407401 20:0.97762605 21:0.30788369 22:-0.63960215 23:2.5291884 
-0.4705172912775312 1:0 2:0.49002617 3:-0.18257419 4:0.43852901 5:-0.97022051 6:0 7:0.43852901 8:-0.73447086 9:-0.68341644 10:0.044076673 11:1.9574005 12:0.3820229 13:-0.61580738 14:0.091714018 15:0.36230261 16:-1.2790915 17:1.2186532 18:-0.70200572 19:0.28403748 20:1.2033815 21:0.36696143 22:-0.63960215 23:0.98539045 
0.774263682681127 1:0 2:1.1431813 3:-0.18257419 4:0.43852901 5:-0.75136004 6:0 7:0.43852901 8:-0.23610192 9:-0.68341644 10:0.13532094 11:1.9981256 12:0.75269727 13:4.2528228 14:-0.20446809 15:0.5396844 16:-0.051799496 17:-0.2818474 18:-0.13927373 19:1.2623888 20:1.6900098 21:0.90595737 22:0.68224229 23:1.4467029 
0.0081906085918328 1:0 2:4.1757299 3:22.456625 4:0.43852901 5:5.2396521 6:3 7:5.8762887 8:0.026564165 9:-0.17728832 10:0.089813216 11:-1.1527006 12:-0.54563235 13:1.4683513 14:14.108061 15:0.37827035 16:-1.4047309 17:1.6109916 18:-0.52345023 19:1.2623888 20:2.2368396 21:0.45980615 22:2.0040867 23:1.9856619 
0.007394608079175234 1:0 2:7.0552715 3:50.755624 4:3.1574089 5:8.6450389 6:1 7:3.1574089 8:3.5390292 9:-0.68341644 10:0.12215354 11:-1.5602536 12:0.75400067 13:4.5194461 14:7.8353452 15:0.6597007 16:0.63772889 17:-0.53308683 18:-0.82849933 19:11.045902 20:1.7552281 21:16.107825 22:-0.63960215 23:5.347305 
-0.01111168126840733 1:0 2:-4.5172612 3:11.137025 4:0.43852901 5:0.82062967 6:0 7:0.43852901 8:1.1583556 9:-0.072648239 10:-0.98320334 11:-1.3524709 12:0.41237167 13:0.7494889 14:1.5919843 15:0.65254252 16:-0.16289154 17:-1.5496832 18:0.42899498 19:-0.69431384 20:-0.6929639 21:-0.65429409 22:-0.63960215 23:-0.74110557 
0.006033671844740463 1:0 2:4.6553891 3:28.116425 4:5.8762887 5:10.873409 6:2 7:5.8762887 8:6.9104209 9:-0.68341644 10:0.13299749 11:-1.5444756 12:0.54637696 13:1.0299794 14:7.8623474 15:0.37130252 16:-0.98617399 17:0.12499549 18:-0.80446826 19:20.829415 20:-0.19128523 21:24.457562 22:7.2914645 23:5.8588593 
-0.09461227374398963 1:0 2:-2.2451599 3:56.415423 4:8.5951686 5:12.486987 6:1 7:3.1574089 8:0.65100421 9:0.21697986 10:-0.0037803649 11:-1.5137896 12:0.35850625 13:4.4570335 14:17.289356 15:0.85592399 16:2.750486 17:-3.8673476 18:-0.58108416 19:2.2407401 20:3.8723122 21:4.662995 22:-0.63960215 23:5.6624593 
0.009952656554084329 1:0 2:8.1088647 3:28.116425 4:0.43852901 5:10.32852 6:2 7:5.8762887 8:11.866326 9:-0.68341644 10:0.23785961 11:1.975045 12:0.50030816 13:-0.13913963 14:-1.0585452 15:0.2736298 16:-1.042094 17:0.65783561 18:-1.1910304 19:15.937659 20:0.92745823 21:15.457581 22:9.9351534 23:6.2333905 
0.004850997003301731 1:0 2:9.9318132 3:73.394823 4:0.43852901 5:3.6231339 6:1 7:3.1574089 8:9.8614663 9:-0.68341644 10:2.7248557 11:0.34425268 12:0.93799991 13:4.8018354 14:0.33232872 15:0.5023918 16:-0.70540932 17:0.54422229 18:-0.87479418 19:9.0891994 20:1.0378275 21:12.157841 22:2.0040867 23:2.84891 
-0.0190285270493544 1:0 2:2.6252265 3:45.095824 4:5.8762887 5:6.4857309 6:3 7:5.8762887 8:1.6787202 9:-0.68341644 10:-0.013831387 11:-1.4846628 12:1.4843442 13:3.1892793 14:-1.0585452 15:0.41080664 16:-0.94557405 17:0.97775492 18:-0.85495703 19:9.0891994 20:0.054537327 21:6.6464271 22:0.68224229 23:0.58345492 
-0.6714410588400812 1:0 2:1.748285 3:28.116425 4:0.43852901 5:-0.97022051 6:0 7:0.43852901 8:-0.73447086 9:-0.68341644 10:0.044076673 11:1.9574005 12:0.3820229 13:-0.61580738 14:0.091714018 15:0.36230261 16:-1.2790915 17:1.2186532 18:-0.70200572 19:0.28403748 20:1.2033815 21:0.36696143 22:-0.63960215 23:0.98539045 
0.01671362842998791 1:0 2:1.6910904 3:101.69382 4:0.43852901 5:-0.7783261 6:1 7:3.1574089 8:-1.378423 9:2.2109661 10:0.125977 11:0.21896521 12:0.85471793 13:-1.2335098 14:-1.0585452 15:-2.2424144 16:1.8855792 17:0.9204985 18:2.1625855 19:3.2190915 20:1.3488684 21:3.20707 22:3.3259312 23:1.4786751 
0.005724664652181084 1:0 2:6.0082032 3:16.796825 4:0.43852901 5:1.8723174 6:1 7:3.1574089 8:2.992647 9:0.0040667276 10:-0.88227515 11:-0.060229187 12:-1.1407728 13:2.4233208 14:14.532 15:0.56501059 16:1.7438233 17:-1.1276896 18:-0.79217319 19:0.28403748 20:4.5194777 21:2.6880026 22:-0.63960215 23:4.0044749 
-0.3946766816926304 1:0 2:1.1223654 3:22.456625 4:0.43852901 5:-0.17482927 6:1 7:0.43852901 8:1.071182 9:-0.68341644 10:0.071177988 11:1.9678519 12:0.4415913 13:4.3957689 14:0.12844213 15:0.44902711 16:-0.18112159 17:-1.7732903 18:-0.049868442 19:1.2623888 20:1.4793047 21:2.1406266 22:0.68224229 23:1.752722 
0.02379534262087308 1:0 2:10.252494 3:118.67322 4:8.5951686 5:11.86681 6:3 7:8.5951686 8:6.3923682 9:-0.68341644 10:0.17520366 11:0.49126107 12:-1.314867 13:3.7362705 14:-1.0585452 15:0.42085225 16:-0.73345655 17:0.29272424 18:0.28737419 19:13.980956 20:-0.44212457 21:10.005041 22:7.2914645 23:5.8588593 
0.01435885387739979 1:0 2:5.1370717 3:73.394823 4:3.1574089 5:9.0065206 6:3 7:5.8762887 8:2.0559855 9:-0.1657919 10:-0.5237825 11:-1.3514464 12:1.7343435 13:7.8240453 14:16.491977 15:0.81962501 16:2.4318509 17:-3.9595442 18:0.40477638 19:3.2190915 20:1.213415 21:2.4348003 22:-0.63960215 23:3.6436464 
0.6439349827598949 1:0 2:-1.6409589 3:11.137025 4:0.43852901 5:1.4137385 6:0 7:0.43852901 8:-1.0922218 9:-0.68341644 10:2.7313164 11:0.28004095 12:0.8904301 13:3.1580656 14:0.62252274 15:0.23772519 16:-1.7486146 17:1.3419469 18:-0.7249721 19:1.2623888 20:1.6348251 21:4.0806258 22:-0.63960215 23:3.8583163 
0.774263682681127 1:0 2:-0.53718962 3:-0.18257419 4:0.43852901 5:-1.2439319 6:0 7:0.43852901 8:-0.91009442 9:-0.36635272 10:0.26413309 11:0.21896521 12:-1.3379907 13:-0.79469402 14:0.76715045 15:0.37013221 16:-0.46580968 17:1.7687701 18:0.053878737 19:-0.69431384 20:-0.6929639 21:-0.65429409 22:-0.63960215 23:-0.74110557 
0.215442990121775 1:0 2:2.5127754 3:28.116425 4:0.43852901 5:3.1087122 6:0 7:0.43852901 8:-0.046287372 9:-0.15630336 10:0.98016208 11:-0.076782958 12:-1.1875955 13:1.6861519 14:0.48343884 15:0.39979958 16:-0.035963769 17:1.593062 18:-0.34340207 19:-0.69431384 20:-0.6929639 21:-0.65429409 22:-0.63960215 23:-0.74110557 
0.01591417839566513 1:0 2:6.4118788 3:22.456625 4:0.43852901 5:1.7431497 6:2 7:5.8762887 8:8.2411155 9:-0.68341644 10:2.725749 11:0.21896521 12:1.0205474 13:1.6219812 14:0.20209939 15:0.14092116 16:-1.6714134 17:2.3206845 18:0.37826167 19:23.764469 20:0.024436575 21:16.859552 22:23.153598 23:5.447789 
-0.05458522407005206 1:0 2:-5.1472233 3:28.116425 4:3.1574089 5:7.3013239 6:2 7:0.43852901 8:-1.378423 9:2.2109661 10:0.125977 11:0.21896521 12:0.85471793 13:-1.2335098 14:-1.0585452 15:-2.2424144 16:1.8855792 17:0.9204985 18:2.1625855 19:4.1974428 20:-0.24646989 21:3.3463361 22:2.0040867 23:-0.010313591 
0.01355263671704155 1:0 2:10.134606 3:50.755624 4:3.1574089 5:12.551803 6:2 7:3.1574089 8:10.713571 9:-0.68341644 10:0.13475876 11:1.9897826 12:0.61928098 13:1.2699989 14:1.0542518 15:0.076336053 16:-0.94793492 17:1.6768391 18:-1.2454843 19:15.937659 20:0.10972199 21:19.589379 22:9.9351534 23:5.8223198 
0.3033566172566109 1:0 2:-2.9626879 3:28.116425 4:0.43852901 5:0.48059433 6:0 7:0.43852901 8:-0.19430244 9:-0.68341644 10:0.17581514 11:0.49078942 12:-1.3149471 13:1.3188644 14:0.82503344 15:0.77530055 16:0.16640299 17:-0.8726454 18:-0.38829135 19:0.28403748 20:2.1967054 21:0.83417155 22:-0.63960215 23:1.8897456 
0.006318842210268283 1:0 2:4.6286472 3:45.095824 4:0.43852901 5:3.6615028 6:0 7:0.43852901 8:-1.378423 9:2.2109661 10:0.125977 11:0.21896521 12:0.85471793 13:-1.2335098 14:-1.0585452 15:-2.2424144 16:1.8855792 17:0.9204985 18:2.1625855 19:13.002605 20:1.7201105 21:11.347587 22:9.9351534 23:4.6484853 
0.01686542581621189 1:0 2:6.7845896 3:84.714422 4:3.1574089 5:3.4357055 6:3 7:0.43852901 8:2.2120941 9:-0.68341644 10:-2.4795783 11:0.27786541 12:0.88429019 13:3.4351066 14:2.7175375 15:0.15673679 16:-1.4057367 17:1.2944243 18:0.11316865 19:3.2190915 20:0.76692108 21:6.8911945 22:4.6477756 23:2.3510579 
0.01694148260557575 1:0 2:15.680493 3:56.415423 4:0.43852901 5:9.9483239 6:4 7:8.5951686 8:7.0515 9:-0.68341644 10:-2.4804537 11:0.21896521 12:0.90867034 13:2.5029836 14:0.7483744 15:0.30287287 16:-1.7371013 17:1.0076995 18:-0.11658448 19:7.1324968 20:-0.45717493 21:12.309756 22:2.0040867 23:0.63369682 
0.01199366155526873 1:0 2:6.7815003 3:96.034022 4:8.5951686 5:0.092583467 6:2 7:5.8762887 8:2.6218855 9:-0.68341644 10:2.0425088 11:1.405028 12:0.57523137 13:4.0924203 14:-0.040173323 15:-0.015632577 16:-1.8945288 17:0.41048659 18:-0.014299476 19:6.1541454 20:0.250192 21:3.270373 22:0.68224229 23:0.62912937 
0.01418567284499723 1:0 2:6.0624801 3:33.776224 4:5.8762887 5:2.00765 6:3 7:8.5951686 8:5.7245686 9:-0.68341644 10:-2.4759785 11:0.28812178 12:0.7443805 13:7.6096641 14:6.894147 15:0.72263046 16:0.46549458 17:-5.7884598 18:-0.10499204 19:11.045902 20:0.30537666 21:9.6258089 22:9.9351534 23:5.4340868 
0.003964797817421579 1:0 2:2.2507794 3:33.776224 4:0.43852901 5:8.7571393 6:2 7:3.1574089 8:-1.2808544 9:-0.68341644 10:0.10615176 11:1.9382931 12:0.28171048 13:-0.54409926 14:0.67114703 15:0.30073178 16:-1.7360622 17:1.8127299 18:-0.35005981 19:13.002605 20:0.044503763 21:12.955433 22:16.544376 23:5.0641232 
-0.774263682681127 1:0 2:-0.70806555 3:-0.18257419 4:0.43852901 5:2.8560935 6:0 7:0.43852901 8:1.4315543 9:-0.21881529 10:1.1499588 11:0.45329733 12:-1.1438628 13:-0.057390142 14:-1.0585452 15:0.40279326 16:-0.70554219 17:-0.0330239 18:-0.39736994 19:-0.69431384 20:-0.6929639 21:-0.65429409 22:-0.63960215 23:-0.74110557 
0.02806412938796343 1:0 2:5.9518791 3:16.796825 4:0.43852901 5:10.605186 6:2 7:5.8762887 8:5.3562627 9:-0.68341644 10:0.13299749 11:-1.5444756 12:0.54637696 13:1.0299794 14:7.8623474 15:0.37130252 16:-0.98617399 17:0.12499549 18:-0.80446826 19:32.569631 20:-0.44212457 21:37.613677 22:19.188064 23:7.1971218 
0.02539486010120079 1:0 2:5.8354391 3:56.415423 4:3.1574089 5:5.6544932 6:3 7:3.1574089 8:2.9880216 9:-0.68341644 10:0.11893007 11:1.9802449 12:1.1812931 13:2.9813502 14:2.9038695 15:0.16624025 16:-1.5270951 17:0.19684294 18:0.42942506 19:11.045902 20:0.61641739 21:10.629236 22:-0.63960215 23:147.70559 
0.05244679958810581 1:0 2:5.9960595 3:5.4772256 4:0.43852901 5:0.82062967 6:0 7:0.43852901 8:2.9145914 9:-0.68341644 10:2.7162558 11:0.21896521 12:1.1046119 13:-1.2335098 14:0.48682143 15:0.34645964 16:-0.48030721 17:1.9203288 18:-0.70802678 19:2.2407401 20:0.12477233 21:4.3464914 22:0.68224229 23:0.003388745 
0.01436916084862655 1:0 2:3.8039754 3:101.69382 4:8.5951686 5:9.4571663 6:3 7:5.8762887 8:6.1148429 9:-0.68341644 10:2.7236375 11:0.27546212 12:1.0291668 13:4.328061 14:0.078601854 15:0.56947654 16:-0.013319738 17:0.06505019 18:0.14703164 19:28.656226 20:0.53113209 21:29.122515 22:13.900687 23:6.2470927 
-0.774263682681127 1:0 2:1.5429382 3:11.137025 4:0.43852901 5:0.70648261 6:0 7:0.43852901 8:0.57294699 9:-0.68341644 10:2.7317357 11:0.21896521 12:0.78127005 13:0.61913703 14:1.87894 15:0.40707336 16:-0.90969616 17:0.30546673 18:-0.78366593 19:2.2407401 20:0.54618244 21:2.8272606 22:2.0040867 23:1.1178466 
0.01660181469955507 1:0 2:1.2881157 3:5.4772256 4:0.43852901 5:9.5605155 6:0 7:0.43852901 8:-0.44176881 9:-0.36635272 10:-0.033927535 11:-0.0028775979 12:-1.3198105 13:-0.66757815 14:1.3771538 15:0.3939318 16:-1.0666331 17:1.4796163 18:-0.59509648 19:13.980956 20:1.8555637 21:25.628289 22:2.0040867 23:7.4574672 
0.6370250263417886 1:0 2:1.7113269 3:5.4772256 4:0.43852901 5:2.9648236 6:0 7:0.43852901 8:2.3682085 9:-0.17829984 10:-0.048977246 11:-0.86092655 12:-0.88521556 13:1.3717627 14:0.43342594 15:0.73656336 16:1.2218212 17:0.43884561 18:-0.3975516 19:-0.69431384 20:-0.6929639 21:-0.65429409 22:-0.63960215 23:-0.74110557 
0.02332629757787186 1:0 2:13.525941 3:62.075223 4:3.1574089 5:11.134862 6:5 7:11.314048 8:16.964463 9:-0.68341644 10:-2.4804544 11:0.21896521 12:0.90864543 13:3.2696724 14:-1.0585452 15:0.25936552 16:-1.3948637 17:2.1253013 18:-0.78451383 19:16.91601 20:-0.45717493 21:17.12064 22:12.578842 23:4.1277959 
0.174630297977871 1:0 2:3.3405054 3:5.4772256 4:0.43852901 5:2.0727266 6:1 7:3.1574089 8:3.9341857 9:-0.68341644 10:0.125977 11:1.9731105 12:0.47418396 13:2.1290201 14:7.9701337 15:0.62322678 16:0.3402199 17:-3.5110199 18:0.030048852 19:0.28403748 20:-0.47724207 21:-0.61174169 22:0.68224229 23:-0.54470523 
0.08330523002140017 1:0 2:1.05041 3:22.456625 4:3.1574089 5:1.4611745 6:1 7:3.1574089 8:6.8238322 9:-0.68341644 10:2.7319714 11:0.21896521 12:0.92197303 13:3.5100629 14:0.74120214 15:0.73584661 16:1.8412184 17:0.71347947 18:-0.34667998 19:1.2623888 20:0.91240788 21:2.1984703 22:0.68224229 23:0.72047839 
0.01556672595574012 1:0 2:9.5816261 3:5.4772256 4:0.43852901 5:7.2892919 6:3 7:8.5951686 8:5.1781881 9:-0.68341644 10:-1.6849562 11:1.4805841 12:1.1307984 13:2.342772 14:-1.0585452 15:0.23792488 16:-0.87558012 17:0.898629 18:2.1625855 19:16.91601 20:0.32042701 21:16.2091 22:11.256998 23:3.4563806 
0.03619657237555457 1:0 2:6.9079309 3:79.054622 4:3.1574089 5:3.778856 6:2 7:3.1574089 8:3.2268173 9:-0.68341644 10:2.7052907 11:0.3885962 12:1.09745 13:1.7395884 14:0.89462798 15:0.17567121 16:-0.92672073 17:-0.25195239 18:-0.89953856 19:0.28403748 20:1.4742881 21:0.91557147 22:-0.63960215 23:1.2320328 
0.01332031548558722 1:0 2:10.183814 3:84.714422 4:3.1574089 5:10.53508 6:2 7:0.43852901 8:1.0212654 9:-0.68341644 10:-0.15044688 11:1.8892913 12:0.12886004 13:3.226789 14:0.58233083 15:0.5653643 16:-0.79546983 17:1.020978 18:-0.33026382 19:16.91601 20:2.2418563 21:17.799332 22:-0.63960215 23:6.3384417 
0.01845303597226288 1:0 2:4.1065451 3:90.374222 4:3.1574089 5:5.6580336 6:4 7:8.5951686 8:2.3682077 9:-0.68341644 10:2.7280345 11:0.1629349 12:0.97427941 13:2.5974369 14:19.022064 15:0.54943982 16:-0.95186674 17:-4.334869 18:0.12550772 19:9.0891994 20:1.0077269 21:8.7649006 22:11.256998 23:6.1192043 
-0.2804418326994409 1:0 2:-3.7202433 3:22.456625 4:5.8762887 5:4.6124042 6:2 7:5.8762887 8:-0.59787515 9:-0.68341644 10:-2.4699997 11:0.34433066 12:0.98738008 13:1.4457238 14:1.4651567 15:0.37858789 16:-1.2458402 17:0.82794446 18:0.44650381 19:4.1974428 20:2.7084176 21:3.2703723 22:-0.63960215 23:3.2965201 
0.02617998172010518 1:0 2:8.0844666 3:50.755624 4:0.43852901 5:1.0903918 6:3 7:5.8762887 8:3.2073074 9:-0.68341644 10:0.056812804 11:-1.5088449 12:1.3846065 13:4.7538114 14:4.6139815 15:0.67632844 16:0.46762523 17:-4.8674517 18:0.14070905 19:-0.69431384 20:-0.6929639 21:-0.65429409 22:0.68224229 23:2.5794304 
0.022944879035543 1:0 2:15.341317 3:84.714422 4:14.032928 5:10.460837 6:2 7:5.8762887 8:16.309484 9:-0.68341644 10:0.2208695 11:-1.558475 12:0.9703966 13:3.0691245 14:-0.17758556 15:0.46459563 16:-1.1590881 17:1.7864943 18:0.041836204 19:23.764469 20:-0.44714135 21:31.453746 22:20.509909 23:7.0875031 
