svm_type epsilon_svr
kernel_type rbf
gamma 0.0434783
nr_class 2
total_sv 237
rho -0.871416
SV
0.02480122319471898 1:0 2:10.125675 3:7 4:13.506083 5:10.617206 6:17.155356 7:13.506083 8:8.0669098 9:-1.5464261 10:2.908784 11:-2.9739348 12:-0.23139107 13:3.5491441 14:-1.1129556 15:-1.9344548 16:-0.85138526 17:0.15753623 18:-0.19344247 19:3 20:9.1400003 21:35.3 22:1 23:23.98 
-0.06333541911306727 1:0 2:2.9310088 3:3 4:4.6613916 5:-1.5392862 6:-0.39528471 7:0.23904572 8:0.22602443 9:-1.5464261 10:2.9006397 11:-2.8695083 12:-0.93912877 13:1.9414206 14:-1.056632 15:-1.87495 16:0.23212412 17:0.093710065 18:-1.0347976 19:1 20:5.6199999 21:5.98 22:1 23:5.6199999 
0.02301314900070852 1:0 2:16.114067 3:7 4:9.0837374 5:2.4268839 6:2.5298221 7:4.6613916 8:1.6266546 9:-1.5464261 10:0.32407959 11:-6.4956313 12:-0.0067055748 13:-0.56628982 14:-1.1535805 15:1.4001397 16:1.3245989 17:-0.12662365 18:-1.5051604 19:1 20:12.32 21:16.700001 22:1 23:12.32 
0.02833079113152087 1:0 2:10.546589 3:7 4:22.350775 5:7.3468889 6:8.3800358 7:13.506083 8:7.5133337 9:-1.5464261 10:2.868947 11:-3.3410054 12:-1.1059994 13:3.0211861 14:-1.1056036 15:-0.52365368 16:-1.5051578 17:0.024542284 18:-1.3609911 19:10 20:9.3999996 21:96.460001 22:5 23:16.42 
0.02739842823559869 1:0 2:10.400357 3:10 4:9.0837374 5:3.4577573 6:5.454929 7:4.6613916 8:4.2028874 9:-1.5464261 10:-2.025564 11:-2.5281925 12:-0.50006545 13:1.9261752 14:1.3837585 15:1.5484791 16:-0.28832624 17:1.0663531 18:-1.2773382 19:2 20:3.5599999 21:16.66 22:1 23:3.5599999 
0.02718494766703766 1:0 2:17.920657 3:6 4:13.506083 5:-0.22145474 6:2.5298221 7:4.6613916 8:4.4224649 9:-1.5464261 10:0.42917468 11:-6.4478772 12:0.42642718 13:1.6140158 14:-1.1034071 15:-0.94222056 16:0.71490861 17:-0.077063095 18:-0.11683889 19:1 20:14.94 21:18.700001 22:1 23:17.02 
-0.08177122514484191 1:0 2:-5.6660557 3:1 4:0.23904572 5:-1.5531163 6:2.5298221 7:4.6613916 8:0.10612622 9:-1.5464261 10:-1.992201 11:-2.3983198 12:0.15619287 13:2.7432343 14:-0.99171156 15:-2.8145792 16:0.48994583 17:0.86653284 18:-0.98726487 19:1 20:9.9200001 21:9.6199999 22:0 23:9.9200001 
0.02852858936034519 1:0 2:15.118869 3:7 4:17.928429 5:10.090221 6:17.155356 7:17.928429 8:6.6337708 9:-1.5464261 10:2.8689811 11:-3.3406451 12:-1.1059733 13:-1.5840823 14:2.8352745 15:-0.047436151 16:0.23584103 17:-0.10431305 18:-0.67481777 19:9 20:9.3199997 21:77.440001 22:2 23:16.42 
0.02584155090070954 1:0 2:15.824148 3:5 4:13.506083 5:-0.30532657 6:5.454929 7:9.0837374 8:6.6187018 9:-1.5464261 10:-2.0360219 11:-2.8695083 12:-0.56059465 13:-1.841089 14:1.7101512 15:2.5864575 16:1.7072264 17:0.14570497 18:-2.003295 19:3 20:6 21:31.840001 22:2 23:17.02 
0.02654569854687389 1:0 2:19.038717 3:4 4:9.0837374 5:-1.4776459 6:5.454929 7:9.0837374 8:7.6638062 9:-1.5464261 10:-2.0360216 11:-2.8695083 12:-0.56062779 13:0.84134306 14:0.16057532 15:0.3887798 16:0.770256 17:-0.0070463572 18:-1.1399327 19:2 20:6 21:10.44 22:1 23:6.7199998 
0.02726308566750055 1:0 2:8.9441448 3:4 4:13.506083 5:6.3118942 6:11.305143 7:17.928429 8:8.760603 9:-1.5464261 10:2.909134 11:-2.7467093 12:-0.69048842 13:2.983728 14:0.83697692 15:-2.3354687 16:-0.48072458 17:-0.0017791866 18:-0.19824017 19:3 20:5.3000002 21:33.48 22:1 23:17.639999 
0.01631206418678879 1:0 2:3.1204353 3:6 4:9.0837374 5:-0.11035735 6:5.454929 7:9.0837374 8:1.0367004 9:-1.5464261 10:-2.036022 11:-2.8695083 12:-0.56058754 13:0.031966148 14:-0.228677 15:0.84881852 16:1.9457453 17:0.096510311 18:0.49368076 19:1 20:7.7399998 21:7.7600002 22:0 23:7.7399998 
0.0257363851231548 1:0 2:9.4234207 3:5 4:4.6613916 5:-0.72787534 6:2.5298221 7:4.6613916 8:1.6143922 9:-0.48560583 10:-0.73321544 11:0.14222857 12:0.94208313 13:2.0505823 14:-1.1172756 15:-0.1860225 16:-0.3864412 17:-0.46437525 18:-0.42449295 19:0 20:0 21:0 22:0 23:0 
0.02576929675868262 1:0 2:3.4392436 3:8 4:22.350775 5:7.1910846 6:20.080463 7:17.928429 8:8.2915826 9:-1.5464261 10:2.9120359 11:-2.7564114 12:-0.45185826 13:3.4668813 14:-1.0460082 15:-1.9066898 16:-2.4866357 17:0.37645417 18:-1.149084 19:5 20:6.2399998 21:61.219999 22:2 23:24.32 
0.02292360349316541 1:0 2:15.732394 3:7 4:13.506083 5:0.48573491 6:5.454929 7:9.0837374 8:5.5778484 9:-1.5464261 10:-2.0204727 11:-3.2833729 12:-0.4873771 13:3.5679835 14:0.48011004 15:-2.6429799 16:0.058656867 17:0.54401445 18:-0.78859457 19:2 20:9.3599997 21:33.7 22:0 23:23.059999 
0.0270658799905259 1:0 2:19.840293 3:5 4:13.506083 5:-2.3782503 6:2.5298221 7:4.6613916 8:3.8229733 9:-1.5464261 10:-2.036022 11:-2.8695083 12:-0.56058754 13:0.031966148 14:-0.228677 15:0.84881852 16:1.9457453 17:0.096510311 18:0.49368076 19:1 20:7.7399998 21:7.7600002 22:0 23:7.7399998 
0.01385623606205772 1:0 2:13.152274 3:6 4:9.0837374 5:5.2557405 6:5.454929 7:4.6613916 8:3.6594757 9:-1.5464261 10:0.32407959 11:-6.4956313 12:-0.0067055748 13:-0.56628982 14:1.0425201 15:1.4001397 16:1.3245989 17:-0.12662365 18:-1.5051604 19:1 20:12.32 21:16.700001 22:1 23:12.32 
0.02668270667355085 1:0 2:9.3168189 3:10 4:4.6613916 5:1.3518668 6:11.305143 7:4.6613916 8:-1.6841733 9:-0.86141863 10:-1.3683047 11:-0.37576436 12:-0.48165057 13:3.2901987 14:-0.10548092 15:-2.9762003 16:-0.18461222 17:0.6178701 18:-0.91609041 19:1 20:24.1 21:22.860001 22:1 23:24.1 
0.01323554212280686 1:0 2:6.1519933 3:6 4:9.0837374 5:9.3766499 6:11.305143 7:4.6613916 8:1.5517181 9:-1.5464261 10:0.54027377 11:0.75952055 12:-0.91602158 13:3.2935457 14:-1.04941 15:-2.5240825 16:0.059490119 17:0.4678746 18:-0.36469716 19:2 20:24 21:50.66 22:0 23:27.66 
0.02103396128182225 1:0 2:13.258444 3:4 4:4.6613916 5:1.8952885 6:5.454929 7:4.6613916 8:1.8487389 9:-1.5464261 10:2.9091338 11:-2.7466982 12:-0.69049125 13:2.8543617 14:2.2351412 15:-2.9098499 16:0.65245086 17:0.63455864 18:-0.67223857 19:1 20:5.3000002 21:4 22:0 23:5.3000002 
0.02468916756988148 1:0 2:13.624607 3:6 4:17.928429 5:6.0498821 6:11.305143 7:17.928429 8:10.273747 9:-1.5464261 10:0.58379665 11:0.72368749 12:-1.2295218 13:4.3904615 14:-0.98576039 15:-1.232674 16:-2.2513271 17:0.061387099 18:-2.4000998 19:2 20:18.139999 21:39.299999 22:0 23:23.459999 
0.02831496296611006 1:0 2:15.110307 3:5 4:9.0837374 5:2.6053227 6:11.305143 7:17.928429 8:7.2318998 9:-1.5464261 10:0.5553511 11:-6.4166596 12:0.58327302 13:-1.0151317 14:2.5767556 15:0.55321355 16:1.414745 17:-0.18715085 18:-1.8813424 19:4 20:5.3000002 21:42.9 22:1 23:14.46 
0.02220457531010389 1:0 2:12.500152 3:10 4:26.773121 5:8.1410091 6:17.155356 7:17.928429 8:13.188665 9:-1.5464261 10:0.58306085 11:0.73310994 12:-1.1547642 13:2.0794184 14:2.5673742 15:-1.7882346 16:0.2003602 17:-0.11485839 18:-1.0518406 19:2 20:10.32 21:23.559999 22:1 23:20.219999 
-0.03564074418184594 1:0 2:3.1807578 3:1 4:0.23904572 5:0.42341132 6:2.5298221 7:0.23904572 8:0.17697524 9:-0.1593543 10:0.67892359 11:0.53097518 12:1.1345127 13:0.16117345 14:1.5554156 15:-0.26255818 16:0.8171244 17:-0.061388905 18:-0.65208465 19:0 20:0 21:0 22:0 23:0 
0.02513381142586019 1:0 2:13.808637 3:8 4:17.928429 5:3.9995381 6:8.3800358 7:13.506083 8:5.0369436 9:-1.5464261 10:2.8971885 11:-2.8695083 12:0.049221722 13:0.16900221 14:2.9316596 15:0.020091182 16:-0.40871309 17:-0.21300406 18:0.024897119 19:0 20:0 21:0 22:1 23:18.440001 
0.01885989096687404 1:0 2:15.030697 3:6 4:9.0837374 5:6.0563436 6:5.454929 7:9.0837374 8:6.3803493 9:-1.5464261 10:-2.0203603 11:-2.8695083 12:-0.9990404 13:3.1174432 14:-1.0092267 15:-3.1083884 16:-0.21977023 17:0.50274232 18:-0.25864277 19:1 20:6.52 21:4.7199998 22:0 23:6.52 
0.02872502392946491 1:0 2:17.613644 3:10 4:13.506083 5:10.951512 6:14.230249 7:17.928429 8:5.7011528 9:-1.5464261 10:-2.0239193 11:-2.8695083 12:-0.011806463 13:-1.5141566 14:2.2873998 15:1.5225219 16:0.51847926 17:0.76727298 18:-1.9390592 19:7 20:3 21:83.760001 22:2 23:18.6 
0.02156907269763836 1:0 2:13.429629 3:6 4:4.6613916 5:5.9219938 6:11.305143 7:0.23904572 8:2.7302639 9:-0.17738702 10:-1.2143833 11:-0.49258921 12:1.1837391 13:-1.6524948 14:2.2203187 15:1.3025186 16:2.0598585 17:0.20214644 18:-2.4512722 19:0 20:0 21:0 22:0 23:0 
0.02816042232726542 1:0 2:15.723561 3:6 4:13.506083 5:5.6624913 6:5.454929 7:9.0837374 8:2.9891352 9:-1.5464261 10:2.9107446 11:-3.0030496 12:-0.35384449 13:0.12753171 14:-1.1332011 15:1.74296 16:2.031354 17:0.49697094 18:-1.0501641 19:3 20:1.2 21:9.8316004 22:1 23:1.2 
0.009949966585370652 1:0 2:6.8175706 3:6 4:13.506083 5:3.334673 6:5.454929 7:4.6613916 8:1.7336365 9:-1.5464261 10:-2.0183754 11:-2.6123394 12:-0.023749392 13:0.46780656 14:2.3042678 15:0.99890108 16:-0.04308028 17:-0.47221214 18:-1.9077203 19:0 20:0 21:0 22:1 23:6.0599999 
-0.3230442336466839 1:0 2:1.5235656 3:4 4:0.23904572 5:-1.3879196 6:-0.39528471 7:0.23904572 8:-0.45112841 9:-0.32852368 10:-1.2094088 11:-0.40705943 12:0.99088191 13:-0.39097679 14:-1.2657025 15:0.52452682 16:-0.29314627 17:-0.47180183 18:-0.49643069 19:0 20:0 21:0 22:0 23:0 
0.02588652852102497 1:0 2:10.506444 3:7 4:22.350775 5:5.8526032 6:8.3800358 7:13.506083 8:12.134105 9:-1.5464261 10:2.8972779 11:-2.4556691 12:-0.46203696 13:3.0341421 14:0.31410735 15:-2.3492447 16:-1.0918933 17:0.10291958 18:-0.3625823 19:2 20:23.059999 21:45.040001 22:1 23:24.540001 
2.708513221990399 1:0 2:1.7600416 3:1 4:0.23904572 5:-1.1613107 6:-0.39528471 7:0.23904572 8:-0.32986765 9:-0.16536131 10:-0.64183459 11:0.36879476 12:0.20657341 13:-1.7209571 14:0.29241067 15:0.79843944 16:0.18474965 17:-0.44389454 18:-0.8384404 19:0 20:0 21:0 22:0 23:0 
-0.01366631313574749 1:0 2:0.72573901 3:1 4:4.6613916 5:0.98087872 6:2.5298221 7:0.23904572 8:1.0516877 9:-0.48560583 10:-0.73321544 11:0.14222857 12:0.94208313 13:0.19424869 14:2.2681865 15:-0.1860225 16:-0.3864412 17:-0.46437525 18:-0.42449295 19:0 20:0 21:0 22:0 23:0 
0.02701412918684527 1:0 2:10.446383 3:6 4:0.23904572 5:0.98223225 6:2.5298221 7:0.23904572 8:-1.3844276 9:-1.5464261 10:2.1458793 11:-5.4672018 12:0.12903388 13:4.7876218 14:-1.0684388 15:-4.2099528 16:0.36710846 17:0.90867528 18:0.080290875 19:1 20:1.2 21:0 22:1 23:1.2 
0.01192867543151349 1:0 2:11.841409 3:5 4:0.23904572 5:5.4353055 6:14.230249 7:0.23904572 8:0.43039659 9:-0.15733449 10:-0.79401291 11:-0.51142455 12:2.1884712 13:1.633616 14:1.8604174 15:-0.84973001 16:1.2042529 17:0.087209432 18:0.05410638 19:0 20:0 21:0 22:0 23:0 
0.04088982148745025 1:0 2:-1.2291099 3:2 4:0.23904572 5:1.1454383 6:2.5298221 7:0.23904572 8:-1.5588251 9:-1.5464261 10:-2.0255418 11:-2.5278456 12:-0.50009856 13:-0.078442485 14:-1.2657025 15:-2.9743091 16:-1.2212329 17:0.3945699 18:-0.79041203 19:0 20:0 21:0 22:1 23:22.780001 
0.01975930490413674 1:0 2:1.2590671 3:4 4:9.0837374 5:6.9112753 6:5.454929 7:9.0837374 8:0.11293859 9:-1.5464261 10:-2.0339415 11:-2.735967 12:-0.5955684 13:-1.7053536 14:2.8935647 15:1.74296 16:2.031354 17:0.49697094 18:-1.0501641 19:3 20:1.2 21:17.440001 22:1 23:1.2 
-0.0413383188840673 1:0 2:-7.480235 3:2 4:0.23904572 5:-2.1357543 6:-0.39528471 7:0.23904572 8:-2.1910161 9:-1.5464261 10:0.22807412 11:-6.3485836 12:0.85775077 13:-0.9688548 14:-1.0721457 15:-3.0764095 16:0.13567597 17:0.70484948 18:-0.45091607 19:2 20:11.12 21:19.22 22:0 23:11.64 
0.02011199957467945 1:0 2:7.5121021 3:6 4:9.0837374 5:6.2812578 6:5.454929 7:4.6613916 8:-0.49200282 9:-1.5464261 10:-2.0339415 11:-2.735967 12:-0.5955684 13:-1.7053536 14:-0.92243308 15:1.74296 16:2.031354 17:0.49697094 18:-1.0501641 19:2 20:1.2 21:9.6000004 22:1 23:1.2 
0.02754135702228128 1:0 2:15.418504 3:7 4:22.350775 5:3.5681384 6:14.230249 7:17.928429 8:10.259332 9:-1.5464261 10:2.8972749 11:-2.4556315 12:-0.4620046 13:3.3050379 14:-0.96379892 15:-1.0316692 16:-1.8288522 17:-0.053607435 18:-0.31588049 19:5 20:6.98 21:72.76 22:0 23:23.059999 
0.01155126563878265 1:0 2:-0.63915416 3:8 4:9.0837374 5:5.0437195 6:14.230249 7:13.506083 8:3.7807365 9:-1.5464261 10:0.6983714 11:0.75225563 12:-0.19085708 13:3.4791697 14:-0.97101152 15:-1.5033637 16:-1.6048165 17:0.28622828 18:-1.4283915 19:2 20:15.28 21:32.439999 22:1 23:15.28 
0.0284849189814067 1:0 2:19.32495 3:11 4:35.617813 5:21.778038 6:20.080463 7:22.350775 8:13.102829 9:-1.5464261 10:0.37275766 11:-6.4092726 12:0.63666887 13:-0.39292073 14:0.97208206 15:-0.15191804 16:0.32230698 17:-0.24440447 18:-0.63858307 19:10 20:6.2399998 21:93.1224 22:5 23:21.76 
0.02325562887823372 1:0 2:11.725817 3:5 4:4.6613916 5:7.4355969 6:17.155356 7:13.506083 8:5.5410615 9:-1.5464261 10:0.33653398 11:-6.4985403 12:-0.033427654 13:1.3981624 14:-0.75300423 15:-0.72979418 16:-0.12721443 17:-0.09132574 18:-1.5920318 19:3 20:9.1400003 21:55.379999 22:0 23:24 
0.02847649233342142 1:0 2:21.068841 3:9 4:17.928429 5:16.145918 6:31.78089 7:40.040158 8:13.596047 9:-1.5464261 10:2.912825 11:-2.8695083 12:-0.38881825 13:-1.7182448 14:3.1507719 15:2.5864575 16:1.7072264 17:0.14570497 18:-1.4013739 19:7 20:7.7399998 21:96.099999 22:3 23:24.16 
-0.1474423959062202 1:0 2:2.4317006 3:3 4:4.6613916 5:-1.3616508 6:-0.39528471 7:0.23904572 8:-0.012409609 9:-1.5464261 10:-2.0315589 11:-2.7480998 12:-0.72029187 13:0.51579971 14:-1.107769 15:0.0093622097 16:1.153284 17:-0.15060002 18:-0.63189898 19:2 20:11.36 21:20.16 22:0 23:11.36 
0.02757675774805934 1:0 2:5.027182 3:5 4:9.0837374 5:5.4297374 6:20.080463 7:22.350775 8:3.6703754 9:-1.5464261 10:2.9007202 11:-2.8695083 12:-0.93764761 13:2.4490075 14:1.2222256 15:-2.1591284 16:-0.10465649 17:0.39852028 18:-0.52175051 19:3 20:2.1400001 21:27.100001 22:3 23:18.6 
0.01933864829567822 1:0 2:10.638747 3:10 4:22.350775 5:9.2686411 6:17.155356 7:26.773121 8:11.44469 9:-1.5464261 10:0.58380603 11:0.72367726 12:-1.2295943 13:4.2742514 14:-1.2657025 15:-2.7139062 16:-1.1555114 17:0.11044302 18:-0.55410232 19:2 20:9.96 21:27.16 22:1 23:22.280001 
0.02135717636845516 1:0 2:-6.453551 3:3 4:4.6613916 5:2.7247105 6:5.454929 7:0.23904572 8:0.70970511 9:-0.5608403 10:0.44656711 11:-6.4639125 12:-1.2677287 13:0.94769724 14:1.0276117 15:1.1623463 16:0.26430497 17:-0.5445101 18:-1.2458944 19:0 20:0 21:0 22:0 23:0 
0.02492389445686508 1:0 2:-3.6627054 3:6 4:4.6613916 5:4.0793856 6:11.305143 7:4.6613916 8:1.0653125 9:-0.82232155 10:0.50518865 11:-5.6586174 12:-3.4416171 13:-1.120396 14:1.6044174 15:-0.64689806 16:1.5653399 17:-0.094042656 18:-0.23555292 19:0 20:0 21:0 22:0 23:0 
0.01808730996950752 1:0 2:9.4919328 3:4 4:13.506083 5:7.8626 6:8.3800358 7:13.506083 8:10.129896 9:-1.5464261 10:0.58380603 11:0.72367726 12:-1.2295943 13:3.7060008 14:-1.2657025 15:-2.7139062 16:-1.1555114 17:0.11044302 18:-0.55410232 19:0 20:0 21:0 22:1 23:22.280001 
0.01690951850403168 1:0 2:5.5485058 3:5 4:9.0837374 5:10.237258 6:17.155356 7:17.928429 8:1.7179408 9:-1.5464261 10:0.69823023 11:0.75229935 12:-0.19129656 13:-1.6169092 14:1.7028945 15:1.6123797 16:1.3878578 17:0.93378571 18:-0.945427 19:2 20:15.28 21:32.439999 22:2 23:21.620001 
0.02805947948297415 1:0 2:19.201209 3:12 4:13.506083 5:6.5319137 6:14.230249 7:17.928429 8:13.158691 9:-1.5464261 10:0.17603432 11:0.55251025 12:-1.9970398 13:3.6329008 14:0.69693423 15:-2.5990682 16:0.16567149 17:0.66354436 18:-2.000686 19:3 20:6.98 21:49.880001 22:0 23:23.059999 
0.176000066438508 1:0 2:-1.9569207 3:0 4:0.23904572 5:0.34255543 6:2.5298221 7:4.6613916 8:1.9400252 9:0.21164143 10:1.3328529 11:0.52263802 12:-0.80584349 13:0.71398272 14:1.832487 15:-1.9435804 16:-0.19113085 17:0.062473781 18:0.50167413 19:0 20:0 21:0 22:0 23:0 
-0.0585606646332771 1:0 2:1.3124059 3:2 4:4.6613916 5:2.791675 6:5.454929 7:0.23904572 8:1.5244685 9:-1.5464261 10:0.29371622 11:-6.4721155 12:0.20542516 13:2.2363061 14:3.9216432 15:-3.191189 16:-1.8005027 17:0.19792999 18:-0.89863792 19:0 20:0 21:0 22:1 23:20.219999 
0.02682611130103518 1:0 2:13.351931 3:7 4:13.506083 5:3.338855 6:2.5298221 7:4.6613916 8:4.5424177 9:-1.5464261 10:2.8690115 11:-3.3406648 12:-1.1055443 13:3.2635366 14:-0.29194502 15:-3.1575267 16:0.070620298 17:0.64003097 18:-1.2829509 19:6 20:13.44 21:58.839999 22:3 23:16.42 
-0.2210533763375018 1:0 2:-4.8087268 3:0 4:0.23904572 5:3.9018195 6:5.454929 7:0.23904572 8:-1.4525516 9:-1.5464261 10:2.8972779 11:-2.4556691 12:-0.46203696 13:-1.7139808 14:-1.0781618 15:-2.3492447 16:-1.0918933 17:0.10291958 18:-0.3625823 19:0 20:0 21:0 22:1 23:24.540001 
0.006180790021158746 1:0 2:12.933751 3:6 4:9.0837374 5:5.2557405 6:5.454929 7:4.6613916 8:3.6594757 9:-1.5464261 10:0.32407959 11:-6.4956313 12:-0.0067055748 13:-0.56628982 14:1.0425201 15:1.4001397 16:1.3245989 17:-0.12662365 18:-1.5051604 19:1 20:12.32 21:16.700001 22:1 23:12.32 
0.4177467473248811 1:0 2:-0.14803551 3:0 4:0.23904572 5:1.0842355 6:-0.39528471 7:0.23904572 8:1.1756734 9:-0.56654929 10:0.50404884 11:0.67024727 12:-1.5861253 13:-0.13378636 14:0.60026785 15:0.45966304 16:-0.23273019 17:-0.32072726 18:0.37026081 19:0 20:0 21:0 22:0 23:0 
0.02496661445307341 1:0 2:7.035365 3:5 4:13.506083 5:10.801571 6:8.3800358 7:13.506083 8:7.2823117 9:-1.5464261 10:2.1458793 11:-5.4672018 12:0.12903388 13:4.7876218 14:-1.0684388 15:-4.2099528 16:0.36710846 17:0.90867528 18:0.080290875 19:4 20:1.2 21:23.16 22:1 23:1.2 
-0.02115470325707354 1:0 2:-6.8592151 3:4 4:-4.1833001 5:1.3808979 6:5.454929 7:-4.1833001 8:-2.2605026 9:3.9996386 10:0.43840154 11:-2.8695083 12:-0.47470645 13:-1.841089 14:-1.2657025 15:2.1517871 16:-3.4759759 17:4.0726768 18:3.5008472 19:0 20:0 21:0 22:0 23:0 
0.01593218249289331 1:0 2:-1.0952993 3:4 4:9.0837374 5:-0.21738899 6:2.5298221 7:4.6613916 8:0.9822012 9:-0.57837803 10:1.2650755 11:-5.8775278 12:-2.5794425 13:1.5990107 14:1.175165 15:-1.1852569 16:-0.21371746 17:-0.046779825 18:0.057860265 19:0 20:0 21:0 22:0 23:0 
-0.02144285827206849 1:0 2:-1.485194 3:2 4:-4.1833001 5:5.7553819 6:8.3800358 7:-4.1833001 8:-2.2605026 9:3.9996386 10:0.43840154 11:-2.8695083 12:-0.47470645 13:-1.841089 14:-1.2657025 15:2.1517871 16:-3.4759759 17:4.0726768 18:3.5008472 19:0 20:0 21:0 22:0 23:0 
0.01824854923382663 1:0 2:10.871591 3:4 4:9.0837374 5:-0.035882866 6:-0.39528471 7:0.23904572 8:2.3215196 9:-1.5464261 10:0.17603432 11:0.55251025 12:-1.9970398 13:3.6329008 14:-1.1307085 15:-2.5990682 16:0.16567149 17:0.66354436 18:-2.000686 19:2 20:23.059999 21:45.040001 22:0 23:23.059999 
0.02661372357317567 1:0 2:10.567142 3:4 4:17.928429 5:5.1787815 6:8.3800358 7:13.506083 8:9.1625349 9:-1.5464261 10:0.40612864 11:0.69523353 12:-1.4564342 13:3.9358564 14:-0.92176211 15:-3.4643612 16:-0.91227903 17:0.45164332 18:-0.4206248 19:1 20:10.14 21:10.54 22:2 23:22.860001 
0.01484216797291543 1:0 2:5.2386194 3:5 4:4.6613916 5:3.8800751 6:14.230249 7:13.506083 8:5.3762012 9:-1.5464261 10:2.909134 11:-2.7467093 12:-0.69048842 13:3.2682597 14:-0.95941125 15:-2.3354687 16:-0.48072458 17:-0.0017791866 18:-0.19824017 19:2 20:1.0599999 21:4 22:1 23:17.639999 
-0.006900209271611218 1:0 2:0.70239762 3:0 4:-4.1833001 5:0.87344436 6:-0.39528471 7:-4.1833001 8:-2.2605026 9:3.9996386 10:0.43840154 11:-2.8695083 12:-0.47470645 13:-1.841089 14:-1.2657025 15:2.1517871 16:-3.4759759 17:4.0726768 18:3.5008472 19:0 20:0 21:0 22:0 23:0 
0.0181902552010934 1:0 2:7.1464734 3:5 4:13.506083 5:5.2581215 6:8.3800358 7:4.6613916 8:4.3775029 9:-1.5464261 10:2.8971885 11:-2.8695083 12:0.049221722 13:4.1271504 14:-0.83006732 15:-1.6735243 16:-1.1206513 17:-0.088395633 18:-0.28396972 19:0 20:0 21:0 22:1 23:20.639999 
0.01360461184455417 1:0 2:5.7281298 3:7 4:9.0837374 5:3.6727894 6:11.305143 7:9.0837374 8:2.2792827 9:-1.5464261 10:0.32140479 11:0.67755569 12:-1.5331336 13:1.7734708 14:0.55267831 15:1.8371354 16:1.1836512 17:1.6197729 18:-0.24583283 19:2 20:3.5799999 21:13.54 22:0 23:10.34 
-35.74871143668094 1:0 2:-1.9569207 3:0 4:0.23904572 5:-0.059428901 6:-0.39528471 7:0.23904572 8:0.48353345 9:0.21164143 10:1.3328529 11:0.52263802 12:-0.80584349 13:0.71398272 14:0.58117103 15:-1.9435804 16:-0.19113085 17:0.062473781 18:0.50167413 19:0 20:0 21:0 22:0 23:0 
0.01135958129818092 1:0 2:10.454381 3:8 4:9.0837374 5:5.5950597 6:5.454929 7:9.0837374 8:3.6226885 9:-1.5464261 10:-2.0203603 11:-2.8695083 12:-0.9990404 13:3.1174432 14:-1.0092267 15:-3.1083884 16:-0.21977023 17:0.50274232 18:-0.25864277 19:1 20:6.52 21:4.7199998 22:0 23:6.52 
0.02391642041147545 1:0 2:11.497951 3:6 4:4.6613916 5:4.8497677 6:2.5298221 7:4.6613916 8:3.0436344 9:-0.022815021 10:2.052622 11:-0.79823935 12:1.8388477 13:-1.841089 14:1.431856 15:1.1180151 16:2.0596746 17:0.26800722 18:-1.5709174 19:0 20:0 21:0 22:0 23:0 
0.008399724943448096 1:0 2:6.649209 3:6 4:4.6613916 5:4.1649298 6:5.454929 7:4.6613916 8:3.0667967 9:-0.1593543 10:0.67892359 11:0.53097518 12:1.1345127 13:0.20914888 14:3.0569067 15:-0.26255818 16:0.8171244 17:-0.061388905 18:-0.65208465 19:0 20:0 21:0 22:0 23:0 
0.0284322792001831 1:0 2:18.084355 3:7 4:17.928429 5:6.7517851 6:11.305143 7:17.928429 8:10.041335 9:-1.5464261 10:0.40605318 11:0.69524984 12:-1.4563313 13:3.0366695 14:-1.2657025 15:1.4717385 16:-1.5400017 17:0.79403268 18:-1.7752167 19:4 20:2.74 21:38.740001 22:1 23:2.74 
0.01406890761436065 1:0 2:8.8303042 3:4 4:4.6613916 5:2.4268839 6:2.5298221 7:4.6613916 8:0.56936965 9:-0.073031804 10:-1.4931711 11:-0.61816164 12:-0.010107654 13:-0.4584797 14:0.15791945 15:1.0774817 16:0.33725597 17:-0.42482452 18:-1.07177 19:0 20:0 21:0 22:0 23:0 
0.02722198872978357 1:0 2:11.006426 3:11 4:9.0837374 5:4.1447509 6:8.3800358 7:9.0837374 8:2.9509857 9:-1.5464261 10:2.9080335 11:-3.0740278 12:-0.62563546 13:1.9933478 14:1.6441671 15:1.7552497 16:0.64679789 17:1.5095299 18:-0.30889711 19:1 20:13.36 21:13 22:1 23:13.36 
0.02624058100727353 1:0 2:9.373982 3:4 4:9.0837374 5:7.8430172 6:11.305143 7:17.928429 8:8.6556921 9:-0.36483704 10:-1.3761773 11:-5.316694 12:0.042763852 13:3.3606284 14:1.103732 15:-3.2086192 16:-0.47153481 17:0.55169609 18:0.019722263 19:3 20:7.0799999 21:38.780002 22:1 23:20.440001 
-0.1055394225758738 1:0 2:0.43606652 3:1 4:0.23904572 5:2.3088907 6:2.5298221 7:4.6613916 8:2.1852715 9:-0.022815021 10:2.052622 11:-0.79823935 12:1.8388477 13:-1.841089 14:-0.17367814 15:1.1180151 16:2.0596746 17:0.26800722 18:-1.5709174 19:0 20:0 21:0 22:0 23:0 
0.01869329787007862 1:0 2:5.1215611 3:4 4:4.6613916 5:8.1329787 6:11.305143 7:4.6613916 8:-1.249542 9:-1.5464261 10:-2.0339415 11:-2.735967 12:-0.5955684 13:-1.7053536 14:2.5686607 15:1.74296 16:2.031354 17:0.49697094 18:-1.0501641 19:3 20:1.2 21:9.8316004 22:1 23:1.2 
0.6185131058827038 1:0 2:0.24713137 3:0 4:0.23904572 5:-0.046908277 6:-0.39528471 7:0.23904572 8:0.22738695 9:-0.48560583 10:-0.73321544 11:0.14222857 12:0.94208313 13:0.19424869 14:-1.1172756 15:-0.1860225 16:-0.3864412 17:-0.46437525 18:-0.42449295 19:0 20:0 21:0 22:0 23:0 
0.02258936413411977 1:0 2:3.5758855 3:6 4:9.0837374 5:10.183547 6:11.305143 7:13.506083 8:-0.49540899 9:-1.5464261 10:0.45373628 11:-6.5125638 12:-0.21509729 13:-1.4614256 14:1.1447424 15:-2.4559378 16:-0.1461047 17:0.41572995 18:-0.43531877 19:4 20:3 21:41.1 22:0 23:20.440001 
0.02639125564892189 1:0 2:-5.4572149 3:3 4:0.23904572 5:0.35538793 6:5.454929 7:0.23904572 8:-1.8599333 9:0.40116677 10:0.28918922 11:0.59256703 12:-1.9028184 13:4.2094557 14:-1.1421563 15:-2.5798156 16:-2.063973 17:0.28285191 18:-0.086825303 19:0 20:0 21:0 22:0 23:0 
0.02831074782183252 1:0 2:19.336133 3:5 4:13.506083 5:-1.8118036 6:5.454929 7:9.0837374 8:7.0097337 9:-1.5464261 10:-2.036022 11:-2.8695083 12:-0.56058754 13:0.031966148 14:-0.228677 15:0.84881852 16:1.9457453 17:0.096510311 18:0.49368076 19:3 20:6.7199998 21:21.62 22:2 23:8.8599997 
0.01932424057403649 1:0 2:4.9137876 3:3 4:0.23904572 5:4.2697381 6:5.454929 7:9.0837374 8:3.7780114 9:-1.5464261 10:2.9007242 11:-2.8695083 12:-0.93757428 13:4.7145955 14:-1.0653075 15:-3.4559391 16:-1.4308999 17:0.51810561 18:-1.6997196 19:1 20:23.18 21:23.1 22:2 23:23.18 
0.02437709952203548 1:0 2:15.071842 3:6 4:13.506083 5:-0.40473746 6:8.3800358 7:13.506083 8:4.93612 9:-1.5464261 10:2.9116328 11:-2.9961102 12:-0.52237499 13:2.5790756 14:0.10825237 15:-1.7971521 16:-0.60538769 17:0.15501685 18:0.060239938 19:1 20:8.6800003 21:10.46 22:1 23:20.559999 
-0.1768607965507978 1:0 2:1.1440253 3:2 4:4.6613916 5:2.6555642 6:2.5298221 7:4.6613916 8:2.3610315 9:-1.5464261 10:2.9007224 11:-2.8695083 12:-0.9376053 13:4.2621447 14:-0.83981987 15:-3.6479197 16:-0.66650208 17:0.74990828 18:0.21132038 19:1 20:9.9200001 21:9.2799997 22:0 23:9.9200001 
0.4666876366437593 1:0 2:0.49827679 3:0 4:0.23904572 5:0.070054785 6:-0.39528471 7:0.23904572 8:0.39769709 9:-0.20319029 10:0.42650449 11:-0.1245188 12:2.5595088 13:-1.841089 14:0.1318623 15:2.2000207 16:0.8639311 17:0.046830047 18:-2.3799435 19:0 20:0 21:0 22:0 23:0 
0.02781915655107797 1:0 2:6.8287416 3:9 4:13.506083 5:5.62509 6:11.305143 7:17.928429 8:5.5342491 9:-1.5464261 10:0.69823023 11:0.75229935 12:-0.19129656 13:-0.1408388 14:1.7028945 15:1.6123797 16:1.3878578 17:0.93378571 18:-0.945427 19:4 20:8.0600004 21:46.619999 22:1 23:15.28 
0.01899682324383296 1:0 2:8.9654246 3:4 4:9.0837374 5:2.9938236 6:5.454929 7:9.0837374 8:5.2372283 9:-1.5464261 10:-2.0293819 11:-2.8695083 12:-0.12683269 13:2.4213639 14:0.026747304 15:-2.8121179 16:0.39980378 17:0.58567446 18:-0.13558317 19:1 20:10.14 21:10.54 22:1 23:22.860001 
0.02735513472231771 1:0 2:8.935655 3:6 4:17.928429 5:8.0686061 6:14.230249 7:22.350775 8:9.0713848 9:-1.5464261 10:0.58379665 11:0.72368749 12:-1.2295218 13:4.3904615 14:-0.98576039 15:-1.232674 16:-2.2513271 17:0.061387099 18:-2.4000998 19:2 20:18.139999 21:39.299999 22:1 23:6.0599999 
0.01678265527345178 1:0 2:4.2551477 3:6 4:4.6613916 5:7.0545511 6:11.305143 7:13.506083 8:3.1226582 9:-0.4870145 10:1.118534 11:-6.1238989 12:-2.12903 13:-0.63576316 14:0.7661584 15:1.3653628 16:1.268398 17:0.323395 18:0.32321976 19:0 20:0 21:0 22:0 23:0 
0.02634627892227205 1:0 2:10.728241 3:6 4:17.928429 5:8.4781014 6:5.454929 7:9.0837374 8:8.842352 9:-1.5464261 10:0.55271473 11:0.75661876 12:-0.94266196 13:4.2484742 14:-1.0647869 15:-2.6406575 16:-1.6961879 17:0.14278037 18:-0.093175956 19:0 20:0 21:0 22:1 23:21.26 
0.02851583761041865 1:0 2:10.465159 3:4 4:9.0837374 5:7.438382 6:11.305143 7:13.506083 8:5.8347032 9:-1.5464261 10:2.868947 11:-3.3410054 12:-1.1059994 13:0.9330454 14:-1.1056036 15:-0.52365368 16:-1.5051578 17:0.024542284 18:-1.3609911 19:7 20:9.3999996 21:63.159999 22:0 23:21.4 
0.02418839642308879 1:0 2:3.9183367 3:4 4:4.6613916 5:3.413601 6:14.230249 7:17.928429 8:4.2439798 9:-1.5464261 10:2.9007242 11:-2.8695083 12:-0.93757428 13:4.7145955 14:-1.0653075 15:-3.4559391 16:-1.4308999 17:0.51810561 18:-1.6997196 19:10 20:2.1400001 21:124.88 22:5 23:23.18 
0.02547314495681752 1:0 2:9.1254174 3:5 4:9.0837374 5:9.6509144 6:14.230249 7:22.350775 8:9.8274253 9:-1.5464261 10:2.9007224 11:-2.8695083 12:-0.9376053 13:4.2621447 14:1.3290197 15:-3.6479197 16:-0.66650208 17:0.74990828 18:0.21132038 19:2 20:3.96 21:12.98 22:1 23:3.96 
-0.01734506806057112 1:0 2:-1.3978721 3:0 4:-4.1833001 5:-2.6191039 6:-0.39528471 7:-4.1833001 8:-2.2605026 9:3.9996386 10:0.43840154 11:-2.8695083 12:-0.47470645 13:-1.841089 14:-1.2657025 15:2.1517871 16:-3.4759759 17:4.0726768 18:3.5008472 19:0 20:0 21:0 22:0 23:0 
0.02459259333326803 1:0 2:11.021111 3:6 4:9.0837374 5:6.5329932 6:5.454929 7:4.6613916 8:4.4207754 9:-1.5464261 10:-2.0315667 11:-2.7484306 12:-0.72028161 13:-0.21821044 14:1.8105953 15:1.944967 16:0.78852958 17:0.72537461 18:-0.39453241 19:1 20:14.94 21:15.08 22:0 23:14.94 
-0.6797611758414795 1:0 2:0.8827124 3:0 4:0.23904572 5:-1.2162122 6:-0.39528471 7:0.23904572 8:-0.40207905 9:-0.5608403 10:0.43023597 11:0.72489588 12:0.3183158 13:0.50819979 14:-1.0162362 15:1.1623463 16:0.26430497 17:-0.5445101 18:-1.2458944 19:0 20:0 21:0 22:0 23:0 
0.007233567377277957 1:0 2:10.184773 3:8 4:4.6613916 5:5.5120758 6:8.3800358 7:0.23904572 8:2.8910366 9:-0.23936087 10:1.0632864 11:0.45829075 12:1.014169 13:1.1894046 14:2.617039 15:-1.2091707 16:0.89734532 17:-0.1284307 18:0.14417707 19:0 20:0 21:0 22:0 23:0 
0.02117200423447838 1:0 2:4.0265407 3:3 4:9.0837374 5:6.7502929 6:17.155356 7:22.350775 8:6.0070297 9:-1.5464261 10:2.909134 11:-2.7467093 12:-0.69048842 13:2.983728 14:0.83697692 15:-2.3354687 16:-0.48072458 17:-0.0017791866 18:-0.19824017 19:2 20:3.5799999 21:15.94 22:1 23:17.639999 
0.009778234196687829 1:0 2:11.612189 3:7 4:9.0837374 5:2.6570131 6:5.454929 7:4.6613916 8:2.4834914 9:-1.5464261 10:2.9091333 11:-2.7466978 12:-0.69050857 13:1.182334 14:0.68728739 15:-1.4961882 16:0.87093179 17:0.031996355 18:-1.0068691 19:3 20:5.3000002 21:34.82 22:0 23:15.56 
0.02662769259749037 1:0 2:2.7142434 3:7 4:9.0837374 5:11.141736 6:17.155356 7:17.928429 8:5.353039 9:-1.5464261 10:2.9023454 11:-3.2111645 12:-0.44934769 13:1.6063835 14:-1.0386135 15:-2.7404246 16:-0.34371476 17:0.43221587 18:-0.97840996 19:3 20:8.5600004 21:31.92 22:1 23:21.620001 
-0.2886974173013876 1:0 2:-5.7953458 3:2 4:0.23904572 5:-0.6073621 6:2.5298221 7:0.23904572 8:-1.7904468 9:0.18644271 10:0.36019481 11:0.72102189 12:0.33292881 13:-1.5445567 14:0.66308932 15:-1.8351189 16:-0.30647331 17:0.087980135 18:0.51884092 19:0 20:0 21:0 22:0 23:0 
0.02185379846977487 1:0 2:4.7218675 3:5 4:9.0837374 5:9.6425372 6:20.080463 7:13.506083 8:6.6594673 9:-1.5464261 10:2.908784 11:-2.9739348 12:-0.23139107 13:2.6754234 14:-1.1129556 15:-1.9344548 16:-0.85138526 17:0.15753623 18:-0.19344247 19:2 20:24 21:46.119999 22:1 23:23.98 
0.02001150316776498 1:0 2:1.4766787 3:2 4:0.23904572 5:0.049693207 6:5.454929 7:4.6613916 8:-0.62961334 9:-1.5464261 10:2.9061819 11:-2.8695083 12:-0.8226558 13:-1.638013 14:1.9719977 15:-0.34853871 16:0.85686934 17:-0.11201711 18:-0.1592603 19:1 20:10.14 21:10.54 22:0 23:10.14 
-0.01307915139057847 1:0 2:1.2173182 3:5 4:-4.1833001 5:-2.4194076 6:-0.39528471 7:-4.1833001 8:-2.2605026 9:3.9996386 10:0.43840154 11:-2.8695083 12:-0.47470645 13:-1.841089 14:-1.2657025 15:2.1517871 16:-3.4759759 17:4.0726768 18:3.5008472 19:0 20:0 21:0 22:0 23:0 
0.02843530845166758 1:0 2:18.129811 3:13 4:26.773121 5:7.3315967 6:23.00557 7:31.195467 8:14.737806 9:-1.5464261 10:0.17603432 11:0.55251025 12:-1.9970398 13:3.6329008 14:0.69693423 15:-2.5990682 16:0.16567149 17:0.66354436 18:-0.36995365 19:3 20:6.98 21:38.54 22:1 23:27.200001 
0.02749536238419731 1:0 2:1.9222326 3:4 4:9.0837374 5:8.923013 6:11.305143 7:17.928429 8:6.0540353 9:-1.5464261 10:0.42330687 11:0.77352797 12:-0.73478954 13:4.538584 14:0.28305798 15:-3.2952183 16:-1.3955824 17:0.4245097 18:-2.0122266 19:8 20:3 21:95.540001 22:5 23:23.18 
0.02230991038417748 1:0 2:5.4122555 3:6 4:9.0837374 5:3.2261575 6:2.5298221 7:0.23904572 8:3.0122974 9:-0.1636875 10:0.33954233 11:0.5265953 12:1.199658 13:0.78233712 14:0.93323212 15:-0.0078446668 16:-0.75761231 17:-0.36268697 18:-2.2925084 19:0 20:0 21:0 22:0 23:0 
-0.1861298041176902 1:0 2:-0.73354519 3:2 4:9.0837374 5:2.8444809 6:2.5298221 7:4.6613916 8:1.4318198 9:-1.5464261 10:0.58380603 11:0.72367726 12:-1.2295943 13:4.2742514 14:-1.2657025 15:-2.7139062 16:-1.1555114 17:0.11044302 18:-0.55410232 19:0 20:0 21:0 22:1 23:22.280001 
0.00953401752042532 1:0 2:12.004361 3:10 4:0.23904572 5:6.2981529 6:11.305143 7:0.23904572 8:-0.55603935 9:-0.20319029 10:0.42650449 11:-0.1245188 12:2.5595088 13:-1.841089 14:2.3686159 15:2.2000207 16:0.8639311 17:0.046830047 18:-2.3799435 19:0 20:0 21:0 22:0 23:0 
0.02358658957834175 1:0 2:6.379182 3:4 4:4.6613916 5:-0.34522144 6:-0.39528471 7:0.23904572 8:1.4931314 9:-0.4870145 10:1.118534 11:-6.1238989 12:-2.12903 13:0.16625765 14:0.62175796 15:1.3653628 16:1.268398 17:0.323395 18:0.32321976 19:0 20:0 21:0 22:0 23:0 
0.02745450726809969 1:0 2:9.3113984 3:5 4:13.506083 5:6.9380958 6:8.3800358 7:13.506083 8:10.961009 9:-0.19954399 10:0.69949111 11:0.52989967 12:1.1270145 13:-1.6374886 14:0.78012051 15:0.57214106 16:2.0991671 17:0.067787904 18:-1.0466864 19:0 20:0 21:0 22:0 23:0 
0.02360366232226296 1:0 2:-1.1011186 3:4 4:4.6613916 5:3.6777734 6:8.3800358 7:4.6613916 8:2.7697758 9:-1.5464261 10:0.58308656 11:0.73309906 12:-1.1548367 13:2.1482569 14:1.904444 15:-1.8857643 16:0.22071224 17:-0.031727442 18:-2.340992 19:2 20:10.32 21:23.559999 22:0 23:13.14 
-0.01575490961939469 1:0 2:4.7726616 3:3 4:-4.1833001 5:-0.8921065 6:2.5298221 7:-4.1833001 8:-2.2605026 9:3.9996386 10:0.43840154 11:-2.8695083 12:-0.47470645 13:-1.841089 14:-1.2657025 15:2.1517871 16:-3.4759759 17:4.0726768 18:3.5008472 19:0 20:0 21:0 22:0 23:0 
0.02793173092832746 1:0 2:15.235846 3:6 4:17.928429 5:1.0446488 6:2.5298221 7:4.6613916 8:5.0996177 9:-1.5464261 10:2.9116404 11:-2.9957877 12:-0.5223438 13:3.4210127 14:-1.0348669 15:-2.791459 16:-1.4681576 17:0.26483304 18:-0.14373493 19:0 20:0 21:0 22:1 23:18.780001 
-0.2080676907065602 1:0 2:-0.33690717 3:0 4:0.23904572 5:0.54900762 6:2.5298221 7:0.23904572 8:0.88274012 9:-0.59260295 10:0.367028 11:0.6448704 12:-1.7066543 13:0.78828947 14:1.6454313 15:-0.99238129 16:-0.28105632 17:-0.11321758 18:0.21594921 19:0 20:0 21:0 22:0 23:0 
0.02849440761021532 1:0 2:12.444653 3:10 4:13.506083 5:3.3868052 6:17.155356 7:22.350775 8:11.537339 9:-1.5464261 10:2.9007224 11:-2.8695083 12:-0.93760643 13:0.29886478 14:2.1886103 15:1.3857723 16:0.59524097 17:0.68770664 18:-2.4121808 19:6 20:7.02 21:71.5 22:3 23:16.98 
0.02339673358601065 1:0 2:12.20778 3:6 4:9.0837374 5:5.6488374 6:8.3800358 7:9.0837374 8:3.6458508 9:-1.5464261 10:0.41575084 11:0.7575742 12:-0.97612362 13:1.1029852 14:1.3874682 15:-1.1160408 16:0.7005439 17:0.018559824 18:-1.4504459 19:1 20:7.54 21:5.98 22:0 23:7.54 
0.01591201739645021 1:0 2:7.8273664 3:8 4:4.6613916 5:5.5950597 6:5.454929 7:9.0837374 8:2.1484845 9:-1.5464261 10:-2.0203603 11:-2.8695083 12:-0.9990404 13:3.1174432 14:-1.0092267 15:-3.1083884 16:-0.21977023 17:0.50274232 18:-0.25864277 19:1 20:6.52 21:4.7199998 22:0 23:6.52 
0.02343884709988582 1:0 2:12.817688 3:6 4:13.506083 5:3.2680335 6:14.230249 7:22.350775 8:11.416078 9:-1.5464261 10:0.35692663 11:-3.5054319 12:-5.0071248 13:2.0691349 14:-0.94612032 15:1.7587081 16:-0.51297087 17:0.95308795 18:-1.0342441 19:4 20:3.5799999 21:36 22:1 23:17.639999 
0.02240293938287841 1:0 2:8.9530156 3:6 4:13.506083 5:9.0030724 6:17.155356 7:9.0837374 8:7.7113023 9:-1.5464261 10:2.908784 11:-2.9739348 12:-0.23139107 13:3.5491441 14:-1.1129556 15:-1.9344548 16:-0.85138526 17:0.15753623 18:-0.19344247 19:2 20:24 21:46.119999 22:1 23:23.98 
0.02208791790952932 1:0 2:10.51193 3:9 4:22.350775 5:3.9967764 6:8.3800358 7:13.506083 8:10.281131 9:-1.5464261 10:2.8972749 11:-2.4556315 12:-0.4620046 13:3.4293207 14:-0.96379892 15:-1.0316692 16:-1.8288522 17:-0.053607435 18:-0.31588049 19:3 20:10.66 21:53.420001 22:0 23:23.059999 
5.096582867732677 1:0 2:1.9792793 3:1 4:0.23904572 5:1.9719795 6:-0.39528471 7:0.23904572 8:0.98492616 9:-0.23936087 10:1.0632864 11:0.45829075 12:1.014169 13:2.0419725 14:1.2310352 15:-1.2091707 16:0.89734532 17:-0.1284307 18:0.14417707 19:0 20:0 21:0 22:0 23:0 
0.009740771226516065 1:0 2:10.282356 3:6 4:13.506083 5:3.2287226 6:5.454929 7:9.0837374 8:2.7820381 9:-0.97842676 10:0.46112145 11:-6.4965926 12:0.026678194 13:0.26299555 14:1.7999624 15:1.8507543 16:0.37807099 17:0.75587107 18:-1.5402762 19:0 20:0 21:0 22:0 23:0 
0.02777208457208635 1:0 2:5.0577978 3:9 4:17.928429 5:8.1659494 6:20.080463 7:26.773121 8:7.7795898 9:-1.5464261 10:2.9120347 11:-2.756415 12:-0.45139561 13:3.0921316 14:-1.0748824 15:-2.5939273 16:-1.0765646 17:0.18708517 18:0.24993805 19:3 20:7.4000001 21:30.46 22:2 23:24.32 
0.02800381751290271 1:0 2:13.079407 3:5 4:13.506083 5:4.2507221 6:8.3800358 7:13.506083 8:8.3654837 9:-1.5464261 10:0.64872896 11:0.60956694 12:-1.8071637 13:3.179065 14:-1.0148216 15:-3.0764095 16:0.13567597 17:0.70484948 18:-1.3819729 19:7 20:9.9200001 21:74.12 22:3 23:15.38 
0.02832664617429204 1:0 2:6.3692845 3:10 4:26.773121 5:8.5516999 6:17.155356 7:17.928429 8:8.6093677 9:-1.5464261 10:-2.0255418 11:-2.5278456 12:-0.50009856 13:4.3812251 14:-1.2657025 15:-2.9743091 16:-1.2212329 17:0.3945699 18:-0.79041203 19:3 20:11.68 21:44.359999 22:2 23:22.780001 
-0.7842367833545792 1:0 2:-0.36147877 3:0 4:0.23904572 5:-1.1630421 6:-0.39528471 7:0.23904572 8:-0.39390421 9:-0.092793125 10:-0.78887364 11:0.29422749 12:-0.25186984 13:0.21040164 14:-1.105909 15:0.19035824 16:0.29593427 17:-0.49264844 18:-0.0681076 19:0 20:0 21:0 22:0 23:0 
-0.3414356883139995 1:0 2:1.2284073 3:0 4:0.23904572 5:-2.2386007 6:-0.39528471 7:0.23904572 8:-2.2605026 9:0.013077578 10:2.069982 11:-0.13301778 12:-0.22430606 13:2.0419725 14:-1.2657025 15:-1.0061894 16:0.93264666 17:-0.16629028 18:-0.40281113 19:0 20:0 21:0 22:0 23:0 
0.02072208066347758 1:0 2:14.65549 3:6 4:4.6613916 5:1.8656576 6:8.3800358 7:9.0837374 8:1.3514335 9:-1.5464261 10:2.9091338 11:-2.7466982 12:-0.69049125 13:2.8543617 14:2.2351412 15:-2.9098499 16:0.65245086 17:0.63455864 18:-0.67223857 19:1 20:5.3000002 21:4 22:0 23:5.3000002 
0.02708262002297242 1:0 2:8.9548411 3:11 4:17.928429 5:12.842147 6:17.155356 7:17.928429 8:9.8516231 9:-1.5464261 10:0.55272349 11:0.75661463 12:-0.94270732 13:-1.7262305 14:2.0714457 15:1.4001397 16:1.3245989 17:-0.12662365 18:-1.5051604 19:3 20:12.32 21:46.440001 22:2 23:21.26 
0.02880144387499 1:0 2:25.038985 3:7 4:17.928429 5:5.7529969 6:14.230249 7:22.350775 8:15.018695 9:-1.5464261 10:2.895169 11:-3.1263543 12:-0.92613417 13:3.8609689 14:-1.068811 15:-1.1538585 16:-1.9649434 17:0.025803664 18:-1.6740857 19:4 20:7.7199998 21:42.82 22:1 23:11.98 
0.01010155803405099 1:0 2:6.6175238 3:4 4:9.0837374 5:0.27521513 6:2.5298221 7:4.6613916 8:1.1157243 9:-0.12146842 10:2.0769708 11:-0.17948842 12:-1.0954027 13:0.75123173 14:-0.15238164 15:0.44440073 16:1.7313814 17:0.057040372 18:-1.579276 19:0 20:0 21:0 22:0 23:0 
0.01717890978023028 1:0 2:9.2935274 3:2 4:4.6613916 5:2.3564215 6:5.454929 7:4.6613916 8:1.137524 9:-1.5464261 10:-2.0348297 11:-2.7429065 12:-0.4270379 13:0.89436495 14:-0.15756683 15:-1.7971521 16:-0.60538769 17:0.15501685 18:0.060239938 19:0 20:0 21:0 22:1 23:20.559999 
0.02688472986384539 1:0 2:9.4539629 3:7 4:9.0837374 5:5.1700842 6:8.3800358 7:13.506083 8:2.2530687 9:-1.5464261 10:0.55272349 11:0.75661463 12:-0.94270732 13:-1.7262305 14:0.95790222 15:1.4001397 16:1.3245989 17:-0.12662365 18:-1.5051604 19:4 20:11.36 21:51.940001 22:1 23:12.32 
-0.06439837947222449 1:0 2:1.3354648 3:1 4:0.23904572 5:4.1826503 6:5.454929 7:4.6613916 8:0.56119469 9:-0.16536131 10:-0.64183459 11:0.36879476 12:0.20657341 13:-1.7209571 14:2.4302614 15:0.79843944 16:0.18474965 17:-0.44389454 18:-0.8384404 19:0 20:0 21:0 22:0 23:0 
0.02157805171530646 1:0 2:11.255035 3:4 4:9.0837374 5:3.8262313 6:5.454929 7:4.6613916 8:3.677188 9:-1.5464261 10:-2.0348297 11:-2.7429065 12:-0.4270379 13:2.1207013 14:-1.0341636 15:-2.8574626 16:-0.35049046 17:0.3348409 18:-0.71236534 19:0 20:0 21:0 22:1 23:24.459999 
0.0280186726854135 1:0 2:15.888159 3:5 4:9.0837374 5:3.1187668 6:14.230249 7:22.350775 8:6.7454942 9:-1.5464261 10:0.5553511 11:-6.4166596 12:0.58327302 13:-1.0151317 14:2.5767556 15:0.55321355 16:1.414745 17:-0.18715085 18:-1.8813424 19:3 20:5.3000002 21:29.48 22:0 23:15.56 
0.02850696392633297 1:0 2:16.209745 3:12 4:17.928429 5:9.9229387 6:11.305143 7:13.506083 8:5.8053826 9:-1.5464261 10:2.1458793 11:-5.4672018 12:0.12903388 13:5.3304246 14:-1.0684388 15:-4.2099528 16:0.36710846 17:0.90867528 18:0.080290875 19:4 20:1.2 21:31.5 22:1 23:1.2 
0.0183427068104961 1:0 2:6.6955298 3:7 4:17.928429 5:3.1982669 6:8.3800358 7:13.506083 8:3.8488604 9:-1.5464261 10:0.70076876 11:-6.2915269 12:1.0476269 13:0.90865282 14:0.32262652 15:-2.5990682 16:0.16567149 17:0.66354436 18:-0.36995365 19:3 20:6.98 21:39.06 22:1 23:24.540001 
0.02717529702337068 1:0 2:3.6351767 3:6 4:13.506083 5:6.0788002 6:17.155356 7:22.350775 8:9.9227992 9:-1.5464261 10:-2.0255423 11:-2.5278521 12:-0.5000652 13:2.7384698 14:-0.05513375 15:-2.7404246 16:-0.34371476 17:0.43221587 18:-0.97840996 19:1 20:15.28 21:15.98 22:2 23:21.620001 
0.0213959770697105 1:0 2:5.5721665 3:4 4:9.0837374 5:2.2643446 6:2.5298221 7:0.23904572 8:2.5872035 9:-1.0153716 10:0.58307372 11:0.73316648 12:-1.1542781 13:5.1538528 14:-0.92160599 15:-3.0795204 16:-1.847191 17:0.36636355 18:0.10873876 19:0 20:0 21:0 22:0 23:0 
0.01413198694276293 1:0 2:7.8013034 3:4 4:17.928429 5:5.3953364 6:8.3800358 7:13.506083 8:7.1351638 9:-1.5464261 10:-2.0293618 11:-2.8695083 12:-0.12633762 13:-0.47925154 14:2.0123593 15:-0.066171819 16:0.83430703 17:-0.20854651 18:-0.26962316 19:1 20:10.36 21:8.8000002 22:1 23:22.860001 
0.01294852704466741 1:0 2:6.3430649 3:5 4:9.0837374 5:6.7745817 6:14.230249 7:17.928429 8:3.1526329 9:-1.5464261 10:2.909134 11:-2.7467093 12:-0.69048842 13:2.983728 14:0.83697692 15:-2.3354687 16:-0.48072458 17:-0.0017791866 18:-0.19824017 19:1 20:13.98 21:13.42 22:1 23:17.639999 
0.02825662675667273 1:0 2:17.091421 3:13 4:31.195467 5:15.186608 6:28.855784 7:22.350775 8:13.629782 9:-1.5464261 10:2.9120359 11:-2.7564114 12:-0.45185826 13:3.5904014 14:-1.0460082 15:-1.9066898 16:-2.4866357 17:0.37645417 18:-1.149084 19:5 20:4.3400002 21:57.519999 22:3 23:24.32 
0.02742447236428028 1:0 2:9.4030216 3:6 4:13.506083 5:6.8857656 6:8.3800358 7:13.506083 8:7.8191288 9:-1.5464261 10:-2.0203603 11:-2.8695083 12:-0.9990404 13:2.6826544 14:-1.0092267 15:-3.1083884 16:-0.21977023 17:0.50274232 18:-0.25864277 19:2 20:6.52 21:16.48 22:2 23:18.440001 
-0.2420943213302961 1:0 2:-0.15391774 3:0 4:0.23904572 5:0.26750736 6:-0.39528471 7:0.23904572 8:0.17697524 9:-0.1593543 10:0.67892359 11:0.53097518 12:1.1345127 13:0.16117345 14:1.5554156 15:-0.26255818 16:0.8171244 17:-0.061388905 18:-0.65208465 19:0 20:0 21:0 22:0 23:0 
0.02525610602571011 1:0 2:10.583611 3:10 4:4.6613916 5:1.7859019 6:5.454929 7:4.6613916 8:1.6906912 9:-1.5464261 10:-2.0315667 11:-2.7484305 12:-0.72028182 13:1.7286029 14:1.7327255 15:1.9876994 16:1.1535579 17:1.6603185 18:-1.7386227 19:2 20:11.68 21:24.24 22:0 23:12.14 
0.0246698801712773 1:0 2:15.614206 3:5 4:13.506083 5:1.67957 6:5.454929 7:4.6613916 8:1.9931618 9:-1.5464261 10:-2.0348297 11:-2.7429065 12:-0.4270379 13:3.0871179 14:-1.0341636 15:-2.8574626 16:-0.35049046 17:0.3348409 18:-0.71236534 19:0 20:0 21:0 22:1 23:24.459999 
-0.1537407062608969 1:0 2:0.99515958 3:1 4:0.23904572 5:-2.6191039 6:-0.39528471 7:0.23904572 8:-1.1923178 9:-0.23969744 10:1.1824605 11:0.5656962 12:0.22863415 13:1.595577 14:-1.1416341 15:-0.89597539 16:0.91462237 17:-0.050816494 18:-1.5166818 19:0 20:0 21:0 22:0 23:0 
-0.08648281963610893 1:0 2:2.2409839 3:1 4:4.6613916 5:-1.3879196 6:-0.39528471 7:0.23904572 8:0.22602443 9:-1.5464261 10:2.9006397 11:-2.8695083 12:-0.93912877 13:1.9414206 14:-1.056632 15:-1.87495 16:0.23212412 17:0.093710065 18:-1.0347976 19:1 20:5.6199999 21:5.98 22:1 23:5.6199999 
0.02013017985465221 1:0 2:7.9571303 3:7 4:17.928429 5:2.9998892 6:5.454929 7:9.0837374 8:8.3373076 9:-1.5464261 10:0.29371622 11:-6.4721155 12:0.20542516 13:5.0592391 14:-1.2657025 15:-3.191189 16:-1.8005027 17:0.19792999 18:-0.89863792 19:2 20:10.32 21:24.78 22:1 23:20.219999 
0.02720303816078923 1:0 2:12.29866 3:6 4:13.506083 5:2.9779947 6:5.454929 7:9.0837374 8:4.2875792 9:-1.5464261 10:0.64872896 11:0.60956694 12:-1.8071637 13:3.179065 14:2.2637879 15:-3.0764095 16:0.13567597 17:0.70484948 18:-1.3819729 19:7 20:9.9200001 21:59.7 22:2 23:16.42 
0.02353858365208944 1:0 2:13.136904 3:6 4:17.928429 5:4.8439749 6:14.230249 7:17.928429 8:9.9323364 9:-1.5464261 10:2.8972779 11:-2.4556691 12:-0.46203696 13:3.0341421 14:0.31410735 15:-2.3492447 16:-1.0918933 17:0.10291958 18:-0.3625823 19:3 20:10.66 21:56.22 22:1 23:24.540001 
0.01749166631527337 1:0 2:9.0195242 3:3 4:4.6613916 5:1.3249223 6:8.3800358 7:9.0837374 8:2.2711078 9:-1.5464261 10:2.9006397 11:-2.8695083 12:-0.93912877 13:1.9414206 14:-1.056632 15:-1.87495 16:0.23212412 17:0.093710065 18:-1.0347976 19:1 20:5.6199999 21:5.98 22:1 23:5.6199999 
0.02803891851669178 1:0 2:13.55525 3:6 4:17.928429 5:11.659374 6:11.305143 7:9.0837374 8:10.941935 9:-1.5464261 10:-2.0339415 11:-2.735967 12:-0.5955684 13:-0.6709542 14:2.5686607 15:1.74296 16:2.031354 17:0.49697094 18:-1.0501641 19:5 20:1.2 21:49.34 22:1 23:1.2 
0.008581461781812905 1:0 2:5.6523931 3:3 4:13.506083 5:3.1215859 6:11.305143 7:17.928429 8:8.8920281 9:-1.5464261 10:2.9061835 11:-2.8695083 12:-0.82261771 13:4.6549703 14:-1.0398668 15:-2.545903 16:-2.2758496 17:0.35205353 18:-0.82082069 19:2 20:10.14 21:28.919999 22:0 23:19.459999 
0.02828468909897489 1:0 2:12.596933 3:7 4:13.506083 5:6.3785404 6:5.454929 7:9.0837374 8:7.3841708 9:-1.5464261 10:-2.0315667 11:-2.7484306 12:-0.72028161 13:-0.21821044 14:1.8105953 15:1.944967 16:0.78852958 17:0.72537461 18:-0.39453241 19:3 20:11.36 21:35.24 22:0 23:14.94 
-0.2988165795642242 1:0 2:-1.5296003 3:5 4:0.23904572 5:-1.0610333 6:5.454929 7:0.23904572 8:-1.8340462 9:1.0790426 10:2.729276 11:-1.4893226 12:-0.43251603 13:2.3260189 14:2.2073353 15:0.52627184 16:1.3084739 17:0.00016660403 18:-1.76744 19:0 20:0 21:0 22:0 23:0 
0.0273997539568523 1:0 2:9.2053462 3:7 4:22.350775 5:-1.0551566 6:2.5298221 7:4.6613916 8:3.9237969 9:-1.5464261 10:2.9006397 11:-2.8695083 12:-0.93912877 13:1.9414206 14:0.04850964 15:-1.87495 16:0.23212412 17:0.093710065 18:-1.0347976 19:1 20:5.6199999 21:5.98 22:1 23:5.6199999 
0.02081953732343955 1:0 2:12.298065 3:5 4:4.6613916 5:5.6787716 6:2.5298221 7:0.23904572 8:1.9073255 9:-1.5464261 10:2.1458793 11:-5.4672018 12:0.12903388 13:5.1876185 14:-1.0684388 15:-4.2099528 16:0.36710846 17:0.90867528 18:0.080290875 19:1 20:1.2 21:0 22:1 23:1.2 
0.01602861342593916 1:0 2:3.1859291 3:6 4:13.506083 5:7.4350662 6:11.305143 7:4.6613916 8:0.81189113 9:-1.5464261 10:2.908784 11:-2.9739348 12:-0.23139107 13:-0.12753923 14:2.6336774 15:-1.9344548 16:-0.85138526 17:0.15753623 18:-0.19344247 19:2 20:13.84 21:28.559999 22:1 23:23.98 
-0.0666492317073361 1:0 2:0.68793655 3:1 4:0.23904572 5:4.0551888 6:5.454929 7:4.6613916 8:0.83232828 9:-1.5464261 10:2.8971885 11:-2.8695083 12:0.049221722 13:-1.5746507 14:2.5856334 15:0.020091182 16:-0.40871309 17:-0.21300406 18:0.024897119 19:0 20:0 21:0 22:1 23:18.440001 
0.02147086884823769 1:0 2:11.962509 3:5 4:4.6613916 5:2.7088322 6:5.454929 7:9.0837374 8:0.11293862 9:-0.63487843 10:0.31206317 11:0.35600051 12:1.6657414 13:2.889761 14:-0.8675755 15:-3.0451765 16:0.8149188 17:0.48536641 18:0.35511977 19:0 20:0 21:0 22:0 23:0 
0.02575804929979758 1:0 2:14.472355 3:7 4:13.506083 5:7.6926303 6:14.230249 7:4.6613916 8:5.4005896 9:-1.5464261 10:2.9006397 11:-2.8695083 12:-0.93912877 13:1.9414206 14:1.2608612 15:-1.87495 16:0.23212412 17:0.093710065 18:-1.0347976 19:3 20:5.6199999 21:56.360001 22:3 23:28.459999 
0.01958023560967182 1:0 2:3.6260139 3:3 4:9.0837374 5:2.3273763 6:11.305143 7:4.6613916 8:1.127796 9:-1.5464261 10:2.908784 11:-2.9739348 12:-0.23139107 13:3.5491441 14:-1.1129556 15:-1.9344548 16:-0.85138526 17:0.15753623 18:-0.19344247 19:1 20:9.1400003 21:9.2600002 22:1 23:23.98 
-0.1207779854297943 1:0 2:-4.9016499 3:1 4:4.6613916 5:1.9136578 6:2.5298221 7:4.6613916 8:2.1294098 9:-1.5464261 10:-2.0203603 11:-2.8695083 12:-0.9990404 13:-0.30894258 14:-1.0092267 15:-3.1083884 16:-0.21977023 17:0.50274232 18:-0.25864277 19:1 20:6.52 21:4.7199998 22:1 23:18.440001 
0.02832002677898573 1:0 2:10.114541 3:6 4:17.928429 5:10.19086 6:8.3800358 7:9.0837374 8:3.2302943 9:-1.5464261 10:2.1458793 11:-5.4672018 12:0.12903388 13:4.7876218 14:-0.097782662 15:-4.2099528 16:0.36710846 17:0.90867528 18:0.080290875 19:5 20:1.2 21:39.9716 22:1 23:1.2 
-0.5766909133195263 1:0 2:1.7932722 3:0 4:0.23904572 5:1.6758588 6:-0.39528471 7:0.23904572 8:0.85004052 9:0.16214805 10:-1.8060695 11:-2.4216346 12:1.3815046 13:-1.282082 14:0.81420342 15:0.0075562325 16:1.7542332 17:0.12877575 18:0.51663596 19:0 20:0 21:0 22:0 23:0 
0.02579491025264892 1:0 2:12.668137 3:11 4:17.928429 5:8.1114229 6:8.3800358 7:13.506083 8:8.8001151 9:-1.5464261 10:2.9116428 11:-2.9957844 12:-0.52193514 13:2.4344505 14:1.2211973 15:1.891619 16:0.95698548 17:1.6466796 18:0.4278368 19:1 20:17.98 21:20.08 22:1 23:13.38 
0.02511809982367315 1:0 2:5.0142888 3:6 4:17.928429 5:6.4598307 6:5.454929 7:9.0837374 8:10.590414 9:-1.5464261 10:2.9006397 11:-2.8695083 12:-0.93912877 13:1.9414206 14:0.51325986 15:-1.87495 16:0.23212412 17:0.093710065 18:-1.0347976 19:2 20:5.6199999 21:11.96 22:1 23:5.6199999 
0.02327160236278274 1:0 2:12.054175 3:5 4:4.6613916 5:6.4343757 6:14.230249 7:4.6613916 8:2.1280475 9:-0.15733449 10:-0.79401291 11:-0.51142455 12:2.1884712 13:1.633616 14:1.8604174 15:-0.84973001 16:1.2042529 17:0.087209432 18:0.05410638 19:0 20:0 21:0 22:0 23:0 
0.0145702362270797 1:0 2:6.4565138 3:8 4:26.773121 5:8.0426497 6:8.3800358 7:13.506083 8:12.33439 9:-1.5464261 10:0.41574638 11:0.7575742 12:-0.97612272 13:3.6136311 14:-0.90051626 15:-2.64721 16:-1.4493122 17:0.086566475 18:-0.36192584 19:1 20:5.6199999 21:5.98 22:2 23:16.620001 
-3.302073282723867 1:0 2:0.77290841 3:0 4:0.23904572 5:-1.1613107 6:-0.39528471 7:0.23904572 8:-0.32986765 9:-0.16536131 10:-0.64183459 11:0.36879476 12:0.20657341 13:-1.7209571 14:0.29241067 15:0.79843944 16:0.18474965 17:-0.44389454 18:-0.8384404 19:0 20:0 21:0 22:0 23:0 
0.01853061427574004 1:0 2:5.3957198 3:5 4:13.506083 5:7.2525087 6:11.305143 7:17.928429 8:7.4226471 9:-1.5464261 10:0.58380603 11:0.72367726 12:-1.2295943 13:4.2742514 14:-1.2657025 15:-2.7139062 16:-1.1555114 17:0.11044302 18:-0.55410232 19:0 20:0 21:0 22:1 23:22.280001 
0.02722412477620051 1:0 2:3.5121614 3:9 4:22.350775 5:4.0438898 6:5.454929 7:9.0837374 8:8.4771798 9:-1.5464261 10:2.9120347 11:-2.756415 12:-0.45139561 13:3.0921316 14:-1.0748824 15:-2.5939273 16:-1.0765646 17:0.18708517 18:0.24993805 19:0 20:0 21:0 22:1 23:24.32 
0.02602910950813219 1:0 2:5.6131035 3:5 4:13.506083 5:3.7710868 6:8.3800358 7:13.506083 8:6.801356 9:-1.5464261 10:0.35568979 11:-6.4626232 12:0.3128139 13:-0.22326507 14:2.3431009 15:-0.1606173 16:0.098083338 17:-0.34307932 18:-0.015816051 19:1 20:8.6800003 21:10.46 22:1 23:20.559999 
0.02084765244442484 1:0 2:11.019461 3:5 4:9.0837374 5:2.290238 6:5.454929 7:9.0837374 8:3.7303248 9:-1.5464261 10:-2.0293788 11:-2.8695083 12:-0.1267571 13:-0.33686342 14:-1.067465 15:-0.34853871 16:0.85686934 17:-0.11201711 18:-0.1592603 19:1 20:10.14 21:10.54 22:1 23:22.860001 
0.01679037638943401 1:0 2:11.497521 3:3 4:4.6613916 5:-0.4600182 6:5.454929 7:9.0837374 8:2.5545039 9:-1.5464261 10:0.42917468 11:-6.4478772 12:0.42642718 13:2.0996998 14:0.13026543 15:-0.94222056 16:0.71490861 17:-0.077063095 18:-0.11683889 19:0 20:0 21:0 22:1 23:17.02 
0.0238174789051121 1:0 2:14.401567 3:5 4:9.0837374 5:8.6663043 6:11.305143 7:13.506083 8:6.8790175 9:-1.5464261 10:-2.0293819 11:-2.8695083 12:-0.12683269 13:2.4213639 14:2.4568144 15:-2.8121179 16:0.39980378 17:0.58567446 18:-0.13558317 19:1 20:18.1 21:17.360001 22:1 23:22.860001 
-0.0864203515707147 1:0 2:-0.67824559 3:4 4:4.6613916 5:-0.058639955 6:8.3800358 7:0.23904572 8:0.38134734 9:-1.5464261 10:0.33653398 11:-6.4985403 12:-0.033427654 13:1.3981624 14:-0.75300423 15:-0.72979418 16:-0.12721443 17:-0.09132574 18:-1.5920318 19:1 20:9.1400003 21:9.2600002 22:0 23:9.1400003 
0.0229095306045934 1:0 2:7.5941234 3:6 4:13.506083 5:-1.2708752 6:2.5298221 7:4.6613916 8:2.2424958 9:-1.5464261 10:-2.0348297 11:-2.7429065 12:-0.4270379 13:2.932616 14:-1.0341636 15:-2.8574626 16:-0.35049046 17:0.3348409 18:-0.71236534 19:0 20:0 21:0 22:1 23:24.459999 
0.02663821948941152 1:0 2:8.8990382 3:5 4:13.506083 5:4.9862119 6:11.305143 7:13.506083 8:0.58097794 9:-1.5464261 10:2.868947 11:-3.3410054 12:-1.1059994 13:3.0211861 14:-1.1056036 15:-0.52365368 16:-1.5051578 17:0.024542284 18:-1.3609911 19:5 20:9.3999996 21:31.28 22:2 23:16.42 
0.02814347713604181 1:0 2:10.478941 3:6 4:17.928429 5:1.0446488 6:2.5298221 7:4.6613916 8:4.1199941 9:-0.57837803 10:1.2650755 11:-5.8775278 12:-2.5794425 13:0.83289634 14:1.175165 15:-1.1852569 16:-0.21371746 17:-0.046779825 18:0.057860265 19:0 20:0 21:0 22:0 23:0 
0.02019483006982019 1:0 2:7.2958602 3:5 4:0.23904572 5:-1.4899797 6:2.5298221 7:0.23904572 8:-1.9103451 9:-1.5464261 10:-2.0323305 11:-2.9923055 12:-0.25890469 13:0.84835187 14:-1.2657025 15:-1.2649889 16:0.89921998 17:0.11252248 18:-0.72419188 19:1 20:13.98 21:13.42 22:0 23:13.98 
0.02156548716452207 1:0 2:12.955118 3:6 4:9.0837374 5:-0.88205439 6:2.5298221 7:4.6613916 8:2.1688401 9:-1.5464261 10:2.9128251 11:-2.8695083 12:-0.38882536 13:-0.77875208 14:0.28028296 15:0.84881852 16:1.9457453 17:0.096510311 18:0.49368076 19:3 20:6 21:20.9 22:1 23:8.8599997 
0.0241425983249251 1:0 2:2.6704139 3:8 4:17.928429 5:10.941707 6:8.3800358 7:13.506083 8:7.6103426 9:-1.5464261 10:0.55271465 11:0.75661615 12:-0.94269613 13:-1.0532388 14:1.4752211 15:0.18696494 16:0.83955147 17:-0.2836718 18:-0.14546465 19:4 20:8.4799995 21:42.88 22:0 23:14.94 
35.32397688733678 1:0 2:-1.9569207 3:0 4:0.23904572 5:-0.29764264 6:-0.39528471 7:0.23904572 8:0.2192122 9:0.21164143 10:1.3328529 11:0.52263802 12:-0.80584349 13:0.71398272 14:0.58117103 15:-1.9435804 16:-0.19113085 17:0.062473781 18:0.50167413 19:0 20:0 21:0 22:0 23:0 
0.02148914388620313 1:0 2:13.645112 3:6 4:4.6613916 5:6.0563436 6:5.454929 7:4.6613916 8:4.3311784 9:-1.5464261 10:-2.0203603 11:-2.8695083 12:-0.9990404 13:3.6653602 14:-1.0092267 15:-3.1083884 16:-0.21977023 17:0.50274232 18:-0.25864277 19:1 20:6.52 21:4.7199998 22:0 23:6.52 
0.1236886537740142 1:0 2:-7.3202722 3:2 4:0.23904572 5:0.53263595 6:2.5298221 7:0.23904572 8:-0.4252412 9:0.097803908 10:-1.2979347 11:-0.99200911 12:1.7956533 13:-1.5248818 14:0.27060834 15:-0.067551653 16:2.6526927 17:0.12011233 18:-0.23273206 19:0 20:0 21:0 22:0 23:0 
0.0284059068150061 1:0 2:10.010459 3:4 4:9.0837374 5:4.448213 6:8.3800358 7:9.0837374 8:3.9252138 9:-1.5464261 10:2.8690115 11:-3.3406648 12:-1.1055443 13:3.2775426 14:2.105482 15:-3.1575267 16:0.070620298 17:0.64003097 18:-1.2829509 19:8 20:9.9200001 21:71.2 22:2 23:15.22 
0.0287062805131907 1:0 2:12.428962 3:12 4:26.773121 5:13.107499 6:28.855784 7:22.350775 8:12.155877 9:-1.5464261 10:-2.0352315 11:-2.9826056 12:-0.49801737 13:3.1868589 14:-0.88652024 15:-1.5973298 16:-2.3239961 17:0.34803082 18:-0.83425585 19:4 20:4.3400002 21:42.24 22:3 23:24.32 
0.01543773052622843 1:0 2:10.841045 3:6 4:4.6613916 5:5.2662293 6:14.230249 7:4.6613916 8:3.5014279 9:-1.5464261 10:2.9087847 11:-2.9739247 12:-0.23141468 13:3.2964803 14:-1.2657025 15:-2.4833727 16:0.11393071 17:0.61991064 18:-1.4841338 19:2 20:24 21:46.119999 22:0 23:24 
0.01952008642009243 1:0 2:6.8736025 3:5 4:4.6613916 5:6.6633231 6:8.3800358 7:13.506083 8:8.1433994 9:-1.5464261 10:2.9007242 11:-2.8695083 12:-0.93757428 13:1.4732077 14:1.9660776 15:-1.6039571 16:0.46330763 17:0.179758 18:-0.24791109 19:1 20:3.96 21:3.7 22:1 23:3.96 
0.02676460015546419 1:0 2:8.9798904 3:9 4:4.6613916 5:3.6617538 6:11.305143 7:9.0837374 8:2.8705994 9:-1.5464261 10:0.69825331 11:0.75227325 12:-0.19083857 13:1.0261477 14:0.33770146 15:1.5401181 16:0.88421397 17:1.2158835 18:-1.6232199 19:1 20:7.8000002 21:8.6599998 22:1 23:7.8000002 
-3.981100946254942 1:0 2:1.7016051 3:0 4:0.23904572 5:1.9719795 6:-0.39528471 7:0.23904572 8:0.98492616 9:-0.23936087 10:1.0632864 11:0.45829075 12:1.014169 13:2.0419725 14:1.2310352 15:-1.2091707 16:0.89734532 17:-0.1284307 18:0.14417707 19:0 20:0 21:0 22:0 23:0 
0.01774380293112443 1:0 2:3.051172 3:8 4:4.6613916 5:6.0953859 6:14.230249 7:9.0837374 8:0.0094446172 9:-1.5464261 10:0.41575534 11:0.7575742 12:-0.97612362 13:2.3349919 14:1.8989987 15:-3.0360403 16:-0.099444765 17:0.61464072 18:-1.0671656 19:1 20:25.360001 21:24.42 22:1 23:25.360001 
0.02059952441304089 1:0 2:4.1490563 3:4 4:9.0837374 5:-0.69767802 6:5.454929 7:9.0837374 8:1.3623333 9:-1.5464261 10:0.29371652 11:-6.4721157 12:0.20542379 13:1.6657073 14:0.4160544 15:-1.8857643 16:0.22071224 17:-0.031727442 18:-2.340992 19:1 20:10.32 21:9.7799997 22:0 23:10.32 
0.01623881588457494 1:0 2:14.512441 3:8 4:9.0837374 5:8.6265693 6:23.00557 7:22.350775 8:7.076577 9:-1.5464261 10:2.912825 11:-2.8695083 12:-0.38881825 13:-0.48138556 14:2.355084 15:2.5864575 16:1.7072264 17:0.14570497 18:-1.4013739 19:1 20:15.72 21:17.48 22:0 23:15.72 
0.02777618755450891 1:0 2:19.888032 3:8 4:17.928429 5:-1.453575 6:2.5298221 7:4.6613916 8:1.5830553 9:-1.5464261 10:2.8972749 11:-2.4556315 12:-0.4620046 13:3.3050379 14:-0.96379892 15:-1.0316692 16:-1.8288522 17:-0.053607435 18:-0.31588049 19:1 20:10.66 21:10.3 22:0 23:10.66 
0.02076036225768253 1:0 2:-7.7002332 3:2 4:0.23904572 5:-0.87370686 6:5.454929 7:0.23904572 8:-1.7413975 9:-1.5464261 10:-2.035225 11:-2.982975 12:-0.49755456 13:-1.0306729 14:0.88060258 15:-1.594773 16:0.24727316 17:0.10687799 18:-1.8861502 19:1 20:9.8400002 21:9.1199999 22:0 23:9.8400002 
0.02601277811541702 1:0 2:8.6400754 3:8 4:17.928429 5:8.7151993 6:8.3800358 7:13.506083 8:10.037247 9:-1.5464261 10:-2.0203603 11:-2.8695083 12:-0.9990404 13:3.1174432 14:-1.0092267 15:-3.1083884 16:-0.21977023 17:0.50274232 18:-0.25864277 19:2 20:6.52 21:16.48 22:1 23:11.08 
0.02820223998163296 1:0 2:7.1089712 3:9 4:13.506083 5:5.2924837 6:14.230249 7:9.0837374 8:4.2903043 9:-1.5464261 10:0.6983714 11:0.75225563 12:-0.19085708 13:3.1191102 14:-0.97101152 15:-1.5033637 16:-1.6048165 17:0.28622828 18:-1.4283915 19:1 20:18.280001 21:16.459999 22:0 23:18.280001 
0.02382726059872529 1:0 2:6.0592544 3:6 4:4.6613916 5:3.416054 6:11.305143 7:13.506083 8:4.1472436 9:-1.5464261 10:0.35692663 11:-3.5054319 12:-5.0071248 13:2.0691349 14:-0.94612032 15:1.7587081 16:-0.51297087 17:0.95308795 18:-1.0342441 19:3 20:3.5799999 21:22.579999 22:0 23:15.56 
0.02745269573288091 1:0 2:-0.090476067 3:10 4:22.350775 5:6.9746477 6:11.305143 7:17.928429 8:9.9647089 9:-1.5464261 10:2.9120359 11:-2.7564114 12:-0.45185826 13:4.5867106 14:-1.0460082 15:-1.9066898 16:-2.4866357 17:0.37645417 18:-1.149084 19:2 20:6.2399998 21:21.78 22:1 23:6.2399998 
-0.0238174789051121 1:0 2:3.5084073 3:9 4:-4.1833001 5:8.5468925 6:11.305143 7:-4.1833001 8:-2.2605026 9:3.9996386 10:0.43840154 11:-2.8695083 12:-0.47470645 13:-1.841089 14:-1.2657025 15:2.1517871 16:-3.4759759 17:4.0726768 18:3.5008472 19:0 20:0 21:0 22:0 23:0 
-0.003075409627661951 1:0 2:4.3430726 3:2 4:-4.1833001 5:-1.6627573 6:-0.39528471 7:-4.1833001 8:-2.2605026 9:3.9996386 10:0.43840154 11:-2.8695083 12:-0.47470645 13:-1.841089 14:-1.2657025 15:2.1517871 16:-3.4759759 17:4.0726768 18:3.5008472 19:0 20:0 21:0 22:0 23:0 
0.02733597406923833 1:0 2:13.07252 3:5 4:0.23904572 5:1.6948302 6:11.305143 7:0.23904572 8:-1.4798012 9:-1.5464261 10:2.909134 11:-2.7466982 12:-0.69047473 13:1.2816281 14:0.88020939 15:-1.6034881 16:0.89046304 17:0.1207832 18:-1.9352704 19:1 20:15.56 21:16.059999 22:0 23:15.56 
1.157934490203823 1:0 2:-0.24265501 3:1 4:0.23904572 5:0.53583107 6:-0.39528471 7:0.23904572 8:0.59253179 9:0.071525534 10:1.279699 11:0.51974449 12:-1.1532371 13:-0.53420605 14:0.47447405 15:0.22591183 16:0.56116894 17:-0.32056652 18:-0.021895189 19:0 20:0 21:0 22:0 23:0 
0.02899880221174827 1:0 2:20.803583 3:14 4:31.195467 5:9.5037014 6:17.155356 7:22.350775 8:15.680642 9:-1.5464261 10:2.8972779 11:-2.4556691 12:-0.46203696 13:3.0341421 14:-1.0781618 15:-2.3492447 16:-1.0918933 17:0.10291958 18:-0.3625823 19:2 20:9.3599997 21:22.62 22:2 23:27.200001 
0.02433821088751756 1:0 2:7.6111161 3:9 4:9.0837374 5:4.2008709 6:8.3800358 7:4.6613916 8:4.0627698 9:-0.59260295 10:0.367028 11:0.6448704 12:-1.7066543 13:0.4984816 14:1.6454313 15:-0.99238129 16:-0.28105632 17:-0.11321758 18:0.21594921 19:0 20:0 21:0 22:0 23:0 
0.01805906545077565 1:0 2:2.9289175 3:4 4:4.6613916 5:3.6542047 6:8.3800358 7:9.0837374 8:0.78872901 9:0.085678135 10:0.092755775 11:0.45302263 12:1.3172323 13:2.6791144 14:2.9527995 15:-2.5318498 16:0.4775988 17:0.21372009 18:-0.82755547 19:0 20:0 21:0 22:0 23:0 
0.02876465173567633 1:0 2:16.410932 3:9 4:22.350775 5:10.179173 6:20.080463 7:26.773121 8:8.6420672 9:-1.5464261 10:2.8689787 11:-3.3410144 12:-1.1055664 13:-0.91874785 14:2.906808 15:1.479961 16:0.98965619 17:0.28758949 18:-0.40340668 19:11 20:7.52 21:106.32 22:2 23:15.38 
0.01758166977873532 1:0 2:10.645557 3:6 4:4.6613916 5:0.62666339 6:5.454929 7:0.23904572 8:0.44036992 9:-1.5464261 10:0.58307324 11:0.73316213 12:-1.1543142 13:1.704171 14:0.75996449 15:-1.8914755 16:0.1467647 17:-0.024222612 18:0.22233436 19:2 20:10.32 21:24.78 22:0 23:14.82 
0.02744426788381739 1:0 2:12.075762 3:6 4:17.928429 5:2.0050092 6:8.3800358 7:13.506083 8:9.4473479 9:-1.5464261 10:2.8690115 11:-3.3406648 12:-1.1055443 13:3.2635366 14:2.105482 15:-3.1575267 16:0.070620298 17:0.64003097 18:-1.2829509 19:6 20:13.44 21:58.839999 22:3 23:16.42 
0.02135239815145185 1:0 2:2.6645554 3:8 4:17.928429 5:4.9573251 6:14.230249 7:13.506083 8:4.7477979 9:-1.5464261 10:2.9120359 11:-2.7564114 12:-0.45185826 13:4.5867106 14:-1.0460082 15:-1.9066898 16:-2.4866357 17:0.37645417 18:-1.149084 19:4 20:6.2399998 21:55.36 22:2 23:9.0600004 
-0.1322703739193761 1:0 2:-1.6099362 3:0 4:0.23904572 5:0.53583107 6:-0.39528471 7:0.23904572 8:-0.56012682 9:0.10711802 10:1.9194088 11:-0.4916242 12:-2.6211619 13:-1.841089 14:0.47447405 15:0.096653278 16:0.64743919 17:-0.24047609 18:0.15385486 19:0 20:0 21:0 22:0 23:0 
-0.2694471280400807 1:0 2:0.20087824 3:2 4:0.23904572 5:-1.6296131 6:-0.39528471 7:0.23904572 8:-1.1487185 9:-1.5464261 10:-2.0323321 11:-2.9922939 12:-0.25895827 13:0.71477888 14:-1.2657025 15:-0.82024952 16:0.68592615 17:-0.13130032 18:0.052509399 19:0 20:0 21:0 22:1 23:14.46 
-1.282920076597767 1:0 2:4.5850119 3:2 4:0.23904572 5:1.9719795 6:-0.39528471 7:0.23904572 8:0.98492616 9:-0.23936087 10:1.0632864 11:0.45829075 12:1.014169 13:2.0419725 14:1.2310352 15:-1.2091707 16:0.89734532 17:-0.1284307 18:0.14417707 19:0 20:0 21:0 22:0 23:0 
0.02341705805081368 1:0 2:-0.23835431 3:11 4:17.928429 5:6.2733447 6:14.230249 7:13.506083 8:1.5214438 9:-1.5464261 10:2.9120359 11:-2.7564114 12:-0.45185826 13:3.6924865 14:-1.0460082 15:-1.9066898 16:-2.4866357 17:0.37645417 18:-1.149084 19:3 20:6.2399998 21:29.16 22:1 23:6.2399998 
0.02589018587763348 1:0 2:11.498283 3:6 4:17.928429 5:6.2885402 6:14.230249 7:22.350775 8:9.674664 9:-1.5464261 10:0.35692663 11:-3.5054319 12:-5.0071248 13:2.0691349 14:-0.94612032 15:1.7587081 16:-0.51297087 17:0.95308795 18:-1.0342441 19:5 20:3.5799999 21:46.76 22:2 23:17.639999 
0.02523570912495017 1:0 2:9.5192384 3:7 4:22.350775 5:6.0160312 6:5.454929 7:9.0837374 8:7.0152654 9:-1.5464261 10:0.55271473 11:0.75661876 12:-0.94266196 13:4.2484742 14:-1.0647869 15:-2.6406575 16:-1.6961879 17:0.14278037 18:-0.093175956 19:1 20:14.56 21:15.2 22:1 23:21.26 
0.01792341318653662 1:0 2:6.8597017 3:8 4:17.928429 5:8.7552623 6:11.305143 7:17.928429 8:9.1189355 9:-1.5464261 10:0.42330687 11:0.77352797 12:-0.73478954 13:4.538584 14:-0.84705051 15:-3.2952183 16:-1.3955824 17:0.4245097 18:-2.0122266 19:6 20:3.96 21:88.140001 22:2 23:23.18 
0.02735629793227002 1:0 2:15.472429 3:5 4:4.6613916 5:-2.1374478 6:-0.39528471 7:0.23904572 8:-0.48791538 9:-1.5464261 10:2.9128251 11:-2.8695083 12:-0.38882536 13:-0.77875208 14:-1.2657025 15:0.84881852 16:1.9457453 17:0.096510311 18:0.49368076 19:1 20:7.7399998 21:7.7600002 22:0 23:7.7399998 
-0.002525140158978104 1:0 2:1.499086 3:2 4:4.6613916 5:3.1678125 6:8.3800358 7:0.23904572 8:1.3814082 9:-1.5464261 10:-2.0293819 11:-2.8695083 12:-0.12683269 13:2.0601809 14:-0.92176215 15:-2.8121179 16:0.39980378 17:0.58567446 18:-0.13558317 19:0 20:0 21:0 22:1 23:22.860001 
0.02524269158549768 1:0 2:11.460205 3:5 4:22.350775 5:3.1849743 6:8.3800358 7:13.506083 8:12.553749 9:-1.5464261 10:0.40612864 11:0.69523353 12:-1.4564342 13:3.9358564 14:-0.92176211 15:-3.4643612 16:-0.91227903 17:0.45164332 18:-0.4206248 19:2 20:10.14 21:19.34 22:1 23:12.7 
0.02596869402377777 1:0 2:11.555634 3:3 4:13.506083 5:1.4236597 6:8.3800358 7:13.506083 8:5.1097819 9:-1.5464261 10:2.9061835 11:-2.8695083 12:-0.82261771 13:3.4799769 14:-1.0398668 15:-2.545903 16:-2.2758496 17:0.35205353 18:-0.82082069 19:2 20:10.36 21:27.179999 22:0 23:19.459999 
-0.01946749800660627 1:0 2:1.7932722 3:0 4:0.23904572 5:3.3667496 6:5.454929 7:9.0837374 8:4.0695823 9:-1.5464261 10:2.9007242 11:-2.8695083 12:-0.93757428 13:1.4732077 14:0.94823465 15:-1.6039571 16:0.46330763 17:0.179758 18:-0.24791109 19:1 20:3.96 21:3.7 22:1 23:3.96 
0.01662300038128229 1:0 2:6.9509581 3:6 4:13.506083 5:9.2759515 6:14.230249 7:22.350775 8:10.400457 9:-1.5464261 10:0.58379665 11:0.72368749 12:-1.2295218 13:4.306469 14:-0.98576039 15:-1.232674 16:-2.2513271 17:0.061387099 18:-2.4000998 19:2 20:11.98 21:33.139999 22:2 23:22.280001 
0.02225814426567568 1:0 2:5.7505881 3:5 4:4.6613916 5:4.2147823 6:8.3800358 7:13.506083 8:5.1132423 9:-1.5464261 10:2.9007242 11:-2.8695083 12:-0.93757428 13:4.7145955 14:-1.0653075 15:-3.4559391 16:-1.4308999 17:0.51810561 18:-1.6997196 19:7 20:3 21:110.78 22:7 23:23.18 
0.02613625949801314 1:0 2:14.854971 3:7 4:13.506083 5:3.7717649 6:14.230249 7:17.928429 8:4.7521851 9:-1.5464261 10:-1.9921756 11:-2.3980023 12:0.15615348 13:0.0044088211 14:2.0966657 15:1.479961 16:0.98965619 17:0.28758949 18:-0.40340668 19:6 20:7.52 21:63.739999 22:0 23:17.82 
0.02003901715549894 1:0 2:5.8014322 3:7 4:13.506083 5:10.945338 6:14.230249 7:22.350775 8:8.4465512 9:-1.5464261 10:0.45349621 11:-6.5125446 12:-0.21462336 13:4.4566055 14:0.23815184 15:-3.2952183 16:-1.3955824 17:0.4245097 18:-2.0122266 19:9 20:3 21:113.24 22:5 23:23.18 
0.01894009266480425 1:0 2:0.058111937 3:6 4:9.0837374 5:8.7860441 6:17.155356 7:9.0837374 8:1.5013063 9:-1.5464261 10:-2.0255418 11:-2.5278456 12:-0.50009856 13:2.8639337 14:-1.2657025 15:-2.9743091 16:-1.2212329 17:0.3945699 18:-0.79041203 19:3 20:8.0600004 21:30.639999 22:1 23:22.780001 
0.02653354697239531 1:0 2:9.6950975 3:9 4:13.506083 5:7.424494 6:8.3800358 7:13.506083 8:5.4702122 9:-1.5464261 10:-2.0203603 11:-2.8695083 12:-0.9990404 13:3.1174432 14:-1.0092267 15:-3.1083884 16:-0.21977023 17:0.50274232 18:-0.25864277 19:1 20:6.52 21:4.7199998 22:2 23:20.639999 
0.02227539117664429 1:0 2:6.4770767 3:5 4:13.506083 5:3.413743 6:8.3800358 7:13.506083 8:7.470334 9:-1.5464261 10:0.29371622 11:-6.4721155 12:0.20542516 13:3.2683245 14:-1.2657025 15:-3.191189 16:-1.8005027 17:0.19792999 18:-0.89863792 19:2 20:10.32 21:23.559999 22:1 23:20.219999 
0.01904468527274672 1:0 2:7.1153104 3:7 4:22.350775 5:1.6826831 6:8.3800358 7:13.506083 8:11.546876 9:-1.5464261 10:0.41574638 11:0.7575742 12:-0.97612272 13:2.5261405 14:-0.90051626 15:-2.64721 16:-1.4493122 17:0.086566475 18:-0.36192584 19:1 20:7.54 21:5.98 22:1 23:16.620001 
