svm_type epsilon_svr
kernel_type rbf
gamma 0.00936711
nr_class 2
total_sv 286
rho -0.8485
SV
0.0290995412760307 1:0 2:7.753797 3:24.534233 4:22.838671 5:11.284907 6:88.995506 7:9.9875532 8:8.0545226 9:-0.89770681 10:-0.0025201221 11:1.2281478 12:-0.68987634 13:2.0859814 14:4.5400492 15:1.2836264 16:1.1104394 17:-0.63034544 18:-1.0596685 19:8.1842716 20:1.7828007 21:12.669915 22:9.2891229 23:5.3909474 
-0.1140834166864608 1:0 2:0.27582523 3:-0.3086067 4:0.34921515 5:-1.2075204 6:-0.1490712 7:0.34921515 8:-0.13015435 9:0.015139325 10:0.91887966 11:0.8089473 12:-0.16293468 13:0.23322077 14:-1.2326955 15:-0.25603262 16:0.29559685 17:-0.53235679 18:-0.05391111 19:-0.47036043 20:-0.52977063 21:-0.39904442 22:-0.34921515 23:-0.53744946 
0.1903004019026606 1:0 2:10.240262 3:13.887301 4:13.200333 5:-1.6470358 6:6.7082039 7:0.34921515 8:4.4422824 9:-0.89770681 10:-2.8209771 11:-1.2119454 12:-1.0342104 13:4.1696821 14:-1.0777897 15:0.11544228 16:0.85895331 17:0.12145076 18:0.0025958626 19:1.6932976 20:1.4783445 21:1.5184124 22:2.8635642 23:1.294266 
-0.06316062403602293 1:0 2:4.9756998 3:6.7893474 4:0.34921515 5:0.71820365 6:47.851855 7:0.34921515 8:0.37281116 9:-0.23135103 10:1.1508753 11:0.57900666 12:0.0016609145 13:4.7398038 14:4.1557441 15:-0.09891454 16:0.50798113 17:-0.30887712 18:0.27806897 19:-0.47036043 20:-0.52977063 21:-0.39904442 22:-0.34921515 23:-0.53744946 
0.05147364633732498 1:0 2:2.4073663 3:17.436279 4:6.7747739 5:1.3089456 6:82.13823 7:6.7747739 8:0.14419282 9:-0.89770681 10:-2.8186082 11:-1.2100689 12:-1.0842629 13:9.489117 14:4.291199 15:-0.059588038 16:0.6026912 17:0.87792557 18:-1.4913622 19:0.61146856 20:3.8297826 21:1.0138135 22:-0.34921515 23:3.1534025 
-0.0845177884934623 1:0 2:1.6290837 3:6.7893474 4:3.5619945 5:-1.0689098 6:-0.1490712 7:0.34921515 8:0.098465744 9:-0.89770681 10:-2.8186218 11:-1.2100685 12:-1.0840248 13:3.2079771 14:0.18880063 15:-0.43225379 16:0.14781283 17:0.092967439 18:-1.4501562 19:0.61146856 20:0.92773231 21:0.30738454 22:-0.34921515 23:0.69649064 
0.2782559402207124 1:0 2:-0.93770106 3:-0.3086067 4:0.34921515 5:2.3820833 6:-0.1490712 7:0.34921515 8:-0.08442982 9:-0.89770681 10:-2.8220441 11:-1.2059548 12:-0.91717566 13:-0.7617498 14:0.02144555 15:-0.94640244 16:-0.14170091 17:0.74997102 18:-1.6384155 19:1.6932976 20:1.5042558 21:1.0642734 22:-0.34921515 23:1.6562218 
-0.2782559402207124 1:0 2:1.8557802 3:-0.3086067 4:0.34921515 5:-1.2237491 6:-0.1490712 7:0.34921515 8:0.83005652 9:-0.55703768 10:-0.29568665 11:1.2416258 12:-1.2176747 13:-0.7617498 14:-0.83398636 15:-0.51315029 16:0.06525405 17:-0.14427745 18:-1.6858309 19:-0.47036043 20:-0.52977063 21:-0.39904442 22:-0.34921515 23:-0.53744946 
-0.1077548604264763 1:0 2:5.7098399 3:-0.3086067 4:0.34921515 5:-2.4875193 6:6.7082039 7:3.5619945 8:-0.49594978 9:-0.89770681 10:-0.12244689 11:1.2179826 12:-1.3527279 13:-0.43945432 14:-1.1211619 15:-0.26233315 16:0.12131558 17:2.0005397 18:-1.451611 19:2.7751266 20:2.0937348 21:4.3020791 22:-0.34921515 23:3.4934215 
-0.2483217763914789 1:0 2:2.0905434 3:3.2403703 4:3.5619945 5:0.96699784 6:27.280029 7:13.200333 8:2.2284586 9:-0.088943263 10:-0.22828118 11:-2.3465823 12:-3.1844882 13:1.7688908 14:1.3311025 15:-0.20520685 16:0.49605073 17:-0.99997459 18:-1.2138897 19:-0.47036043 20:-0.52977063 21:-0.39904442 22:-0.34921515 23:-0.53744946 
-0.2782559402207124 1:0 2:1.4666797 3:-0.3086067 4:0.34921515 5:1.1277504 6:-0.1490712 7:0.34921515 8:-0.77029834 9:-0.89770681 10:2.2624284 11:-1.290203 12:-0.67092814 13:-0.7617498 14:-0.03621271 15:-0.30065713 16:0.54341776 17:0.43790111 18:-0.38176872 19:3.8569556 20:1.7892784 21:3.7638438 22:2.8635642 23:3.0382347 
0.01995265379020556 1:0 2:18.108128 3:17.436279 4:16.413112 5:20.385162 6:102.71006 7:22.838671 8:11.803913 9:-0.89770681 10:-2.8087898 11:-1.4602878 12:-0.74230447 13:-0.52650343 14:0.71048742 15:-1.0730835 16:-1.0722134 17:1.2221794 18:-0.6142148 19:11.429759 20:0.35120893 21:16.656203 22:9.2891229 23:2.9175829 
0.0282751288374886 1:0 2:12.429089 3:20.985256 4:16.413112 5:8.0164819 6:75.280955 7:26.05145 8:8.751813 9:-0.89770681 10:2.277145 11:-1.2026341 12:-0.91035493 13:-0.3019617 14:4.5527164 15:-0.42939799 16:0.16535044 17:2.1065165 18:-0.20628669 19:10.34793 20:1.5172113 21:16.391282 22:15.714682 23:4.5299311 
0.04197239008908632 1:0 2:15.886306 3:28.08321 4:26.05145 5:10.496864 6:82.13823 7:26.05145 8:17.199391 9:-0.89770681 10:-0.246006 11:1.1726566 12:-1.5760568 13:0.26255208 14:4.0597961 15:-0.050669967 16:0.62197638 17:1.9662768 18:-0.39504311 19:22.248049 20:0.90182117 21:32.550877 22:18.927461 23:4.0582919 
0.2782559402207124 1:0 2:1.1952281 3:-0.3086067 4:0.34921515 5:-0.44446835 6:13.565479 7:0.34921515 8:-0.94176327 9:0.09831557 10:-1.7631324 11:-0.81190336 12:0.9885275 13:-0.7617498 14:0.94548335 15:-0.21837866 16:0.2271167 17:-1.5374097 18:-0.46822631 19:-0.47036043 20:-0.52977063 21:-0.39904442 22:-0.34921515 23:-0.53744946 
0.035982790297988 1:0 2:17.205429 3:13.887301 4:9.9875532 5:2.498687 6:40.99458 7:19.625891 8:10.797984 9:-0.89770681 10:-0.29415303 11:-3.8231309 12:-0.69265098 13:8.4560664 14:0.073458576 15:1.3765036 16:0.83767911 17:-0.90120792 18:-0.17673244 19:4.9387846 20:1.9382676 21:8.8350063 22:12.501902 23:4.7218775 
0.02259356329902819 1:0 2:7.3366198 3:17.436279 4:13.200333 5:5.2509708 6:82.13823 7:13.200333 8:2.8419306 9:-0.89770681 10:-2.8106668 11:-1.290203 12:-0.70265024 13:0.1354932 14:0.054121875 15:2.0226941 16:0.78968303 17:-1.0654989 18:-1.5147243 19:7.1024426 20:1.1479771 21:10.247866 22:15.714682 23:2.8133835 
0.02858416255435536 1:0 2:11.167166 3:17.436279 4:16.413112 5:22.93851 6:95.852781 7:16.413112 8:15.633325 9:-0.89770681 10:-0.35760059 11:-3.798329 12:-0.53040266 13:-0.41967999 14:6.0350959 15:-0.053117164 16:-0.78090459 17:-2.1477246 18:-1.1170774 19:13.593417 20:0.32529779 21:17.640151 22:18.927461 23:3.8498931 
0.08717964015506012 1:0 2:0.27582523 3:-0.3086067 4:0.34921515 5:1.8424175 6:6.7082039 7:3.5619945 8:1.6073728 9:0.015139325 10:0.91887966 11:0.8089473 12:-0.16293468 13:0.23322077 14:1.6600614 15:-0.25603262 16:0.29559685 17:-0.53235679 18:-0.05391111 19:-0.47036043 20:-0.52977063 21:-0.39904442 22:-0.34921515 23:-0.53744946 
0.06094731928155521 1:0 2:10.161718 3:17.436279 4:3.5619945 5:3.3705904 6:82.13823 7:3.5619945 8:3.2191553 9:-0.89770681 10:2.2777254 11:-1.2109993 12:-0.93810701 13:0.25703749 14:2.88604 15:-0.44128709 16:0.38631892 17:1.1970953 18:-1.0106518 19:8.1842716 20:0.75283197 21:12.665709 22:-0.34921515 23:4.2612065 
-0.02695449973515163 1:0 2:7.1996109 3:6.7893474 4:3.5619945 5:0.99882002 6:6.7082039 7:0.34921515 8:1.3787511 9:-0.89770681 10:2.2773211 11:-1.290203 12:-0.8614642 13:5.5291447 14:2.2422927 15:-0.66043665 16:0.20162612 17:0.35111235 18:-1.1484729 19:1.6932976 20:5.9415423 21:4.3441281 22:-0.34921515 23:5.17158 
0.2113700224634074 1:0 2:5.0388362 3:6.7893474 4:6.7747739 5:0.86017903 6:20.422754 7:9.9875532 8:5.4555572 9:-0.89770681 10:-2.8156041 11:-1.3821801 12:-1.1241284 13:1.4375931 14:2.8015044 15:-0.12013809 16:-0.15066896 17:-1.3461941 18:-0.29170063 19:2.7751266 20:2.7739026 21:3.8074387 22:2.8635642 23:2.2594814 
0.05122812691372286 1:0 2:11.444711 3:28.08321 4:22.838671 5:29.197906 6:47.851855 7:9.9875532 8:24.492455 9:-0.89770681 10:-0.29200234 11:1.1685401 12:-1.5911494 13:-0.17365161 14:4.6279173 15:0.92091004 16:1.0891469 17:0.60201017 18:-0.0017255984 19:31.98451 20:0.20221973 21:46.212738 22:57.480813 23:5.8077446 
0.02578164979689351 1:0 2:14.735885 3:17.436279 4:13.200333 5:15.750566 6:68.42368 7:16.413112 8:9.700596 9:-0.89770681 10:2.2737085 11:-1.369226 12:-1.0886509 13:0.67898425 14:3.6169362 15:-0.26235152 16:0.83493486 17:1.5539456 18:-0.17048437 19:8.1842716 20:2.948803 21:14.133228 22:2.8635642 23:2.5336903 
0.2782559402207124 1:0 2:-0.76052169 3:-0.3086067 4:0.34921515 5:1.6565671 6:-0.1490712 7:0.34921515 8:-0.58739843 9:-0.024252776 10:-0.0052583544 11:-0.04658221 12:1.1773794 13:-0.16321371 14:0.94869703 15:0.094760525 16:0.33623785 17:-0.97856298 18:-0.73871171 19:-0.47036043 20:-0.52977063 21:-0.39904442 22:-0.34921515 23:-0.53744946 
-0.05577813572298995 1:0 2:5.6405566 3:10.338324 4:9.9875532 5:4.1959585 6:20.422754 7:9.9875532 8:6.2255388 9:-0.89770681 10:-2.8021816 11:-1.5357898 12:-1.1626723 13:2.1727382 14:2.0431482 15:-0.8150598 16:0.050507739 17:1.0373107 18:-1.4383778 19:1.6932976 20:2.54718 21:2.0230018 22:-0.34921515 23:2.0675352 
-0.2651590741658674 1:0 2:13.030902 3:3.2403703 4:3.5619945 5:-1.7516718 6:6.7082039 7:3.5619945 8:2.0646173 9:-0.89770681 10:-0.1786906 11:-3.8316216 12:-0.81374579 13:-0.7617498 14:0.44934234 15:0.3217106 16:0.82421489 17:1.506048 18:-0.73489517 19:0.61146856 20:0.079141706 21:-0.29812558 22:2.8635642 23:3.0492031 
0.1008256073035832 1:0 2:2.6969354 3:3.2403703 4:3.5619945 5:6.8295954 6:20.422754 7:6.7747739 8:2.1293932 9:-0.89770681 10:2.2777937 11:-1.290203 12:-0.87507476 13:-0.7617498 14:0.35985021 15:-0.66434969 16:0.08204235 17:1.5806747 18:-1.2610119 19:3.8569556 20:3.1301813 21:10.369816 22:9.2891229 23:5.3854631 
-0.2249861438182096 1:0 2:3.1417896 3:6.7893474 4:6.7747739 5:4.0919604 6:20.422754 7:3.5619945 8:2.0188928 9:-0.89770681 10:-0.18500553 11:-3.7556646 12:-0.3393686 13:0.86806569 14:0.3354816 15:-0.43873744 16:0.31561732 17:2.0172525 18:-1.4314418 19:0.61146856 20:-0.22531446 21:-0.348585 22:-0.34921515 23:-0.27969309 
0.07075910353209769 1:0 2:14.325486 3:-0.3086067 4:0.34921515 5:-2.440053 6:6.7082039 7:3.5619945 8:1.2873019 9:-0.89770681 10:2.2775556 11:-1.290203 12:-1.0326539 13:2.588989 14:-0.99529179 15:-0.74679071 16:-0.24552984 17:1.0458963 18:-0.92796617 19:0.61146856 20:0.81113203 21:0.7362912 22:-0.34921515 23:0.59777539 
-0.2782559402207124 1:0 2:1.6858642 3:-0.3086067 4:0.34921515 5:-0.61316793 6:-0.1490712 7:0.34921515 8:0.74301133 9:-0.89770681 10:-0.32111013 11:-1.6789228 12:1.4762474 13:3.5358101 14:1.0619995 15:-0.50831301 16:0.59004764 17:0.056567693 18:-0.012532535 19:-0.47036043 20:-0.52977063 21:-0.39904442 22:2.8635642 23:0.99263624 
0.038264680889716 1:0 2:19.388555 3:13.887301 4:9.9875532 5:17.417432 6:123.28188 7:32.477009 8:15.781952 9:-0.89770681 10:-0.3686523 11:-3.8319834 12:-0.82196722 13:-0.24193942 14:3.2646474 15:-0.54393816 16:0.34688648 17:1.8252447 18:-1.1786919 19:15.757075 20:0.75283197 21:18.67457 22:9.2891229 23:3.0711398 
-0.1644147505803172 1:0 2:-0.15270637 3:-0.3086067 4:0.34921515 5:0.50688179 6:-0.1490712 7:0.34921515 8:0.64715665 9:0.14947797 10:-0.34424373 11:-0.75797065 12:1.4502591 13:2.1250801 14:0.72726014 15:-0.27141877 16:0.7199451 17:-0.78657684 18:-0.48623787 19:-0.47036043 20:-0.52977063 21:-0.39904442 22:-0.34921515 23:-0.53744946 
-0.107146113882327 1:0 2:0.96623359 3:6.7893474 4:-2.8635642 5:4.6033262 6:61.566405 7:-2.8635642 8:-1.6847865 9:2.6207088 10:-0.27234074 11:-1.290203 12:-0.9502951 13:-0.7617498 14:-1.339924 15:2.707308 16:-2.7582356 17:1.932691 18:2.4099621 19:-0.47036043 20:-0.52977063 21:-0.39904442 22:-0.34921515 23:-0.53744946 
0.05677241823939987 1:0 2:3.6178913 3:10.338324 4:9.9875532 5:10.139404 6:34.137304 7:13.200333 8:11.255225 9:-0.89770681 10:-0.36599093 11:1.2512171 12:-1.0868195 13:2.5423632 14:3.1650413 15:-0.4208358 16:-0.056882048 17:0.79236674 18:0.085463166 19:2.7751266 20:0.079141706 21:2.7798896 22:6.0763436 23:2.0949562 
-0.2518107993762906 1:0 2:0.57493493 3:-0.3086067 4:0.34921515 5:-1.0443404 6:20.422754 7:0.34921515 8:-1.6085791 9:0.19528829 10:-1.2028919 11:-2.4128069 12:1.0639066 13:-0.1933376 14:1.6707031 15:-0.95241279 16:-0.6313565 17:0.72237428 18:0.17874091 19:-0.47036043 20:-0.52977063 21:-0.39904442 22:-0.34921515 23:-0.53744946 
0.005536577266008369 1:0 2:13.730199 3:13.887301 4:13.200333 5:11.868372 6:82.13823 7:26.05145 8:11.256239 9:-0.89770681 10:-2.8072008 11:-1.5790781 12:-0.95705662 13:-0.49559173 14:4.7097115 15:-0.44028456 16:0.30956924 17:2.1048614 18:-0.16861761 19:11.429759 20:-0.20588109 21:15.843988 22:12.501902 23:4.2283012 
0.1331530167232992 1:0 2:5.4525151 3:17.436279 4:3.5619945 5:-0.76619341 6:27.280029 7:6.7747739 8:1.6530956 9:-0.89770681 10:0.06660379 11:-3.8126637 12:-1.0481416 13:-0.7617498 14:-0.26188955 15:-1.2239267 16:-0.87112426 17:0.44378854 18:0.20954425 19:1.6932976 20:-0.14110317 21:0.055089366 22:2.8635642 23:-0.20839876 
0.02306217552911366 1:0 2:11.063859 3:24.534233 4:6.7747739 5:2.3262508 6:54.70913 7:16.413112 8:3.6192413 9:-0.89770681 10:-2.8217545 11:-1.290203 12:-0.85509649 13:6.7056329 14:-0.37662454 15:0.5558459 16:0.16638359 17:-2.2792641 18:-0.32329028 19:4.9387846 20:3.8297826 21:9.0873008 22:6.0763436 23:4.1570073 
0.1570328898220689 1:0 2:9.0664639 3:3.2403703 4:3.5619945 5:1.9698812 6:13.565479 7:0.34921515 8:-1.3418531 9:-0.89770681 10:-0.34001936 11:-3.761066 12:-0.35761519 13:3.1956639 14:2.9842715 15:-0.37650706 16:0.41822522 17:1.005435 18:-1.3649737 19:2.7751266 20:1.2386663 21:2.8808113 22:2.8635642 23:2.3362598 
0.2517668948553977 1:0 2:0.40124431 3:3.2403703 4:3.5619945 5:0.64571123 6:-0.1490712 7:0.34921515 8:1.0129529 9:-0.89770681 10:-0.34249848 11:1.2450588 12:-1.176715 13:0.49630684 14:0.0060715091 15:0.029991081 16:0.84498684 17:0.47695014 18:-1.7145695 19:1.6932976 20:1.6338115 21:2.8303505 22:-0.34921515 23:3.0272664 
-0.2467401082900864 1:0 2:5.9060016 3:6.7893474 4:6.7747739 5:-0.076159014 6:13.565479 7:3.5619945 8:2.0196017 9:-0.89770681 10:-0.36544038 11:1.2516333 12:-1.0797828 13:3.3531423 14:-0.043594214 15:-0.38877819 16:0.30002978 17:0.2177295 18:0.011443973 19:-0.47036043 20:-0.52977063 21:-0.39904442 22:2.8635642 23:2.983393 
0.04765132680072831 1:0 2:18.411014 3:13.887301 4:13.200333 5:17.922731 6:102.71006 7:32.477009 8:23.245927 9:-0.89770681 10:2.2764021 11:-1.3834234 12:-0.88584493 13:2.5284732 14:2.8550947 15:-1.0972252 16:-0.69191 17:-0.30341373 18:-0.39763051 19:20.084391 20:-0.024502964 21:21.824889 22:28.565799 23:4.1350706 
0.02780518688256553 1:0 2:11.787228 3:13.887301 4:9.9875532 5:4.5046657 6:123.28188 7:19.625891 8:2.3542033 9:-0.89770681 10:-2.8232282 11:-1.290203 12:-0.99610657 13:-0.18294903 14:1.4584613 15:-0.82865818 16:-0.95172486 17:0.16423549 18:-1.4249799 19:11.429759 20:0.84999889 21:10.701998 22:6.0763436 23:2.1278612 
0.02603454753922843 1:0 2:16.743871 3:24.534233 4:19.625891 5:8.7400592 6:75.280955 7:13.200333 8:10.477911 9:-0.89770681 10:-0.39019752 11:-3.8213558 12:-0.70067888 13:-0.21628559 14:3.8501067 15:-0.5197989 16:0.12002322 17:2.1102161 18:0.12457142 19:15.757075 20:0.47428692 21:21.651675 22:25.35302 23:3.9540923 
-0.1944073677664163 1:0 2:3.1184616 3:-0.3086067 4:0.34921515 5:-1.4577419 6:13.565479 7:6.7747739 8:-0.26732972 9:-0.12686055 10:0.0018372883 11:-1.1860189 12:-3.38977 13:0.80910227 14:1.8857549 15:-0.77956007 16:0.2518047 17:0.7127478 18:-1.3245618 19:1.6932976 20:5.0735182 21:1.7202472 22:2.8635642 23:4.2063645 
-0.2028597313178829 1:0 2:0.015828186 3:-0.3086067 4:0.34921515 5:4.6538992 6:34.137304 7:6.7747739 8:-0.58739971 9:-0.89770681 10:-0.35937415 11:-3.8170586 12:-1.2475565 13:-0.31798672 14:3.0128714 15:-0.081834885 16:0.93705454 17:-0.11258059 18:-0.803662 19:0.61146856 20:5.7990313 21:2.6789708 22:-0.34921515 23:4.8205929 
0.02899586201471406 1:0 2:9.5120415 3:20.985256 4:19.625891 5:4.8187094 6:68.42368 7:13.200333 8:10.569361 9:-0.89770681 10:-2.818636 11:-1.2056879 12:-1.0812373 13:-0.092533738 14:1.4188768 15:1.0710156 16:1.2004571 17:0.00054711748 18:-0.16290097 19:12.511588 20:0.57145384 21:19.885591 22:22.14024 23:5.319653 
0.04790022885564527 1:0 2:13.61465 3:10.338324 4:6.7747739 5:-1.7390762 6:47.851855 7:6.7747739 8:-1.1360955 9:-0.18133373 10:0.89712116 11:0.29972905 12:0.60334351 13:7.208867 14:-1.0350157 15:0.35427865 16:0.8454707 17:-0.32310127 18:0.074782737 19:1.6932976 20:2.7933361 21:1.3165728 22:2.8635642 23:2.275934 
-0.2782559402207124 1:0 2:-0.818082 3:-0.3086067 4:0.34921515 5:-1.7615943 6:-0.1490712 7:0.34921515 8:-0.12253334 9:-0.067680568 10:1.0691342 11:0.57065774 12:0.1195392 13:-0.7617498 14:-0.0089747893 15:-0.13042255 16:0.26171181 17:-0.84625933 18:-0.60320107 19:-0.47036043 20:-0.52977063 21:-0.39904442 22:-0.34921515 23:-0.53744946 
0.02986087662939807 1:0 2:16.278726 3:13.887301 4:13.200333 5:16.568411 6:82.13823 7:6.7747739 8:10.56936 9:-0.89770681 10:-0.35662926 11:-3.8325638 12:-1.0757393 13:-0.1656417 14:4.0774206 15:1.1395336 16:1.1022637 17:-0.98678059 18:-0.98324295 19:9.2661006 20:0.45485356 21:18.472736 22:6.0763436 23:6.0709854 
-0.2782559402207124 1:0 2:-0.12848329 3:-0.3086067 4:0.34921515 5:0.096190807 6:-0.1490712 7:0.34921515 8:-0.63312519 9:-0.89770681 10:-2.8087904 11:-1.4602789 12:-0.74230225 13:-0.44809089 14:-1.0463979 15:0.1299645 16:0.35669139 17:-1.0422302 18:0.14410677 19:0.61146856 20:1.9317899 21:0.50922409 22:-0.34921515 23:1.5465382 
-0.1044622576994381 1:0 2:10.702064 3:6.7893474 4:6.7747739 5:0.92949588 6:6.7082039 7:3.5619945 8:6.3627173 9:-0.89770681 10:-2.8185169 11:-1.1911672 12:-1.0737084 13:5.0960943 14:0.4034382 15:-0.82165649 16:-0.012818836 17:0.60295984 18:0.20112758 19:0.61146856 20:0.45485356 21:-0.348585 22:6.0763436 23:3.4111587 
0.1297503424083019 1:0 2:-0.35111088 3:-0.3086067 4:-2.8635642 5:-0.60402567 6:-0.1490712 7:-2.8635642 8:-1.6847865 9:2.6207088 10:-0.27234074 11:-1.290203 12:-0.9502951 13:-0.7617498 14:-1.339924 15:2.707308 16:-2.7582356 17:1.932691 18:2.4099621 19:-0.47036043 20:-0.52977063 21:-0.39904442 22:-0.34921515 23:-0.53744946 
0.03977003961323228 1:0 2:19.763529 3:20.985256 4:19.625891 5:12.649059 6:68.42368 7:29.264229 8:21.22316 9:-0.89770681 10:-2.8119509 11:-1.290203 12:-1.1854256 13:6.1649812 14:-1.1304171 15:1.5609937 16:0.53117486 17:-1.7244299 18:-0.99064693 19:9.2661006 20:0.47428692 21:18.119519 22:6.0763436 23:4.4750896 
-0.1922376102650107 1:0 2:8.2788278 3:3.2403703 4:3.5619945 5:-0.73100083 6:13.565479 7:0.34921515 8:0.17941541 9:0.23123868 10:0.72363186 11:0.79723092 12:0.079843345 13:4.2505924 14:-0.2890403 15:-0.27005258 16:0.26480127 17:-1.443223 18:-0.52709109 19:-0.47036043 20:-0.52977063 21:-0.39904442 22:-0.34921515 23:-0.53744946 
-0.1492113945365757 1:0 2:0.67150646 3:3.2403703 4:0.34921515 5:0.4199176 6:40.99458 7:0.34921515 8:-1.3678115 9:-0.89770681 10:-0.26292783 11:1.2541131 12:-1.0642689 13:-0.33760487 14:2.7470803 15:-0.26220753 16:0.43797213 17:1.0032693 18:-1.1464292 19:0.61146856 20:6.50511 21:2.3604759 22:-0.34921515 23:5.4183679 
0.2782559402207124 1:0 2:3.2842291 3:-0.3086067 4:0.34921515 5:3.6022737 6:13.565479 7:0.34921515 8:0.098466613 9:-0.89770681 10:-2.8224799 11:-1.290203 12:-1.025362 13:-0.11978571 14:0.98716139 15:-0.53991249 16:0.29336699 17:1.0257358 18:0.31178955 19:1.6932976 20:3.7390936 21:5.1220439 22:2.8635642 23:4.886403 
0.2782559402207124 1:0 2:-0.27107373 3:3.2403703 4:0.34921515 5:1.6871596 6:6.7082039 7:3.5619945 8:-1.2732669 9:-0.14568796 10:-1.6664136 11:-1.5016584 12:-2.9969114 13:1.0205884 14:2.4873378 15:-0.10220769 16:0.77034645 17:0.32362068 18:-0.11598319 19:-0.47036043 20:-0.52977063 21:-0.39904442 22:-0.34921515 23:-0.53744946 
0.0288709629199357 1:0 2:9.0013684 3:24.534233 4:19.625891 5:0.25036323 6:47.851855 7:9.9875532 8:6.819954 9:-0.89770681 10:-0.27234074 11:1.2568752 12:-0.9502951 13:1.7166135 14:-1.0978712 15:0.046426883 16:-0.53262413 17:-1.9620498 18:-0.51895147 19:6.0206136 20:1.5107335 21:7.8258227 22:2.8635642 23:1.4204021 
0.0424524629330927 1:0 2:10.074186 3:20.985256 4:13.200333 5:6.5458716 6:102.71006 7:13.200333 8:7.2026876 9:-0.89770681 10:-0.31966518 11:-1.6714589 12:1.4773745 13:-0.1935574 14:3.38713 15:-0.89490146 16:0.18910344 17:1.5806148 18:-0.25208994 19:4.9387846 20:1.7892784 21:4.7679875 22:-0.34921515 23:5.8900076 
0.2782559402207124 1:0 2:-0.58635206 3:-0.3086067 4:0.34921515 5:2.1949955 6:-0.1490712 7:0.34921515 8:0.64086605 9:-0.063899469 10:1.0057854 11:0.91393728 12:-0.91677237 13:0.61819363 14:0.96448688 15:-0.8845491 16:-0.10604182 17:-0.70209715 18:-0.031625297 19:-0.47036043 20:-0.52977063 21:-0.39904442 22:-0.34921515 23:-0.53744946 
0.04331148532710042 1:0 2:22.299592 3:3.2403703 4:3.5619945 5:6.2695257 6:102.71006 7:19.625891 8:4.5794582 9:-0.89770681 10:-0.20219009 11:-3.8254672 12:-0.72389808 13:4.9003978 14:0.87890707 15:1.0159521 16:1.2350176 17:0.12476951 18:-0.63034361 19:15.757075 20:-0.22531446 21:20.188352 22:12.501902 23:3.6305259 
0.1070087744819605 1:0 2:3.5177951 3:10.338324 4:9.9875532 5:5.2935514 6:27.280029 7:9.9875532 8:10.064021 9:-0.89770681 10:2.2785974 11:-1.290203 12:-0.90717213 13:-0.049510616 14:2.6266672 15:-0.72222728 16:0.27866555 17:1.016295 18:-1.2227999 19:3.8569556 20:1.6014225 21:4.1460299 22:6.0763436 23:1.4533073 
-0.1848477248159804 1:0 2:1.3270811 3:3.2403703 4:3.5619945 5:-0.19858423 6:20.422754 7:3.5619945 8:1.4701974 9:-0.89770681 10:2.2659854 11:-1.290203 12:-1.19794 13:2.853644 14:-0.79139017 15:-0.5407868 16:-0.38573242 17:-1.0444517 18:-1.4515685 19:0.61146856 20:1.9317899 21:0.50922409 22:-0.34921515 23:1.5465382 
0.05603798975322986 1:0 2:-1.0397613 3:-0.3086067 4:-2.8635642 5:0.14787991 6:-0.1490712 7:-2.8635642 8:-1.6847865 9:2.6207088 10:-0.27234074 11:-1.290203 12:-0.9502951 13:-0.7617498 14:-1.339924 15:2.707308 16:-2.7582356 17:1.932691 18:2.4099621 19:-0.47036043 20:-0.52977063 21:-0.39904442 22:-0.34921515 23:-0.53744946 
0.04229394326966141 1:0 2:4.2767149 3:10.338324 4:6.7747739 5:5.9689868 6:116.42461 7:13.200333 8:3.3008697 9:-0.89770681 10:-2.8233342 11:-1.290203 12:-0.99026718 13:7.1196232 14:4.5618582 15:-0.19582287 16:0.64065961 17:0.47093318 18:-1.1156156 19:2.7751266 20:3.169048 21:5.0072019 22:-0.34921515 23:5.3690107 
0.04241762118900497 1:0 2:25.724833 3:20.985256 4:16.413112 5:3.3566785 6:34.137304 7:9.9875532 8:9.1976242 9:-0.89770681 10:-0.26860868 11:1.2541926 12:-0.83767355 13:-0.32571497 14:-1.2319245 15:1.5339985 16:0.98277808 17:-1.0748173 18:-0.18626154 19:4.9387846 20:1.8929232 21:7.5230634 22:2.8635642 23:1.5136332 
0.01894912604877569 1:0 2:11.498959 3:24.534233 4:19.625891 5:9.5396431 6:102.71006 7:22.838671 8:9.1115711 9:-0.89770681 10:2.2789908 11:-1.290203 12:-0.9502951 13:4.7461245 14:2.4910449 15:0.49445828 16:0.94488103 17:0.53116603 18:0.29855455 19:14.675246 20:0.81113203 21:16.348881 22:9.2891229 23:2.4843329 
0.02169258628927435 1:0 2:17.573157 3:10.338324 4:9.9875532 5:2.132698 6:20.422754 7:9.9875532 8:7.3686523 9:-0.89770681 10:-0.3686523 11:-3.8319834 12:-0.82196722 13:-0.24193942 14:2.1816027 15:-0.54393816 16:0.34688648 17:1.8252447 18:-1.1786919 19:1.6932976 20:1.9317899 21:3.1331051 22:2.8635642 23:1.5465382 
0.08716932228700694 1:0 2:5.235167 3:3.2403703 4:3.5619945 5:8.371177 6:54.70913 7:6.7747739 8:2.9790994 9:-0.89770681 10:-2.8096548 11:-1.3705175 12:-0.70516145 13:1.697084 14:3.9927327 15:-0.33824299 16:0.47225069 17:2.1314465 18:-0.090530837 19:2.7751266 20:2.6702581 21:4.8487223 22:-0.34921515 23:3.751178 
0.2782559402207124 1:0 2:1.3270811 3:3.2403703 4:0.34921515 5:-2.889641 6:-0.1490712 7:0.34921515 8:-1.2275411 9:0.13663739 10:0.1696634 11:0.14456408 12:1.033683 13:1.628002 14:-1.1763817 15:0.1507481 16:0.3645322 17:-1.1705876 18:0.2538356 19:-0.47036043 20:-0.52977063 21:-0.39904442 22:-0.34921515 23:-0.53744946 
0.04222611944572526 1:0 2:12.745067 3:31.632187 4:26.05145 5:6.71034 6:47.851855 7:9.9875532 8:13.678627 9:-0.89770681 10:-2.8176492 11:-1.1236131 12:-1.0017036 13:4.6407914 14:1.4105402 15:-0.70904269 16:-0.063846744 17:0.41905817 18:-0.92074686 19:12.511588 20:-0.22531446 21:17.160791 22:9.2891229 23:4.2612065 
0.03398141120552624 1:0 2:11.019337 3:20.985256 4:19.625891 5:6.7398638 6:109.56733 7:19.625891 8:11.483844 9:-0.89770681 10:2.2575012 11:-1.0446249 12:-0.73791997 13:2.4628698 14:1.3771955 15:-0.2550327 16:-0.23320531 17:-1.8735404 18:0.23851887 19:15.757075 20:1.9965679 21:21.197537 22:2.8635642 23:1.6013801 
0.03497439395017572 1:0 2:5.5083691 3:10.338324 4:0.34921515 5:-1.6798069 6:20.422754 7:0.34921515 8:-0.39825737 9:-0.067407666 10:1.1638779 11:0.31048048 12:0.36800704 13:4.3623545 14:3.6427216 15:0.64465795 16:1.3893887 17:0.92557781 18:-0.024275579 19:-0.47036043 20:-0.52977063 21:-0.39904442 22:-0.34921515 23:-0.53744946 
-0.004162481186860125 1:0 2:1.3122033 3:3.2403703 4:3.5619945 5:0.5354017 6:-0.1490712 7:0.34921515 8:-0.13015482 9:-0.89770681 10:-2.8183606 11:-1.290203 12:-0.79191259 13:-0.31694852 14:1.7142116 15:-0.40383203 16:0.34379701 17:0.89669138 18:-1.6789764 19:3.8569556 20:0.50667592 21:6.5643382 22:-0.34921515 23:5.1935167 
0.03344551369246302 1:0 2:22.769696 3:24.534233 4:16.413112 5:7.0096137 6:61.566405 7:16.413112 8:8.7670498 9:-0.89770681 10:-2.8194202 11:-1.3761576 12:-0.83532846 13:-0.28595194 14:4.5664576 15:-0.17579056 16:0.77850163 17:1.6577617 18:-0.14149402 19:11.429759 20:1.5366447 21:13.70433 22:12.501902 23:3.2740543 
0.2782559402207124 1:0 2:6.6502431 3:6.7893474 4:0.34921515 5:-0.27400404 6:6.7082039 7:0.34921515 8:-1.318991 9:0.012499908 10:0.00066930536 11:-1.8806361 12:1.4240798 13:-0.7617498 14:-0.46006966 15:-0.65169392 16:0.15087145 17:2.0880027 18:0.010973874 19:-0.47036043 20:-0.52977063 21:-0.39904442 22:-0.34921515 23:-0.53744946 
0.008713010726202163 1:0 2:14.509228 3:13.887301 4:13.200333 5:9.8897732 6:82.13823 7:16.413112 8:16.604972 9:-0.89770681 10:2.2765981 11:-1.3723788 12:-0.87938309 13:0.18871465 14:4.5016096 15:-0.99781714 16:-0.92573406 17:0.60917652 18:-0.35439261 19:10.34793 20:1.3293553 21:19.532379 22:9.2891229 23:3.9869976 
0.05321630120311393 1:0 2:9.8922438 3:10.338324 4:6.7747739 5:-0.74742762 6:40.99458 7:19.625891 8:2.8419302 9:-0.89770681 10:-0.28579822 11:1.2338774 12:-1.2793016 13:-0.44199637 14:1.2770957 15:-0.43397365 16:0.46058543 17:2.1809971 18:0.22964362 19:1.6932976 20:3.8038715 21:3.5367796 22:9.2891229 23:4.5792888 
0.04785106748832463 1:0 2:13.208006 3:6.7893474 4:3.5619945 5:3.7348247 6:88.995506 7:16.413112 8:6.6865928 9:-0.89770681 10:-2.8224752 11:-1.290203 12:-1.0255154 13:2.7429324 14:1.9534128 15:-0.66434969 16:0.08204235 17:1.5806747 18:-1.2610119 19:4.9387846 20:0.80465425 21:10.369812 22:15.714682 23:5.3854631 
-0.2782559402207124 1:0 2:-0.81197279 3:-0.3086067 4:0.34921515 5:-0.84924414 6:6.7082039 7:0.34921515 8:-0.60094817 9:0.23123868 10:0.72363186 11:0.79723092 12:0.079843345 13:-0.7617498 14:-0.2890403 15:-0.27005258 16:0.26480127 17:-1.443223 18:-0.52709109 19:-0.47036043 20:-0.52977063 21:-0.39904442 22:-0.34921515 23:-0.53744946 
-0.1403599952108983 1:0 2:2.4119844 3:13.887301 4:6.7747739 5:2.9283454 6:27.280029 7:3.5619945 8:-0.038705753 9:0.012499908 10:-0.63379971 11:-0.70481898 12:1.4142731 13:7.342039 14:0.41299124 15:0.045222856 16:0.60895955 17:-0.83886519 18:-0.038553611 19:1.6932976 20:4.7431513 21:2.6285157 22:-0.34921515 23:4.2612065 
0.09621151372998119 1:0 2:10.081528 3:10.338324 4:0.34921515 5:-2.6410168 6:-0.1490712 7:0.34921515 8:-1.6847865 9:2.6207088 10:-0.27234074 11:-1.290203 12:-0.9502951 13:-0.7617498 14:-1.339924 15:2.707308 16:-2.7582356 17:1.932691 18:2.4099621 19:0.61146856 20:0.90182117 21:-0.096288869 22:2.8635642 23:0.67455394 
-0.07195713963052819 1:0 2:1.8109565 3:6.7893474 4:6.7747739 5:3.8046629 6:68.42368 7:9.9875532 8:0.88943489 9:-0.89770681 10:-2.8236723 11:-1.290203 12:-0.9502951 13:-0.7617498 14:0.2361019 15:0.34855388 16:-0.75490959 17:-2.1715192 18:0.11427262 19:3.8569556 20:2.9099363 21:3.3321407 22:2.8635642 23:2.7036998 
-0.2782559402207124 1:0 2:3.6000594 3:3.2403703 4:0.34921515 5:-0.80366643 6:13.565479 7:3.5619945 8:0.91388489 9:-0.89770681 10:-0.1922036 11:-3.7763036 12:-0.4217595 13:2.6578612 14:0.50086303 15:-0.39066541 16:0.24612863 17:0.99558084 18:-0.13260118 19:0.61146856 20:0.50667592 21:-0.029009352 22:2.8635642 23:0.34001906 
0.04748174494829693 1:0 2:11.290253 3:28.08321 4:26.05145 5:2.3791135 6:34.137304 7:13.200333 8:3.3449008 9:-0.89770681 10:2.2679907 11:-1.4694835 12:-1.0986638 13:0.62133032 14:5.020428 15:-1.0100751 16:-0.60299282 17:1.3352938 18:0.24994397 19:8.1842716 20:2.9293698 21:12.131681 22:2.8635642 23:2.5501429 
0.2329372264037073 1:0 2:4.1110484 3:6.7893474 4:0.34921515 5:0.57952346 6:6.7082039 7:0.34921515 8:-0.3587797 9:-0.89770681 10:-0.46245397 11:-3.7737501 12:-1.4637246 13:5.4635364 14:1.1566972 15:-0.74782479 16:-0.13466269 17:0.4975594 18:-0.75798624 19:1.6932976 20:1.2062774 21:1.3165734 22:2.8635642 23:2.4349752 
-0.1429621815676371 1:0 2:2.6107929 3:6.7893474 4:-2.8635642 5:-1.4386592 6:-0.1490712 7:-2.8635642 8:-1.6847865 9:2.6207088 10:-0.27234074 11:-1.290203 12:-0.9502951 13:-0.7617498 14:-1.339924 15:2.707308 16:-2.7582356 17:1.932691 18:2.4099621 19:-0.47036043 20:-0.52977063 21:-0.39904442 22:-0.34921515 23:-0.53744946 
-0.05887055531609119 1:0 2:4.5189008 3:3.2403703 4:3.5619945 5:-0.88721486 6:13.565479 7:3.5619945 8:0.55570676 9:-0.89770681 10:-2.7963741 11:-1.5327824 12:-1.2217034 13:-0.31740854 14:0.87224586 15:-1.0527527 16:-0.28106243 17:0.42296913 18:-1.3714418 19:1.6932976 20:4.3739172 21:2.2753013 22:2.8635642 23:3.6140735 
0.02661452277254243 1:0 2:16.232368 3:31.632187 4:22.838671 5:2.2471172 6:75.280955 7:16.413112 8:5.8457685 9:-0.89770681 10:-0.27234074 11:-3.7987834 12:-0.52494053 13:3.6214781 14:2.6301951 15:0.37287128 16:0.25443056 17:-1.3412111 18:-1.0947993 19:10.34793 20:0.81113203 21:12.956905 22:12.501902 23:5.0509279 
-0.06961631385273376 1:0 2:0.14371648 3:10.338324 4:3.5619945 5:3.553398 6:54.70913 7:6.7747739 8:2.3846883 9:-0.89770681 10:-0.35968409 11:1.1752432 12:-1.5612792 13:-0.7617498 14:3.4908179 15:0.19697983 16:0.7712369 17:0.66271959 18:-0.7044037 19:0.61146856 20:2.0937348 21:0.91289846 22:-0.34921515 23:1.6836428 
0.2782559402207124 1:0 2:4.4640287 3:3.2403703 4:0.34921515 5:-0.74488808 6:20.422754 7:3.5619945 8:0.87578161 9:-0.89770681 10:2.2659854 11:-1.290203 12:-1.19794 13:-0.12277675 14:1.5119301 15:0.16992966 16:0.48647824 17:-0.86650071 18:0.32122249 19:0.61146856 20:0.96659902 21:0.20646476 22:-0.34921515 23:0.72939567 
-0.2753174483469136 1:0 2:16.309783 3:17.436279 4:3.5619945 5:-1.554507 6:20.422754 7:3.5619945 8:-1.5476133 9:0.091927251 10:-1.4688287 11:-2.6903043 12:0.74740453 13:3.0972392 14:-0.79623756 15:-1.1013272 16:-0.51097622 17:1.5326559 18:0.24049194 19:0.61146856 20:3.0459699 21:0.20646476 22:-0.34921515 23:2.4898169 
-0.2782559402207124 1:0 2:10.532241 3:10.338324 4:6.7747739 5:-0.0086522483 6:6.7082039 7:3.5619945 8:2.4761304 9:-0.89770681 10:2.2789908 11:-1.290203 12:-0.9502951 13:-0.033261444 14:2.2064704 15:-0.16053262 16:0.30454434 17:1.4202225 18:0.16076677 19:0.61146856 20:1.8087118 21:0.35784443 22:2.8635642 23:1.4423388 
-0.04062796817079654 1:0 2:7.2063866 3:10.338324 4:6.7747739 5:-0.36583697 6:-0.1490712 7:0.34921515 8:4.9528753 9:-0.89770681 10:2.2747432 11:-1.2044944 12:-1.0653389 13:2.6201676 14:-1.0343299 15:-0.12688097 16:0.62452652 17:-0.66504918 18:0.12222712 19:2.7751266 20:1.5366447 21:4.2474185 22:-0.34921515 23:1.447823 
0.03650549608777501 1:0 2:15.115906 3:6.7893474 4:6.7747739 5:2.6156831 6:27.280029 7:13.200333 8:8.9690051 9:-0.89770681 10:-0.29743508 11:1.2370334 12:-1.2552734 13:1.6265634 14:1.4660231 15:0.81242935 16:0.82154821 17:-1.4155316 18:-1.6423804 19:3.8569556 20:1.5366447 21:3.6376992 22:2.8635642 23:1.2120034 
-0.03651018777817756 1:0 2:12.564088 3:20.985256 4:16.413112 5:15.665783 6:95.852781 7:16.413112 8:2.8876551 9:-0.89770681 10:2.2775639 11:-1.290203 12:-1.0324166 13:11.01064 14:-1.2387416 15:2.2496372 16:0.59510961 17:-0.73201379 18:-1.2289106 19:12.511588 20:3.1237033 21:20.541572 22:6.0763436 23:5.1660957 
0.1998972704750878 1:0 2:-0.60137137 3:3.2403703 4:3.5619945 5:-1.8445303 6:-0.1490712 7:0.34921515 8:1.2110971 9:-0.89770681 10:2.2785468 11:-1.290203 12:-0.90448765 13:-0.3606484 14:-0.43115753 15:-0.43036896 16:-0.085839716 17:0.20414314 18:-1.1735383 19:1.6932976 20:1.9123565 21:1.030635 22:-0.34921515 23:1.5300857 
0.01142814907570256 1:0 2:12.770761 3:6.7893474 4:6.7747739 5:-0.13069006 6:47.851855 7:9.9875532 8:1.8268496 9:-0.89770681 10:-2.8232965 11:-1.290203 12:-0.99244224 13:7.2231633 14:-0.78129416 15:-0.34860354 16:-0.71960988 17:-1.955416 18:-0.75246773 19:3.8569556 20:0.81760982 21:4.7679875 22:2.8635642 23:0.60325956 
0.01821668296103185 1:0 2:11.120142 3:17.436279 4:13.200333 5:14.503942 6:109.56733 7:19.625891 8:11.849643 9:-0.89770681 10:2.2762873 11:-1.3684672 12:-0.86615292 13:4.1655512 14:2.3362442 15:0.79756164 16:0.72672628 17:-1.3261528 18:-0.11237815 19:9.2661006 20:0.68805404 21:10.550625 22:15.714682 23:3.5372949 
0.006517984532647564 1:0 2:14.766984 3:24.534233 4:19.625891 5:7.8501995 6:116.42461 7:26.05145 8:8.1459649 9:-0.89770681 10:-0.18498792 11:-3.7556488 12:-0.33931108 13:3.8221312 14:3.3138983 15:-0.84209201 16:-0.40963855 17:0.32464039 18:-0.26365332 19:10.34793 20:2.0937348 21:19.027785 22:9.2891229 23:3.4385797 
-0.2782559402207124 1:0 2:1.8944591 3:3.2403703 4:0.34921515 5:-0.36583697 6:-0.1490712 7:0.34921515 8:2.5752055 9:-0.89770681 10:2.2747432 11:-1.2044944 12:-1.0653389 13:2.410088 14:-1.0343299 15:-0.12688097 16:0.62452652 17:-0.66504918 18:0.12222712 19:0.61146856 20:1.8151896 21:2.7168193 22:-0.34921515 23:1.447823 
0.05838328703054676 1:0 2:12.462089 3:17.436279 4:13.200333 5:1.1661047 6:27.280029 7:13.200333 8:6.5913326 9:-0.89770681 10:-0.18531239 11:1.2366537 12:-0.65304003 13:-0.15439821 14:-1.2256187 15:1.1688113 16:1.2052327 17:-1.0797265 18:-1.1585115 19:6.0206136 20:1.6338115 21:9.8946593 22:-0.34921515 23:4.858982 
0.2782559402207124 1:0 2:3.1196359 3:-0.3086067 4:0.34921515 5:-2.2519198 6:6.7082039 7:0.34921515 8:-0.45022525 9:-0.89770681 10:-0.19529738 11:1.208178 12:-0.47817331 13:-0.096311467 14:-0.16392603 15:0.23112896 16:0.846702 17:1.3580507 18:-0.0098043777 19:-0.47036043 20:-0.52977063 21:-0.39904442 22:2.8635642 23:2.4020701 
0.01817280414474997 1:0 2:18.293826 3:17.436279 4:13.200333 5:14.213007 6:95.852781 7:16.413112 8:17.748095 9:-0.89770681 10:-0.18803861 11:1.2521692 12:-0.82507406 13:-0.7617498 14:-0.04905065 15:-1.1790511 16:-1.010988 17:1.1004941 18:-1.2327674 19:13.593417 20:-0.22531446 21:14.940585 22:15.714682 23:3.3398646 
-0.03426578277733228 1:0 2:1.6631123 3:6.7893474 4:6.7747739 5:11.805793 6:150.71098 7:19.625891 8:1.8585406 9:-0.89770681 10:-0.36544037 11:1.251633 12:-1.0797873 13:-0.31922875 14:1.7539919 15:0.59941815 16:0.82825182 17:-0.11456762 18:-1.3491031 19:3.8569556 20:0.085619491 21:5.4663286 22:9.2891229 23:5.7145135 
0.03373846768737358 1:0 2:14.791196 3:10.338324 4:9.9875532 5:20.011474 6:95.852781 7:26.05145 8:16.514068 9:-0.89770681 10:-0.38182856 11:-3.8014975 12:-0.55386718 13:-0.50050071 14:1.3862395 15:1.4490763 16:1.0462249 17:-0.81661968 18:-0.72947479 19:14.675246 20:-0.024502964 21:15.906901 22:15.714682 23:2.0839878 
-0.2617715977057877 1:0 2:1.1188495 3:-0.3086067 4:0.34921515 5:1.4728087 6:20.422754 7:0.34921515 8:1.3933143 9:-0.43465738 10:-1.7632416 11:-2.5264665 12:-2.5473757 13:-0.52874039 14:1.6681634 15:-0.55657336 16:0.59283707 17:0.27449307 18:-0.029528316 19:-0.47036043 20:-0.52977063 21:-0.39904442 22:-0.34921515 23:-0.53744946 
0.02915596573359081 1:0 2:14.842008 3:20.985256 4:16.413112 5:12.502138 6:102.71006 7:26.05145 8:21.379293 9:-0.89770681 10:-0.22686084 11:-0.92231927 12:-3.3799146 13:0.8052946 14:3.1303216 15:-1.201518 16:-0.70636624 17:0.094964894 18:-0.073876664 19:13.593417 20:1.2451441 21:19.599283 22:18.927461 23:5.999691 
0.05971995647307508 1:0 2:12.215988 3:13.887301 4:3.5619945 5:-2.4616802 6:6.7082039 7:0.34921515 8:-0.27600782 9:-0.89770681 10:2.2716995 11:-1.290203 12:-0.76476402 13:5.5660328 14:-1.339924 15:0.054965313 16:0.70735076 17:-0.1939867 18:0.30927351 19:0.61146856 20:1.9900901 21:0.30055256 22:2.8635642 23:1.5958959 
-0.2490716733106363 1:0 2:-0.7520379 3:-0.3086067 4:0.34921515 5:0.24698827 6:-0.1490712 7:0.34921515 8:0.26612248 9:-0.89770681 10:-0.27941656 11:1.227753 12:-0.58006189 13:-0.7617498 14:1.0405183 15:-0.87692393 16:-0.18628319 17:0.23745206 18:-0.58860695 19:0.61146856 20:2.6054802 21:1.0840851 22:-0.34921515 23:2.1168929 
0.004171511045666922 1:0 2:8.68395 3:17.436279 4:16.413112 5:7.5495493 6:68.42368 7:16.413112 8:7.3686495 9:-0.89770681 10:-0.35247636 11:1.1958507 12:-1.4790366 13:-0.14546946 14:0.88382681 15:1.1294925 16:1.1133532 17:-0.26639718 18:-1.1569521 19:6.0206136 20:0.50667592 21:7.7879778 22:6.0763436 23:3.5043898 
0.2782559402207124 1:0 2:4.4310255 3:3.2403703 4:0.34921515 5:-0.62849563 6:-0.1490712 7:0.34921515 8:-1.4104401 9:-0.18133373 10:1.5609046 11:-0.01945459 12:0.23964399 13:-0.7617498 14:0.13950258 15:0.70041266 16:0.74289769 17:-1.2240572 18:-1.6249108 19:-0.47036043 20:-0.52977063 21:-0.39904442 22:-0.34921515 23:-0.53744946 
0.2782559402207124 1:0 2:0.95248952 3:-0.3086067 4:0.34921515 5:0.017948881 6:-0.1490712 7:0.34921515 8:0.50998434 9:-0.51228368 10:-0.37383705 11:-1.6925029 12:1.4726744 13:-0.7617498 14:0.5057897 15:-0.38090179 16:0.48813452 17:1.4623673 18:-0.31489195 19:-0.47036043 20:-0.52977063 21:-0.39904442 22:-0.34921515 23:-0.53744946 
0.02379532559889558 1:0 2:14.238053 3:17.436279 4:13.200333 5:7.6386283 6:116.42461 7:19.625891 8:6.6824452 9:-0.89770681 10:-0.31782122 11:-1.6578594 12:1.479356 13:3.6118094 14:5.4500684 15:-0.30449727 16:-0.2539567 17:-2.0816463 18:-1.1604763 19:8.1842716 20:1.6014225 21:12.949121 22:9.2891229 23:5.999691 
0.03347470175839051 1:0 2:20.936958 3:20.985256 4:19.625891 5:9.2388718 6:88.995506 7:26.05145 8:12.124486 9:-0.89770681 10:2.2625195 11:-1.0013298 12:-0.94353363 13:-0.3301054 14:3.36246 15:-0.8487534 16:-0.13842793 17:1.7126547 18:-0.72677401 19:15.757075 20:1.4653889 21:17.897185 22:6.0763436 23:4.6231622 
0.002754972613858142 1:0 2:6.3236833 3:24.534233 4:22.838671 5:15.680272 6:102.71006 7:19.625891 8:19.861919 9:-0.89770681 10:-0.31782191 11:-1.658106 12:1.4793214 13:-0.23148274 14:4.8372731 15:-0.25114562 16:0.63642078 17:2.5469537 18:-1.4006825 19:13.593417 20:1.2451441 21:16.824395 22:18.927461 23:5.999691 
0.03590824153465309 1:0 2:6.1558177 3:13.887301 4:13.200333 5:8.7001521 6:95.852781 7:26.05145 8:13.724351 9:-0.89770681 10:-0.24774538 11:-3.8283332 12:-0.74599692 13:-0.39038419 14:3.4199714 15:-0.62009444 16:-0.19824038 17:1.5586428 18:-0.95462109 19:8.1842716 20:-0.14110317 21:10.197407 22:2.8635642 23:2.6104687 
-0.2782559402207124 1:0 2:2.9348242 3:-0.3086067 4:0.34921515 5:1.4872972 6:-0.1490712 7:0.34921515 8:2.2017883 9:-0.21055023 10:0.20430511 11:0.58928107 12:0.64236545 13:-0.25076796 14:1.4739741 15:-0.53267754 16:-0.0043816901 17:1.3003921 18:-0.10656858 19:-0.47036043 20:-0.52977063 21:-0.39904442 22:-0.34921515 23:-0.53744946 
-0.07429914022292879 1:0 2:-0.057094723 3:6.7893474 4:3.5619945 5:7.8504292 6:6.7082039 7:0.34921515 8:1.5730797 9:-0.89770681 10:-2.8220085 11:-1.2020642 12:-0.92497376 13:-0.7617498 14:-0.06907711 15:-0.78686611 16:-0.10554394 17:1.4746563 18:-1.716582 19:1.6932976 20:1.7050672 21:3.6376992 22:-0.34921515 23:3.3672854 
-0.1889321659205488 1:0 2:11.372388 3:6.7893474 4:0.34921515 5:-2.6437326 6:-0.1490712 7:0.34921515 8:-1.6847865 9:2.6207088 10:-0.27234074 11:-1.290203 12:-0.9502951 13:-0.7617498 14:-1.339924 15:2.707308 16:-2.7582356 17:1.932691 18:2.4099621 19:-0.47036043 20:-0.52977063 21:-0.39904442 22:2.8635642 23:4.7218775 
0.2181267700285017 1:0 2:8.8475485 3:6.7893474 4:3.5619945 5:2.247407 6:13.565479 7:6.7747739 8:7.6887197 9:-0.89770681 10:2.2576733 11:-1.290203 12:-1.2670896 13:1.7184927 14:-0.014235485 15:0.78201313 16:0.44419126 17:-1.5884891 18:-1.6503535 19:0.61146856 20:1.9965679 21:0.35784443 22:2.8635642 23:1.6013801 
0.02465851653664392 1:0 2:12.544657 3:20.985256 4:19.625891 5:15.047522 6:102.71006 7:16.413112 8:12.07827 9:-0.89770681 10:-2.8021817 11:-1.5357889 12:-1.1626716 13:-0.52332359 14:3.4517669 15:0.073176102 16:1.0932346 17:1.0677776 18:-0.76891758 19:16.838904 20:1.6921117 21:27.858156 22:12.501902 23:5.3854631 
0.03996329244142191 1:0 2:6.4627507 3:13.887301 4:6.7747739 5:1.4451418 6:123.28188 7:13.200333 8:1.5667284 9:-0.89770681 10:-0.22357622 11:-0.9014457 12:-3.3768319 13:2.6574136 14:3.1390151 15:-0.61708407 16:0.37178478 17:-0.43017672 18:-1.2829373 19:7.1024426 20:2.7609471 21:9.9828623 22:9.2891229 23:6.2355108 
0.02189612422446026 1:0 2:17.20499 3:20.985256 4:9.9875532 5:2.385193 6:54.70913 7:13.200333 8:0.56333082 9:-0.89770681 10:-0.28185269 11:-3.7880284 12:-0.46977907 13:4.2975331 14:3.7811526 15:-0.45894789 16:-0.10571343 17:0.2102371 18:0.090895937 19:11.429759 20:1.9123565 21:14.402353 22:6.0763436 23:5.5170833 
-0.2782559402207124 1:0 2:1.2811207 3:-0.3086067 4:0.34921515 5:1.5329314 6:-0.1490712 7:0.34921515 8:0.69288596 9:-0.89770681 10:-0.17603009 11:1.2515766 12:-1.078632 13:-0.31172846 14:0.80739703 15:-0.75460161 16:-0.1069036 17:-0.17903373 18:-0.29361163 19:0.61146856 20:1.9317899 21:0.35784443 22:2.8635642 23:1.5465382 
0.2782559402207124 1:0 2:6.9530543 3:-0.3086067 4:0.34921515 5:-0.73841799 6:6.7082039 7:3.5619945 8:1.8817178 9:-0.46352805 10:-0.31051308 11:0.14024138 12:1.08129 13:2.9023523 14:-1.339924 15:-0.84782437 16:-0.032690059 17:0.54884555 18:-1.4518029 19:0.61146856 20:0.45485356 21:-0.348585 22:2.8635642 23:0.29614561 
-0.2782559402207124 1:0 2:2.5533333 3:6.7893474 4:-2.8635642 5:-2.2111196 6:-0.1490712 7:-2.8635642 8:-1.6847865 9:2.6207088 10:-0.27234074 11:-1.290203 12:-0.9502951 13:-0.7617498 14:-1.339924 15:2.707308 16:-2.7582356 17:1.932691 18:2.4099621 19:-0.47036043 20:-0.52977063 21:-0.39904442 22:-0.34921515 23:-0.53744946 
-0.04725242688262327 1:0 2:9.202351 3:10.338324 4:9.9875532 5:0.86481579 6:13.565479 7:6.7747739 8:8.2221707 9:-0.89770681 10:-0.28067674 11:-3.8225648 12:-0.68681176 13:-0.54891677 14:-1.0560762 15:0.79331309 16:0.013670312 17:-2.3056275 18:-1.2476322 19:3.8569556 20:0.80465425 21:9.5498469 22:9.2891229 23:4.886403 
0.05787096600652804 1:0 2:3.880786 3:10.338324 4:0.34921515 5:-1.2882 6:13.565479 7:0.34921515 8:-1.2275411 9:-0.89770681 10:2.2672695 11:-1.290203 12:-0.7151646 13:-0.32977756 14:-1.339924 15:1.5609937 16:0.53117486 17:-1.7244299 18:-0.99064693 19:0.61146856 20:6.5698882 21:2.6789708 22:-0.34921515 23:5.4732099 
0.2782559402207124 1:0 2:-0.818082 3:-0.3086067 4:0.34921515 5:-1.7615943 6:-0.1490712 7:0.34921515 8:-0.12253334 9:-0.067680568 10:1.0691342 11:0.57065774 12:0.1195392 13:-0.7617498 14:-0.0089747893 15:-0.13042255 16:0.26171181 17:-0.84625933 18:-0.60320107 19:-0.47036043 20:-0.52977063 21:-0.39904442 22:-0.34921515 23:-0.53744946 
0.02752018287269765 1:0 2:7.4905385 3:17.436279 4:16.413112 5:6.5400186 6:75.280955 7:19.625891 8:8.0545135 9:-0.89770681 10:-2.8229048 11:-1.290203 12:-0.89006722 13:-0.3696067 14:1.4462051 15:-0.018408064 16:-0.63405168 17:-2.2510399 18:-0.68915139 19:4.9387846 20:1.031377 21:6.5643357 22:2.8635642 23:2.7640258 
-0.0476516727643571 1:0 2:2.2215158 3:13.887301 4:6.7747739 5:-0.91496111 6:20.422754 7:3.5619945 8:1.5810221 9:-0.89770681 10:2.2620016 11:-1.290203 12:-1.2332258 13:5.708398 14:1.5816486 15:-0.98621103 16:-0.25056922 17:-0.58448392 18:0.21304533 19:0.61146856 20:1.7180228 21:0.52925588 22:-0.34921515 23:1.3655604 
0.0270851976809659 1:0 2:22.888338 3:13.887301 4:13.200333 5:12.675324 6:82.13823 7:19.625891 8:12.90131 9:-0.89770681 10:-0.076149638 11:-3.8169364 12:-1.1958461 13:-0.16328726 14:4.733072 15:-1.0918279 16:-1.1208096 17:0.1036417 18:-0.030619058 19:15.757075 20:1.6079003 21:20.844317 22:2.8635642 23:3.6140735 
-0.234148731822338 1:0 2:3.4845075 3:13.887301 4:13.200333 5:3.1066551 6:6.7082039 7:3.5619945 8:7.6430035 9:-0.89770681 10:-2.1142008 11:-3.0118472 12:-0.58646187 13:2.7098871 14:2.2166028 15:-0.376138 16:0.36663962 17:1.4954666 18:-1.3204794 19:2.7751266 20:0.50667592 21:0.30738599 22:6.0763436 23:1.9907568 
0.2782559402207124 1:0 2:-0.39651619 3:-0.3086067 4:0.34921515 5:0.343223 6:-0.1490712 7:0.34921515 8:0.46426109 9:-0.13937109 10:0.99447335 11:0.02818398 12:0.76089796 13:-0.7617498 14:0.87988937 15:-0.86601918 16:0.194157 17:0.55485556 18:0.29226311 19:-0.47036043 20:-0.52977063 21:-0.39904442 22:-0.34921515 23:-0.53744946 
0.1777774968945683 1:0 2:2.526354 3:6.7893474 4:3.5619945 5:8.0214953 6:88.995506 7:3.5619945 8:-1.3647156 9:-0.89770681 10:-2.8065095 11:-1.0336796 12:-1.0906294 13:-0.52336034 14:1.1815806 15:0.11342125 16:-0.27105937 17:-1.6965773 18:-0.53628836 19:1.6932976 20:3.5836265 21:3.0826453 22:-0.34921515 23:4.5792888 
-0.06904481014461722 1:0 2:0.50191035 3:-0.3086067 4:0.34921515 5:0.87429782 6:-0.1490712 7:0.34921515 8:1.8817223 9:-0.21055023 10:0.54769665 11:0.53850397 12:0.56597106 13:1.782192 14:1.3910318 15:-0.44345689 16:0.70288543 17:0.16136884 18:0.27408961 19:-0.47036043 20:-0.52977063 21:-0.39904442 22:-0.34921515 23:-0.53744946 
-0.1321159146577737 1:0 2:2.4619918 3:10.338324 4:9.9875532 5:4.751181 6:34.137304 7:16.413112 8:5.1785027 9:-0.89770681 10:-0.001864163 11:-3.6788889 12:-0.13853303 13:0.68455432 14:1.4605916 15:0.71837961 16:0.73952657 17:-0.81283491 18:-0.0046774053 19:1.6932976 20:1.5107335 21:2.5666787 22:6.0763436 23:4.2283012 
0.2782559402207124 1:0 2:2.785191 3:3.2403703 4:3.5619945 5:2.8756368 6:20.422754 7:3.5619945 8:1.485438 9:-0.89770681 10:-0.15177462 11:-3.7662099 12:-0.38603326 13:-0.30361136 14:0.97876495 15:-0.60407203 16:0.07662301 17:1.9670487 18:-0.53586944 19:4.9387846 20:1.5366447 21:4.2474176 22:2.8635642 23:1.321687 
0.03233797009816049 1:0 2:13.766877 3:10.338324 4:9.9875532 5:4.6852592 6:54.70913 7:19.625891 8:7.1857543 9:-0.89770681 10:2.2708351 11:-1.1110309 12:-0.85727278 13:2.4509216 14:-1.1133345 15:0.52805481 16:-0.14409621 17:-2.588748 18:-0.56478272 19:10.34793 20:1.0572882 21:16.858034 22:2.8635642 23:0.80617423 
0.01186026749103453 1:0 2:11.470758 3:17.436279 4:13.200333 5:15.150349 6:82.13823 7:19.625891 8:14.821731 9:-0.89770681 10:-0.29415309 11:-3.823138 12:-0.69271607 13:-0.3846161 14:2.7414192 15:-0.19103791 16:0.29346514 17:1.9055317 18:0.25180404 19:10.34793 20:0.47428692 21:17.46354 22:12.501902 23:4.6012255 
0.04401767648695162 1:0 2:6.018227 3:20.985256 4:13.200333 5:12.261406 6:68.42368 7:13.200333 8:6.3741366 9:-0.89770681 10:-0.35760029 11:-3.7983201 12:-0.53035326 13:0.81235031 14:3.0214802 15:-0.0072990193 16:0.78128483 17:2.0824392 18:0.2908206 19:4.9387846 20:0.72692083 21:4.3945881 22:15.714682 23:1.7988106 
-0.1992353690957748 1:0 2:0.38557022 3:-0.3086067 4:0.34921515 5:0.27138052 6:-0.1490712 7:0.34921515 8:0.098465744 9:-0.89770681 10:-0.12220224 11:1.2179578 12:-1.3527856 13:-0.37354445 14:-1.1232551 15:-0.039448288 16:0.24525688 17:-1.2180576 18:-0.22220685 19:0.61146856 20:0.67509848 21:-0.071058925 22:2.8635642 23:0.48260769 
0.02449392203324791 1:0 2:13.217472 3:10.338324 4:6.7747739 5:2.534045 6:13.565479 7:6.7747739 8:6.4223241 9:-0.89770681 10:-0.32111013 11:-1.6789228 12:1.4762474 13:5.5500374 14:3.7236383 15:-0.28723688 16:0.61218985 17:0.78534049 18:-1.0189683 19:3.8569556 20:1.9447454 21:7.112289 22:-0.34921515 23:4.9906021 
-0.2433583182533102 1:0 2:6.5287375 3:-0.3086067 4:0.34921515 5:-1.6183987 6:20.422754 7:9.9875532 8:-0.17588409 9:-0.89770681 10:-0.36148627 11:1.2513113 12:-0.81261299 13:3.2563463 14:-1.1215385 15:-0.37299942 16:0.39411642 17:-0.41770138 18:-1.6665218 19:12.511588 20:2.5147909 21:14.082778 22:-0.34921515 23:4.886403 
0.02015744372735744 1:0 2:14.294765 3:20.985256 4:19.625891 5:15.827897 6:116.42461 7:26.05145 8:19.622788 9:-0.89770681 10:-2.8021817 11:-1.5357889 12:-1.1626716 13:-0.52332359 14:3.4517669 15:0.073176102 16:1.0932346 17:1.0677776 18:-0.76891758 19:15.757075 20:1.9965679 21:27.504952 22:9.2891229 23:5.3361054 
0.03171610152116981 1:0 2:21.879765 3:20.985256 4:16.413112 5:8.3711961 6:109.56733 7:26.05145 8:15.736213 9:-0.89770681 10:-2.8221858 11:-1.3771118 12:-0.95217623 13:3.1487854 14:3.108589 15:-0.92179467 16:-0.46088939 17:0.45182755 18:-1.5484721 19:9.2661006 20:-0.22531446 21:12.568996 22:15.714682 23:5.4732099 
-0.04792055337004283 1:0 2:3.0359451 3:3.2403703 4:3.5619945 5:5.8547358 6:27.280029 7:9.9875532 8:5.6311252 9:-0.89770681 10:-0.086312595 11:-3.8161269 12:-0.69010807 13:2.4109743 14:2.8181719 15:-0.36370431 16:0.23928825 17:1.8504308 18:0.19793688 19:3.8569556 20:1.0572882 21:4.041374 22:6.0763436 23:1.0639306 
0.03833400012674256 1:0 2:13.08087 3:6.7893474 4:6.7747739 5:5.0833047 6:34.137304 7:13.200333 8:10.84371 9:-0.89770681 10:-0.17869054 11:-3.8316231 12:-0.81377067 13:4.9669033 14:2.4355467 15:-0.4208358 16:-0.056882048 17:0.79236674 18:0.085463166 19:1.6932976 20:2.4888798 21:2.5275912 22:9.2891229 23:2.923067 
-0.08132158328936173 1:0 2:2.5076962 3:10.338324 4:9.9875532 5:-0.046874779 6:-0.1490712 7:0.34921515 8:1.004699 9:-0.89770681 10:-0.27234074 11:-3.7987819 12:-0.52493157 13:1.0497025 14:0.78975109 15:-0.2593753 16:0.41418424 17:1.5425904 18:0.28510892 19:1.6932976 20:0.81113203 21:0.70334996 22:6.0763436 23:1.0639306 
0.1612150769144011 1:0 2:15.396636 3:13.887301 4:6.7747739 5:0.52453186 6:20.422754 7:3.5619945 8:1.973166 9:-0.89770681 10:-2.8173338 11:-1.3775948 12:-1.1013849 13:1.0275693 14:3.1308971 15:-0.71491923 16:-0.79657999 17:1.044088 18:-1.3396019 19:0.61146856 20:3.2791705 21:0.66059897 22:6.0763436 23:3.0492031 
0.03347319850019814 1:0 2:24.78207 3:10.338324 4:9.9875532 5:11.205775 6:109.56733 7:29.264229 8:15.096084 9:-0.89770681 10:-0.45812741 11:1.2357562 12:-1.2103223 13:-0.7617498 14:-0.53060098 15:0.55859425 16:-0.12597255 17:-2.6961913 18:-0.89253501 19:12.511588 20:2.5212689 21:25.890249 22:6.0763436 23:3.2301809 
0.04599543506374761 1:0 2:6.0618205 3:28.08321 4:19.625891 5:19.149604 6:75.280955 7:26.05145 8:10.775125 9:-0.89770681 10:-0.25296288 11:-3.7489494 12:-0.30944485 13:-0.7617498 14:3.1787369 15:-0.95660861 16:-1.1559603 17:-0.025823244 18:-1.5943286 19:14.675246 20:2.1326015 21:26.470527 22:18.927461 23:5.3086844 
0.02784251511158992 1:0 2:15.012337 3:13.887301 4:9.9875532 5:11.887326 6:68.42368 7:19.625891 8:7.3305446 9:-0.89770681 10:-0.15178358 11:-3.7662076 12:-0.3860225 13:-0.7617498 14:1.76689 15:-1.1504988 16:-0.44992047 17:1.4163695 18:-0.93346226 19:10.34793 20:1.1997996 21:16.87485 22:18.927461 23:5.4457889 
0.2782559402207124 1:0 2:3.3466471 3:3.2403703 4:3.5619945 5:0.7931212 6:6.7082039 7:3.5619945 8:1.4854437 9:-0.89770681 10:-0.34583261 11:1.1629843 12:-1.607118 13:1.7643181 14:-1.236027 15:0.77738254 16:0.54955962 17:-1.6215491 18:-0.21518821 19:0.61146856 20:6.6994439 21:3.2634576 22:2.8635642 23:3.6853677 
-0.2782559402207124 1:0 2:-0.96932801 3:-0.3086067 4:0.34921515 5:-0.88211436 6:-0.1490712 7:0.34921515 8:-1.5774128 9:0.23943836 10:-0.49995773 11:-0.91447507 12:1.4687012 13:0.14286192 14:-1.1792204 15:-0.36220971 16:0.24572017 17:-0.15827742 18:-0.45668623 19:-0.47036043 20:-0.52977063 21:-0.39904442 22:-0.34921515 23:-0.53744946 
-0.2780971761350155 1:0 2:1.329535 3:-0.3086067 4:0.34921515 5:-0.66103701 6:-0.1490712 7:0.34921515 8:-0.046328465 9:-0.37479636 10:-0.049214937 11:0.30024113 12:0.95581519 13:-0.7617498 14:0.0095441313 15:-0.60858219 16:0.15400173 17:1.7950634 18:-0.93430346 19:-0.47036043 20:-0.52977063 21:-0.39904442 22:-0.34921515 23:-0.53744946 
-0.04058904539887261 1:0 2:-0.58635206 3:-0.3086067 4:0.34921515 5:1.0445641 6:-0.1490712 7:0.34921515 8:-0.051880044 9:-0.063899469 10:1.005756 11:0.9139549 12:-0.91681019 13:1.0052429 14:-1.339924 15:-0.93104025 16:-0.094648557 17:-0.59126527 18:0.13092282 19:-0.47036043 20:-0.52977063 21:-0.39904442 22:-0.34921515 23:-0.53744946 
0.03324986816370056 1:0 2:19.773645 3:13.887301 4:9.9875532 5:2.8942307 6:13.565479 7:6.7747739 8:7.033338 9:-0.89770681 10:-0.15177462 11:-3.7662099 12:-0.38603326 13:-0.30361136 14:0.97876495 15:-0.60407203 16:0.07662301 17:1.9670487 18:-0.53586944 19:1.6932976 20:5.9221091 21:5.3953656 22:-0.34921515 23:6.5974665 
0.007155137269736992 1:0 2:0.97637796 3:3.2403703 4:3.5619945 5:2.5263918 6:34.137304 7:3.5619945 8:1.2415749 9:-0.89770681 10:-0.24724611 11:-3.8174684 12:-0.64554137 13:-0.42671517 14:1.8453535 15:-0.49974043 16:-0.038064222 17:0.12746077 18:-1.0106116 19:4.9387846 20:1.6338115 21:7.674443 22:6.0763436 23:4.00345 
0.2729477968690814 1:0 2:2.2682798 3:-0.3086067 4:0.34921515 5:5.5230442 6:27.280029 7:6.7747739 8:5.6419605 9:-0.89770681 10:-2.8232954 11:-1.290203 12:-0.99250432 13:-0.43737058 14:3.3560071 15:-0.73571063 16:0.11147359 17:0.54722654 18:-1.325756 19:2.7751266 20:2.0937348 21:3.5240724 22:-0.34921515 23:5.3251368 
-0.2782559402207124 1:0 2:4.2993155 3:3.2403703 4:0.34921515 5:-1.4097286 6:6.7082039 7:3.5619945 8:-0.60899025 9:-0.89770681 10:-2.8236723 11:-1.290203 12:-0.9502951 13:-0.40869274 14:0.48008505 15:-0.47823169 16:0.29368136 17:1.6735447 18:0.27087884 19:0.61146856 20:6.0775759 21:2.1025454 22:-0.34921515 23:5.0564122 
-0.03413726685156394 1:0 2:4.1273997 3:3.2403703 4:3.5619945 5:1.5016817 6:6.7082039 7:0.34921515 8:-0.4045007 9:-0.89770681 10:-0.12749824 11:-1.1899675 12:1.4996026 13:-0.090194825 14:-1.1880906 15:-0.50097861 16:0.58124752 17:1.0370128 18:0.20362081 19:1.6932976 20:2.948803 21:2.4771361 22:-0.34921515 23:5.4512732 
-0.06315758990534454 1:0 2:-0.91675694 3:-0.3086067 4:-2.8635642 5:3.6010112 6:13.565479 7:-2.8635642 8:-1.6847865 9:2.6207088 10:-0.27234074 11:-1.290203 12:-0.9502951 13:-0.7617498 14:-1.339924 15:2.707308 16:-2.7582356 17:1.932691 18:2.4099621 19:-0.47036043 20:-0.52977063 21:-0.39904442 22:-0.34921515 23:-0.53744946 
0.03945235410796669 1:0 2:19.707258 3:28.08321 4:19.625891 5:11.410938 6:88.995506 7:19.625891 8:14.364485 9:-0.89770681 10:-0.34938452 11:-3.7886075 12:-1.4223009 13:2.2608612 14:5.0364598 15:-1.0338721 16:-0.67933809 17:-0.66045833 18:-0.72319215 19:9.2661006 20:0.68805404 21:10.348788 22:15.714682 23:3.1204974 
0.03658643490520092 1:0 2:17.759349 3:17.436279 4:16.413112 5:18.040939 6:136.99643 7:29.264229 8:14.68456 9:-0.89770681 10:-0.3684007 11:-3.8319922 12:-0.82195255 13:1.0663267 14:3.266549 15:-1.1597332 16:-0.37177421 17:0.36498251 18:-0.30864425 19:21.16622 20:1.2062774 21:24.124162 22:15.714682 23:3.6853677 
0.025386952067797 1:0 2:12.663816 3:31.632187 4:29.264229 5:12.093857 6:88.995506 7:26.05145 8:17.694242 9:-0.89770681 10:-0.2258744 11:-0.91480699 12:-3.3788286 13:-0.30356623 14:4.8819606 15:-1.0946106 16:-1.3668972 17:0.4412339 18:-0.96392356 19:19.002562 20:0.81760982 21:29.981189 22:9.2891229 23:5.4073998 
-0.2782559402207124 1:0 2:0.69721937 3:3.2403703 4:3.5619945 5:-0.47632243 6:13.565479 7:3.5619945 8:0.22276895 9:0.23123868 10:0.72363186 11:0.79723092 12:0.079843345 13:1.5841573 14:1.4100235 15:-0.27005258 16:0.26480127 17:-1.443223 18:-0.52709109 19:-0.47036043 20:-0.52977063 21:-0.39904442 22:-0.34921515 23:-0.53744946 
0.2782559402207124 1:0 2:0.36617243 3:3.2403703 4:0.34921515 5:0.32075706 6:-0.1490712 7:0.34921515 8:-0.13015483 9:0.012499908 10:-0.63379971 11:-0.70481898 12:1.4142731 13:0.13746515 14:0.41299124 15:0.045222856 16:0.60895955 17:-0.83886519 18:-0.038553611 19:-0.47036043 20:-0.52977063 21:-0.39904442 22:-0.34921515 23:-0.53744946 
-0.005631002102687688 1:0 2:6.1083002 3:10.338324 4:9.9875532 5:8.9785024 6:47.851855 7:9.9875532 8:4.8995305 9:-0.89770681 10:2.2759015 11:-1.2074861 12:-0.85954488 13:-0.2572578 14:6.0397454 15:0.3058166 16:-0.55232197 17:-2.5019623 18:0.0012016751 19:6.0206136 20:0.62327612 21:6.4129574 22:6.0763436 23:4.0308709 
0.03324199346781994 1:0 2:21.780317 3:20.985256 4:16.413112 5:9.6738185 6:116.42461 7:29.264229 8:9.7463251 9:-0.89770681 10:-0.20466834 11:1.1806755 12:-1.542916 13:-0.30958959 14:0.93283542 15:0.090145919 16:-0.62619871 17:-2.5405593 18:-1.4311292 19:11.429759 20:1.9706566 21:16.252526 22:6.0763436 23:2.7804785 
-0.07931242067130183 1:0 2:8.510792 3:13.887301 4:9.9875532 5:1.8323363 6:20.422754 7:3.5619945 8:4.7623598 9:-0.89770681 10:-0.35969355 11:1.1752429 12:-1.5612791 13:1.6580571 14:1.6142802 15:-0.69839676 16:0.026879368 17:1.0848402 18:-1.7439155 19:1.6932976 20:2.6443469 21:3.2340249 22:6.0763436 23:3.5372949 
-0.004631769183759269 1:0 2:3.0514452 3:3.2403703 4:3.5619945 5:5.4339835 6:13.565479 7:3.5619945 8:3.1162782 9:-0.21055023 10:0.20430511 11:0.58928107 12:0.64236545 13:2.2535371 14:2.9554216 15:-0.53267754 16:-0.0043816901 17:1.3003921 18:-0.10656858 19:-0.47036043 20:-0.52977063 21:-0.39904442 22:-0.34921515 23:-0.53744946 
-0.05862194273354507 1:0 2:-0.70087652 3:3.2403703 4:3.5619945 5:0.15047483 6:13.565479 7:3.5619945 8:1.1106493 9:-0.89770681 10:-2.8210836 11:-1.1969826 12:-1.0147453 13:-0.4829507 14:2.433337 15:-0.66367947 16:0.33298326 17:0.23914459 18:0.014586223 19:0.61146856 20:2.6054802 21:0.98601671 22:-0.34921515 23:2.1168929 
0.02949045537258613 1:0 2:10.868313 3:10.338324 4:6.7747739 5:-0.88371046 6:20.422754 7:6.7747739 8:3.3442233 9:-0.89770681 10:-0.27923744 11:1.2305059 12:-0.59790283 13:6.0582259 14:-1.0853327 15:0.75862236 16:1.2542193 17:-0.16396138 18:-1.3983353 19:6.0206136 20:1.0378548 21:8.1648325 22:12.501902 23:4.0418396 
-0.2782559402207124 1:0 2:5.9407651 3:6.7893474 4:6.7747739 5:10.689471 6:88.995506 7:9.9875532 8:-0.26732977 9:-0.89770681 10:-0.076160587 11:-3.8169111 12:-1.1960975 13:-0.18410114 14:0.095929486 15:0.4429521 16:0.035093746 17:-2.0601751 18:0.17234824 19:3.8569556 20:1.6079003 21:6.2615803 22:-0.34921515 23:5.0125388 
0.0009835271553662798 1:0 2:8.5501655 3:28.08321 4:16.413112 5:9.9141505 6:61.566405 7:16.413112 8:9.654875 9:-0.89770681 10:-2.8236723 11:-1.290203 12:-0.9502951 13:-0.12627796 14:3.688743 15:0.1351237 16:0.67207987 17:1.9326878 18:-1.5429796 19:10.34793 20:1.3552666 21:11.408427 22:12.501902 23:3.323412 
-0.2488923642384575 1:0 2:3.7662526 3:-0.3086067 4:0.34921515 5:4.9590869 6:20.422754 7:3.5619945 8:3.3875768 9:-0.89770681 10:-0.22604368 11:-0.92733354 12:-3.3806012 13:-0.4302941 14:0.51760139 15:-0.61776727 16:-0.43402044 17:-1.6882511 18:-0.12528677 19:0.61146856 20:1.5172113 21:0.89271356 22:-0.34921515 23:1.1955509 
0.04472696604213958 1:0 2:10.572973 3:35.181164 4:26.05145 5:6.458571 6:109.56733 7:16.413112 8:11.061152 9:-0.89770681 10:2.2786406 11:-1.290203 12:-0.90961522 13:-0.43553834 14:3.5686444 15:-0.79357224 16:0.19882454 17:1.6244805 18:0.11140655 19:20.084391 20:1.6014225 21:32.086276 22:9.2891229 23:5.3361054 
-0.2782559402207124 1:0 2:4.3626425 3:6.7893474 4:3.5619945 5:-1.1538802 6:6.7082039 7:3.5619945 8:-0.6369368 9:-0.15967771 10:-0.32838483 11:-0.79175597 12:1.4573823 13:6.9611986 14:1.6057126 15:0.13334113 16:0.69601856 17:0.15424808 18:-1.5090329 19:-0.47036043 20:-0.52977063 21:-0.39904442 22:-0.34921515 23:-0.53744946 
0.0456956066217516 1:0 2:16.490835 3:17.436279 4:16.413112 5:17.992675 6:123.28188 7:26.05145 8:25.163074 9:-0.89770681 10:-0.28068673 11:-3.822581 12:-0.68695709 13:-0.7617498 14:2.6441032 15:-0.69233968 16:0.062156483 17:1.5832108 18:-0.77525295 19:16.838904 20:-0.22531446 21:26.605092 22:41.416917 23:5.3854631 
-0.2348289628172342 1:0 2:2.9536865 3:3.2403703 4:3.5619945 5:-2.2323481 6:6.7082039 7:3.5619945 8:-0.038708761 9:-0.89770681 10:-0.1544951 11:1.2409588 12:-1.1998331 13:-0.31959261 14:-1.1254774 15:0.041856612 16:0.089066243 17:-1.5875041 18:-1.1841173 19:2.7751266 20:2.5730912 21:3.6881592 22:-0.34921515 23:4.3818585 
0.04925699132583889 1:0 2:15.603369 3:31.632187 4:29.264229 5:24.432397 6:136.99643 7:32.477009 8:26.938708 9:-0.89770681 10:-0.25344272 11:1.2065671 12:-1.4356273 13:-0.11371368 14:3.6633592 15:-1.2110904 16:-0.76064937 17:0.55975107 18:-0.8533259 19:42.8028 20:0.65566512 21:50.21161 22:22.14024 23:5.1770643 
-0.2237907678453906 1:0 2:1.9434739 3:10.338324 4:-2.8635642 5:1.0016877 6:40.99458 7:-2.8635642 8:-1.6847865 9:2.6207088 10:-0.27234074 11:-1.290203 12:-0.9502951 13:-0.7617498 14:-1.339924 15:2.707308 16:-2.7582356 17:1.932691 18:2.4099621 19:-0.47036043 20:-0.52977063 21:-0.39904442 22:-0.34921515 23:-0.53744946 
-0.1478516242646196 1:0 2:1.6290837 3:6.7893474 4:3.5619945 5:-1.0788375 6:-0.1490712 7:0.34921515 8:0.098465703 9:-0.89770681 10:2.2739281 11:-1.3703294 12:-0.81634455 13:3.7603895 14:-1.2303883 15:-0.51652692 16:-0.42978972 17:-1.2391887 18:-0.13956753 19:1.6932976 20:2.3852353 21:3.4863196 22:-0.34921515 23:5.3525578 
0.0430136470675857 1:0 2:11.725804 3:10.338324 4:9.9875532 5:0.92696911 6:20.422754 7:9.9875532 8:8.6032017 9:-0.89770681 10:-0.5968101 11:1.1868609 12:-0.47128523 13:3.4636613 14:2.0431482 15:-0.84016285 16:0.028190117 17:1.0270464 18:-0.90996372 19:4.9387846 20:1.7763229 21:7.0689337 22:-0.34921515 23:5.4019155 
-0.1649852516013705 1:0 2:3.4968793 3:13.887301 4:3.5619945 5:-1.2732909 6:6.7082039 7:0.34921515 8:1.4244764 9:-0.89770681 10:-0.41718323 11:-1.3904385 12:-3.4001928 13:0.73979461 14:1.4926096 15:-0.50097861 16:0.58124752 17:1.0370128 18:0.20362081 19:0.61146856 20:2.948803 21:0.86243862 22:-0.34921515 23:2.4075542 
-0.2269323279603783 1:0 2:0.67205949 3:6.7893474 4:6.7747739 5:4.7301929 6:27.280029 7:3.5619945 8:1.230149 9:-0.89770681 10:2.2623994 11:-1.290203 12:-0.67068606 13:-0.30114907 14:-1.0439249 15:-0.037712843 16:0.49725118 17:-1.3394625 18:-1.0935307 19:6.0206136 20:0.84999889 21:4.2684397 22:6.0763436 23:3.2411493 
0.2782559402207124 1:0 2:4.6838909 3:3.2403703 4:0.34921515 5:-0.39985823 6:20.422754 7:3.5619945 8:1.241577 9:-0.37275259 10:-2.4748098 11:-1.4404291 12:0.280773 13:3.3996295 14:2.1896992 15:0.75432948 16:1.0821862 17:-0.12952407 18:-1.5960822 19:-0.47036043 20:-0.52977063 21:-0.39904442 22:-0.34921515 23:-0.53744946 
-0.08316109445365635 1:0 2:2.7962278 3:6.7893474 4:3.5619945 5:-0.38741713 6:13.565479 7:0.34921515 8:0.8297184 9:-0.89770681 10:-0.22332212 11:-0.90148396 12:-3.3768331 13:3.236955 14:2.8233832 15:-0.28489933 16:0.53943847 17:0.62393686 18:0.098566323 19:1.6932976 20:4.8921402 21:4.098187 22:9.2891229 23:4.1076496 
0.01624616266014047 1:0 2:5.510065 3:20.985256 4:13.200333 5:2.6875878 6:27.280029 7:9.9875532 8:2.9791054 9:-0.89770681 10:-2.8236723 11:-1.290203 12:-0.9502951 13:7.0209106 14:3.3021438 15:-0.43043207 16:-0.0071667583 17:-0.59925509 18:-0.36652038 19:1.6932976 20:2.8516361 21:3.2340249 22:2.8635642 23:4.4202476 
0.04719719498212899 1:0 2:20.691655 3:20.985256 4:19.625891 5:8.7138161 6:123.28188 7:32.477009 8:28.95058 9:-0.89770681 10:-2.7963496 11:-1.53278 12:-1.2219142 13:-0.041183435 14:0.31217017 15:1.330989 16:1.2738743 17:-0.59867331 18:-0.56667055 19:15.757075 20:-0.14110317 21:21.853505 22:18.927461 23:4.7328456 
-0.178329835804418 1:0 2:1.7435739 3:-0.3086067 4:0.34921515 5:5.3438116 6:68.42368 7:0.34921515 8:-1.0903705 9:-0.89770681 10:-0.27234074 11:-3.8249794 12:-0.70922558 13:-0.53353323 14:-0.44853929 15:0.31929456 16:-0.25499203 17:-2.4268849 18:-1.2146636 19:1.6932976 20:3.2338258 21:2.3762162 22:-0.34921515 23:4.1405544 
0.03471145782618764 1:0 2:6.801337 3:28.08321 4:26.05145 5:15.453566 6:102.71006 7:19.625891 8:11.778939 9:-0.89770681 10:-0.38204266 11:-3.8014885 12:-0.55386861 13:-0.37281107 14:2.1036579 15:1.1888122 16:0.66525787 17:-1.9009583 18:-1.4137076 19:14.675246 20:0.83704317 21:23.713616 22:18.927461 23:4.4586367 
0.03782166085377858 1:0 2:9.0466971 3:13.887301 4:13.200333 5:12.245944 6:54.70913 7:9.9875532 8:6.1622029 9:-0.89770681 10:-0.27933871 11:1.2285401 12:-0.58507252 13:-0.24461678 14:3.1087371 15:0.70518164 16:0.58567609 17:-1.7436724 18:-0.7508235 19:11.429759 20:1.8216675 21:16.154595 22:22.14024 23:5.7145135 
0.02922028653262399 1:0 2:4.6112307 3:13.887301 4:9.9875532 5:2.2997743 6:54.70913 7:13.200333 8:1.515922 9:-0.89770681 10:-0.20218984 11:-3.8254669 12:-0.72389283 13:-0.7617498 14:-0.60247842 15:-0.41042313 16:-0.44080147 17:-1.8771078 18:-0.96718067 19:6.0206136 20:-0.22531446 21:6.1606643 22:6.0763436 23:1.321687 
0.03357472612762448 1:0 2:6.9755722 3:10.338324 4:9.9875532 5:3.1899941 6:13.565479 7:6.7747739 8:5.3567741 9:-0.89770681 10:-0.38820609 11:1.2399274 12:-0.69038903 13:2.556471 14:-1.2317923 15:1.2807235 16:0.67220419 17:-1.5998188 18:0.10438122 19:7.1024426 20:2.2103349 21:9.3900544 22:2.8635642 23:4.0308709 
0.2782559402207124 1:0 2:2.8172325 3:3.2403703 4:3.5619945 5:-1.8339712 6:13.565479 7:3.5619945 8:-0.86174654 9:0.067928121 10:0.82261692 11:0.8773143 12:-0.20687504 13:0.42342407 14:-0.24163649 15:0.63205171 16:0.18316534 17:-2.0770383 18:-1.429668 19:-0.47036043 20:-0.52977063 21:-0.39904442 22:-0.34921515 23:-0.53744946 
-0.2782559402207124 1:0 2:9.0504353 3:6.7893474 4:6.7747739 5:2.9311548 6:27.280029 7:6.7747739 8:4.213658 9:-0.89770681 10:-2.8223833 11:-1.2092585 12:-0.9489003 13:-0.13627054 14:1.9248553 15:-0.35213993 16:0.81367063 17:1.2632883 18:-0.95651963 19:3.8569556 20:2.3658017 21:7.7753628 22:-0.34921515 23:5.2209377 
0.03212357187632383 1:0 2:7.9219609 3:10.338324 4:9.9875532 5:10.550288 6:27.280029 7:9.9875532 8:9.0604559 9:-0.89770681 10:-0.25294058 11:-3.748944 12:-0.30942619 13:0.21181839 14:3.0520621 15:-0.59218832 16:0.054021554 17:2.0277979 18:-0.80854438 19:11.429759 20:0.42246464 21:20.036974 22:31.778578 23:5.6487034 
0.02159605823854821 1:0 2:8.5874156 3:17.436279 4:16.413112 5:7.0154794 6:109.56733 7:26.05145 8:5.7073327 9:-0.89770681 10:2.2679801 11:-1.4694737 12:-1.098843 13:-0.52684032 14:5.9237307 15:1.3159483 16:1.2106234 17:-0.10366196 18:-0.10417522 19:13.593417 20:0.9730768 21:12.930619 22:9.2891229 23:4.7986557 
0.007296591626986885 1:0 2:14.909656 3:10.338324 4:9.9875532 5:1.7753795 6:20.422754 7:9.9875532 8:7.7268258 9:-0.89770681 10:2.2777937 11:-1.290203 12:-0.87507476 13:-0.7617498 14:0.35985021 15:-0.66434969 16:0.08204235 17:1.5806747 18:-1.2610119 19:3.8569556 20:3.8233047 21:11.189776 22:6.0763436 23:5.3854631 
-0.1811540976411902 1:0 2:5.4978765 3:17.436279 4:13.200333 5:7.4923559 6:68.42368 7:3.5619945 8:4.2098545 9:-0.89770681 10:-0.26400554 11:1.2421895 12:-1.2135041 13:6.4673611 14:5.9256388 15:-0.57498285 16:-0.04009811 17:-1.1016603 18:0.10484686 19:2.7751266 20:-0.22531446 21:2.1701761 22:9.2891229 23:4.3105642 
0.02905743744649656 1:0 2:12.795049 3:10.338324 4:9.9875532 5:11.342477 6:88.995506 7:13.200333 8:11.518142 9:-0.89770681 10:-0.20466834 11:1.1806755 12:-1.542916 13:-0.30958959 14:0.71504893 15:0.090145919 16:-0.62619871 17:-2.5405593 18:-1.4311292 19:11.429759 20:1.2386663 21:13.540336 22:9.2891229 23:1.815263 
-0.1693899623912852 1:0 2:12.65984 3:10.338324 4:9.9875532 5:4.0057127 6:20.422754 7:6.7747739 8:5.4025016 9:-0.89770681 10:-2.8087538 11:-1.4605277 12:-0.74208029 13:2.3400219 14:-0.10324537 15:0.43747856 16:0.33085559 17:-1.6818767 18:0.094283893 19:3.8569556 20:1.6338115 21:4.0413737 22:2.8635642 23:1.475244 
0.2782559402207124 1:0 2:4.611501 3:-0.3086067 4:0.34921515 5:-2.235534 6:-0.1490712 7:0.34921515 8:-0.86174568 9:0.16859606 10:-0.62274139 11:-2.9651642 12:-2.7693821 13:0.023676007 14:0.063734044 15:0.13985633 16:0.94021536 17:0.06143166 18:-0.5038683 19:-0.47036043 20:-0.52977063 21:-0.39904442 22:-0.34921515 23:-0.53744946 
0.2782559402207124 1:0 2:2.0840187 3:-0.3086067 4:0.34921515 5:-2.3051042 6:-0.1490712 7:0.34921515 8:-0.55759463 9:-0.89770681 10:-0.31968279 11:-1.6714515 12:1.4773752 13:-0.30507649 14:-0.68619596 15:-0.81875596 16:0.12489078 17:0.30096851 18:-0.70797751 19:2.7751266 20:1.0378548 21:4.2895586 22:2.8635642 23:4.0418396 
0.02404394508850038 1:0 2:14.964259 3:13.887301 4:9.9875532 5:12.270535 6:109.56733 7:26.05145 8:11.849652 9:-0.89770681 10:2.2729673 11:-1.4568067 12:-0.89890167 13:-0.35382377 14:3.4505449 15:-0.28136832 16:0.25160904 17:2.2502505 18:-0.034990081 19:19.002562 20:0.77874311 21:23.67004 22:18.927461 23:5.0125388 
0.2782559402207124 1:0 2:4.6307057 3:6.7893474 4:0.34921515 5:-2.7573854 6:-0.1490712 7:0.34921515 8:-1.6847865 9:2.6207088 10:-0.27234074 11:-1.290203 12:-0.9502951 13:-0.7617498 14:-1.339924 15:2.707308 16:-2.7582356 17:1.932691 18:2.4099621 19:1.6932976 20:2.3010239 21:1.7538855 22:-0.34921515 23:3.9924819 
0.2782559402207124 1:0 2:-0.67020274 3:3.2403703 4:3.5619945 5:3.7349678 6:20.422754 7:3.5619945 8:-0.72457513 9:-0.096214353 10:0.90807523 11:0.932894 12:-0.56862484 13:-0.7617498 14:-0.12714848 15:-0.51841414 16:0.24144646 17:1.9784826 18:-0.29370047 19:1.6932976 20:2.2103349 21:1.5184125 22:-0.34921515 23:2.3746491 
0.04399920118094049 1:0 2:15.955748 3:24.534233 4:22.838671 5:21.423938 6:88.995506 7:19.625891 8:18.340382 9:-0.89770681 10:-2.8155962 11:-1.3819529 12:-1.1243467 13:1.9653574 14:1.741694 15:0.90579868 16:0.98951409 17:-0.0027330024 18:0.10824894 19:17.920733 20:-0.21235887 21:23.654905 22:6.0763436 23:2.9395196 
0.04058787430376887 1:0 2:20.884896 3:31.632187 4:16.413112 5:8.911871 6:116.42461 7:22.838671 8:15.916748 9:-0.89770681 10:-0.32025797 11:-1.6796 12:1.4761622 13:3.6261895 14:1.2901489 15:0.7609076 16:1.3016701 17:0.28236739 18:-0.575056 19:16.838904 20:1.6014225 21:24.862 22:2.8635642 23:3.2740543 
0.01498374656376986 1:0 2:11.656556 3:20.985256 4:13.200333 5:6.7272335 6:82.13823 7:19.625891 8:10.066385 9:-0.89770681 10:-0.35935675 11:-3.8170646 12:-1.2475147 13:-0.20644449 14:5.3639261 15:-0.0075686224 16:-0.028512301 17:-2.6523339 18:-0.15707393 19:9.2661006 20:-0.22531446 21:12.568992 22:6.0763436 23:4.2283012 
0.03101851511642224 1:0 2:11.376761 3:10.338324 4:9.9875532 5:15.373918 6:88.995506 7:19.625891 8:13.705717 9:-0.89770681 10:2.2785982 11:-1.290203 12:-0.90721046 13:-0.28878 14:1.696871 15:1.1815981 16:0.77641914 17:-1.1501291 18:-1.294378 19:21.16622 20:1.5690336 21:30.507461 22:15.714682 23:5.3964312 
0.03428700597740353 1:0 2:23.126966 3:13.887301 4:13.200333 5:9.7568412 6:82.13823 7:26.05145 8:23.006404 9:-0.89770681 10:2.2726523 11:-1.2028112 12:-0.79920531 13:0.8752449 14:3.8538398 15:-0.71491923 16:-0.79657999 17:1.044088 18:-1.3396019 19:9.2661006 20:0.079141706 21:16.908488 22:15.714682 23:4.3325009 
0.03712645330669333 1:0 2:7.8517118 3:31.632187 4:22.838671 5:1.4429459 6:82.13823 7:22.838671 8:4.762359 9:-0.89770681 10:-0.24725522 11:-3.8174684 12:-0.64554137 13:-0.51976548 14:4.9717751 15:0.40168825 16:-0.049302637 17:-2.4230934 18:-0.12813078 19:7.1024426 20:2.1844238 21:8.9359258 22:2.8635642 23:4.831561 
-0.1178406194974972 1:0 2:-0.74348776 3:-0.3086067 4:0.34921515 5:1.9500261 6:-0.1490712 7:0.34921515 8:-0.67885012 9:0.076804147 10:-0.73107936 11:0.3473784 12:0.87808235 13:-0.7617498 14:0.55780963 15:0.13914977 16:0.25534157 17:-1.3054809 18:-0.87606205 19:-0.47036043 20:-0.52977063 21:-0.39904442 22:-0.34921515 23:-0.53744946 
-0.2782559402207124 1:0 2:-0.3962655 3:-0.3086067 4:0.34921515 5:1.6565671 6:-0.1490712 7:0.34921515 8:0.098466602 9:-0.027177982 10:1.2982991 11:0.55406043 12:-0.18647923 13:-0.081127419 14:0.94869703 15:0.0010534838 16:0.30553636 17:-0.83059143 18:0.20876253 19:-0.47036043 20:-0.52977063 21:-0.39904442 22:-0.34921515 23:-0.53744946 
0.1636735333496265 1:0 2:13.138933 3:3.2403703 4:3.5619945 5:-0.60091893 6:-0.1490712 7:0.34921515 8:1.4244769 9:-0.89770681 10:-0.18803861 11:1.2521692 12:-0.82507406 13:-0.7617498 14:-0.04905065 15:-1.1790511 16:-1.010988 17:1.1004941 18:-1.2327674 19:0.61146856 20:-0.22531446 21:-0.348585 22:6.0763436 23:6.0709854 
0.1605959689174119 1:0 2:9.1887126 3:3.2403703 4:3.5619945 5:-0.15883533 6:27.280029 7:9.9875532 8:1.6873917 9:-0.89770681 10:-0.34001936 11:-3.761066 12:-0.35761519 13:-0.24266236 14:2.9842715 15:-0.37650706 16:0.41822522 17:1.005435 18:0.11176464 19:4.9387846 20:1.9123565 21:7.8005903 22:-0.34921515 23:3.5318108 
-0.05473621459869971 1:0 2:-0.70636523 3:-0.3086067 4:0.34921515 5:4.0287449 6:13.565479 7:6.7747739 8:3.1200898 9:-0.89770681 10:-0.26400554 11:1.2421895 12:-1.2135041 13:-0.7617498 14:0.87728371 15:-0.57498285 16:-0.04009811 17:-1.1016603 18:0.10484686 19:1.6932976 20:0.68805404 21:0.42091907 22:6.0763436 23:0.59229122 
-0.2620922121410951 1:0 2:2.0212898 3:3.2403703 4:-2.8635642 5:-1.3789461 6:13.565479 7:-2.8635642 8:-1.6847865 9:2.6207088 10:-0.27234074 11:-1.290203 12:-0.9502951 13:-0.7617498 14:-1.339924 15:2.707308 16:-2.7582356 17:1.932691 18:2.4099621 19:-0.47036043 20:-0.52977063 21:-0.39904442 22:-0.34921515 23:-0.53744946 
0.02319712971523376 1:0 2:20.420241 3:17.436279 4:9.9875532 5:3.3110224 6:47.851855 7:13.200333 8:7.7344452 9:-0.89770681 10:-2.821272 11:-1.2077895 12:-1.0212072 13:2.0414462 14:2.69439 15:0.36579849 16:-0.32249589 17:-2.2515201 18:-1.6479278 19:10.34793 20:1.3293553 21:15.041497 22:12.501902 23:4.1405544 
0.04998373305291637 1:0 2:23.604767 3:28.08321 4:22.838671 5:14.657237 6:143.85371 7:35.689788 8:26.649111 9:-0.89770681 10:2.2777242 11:-1.2109994 12:-0.93786506 13:-0.28216895 14:1.7888497 15:-0.34266169 16:-0.50532242 17:-1.9585805 18:-0.51526044 19:27.657194 20:0.32529779 21:38.412564 22:28.565799 23:4.546384 
0.02229720671803167 1:0 2:7.0735726 3:17.436279 4:13.200333 5:15.407255 6:82.13823 7:9.9875532 8:10.752256 9:-0.89770681 10:2.2770735 11:-1.290203 12:-1.0454852 13:0.68578505 14:3.8010386 15:-0.16328098 16:-0.3241989 17:-2.0237615 18:-0.099412526 19:3.8569556 20:1.9123565 21:5.0001021 22:12.501902 23:4.1570073 
-0.1608367010962027 1:0 2:0.24564995 3:-0.3086067 4:0.34921515 5:0.43779191 6:20.422754 7:3.5619945 8:0.17941541 9:-0.89770681 10:-0.22612348 11:-0.91479662 12:-3.3788317 13:-0.1010452 14:-0.95002932 15:0.92762934 16:0.85576601 17:-1.415654 18:-1.0129465 19:-0.47036043 20:-0.52977063 21:-0.39904442 22:2.8635642 23:4.9193078 
0.05538480099619607 1:0 2:6.7013191 3:10.338324 4:6.7747739 5:8.1098004 6:75.280955 7:16.413112 8:4.1679404 9:-0.89770681 10:-0.26526491 11:-3.808158 12:-1.3205327 13:1.4305792 14:5.1419526 15:-0.14412558 16:-0.27537375 17:-2.2834972 18:-1.5841766 19:3.8569556 20:0.25404209 21:3.7632868 22:6.0763436 23:1.8591364 
-0.08436796310162771 1:0 2:7.2018968 3:3.2403703 4:0.34921515 5:2.5794792 6:6.7082039 7:0.34921515 8:-0.44641447 9:-0.49257993 10:1.6484572 11:0.31950149 12:-1.4017862 13:-0.7617498 14:2.1412153 15:-0.62114409 16:-0.094925849 17:0.85202838 18:-1.3563773 19:-0.47036043 20:-0.52977063 21:-0.39904442 22:-0.34921515 23:-0.53744946 
0.01795281001364812 1:0 2:11.692494 3:6.7893474 4:6.7747739 5:4.0210233 6:47.851855 7:19.625891 8:11.803923 9:-0.89770681 10:2.2773626 11:-1.3744512 12:-0.98341454 13:2.0451922 14:1.7362889 15:-0.94640244 16:-0.14170091 17:0.74997102 18:-1.6384155 19:6.0206136 20:0.20221973 21:8.380871 22:6.0763436 23:3.6853677 
-0.158466846488011 1:0 2:0.84241465 3:6.7893474 4:3.5619945 5:-1.1487908 6:27.280029 7:6.7747739 8:0.89217785 9:-0.89770681 10:-0.3651902 11:1.251643 12:-1.079771 13:1.5191538 14:-0.58762258 15:0.12430263 16:0.21936157 17:-1.3541773 18:-0.25235014 19:1.6932976 20:1.9900901 21:2.6817601 22:2.8635642 23:3.5043898 
-0.07455622983682869 1:0 2:4.6365841 3:-0.3086067 4:0.34921515 5:-1.5329093 6:-0.1490712 7:0.34921515 8:-0.86174607 9:-0.89770681 10:-0.19104945 11:-1.3980406 12:1.5020188 13:-0.3254208 14:-0.22828812 15:-0.6195788 16:0.15851006 17:1.0151771 18:-0.27541148 19:1.6932976 20:5.5399193 21:5.807446 22:-0.34921515 23:5.144159 
0.03930090019565293 1:0 2:3.2775102 3:20.985256 4:16.413112 5:5.4193679 6:47.851855 7:13.200333 8:2.9791081 9:-0.89770681 10:-2.8236723 11:-1.290203 12:-0.9502951 13:10.12045 14:0.59869279 15:-0.93024702 16:-0.7870935 17:0.12313286 18:-0.74197973 19:4.9387846 20:1.7828007 21:6.6652596 22:6.0763436 23:4.4202476 
0.2561434908022032 1:0 2:9.3378831 3:10.338324 4:9.9875532 5:4.4728439 6:13.565479 7:3.5619945 8:5.2005527 9:-0.89770681 10:-0.12220169 11:1.2179668 12:-1.3527324 13:0.049215935 14:1.4913718 15:-0.67693516 16:-0.13768672 17:1.2922147 18:-1.4847796 19:2.7751266 20:1.7050672 21:3.7554359 22:2.8635642 23:1.881073 
0.043054494065412 1:0 2:18.66298 3:31.632187 4:29.264229 5:15.155452 6:130.13916 7:38.902567 8:17.233707 9:-0.89770681 10:-0.34002221 11:-3.7610806 12:-0.35767213 13:-0.24263968 14:3.5680904 15:-0.93128869 16:-0.44034814 17:0.63523487 18:-1.3890215 19:27.657194 20:0.50667592 21:38.139244 22:22.14024 23:5.7419345 
0.04236853668162038 1:0 2:15.85641 3:10.338324 4:3.5619945 5:0.69098131 6:27.280029 7:13.200333 8:3.8593004 9:-0.89770681 10:-0.25267648 11:-3.7489944 12:-0.30961296 13:5.5317922 14:-0.89960959 15:1.0509308 16:0.7654521 17:-0.75740988 18:-0.53841657 19:8.1842716 20:0.81113203 21:17.198637 22:22.14024 23:5.6487034 
0.0379881773293857 1:0 2:26.344209 3:24.534233 4:22.838671 5:10.894463 6:95.852781 7:32.477009 8:18.754027 9:-0.89770681 10:2.2570164 11:-1.546943 12:-0.74495556 13:-0.30047923 14:3.0580553 15:-0.88067241 16:-0.2247233 17:1.478945 18:-1.5435179 19:21.16622 20:1.1155882 21:19.532383 22:15.714682 23:3.3727697 
0.1679820790902928 1:0 2:6.7219351 3:6.7893474 4:3.5619945 5:-0.46498042 6:6.7082039 7:3.5619945 8:-0.86174826 9:-0.89770681 10:-0.14416925 11:-1.5082614 12:-3.3939304 13:7.4416822 14:0.028317566 15:0.032506577 16:0.034644471 17:-1.4267067 18:-1.1666116 19:0.61146856 20:2.5730912 21:0.76151875 22:-0.34921515 23:2.0894719 
0.201539875312096 1:0 2:1.9545997 3:6.7893474 4:0.34921515 5:-2.100101 6:13.565479 7:0.34921515 8:-0.95319562 9:-0.89770681 10:-2.8065103 11:-1.0336874 12:-1.09063 13:6.929246 14:0.0025254713 15:-0.84411263 16:0.25183337 17:-0.45406597 18:0.046923891 19:0.61146856 20:2.1779458 21:0.91289846 22:-0.34921515 23:1.7549369 
-0.2782559402207124 1:0 2:-0.70087652 3:3.2403703 4:0.34921515 5:-1.2420205 6:-0.1490712 7:0.34921515 8:0.1978537 9:-0.89770681 10:-2.8210836 11:-1.1969826 12:-1.0147453 13:-0.4829507 14:0.45949004 15:-0.66367947 16:0.33298326 17:0.23914459 18:0.014586223 19:0.61146856 20:2.6054802 21:0.98601671 22:-0.34921515 23:2.1168929 
0.04110376533707844 1:0 2:22.103579 3:17.436279 4:16.413112 5:15.055247 6:130.13916 7:35.689788 8:14.821735 9:-0.89770681 10:0.034177721 11:1.2131933 12:-1.2938535 13:0.23436467 14:2.9798878 15:-0.50418509 16:0.0060482174 17:1.1339502 18:-0.2579212 19:33.066339 20:-0.22531446 21:27.706791 22:15.714682 23:3.3727697 
-0.2593349261872538 1:0 2:1.2494763 3:-0.3086067 4:0.34921515 5:-0.38352533 6:-0.1490712 7:0.34921515 8:0.41853617 9:-0.073786576 10:0.70542993 11:-0.26644763 12:1.0919455 13:-0.01331251 14:-0.12532204 15:-0.18283699 16:0.83505948 17:0.41500364 18:0.21613492 19:-0.47036043 20:-0.52977063 21:-0.39904442 22:-0.34921515 23:-0.53744946 
0.2782559402207124 1:0 2:0.62214701 3:3.2403703 4:3.5619945 5:-1.169793 6:13.565479 7:6.7747739 8:0.46425985 9:-0.89770681 10:2.2659854 11:-1.290203 12:-1.19794 13:1.3615481 14:-0.98912172 15:-0.5407868 16:-0.38573242 17:-1.0444517 18:-1.3798174 19:1.6932976 20:0.77874311 21:1.2661081 22:2.8635642 23:0.57035453 
0.04720636545870438 1:0 2:18.557217 3:24.534233 4:22.838671 5:21.299489 6:123.28188 7:32.477009 8:22.098458 9:-0.89770681 10:2.270923 11:-1.1984531 12:-0.77635338 13:-0.21978602 14:4.2788629 15:-0.63958235 16:0.24166922 17:1.9230043 18:-0.17465616 19:21.16622 20:-0.21235887 21:33.904507 22:28.565799 23:5.7145135 
-0.2782559402207124 1:0 2:0.95248952 3:-0.3086067 4:0.34921515 5:0.54176536 6:-0.1490712 7:0.34921515 8:0.60143341 9:-0.51228368 10:-0.37383705 11:-1.6925029 12:1.4726744 13:-0.7617498 14:0.72737432 15:-0.38090179 16:0.48813452 17:1.4623673 18:-0.31489195 19:-0.47036043 20:-0.52977063 21:-0.39904442 22:-0.34921515 23:-0.53744946 
0.03440369063503781 1:0 2:11.340583 3:3.2403703 4:3.5619945 5:9.0209126 6:88.995506 7:6.7747739 8:6.4998923 9:-0.89770681 10:-0.27607278 11:-3.8345986 12:-1.0629162 13:7.4160253 14:1.2074645 15:-0.6220915 16:-0.7243388 17:-1.402271 18:-1.2974975 19:2.7751266 20:3.2856481 21:5.0001021 22:-0.34921515 23:4.0582919 
-0.09984155605884082 1:0 2:3.1729329 3:3.2403703 4:3.5619945 5:0.55276281 6:13.565479 7:3.5619945 8:3.1696257 9:-0.17113225 10:0.77734631 11:0.75500496 12:0.10876037 13:1.8918011 14:-0.80948329 15:0.11747329 16:0.25733621 17:-1.8015117 18:0.1470696 19:-0.47036043 20:-0.52977063 21:-0.39904442 22:-0.34921515 23:-0.53744946 
-0.001687089934814798 1:0 2:2.8170861 3:3.2403703 4:3.5619945 5:4.3821288 6:6.7082039 7:3.5619945 8:1.0898396 9:-0.89770681 10:-0.22698124 11:-0.9224874 12:-3.3799403 13:-0.015995836 14:-0.94744739 15:1.0967936 16:0.73684587 17:-1.2004166 18:-1.1864333 19:0.61146856 20:4.4969952 21:1.8495713 22:-0.34921515 23:3.718273 
0.04095279163590737 1:0 2:17.206249 3:10.338324 4:6.7747739 5:6.9971557 6:27.280029 7:13.200333 8:12.83271 9:-0.89770681 10:-0.25294058 11:-3.748944 12:-0.30942619 13:0.21181839 14:3.0520621 15:-0.59218832 16:0.054021554 17:2.0277979 18:-0.80854438 19:11.429759 20:0.42246464 21:18.333967 22:38.204137 23:5.6487034 
-0.2782559402207124 1:0 2:1.2211049 3:-0.3086067 4:0.34921515 5:-1.1811255 6:-0.1490712 7:0.34921515 8:-0.99892058 9:-0.12686055 10:-0.54651876 11:-1.3943871 12:1.4891798 13:-0.7617498 14:-0.57805927 15:-0.77956007 16:0.2518047 17:0.7127478 18:-1.3245618 19:-0.47036043 20:-0.52977063 21:-0.39904442 22:-0.34921515 23:-0.53744946 
0.2782559402207124 1:0 2:0.072949575 3:-0.3086067 4:0.34921515 5:-2.8050342 6:-0.1490712 7:0.34921515 8:-1.2732665 9:-0.89770681 10:-0.27234074 11:1.2445734 12:-1.1913637 13:-0.044097845 14:-1.339924 15:-0.51373662 16:0.1397452 17:0.95025545 18:-0.74314407 19:0.61146856 20:3.2791705 21:1.1651932 22:-0.34921515 23:2.6872474 
-0.03101851511642224 1:0 2:7.7915306 3:20.985256 4:19.625891 5:12.561497 6:95.852781 7:19.625891 8:9.38053 9:-0.89770681 10:-0.36148627 11:1.2513113 12:-0.81261299 13:3.6506271 14:4.7254601 15:-0.37299942 16:0.39411642 17:-0.41770138 18:-1.6665218 19:20.084391 20:1.8087118 21:18.371816 22:-0.34921515 23:7.1733053 
0.01552419872421229 1:0 2:13.080774 3:10.338324 4:9.9875532 5:17.849896 6:82.13823 7:19.625891 8:12.535516 9:-0.89770681 10:2.2737098 11:-1.369226 12:-1.0886289 13:5.3075562 14:2.5245452 15:-1.0785671 16:-0.25786278 17:1.5076106 18:-1.2398708 19:7.1024426 20:2.3658017 21:10.298319 22:9.2891229 23:2.5611113 
-0.1178463465893724 1:0 2:0.56740626 3:6.7893474 4:-2.8635642 5:2.1505973 6:61.566405 7:-2.8635642 8:-1.6847865 9:2.6207088 10:-0.27234074 11:-1.290203 12:-0.9502951 13:-0.7617498 14:-1.339924 15:2.707308 16:-2.7582356 17:1.932691 18:2.4099621 19:-0.47036043 20:-0.52977063 21:-0.39904442 22:-0.34921515 23:-0.53744946 
0.03694956737474264 1:0 2:13.374378 3:10.338324 4:9.9875532 5:6.3342475 6:88.995506 7:19.625891 8:7.7540306 9:-0.89770681 10:-2.8163861 11:-1.290203 12:-1.1357576 13:0.94754786 14:1.6096964 15:-0.11843919 16:0.6373885 17:1.8379904 18:-0.70759848 19:16.838904 20:-0.13462538 21:15.808283 22:28.565799 23:4.0857129 
0.2782559402207124 1:0 2:1.7025403 3:3.2403703 4:0.34921515 5:-0.75973632 6:27.280029 7:0.34921515 8:-0.81602068 9:-0.024252776 10:-0.53942312 11:-2.5338238 12:-3.0779696 13:-0.42662978 14:1.2985492 15:0.094760525 16:0.33623785 17:-0.97856298 18:-0.73871171 19:-0.47036043 20:-0.52977063 21:-0.39904442 22:-0.34921515 23:-0.53744946 
-0.00612222636705749 1:0 2:1.9269961 3:-0.3086067 4:0.34921515 5:2.6289241 6:47.851855 7:0.34921515 8:-0.26732882 9:-0.23231776 10:1.0963452 11:-2.4586764 12:-2.6898345 13:1.5371709 14:-0.9827008 15:0.41962665 16:0.29084333 17:-2.5836451 18:0.30535351 19:-0.47036043 20:-0.52977063 21:-0.39904442 22:-0.34921515 23:-0.53744946 
0.2782559402207124 1:0 2:1.4666797 3:-0.3086067 4:0.34921515 5:4.5274609 6:-0.1490712 7:0.34921515 8:1.9160122 9:-0.89770681 10:2.2624284 11:-1.290203 12:-0.67092814 13:-0.7617498 14:-0.095450888 15:-0.30065713 16:0.54341776 17:0.43790111 18:-0.38176872 19:3.8569556 20:1.7892784 21:3.7638438 22:2.8635642 23:3.0382347 
-0.2393663331088929 1:0 2:10.748934 3:6.7893474 4:0.34921515 5:2.1370875 6:82.13823 7:3.5619945 8:-0.084430719 9:-0.89770681 10:-2.8185276 11:-1.1914127 12:-1.0736832 13:-0.7617498 14:4.5133897 15:-0.50725297 16:0.60872682 17:1.7908127 18:-1.2603256 19:0.61146856 20:4.7172402 21:1.7707071 22:-0.34921515 23:3.9047351 
0.06738232294354378 1:0 2:3.5828614 3:20.985256 4:13.200333 5:0.91425819 6:68.42368 7:9.9875532 8:2.9791046 9:-0.89770681 10:2.2659816 11:-1.290203 12:-1.1979743 13:0.47033309 14:3.099865 15:-0.585207 16:0.099565629 17:1.9477641 18:-0.4908126 19:3.8569556 20:0.77874311 21:3.940449 22:6.0763436 23:3.1095291 
0.02068166393989462 1:0 2:15.178113 3:24.534233 4:19.625891 5:10.533123 6:123.28188 7:29.264229 8:16.193459 9:-0.89770681 10:2.2727424 11:-1.290203 12:-1.122064 13:3.753112 14:4.3801049 15:-0.61841391 16:0.062268958 17:0.59161972 18:-1.0401932 19:12.511588 20:0.90182117 21:15.142421 22:15.714682 23:4.00345 
0.1218815796510765 1:0 2:6.9505766 3:13.887301 4:6.7747739 5:0.6849581 6:13.565479 7:6.7747739 8:0.73860758 9:-0.89770681 10:2.2775128 11:-1.203536 12:-0.94838844 13:-0.20826964 14:0.52878243 15:-0.20014191 16:0.47629136 17:2.0551441 18:-1.4957961 19:1.6932976 20:2.0937348 21:1.9725418 22:6.0763436 23:5.0125388 
-0.2770932031479264 1:0 2:0.0087472974 3:3.2403703 4:3.5619945 5:6.3231031 6:13.565479 7:3.5619945 8:0.48289014 9:-0.89770681 10:-0.32111013 11:-1.6789228 12:1.4762474 13:-0.21113742 14:3.0561951 15:-0.28723688 16:0.61218985 17:0.78534049 18:-1.0189683 19:4.9387846 20:1.9447454 21:10.174234 22:2.8635642 23:4.0528076 
0.1325329950116952 1:0 2:4.5893941 3:-0.3086067 4:0.34921515 5:-1.375223 6:20.422754 7:3.5619945 8:-0.54548466 9:-0.89770681 10:-0.34583071 11:1.1629209 12:-1.6073385 13:-0.7617498 14:0.65726899 15:-0.19947968 16:0.37520076 17:-1.2493618 18:0.0023202962 19:0.61146856 20:4.1407166 21:1.4595417 22:2.8635642 23:3.6853677 
0.2782559402207124 1:0 2:2.5849307 3:-0.3086067 4:0.34921515 5:-2.6604523 6:-0.1490712 7:0.34921515 8:-0.68765523 9:-0.89770681 10:-0.31968279 11:-1.6714515 12:1.4773752 13:0.48702068 14:-1.1057407 15:-0.81875596 16:0.12489078 17:0.30096851 18:-0.70797751 19:0.61146856 20:5.2548968 21:2.0409429 22:-0.34921515 23:4.3599219 
0.08745416535962455 1:0 2:-0.5884174 3:3.2403703 4:3.5619945 5:1.4827951 6:-0.1490712 7:0.34921515 8:1.2873033 9:-0.89770681 10:-0.45814472 11:1.2357367 12:-1.2104844 13:-0.42465498 14:2.2078978 15:-0.72536865 16:-0.15859764 17:1.3687488 18:-0.075860395 19:2.7751266 20:2.5212689 21:4.0413736 22:-0.34921515 23:2.0455985 
0.142626079497387 1:0 2:1.9599148 3:3.2403703 4:3.5619945 5:0.7828883 6:-0.1490712 7:0.34921515 8:1.8268496 9:0.056067481 10:0.7651765 11:0.59751308 12:0.36154341 13:4.1207926 14:-0.16456032 15:-0.18828956 16:0.49782508 17:-0.98772705 18:-0.0090939021 19:-0.47036043 20:-0.52977063 21:-0.39904442 22:-0.34921515 23:-0.53744946 
-0.2782559402207124 1:0 2:-0.10856053 3:-0.3086067 4:0.34921515 5:0.92172048 6:-0.1490712 7:0.34921515 8:-0.54167952 9:-0.89770681 10:-0.36148627 11:1.2513113 12:-0.81261299 13:-0.30849044 14:-1.1215385 15:-0.37299942 16:0.39411642 17:-0.41770138 18:-1.6665218 19:3.8569556 20:2.5147909 21:4.0413785 22:-0.34921515 23:2.988877 
0.2782559402207124 1:0 2:2.3138229 3:3.2403703 4:0.34921515 5:-0.59351885 6:-0.1490712 7:0.34921515 8:0.13606188 9:-0.10321303 10:1.2468145 11:0.6037077 12:-0.20311606 13:-0.18032624 14:-0.66024329 15:-0.19195157 16:0.78571776 17:0.062493619 18:0.31577361 19:-0.47036043 20:-0.52977063 21:-0.39904442 22:-0.34921515 23:-0.53744946 
0.01688545822598083 1:0 2:12.007871 3:10.338324 4:9.9875532 5:17.774472 6:109.56733 7:22.838671 8:14.760766 9:-0.89770681 10:-0.42247879 11:-3.7983656 12:-0.54781494 13:-0.7617498 14:4.3976913 15:-1.026179 16:-0.79256565 17:0.47274495 18:0.059587802 19:12.511588 20:0.67509848 21:19.170753 22:12.501902 23:1.881073 
0.07664256769962184 1:0 2:11.521693 3:6.7893474 4:3.5619945 5:-2.5566542 6:-0.1490712 7:0.34921515 8:2.0188884 9:-0.89770681 10:-0.29868546 11:-3.7530761 12:-0.32458353 13:5.1588423 14:-0.97807158 15:0.29402955 16:0.63116065 17:0.065728154 18:-0.0045756787 19:0.61146856 20:1.0831993 21:0.25692465 22:-0.34921515 23:0.82811092 
-0.01348417721406742 1:0 2:-0.05325387 3:-0.3086067 4:0.34921515 5:1.0579669 6:-0.1490712 7:0.34921515 8:0.32709053 9:-0.89770681 10:-0.29579441 11:1.2287642 12:-1.3134398 13:0.027752421 14:1.5540048 15:-0.47899597 16:0.25506179 17:1.1284134 18:-0.59954114 19:1.6932976 20:0.50667592 21:0.15600821 22:-0.34921515 23:0.34001906 
0.02734148993815839 1:0 2:20.1022 3:24.534233 4:22.838671 5:15.198753 6:130.13916 7:29.264229 8:15.964841 9:-0.89770681 10:-0.29123875 11:-3.7869731 12:-0.46496286 13:-0.7617498 14:1.4554578 15:-1.2110904 16:-0.76064937 17:0.55975107 18:-0.8533259 19:23.329878 20:0.65566512 21:28.56458 22:15.714682 23:3.7676304 
0.02671048066963799 1:0 2:7.7981104 3:13.887301 4:13.200333 5:19.531797 6:88.995506 7:16.413112 8:9.8377657 9:-0.89770681 10:2.2736791 11:-1.290203 12:-1.1086782 13:-0.016438872 14:0.8088647 15:0.13229147 16:-0.52202691 17:-2.3665998 18:-0.65900958 19:7.1024426 20:0.50667592 21:13.830473 22:6.0763436 23:2.7640258 
0.0160471268997578 1:0 2:22.625003 3:20.985256 4:16.413112 5:13.675188 6:116.42461 7:29.264229 8:11.640081 9:-0.89770681 10:-2.8050182 11:-1.1106837 12:-0.70965302 13:-0.44108198 14:4.196524 15:-0.40216209 16:0.10830063 17:2.0247144 18:0.1723413 19:19.002562 20:1.1803662 21:25.6758 22:15.714682 23:5.2867477 
0.03763674047687952 1:0 2:11.830305 3:3.2403703 4:0.34921515 5:-0.53760728 6:6.7082039 7:3.5619945 8:-1.0446443 9:-0.89770681 10:-0.29868801 11:-3.7530581 12:-0.32451839 13:3.9975686 14:0.934735 15:-0.46469882 16:0.10873152 17:0.463115 18:0.049543134 19:1.6932976 20:4.1666277 21:5.1514768 22:6.0763436 23:5.5170833 
-0.1775763660910904 1:0 2:-0.66031895 3:-0.3086067 4:0.34921515 5:10.793838 6:27.280029 7:3.5619945 8:0.25850178 9:-0.89770681 10:-2.8219998 11:-1.2018392 12:-0.92488506 13:-0.7617498 14:2.6540091 15:-0.48903179 16:0.24096665 17:-0.030708333 18:-0.89536012 19:1.6932976 20:0.9730768 21:3.0700291 22:2.8635642 23:0.73487985 
-0.05440219083128227 1:0 2:3.8953818 3:6.7893474 4:6.7747739 5:4.8055769 6:13.565479 7:3.5619945 8:3.2534428 9:-0.89770681 10:-0.36148627 11:1.2513113 12:-0.81261299 13:3.2563463 14:1.7903254 15:-0.37299942 16:0.39411642 17:-0.41770138 18:-1.6665218 19:3.8569556 20:2.5147909 21:4.0413785 22:-0.34921515 23:2.988877 
0.04519411043281632 1:0 2:14.847095 3:31.632187 4:26.05145 5:16.652653 6:109.56733 7:32.477009 8:17.976716 9:-0.89770681 10:-0.35936564 11:-3.8170626 12:-1.2475275 13:3.2457752 14:2.0173938 15:-1.3836863 16:-0.49536422 17:0.89140332 18:-1.5722882 19:16.838904 20:-0.22531446 21:23.972794 22:-0.34921515 23:4.858982 
-0.08130043563075255 1:0 2:10.451192 3:-0.3086067 4:0.34921515 5:0.084041626 6:13.565479 7:6.7747739 8:3.8478717 9:-0.89770681 10:-0.36865138 11:-3.8319826 12:-0.82195818 13:3.6657075 14:1.5193157 15:-0.75460161 16:-0.1069036 17:-0.17903373 18:-0.29361163 19:0.61146856 20:1.9317899 21:0.35784443 22:2.8635642 23:1.5465382 
-0.1812530253388691 1:0 2:4.6791885 3:3.2403703 4:3.5619945 5:5.8677644 6:13.565479 7:6.7747739 8:3.0248274 9:-0.89770681 10:-0.3686523 11:-3.8319834 12:-0.82196722 13:-0.24193942 14:0.74729927 15:-0.54393816 16:0.34688648 17:1.8252447 18:-1.1786919 19:2.7751266 20:0.20221973 21:2.9817293 22:-0.34921515 23:4.3873423 
0.03358712003767773 1:0 2:11.859718 3:24.534233 4:22.838671 5:12.001227 6:116.42461 7:29.264229 8:11.712466 9:-0.89770681 10:-0.46851176 11:1.2365323 12:-0.70474485 13:6.2998648 14:0.095929486 15:0.44697778 16:-0.0054210667 17:-2.0671874 18:-0.5383281 19:14.675246 20:1.6079003 21:15.344256 22:15.714682 23:5.7803241 
0.1011986315665286 1:0 2:9.2769714 3:17.436279 4:6.7747739 5:-2.6965537 6:6.7082039 7:3.5619945 8:-0.58740275 9:-0.89770681 10:0.034177759 11:1.2131936 12:-1.2938513 13:-0.52971984 14:0.062122422 15:0.14454183 16:-0.44749884 17:-2.1024833 18:-1.0863448 19:1.6932976 20:-0.22531446 21:0.55968351 22:2.8635642 23:-0.27969309 
0.124651019324446 1:0 2:0.95248952 3:-0.3086067 4:0.34921515 5:3.9590411 6:6.7082039 7:3.5619945 8:4.030765 9:-0.51228368 10:-0.37383705 11:-1.6925029 12:1.4726744 13:-0.7617498 14:1.1151661 15:-0.38090179 16:0.48813452 17:1.4623673 18:-0.31489195 19:-0.47036043 20:-0.52977063 21:-0.39904442 22:-0.34921515 23:-0.53744946 
0.030695118413334 1:0 2:23.875679 3:6.7893474 4:3.5619945 5:-0.81384464 6:20.422754 7:9.9875532 8:2.9333818 9:-0.89770681 10:-0.46221634 11:-3.7738163 12:-1.4635092 13:5.3559827 14:1.2612978 15:-0.39711272 16:0.094242563 17:-1.0995262 18:-0.041087484 19:7.1024426 20:2.9811921 21:10.449708 22:12.501902 23:4.4421843 
