svm_type epsilon_svr
kernel_type rbf
gamma 0.00936711
nr_class 2
total_sv 69
rho -0.685903
SV
-2.920743002377773 1:0 2:-0.022737006 3:0 4:0.35355339 5:2.169633 6:0 7:0.35355339 8:0.92222608 9:-0.4101589 10:-1.2025253 11:1.3961126 12:1.0855076 13:0.46936364 14:1.377257 15:-0.8370162 16:0.031140937 17:-0.75932003 18:-0.7685462 19:0 20:0 21:0 22:0 23:0 
-0.1863841324829471 1:0 2:0.75890222 3:0 4:0.35355339 5:15.313429 6:11 7:6.7175144 8:6.4680773 9:-0.42893034 10:1.3447175 11:1.2852011 12:3.9738291 13:-0.91495891 14:9.9921912 15:-0.31578105 16:-0.0033739268 17:0.19142425 18:-0.3113834 19:0 20:0 21:0 22:0 23:0 
-0.05283612073197739 1:0 2:-0.70353573 3:1 4:3.5355339 5:27.172717 6:11 7:3.5355339 8:0.51631014 9:-1.7208914 10:0.90530715 11:-0.10282569 12:-0.97592782 13:0.2503799 14:16.724849 15:0.13446889 16:-0.90807965 17:0.45213188 18:-0.49607182 19:3 20:7.2600002 21:50 22:0 23:11.16 
-0.2518542834514336 1:0 2:3.2867488 3:0 4:0.35355339 5:-5.8036055 6:5 7:0.35355339 8:-1.0570904 9:-0.21190882 10:-3.3903632 11:-0.72068356 12:1.0919266 13:5.4973491 14:0.98278561 15:-3.2518497 16:0.63511459 17:-0.40310031 18:-0.36091512 19:0 20:0 21:0 22:0 23:0 
-0.281417405583904 1:0 2:7.2628363 3:0 4:0.35355339 5:-2.6974476 6:3 7:0.35355339 8:0.24360664 9:-0.46694171 10:0.21733299 11:-2.5709777 12:1.8940682 13:0.27583226 14:-0.13126012 15:-4.3380376 16:0.3719738 17:-0.66236927 18:-0.67047559 19:0 20:0 21:0 22:0 23:0 
0.02513428192434947 1:0 2:6.5259271 3:2 4:6.7175144 5:11.294874 6:8 7:6.7175144 8:8.443627 9:-1.7208914 10:5.3207943 11:-0.417051 12:2.1917427 13:0.36634593 14:11.126007 15:-0.45481532 16:0.18200135 17:0.73741513 18:-0.082822741 19:2 20:15.84 21:84.375 22:0 23:15.84 
-0.05210676713591331 1:0 2:2.3281636 3:2 4:-2.8284271 5:-9.6536118 6:0 7:-2.8284271 8:-1.7357099 9:2.8118756 10:0.82524592 11:-0.417051 12:2.0802748 13:-0.91495891 14:-0.87626932 15:0.82433081 16:-2.6534421 17:2.7225732 18:2.7169726 19:0 20:0 21:0 22:0 23:0 
-0.7800487299973053 1:0 2:-0.49086625 3:0 4:0.35355339 5:-0.81040664 6:0 7:0.35355339 8:-1.0387633 9:-0.26205144 10:-1.9204152 11:-0.31434569 12:-0.36228609 13:-0.91495891 14:-0.87626932 15:0.67837068 16:0.52411644 17:-0.45756846 18:0.31912101 19:0 20:0 21:0 22:0 23:0 
-0.3539413519808169 1:0 2:0.83043609 3:0 4:0.35355339 5:-0.37004124 6:0 7:0.35355339 8:-0.26536065 9:-0.2444891 10:0.16600463 11:-0.43441588 12:-0.97529279 13:1.3920413 14:-0.17031819 15:0.76332685 16:0.43695119 17:0.035857887 18:-0.30977922 19:0 20:0 21:0 22:0 23:0 
0.07468449641225036 1:0 2:1.1427487 3:0 4:0.35355339 5:3.8275045 6:4 7:3.5355339 8:2.8355636 9:-0.51206945 10:-0.050431956 11:1.7175323 12:2.1995853 13:1.254068 14:0.38416048 15:-2.5594697 16:-0.19635502 17:-0.56207378 18:-0.79832973 19:0 20:0 21:0 22:0 23:0 
-0.05615366287303401 1:0 2:-0.084711497 3:0 4:0.35355339 5:-0.44584699 6:0 7:0.35355339 8:-0.76413479 9:-0.30110312 10:0.79188479 11:-0.22907928 12:-0.99713032 13:-0.91495891 14:0.21716614 15:0.46904761 16:0.82477072 17:-0.17833499 18:-0.045041328 19:0 20:0 21:0 22:0 23:0 
-0.3981236829519477 1:0 2:3.6531163 3:0 4:0.35355339 5:-2.9815948 6:3 7:3.5355339 8:2.1818719 9:-0.53611245 10:0.66122154 11:1.7563774 12:1.9175645 13:-0.91495891 14:2.1715414 15:-3.2557692 16:-0.67793542 17:-0.59277539 18:-0.59934488 19:0 20:0 21:0 22:0 23:0 
-0.09633819583182833 1:0 2:2.8176033 3:0 4:0.35355339 5:0.82653316 6:8 7:3.5355339 8:1.3850746 9:-0.25137979 10:1.118636 11:-2.4811162 12:1.1154703 13:0.19634521 14:10.74704 15:0.27391554 16:-0.15766714 17:0.62391071 18:0.78340684 19:0 20:0 21:0 22:0 23:0 
-0.05864762577824451 1:0 2:-1.100447 3:0 4:0.35355339 5:6.5296038 6:7 7:6.7175144 8:3.2125732 9:-0.55995247 10:1.6876266 11:0.56225503 12:4.7750929 13:-0.2176169 14:15.364457 15:0.80783902 16:-1.4965933 17:0.13886444 18:0.015887654 19:0 20:0 21:0 22:0 23:0 
-0.9010604615421298 1:0 2:0.16542641 3:0 4:0.35355339 5:-0.080771633 6:0 7:0.35355339 8:-0.94398541 9:-0.55406962 10:0.91886078 11:-1.659297 12:-0.45615661 13:-0.91495891 14:-0.87626932 15:-0.27722744 16:0.45027798 17:-0.0040312368 18:-0.64544426 19:0 20:0 21:0 22:0 23:0 
0.5447098161251217 1:0 2:-0.010253654 3:0 4:0.35355339 5:1.1802927 6:4 7:0.35355339 8:-0.15226096 9:-0.48077736 10:0.79346166 11:-2.2523615 12:0.41732599 13:0.21282192 14:-0.87626932 15:0.55695344 16:0.0057998768 17:-0.18566514 18:-0.61170708 19:0 20:0 21:0 22:0 23:0 
-0.003519914300219561 1:0 2:5.9553622 3:0 4:0.35355339 5:10.23963 6:7 7:0.35355339 8:-1.3963991 9:-0.14830209 10:1.0364375 11:-0.75677548 12:-0.96748169 13:-0.20757829 14:-0.2857362 15:0.51230964 16:0.78371737 17:-0.15581299 18:-0.27523164 19:0 20:0 21:0 22:0 23:0 
0.4912120447539778 1:0 2:-0.36240595 3:0 4:0.35355339 5:1.1168806 6:1 7:0.35355339 8:0.24360664 9:-1.7208914 10:0.70150326 11:1.7507464 12:1.7954648 13:-0.25534533 14:4.2006647 15:0.186734 16:0.081092336 17:-0.49290886 18:0.85985857 19:1 20:0.94 21:2.10938 22:0 23:0.94 
-0.05309110581830168 1:0 2:3.8859384 3:0 4:0.35355339 5:6.5001677 6:8 7:3.5355339 8:-0.60467037 9:-1.7208914 10:-3.6353444 11:-0.62683925 12:1.812844 13:0.015971534 14:10.648699 15:-0.058861034 16:0.31881838 17:0.65749829 18:-0.7805136 19:1 20:13.28 21:40.078098 22:0 23:13.28 
-0.1994937635031904 1:0 2:1.5705852 3:0 4:0.35355339 5:-4.2419827 6:6 7:0.35355339 8:1.035331 9:-0.92826605 10:0.97749696 11:-2.2395687 12:3.768197 13:0.8738787 14:4.1868433 15:-0.85101756 16:-1.2251061 17:-0.38699516 18:0.5040077 19:0 20:0 21:0 22:0 23:0 
2.21957733024192 1:0 2:-0.014772701 3:0 4:0.35355339 5:-2.658442 6:2 7:0.35355339 8:-0.69532493 9:-0.030704038 10:-0.67601446 11:-2.0186472 12:0.25844647 13:-0.2431932 14:0.60936301 15:-1.3373271 16:0.021862891 17:-0.44961067 18:-0.79746179 19:0 20:0 21:0 22:0 23:0 
-1.167232894008362 1:0 2:0.35469003 3:0 4:0.35355339 5:3.3610462 6:7 7:0.35355339 8:-1.6820903 9:0.3668009 10:-1.1014757 11:-1.7280967 12:-0.0015004534 13:-0.91495891 14:-0.87626932 15:-1.9113294 16:0.11200957 17:-0.54405572 18:0.11441612 19:0 20:0 21:0 22:0 23:0 
0.06926703971860335 1:0 2:-0.52661602 3:0 4:0.35355339 5:19.387954 6:5 7:3.5355339 8:6.4643025 9:-0.70938939 10:1.51113 11:-0.58127784 12:5.1242763 13:-0.91495891 14:10.382558 15:-0.019634949 16:0.02440013 17:0.34448702 18:-0.59670988 19:0 20:0 21:0 22:0 23:0 
0.1977939757031841 1:0 2:12.477897 3:2 4:3.5355339 5:15.195246 6:8 7:9.8994949 8:4.7744232 9:-0.48866885 10:-2.334064 11:1.1302309 12:2.2195311 13:-0.095258947 14:7.2962897 15:-3.6177107 16:1.3028481 17:-0.39772151 18:-0.36183621 19:1 20:9.1800003 21:25.700701 22:0 23:9.1800003 
0.1960261979691511 1:0 2:5.8688495 3:2 4:6.7175144 5:12.444317 6:10 7:6.7175144 8:6.4643185 9:-1.7208914 10:5.3148436 11:-0.48931884 12:2.2449932 13:10.32696 14:-0.4396007 15:0.24356246 16:0.86030181 17:0.14511029 18:0.38294969 19:4 20:7.9000001 21:120.2344 22:1 23:10.72 
-0.07001818543687746 1:0 2:-0.41424226 3:0 4:0.35355339 5:-4.3738981 6:2 7:0.35355339 8:0.054034833 9:-0.36709572 10:-2.0436865 11:1.2502843 12:2.3418476 13:1.3354718 14:8.3766181 15:-3.9397556 16:-0.14947927 17:-0.71003233 18:0.79933643 19:0 20:0 21:0 22:0 23:0 
0.6997023753647319 1:0 2:1.0732572 3:0 4:0.35355339 5:12.258214 6:5 7:3.5355339 8:4.2160573 9:-0.35688316 10:-0.6867209 11:1.5896169 12:1.4773399 13:0.43651567 14:10.011799 15:0.096110018 16:-0.035869424 17:-0.49522076 18:-0.44199433 19:0 20:0 21:0 22:0 23:0 
4.008597918189193 1:0 2:0.088212866 3:0 4:0.35355339 5:0.21377058 6:2 7:0.35355339 8:-0.32191311 9:0.01419952 10:-1.6132983 11:0.86656862 12:0.23002242 13:-0.21504792 14:0.96595329 15:-1.1884308 16:0.21414356 17:-0.28116224 18:0.085126192 19:0 20:0 21:0 22:0 23:0 
-0.02047000507104785 1:0 2:0.83043609 3:0 4:0.35355339 5:14.208511 6:7 7:3.5355339 8:0.77613804 9:-1.7208914 10:5.3216096 11:-0.417051 12:2.1749788 13:-0.91495891 14:14.93996 15:0.25606652 16:-0.63565016 17:0.17054172 18:-0.066038508 19:1 20:6.54 21:14.8535 22:0 23:6.54 
0.3082497007317987 1:0 2:-1.1048635 3:0 4:-2.8284271 5:-3.7965625 6:0 7:-2.8284271 8:-1.7357099 9:2.8118756 10:0.82524592 11:-0.417051 12:2.0802748 13:-0.91495891 14:-0.87626932 15:0.82433081 16:-2.6534421 17:2.7225732 18:2.7169726 19:0 20:0 21:0 22:0 23:0 
-0.02877493406110715 1:0 2:3.4895824 3:0 4:0.35355339 5:22.990421 6:10 7:6.7175144 8:1.9401653 9:-1.7208914 10:0.61747899 11:-2.5813433 12:2.3941712 13:-0.20756422 14:15.500384 15:1.0563645 16:-1.2490336 17:0.10609212 18:0.026082204 19:3 20:7.9000001 21:95.976501 22:0 23:11.48 
0.01101429933168285 1:0 2:9.9973283 3:1 4:3.5355339 5:10.103789 6:4 7:6.7175144 8:4.8808579 9:-1.7208914 10:0.8005623 11:-2.5244573 12:1.3008907 13:8.1529266 14:9.1343466 15:0.47215563 16:-0.036922884 17:0.41996376 18:0.1172372 19:1 20:16.92 21:50.625 22:0 23:16.92 
-0.2316078212026992 1:0 2:2.1578526 3:0 4:0.35355339 5:9.9508748 6:3 7:0.35355339 8:-0.88900394 9:0.34564773 10:0.55302121 11:1.1814513 12:-0.0094047151 13:2.459144 14:4.1586812 15:0.022342044 16:0.22707983 17:-0.46746685 18:-0.75856402 19:0 20:0 21:0 22:0 23:0 
-0.06909457377919397 1:0 2:0.30122712 3:1 4:3.5355339 5:-0.4798011 6:10 7:0.35355339 8:0.073949066 9:-0.284469 10:0.8592594 11:1.5280587 12:3.4696264 13:1.3729424 14:10.812009 15:-0.38741181 16:-0.16386953 17:0.12410155 18:0.88413979 19:1 20:13.84 21:31.6406 22:0 23:13.84 
-4.906826166213595 1:0 2:0.19334611 3:0 4:0.35355339 5:-0.57756912 6:0 7:0.35355339 8:0.073949066 9:-0.47686605 10:-1.0634766 11:1.3696661 12:0.88116079 13:-0.91495891 14:0.53983281 15:-0.30137925 16:-0.37205813 17:-0.80225505 18:-0.28743699 19:0 20:0 21:0 22:0 23:0 
-0.1595681352237943 1:0 2:-0.41338162 3:1 4:-2.8284271 5:-1.0035659 6:6 7:-2.8284271 8:-1.7357099 9:2.8118756 10:0.82524592 11:-0.417051 12:2.0802748 13:-0.91495891 14:-0.87626932 15:0.82433081 16:-2.6534421 17:2.7225732 18:2.7169726 19:0 20:0 21:0 22:0 23:0 
-0.05302740607723518 1:0 2:0.35469003 3:0 4:0.35355339 5:11.612501 6:7 7:0.35355339 8:-1.6820903 9:0.3668009 10:-1.1014757 11:-1.7280967 12:-0.0015004534 13:-0.91495891 14:11.281591 15:-1.9113294 16:0.11200957 17:-0.54405572 18:0.11441612 19:0 20:0 21:0 22:0 23:0 
0.05518004811279925 1:0 2:0.091384431 3:0 4:0.35355339 5:3.5598899 6:11 7:0.35355339 8:-0.94398541 9:-0.21763146 10:-1.40868 11:1.4733284 12:2.0811643 13:2.2584514 14:0.23925336 15:-0.031262465 16:0.68068115 17:-0.80852891 18:0.87183762 19:0 20:0 21:0 22:0 23:0 
0.2342164919008446 1:0 2:2.3281636 3:2 4:0.35355339 5:-4.0213438 6:4 7:0.35355339 8:-0.81674091 9:-0.08981311 10:-3.3356577 11:-1.0135963 12:1.2663495 13:8.3847525 14:14.351995 15:-2.9926582 16:-0.72761427 17:-0.48436413 18:-0.25637436 19:0 20:0 21:0 22:0 23:0 
0.03930672527791496 1:0 2:3.8697128 3:2 4:6.7175144 5:18.281578 6:9 7:9.8994949 8:8.3870717 9:-1.7208914 10:5.3072368 11:-0.34796349 12:2.3256619 13:3.888218 14:13.979457 15:-0.3128508 16:0.06003906 17:0.72294049 18:0.079148367 19:2 20:6.02 21:35.859399 22:0 23:6.96 
-0.2413643689382672 1:0 2:0.19334611 3:0 4:0.35355339 5:11.129986 6:3 7:3.5355339 8:2.5056803 9:-0.52269749 10:0.90268984 11:1.7087969 12:2.7494905 13:0.05283813 14:9.7458104 15:0.05819697 16:0.040442604 17:0.14429471 18:0.47263782 19:0 20:0 21:0 22:0 23:0 
0.09114796391504038 1:0 2:-0.52661602 3:0 4:0.35355339 5:4.0894481 6:3 7:0.35355339 8:1.657398 9:-0.047759953 10:-1.8398142 11:1.0095366 12:0.63153692 13:0.43679416 14:3.9725433 15:-1.5319377 16:-0.34257795 17:-0.54583802 18:-0.76734629 19:0 20:0 21:0 22:0 23:0 
-0.1051648363009616 1:0 2:14.471696 3:0 4:0.35355339 5:2.4415326 6:5 7:0.35355339 8:0.41325879 9:-0.63382268 10:1.0574981 11:-2.4655598 12:1.0435953 13:1.0387648 14:-0.87626932 15:0.27525291 16:0.71172959 17:-0.28684656 18:-0.43206105 19:0 20:0 21:0 22:0 23:0 
0.1669588012680397 1:0 2:8.5407853 3:2 4:6.7175144 5:15.663983 6:13 7:13.081475 8:17.121796 9:-1.7208914 10:-3.6590069 11:-0.49569679 12:1.8616162 13:-0.21628002 14:8.7736172 15:-0.036597977 16:0.20456254 17:0.75507457 18:0.052137773 19:4 20:6.1199999 21:111.4513 22:0 23:15.06 
0.2058239143618734 1:0 2:8.7078854 3:2 4:6.7175144 5:2.4726931 6:9 7:3.5355339 8:7.0954419 9:-1.7208914 10:0.9893948 11:-2.590481 12:2.2428833 13:14.489145 14:-0.34861096 15:-3.0082285 16:0.62197985 17:-0.28133747 18:0.31494588 19:1 20:9.3199997 21:24.767 22:0 23:9.3199997 
-0.1918369584121551 1:0 2:9.5539939 3:1 4:-2.8284271 5:-8.4518216 6:2 7:-2.8284271 8:-1.7357099 9:2.8118756 10:0.82524592 11:-0.417051 12:2.0802748 13:-0.91495891 14:-0.87626932 15:0.82433081 16:-2.6534421 17:2.7225732 18:2.7169726 19:0 20:0 21:0 22:0 23:0 
-0.3190458400753716 1:0 2:0.35088423 3:1 4:0.35355339 5:6.341799 6:4 7:3.5355339 8:1.3746408 9:-0.50070704 10:-0.36185031 11:1.1232735 12:0.054298332 13:-0.91495891 14:0.36144614 15:0.63616732 16:-0.51480822 17:-0.31052582 18:-0.21317033 19:0 20:0 21:0 22:0 23:0 
-0.1612834400739965 1:0 2:1.4807463 3:1 4:3.5355339 5:11.461824 6:2 7:3.5355339 8:3.6555672 9:-0.45495842 10:0.33638043 11:-0.73716699 12:-0.95669559 13:1.7477546 14:5.2346141 15:-0.015800722 16:0.47286587 17:-0.012944995 18:-0.40250467 19:0 20:0 21:0 22:0 23:0 
-0.4045131820239902 1:0 2:-0.93017566 3:0 4:0.35355339 5:10.686783 6:5 7:0.35355339 8:0.63946891 9:-0.26540022 10:-0.73120853 11:0.74239306 12:-0.30622199 13:-0.91495891 14:3.7255656 15:0.46161283 16:-0.10838201 17:-0.62170316 18:-0.11301976 19:0 20:0 21:0 22:0 23:0 
-1.283619890041759 1:0 2:0.12591553 3:0 4:0.35355339 5:-1.6406473 6:0 7:0.35355339 8:-0.31013291 9:-0.30327979 10:-0.34728267 11:-1.6425473 12:-0.34304907 13:0.3764888 14:-0.15111444 15:-0.70257086 16:0.49568279 17:-0.25006783 18:0.11582357 19:0 20:0 21:0 22:0 23:0 
0.2022787566661696 1:0 2:17.983915 3:1 4:0.35355339 5:0.3561797 6:10 7:6.7175144 8:0.71487022 9:-1.7208914 10:-3.653843 11:-0.26375686 12:2.2668437 13:10.332257 14:-0.87626932 15:-1.4523711 16:0.98672006 17:0.068102878 18:2.7169726 19:3 20:7.02 21:65.0391 22:0 23:9.3400002 
-0.08648738177529099 1:0 2:9.9973283 3:1 4:3.5355339 5:2.2523285 6:3 7:3.5355339 8:1.883608 9:-0.67912583 10:1.5209659 11:-1.4867176 12:-0.56774884 13:1.8881375 14:9.3141067 15:0.91169859 16:-1.020175 17:0.1602699 18:-0.025629275 19:0 20:0 21:0 22:0 23:0 
2.536816109718119 1:0 2:-0.49654603 3:0 4:0.35355339 5:6.0449687 6:1 7:0.35355339 8:0.46981134 9:-0.50070704 10:-0.36185031 11:1.1232735 12:0.054298332 13:-0.91495891 14:0.36144614 15:0.63616732 16:-0.51480822 17:-0.31052582 18:-0.21317033 19:0 20:0 21:0 22:0 23:0 
0.270061926935221 1:0 2:-1.0965517 3:0 4:0.35355339 5:1.3097428 6:1 7:3.5355339 8:2.731885 9:-1.7208914 10:0.94898858 11:-2.5848484 12:2.3650847 13:-0.91495891 14:4.5044078 15:0.186734 16:0.081092336 17:-0.49290886 18:0.85985857 19:1 20:0.94 21:2.10938 22:0 23:0.94 
-0.258795890732634 1:0 2:1.4340317 3:0 4:-2.8284271 5:1.1710271 6:6 7:-2.8284271 8:-1.7357099 9:2.8118756 10:0.82524592 11:-0.417051 12:2.0802748 13:-0.91495891 14:-0.87626932 15:0.82433081 16:-2.6534421 17:2.7225732 18:2.7169726 19:0 20:0 21:0 22:0 23:0 
-0.002720229691985543 1:0 2:15.005666 3:0 4:0.35355339 5:19.726879 6:8 7:3.5355339 8:0.69602132 9:-1.7208914 10:-3.6698517 11:-0.417051 12:2.2000164 13:0.4359782 14:17.496019 15:1.0131484 16:-1.2668496 17:0.25582482 18:0.016490096 19:3 20:9.1999998 21:124.4531 22:1 23:11.58 
0.2777721367883784 1:0 2:8.5940612 3:1 4:3.5355339 5:3.6474225 6:4 7:6.7175144 8:6.4643078 9:-1.2820081 10:0.86663368 11:-2.5819359 12:2.4163033 13:5.610073 14:6.3676402 15:-0.02006688 16:0.52203315 17:0.16859917 18:-0.30355558 19:0 20:0 21:0 22:0 23:0 
-0.5307433531160777 1:0 2:0.1050495 3:0 4:0.35355339 5:0.46950471 6:0 7:0.35355339 8:1.2049886 9:-0.41155866 10:0.087010049 11:1.4827437 12:0.6574723 13:0.39385856 14:3.2695365 15:-0.35712304 16:-0.55871564 17:-0.61924437 18:-0.75393666 19:0 20:0 21:0 22:0 23:0 
0.1207581013601194 1:0 2:10.440663 3:2 4:6.7175144 5:21.654886 6:11 7:13.081475 8:10.479496 9:-1.7208914 10:-3.6706266 11:-0.49115722 12:2.0779029 13:-0.26016701 14:17.500035 15:-0.74528005 16:-1.5170174 17:-0.29561994 18:0.75374433 19:2 20:7.3400002 21:60.117201 22:0 23:14.48 
-0.01461796111729794 1:0 2:12.582722 3:0 4:0.35355339 5:14.600792 6:9 7:3.5355339 8:4.654649 9:-1.7208914 10:0.99045985 11:-2.5901132 12:2.2520035 13:1.079449 14:10.443287 15:0.12416745 16:-1.1121661 17:0.43681202 18:0.44797954 19:1 20:6.7800002 21:18.9844 22:0 23:6.7800002 
0.04987627475768124 1:0 2:1.3402291 3:1 4:3.5355339 5:15.344 6:10 7:6.7175144 8:6.9732698 9:-1.7208914 10:5.3146334 11:-0.28234199 12:2.1252529 13:-0.91495891 14:15.129954 15:0.14666365 16:-1.4161351 17:0.21460386 18:0.47284283 19:2 20:6.2199998 21:32.695301 22:2 23:7.3400002 
-0.1335488190308476 1:0 2:0.18042852 3:0 4:0.35355339 5:7.6129401 6:5 7:3.5355339 8:0.040961796 9:-1.7208914 10:0.81045857 11:-2.5823928 12:2.4113918 13:0.37604077 14:6.2080348 15:0.39178493 16:-0.38821512 17:0.28110674 18:0.84712434 19:1 20:6.3000002 21:15.9961 22:0 23:6.3000002 
-0.04689817222603661 1:0 2:0.75890222 3:0 4:0.35355339 5:19.372812 6:6 7:6.7175144 8:2.1248959 9:-0.37816982 10:-3.2811278 11:0.37437318 12:1.5050267 13:0.74399598 14:12.660918 15:-2.9545052 16:-0.48972314 17:-0.81615774 18:-0.67817526 19:0 20:0 21:0 22:0 23:0 
-0.1337408559616106 1:0 2:0.85891381 3:0 4:0.35355339 5:13.396526 6:5 7:3.5355339 8:1.9967131 9:-0.41155866 10:2.0311405 11:1.2570042 12:3.8743251 13:-0.91495891 14:7.4531162 15:0.14920543 16:0.28342875 17:0.31869471 18:0.14709632 19:0 20:0 21:0 22:0 23:0 
3.986807752933765 1:0 2:2.9210207 3:1 4:0.35355339 5:-0.80907562 6:0 7:0.35355339 8:0.073949066 9:-0.47686605 10:-1.0634766 11:1.3696661 12:0.88116079 13:-0.91495891 14:0.53983281 15:-0.30137925 16:-0.37205813 17:-0.80225505 18:-0.28743699 19:0 20:0 21:0 22:0 23:0 
-0.1212594920336208 1:0 2:-0.044605838 3:0 4:0.35355339 5:2.9021149 6:4 7:3.5355339 8:1.3275146 9:-0.46560539 10:0.60437708 11:1.7575864 12:2.1550108 13:-0.91495891 14:7.3800129 15:-0.1774551 16:1.0765068 17:0.15237204 18:-0.56023389 19:0 20:0 21:0 22:0 23:0 
0.2251066744139358 1:0 2:5.8688495 3:2 4:3.5355339 5:0.18220082 6:7 7:3.5355339 8:2.7884375 9:-1.7208914 10:0.61747899 11:-2.5813433 12:2.3941712 13:-0.20756422 14:12.03872 15:1.0563645 16:-1.2490336 17:0.10609212 18:-0.011666495 19:1 20:7.9000001 21:20.039101 22:0 23:7.9000001 
0.1186373968989558 1:0 2:-0.022737006 3:0 4:0.35355339 5:6.8760812 6:7 7:3.5355339 8:4.4849914 9:-0.60387923 10:1.0390302 11:-0.4728261 12:5.1647874 13:1.6212805 14:9.6441623 15:0.084978775 16:0.20783692 17:0.087006708 18:-0.22395748 19:0 20:0 21:0 22:0 23:0 
-0.03869755280803761 1:0 2:1.1427487 3:0 4:-2.8284271 5:-9.64939 6:2 7:-2.8284271 8:-1.7357099 9:2.8118756 10:0.82524592 11:-0.417051 12:2.0802748 13:-0.91495891 14:-0.87626932 15:0.82433081 16:-2.6534421 17:2.7225732 18:2.7169726 19:0 20:0 21:0 22:0 23:0 
