svm_type epsilon_svr
kernel_type rbf
gamma 0.00201808
nr_class 2
total_sv 188
rho -0.983885
SV
-3.412022118426764 1:0 2:2.4799089 3:2.5767352 4:2.8286324 5:-0.53259933 6:0.49399869 7:1.7201487 8:2.889592 9:-1.3303637 10:1.2085377 11:3.0266224 12:0.34044642 13:2.4002123 14:0.77964812 15:-0.80293097 16:0.85854717 17:0.54934283 18:-0.5678006 19:3.6867307 20:6.2838976 21:11.265769 22:2.2237818 23:3.6543511 
0.2003501174967564 1:0 2:1.2353733 3:9.7568511 4:7.0545411 5:5.6321232 6:2.5358599 7:3.181097 8:5.631723 9:-1.3303637 10:1.03279 11:2.9363019 12:-0.43105853 13:2.7090718 14:3.8828508 15:-0.24280407 16:0.29578947 17:0.88217248 18:-0.80047976 19:3.6867307 20:0.92463554 21:3.8806648 22:-0.19506858 23:3.5225634 
-0.2927600610024371 1:0 2:0.42495764 3:9.7568511 4:7.0545411 5:6.4045747 6:2.5358599 7:4.6420453 8:5.7899722 9:-1.0710863 10:1.1361019 11:2.945847 12:-0.39459553 13:1.4757882 14:1.3720175 15:-0.84933035 16:0.98243483 17:-1.2758334 18:-1.0373428 19:-0.28852675 20:-0.27474603 21:-0.29353232 22:-0.19506858 23:-0.31246488 
-5.994842503189409 1:0 2:4.7583284 3:13.346909 4:2.8286324 5:1.3649404 6:6.6195825 7:3.181097 8:3.5801596 9:-1.3303637 10:3.7490378 11:0.53146286 12:0.33471083 13:3.2778436 14:0.33599203 15:-0.51211286 16:1.4602153 17:0.40827214 18:-0.59604692 19:1.699102 20:2.5491143 21:1.6951655 22:-0.19506858 23:2.1387902 
-0.3336382275711444 1:0 2:9.92716 3:11.55188 4:9.1674955 5:13.328176 6:9.6823744 7:4.6420453 8:10.589419 9:-1.3303637 10:-1.5313584 11:0.53146286 12:0.33471083 13:4.4956951 14:-0.44985456 15:-0.54074504 16:1.5051693 17:-0.19830344 18:-1.3331722 19:7.6619882 20:2.0101517 21:12.01154 22:4.6426322 23:2.0399492 
-5.994842503189409 1:0 2:3.8345278 3:11.55188 4:4.9415868 5:3.3123159 6:5.5986518 7:4.6420453 8:-0.010788452 9:-1.3303637 10:-1.5258949 11:0.60894602 12:0.49589651 13:3.8520566 14:2.4582319 15:-0.12804075 16:-0.16796962 17:1.1962682 18:-1.3038712 19:3.6867307 20:3.0349398 21:4.9268023 22:-0.19506858 23:4.016768 
5.994842503189409 1:0 2:-2.0068021 3:4.3717642 4:0.71567809 5:-0.54237758 6:0.49399869 7:0.2592005 8:-0.73588406 9:-0.49605242 10:1.2694535 11:-1.6711383 12:1.6715575 13:2.0306291 14:-0.53589957 15:-1.0397974 16:-0.21135445 17:0.52043058 18:-1.1752097 19:-0.28852675 20:-0.27474603 21:-0.29353232 22:-0.19506858 23:-0.31246488 
-5.994842503189409 1:0 2:-0.034660006 3:0.78170617 4:0.71567809 5:-0.16888626 6:-0.52693194 7:0.2592005 8:-0.66682719 9:-0.60094832 10:-0.88061575 11:-0.99389989 12:-0.36056321 13:-0.27726486 14:-0.63668982 15:-0.80569227 16:1.0188271 17:0.55754965 18:-1.2719991 19:-0.28852675 20:-0.27474603 21:-0.29353232 22:-0.19506858 23:-0.31246488 
0.4495783261801638 1:0 2:9.8958616 3:15.141938 4:2.8286324 5:6.5205108 6:10.703305 7:4.6420453 8:5.9372968 9:-1.3303637 10:3.7486447 11:0.53146286 12:0.38409751 13:4.4227998 14:1.5156688 15:-0.89901568 16:0.95493179 17:0.0097595235 18:-1.3020764 19:1.699102 20:0.80317912 21:0.41356023 22:-0.19506858 23:0.62322924 
4.685855258262247 1:0 2:4.9042448 3:6.1667932 4:2.8286324 5:2.759064 6:0.49399869 7:1.7201487 8:1.7559144 9:-0.8380405 10:-0.30210823 11:-1.5362651 12:0.81917453 13:3.3214563 14:1.3405285 15:-1.2173409 16:0.43448042 17:-1.3157954 18:-0.60301428 19:-0.28852675 20:-0.27474603 21:-0.29353232 22:-0.19506858 23:-0.31246488 
-3.264599111711671 1:0 2:2.6125183 3:6.1667932 4:4.9415868 5:0.40702686 6:2.5358599 7:6.1029935 8:3.4492088 9:-0.60784667 10:2.5875215 11:2.6000127 12:0.31967266 13:3.9469589 14:0.064524697 15:-0.54856204 16:1.4102513 17:0.13649797 18:-1.0732148 19:-0.28852675 20:-0.27474603 21:-0.29353232 22:-0.19506858 23:-0.31246488 
-5.994842503189409 1:0 2:0.94060556 3:0.78170617 4:0.71567809 5:0.049543904 6:1.5149293 7:0.2592005 8:-0.66682719 9:-0.8514712 10:0.26114631 11:-1.525562 12:1.67178 13:1.0576122 14:-0.63668982 15:-0.78327814 16:0.87556493 17:0.74525513 18:-0.59810228 19:-0.28852675 20:-0.27474603 21:-0.29353232 22:-0.19506858 23:-0.31246488 
-5.994842503189409 1:0 2:1.0514917 3:0.78170617 4:0.71567809 5:-0.11201417 6:1.5149293 7:0.2592005 8:0.88694975 9:-0.71369457 10:-0.85219665 11:-1.1273574 12:0.095959676 13:1.3692788 14:-0.63668982 15:-0.75501084 16:1.0662707 17:0.47806692 18:-1.187268 19:-0.28852675 20:-0.27474603 21:-0.29353232 22:-0.19506858 23:-0.31246488 
5.994842503189409 1:0 2:0.23660003 3:0.78170617 4:0.71567809 5:2.5868783 6:0.49399869 7:0.2592005 8:0.6797771 9:-0.82321171 10:-0.37594926 11:-1.2617161 12:1.5078058 13:0.8049374 14:2.7205237 15:-0.65569326 16:0.88448443 17:0.8893428 18:-0.93375037 19:-0.28852675 20:-0.27474603 21:-0.29353232 22:-0.19506858 23:-0.31246488 
0.120985381696303 1:0 2:1.5517925 3:2.5767352 4:4.9415868 5:-0.554882 6:0.49399869 7:3.181097 8:4.5469576 9:-1.3303637 10:1.2023163 11:3.0235247 12:0.18726006 13:-0.32458795 14:-0.43341079 15:-0.72812161 16:1.4356873 17:-0.23677767 18:-0.58221713 19:7.6619882 20:2.9058924 21:11.762945 22:4.6426322 23:5.9804079 
5.994842503189409 1:0 2:1.934211 3:0.78170617 4:2.8286324 5:-0.48000327 6:-1.5478626 7:0.2592005 8:-0.079846336 9:-1.0710863 10:1.228754 11:-1.9488907 12:0.032046781 13:-0.136628 14:-0.53087171 15:-0.97929651 16:0.21784261 17:-0.35574575 18:-1.0847666 19:-0.28852675 20:-0.27474603 21:-0.29353232 22:-0.19506858 23:-0.31246488 
-5.691455275073881 1:0 2:0.51656756 3:-1.0133228 4:0.71567809 5:0.17618318 6:2.5358599 7:0.2592005 8:-0.021019077 9:-0.53456585 10:0.46689955 11:-1.6378175 12:1.5694577 13:1.7866806 14:-0.54090623 15:-1.0395633 16:0.99281232 17:0.13831039 18:-1.1921362 19:-0.28852675 20:-0.27474603 21:-0.29353232 22:-0.19506858 23:-0.31246488 
1.461944777419743 1:0 2:3.9902914 3:6.1667932 4:2.8286324 5:-1.8832669 6:1.5149293 7:1.7201487 8:2.1644977 9:-1.3303637 10:1.3118544 11:-1.945539 12:0.048528443 13:3.3027537 14:-0.42715562 15:-0.5245935 16:0.40772331 17:1.4217599 18:-0.27922167 19:3.6867307 20:4.8871494 21:8.6556078 22:-0.19506858 23:4.6164029 
-2.2492658919007 1:0 2:0.2742192 3:2.5767352 4:2.8286324 5:5.7952237 6:-0.52693194 7:0.2592005 8:1.5084577 9:-1.3303637 10:-1.5261189 11:0.61001222 12:0.17859027 13:3.6114053 14:3.055506 15:-1.0178418 16:0.33712852 17:0.63372618 18:-0.10900087 19:-0.28852675 20:-0.27474603 21:-0.29353232 22:2.2237818 23:3.6543511 
3.289367470944818 1:0 2:1.7965095 3:4.3717642 4:4.9415868 5:3.8002374 6:2.5358599 7:3.181097 8:5.7175623 9:-1.3303637 10:1.1088397 11:2.9906674 12:-0.16103112 13:2.4141141 14:-0.37177343 15:-0.47479461 16:1.6444983 17:0.068020569 18:-0.31207722 19:1.699102 20:0.051667936 21:-0.1890911 22:2.2237818 23:-0.029120869 
0.8360569346563864 1:0 2:1.9988756 3:0.78170617 4:0.71567809 5:1.5689332 6:2.5358599 7:0.2592005 8:0.038186945 9:-1.3303637 10:-1.5238115 11:0.53146286 12:0.11845875 13:1.1856271 14:-0.45935626 15:-0.59591025 16:1.28357 17:-0.076725711 18:-0.4451972 19:5.6743595 20:1.2965956 21:1.9084363 22:7.0614825 23:1.6709431 
5.994842503189409 1:0 2:0.056240865 3:4.3717642 4:0.71567809 5:-3.0421919 6:-1.5478626 7:0.2592005 8:-0.66682719 9:-0.66355936 10:2.0112848 11:2.0535697 12:-1.7123922 13:1.8790836 14:-0.37188453 15:-0.96949923 16:0.78786597 17:-0.4668897 18:-0.17571023 19:-0.28852675 20:-0.27474603 21:-0.29353232 22:-0.19506858 23:-0.31246488 
-0.4406871483429348 1:0 2:3.7957184 3:4.3717642 4:4.9415868 5:1.3144847 6:0.49399869 7:3.181097 8:2.9011024 9:-1.3303637 10:-1.5120465 11:0.70745782 12:0.61525127 13:-0.90783127 14:1.6381144 15:-0.90828028 16:0.21035011 17:0.8728789 18:-0.77589301 19:9.649617 20:3.2095334 21:24.616973 22:-0.19506858 23:5.9342817 
5.994842503189409 1:0 2:1.1003018 3:0.78170617 4:0.71567809 5:-0.37704368 6:1.5149293 7:0.2592005 8:0.092797873 9:-1.3303637 10:-1.5247991 11:0.44579086 12:0.15861719 13:2.3706789 14:-0.10433701 15:-0.54954985 16:1.1891287 17:0.44727919 18:-0.43602241 19:-0.28852675 20:-0.27474603 21:-0.29353232 22:2.2237818 23:4.669118 
-0.1720503454926831 1:0 2:13.078155 3:27.707141 4:7.0545411 5:4.5651123 6:8.6614437 7:4.6420453 8:8.9320565 9:-1.3303637 10:1.1127014 11:3.0257789 12:0.46595466 13:0.23526554 14:4.5953641 15:-0.54481992 16:0.25234005 17:1.3129327 18:-0.47593509 19:7.6619882 20:0.90186241 21:10.520021 22:4.6426322 23:4.0299468 
5.994842503189409 1:0 2:1.2358968 3:0.78170617 4:0.71567809 5:2.7383202 6:2.5358599 7:0.2592005 8:-0.0107865 9:-0.66781908 10:-0.45787035 11:-1.4751371 12:0.20478305 13:0.90622871 14:-0.63668982 15:-0.67915424 16:1.2194591 17:0.3719879 18:-1.2200056 19:-0.28852675 20:-0.27474603 21:-0.29353232 22:-0.19506858 23:-0.31246488 
-2.191158081567504 1:0 2:0.28980023 3:0.78170617 4:0.71567809 5:-1.7718369 6:0.49399869 7:0.2592005 8:0.9938589 9:-0.77879806 10:-1.4024234 11:-0.10023624 12:0.84092858 13:1.1006119 14:-0.63668982 15:-0.40424671 16:0.73311155 17:0.95007929 18:-0.33536965 19:-0.28852675 20:-0.27474603 21:-0.29353232 22:-0.19506858 23:-0.31246488 
3.431789777111625 1:0 2:-0.81250734 3:2.5767352 4:0.71567809 5:5.787081 6:0.49399869 7:1.7201487 8:0.7272544 9:-1.3303637 10:-1.5313584 11:0.53146286 12:0.33471083 13:-0.80781231 14:2.386952 15:-1.0896777 16:0.085097994 17:0.48167946 18:-0.36695072 19:1.699102 20:4.4240969 21:3.2574629 22:2.2237818 23:3.7663709 
0.2639575726616462 1:0 2:8.1134219 3:20.527025 4:4.9415868 5:4.5590439 6:9.6823744 7:3.181097 8:1.9759989 9:-1.3303637 10:1.1557697 11:0.89194959 12:-2.4969659 13:4.1535525 14:1.3312377 15:-0.94888592 16:0.93723105 17:-0.38159942 18:-0.60955835 19:3.6867307 20:4.6821918 21:5.7167544 22:2.2237818 23:3.9706421 
-0.330322123243455 1:0 2:10.135193 3:7.9618221 4:4.9415868 5:-0.41111175 6:2.5358599 7:4.6420453 8:8.8975306 9:-1.3303637 10:1.0833877 11:3.0196364 12:0.09660747 13:3.5084585 14:-0.54476884 15:-0.77173443 16:0.90972609 17:-1.7575301 18:-0.51219788 19:1.699102 20:4.9706504 21:4.4296218 22:-0.19506858 23:4.2408073 
-3.408573298708376 1:0 2:2.1126325 3:0.78170617 4:0.71567809 5:0.70987405 6:-0.52693194 7:0.2592005 8:0.50278891 9:-0.50788133 10:-1.1248952 11:-0.37869706 12:-0.77870564 13:0.63687673 14:-0.46689733 15:-0.7738201 16:0.54703978 17:0.94776302 18:-1.0500766 19:-0.28852675 20:-0.27474603 21:-0.29353232 22:-0.19506858 23:-0.31246488 
-0.3340987929669156 1:0 2:16.307894 3:24.117083 4:2.8286324 5:8.4718849 6:5.5986518 7:3.181097 8:2.9931816 9:-1.3303637 10:-1.5248073 11:0.44601332 12:0.1586197 13:-0.78796302 14:2.031731 15:-0.98765655 16:0.23607548 17:-2.0043019 18:-0.13160677 19:1.699102 20:2.7692541 21:2.4409242 22:4.6426322 23:2.8306767 
5.994842503189409 1:0 2:-0.37842733 3:-1.0133228 4:-1.3972763 5:-0.93897587 6:-0.52693194 7:-1.2017478 8:-0.83946906 9:1.3474425 10:1.1088397 11:0.53146286 12:0.33471083 13:-0.90783127 14:-0.63668982 15:1.3856075 16:-1.3440043 17:-1.3096929 18:1.3272227 19:-0.28852675 20:-0.27474603 21:-0.29353232 22:-0.19506858 23:-0.31246488 
-5.994842503189409 1:0 2:-0.62535141 3:4.3717642 4:0.71567809 5:-2.4883954 6:1.5149293 7:0.2592005 8:-0.49603434 9:-0.61902479 10:0.64662278 11:1.5227963 12:-2.2439404 13:-0.62570069 14:-0.40685078 15:-0.98636848 16:0.8521495 17:-0.23908362 18:-0.2943068 19:-0.28852675 20:-0.27474603 21:-0.29353232 22:-0.19506858 23:-0.31246488 
5.994842503189409 1:0 2:2.6433193 3:0.78170617 4:2.8286324 5:-0.0067309421 6:1.5149293 7:0.2592005 8:2.9586492 9:-1.3303637 10:-1.5299372 11:0.53146286 12:0.42860305 13:2.1562064 14:1.3518632 15:-0.52695587 16:0.27074544 17:1.3134572 18:-0.09890927 19:3.6867307 20:1.6685557 21:3.435279 22:-0.19506858 23:3.0481267 
-2.480623750716794 1:0 2:2.8188739 3:4.3717642 4:4.9415868 5:3.4687586 6:8.6614437 7:7.5639418 8:3.6204452 9:-1.3303637 10:-1.5308985 11:0.53146286 12:0.28129243 13:-0.90783127 14:0.61245609 15:-0.70314674 16:0.99159886 17:-1.1256757 18:-0.52512507 19:5.6743595 20:0.7955881 21:3.3316957 22:-0.19506858 23:4.3989529 
0.7727926280054381 1:0 2:5.9841399 3:25.912112 4:2.8286324 5:0.55053538 6:9.6823744 7:6.1029935 8:1.088365 9:-1.3303637 10:0.96725324 11:-1.8568829 12:1.1553882 13:5.7665422 14:0.72484556 15:-0.91767384 16:0.70852243 17:-1.8347362 18:-0.089295448 19:3.6867307 20:3.0728947 21:3.2281255 22:-0.19506858 23:3.5950465 
-5.994842503189409 1:0 2:-0.4498684 3:0.78170617 4:-1.3972763 5:7.2667725 6:0.49399869 7:-1.2017478 8:-0.83946906 9:1.3474425 10:1.1088397 11:0.53146286 12:0.33471083 13:-0.90783127 14:-0.63668982 15:1.3856075 16:-1.3440043 17:-1.3096929 18:1.3272227 19:-0.28852675 20:-0.27474603 21:-0.29353232 22:-0.19506858 23:-0.31246488 
-4.272176157922397 1:0 2:2.4300256 3:2.5767352 4:2.8286324 5:6.3564581 6:4.5777212 7:3.181097 8:5.2461583 9:-1.3303637 10:-1.5298816 11:0.53146286 12:0.43042869 13:1.7874586 14:0.83856731 15:-0.85556069 16:0.51642519 17:0.40165976 18:-0.47199365 19:3.6867307 20:0.86390733 21:4.6782097 22:2.2237818 23:0.67594444 
-0.1352774752303515 1:0 2:7.9181546 3:11.55188 4:7.0545411 5:2.0240516 6:4.5777212 7:4.6420453 8:7.1365831 9:-1.3303637 10:-1.5285613 11:0.60817968 12:0.23665459 13:2.267383 14:-0.37615026 15:-0.82313357 16:0.96310892 17:-0.85054878 18:-0.40765469 19:9.649617 20:0.40085495 21:14.24881 22:2.2237818 23:0.27399131 
4.509791591268907 1:0 2:0.7505528 3:6.1667932 4:2.8286324 5:2.4288791 6:10.703305 7:1.7201487 8:-0.33415214 9:-0.42254794 10:2.3503702 11:-0.27339271 12:2.6861329 13:1.1356509 14:1.2885213 15:-0.85602398 16:0.81630023 17:0.25930497 18:-1.1076322 19:-0.28852675 20:-0.27474603 21:-0.29353232 22:-0.19506858 23:-0.31246488 
4.745859103092561 1:0 2:-1.8473878 3:2.5767352 4:0.71567809 5:-2.3192132 6:-1.5478626 7:0.2592005 8:-0.59777063 9:-1.3303637 10:-1.5292252 11:0.53146286 12:0.21968076 13:0.27604563 14:-0.47771214 15:-1.0627885 16:0.288876 17:-0.74909006 18:-0.27577318 19:1.699102 20:4.0445458 21:3.0623997 22:-0.19506858 23:3.4369012 
-5.994842503189409 1:0 2:-0.55634042 3:0.78170617 4:0.71567809 5:-0.56313998 6:0.49399869 7:1.7201487 8:0.23090968 9:-0.34894866 10:-0.7500259 11:-0.24676071 12:-1.4915743 13:1.9002012 14:-0.095810899 15:-0.68463438 16:0.86701189 17:0.83776544 18:-0.21086144 19:-0.28852675 20:-0.27474603 21:-0.29353232 22:-0.19506858 23:-0.31246488 
-5.994842503189409 1:0 2:0.36307971 3:-1.0133228 4:0.71567809 5:-0.18208094 6:-0.52693194 7:1.7201487 8:2.2706409 9:-1.3303637 10:1.1586891 11:0.91319412 12:-2.4932467 13:0.95570713 14:-0.40284866 15:-1.0326493 16:0.9171987 17:0.5217438 18:-0.27626097 19:1.699102 20:1.1827302 21:0.88495526 22:-0.19506858 23:0.95269901 
5.994842503189409 1:0 2:0.82794722 3:2.5767352 4:0.71567809 5:3.7098589 6:2.5358599 7:3.181097 8:0.40457491 9:-0.55858768 10:1.7203264 11:-0.95056326 12:2.5407224 13:-0.70455981 14:1.6283963 15:-0.80196012 16:0.68836597 17:0.37148454 18:-0.18189704 19:1.699102 20:5.0617429 21:2.6526866 22:-0.19506858 23:4.3198802 
5.994842503189409 1:0 2:-0.9345487 3:0.78170617 4:0.71567809 5:-0.80985715 6:0.49399869 7:1.7201487 8:0.1618505 9:-0.90052704 10:1.2738495 11:1.1564244 12:-2.4305288 13:-0.90783127 14:-0.41062883 15:-0.41051422 16:1.5096687 17:-0.049210552 18:-1.2414801 19:-0.28852675 20:-0.27474603 21:-0.29353232 22:-0.19506858 23:-0.31246488 
-5.994842503189409 1:0 2:1.6449724 3:0.78170617 4:0.71567809 5:-1.7134429 6:-0.52693194 7:1.7201487 8:2.8599249 9:-1.3303637 10:1.061775 11:0.17104218 12:3.166396 13:1.2564505 14:1.5253303 15:-0.73385786 16:-0.3059326 17:1.3184374 18:-0.50934938 19:1.699102 20:2.3213837 21:1.4741991 22:-0.19506858 23:1.9411084 
5.994842503189409 1:0 2:1.2468917 3:0.78170617 4:0.71567809 5:-0.91355457 6:-0.52693194 7:0.2592005 8:-0.61030306 9:-0.45536828 10:-0.63658052 11:2.2682792 12:-0.47039198 13:-0.65353675 14:-0.44341608 15:-0.94396229 16:0.17348529 17:1.080858 18:-0.55681132 19:-0.28852675 20:-0.27474603 21:-0.29353232 22:-0.19506858 23:-0.31246488 
-5.994842503189409 1:0 2:0.51202313 3:2.5767352 4:2.8286324 5:3.1686048 6:3.5567906 7:1.7201487 8:1.3358169 9:-1.3303637 10:1.1332485 11:-1.9505308 12:0.64633446 13:-0.90783127 14:2.7060248 15:-0.23898038 16:-0.24045194 17:0.91892631 18:-0.85158868 19:3.6867307 20:2.1088351 21:3.9324416 22:-0.19506858 23:2.4814386 
5.994842503189409 1:0 2:-2.651551 3:-1.0133228 4:0.71567809 5:-0.23251213 6:1.5149293 7:1.7201487 8:0.60100291 9:-0.57296577 10:-1.5309684 11:0.53146286 12:0.28551681 13:-0.74574496 14:-0.14677185 15:-0.32593606 16:1.3076073 17:0.56492148 18:-0.84132446 19:-0.28852675 20:-0.27474603 21:-0.29353232 22:-0.19506858 23:-0.31246488 
-5.994842503189409 1:0 2:-0.28932259 3:-1.0133228 4:0.71567809 5:-1.0023485 6:-1.5478626 7:0.2592005 8:0.43807896 9:-1.3303637 10:-1.5261189 11:0.61001222 12:0.17859027 13:-0.61728162 14:-0.55029673 15:-1.0178418 16:0.33712852 17:0.63372618 18:-0.10900087 19:-0.28852675 20:-0.27474603 21:-0.29353232 22:2.2237818 23:3.6543511 
-5.994842503189409 1:0 2:-0.19295877 3:0.78170617 4:0.71567809 5:1.0802633 6:-0.52693194 7:1.7201487 8:0.33449432 9:-0.79163865 10:-1.2820315 11:1.0674291 12:-0.71251866 13:1.3148778 14:1.3581936 15:-0.53776491 16:0.62340124 17:0.69615762 18:-0.82376686 19:-0.28852675 20:-0.27474603 21:-0.29353232 22:-0.19506858 23:-0.31246488 
-1.591755052020679 1:0 2:1.5300601 3:4.3717642 4:0.71567809 5:2.8504716 6:2.5358599 7:1.7201487 8:1.4849289 9:-1.3303637 10:1.1567494 11:0.88719077 12:-2.4977375 13:3.4640276 14:-0.1069347 15:-0.51190919 16:1.4809862 17:0.20821033 18:-0.68329279 19:3.6867307 20:3.9838177 21:7.366637 22:-0.19506858 23:3.384186 
0.02551062554785356 1:0 2:10.102871 3:24.117083 4:13.393404 5:16.244857 6:9.6823744 7:6.1029935 8:7.8962064 9:-1.3303637 10:1.2085377 11:3.0266224 12:0.34044642 13:-0.69819609 14:4.065898 15:-0.28812073 16:-0.7620772 17:1.8662275 18:-0.094690398 19:7.6619882 20:2.7085258 21:9.152787 22:2.2237818 23:4.3396482 
-5.994842503189409 1:0 2:0.29606902 3:0.78170617 4:0.71567809 5:-0.47306789 6:0.49399869 7:0.2592005 8:-0.32154408 9:-0.43176125 10:-0.47537519 11:0.3285916 12:-1.9430664 13:-0.093518799 14:-0.40454549 15:-0.87868749 16:0.96700439 17:0.31971848 18:-0.2632659 19:-0.28852675 20:-0.27474603 21:-0.29353232 22:-0.19506858 23:-0.31246488 
-3.037178403750657 1:0 2:4.0437019 3:9.7568511 4:2.8286324 5:0.4678401 6:1.5149293 7:0.2592005 8:1.1977063 9:-1.3303637 10:3.7462409 11:0.45475817 12:0.43276774 13:1.2012778 14:0.99765121 15:-0.9326967 16:-0.19301543 17:1.3226205 18:-0.97767923 19:1.699102 20:0.40085495 21:0.079348232 22:2.2237818 23:0.27399131 
-5.994842503189409 1:0 2:0.31443757 3:-1.0133228 4:0.71567809 5:0.89731113 6:1.5149293 7:1.7201487 8:0.1618554 9:-0.68429172 10:-0.70002723 11:-1.1002459 12:-0.58635942 13:1.9537486 14:2.0566837 15:-0.67850606 16:0.84711079 17:0.222228 18:-1.330994 19:-0.28852675 20:-0.27474603 21:-0.29353232 22:-0.19506858 23:-0.31246488 
-0.908562968250443 1:0 2:2.3381873 3:6.1667932 4:2.8286324 5:5.9063303 6:1.5149293 7:4.6420453 8:2.3371383 9:-1.3303637 10:0.79162636 11:-1.9226439 12:0.73523461 13:-0.78777495 14:1.8890265 15:-1.1351761 16:0.35342188 17:-1.6985097 18:-1.1581882 19:1.699102 20:6.7241769 21:6.4183196 22:-0.19506858 23:5.7629579 
-0.00111497249333716 1:0 2:4.4892715 3:27.707141 4:11.28045 5:6.8541756 6:14.787027 7:9.02489 8:6.497808 9:-1.3303637 10:-1.5308979 11:0.53146286 12:0.28126592 13:4.7159293 14:-0.49291261 15:-0.29868363 16:1.5508029 17:-0.87878982 18:-1.3665836 19:9.649617 20:3.1032588 21:13.482339 22:2.2237818 23:2.619816 
-0.07367539103718648 1:0 2:13.918226 3:16.936967 4:9.1674955 5:12.455663 6:10.703305 7:9.02489 8:15.181686 9:-1.3303637 10:1.20109 11:-1.9600208 12:0.17409863 13:-0.80183145 14:2.1682257 15:-1.1173682 16:0.30885788 17:-1.6946975 18:-0.5268464 19:9.649617 20:2.6098425 21:19.220561 22:-0.19506858 23:3.2523979 
-5.994842503189409 1:0 2:0.31641312 3:4.3717642 4:2.8286324 5:1.1726684 6:0.49399869 7:1.7201487 8:2.8895954 9:-1.3303637 10:0.79161583 11:-1.9226523 12:0.73515678 13:2.7150273 14:-0.39586952 15:-0.55164225 16:1.2064517 17:-0.36655798 18:-0.66263327 19:1.699102 20:6.261124 21:5.0510975 22:-0.19506858 23:5.3610043 
2.902140852631682 1:0 2:0.62404363 3:4.3717642 4:2.8286324 5:1.8496333 6:6.6195825 7:4.6420453 8:2.6478933 9:-1.3303637 10:-1.5292213 11:0.53146286 12:0.219578 13:2.9059999 14:-0.45486425 15:-0.10973892 16:1.09029 17:0.17929376 18:-0.698813 19:3.6867307 20:1.8886953 21:4.305327 22:-0.19506858 23:3.4632587 
0.4704099897780574 1:0 2:5.2406635 3:9.7568511 4:7.0545411 5:3.6729763 6:1.5149293 7:4.6420453 8:1.2322338 9:-1.3303637 10:3.7376574 11:0.3557109 12:0.16184441 13:3.9494195 14:0.98967113 15:-1.0205011 16:0.53063149 17:-0.098215877 18:-0.16923122 19:5.6743595 20:3.7864509 21:9.9606884 22:-0.19506858 23:5.9935863 
-0.01125570241150133 1:0 2:9.5005915 3:34.887257 4:17.619313 5:8.2724704 6:8.6614437 7:7.5639418 8:14.35301 9:-1.3303637 10:-1.5292213 11:0.53146286 12:0.219578 13:4.1818227 14:-0.35353139 15:-0.10973892 16:1.09029 17:0.17929376 18:-0.698813 19:9.649617 20:2.1088351 21:11.017179 22:-0.19506858 23:3.4632587 
5.994842503189409 1:0 2:0.43935144 3:4.3717642 4:0.71567809 5:-0.21315351 6:0.49399869 7:0.2592005 8:-0.42800478 9:-0.48396937 10:-0.80681941 11:0.14000337 12:-1.5830449 13:-0.59824687 14:-0.37816456 15:-0.77646759 16:0.80191592 17:0.1699877 18:-0.52848743 19:-0.28852675 20:-0.27474603 21:-0.29353232 22:-0.19506858 23:-0.31246488 
2.714786928125512 1:0 2:1.3220341 3:2.5767352 4:4.9415868 5:-1.1026959 6:-0.52693194 7:0.2592005 8:1.5504049 9:-1.3303637 10:1.0589902 11:0.14973094 12:3.1626679 13:1.6802364 14:1.6505733 15:-0.24459789 16:0.8731974 17:0.62699632 18:-0.69771433 19:5.6743595 20:1.0233188 21:8.309427 22:2.2237818 23:0.81432176 
0.4353625410535383 1:0 2:4.6448297 3:9.7568511 4:4.9415868 5:4.9069571 6:4.5777212 7:7.5639418 8:5.0303514 9:-1.3303637 10:1.0187834 11:-1.9456618 12:-0.011705112 13:-0.51742053 14:2.4670113 15:-0.16200713 16:-0.71473059 17:1.3200277 18:-0.24156889 19:5.6743595 20:2.6250245 21:7.5369638 22:-0.19506858 23:2.9690541 
-5.710368812348826 1:0 2:1.7919806 3:0.78170617 4:0.71567809 5:1.556813 6:2.5358599 7:0.2592005 8:0.26543842 9:-1.3303637 10:0.7916355 11:-1.922659 12:0.73512002 13:-0.67417754 14:2.0992511 15:-0.79459993 16:0.62089369 17:0.56446821 18:-1.0807765 19:1.699102 20:5.6690245 21:4.3053268 22:-0.19506858 23:4.8470317 
-0.2905284312429499 1:0 2:2.2264043 3:11.55188 4:-1.3972763 5:4.0459558 6:5.5986518 7:-1.2017478 8:-0.83946906 9:1.3474425 10:1.1088397 11:0.53146286 12:0.33471083 13:-0.90783127 14:-0.63668982 15:1.3856075 16:-1.3440043 17:-1.3096929 18:1.3272227 19:-0.28852675 20:-0.27474603 21:-0.29353232 22:-0.19506858 23:-0.31246488 
-0.297287348845949 1:0 2:6.3474252 3:9.7568511 4:4.9415868 5:8.3479938 6:4.5777212 7:1.7201487 8:3.2003484 9:-1.3303637 10:1.3498695 11:-1.9254649 12:0.77311036 13:-0.90783127 14:3.1607184 15:-1.0999489 16:0.058912642 17:-0.52452182 18:-0.43704771 19:5.6743595 20:3.6574035 21:15.616062 22:2.2237818 23:3.1008418 
2.881343689046373 1:0 2:6.8259766 3:6.1667932 4:2.8286324 5:-2.2130406 6:0.49399869 7:0.2592005 8:3.0563529 9:-0.6527613 10:1.5404695 11:2.9589218 12:-0.1455425 13:-0.5653918 14:-0.44341608 15:-1.0912695 16:0.19792711 17:0.99355466 18:-0.84967765 19:-0.28852675 20:-0.27474603 21:-0.29353232 22:-0.19506858 23:-0.31246488 
2.223478817943938 1:0 2:-0.501969 3:-1.0133228 4:-1.3972763 5:-1.2015551 6:-0.52693194 7:-1.2017478 8:-0.83946906 9:1.3474425 10:1.1088397 11:0.53146286 12:0.33471083 13:-0.90783127 14:-0.63668982 15:1.3856075 16:-1.3440043 17:-1.3096929 18:1.3272227 19:-0.28852675 20:-0.27474603 21:-0.29353232 22:-0.19506858 23:-0.31246488 
0.02198966062635063 1:0 2:5.5544315 3:11.55188 4:7.0545411 5:7.0353342 6:8.6614437 7:3.181097 8:1.0595926 9:-0.93083003 10:1.2824866 11:-1.3295941 12:-1.5641324 13:0.090532257 14:3.2850071 15:-1.1398248 16:0.30817311 17:-1.7768188 18:-0.25259441 19:5.6743595 20:5.7601167 21:7.5369652 22:-0.19506858 23:6.0792485 
-0.006789473244934668 1:0 2:1.9077483 3:7.9618221 4:9.1674955 5:2.8062107 6:3.5567906 7:4.6420453 8:8.3680899 9:-1.3303637 10:-1.5308992 11:0.53146286 12:0.28132381 13:-0.74255836 14:3.2732663 15:-0.97280849 16:-0.20634455 17:0.29962524 18:-0.64063744 19:1.699102 20:2.807209 21:1.3637158 22:2.2237818 23:2.3628296 
0.7778862134997798 1:0 2:7.1167535 3:16.936967 4:4.9415868 5:9.1552573 6:5.5986518 7:1.7201487 8:1.1631734 9:-1.3303637 10:1.1227673 11:-1.9429396 12:0.71814043 13:5.1012394 14:-0.63668982 15:-0.68619566 16:1.4644756 17:-0.75172831 18:-0.31611779 19:3.6867307 20:9.851678 21:4.6782122 22:2.2237818 23:5.6970637 
1.056143430254291 1:0 2:-0.43297998 3:4.3717642 4:4.9415868 5:0.52203359 6:2.5358599 7:1.7201487 8:-0.010788101 9:-1.3303637 10:-1.5251244 11:0.6947903 12:0.27479579 13:3.0571985 14:0.69756605 15:-0.37498487 16:1.2223065 17:0.56803865 18:-1.2162147 19:1.699102 20:0.65894974 21:-0.16923842 22:-0.19506858 23:0.49803077 
1.123615837206588 1:0 2:3.4818419 3:6.1667932 4:0.71567809 5:5.5498457 6:3.5567906 7:0.2592005 8:0.92147848 9:-1.3303637 10:1.0119275 11:3.0228615 12:0.17559572 13:-0.90783127 14:-0.39218906 15:-0.62882435 16:1.0841171 17:-0.052395024 18:-0.48474462 19:3.6867307 20:6.3977627 21:12.881594 22:-0.19506858 23:5.5718654 
-1.954495381849592 1:0 2:1.884434 3:2.5767352 4:0.71567809 5:-1.4691579 6:1.5149293 7:3.181097 8:0.24414037 9:-1.3303637 10:1.1643378 11:-1.9203644 12:0.87299017 13:-0.90783127 14:1.4120806 15:-1.1620177 16:-0.11124868 17:-0.10869663 18:-0.39120161 19:3.6867307 20:0.082032019 21:2.3966202 22:-0.19506858 23:2.6593526 
-5.994842503189409 1:0 2:0.3595428 3:2.5767352 4:0.71567809 5:1.4802474 6:3.5567906 7:1.7201487 8:0.43807767 9:-1.3303637 10:1.188567 11:2.9806926 12:0.88481931 13:-0.020033001 14:1.6008009 15:-1.0453759 16:0.075896256 17:0.44831968 18:-1.2932025 19:3.6867307 20:3.6953587 21:6.7911932 22:-0.19506858 23:3.1337889 
0.6576225957355962 1:0 2:3.7137884 3:7.9618221 4:11.28045 5:10.026126 6:0.49399869 7:1.7201487 8:8.6558274 9:-1.3303637 10:3.7428038 11:0.36813786 12:0.39463103 13:3.4805063 14:0.4600594 15:-0.55535058 16:1.3345012 17:-0.28077761 18:-0.55303059 19:9.649617 20:2.6098425 21:10.520003 22:-0.19506858 23:5.9211032 
0.07250479633237115 1:0 2:5.4465384 3:4.3717642 4:7.0545411 5:6.0319686 6:3.5567906 7:6.1029935 8:5.7813421 9:-1.3303637 10:0.95347195 11:-1.9273311 12:0.80380046 13:-0.90783127 14:3.1370363 15:-0.29988689 16:-0.61687715 17:1.6448811 18:-0.23288835 19:15.612503 20:3.5511292 21:34.042576 22:-0.19506858 23:5.9342817 
5.780786507114858 1:0 2:1.2445698 3:4.3717642 4:0.71567809 5:-2.4057284 6:-0.52693194 7:0.2592005 8:-0.4596559 9:-1.3303637 10:1.2178398 11:0.31648886 12:-2.514331 13:1.9693033 14:-0.44039249 15:-0.44361658 16:0.71605964 17:0.97240845 18:-0.95139123 19:1.699102 20:3.7940421 21:2.4409242 22:-0.19506858 23:3.2194512 
-0.00543547023168486 1:0 2:2.2124948 3:6.1667932 4:7.0545411 5:3.6691468 6:5.5986518 7:9.02489 8:11.079604 9:-1.3303637 10:1.2049329 11:-1.9603585 12:0.485493 13:1.1311651 14:0.74801368 15:-0.97135572 16:0.81699775 17:-1.4135419 18:-0.054288323 19:15.612503 20:1.5546904 21:25.683422 22:4.6426322 23:4.2605756 
5.994842503189409 1:0 2:0.4041031 3:-1.0133228 4:-1.3972763 5:-1.1815472 6:-1.5478626 7:-1.2017478 8:-0.83946906 9:1.3474425 10:1.1088397 11:0.53146286 12:0.33471083 13:-0.90783127 14:-0.63668982 15:1.3856075 16:-1.3440043 17:-1.3096929 18:1.3272227 19:-0.28852675 20:-0.27474603 21:-0.29353232 22:-0.19506858 23:-0.31246488 
-5.994842503189409 1:0 2:-0.87477971 3:0.78170617 4:0.71567809 5:-0.62228497 6:-0.52693194 7:0.2592005 8:-0.42800478 9:-0.48396937 10:-0.80681941 11:0.14000337 12:-1.5830449 13:-0.59824687 14:-0.37816456 15:-0.77646759 16:0.80191592 17:0.1699877 18:-0.52848743 19:-0.28852675 20:-0.27474603 21:-0.29353232 22:-0.19506858 23:-0.31246488 
0.1666387299018391 1:0 2:6.8255772 3:22.322054 4:2.8286324 5:5.6114242 6:8.6614437 7:3.181097 8:3.5801609 9:-1.3303637 10:1.1331103 11:-1.9379248 12:0.75794493 13:-0.72114558 14:3.274742 15:-0.78714081 16:-0.0049394245 17:0.86980351 18:-0.66246529 19:3.6867307 20:2.7009348 21:5.1753808 22:-0.19506858 23:2.7581933 
-0.4170203420778457 1:0 2:3.2902436 3:2.5767352 4:2.8286324 5:0.93799452 6:5.5986518 7:6.1029935 8:3.681788 9:-1.3303637 10:-1.5238115 11:0.53146286 12:0.11845875 13:3.260206 14:-0.45935626 15:-0.59591025 16:1.28357 17:-0.076725711 18:-0.4451972 19:19.587761 20:0.051667936 21:20.481551 22:16.736884 23:5.4268986 
5.994842503189409 1:0 2:1.5941572 3:0.78170617 4:0.71567809 5:-0.42067436 6:1.5149293 7:1.7201487 8:0.36902409 9:-1.3303637 10:-1.5142191 11:0.53146286 12:0.0091170766 13:1.194539 14:0.61370792 15:-0.5468292 16:0.98990567 17:-0.085968707 18:-0.33110073 19:1.699102 20:3.847179 21:3.9013766 22:2.2237818 23:3.2655767 
-5.994842503189409 1:0 2:0.012475572 3:-1.0133228 4:0.71567809 5:-0.7398426 6:0.49399869 7:0.2592005 8:-0.77041218 9:-0.44177176 10:-0.9201219 11:0.13368228 12:-1.4389872 13:0.63909541 14:1.4634098 15:-0.6274055 16:0.95944551 17:0.22596633 18:-0.88829624 19:-0.28852675 20:-0.27474603 21:-0.29353232 22:-0.19506858 23:-0.31246488 
0.07540255932301648 1:0 2:-0.73468634 3:2.5767352 4:4.9415868 5:2.8568144 6:2.5358599 7:6.1029935 8:7.8616738 9:-1.3303637 10:1.0726701 11:0.43087742 12:-2.5248154 13:0.50588204 14:1.8636793 15:-1.1631768 16:0.30983586 17:-0.86193708 18:-0.5661063 19:15.612503 20:2.5870694 21:26.305309 22:4.6426322 23:5.637759 
-5.994842503189409 1:0 2:0.89711204 3:0.78170617 4:0.71567809 5:0.15743364 6:0.49399869 7:1.7201487 8:0.74883755 9:-0.51097825 10:-0.52936141 11:-1.0385048 12:-1.0067231 13:-0.90783127 14:0.97939106 15:-0.78941345 16:0.14269269 17:0.96864082 18:-0.22955432 19:-0.28852675 20:-0.27474603 21:-0.29353232 22:-0.19506858 23:-0.31246488 
-0.2350925316751399 1:0 2:2.2896019 3:4.3717642 4:2.8286324 5:11.580094 6:3.5567906 7:1.7201487 8:3.5801661 9:-1.3303637 10:1.0943505 11:-1.8846591 12:-0.38742719 13:0.48242133 14:4.3118902 15:-0.41092661 16:0.056352832 17:0.65294233 18:-0.22985879 19:5.6743595 20:2.8983012 21:11.514371 22:-0.19506858 23:5.1040183 
3.807704311837969 1:0 2:0.05001463 3:0.78170617 4:2.8286324 5:-1.1727485 6:3.5567906 7:1.7201487 8:0.29996715 9:-1.3303637 10:1.2085381 11:3.0266221 12:0.34060733 13:-0.60395644 14:0.27366079 15:-0.85878347 16:1.1004661 17:-1.3859685 18:-0.17341506 19:3.6867307 20:3.6877675 21:10.892896 22:2.2237818 23:3.1271994 
0.4930889396147976 1:0 2:3.5045348 3:2.5767352 4:0.71567809 5:0.61865673 6:0.49399869 7:1.7201487 8:0.023739657 9:-1.3303637 10:-1.5260236 11:0.62854903 12:0.19087685 13:0.74868212 14:1.1747894 15:-0.7068719 16:1.1591987 17:0.1624523 18:-0.68446403 19:3.6867307 20:4.7125558 21:8.6556078 22:-0.19506858 23:4.016768 
1.693312824219999 1:0 2:4.585645 3:0.78170617 4:2.8286324 5:9.307772 6:4.5777212 7:1.7201487 8:3.2348798 9:-1.3303637 10:3.7473453 11:0.44865369 12:0.29610646 13:2.2865037 14:2.991038 15:-0.31873694 16:0.53023596 17:0.98084606 18:-0.48717694 19:1.699102 20:4.0976831 21:2.316629 22:-0.19506858 23:3.483027 
5.994842503189409 1:0 2:-1.2199356 3:0.78170617 4:0.71567809 5:0.35354794 6:0.49399869 7:1.7201487 8:1.370346 9:-1.3303637 10:-1.5293651 11:0.53146286 12:0.4459072 13:-0.90783127 14:2.0632329 15:-0.79125467 16:-0.23653323 17:1.291816 18:-1.3136203 19:1.699102 20:0.75763303 21:0.079348232 22:-0.19506858 23:0.58369291 
-5.994842503189409 1:0 2:1.9916978 3:-1.0133228 4:0.71567809 5:0.82171804 6:0.49399869 7:1.7201487 8:3.2607755 9:-1.3303637 10:-1.5298816 11:0.53146286 12:0.43042869 13:1.7874586 14:0.83856731 15:-0.85556069 16:0.51642519 17:0.40165976 18:-0.47199365 19:3.6867307 20:0.86390733 21:4.6782097 22:2.2237818 23:0.67594444 
0.9418713694175895 1:0 2:0.024351957 3:6.1667932 4:2.8286324 5:1.3619117 6:-0.52693194 7:0.2592005 8:0.71430914 9:-1.3303637 10:3.7436839 11:0.68612989 12:0.37664198 13:2.1303362 14:-0.63668982 15:-0.19014211 16:-0.30503019 17:1.2598996 18:-0.85155607 19:3.6867307 20:2.0101517 21:2.9381035 22:-0.19506858 23:2.6659418 
-5.994842503189409 1:0 2:0.81024738 3:0.78170617 4:0.71567809 5:-1.3902334 6:0.49399869 7:0.2592005 8:0.23090968 9:-0.45362038 10:-1.2077649 11:0.0053037755 12:-0.8986691 13:-0.034465742 14:0.14327775 15:-0.70178901 16:0.60655793 17:0.71346051 18:-0.20260887 19:-0.28852675 20:-0.27474603 21:-0.29353232 22:-0.19506858 23:-0.31246488 
-0.6629210281673434 1:0 2:7.7953478 3:6.1667932 4:4.9415868 5:7.3848727 6:2.5358599 7:6.1029935 8:9.5880998 9:-1.3303637 10:3.7437028 11:0.43437633 12:0.47854401 13:-0.50627547 14:1.2414415 15:-1.1365235 16:0.4149658 17:-0.70584284 18:-0.78698464 19:5.6743595 20:1.0157278 21:4.8025061 22:2.2237818 23:0.80773238 
-5.994842503189409 1:0 2:-0.73935025 3:2.5767352 4:0.71567809 5:-1.7118595 6:-0.52693194 7:0.2592005 8:-0.4596559 9:-1.3303637 10:1.1329991 11:-1.9505588 12:0.64606471 13:2.6814964 14:1.9100181 15:-0.88174219 16:0.62275584 17:-0.19548821 18:-1.1066676 19:1.699102 20:3.2626703 21:2.6895144 22:-0.19506858 23:2.7581933 
5.994842503189409 1:0 2:-1.0165328 3:0.78170617 4:0.71567809 5:1.1870055 6:1.5149293 7:0.2592005 8:-0.70135562 9:-0.44989471 10:-0.64750328 11:-0.41937195 12:-1.5034266 13:0.23010659 14:0.17388135 15:-0.80947 16:0.81170382 17:0.36292528 18:-0.23032938 19:-0.28852675 20:-0.27474603 21:-0.29353232 22:-0.19506858 23:-0.31246488 
-3.865674914707857 1:0 2:-0.11385584 3:0.78170617 4:0.71567809 5:1.3825308 6:-0.52693194 7:0.2592005 8:0.84378792 9:-0.75060169 10:-0.56704083 11:-1.3913937 12:0.51700242 13:1.6550481 14:-0.63668982 15:-0.581566 16:1.0171769 17:1.0645746 18:-0.6917667 19:-0.28852675 20:-0.27474603 21:-0.29353232 22:-0.19506858 23:-0.31246488 
0.03898305228563306 1:0 2:4.806373 3:4.3717642 4:2.8286324 5:10.037851 6:2.5358599 7:6.1029935 8:6.3683227 9:-1.3303637 10:-1.5296352 11:0.61787531 12:0.36432554 13:1.3199498 14:3.2909463 15:-0.96317022 16:0.50808788 17:0.31568213 18:-0.60941887 19:15.612503 20:1.721693 21:26.118873 22:9.4803329 23:4.5636878 
5.994842503189409 1:0 2:0.80967936 3:4.3717642 4:2.8286324 5:-1.0514636 6:-0.52693194 7:1.7201487 8:2.9241176 9:-0.55360514 10:-0.41201928 11:-1.4697483 12:-0.12531677 13:2.7750973 14:1.4321541 15:-0.3868563 16:1.4904201 17:0.20761862 18:-0.86609106 19:-0.28852675 20:-0.27474603 21:-0.29353232 22:-0.19506858 23:-0.31246488 
-0.7062041202262028 1:0 2:-1.5262218 3:2.5767352 4:2.8286324 5:-0.34781103 6:3.5567906 7:1.7201487 8:-0.11437478 9:-0.26074523 10:-0.90993468 11:-1.0777196 12:0.32482863 13:0.50481238 14:4.412131 15:-0.6691819 16:-0.074714505 17:1.4449619 18:-1.2025453 19:3.6867307 20:2.9058924 21:2.4409314 22:-0.19506858 23:3.9574634 
5.909823718271898 1:0 2:3.3207436 3:6.1667932 4:4.9415868 5:8.2515558 6:4.5777212 7:4.6420453 8:5.3065795 9:-1.3303637 10:0.77305999 11:2.9597719 12:0.89297749 13:2.353414 14:2.4869899 15:-0.29648595 16:0.47746424 17:0.44260087 18:-0.28605665 19:3.6867307 20:3.6953587 21:6.6668983 22:-0.19506858 23:3.4434904 
0.7279178853400884 1:0 2:-2.5645004 3:0.78170617 4:2.8286324 5:-0.52130166 6:1.5149293 7:1.7201487 8:-0.73588406 9:-0.45440181 10:0.94093366 11:-0.7948758 12:2.7528175 13:-0.50198454 14:2.9091252 15:-1.2730116 16:-0.1154892 17:-0.88883307 18:-0.21088138 19:1.699102 20:2.9058924 21:0.079348232 22:-0.19506858 23:2.4484918 
-0.6238146271922381 1:0 2:2.2099195 3:4.3717642 4:2.8286324 5:0.03379071 6:4.5777212 7:3.181097 8:3.1658232 9:-1.3303637 10:-1.5300169 11:0.61103369 12:0.33635959 13:3.3629084 14:-0.53400101 15:-0.84147787 16:1.3643661 17:-1.2294445 18:-0.71602779 19:1.699102 20:5.8132543 21:5.1753808 22:4.6426322 23:4.9722305 
5.994842503189409 1:0 2:-2.6623655 3:-1.0133228 4:0.71567809 5:-1.3030464 6:-1.5478626 7:0.2592005 8:0.61072288 9:-1.3303637 10:1.1347991 11:-1.9460594 12:0.68989333 13:-0.76348216 14:0.21658542 15:-0.8492032 16:-0.20373447 17:1.1298465 18:-0.81265852 19:1.699102 20:1.767239 21:1.1979852 22:-0.19506858 23:1.4600825 
5.994842503189409 1:0 2:2.9704777 3:-1.0133228 4:0.71567809 5:1.6156673 6:2.5358599 7:3.181097 8:1.5807317 9:-1.3303637 10:-1.5238115 11:0.53146286 12:0.11845875 13:3.4445025 14:-0.45935626 15:-0.59591025 16:1.28357 17:-0.076725711 18:-0.4451972 19:7.6619882 20:1.2965956 21:5.1635133 22:7.0614825 23:1.6709431 
0.7503271748791069 1:0 2:1.9352764 3:9.7568511 4:4.9415868 5:3.9575262 6:3.5567906 7:3.181097 8:2.440722 9:-1.3303637 10:1.081578 11:-1.882873 12:1.0642274 13:1.6051281 14:3.2552009 15:-0.766867 16:0.056408513 17:0.50958066 18:-0.88339621 19:5.6743595 20:1.8886953 21:6.5426149 22:-0.19506858 23:3.4632587 
2.740356347682364 1:0 2:4.9699442 3:6.1667932 4:4.9415868 5:6.3771917 6:0.49399869 7:3.181097 8:4.0980833 9:-1.3303637 10:1.1331201 11:-1.937924 12:0.75795014 13:2.6483769 14:2.5304761 15:-0.41551049 16:0.8139652 17:0.88685463 18:-0.10435233 19:3.6867307 20:4.3102315 21:8.9041977 22:-0.19506858 23:3.6675299 
-5.318732869273334 1:0 2:-2.684479 3:-1.0133228 4:0.71567809 5:-2.598491 6:-0.52693194 7:0.2592005 8:-0.83946906 9:1.3474425 10:1.1088397 11:0.53146286 12:0.33471083 13:-0.90783127 14:-0.63668982 15:1.3856075 16:-1.3440043 17:-1.3096929 18:1.3272227 19:1.699102 20:4.6290545 21:3.4352731 22:-0.19506858 23:3.9442846 
0.04980579240785617 1:0 2:9.3058905 3:16.936967 4:4.9415868 5:6.4919532 6:9.6823744 7:4.6420453 8:1.7846855 9:-1.3303637 10:1.0216278 11:-1.9608707 12:0.18878534 13:-0.75276864 14:1.5149084 15:-0.61132013 16:0.76929683 17:0.9779552 18:-0.47853191 19:1.699102 20:11.9468 21:1.3222803 22:2.2237818 23:4.1749134 
-0.0959980837541584 1:0 2:14.047033 3:31.297199 4:13.393404 5:8.7925791 6:11.724236 7:9.02489 8:6.0086581 9:-1.3303637 10:-1.5199761 11:0.70722188 12:0.50760202 13:4.3164035 14:-0.49800955 15:1.1261606 16:0.97807582 17:-1.0517187 18:-0.83738847 19:5.6743595 20:1.4863711 21:6.1283176 22:7.0614825 23:4.0760724 
5.994842503189409 1:0 2:1.3290075 3:2.5767352 4:0.71567809 5:0.433516 6:1.5149293 7:0.2592005 8:0.6591554 9:-0.78493269 10:0.78151404 11:-1.940372 12:0.52969995 13:1.1069073 14:2.5386522 15:0.39032329 16:0.56053072 17:0.68622224 18:-0.53034712 19:-0.28852675 20:-0.27474603 21:-0.29353232 22:-0.19506858 23:-0.31246488 
5.994842503189409 1:0 2:-1.2893587 3:0.78170617 4:0.71567809 5:2.0237522 6:3.5567906 7:3.181097 8:2.9586495 9:-0.75917569 10:-1.0437611 11:-0.16940224 12:-1.1147491 13:-0.90783127 14:2.9627496 15:-0.91486851 16:0.40629426 17:0.83501319 18:-0.74529792 19:-0.28852675 20:-0.27474603 21:-0.29353232 22:-0.19506858 23:-0.31246488 
-0.08773326294946167 1:0 2:0.47234412 3:4.3717642 4:4.9415868 5:3.8398345 6:3.5567906 7:3.181097 8:1.9227977 9:-1.3303637 10:1.3498698 11:-1.9254686 12:0.77308354 13:-0.3362372 14:2.134356 15:-0.36901607 16:0.72702492 17:0.80926852 18:-0.72357564 19:3.6867307 20:5.4640669 21:11.762949 22:-0.19506858 23:5.637759 
2.066588863835117 1:0 2:-1.9992303 3:2.5767352 4:2.8286324 5:5.4286251 6:2.5358599 7:3.181097 8:0.29996557 9:-1.3303637 10:-1.5313584 11:0.53146286 12:0.33471083 13:0.23455864 14:3.9778185 15:-0.82879861 16:-0.20974197 17:0.54982539 18:-1.2869392 19:3.6867307 20:3.4752191 21:5.5482659 22:-0.19506858 23:3.2721663 
-5.994842503189409 1:0 2:1.3160715 3:6.1667932 4:2.8286324 5:-1.1016432 6:-0.52693194 7:0.2592005 8:1.4422818 9:-1.3303637 10:1.2335975 11:-1.8958359 12:0.99221671 13:0.74177409 14:0.3582289 15:-0.98505503 16:0.77589226 17:-0.35870367 18:-0.41769608 19:1.699102 20:0.082032019 21:-0.15888069 22:2.2237818 23:-0.0027632928 
-5.994842503189409 1:0 2:-1.5546305 3:0.78170617 4:0.71567809 5:0.61849267 6:1.5149293 7:0.2592005 8:-0.045317247 9:-1.3303637 10:0.77305999 11:2.9597719 12:0.89297749 13:-0.90783127 14:1.9884014 15:-0.29648595 16:0.47746424 17:0.44260087 18:-0.28605665 19:1.699102 20:4.0521366 21:3.186683 22:-0.19506858 23:3.4434904 
4.424809974342262 1:0 2:0.074275892 3:-1.0133228 4:-1.3972763 5:-0.49762176 6:0.49399869 7:-1.2017478 8:-0.83946906 9:1.3474425 10:1.1088397 11:0.53146286 12:0.33471083 13:-0.90783127 14:-0.63668982 15:1.3856075 16:-1.3440043 17:-1.3096929 18:1.3272227 19:-0.28852675 20:-0.27474603 21:-0.29353232 22:-0.19506858 23:-0.31246488 
1.957572245320136 1:0 2:0.063817607 3:2.5767352 4:4.9415868 5:0.19856501 6:2.5358599 7:4.6420453 8:5.3152748 9:-1.3303637 10:1.0617849 11:0.17082001 12:3.1663589 13:-0.62123095 14:1.5291076 15:-0.36321534 16:-0.73246556 17:1.9236534 18:-0.08600065 19:5.6743595 20:1.3041866 21:7.9558808 22:2.2237818 23:1.0581293 
-0.1447756938146312 1:0 2:2.1329237 3:7.9618221 4:9.1674955 5:2.7455133 6:8.6614437 7:7.5639418 8:8.8093014 9:-1.3303637 10:1.2051826 11:-1.9603559 12:0.48535964 13:-0.34001466 14:3.3240203 15:-0.2663092 16:-0.65451685 17:0.7211638 18:-0.14315132 19:9.649617 20:2.6477975 21:17.510882 22:2.2237818 23:2.2244523 
1.165917106802089 1:0 2:1.7758444 3:4.3717642 4:4.9415868 5:9.7450272 6:3.5567906 7:4.6420453 8:6.616977 9:-1.3303637 10:1.1088397 11:2.9906674 12:-0.16103112 13:4.1229714 14:-0.37177343 15:-0.47479461 16:1.6444983 17:0.068020569 18:-0.31207722 19:5.6743595 20:0.051667936 21:4.9285267 22:2.2237818 23:-0.029120869 
-5.994842503189409 1:0 2:0.64699695 3:4.3717642 4:4.9415868 5:9.9765671 6:2.5358599 7:4.6420453 8:5.3065788 9:-1.3303637 10:0.91632995 11:3.007687 12:0.031652982 13:1.7286404 14:3.9141751 15:-0.34173477 16:0.38847832 17:0.87245509 18:-0.50657264 19:1.699102 20:3.3765357 21:2.8138096 22:-0.19506858 23:2.8570343 
5.994842503189409 1:0 2:1.9177696 3:2.5767352 4:0.71567809 5:-0.89810941 6:2.5358599 7:1.7201487 8:2.7860097 9:-1.3303637 10:3.7318717 11:0.53146286 12:0.66055674 13:-0.41651957 14:1.5337951 15:-0.51872828 16:0.5119204 17:0.98877999 18:-0.043985482 19:1.699102 20:0.29458065 21:-0.13816524 22:2.2237818 23:0.18173978 
5.994842503189409 1:0 2:1.6642792 3:0.78170617 4:0.71567809 5:4.0042137 6:0.49399869 7:1.7201487 8:0.138834 9:-0.52039266 10:-1.4041872 11:-0.006942961 12:-0.28920471 13:-0.45156302 14:1.6454251 15:-0.6237109 16:0.41359421 17:1.5487501 18:-0.81259524 19:-0.28852675 20:-0.27474603 21:-0.29353232 22:-0.19506858 23:-0.31246488 
-5.994842503189409 1:0 2:-0.57253634 3:-1.0133228 4:0.71567809 5:0.32699326 6:1.5149293 7:0.2592005 8:0.138834 9:-0.45487671 10:-1.4551681 11:-0.059608527 12:0.41803119 13:-0.70528673 14:1.9388456 15:-0.53377665 16:0.53778414 17:0.85294108 18:-0.11265535 19:-0.28852675 20:-0.27474603 21:-0.29353232 22:-0.19506858 23:-0.31246488 
5.994842503189409 1:0 2:0.39264118 3:0.78170617 4:0.71567809 5:-2.9552115 6:-0.52693194 7:0.2592005 8:0.020862668 9:-1.3303637 10:1.1848914 11:-1.873441 12:1.1002129 13:2.5465519 14:-0.4357217 15:-0.25825137 16:0.84201106 17:0.52804585 18:-0.4121179 19:1.699102 20:4.1432292 21:2.9381045 22:-0.19506858 23:3.5225634 
-3.178968618360454 1:0 2:1.0682115 3:7.9618221 4:2.8286324 5:-1.6366234 6:1.5149293 7:4.6420453 8:1.3473278 9:-1.3303637 10:-1.519978 11:0.70721483 12:0.50757724 13:-0.90783127 14:1.313109 15:-1.1622757 16:0.062910553 17:-0.066001594 18:-0.36946351 19:3.6867307 20:3.7864509 21:5.8175739 22:2.2237818 23:4.0760724 
0.6647296364079065 1:0 2:10.294838 3:15.141938 4:9.1674955 5:3.3350342 6:10.703305 7:4.6420453 8:3.7182747 9:-1.3303637 10:0.7916355 11:-1.922659 12:0.73512002 13:1.3395737 14:1.900666 15:-0.79459993 16:0.62089369 17:0.56446821 18:-1.0807765 19:1.699102 20:5.6690245 21:4.3053268 22:-0.19506858 23:4.8470317 
0.9852951743116104 1:0 2:3.6224197 3:7.9618221 4:4.9415868 5:7.3021004 6:2.5358599 7:6.1029935 8:5.1684669 9:-1.3303637 10:-1.5299455 11:0.53146286 12:0.42832857 13:2.0433116 14:3.027897 15:-0.63765286 16:-0.24040881 17:1.0381251 18:-0.53327367 19:3.6867307 20:2.465613 21:3.1866947 22:-0.19506858 23:2.3760084 
-5.994842503189409 1:0 2:0.96556475 3:9.7568511 4:2.8286324 5:8.6277889 6:4.5777212 7:1.7201487 8:0.57619402 9:-1.3303637 10:0.77305999 11:2.9597719 12:0.89297749 13:-0.90783127 14:2.4714739 15:-0.29648595 16:0.47746424 17:0.44260087 18:-0.28605665 19:1.699102 20:4.0521366 21:3.186683 22:-0.19506858 23:3.4434904 
-5.994842503189409 1:0 2:-0.10763072 3:0.78170617 4:0.71567809 5:-0.91355457 6:-0.52693194 7:0.2592005 8:-0.61030306 9:-0.45536828 10:-0.63658052 11:2.2682792 12:-0.47039198 13:-0.65353675 14:-0.44341608 15:-0.94396229 16:0.17348529 17:1.080858 18:-0.55681132 19:-0.28852675 20:-0.27474603 21:-0.29353232 22:-0.19506858 23:-0.31246488 
-0.1411125012566782 1:0 2:3.6803231 3:7.9618221 4:9.1674955 5:1.9119814 6:3.5567906 7:4.6420453 8:8.2760166 9:-1.3303637 10:1.0184443 11:2.9483826 12:-0.37737258 13:1.8706336 14:-0.04426774 15:-0.086495079 16:1.3292721 17:0.34219872 18:-1.3625912 19:1.699102 20:1.2130944 21:0.82511052 22:4.6426322 23:3.6477619 
5.994842503189409 1:0 2:-1.6247136 3:2.5767352 4:0.71567809 5:-2.1071937 6:-1.5478626 7:0.2592005 8:0.058269077 9:-1.3303637 10:-1.5288826 11:0.61201228 12:0.252065 13:-0.64036527 14:0.68741198 15:-0.53213043 16:0.76374246 17:0.87735155 18:-0.16382787 19:1.699102 20:6.1017125 21:5.4239707 22:-0.19506858 23:5.222627 
3.542746368460455 1:0 2:-2.4320142 3:0.78170617 4:0.71567809 5:-1.6028002 6:1.5149293 7:0.2592005 8:-0.21795941 9:-1.3303637 10:-1.5313584 11:0.53146286 12:0.33471083 13:-0.22623612 14:3.1438343 15:-0.7207798 16:-0.20974197 17:0.54982539 18:-1.1009054 19:3.6867307 20:3.4752191 21:5.5482659 22:-0.19506858 23:3.2721663 
-5.994842503189409 1:0 2:-0.1666833 3:0.78170617 4:0.71567809 5:-0.68832728 6:-1.5478626 7:0.2592005 8:0.023741 9:-0.90043615 10:-0.5955959 11:1.0509045 12:-1.7684323 13:-0.60541454 14:-0.29044743 15:-0.71356358 16:0.54644663 17:0.67757912 18:-0.11008469 19:-0.28852675 20:-0.27474603 21:-0.29353232 22:-0.19506858 23:-0.31246488 
-0.1187622617251861 1:0 2:2.0780773 3:4.3717642 4:7.0545411 5:10.904893 6:10.703305 7:9.02489 8:8.8975319 9:-1.3303637 10:1.1233088 11:2.9475859 12:1.0568451 13:-0.52331331 14:4.3411868 15:-0.80579405 16:-0.23876039 17:1.1227727 18:-0.93475641 19:7.6619882 20:2.8983012 21:15.616062 22:7.0614825 23:3.6741195 
-4.064289636596561 1:0 2:-0.10763072 3:0.78170617 4:0.71567809 5:-0.546494 6:0.49399869 7:1.7201487 8:-0.18470907 9:-1.3303637 10:1.101867 11:3.0017792 12:0.75152615 13:-0.65215609 14:0.60265274 15:-0.77847882 16:0.011470787 17:1.2110788 18:-0.57005073 19:1.699102 20:5.8360272 21:5.4810568 22:-0.19506858 23:4.9919986 
-0.07888138640232625 1:0 2:10.984086 3:11.55188 4:4.9415868 5:18.059408 6:9.6823744 7:6.1029935 8:5.0792676 9:-1.3303637 10:-1.5294542 11:0.44584018 12:0.28803248 13:-0.76030718 14:3.6505013 15:0.0068741652 16:-0.37737221 17:1.4097729 18:-0.13846508 19:7.6619882 20:2.3593388 21:12.125476 22:2.2237818 23:3.0613055 
-0.02034027818278768 1:0 2:13.288271 3:11.55188 4:2.8286324 5:13.071806 6:12.745166 7:9.02489 8:7.4041786 9:-1.3303637 10:1.0887639 11:2.941797 12:-0.4122566 13:-0.75718208 14:4.6052829 15:-0.24585036 16:-0.30004374 17:0.86686655 18:-0.56722192 19:9.649617 20:0.86390733 21:9.4945918 22:14.318034 23:6.5405061 
-5.994842503189409 1:0 2:-0.37951552 3:-1.0133228 4:0.71567809 5:2.5868783 6:0.49399869 7:0.2592005 8:0.6797771 9:-0.82321171 10:-0.37594926 11:-1.2617161 12:1.5078058 13:0.8049374 14:2.7205237 15:-0.65569326 16:0.88448443 17:0.8893428 18:-0.93375037 19:-0.28852675 20:-0.27474603 21:-0.29353232 22:-0.19506858 23:-0.31246488 
-5.994842503189409 1:0 2:1.1010699 3:-1.0133228 4:0.71567809 5:1.2698192 6:-0.52693194 7:0.2592005 8:0.038186945 9:-1.3303637 10:-1.5238115 11:0.53146286 12:0.11845875 13:1.1856271 14:-0.45935626 15:-0.59591025 16:1.28357 17:-0.076725711 18:-0.4451972 19:5.6743595 20:1.2965956 21:1.9084363 22:7.0614825 23:1.6709431 
1.818364717831245 1:0 2:1.6111283 3:9.7568511 4:0.71567809 5:-0.84289902 6:0.49399869 7:0.2592005 8:1.2178458 9:-1.3303637 10:-1.5269618 11:0.4474334 12:0.46880858 13:2.5310399 14:0.52670648 15:-0.23485474 16:0.89861529 17:0.5880016 18:-0.20169173 19:1.699102 20:1.3193686 21:0.78367842 22:2.2237818 23:1.0713081 
3.847343463742682 1:0 2:6.4454516 3:16.936967 4:0.71567809 5:1.1120581 6:7.6405131 7:0.2592005 8:-0.27838229 9:-1.3303637 10:3.744644 11:0.61573517 12:0.20088005 13:-0.79362637 14:2.8855557 15:0.16533499 16:-0.16861694 17:0.59957751 18:-0.4785131 19:1.699102 20:1.744466 21:0.78367842 22:2.2237818 23:1.4403144 
-5.994842503189409 1:0 2:0.81370307 3:-1.0133228 4:0.71567809 5:-0.40728539 6:-0.52693194 7:0.2592005 8:0.26543842 9:-1.3303637 10:0.7916355 11:-1.922659 12:0.73512002 13:-0.67417754 14:-0.34843353 15:-0.79459993 16:0.62089369 17:0.56446821 18:-1.0807765 19:1.699102 20:5.6690245 21:4.3053268 22:-0.19506858 23:4.8470317 
-3.784228270248224 1:0 2:7.0602386 3:9.7568511 4:0.71567809 5:0.73832468 6:6.6195825 7:0.2592005 8:0.74883466 9:-0.51045639 10:0.82964951 11:-1.9373057 12:0.031009795 13:5.0795372 14:2.5975064 15:-0.87312577 16:0.98791761 17:0.093777718 18:-0.43149253 19:-0.28852675 20:-0.27474603 21:-0.29353232 22:-0.19506858 23:-0.31246488 
2.07132169659701 1:0 2:3.534039 3:2.5767352 4:4.9415868 5:2.4321966 6:5.5986518 7:7.5639418 8:6.2319388 9:-1.3303637 10:1.101867 11:3.0017792 12:0.75152615 13:-0.097676183 14:3.715618 15:-0.77847882 16:0.011470787 17:1.2110788 18:-0.78492932 19:3.6867307 20:4.6821918 21:8.8986708 22:-0.19506858 23:4.2869331 
5.994842503189409 1:0 2:-1.0692249 3:0.78170617 4:0.71567809 5:1.0227206 6:1.5149293 7:1.7201487 8:1.370346 9:-1.3303637 10:-1.5293651 11:0.53146286 12:0.4459072 13:-0.90783127 14:2.0632329 15:-0.79125467 16:-0.23653323 17:1.291816 18:-1.3136203 19:1.699102 20:0.75763303 21:0.079348232 22:-0.19506858 23:0.58369291 
5.994842503189409 1:0 2:-1.328302 3:2.5767352 4:2.8286324 5:-0.96754595 6:0.49399869 7:1.7201487 8:1.0595903 9:-1.3303637 10:0.91633939 11:3.007688 12:0.031658186 13:-0.90783127 14:1.0177977 15:-0.30091872 16:-0.82874245 17:1.5520939 18:-0.18700737 19:1.699102 20:2.5870694 21:1.5708704 22:-0.19506858 23:2.1717372 
-5.994842503189409 1:0 2:3.531289 3:6.1667932 4:7.0545411 5:5.3641172 6:1.5149293 7:3.181097 8:3.9945016 9:-1.3303637 10:1.1088397 11:-1.9654825 12:0.33471083 13:2.8176121 14:3.6279887 15:-0.262915 16:0.68725153 17:1.1445439 18:-0.59059539 19:5.6743595 20:3.7257228 21:7.1640787 22:-0.19506858 23:3.9047483 
-2.626526811181854 1:0 2:0.93233312 3:2.5767352 4:2.8286324 5:1.5226335 6:2.5358599 7:3.181097 8:1.853745 9:-0.51097825 10:-0.52936141 11:-1.0385048 12:-1.0067231 13:-0.90783127 14:2.0326101 15:-0.78941345 16:0.14269269 17:0.96864082 18:-0.22955432 19:-0.28852675 20:-0.27474603 21:-0.29353232 22:-0.19506858 23:-0.31246488 
-3.596762300576642 1:0 2:-1.2644755 3:2.5767352 4:2.8286324 5:5.670109 6:3.5567906 7:1.7201487 8:1.9227996 9:-1.3303637 10:3.747508 11:0.61642401 12:0.33718055 13:0.46122439 14:3.6233576 15:-0.22321068 16:0.64673755 17:1.0008215 18:-0.4868828 19:1.699102 20:1.2130944 21:0.82511052 22:4.6426322 23:3.6477619 
0.21613798982523 1:0 2:3.0319707 3:4.3717642 4:7.0545411 5:2.9242719 6:3.5567906 7:3.181097 8:5.2775242 9:-1.3303637 10:1.0993672 11:-1.9627759 12:0.46754393 13:0.80772314 14:-0.26582818 15:-0.44263913 16:1.5153723 17:0.14912686 18:-0.62837506 19:15.612503 20:2.0101517 21:26.895979 22:16.736884 23:5.5455079 
5.994842503189409 1:0 2:0.86684234 3:2.5767352 4:2.8286324 5:-2.1083997 6:0.49399869 7:0.2592005 8:0.52152359 9:-1.3303637 10:1.1920022 11:-1.9056986 12:0.95069905 13:1.8885279 14:0.6755501 15:-0.55300853 16:1.0060534 17:0.31389899 18:-0.91883264 19:1.699102 20:4.5227803 21:3.694222 22:-0.19506858 23:3.8520331 
5.994842503189409 1:0 2:1.7064289 3:6.1667932 4:2.8286324 5:-2.7836386 6:0.49399869 7:1.7201487 8:2.0414749 9:-0.78662335 10:-1.4464473 11:0.61507918 12:-0.37890398 13:2.9990177 14:2.2493798 15:-0.29069014 16:-0.19364465 17:0.89869911 18:-0.68640944 19:-0.28852675 20:-0.27474603 21:-0.29353232 22:-0.19506858 23:-0.31246488 
-5.994842503189409 1:0 2:-1.0532622 3:0.78170617 4:0.71567809 5:0.073158684 6:0.49399869 7:1.7201487 8:0.138834 9:-0.52039266 10:-1.4041872 11:-0.006942961 12:-0.28920471 13:-0.45156302 14:1.6454251 15:-0.6237109 16:0.41359421 17:1.5487501 18:-0.81259524 19:-0.28852675 20:-0.27474603 21:-0.29353232 22:-0.19506858 23:-0.31246488 
-1.437616564955262 1:0 2:0.89904252 3:2.5767352 4:2.8286324 5:-2.0847614 6:-0.52693194 7:0.2592005 8:0.85242095 9:-1.3303637 10:-1.5093027 11:0.53146286 12:0.70388926 13:3.0667836 14:1.9288014 15:-0.36808938 16:1.1920622 17:0.60856891 18:-0.75877924 19:1.699102 20:5.4868401 21:4.4296218 22:-0.19506858 23:4.6888863 
4.997293122896314 1:0 2:-1.3319855 3:0.78170617 4:2.8286324 5:4.5785091 6:-0.52693194 7:1.7201487 8:0.023739017 9:-0.4883774 10:0.4702297 11:-1.1996762 12:-1.6082132 13:-0.90783127 14:1.4565642 15:-1.1327339 16:0.50002211 17:-2.1393783 18:-0.95701526 19:-0.28852675 20:-0.27474603 21:-0.29353232 22:-0.19506858 23:-0.31246488 
5.994842503189409 1:0 2:1.8708021 3:4.3717642 4:0.71567809 5:6.1295202 6:3.5567906 7:0.2592005 8:-0.010788452 9:-0.49850379 10:0.22802773 11:-1.1764484 12:-1.5220169 13:2.338658 14:0.10606631 15:-0.52879048 16:1.4226925 17:-0.016341657 18:-0.059290333 19:-0.28852675 20:-0.27474603 21:-0.29353232 22:-0.19506858 23:-0.31246488 
0.789592429956268 1:0 2:3.4941091 3:18.731996 4:4.9415868 5:-0.65009629 6:3.5567906 7:1.7201487 8:1.5775159 9:-0.71013331 10:2.2984123 11:1.8347919 12:-1.7381861 13:0.78629296 14:-0.63668982 15:-1.110515 16:0.45386558 17:-1.8615566 18:-0.10307035 19:-0.28852675 20:-0.27474603 21:-0.29353232 22:-0.19506858 23:-0.31246488 
4.433937650121162 1:0 2:-1.3042909 3:2.5767352 4:0.71567809 5:0.38327085 6:0.49399869 7:0.2592005 8:0.23090968 9:-0.46518781 10:-0.70538845 11:-0.24704155 12:-1.5434321 13:-0.61664854 14:0.17388135 15:-0.80888786 16:0.79404435 17:0.36060933 18:-0.97396089 19:-0.28852675 20:-0.27474603 21:-0.29353232 22:-0.19506858 23:-0.31246488 
0.5013542452446702 1:0 2:5.6198939 3:18.731996 4:11.28045 5:6.9328084 6:9.6823744 7:6.1029935 8:8.4486567 9:-1.3303637 10:-1.5261463 11:0.61431641 12:0.18209708 13:-0.23710584 14:2.2501301 15:-0.29373656 16:-0.83164554 17:1.8683088 18:-1.3754157 19:5.6743595 20:2.1088351 21:6.9154884 22:4.6426322 23:2.7911404 
2.539074507438974 1:0 2:2.3045362 3:0.78170617 4:0.71567809 5:4.1353115 6:2.5358599 7:1.7201487 8:0.92147777 9:-1.3303637 10:0.91234891 11:-1.9032676 12:-0.26341894 13:-0.50466212 14:-0.63668982 15:-0.40633588 16:1.0591756 17:0.48473805 18:-0.16548795 19:-0.28852675 20:-0.27474603 21:-0.29353232 22:2.2237818 23:6.4284863 
-5.994842503189409 1:0 2:-0.57925048 3:2.5767352 4:0.71567809 5:0.63192117 6:-0.52693194 7:0.2592005 8:1.4437968 9:-0.54737761 10:-0.335311 11:-1.4284405 12:-0.49829126 13:-0.52301464 14:2.2270551 15:-0.40910391 16:0.079518254 17:1.3821653 18:-0.70774709 19:-0.28852675 20:-0.27474603 21:-0.29353232 22:-0.19506858 23:-0.31246488 
5.994842503189409 1:0 2:2.8914469 3:2.5767352 4:0.71567809 5:6.2572506 6:3.5567906 7:0.2592005 8:0.81789215 9:-1.3303637 10:1.104978 11:-1.9628531 12:0.20346699 13:-0.72434628 14:3.671782 15:-0.54481992 16:0.25234005 17:1.3129327 18:-0.47593509 19:3.6867307 20:3.5966753 21:6.1697414 22:-0.19506858 23:3.4566692 
-0.3192257980261508 1:0 2:15.449156 3:16.936967 4:4.9415868 5:13.814065 6:12.745166 7:3.181097 8:5.9367226 9:-1.3303637 10:1.1289161 11:-1.8789349 12:1.0814096 13:-0.69156341 14:3.517615 15:-1.0061671 16:-0.10009111 17:0.80349097 18:-0.74997426 19:7.6619882 20:0.86390733 21:10.116058 22:7.0614825 23:2.6659418 
1.138637261809317 1:0 2:8.1000309 3:13.346909 4:9.1674955 5:3.2145519 6:7.6405131 7:9.02489 8:4.5814833 9:-1.3303637 10:1.3010964 11:-1.9447641 12:0.63792766 13:4.1997803 14:0.1091724 15:-0.73650198 16:1.1067002 17:-2.012433 18:-0.683222 19:7.6619882 20:2.807209 21:7.6612566 22:-0.19506858 23:5.0381241 
5.994842503189409 1:0 2:0.45596169 3:4.3717642 4:0.71567809 5:3.793821 6:2.5358599 7:3.181097 8:2.3400159 9:-1.3303637 10:1.1174763 11:3.0139808 12:0.027623452 13:2.6868763 14:2.9424629 15:-1.063128 16:0.27052436 17:0.46785481 18:-0.16100787 19:1.699102 20:6.0409844 21:5.2271752 22:-0.19506858 23:5.1699119 
-4.111486428979666 1:0 2:0.53552054 3:2.5767352 4:-1.3972763 5:1.5387025 6:9.6823744 7:-1.2017478 8:-0.83946906 9:1.3474425 10:1.1088397 11:0.53146286 12:0.33471083 13:-0.90783127 14:-0.63668982 15:1.3856075 16:-1.3440043 17:-1.3096929 18:1.3272227 19:-0.28852675 20:-0.27474603 21:-0.29353232 22:-0.19506858 23:-0.31246488 
1.9292697612055 1:0 2:4.4239398 3:4.3717642 4:0.71567809 5:6.2898834 6:1.5149293 7:0.2592005 8:1.275392 9:-1.3303637 10:-1.5296283 11:0.61809598 12:0.364222 13:-0.18432083 14:1.996555 15:-1.2392218 16:0.41064615 17:-1.1531493 18:-0.83930091 19:1.699102 20:1.1523662 21:0.94940672 22:2.2237818 23:0.92634146 
0.6260313197836225 1:0 2:7.5723683 3:18.731996 4:2.8286324 5:3.4285247 6:9.6823744 7:4.6420453 8:3.2348765 9:-1.3303637 10:1.1049679 11:-1.9628417 12:0.20317791 13:1.1872591 14:0.31773403 15:-1.170463 16:0.31618128 17:-0.12106544 18:-1.0577114 19:7.6619882 20:0.93981757 21:4.8025085 22:2.2237818 23:0.74183841 
5.994842503189409 1:0 2:0.75969952 3:0.78170617 4:0.71567809 5:-0.47306789 6:0.49399869 7:0.2592005 8:-0.32154408 9:-0.43176125 10:-0.47537519 11:0.3285916 12:-1.9430664 13:-0.093518799 14:-0.40454549 15:-0.87868749 16:0.96700439 17:0.31971848 18:-0.2632659 19:-0.28852675 20:-0.27474603 21:-0.29353232 22:-0.19506858 23:-0.31246488 
-5.994842503189409 1:0 2:-2.41285 3:4.3717642 4:-1.3972763 5:-3.118684 6:-1.5478626 7:-1.2017478 8:-0.83946906 9:1.3474425 10:1.1088397 11:0.53146286 12:0.33471083 13:-0.90783127 14:-0.63668982 15:1.3856075 16:-1.3440043 17:-1.3096929 18:1.3272227 19:-0.28852675 20:-0.27474603 21:-0.29353232 22:-0.19506858 23:-0.31246488 
-0.2424136302695089 1:0 2:4.7280153 3:6.1667932 4:7.0545411 5:-0.36680391 6:2.5358599 7:4.6420453 8:9.1737557 9:-1.3303637 10:1.2085377 11:3.0266224 12:0.34044642 13:-0.69819609 14:3.1199225 15:-0.28812073 16:-0.7620772 17:1.8662275 18:-0.094690398 19:3.6867307 20:2.7085258 21:4.6782122 22:4.6426322 23:3.6543511 
-5.994842503189409 1:0 2:2.7177448 3:9.7568511 4:0.71567809 5:-0.43706581 6:3.5567906 7:1.7201487 8:0.13204285 9:-1.3303637 10:1.1643378 11:-1.9203644 12:0.87299017 13:-0.90783127 14:0.98779577 15:-1.1620177 16:-0.11124868 17:-0.10869663 18:-0.39120161 19:1.699102 20:0.082032019 21:-0.15902446 22:-0.19506858 23:-0.0027632928 
5.994842503189409 1:0 2:-0.7285494 3:-1.0133228 4:-1.3972763 5:0.043780587 6:-0.52693194 7:-1.2017478 8:-0.83946906 9:1.3474425 10:1.1088397 11:0.53146286 12:0.33471083 13:-0.90783127 14:-0.63668982 15:1.3856075 16:-1.3440043 17:-1.3096929 18:1.3272227 19:-0.28852675 20:-0.27474603 21:-0.29353232 22:-0.19506858 23:-0.31246488 
-1.569274658168547 1:0 2:-0.046145287 3:-1.0133228 4:0.71567809 5:2.370514 6:0.49399869 7:0.2592005 8:1.3185524 9:-1.3303637 10:-1.5298818 11:0.53146286 12:0.43041935 13:1.0687676 14:0.91991426 15:-0.85487678 16:0.66236754 17:0.45948442 18:-0.48845052 19:7.6619882 20:0.86390733 21:15.709278 22:4.6426322 23:6.5734532 
-5.994842503189409 1:0 2:-0.68877206 3:6.1667932 4:-1.3972763 5:-2.8726044 6:-1.5478626 7:-1.2017478 8:-0.83946906 9:1.3474425 10:1.1088397 11:0.53146286 12:0.33471083 13:-0.90783127 14:-0.63668982 15:1.3856075 16:-1.3440043 17:-1.3096929 18:1.3272227 19:-0.28852675 20:-0.27474603 21:-0.29353232 22:-0.19506858 23:-0.31246488 
-5.780002422952088 1:0 2:1.6383431 3:2.5767352 4:2.8286324 5:1.335615 6:3.5567906 7:3.181097 8:2.4752514 9:-1.3303637 10:1.1885754 11:2.980647 12:0.88508565 13:2.2710244 14:1.4487591 15:-0.46378034 16:0.59547388 17:1.3582543 18:-0.59796909 19:3.6867307 20:3.7409048 21:6.1697294 22:-0.19506858 23:3.1733253 
-1.052315185132971 1:0 2:10.487035 3:9.7568511 4:2.8286324 5:7.3870029 6:7.6405131 7:1.7201487 8:-0.27838459 9:-1.3303637 10:0.95372484 11:-1.9273554 12:0.8037341 13:3.2759034 14:1.0659221 15:-0.53977769 16:1.191052 17:-1.2284597 18:-1.1683802 19:1.699102 20:2.2910196 21:1.5915883 22:-0.19506858 23:1.9147508 
-1.073215371762251 1:0 2:-1.992255 3:4.3717642 4:-1.3972763 5:-2.986558 6:-0.52693194 7:-1.2017478 8:-0.83946906 9:1.3474425 10:1.1088397 11:0.53146286 12:0.33471083 13:-0.90783127 14:-0.63668982 15:1.3856075 16:-1.3440043 17:-1.3096929 18:1.3272227 19:-0.28852675 20:-0.27474603 21:-0.29353232 22:-0.19506858 23:-0.31246488 
0.59169415483148 1:0 2:5.7132426 3:9.7568511 4:7.0545411 5:9.4813637 6:3.5567906 7:6.1029935 8:5.1339359 9:-1.3303637 10:0.7916355 11:-1.922659 12:0.73512002 13:1.3395737 14:4.1440312 15:-0.79459993 16:0.62089369 17:0.56446821 18:-1.0807765 19:1.699102 20:5.6690245 21:4.3053268 22:-0.19506858 23:4.8470317 
5.994842503189409 1:0 2:-2.1667706 3:-1.0133228 4:0.71567809 5:-2.8413462 6:-0.52693194 7:0.2592005 8:-0.46541122 9:-0.4432053 10:-0.63261831 11:-0.92110364 12:-1.0274821 13:-0.75758823 14:1.0935445 15:-0.99387162 16:-0.35834301 17:0.48387377 18:-0.72491804 19:-0.28852675 20:-0.27474603 21:-0.29353232 22:-0.19506858 23:-0.31246488 
2.620216556150758 1:0 2:2.0784707 3:9.7568511 4:0.71567809 5:2.764784 6:6.6195825 7:3.181097 8:1.3212389 9:-1.3303637 10:1.0583716 11:0.15039405 12:3.1627728 13:-0.53292025 14:2.8350875 15:-0.62436595 16:0.28650133 17:1.257957 18:-0.81255919 19:3.6867307 20:1.3041866 21:6.0703006 22:-0.19506858 23:3.9574634 
