svm_type epsilon_svr
kernel_type rbf
gamma 0.00936711
nr_class 2
total_sv 256
rho -0.89157
SV
0.2008453067472631 1:0 2:-0.22561119 3:2.7097557 4:0.18067901 5:0.93284969 6:14.871888 7:0.56493268 8:-1.232586 9:1.7021428 10:0.29677153 11:0.64531873 12:0.53339944 13:-0.9411869 14:-1.0851535 15:1.7587392 16:-1.658353 17:0.45327538 18:1.6423116 19:1.0799375 20:5.4255029 21:2.2355102 22:-0.44597649 23:4.9672136 
-0.774263682681127 1:0 2:-1.9958113 3:0.37635496 4:0.18067901 5:-3.0829315 6:3.9728684 7:0.56493268 8:-0.74745944 9:-0.98589216 10:0.406196 11:2.7289607 12:0.89591703 13:-0.9411869 14:-0.17806916 15:-0.27079739 16:1.3524304 17:-0.23515277 18:-0.016161024 19:1.0799375 20:5.7194446 21:3.6482102 22:-0.44597649 23:5.2396305 
-0.7041115406194831 1:0 2:-0.15760709 3:0.37635496 4:0.18067901 5:1.2752377 6:-0.3867394 7:0.56493268 8:1.9294072 9:-0.98589216 10:0.39288881 11:2.7060272 12:0.078376922 13:-0.30425532 14:0.65283249 15:-0.69353852 16:-0.059353348 17:0.48181306 18:0.029114364 19:1.0799375 20:-0.13839187 21:-0.1120632 22:1.8582354 23:-0.18924811 
-0.774263682681127 1:0 2:0.82362599 3:-0.79034543 4:0.18067901 5:-0.082925086 6:1.7930645 7:0.56493268 8:0.11447672 9:-0.24408365 10:0.36109692 11:0.10078298 12:-1.2888589 13:2.2672177 14:2.419186 15:-0.73390493 16:0.28433596 17:0.086221838 18:-0.83322339 19:-0.44179262 20:-0.46732653 21:-0.42368815 22:-0.44597649 23:-0.49409553 
0.04170623891367511 1:0 2:0.7446526 3:0.37635496 4:1.7809788 5:0.33938942 6:6.1526723 7:7.570098 8:2.6484345 9:-0.98589216 10:-3.3245171 11:0.64531873 12:0.59523813 13:-0.12739483 14:-1.0131081 15:-0.070824198 16:1.7211433 17:-0.54685846 18:-0.26464882 19:5.645128 20:0.65245105 21:7.8863044 22:1.8582354 23:0.54368293 
0.05313548033246279 1:0 2:-0.90229804 3:1.5430554 4:1.7809788 5:0.7908092 6:14.871888 7:5.2350429 8:1.0197909 9:-0.98589216 10:0.29677153 11:2.7695779 12:0.53339944 13:-0.9411869 14:1.1564649 15:-0.18002662 16:0.97792118 17:-1.5184368 18:-0.73462769 19:8.6885883 20:1.7372356 21:14.368105 22:-0.44597649 23:6.34227 
0.01061946815372455 1:0 2:3.8472734 3:3.8764561 4:3.3812786 5:5.3142264 6:10.51228 7:2.8999878 8:5.5355829 9:-0.98589216 10:-3.3259327 11:0.64531873 12:0.50103827 13:0.2126842 14:0.69393865 15:0.02530762 16:1.7528495 17:-3.6227995 18:-0.93929229 19:8.6885883 20:3.4239005 21:14.152658 22:4.1624472 23:4.5391301 
0.210543634154091 1:0 2:0.98481856 3:3.8764561 4:3.3812786 5:-0.80603919 6:1.7930645 7:2.8999878 8:1.1584008 9:-0.98589216 10:3.9170766 11:0.64531873 12:0.60924945 13:-0.78743469 14:1.4499583 15:-0.53851358 16:0.56231716 17:-2.0973152 18:-0.1703394 19:2.6016677 20:4.2357391 21:5.2271122 22:1.8582354 23:5.4536722 
0.02037221421531817 1:0 2:3.104474 3:13.210059 4:6.5818781 5:16.466316 6:38.849731 7:9.905153 8:2.6830848 9:-0.98589216 10:0.33010596 11:-1.4554956 12:0.81222871 13:-0.73689437 14:3.9213499 15:-0.66016867 16:0.044059751 17:1.5653835 18:-0.82596238 19:11.732049 20:1.604262 21:11.875101 22:6.4666591 23:3.3521707 
0.1279026676738426 1:0 2:-2.1590695 3:1.5430554 4:3.3812786 5:1.4271765 6:10.51228 7:2.8999878 8:2.2923743 9:-0.98589216 10:3.8958862 11:0.64531873 12:0.31617815 13:-0.69456743 14:0.40780062 15:-0.41814746 16:0.52264834 17:3.5600706 18:-0.93382852 19:5.645128 20:0.97438705 21:7.0404175 22:1.8582354 23:0.84204418 
0.01865180160368439 1:0 2:1.8511161 3:7.3765573 4:6.5818781 5:10.028346 6:25.770908 7:5.2350429 8:2.7523841 9:-0.98589216 10:3.9156228 11:0.71429859 12:0.60307279 13:0.3297886 14:2.9745164 15:-0.47366477 16:0.12330014 17:2.1450276 18:-0.0065825708 19:2.6016677 20:2.4930854 21:3.7313034 22:1.8582354 23:3.6245876 
-0.2290980328187602 1:0 2:-2.3482945 3:-0.79034543 4:0.18067901 5:1.1650124 6:3.9728684 7:0.56493268 8:-0.81676417 9:-0.98589216 10:3.9000999 11:0.71247707 12:0.34521709 13:-0.70543708 14:-1.0851535 15:-0.55885551 16:0.56796979 17:-1.0574373 18:-0.011665563 19:1.0799375 20:5.9224043 21:4.229909 22:-0.44597649 23:5.4277278 
-0.1149508425943462 1:0 2:-0.3948625 3:1.5430554 4:0.18067901 5:0.28829831 6:6.1526723 7:0.56493268 8:-1.0291552 9:-0.64317035 10:0.62429537 11:-0.73278327 12:-0.89137143 13:-0.9411869 14:3.8483103 15:-0.70972277 16:-0.25316006 17:0.88739648 18:-1.1510393 19:-0.44179262 20:-0.46732653 21:-0.42368815 22:-0.44597649 23:-0.49409553 
0.004980807793595215 1:0 2:4.907113 3:7.3765573 4:4.9815783 5:12.724142 6:51.928555 7:14.575263 8:9.3709139 9:-0.98589216 10:0.16848773 11:-1.4747931 12:0.4363829 13:-0.42210294 14:3.9314659 15:-0.076072106 16:0.009765145 17:4.4316134 18:0.034540359 19:7.1668581 20:1.5412744 21:12.955404 22:6.4666591 23:2.6127537 
0.2501114098978102 1:0 2:3.7811173 3:2.7097557 4:1.7809788 5:6.6272637 6:10.51228 7:5.2350429 8:5.7324574 9:-0.98589216 10:-3.2961881 11:0.64531873 12:0.7766571 13:-0.85228617 14:3.3610047 15:-0.55574356 16:-0.35465115 17:1.4737687 18:-0.54043357 19:4.1233978 20:1.674248 21:6.8891075 22:1.8582354 23:1.4906557 
0.06290434052476093 1:0 2:-1.042813 3:3.8764561 4:4.9815783 5:-2.1600809 6:12.692084 7:2.8999878 8:1.4702635 9:-0.98589216 10:-3.2876878 11:0.44300855 12:0.32495522 13:1.4334747 14:1.4597485 15:-0.16838467 16:1.6075006 17:0.34383826 18:-0.28134554 19:1.0799375 20:6.8112274 21:4.3130098 22:-0.44597649 23:6.2514641 
0.01158141123220316 1:0 2:3.4921932 3:8.5432577 4:6.5818781 5:5.4994767 6:54.108359 7:9.905153 8:2.9174085 9:-0.98589216 10:0.16456921 11:2.7652176 12:0.43416448 13:1.6524407 14:3.3949157 15:-0.60217018 16:0.18733282 17:-1.9202833 18:-0.67504558 19:7.1668581 20:3.0389771 21:10.406675 22:6.4666591 23:3.9294352 
0.5882598083343602 1:0 2:1.7066941 3:1.5430554 4:1.7809788 5:3.401593 6:3.9728684 7:2.8999878 8:2.2672611 9:-0.47754148 10:-1.1659392 11:-0.40150307 12:-0.92005371 13:1.4742586 14:0.086889372 15:-0.2456476 16:1.5441799 17:-2.9287458 18:0.018189434 19:-0.44179262 20:-0.46732653 21:-0.42368815 22:-0.44597649 23:-0.49409553 
-0.4158944097286089 1:0 2:-1.8375688 3:1.5430554 4:3.3812786 5:-2.4326473 6:1.7930645 7:0.56493268 8:2.5791318 9:-0.98589216 10:-3.2961926 11:0.64531873 12:0.77663869 13:0.54836237 14:-1.0160633 15:0.53959351 16:2.226863 17:-1.2297579 18:-0.17416131 19:2.6016677 20:3.416902 21:5.0609105 22:1.8582354 23:2.9305735 
0.2177651827949075 1:0 2:-0.56177967 3:3.8764561 4:0.18067901 5:-4.9274047 6:6.1526723 7:0.56493268 8:-1.232586 9:1.7021428 10:0.29677153 11:0.64531873 12:0.53339944 13:-0.9411869 14:-1.0851535 15:1.7587392 16:-1.658353 17:0.45327538 18:1.6423116 19:1.0799375 20:3.0879672 21:0.99455097 22:-0.44597649 23:2.800851 
0.005884411992800015 1:0 2:9.0820968 3:6.2098569 4:6.5818781 5:22.920062 6:38.849731 7:23.915484 8:13.917246 9:-0.98589216 10:3.8958903 11:0.64531873 12:0.3161966 13:1.3647337 14:0.059225825 15:0.29149632 16:2.2163012 17:-0.76863178 18:-0.28936706 19:22.38416 20:0.32351637 21:27.004648 22:15.683506 23:4.8180326 
-0.6242504028017755 1:0 2:0.38590802 3:-0.79034543 4:0.18067901 5:-0.63001051 6:-0.3867394 7:0.56493268 8:0.5000127 9:-0.50604819 10:1.3972333 11:-0.49710939 12:-0.94952956 13:-0.81227983 14:0.56400726 15:-0.5211085 16:0.29289662 17:0.23418933 18:-0.030832229 19:-0.44179262 20:-0.46732653 21:-0.42368815 22:-0.44597649 23:-0.49409553 
0.001299980659830169 1:0 2:5.3896994 3:8.5432577 4:6.5818781 5:7.7193961 6:47.568947 7:12.240208 8:6.4601481 9:-0.98589216 10:-3.3243674 11:0.57303834 12:0.53195163 13:-0.77994348 14:4.07432 15:-0.26629801 16:0.17954232 17:4.5303915 18:-0.69847482 19:14.775509 20:-0.13839187 21:18.439994 22:15.683506 23:6.8611593 
0.003157789192364847 1:0 2:5.8110928 3:8.5432577 4:8.1821779 5:16.148691 6:45.389143 7:9.905153 8:8.0541463 9:-0.98589216 10:3.9084267 11:0.79474741 12:0.60482942 13:2.8150548 14:1.3493573 15:-0.024739396 16:1.5247688 17:-4.5175558 18:-1.1812236 19:17.818969 20:1.2473329 21:31.154296 22:6.4666591 23:3.9618656 
0.0188609384574794 1:0 2:2.6975544 3:7.3765573 4:3.3812786 5:9.1120144 6:38.849731 7:5.2350429 8:0.15348965 9:-0.98589216 10:-3.3226296 11:0.71057072 12:0.46881646 13:2.768275 14:4.1618171 15:-0.45546376 16:0.77969492 17:0.6466017 18:-1.2142731 19:4.1233978 20:1.9052023 21:9.4652045 22:1.8582354 23:1.7046976 
0.774263682681127 1:0 2:2.2446739 3:1.5430554 4:1.7809788 5:0.86776026 6:3.9728684 7:0.56493268 8:0.1914315 9:-0.64317035 10:0.62429537 11:-0.73278327 12:-0.89137143 13:-0.9411869 14:0.41946721 15:-0.70972277 16:-0.25316006 17:0.88739648 18:-1.1510393 19:-0.44179262 20:-0.46732653 21:-0.42368815 22:-0.44597649 23:-0.49409553 
0.007290834541285374 1:0 2:3.4997628 3:10.876658 4:14.583377 5:11.708134 6:19.231496 7:16.910318 8:14.25684 9:-0.98589216 10:3.9176494 11:0.64531873 12:0.60144364 13:0.53920507 14:-1.0851535 15:0.023058656 16:1.8439697 17:-2.3943314 18:-0.48159903 19:37.601461 20:1.639255 21:53.840567 22:8.7708709 23:2.7424759 
0.008153904554383529 1:0 2:6.0159899 3:12.043359 4:9.7824776 5:23.50878 6:49.748751 7:19.245373 8:12.974717 9:-0.98589216 10:3.917983 11:0.64531873 12:0.47034646 13:2.3038913 14:-0.46662012 15:0.53221414 16:2.2244757 17:-1.8050409 18:0.058314293 19:23.90589 20:0.32351637 21:38.010041 22:34.117201 23:6.8222423 
0.2443825552446703 1:0 2:-1.7772935 3:2.7097557 4:1.7809788 5:3.5899579 6:8.3324763 7:0.56493268 8:-0.10639888 9:-0.98589216 10:-3.32444 11:0.64531873 12:0.59645174 13:0.35352061 14:3.2644452 15:-0.19386672 16:1.3645551 17:1.0243113 18:0.05018602 19:2.6016677 20:1.3103203 21:0.82280852 22:4.1624472 23:2.1068369 
-0.05463449255058184 1:0 2:-1.6975928 3:0.37635496 4:0.18067901 5:0.21920414 6:-0.3867394 7:0.56493268 8:-0.43559073 9:-0.45939539 10:-0.23201636 11:0.91512991 12:-1.3165431 13:-0.61237634 14:1.4126493 15:-0.54858208 16:0.67248722 17:1.7410052 18:-1.163256 19:-0.44179262 20:-0.46732653 21:-0.42368815 22:-0.44597649 23:-0.49409553 
0.005691053734618209 1:0 2:5.3378993 3:9.7099581 4:9.7824776 5:9.8281898 6:12.692084 7:12.240208 8:10.756995 9:-0.98589216 10:-3.3241063 11:0.64531873 12:0.46535523 13:0.52961107 14:-0.99107802 15:0.023058656 16:1.8439697 17:-2.3943314 18:-0.48159903 19:29.99281 20:1.639255 21:45.281256 22:11.075083 23:3.7283657 
0.007562623626011048 1:0 2:5.1424047 3:5.0431565 4:3.3812786 5:28.950583 6:51.928555 7:9.905153 8:10.549078 9:-0.98589216 10:0.17567864 11:-1.4464432 12:0.85585514 13:-0.9411869 14:3.1214269 15:-0.60206057 16:-0.66575627 17:1.0997301 18:-0.96348918 19:14.775509 20:0.45649 21:19.000928 22:15.683506 23:4.6947967 
0.774263682681127 1:0 2:1.3182299 3:0.37635496 4:0.18067901 5:-0.63001051 6:-0.3867394 7:0.56493268 8:0.5000127 9:-0.50604819 10:1.3972333 11:-0.49710939 12:-0.94952956 13:-0.81227983 14:0.56400726 15:-0.5211085 16:0.29289662 17:0.23418933 18:-0.030832229 19:-0.44179262 20:-0.46732653 21:-0.42368815 22:-0.44597649 23:-0.49409553 
-0.04299886732588387 1:0 2:-1.7529521 3:0.37635496 4:1.7809788 5:0.084797095 6:1.7930645 7:0.56493268 8:0.70587012 9:-0.98589216 10:3.919512 11:0.64531873 12:0.56463402 13:0.65643036 14:-1.0851535 15:-0.36692751 16:1.3478819 17:-0.20552535 18:-0.7052418 19:2.6016677 20:2.2761286 21:5.2492683 22:-0.44597649 23:6.8092704 
0.00437946434517591 1:0 2:7.2262963 3:14.37676 4:8.1821779 5:22.570999 6:34.490123 7:7.570098 8:9.9599895 9:-0.98589216 10:-3.3189219 11:0.64531873 12:0.65501714 13:0.79433399 14:3.7511808 15:-0.63129966 16:0.010564451 17:2.4397889 18:-0.82586095 19:17.818969 20:0.65245105 21:24.256988 22:4.1624472 23:3.3521707 
-0.4652934390010101 1:0 2:-1.7751838 3:0.37635496 4:1.7809788 5:-1.0316563 6:10.51228 7:2.8999878 8:2.0200777 9:-0.98589216 10:0.3068193 11:-1.4546725 12:0.24924653 13:-0.26130156 14:-0.9194785 15:-0.11331371 16:1.6936743 17:0.35466108 18:-0.61683396 19:2.6016677 20:0.37950528 21:1.6248795 22:1.8582354 23:0.29072445 
-0.1033418490984161 1:0 2:-1.8177873 3:-0.79034543 4:0.18067901 5:-0.064478808 6:8.3324763 7:5.2350429 8:0.95048683 9:-0.98589216 10:3.9033635 11:0.64531873 12:0.71393592 13:-0.9411869 14:0.23175626 15:0.052593492 16:1.5379317 17:-1.7608391 18:-1.1109749 19:5.645128 20:4.8306212 21:13.9526 22:1.8582354 23:5.5833944 
0.095767824047212 1:0 2:2.912759 3:3.8764561 4:3.3812786 5:7.0973507 6:1.7930645 7:2.8999878 8:6.5294496 9:-0.98589216 10:3.9033289 11:0.64531873 12:0.71412061 13:-0.31651401 14:2.8435345 15:-0.61802243 16:-0.66080128 17:3.0672739 18:-1.2622395 19:1.0799375 20:2.374109 21:1.4876096 22:-0.44597649 23:2.1392672 
-0.774263682681127 1:0 2:-0.18598225 3:1.5430554 4:0.18067901 5:2.0833428 6:1.7930645 7:0.56493268 8:0.811879 9:-0.39818112 10:1.0759399 11:2.6986874 12:0.2708749 13:0.48821395 14:2.6679387 15:-0.54090696 16:1.0343564 17:0.22623776 18:-0.24315617 19:-0.44179262 20:-0.46732653 21:-0.42368815 22:-0.44597649 23:-0.49409553 
0.204556005242581 1:0 2:-0.23308667 3:1.5430554 4:0.18067901 5:0.40117371 6:8.3324763 7:0.56493268 8:-0.63195209 9:-0.98589216 10:0.50961429 11:2.7371415 12:0.22440054 13:-0.24305924 14:0.27630186 15:-0.53849127 16:0.33401027 17:-0.8516714 18:0.078624911 19:4.1233978 20:2.8010243 21:11.279558 22:-0.44597649 23:6.634145 
0.774263682681127 1:0 2:0.1295242 3:0.37635496 4:0.18067901 5:-1.1739275 6:-0.3867394 7:0.56493268 8:-1.1632819 9:-0.065759335 10:-1.5996802 11:-1.0783688 12:1.0237184 13:-0.64496545 14:-1.0851535 15:-0.48049763 16:1.0021086 17:-0.73414516 18:-1.1928978 19:-0.44179262 20:-0.46732653 21:-0.42368815 22:-0.44597649 23:-0.49409553 
0.3915359819709062 1:0 2:-2.4579353 3:2.7097557 4:1.7809788 5:0.94111254 6:17.051692 7:2.8999878 8:1.7572362 9:-0.98589216 10:0.22753999 11:0.32092139 12:2.3965049 13:-0.2357081 14:1.7457923 15:-0.27681468 16:1.5237207 17:-0.45172979 18:-0.28720491 19:1.0799375 20:2.0381757 21:1.073342 22:-0.44597649 23:1.8279337 
0.02747919200664276 1:0 2:2.8284853 3:2.7097557 4:4.9815783 5:3.8439563 6:21.4113 7:7.570098 8:5.9403741 9:-0.98589216 10:-3.3021441 11:0.8590706 12:0.42581569 13:1.1650327 14:3.5565264 15:-0.62833709 16:0.037263672 17:2.2913559 18:-0.76214355 19:2.6016677 20:0.19054279 21:2.0693115 22:1.8582354 23:0.11559931 
0.0346921851951565 1:0 2:3.1309115 3:8.5432577 4:3.3812786 5:7.0751634 6:30.130515 7:0.56493268 8:3.8959023 9:-0.39818112 10:1.0759399 11:2.6986874 12:0.2708749 13:2.8156882 14:3.2384138 15:-0.54090696 16:1.0343564 17:0.22623776 18:-0.24315617 19:-0.44179262 20:-0.46732653 21:-0.42368815 22:-0.44597649 23:-0.49409553 
-0.4464116924483995 1:0 2:0.12653289 3:0.37635496 4:-1.4196208 5:-4.9060642 6:3.9728684 7:-1.7701224 8:-1.232586 9:1.7021428 10:0.29677153 11:0.64531873 12:0.53339944 13:-0.9411869 14:-1.0851535 15:1.7587392 16:-1.658353 17:0.45327538 18:1.6423116 19:-0.44179262 20:-0.46732653 21:-0.42368815 22:-0.44597649 23:-0.49409553 
0.002978325483381672 1:0 2:4.9222381 3:15.54346 4:16.183677 5:16.895105 6:47.568947 7:16.910318 8:3.1682141 9:-0.98589216 10:0.26993398 11:-1.4369681 12:0.90611279 13:-0.9411869 14:3.9410726 15:-0.67857169 16:-0.20798828 17:0.45105145 18:-0.8016617 19:25.42762 20:1.8632105 21:36.805081 22:11.075083 23:3.1965041 
0.005173089192963947 1:0 2:3.8920737 3:8.5432577 4:8.1821779 5:8.2488829 6:14.871888 7:12.240208 8:12.974717 9:-0.98589216 10:0.2593594 11:-1.4086603 12:1.0140082 13:-0.85410586 14:3.0080713 15:-0.59621644 16:-0.52195804 17:2.5868588 18:-0.43923577 19:20.862429 20:-0.13839187 21:33.481089 22:15.683506 23:6.6665757 
-0.2657823025852697 1:0 2:-0.20037792 3:2.7097557 4:0.18067901 5:1.5469967 6:10.51228 7:2.8999878 8:1.0197916 9:-0.35187537 10:0.27947865 11:0.0018069701 12:-1.2635472 13:-0.9411869 14:1.1343971 15:-0.66881943 16:0.00090135515 17:-0.26520788 18:-1.0423596 19:-0.44179262 20:-0.46732653 21:-0.42368815 22:-0.44597649 23:-0.49409553 
0.774263682681127 1:0 2:-0.17362214 3:-0.79034543 4:0.18067901 5:-0.063904346 6:1.7930645 7:2.8999878 8:1.7474814 9:-0.31858188 10:1.0969461 11:-0.6183937 12:-0.9238992 13:-0.9411869 14:1.3560602 15:-0.67437084 16:-0.55213631 17:0.85170364 18:-0.06065568 19:-0.44179262 20:-0.46732653 21:-0.42368815 22:-0.44597649 23:-0.49409553 
0.002459338916631046 1:0 2:3.940145 3:9.7099581 4:9.7824776 5:26.193372 6:38.849731 7:14.575263 8:13.251693 9:-0.98589216 10:3.9085379 11:0.72202693 12:0.6669711 13:1.5376742 14:3.4271127 15:-0.45932436 16:0.85206433 17:-0.14815426 18:-0.82367509 19:19.340699 20:0.56146913 21:27.579143 22:15.683506 23:5.6547415 
-0.774263682681127 1:0 2:-0.48784 3:-0.79034543 4:0.18067901 5:-0.80127866 6:-0.3867394 7:0.56493268 8:-0.95537037 9:-0.13256492 10:-0.99702564 11:-1.2095116 12:1.1589801 13:-0.27900432 14:-0.90215975 15:-0.39481749 16:0.93090594 17:-0.38246152 18:-0.6138851 19:-0.44179262 20:-0.46732653 21:-0.42368815 22:-0.44597649 23:-0.49409553 
0.0008518953878268176 1:0 2:6.8641518 3:10.876658 4:8.1821779 5:16.379801 6:47.568947 7:14.575263 8:10.792413 9:-0.98589216 10:3.9194513 11:0.64531873 12:0.56649016 13:-0.9411869 14:4.7420066 15:-0.64829294 16:-0.22451381 17:1.0330034 18:-0.12856663 19:17.818969 20:2.0731689 21:38.183932 22:6.4666591 23:4.9153247 
0.001762403726280754 1:0 2:4.5915595 3:10.876658 4:4.9815783 5:12.938408 6:65.007378 7:12.240208 8:5.9011439 9:-0.98589216 10:0.29677153 11:2.7374691 12:0.20679844 13:1.9496464 14:2.8026434 15:-0.072103587 16:1.4917488 17:-0.33292114 18:-0.51824942 19:4.1233978 20:4.543678 21:6.2098888 22:-0.44597649 23:5.1423384 
-0.2838286272126546 1:0 2:-0.62423013 3:1.5430554 4:0.18067901 5:0.090412904 6:-0.3867394 7:0.56493268 8:0.22279571 9:-0.44433351 10:0.43979496 11:1.1156351 12:-1.3038681 13:1.4067991 14:-0.24825302 15:-0.41745604 16:1.0286084 17:-1.9799308 18:0.16660186 19:-0.44179262 20:-0.46732653 21:-0.42368815 22:-0.44597649 23:-0.49409553 
0.006292713714488751 1:0 2:7.3404785 3:9.7099581 4:9.7824776 5:17.506804 6:49.748751 7:23.915484 8:9.6827778 9:-0.98589216 10:3.8887876 11:0.43120611 12:0.69116295 13:3.3811791 14:-0.51218299 15:0.40073536 16:2.1105464 17:-2.9514198 18:-0.29370662 19:14.775509 20:1.1423537 21:13.2878 22:-0.44597649 23:7.3216735 
0.002910082342033695 1:0 2:7.8018291 3:6.2098569 4:8.1821779 5:15.607446 6:36.669927 7:7.570098 8:10.306514 9:-0.98589216 10:3.9110172 11:0.71802104 12:0.64942096 13:4.7403325 14:-0.1777393 15:0.40295086 16:1.6013998 17:-5.7165781 18:-0.021115739 19:13.253779 20:0.19054279 21:24.589384 22:13.379295 23:4.1694214 
0.007900845535990131 1:0 2:7.0863507 3:9.7099581 4:11.382777 5:30.717995 6:47.568947 7:23.915484 8:18.778923 9:-0.98589216 10:0.20068078 11:-1.4153902 12:0.98842209 13:-0.62603713 14:4.4371524 15:-0.58476341 16:-0.15753129 17:3.4354577 18:-0.28581721 19:39.123191 20:0.65245105 21:60.550868 22:31.812989 23:8.5670077 
0.2364356389438885 1:0 2:-2.1822557 3:0.37635496 4:0.18067901 5:-3.422795 6:12.692084 7:0.56493268 8:-0.21407517 9:-0.98589216 10:0.3065658 11:-1.4569484 12:0.26282725 13:-0.26076846 14:2.8975557 15:-0.6182082 16:-0.39925628 17:2.9925554 18:-0.97425542 19:1.0799375 20:-0.11739604 21:-0.34489709 22:1.8582354 23:-0.16978976 
0.01744279760658556 1:0 2:0.31504357 3:0.37635496 4:1.7809788 5:-0.082263325 6:8.3324763 7:0.56493268 8:1.9900448 9:-0.62643445 10:-1.8212607 11:-0.33867249 12:-0.72260776 13:0.2900627 14:-1.0851535 15:-0.22735904 16:1.2563756 17:2.2891461 18:-1.1422051 19:-0.44179262 20:-0.46732653 21:-0.42368815 22:-0.44597649 23:-0.49409553 
-0.09496151703701065 1:0 2:-0.10456377 3:0.37635496 4:-1.4196208 5:5.2914872 6:21.4113 7:-1.7701224 8:-1.232586 9:1.7021428 10:0.29677153 11:0.64531873 12:0.53339944 13:-0.9411869 14:-1.0851535 15:1.7587392 16:-1.658353 17:0.45327538 18:1.6423116 19:-0.44179262 20:-0.46732653 21:-0.42368815 22:-0.44597649 23:-0.49409553 
0.3859630977110481 1:0 2:-1.4221798 3:1.5430554 4:1.7809788 5:1.1554876 6:12.692084 7:2.8999878 8:0.49423938 9:-0.98589216 10:0.30860987 11:2.7573179 12:0.33120483 13:0.7972964 14:0.10495195 15:-0.075825832 16:1.6466028 17:0.90501504 18:-0.91624519 19:2.6016677 20:2.2341368 21:5.9680871 22:-0.44597649 23:4.6364216 
0.008367571707902425 1:0 2:6.2563915 3:8.5432577 4:8.1821779 5:25.828398 6:36.669927 7:14.575263 8:10.617285 9:-0.98589216 10:0.22060945 11:2.7311939 12:0.17877985 13:-0.0765942 14:4.5736704 15:-0.6270925 16:-0.23478917 17:2.597428 18:-0.21290972 19:5.645128 20:-0.13839187 21:3.7130458 22:11.075083 23:4.8180326 
-0.2841314094701119 1:0 2:-1.2389175 3:1.5430554 4:1.7809788 5:0.093580687 6:19.231496 7:0.56493268 8:-0.1237234 9:-0.98589216 10:-0.16402623 11:2.7112178 12:0.90104777 13:-0.9411869 14:2.0708483 15:-0.29552619 16:1.2791724 17:0.43879742 18:-1.2547878 19:4.1233978 20:2.8150215 21:8.3017995 22:-0.44597649 23:5.6871722 
0.774263682681127 1:0 2:-2.6663466 3:0.37635496 4:1.7809788 5:-3.2276206 6:1.7930645 7:0.56493268 8:0.36140318 9:-0.98589216 10:-3.296193 11:0.64531873 12:0.77663695 13:-0.74197869 14:0.2698138 15:0.10515478 16:1.70068 17:-1.837857 18:-0.75679768 19:2.6016677 20:3.4239005 21:5.3102134 22:-0.44597649 23:3.4494625 
-0.774263682681127 1:0 2:-0.6092575 3:2.7097557 4:1.7809788 5:0.90838102 6:6.1526723 7:2.8999878 8:-0.70703113 9:-0.36800478 10:-0.12851995 11:-0.023262055 12:-1.2426064 13:0.80158873 14:3.1738007 15:-0.52264217 16:0.45411931 17:-2.0519824 18:-0.24904203 19:-0.44179262 20:-0.46732653 21:-0.42368815 22:-0.44597649 23:-0.49409553 
0.7597648853449195 1:0 2:-1.9138103 3:1.5430554 4:0.18067901 5:-5.3203487 6:-0.3867394 7:0.56493268 8:-0.67815471 9:-0.27642305 10:1.1555574 11:1.6456109 12:-1.0688724 13:-0.50718274 14:-1.0851535 15:-0.557406 16:0.53138337 17:0.57889896 18:-0.75861627 19:-0.44179262 20:-0.46732653 21:-0.42368815 22:-0.44597649 23:-0.49409553 
0.5369107279706911 1:0 2:0.14545201 3:1.5430554 4:0.18067901 5:-0.53845156 6:1.7930645 7:0.56493268 8:-0.54262706 9:-0.98589216 10:0.30682022 11:-1.454664 12:0.24919731 13:1.1862563 14:-0.49281894 15:-0.53392834 16:0.49873489 17:-0.49990383 18:-0.99257961 19:4.1233978 20:1.2473329 21:1.9400437 22:1.8582354 23:1.0950027 
0.01704042075831604 1:0 2:4.0715334 3:8.5432577 4:6.5818781 5:10.094323 6:36.669927 7:14.575263 8:9.8560406 9:-0.98589216 10:-3.3189686 11:0.71122972 12:0.63959213 13:1.2880075 14:1.3058926 15:-0.39191192 16:1.2160799 17:-3.8023409 18:-0.60841336 19:5.645128 20:2.6610519 21:5.642609 22:8.7708709 23:5.4925886 
-0.7235967968698962 1:0 2:2.1137426 3:-0.79034543 4:0.18067901 5:-0.58435084 6:-0.3867394 7:0.56493268 8:-0.22767723 9:-0.0452182 10:-0.9685014 11:-1.3449826 12:0.55988595 13:1.0500702 14:-0.52679821 15:-0.45736459 16:1.0065798 17:-0.097658881 18:-0.52502878 19:-0.44179262 20:-0.46732653 21:-0.42368815 22:-0.44597649 23:-0.49409553 
-0.6642101378956585 1:0 2:-2.1171677 3:1.5430554 4:-1.4196208 5:-5.0831203 6:1.7930645 7:-1.7701224 8:-1.232586 9:1.7021428 10:0.29677153 11:0.64531873 12:0.53339944 13:-0.9411869 14:-1.0851535 15:1.7587392 16:-1.658353 17:0.45327538 18:1.6423116 19:-0.44179262 20:-0.46732653 21:-0.42368815 22:-0.44597649 23:-0.49409553 
0.774263682681127 1:0 2:-1.3368642 3:1.5430554 4:0.18067901 5:1.2720656 6:6.1526723 7:2.8999878 8:0.15349355 9:-0.078128008 10:-1.8233787 11:-0.29381128 12:-0.74843446 13:0.7160767 14:1.0098035 15:-0.26396647 16:0.95537781 17:2.3934463 18:0.0015977281 19:-0.44179262 20:-0.46732653 21:-0.42368815 22:-0.44597649 23:-0.49409553 
0.001540185523282334 1:0 2:3.2794976 3:12.043359 4:12.983077 5:21.792765 6:25.770908 7:9.905153 8:9.8791454 9:-0.98589216 10:-3.2999873 11:0.7948482 12:0.71822128 13:2.5857695 14:2.3193629 15:-0.37430386 16:0.68636619 17:-2.9365735 18:-1.0118492 19:16.297239 20:1.6322564 21:18.391526 22:6.4666591 23:5.9141864 
0.0007348630361623996 1:0 2:4.834709 3:14.37676 4:12.983077 5:18.283609 6:41.029535 7:16.910318 8:16.180664 9:-0.98589216 10:0.28682613 11:2.7484491 12:0.79863114 13:0.31496665 14:4.7560526 15:-0.56701203 16:0.25427179 17:1.7163478 18:-0.7111338 19:19.340699 20:1.9821869 21:27.231975 22:11.075083 23:4.9347829 
0.1304097207983182 1:0 2:-2.0454211 3:0.37635496 4:1.7809788 5:-0.86533455 6:10.51228 7:7.570098 8:3.1371541 9:-0.98589216 10:0.30656461 11:-1.4553067 12:0.25296171 13:-0.63729837 14:1.8274448 15:-0.62954021 16:-0.74257824 17:0.42351813 18:-1.163302 19:5.645128 20:2.8290187 21:12.261673 22:-0.44597649 23:6.4006451 
-0.774263682681127 1:0 2:0.039626529 3:-0.79034543 4:0.18067901 5:-1.1739275 6:-0.3867394 7:0.56493268 8:-1.1632819 9:-0.065759335 10:-1.5996802 11:-1.0783688 12:1.0237184 13:-0.64496545 14:-1.0851535 15:-0.48049763 16:1.0021086 17:-0.73414516 18:-1.1928978 19:-0.44179262 20:-0.46732653 21:-0.42368815 22:-0.44597649 23:-0.49409553 
0.003177171249225114 1:0 2:5.3163656 3:3.8764561 4:4.9815783 5:22.486689 6:27.950712 7:5.2350429 8:6.6680604 9:-0.98589216 10:-3.3191452 11:0.72791381 12:0.43864341 13:0.11907698 14:2.7087679 15:-0.51772323 16:0.48357722 17:-0.37462861 18:-0.76753277 19:11.732049 20:0.59646214 21:13.454009 22:8.7708709 23:5.1228802 
0.007488534663688946 1:0 2:5.6563629 3:16.71016 4:12.983077 5:14.221853 6:45.389143 7:19.245373 8:12.688996 9:-0.98589216 10:0.14128758 11:-1.449125 12:0.83763086 13:-0.78763739 14:2.3053165 15:0.34693118 16:1.7966971 17:-5.2400054 18:0.11907282 19:19.340699 20:0.8414135 21:22.490167 22:27.204566 23:7.4319375 
0.005687959669766469 1:0 2:6.3532971 3:3.8764561 4:3.3812786 5:2.2410025 6:23.591104 7:14.575263 8:3.731131 9:-0.98589216 10:-0.030738656 11:2.0234857 12:1.9581215 13:-0.69159368 14:2.814471 15:-0.69637546 16:-0.73027278 17:0.97827577 18:1.6423116 19:11.732049 20:3.1369576 21:33.823682 22:8.7708709 23:6.5692842 
0.07058418968917483 1:0 2:-0.4133495 3:5.0431565 4:3.3812786 5:0.10861438 6:23.591104 7:0.56493268 8:1.5272498 9:-0.98589216 10:0.36136117 11:0.95194166 12:-1.3321209 13:3.0220932 14:3.120666 15:-0.31330934 16:1.1273198 17:0.39283744 18:-1.1132356 19:2.6016677 20:2.1291577 21:3.3582828 22:1.8582354 23:2.8851706 
0.3155398113745486 1:0 2:-2.0030107 3:0.37635496 4:0.18067901 5:-0.423126 6:1.7930645 7:0.56493268 8:-1.232586 9:1.7021428 10:0.29677153 11:0.64531873 12:0.53339944 13:-0.9411869 14:-1.0851535 15:1.7587392 16:-1.658353 17:0.45327538 18:1.6423116 19:1.0799375 20:5.0685737 21:2.8172089 22:1.8582354 23:4.6364216 
0.06462445763720209 1:0 2:2.3872585 3:1.5430554 4:0.18067901 5:4.0323151 6:10.51228 7:5.2350429 8:0.3267531 9:-0.98589216 10:3.9043887 11:0.49580657 12:0.41947985 13:0.80635324 14:2.4057914 15:-0.30692828 16:1.0801283 17:1.1743923 18:-0.0099364324 19:5.645128 20:2.0381757 21:5.8780603 22:1.8582354 23:2.0873784 
0.07893289319707725 1:0 2:1.124207 3:3.8764561 4:6.5818781 5:1.7486103 6:17.051692 7:9.905153 8:3.0296053 9:-0.98589216 10:-3.3245171 11:0.64531873 12:0.59523813 13:1.4076484 14:2.482464 15:-0.070824198 16:1.7211433 17:-0.54685846 18:-0.26464882 19:5.645128 20:3.2209408 21:8.9666071 22:-0.44597649 23:5.5833944 
-0.4073484252576164 1:0 2:-0.4947865 3:1.5430554 4:1.7809788 5:-0.37308614 6:3.9728684 7:2.8999878 8:0.43070791 9:-0.98589216 10:-3.2876863 11:0.4430014 12:0.32495453 13:0.92293408 14:2.5474635 15:-0.63406045 16:0.091118544 17:0.45589393 18:-0.39185757 19:1.0799375 20:6.1463596 21:3.8144122 22:-0.44597649 23:5.6352833 
-0.2447093324012141 1:0 2:3.9043849 3:5.0431565 4:6.5818781 5:3.2633448 6:8.3324763 7:2.8999878 8:6.3215437 9:-0.98589216 10:-3.3053032 11:0.50346936 12:0.69327069 13:-0.8457457 14:1.4240375 15:-0.49397372 16:-0.44397576 17:3.8230871 18:-0.19576455 19:5.645128 20:1.3453133 21:8.1356136 22:6.4666591 23:3.0148927 
-0.774263682681127 1:0 2:0.043169789 3:0.37635496 4:0.18067901 5:-0.56966634 6:-0.3867394 7:0.56493268 8:-0.54262706 9:-0.98589216 10:0.30682022 11:-1.454664 12:0.24919731 13:1.1862563 14:-0.49281894 15:-0.53392834 16:0.49873489 17:-0.49990383 18:-0.99257961 19:4.1233978 20:1.2473329 21:1.9400437 22:1.8582354 23:1.0950027 
0.00322002160805851 1:0 2:5.1640725 3:5.0431565 4:6.5818781 5:16.628013 6:41.029535 7:9.905153 8:13.910321 9:-0.98589216 10:3.9110172 11:0.71802104 12:0.64942096 13:4.7403325 14:-0.1777393 15:0.40295086 16:1.6013998 17:-5.7165781 18:-0.021115739 19:5.645128 20:0.19054279 21:9.1327994 22:1.8582354 23:2.5284341 
0.1663793329134275 1:0 2:-2.3799895 3:0.37635496 4:0.18067901 5:-4.4614505 6:8.3324763 7:2.8999878 8:-0.52009495 9:-0.2350898 10:2.1549009 11:2.3525098 12:1.1025867 13:-0.9411869 14:-0.24025972 15:-0.5382068 16:0.62188706 17:2.0638748 18:-0.8661465 19:1.0799375 20:3.8788102 21:0.65545784 22:-0.44597649 23:3.5337821 
-0.774263682681127 1:0 2:-1.2102021 3:-0.79034543 4:0.18067901 5:1.2855316 6:-0.3867394 7:0.56493268 8:0.084187525 9:-0.98589216 10:3.9161726 11:0.58006674 12:0.59798241 13:-0.25157168 14:1.9769281 15:-0.45546376 16:0.77969492 17:0.6466017 18:-1.2142731 19:2.6016677 20:0.61745795 21:1.7369077 22:4.1624472 23:1.7046976 
0.001633617731695113 1:0 2:2.9719901 3:5.0431565 4:4.9815783 5:-0.053026195 6:14.871888 7:12.240208 8:4.9517181 9:-0.98589216 10:0.42897286 11:-1.4745746 12:0.63272608 13:1.4594544 14:-0.94562737 15:-0.18827844 16:1.5040442 17:0.44144907 18:0.1750517 19:13.253779 20:0.56146913 21:30.408707 22:8.7708709 23:4.2277965 
-0.1371771781985736 1:0 2:-0.7989558 3:3.8764561 4:1.7809788 5:3.748106 6:21.4113 7:2.8999878 8:1.4615395 9:-0.98589216 10:0.22956437 11:0.32735192 12:2.3973981 13:0.98671214 14:0.46668937 15:-0.42845265 16:1.3379992 17:-0.29928846 18:-1.1059237 19:5.645128 20:3.32592 21:12.734419 22:-0.44597649 23:5.9920198 
-0.774263682681127 1:0 2:-0.50485932 3:-0.79034543 4:0.18067901 5:1.0847189 6:1.7930645 7:0.56493268 8:-0.60884999 9:-0.10729941 10:-0.066420757 11:-0.37605306 12:2.1758709 13:0.45975152 14:1.5492898 15:-0.48163382 16:0.6994023 17:2.1357071 18:0.13334838 19:-0.44179262 20:-0.46732653 21:-0.42368815 22:-0.44597649 23:-0.49409553 
0.01058651233886787 1:0 2:2.7317375 3:3.8764561 4:0.18067901 5:1.9325804 6:10.51228 7:0.56493268 8:-0.95537037 9:-0.98589216 10:-3.324516 11:0.64531873 12:0.59525584 13:2.5224594 14:2.2300292 15:-0.31347304 16:1.3105007 17:-1.8065016 18:-0.93207416 19:1.0799375 20:6.0903707 21:3.7313114 22:-0.44597649 23:5.5833944 
-0.774263682681127 1:0 2:-0.14511344 3:1.5430554 4:0.18067901 5:1.2366724 6:-0.3867394 7:0.56493268 8:-0.52009495 9:-0.2350898 10:-1.5613578 11:-1.0618723 12:-0.035787837 13:0.14596521 14:0.40080225 15:-0.5382068 16:0.62188706 17:2.0638748 18:-0.8661465 19:-0.44179262 20:-0.46732653 21:-0.42368815 22:-0.44597649 23:-0.49409553 
0.1539677672267881 1:0 2:3.1429734 3:2.7097557 4:3.3812786 5:-1.859458 6:10.51228 7:2.8999878 8:2.0940032 9:-0.98589216 10:-3.3131614 11:0.57794252 12:0.38344421 13:2.4677579 14:2.2016676 15:0.0025385945 16:1.9053745 17:-2.0343496 18:-0.80250099 19:4.1233978 20:4.2147434 21:10.213105 22:1.8582354 23:6.2125478 
0.007800048618026405 1:0 2:6.644915 3:10.876658 4:9.7824776 5:23.10806 6:62.827574 7:28.585594 8:18.062779 9:-0.98589216 10:0.1920425 11:2.6912526 12:0.029036621 13:-0.9411869 14:3.885622 15:-0.31598719 16:-0.39824539 17:4.0901183 18:-0.33129355 19:19.340699 20:0.91839822 21:26.493776 22:13.379295 23:5.2331442 
0.03299777673227538 1:0 2:1.8450954 3:5.0431565 4:3.3812786 5:7.54711 6:30.130515 7:5.2350429 8:-0.71280708 9:-0.16285292 10:0.20066505 11:-1.4153874 12:0.98843083 13:0.12705242 14:3.8835782 15:-0.65362367 16:-0.0046347126 17:-1.2297923 18:-0.28485095 19:5.645128 20:5.8314223 21:6.8475609 22:4.1624472 23:8.5670077 
-0.491067924221493 1:0 2:-1.7829357 3:1.5430554 4:1.7809788 5:2.0999223 6:3.9728684 7:0.56493268 8:-0.40094069 9:-0.98589216 10:-3.3226296 11:0.71057072 12:0.46881646 13:-0.62445996 14:1.9779829 15:-0.45546376 16:0.77969492 17:0.6466017 18:-1.2142731 19:4.1233978 20:1.9052023 21:7.8032018 22:1.8582354 23:1.7046976 
-0.774263682681127 1:0 2:0.77324391 3:1.5430554 4:3.3812786 5:0.96253491 6:-0.3867394 7:0.56493268 8:0.43070821 9:-0.98589216 10:-3.3191452 11:0.72791381 12:0.43864341 13:0.54646347 14:-0.49219049 15:-0.51772323 16:0.48357722 17:-0.37462861 18:-0.76753277 19:1.0799375 20:0.72243717 21:0.32421161 22:1.8582354 23:0.6085441 
0.08605597600126311 1:0 2:-0.16052671 3:3.8764561 4:3.3812786 5:-4.3175142 6:6.1526723 7:2.8999878 8:0.82989124 9:-0.617916 10:0.37276259 11:-1.4405613 12:0.88800523 13:1.2978842 14:-1.0851535 15:-0.23082058 16:1.3605964 17:2.1822632 18:-1.0912383 19:1.0799375 20:6.3773136 21:1.9144603 22:1.8582354 23:5.849325 
0.03740483608703869 1:0 2:1.9401299 3:8.5432577 4:1.7809788 5:18.382441 6:41.029535 7:0.56493268 8:0.75990047 9:-0.98589216 10:0.26922066 11:2.6959048 12:0.041331327 13:0.80399928 14:2.1169794 15:-0.2446511 16:1.2006709 17:0.65656641 18:-0.62131744 19:5.645128 20:1.3103203 21:11.418046 22:15.683506 23:6.8222423 
0.2988001090419247 1:0 2:-0.79860555 3:3.8764561 4:1.7809788 5:-4.4323984 6:1.7930645 7:2.8999878 8:-0.1930288 9:-0.98589216 10:0.28329103 11:-1.4378677 12:0.9023286 13:0.15789509 14:-0.91678895 15:-0.38977124 16:0.29120061 17:1.3032638 18:-0.51875695 19:4.1233978 20:1.0233774 21:5.4625613 22:1.8582354 23:3.4624347 
0.774263682681127 1:0 2:-0.032085306 3:3.8764561 4:3.3812786 5:1.1435381 6:-0.3867394 7:0.56493268 8:1.0173866 9:-0.98589216 10:-3.3023425 11:0.64531873 12:0.75062419 13:-0.53501431 14:1.0950472 15:-0.66416435 16:-0.55858381 17:0.31886531 18:-0.87808375 19:4.1233978 20:0.97438705 21:4.3425486 22:1.8582354 23:0.84204418 
0.4271591120702291 1:0 2:0.77203257 3:0.37635496 4:0.18067901 5:2.3238184 6:6.1526723 7:0.56493268 8:-0.054418313 9:-0.98589216 10:0.46133369 11:-1.4648185 12:0.33394825 13:2.0982422 14:2.9517286 15:-0.24904245 16:0.90993806 17:0.91238802 18:-1.16137 19:1.0799375 20:1.4362953 21:0.32421161 22:1.8582354 23:1.2701278 
0.04901548316199406 1:0 2:-0.015728338 3:2.7097557 4:3.3812786 5:-2.0487958 6:17.051692 7:7.570098 8:0.74140008 9:-0.98589216 10:0.68088244 11:-1.3468421 12:1.1566806 13:-0.70355089 14:2.494606 15:-0.63379975 16:-0.67717952 17:3.6010443 18:-0.11923262 19:2.6016677 20:2.5210798 21:5.2118819 22:4.1624472 23:5.1423384 
0.003219323433733599 1:0 2:3.9424795 3:9.7099581 4:9.7824776 5:23.194773 6:41.029535 7:21.580428 8:11.848531 9:-0.98589216 10:0.31027987 11:2.728505 12:0.1644703 13:0.38547999 14:4.0355715 15:-0.4583737 16:0.24286724 17:1.1575348 18:0.027450767 19:16.297239 20:0.65245105 21:20.766796 22:6.4666591 23:4.7531718 
0.2507224519937916 1:0 2:-2.1836731 3:1.5430554 4:3.3812786 5:1.3969833 6:3.9728684 7:2.8999878 8:1.3951888 9:-0.98589216 10:0.40151345 11:-1.400581 12:1.0378708 13:0.21563527 14:-0.83847671 15:-0.20004455 16:1.4967163 17:-0.20525789 18:-0.90925058 19:2.6016677 20:1.4362953 21:1.8269313 22:-0.44597649 23:1.7046976 
0.02604316205157702 1:0 2:-0.068044299 3:6.2098569 4:3.3812786 5:11.090676 6:34.490123 7:2.8999878 8:1.2970053 9:-0.98589216 10:0.29148498 11:-1.4767031 12:0.44692704 13:4.7570221 14:1.417258 15:-0.31356835 16:1.1480431 17:-4.2915649 18:-0.42289739 19:1.0799375 20:5.3975085 21:3.3989074 22:-0.44597649 23:4.9412692 
-0.5823666630841825 1:0 2:0.63176061 3:-0.79034543 4:0.18067901 5:1.4371731 6:12.692084 7:2.8999878 8:2.475171 9:-0.39143521 10:0.53990208 11:0.48710303 12:-1.3426711 13:1.841566 14:2.663051 15:-0.38042446 16:0.84668156 17:-1.9001937 18:-1.0986571 19:-0.44179262 20:-0.46732653 21:-0.42368815 22:-0.44597649 23:-0.49409553 
0.009968408541656829 1:0 2:3.1893162 3:2.7097557 4:3.3812786 5:-0.77738263 6:12.692084 7:5.2350429 8:2.6443263 9:-0.98589216 10:3.9194758 11:0.64531873 12:0.5657606 13:2.2078241 14:-0.18840823 15:0.02530762 16:1.7528495 17:-3.6227995 18:0.052612746 19:5.645128 20:3.9208018 21:9.2676125 22:-0.44597649 23:5.0839639 
-0.2013988519111325 1:0 2:-0.072344368 3:7.3765573 4:4.9815783 5:12.527875 6:43.209339 7:7.570098 8:1.9970061 9:-0.98589216 10:-3.316119 11:0.64531873 12:0.39099873 13:-0.9411869 14:3.520205 15:-0.62372494 16:-0.47533097 17:0.19739385 18:-0.54161508 19:7.1668581 20:1.4152995 21:7.961378 22:11.075083 23:4.3964354 
-0.7444905491796246 1:0 2:0.42358993 3:0.37635496 4:0.18067901 5:0.68476996 6:-0.3867394 7:0.56493268 8:0.084187525 9:-0.98589216 10:0.16850201 11:-1.474793 12:0.63041942 13:-0.9411869 14:1.7013624 15:-0.71713404 16:0.040651259 17:0.17661876 18:-0.082341795 19:-0.44179262 20:-0.46732653 21:-0.42368815 22:1.8582354 23:1.1533777 
0.774263682681127 1:0 2:1.6242149 3:-0.79034543 4:0.18067901 5:1.0847189 6:1.7930645 7:0.56493268 8:0.56931743 9:-0.98589216 10:0.67994557 11:2.7456198 12:0.73335364 13:1.7390404 14:-0.25211767 15:-0.56999035 16:0.87853502 17:-1.1392792 18:0.026243809 19:1.0799375 20:-0.13839187 21:-0.0081882234 22:1.8582354 23:-0.18924811 
0.007525288809062031 1:0 2:8.4296147 3:10.876658 4:11.382777 5:24.761588 6:47.568947 7:30.920649 8:16.46722 9:-0.98589216 10:0.22060945 11:2.7311939 12:0.17877985 13:-0.0765942 14:4.5736704 15:-0.6270925 16:-0.23478917 17:2.597428 18:-0.21290972 19:31.514541 20:-0.13839187 21:44.9005 22:36.421413 23:6.0439086 
-0.07718264286625931 1:0 2:-0.038903257 3:2.7097557 4:3.3812786 5:1.0175258 6:17.051692 7:2.8999878 8:2.0200777 9:-0.98589216 10:3.9194982 11:0.64531873 12:0.56506733 13:1.6514334 14:0.58354393 15:-0.51835911 16:1.0507701 17:0.1001056 18:-0.72402019 19:4.1233978 20:3.32592 21:5.8008058 22:-0.44597649 23:6.10877 
0.003329795751333631 1:0 2:5.0407781 3:14.37676 4:11.382777 5:22.309989 6:47.568947 7:9.905153 8:14.152884 9:-0.98589216 10:0.57533469 11:-1.4619776 12:0.34488036 13:1.0159417 14:4.2634753 15:-0.53671581 16:0.066154927 17:3.6507741 18:0.037415185 19:34.558001 20:1.800223 21:44.367204 22:13.379295 23:6.9779096 
0.179034159682902 1:0 2:-1.2640063 3:6.2098569 4:3.3812786 5:-3.2691101 6:1.7930645 7:2.8999878 8:1.3663088 9:-0.38591218 10:-1.7908028 11:-0.26842464 12:1.8438504 13:0.52858064 14:-0.68027672 15:0.16222989 16:2.150149 17:-2.6168762 18:0.014204992 19:-0.44179262 20:-0.46732653 21:-0.42368815 22:-0.44597649 23:-0.49409553 
0.004774855867910099 1:0 2:6.4682677 3:13.210059 4:12.983077 5:20.570083 6:54.108359 7:14.575263 8:14.707303 9:-0.98589216 10:-3.3246259 11:0.71300542 12:0.53448713 13:0.12162305 14:4.0220437 15:-0.75693612 16:0.10132945 17:1.1877607 18:0.042265674 19:19.340699 20:2.9269991 21:41.126282 22:8.7708709 23:5.5833944 
0.02052895871857628 1:0 2:-0.42959404 3:3.8764561 4:4.9815783 5:4.6678638 6:17.051692 7:7.570098 8:3.722647 9:-0.98589216 10:0.19238946 11:2.6912568 12:0.029030777 13:1.5068759 14:1.6190938 15:-0.43860386 16:1.004284 17:-1.0402592 18:-0.12021605 19:7.1668581 20:1.2963231 21:10.829429 22:1.8582354 23:2.4960037 
0.774263682681127 1:0 2:1.5928579 3:0.37635496 4:0.18067901 5:1.188243 6:1.7930645 7:0.56493268 8:-1.1632819 9:-0.065759335 10:-1.5996802 11:-1.0783688 12:1.0237184 13:1.4614768 14:-1.0851535 15:-0.48049763 16:1.0021086 17:-0.73414516 18:-1.1928978 19:-0.44179262 20:-0.46732653 21:-0.42368815 22:-0.44597649 23:-0.49409553 
0.6268869011377263 1:0 2:0.087412193 3:0.37635496 4:1.7809788 5:1.1683853 6:1.7930645 7:2.8999878 8:1.4702677 9:-0.54079222 10:-0.91379687 11:1.1748822 12:-1.1805221 13:-0.061983904 14:1.0510606 15:-0.55107562 16:0.67376576 17:0.04410836 18:-0.37235723 19:-0.44179262 20:-0.46732653 21:-0.42368815 22:-0.44597649 23:-0.49409553 
0.003647732574278691 1:0 2:2.6003046 3:9.7099581 4:4.9815783 5:20.442075 6:49.748751 7:14.575263 8:8.8211018 9:-0.98589216 10:0.36169523 11:0.95215355 12:-1.3320904 13:3.9598142 14:1.142721 15:-0.08583395 16:1.8449453 17:-3.9810583 18:-0.075343094 19:11.732049 20:1.7232384 21:16.122435 22:6.4666591 23:4.9866718 
-0.01030947096854864 1:0 2:-1.6728783 3:5.0431565 4:0.18067901 5:0.40322736 6:19.231496 7:0.56493268 8:-0.92071832 9:-0.13758479 10:-0.69636523 11:0.36517802 12:-1.2628238 13:-0.26251041 14:0.65953506 15:0.015984487 16:2.0617521 17:-1.0500307 18:0.17766779 19:-0.44179262 20:-0.46732653 21:-0.42368815 22:-0.44597649 23:-0.49409553 
-0.2266543415314524 1:0 2:0.81559337 3:0.37635496 4:1.7809788 5:0.24869339 6:6.1526723 7:2.8999878 8:0.80033014 9:-0.98589216 10:3.9173991 11:0.71815123 12:0.5640826 13:1.0734134 14:-0.96333155 15:-0.24880721 16:1.1850402 17:0.28483498 18:-0.28150937 19:5.645128 20:5.0825709 21:14.811297 22:1.8582354 23:5.4990748 
-0.02877493860503248 1:0 2:-1.4495881 3:2.7097557 4:1.7809788 5:4.3451961 6:43.209339 7:2.8999878 8:-1.232586 9:1.7021428 10:0.29677153 11:0.64531873 12:0.53339944 13:-0.9411869 14:-1.0851535 15:1.7587392 16:-1.658353 17:0.45327538 18:1.6423116 19:1.0799375 20:4.5996668 21:0.61506173 22:4.1624472 23:5.7909499 
0.774263682681127 1:0 2:1.4799114 3:0.37635496 4:0.18067901 5:3.9337793 6:3.9728684 7:0.56493268 8:0.014886055 9:-0.50604819 10:-0.49922277 11:-0.71336067 12:-0.85559552 13:-0.80685518 14:2.1625432 15:-0.41182193 16:1.2073283 17:-1.3256745 18:-0.059263975 19:-0.44179262 20:-0.46732653 21:-0.42368815 22:-0.44597649 23:-0.49409553 
0.1048057421501237 1:0 2:0.25534492 3:3.8764561 4:4.9815783 5:5.8937506 6:10.51228 7:5.2350429 8:3.7226467 9:-0.98589216 10:-3.3193035 11:0.71599074 12:0.43285906 13:0.58545335 14:-0.88827577 15:0.22070674 16:1.9873031 17:-1.0685308 18:-1.1026507 19:8.6885883 20:1.4083009 21:10.877903 22:6.4666591 23:4.6947967 
-0.3702129029012364 1:0 2:1.1420711 3:1.5430554 4:3.3812786 5:4.0482426 6:12.692084 7:5.2350429 8:2.4405223 9:-0.98589216 10:-3.3245171 11:0.64531873 12:0.59523813 13:1.0967877 14:2.482464 15:-0.070824198 16:1.7211433 17:-0.54685846 18:-0.26464882 19:7.1668581 20:3.2209408 21:10.130004 22:4.1624472 23:3.7802545 
-0.5579795374088869 1:0 2:-2.5598023 3:0.37635496 4:-1.4196208 5:-3.0540332 6:8.3324763 7:-1.7701224 8:-1.232586 9:1.7021428 10:0.29677153 11:0.64531873 12:0.53339944 13:-0.9411869 14:-1.0851535 15:1.7587392 16:-1.658353 17:0.45327538 18:1.6423116 19:-0.44179262 20:-0.46732653 21:-0.42368815 22:-0.44597649 23:-0.49409553 
-0.774263682681127 1:0 2:-0.38140552 3:0.37635496 4:0.18067901 5:-0.24549542 6:1.7930645 7:0.56493268 8:-0.26233286 9:-0.16495469 10:-0.47634939 11:-0.14741142 12:-1.1690585 13:-0.9411869 14:-0.06706439 15:-0.69693494 16:0.55039171 17:-1.6500236 18:-0.58122787 19:-0.44179262 20:-0.46732653 21:-0.42368815 22:-0.44597649 23:-0.49409553 
0.1540505393514524 1:0 2:-0.94510277 3:3.8764561 4:3.3812786 5:0.59296225 6:17.051692 7:7.570098 8:0.15349421 9:-0.47587341 10:0.012130167 11:0.37033273 12:-1.3304277 13:3.1079203 14:-0.088154786 15:0.15778932 16:1.7851597 17:-3.9292011 18:-1.156993 19:-0.44179262 20:-0.46732653 21:-0.42368815 22:-0.44597649 23:-0.49409553 
0.02165653707157128 1:0 2:2.9549125 3:5.0431565 4:3.3812786 5:16.961511 6:30.130515 7:7.570098 8:3.6186897 9:-0.98589216 10:-3.319145 11:0.72791443 12:0.43864183 13:-0.010205689 14:4.2360826 15:-0.60321736 16:0.37287376 17:1.5313359 18:-0.64019949 19:2.6016677 20:1.1843453 21:1.5707106 22:-0.44597649 23:4.662366 
0.0351637971709082 1:0 2:0.85277148 3:3.8764561 4:6.5818781 5:5.0828421 6:12.692084 7:2.8999878 8:9.0590443 9:-0.98589216 10:-3.2961881 11:0.64531873 12:0.7766571 13:-0.85228617 14:3.3610047 15:-0.55574356 16:-0.35465115 17:1.4737687 18:-0.54043357 19:5.645128 20:1.674248 21:10.296206 22:1.8582354 23:1.4906557 
-0.7081074648710604 1:0 2:0.15827405 3:1.5430554 4:1.7809788 5:4.8819757 6:10.51228 7:2.8999878 8:1.5742229 9:-0.98589216 10:-3.3264663 11:0.64531873 12:0.53339944 13:0.76617641 14:2.5001025 15:-0.34875488 16:0.966363 17:0.36064792 18:-1.2208438 19:2.6016677 20:3.3819088 21:5.725702 22:1.8582354 23:5.3693527 
0.005185787667910169 1:0 2:3.6547283 3:8.5432577 4:4.9815783 5:9.3647569 6:41.029535 7:7.570098 8:2.6657564 9:-0.34819193 10:-1.6103462 11:-0.29203556 12:-0.8370297 13:2.5094732 14:4.6703622 15:-0.3878687 16:1.1824435 17:2.5055711 18:-0.089760359 19:1.0799375 20:4.0817698 21:1.86156 22:-0.44597649 23:3.7218794 
-0.3396876365939652 1:0 2:-0.036586339 3:-0.79034543 4:0.18067901 5:-1.2624182 6:-0.3867394 7:0.56493268 8:0.04953448 9:-0.41870724 10:0.18449796 11:-1.2901402 12:1.3083128 13:0.81416157 14:-0.78928839 15:-0.68967016 16:0.62639972 17:-0.77929912 18:-0.12983075 19:-0.44179262 20:-0.46732653 21:-0.42368815 22:-0.44597649 23:-0.49409553 
-0.3349661771275507 1:0 2:-0.24116263 3:5.0431565 4:3.3812786 5:1.0145216 6:17.051692 7:2.8999878 8:0.25744739 9:-0.98589216 10:0.26993378 11:-1.4369835 12:0.90604432 13:1.4944909 14:1.7381883 15:-0.62043643 16:0.37245233 17:-2.4813868 18:-0.65281303 19:1.0799375 20:2.5630714 21:2.0693083 22:-0.44597649 23:2.3143923 
0.04367793207700593 1:0 2:-1.6107594 3:3.8764561 4:3.3812786 5:-0.64948453 6:8.3324763 7:2.8999878 8:0.45669542 9:-0.98589216 10:-3.2999741 11:0.79504456 12:0.71816688 13:-0.9411869 14:0.027577699 15:-0.51950329 16:0.27838669 17:-0.6048759 18:-1.0758392 19:4.1233978 20:2.8010243 21:10.739406 22:-0.44597649 23:6.634145 
-0.09648024248055773 1:0 2:2.9602757 3:10.876658 4:3.3812786 5:2.6635026 6:32.310319 7:0.56493268 8:1.6586706 9:-0.98589216 10:0.22751247 11:0.32112768 12:2.3965327 13:2.6505677 14:2.4810302 15:-0.5872749 16:0.83071033 17:-1.9061262 18:-0.39798072 19:1.0799375 20:2.3321174 21:0.9157599 22:1.8582354 23:2.1003506 
0.0008768105292308683 1:0 2:1.543313 3:8.5432577 4:4.9815783 5:12.908888 6:51.928555 7:14.575263 8:10.890979 9:-0.98589216 10:0.28672283 11:2.7453015 12:0.81760157 13:0.89302918 14:2.9441222 15:-0.53392834 16:0.49873489 17:-0.49990383 18:-0.99257961 19:11.732049 20:0.23253445 21:9.976732 22:4.1624472 23:1.0950027 
-0.224363422094745 1:0 2:-2.3818212 3:-0.79034543 4:-1.4196208 5:1.1951866 6:23.591104 7:-1.7701224 8:-1.232586 9:1.7021428 10:0.29677153 11:0.64531873 12:0.53339944 13:-0.9411869 14:-1.0851535 15:1.7587392 16:-1.658353 17:0.45327538 18:1.6423116 19:-0.44179262 20:-0.46732653 21:-0.42368815 22:-0.44597649 23:-0.49409553 
0.4264230329527612 1:0 2:-0.85830809 3:0.37635496 4:-1.4196208 5:0.5871578 6:-0.3867394 7:-1.7701224 8:-1.232586 9:1.7021428 10:0.29677153 11:0.64531873 12:0.53339944 13:-0.9411869 14:-1.0851535 15:1.7587392 16:-1.658353 17:0.45327538 18:1.6423116 19:-0.44179262 20:-0.46732653 21:-0.42368815 22:-0.44597649 23:-0.49409553 
-0.2110313098410106 1:0 2:1.8360681 3:1.5430554 4:3.3812786 5:0.95942573 6:3.9728684 7:0.56493268 8:0.3688617 9:-0.40005962 10:-1.00701 11:-0.73436824 12:-0.72961936 13:0.82865556 14:-0.085413419 15:-0.42646136 16:0.92425303 17:-0.073847853 18:-0.68921061 19:1.0799375 20:5.5724738 21:3.067662 22:-0.44597649 23:5.103422 
0.774263682681127 1:0 2:-1.4155593 3:0.37635496 4:0.18067901 5:0.12645628 6:6.1526723 7:0.56493268 8:-1.1286302 9:-0.084325895 10:2.5544388 11:1.522328 12:-0.71917564 13:-0.07366341 14:-0.3438313 15:0.23764279 16:1.8401707 17:-1.1495391 18:-0.65619434 19:-0.44179262 20:-0.46732653 21:-0.42368815 22:-0.44597649 23:-0.49409553 
0.002358258139513024 1:0 2:3.7922949 3:12.043359 4:14.583377 5:19.302042 6:51.928555 7:16.910318 8:9.4055667 9:-0.98589216 10:3.9189114 11:0.64531873 12:0.48698742 13:0.099817835 14:4.3571156 15:-0.51891835 16:-0.049596971 17:3.79493 18:-0.84245487 19:20.862429 20:1.2473329 21:27.6641 22:6.4666591 23:3.4300043 
0.006424887522500687 1:0 2:7.9195994 3:10.876658 4:12.983077 5:24.620374 6:43.209339 7:19.245373 8:9.7867369 9:-0.98589216 10:-3.3240951 11:0.64531873 12:0.4651903 13:-0.25090191 14:2.9783024 15:-0.44410944 16:-0.15098005 17:3.8086154 18:-0.47519266 19:29.99281 20:1.0163787 21:47.52497 22:8.7708709 23:3.7283657 
-0.2836365121318308 1:0 2:1.7015365 3:1.5430554 4:1.7809788 5:0.21422261 6:-0.3867394 7:0.56493268 8:2.475174 9:-0.65418387 10:0.096840497 11:-0.87907392 12:-0.77566535 13:1.6740904 14:1.2863119 15:-0.7343434 16:-0.027134688 17:0.029419339 18:-1.2775415 19:-0.44179262 20:-0.46732653 21:-0.42368815 22:-0.44597649 23:-0.49409553 
-0.4158545854251947 1:0 2:-0.21045185 3:0.37635496 4:0.18067901 5:-0.62037651 6:-0.3867394 7:0.56493268 8:1.0547318 9:-0.32746077 10:0.42548586 11:0.026120479 12:-1.2690435 13:-0.9411869 14:1.5007947 15:-0.70333056 16:-0.27846862 17:1.1439373 18:-0.22090274 19:-0.44179262 20:-0.46732653 21:-0.42368815 22:-0.44597649 23:-0.49409553 
-0.58691568870263 1:0 2:-0.39524016 3:1.5430554 4:1.7809788 5:-1.5336538 6:8.3324763 7:5.2350429 8:-0.22768052 9:-0.98589216 10:3.9181789 11:0.5778112 12:0.53232849 13:-0.84187217 14:-0.20566402 15:-0.098898366 16:1.9729527 17:-0.9775744 18:-0.72539089 19:1.0799375 20:2.6610519 21:1.2383147 22:-0.44597649 23:2.4051979 
0.774263682681127 1:0 2:0.34307033 3:1.5430554 4:0.18067901 5:1.2752377 6:-0.3867394 7:0.56493268 8:1.9294072 9:-0.98589216 10:0.39288881 11:2.7060272 12:0.078376922 13:-0.30425532 14:0.65283249 15:-0.69353852 16:-0.059353348 17:0.48181306 18:0.029114364 19:1.0799375 20:-0.13839187 21:-0.1120632 22:1.8582354 23:-0.18924811 
0.01664386076110065 1:0 2:-0.026489994 3:3.8764561 4:3.3812786 5:7.2408515 6:34.490123 7:7.570098 8:1.7821339 9:-0.98589216 10:0.13222576 11:2.7554588 12:0.73283074 13:2.5083554 14:3.6533295 15:0.0020745416 16:1.4171791 17:-0.20001373 18:0.11289833 19:5.645128 20:0.77842599 21:7.4708059 22:-0.44597649 23:5.3044913 
-0.1556783579426664 1:0 2:-0.62084116 3:2.7097557 4:0.18067901 5:-2.5511244 6:10.51228 7:0.56493268 8:-1.232586 9:1.7021428 10:0.29677153 11:0.64531873 12:0.53339944 13:-0.9411869 14:-1.0851535 15:1.7587392 16:-1.658353 17:0.45327538 18:1.6423116 19:2.6016677 20:6.9372026 21:4.6454058 22:-0.44597649 23:6.4655059 
0.005071154581114262 1:0 2:8.0895692 3:10.876658 4:9.7824776 5:19.9345 6:56.288162 7:16.910318 8:13.217273 9:-0.98589216 10:0.42037081 11:2.7527123 12:0.76164088 13:1.526162 14:-0.3430849 15:0.065225625 16:2.0983884 17:-3.9184972 18:-0.61788358 19:16.297239 20:0.61745795 21:31.071189 22:4.1624472 23:3.2029901 
0.774263682681127 1:0 2:0.830551 3:0.37635496 4:0.18067901 5:1.0201032 6:1.7930645 7:0.56493268 8:0.084187525 9:-0.98589216 10:0.16850201 11:-1.474793 12:0.63041942 13:-0.9411869 14:1.7013624 15:-0.71713404 16:0.040651259 17:0.17661876 18:-0.082341795 19:-0.44179262 20:-0.46732653 21:-0.42368815 22:1.8582354 23:1.1533777 
0.774263682681127 1:0 2:0.14286078 3:-0.79034543 4:-1.4196208 5:-0.53642843 6:-0.3867394 7:-1.7701224 8:-1.232586 9:1.7021428 10:0.29677153 11:0.64531873 12:0.53339944 13:-0.9411869 14:-1.0851535 15:1.7587392 16:-1.658353 17:0.45327538 18:1.6423116 19:-0.44179262 20:-0.46732653 21:-0.42368815 22:-0.44597649 23:-0.49409553 
0.01819946127753519 1:0 2:4.8406894 3:0.37635496 4:1.7809788 5:3.1991607 6:10.51228 7:5.2350429 8:5.6978075 9:-0.98589216 10:-3.3021441 11:0.8590706 12:0.42581569 13:1.1650327 14:2.8399138 15:-0.62833709 16:0.037263672 17:2.2913559 18:-0.76214355 19:2.6016677 20:0.19054279 21:2.3186064 22:1.8582354 23:0.11559931 
0.774263682681127 1:0 2:-1.8497875 3:0.37635496 4:0.18067901 5:-3.7444051 6:1.7930645 7:0.56493268 8:-0.93226922 9:-0.34266558 10:-0.66275369 11:-0.33927449 12:2.127833 13:-0.45335657 14:-0.3896193 15:-0.5759538 16:0.56527524 17:-0.18208804 18:-1.1688488 19:-0.44179262 20:-0.46732653 21:-0.42368815 22:-0.44597649 23:-0.49409553 
0.1516194147011465 1:0 2:1.3205607 3:2.7097557 4:4.9815783 5:5.4843637 6:17.051692 7:2.8999878 8:2.2326067 9:-0.98589216 10:-3.32444 11:0.64531873 12:0.59645174 13:1.5406899 14:0.13781048 15:-0.19386672 16:1.3645551 17:1.0243113 18:0.05018602 19:7.1668581 20:1.3103203 21:12.456796 22:6.4666591 23:6.4784784 
0.774263682681127 1:0 2:-1.4503214 3:1.5430554 4:0.18067901 5:-1.0832489 6:-0.3867394 7:0.56493268 8:-0.36628666 9:-0.38913328 10:0.078304482 11:-1.351489 12:-0.099772077 13:-0.9411869 14:0.08623121 15:-0.67473971 16:0.31421941 17:-0.27225122 18:-0.81817955 19:-0.44179262 20:-0.46732653 21:-0.42368815 22:-0.44597649 23:-0.49409553 
-0.774263682681127 1:0 2:-0.35295868 3:3.8764561 4:0.18067901 5:-0.28815946 6:-0.3867394 7:0.56493268 8:-0.25078102 9:-0.60574662 10:0.3652768 11:0.29030574 12:-1.3253097 13:-0.11875131 14:0.88404245 15:-0.31131005 16:1.0403058 17:-0.97436923 18:-0.39827022 19:-0.44179262 20:-0.46732653 21:-0.42368815 22:-0.44597649 23:-0.49409553 
-0.01225048717304252 1:0 2:0.39389212 3:1.5430554 4:1.7809788 5:4.4401313 6:14.871888 7:5.2350429 8:3.659117 9:-0.98589216 10:0.18296589 11:2.7187227 12:0.12758241 13:0.72063805 14:2.3732149 15:-0.12229029 16:1.3959727 17:-1.5497997 18:-0.14591536 19:7.1668581 20:0.65245105 21:14.963645 22:6.4666591 23:5.4990748 
-0.1908441576225814 1:0 2:0.49720342 3:1.5430554 4:1.7809788 5:0.52234858 6:17.051692 7:7.570098 8:0.86673038 9:-0.98589216 10:-3.3030749 11:0.40439899 12:0.52820788 13:0.19154275 14:1.9920777 15:-0.40043245 16:1.0050211 17:-0.01705289 18:-1.2759951 19:2.6016677 20:3.2699312 21:3.8593467 22:-0.44597649 23:3.3067681 
-0.05234099913115133 1:0 2:1.6376456 3:3.8764561 4:0.18067901 5:4.6822705 6:17.051692 7:0.56493268 8:-0.45291599 9:-0.98589216 10:0.17570345 11:-1.446447 12:0.85583781 13:-0.9411869 14:2.7364353 15:-0.57432313 16:0.47070502 17:-0.42609483 18:-1.2021742 19:1.0799375 20:3.6758505 21:3.4196848 22:1.8582354 23:3.3456848 
0.003836560821726342 1:0 2:2.8326239 3:7.3765573 4:9.7824776 5:6.2188498 6:21.4113 7:12.240208 8:6.5641067 9:-0.98589216 10:-3.3246261 11:0.71300589 12:0.53447038 13:-0.84187191 14:3.8402622 15:-0.72620435 16:-0.086951333 17:0.10589281 18:-1.1150513 19:11.732049 20:4.3337199 21:31.154288 22:8.7708709 23:5.5833944 
-0.774263682681127 1:0 2:1.4103783 3:1.5430554 4:1.7809788 5:2.7496585 6:6.1526723 7:2.8999878 8:0.91583316 9:-0.98589216 10:0.33010596 11:-1.4554956 12:0.81222871 13:0.072081294 14:3.9213499 15:-0.66016867 16:0.044059751 17:1.5653835 18:-0.82596238 19:1.0799375 20:1.9681897 21:0.98901202 22:1.8582354 23:1.7630726 
-0.774263682681127 1:0 2:-0.29077512 3:0.37635496 4:0.18067901 5:2.6535377 6:6.1526723 7:2.8999878 8:2.0940019 9:-0.50604819 10:1.3972333 11:-0.49710939 12:-0.94952956 13:-0.81227983 14:0.56400726 15:-0.5211085 16:0.29289662 17:0.23418933 18:-0.030832229 19:-0.44179262 20:-0.46732653 21:-0.42368815 22:-0.44597649 23:-0.49409553 
-0.1973685995354097 1:0 2:-1.188078 3:3.8764561 4:3.3812786 5:0.24568373 6:3.9728684 7:2.8999878 8:0.99091545 9:-0.98589216 10:0.2828871 11:-1.4378706 12:0.90231152 13:0.57315639 14:1.9575266 15:-0.077275345 16:1.196042 17:1.0281015 18:-0.94441219 19:2.6016677 20:2.304123 21:4.5623127 22:-0.44597649 23:4.9088385 
0.006381780414908222 1:0 2:5.2165594 3:6.2098569 4:6.5818781 5:3.6698094 6:25.770908 7:19.245373 8:15.367381 9:-0.98589216 10:-0.030738656 11:2.0234857 12:1.9581215 13:-0.69159368 14:2.814471 15:-0.69637546 16:-0.73027278 17:0.97827577 18:1.6423116 19:20.862429 20:0.56146913 21:38.994936 22:17.987718 23:4.3899494 
0.006219182755711403 1:0 2:3.1189685 3:2.7097557 4:4.9815783 5:5.4529972 6:12.692084 7:9.905153 8:12.801457 9:-0.98589216 10:3.896484 11:0.64531873 12:0.7479203 13:0.46917222 14:3.6765804 15:-0.29045446 16:0.27122921 17:3.7657394 18:-0.075886182 19:16.297239 20:0.84841211 21:29.803896 22:22.596142 23:7.0946592 
0.774263682681127 1:0 2:-0.78190759 3:1.5430554 4:0.18067901 5:1.2680419 6:-0.3867394 7:0.56493268 8:-0.53954526 9:-0.98589216 10:0.32995236 11:-1.4662291 12:0.73864126 13:-0.8487292 14:1.3858427 15:-0.65853799 16:0.11567562 17:1.8411046 18:-0.091499163 19:1.0799375 20:-0.13839187 21:-0.34058801 22:1.8582354 23:-0.18924811 
0.005510433201973142 1:0 2:5.7761899 3:12.043359 4:11.382777 5:29.478563 6:47.568947 7:16.910318 8:17.462148 9:-0.98589216 10:0.1920425 11:2.6912526 12:0.029036621 13:-0.9411869 14:3.885622 15:-0.31598719 16:-0.39824539 17:4.0901183 18:-0.64877795 19:19.340699 20:0.45649 21:34.686038 22:11.075083 23:6.0309367 
0.01322919904583995 1:0 2:2.5634536 3:8.5432577 4:3.3812786 5:6.7078996 6:51.928555 7:9.905153 8:2.4751713 9:-0.98589216 10:0.4207994 11:-1.4108723 12:1.0024773 13:2.3181332 14:2.7805305 15:-0.1514787 16:1.4666169 17:0.63402578 18:-1.0594115 19:5.645128 20:-0.13839187 21:8.2187104 22:4.1624472 23:4.2407688 
-0.09792902012700887 1:0 2:0.081453849 3:5.0431565 4:1.7809788 5:5.729148 6:32.310319 7:5.2350429 8:1.7417055 9:-0.98589216 10:-3.3258353 11:0.64531873 12:0.49820728 13:0.094598632 14:3.5439947 15:-0.1973633 16:1.0387592 17:0.78180345 18:-0.3574943 19:1.0799375 20:1.0233774 21:0.33806145 22:-0.44597649 23:0.8874471 
0.2063865167115275 1:0 2:-2.2716754 3:0.37635496 4:0.18067901 5:-0.42080404 6:19.231496 7:2.8999878 8:-0.51192518 9:-0.98589216 10:-3.3030703 11:0.40437629 12:0.52820779 13:0.84807303 14:-0.84104086 15:-0.18797651 16:1.4551666 17:0.82082555 18:-0.44762992 19:1.0799375 20:4.8096252 21:2.5068113 22:-0.44597649 23:4.3964354 
0.04050239857579612 1:0 2:2.4499711 3:2.7097557 4:0.18067901 5:3.4154771 6:10.51228 7:0.56493268 8:-0.67815471 9:-0.98589216 10:-3.3193033 11:0.71599097 12:0.43285712 13:1.0008767 14:1.7258698 15:-0.22529911 16:1.1828813 17:-1.9504253 18:-0.80773004 19:2.6016677 20:3.4448964 21:3.7313112 22:-0.44597649 23:3.7737683 
0.003507558343854966 1:0 2:3.9413889 3:7.3765573 4:3.3812786 5:8.6354831 6:60.64777 7:9.905153 8:2.5235388 9:-0.98589216 10:0.29677153 11:-1.4468327 12:0.85999529 13:-0.9411869 14:4.5806924 15:-0.60364177 16:0.40793648 17:2.1744281 18:-0.0028094548 19:4.1233978 20:1.8912049 21:2.2297452 22:6.4666591 23:5.849325 
0.003186923488162817 1:0 2:4.778794 3:9.7099581 4:11.382777 5:24.209233 6:34.490123 7:7.570098 8:8.7818242 9:-0.98589216 10:0.31588299 11:-1.4597603 12:0.78601565 13:1.3491608 14:-0.89731601 15:0.45932352 16:2.4107493 17:-1.0743885 18:0.089461128 19:7.1668581 20:3.4798893 21:16.528697 22:13.379295 23:5.55745 
0.774263682681127 1:0 2:0.38790173 3:-0.79034543 4:0.18067901 5:-4.2249328 6:3.9728684 7:2.8999878 8:0.44302861 9:-0.58393702 10:-1.4246945 11:0.37661037 12:2.17532 13:0.92040794 14:1.1762426 15:-0.47934059 16:0.93174246 17:-0.90866946 18:0.07770283 19:-0.44179262 20:-0.46732653 21:-0.42368815 22:-0.44597649 23:-0.49409553 
0.02296536795021829 1:0 2:1.5007138 3:6.2098569 4:3.3812786 5:11.437679 6:38.849731 7:9.905153 8:3.7226458 9:-0.98589216 10:3.9183167 11:0.64531873 12:0.59103192 13:-0.3521717 14:4.2434516 15:-0.55014582 16:0.13987129 17:3.4276001 18:-0.63477685 19:7.1668581 20:1.1633495 21:15.330679 22:8.7708709 23:6.5109091 
0.00221321887491871 1:0 2:5.4965469 3:7.3765573 4:6.5818781 5:20.853532 6:43.209339 7:12.240208 8:7.7769245 9:-0.98589216 10:3.9200094 11:0.64531873 12:0.53339944 13:-0.9411869 14:2.6662674 15:-0.21387653 16:-0.34852745 17:3.773095 18:-0.0045994126 19:13.253779 20:2.8780091 21:27.08239 22:1.8582354 23:5.3693527 
0.004740696850945896 1:0 2:2.3475644 3:14.37676 4:17.783976 5:19.538877 6:56.288162 7:14.575263 8:9.3903678 9:-0.98589216 10:-3.316119 11:0.64531873 12:0.39099873 13:-0.9411869 14:3.520205 15:-0.62372494 16:-0.47533097 17:0.19739385 18:-0.54161508 19:19.340699 20:-0.1663863 21:25.499594 22:20.29193 23:6.8481868 
0.008412100442445952 1:0 2:1.3285907 3:9.7099581 4:6.5818781 5:15.25261 6:51.928555 7:9.905153 8:4.2077716 9:-0.98589216 10:0.26361669 11:2.7568816 12:0.32827883 13:1.7699001 14:3.1502207 15:-0.36461659 16:0.61282594 17:2.442478 18:0.012254513 19:4.1233978 20:1.5762676 21:5.8919118 22:4.1624472 23:3.5337821 
0.009548825314260774 1:0 2:-0.045121279 3:5.0431565 4:8.1821779 5:0.96618986 6:10.51228 7:7.570098 8:5.3859405 9:-0.98589216 10:-3.2876863 11:0.4430014 12:0.32495453 13:-0.79035493 14:3.3585546 15:-0.63406045 16:0.091118544 17:0.45589393 18:-0.39185757 19:2.6016677 20:6.1463596 21:6.7229134 22:-0.44597649 23:5.7974362 
-0.07299454665499155 1:0 2:0.71762307 3:2.7097557 4:1.7809788 5:3.3355359 6:19.231496 7:2.8999878 8:3.4223276 9:-0.98589216 10:0.40115359 11:-1.4006194 12:1.0377681 13:1.4329361 14:4.4622716 15:-0.43860386 16:1.004284 17:-1.0402592 18:-0.12021605 19:1.0799375 20:1.2963231 21:2.0970113 22:-0.44597649 23:1.1404055 
-0.7326383407366214 1:0 2:0.3437249 3:0.37635496 4:0.18067901 5:0.33164487 6:-0.3867394 7:0.56493268 8:0.7425733 9:-0.98589216 10:0.33010596 11:-1.4554956 12:0.81222871 13:0.072081294 14:0.96892084 15:-0.66016867 16:0.044059751 17:1.5653835 18:-0.82596238 19:1.0799375 20:1.9681897 21:0.98901202 22:1.8582354 23:1.7630726 
0.005107519868747079 1:0 2:6.7724472 3:13.210059 4:14.583377 5:24.002197 6:38.849731 7:16.910318 8:12.905406 9:-0.98589216 10:-3.3241324 11:0.71596349 12:0.558828 13:1.5573132 14:-0.85804557 15:0.5171805 16:2.519026 17:-1.1145005 18:-1.1198053 19:26.94935 20:0.32351637 21:33.39801 22:17.987718 23:6.303353 
-0.02766638803533887 1:0 2:-0.82481975 3:6.2098569 4:3.3812786 5:0.99861858 6:8.3324763 7:7.570098 8:1.0775446 9:-0.98589216 10:0.31064192 11:2.7285008 12:0.16445473 13:-0.9411869 14:0.60275727 15:-0.40705214 16:0.38381556 17:-2.9530454 18:-0.7038629 19:7.1668581 20:2.626059 21:13.703305 22:1.8582354 23:2.3727675 
0.000997750351484556 1:0 2:5.2916787 3:7.3765573 4:4.9815783 5:10.500324 6:38.849731 7:7.570098 8:5.3512841 9:-0.98589216 10:-3.3175834 11:0.64531873 12:0.6653535 13:0.97471575 14:3.7166543 15:-0.62312107 16:0.31278298 17:1.3602753 18:-0.77389474 19:14.775509 20:1.8702091 21:25.752791 22:8.7708709 23:5.8558113 
0.774263682681127 1:0 2:-1.7255701 3:-0.79034543 4:0.18067901 5:-0.20857051 6:-0.3867394 7:0.56493268 8:1.5049182 9:-0.98589216 10:0.42336993 11:-1.4742939 12:0.42758778 13:-0.8543995 14:1.0231026 15:-0.58527851 16:0.25034226 17:-0.23407788 18:-0.35935267 19:1.0799375 20:3.3189213 21:2.484813 22:-0.44597649 23:3.0148927 
-0.774263682681127 1:0 2:-1.2553123 3:0.37635496 4:1.7809788 5:-2.964541 6:6.1526723 7:2.8999878 8:-0.38659273 9:-0.98589216 10:-3.3030703 11:0.40437629 12:0.52820779 13:-0.018259408 14:-0.84104086 15:-0.18797651 16:1.4551666 17:0.82082555 18:-0.44762992 19:1.0799375 20:4.8096252 21:2.5068113 22:-0.44597649 23:4.3964354 
0.006864273547490355 1:0 2:4.0683877 3:6.2098569 4:4.9815783 5:10.047345 6:8.3324763 7:7.570098 8:13.355892 9:-0.98589216 10:-3.319139 11:0.51392296 12:0.5057782 13:0.38750496 14:4.1658436 15:-0.43543467 16:0.41689766 17:4.2259746 18:-0.032629681 19:33.036271 20:1.4572912 21:49.353196 22:8.7708709 23:4.5326438 
0.774263682681127 1:0 2:1.413467 3:0.37635496 4:0.18067901 5:-0.54740548 6:1.7930645 7:0.56493268 8:0.5000127 9:-0.50604819 10:1.3972333 11:-0.49710939 12:-0.94952956 13:-0.81227983 14:0.56400726 15:-0.5211085 16:0.29289662 17:0.23418933 18:-0.030832229 19:-0.44179262 20:-0.46732653 21:-0.42368815 22:-0.44597649 23:-0.49409553 
0.004689282935753825 1:0 2:3.0485682 3:13.210059 4:9.7824776 5:13.875731 6:49.748751 7:19.245373 8:16.75306 9:-0.98589216 10:0.14126672 11:-1.4490965 12:0.83778228 13:-0.9411869 14:3.6815837 15:-0.52604029 16:-0.50345626 17:4.2255628 18:-0.74722189 19:10.210318 20:0.84841211 21:13.366098 22:11.075083 23:7.4319375 
0.774263682681127 1:0 2:2.245493 3:0.37635496 4:1.7809788 5:1.3716282 6:1.7930645 7:0.56493268 8:1.20749 9:-0.98589216 10:0.28458044 11:-1.4666798 12:0.73559306 13:1.594912 14:1.8047971 15:-0.6426969 16:0.14099431 17:-0.5944573 18:-0.22401286 19:1.0799375 20:2.374109 21:1.1967604 22:1.8582354 23:2.1392672 
0.01795684264048987 1:0 2:0.7490601 3:2.7097557 4:1.7809788 5:0.69555715 6:12.692084 7:2.8999878 8:0.37731823 9:-0.98589216 10:-3.3259105 11:0.64531873 12:0.50037444 13:1.7650391 14:2.055762 15:-0.32703813 16:1.2577997 17:-0.60934635 18:-0.70134463 19:5.645128 20:1.7232384 21:7.6917912 22:4.1624472 23:5.226658 
0.1290061580743589 1:0 2:2.7204705 3:3.8764561 4:0.18067901 5:-0.88620596 6:19.231496 7:2.8999878 8:-0.43559239 9:-0.98589216 10:0.17271865 11:2.7014966 12:0.064277365 13:-0.9411869 14:-0.16276576 15:-0.39638778 16:0.72930033 17:-2.9839364 18:-0.23808651 19:4.1233978 20:4.6416587 21:11.708906 22:1.8582354 23:4.2083381 
-0.1628937486449706 1:0 2:1.1535996 3:0.37635496 4:1.7809788 5:3.8420528 6:3.9728684 7:5.2350429 8:1.1930518 9:-0.98589216 10:3.9176463 11:0.64531873 12:0.60148775 13:0.17921235 14:1.0847674 15:-0.20107597 16:1.4707416 17:-0.48094153 18:0.024776549 19:4.1233978 20:2.1291577 21:7.5538991 22:-0.44597649 23:4.3899494 
0.006410023153604318 1:0 2:9.9253371 3:14.37676 4:16.183677 5:14.291306 6:36.669927 7:16.910318 8:9.0936974 9:-0.98589216 10:-3.3053032 11:0.50346936 12:0.69327069 13:-0.8457457 14:3.1123844 15:-0.49397372 16:-0.44397576 17:3.8230871 18:-0.19576455 19:22.38416 20:1.1143593 21:31.154288 22:11.075083 23:4.7337137 
0.003905290468068136 1:0 2:2.7531489 3:7.3765573 4:8.1821779 5:14.223322 6:45.389143 7:14.575263 8:5.0653713 9:-0.98589216 10:0.68088244 11:-1.3468421 12:1.1566806 13:-0.70355089 14:4.3004975 15:-0.63379975 16:-0.67717952 17:3.6010443 18:-1.1539746 19:19.340699 20:1.8842063 21:33.990861 22:4.1624472 23:5.1423384 
0.4654304654036864 1:0 2:-0.26069872 3:2.7097557 4:0.18067901 5:-2.6331706 6:6.1526723 7:0.56493268 8:-1.1632819 9:0.044691442 10:0.53459007 11:1.7563139 12:-1.0689566 13:-0.8416224 14:0.85432458 15:-0.34159171 16:0.43820399 17:-3.2710799 18:-0.39784452 19:-0.44179262 20:-0.46732653 21:-0.42368815 22:-0.44597649 23:-0.49409553 
0.006284464612815843 1:0 2:7.2608621 3:7.3765573 4:9.7824776 5:9.015882 6:23.591104 7:19.245373 8:13.771719 9:-0.98589216 10:0.052071844 11:0.38368907 12:-1.3334761 13:-0.9411869 14:4.1050991 15:-0.51331746 16:-0.25979872 17:-1.8764785 18:-1.0817481 19:16.297239 20:0.51947743 21:29.57539 22:22.596142 23:8.1713543 
-0.1776958772872423 1:0 2:-0.35640526 3:-0.79034543 4:0.18067901 5:-1.0659488 6:-0.3867394 7:0.56493268 8:0.27875266 9:-0.22560108 10:0.36500494 11:0.97015855 12:-1.3296551 13:-0.70829991 14:-0.47115184 15:-0.73477265 16:0.051306558 17:-0.5854207 18:-0.22826736 19:-0.44179262 20:-0.46732653 21:-0.42368815 22:-0.44597649 23:-0.49409553 
0.1812036088842685 1:0 2:-0.15760709 3:0.37635496 4:1.7809788 5:3.0560061 6:-0.3867394 7:0.56493268 8:3.7486325 9:-0.98589216 10:0.20065868 11:-1.4153771 12:0.98846736 13:-0.75431902 14:-0.83030902 15:-0.11369361 16:1.5709312 17:-1.5287364 18:-1.0126634 19:4.1233978 20:-0.13839187 21:6.7436889 22:6.4666591 23:2.9046287 
0.0006534043397455801 1:0 2:4.8483175 3:8.5432577 4:3.3812786 5:22.456414 6:43.209339 7:9.905153 8:7.4997121 9:-0.98589216 10:-3.3245171 11:0.64531873 12:0.59523749 13:1.8268897 14:4.1900568 15:-0.59005752 16:0.58719383 17:1.8034884 18:-0.2383679 19:10.210318 20:3.2209408 21:17.359699 22:4.1624472 23:3.7802545 
0.5916804960093002 1:0 2:-0.013858541 3:1.5430554 4:3.3812786 5:-5.0719899 6:3.9728684 7:0.56493268 8:0.81187773 9:-0.98589216 10:0.19714735 11:2.7597246 12:0.35956567 13:1.2471445 14:-1.0097877 15:-0.39942164 16:1.2779434 17:-1.1297137 18:-0.54471456 19:1.0799375 20:4.2637338 21:2.484813 22:1.8582354 23:3.8905186 
0.004050484346490579 1:0 2:4.8926947 3:3.8764561 4:1.7809788 5:9.148493 6:17.051692 7:14.575263 8:6.9799243 9:-0.98589216 10:3.9126835 11:0.77670723 12:0.56098816 13:-0.14022009 14:2.9134583 15:-0.62647457 16:0.28699297 17:-0.25707915 18:-0.71796396 19:25.42762 20:1.4572912 21:42.206594 22:8.7708709 23:4.5326438 
0.03470170559826451 1:0 2:4.3954796 3:3.8764561 4:3.3812786 5:9.057717 6:8.3324763 7:0.56493268 8:3.6533371 9:-0.98589216 10:-3.3226278 11:0.71058504 12:0.46879978 13:1.6585212 14:2.9378528 15:-0.30973006 16:1.0058595 17:1.2729907 18:-0.23067257 19:2.6016677 20:5.3975085 21:8.0525045 22:-0.44597649 23:5.1942279 
0.02774284320712173 1:0 2:1.6391988 3:8.5432577 4:3.3812786 5:4.2887731 6:36.669927 7:5.2350429 8:0.63577255 9:-0.52563574 10:-0.72608956 11:-1.2320579 12:-0.17019175 13:3.9401259 14:0.72839782 15:-0.13619708 16:1.4928989 17:-3.0390219 18:-0.059091776 19:5.645128 20:3.4728909 21:3.864855 22:-0.44597649 23:4.3834632 
0.05245515430844854 1:0 2:2.4278606 3:10.876658 4:4.9815783 5:9.9651571 6:30.130515 7:5.2350429 8:3.2685748 9:-0.98589216 10:0.2308111 11:0.3322403 12:2.3980621 13:0.58615255 14:1.6042019 15:-0.38468375 16:1.2722185 17:-0.63785087 18:-0.51437138 19:2.6016677 20:1.6882452 21:2.4127901 22:1.8582354 23:1.5036279 
-0.774263682681127 1:0 2:2.2263345 3:2.7097557 4:1.7809788 5:-0.37810185 6:3.9728684 7:0.56493268 8:1.0015668 9:-0.98589216 10:0.22751247 11:0.32112768 12:2.3965327 13:1.5923482 14:2.0850759 15:-0.5872749 16:0.83071033 17:-1.9061262 18:-0.39798072 19:1.0799375 20:2.3321174 21:0.9157599 22:1.8582354 23:2.1003506 
-0.774263682681127 1:0 2:1.2267486 3:-0.79034543 4:0.18067901 5:-0.090095789 6:3.9728684 7:0.56493268 8:0.19680858 9:-0.49168834 10:-1.6395226 11:-1.1137867 12:0.85256516 13:1.7672709 14:0.40098137 15:-0.67890224 16:0.3954089 17:0.44238058 18:-0.44158397 19:-0.44179262 20:-0.46732653 21:-0.42368815 22:-0.44597649 23:-0.49409553 
0.2764681357761258 1:0 2:-1.419413 3:3.8764561 4:4.9815783 5:4.9787149 6:12.692084 7:2.8999878 8:2.6744216 9:-0.30073111 10:0.95797731 11:-1.113757 12:-0.46606952 13:-0.9411869 14:3.2979595 15:-0.6221418 16:-0.92657885 17:-0.39453929 18:-0.80074864 19:-0.44179262 20:-0.46732653 21:-0.42368815 22:-0.44597649 23:-0.49409553 
0.4748202252748696 1:0 2:-1.0426485 3:0.37635496 4:0.18067901 5:1.7696658 6:1.7930645 7:0.56493268 8:-0.60884999 9:-0.98589216 10:0.29677153 11:2.7695779 12:0.53339944 13:2.6241302 14:-0.94121892 15:-0.18002662 16:0.97792118 17:-1.5184368 18:-0.49313276 19:1.0799375 20:7.3991107 21:4.8116074 22:-0.44597649 23:6.7962979 
0.5656038393471955 1:0 2:0.6906391 3:1.5430554 4:3.3812786 5:2.1956847 6:6.1526723 7:5.2350429 8:0.50001234 9:-0.98589216 10:-3.3191586 11:0.72770933 12:0.43864306 13:1.2120326 14:2.187217 15:-0.47143508 16:0.716698 17:-1.1868968 18:-0.39260039 19:1.0799375 20:6.3493192 21:1.5707106 22:1.8582354 23:7.3216735 
0.774263682681127 1:0 2:0.71046876 3:0.37635496 4:1.7809788 5:0.47072208 6:-0.3867394 7:0.56493268 8:1.054444 9:-0.98589216 10:0.15995191 11:-1.4774209 12:0.52951481 13:1.0522955 14:-0.89179733 15:-0.34311592 16:1.1644771 17:0.31709963 18:0.022213964 19:2.6016677 20:2.3671106 21:5.0609105 22:4.1624472 23:2.8916565 
0.02635612287917287 1:0 2:0.51144944 3:7.3765573 4:3.3812786 5:1.3050328 6:30.130515 7:5.2350429 8:0.74140139 9:-0.98589216 10:3.8966177 11:0.8862401 12:0.53858983 13:0.24951385 14:4.9964021 15:-0.51703352 16:-0.15948465 17:3.9464344 18:-0.64675968 19:4.1233978 20:1.5972634 21:4.9864608 22:1.8582354 23:1.4193085 
-0.774263682681127 1:0 2:1.3695606 3:0.37635496 4:1.7809788 5:-0.5041798 6:1.7930645 7:0.56493268 8:1.20749 9:-0.98589216 10:0.28458044 11:-1.4666798 12:0.73559306 13:0.25009632 14:0.025287358 15:-0.6426969 16:0.14099431 17:-0.5944573 18:-0.22401286 19:1.0799375 20:2.374109 21:1.1967604 22:1.8582354 23:2.1392672 
0.06316680056557585 1:0 2:-0.17626004 3:1.5430554 4:3.3812786 5:1.3145587 6:8.3324763 7:7.570098 8:4.2424257 9:-0.98589216 10:3.9170766 11:0.64531873 12:0.60924918 13:-0.69842269 14:-0.16917498 15:0.088229891 16:1.6931779 17:-1.9784852 18:-1.0923125 19:5.645128 20:2.6610519 21:10.130004 22:6.4666591 23:5.4536722 
0.007848413929486157 1:0 2:4.7140263 3:10.876658 4:9.7824776 5:24.811506 6:30.130515 7:5.2350429 8:11.981364 9:-0.98589216 10:3.9183167 11:0.64531873 12:0.59103192 13:-0.3521717 14:4.2434516 15:-0.55014582 16:0.13987129 17:3.4276001 18:-0.63477685 19:19.340699 20:-0.13839187 21:37.026695 22:13.379295 23:6.5109091 
0.2068789005568965 1:0 2:3.7488675 3:3.8764561 4:1.7809788 5:0.96920624 6:14.871888 7:2.8999878 8:0.67327117 9:-0.98589216 10:3.9172816 11:0.64531873 12:0.46024548 13:2.3862422 14:3.9960552 15:-0.49797401 16:0.86430335 17:0.9691343 18:-0.9690062 19:1.0799375 20:1.9052023 21:0.98901202 22:-0.44597649 23:1.7046976 
0.002474786214883091 1:0 2:3.6924028 3:12.043359 4:11.382777 5:18.133013 6:56.288162 7:14.575263 8:13.529141 9:-0.98589216 10:-3.3246257 11:0.71301184 12:0.53440344 13:0.50455955 14:4.1356702 15:-0.64801963 16:0.14962133 17:2.2102479 18:0.079253401 19:16.297239 20:2.9269991 21:32.400779 22:6.4666591 23:5.5833944 
0.6248081666594075 1:0 2:-2.7184548 3:-0.79034543 4:0.18067901 5:1.5810346 6:1.7930645 7:0.56493268 8:-0.27978555 9:-0.98589216 10:0.3068193 11:-1.4546725 12:0.24924653 13:-0.73245473 14:0.20999177 15:-0.11331371 16:1.6936743 17:0.35466108 18:-0.61683396 19:1.0799375 20:2.626059 21:1.3097152 22:-0.44597649 23:2.3727675 
0.5797939248533874 1:0 2:-0.29717337 3:2.7097557 4:1.7809788 5:1.5736142 6:6.1526723 7:0.56493268 8:-0.1930281 9:-0.98589216 10:0.42505319 11:2.7654298 12:0.43637004 13:1.5517062 14:0.6451853 15:-0.56195316 16:0.81946763 17:-0.65434593 18:-0.21121301 19:1.0799375 20:4.0817698 21:2.6510069 22:-0.44597649 23:3.7218794 
0.08239623355806434 1:0 2:-1.8671727 3:0.37635496 4:0.18067901 5:-4.0898381 6:-0.3867394 7:0.56493268 8:-0.74457147 9:-0.98589216 10:-3.3247663 11:0.64531873 12:0.4756442 13:-0.78372614 14:-0.92434398 15:-0.28846608 16:1.2291577 17:-0.29916038 18:-0.21634009 19:1.0799375 20:7.2311442 21:5.0678364 22:-0.44597649 23:6.6406313 
0.006044433046419521 1:0 2:9.3325781 3:7.3765573 4:3.3812786 5:16.496962 6:38.849731 7:7.570098 8:7.2571427 9:-0.98589216 10:-3.3021115 11:0.85925919 12:0.42581578 13:0.34032339 14:3.6457826 15:-0.45346131 16:0.52263789 17:2.9639192 18:-0.79620656 19:10.210318 20:-0.13839187 21:12.872315 22:4.1624472 23:1.3544473 
0.1106203180769624 1:0 2:-1.9385679 3:3.8764561 4:0.18067901 5:0.92927715 6:3.9728684 7:0.56493268 8:-0.33163566 9:-0.98589216 10:-3.3079969 11:0.64531873 12:0.72354462 13:2.4087736 14:0.27680761 15:-0.17099268 16:1.2442364 17:-3.5413471 18:-0.90954779 19:1.0799375 20:3.2279396 21:2.9003098 22:1.8582354 23:2.9305735 
-0.774263682681127 1:0 2:0.09472857 3:-0.79034543 4:0.18067901 5:-1.4831716 6:1.7930645 7:0.56493268 8:-0.40093906 9:-0.20518483 10:-0.50083298 11:-0.58136708 12:-0.94899189 13:-0.9411869 14:-0.16837329 15:-0.69303627 16:0.10299854 17:0.093006043 18:-0.0056861104 19:-0.44179262 20:-0.46732653 21:-0.42368815 22:-0.44597649 23:-0.49409553 
0.09191689145329207 1:0 2:1.555063 3:1.5430554 4:0.18067901 5:-0.15641533 6:8.3324763 7:5.2350429 8:5.4255621 9:-0.98589216 10:3.9163361 11:0.56757301 12:0.58282686 13:1.0457466 14:1.5740222 15:-0.43713373 16:1.1356255 17:0.53303472 18:0.11937617 19:-0.44179262 20:-0.46732653 21:-0.42368815 22:1.8582354 23:2.0873784 
0.001957216118656019 1:0 2:9.1070682 3:7.3765573 4:4.9815783 5:17.4555 6:45.389143 7:19.245373 8:12.073762 9:-0.98589216 10:-3.3189643 11:0.71122741 12:0.63963092 13:-0.17043269 14:3.5746993 15:-0.66961075 16:-0.35260435 17:0.66682923 18:0.10771234 19:16.297239 20:2.535077 21:27.2486 22:8.7708709 23:5.4925886 
0.002781059942846851 1:0 2:3.0447234 3:6.2098569 4:8.1821779 5:7.6769042 6:12.692084 7:7.570098 8:7.2571458 9:-0.98589216 10:-3.3264663 11:0.64531873 12:0.53339944 13:2.0222076 14:0.8197288 15:0.022163896 16:1.6145419 17:-3.4455503 18:-0.81433572 19:13.253779 20:2.465091 21:30.655683 22:4.1624472 23:5.3693527 
0.774263682681127 1:0 2:0.53465677 3:0.37635496 4:0.18067901 5:-0.80127866 6:-0.3867394 7:0.56493268 8:-0.95537037 9:-0.13256492 10:-0.99702564 11:-1.2095116 12:1.1589801 13:1.4009453 14:-0.90215975 15:-0.39481749 16:0.93090594 17:-0.38246152 18:-0.6138851 19:-0.44179262 20:-0.46732653 21:-0.42368815 22:-0.44597649 23:-0.49409553 
-0.4647404813421826 1:0 2:0.59292552 3:1.5430554 4:1.7809788 5:0.51676025 6:-0.3867394 7:0.56493268 8:1.7330451 9:-0.98589216 10:0.40115359 11:-1.4006194 12:1.0377681 13:1.4329361 14:-0.47526272 15:-0.43860386 16:1.004284 17:-1.0402592 18:-0.12021605 19:1.0799375 20:1.2963231 21:2.0970113 22:-0.44597649 23:1.1404055 
0.003053796683133603 1:0 2:7.3791406 3:8.5432577 4:9.7824776 5:14.292328 6:49.748751 7:16.910318 8:13.841023 9:-0.98589216 10:0.27688921 11:-1.4102102 12:0.057754521 13:-0.9411869 14:3.1838288 15:-0.58535951 16:-0.77400401 17:0.44064097 18:-0.17581602 19:26.94935 20:-0.13839187 21:36.721991 22:11.075083 23:2.8657121 
0.01101047083877735 1:0 2:2.7143775 3:6.2098569 4:8.1821779 5:8.6635005 6:8.3324763 7:5.2350429 8:8.6778732 9:-0.98589216 10:-3.3220797 11:0.57633887 12:0.46372609 13:1.282396 14:3.9160005 15:-0.41624201 16:0.59189132 17:2.3367263 18:-1.0959064 19:5.645128 20:1.4362953 21:8.3018066 22:8.7708709 23:5.1099083 
0.1248594426673811 1:0 2:4.0942977 3:3.8764561 4:3.3812786 5:0.24001419 6:14.871888 7:2.8999878 8:2.8014786 9:-0.98589216 10:0.41057716 11:-1.4280852 12:0.93921646 13:3.8272422 14:2.0760135 15:-0.12229029 16:1.3959727 17:-1.5497997 18:-0.14591536 19:1.0799375 20:0.65245105 21:0.18571184 22:1.8582354 23:0.54368293 
-0.774263682681127 1:0 2:1.2734662 3:0.37635496 4:0.18067901 5:0.3317572 6:-0.3867394 7:0.56493268 8:-0.14393852 9:-0.37292591 10:0.17751086 11:0.27506099 12:-1.3222694 13:-0.9411869 14:-0.33037211 15:-0.60745944 16:0.47797876 17:-0.2225536 18:-0.023306563 19:-0.44179262 20:-0.46732653 21:-0.42368815 22:-0.44597649 23:-0.49409553 
-0.774263682681127 1:0 2:-0.91602988 3:0.37635496 4:1.7809788 5:-0.81247335 6:-0.3867394 7:0.56493268 8:0.39605555 9:-0.98589216 10:0.42336993 11:-1.4742939 12:0.42758778 13:-0.8543995 14:-0.40368481 15:-0.58527851 16:0.25034226 17:-0.23407788 18:-0.35935267 19:4.1233978 20:2.304123 21:5.0609105 22:-0.44597649 23:3.0148927 
0.4247804102948645 1:0 2:-2.3583695 3:-0.79034543 4:0.18067901 5:-0.072487701 6:3.9728684 7:0.56493268 8:-0.29698193 9:-0.98589216 10:-3.3230697 11:0.71385347 12:0.47897101 13:-0.78461544 14:-0.89483275 15:-0.17164747 16:1.3181583 17:0.71748344 18:-0.29518216 19:1.0799375 20:4.4037059 21:3.4820085 22:-0.44597649 23:4.0202407 
0.002995994227218579 1:0 2:2.1039904 3:5.0431565 4:4.9815783 5:14.163244 6:12.692084 7:2.8999878 8:6.8673076 9:-0.98589216 10:-3.32444 11:0.64531873 12:0.59645242 13:-0.40094986 14:3.4275324 15:-0.33945733 16:0.65856881 17:3.6118083 18:-0.31790024 19:8.6885883 20:0.58246494 21:16.715675 22:20.29193 23:6.8222423 
0.02626982954643405 1:0 2:2.4692799 3:9.7099581 4:6.5818781 5:7.8126641 6:43.209339 7:12.240208 8:2.3486296 9:-0.98589216 10:0.3065658 11:-1.4569484 12:0.26282725 13:-0.73115099 14:2.339125 15:-0.44545249 16:-0.39436162 17:3.9634078 18:-0.35871329 19:13.253779 20:-0.11739604 21:14.940569 22:11.075083 23:4.2148243 
-0.774263682681127 1:0 2:0.37724454 3:1.5430554 4:0.18067901 5:-0.5912105 6:-0.3867394 7:0.56493268 8:0.87014606 9:-0.98589216 10:0.23220661 11:0.33867773 12:2.3989179 13:1.0319775 14:-1.0851535 15:-0.34533784 16:1.1599394 17:-0.41662147 18:-0.1710281 19:1.0799375 20:2.0731689 21:1.1521331 22:1.8582354 23:1.8603644 
-0.774263682681127 1:0 2:-1.0011789 3:0.37635496 4:0.18067901 5:1.8462139 6:-0.3867394 7:0.56493268 8:-0.43559145 9:-0.98589216 10:-3.3079969 11:0.64531873 12:0.72354462 13:-0.59405251 14:-0.57187399 15:-0.17099268 16:1.2442364 17:-3.5413471 18:-0.90954779 19:1.0799375 20:3.2279396 21:2.9003098 22:1.8582354 23:2.9305735 
0.00226548068070298 1:0 2:2.3443953 3:7.3765573 4:4.9815783 5:12.591215 6:54.108359 7:9.905153 8:6.1482812 9:-0.98589216 10:-3.3098103 11:0.64531873 12:0.35280893 13:0.10237061 14:4.966314 15:-0.45910027 16:0.45848881 17:1.4233511 18:-0.88954872 19:2.6016677 20:3.1579532 21:4.8116077 22:-0.44597649 23:4.8764078 
-0.04764204053356635 1:0 2:0.12736397 3:1.5430554 4:3.3812786 5:0.62712107 6:1.7930645 7:2.8999878 8:1.8167901 9:-0.98589216 10:-3.3243674 11:0.57303861 12:0.53193547 13:0.43065272 14:-0.91064227 15:-0.0066081093 16:1.6299629 17:0.71501904 18:-1.104673 19:5.645128 20:1.569269 21:7.0553013 22:8.7708709 23:5.3693527 
0.774263682681127 1:0 2:0.29546025 3:0.37635496 4:0.18067901 5:0.3912998 6:1.7930645 7:0.56493268 8:-0.019768941 9:-0.98589216 10:0.33010596 11:-1.4554956 12:0.81222871 13:-0.40332652 14:0.96892084 15:-0.66016867 16:0.044059751 17:1.5653835 18:-0.82596238 19:1.0799375 20:1.9681897 21:0.98901202 22:1.8582354 23:1.7630726 
-0.1030527271167423 1:0 2:-0.1721652 3:3.8764561 4:1.7809788 5:11.193151 6:25.770908 7:2.8999878 8:1.1930535 9:-0.98589216 10:0.46131729 11:-1.4648214 12:0.33396813 13:2.4424314 14:3.6343249 15:0.0020745416 16:1.4171791 17:-0.20001373 18:0.11289833 19:2.6016677 20:0.77842599 21:3.3158067 22:-0.44597649 23:4.2277965 
0.1084177770904819 1:0 2:-1.8137372 3:1.5430554 4:3.3812786 5:-2.9493451 6:6.1526723 7:2.8999878 8:1.207489 9:-0.52667619 10:1.4372951 11:0.82936825 12:-1.2488446 13:2.1852269 14:1.2827111 15:-0.47960445 16:0.79607523 17:-2.1470304 18:-1.0120428 19:-0.44179262 20:-0.46732653 21:-0.42368815 22:-0.44597649 23:-0.49409553 
0.774263682681127 1:0 2:2.8245224 3:-0.79034543 4:0.18067901 5:1.7786997 6:1.7930645 7:0.56493268 8:-0.19302519 9:-0.0452182 10:-0.9685014 11:-1.3449826 12:0.55988595 13:1.9864311 14:1.867299 15:-0.45736459 16:1.0065798 17:-0.097658881 18:-0.52502878 19:-0.44179262 20:-0.46732653 21:-0.42368815 22:-0.44597649 23:-0.49409553 
-0.774263682681127 1:0 2:-0.88024333 3:0.37635496 4:-1.4196208 5:5.94828 6:3.9728684 7:-1.7701224 8:-1.232586 9:1.7021428 10:0.29677153 11:0.64531873 12:0.53339944 13:-0.9411869 14:-1.0851535 15:1.7587392 16:-1.658353 17:0.45327538 18:1.6423116 19:-0.44179262 20:-0.46732653 21:-0.42368815 22:-0.44597649 23:-0.49409553 
0.006146852557436243 1:0 2:2.5947283 3:9.7099581 4:11.382777 5:17.249934 6:45.389143 7:5.2350429 8:10.964899 9:-0.98589216 10:0.16848773 11:-1.4747931 12:0.4363829 13:1.2967565 14:3.9314659 15:-0.076072106 16:0.009765145 17:4.4316134 18:0.034540359 19:10.210318 20:0.65245105 21:16.778008 22:6.4666591 23:2.6127537 
0.4692354446705294 1:0 2:-0.92212696 3:-0.79034543 4:-1.4196208 5:1.6702887 6:-0.3867394 7:-1.7701224 8:-1.232586 9:1.7021428 10:0.29677153 11:0.64531873 12:0.53339944 13:-0.9411869 14:-1.0851535 15:1.7587392 16:-1.658353 17:0.45327538 18:1.6423116 19:-0.44179262 20:-0.46732653 21:-0.42368815 22:-0.44597649 23:-0.49409553 
-0.009333022939209824 1:0 2:0.07202411 3:8.5432577 4:0.18067901 5:4.9157072 6:36.669927 7:0.56493268 8:-1.232586 9:1.7021428 10:0.29677153 11:0.64531873 12:0.53339944 13:-0.9411869 14:-1.0851535 15:1.7587392 16:-1.658353 17:0.45327538 18:1.6423116 19:1.0799375 20:7.3011306 21:1.2383147 22:-0.44597649 23:6.7054927 
-0.1099970286892959 1:0 2:1.2030952 3:3.8764561 4:3.3812786 5:-0.47204472 6:10.51228 7:2.8999878 8:1.0385612 9:-0.98589216 10:3.9200094 11:0.64531873 12:0.53339944 13:-0.2838047 14:3.5916964 15:-0.3821662 16:0.88535628 17:-1.3632472 18:-0.95026097 19:2.6016677 20:1.8912049 21:2.1599181 22:1.8582354 23:6.9973677 
0.004453781303014796 1:0 2:4.0932042 3:10.876658 4:11.382777 5:18.607044 6:47.568947 7:21.580428 8:16.26665 9:-0.98589216 10:0.2593594 11:-1.4086603 12:1.0140082 13:-0.85410586 14:2.4635086 15:-0.59621644 16:-0.52195804 17:2.5868588 18:-0.43923577 19:23.90589 20:-0.13839187 21:26.168302 22:17.987718 23:4.2083381 
0.2630100512184703 1:0 2:2.4213972 3:2.7097557 4:3.3812786 5:5.5725598 6:8.3324763 7:5.2350429 8:1.799461 9:-0.98589216 10:0.10280154 11:-1.3865544 12:1.074083 13:-0.9411869 14:3.4125866 15:-0.63206746 16:-0.29010963 17:2.0005121 18:-0.49630248 19:5.645128 20:2.8990047 21:8.094059 22:4.1624472 23:5.8168943 
0.00710810601728612 1:0 2:7.0048746 3:14.37676 4:14.583377 5:23.148193 6:45.389143 7:23.915484 8:15.804627 9:-0.98589216 10:0.10249359 11:-1.3865451 12:1.0740806 13:0.21256911 14:4.6677533 15:-0.44065408 16:0.15448938 17:4.4873358 18:-0.52159823 19:36.079731 20:0.19054279 21:46.735543 22:17.987718 23:5.8168943 
0.00604755837006421 1:0 2:5.6096927 3:12.043359 4:9.7824776 5:10.212658 6:47.568947 7:12.240208 8:11.997241 9:-0.98589216 10:0.14128758 11:-1.449125 12:0.83763086 13:-0.83519845 14:2.3053165 15:0.34693118 16:1.7966971 17:-5.2400054 18:0.11907282 19:8.6885883 20:2.1501535 21:16.994991 22:11.075083 23:6.9714233 
