svm_type epsilon_svr
kernel_type rbf
gamma 0.00201808
nr_class 2
total_sv 167
rho -0.875209
SV
3.041802898703287 1:0 2:-0.66248633 3:2.3017032 4:0.074124932 5:-0.60070924 6:4.8417465 7:0.074124932 8:0.14840278 9:-0.45852878 10:-1.52077 11:-0.88907783 12:-0.11105302 13:-0.11893717 14:-0.6510559 15:-0.7108153 16:-0.30884107 17:-0.25640455 18:0.27396197 19:2.8700423 20:0.79111429 21:2.2237765 22:-0.92113237 23:0.62763782 
-1.064670790497784 1:0 2:-2.708339 3:-0.53473914 4:0.074124932 5:2.727435 6:-0.25043516 7:0.074124932 8:-0.15509641 9:-0.45852878 10:-1.5171804 11:-0.81299061 12:-0.18822219 13:-0.49787296 14:1.7819677 15:0.10625988 16:-2.7211243 17:3.6967554 18:-0.75970163 19:0.98754144 20:-0.040919683 21:-0.40780177 22:1.0856203 23:-0.58353079 
1.708513162833877 1:0 2:-0.42696426 3:3.7199244 4:13.638987 5:2.845321 6:12.480019 7:9.1173666 8:15.366045 9:-0.45852878 10:0.40033562 11:-2.8265223 12:-0.39913065 13:7.4330614 14:3.508643 15:-0.87989722 16:-3.400922 17:3.13036 18:-1.6422504 19:0.98754144 20:0.82651995 21:1.4435077 22:-0.92113237 23:0.26428718 
-0.06404385342134329 1:0 2:2.6705243 3:5.1381456 4:18.160608 5:3.1751923 6:15.02611 7:9.1173666 8:9.8923725 9:-0.45852878 10:-1.5045463 11:-0.6917499 12:-0.26594526 13:8.3112575 14:11.709157 15:0.3897814 16:-0.38346277 17:-0.46320784 18:-2.1142737 19:4.7525432 20:-0.14271108 21:4.8590136 22:-0.92113237 23:1.0428956 
-0.6138441356038064 1:0 2:-1.1066514 3:3.7199244 4:9.1173666 5:-0.29525684 6:2.2956556 7:4.5957458 8:7.5716427 9:-0.45852878 10:0.43072411 11:-0.59632497 12:-2.3764435 13:7.4547553 14:-0.34490105 15:-0.72954652 16:-3.4850504 17:1.939112 18:-2.1751736 19:4.7525432 20:0.51229434 21:6.2811744 22:-0.92113237 23:1.7782479 
0.1137246444427312 1:0 2:-0.071533214 3:5.1381456 4:18.160608 5:0.94208534 6:22.664382 7:31.725471 8:4.620762 9:-0.45852878 10:0.38817898 11:-2.8438631 12:0.037449263 13:-0.41636428 14:5.9683791 15:2.6114788 16:3.1437721 17:0.15055506 18:-1.3542568 19:10.400046 20:0.22019738 21:10.653827 22:1.0856203 23:-0.32832025 
0.4962551082079426 1:0 2:2.1561398 3:5.1381456 4:18.160608 5:2.1704001 6:9.9339281 7:9.1173666 8:13.089288 9:-0.45852878 10:2.3100813 11:-0.95397579 12:-0.10247929 13:1.3580792 14:6.0779131 15:0.75598947 16:3.0102115 17:0.11150396 18:-0.045628196 19:2.8700423 20:1.6054455 21:4.5298375 22:1.0856203 23:-0.47971639 
-5.994842503189409 1:0 2:0.3150766 3:-0.53473914 4:0.074124932 5:-0.58265108 6:-0.25043516 7:0.074124932 8:-0.91627172 9:0.91190591 10:0.53067545 11:-0.39933985 12:2.1807916 13:0.83124102 14:1.3032447 15:0.08508258 16:1.0008425 17:-0.29307722 18:-0.0017933477 19:-0.89495943 20:-0.85082511 21:-0.81927184 22:-0.92113237 23:-1.375116 
-1.558608970565284 1:0 2:1.4603567 3:2.3017032 4:0.074124932 5:-1.5748943 6:7.3878373 7:0.074124932 8:-0.39976016 9:-0.45852878 10:2.3104089 11:-0.88907783 12:0.00046730595 13:7.9138515 14:3.1212059 15:0.40453669 16:-0.25446889 17:-0.37132428 18:-1.2097271 19:0.98754144 20:2.2250451 21:2.3901924 22:-0.92113237 23:1.6311774 
0.01654208947461221 1:0 2:5.3460234 3:12.229252 4:31.725471 5:5.8776663 6:37.940927 7:31.725471 8:20.200823 9:-0.45852878 10:0.45617214 11:-0.97193233 12:2.2577596 13:9.3045938 14:-0.85789565 15:-0.41500563 16:-3.2470916 17:3.208963 18:-0.67647496 19:17.930049 20:-0.018791141 21:18.7667 22:5.0991256 23:1.5792702 
-5.994842503189409 1:0 2:-0.15132129 3:-0.53473914 4:0.074124932 5:-0.34699138 6:-0.25043516 7:0.074124932 8:1.1497669 9:0.18066237 10:0.50082666 11:0.51523525 12:1.5480109 13:3.7920205 14:-0.85789565 15:1.1600079 16:-0.78285617 17:-0.28792978 18:0.26233019 19:-0.89495943 20:-0.85082511 21:-0.81927184 22:-0.92113237 23:-1.375116 
0.006188583577199022 1:0 2:2.048402 3:23.575021 4:54.333575 5:7.8876178 6:32.848745 7:49.811954 8:38.012241 9:-0.45852878 10:0.140545 11:1.0489219 12:0.02189311 13:-0.15112552 14:6.4233854 15:0.61492771 16:3.0146471 17:0.10169313 18:-1.0417487 19:25.460053 20:-0.063048277 21:30.452432 22:3.092373 23:3.4349535 
-2.033254920129899 1:0 2:-0.97154122 3:6.5563668 4:9.1173666 5:-1.7777795 6:7.3878373 7:9.1173666 8:2.7156073 9:-0.45852878 10:-1.5187324 11:-0.95262472 12:-0.15720234 13:5.5582795 14:-0.50666909 15:-0.034657865 16:-3.3353577 17:2.4949878 18:-1.9074809 19:0.98754144 20:0.99912269 21:0.74431669 22:-0.92113237 23:0.4329856 
-0.2739050805915136 1:0 2:-0.76307773 3:7.974588 4:22.682229 5:4.4779747 6:15.02611 7:9.1173666 8:10.936255 9:-0.45852878 10:0.53783093 11:1.0190719 12:0.41632798 13:-0.11536597 14:8.818606 15:1.2142453 16:2.5828137 17:1.5967831 18:-0.12402001 19:2.8700423 20:0.65391722 21:2.2256025 22:1.0856203 23:-0.02985379 
4.473309703367356 1:0 2:-2.6067717 3:-0.53473914 4:0.074124932 5:0.35510718 6:2.2956556 7:0.074124932 8:-0.48131684 9:-0.45852878 10:-1.5200841 11:-0.8268934 12:-0.069584197 13:-0.4705193 14:5.0903274 15:0.11857196 16:2.6343182 17:-0.37220289 18:-1.0257828 19:0.98754144 20:1.7293653 21:1.8141354 22:-0.92113237 23:1.14671 
-0.4462277984192909 1:0 2:-2.0542945 3:-0.53473914 4:0.074124932 5:2.4133856 6:7.3878373 7:9.1173666 8:3.1723091 9:-0.45852878 10:-1.5210523 11:-0.88907783 12:-0.071029194 13:-0.19810081 14:9.9704816 15:-0.037191357 16:-0.83120428 17:-0.28744634 18:-0.11394369 19:2.8700423 20:0.16708877 21:1.6495455 22:1.0856203 23:-0.02985379 
0.7495066421284631 1:0 2:-2.1830492 3:2.3017032 4:-4.4474959 5:-1.12495 6:-0.25043516 7:-4.4474959 8:-1.4599659 9:4.7212275 10:0.3951287 11:-0.88907783 12:-0.071029194 13:-0.7854985 14:-0.85789565 15:1.6596675 16:-0.32836262 17:3.9566701 18:3.4339519 19:-0.89495943 20:-0.85082511 21:-0.81927184 22:-0.92113237 23:-1.375116 
5.994842503189409 1:0 2:0.57221897 3:0.88348205 4:0.074124932 5:-3.1953675 6:2.2956556 7:0.074124932 8:-0.35082861 9:-0.45852878 10:0.3762293 11:1.0525904 12:-0.36067263 13:0.22244678 14:-0.64846085 15:1.0461076 16:0.97349391 17:-0.48025824 18:-1.139951 19:0.98754144 20:0.68932289 21:0.74431669 22:-0.92113237 23:0.13019354 
-1.222084074840176 1:0 2:1.085 3:5.1381456 4:18.160608 5:6.3582237 6:12.480019 7:9.1173666 8:13.546004 9:-0.45852878 10:0.44595588 11:1.0092936 12:-0.63380229 13:7.2121877 14:-0.4426979 15:-1.8981557 16:-3.2859146 17:3.3793341 18:-1.364898 19:10.400046 20:0.16266306 21:12.862102 22:7.1058783 23:2.0031792 
0.002955246079033405 1:0 2:6.5137319 3:15.065694 4:27.20385 5:8.4588012 6:48.12529 7:36.247092 8:33.305541 9:-0.45852878 10:0.35842752 11:-1.1877319 12:2.2332841 13:13.226155 14:4.5572167 15:-2.823732 16:-1.1656863 17:2.7801468 18:-0.07001063 19:25.460053 20:-0.1515625 21:19.15561 22:3.092373 23:1.8820625 
3.73181261642497 1:0 2:-0.3538285 3:-0.53473914 4:0.074124932 5:-1.781493 6:2.2956556 7:4.5957458 8:5.7820481 9:-0.45852878 10:-1.5140344 11:-0.95097524 12:-0.2562927 13:-0.4779095 14:6.9956396 15:1.1384879 16:-2.1734575 17:-0.47152745 18:-0.71844307 19:0.98754144 20:1.1274683 21:1.9787255 22:1.0856203 23:0.55842805 
-0.1590942863250106 1:0 2:1.03745 3:5.1381456 4:9.1173666 5:3.5334252 6:9.9339281 7:9.1173666 8:3.7481731 9:-0.45852878 10:2.3113097 11:-0.88907783 12:-0.071029194 13:9.9787777 14:12.789414 15:-0.29443879 16:-0.40735182 17:-0.27061337 18:0.2923985 19:0.98754144 20:0.1803659 21:0.079675855 22:-0.92113237 23:-0.36725074 
0.007643994233702215 1:0 2:5.1064478 3:13.647473 4:36.247092 5:4.4554796 6:30.302655 7:31.725471 8:32.009867 9:-0.45852878 10:-1.5200208 11:-0.88907783 12:0.0054742322 13:11.254392 14:-0.51998305 15:1.0323188 16:-4.4050157 17:2.646814 18:-2.2460508 19:32.990056 20:0.27330588 21:41.726703 22:11.119384 23:1.375967 
0.5237517964470236 1:0 2:1.6582754 3:6.5563668 4:9.1173666 5:-1.4780612 6:9.9339281 7:9.1173666 8:5.9777716 9:-0.45852878 10:-1.5140351 11:-0.95097447 12:-0.25628233 13:15.397668 14:-0.44797315 15:1.266025 16:-1.0767094 17:1.0320556 18:0.066346076 19:0.98754144 20:0.27330588 21:0.16825201 22:-0.92113237 23:-0.27641308 
-0.2522658341468683 1:0 2:-0.54233526 3:7.974588 4:13.638987 5:-1.5738544 6:15.02611 7:13.638987 8:4.7381536 9:-0.45852878 10:-1.5127925 11:-0.75133334 12:0.069822994 13:-0.48323403 14:7.39679 15:-1.2308426 16:1.4379121 17:-0.16839464 18:-1.5196506 19:4.7525432 20:0.286583 21:3.0896877 22:1.0856203 23:-0.26343629 
0.4066185439898289 1:0 2:1.8257765 3:2.3017032 4:0.074124932 5:0.77040355 6:4.8417465 7:4.5957458 8:2.1284148 9:-0.45852878 10:-1.5170872 11:-0.82836289 12:0.060301321 13:-0.50436959 14:4.3162982 15:-0.16587211 16:2.5603135 17:-0.26707431 18:0.42617094 19:2.8700423 20:0.7512828 21:4.2006658 22:1.0856203 23:0.19075191 
-0.6481454429191671 1:0 2:3.2839103 3:6.5563668 4:4.5957458 5:-1.7872794 6:9.9339281 7:9.1173666 8:8.522269 9:-0.45852878 10:-1.5105225 11:-0.95094915 12:0.16171851 13:9.0756716 14:1.1018038 15:-7.387387 16:1.1714589 17:-2.7443597 18:-1.5836826 19:4.7525432 20:0.016614579 21:2.4724881 22:1.0856203 23:-0.073109769 
0.1444397086597518 1:0 2:-0.28651075 3:0.88348205 4:4.5957458 5:-1.8801822 6:17.5722 7:13.638987 8:8.522263 9:0.25073856 10:0.39231861 11:-2.8439333 12:-0.17797534 13:6.1578344 14:7.2351704 15:1.0949577 16:-1.564845 17:1.5805105 18:-0.10725414 19:-0.89495943 20:-0.85082511 21:-0.81927184 22:-0.92113237 23:-1.375116 
0.2281374787122706 1:0 2:-0.58377445 3:7.974588 4:22.682229 5:-0.4221689 6:7.3878373 7:13.638987 8:13.089296 9:-0.45852878 10:-1.5210523 11:-0.88907783 12:-0.071029194 13:-0.7854985 14:-0.49541221 15:-0.037191357 16:-3.7043342 17:2.6598539 18:-1.9973009 19:8.5175449 20:0.52557147 21:8.5622434 22:3.092373 23:1.8993649 
3.361503951874235 1:0 2:-2.1336446 3:0.88348205 4:4.5957458 5:-1.2644504 6:2.2956556 7:4.5957458 8:2.1279334 9:-0.45852878 10:0.36102566 11:-1.1714196 12:2.2362621 13:-0.18479829 14:5.8469716 15:0.27227065 16:1.5342512 17:-0.33073368 18:-0.47538103 19:0.98754144 20:1.3620312 21:0.66323891 22:-0.92113237 23:0.78768505 
4.575484287657755 1:0 2:-2.2751089 3:-0.53473914 4:0.074124932 5:-0.98378974 6:2.2956556 7:0.074124932 8:1.1381681 9:0.43863132 10:0.38999289 11:1.0460492 12:0.27595424 13:-0.48121635 14:3.4470059 15:0.41429752 16:-3.6094818 17:3.4870923 18:-1.6099232 19:-0.89495943 20:-0.85082511 21:-0.81927184 22:-0.92113237 23:-1.375116 
0.01310583592463501 1:0 2:5.6250711 3:23.575021 4:36.247092 5:6.7235312 6:40.487018 7:49.811954 8:49.005746 9:-0.45852878 10:0.33985648 11:0.99566888 12:-0.69490089 13:12.443977 14:-0.47054283 15:2.7862587 16:-2.3540763 17:3.8830538 18:0.44073473 19:32.990056 20:-0.023216849 21:51.691141 22:7.1058783 23:0.96503467 
-0.5730117743255879 1:0 2:0.61727028 3:3.7199244 4:0.074124932 5:-0.08178385 6:-0.25043516 7:0.074124932 8:-0.96656354 9:-0.45852878 10:2.3113097 11:-0.88907783 12:-0.071029194 13:-0.7854985 14:-0.49072148 15:-0.29443879 16:-0.40735182 17:-0.27061337 18:0.2923985 19:0.98754144 20:0.1803659 21:0.079675855 22:-0.92113237 23:-0.36725074 
0.9161636488502884 1:0 2:3.8892783 3:3.7199244 4:13.638987 5:7.035341 6:17.5722 7:9.1173666 8:14.796488 9:-0.45852878 10:0.50783282 11:1.0379488 12:-0.45319606 13:-0.37408123 14:-0.64915526 15:-0.11510311 16:-3.5640685 17:3.4757765 18:-0.63076116 19:4.7525432 20:0.88847998 21:8.8091284 22:1.0856203 23:0.39405532 
0.005403801754710643 1:0 2:1.0366021 3:17.902136 4:54.333575 5:7.7117956 6:30.302655 7:22.682229 8:29.367503 9:-0.45852878 10:0.40232977 11:1.0299975 12:-0.52734074 13:2.740373 14:-0.54828811 15:-0.82903221 16:-3.8960034 17:3.0593765 18:0.557762 19:25.460053 20:-0.1781168 21:20.234277 22:7.1058783 23:1.25485 
0.003315752359864539 1:0 2:4.5616169 3:15.065694 4:49.811954 5:3.3259703 6:20.118291 7:22.682229 8:30.052551 9:-0.45852878 10:0.38509245 11:1.0501699 12:-0.38346281 13:6.3044588 14:-0.65714678 15:-0.40971954 16:-3.8383326 17:1.6264825 18:-0.36788676 19:14.165048 20:0.31756307 21:12.512354 22:1.0856203 23:0.009076695 
2.988222975421521 1:0 2:-0.82711171 3:2.3017032 4:4.5957458 5:-0.84285542 6:15.02611 7:4.5957458 8:5.4558278 9:-0.45852878 10:0.53470027 11:-2.8297657 12:0.17590058 13:2.5291673 14:10.461674 15:0.63698256 16:0.52101373 17:0.55751068 18:0.58065901 19:0.98754144 20:0.66719435 21:0.3328419 22:-0.92113237 23:0.10856555 
-0.09160029472148339 1:0 2:0.37686601 3:2.3017032 4:9.1173666 5:-0.27757755 6:7.3878373 7:9.1173666 8:4.7381499 9:-0.45852878 10:0.32971992 11:-2.8304584 12:-0.35329045 13:-0.48221347 14:-0.85789565 15:-0.14977641 16:-4.2444873 17:2.2368352 18:-2.2562954 19:6.635044 20:0.68932289 21:8.1507765 22:5.0991256 23:0.96936037 
-4.241703050406294 1:0 2:1.0818885 3:0.88348205 4:0.074124932 5:0.080067474 6:7.3878373 7:4.5957458 8:2.5198807 9:-0.45852878 10:-1.5081628 11:-0.69199454 12:-0.20429256 13:1.3316442 14:4.3875603 15:-0.3024895 16:0.83587878 17:-0.92014203 18:-1.7195922 19:0.98754144 20:0.99912269 21:0.99119371 22:1.0856203 23:0.4329856 
-2.235109980932337 1:0 2:1.0438877 3:5.1381456 4:9.1173666 5:-1.695351 6:15.02611 7:4.5957458 8:3.8899875 9:-0.45852878 10:2.3102782 11:-0.88907783 12:-0.14753304 13:7.2658282 14:10.414714 15:-0.92057237 16:1.3044018 17:-0.24677086 18:-1.8735058 19:2.8700423 20:-0.018791141 21:3.1308398 22:-0.92113237 23:1.0255932 
-0.0317881687293453 1:0 2:0.24114903 3:7.974588 4:18.160608 5:1.7533792 6:4.8417465 7:0.074124932 8:9.3704173 9:-0.45852878 10:-1.50055 11:-1.0754562 12:-0.32876011 13:15.675536 14:-0.85789565 15:-1.8697542 16:-3.2256939 17:0.95535264 18:-0.49954431 19:0.98754144 20:1.2336855 21:1.3203735 22:-0.92113237 23:0.6622426 
-1.420479723667883 1:0 2:-1.1923473 3:0.88348205 4:4.5957458 5:-0.49984003 6:12.480019 7:18.160608 8:6.9564288 9:-0.45852878 10:2.3075266 11:-0.95401958 12:0.053325781 13:-0.28985683 14:6.0172067 15:1.1470412 16:2.22543 17:-0.18424413 18:-0.11312033 19:2.8700423 20:1.4992283 21:4.8590097 22:-0.92113237 23:1.1077795 
-0.07629239678060486 1:0 2:1.3891951 3:7.974588 4:4.5957458 5:-2.6612726 6:7.3878373 7:4.5957458 8:-0.87277582 9:-0.45852878 10:2.2952762 11:-0.88907783 12:-0.37208001 13:12.332948 14:0.2940322 15:-2.82943 16:-1.6374918 17:-0.18640853 18:-1.5357228 19:2.8700423 20:0.81766854 21:2.1433152 22:-0.92113237 23:0.98666276 
5.994842503189409 1:0 2:-0.10103341 3:2.3017032 4:4.5957458 5:0.76908572 6:2.2956556 7:4.5957458 8:4.7260674 9:-0.45852878 10:0.42931916 11:-0.60643342 12:-2.378266 13:7.6190742 14:2.2585828 15:-1.0824298 16:-1.3272812 17:-0.34481364 18:-1.4657791 19:2.8700423 20:0.47688867 21:1.7556153 22:1.0856203 23:0.013402293 
5.043676819223174 1:0 2:-2.5544423 3:-0.53473914 4:0.074124932 5:4.1960609 6:-0.25043516 7:0.074124932 8:-0.48131684 9:1.2928494 10:0.50248217 11:-0.06320202 12:2.0391384 13:0.12462246 14:7.9778006 15:-0.14409984 16:-1.5798427 17:0.051770831 18:-0.60245612 19:-0.89495943 20:-0.85082511 21:-0.81927184 22:-0.92113237 23:-1.375116 
-2.730805889676073 1:0 2:1.7306265 3:0.88348205 4:0.074124932 5:-2.4430383 6:-0.25043516 7:0.074124932 8:-0.54656216 9:-0.45852878 10:-1.5170872 11:-0.82836289 12:0.060301321 13:-0.50436959 14:-0.85789565 15:-0.16587211 16:2.5603135 17:-0.26707431 18:0.42617094 19:0.98754144 20:0.7512828 21:1.4026685 22:1.0856203 23:0.19075191 
-1.99652294458825 1:0 2:-1.8985096 3:0.88348205 4:4.5957458 5:-0.92867907 6:2.2956556 7:4.5957458 8:0.45770445 9:-0.45852878 10:0.43121719 11:-0.58987362 12:-2.3752559 13:-0.0383629 14:8.9949309 15:0.91464402 16:1.0215684 17:-0.16128024 18:0.40876304 19:0.98754144 20:0.73357997 21:0.81929267 22:-0.92113237 23:0.17344952 
0.4457943424894054 1:0 2:1.5187038 3:7.974588 4:9.1173666 5:-0.11158277 6:12.480019 7:13.638987 8:13.077212 9:0.46257696 10:0.42599036 11:-0.015880469 12:-2.1577207 13:13.493517 14:7.1834342 15:-3.3973747 16:-1.5798283 17:2.638434 18:-0.72825087 19:-0.89495943 20:-0.85082511 21:-0.81927184 22:-0.92113237 23:-1.375116 
-4.960409862514488 1:0 2:-0.43253024 3:-0.53473914 4:0.074124932 5:-0.85821446 6:-0.25043516 7:0.074124932 8:-0.024614371 9:-0.45852878 10:0.40562892 11:1.004508 12:0.51731459 13:-0.12544023 14:-0.29114631 15:1.6524316 16:0.4197755 17:-0.030741055 18:0.52673089 19:-0.89495943 20:-0.85082511 21:-0.81927184 22:1.0856203 23:0.58438184 
5.994842503189409 1:0 2:0.76740975 3:0.88348205 4:0.074124932 5:-0.68414725 6:-0.25043516 7:0.074124932 8:1.3856094 9:0.93905642 10:0.38052738 11:0.89978914 12:0.87429619 13:3.0683305 14:-0.20173832 15:-0.44372895 16:0.0231853 17:-0.10039418 18:0.5518914 19:-0.89495943 20:-0.85082511 21:-0.81927184 22:-0.92113237 23:-1.375116 
5.994842503189409 1:0 2:-0.052491974 3:0.88348205 4:0.074124932 5:-1.2915123 6:-0.25043516 7:0.074124932 8:1.3856094 9:0.93905642 10:0.38052738 11:0.89978914 12:0.87429619 13:3.0683305 14:-0.20173832 15:-0.44372895 16:0.0231853 17:-0.10039418 18:0.5518914 19:-0.89495943 20:-0.85082511 21:-0.81927184 22:-0.92113237 23:-1.375116 
-1.490589031847259 1:0 2:0.99916408 3:-0.53473914 4:0.074124932 5:-1.259761 6:-0.25043516 7:0.074124932 8:1.0192786 9:0.73193426 10:0.72274365 11:0.41225125 12:1.6244268 13:0.023439268 14:1.4161649 15:1.04709 16:1.2472088 17:-0.35116198 18:0.55163815 19:-0.89495943 20:-0.85082511 21:-0.81927184 22:-0.92113237 23:-1.375116 
-5.135342542839496 1:0 2:-2.0753359 3:2.3017032 4:0.074124932 5:0.27539478 6:-0.25043516 7:0.074124932 8:0.9866598 9:-0.45852878 10:0.45918345 11:1.0378776 12:-0.47000142 13:-0.092811575 14:-0.29572524 15:-1.1752081 16:0.14489133 17:0.36771781 18:0.54515961 19:0.98754144 20:0.27330588 21:0.62087037 22:1.0856203 23:-0.27641308 
5.994842503189409 1:0 2:1.4281584 3:-0.53473914 4:0.074124932 5:-1.4995449 6:-0.25043516 7:0.074124932 8:-1.0685063 9:-0.45852878 10:0.14056444 11:1.0489246 12:0.021893231 13:-0.10905488 14:-0.25788063 15:-0.64310601 16:1.4770475 17:-0.47268038 18:0.54264948 19:0.98754144 20:1.4859512 21:1.4849556 22:-0.92113237 23:0.908802 
2.554870479813096 1:0 2:3.7384563 3:7.974588 4:4.5957458 5:2.2934126 6:7.3878373 7:4.5957458 8:0.75830725 9:0.56927375 10:0.18901019 11:0.81822363 12:-1.1827892 13:-0.7854985 14:10.164948 15:0.6073066 16:0.67513145 17:-0.055498465 18:-1.9141446 19:-0.89495943 20:-0.85082511 21:-0.81927184 22:-0.92113237 23:-1.375116 
-0.3095662855220812 1:0 2:2.0790877 3:6.5563668 4:22.682229 5:5.7499128 6:15.02611 7:18.160608 8:24.637368 9:-0.45852878 10:0.41268866 11:-2.8243969 12:0.27382365 13:5.1719248 14:4.2949452 15:-0.52579388 16:-3.537564 17:2.0724448 18:-2.1704273 19:2.8700423 20:0.73800568 21:3.130839 22:1.0856203 23:1.1683381 
0.4246691874498287 1:0 2:1.2197421 3:2.3017032 4:9.1173666 5:3.7839752 6:15.02611 7:13.638987 8:11.191801 9:-0.45852878 10:2.3104089 11:-0.88907783 12:0.00046730595 13:6.5263293 14:4.3254709 15:0.40453669 16:-0.25446889 17:-0.37132428 18:-1.2097271 19:2.8700423 20:0.025465996 21:3.2817119 22:-0.92113237 23:1.6311774 
0.0955405131186655 1:0 2:-0.58654972 3:2.3017032 4:4.5957458 5:4.68854 6:12.480019 7:4.5957458 8:10.283835 9:-0.45852878 10:2.3073353 11:-0.94979248 12:-0.20256647 13:4.6345279 14:6.198245 15:-0.2174407 16:-2.1301239 17:-0.0060722138 18:0.51552249 19:0.98754144 20:-0.098453944 21:-0.16092003 22:-0.92113237 23:-0.63976362 
-0.06433962779024364 1:0 2:-0.10121102 3:10.81103 4:31.725471 5:7.3371193 6:12.480019 7:9.1173666 8:17.603353 9:-0.45852878 10:0.43535575 11:-2.810634 12:0.36756858 13:0.28531116 14:6.9124645 15:-2.045856 16:3.2295133 17:0.27440331 18:-0.2490109 19:8.5175449 20:0.3352659 21:8.798852 22:3.092373 23:0.93908108 
0.008823220840487533 1:0 2:5.0232734 3:19.320358 4:49.811954 5:8.8731716 6:48.12529 7:54.333575 8:51.60823 9:-0.45852878 10:0.3951287 11:1.0382234 12:-0.47521069 13:5.1054192 14:-0.67781357 15:-0.015298721 16:-4.2054023 17:2.3285616 18:-0.41777608 19:32.990056 20:-0.014365432 21:22.968266 22:13.126136 23:1.298106 
0.8031635650334729 1:0 2:1.9693569 3:3.7199244 4:13.638987 5:3.3343224 6:7.3878373 7:4.5957458 8:15.503305 9:-0.45852878 10:0.19249674 11:-2.823925 12:-0.3183298 13:14.134586 14:0.59413118 15:1.3926626 16:-2.2447326 17:0.055999064 18:-1.8373456 19:0.98754144 20:1.1274683 21:1.6495455 22:-0.92113237 23:0.55842805 
-5.994842503189409 1:0 2:-1.8985096 3:0.88348205 4:0.074124932 5:-1.0274278 6:-0.25043516 7:0.074124932 8:-0.40834022 9:-0.45852878 10:0.43121719 11:-0.58987362 12:-2.3752559 13:-0.0383629 14:-0.39773984 15:0.91464402 16:1.0215684 17:-0.16128024 18:0.40876304 19:0.98754144 20:0.73357997 21:0.81929267 22:-0.92113237 23:0.17344952 
0.02000464969616172 1:0 2:6.0141494 3:29.247906 4:58.855196 5:6.5753765 6:25.210473 7:31.725471 8:49.641873 9:-0.45852878 10:-1.520107 11:-0.94973351 12:-0.082839932 13:6.373855 14:-0.58186233 15:-0.067462285 16:-3.7961804 17:2.9141608 18:-1.2031292 19:46.167562 20:-0.023216849 21:69.432344 22:9.112631 23:1.4495023 
0.01913268408168467 1:0 2:2.6610758 3:26.411464 4:72.420058 5:11.419177 6:48.12529 7:45.290333 8:53.779385 9:-0.45852878 10:-1.5207189 11:-0.88907783 12:-0.11453211 13:7.1094556 14:-0.85789565 15:-1.1571231 16:-3.9309584 17:3.0663862 18:-1.1752815 19:38.637559 20:-0.62953948 21:28.395095 22:11.119384 23:0.32917125 
0.1444512363269641 1:0 2:-0.35974969 3:15.065694 4:18.160608 5:6.4200236 6:27.756564 7:13.638987 8:12.045404 9:-0.45852878 10:0.4629506 11:1.0640186 12:0.048960261 13:17.373528 14:-0.24967188 15:-0.86334498 16:-2.4487133 17:0.29382384 18:-1.8964825 19:10.400046 20:0.58310578 21:12.018585 22:3.092373 23:1.0299187 
-0.1792724487053029 1:0 2:-0.44957597 3:3.7199244 4:9.1173666 5:2.7461742 6:12.480019 7:13.638987 8:4.4119315 9:-0.45852878 10:-1.5163595 11:-0.88907783 12:0.092081723 13:4.9965494 14:-0.85789565 15:-1.4514553e-05 16:-4.0157012 17:2.8548467 18:-0.24636184 19:4.7525432 20:1.4416939 21:6.4225981 22:-0.92113237 23:1.0688492 
0.007225332041903237 1:0 2:7.1210218 3:26.411464 4:49.811954 5:8.1605062 6:35.394836 7:45.290333 8:64.66873 9:-0.45852878 10:0.39002067 11:1.048464 12:0.25625719 13:7.9020809 14:-0.85789565 15:-0.10247534 16:-3.7413759 17:2.3159772 18:0.15095385 19:31.107555 20:-0.0010883071 21:33.044395 22:7.1058783 23:0.17344952 
0.07568171815324012 1:0 2:3.7451951 3:9.3928092 4:13.638987 5:6.3763973 6:17.5722 7:13.638987 8:20.527024 9:-0.45852878 10:0.3951287 11:1.0584064 12:-0.29972075 13:6.3990256 14:11.756273 15:-0.89066485 16:-0.62579861 17:-1.1035985 18:-0.43890355 19:25.460053 20:-0.35071959 21:17.038522 22:15.132889 23:2.2410872 
-5.994842503189409 1:0 2:-2.139207 3:-0.53473914 4:0.074124932 5:-0.99721634 6:7.3878373 7:0.074124932 8:2.2860855 9:0.75928798 10:0.23619727 11:-0.52626136 12:-2.3544847 13:1.1938075 14:3.1534349 15:0.29399792 16:-2.3538894 17:3.856841 18:0.42261965 19:-0.89495943 20:-0.85082511 21:-0.81927184 22:-0.92113237 23:-1.375116 
-5.994842503189409 1:0 2:0.81670199 3:-0.53473914 4:0.074124932 5:-0.95089835 6:-0.25043516 7:0.074124932 8:-0.1550988 9:-0.45852878 10:2.2953005 11:-0.88907783 12:-0.37185438 13:-0.50352938 14:1.3272795 15:-1.7154061 16:0.62546237 17:-0.30965248 18:-1.8699823 19:0.98754144 20:1.0699342 21:0.41513684 22:-0.92113237 23:0.50219538 
0.01067615077574045 1:0 2:8.7076376 3:16.483915 4:40.768712 5:10.79876 6:37.940927 7:49.811954 8:58.059942 9:-0.45852878 10:0.35488373 11:1.032478 12:-0.5096269 13:-0.054638821 14:8.457579 15:-1.3330661 16:3.2188322 17:1.1304852 18:-0.19745652 19:42.402561 20:-0.43923383 21:50.210252 22:13.126136 23:1.0861516 
0.7950669927701274 1:0 2:1.1484451 3:5.1381456 4:13.638987 5:-0.60450364 6:12.480019 7:9.1173666 8:2.6503645 9:-0.45852878 10:-1.5204716 11:-0.88907783 12:-0.013617612 13:5.8642924 14:9.1720868 15:0.67059217 16:0.84372606 17:-0.14376639 18:0.41668391 19:2.8700423 20:1.1053399 21:3.3777161 22:-0.92113237 23:1.1942917 
-0.0684195269007436 1:0 2:3.513618 3:9.3928092 4:9.1173666 5:5.5765175 6:17.5722 7:18.160608 8:14.301741 9:-0.45852878 10:0.33985547 11:0.99564695 12:-0.6949945 13:4.517892 14:10.818106 15:-0.65790344 16:-0.023985534 17:0.090785648 18:0.50705949 19:0.98754144 20:0.48131438 21:0.9637673 22:1.0856203 23:0.93475558 
0.4746855437613304 1:0 2:-0.048104526 3:9.3928092 4:13.638987 5:3.0096435 6:15.02611 7:13.638987 8:3.1795591 9:-0.45852878 10:0.38981438 11:1.0454632 12:0.28055986 13:-0.364601 14:12.379115 15:-12.817646 16:1.4462261 17:-2.5216464 18:-1.2549577 19:6.635044 20:0.53442299 21:10.182518 22:1.0856203 23:-0.021202491 
5.994842503189409 1:0 2:0.76001129 3:0.88348205 4:0.074124932 5:-0.15227784 6:2.2956556 7:0.074124932 8:1.1497669 9:0.18066237 10:0.50082666 11:0.51523525 12:1.5480109 13:3.7920205 14:-0.85789565 15:1.1600079 16:-0.78285617 17:-0.28792978 18:0.26233019 19:-0.89495943 20:-0.85082511 21:-0.81927184 22:-0.92113237 23:-1.375116 
2.316809709307252 1:0 2:1.6326797 3:5.1381456 4:4.5957458 5:2.1175243 6:7.3878373 7:0.074124932 8:2.7156066 9:0.18066237 10:0.50082666 11:0.51523525 12:1.5480109 13:3.8355041 14:-0.85789565 15:1.1600079 16:-0.78285617 17:-0.28792978 18:0.26233019 19:-0.89495943 20:-0.85082511 21:-0.81927184 22:-0.92113237 23:-1.375116 
-1.392114011171448 1:0 2:3.0225718 3:6.5563668 4:9.1173666 5:2.0581292 6:7.3878373 7:4.5957458 8:9.5009087 9:-0.45852878 10:2.3113097 11:-0.88907783 12:-0.071029194 13:4.9315649 14:0.42170959 15:-0.57187477 16:-0.68156081 17:-1.323788 18:0.13315885 19:0.98754144 20:0.10955456 21:0.49743179 22:1.0856203 23:0.55842805 
-2.406974853435143 1:0 2:-1.7057049 3:6.5563668 4:13.638987 5:1.2417651 6:9.9339281 7:4.5957458 8:2.8515323 9:-0.45852878 10:0.3398571 11:0.99565138 12:-0.69497609 13:-0.059138499 14:9.541939 15:-0.5027232 16:1.4930866 17:1.266837 18:-0.021774656 19:2.8700423 20:0.3352659 21:3.4600188 22:-0.92113237 23:1.6311774 
0.707649777729183 1:0 2:-2.4609547 3:0.88348205 4:4.5957458 5:2.207971 6:20.118291 7:4.5957458 8:7.6741019 9:-0.45852878 10:-1.5200788 11:-0.82672129 12:-0.069592097 13:3.4840555 14:14.108346 15:-2.4505968 16:0.80826096 17:-2.7746355 18:-2.2421571 19:0.98754144 20:0.81324283 21:0.41513684 22:-0.92113237 23:0.25131039 
0.01558083319310721 1:0 2:8.5171195 3:24.993242 4:54.333575 5:9.6740617 6:32.848745 7:36.247092 8:46.037191 9:-0.45852878 10:0.32948855 11:1.0051185 12:-0.65124116 13:-0.49805326 14:5.9534558 15:-1.2323572 16:3.1294281 17:0.040810763 18:0.53503834 19:53.697566 20:-0.45693669 21:54.399979 22:21.153147 23:2.8553227 
-0.5188104779172259 1:0 2:1.5776467 3:5.1381456 4:18.160608 5:1.8818338 6:12.480019 7:13.638987 8:13.089292 9:-0.45852878 10:0.32293574 11:-2.8419287 12:0.050848289 13:7.1923349 14:2.6026957 15:0.16750489 16:-2.4494997 17:2.1976674 18:-1.2918516 19:0.98754144 20:0.18921731 21:0.16825201 22:3.092373 23:-0.35859954 
0.04625525080232212 1:0 2:4.3903578 3:5.1381456 4:4.5957458 5:-0.66567274 6:20.118291 7:31.725471 8:16.481946 9:-0.45852878 10:-1.5198044 11:-0.88907783 12:-0.1551831 13:-0.7854985 14:-0.85789565 15:0.44379306 16:-4.0420835 17:2.419925 18:-0.81100174 19:12.282547 20:0.39722582 21:13.99364 22:-0.92113237 23:2.2800177 
-3.941063081970992 1:0 2:-1.2505595 3:2.3017032 4:9.1173666 5:4.4310124 6:12.480019 7:4.5957458 8:11.066758 9:0.59868475 10:0.0043266387 11:-2.0561657 12:-1.8815323 13:6.8371055 14:3.248144 15:0.73844568 16:-2.5952816 17:1.5512142 18:0.38924057 19:-0.89495943 20:-0.85082511 21:-0.81927184 22:-0.92113237 23:-1.375116 
-4.815066060331391 1:0 2:-2.0753359 3:2.3017032 4:4.5957458 5:1.0304918 6:4.8417465 7:4.5957458 8:2.2915293 9:-0.45852878 10:0.45918345 11:1.0378776 12:-0.47000142 13:-0.092811575 14:10.333568 15:-1.1752081 16:0.14489133 17:0.36771781 18:0.54515961 19:0.98754144 20:0.27330588 21:0.62087037 22:1.0856203 23:-0.27641308 
5.994842503189409 1:0 2:2.1703092 3:2.3017032 4:4.5957458 5:-0.95089835 6:-0.25043516 7:0.074124932 8:1.9979315 9:-0.45852878 10:2.2953005 11:-0.88907783 12:-0.37185438 13:-0.50352938 14:1.3272795 15:-1.7154061 16:0.62546237 17:-0.30965248 18:-1.8699823 19:0.98754144 20:1.0699342 21:0.41513684 22:-0.92113237 23:0.50219538 
2.547557847158921 1:0 2:-0.40649458 3:6.5563668 4:13.638987 5:-0.88163082 6:15.02611 7:9.1173666 8:4.2814464 9:-0.45852878 10:0.45841027 11:1.0642152 12:0.048089154 13:8.2869066 14:5.6830358 15:1.44773 16:-1.359557 17:1.6864497 18:0.5098685 19:2.8700423 20:0.27330588 21:1.4026607 22:-0.92113237 23:-0.02985379 
5.994842503189409 1:0 2:0.5198859 3:0.88348205 4:4.5957458 5:1.343634 6:-0.25043516 7:0.074124932 8:3.6290178 9:-0.45852878 10:0.37756823 11:1.0462388 12:-0.41590063 13:3.8177049 14:-0.16202761 15:0.021841868 16:-0.61460601 17:0.41137603 18:0.50316978 19:-0.89495943 20:-0.85082511 21:-0.81927184 22:1.0856203 23:1.1683381 
-0.3361306141944624 1:0 2:-1.224801 3:2.3017032 4:9.1173666 5:2.3732004 6:7.3878373 7:9.1173666 8:4.3466904 9:-0.45852878 10:0.47147245 11:-0.57987344 12:-2.3719237 13:2.3373541 14:3.8180559 15:-0.29008743 16:2.9127304 17:-0.37442387 18:-0.68475256 19:8.5175449 20:0.39722582 21:8.2330715 22:-0.92113237 23:1.7176895 
1.583635597109109 1:0 2:0.9072795 3:5.1381456 4:4.5957458 5:3.7949352 6:17.5722 7:4.5957458 8:3.3027972 9:-0.45852878 10:2.3107332 11:-0.88907783 12:-0.12821972 13:13.359283 14:4.7283839 15:-1.4696477 16:-1.2393782 17:2.4984985 18:-0.18004963 19:2.8700423 20:-0.24892819 21:3.3777233 22:1.0856203 23:2.0334585 
3.409773354188342 1:0 2:-0.93747513 3:2.3017032 4:0.074124932 5:-3.121723 6:4.8417465 7:0.074124932 8:-0.61180502 9:-0.45852878 10:2.3097588 11:-0.88907783 12:0.022778413 13:-0.7854985 14:4.5805245 15:-0.10085852 16:-2.5332511 17:-0.036738816 18:-1.6682743 19:0.98754144 20:0.27330588 21:0.3328419 22:-0.92113237 23:-0.27641308 
1.540919533066012 1:0 2:0.59907435 3:3.7199244 4:9.1173666 5:0.8564244 6:9.9339281 7:4.5957458 8:7.869832 9:-0.45852878 10:-1.5105221 11:-0.95094749 12:0.16172091 13:3.0744172 14:-0.85789565 15:-1.3480948 16:-2.842984 17:2.7946297 18:-0.34482198 19:0.98754144 20:0.48131438 21:0.16825201 22:-0.92113237 23:-0.073109769 
-0.1949132360703218 1:0 2:3.6094834 3:6.5563668 4:9.1173666 5:5.2325107 6:17.5722 7:18.160608 8:9.7618773 9:-0.45852878 10:0.57006026 11:-2.8146358 12:0.28614843 13:-0.7854985 14:11.564035 15:-10.322914 16:-0.55932434 17:-2.2613258 18:-0.91875689 19:2.8700423 20:0.016614579 21:0.6620155 22:1.0856203 23:0.75308026 
-5.994842503189409 1:0 2:1.1454187 3:0.88348205 4:0.074124932 5:0.30475627 6:-0.25043516 7:0.074124932 8:3.0558384 9:0.59324363 10:0.84105506 11:-1.1590748 12:2.1740689 13:3.7983763 14:0.18174111 15:-0.7704948 16:0.21046989 17:-0.25132569 18:0.35968148 19:-0.89495943 20:-0.85082511 21:-0.81927184 22:-0.92113237 23:-1.375116 
-5.994842503189409 1:0 2:0.051622323 3:0.88348205 4:0.074124932 5:-0.68414725 6:-0.25043516 7:0.074124932 8:1.3856094 9:0.93905642 10:0.38052738 11:0.89978914 12:0.87429619 13:3.0683305 14:-0.20173832 15:-0.44372895 16:0.0231853 17:-0.10039418 18:0.5518914 19:-0.89495943 20:-0.85082511 21:-0.81927184 22:-0.92113237 23:-1.375116 
0.2732962912367048 1:0 2:0.90207655 3:2.3017032 4:4.5957458 5:-0.17115975 6:2.2956556 7:0.074124932 8:1.0845284 9:-0.45852878 10:-1.5081628 11:-0.69199454 12:-0.20429256 13:1.3316442 14:-0.85789565 15:-0.3024895 16:0.83587878 17:-0.92014203 18:-1.7195922 19:0.98754144 20:0.99912269 21:0.99119371 22:1.0856203 23:0.4329856 
0.9226324247542563 1:0 2:-1.5774093 3:7.974588 4:18.160608 5:1.7267913 6:12.480019 7:9.1173666 8:3.5637699 9:-0.45852878 10:-1.5210523 11:-0.88907783 12:-0.071029194 13:14.068979 14:6.4369012 15:0.065708246 16:-1.2045416 17:1.5636455 18:0.54698055 19:0.98754144 20:0.45918584 21:0.085964805 22:1.0856203 23:-0.094737759 
-5.994842503189409 1:0 2:0.91401956 3:0.88348205 4:4.5957458 5:0.71391286 6:-0.25043516 7:0.074124932 8:2.1284222 9:-0.45852878 10:-1.5149267 11:-1.0267338 12:-0.15937452 13:-0.17509322 14:3.0065977 15:-0.10447677 16:-0.41013874 17:-0.80304161 18:-2.1520713 19:0.98754144 20:-0.018791141 21:-0.078625828 22:-0.92113237 23:-0.5619028 
0.9056967675071005 1:0 2:1.5381823 3:5.1381456 4:13.638987 5:-1.1648345 6:4.8417465 7:9.1173666 8:4.8686339 9:-0.45852878 10:0.40934148 11:1.0291868 12:-0.53191484 13:-0.21938368 14:4.8341782 15:0.035996177 16:0.61400224 17:0.34587025 18:0.41601982 19:2.8700423 20:0.50344292 21:2.8016593 22:1.0856203 23:1.1596869 
-1.022338029891707 1:0 2:-0.95922102 3:5.1381456 4:9.1173666 5:-0.44400294 6:12.480019 7:4.5957458 8:5.1948543 9:-0.45852878 10:2.3089844 11:-0.82536394 12:0.015143708 13:-0.7854985 14:-0.63014474 15:-0.036244737 16:-3.4174531 17:2.6060863 18:-0.98830091 19:4.7525432 20:-0.64281662 21:0.90890504 22:-0.92113237 23:0.70549858 
0.004803241688936143 1:0 2:7.3796358 3:15.065694 4:36.247092 5:13.458796 6:32.848745 7:27.20385 8:45.678339 9:-0.45852878 10:2.3100589 11:-0.95680738 12:-0.095159151 13:-0.19986474 14:8.8972268 15:-0.079545952 16:2.5758141 17:0.76878392 18:-1.6883205 19:27.342554 20:-0.64281662 21:37.138826 22:5.0991256 23:1.5533166 
0.005160885500324952 1:0 2:5.7799272 3:19.320358 4:54.333575 5:3.5987058 6:37.940927 7:49.811954 8:50.538967 9:-0.45852878 10:0.37665634 11:1.0609585 12:-0.26511093 13:-0.40357872 14:8.6983525 15:-11.515541 16:1.5537957 17:-2.1213023 18:-1.0710787 19:40.52006 20:0.087425913 21:38.517263 22:7.1058783 23:1.0255932 
-0.7070863710590717 1:0 2:4.6259593 3:5.1381456 4:9.1173666 5:1.417992 6:7.3878373 7:4.5957458 8:6.8259406 9:-0.45852878 10:-1.5081628 11:-0.69199454 12:-0.20429256 13:7.3825751 14:-0.85789565 15:-0.3024895 16:0.83587878 17:-0.92014203 18:-1.7195922 19:0.98754144 20:0.99912269 21:0.99119371 22:1.0856203 23:0.4329856 
0.007402728213073764 1:0 2:2.396883 3:7.974588 4:18.160608 5:7.3953346 6:37.940927 7:31.725471 8:40.817688 9:-0.45852878 10:2.3097584 11:-0.88907783 12:0.022787204 13:-0.37294584 14:9.4935562 15:1.6623042 16:2.5276391 17:0.67609432 18:-0.94608014 19:6.635044 20:0.065297371 21:5.2704767 22:1.0856203 23:-0.5619028 
-4.232813876480054 1:0 2:-2.6118785 3:-0.53473914 4:0.074124932 5:3.2539566 6:2.2956556 7:4.5957458 8:-0.0735422 9:-0.45852878 10:0.34432036 11:-2.7874505 12:0.49174102 13:-0.16422987 14:9.6053761 15:0.44055641 16:0.224467 17:-0.29483475 18:-1.27024 19:0.98754144 20:1.0920627 21:1.7524161 22:3.092373 23:0.52382326 
5.994842503189409 1:0 2:1.097143 3:-0.53473914 4:-4.4474959 5:0.3216197 6:-0.25043516 7:-4.4474959 8:-1.4599659 9:4.7212275 10:0.3951287 11:-0.88907783 12:-0.071029194 13:-0.7854985 14:-0.85789565 15:1.6596675 16:-0.32836262 17:3.9566701 18:3.4339519 19:-0.89495943 20:-0.85082511 21:-0.81927184 22:-0.92113237 23:-1.375116 
-3.584821669238562 1:0 2:0.31841894 3:-0.53473914 4:0.074124932 5:0.71039595 6:-0.25043516 7:0.074124932 8:-0.42694782 9:0.59185118 10:0.37216651 11:0.63842888 12:1.386408 13:1.5378329 14:0.30501881 15:2.181287 16:-1.4218463 17:0.30592854 18:0.34622179 19:-0.89495943 20:-0.85082511 21:-0.81927184 22:-0.92113237 23:-1.375116 
-1.69314149486897 1:0 2:-1.1917736 3:5.1381456 4:-4.4474959 5:-1.8441846 6:9.9339281 7:-4.4474959 8:-1.4599659 9:4.7212275 10:0.3951287 11:-0.88907783 12:-0.071029194 13:-0.7854985 14:-0.85789565 15:1.6596675 16:-0.32836262 17:3.9566701 18:3.4339519 19:-0.89495943 20:-0.85082511 21:-0.81927184 22:-0.92113237 23:-1.375116 
-5.994842503189409 1:0 2:-1.072402 3:-0.53473914 4:0.074124932 5:-0.088193886 6:2.2956556 7:0.074124932 8:-0.48131684 9:0.37291651 10:0.44360924 11:-0.17552543 12:2.0996759 13:0.26999115 14:-0.28522823 15:0.6929776 16:-0.21259498 17:0.063323203 18:0.58661137 19:-0.89495943 20:-0.85082511 21:-0.81927184 22:-0.92113237 23:-1.375116 
5.994842503189409 1:0 2:-2.6444429 3:-0.53473914 4:0.074124932 5:-1.9990463 6:-0.25043516 7:0.074124932 8:-0.15509641 9:-0.45852878 10:-1.5140286 11:-0.95115518 12:-0.25629314 13:-0.49167267 14:-0.50549636 15:-0.17872213 16:2.0755214 17:-0.34070996 18:0.51847246 19:0.98754144 20:0.68932289 21:1.0734886 22:-0.92113237 23:0.13019354 
-5.994842503189409 1:0 2:0.01727206 3:-0.53473914 4:0.074124932 5:-0.59270324 6:2.2956556 7:4.5957458 8:0.24866601 9:-0.45852878 10:0.40207836 11:1.0657077 12:-0.1794995 13:-0.7854985 14:2.5638889 15:1.3225226 16:0.29896943 17:-0.88865678 18:0.28171712 19:0.98754144 20:0.83094566 21:0.51185898 22:1.0856203 23:0.26861278 
-5.994842503189409 1:0 2:0.71646221 3:0.88348205 4:0.074124932 5:-0.79046048 6:-0.25043516 7:0.074124932 8:0.30160612 9:-0.45852878 10:-1.5081628 11:-0.69199454 12:-0.20429256 13:1.3316442 14:-0.85789565 15:-0.3024895 16:0.83587878 17:-0.92014203 18:-1.7195922 19:0.98754144 20:0.99912269 21:0.99119371 22:1.0856203 23:0.4329856 
5.827839021126805 1:0 2:0.01727206 3:-0.53473914 4:0.074124932 5:-1.0917454 6:2.2956556 7:0.074124932 8:-0.40463476 9:0.82238733 10:0.37366952 11:1.0474601 12:0.26362985 13:3.3524608 14:-0.33985145 15:2.5508588 16:0.13041729 17:0.25475705 18:0.57225623 19:-0.89495943 20:-0.85082511 21:-0.81927184 22:-0.92113237 23:-1.375116 
5.994842503189409 1:0 2:-2.0156345 3:0.88348205 4:0.074124932 5:2.5323581 6:2.2956556 7:0.074124932 8:0.90510306 9:-0.45852878 10:-1.5199806 11:-0.88907783 12:0.0069557839 13:3.1797943 14:5.2533402 15:-0.18037205 16:1.2788238 17:-0.27121797 18:-0.63426666 19:0.98754144 20:-0.018791141 21:-0.099199173 22:-0.92113237 23:-0.5619028 
0.01141288379655002 1:0 2:8.088093 3:19.320358 4:45.290333 5:14.534268 6:30.302655 7:31.725471 8:60.439649 9:-0.45852878 10:0.44595588 11:1.0092936 12:-0.63380229 13:7.4229327 14:-0.4426979 15:-1.8981557 16:-3.2859146 17:3.3793341 18:-1.364898 19:19.81255 20:0.18921731 21:23.663181 22:15.132889 23:2.0031792 
-2.857839912194389 1:0 2:-1.0549013 3:0.88348205 4:0.074124932 5:0.18980837 6:7.3878373 7:4.5957458 8:3.1795591 9:-0.45852878 10:-1.52077 11:-0.88907783 12:-0.11105302 13:-0.36042803 14:6.4913863 15:-0.7108153 16:-0.30884107 17:-0.25640455 18:0.27396197 19:0.98754144 20:1.1982799 21:0.89731956 22:-0.92113237 23:0.62763782 
-2.965922551660938 1:0 2:0.99916408 3:-0.53473914 4:0.074124932 5:0.62375878 6:15.02611 7:4.5957458 8:1.4759817 9:0.73193426 10:0.72274365 11:0.41225125 12:1.6244268 13:0.023439268 14:7.066914 15:1.04709 16:1.2472088 17:-0.35116198 18:0.55163815 19:-0.89495943 20:-0.85082511 21:-0.81927184 22:-0.92113237 23:-1.375116 
0.003725613904618537 1:0 2:4.9805647 3:16.483915 4:36.247092 5:8.6572472 6:35.394836 7:45.290333 8:45.319494 9:-0.45852878 10:2.3067849 11:-1.0170848 12:-0.022203855 13:11.903473 14:0.3771072 15:-1.182117 16:-2.3836874 17:2.1131927 18:0.16831307 19:8.5175449 20:0.18921731 21:8.1507611 22:5.0991256 23:0.52814896 
0.001091006502229966 1:0 2:5.8928866 3:19.320358 4:49.811954 5:3.5294261 6:35.394836 7:45.290333 8:35.924455 9:-0.45852878 10:-1.5198044 11:-0.88907783 12:-0.1551831 13:6.5880704 14:-0.51959295 15:0.47872501 16:-3.9881048 17:2.2948797 18:-0.5209364 19:16.047548 20:0.39722582 21:20.57715 22:3.092373 23:1.1596869 
0.06211441391495243 1:0 2:-0.17774324 3:0.88348205 4:4.5957458 5:4.3752701 6:17.5722 7:0.074124932 8:2.0207147 9:-0.45852878 10:0.1919719 11:0.94614566 12:-0.84189719 13:-0.077197272 14:11.547628 15:0.6128542 16:0.85030539 17:-0.2732938 18:0.4453623 19:2.8700423 20:1.286794 21:1.785154 22:3.092373 23:1.3413622 
-0.2519185273832783 1:0 2:1.5291401 3:6.5563668 4:22.682229 5:-0.23766768 6:4.8417465 7:9.1173666 8:10.153346 9:-0.45852878 10:2.2951708 11:-0.70057622 12:0.13086865 13:-0.7854985 14:5.9448529 15:-0.11653952 16:2.8435707 17:0.057071422 18:-0.18852213 19:2.8700423 20:1.2779426 21:4.1183708 22:-0.92113237 23:0.9044763 
0.005524628933748673 1:0 2:3.9896638 3:13.647473 4:36.247092 5:12.815413 6:37.940927 7:40.768712 8:53.599945 9:-0.45852878 10:0.50789035 11:1.0379407 12:-0.45322838 13:-0.37080968 14:10.509466 15:-10.949099 16:1.3179916 17:-2.3155372 18:-1.3102123 19:19.81255 20:-0.64281662 21:21.37953 22:9.112631 23:1.6701079 
0.00302795774063408 1:0 2:12.891869 3:17.902136 4:40.768712 5:11.757912 6:32.848745 7:40.768712 8:57.095915 9:-0.45852878 10:-1.5086124 11:-0.88907783 12:-0.33632987 13:0.22454985 14:3.0070015 15:2.2236101 16:3.7425156 17:0.3987433 18:-1.9789587 19:23.577552 20:0.34411732 21:34.3614 22:17.139642 23:2.0031792 
-3.622410371807126 1:0 2:-2.2980196 3:-0.53473914 4:-4.4474959 5:-2.7647636 6:4.8417465 7:-4.4474959 8:-1.4599659 9:4.7212275 10:0.3951287 11:-0.88907783 12:-0.071029194 13:-0.7854985 14:-0.85789565 15:1.6596675 16:-0.32836262 17:3.9566701 18:3.4339519 19:-0.89495943 20:-0.85082511 21:-0.81927184 22:-0.92113237 23:-1.375116 
5.994842503189409 1:0 2:-1.1553729 3:0.88348205 4:0.074124932 5:-0.24341156 6:7.3878373 7:0.074124932 8:1.2802552 9:0.44542253 10:0.4924365 11:0.49888786 12:-1.7107361 13:2.1060622 14:-0.85789565 15:-2.4131647 16:-2.9189707 17:0.76505542 18:-1.2579196 19:-0.89495943 20:-0.85082511 21:-0.81927184 22:-0.92113237 23:-1.375116 
5.994842503189409 1:0 2:-0.23572876 3:-0.53473914 4:0.074124932 5:-0.39061493 6:4.8417465 7:4.5957458 8:1.019285 9:-0.45852878 10:0.41273981 11:-2.8342773 12:0.18288276 13:-0.49225877 14:-0.30622936 15:-0.29061333 16:-0.21645682 17:-0.20359639 18:-0.06658316 19:-0.89495943 20:-0.85082511 21:-0.81927184 22:1.0856203 23:0.61466092 
-0.4140713577892086 1:0 2:1.1714372 3:2.3017032 4:9.1173666 5:3.5446714 6:7.3878373 7:9.1173666 8:6.8714071 9:-0.45852878 10:2.2985508 11:-0.88907783 12:-0.3396981 13:3.0754796 14:-0.23657499 15:0.20229269 16:-4.1618352 17:2.5902449 18:-0.57217052 19:0.98754144 20:1.2513884 21:2.0305429 22:3.092373 23:1.0861516 
-0.4575854725925909 1:0 2:1.4482572 3:7.974588 4:4.5957458 5:0.60351304 6:4.8417465 7:0.074124932 8:0.99209734 9:0.53670718 10:-0.066917896 11:-2.0920086 12:1.6803372 13:1.5499499 14:3.5347237 15:0.69018589 16:1.147745 17:-0.36943389 18:-1.8792184 19:-0.89495943 20:-0.85082511 21:-0.81927184 22:-0.92113237 23:-1.375116 
0.6925261743089638 1:0 2:2.4592186 3:6.5563668 4:18.160608 5:5.5134866 6:17.5722 7:18.160608 8:14.655139 9:-0.45852878 10:-1.517255 11:-0.82750772 12:-0.19810703 13:7.446053 14:-0.47632965 15:-0.1353699 16:-3.3186217 17:3.7255769 18:-0.89387898 19:12.282547 20:-0.64281662 21:10.372708 22:3.092373 23:-0.73060128 
-5.994842503189409 1:0 2:0.89631585 3:3.7199244 4:0.074124932 5:-0.49607673 6:-0.25043516 7:0.074124932 8:0.95404086 9:0.59868475 10:0.82297912 11:0.22029513 12:-1.9202415 13:-0.27382266 14:1.2282518 15:1.328629 16:1.2964074 17:0.13300893 18:0.29594538 19:-0.89495943 20:-0.85082511 21:-0.81927184 22:-0.92113237 23:-1.375116 
-0.2275507653968754 1:0 2:0.73797742 3:3.7199244 4:13.638987 5:2.9147923 6:12.480019 7:18.160608 8:15.503305 9:-0.45852878 10:0.3951287 11:-2.8459941 12:-0.071029194 13:10.680791 14:6.4411296 15:-0.37662079 16:-0.79528996 17:1.1272565 18:0.53122667 19:4.7525432 20:0.48131438 21:4.2006657 22:1.0856203 23:-0.02985379 
-2.354174084583235 1:0 2:0.31227765 3:-0.53473914 4:0.074124932 5:-0.85287032 6:2.2956556 7:4.5957458 8:4.3549054 9:-0.45852878 10:0.43182901 11:-0.59042525 12:-2.375343 13:5.5623045 14:2.8609428 15:-1.0787276 16:-1.0766699 17:-0.094613845 18:-1.5427061 19:0.98754144 20:0.034317413 21:0.11705074 22:1.0856203 23:-0.50999557 
0.781873298161214 1:0 2:1.9543637 3:0.88348205 4:0.074124932 5:2.6181728 6:12.480019 7:18.160608 8:8.5222562 9:-0.45852878 10:0.22025117 11:1.0364836 12:-0.42821822 13:-0.2305953 14:10.95997 15:0.82709776 16:0.4360197 17:0.04501101 18:0.56162219 19:-0.89495943 20:-0.85082511 21:-0.81927184 22:1.0856203 23:0.75308026 
-0.07115740935387652 1:0 2:-1.4965917 3:3.7199244 4:13.638987 5:2.9543748 6:7.3878373 7:0.074124932 8:5.9125288 9:-0.45852878 10:-1.5005316 11:-1.0754476 12:-0.3289681 13:5.1374132 14:-0.45670699 15:-1.7953464 16:-3.8967756 17:2.5332445 18:-0.69348374 19:2.8700423 20:-0.063048277 21:2.3901931 22:-0.92113237 23:1.2721524 
5.994842503189409 1:0 2:-1.1024375 3:-0.53473914 4:0.074124932 5:-1.036351 6:-0.25043516 7:0.074124932 8:-0.024614371 9:-0.45852878 10:0.38462847 11:-2.7826636 12:-0.65937298 13:0.022212374 14:-0.39475023 15:1.6524316 16:0.4197755 17:-0.030741055 18:0.52673089 19:-0.89495943 20:-0.85082511 21:-0.81927184 22:1.0856203 23:0.58438184 
-0.01480269133298934 1:0 2:4.3874628 3:13.647473 4:13.638987 5:6.8867638 6:22.664382 7:18.160608 8:13.28502 9:-0.45852878 10:0.48366614 11:1.0556021 12:-0.30807193 13:12.676659 14:1.1573579 15:2.1771645 16:-2.476252 17:4.2122742 18:0.52061772 19:2.8700423 20:-0.64281662 21:-0.57238933 22:1.0856203 23:-1.1718127 
-2.904633151298515 1:0 2:0.79157486 3:6.5563668 4:9.1173666 5:-1.138623 6:9.9339281 7:4.5957458 8:3.5637675 9:-0.45852878 10:0.45844056 11:1.064214 12:0.048095713 13:16.611819 14:6.2396834 15:1.5927376 16:-0.96746982 17:1.5928046 18:0.50998351 19:0.98754144 20:0.27330588 21:0.16825201 22:-0.92113237 23:-0.27641308 
-0.5459297642574191 1:0 2:0.26641951 3:6.5563668 4:13.638987 5:4.1776922 6:22.664382 7:18.160608 8:8.3265281 9:-0.45852878 10:0.33189229 11:-1.051266 12:2.2517376 13:11.628727 14:-0.63014692 15:1.1447336 16:-2.7629962 17:3.8407308 18:0.42117002 19:12.282547 20:-0.64281662 21:11.607124 22:1.0856203 23:0.62763782 
-0.3703579339478701 1:0 2:-0.86030269 3:-0.53473914 4:0.074124932 5:2.594656 6:12.480019 7:13.638987 8:6.0430172 9:0.44542253 10:0.4924365 11:0.49888786 12:-1.7107361 13:2.1060622 14:6.4719126 15:-2.4131647 16:-2.9189707 17:0.76505542 18:-1.2579196 19:-0.89495943 20:-0.85082511 21:-0.81927184 22:-0.92113237 23:-1.375116 
-2.003284154583699 1:0 2:-1.7409149 3:-0.53473914 4:0.074124932 5:2.6383321 6:-0.25043516 7:0.074124932 8:0.17111795 9:-0.45852878 10:0.40975571 11:-2.7781274 12:0.53754506 13:-0.7854985 14:-0.46524658 15:-2.4690483 16:-3.2888596 17:1.8470229 18:0.045748515 19:-0.89495943 20:-0.85082511 21:-0.81927184 22:1.0856203 23:1.6484798 
0.07263429196322153 1:0 2:4.2462716 3:15.065694 4:31.725471 5:6.8037474 6:17.5722 7:9.1173666 8:11.936662 9:-0.45852878 10:2.3099277 11:-0.8219732 12:-0.032995466 13:-0.7854985 14:10.437715 15:0.80625134 16:1.0520952 17:-1.1372442 18:0.088293354 19:21.695051 20:-0.1781168 21:16.002986 22:9.112631 23:0.49354418 
-1.109758234571359 1:0 2:1.5465647 3:5.1381456 4:9.1173666 5:-2.2889182 6:4.8417465 7:9.1173666 8:9.8923704 9:-0.45852878 10:2.3092798 11:-0.9491945 12:0.0088697357 13:4.4454181 14:3.8539849 15:-1.0107418 16:1.8442356 17:-0.19773917 18:-1.7227811 19:2.8700423 20:-0.64281662 21:2.0610196 22:-0.92113237 23:1.1510357 
2.790263225738865 1:0 2:2.7503856 3:3.7199244 4:4.5957458 5:0.12371573 6:2.2956556 7:0.074124932 8:3.3428148 9:-0.45852878 10:0.47742286 11:1.0403441 12:-0.44748228 13:4.4265066 14:-0.85789565 15:-0.36030284 16:0.10742335 17:-0.53262325 18:0.47047226 19:2.8700423 20:0.66719435 21:2.2610345 22:3.092373 23:1.1380588 
-5.994842503189409 1:0 2:-1.0549013 3:0.88348205 4:0.074124932 5:-0.60070924 6:4.8417465 7:0.074124932 8:-0.34647988 9:-0.45852878 10:-1.52077 11:-0.88907783 12:-0.11105302 13:-0.36042803 14:-0.6510559 15:-0.7108153 16:-0.30884107 17:-0.25640455 18:0.27396197 19:0.98754144 20:1.1982799 21:0.89731956 22:-0.92113237 23:0.62763782 
2.524220414255279 1:0 2:-0.52002801 3:3.7199244 4:0.074124932 5:-3.1006993 6:2.2956556 7:0.074124932 8:0.88879671 9:-0.45852878 10:0.37536244 11:-2.7812967 12:0.52317803 13:7.183812 14:-0.23805457 15:0.67283706 16:-0.62336616 17:0.67683608 18:0.088577309 19:-0.89495943 20:-0.85082511 21:-0.81927184 22:1.0856203 23:-0.5619028 
0.009745238598890569 1:0 2:4.067299 3:13.647473 4:31.725471 5:6.5356653 6:40.487018 7:49.811954 8:38.795164 9:-0.45852878 10:0.37665634 11:1.0609585 12:-0.26511093 13:-0.10321097 14:8.6983525 15:-11.515541 16:1.5537957 17:-2.1213023 18:0.51397634 19:17.930049 20:-0.14271108 21:13.41759 22:5.0991256 23:0.009076695 
-0.2668403514933621 1:0 2:0.60296366 3:7.974588 4:9.1173666 5:7.3718318 6:22.664382 7:9.1173666 8:5.8799063 9:-0.45852878 10:0.38048265 11:0.99997166 12:-0.67960338 13:7.4142129 14:-0.46384397 15:0.20549609 16:-3.9363168 17:2.8965863 18:-0.51237247 19:8.5175449 20:0.29986013 21:14.096511 22:-0.92113237 23:1.843132 
-1.027553148253688 1:0 2:-0.14124502 3:0.88348205 4:4.5957458 5:0.76458492 6:2.2956556 7:0.074124932 8:4.1693244 9:-0.45852878 10:0.36095233 11:-1.1715731 12:2.2362336 13:10.057846 14:4.4427556 15:0.048299375 16:-3.1529503 17:1.1243663 18:-0.94586819 19:0.98754144 20:1.9550768 21:2.3018034 22:-0.92113237 23:1.3673158 
0.007187297932672574 1:0 2:5.3048802 3:10.81103 4:31.725471 5:12.325813 6:43.033109 7:40.768712 8:39.958675 9:-0.45852878 10:0.40142684 11:1.0565527 12:-0.32100722 13:-0.37246612 14:7.6823589 15:1.6976493 16:3.4224036 17:0.98593467 18:0.091196849 19:25.460053 20:-0.5631538 21:36.535325 22:15.132889 23:2.2800177 
-0.1861572757656153 1:0 2:1.8306889 3:12.229252 4:31.725471 5:1.7653738 6:27.756564 7:22.682229 8:9.4497207 9:-0.45852878 10:2.3113097 11:-0.88907783 12:-0.071029194 13:11.825454 14:-0.67565395 15:0.26389236 16:-2.7819626 17:2.7003318 18:-1.2931105 19:12.282547 20:0.1803659 21:9.4840517 22:-0.92113237 23:2.8639741 
1.826707377883958 1:0 2:2.1441672 3:6.5563668 4:9.1173666 5:0.71391286 6:-0.25043516 7:0.074124932 8:2.3893954 9:-0.45852878 10:-1.5149267 11:-1.0267338 12:-0.15937452 13:6.6309334 14:3.0065977 15:-0.10447677 16:-0.41013874 17:-0.80304161 18:-2.1520713 19:0.98754144 20:-0.018791141 21:-0.078625828 22:-0.92113237 23:-0.5619028 
-0.1346950134894561 1:0 2:-2.1370388 3:2.3017032 4:4.5957458 5:3.9844647 6:2.2956556 7:4.5957458 8:2.3893925 9:-0.45852878 10:0.33182378 11:-2.8423699 12:-0.19015442 13:1.6349263 14:8.5055579 15:-11.538532 16:0.95634496 17:-2.1174078 18:-1.4367469 19:0.98754144 20:1.1540228 21:0.25054695 22:-0.92113237 23:0.58438184 
-4.80013642681886 1:0 2:-0.50741624 3:2.3017032 4:4.5957458 5:0.64932311 6:2.2956556 7:0.074124932 8:2.7156065 9:-0.45852878 10:0.14056399 11:1.0489246 12:0.021893231 13:10.52275 14:-0.38326801 15:-1.7756296 16:-2.4948231 17:1.1170102 18:0.54925914 19:-0.89495943 20:-0.85082511 21:-0.81927184 22:1.0856203 23:0.58438184 
1.374080689387042 1:0 2:-0.27408166 3:5.1381456 4:4.5957458 5:-1.5131349 6:9.9339281 7:9.1173666 8:1.6064688 9:-0.45852878 10:0.46295446 11:1.0640183 12:0.048966282 13:-0.7854985 14:8.6533942 15:0.041886259 16:0.08107002 17:-0.38344097 18:-1.0057082 19:2.8700423 20:0.79111429 21:2.9662492 22:1.0856203 23:0.78335935 
0.03605063456806104 1:0 2:2.8683196 3:16.483915 4:40.768712 5:6.226492 6:17.5722 7:27.20385 8:37.414182 9:-0.45852878 10:0.33985713 11:0.99565033 12:-0.69498026 13:5.9500946 14:-0.52072186 15:0.79391783 16:-3.6303082 17:2.5109538 18:0.48271488 19:6.635044 20:-0.023216849 21:3.6383252 22:5.0991256 23:1.4019206 
0.01256539797345194 1:0 2:2.0412137 3:20.738579 4:40.768712 5:8.4394879 6:45.579199 7:36.247092 8:33.336478 9:-0.45852878 10:2.310973 11:-0.88907783 12:-0.027308925 13:10.46807 14:-0.40299598 15:0.22326564 16:-2.923435 17:2.562436 18:-1.1732527 19:14.165048 20:-0.62953948 21:6.03856 22:7.1058783 23:0.95638347 
0.08524879928060351 1:0 2:2.8357394 3:10.81103 4:22.682229 5:2.7546477 6:15.02611 7:18.160608 8:17.586281 9:-0.45852878 10:-1.5155754 11:-0.88907783 12:-0.24722201 13:6.5058355 14:-0.59888401 15:-0.57258108 16:-2.9325859 17:1.8265663 18:-0.58967698 19:14.165048 20:0.37067157 21:13.506253 22:9.112631 23:0.51517207 
1.932056995421123 1:0 2:-0.021450216 3:-0.53473914 4:-4.4474959 5:-0.72497499 6:-0.25043516 7:-4.4474959 8:-1.4599659 9:4.7212275 10:0.3951287 11:-0.88907783 12:-0.071029194 13:-0.7854985 14:-0.85789565 15:1.6596675 16:-0.32836262 17:3.9566701 18:3.4339519 19:-0.89495943 20:-0.85082511 21:-0.81927184 22:-0.92113237 23:-1.375116 
-5.994842503189409 1:0 2:0.34825954 3:-0.53473914 4:0.074124932 5:-0.32190048 6:-0.25043516 7:0.074124932 8:0.99138598 9:-0.45852878 10:-1.5149818 11:-0.95970952 12:-0.2363146 13:-0.30592157 14:1.6123885 15:0.13469775 16:0.087181496 17:0.28134427 18:-1.0735182 19:0.98754144 20:0.93716277 21:1.11322 22:-0.92113237 23:0.37242723 
0.109845659830068 1:0 2:-0.67110054 3:2.3017032 4:-4.4474959 5:3.8346523 6:20.118291 7:-4.4474959 8:-1.4599659 9:4.7212275 10:0.3951287 11:-0.88907783 12:-0.071029194 13:-0.7854985 14:-0.85789565 15:1.6596675 16:-0.32836262 17:3.9566701 18:3.4339519 19:-0.89495943 20:-0.85082511 21:-0.81927184 22:-0.92113237 23:-1.375116 
0.01956867680748282 1:0 2:5.6989475 3:15.065694 4:36.247092 5:5.8724538 6:15.02611 7:18.160608 8:26.007469 9:-0.45852878 10:2.3073353 11:-0.94979248 12:-0.20256647 13:16.810955 14:3.2284969 15:-0.2174407 16:-2.1301239 17:-0.0060722138 18:0.51552249 19:17.930049 20:-0.098453944 21:17.943761 22:5.0991256 23:1.3716413 
1.232815565503756 1:0 2:2.304491 3:3.7199244 4:0.074124932 5:1.1435695 6:7.3878373 7:9.1173666 8:8.0655605 9:-0.45852878 10:-1.5190224 11:-0.8289617 12:-0.15092741 13:-0.20668091 14:5.1934079 15:-2.0587874 16:0.52854131 17:-0.37267095 18:-1.6249355 19:2.8700423 20:-0.64281662 21:0.99119287 22:-0.92113237 23:0.53680016 
1.346925417142438 1:0 2:-2.4924931 3:-0.53473914 4:0.074124932 5:-0.85214219 6:9.9339281 7:0.074124932 8:-1.1989926 9:1.0184358 10:0.35503243 11:-2.5420325 12:-1.3183882 13:0.58240488 14:3.7608672 15:1.4092805 16:-1.0423645 17:0.71308159 18:0.34325231 19:-0.89495943 20:-0.85082511 21:-0.81927184 22:-0.92113237 23:-1.375116 
-0.4502050576141747 1:0 2:-0.43655022 3:5.1381456 4:13.638987 5:3.004112 6:12.480019 7:9.1173666 8:8.1308032 9:-0.45852878 10:0.38509245 11:1.0501699 12:-0.38346281 13:9.3558553 14:-0.65714678 15:-0.40971954 16:-3.8383326 17:1.6264825 18:-0.36788676 19:4.7525432 20:0.087425913 21:3.2131263 22:-0.92113237 23:0.55842805 
5.994842503189409 1:0 2:-2.6462668 3:-0.53473914 4:0.074124932 5:1.1932163 6:2.2956556 7:4.5957458 8:0.36684402 9:-0.45852878 10:2.3073446 11:-0.94979278 12:-0.20235971 13:-0.7854985 14:5.2542404 15:-0.16587211 16:2.5603135 17:-0.26707431 18:0.42617094 19:0.98754144 20:0.7512828 21:1.4026685 22:3.092373 23:0.35512484 
0.01119022604181033 1:0 2:4.061902 3:16.483915 4:27.20385 5:3.4699603 6:32.848745 7:18.160608 8:18.087899 9:-0.45852878 10:2.3110552 11:-0.88907783 12:-0.033028805 13:11.05527 14:0.09085956 15:-0.55062239 16:-2.7513495 17:3.1520484 18:-1.0245268 19:27.342554 20:-0.62953948 21:24.695519 22:3.092373 23:0.92610439 
0.3286911089732561 1:0 2:-1.4935518 3:6.5563668 4:22.682229 5:3.1568552 6:9.9339281 7:13.638987 8:10.088107 9:-0.45852878 10:2.3113097 11:-0.88907783 12:-0.071029194 13:4.6753272 14:9.9772805 15:-0.037191357 16:-0.83120428 17:-0.28744634 18:-2.0086862 19:4.7525432 20:0.48131438 21:3.2954289 22:3.092373 23:0.50219538 
5.994842503189409 1:0 2:-0.4350057 3:-0.53473914 4:0.074124932 5:0.59217436 6:2.2956556 7:4.5957458 8:1.4759813 9:-0.45852878 10:-1.5210523 11:-0.88907783 12:-0.071029194 13:-0.19810081 14:2.9738213 15:-0.037191357 16:-0.83120428 17:-0.28744634 18:-0.11394369 19:0.98754144 20:0.52557147 21:0.66202168 22:1.0856203 23:-0.02985379 
