svm_type epsilon_svr
kernel_type rbf
gamma 0.00936711
nr_class 2
total_sv 267
rho -0.875302
SV
-0.5142010991115658 1:0 2:1.884634 3:5.1381456 4:-0.40943059 5:-1.0364593 6:2.1618409 7:-0.64236405 8:-2.509529 9:1.1249525 10:0.32476578 11:0.86090567 12:-1.0681041 13:1.2993438 14:0.71971289 15:-0.68395688 16:1.1063972 17:1.18092 18:-0.14449679 19:-0.30952929 20:-0.28527674 21:-0.27534751 22:0 23:-0.29385398 
0.293960499012959 1:0 2:1.9167477 3:2.3017032 4:-0.40943059 5:-0.06351555 6:2.1618409 7:0.75707192 8:0.91115395 9:-0.28159329 10:-0.48873195 11:-1.3772288 12:-1.9147977 13:1.2936474 14:-0.96445635 15:0.31482942 16:-0.35128443 17:1.0826398 18:-1.5081293 19:-0.30952929 20:-0.28527674 21:-0.27534751 22:0 23:-0.29385398 
0.4822310166286431 1:0 2:1.0268694 3:6.5563668 4:2.528836 5:-1.1885479 6:1.0983547 7:2.1565079 8:-1.8838873 9:-1.4667826 10:-0.21488893 11:1.1204119 12:-0.44067167 13:0.5685505 14:0.37207337 15:0.76123635 16:2.9386471 17:-2.812388 18:0.30567101 19:2.0506316 20:6.1598643 21:2.7567562 22:1 23:5.9438157 
0.05622455352857698 1:0 2:1.7696414 3:3.7199244 4:3.9979693 5:0.9988598 6:0.034868402 7:0.75707192 8:3.7408747 9:-1.4667826 10:-0.14794543 11:-3.2889052 12:-0.074189187 13:-0.95849003 14:-0.96445635 15:1.0184732 16:-1.1851966 17:0.60678014 18:-2.2119162 19:6.7709533 20:1.2920868 21:2.5646448 22:0 23:2.3161184 
-0.774263682681127 1:0 2:1.7306265 3:0.88348205 4:-0.40943059 5:-0.66021193 6:1.0983547 7:2.1565079 8:-0.095757396 9:0.62821197 10:0.49340946 11:-0.52647338 12:1.1121956 13:1.8079689 14:0.14642425 15:1.7988851 16:2.5819805 17:-1.4417808 18:0.16323951 19:-0.30952929 20:-0.28527674 21:-0.27534751 22:0 23:-0.29385398 
0.4263349178758728 1:0 2:3.1446753 3:5.1381456 4:1.0597027 5:0.62034634 6:1.0983547 7:-0.64236405 8:1.0526487 9:0.065411655 10:0.55735191 11:-0.90719531 12:1.1551518 13:2.7416615 14:1.1051924 15:0.83714052 16:1.4762516 17:-1.173062 18:0.4862524 19:-0.30952929 20:-0.28527674 21:-0.27534751 22:0 23:-0.29385398 
0.005959447237664243 1:0 2:8.0239688 3:12.229252 4:2.528836 5:2.0302547 6:5.3522997 7:4.9553799 8:3.7732871 9:-1.4667826 10:-0.21488928 11:1.1204118 12:-0.44067408 13:1.7032536 14:-0.18140893 15:-0.19498339 16:-0.89034684 17:0.149106 18:0.53633503 19:20.931918 20:3.2934725 21:37.55384 22:4 23:11.29508 
0.008065588864011786 1:0 2:3.7649836 3:13.647473 4:6.9362359 5:0.58046518 6:5.3522997 7:6.3548158 8:9.7902829 9:-1.4667826 10:-0.21855713 11:-3.3043295 12:-0.60051143 13:3.1379373 14:0.45534593 15:-4.8641756 16:0.74276686 17:0.6959158 18:0.27234691 19:13.851436 20:3.8701433 21:27.273235 22:4 23:6.4034335 
-0.774263682681127 1:0 2:-0.4350057 3:-0.53473914 4:-0.40943059 5:-0.45084037 6:1.0983547 7:-0.64236405 8:-0.76703412 9:0.41850056 10:-0.22885367 11:-0.80151674 12:1.1798531 13:0.29404105 14:1.045266 15:-1.5536573 16:0.48058723 17:-0.88913416 18:0.4008454 19:-0.30952929 20:-0.28527674 21:-0.27534751 22:0 23:-0.29385398 
-0.774263682681127 1:0 2:1.422199 3:-0.53473914 4:-0.40943059 5:-0.45708715 6:1.0983547 7:0.75707192 8:1.5429453 9:-0.32533394 10:-0.12662194 11:0.46704749 12:-1.4745901 13:-0.34087141 14:-0.17578727 15:1.3301103 16:-0.58085501 17:1.1879922 18:0.35057204 19:-0.30952929 20:-0.28527674 21:-0.27534751 22:0 23:-0.29385398 
0.774263682681127 1:0 2:-0.36822456 3:0.88348205 4:-0.40943059 5:-0.58991112 6:0.034868402 7:-0.64236405 8:-0.88549601 9:-0.27777724 10:1.1169459 11:0.67060933 12:0.40191969 13:0.93150726 14:-0.4390321 15:-2.2250721 16:0.32130064 17:-0.6921532 18:0.60256489 19:-0.30952929 20:-0.28527674 21:-0.27534751 22:0 23:-0.29385398 
-0.499139068791646 1:0 2:0.31841894 3:-0.53473914 4:-0.40943059 5:0.33859306 6:-1.0286179 7:-0.64236405 8:-0.18131445 9:0.064035924 10:-2.0044037 11:-0.43280086 12:-1.6719782 13:0.99560916 14:-0.50188818 15:0.46126186 16:-0.75053156 17:0.84146472 18:0.29197098 19:-0.30952929 20:-0.28527674 21:-0.27534751 22:0 23:-0.29385398 
-0.4677242671143463 1:0 2:-0.01707778 3:-0.53473914 4:-0.40943059 5:-1.4828384 6:2.1618409 7:2.1565079 8:0.18064919 9:0.2840981 10:-0.93265679 11:-0.46450706 12:1.1010877 13:0.78253774 14:0.73214573 15:0.16038133 16:0.81001804 17:-1.2095266 18:0.43696681 19:-0.30952929 20:-0.28527674 21:-0.27534751 22:0 23:-0.29385398 
-0.2659894070933018 1:0 2:0.59669192 3:-0.53473914 4:-0.40943059 5:-0.066922399 6:-1.0286179 7:-0.64236405 8:1.454723 9:-1.4667826 10:-0.14794543 11:-3.2889052 12:-0.074189187 13:-0.95849003 14:-0.96445635 15:1.0184732 16:-1.1851966 17:0.60678014 18:-2.2119162 19:4.4107924 20:1.2920868 21:1.7532163 22:0 23:2.3161184 
0.00353732268230478 1:0 2:1.5487112 3:15.065694 4:6.9362359 5:3.4915677 6:8.5427585 7:6.3548158 8:11.325297 9:-1.4667826 10:-0.23914904 11:1.0980424 12:-0.13552183 13:0.71108518 14:-0.69287544 15:0.76417597 16:-1.3780563 17:-0.64880507 18:-1.5298658 19:16.211597 20:3.5987688 21:18.208863 22:3 23:4.1545895 
0.2998889204689565 1:0 2:1.9992243 3:5.1381456 4:2.528836 5:-0.5875026 6:2.1618409 7:-0.64236405 8:0.41756794 9:-1.4667826 10:3.618636 11:-1.1031457 12:-0.42869957 13:2.0075212 14:2.2091703 15:-0.35380934 16:1.5123053 17:-0.99402014 18:0.33211005 19:2.0506316 20:4.9895623 21:1.7866372 22:0 23:4.8111861 
-0.2988186510452827 1:0 2:-0.61139839 3:6.5563668 4:-0.40943059 5:-0.69760115 6:2.1618409 7:0.75707192 8:-0.66831774 9:0.39311982 10:-0.1940286 11:0.50062081 12:0.71530292 13:0.84131998 14:-0.71589123 15:-1.0235251 16:-0.48591303 17:-0.28840188 18:0.2534175 19:-0.30952929 20:-0.28527674 21:-0.27534751 22:0 23:-0.29385398 
0.774263682681127 1:0 2:-1.7229099 3:-0.53473914 4:-0.40943059 5:-0.66236952 6:-1.0286179 7:-0.64236405 8:-2.0701003 9:1.3658466 10:1.6705542 11:-1.060538 12:-1.7266296 13:-1.4831451 14:0.53275442 15:-2.2372409 16:1.0921691 17:-0.40002647 18:-1.6037102 19:-0.30952929 20:-0.28527674 21:-0.27534751 22:0 23:-0.29385398 
0.774263682681127 1:0 2:0.94757991 3:0.88348205 4:-0.40943059 5:0.15578805 6:1.0983547 7:2.1565079 8:1.1487928 9:-0.29518489 10:-0.52699825 11:0.81989345 12:0.40947979 13:-0.60964773 14:-0.51220473 15:0.885007 16:-0.83218088 17:0.26374284 18:0.57370374 19:-0.30952929 20:-0.28527674 21:-0.27534751 22:0 23:-0.29385398 
0.01368025366830942 1:0 2:-0.25958454 3:7.974588 4:2.528836 5:-1.8941965 6:0.034868402 7:0.75707192 8:-1.4580545 9:-1.4667826 10:-0.2002949 11:1.0788272 12:-0.67690455 13:-1.4169016 14:0.27323967 15:0.11305946 16:3.7816883 17:-2.2079545 18:-0.36470353 19:4.4107924 20:5.5323113 21:11.15927 22:0 23:8.8164272 
0.01857803938499254 1:0 2:0.20431612 3:3.7199244 4:3.9979693 5:2.7220472 6:2.1618409 7:0.75707192 8:2.1352398 9:-1.4667826 10:3.5883604 11:-1.3275247 12:-0.23728994 13:1.4948397 14:-0.81494484 15:-2.6750198 16:-1.8613752 17:0.12104526 18:-2.288428 19:6.7709533 20:5.3118195 21:16.970296 22:0 23:9.8177368 
0.774263682681127 1:0 2:-2.6011071 3:-0.53473914 4:-0.40943059 5:-0.26301911 6:0.034868402 7:-0.64236405 8:-1.9713838 9:0.2840981 10:-1.1690415 11:-1.9805046 12:-1.7522033 13:-0.98354712 14:0.098017498 15:-1.0752756 16:1.7067736 17:-1.3760215 18:0.53503054 19:-0.30952929 20:-0.28527674 21:-0.27534751 22:0 23:-0.29385398 
0.7212395264295179 1:0 2:-0.9371768 3:5.1381456 4:2.528836 5:0.53185321 6:1.0983547 7:0.75707192 8:-1.3001072 9:-1.4667826 10:-0.54121415 11:-0.91484146 12:1.1834944 13:0.60190581 14:-0.33706528 15:0.53496471 16:3.4897082 17:-2.2779208 18:0.58176988 19:2.0506316 20:0.51188546 21:-0.087894514 22:1 23:0.47764728 
0.006524263196583015 1:0 2:5.7262021 3:19.320358 4:8.4053692 5:7.1873099 6:9.6062448 7:4.9553799 8:7.8970372 9:-1.4667826 10:3.6208663 11:-1.1031457 12:-0.338718 13:1.9345005 14:-0.77855594 15:-0.73637884 16:-0.70869074 17:0.21454716 18:-1.2765134 19:16.211597 20:0.56276815 21:19.094747 22:2 23:8.5537879 
0.007470844187578996 1:0 2:6.2406128 3:10.81103 4:5.4671026 5:6.0243435 6:5.3522997 7:2.1565079 8:2.7423604 9:-1.4667826 10:-0.21619749 11:1.1100009 12:-0.53545197 13:3.080581 14:0.35814389 15:-0.66611027 16:5.1713985 17:-0.63061522 18:-0.43204494 19:11.491275 20:4.8029926 21:38.308628 22:4 23:13.576754 
-0.1156491782749256 1:0 2:0.10023121 3:2.3017032 4:2.528836 5:-0.41095903 6:1.0983547 7:2.1565079 8:0.39782829 9:-1.4667826 10:3.6092344 11:-0.94656862 12:-0.30881852 13:-0.68038712 14:1.0534241 15:-0.36671018 16:5.0317866 17:-1.1754062 18:-1.7990688 19:4.4107924 20:2.1062098 21:3.0987923 22:0 23:4.1053448 
0.179454988829081 1:0 2:-0.8927767 3:2.3017032 4:-0.40943059 5:-0.75180672 6:2.1618409 7:0.75707192 8:-2.1885614 9:-0.41921337 10:-0.19344815 11:-3.3157999 12:-0.19791437 13:-1.6201522 14:1.9307306 15:-0.95487764 16:1.3343916 17:-0.78675453 18:0.011109414 19:-0.30952929 20:-0.28527674 21:-0.27534751 22:0 23:-0.29385398 
0.007924143697860753 1:0 2:7.7526612 3:16.483915 4:6.9362359 5:10.738599 6:3.2253272 7:2.1565079 8:3.9713872 9:-1.4667826 10:-0.58035601 11:1.0871666 12:-0.60728028 13:3.6418914 14:0.55097362 15:-8.0221605 16:2.0780258 17:-0.036285596 18:-0.53872782 19:11.491275 20:6.1937861 21:26.342893 22:5 23:9.4566089 
0.774263682681127 1:0 2:1.7137821 3:0.88348205 4:1.0597027 5:-0.3960298 6:1.0983547 7:0.75707192 8:1.0493572 9:-0.27777724 10:-1.900583 11:0.60279705 12:-1.1076726 13:-0.64459577 14:-0.96445635 15:0.24595281 16:-0.4783439 17:0.8086463 18:-1.3587575 19:-0.30952929 20:-0.28527674 21:-0.27534751 22:0 23:-0.29385398 
-0.774263682681127 1:0 2:0.04805883 3:0.88348205 4:1.0597027 5:0.82379131 6:0.034868402 7:0.75707192 8:-0.54985808 9:0.34201004 10:-1.4604616 11:0.88891006 12:-0.85412101 13:-1.2401448 14:-0.035513625 15:-1.5049897 16:-0.73501958 17:0.82204104 18:0.48194808 19:-0.30952929 20:-0.28527674 21:-0.27534751 22:0 23:-0.29385398 
-0.2710965146022277 1:0 2:-0.87388261 3:0.88348205 4:1.0597027 5:-1.8889389 6:1.0983547 7:0.75707192 8:-1.1421615 9:-1.4667826 10:-0.51559782 11:-3.2736565 12:-0.69448827 13:0.072802856 14:0.28427548 15:-2.5028424 16:0.54287503 17:-0.59598554 18:0.61904599 19:2.0506316 20:4.9895623 21:1.9740743 22:0 23:4.8111861 
0.01802777368797203 1:0 2:3.036748 3:9.3928092 4:6.9362359 5:3.4541618 6:3.2253272 7:2.1565079 8:5.3239576 9:-1.4667826 10:3.617636 11:-1.1846122 12:-0.32700673 13:-0.75804069 14:2.8578361 15:-1.0252569 16:5.100058 17:-2.7476931 18:-2.2110384 19:4.4107924 20:8.6361559 21:11.184845 22:2 23:8.3403946 
-0.774263682681127 1:0 2:1.3313665 3:3.7199244 4:2.528836 5:2.0809941 6:1.0983547 7:0.75707192 8:-0.13115073 9:-1.4667826 10:-4.0786753 11:-1.1031457 12:-0.39500132 13:3.404131 14:1.6214844 15:-0.59112503 16:0.87187507 17:-0.74394034 18:-0.41408172 19:2.0506316 20:5.5153504 21:3.2793083 22:0 23:5.320049 
-0.158575927935191 1:0 2:-1.9454931 3:-0.53473914 4:-0.40943059 5:-0.2354748 6:2.1618409 7:0.75707192 8:-2.0404861 9:0.39655301 10:0.46003455 11:0.56732204 12:0.62600417 13:-1.2666395 14:0.20664342 15:-2.1972192 16:-0.83386801 17:-0.044657572 18:0.49678419 19:6.7709533 20:4.599462 21:15.189478 22:0 23:11.918847 
0.01043715805780133 1:0 2:2.8713185 3:7.974588 4:6.9362359 5:8.3596036 6:6.415786 7:6.3548158 8:4.848871 9:-1.4667826 10:3.6215428 11:-1.1031457 12:-0.36800655 13:1.462941 14:-0.81573334 15:0.079652923 16:-1.2048064 17:1.6763408 18:0.60124436 19:20.931918 20:3.6666123 21:24.454056 22:1 23:4.3187386 
0.774263682681127 1:0 2:0.18061341 3:-0.53473914 4:-0.40943059 5:0.23945369 6:-1.0286179 7:-0.64236405 8:-2.3465095 9:1.0357986 10:0.10489544 11:0.38917935 12:0.78324263 13:0.72036339 14:-0.38886087 15:0.78623249 16:1.0423648 17:-1.2900714 18:0.5877144 19:-0.30952929 20:-0.28527674 21:-0.27534751 22:0 23:-0.29385398 
0.01526259869976179 1:0 2:9.1566157 3:17.902136 4:15.751036 5:15.4593 6:7.4792723 7:9.1536878 8:10.212762 9:-1.4667826 10:-0.088462026 11:-3.3245483 12:-0.28563102 13:-1.0883014 14:2.432182 15:-0.13939662 16:6.1644389 17:-1.6427425 18:0.31889016 19:37.453044 20:2.1570926 21:68.61446 22:7 23:12.460539 
0.774263682681127 1:0 2:0.76464083 3:3.7199244 4:1.0597027 5:-1.6962194 6:3.2253272 7:2.1565079 8:0.37808385 9:0.2840981 10:-0.93265679 11:-0.46450706 12:1.1010877 13:1.0655234 14:0.73214573 15:0.16038133 16:0.81001804 17:-1.2095266 18:0.43696681 19:-0.30952929 20:-0.28527674 21:-0.27534751 22:0 23:-0.29385398 
-0.5363414457525842 1:0 2:-0.66843584 3:3.7199244 4:2.528836 5:1.2840462 6:3.2253272 7:3.5559439 8:1.0294698 9:-1.4667826 10:-0.23919215 11:1.0980484 12:-0.13555023 13:3.1764644 14:2.3092499 15:-0.7159529 16:1.7510885 17:-2.2861231 18:0.53611718 19:2.0506316 20:5.1591715 21:2.3906444 22:1 23:4.9753356 
-0.7301322256373167 1:0 2:0.0041257861 3:3.7199244 4:-0.40943059 5:0.49143446 6:0.034868402 7:0.75707192 8:-1.6242291 9:-1.4667826 10:-0.34983535 11:1.0695442 12:-0.70424252 13:-1.5214713 14:1.6963916 15:0.82387785 16:4.3182915 17:-0.55019443 18:0.49599213 19:-0.30952929 20:-0.28527674 21:-0.27534751 22:1 23:4.9589207 
0.002405039484335082 1:0 2:3.4401966 3:5.1381456 4:3.9979693 5:1.1713196 6:1.0983547 7:0.75707192 8:2.3129368 9:-1.4667826 10:-0.24905907 11:1.1027659 12:-0.57716035 13:-0.037262733 14:1.1201557 15:2.1163639 16:5.7643709 17:-0.76769857 18:-1.4491771 19:4.4107924 20:3.7005341 21:5.1607701 22:0 23:5.1066548 
0.0931737387980541 1:0 2:0.52268189 3:3.7199244 4:1.0597027 5:1.8569068 6:3.2253272 7:0.75707192 8:1.0296169 9:-1.4667826 10:-4.0772976 11:-1.0322758 12:-0.36703325 13:0.29939227 14:1.8950011 15:0.046488274 16:2.9355383 17:-3.1114125 18:-0.35332527 19:2.0506316 20:9.942145 21:5.7231342 22:0 23:9.6043434 
0.1516594955145771 1:0 2:0.82666895 3:6.5563668 4:2.528836 5:4.153248 6:1.0983547 7:0.75707192 8:0.43731368 9:-1.4667826 10:-0.63601704 11:-3.3040013 12:-0.53382493 13:0.86080454 14:-0.73826038 15:-1.3816807 16:-0.955484 17:-0.20966733 18:-2.1934766 19:2.0506316 20:6.414278 21:4.4109687 22:2 23:6.1900397 
0.5403123602285936 1:0 2:-2.0533159 3:2.3017032 4:-0.40943059 5:-0.83081019 6:0.034868402 7:0.75707192 8:-0.37216672 9:-1.4667826 10:-0.33472942 11:1.1125099 12:-0.51204095 13:-1.3748673 14:1.2351004 15:-3.6188987 16:1.6106861 17:0.036477332 18:0.63412134 19:2.0506316 20:6.4651606 21:5.7231342 22:0 23:6.2392844 
0.002731183379390711 1:0 2:5.8375157 3:17.902136 4:9.8745025 5:10.170796 6:5.3522997 7:4.9553799 8:7.9003253 9:-1.4667826 10:-0.36322835 11:1.1179639 12:-0.28026128 13:1.4949458 14:-0.59835084 15:-2.7345205 16:4.6315517 17:-2.8370338 18:-2.3006468 19:18.571758 20:4.056713 21:43.775921 22:4 23:4.6470371 
0.0009905084760927798 1:0 2:3.1093757 3:15.065694 4:6.9362359 5:5.7394618 6:4.2888135 7:3.5559439 8:5.9852166 9:-1.4667826 10:-0.26425031 11:1.098267 12:-0.59903285 13:3.1527801 14:2.4099036 15:-11.650352 16:2.5998538 17:-0.27449687 18:-0.73643019 19:4.4107924 20:5.3457412 21:7.0352999 22:1 23:5.1558995 
-0.2062998323873473 1:0 2:-0.33358781 3:-0.53473914 4:-0.40943059 5:0.33778752 6:1.0983547 7:0.75707192 8:-0.39190922 9:-1.4667826 10:3.6121131 11:-1.1031457 12:-0.47727585 13:-1.6201522 14:-0.96445635 15:-1.0405732 16:-1.9449923 17:0.47101903 18:-0.26858029 19:2.0506316 20:9.2976307 21:4.7858782 22:0 23:8.9805763 
-0.009849645516760536 1:0 2:0.29982044 3:6.5563668 4:5.4671026 5:8.7191657 6:1.0983547 7:2.1565079 8:4.0898428 9:-1.4667826 10:-0.12298439 11:-3.3188023 12:-0.22397755 13:-0.036082539 14:-0.96445635 15:2.1217804 16:-2.2210049 17:0.17631843 18:0.5458986 19:6.7709533 20:4.3450484 21:15.470676 22:1 23:5.894571 
0.002371770630739391 1:0 2:3.3062668 3:15.065694 4:8.4053692 5:6.1842335 6:3.2253272 7:2.1565079 8:0.55906486 9:-1.4667826 10:-0.43504615 11:-3.2323155 12:0.079970445 13:3.8170632 14:2.1900484 15:-3.1964024 16:1.3708362 17:1.0622735 18:-2.0697286 19:20.931918 20:3.9888695 21:40.651787 22:5 23:10.490749 
-0.774263682681127 1:0 2:-1.8985096 3:0.88348205 4:1.0597027 5:1.2119844 6:0.034868402 7:0.75707192 8:-0.13115073 9:-1.4667826 10:-0.30136233 11:-1.4436694 12:1.1755936 13:-0.89049561 14:-0.96445635 15:-0.2821938 16:-0.4452222 17:0.035756201 18:-0.093039209 19:2.0506316 20:2.2588579 21:0.61331645 22:0 23:2.1683841 
0.1566961479567755 1:0 2:-2.0883877 3:0.88348205 4:-0.40943059 5:2.2281542 6:0.034868402 7:-0.64236405 8:-1.9318966 9:-1.4667826 10:-4.0460828 11:-0.87868631 12:-0.49858237 13:-0.73074441 14:2.3808377 15:-0.50951966 16:2.1662237 17:-2.439229 18:-0.51951325 19:4.4107924 20:8.3987027 21:11.534161 22:0 23:8.1105851 
0.2598574419536881 1:0 2:-1.9831945 3:6.5563668 4:1.0597027 5:-1.979423 6:0.034868402 7:0.75707192 8:-1.3479303 9:-1.4667826 10:-0.23913159 11:1.0990956 12:-0.14048786 13:-1.4096107 14:1.1534115 15:-0.30209155 16:4.3999814 17:0.20587834 18:0.37902315 19:2.0506316 20:2.1231707 21:-0.097614721 22:1 23:7.0928602 
0.774263682681127 1:0 2:0.65122009 3:0.88348205 4:-0.40943059 5:0.28216671 6:0.034868402 7:0.75707192 8:-0.18131296 9:0.25873151 10:-0.63426035 11:-0.52773655 12:1.1321729 13:0.89597488 14:2.4757532 15:0.28974958 16:1.9635228 17:-1.8442205 18:0.21341013 19:-0.30952929 20:-0.28527674 21:-0.27534751 22:0 23:-0.29385398 
-0.1001567466538421 1:0 2:-0.4050507 3:5.1381456 4:3.9979693 5:7.5224187 6:1.0983547 7:-0.64236405 8:1.0180982 9:-1.4667826 10:3.6187688 11:-1.0268114 12:-0.34259856 13:-0.14898531 14:-0.14500951 15:-0.95248651 16:-0.88461122 17:1.6312013 18:0.36642783 19:2.0506316 20:2.7676848 21:3.3331081 22:0 23:2.6608316 
-0.774263682681127 1:0 2:0.051622323 3:0.88348205 4:-0.40943059 5:-1.5331164 6:0.034868402 7:-0.64236405 8:-0.18730979 9:0.65350716 10:0.23097852 11:-0.52956971 12:1.1299331 13:1.9826745 14:-0.4691706 15:-0.54258846 16:0.56516344 17:-0.91513022 18:0.61354528 19:-0.30952929 20:-0.28527674 21:-0.27534751 22:0 23:-0.29385398 
0.774263682681127 1:0 2:-2.2849106 3:0.88348205 4:-0.40943059 5:-2.4507307 6:0.034868402 7:-0.64236405 8:-2.385995 9:1.137186 10:0.81401487 11:-1.6757137 12:1.0811856 13:-1.6201522 14:-0.50350077 15:0.34242465 16:0.72990513 17:1.319842 18:-1.6602081 19:-0.30952929 20:-0.28527674 21:-0.27534751 22:0 23:-0.29385398 
0.638471335259522 1:0 2:-2.6235231 3:-0.53473914 4:-0.40943059 5:-0.43114515 6:2.1618409 7:0.75707192 8:-2.4600332 9:0.55557629 10:-1.3505629 11:0.76244259 12:-1.0885569 13:-1.6201522 14:-0.96445635 15:-0.48648179 16:-1.2639803 17:1.3160012 18:-0.077687173 19:-0.30952929 20:-0.28527674 21:-0.27534751 22:0 23:-0.29385398 
0.774263682681127 1:0 2:0.75969287 3:0.88348205 4:1.0597027 5:-0.072783945 6:-1.0286179 7:-0.64236405 8:-0.095758842 9:-0.27777724 10:1.1169459 11:0.67060933 12:0.40191969 13:1.8185853 14:-0.4390321 15:-2.2250721 16:0.32130064 17:-0.6921532 18:0.60256489 19:-0.30952929 20:-0.28527674 21:-0.27534751 22:0 23:-0.29385398 
0.006177878397298053 1:0 2:4.5735451 3:17.902136 4:14.281902 5:11.572266 6:7.4792723 7:10.553124 8:11.098761 9:-1.4667826 10:3.5891111 11:-0.8885288 12:-0.23289746 13:2.3352785 14:-0.26281485 15:1.2718365 16:-0.30841925 17:0.12133509 18:-0.16480335 19:39.813205 20:1.3090477 21:65.145605 22:5 23:9.9326415 
0.07192962915333354 1:0 2:2.496819 3:6.5563668 4:2.528836 5:2.7330463 6:4.2888135 7:4.9553799 8:2.984214 9:-1.4667826 10:-0.097449563 11:1.1051866 12:-0.17904373 13:-0.20176924 14:1.123573 15:1.6788192 16:3.6461778 17:-2.8469155 18:0.54680318 19:2.0506316 20:5.8376072 21:3.2862578 22:2 23:8.6030331 
0.774263682681127 1:0 2:1.6374268 3:2.3017032 4:-0.40943059 5:2.2508764 6:0.034868402 7:-0.64236405 8:0.18064997 9:-0.10110799 10:1.7818685 11:-0.39094301 12:0.86700306 13:1.6564165 14:-0.33874189 15:-0.11455056 16:-0.27247656 17:-0.56165984 18:0.62663089 19:-0.30952929 20:-0.28527674 21:-0.27534751 22:0 23:-0.29385398 
0.02061638257529149 1:0 2:3.0482982 3:15.065694 4:2.528836 5:2.2862085 6:1.0983547 7:0.75707192 8:-1.0236997 9:0.0087800187 10:-0.079404619 11:-1.3700691 12:1.1818037 13:2.5841353 14:-0.019873439 15:0.4753758 16:2.3147955 17:-2.2992996 18:-0.50814918 19:-0.30952929 20:-0.28527674 21:-0.27534751 22:0 23:-0.29385398 
-0.774263682681127 1:0 2:-2.0753359 3:2.3017032 4:-0.40943059 5:-1.3643978 6:0.034868402 7:-0.64236405 8:-2.1145239 9:-0.5858838 10:2.4237935 11:-2.6969683 12:-0.19188503 13:0.13260857 14:-0.78742525 15:-0.68263851 16:1.5516893 17:-0.89048822 18:-1.9863224 19:-0.30952929 20:-0.28527674 21:-0.27534751 22:0 23:-0.29385398 
0.01171307185313138 1:0 2:3.1672339 3:16.483915 4:5.4671026 5:8.2288127 6:5.3522997 7:3.5559439 8:-0.82626489 9:-1.4667826 10:-0.36073957 11:1.0515077 12:-0.75665344 13:2.1302491 14:2.4068554 15:-0.98538351 16:3.6447144 17:0.053783407 18:0.57401362 19:16.211597 20:3.8022998 21:48.649763 22:4 23:15.759938 
-0.774263682681127 1:0 2:-1.1933087 3:0.88348205 4:1.0597027 5:0.99022774 6:-1.0286179 7:-0.64236405 8:0.20368198 9:-1.4667826 10:3.6187688 11:-1.0268114 12:-0.34259856 13:-0.23676714 14:-0.14500951 15:-0.95248651 16:-0.88461122 17:1.6312013 18:0.36642783 19:2.0506316 20:2.7676848 21:3.3331081 22:0 23:2.6608316 
0.02456463303168654 1:0 2:4.3534576 3:33.502569 4:15.751036 5:10.35989 6:8.5427585 7:7.7542518 8:7.2553743 9:-1.4667826 10:-0.33995909 11:1.0407798 12:-0.78584887 13:0.54849215 14:-0.59088166 15:0.11989677 16:-1.7888479 17:0.34029241 18:-2.1852809 19:72.855457 20:2.8864112 21:139.03314 22:8 23:10.425089 
-0.6283580637419472 1:0 2:1.3606753 3:-0.53473914 4:-0.40943059 5:-0.52713703 6:2.1618409 7:3.5559439 8:1.5626866 9:-0.28159329 10:-0.25859451 11:-1.2728126 12:1.1896707 13:1.4366146 14:2.4985896 15:1.5837357 16:1.1876597 17:-1.5801156 18:0.53926569 19:-0.30952929 20:-0.28527674 21:-0.27534751 22:0 23:-0.29385398 
0.774263682681127 1:0 2:-2.1054568 3:0.88348205 4:1.0597027 5:3.6044878 6:2.1618409 7:-0.64236405 8:-1.250749 9:-0.44929282 10:1.4212238 11:-0.71645203 12:1.0171974 13:0.37396431 14:1.7623485 15:0.14717837 16:1.5752979 17:-1.6744696 18:-2.1330246 19:-0.30952929 20:-0.28527674 21:-0.27534751 22:0 23:-0.29385398 
-0.3565394736214434 1:0 2:-2.2845081 3:-0.53473914 4:-0.40943059 5:0.50993619 6:4.2888135 7:2.1565079 8:-1.5469 9:-1.4667826 10:-0.2582836 11:1.0456376 12:-0.77569524 13:-1.6201522 14:-0.80342222 15:-0.76058787 16:-1.8551397 17:0.50762855 18:-0.55784943 19:4.4107924 20:4.3450484 21:10.737492 22:0 23:11.918847 
0.1147887333720918 1:0 2:0.21459705 3:6.5563668 4:3.9979693 5:-0.35683553 6:3.2253272 7:3.5559439 8:0.61500439 9:-1.4667826 10:-0.24905907 11:1.1027659 12:-0.57716035 13:-1.4394225 14:1.1201557 15:2.1163639 16:5.7643709 17:-0.76769857 18:-1.4491771 19:6.7709533 20:3.3104334 21:7.7851013 22:0 23:5.4185384 
0.774263682681127 1:0 2:0.56059945 3:-0.53473914 4:-0.40943059 5:-0.45084037 6:1.0983547 7:-0.64236405 8:-0.17473202 9:-0.52271405 10:-0.22885367 11:0.15334497 12:-1.6575912 13:-0.94334292 14:-0.79602364 15:-0.62878769 16:-0.33241091 17:0.97210866 18:-1.8231087 19:-0.30952929 20:-0.28527674 21:-0.27534751 22:0 23:-0.29385398 
-0.2572137106356969 1:0 2:1.4327414 3:5.1381456 4:-0.40943059 5:-1.2890934 6:1.0983547 7:2.1565079 8:-1.7344619 9:-1.4667826 10:-0.20029434 11:1.0788697 12:-0.67675751 13:-1.4413341 14:-0.17164298 15:-0.99151264 16:3.2952228 17:-1.7295909 18:0.45171641 19:2.0506316 20:11.282056 21:6.8478448 22:1 23:9.3252896 
0.7457786948021244 1:0 2:0.89132476 3:2.3017032 4:1.0597027 5:0.86045774 6:0.034868402 7:-0.64236405 8:0.83824742 9:-1.4667826 10:-0.21488928 11:1.1204118 12:-0.44067408 13:-0.3422814 14:-0.18140893 15:-0.19498339 16:-0.89034684 17:0.149106 18:0.53633503 19:2.0506316 20:3.2934725 21:5.3557071 22:0 23:3.1696941 
-0.774263682681127 1:0 2:-0.92347149 3:2.3017032 4:-0.40943059 5:0.39774645 6:1.0983547 7:-0.64236405 8:-2.3481531 9:0.065411655 10:0.12653594 11:-1.28126 12:1.1825624 13:-0.81846566 14:-0.32117179 15:-0.026024327 16:5.7014121 17:-1.2063341 18:-0.86100768 19:-0.30952929 20:-0.28527674 21:-0.27534751 22:0 23:-0.29385398 
0.233865434714586 1:0 2:-0.34782698 3:5.1381456 4:5.4671026 5:-1.923131 6:2.1618409 7:2.1565079 8:1.9378068 9:-1.4667826 10:-0.26857157 11:-3.2555373 12:0.030049446 13:2.3108377 14:1.1429882 15:-5.5955697 16:0.68799919 17:0.64897213 18:0.18815383 19:4.4107924 20:5.6171157 21:12.283962 22:0 23:6.4526786 
0.07969259677290833 1:0 2:0.84982171 3:12.229252 4:1.0597027 5:4.1757565 6:2.1618409 7:0.75707192 8:-2.1293312 9:0.18534001 10:-0.95555054 11:-0.16299806 12:1.0170473 13:3.4354638 14:-0.10442209 15:-1.2214669 16:0.31582088 17:-0.79439823 18:0.63868298 19:2.0506316 20:7.2284007 21:5.9105888 22:0 23:6.9779555 
0.007781492863243588 1:0 2:7.2953501 3:16.483915 4:8.4053692 5:3.4899169 6:6.415786 7:7.7542518 8:5.8272676 9:-1.4667826 10:-4.0716406 11:-1.0333309 12:-0.4530743 13:-0.48480074 14:-0.85132172 15:-0.25842705 16:5.5548734 17:-1.7228913 18:-0.87790768 19:25.65224 20:0.51188546 21:40.026948 22:3 23:6.5019229 
0.0247980573764055 1:0 2:4.0972346 3:32.084348 4:20.158436 5:12.802981 6:5.3522997 7:3.5559439 8:10.763119 9:-1.4667826 10:3.6196435 11:-1.0341503 12:-0.36009444 13:0.60912376 14:-0.88530828 15:-1.1324633 16:-1.6965237 17:0.52304306 18:0.31413983 19:53.97417 20:2.8864112 21:128.27023 22:7 23:8.5866178 
0.4117020996468563 1:0 2:-2.0371287 3:5.1381456 4:3.9979693 5:0.78052487 6:2.1618409 7:0.75707192 8:-0.86575238 9:-1.4667826 10:-0.22885367 11:1.1228357 12:-0.36800655 13:1.1419066 14:3.2229014 15:-0.62878769 16:2.5943901 17:-1.0442412 18:0.12757021 19:2.0506316 20:5.0574062 21:2.3489838 22:0 23:4.8768461 
0.1596253853369264 1:0 2:-1.0871878 3:2.3017032 4:1.0597027 5:3.1317144 6:5.3522997 7:3.5559439 8:-0.21421974 9:-1.4667826 10:-4.056753 11:-1.2518658 12:-0.23555626 13:0.36606486 14:3.1714249 15:-0.69474098 16:2.4549252 17:-0.96555628 18:0.32086146 19:2.0506316 20:4.4128919 21:1.9740743 22:0 23:4.253079 
-0.03600079173426787 1:0 2:2.945189 3:5.1381456 4:-0.40943059 5:4.4522445 6:3.2253272 7:3.5559439 8:0.71372299 9:0.62821197 10:0.49340946 11:-0.52647338 12:1.1121956 13:1.935007 14:1.8051116 15:1.7988851 16:2.5819805 17:-1.4417808 18:0.16323951 19:-0.30952929 20:-0.28527674 21:-0.27534751 22:0 23:-0.29385398 
0.001648003284740074 1:0 2:4.2732298 3:19.320358 4:9.8745025 5:10.099851 6:7.4792723 7:6.3548158 8:5.5622417 9:-1.4667826 10:-0.22881167 11:1.089191 12:-0.63860222 13:3.7637313 14:1.9338205 15:-3.3434457 16:1.2483622 17:0.44230763 18:0.036891787 19:42.173366 20:2.598076 21:72.495251 22:3 23:11.541304 
-0.774263682681127 1:0 2:-0.68790037 3:0.88348205 4:1.0597027 5:-0.89596769 6:1.0983547 7:2.1565079 8:-0.38039202 9:0.085920951 10:0.69174961 11:-0.27140622 12:1.0321381 13:0.7515215 14:2.0995631 15:-1.0721557 16:1.3576352 17:-1.4085017 18:0.3410461 19:-0.30952929 20:-0.28527674 21:-0.27534751 22:0 23:-0.29385398 
0.008025268043413946 1:0 2:0.53873178 3:19.320358 4:11.343636 5:4.384578 6:11.733217 7:6.3548158 8:1.2820315 9:-1.4667826 10:-4.0792502 11:-1.1031457 12:-0.36800655 13:1.7857973 14:3.8622185 15:-1.4416935 16:2.1391844 17:-2.2703054 18:-1.2362981 19:11.491275 20:4.7012273 21:20.988781 22:0 23:11.541304 
0.01928451835240196 1:0 2:5.191838 3:15.065694 4:12.812769 5:17.329458 6:8.5427585 7:7.7542518 8:6.6219408 9:-1.4667826 10:-0.10018156 11:1.0887927 12:-0.63513325 13:0.54690174 14:-0.73650163 15:-9.3917907 16:0.38003973 17:2.7549062 18:0.53207498 19:13.851436 20:4.0227912 21:30.6543 22:5 23:10.819047 
0.008608931218076817 1:0 2:2.9503598 3:23.575021 4:11.343636 5:6.1088231 6:7.4792723 7:9.1536878 8:8.3741704 9:-1.4667826 10:3.6003888 11:-1.0329688 12:-0.52395214 13:2.184879 14:-0.80659857 15:-0.58360413 16:-0.98567059 17:1.5116824 18:0.49438403 19:32.732723 20:2.2927797 21:58.39724 22:3 23:4.6470371 
0.00568667366293718 1:0 2:2.1472736 3:10.81103 4:9.8745025 5:11.524976 6:4.2888135 7:6.3548158 8:5.289262 9:-1.4667826 10:-4.0767369 11:-1.0261038 12:-0.3518417 13:-0.50331796 14:1.2455171 15:-1.1489259 16:5.5157357 17:-1.3586556 18:-1.8366159 19:9.1311141 20:4.0227912 21:22.218959 22:2 23:6.6660719 
0.00581903151599184 1:0 2:8.8562235 3:13.647473 4:6.9362359 5:9.0635203 6:8.5427585 7:10.553124 8:8.5716006 9:-1.4667826 10:-0.2582836 11:1.0456376 12:-0.77569524 13:2.0008195 14:-0.80342222 15:-0.76058787 16:-1.8551397 17:0.50762855 18:-0.55784943 19:28.012401 20:2.1062098 21:43.776017 22:3 23:9.8998117 
-0.774263682681127 1:0 2:-1.0740443 3:-0.53473914 4:-0.40943059 5:-1.3002261 6:-1.0286179 7:-0.64236405 8:-2.2412113 9:0.91127116 10:-0.1337157 11:0.43620882 12:0.75981988 13:-1.3602428 14:-0.96445635 15:-0.94155931 16:3.3145441 17:-1.5547488 18:-0.77567594 19:-0.30952929 20:-0.28527674 21:-0.27534751 22:0 23:-0.29385398 
-0.774263682681127 1:0 2:0.068102263 3:-0.53473914 4:-0.40943059 5:-1.4887442 6:1.0983547 7:0.75707192 8:0.00295902 9:-0.19999231 10:-1.743328 11:-0.65197373 12:-1.7690149 13:-1.3547835 14:-0.96445635 15:1.4056834 16:-0.46192974 17:1.0731719 18:-0.089659024 19:-0.30952929 20:-0.28527674 21:-0.27534751 22:0 23:-0.29385398 
0.1803804715377837 1:0 2:2.7870367 3:2.3017032 4:1.0597027 5:-0.039679067 6:1.0983547 7:0.75707192 8:0.61500513 9:-1.4667826 10:-0.36078375 11:1.0515057 12:-0.75665598 13:0.2159106 14:-0.71212479 15:1.511393 16:-0.95453716 17:0.76287502 18:-0.40147478 19:4.4107924 20:5.5662331 21:3.6611654 22:0 23:5.3692937 
0.05699149904639853 1:0 2:-0.15633183 3:5.1381456 4:3.9979693 5:-1.1867218 6:3.2253272 7:3.5559439 8:1.0663638 9:-1.4667826 10:3.6215428 11:-1.1031457 12:-0.36800655 13:1.7799483 14:-0.40548135 15:-1.4416935 16:2.1391844 17:-2.2703054 18:-2.4027716 19:9.1311141 20:2.598076 21:7.2852366 22:0 23:4.5321327 
0.009285728285747532 1:0 2:7.8572428 3:19.320358 4:6.9362359 5:6.1501468 6:7.4792723 7:7.7542518 8:2.2238954 9:-1.4667826 10:-0.14802397 11:-3.2889092 12:-0.074200128 13:4.2010423 14:0.41203361 15:-0.72121405 16:1.4690123 17:0.60978524 18:0.043475078 19:23.292079 20:1.8687572 21:64.233225 22:3 23:10.359429 
0.05223897497826983 1:0 2:0.27766225 3:13.647473 4:3.9979693 5:-1.7391287 6:3.2253272 7:0.75707192 8:-1.7443631 9:-1.4667826 10:0.17937496 11:-3.190699 12:0.14840963 13:2.3225477 14:-0.51716324 15:-2.4169463 16:1.3809008 17:0.39649885 18:0.49394944 19:6.7709533 20:4.4807354 21:6.6741201 22:2 23:8.0120957 
-0.774263682681127 1:0 2:0.08662824 3:-0.53473914 4:-0.40943059 5:-1.3314896 6:1.0983547 7:-0.64236405 8:-0.26357374 9:0.070706426 10:-0.30015238 11:1.0906246 12:-0.10478093 13:0.55088724 14:-0.61346801 15:-1.0956811 16:0.25618348 17:-0.33837533 18:0.56475496 19:-0.30952929 20:-0.28527674 21:-0.27534751 22:0 23:-0.29385398 
0.774263682681127 1:0 2:-0.095705723 3:0.88348205 4:1.0597027 5:1.6089682 6:1.0983547 7:0.75707192 8:-0.41165401 9:0.22508978 10:0.099863705 11:-1.1515981 12:1.188187 13:0.97713599 14:1.4892474 15:-0.67491692 16:-0.0029636562 17:-0.91579484 18:-1.4708025 19:-0.30952929 20:-0.28527674 21:-0.27534751 22:0 23:-0.29385398 
-0.1172842880459033 1:0 2:0.66826583 3:9.3928092 4:-1.8785639 5:-2.6948353 6:-1.0286179 7:-2.0418 8:-2.5834296 9:6.1835812 10:-0.22885367 11:-1.1031457 12:-0.36800655 13:-1.6201522 14:-0.96445635 15:1.2205588 16:2.2285898 17:1.4374225 18:3.73352 19:-0.30952929 20:-0.28527674 21:-0.27534751 22:0 23:-0.29385398 
0.003888786393666141 1:0 2:3.555919 3:12.229252 4:5.4671026 5:4.4849115 6:5.3522997 7:7.7542518 8:5.8437223 9:-1.4667826 10:-0.046868605 11:-3.266987 12:-0.0089613736 13:3.5249821 14:0.80013984 15:-3.222118 16:1.1224003 17:0.30761776 18:-0.93222712 19:13.851436 20:3.7853389 21:42.573203 22:3 23:9.949056 
0.3803843555222097 1:0 2:-0.066176134 3:3.7199244 4:1.0597027 5:2.480678 6:1.0983547 7:-0.64236405 8:-1.9121529 9:-1.4667826 10:-4.0567615 11:-1.2517837 12:-0.23555046 13:0.71871596 14:-0.74115651 15:-0.75569531 16:-1.4284336 17:0.41283618 18:-1.2722606 19:2.0506316 20:9.3145912 21:4.5984233 22:1 23:8.9969908 
0.774263682681127 1:0 2:0.61727028 3:3.7199244 4:2.528836 5:-0.31034071 6:-1.0286179 7:-0.64236405 8:-0.95761304 9:-0.026706514 10:-1.1731922 11:1.022236 12:-0.63032422 13:-0.071658005 14:-0.85789886 15:0.079663953 16:-0.69557703 17:0.35798023 18:-0.30295378 19:-0.30952929 20:-0.28527674 21:-0.27534751 22:0 23:-0.29385398 
-0.774263682681127 1:0 2:-0.66974694 3:-0.53473914 4:-0.40943059 5:-0.3960298 6:1.0983547 7:-0.64236405 8:-0.78678039 9:-0.27777724 10:-1.900583 11:0.60279705 12:-1.1076726 13:-0.64459577 14:-0.96445635 15:0.24595281 16:-0.4783439 17:0.8086463 18:-1.3587575 19:-0.30952929 20:-0.28527674 21:-0.27534751 22:0 23:-0.29385398 
0.1150451918781907 1:0 2:2.6666496 3:0.88348205 4:1.0597027 5:5.165252 6:1.0983547 7:0.75707192 8:1.384998 9:-1.4667826 10:-0.22885367 11:1.1121058 12:-0.52121584 13:2.3352609 14:2.5524132 15:1.2205463 16:2.2759896 17:-0.1549776 18:-1.347454 19:-0.30952929 20:-0.28527674 21:-0.27534751 22:1 23:10.113206 
-0.7002996606329083 1:0 2:0.71646221 3:0.88348205 4:1.0597027 5:1.2221163 6:0.034868402 7:-0.64236405 8:1.2270505 9:-0.5858838 10:-2.7347132 11:0.58542527 12:-0.31816097 13:-1.3617185 14:0.25155205 15:0.55894679 16:-0.65687416 17:0.86965183 18:0.59845315 19:-0.30952929 20:-0.28527674 21:-0.27534751 22:0 23:-0.29385398 
0.01823228173530477 1:0 2:-1.2054125 3:2.3017032 4:2.528836 5:5.5388459 6:1.0983547 7:0.75707192 8:0.25962125 9:-1.4667826 10:0.12264867 11:-3.2934581 12:-0.12873282 13:-0.93166149 14:2.6574212 15:-8.0221605 16:2.0780258 17:-0.036285596 18:-1.4395966 19:2.0506316 20:6.6347694 21:7.0353001 22:2 23:7.782287 
0.00496820340310518 1:0 2:3.9656437 3:15.065694 4:15.751036 5:13.640125 6:6.415786 7:6.3548158 8:8.6110942 9:-1.4667826 10:-4.0770192 11:-1.1788872 12:-0.36923468 13:-0.57595863 14:-0.82465436 15:-0.33986052 16:-1.7541045 17:0.83328196 18:-1.1223035 19:30.372562 20:2.7507239 21:71.706398 22:5 23:10.277355 
0.01145427568783247 1:0 2:7.0101396 3:23.575021 4:9.8745025 5:7.5947937 6:3.2253272 7:2.1565079 8:4.6229186 9:-1.4667826 10:-0.33098503 11:-3.2625316 12:0.0090029953 13:1.2916214 14:-0.88104 15:0.19238438 16:4.2873852 17:-2.0695452 18:0.35300061 19:16.211597 20:3.5987688 21:50.336838 22:2 23:7.5196485 
-0.774263682681127 1:0 2:-1.7409149 3:-0.53473914 4:-0.40943059 5:-0.43114515 6:2.1618409 7:0.75707192 8:-1.6209382 9:0.39655301 10:0.46003455 11:0.56732204 12:0.62600417 13:-1.2666395 14:0.33501413 15:-2.1972192 16:-0.83386801 17:-0.044657572 18:0.49678419 19:-0.30952929 20:-0.28527674 21:-0.27534751 22:0 23:-0.29385398 
0.01166690540661745 1:0 2:5.4927317 3:20.738579 4:9.8745025 5:8.992145 6:11.733217 7:13.351996 8:7.6000796 9:-1.4667826 10:-0.30132515 11:-1.44367 12:1.1755938 13:1.8949153 14:-0.96445635 15:-1.0737115 16:-1.0615238 17:-0.48401097 18:-2.3477986 19:25.65224 20:0.56276815 21:39.714531 22:3 23:5.5826874 
0.4166131369110413 1:0 2:1.5975734 3:5.1381456 4:3.9979693 5:0.50578077 6:3.2253272 7:2.1565079 8:1.148078 9:-1.4667826 10:-0.36077031 11:1.051498 12:-0.75667739 13:2.0611462 14:-0.88203234 15:1.4479301 16:-0.79872206 17:1.7937059 18:0.11997812 19:4.4107924 20:4.0397521 21:10.221996 22:1 23:9.538683 
-0.525280606818735 1:0 2:-1.4227554 3:2.3017032 4:2.528836 5:-1.4573145 6:2.1618409 7:2.1565079 8:-0.78677799 9:-1.4667826 10:-0.26861134 11:-3.2554812 12:0.030198156 13:0.98251762 14:0.77233054 15:-8.1678321 16:0.46201019 17:0.38687896 18:-2.2980665 19:4.4107924 20:6.6856525 21:10.596887 22:0 23:6.9287112 
0.0006532166494842603 1:0 2:0.81079244 3:22.1568 4:17.220169 5:10.015522 6:6.415786 7:6.3548158 8:9.546927 9:-1.4667826 10:-0.30037197 11:-1.4361195 12:1.1764123 13:1.220758 14:-0.87538036 15:-2.9394429 16:-1.5169409 17:-0.35524997 18:-0.57417467 19:18.571758 20:2.0383663 21:29.050563 22:3 23:11.984507 
0.774263682681127 1:0 2:1.3242078 3:2.3017032 4:2.528836 5:0.9352254 6:-1.0286179 7:-0.64236405 8:0.85192651 9:0.0087800187 10:0.74597846 11:-1.0337938 12:1.1425794 13:-0.42079323 14:1.4988676 15:1.5731407 16:5.2208246 17:-1.1266382 18:-0.31137519 19:-0.30952929 20:-0.28527674 21:-0.27534751 22:0 23:-0.29385398 
0.001901083323962854 1:0 2:3.7859061 3:9.3928092 4:5.4671026 5:1.3587812 6:3.2253272 7:2.1565079 8:0.25962363 9:-1.4667826 10:3.5893628 11:-1.1031457 12:-0.56956546 13:1.3228485 14:-0.82846691 15:-3.0651264 16:-0.87743658 17:1.0303159 18:-1.2211136 19:9.1311141 20:5.1422106 21:14.908294 22:1 23:4.9589207 
-0.774263682681127 1:0 2:-1.0549013 3:0.88348205 4:1.0597027 5:1.5249894 6:-1.0286179 7:-0.64236405 8:0.72995483 9:-0.073529685 10:0.90108981 11:-0.73327308 12:1.1027436 13:1.2677577 14:0.82740971 15:-1.4331242 16:0.035060182 17:-0.7696219 18:-0.211641 19:-0.30952929 20:-0.28527674 21:-0.27534751 22:0 23:-0.29385398 
0.774263682681127 1:0 2:0.83635893 3:-0.53473914 4:-0.40943059 5:0.91440648 6:-1.0286179 7:-0.64236405 8:-0.64858155 9:0.50256879 10:-0.265412 11:0.016682721 12:0.98209433 13:1.0763807 14:1.3502221 15:0.43470611 16:0.46275405 17:-0.97246442 18:0.63871286 19:-0.30952929 20:-0.28527674 21:-0.27534751 22:0 23:-0.29385398 
0.774263682681127 1:0 2:0.8164783 3:0.88348205 4:-0.40943059 5:0.11326917 6:2.1618409 7:3.5559439 8:0.047378704 9:0.33190076 10:0.090505006 11:-1.5158475 12:1.1616984 13:0.64309573 14:0.44774446 15:-0.64001398 16:-0.064040074 17:1.3498629 18:0.45889328 19:-0.30952929 20:-0.28527674 21:-0.27534751 22:0 23:-0.29385398 
0.1951131029832017 1:0 2:-1.6036028 3:2.3017032 4:2.528836 5:-0.65882701 6:2.1618409 7:2.1565079 8:-2.2263802 9:-1.4667826 10:0.1794192 11:-3.1906905 12:0.14842081 13:-0.29939794 14:0.16961715 15:-0.029537131 16:2.6000429 17:-2.2560541 18:-0.67700091 19:4.4107924 20:5.7528028 21:13.62357 22:0 23:11.393569 
0.5038165929990396 1:0 2:0.65816292 3:0.88348205 4:-0.40943059 5:-2.2425713 6:0.034868402 7:-0.64236405 8:-2.5587503 9:1.1038535 10:-0.65329386 11:1.0682524 12:-0.070397775 13:-0.43488236 14:-0.96445635 15:0.06808723 16:3.4456482 17:-0.89318582 18:-2.3573165 19:-0.30952929 20:-0.28527674 21:-0.27534751 22:0 23:-0.29385398 
-0.774263682681127 1:0 2:-2.708339 3:-0.53473914 4:-0.40943059 5:-0.60258855 6:-1.0286179 7:-0.64236405 8:-2.3070222 9:0.92588509 10:-0.040365522 11:-0.59369355 12:-1.8868851 13:-1.3570548 14:-0.96445635 15:0.65851961 16:-0.20020508 17:0.82010146 18:-2.4514961 19:-0.30952929 20:-0.28527674 21:-0.27534751 22:0 23:-0.29385398 
0.1174980846805582 1:0 2:1.8005813 3:0.88348205 4:1.0597027 5:-0.96676598 6:0.034868402 7:0.75707192 8:1.1085893 9:-1.4667826 10:-0.37414035 11:-3.3275372 12:-0.37130389 13:1.7619442 14:1.426594 15:0.29814148 16:1.1942734 17:-0.47806066 18:0.4636272 19:4.4107924 20:3.4630817 21:4.2235138 22:1 23:3.3338435 
0.01813074544943266 1:0 2:7.6613323 3:19.320358 4:14.281902 5:4.8003794 6:11.733217 7:11.95256 8:9.6574933 9:-1.4667826 10:-4.0716408 11:-1.0290797 12:-0.45128375 13:1.0334538 14:-0.82233094 15:0.40157548 16:-1.7263732 17:0.87565643 18:-2.181971 19:46.893688 20:0.51188546 21:84.45319 22:6 23:8.5045436 
0.594973701492099 1:0 2:0.68085603 3:-0.53473914 4:-0.40943059 5:-0.71392204 6:0.034868402 7:0.75707192 8:0.75321016 9:-1.4667826 10:-0.26589732 11:1.1150163 12:-0.49797376 13:-0.27488822 14:-0.96445635 15:-1.7301169 16:0.219436 17:1.7163765 18:0.12101828 19:2.0506316 20:5.1422106 21:2.5364386 22:0 23:4.9589207 
0.007073885992006864 1:0 2:1.9275895 3:10.81103 4:11.343636 5:7.7529438 6:8.5427585 7:9.1536878 8:7.2718258 9:-1.4667826 10:-0.022585495 11:1.0260275 12:-0.81596935 13:-0.63160879 14:-0.83395638 15:0.95242076 16:-1.4589576 17:1.0436102 18:-1.9630027 19:23.292079 20:2.4284669 21:28.936016 22:4 23:6.5019229 
0.05275751279628031 1:0 2:0.99697871 3:13.647473 4:2.528836 5:0.16737464 6:5.3522997 7:3.5559439 8:0.17571603 9:-1.4667826 10:-0.41083842 11:1.0606961 12:-0.72704963 13:-1.0113623 14:-0.96445635 15:-5.1191208 16:-0.13418559 17:2.6352703 18:0.064224158 19:6.7709533 20:7.0927136 21:14.549025 22:0 23:9.538683 
0.02058577739898911 1:0 2:6.979716 3:16.483915 4:14.281902 5:15.734983 6:7.4792723 7:9.1536878 8:6.5380283 9:-1.4667826 10:-4.074589 11:-1.1754294 12:-0.42573158 13:2.2168915 14:-0.96445635 15:-1.8268995 16:-0.75604357 17:-0.76297163 18:-2.3411495 19:49.253849 20:0.51188546 21:89.139522 22:3 23:7.8643612 
-0.774263682681127 1:0 2:-1.1016582 3:-0.53473914 4:-0.40943059 5:-1.5258426 6:1.0983547 7:-0.64236405 8:-1.6949765 9:0.302583 10:-0.76365801 11:0.57326712 12:0.63663141 13:0.106006 14:-0.7270705 15:-1.0974252 16:-0.50203474 17:-0.14225348 18:-0.46499902 19:-0.30952929 20:-0.28527674 21:-0.27534751 22:0 23:-0.29385398 
-0.774263682681127 1:0 2:-1.2291318 3:0.88348205 4:-0.40943059 5:-0.00038773137 6:1.0983547 7:-0.64236405 8:-1.8720815 9:1.2915953 10:-0.23916635 11:1.0980506 12:-0.13555954 13:0.64858243 14:-0.79220598 15:-0.19013182 16:-0.82027855 17:-0.34674366 18:-1.9168671 19:-0.30952929 20:-0.28527674 21:-0.27534751 22:0 23:-0.29385398 
0.774263682681127 1:0 2:-0.021450216 3:-0.53473914 4:-0.40943059 5:-0.00012820687 6:1.0983547 7:2.1565079 8:0.35833913 9:0.20589038 10:0.55031241 11:1.0751126 12:-0.3081288 13:0.33014205 14:2.3629382 15:0.32105509 16:-0.58666382 17:0.16723234 18:0.14818556 19:-0.30952929 20:-0.28527674 21:-0.27534751 22:0 23:-0.29385398 
0.005007807359573735 1:0 2:4.782265 3:15.065694 4:9.8745025 5:11.701798 6:7.4792723 7:7.7542518 8:7.8608351 9:-1.4667826 10:-0.26182969 11:-3.3167597 12:-0.20409637 13:0.54534886 14:2.8768013 15:0.68314614 16:4.65021 17:-2.4345869 18:0.26385485 19:30.372562 20:0.51188546 21:57.834938 22:6 23:7.8315313 
0.002486190930594575 1:0 2:8.0428895 3:12.229252 4:6.9362359 5:6.8707304 6:7.4792723 7:4.9553799 8:1.7206363 9:-1.4667826 10:-0.6916349 11:-3.2909344 12:-0.14942677 13:3.7900496 14:2.2642306 15:1.7328011 16:1.2889308 17:0.70272859 18:0.57529985 19:13.851436 20:6.1089817 21:33.278685 22:4 23:12.788837 
-0.774263682681127 1:0 2:-0.12352905 3:-0.53473914 4:-0.40943059 5:-0.87489026 6:0.034868402 7:0.75707192 8:-0.20905083 9:0.43450139 10:0.58479564 11:0.95802777 12:-0.85692602 13:-1.0046346 14:-0.099275062 15:-0.71385676 16:-0.922745 17:0.82419061 18:0.42354143 19:-0.30952929 20:-0.28527674 21:-0.27534751 22:0 23:-0.29385398 
0.774263682681127 1:0 2:0.27746498 3:0.88348205 4:-0.40943059 5:-1.4887442 6:1.0983547 7:0.75707192 8:0.00295902 9:-0.19999231 10:-1.743328 11:-0.65197373 12:-1.7690149 13:-1.3547835 14:-0.96445635 15:1.4056834 16:-0.46192974 17:1.0731719 18:-0.089659024 19:-0.30952929 20:-0.28527674 21:-0.27534751 22:0 23:-0.29385398 
0.01653780081108363 1:0 2:-1.069613 3:6.5563668 4:1.0597027 5:-1.6831606 6:3.2253272 7:0.75707192 8:-1.5765145 9:-1.4667826 10:-0.24906263 11:1.1027374 12:-0.57730906 13:0.28298969 14:2.1788162 15:1.9611943 16:4.2170649 17:-1.110195 18:0.050753774 19:2.0506316 20:5.7019201 21:1.7866372 22:0 23:5.5006129 
-0.06716212060174018 1:0 2:0.30986901 3:2.3017032 4:1.0597027 5:0.7542866 6:0.034868402 7:0.75707192 8:0.098384246 9:-1.4667826 10:-0.24332358 11:-3.2860833 12:-0.062319817 13:1.1082264 14:-0.87721684 15:-2.1700175 16:-1.8095102 17:0.65041102 18:-0.87566615 19:4.4107924 20:11.010681 21:14.252229 22:0 23:12.214315 
0.007506638111007269 1:0 2:6.5504012 3:19.320358 4:6.9362359 5:2.4171326 6:4.2888135 7:3.5559439 8:0.87061259 9:-1.4667826 10:-0.36923319 11:1.1182689 12:-0.45022671 13:3.4489373 14:-0.96445635 15:-0.50635895 16:-0.067275858 17:2.300004 18:0.11121934 19:11.491275 20:6.0241773 21:34.939882 22:1 23:8.2254898 
0.01115669298985852 1:0 2:0.8659993 3:16.483915 4:11.343636 5:8.3630657 6:4.2888135 7:4.9553799 8:4.7315046 9:-1.4667826 10:3.6196435 11:-1.0341503 12:-0.36009444 13:2.4024276 14:-0.88530828 15:-1.1324633 16:-1.6965237 17:0.52304306 18:0.31413983 19:18.571758 20:3.6835732 21:51.305357 22:1 23:4.3187386 
0.01748382266942797 1:0 2:0.94356776 3:5.1381456 4:1.0597027 5:-1.09987 6:4.2888135 7:3.5559439 8:-0.39191055 9:-1.4667826 10:3.6003835 11:-1.0327655 12:-0.52392769 13:2.4718294 14:0.22188805 15:-2.398768 16:-0.085962524 17:-0.58942725 18:0.30037745 19:4.4107924 20:4.3450484 21:4.2234962 22:1 23:4.5649625 
-0.0918642653821958 1:0 2:-0.51323868 3:3.7199244 4:-1.8785639 5:-2.7679778 6:-1.0286179 7:-2.0418 8:-2.5834296 9:6.1835812 10:-0.22885367 11:-1.1031457 12:-0.36800655 13:-1.6201522 14:-0.96445635 15:1.2205588 16:2.2285898 17:1.4374225 18:3.73352 19:-0.30952929 20:-0.28527674 21:-0.27534751 22:0 23:-0.29385398 
0.774263682681127 1:0 2:-1.5582756 3:-0.53473914 4:-0.40943059 5:-1.508176 6:1.0983547 7:-0.64236405 8:-1.5304473 9:0.064035924 10:-2.0044037 11:-0.43280086 12:-1.6719782 13:-0.1741549 14:-0.50188818 15:0.46126186 16:-0.75053156 17:0.84146472 18:0.29197098 19:-0.30952929 20:-0.28527674 21:-0.27534751 22:0 23:-0.29385398 
0.001131982576571822 1:0 2:3.3551687 3:15.065694 4:3.9979693 5:6.6030959 6:6.415786 7:0.75707192 8:-0.14987042 9:-0.1417007 10:-1.5317501 11:0.55526074 12:-1.2660603 13:2.5379857 14:0.8125189 15:-0.12319586 16:1.4724378 17:1.3351104 18:-1.4056192 19:23.292079 20:3.2425899 21:48.423438 22:1 23:4.8440163 
0.271187902551663 1:0 2:-1.0541872 3:3.7199244 4:2.528836 5:1.675638 6:2.1618409 7:0.75707192 8:-1.3988235 9:-1.4667826 10:-0.37030275 11:1.1178884 12:-0.45485808 13:0.12292973 14:3.057814 15:-0.66678575 16:4.0065513 17:-2.344352 18:-1.845519 19:2.0506316 20:5.4644678 21:3.4737124 22:1 23:5.2708042 
-0.2092585425659726 1:0 2:0.39441602 3:2.3017032 4:2.528836 5:1.0219683 6:2.1618409 7:-0.64236405 8:0.97331075 9:-1.4667826 10:-4.0787388 11:-1.1031457 12:-0.39346331 13:-0.16498548 14:-0.84631376 15:-1.7907151 16:-0.51391256 17:0.73169306 18:-1.1147838 19:4.4107924 20:3.8192607 21:4.7011707 22:0 23:4.2038342 
0.05655668650942639 1:0 2:2.0644404 3:12.229252 4:5.4671026 5:-0.59008756 6:2.1618409 7:0.75707192 8:1.0296159 9:-1.4667826 10:-0.74037726 11:1.1013179 12:-0.30569412 13:1.2995444 14:-0.96445635 15:-1.6602208 16:-1.0777345 17:1.2541195 18:0.43534506 19:4.4107924 20:4.6673055 21:10.596905 22:1 23:9.374534 
0.01147095165337927 1:0 2:2.0539009 3:3.7199244 4:2.528836 5:-1.6642666 6:-1.0286179 7:-0.64236405 8:0.25962359 9:-1.4667826 10:-0.083578807 11:1.1212462 12:-0.36487267 13:1.4166867 14:-0.7000553 15:1.8798551 16:0.88090338 17:-0.47060442 18:0.059768031 19:2.0506316 20:4.0227912 21:2.7238934 22:0 23:3.8755358 
0.774263682681127 1:0 2:-2.5445824 3:-0.53473914 4:-0.40943059 5:-0.95659632 6:1.0983547 7:-0.64236405 8:-1.9318975 9:0.18534001 10:0.63934052 11:0.24052492 12:-1.5626959 13:-1.5346018 14:1.9014487 15:-0.63522781 16:-0.28318363 17:1.4532856 18:-0.65372274 19:-0.30952929 20:-0.28527674 21:-0.27534751 22:0 23:-0.29385398 
0.0007631533506196742 1:0 2:5.8153549 3:16.483915 4:5.4671026 5:10.357271 6:6.415786 7:6.3548158 8:7.6634036 9:-1.4667826 10:3.6038184 11:-1.1031457 12:-0.21827871 13:-0.35775268 14:1.8963734 15:0.5942154 16:5.3918917 17:-1.8966158 18:-1.6532099 19:18.571758 20:3.5309253 21:33.840991 22:5 23:7.0928602 
0.002726100285052265 1:0 2:3.3959834 3:7.974588 4:6.9362359 5:6.817052 6:2.1618409 7:3.5559439 8:2.5498596 9:-1.4667826 10:-0.21619811 11:1.1099982 12:-0.53546882 13:-1.4896881 14:0.34512869 15:1.2723047 16:6.4739636 17:-1.1681938 18:0.098492686 19:13.851436 20:3.0729811 21:27.545735 22:3 23:11.360739 
0.005424105796288255 1:0 2:4.5847967 3:22.1568 4:11.343636 5:10.090349 6:9.6062448 7:9.1536878 8:9.3119815 9:-1.4667826 10:-0.24332358 11:-3.2860833 12:-0.062319817 13:0.92465223 14:-0.55856602 15:-2.1700175 16:-1.8095102 17:0.65041102 18:-0.87566615 19:30.372562 20:1.6313047 21:55.491784 22:3 23:10.589238 
0.001080880746437762 1:0 2:-1.3813193 3:6.5563668 4:2.528836 5:2.7462834 6:1.0983547 7:0.75707192 8:-1.0302647 9:-1.4667826 10:-0.63712588 11:0.98439796 12:-0.88443619 13:3.0716176 14:1.996372 15:-4.1483269 16:2.0911102 17:-0.0080127133 18:-0.80676239 19:6.7709533 20:6.0072164 21:17.352546 22:1 23:7.897191 
0.003631573611375175 1:0 2:2.3793873 3:19.320358 4:12.812769 5:3.0307243 6:7.4792723 7:4.9553799 8:4.800609 9:-1.4667826 10:3.6194702 11:-1.1031457 12:-0.4192568 13:2.154344 14:-0.96445635 15:0.36586596 16:-2.3856452 17:0.28855464 18:-2.4431111 19:13.851436 20:2.0214054 21:24.468391 22:1 23:1.9385752 
-0.774263682681127 1:0 2:-0.89182271 3:-0.53473914 4:-0.40943059 5:0.53623344 6:0.034868402 7:0.75707192 8:-0.35578696 9:-0.32278586 10:1.5246318 11:0.85386972 12:-0.14890961 13:-0.97651215 14:-0.071555719 15:-0.83959341 16:-0.95889082 17:0.47242258 18:0.63847565 19:-0.30952929 20:-0.28527674 21:-0.27534751 22:0 23:-0.29385398 
0.01478025164491531 1:0 2:12.407146 3:15.065694 4:5.4671026 5:7.3756815 6:4.2888135 7:3.5559439 8:0.27936825 9:-1.4667826 10:-0.12668565 11:1.056241 12:-0.74501195 13:2.3267629 14:-0.79477977 15:-2.9034756 16:-0.4826284 17:2.5203047 18:0.54304707 19:9.1311141 20:5.3627021 21:32.528847 22:0 23:14.118446 
-0.05700428299334023 1:0 2:-0.30208153 3:6.5563668 4:-1.8785639 5:-0.66738592 6:2.1618409 7:-2.0418 8:-2.5834296 9:6.1835812 10:-0.22885367 11:-1.1031457 12:-0.36800655 13:-1.6201522 14:-0.96445635 15:1.2205588 16:2.2285898 17:1.4374225 18:3.73352 19:-0.30952929 20:-0.28527674 21:-0.27534751 22:0 23:-0.29385398 
0.003563564022049462 1:0 2:5.2252951 3:5.1381456 4:2.528836 5:5.2481927 6:3.2253272 7:3.5559439 8:3.1192202 9:-1.4667826 10:-0.36898473 11:1.1182737 12:-0.45023451 13:3.2723379 14:2.3082978 15:-7.3808874 16:2.2331959 17:-0.066913249 18:-0.45416915 19:-0.30952929 20:-0.28527674 21:-0.27534751 22:1 23:8.8000119 
0.1925603342620834 1:0 2:1.4703769 3:2.3017032 4:-0.40943059 5:0.13291686 6:3.2253272 7:0.75707192 8:0.69397938 9:-1.4667826 10:-4.0792502 11:-1.1031457 12:-0.36800655 13:-0.96844539 14:3.2156697 15:-1.0912225 16:1.6594392 17:-2.2850695 18:-2.1849927 19:4.4107924 20:4.9895623 21:7.0352997 22:2 23:4.8111861 
-0.005386034825275735 1:0 2:-0.55133406 3:6.5563668 4:6.9362359 5:0.58894624 6:4.2888135 7:6.3548158 8:6.3208444 9:-1.4667826 10:3.6184319 11:-1.1031457 12:-0.30521894 13:0.14211494 14:-0.82245788 15:-1.2193667 16:-0.94842752 17:1.8533054 18:0.62873721 19:9.1311141 20:2.4284669 21:12.28397 22:0 23:6.9287112 
-0.774263682681127 1:0 2:0.91401956 3:0.88348205 4:1.0597027 5:1.3287754 6:-1.0286179 7:-0.64236405 8:0.67423566 9:-0.19999231 10:0.98558883 11:-1.579528 12:1.0763259 13:0.88447441 14:1.2360269 15:0.37710494 16:0.57619181 17:-1.3065286 18:0.60918378 19:-0.30952929 20:-0.28527674 21:-0.27534751 22:0 23:-0.29385398 
0.01009490031653479 1:0 2:4.9555048 3:15.065694 4:5.4671026 5:0.26327669 6:7.4792723 7:4.9553799 8:3.7936942 9:-1.4667826 10:3.6137616 11:-0.96546291 12:-0.34525888 13:-0.36570686 14:-0.48477942 15:-0.63620219 16:3.7231404 17:-2.7164466 18:-1.5455614 19:25.65224 20:3.6157297 21:52.023937 22:4 23:10.014716 
-0.3100891166733857 1:0 2:-0.77990442 3:6.5563668 4:6.9362359 5:0.62570805 6:1.0983547 7:2.1565079 8:1.6729216 9:-1.4667826 10:-0.41089646 11:1.0606825 12:-0.72708569 13:-1.3298908 14:1.6234008 15:-1.0922256 16:5.2046461 17:-1.0034457 18:-0.35501545 19:2.0506316 20:5.6171157 21:2.3646066 22:0 23:5.4185384 
0.6791421653800961 1:0 2:2.4913953 3:3.7199244 4:3.9979693 5:1.2221163 6:0.034868402 7:-0.64236405 8:2.688064 9:-0.5858838 10:-2.7347132 11:0.58542527 12:-0.31816097 13:2.1393345 14:0.25155205 15:0.55894679 16:-0.65687416 17:0.86965183 18:0.59845315 19:-0.30952929 20:-0.28527674 21:-0.27534751 22:0 23:-0.29385398 
0.5748252875812224 1:0 2:-0.055826485 3:3.7199244 4:1.0597027 5:0.037943701 6:1.0983547 7:-0.64236405 8:-1.4481836 9:-1.4667826 10:-0.1001456 11:1.0887821 12:-0.63517311 13:0.5350585 14:0.92685096 15:-2.5617496 16:-0.68319927 17:1.6251069 18:0.11692166 19:2.0506316 20:0.51188546 21:-0.041031714 22:0 23:0.47764728 
0.05404448272315089 1:0 2:-1.4317056 3:0.88348205 4:1.0597027 5:4.8001967 6:2.1618409 7:-0.64236405 8:-0.88549601 9:-0.52271405 10:-0.32966634 11:0.090735953 12:-1.6859304 13:-0.1498945 14:-0.96445635 15:-0.92071168 16:-1.3012361 17:0.22055034 18:-1.8485824 19:-0.30952929 20:-0.28527674 21:-0.27534751 22:0 23:-0.29385398 
0.2638654657915015 1:0 2:3.9662044 3:6.5563668 4:2.528836 5:-1.7728353 6:1.0983547 7:2.1565079 8:0.18064993 9:-1.4667826 10:-0.097526604 11:1.1051909 12:-0.17905973 13:2.2507854 14:-0.96445635 15:-8.5639868 16:0.63786166 17:0.69985067 18:-1.1822505 19:4.4107924 20:5.8376072 21:9.6596494 22:1 23:5.6319321 
-0.774263682681127 1:0 2:0.89631585 3:3.7199244 4:3.9979693 5:-0.024199947 6:0.034868402 7:-0.64236405 8:1.3257671 9:0.037328385 10:0.29664083 11:1.0510985 12:-0.037375195 13:-1.0459085 14:-0.60911577 15:1.332984 16:-0.94025269 17:0.86137284 18:0.62821814 19:-0.30952929 20:-0.28527674 21:-0.27534751 22:0 23:-0.29385398 
0.01256164719810479 1:0 2:6.0517718 3:17.902136 4:5.4671026 5:2.909889 6:6.415786 7:6.3548158 8:3.9318973 9:-1.4667826 10:-0.083525893 11:1.1212446 12:-0.36471236 13:-0.74762964 14:2.7444811 15:0.29811288 16:5.4380251 17:-2.0069289 18:-1.9487219 19:18.571758 20:2.0214054 21:31.029234 22:1 23:1.9385752 
0.005991412625399907 1:0 2:7.146009 3:16.483915 4:8.4053692 5:11.336505 6:4.2888135 7:4.9553799 8:1.9773033 9:-1.4667826 10:-0.40373126 11:1.1080375 12:-0.20275358 13:2.5172096 14:-0.96445635 15:-0.62455421 16:-0.25522473 17:1.5172277 18:0.62621604 19:30.372562 20:4.599462 21:56.33532 22:3 23:9.7520772 
0.774263682681127 1:0 2:2.1607744 3:2.3017032 4:-0.40943059 5:-1.0802576 6:-1.0286179 7:-0.64236405 8:-1.8529238 9:0.72020347 10:0.15688508 11:-0.36004676 12:1.0962997 13:0.65445676 14:-0.82159381 15:0.82341531 16:3.1955696 17:-1.2942573 18:-0.31296687 19:-0.30952929 20:-0.28527674 21:-0.27534751 22:0 23:-0.29385398 
0.007851573674877056 1:0 2:4.0494947 3:15.065694 4:8.4053692 5:6.1483726 6:4.2888135 7:4.9553799 8:5.3537173 9:-1.4667826 10:-0.2975547 11:-1.4246522 12:1.1776297 13:-0.076715627 14:3.7456566 15:-2.4469444 16:3.3559985 17:-2.6624925 18:-1.3583212 19:35.092884 20:3.4630817 21:58.198741 22:4 23:10.031131 
-0.09512562041135939 1:0 2:-2.3756096 3:2.3017032 4:1.0597027 5:3.986822 6:2.1618409 7:0.75707192 8:-1.4228091 9:-1.4667826 10:-4.0786831 11:-1.1031457 12:-0.39481883 13:-1.4858857 14:3.4430732 15:-2.0089601 16:2.2506856 17:-2.2578429 18:0.2972378 19:2.0506316 20:7.5676191 21:3.6347739 22:0 23:7.3062544 
0.01439715045232599 1:0 2:2.6067621 3:9.3928092 4:5.4671026 5:2.4501309 6:4.2888135 7:3.5559439 8:1.8905754 9:-1.4667826 10:-0.30041076 11:-1.4361252 12:1.1764113 13:1.1938701 14:-0.75507814 15:-1.4860419 16:-1.2804475 17:1.3287612 18:-2.2458597 19:2.0506316 20:6.6347694 21:5.2343691 22:0 23:6.4034335 
0.1168604977509273 1:0 2:1.1234948 3:-0.53473914 4:-0.40943059 5:7.0045702 6:3.2253272 7:0.75707192 8:0.98848139 9:-1.4667826 10:-0.21619664 11:1.1099862 12:-0.53554852 13:1.269632 14:-0.8859282 15:1.4436914 16:-1.1552175 17:0.8098048 18:-2.3871086 19:4.4107924 20:4.8029926 21:8.8629618 22:2 23:4.9589207 
0.1014182017945045 1:0 2:-1.0099753 3:3.7199244 4:3.9979693 5:5.1805255 6:2.1618409 7:2.1565079 8:0.38960114 9:-1.4667826 10:-0.21619749 11:1.1100009 12:-0.53545197 13:-1.3166638 14:0.35814389 15:-0.66611027 16:5.1713985 17:-0.63061522 18:-0.43204494 19:4.4107924 20:3.0729811 21:4.5984235 22:1 23:4.6306222 
0.05657120434548246 1:0 2:2.2375927 3:6.5563668 4:2.528836 5:-0.82413856 6:0.034868402 7:0.75707192 8:3.279359 9:-1.4667826 10:-0.063490812 11:1.0915611 12:-0.62019547 13:1.6481284 14:1.428199 15:-1.5314259 16:2.7218422 17:-2.5001129 18:0.51092987 19:-0.30952929 20:-0.28527674 21:-0.27534751 22:1 23:9.2432147 
-0.774263682681127 1:0 2:4.3573607 3:5.1381456 4:2.528836 5:-0.42262281 6:3.2253272 7:2.1565079 8:1.1480742 9:-0.28159329 10:0.094076337 11:-0.92171083 12:1.1835414 13:1.9978087 14:0.90547987 15:-1.2825277 16:-0.23496491 17:-0.18949413 18:0.40812244 19:-0.30952929 20:-0.28527674 21:-0.27534751 22:0 23:-0.29385398 
-0.774263682681127 1:0 2:0.01727206 3:-0.53473914 4:-0.40943059 5:0.070658955 6:-1.0286179 7:-0.64236405 8:0.32119472 9:-1.4667826 10:-0.21488928 11:1.1204118 12:-0.44067408 13:-0.3422814 14:-0.18140893 15:-0.19498339 16:-0.89034684 17:0.149106 18:0.53633503 19:2.0506316 20:3.2934725 21:5.3557071 22:0 23:3.1696941 
0.004285756265420739 1:0 2:1.7291621 3:3.7199244 4:1.0597027 5:2.4901476 6:5.3522997 7:0.75707192 8:0.14116282 9:-1.4667826 10:3.6019156 11:-1.1031457 12:-0.52554794 13:1.035527 14:-0.96445635 15:-1.7148088 16:-1.6014679 17:-0.16535409 18:-0.74768247 19:6.7709533 20:2.4284669 21:13.783602 22:1 23:2.3325333 
0.0813619404200072 1:0 2:-1.5100928 3:6.5563668 4:6.9362359 5:2.0421159 6:0.034868402 7:0.75707192 8:2.1339313 9:-1.4667826 10:-4.0787106 11:-1.1031457 12:-0.39415924 13:-0.36395884 14:2.6609573 15:-4.104711 16:-0.74034861 17:-1.272737 18:-1.9552411 19:4.4107924 20:3.4630817 21:5.5898346 22:0 23:5.9274008 
0.009095385488267518 1:0 2:2.7806552 3:19.320358 4:8.4053692 5:3.214109 6:7.4792723 7:4.9553799 8:2.4147266 9:-1.4667826 10:-0.16014632 11:-0.78160977 12:-1.9136397 13:3.550688 14:0.73064085 15:-5.7811143 16:1.0947503 17:0.30557439 18:0.62653515 19:32.732723 20:3.4630817 21:64.419389 22:6 23:13.658828 
-0.05930536772913273 1:0 2:-0.71758093 3:-0.53473914 4:-0.40943059 5:-0.072783945 6:-1.0286179 7:-0.64236405 8:-0.21421927 9:-0.27777724 10:1.1169459 11:0.67060933 12:0.40191969 13:0.93150726 14:-0.4390321 15:-2.2250721 16:0.32130064 17:-0.6921532 18:0.60256489 19:-0.30952929 20:-0.28527674 21:-0.27534751 22:0 23:-0.29385398 
-0.774263682681127 1:0 2:1.0461969 3:5.1381456 4:2.528836 5:-0.37190481 6:0.034868402 7:0.75707192 8:-0.767036 9:-1.4667826 10:3.5990542 11:-0.95450776 12:-0.50046264 13:1.3394913 14:-0.87765497 15:-0.75569531 16:-1.4284336 17:0.41283618 18:-1.2722606 19:4.4107924 20:4.4128919 21:6.8478452 22:1 23:8.9969908 
0.00562176601686915 1:0 2:5.2816573 3:13.647473 4:3.9979693 5:3.6079681 6:8.5427585 7:3.5559439 8:2.4896053 9:-1.4667826 10:-0.28785206 11:0.25872474 12:0.86752741 13:-0.6525596 14:4.3449812 15:-1.4856979 16:4.1257044 17:-2.6452004 18:-0.32577893 19:4.4107924 20:0.56276815 21:4.8789035 22:1 23:0.52689204 
-0.774263682681127 1:0 2:2.4174994 3:0.88348205 4:1.0597027 5:-0.71190516 6:1.0983547 7:0.75707192 8:0.59525944 9:-0.28159329 10:0.094076337 11:-0.92171083 12:1.1835414 13:1.9978087 14:0.90547987 15:-1.2825277 16:-0.23496491 17:-0.18949413 18:0.40812244 19:-0.30952929 20:-0.28527674 21:-0.27534751 22:0 23:-0.29385398 
0.009242649243801776 1:0 2:1.8537685 3:17.902136 4:11.343636 5:6.6917212 6:10.669731 7:7.7542518 8:4.6624048 9:-1.4667826 10:3.6135755 11:-1.1722087 12:-0.45598591 13:-1.023235 14:2.8466255 15:-1.2665357 16:5.4981911 17:-2.2672013 18:0.46275508 19:11.491275 20:4.599462 21:15.283225 22:1 23:5.648347 
0.2415882702691403 1:0 2:0.25890158 3:6.5563668 4:5.4671026 5:1.8768861 6:2.1618409 7:3.5559439 8:0.97038736 9:-1.4667826 10:-0.22321779 11:1.1204915 12:-0.29636248 13:0.62489494 14:1.0275077 15:-2.5955553 16:1.0686531 17:0.43503872 18:-2.1313945 19:4.4107924 20:4.6503447 21:4.5984233 22:1 23:4.482888 
0.005286590423141853 1:0 2:5.7466383 3:17.902136 4:9.8745025 5:10.955 6:6.415786 7:6.3548158 8:6.4985414 9:-1.4667826 10:-0.2582836 11:1.0456376 12:-0.77569524 13:2.0008195 14:-0.80342222 15:-0.76058787 16:-1.8551397 17:0.50762855 18:-0.55784943 19:30.372562 20:2.4284669 21:42.838761 22:5 23:12.132241 
0.33083754659146 1:0 2:-2.0807649 3:3.7199244 4:2.528836 5:3.445129 6:3.2253272 7:3.5559439 8:-0.96446913 9:-1.4667826 10:3.6194702 11:-1.1031457 12:-0.4192568 13:-1.4680358 14:-0.96445635 15:0.36586596 16:-2.3856452 17:0.28855464 18:-2.4431111 19:4.4107924 20:7.9237981 21:11.534161 22:0 23:8.8985013 
0.774263682681127 1:0 2:-0.45613991 3:0.88348205 4:-0.40943059 5:3.2736858 6:0.034868402 7:0.75707192 8:0.49654285 9:-0.18377756 10:-0.3347301 11:1.1125095 12:-0.51204334 13:-1.4356245 14:0.61651929 15:1.2037287 16:-0.88950948 17:0.67162013 18:0.55722466 19:-0.30952929 20:-0.28527674 21:-0.27534751 22:0 23:-0.29385398 
0.001084305849554297 1:0 2:0.90395535 3:13.647473 4:6.9362359 5:2.5616853 6:5.3522997 7:3.5559439 8:0.51793213 9:-1.4667826 10:3.6196435 11:-1.0341503 12:-0.36009444 13:0.56569934 14:-0.88530828 15:-1.1324633 16:-1.6965237 17:0.52304306 18:0.31413983 19:20.931918 20:2.8864112 21:44.400865 22:2 23:9.5550983 
-0.774263682681127 1:0 2:-2.1830492 3:2.3017032 4:2.528836 5:2.0684169 6:-1.0286179 7:-0.64236405 8:-0.33267918 9:-0.32533394 10:-0.19463678 11:0.83195887 12:0.40400173 13:1.2270804 14:0.73792354 15:1.8563216 16:0.25787449 17:-0.87957778 18:0.56213751 19:-0.30952929 20:-0.28527674 21:-0.27534751 22:0 23:-0.29385398 
-0.002284163702996106 1:0 2:-1.9086892 3:-0.53473914 4:-0.40943059 5:5.5372248 6:0.034868402 7:0.75707192 8:-1.3395944 9:-1.4667826 10:3.5883604 11:-1.3275247 12:-0.23728994 13:-1.6201522 14:-0.81494484 15:-2.6750198 16:-1.8613752 17:0.12104526 18:-2.288428 19:4.4107924 20:9.1110606 21:13.408691 22:0 23:9.8177368 
-0.774263682681127 1:0 2:-0.50910453 3:3.7199244 4:-0.40943059 5:2.948815 6:1.0983547 7:0.75707192 8:-1.1026724 9:-0.32533394 10:-0.26307056 11:-3.0382504 12:-1.1400148 13:1.2041126 14:-0.62655614 15:1.8563216 16:0.25787449 17:-0.87957778 18:0.56213751 19:-0.30952929 20:-0.28527674 21:-0.27534751 22:0 23:-0.29385398 
-0.1368415399166671 1:0 2:-1.9073555 3:0.88348205 4:1.0597027 5:9.5506579 6:5.3522997 7:2.1565079 8:-0.41165206 9:-1.4667826 10:-4.0714639 11:-1.240825 12:-0.39089303 13:-1.0019183 14:-0.7368897 15:0.34781915 16:-1.7838398 17:0.56020769 18:-1.9076357 19:6.7709533 20:4.8199535 21:9.8470862 22:0 23:7.5196485 
0.1482821885380604 1:0 2:-2.6657667 3:-0.53473914 4:-0.40943059 5:1.0421097 6:1.0983547 7:0.75707192 8:-1.7784831 9:-1.4667826 10:-0.15634347 11:-0.76283492 12:-1.9116299 13:-1.6201522 14:-0.052906325 15:-0.15775491 16:0.36367395 17:-0.52814739 18:-0.52645475 19:-0.30952929 20:-0.28527674 21:-0.27534751 22:1 23:4.7619414 
0.004482393400645768 1:0 2:5.4519252 3:7.974588 4:6.9362359 5:2.7389938 6:3.2253272 7:3.5559439 8:5.7877765 9:-1.4667826 10:-4.0780923 11:-1.1031457 12:-0.32969695 13:-0.34431381 14:-0.80374032 15:-0.15868029 16:5.3265998 17:-2.2841996 18:-1.0441392 19:18.571758 20:2.0214054 21:45.088156 22:2 23:12.641104 
0.774263682681127 1:0 2:-0.20708359 3:0.88348205 4:1.0597027 5:0.070658955 6:-1.0286179 7:-0.64236405 8:0.077876236 9:-1.4667826 10:-0.21488928 11:1.1204118 12:-0.44067408 13:-0.3422814 14:-0.18140893 15:-0.19498339 16:-0.89034684 17:0.149106 18:0.53633503 19:2.0506316 20:3.2934725 21:5.3557071 22:0 23:3.1696941 
0.0618635979860323 1:0 2:4.2143583 3:6.5563668 4:3.9979693 5:4.4689343 6:0.034868402 7:0.75707192 8:0.79269388 9:-1.4667826 10:3.6215428 11:-1.1031457 12:-0.36800655 13:2.7930099 14:-0.80011696 15:-0.95103325 16:1.2368704 17:-0.66148671 18:0.59412762 19:2.0506316 20:4.7351491 21:1.7866372 22:2 23:10.113206 
-0.774263682681127 1:0 2:0.30953071 3:7.974588 4:3.9979693 5:-0.34765882 6:2.1618409 7:2.1565079 8:-0.60908866 9:-1.4667826 10:-0.092571695 11:1.1184923 12:-0.28764834 13:0.3340289 14:-0.96445635 15:-2.4451636 16:-0.63942725 17:1.4051688 18:-2.3619522 19:4.4107924 20:6.0072164 21:6.6603904 22:1 23:5.8781561 
0.006558874669509662 1:0 2:1.8934884 3:16.483915 4:14.281902 5:12.490127 6:8.5427585 7:9.1536878 8:5.0671427 9:-1.4667826 10:-0.022585495 11:1.0260275 12:-0.81596935 13:0.71272596 14:-0.83395638 15:0.95242076 16:-1.4589576 17:1.0436102 18:-1.9630027 19:44.533527 20:2.4284669 21:70.956634 22:8 23:10.490749 
0.774263682681127 1:0 2:0.04805883 3:0.88348205 4:-0.40943059 5:-2.6071686 6:-1.0286179 7:-0.64236405 8:-2.5439427 9:0.63443132 10:0.29712353 11:0.53775642 12:0.66585208 13:1.1308148 14:-0.38709825 15:-1.9632731 16:0.065612735 17:-0.75637099 18:-0.41782178 19:-0.30952929 20:-0.28527674 21:-0.27534751 22:0 23:-0.29385398 
0.003249142278608674 1:0 2:1.6877851 3:20.738579 4:9.8745025 5:5.2513676 6:7.4792723 7:7.7542518 8:6.9636103 9:-1.4667826 10:-0.23916782 11:1.0990662 12:-0.14034758 13:2.6231768 14:-0.42262936 15:-1.9340241 16:-0.0091587403 17:-0.51223085 18:-2.0309805 19:37.453044 20:2.1231707 21:74.905624 22:2 23:11.163761 
0.09956731998791925 1:0 2:3.3167205 3:7.974588 4:5.4671026 5:2.8575028 6:3.2253272 7:2.1565079 8:2.8854959 9:-1.4667826 10:3.6003888 11:-1.0329688 12:-0.52395214 13:0.85177052 14:-0.80659857 15:-0.58360413 16:-0.98567059 17:1.5116824 18:0.49438403 19:4.4107924 20:4.3450484 21:5.1607701 22:0 23:5.5826874 
0.2372320762301038 1:0 2:-2.2106877 3:2.3017032 4:1.0597027 5:-0.65045819 6:4.2888135 7:3.5559439 8:-0.33267842 9:-1.4667826 10:-0.18913586 11:1.049245 12:-0.76606464 13:-0.88527333 14:1.9261316 15:0.38391482 16:0.047527574 17:-0.60675449 18:0.55575159 19:2.0506316 20:1.3090477 21:0.66191568 22:2 23:2.7921511 
0.01745187695407165 1:0 2:7.4127031 3:17.902136 4:9.8745025 5:9.9273149 6:7.4792723 7:10.553124 8:13.922067 9:-1.4667826 10:3.5891111 11:-0.88853286 12:-0.23289485 13:-1.4315025 14:-0.62596175 15:-0.62456651 16:6.1672723 17:-1.0614906 18:-1.2519939 19:39.813205 20:1.3090477 21:80.891634 22:4 23:9.9326415 
0.774263682681127 1:0 2:-2.3232217 3:2.3017032 4:1.0597027 5:0.67106956 6:1.0983547 7:0.75707192 8:-1.5962584 9:-0.72603929 10:-0.22885367 11:-3.3291272 12:-0.36800655 13:0.072212332 14:1.4535408 15:-0.62878769 16:0.96838602 17:-0.63062938 18:0.097340196 19:-0.30952929 20:-0.28527674 21:-0.27534751 22:0 23:-0.29385398 
0.007049129332327193 1:0 2:6.3119283 3:22.1568 4:11.343636 5:12.134019 6:5.3522997 7:3.5559439 8:9.3021109 9:-1.4667826 10:-0.4067167 11:-3.3152144 12:-0.20924101 13:3.6717416 14:1.1660175 15:-2.9261367 16:1.323223 17:0.073893088 18:0.49516373 19:32.732723 20:2.598076 21:65.520486 22:6 23:6.1900397 
0.0167518069910043 1:0 2:8.7619751 3:26.411464 4:9.8745025 5:6.1081827 6:3.2253272 7:3.5559439 8:5.2941935 9:-1.4667826 10:3.6190828 11:-1.1769038 12:-0.38893172 13:4.0497543 14:-0.27468881 15:-4.0656447 16:1.6156637 17:0.2317471 18:0.50045452 19:13.851436 20:4.3450484 21:20.906793 22:2 23:8.7671821 
0.08190008537740454 1:0 2:4.992531 3:6.5563668 4:3.9979693 5:-0.08312785 6:3.2253272 7:3.5559439 8:2.4906284 9:-1.4667826 10:-0.097409243 11:1.105171 12:-0.17896049 13:1.062107 14:-0.96445635 15:1.2502894 16:-0.35514219 17:1.1635347 18:-2.3667517 19:4.4107924 20:4.0227912 21:5.3482425 22:1 23:5.6319321 
0.01104215141209859 1:0 2:3.4030313 3:7.974588 4:2.528836 5:-0.017309403 6:1.0983547 7:0.75707192 8:-1.7705214 9:-1.4667826 10:-4.0753434 11:-1.021681 12:-0.40900637 13:1.8330016 14:-0.96445635 15:-1.7262725 16:3.3201859 17:-2.7700089 18:-0.16985546 19:2.0506316 20:8.6361559 21:2.7651095 22:2 23:9.2432147 
0.008038586620435908 1:0 2:4.0021425 3:10.81103 4:6.9362359 5:2.6533885 6:4.2888135 7:4.9553799 8:5.8667548 9:-1.4667826 10:3.6121128 11:-1.1031457 12:-0.47728022 13:0.17357346 14:4.4660106 15:-1.6396805 16:3.2877961 17:-3.1628107 18:0.44766443 19:6.7709533 20:4.6673055 21:8.1600108 22:0 23:4.9589207 
-0.6250766864894544 1:0 2:2.6811945 3:6.5563668 4:2.528836 5:-0.94310914 6:-1.0286179 7:-0.64236405 8:-0.72754873 9:-0.62872719 10:-0.14670072 11:-1.5404597 12:1.163454 13:-0.81871142 14:1.0908492 15:0.63008217 16:5.6690589 17:-0.89048822 18:-1.3907567 19:-0.30952929 20:-0.28527674 21:-0.27534751 22:0 23:-0.29385398 
0.01424526295087448 1:0 2:3.4377414 3:20.738579 4:15.751036 5:10.929797 6:5.3522997 7:3.5559439 8:8.7690347 9:-1.4667826 10:3.6135755 11:-1.1722087 12:-0.45598591 13:1.2241916 14:2.8466255 15:-1.2665357 16:5.4981911 17:-2.2672013 18:0.46275508 19:18.571758 20:4.599462 21:29.529625 22:3 23:6.4855084 
0.03740757408930635 1:0 2:0.33094677 3:15.065694 4:3.9979693 5:2.9981287 6:1.0983547 7:0.75707192 8:-0.92498153 9:0.92588509 10:0.36006386 11:-1.200394 12:1.174371 13:2.6551574 14:1.1003069 15:0.35005537 16:2.8964469 17:-0.70436456 18:0.59620645 19:2.0506316 20:9.8234184 21:4.9733152 22:0 23:9.4894387 
0.4730378398765991 1:0 2:-1.2534774 3:2.3017032 4:-0.40943059 5:-2.5300574 6:0.034868402 7:-0.64236405 8:-2.4386444 9:0.68690017 10:-1.0321147 11:-1.5445677 12:-1.8641626 13:1.970081 14:-0.27089772 15:0.62468519 16:2.6899897 17:-1.3802499 18:0.44925297 19:-0.30952929 20:-0.28527674 21:-0.27534751 22:0 23:-0.29385398 
-0.02274925354556911 1:0 2:-0.23209676 3:7.974588 4:5.4671026 5:3.1931152 6:3.2253272 7:0.75707192 8:0.5053186 9:-1.4667826 10:-0.239133 11:1.0990671 12:-0.14035172 13:2.9226091 14:2.337541 15:-6.4146134 16:2.5017774 17:-0.42327193 18:0.2031375 19:2.0506316 20:9.1789041 21:6.123033 22:0 23:8.8656715 
0.002128946728191504 1:0 2:5.52257 3:22.1568 4:9.8745025 5:7.6127804 6:7.4792723 7:7.7542518 8:4.6049298 9:-1.4667826 10:-0.156345 11:-0.76262214 12:-1.9116067 13:2.2465559 14:-0.58912367 15:-0.2821938 16:-0.4452222 17:0.035756201 18:-0.093039209 19:25.65224 20:2.2588579 21:36.515341 22:1 23:4.0232703 
0.02575517224595503 1:0 2:1.7284754 3:2.3017032 4:-0.40943059 5:-1.5493248 6:-1.0286179 7:-0.64236405 8:-1.6752328 9:0.90417485 10:-0.1329277 11:0.48192875 12:0.72817068 13:-1.5031689 14:-0.96445635 15:0.10016271 16:4.3914977 17:-1.5889367 18:-1.0412783 19:-0.30952929 20:-0.28527674 21:-0.27534751 22:0 23:-0.29385398 
-0.774263682681127 1:0 2:0.86886126 3:-0.53473914 4:-0.40943059 5:-0.48326441 6:0.034868402 7:0.75707192 8:0.91115395 9:-0.28159329 10:-0.48873195 11:-1.3772288 12:-1.9147977 13:0.058187296 14:-0.96445635 15:0.31482942 16:-0.35128443 17:1.0826398 18:-1.5081293 19:-0.30952929 20:-0.28527674 21:-0.27534751 22:0 23:-0.29385398 
0.774263682681127 1:0 2:-2.2403056 3:0.88348205 4:1.0597027 5:1.3739081 6:1.0983547 7:2.1565079 8:-0.013495989 9:-1.4667826 10:-0.10787704 11:-3.2758114 12:-0.031692919 13:-1.6201522 14:-0.13554157 15:-0.41238913 16:-0.7921407 17:1.019385 18:-0.73530316 19:4.4107924 20:2.7507239 21:1.7866302 22:0 23:3.6128973 
0.01279118845604196 1:0 2:2.9255004 3:13.647473 4:8.4053692 5:14.406492 6:2.1618409 7:2.1565079 8:4.8598387 9:-1.4667826 10:3.6215428 11:-1.1031457 12:-0.36800655 13:3.926984 14:-0.40680659 15:-0.082397182 16:1.4018765 17:0.91270224 18:-0.40456906 19:23.292079 20:1.6313047 21:32.903741 22:5 23:5.8124965 
0.3858158590530944 1:0 2:-0.40582392 3:3.7199244 4:3.9979693 5:2.0351384 6:1.0983547 7:0.75707192 8:-1.240878 9:-1.4667826 10:-0.74037726 11:1.1013179 12:-0.30569412 13:1.2343133 14:-0.96445635 15:-1.6602208 16:-1.0777345 17:1.2541195 18:0.43534506 19:6.7709533 20:4.7351491 21:8.3474658 22:0 23:6.0423052 
0.03201177693661303 1:0 2:-2.5544458 3:-0.53473914 4:-1.8785639 5:-0.74225285 6:-1.0286179 7:-2.0418 8:-2.5834296 9:6.1835812 10:-0.22885367 11:-1.1031457 12:-0.36800655 13:-1.6201522 14:-0.96445635 15:1.2205588 16:2.2285898 17:1.4374225 18:3.73352 19:-0.30952929 20:-0.28527674 21:-0.27534751 22:0 23:-0.29385398 
0.007308502855134303 1:0 2:4.0337721 3:7.974588 4:6.9362359 5:6.2623598 6:8.5427585 7:6.3548158 8:6.8736699 9:-1.4667826 10:-0.22885367 11:1.1228357 12:-0.36800655 13:1.7346022 14:-0.96445635 15:-0.62878769 16:-0.33241091 17:2.0578345 18:0.56013024 19:20.931918 20:2.7507239 21:48.462315 22:3 23:8.1270004 
0.01513276802202516 1:0 2:6.1539895 3:22.1568 4:8.4053692 5:4.5928623 6:5.3522997 7:6.3548158 8:6.083926 9:-1.4667826 10:3.620376 11:-1.1031457 12:-0.40646674 13:-0.50433663 14:1.7254009 15:0.037717343 16:5.9767464 17:-1.5046303 18:0.08374807 19:28.012401 20:4.3450484 21:72.081326 22:5 23:12.641104 
-0.0123902099052346 1:0 2:-1.7543229 3:2.3017032 4:2.528836 5:-0.89436892 6:0.034868402 7:0.75707192 8:-1.3198508 9:-1.4667826 10:-4.0714848 11:-1.0168153 12:-0.44651327 13:-0.18231725 14:1.3182619 15:0.35067365 16:0.58072007 17:-0.57704973 18:-0.34595324 19:2.0506316 20:4.5146572 21:1.9740743 22:0 23:4.3515684 
0.01337158484097428 1:0 2:3.6802649 3:17.902136 4:11.343636 5:11.182814 6:11.733217 7:7.7542518 8:7.6359867 9:-1.4667826 10:-4.0792502 11:-1.1031457 12:-0.36800655 13:1.9239625 14:-0.0058768057 15:-0.68102946 16:-0.54856261 17:0.33549481 18:-1.4068509 19:44.533527 20:2.2079753 21:58.161663 22:4 23:4.8111861 
0.00887688460730264 1:0 2:-2.4347757 3:0.88348205 4:1.0597027 5:8.4608937 6:6.415786 7:2.1565079 8:-0.080952572 9:-1.4667826 10:3.5933782 11:-1.2600391 12:-0.52114158 13:-1.4623763 14:2.6179759 15:-1.1286353 16:4.2904827 17:-0.84072327 18:0.54769817 19:9.1311141 20:5.0574062 21:30.998 22:2 23:11.26225 
0.008489212796690066 1:0 2:2.8205336 3:24.993242 4:6.9362359 5:4.977301 6:6.415786 7:4.9553799 8:1.7996081 9:-1.4667826 10:3.620376 11:-1.1031457 12:-0.40646674 13:-0.50433663 14:-0.84705317 15:0.037717343 16:5.9767464 17:-1.5046303 18:0.08374807 19:18.571758 20:4.3450484 21:41.714007 22:4 23:12.641104 
0.0115459249463901 1:0 2:7.4701477 3:23.575021 4:11.343636 5:9.6806925 6:5.3522997 7:6.3548158 8:10.466966 9:-1.4667826 10:-0.74041656 11:1.1013157 12:-0.30571033 13:2.43053 14:-0.96445635 15:-0.9603311 16:-0.52861168 17:1.590695 18:0.61268368 19:37.453044 20:3.0899419 21:74.143285 22:3 23:17.959537 
-0.546008803084692 1:0 2:-0.61425126 3:10.81103 4:1.0597027 5:-1.0107638 6:3.2253272 7:0.75707192 8:-1.7690128 9:-1.4667826 10:-0.10013401 11:1.0887866 12:-0.63515416 13:-1.3511084 14:0.81619652 15:0.14953866 16:5.0576686 17:-0.65138251 18:-0.066148614 19:2.0506316 20:5.7867245 21:2.3021334 22:0 23:5.5826874 
0.01714082311370138 1:0 2:8.905221 3:29.247906 4:14.281902 5:7.451921 6:6.415786 7:7.7542518 8:8.7098053 9:-1.4667826 10:-0.37391905 11:-3.3245028 12:-0.28635986 13:2.3753984 14:-0.84626982 15:-0.81234665 16:-0.17225827 17:-0.10538946 18:-1.405482 19:23.292079 20:0.51188546 21:41.526586 22:4 23:8.7671821 
-0.774263682681127 1:0 2:1.7170614 3:-0.53473914 4:-0.40943059 5:-0.30807998 6:0.034868402 7:0.75707192 8:0.59526166 9:-1.4667826 10:-0.36078375 11:1.0515057 12:-0.75665598 13:-0.38559412 14:-0.71212479 15:1.511393 16:-0.95453716 17:0.76287502 18:-0.40147478 19:4.4107924 20:5.5662331 21:3.6611654 22:0 23:5.3692937 
0.01063702293019044 1:0 2:4.0951181 3:19.320358 4:9.8745025 5:13.132426 6:2.1618409 7:2.1565079 8:7.0908446 9:-1.4667826 10:3.6190353 11:-1.1031457 12:-0.31163118 13:0.55673735 14:-0.96445635 15:-0.43593478 16:-1.9748536 17:0.089551499 18:-0.88258921 19:20.931918 20:2.7507239 21:45.650547 22:0 23:13.576754 
-0.774263682681127 1:0 2:0.61727028 3:3.7199244 4:3.9979693 5:-0.17262336 6:-1.0286179 7:-0.64236405 8:0.021194449 9:-0.026706514 10:-1.1731922 11:1.022236 12:-0.63032422 13:-0.071658005 14:-0.88998101 15:0.079663953 16:-0.69557703 17:0.35798023 18:-1.2390885 19:-0.30952929 20:-0.28527674 21:-0.27534751 22:0 23:-0.29385398 
-0.774263682681127 1:0 2:1.1454187 3:0.88348205 4:1.0597027 5:0.97114898 6:0.034868402 7:0.75707192 8:1.0669092 9:0.013055698 10:0.89520276 11:0.30733548 12:-1.4872604 13:-0.85287401 14:1.3142589 15:-0.20818723 16:0.71940538 17:1.7347746 18:0.61471234 19:-0.30952929 20:-0.28527674 21:-0.27534751 22:0 23:-0.29385398 
0.774263682681127 1:0 2:1.6541685 3:0.88348205 4:-0.40943059 5:-0.45708715 6:1.0983547 7:0.75707192 8:1.5429453 9:-0.32533394 10:-0.12662194 11:0.46704749 12:-1.4745901 13:-0.53857078 14:-0.17578727 15:1.3301103 16:-0.58085501 17:1.1879922 18:0.35057204 19:-0.30952929 20:-0.28527674 21:-0.27534751 22:0 23:-0.29385398 
-0.774263682681127 1:0 2:0.027693385 3:0.88348205 4:1.0597027 5:0.90221018 6:-1.0286179 7:-0.64236405 8:0.042443234 9:-0.72603929 10:-0.2490231 11:1.1027367 12:-0.57731346 13:0.022145678 14:-0.68091644 15:0.056891296 16:-0.79964068 17:0.95754618 18:-0.28116602 19:-0.30952929 20:-0.28527674 21:-0.27534751 22:0 23:-0.29385398 
0.03813388659035831 1:0 2:3.040514 3:12.229252 4:2.528836 5:-0.36256479 6:5.3522997 7:3.5559439 8:2.0028935 9:-1.4667826 10:-0.29738159 11:-1.424304 12:1.1776666 13:1.4232998 14:1.3406875 15:-6.4006485 16:3.7664405 17:-0.48563018 18:-0.578944 19:-0.30952929 20:-0.28527674 21:-0.27534751 22:1 23:1.1342441 
0.008309990539570516 1:0 2:8.4155952 3:22.1568 4:3.9979693 5:2.8671416 6:5.3522997 7:3.5559439 8:1.1283328 9:-1.4667826 10:3.620385 11:-1.1031457 12:-0.40631615 13:-1.0140367 14:-0.78228816 15:-0.15868029 16:5.3265998 17:-2.2841996 18:-1.0441392 19:20.931918 20:2.0214054 21:44.150896 22:5 23:12.641104 
0.06677855706458073 1:0 2:2.1195479 3:7.974588 4:6.9362359 5:3.4545595 6:1.0983547 7:0.75707192 8:1.4639718 9:-1.4667826 10:-0.12672093 11:1.0562413 12:-0.74501272 13:0.90606849 14:-0.79478062 15:-3.6265792 16:-1.11897 17:0.93104409 18:-1.4849151 19:2.0506316 20:3.7005341 21:1.8334876 22:1 23:3.5636522 
-0.1311162695746863 1:0 2:3.5509486 3:3.7199244 4:3.9979693 5:2.0930522 6:0.034868402 7:0.75707192 8:4.5044583 9:-1.4667826 10:-4.0669308 11:-1.2597074 12:-0.42732959 13:3.0773772 14:2.694359 15:-10.767931 16:2.6466126 17:-0.57335871 18:-2.4212907 19:2.0506316 20:5.3966239 21:2.1615291 22:0 23:5.2051442 
0.01906936863315081 1:0 2:11.191004 3:12.229252 4:6.9362359 5:11.786809 6:8.5427585 7:10.553124 8:12.044102 9:-1.4667826 10:3.6093664 11:-1.0227631 12:-0.25741911 13:1.2088253 14:-0.39319158 15:-0.56188443 16:-1.2472774 17:0.51440249 18:-2.0528222 19:23.292079 20:3.768378 21:59.150349 22:6 23:12.460539 
0.00348495150131288 1:0 2:5.5275345 3:10.81103 4:6.9362359 5:10.969107 6:8.5427585 7:9.1536878 8:4.6624038 9:-1.4667826 10:3.6019156 11:-1.1031457 12:-0.52554787 13:0.73371709 14:-0.79628584 15:-1.7305878 16:-1.4319418 17:-0.18149695 18:-0.43863764 19:11.491275 20:2.4284669 21:20.156976 22:3 23:13.2977 
0.001572865577356367 1:0 2:3.7690025 3:15.065694 4:11.343636 5:10.195797 6:8.5427585 7:7.7542518 8:4.0306147 9:-1.4667826 10:-4.076741 11:-1.0261126 12:-0.35198018 13:0.46951775 14:-0.79601075 15:-4.5574634 16:-1.8576276 17:0.012379783 18:0.40165628 19:23.292079 20:0.51188546 21:43.775996 22:2 23:8.0449255 
0.006526304658460907 1:0 2:4.2025265 3:12.229252 4:9.8745025 5:10.810711 6:5.3522997 7:6.3548158 8:8.3149433 9:-1.4667826 10:-0.6360183 11:-3.3040081 12:-0.53377972 13:0.91736577 14:-0.46783434 15:-0.15280095 16:-1.6772232 17:0.88087933 18:0.63228285 19:23.292079 20:0.51188546 21:43.776007 22:7 23:13.905052 
0.005280655755313533 1:0 2:6.2176622 3:20.738579 4:11.343636 5:2.4781845 6:7.4792723 7:4.9553799 8:2.6880618 9:-1.4667826 10:3.61947 11:-1.1031457 12:-0.41925808 13:1.2991423 14:-0.80386166 15:-0.69861817 16:-1.6915402 17:-0.26078283 18:-2.4377086 19:30.372562 20:4.0227912 21:57.272594 22:5 23:8.7507676 
-0.197093902706383 1:0 2:1.1180385 3:-0.53473914 4:-0.40943059 5:1.4640693 6:-1.0286179 7:-0.64236405 8:1.858837 9:0.18534001 10:0.63934052 11:0.24052492 12:-1.5626959 13:-1.0603009 14:1.3341751 15:-0.63522781 16:-0.28318363 17:1.4532856 18:-0.65372274 19:-0.30952929 20:-0.28527674 21:-0.27534751 22:0 23:-0.29385398 
0.000879200977490809 1:0 2:3.1723506 3:12.229252 4:5.4671026 5:5.5920903 6:1.0983547 7:0.75707192 8:-0.51036998 9:-1.4667826 10:3.6174646 11:-1.1715244 12:-0.3144869 13:-0.77723379 14:-0.79454755 15:-0.30449899 16:5.9363282 17:-1.6761773 18:-1.1877416 19:9.1311141 20:8.1612504 21:25.405637 22:3 23:9.5222685 
0.008209395290919365 1:0 2:1.4998664 3:6.5563668 4:1.0597027 5:2.0739913 6:3.2253272 7:0.75707192 8:-0.16908546 9:-1.4667826 10:3.595905 11:-1.1031457 12:-0.54798998 13:0.51331843 14:-0.71054593 15:-0.76495216 16:-2.1103968 17:0.23893818 18:-0.62287589 19:6.7709533 20:4.3280875 21:21.227512 22:2 23:7.8151168 
0.009453638757669457 1:0 2:2.6902354 3:16.483915 4:3.9979693 5:7.9490224 6:7.4792723 7:7.7542518 8:2.7544584 9:-1.4667826 10:-0.63711652 11:0.98441959 12:-0.88439448 13:0.99503545 14:-0.83110044 15:-0.86371244 16:-1.61046 17:1.2150026 18:-0.75696788 19:32.732723 20:0.54580727 21:64.473245 22:3 23:5.8124965 
-0.3816788408999635 1:0 2:1.6304149 3:5.1381456 4:3.9979693 5:2.9197617 6:2.1618409 7:2.1565079 8:1.4147521 9:-1.4667826 10:3.6215428 11:-1.1031457 12:-0.36800655 13:-0.0071627634 14:3.0044692 15:-1.4416935 16:2.1391844 17:-2.2703054 18:-1.2362981 19:4.4107924 20:4.7012273 21:5.7101064 22:0 23:6.1572099 
0.1881375183736013 1:0 2:-0.82406222 3:6.5563668 4:1.0597027 5:-2.2316822 6:1.0983547 7:2.1565079 8:-1.2147605 9:-1.4667826 10:3.610546 11:-1.1031457 12:-0.25001744 13:-0.6034678 14:-0.51096702 15:-2.1538493 16:-0.97342712 17:0.88952138 18:-2.4006899 19:4.4107924 20:5.3966239 21:4.7781645 22:1 23:5.2051442 
0.774263682681127 1:0 2:1.2881229 3:0.88348205 4:1.0597027 5:0.55064817 6:1.0983547 7:2.1565079 8:0.16836425 9:0.013055698 10:0.89520276 11:0.30733548 12:-1.4872604 13:-0.85287401 14:1.362143 15:-0.20818723 16:0.71940538 17:1.7347746 18:0.61471234 19:-0.30952929 20:-0.28527674 21:-0.27534751 22:0 23:-0.29385398 
0.774263682681127 1:0 2:0.33793696 3:2.3017032 4:-0.40943059 5:-1.5331164 6:0.034868402 7:-0.64236405 8:-0.18730979 9:0.65350716 10:0.23097852 11:-0.52956971 12:1.1299331 13:1.9826745 14:-0.4691706 15:-0.54258846 16:0.56516344 17:-0.91513022 18:0.61354528 19:-0.30952929 20:-0.28527674 21:-0.27534751 22:0 23:-0.29385398 
-0.774263682681127 1:0 2:0.39369038 3:-0.53473914 4:-0.40943059 5:0.57845201 6:1.0983547 7:0.75707192 8:0.77295321 9:0.18534001 10:0.67055365 11:0.03056504 12:0.92598356 13:-0.05323637 14:3.6223357 15:-0.31619197 16:1.8663622 17:-2.2341132 18:0.48625074 19:-0.30952929 20:-0.28527674 21:-0.27534751 22:0 23:-0.29385398 
-0.774263682681127 1:0 2:0.3150766 3:-0.53473914 4:-0.40943059 5:0.28216671 6:0.034868402 7:0.75707192 8:-0.18131296 9:0.25873151 10:-0.63426035 11:-0.52773655 12:1.1321729 13:0.89597488 14:2.4757532 15:0.28974958 16:1.9635228 17:-1.8442205 18:0.21341013 19:-0.30952929 20:-0.28527674 21:-0.27534751 22:0 23:-0.29385398 
0.1152038433837953 1:0 2:-0.20051458 3:6.5563668 4:2.528836 5:2.0352254 6:3.2253272 7:-0.64236405 8:0.29910998 9:-1.4667826 10:-0.58025523 11:1.0871701 12:-0.60728953 13:0.40162887 14:-0.96445635 15:-1.1593252 16:-1.4710671 17:0.42145564 18:0.48377938 19:2.0506316 20:10.671463 21:6.6603902 22:0 23:10.310185 
0.7364197895590274 1:0 2:-1.5202741 3:3.7199244 4:1.0597027 5:-2.5071841 6:0.034868402 7:0.75707192 8:-1.9911267 9:-1.4667826 10:3.6124514 11:-1.248748 12:-0.33529964 13:-1.6201522 14:-0.82210959 15:-3.4151019 16:-2.0202476 17:0.42709468 18:-1.0655379 19:4.4107924 20:4.9047579 21:7.222737 22:1 23:8.5045436 
0.01516542658949248 1:0 2:9.3187638 3:24.993242 4:12.812769 5:3.012205 6:7.4792723 7:7.7542518 8:9.7715632 9:-1.4667826 10:-0.30256347 11:-1.4428611 12:1.1756718 13:2.2181269 14:-0.47586816 15:-2.2378418 16:-0.4226007 17:0.70610497 18:-1.2353822 19:44.533527 20:1.1903214 21:70.81777 22:4 23:12.066581 
0.52832146531072 1:0 2:0.3353617 3:2.3017032 4:-0.40943059 5:-2.2021709 6:0.034868402 7:0.75707192 8:0.16090448 9:0.20589038 10:0.55031241 11:1.0751126 12:-0.3081288 13:0.33014205 14:-0.71559974 15:0.32105509 16:-0.58666382 17:0.16723234 18:0.14818556 19:-0.30952929 20:-0.28527674 21:-0.27534751 22:0 23:-0.29385398 
-0.774263682681127 1:0 2:1.083813 3:5.1381456 4:2.528836 5:-0.25197618 6:2.1618409 7:0.75707192 8:-0.98421243 9:-1.4667826 10:-0.58025523 11:1.0871701 12:-0.60728953 13:-0.22763337 14:-0.96445635 15:-1.1593252 16:-1.4710671 17:0.42145564 18:0.48377938 19:4.4107924 20:6.2446687 21:10.40945 22:1 23:6.0258903 
0.006386738953058137 1:0 2:4.9724102 3:16.483915 4:6.9362359 5:6.6764167 6:6.415786 7:6.3548158 8:7.4264793 9:-1.4667826 10:-4.0714639 11:-1.240825 12:-0.39089303 13:0.14123347 14:-0.7368897 15:0.34781915 16:-1.7838398 17:0.56020769 18:-1.9076357 19:28.012401 20:3.9379868 21:66.645215 22:8 23:10.014716 
0.01384196816912973 1:0 2:1.9794663 3:6.5563668 4:2.528836 5:-1.4799984 6:3.2253272 7:2.1565079 8:-1.0631871 9:-1.4667826 10:-0.264205 11:1.1095126 12:-0.53807422 13:0.61538999 14:0.53275599 15:-0.89172897 16:-1.4356411 17:1.1424355 18:-0.60440487 19:13.851436 20:2.4284669 21:23.343672 22:3 23:10.031131 
0.00564901824711498 1:0 2:0.60503275 3:16.483915 4:12.812769 5:8.5748526 6:6.415786 7:6.3548158 8:5.0095591 9:-1.4667826 10:3.6196435 11:-1.0341503 12:-0.36009444 13:0.25122434 14:-0.88530828 15:-1.1324633 16:-1.6965237 17:0.52304306 18:-1.3090022 19:32.732723 20:2.8864112 21:74.861912 22:3 23:10.014716 
0.774263682681127 1:0 2:0.76333396 3:-0.53473914 4:-0.40943059 5:3.5784363 6:0.034868402 7:0.75707192 8:1.0888468 9:-0.10110799 10:1.1825983 11:0.30552295 12:0.6974902 13:-0.06517789 14:0.14481353 15:-1.135542 16:-0.30293964 17:-0.011084973 18:0.25132723 19:-0.30952929 20:-0.28527674 21:-0.27534751 22:0 23:-0.29385398 
0.01023373898585067 1:0 2:7.0578008 3:22.1568 4:14.281902 5:13.359318 6:6.415786 7:4.9553799 8:10.881586 9:-1.4667826 10:-4.0716408 11:-1.0290797 12:-0.45128375 13:0.23176873 14:-0.82233094 15:0.40157548 16:-1.7263732 17:0.87565643 18:-2.181971 19:39.813205 20:1.2242431 21:77.142552 22:4 23:8.5045436 
0.002955642030943873 1:0 2:6.4200933 3:10.81103 4:9.8745025 5:3.719776 6:5.3522997 7:7.7542518 8:6.0839345 9:-1.4667826 10:-0.20030182 11:1.0788697 12:-0.67675751 13:0.29399542 14:-0.77990135 15:0.73432353 16:-1.4331572 17:0.4935327 18:-0.97849387 19:16.211597 20:2.7507239 21:34.965742 22:0 23:10.901122 
-0.774263682681127 1:0 2:-2.0150114 3:3.7199244 4:1.0597027 5:0.86515884 6:1.0983547 7:0.75707192 8:-1.6554891 9:-1.4667826 10:-0.10163406 11:1.1187129 12:-0.28820383 13:-1.4292906 14:1.0449481 15:1.1293742 16:1.5052045 17:-0.63591143 18:0.55389576 19:4.4107924 20:4.0227912 21:4.7858604 22:0 23:4.8111861 
