svm_type epsilon_svr
kernel_type rbf
gamma 0.00936711
nr_class 2
total_sv 170
rho -0.858041
SV
0.3867569639612925 1:0 2:0.46577124 3:1.6690459 4:0.45226702 5:1.9939374 6:-0.24494897 7:0.19403763 8:0.37853907 9:-0.87010675 10:-1.157851 11:-0.73165243 12:-0.14055038 13:1.8603833 14:-0.15099943 15:-0.32632251 16:-0.52316274 17:-0.75725822 18:-0.44761628 19:3.2824377 20:3.3827064 21:6.0530084 22:4.5982427 23:3.4560985 
0.774263682681127 1:0 2:-1.0114506 3:1.6690459 4:3.1156172 5:0.59874097 6:1.918767 7:2.2508365 8:2.9628923 9:-0.87010675 10:1.0449468 11:-3.3652936 12:0.25432749 13:-0.077456726 14:3.175148 15:-0.27692894 16:-0.27905997 17:-2.5511517 18:-1.0352815 19:0.74274138 20:2.4229007 21:1.3853625 22:-0.37536675 23:1.7490715 
0.01278019127605318 1:0 2:6.0016018 3:8.4736178 4:0.45226702 5:8.2131435 6:12.737347 7:8.4212332 8:13.651904 9:-0.87010675 10:-1.1710853 11:-0.73165243 12:0.18196784 13:-0.65032434 14:3.8355429 15:-1.6098127 16:0.62985283 17:0.27427583 18:0.098333384 19:10.901527 20:0.1735405 21:8.5663567 22:-0.37536675 23:2.7871285 
0.774263682681127 1:0 2:-0.056839349 3:-0.59914469 4:0.45226702 5:1.9894121 6:4.0824829 7:2.2508365 8:0.93291771 9:-0.51911035 10:-0.56959778 11:1.0904741 12:0.32530025 13:-0.46284659 14:-0.75247092 15:-1.0871241 16:-0.34386149 17:-0.28062841 18:0.12426168 19:-0.52710678 20:-0.49184619 21:-0.35859561 22:-0.37536675 23:-0.53465374 
0.774263682681127 1:0 2:0.060080139 3:-0.59914469 4:0.45226702 5:-0.46667746 6:-0.24494897 7:0.19403763 8:0.29063929 9:-0.87010675 10:-1.1691419 11:-0.81735521 12:0.03854399 13:-0.82708415 14:0.44336393 15:-0.23665327 16:-0.59493968 17:-0.95731902 18:-0.91315582 19:0.74274138 20:2.3110218 21:1.2314821 22:-0.37536675 23:1.6614136 
0.02656793294658389 1:0 2:3.924277 3:26.619143 4:21.759069 5:5.6916701 6:6.2461988 7:6.3644343 8:16.791511 9:-0.87010675 10:0.96625636 11:1.8679256 12:-0.27936909 13:-0.66519679 14:5.9128222 15:-1.3831318 16:0.38755968 17:-0.40317533 18:0.070199348 19:17.250767 20:0.98024826 21:10.373366 22:7.9139823 23:2.6025852 
-0.774263682681127 1:0 2:0.84418027 3:-0.59914469 4:0.45226702 5:1.9939374 6:-0.24494897 7:0.19403763 8:0.46644221 9:-0.87010675 10:-1.157851 11:-0.73165243 12:-0.14055038 13:1.8603833 14:-0.15099943 15:-0.32632251 16:-0.52316274 17:-0.75725822 18:-0.44761628 19:3.2824377 20:3.3827064 21:6.0530084 22:4.5982427 23:3.4560985 
-0.3675856880850327 1:0 2:1.3456677 3:3.9372365 4:5.7789674 5:-0.699434 6:1.918767 7:2.2508365 8:7.88546 9:-0.19278727 10:-0.23951321 11:0.85004104 12:-1.2001577 13:3.3176252 14:0.034458544 15:-0.44899363 16:-0.5803888 17:-1.0295831 18:-0.93882603 19:-0.52710678 20:-0.49184619 21:-0.35859561 22:-0.37536675 23:-0.53465374 
0.774263682681127 1:0 2:0.72391062 3:1.6690459 4:0.45226702 5:-1.0432416 6:-0.24494897 7:0.19403763 8:-1.1158103 9:0.17189683 10:-0.55696258 11:0.93327442 12:0.8416233 13:0.77222936 14:-0.29933539 15:-0.58703746 16:-0.40120141 17:-0.51464671 18:-1.0013419 19:-0.52710678 20:-0.49184619 21:-0.35859561 22:-0.37536675 23:-0.53465374 
-0.774263682681127 1:0 2:0.65557282 3:1.6690459 4:0.45226702 5:-1.2887866 6:-0.24494897 7:0.19403763 8:-0.23678022 9:-0.1828607 10:0.41744032 11:0.36360638 12:2.1599935 13:-0.63768431 14:-0.75247092 15:-0.24761554 16:-0.53177388 17:1.2483439 18:-0.39894374 19:-0.52710678 20:-0.49184619 21:-0.35859561 22:-0.37536675 23:-0.53465374 
0.03154546484344244 1:0 2:8.1523807 3:24.350952 4:19.095718 5:14.451339 6:14.901063 7:14.59163 8:26.837387 9:-0.87010675 10:-1.1705273 11:-0.73165243 12:0.20289977 13:5.835848 14:-0.5031234 15:0.81736579 16:-0.96070146 17:-1.5604891 18:0.14530007 19:15.980919 20:-0.21509244 21:16.824512 22:11.229722 23:3.0639439 
-0.2877930683642507 1:0 2:1.8505445 3:10.741808 4:5.7789674 5:8.295963 6:6.2461988 7:6.3644343 8:1.4861223 9:-0.87010675 10:0.90168781 11:-3.3206785 12:-0.32367327 13:-0.42871833 14:2.3042968 15:-0.54228428 16:-0.10900638 17:-3.2337231 18:-0.54340517 19:5.822134 20:-0.13854351 21:6.2581867 22:1.2825031 23:-0.25783854 
0.0372186085477087 1:0 2:8.263555 3:19.814571 4:13.769018 5:13.557953 6:19.228494 7:18.705228 8:30.793017 9:-0.87010675 10:0.94978002 11:1.8163423 12:-0.48370422 13:-0.28821522 14:6.9992044 15:-1.7870069 16:0.78077375 17:0.50873377 18:-0.50023381 19:18.520616 20:-0.21509244 21:19.709736 22:11.229722 23:2.7963557 
0.02768106696395016 1:0 2:2.2937511 3:17.54638 4:8.4423176 5:7.1371607 6:1.918767 7:2.2508365 8:2.681603 9:-0.3422639 10:2.748316 11:-1.5376081 12:-0.94890421 13:5.2429011 14:4.2890149 15:-0.12583612 16:-0.68656072 17:0.85277447 18:-1.0930281 19:-0.52710678 20:-0.49184619 21:-0.35859561 22:-0.37536675 23:-0.53465374 
0.1083457600914754 1:0 2:6.4934741 3:8.4736178 4:3.1156172 5:3.2094952 6:1.918767 7:2.2508365 8:2.9628871 9:-0.87010675 10:0.89176913 11:1.9021052 12:0.25543159 13:4.2535825 14:2.0931667 15:-0.1460443 16:-0.59370655 17:-0.77217703 18:-1.1898453 19:2.0125895 20:4.360177 21:4.5655177 22:-0.37536675 23:3.3130776 
0.08593572420840187 1:0 2:-0.79025806 3:3.9372365 4:3.1156172 5:2.5131692 6:1.918767 7:2.2508365 8:1.8810415 9:-0.87010675 10:-1.1575188 11:-0.73165243 12:0.39309699 13:0.39752408 14:-0.48996234 15:-0.60054364 16:0.046179129 17:-2.2193396 18:0.029639856 19:5.822134 20:1.6220814 21:5.0256804 22:6.2561125 23:1.8275025 
0.7359199137168052 1:0 2:-1.7400021 3:-0.59914469 4:0.45226702 5:-0.3509764 6:1.918767 7:0.19403763 8:0.13280421 9:-0.87010675 10:1.0059292 11:-0.33656023 12:-2.1803115 13:1.6200723 14:-0.16992462 15:0.63881001 16:-0.68425347 17:-0.18718736 18:-0.12700566 19:2.0125895 20:1.0273552 21:1.2463006 22:1.2825031 23:0.65565156 
-0.774263682681127 1:0 2:2.3585234 3:1.6690459 4:0.45226702 5:-0.81375731 6:-0.24494897 7:0.19403763 8:0.29063999 9:-0.26850691 10:-0.45275961 11:1.024177 12:-0.67278165 13:4.1595819 14:-0.33446354 15:-0.5960115 16:-0.37293461 17:1.2815356 18:-0.095366395 19:-0.52710678 20:-0.49184619 21:-0.35859561 22:-0.37536675 23:-0.53465374 
0.0266939554604222 1:0 2:1.6502247 3:6.2054271 4:0.45226702 5:-0.25141124 6:1.918767 7:2.2508365 8:2.6112759 9:-0.87010675 10:0.98727763 11:-3.3506227 12:0.41414421 13:0.96603913 14:-0.75247092 15:0.07093035 16:-0.62146524 17:-0.35956044 18:0.13331796 19:2.0125895 20:1.115681 21:2.1034611 22:-0.37536675 23:2.1135449 
0.774263682681127 1:0 2:0.12809169 3:-0.59914469 4:0.45226702 5:-0.75432952 6:-0.24494897 7:0.19403763 8:-0.13129321 9:-0.31111585 10:-0.41508453 11:0.88886611 12:1.1820462 13:-0.18099882 14:0.023448855 15:-0.46263732 16:-0.3833274 17:0.42835964 18:-0.036371329 19:-0.52710678 20:-0.49184619 21:-0.35859561 22:-0.37536675 23:-0.53465374 
0.02387555609737141 1:0 2:3.3811503 3:10.741808 4:5.7789674 5:10.823691 6:6.2461988 7:2.2508365 8:7.0415907 9:-0.87010675 10:3.1028724 11:-0.81918177 12:0.09325888 13:-0.63618913 14:-0.50564458 15:-0.078647534 16:-0.14275176 17:-2.9108542 18:0.1988902 19:5.822134 20:1.2334485 21:5.2836165 22:-0.37536675 23:2.9578314 
-0.0554009960329154 1:0 2:-2.4049803 3:-0.59914469 4:-2.2110832 5:4.204075 6:4.0824829 7:-1.8627613 8:-1.4674228 9:2.0814131 10:0.96625636 11:-0.73165243 12:0.1247018 13:-0.82708415 14:-0.75247092 15:2.1203192 16:2.1933005 17:0.95813368 18:2.001348 19:-0.52710678 20:-0.49184619 21:-0.35859561 22:-0.37536675 23:-0.53465374 
0.5385231947666282 1:0 2:1.9585574 3:-0.59914469 4:0.45226702 5:1.4003408 6:-0.24494897 7:0.19403763 8:0.056230718 9:-0.87010675 10:1.0672889 11:-3.2974836 12:0.66057631 13:1.3446421 14:3.1814606 15:-0.70273153 16:-0.29215654 17:-1.5232662 18:-1.1052317 19:0.74274138 20:2.2050308 21:0.64161463 22:2.9403729 23:3.1331475 
-0.774263682681127 1:0 2:0.28484134 3:1.6690459 4:0.45226702 5:0.0002450498 6:-0.24494897 7:0.19403763 8:0.36096323 9:-0.87010675 10:0.98832468 11:1.8206011 12:-0.46939621 13:-0.65289422 14:-0.2473111 15:-0.15852467 16:-0.49253094 17:-0.87642726 18:-0.30743525 19:0.74274138 20:3.6947905 21:1.5392379 22:-0.37536675 23:2.7456064 
0.1653714485942477 1:0 2:0.049792648 3:1.6690459 4:3.1156172 5:0.063477954 6:1.918767 7:2.2508365 8:2.9511714 9:-0.87010675 10:1.0920748 11:1.8675265 12:-0.25748115 13:3.0264432 14:-0.49152349 15:-0.15521683 16:-0.60939567 17:-2.7489162 18:0.23402857 19:2.0125895 20:2.5465567 21:3.920082 22:6.2561125 23:3.5022345 
-0.774263682681127 1:0 2:-1.5220027 3:-0.59914469 4:0.45226702 5:2.2028549 6:-0.24494897 7:0.19403763 8:1.275153 9:-0.87010675 10:0.89562994 11:-3.366291 12:0.0058162676 13:-0.46012601 14:-0.75247092 15:0.2664345 16:-0.51965262 17:-2.379438 18:-1.1500902 19:0.74274138 20:0.89192254 21:0.46208995 22:-0.37536675 23:0.54953906 
0.02285994879592504 1:0 2:7.4794586 3:22.082761 4:16.432368 5:5.9103432 6:14.901063 7:8.4212332 8:19.635181 9:-0.87010675 10:3.1031894 11:-0.64984948 12:0.13627413 13:4.3540043 14:-0.75247092 15:0.32142112 16:-0.32703395 17:-3.1789559 18:0.22251215 19:14.711071 20:0.80359695 21:13.588781 22:7.9139823 23:2.2888612 
0.01001308102252893 1:0 2:7.0150823 3:17.54638 4:13.769018 5:8.1994859 6:14.901063 7:12.534831 8:16.87503 9:-0.87010675 10:3.1038708 11:-0.73165243 12:0.16819883 13:-0.63520253 14:7.592683 15:-1.2268426 16:-0.031264516 17:-2.0060119 18:-0.97117723 19:12.171375 20:-0.1974273 21:7.2498451 22:2.9403729 23:1.7859804 
0.02145882071954953 1:0 2:1.1044631 3:8.4736178 4:5.7789674 5:1.0852304 6:10.573631 7:8.4212332 8:12.746503 9:-0.87010675 10:3.1020737 11:-0.8282478 12:0.18589925 13:4.8935069 14:0.60324363 15:-0.17932073 16:-0.43058094 17:-3.0262366 18:-0.083361679 19:2.0125895 20:0.85070393 21:2.3932859 22:-0.37536675 23:2.7271521 
0.03540853528277165 1:0 2:4.2325755 3:13.009999 4:8.4423176 5:8.0541594 6:8.4099148 7:2.2508365 8:3.5957888 9:-0.87010675 10:3.1028724 11:-0.81918177 12:0.09325888 13:3.3266638 14:-0.50564458 15:-0.078647534 16:-0.14275176 17:-2.9108542 18:0.1988902 19:9.6316785 20:1.2334485 21:7.7456732 22:-0.37536675 23:2.9347634 
-0.774263682681127 1:0 2:-0.33541295 3:-0.59914469 4:0.45226702 5:-0.62873315 6:-0.24494897 7:0.19403763 8:-0.27194319 9:-0.87010675 10:0.80185895 11:1.8867738 12:0.35789862 13:1.7898848 14:1.4072955 15:-0.29537908 16:-0.25618342 17:0.93118848 18:-1.0747459 19:0.74274138 20:0.75648983 21:-0.30730264 22:2.9403729 23:1.8090482 
-0.774263682681127 1:0 2:-0.23155981 3:-0.59914469 4:0.45226702 5:1.4336399 6:1.918767 7:2.2508365 8:0.71257517 9:-0.23395595 10:-0.088756333 11:0.74672844 12:-1.4268593 13:0.89939284 14:2.881036 15:-0.54736918 16:-0.5627232 17:-0.57969108 18:-0.45379763 19:-0.52710678 20:-0.49184619 21:-0.35859561 22:-0.37536675 23:-0.53465374 
-0.2649541377759597 1:0 2:4.8132269 3:3.9372365 4:3.1156172 5:1.2034153 6:6.2461988 7:2.2508365 8:2.2596725 9:-0.87010675 10:0.96625636 11:-3.3584429 12:0.35337258 13:1.4071781 14:0.022795559 15:0.28954454 16:-0.72374277 17:-0.5919699 18:-0.71073613 19:2.0125895 20:1.5867512 21:2.8728531 22:-0.37536675 23:2.7456064 
-0.009004776272754048 1:0 2:-0.51047373 3:8.4736178 4:3.1156172 5:11.725253 6:12.737347 7:4.3076354 8:4.2667239 9:-0.1793483 10:-0.99751337 11:-1.0568041 12:-0.75133652 13:0.57644746 14:7.454746 15:0.30825046 16:0.23929543 17:1.9538231 18:-0.079326858 19:-0.52710678 20:-0.49184619 21:-0.35859561 22:-0.37536675 23:-0.53465374 
0.774263682681127 1:0 2:-1.5949689 3:1.6690459 4:0.45226702 5:0.94085559 6:-0.24494897 7:0.19403763 8:-0.50048564 9:-0.17314235 10:-0.85349328 11:0.36723151 12:-0.62077853 13:2.0597261 14:-0.75247092 15:-0.38099947 16:-0.44323615 17:-0.084519592 18:-0.03084308 19:-0.52710678 20:-0.49184619 21:-0.35859561 22:-0.37536675 23:-0.53465374 
-0.774263682681127 1:0 2:0.048174247 3:-0.59914469 4:0.45226702 5:0.52745887 6:-0.24494897 7:0.19403763 8:-0.14633007 9:-0.87010675 10:-1.1649679 11:-0.82673225 12:-0.040473503 13:2.12886 14:-0.060484869 15:-0.057202631 16:-0.70527951 17:-0.021756642 18:-0.86820799 19:0.74274138 20:1.6279698 21:0.78567596 22:-0.37536675 23:1.1262374 
0.774263682681127 1:0 2:-0.76576438 3:3.9372365 4:3.1156172 5:-1.1025129 6:-0.24494897 7:0.19403763 8:0.69454189 9:-0.87010675 10:-1.1579272 11:-1.0310111 12:0.11828239 13:2.4731629 14:-0.13037728 15:-0.66265409 16:-0.39495102 17:0.21855667 18:-0.65147157 19:0.74274138 20:1.4748719 21:0.33710746 22:1.2825031 23:1.0062841 
-0.774263682681127 1:0 2:1.1211093 3:-0.59914469 4:0.45226702 5:0.78373218 6:-0.24494897 7:0.19403763 8:1.0641896 9:-0.87010675 10:0.98453493 11:1.8932058 12:-0.11986186 13:-0.47682024 14:-0.75247092 15:-1.0201941 16:-0.33943593 17:0.78198524 18:-0.026220892 19:0.74274138 20:1.4748719 21:0.25691614 22:-0.37536675 23:1.0062841 
-0.774263682681127 1:0 2:-0.46396085 3:-0.59914469 4:0.45226702 5:-1.3394817 6:-0.24494897 7:0.19403763 8:-0.48290979 9:0.14142094 10:-0.69839715 11:0.25575142 12:1.2994413 13:0.30676282 14:0.26863597 15:-0.092649178 16:-0.49749913 17:0.97989012 18:0.3638795 19:-0.52710678 20:-0.49184619 21:-0.35859561 22:-0.37536675 23:-0.53465374 
-0.06251922322796344 1:0 2:-0.058688986 3:1.6690459 4:3.1156172 5:6.167579 6:8.4099148 7:4.3076354 8:2.3299927 9:-0.87010675 10:0.95517838 11:1.8840308 12:-0.18768262 13:-0.64663796 14:4.5170512 15:-0.64769053 16:-0.19006108 17:-0.79795253 18:0.283815 19:2.0125895 20:0.3089732 21:2.052167 22:2.9403729 23:1.9382287 
-0.5322482425141015 1:0 2:-1.6703713 3:3.9372365 4:3.1156172 5:-0.65455129 6:1.918767 7:2.2508365 8:1.2048363 9:-0.87010675 10:-1.1717301 11:-0.73165243 12:0.1247018 13:-0.35257377 14:1.6296694 15:-0.37044636 16:0.39215243 17:1.9399805 18:-0.36490776 19:0.74274138 20:1.7280722 21:0.46208995 22:-0.37536675 23:1.2046684 
-0.774263682681127 1:0 2:-0.13579063 3:-0.59914469 4:0.45226702 5:-0.90298838 6:-0.24494897 7:0.19403763 8:0.78289642 9:-0.096713366 10:-0.79013046 11:0.73593279 12:0.41937686 13:-0.46748227 14:0.58662467 15:-0.45632204 16:-0.21359771 17:2.1726511 18:-0.2094869 19:-0.52710678 20:-0.49184619 21:-0.35859561 22:-0.37536675 23:-0.53465374 
-0.2894540242794277 1:0 2:0.61605558 3:-0.59914469 4:0.45226702 5:-0.75432952 6:-0.24494897 7:0.19403763 8:1.3454762 9:-0.31111585 10:-0.41508453 11:0.88886611 12:1.1820462 13:-0.18099882 14:0.023448855 15:-0.46263732 16:-0.3833274 17:0.42835964 18:-0.036371329 19:-0.52710678 20:-0.49184619 21:-0.35859561 22:-0.37536675 23:-0.53465374 
-0.774263682681127 1:0 2:-1.8005253 3:3.9372365 4:5.7789674 5:2.624718 6:4.0824829 7:2.2508365 8:5.4944974 9:-0.26850691 10:-0.46273424 11:1.1679733 12:-0.3134816 13:0.83944258 14:3.717803 15:-0.71190088 16:-0.34504505 17:-0.29906213 18:-0.16206834 19:-0.52710678 20:-0.49184619 21:-0.35859561 22:-0.37536675 23:-0.53465374 
-0.5253107627265374 1:0 2:-1.2551333 3:3.9372365 4:-2.2110832 5:0.92271123 6:6.2461988 7:-1.8627613 8:-1.4674228 9:2.0814131 10:0.96625636 11:-0.73165243 12:0.1247018 13:-0.82708415 14:-0.75247092 15:2.1203192 16:2.1933005 17:0.95813368 18:2.001348 19:-0.52710678 20:-0.49184619 21:-0.35859561 22:-0.37536675 23:-0.53465374 
-0.774263682681127 1:0 2:0.94821915 3:1.6690459 4:0.45226702 5:0.85093972 6:-0.24494897 7:0.19403763 8:1.9997357 9:-0.87010675 10:0.92732583 11:-1.120672 12:2.4305359 13:0.89864199 14:-0.21807487 15:-0.50590141 16:-0.4106444 17:-1.4115968 18:-0.3705783 19:2.0125895 20:1.8635049 21:1.5867331 22:1.2825031 23:1.3107809 
-0.1042393101649975 1:0 2:1.8609466 3:10.741808 4:8.4423176 5:0.16976276 6:4.0824829 7:4.3076354 8:6.6279662 9:-0.87010675 10:0.96625636 11:-3.3312616 12:0.52861595 13:4.3018659 14:0.0047254366 15:0.22014712 16:-0.76436901 17:-0.31242192 18:-0.656448 19:5.822134 20:0.98613663 21:3.9514281 22:-0.37536675 23:2.0627956 
0.001821053153218044 1:0 2:7.9992733 3:8.4736178 4:11.105668 5:8.5097872 6:6.2461988 7:6.3644343 8:16.464174 9:-0.87010675 10:0.73958238 11:1.7436932 12:-0.64611087 13:4.2461253 14:-0.34436567 15:0.048290176 16:-0.5188723 17:-1.3247161 18:0.14153651 19:10.901527 20:1.3335509 21:11.700254 22:2.9403729 23:1.8967064 
-0.774263682681127 1:0 2:-0.35739571 3:-0.59914469 4:0.45226702 5:-0.32812804 6:-0.24494897 7:0.19403763 8:1.6267628 9:-0.87010675 10:0.96939173 11:1.905081 12:0.23165395 13:-0.31223604 14:1.7255817 15:-0.84409588 16:-0.3287837 17:0.61588313 18:-0.18314591 19:0.74274138 20:0.56217341 21:0.051747166 22:1.2825031 23:0.29117824 
-0.774263682681127 1:0 2:4.3582604 3:8.4736178 4:3.1156172 5:0.085019119 6:-0.24494897 7:0.19403763 8:0.97005638 9:-0.87010675 10:0.97392284 11:1.9050004 12:0.01648182 13:5.0203865 14:-0.20926277 15:0.14230282 16:-0.49951667 17:-1.8101471 18:-0.61917825 19:2.0125895 20:2.8350873 21:2.6440534 22:1.2825031 23:1.7813667 
0.01148352591485162 1:0 2:8.8066883 3:19.814571 4:11.105668 5:10.796987 6:12.737347 7:8.4212332 8:9.5028872 9:-0.87010675 10:-1.1704915 11:-0.82146481 12:0.12289226 13:5.5396871 14:-0.24076312 15:0.37723873 16:-0.79395891 17:-0.11626675 18:-1.144896 19:10.901527 20:0.1735405 21:10.361608 22:1.2825031 23:1.7167766 
0.774263682681127 1:0 2:2.0409593 3:-0.59914469 4:0.45226702 5:-1.2830742 6:-0.24494897 7:0.19403763 8:0.43128659 9:-0.87010675 10:1.0467667 11:1.9059839 12:0.12962075 13:2.387677 14:-0.75247092 15:-0.32277523 16:-0.49970757 17:-0.59250699 18:-1.1430411 19:0.74274138 20:2.2815798 21:0.87243272 22:-0.37536675 23:1.6383456 
0.1783095786697379 1:0 2:2.3340038 3:13.009999 4:5.7789674 5:3.6273464 6:4.0824829 7:4.3076354 8:2.7331731 9:-0.87010675 10:3.1039414 11:-0.73165243 12:0.1638587 13:-0.55474478 14:3.1014909 15:-1.1745308 16:0.092875322 17:0.03050076 18:-1.1432787 19:0.74274138 20:1.3217741 21:0.27363622 22:-0.37536675 23:0.88633089 
0.774263682681127 1:0 2:-2.1544874 3:-0.59914469 4:0.45226702 5:-0.93897239 6:-0.24494897 7:0.19403763 8:1.1227912 9:-0.53025491 10:-0.58909402 11:1.0065949 12:-0.3243015 13:-0.57896132 14:-0.40739151 15:-0.31010954 16:-0.53093336 17:1.0976637 18:-0.0363399 19:-0.52710678 20:-0.49184619 21:-0.35859561 22:-0.37536675 23:-0.53465374 
-0.774263682681127 1:0 2:-0.35555914 3:1.6690459 4:0.45226702 5:1.4667682 6:-0.24494897 7:0.19403763 8:0.59953708 9:-0.87010675 10:-1.1714143 11:-0.73165243 12:0.084626308 13:-0.63759188 14:2.9533847 15:-0.8910382 16:-0.39675867 17:0.050390675 18:0.11108146 19:0.74274138 20:-0.1974273 21:-0.30996239 22:1.2825031 23:-0.30397441 
0.0189558535240755 1:0 2:3.0144838 3:15.27819 4:16.432368 5:13.96775 6:10.573631 7:8.4212332 8:21.176407 9:-0.87010675 10:0.98591024 11:-3.3420316 12:0.46952227 13:1.0088245 14:4.5054311 15:-0.49955394 16:0.30704547 17:2.2006329 18:-0.11513701 19:12.171375 20:0.66227588 21:11.746516 22:2.9403729 23:2.6302667 
0.774263682681127 1:0 2:-1.1312625 3:6.2054271 4:0.45226702 5:-0.80672828 6:1.918767 7:0.19403763 8:-0.85796165 9:0.25361638 10:-0.41768469 11:-1.744857 12:-1.410747 13:1.6405752 14:1.2018863 15:0.64541936 16:-0.4850713 17:0.90241515 18:-1.0438451 19:-0.52710678 20:-0.49184619 21:-0.35859561 22:-0.37536675 23:-0.53465374 
0.01618822065450977 1:0 2:4.7542572 3:13.009999 4:3.1156172 5:-1.0412685 6:-0.24494897 7:0.19403763 8:0.34908094 9:-0.87010675 10:-1.1649679 11:-0.82673225 12:-0.040473503 13:4.2526064 14:-0.060484869 15:-0.057202631 16:-0.70527951 17:-0.021756642 18:-0.86820799 19:0.74274138 20:1.6279698 21:0.78567596 22:1.2825031 23:2.0997042 
0.4517332005839876 1:0 2:-2.4661007 3:-0.59914469 4:0.45226702 5:3.4461541 6:4.0824829 7:0.19403763 8:-0.83452032 9:-0.30083286 10:1.563784 11:-0.83998104 12:2.3614287 13:-0.3489253 14:4.1862523 15:-0.41496619 16:-0.60796329 17:0.087094078 18:0.22802842 19:-0.52710678 20:-0.49184619 21:-0.35859561 22:-0.37536675 23:-0.53465374 
-0.774263682681127 1:0 2:-0.52231151 3:-0.59914469 4:0.45226702 5:-0.7784169 6:-0.24494897 7:0.19403763 8:-0.34226318 9:-0.87010675 10:-1.1703595 11:-0.64411507 12:0.15614965 13:-0.46255856 14:-0.4870058 15:-0.084007235 16:-0.45961562 17:-0.70022846 18:-1.2038355 19:0.74274138 20:1.2334485 21:0.30820959 22:-0.37536675 23:0.81712716 
0.774263682681127 1:0 2:2.0145185 3:3.9372365 4:0.45226702 5:-0.0042848911 6:-0.24494897 7:0.19403763 8:1.0524679 9:-0.039953804 10:2.7279043 11:-1.0736608 12:1.4108889 13:0.6287044 14:0.25275286 15:-0.90172566 16:-0.24236215 17:0.48489123 18:-1.2028962 19:-0.52710678 20:-0.49184619 21:-0.35859561 22:-0.37536675 23:-0.53465374 
0.1103538199664417 1:0 2:4.5110149 3:6.2054271 4:3.1156172 5:2.3131035 6:4.0824829 7:4.3076354 8:4.0880474 9:-0.87010675 10:-1.1638945 11:-0.81538101 12:-0.06051936 13:-0.46156665 14:5.4206568 15:-0.77729041 16:0.23415793 17:-2.8294254 18:0.31935217 19:8.3618303 20:0.67405262 21:6.9249919 22:2.9403729 23:1.8459569 
0.0142380623360673 1:0 2:8.2014389 3:17.54638 4:13.769018 5:5.3695539 6:6.2461988 7:6.3644343 8:14.988026 9:-0.87010675 10:0.95021087 11:-3.3189805 12:0.5857339 13:-0.47003179 14:5.6404654 15:-0.898974 16:0.1366104 17:-2.4870184 18:-0.6267276 19:15.980919 20:1.0096901 21:14.618918 22:-0.37536675 23:3.7190732 
0.008482994778477949 1:0 2:6.4699765 3:15.27819 4:16.432368 5:10.955803 6:12.737347 7:12.534831 8:14.29653 9:-0.87010675 10:1.0807062 11:1.7930745 12:-0.54388468 13:0.84823487 14:2.5482134 15:-1.2219367 16:0.078380721 17:1.2761583 18:-1.042389 19:15.980919 20:2.1755891 21:15.798654 22:-0.37536675 23:3.3822812 
0.03461193655284445 1:0 2:10.666183 3:24.350952 4:16.432368 5:12.180574 6:14.901063 7:12.534831 8:15.128687 9:-0.87010675 10:3.1030043 11:-0.64183989 12:0.12649215 13:-0.25767895 14:1.8918729 15:-0.46568646 16:0.019537586 17:-3.2155278 18:-0.79776299 19:21.060312 20:0.1735405 21:22.569304 22:7.9139823 23:2.9532177 
0.342893354756654 1:0 2:2.7374675 3:1.6690459 4:3.1156172 5:3.0317838 6:-0.24494897 7:0.19403763 8:4.9319217 9:-0.87010675 10:0.89562994 11:-3.366291 12:0.0058162676 13:3.413094 14:-0.75247092 15:0.2664345 16:-0.51965262 17:-2.379438 18:-1.1500902 19:3.2824377 20:0.89192254 21:4.6168111 22:-0.37536675 23:3.4791665 
-0.5340428982791534 1:0 2:-0.32066638 3:3.9372365 4:0.45226702 5:2.2209366 6:1.918767 7:0.19403763 8:0.14999326 9:0.19545733 10:-0.092254394 11:-2.0174097 12:-1.5528083 13:4.0859056 14:0.53769743 15:-0.76047005 16:0.061002053 17:1.7113228 18:-1.0956582 19:-0.52710678 20:-0.49184619 21:-0.35859561 22:-0.37536675 23:-0.53465374 
-0.5103658363331355 1:0 2:0.90171783 3:6.2054271 4:5.7789674 5:4.2426309 6:1.918767 7:2.2508365 8:3.7364368 9:-0.87010675 10:3.1026284 11:-0.73165243 12:0.03410966 13:2.3299178 14:-0.75247092 15:0.033169824 16:-0.42582951 17:-1.9504726 18:-0.93063192 19:2.0125895 20:2.6584359 21:3.2831959 22:-0.37536675 23:3.2992369 
-0.1489372896955096 1:0 2:2.9064237 3:1.6690459 4:3.1156172 5:3.2226084 6:6.2461988 7:4.3076354 8:2.8925711 9:-0.87010675 10:3.0858357 11:-0.99770171 12:0.31958166 13:1.5255512 14:0.86931803 15:-0.16634514 16:-0.59593659 17:-1.3263476 18:-0.57999231 19:0.74274138 20:3.4945856 21:1.1288951 22:-0.37536675 23:2.5887444 
0.774263682681127 1:0 2:-0.07522714 3:1.6690459 4:0.45226702 5:-0.75432952 6:-0.24494897 7:0.19403763 8:-0.13129321 9:-0.31111585 10:-0.41508453 11:0.88886611 12:1.1820462 13:-0.18099882 14:0.023448855 15:-0.46263732 16:-0.3833274 17:0.42835964 18:-0.036371329 19:-0.52710678 20:-0.49184619 21:-0.35859561 22:-0.37536675 23:-0.53465374 
0.3727639670015422 1:0 2:-0.52231151 3:-0.59914469 4:0.45226702 5:3.8437153 6:1.918767 7:2.2508365 8:2.189346 9:-0.87010675 10:-1.1703595 11:-0.64411507 12:0.15614965 13:-0.46255856 14:4.0023532 15:-0.084007235 16:-0.45961562 17:-0.70022846 18:-1.2038355 19:2.0125895 20:1.2334485 21:1.1801886 22:-0.37536675 23:0.81712716 
-0.114591250862367 1:0 2:2.8159611 3:1.6690459 4:3.1156172 5:1.4895107 6:6.2461988 7:0.19403763 8:0.97042376 9:-0.3628934 10:-0.46782306 11:0.96608283 12:0.98576299 13:4.3405558 14:1.7643729 15:-0.65561341 16:-0.37285086 17:-0.4488697 18:-0.2916252 19:-0.52710678 20:-0.49184619 21:-0.35859561 22:-0.37536675 23:-0.53465374 
0.5793367599455674 1:0 2:-1.835521 3:1.6690459 4:0.45226702 5:3.2393433 6:-0.24494897 7:0.19403763 8:-0.27194319 9:0.15099118 10:-0.61932938 11:-0.22506347 12:-1.3740423 13:0.10157126 14:2.7076315 15:-0.47131438 16:-0.3663047 17:1.172031 18:0.32943658 19:-0.52710678 20:-0.49184619 21:-0.35859561 22:-0.37536675 23:-0.53465374 
0.774263682681127 1:0 2:-0.17421 3:-0.59914469 4:0.45226702 5:-1.1360932 6:-0.24494897 7:0.19403763 8:-0.27193982 9:-0.87010675 10:0.8691522 11:1.8903229 12:0.37127286 13:-0.64616497 14:0.17545732 15:-0.056163901 16:-0.62335632 17:-0.5509667 18:0.31655695 19:0.74274138 20:1.7280722 21:0.35950304 22:-0.37536675 23:1.2046684 
0.01547939571762927 1:0 2:1.9566969 3:10.741808 4:13.769018 5:2.7225435 6:4.0824829 7:4.3076354 8:17.468597 9:-0.87010675 10:0.97212054 11:-3.341778 12:-0.22221804 13:1.4688154 14:3.0999871 15:-1.4969885 16:0.10470703 17:0.86185373 18:-0.75258596 19:4.5522859 20:1.692742 21:5.0396916 22:-0.37536675 23:2.3073155 
0.005871562194992032 1:0 2:4.0208689 3:15.27819 4:11.105668 5:15.36575 6:6.2461988 7:6.3644343 8:4.6857941 9:-0.87010675 10:-1.1703283 11:-0.6400721 12:0.14882583 13:2.2403007 14:-0.20256608 15:0.47960583 16:-0.75364807 17:-1.7645381 18:0.14829104 19:4.5522859 20:1.6868536 21:2.7830957 22:1.2825031 23:1.3892119 
0.215259656241477 1:0 2:1.2523172 3:8.4736178 4:5.7789674 5:6.6270647 6:1.918767 7:2.2508365 8:0.99386633 9:-0.87010675 10:0.94668493 11:1.8920647 12:-0.12912359 13:4.4539169 14:0.37622843 15:0.028548694 16:-0.61070569 17:0.26708901 18:0.27491768 19:-0.52710678 20:-0.49184619 21:-0.35859561 22:1.2825031 23:1.5230059 
0.0008879105417977254 1:0 2:6.2019176 3:10.741808 4:13.769018 5:3.0752069 6:6.2461988 7:6.3644343 8:17.882968 9:-0.87010675 10:1.0920748 11:1.8675265 12:-0.25748115 13:4.780035 14:-0.49152349 15:-0.15521683 16:-0.60939567 17:-2.7489162 18:0.23402857 19:10.901527 20:-0.10910165 21:10.199178 22:7.9139823 23:3.5022345 
-0.5328786753550944 1:0 2:-1.005314 3:6.2054271 4:3.1156172 5:0.30314229 6:4.0824829 7:2.2508365 8:1.7234565 9:-0.3860053 10:1.6344746 11:-0.30824505 12:-2.0583654 13:2.5870736 14:5.2083839 15:-0.93777959 16:-0.27863955 17:-0.94234655 18:-0.96007474 19:0.74274138 20:0.98613663 21:0.15860893 22:-0.37536675 23:0.62335649 
-0.774263682681127 1:0 2:-1.8188917 3:1.6690459 4:0.45226702 5:-0.22930993 6:-0.24494897 7:0.19403763 8:-0.13390029 9:-0.041890598 10:0.12863428 11:0.29882331 12:-1.8178798 13:-0.82708415 14:1.0134827 15:-0.58917539 16:-0.49398034 17:-0.39945181 18:-0.24004332 19:-0.52710678 20:-0.49184619 21:-0.35859561 22:-0.37536675 23:-0.53465374 
0.774263682681127 1:0 2:-0.42674868 3:-0.59914469 4:0.45226702 5:-0.84035553 6:-0.24494897 7:0.19403763 8:1.6267628 9:-0.87010675 10:1.1923597 11:1.8780737 12:0.37211733 13:0.76470622 14:-0.75247092 15:0.52793532 16:-0.60395144 17:0.64651701 18:-1.0162268 19:0.74274138 20:-0.13854351 21:-0.30730264 22:1.2825031 23:-0.25783854 
0.009634642854081802 1:0 2:4.8537726 3:24.350952 4:11.105668 5:6.8568596 6:6.2461988 7:6.3644343 8:14.706745 9:-0.87010675 10:3.1030924 11:-0.73165243 12:0.048226427 13:5.3164395 14:-0.1372653 15:-0.077838982 16:-0.69701371 17:0.14284347 18:-0.32088367 19:5.822134 20:0.33841506 21:2.5650978 22:2.9403729 23:1.6152775 
0.6025978759590194 1:0 2:6.2333818 3:6.2054271 4:3.1156172 5:-0.27386786 6:-0.24494897 7:0.19403763 8:1.902702 9:-0.87010675 10:0.73960154 11:1.7437234 12:-0.6460418 13:3.3492033 14:-0.47634426 15:-0.22152683 16:-0.20114437 17:-2.5654729 18:-0.82866796 19:0.74274138 20:3.3827064 21:1.3574713 22:-0.37536675 23:2.5010862 
0.774263682681127 1:0 2:-2.0883291 3:1.6690459 4:3.1156172 5:-0.08365603 6:-0.24494897 7:0.19403763 8:0.89619247 9:-0.35056211 10:2.1619458 11:-2.8867223 12:0.45947872 13:-0.82708415 14:-0.75247092 15:-0.25490225 16:-0.57754563 17:-1.3213655 18:-0.44515782 19:-0.52710678 20:-0.49184619 21:-0.35859561 22:-0.37536675 23:-0.53465374 
0.03081467186601533 1:0 2:1.9268861 3:17.54638 4:8.4423176 5:4.903732 6:-0.24494897 7:0.19403763 8:11.134365 9:-0.87010675 10:0.92745986 11:-1.1076917 12:2.4322184 13:2.6818383 14:2.8243799 15:-1.0574655 16:-0.15712203 17:-1.228073 18:-0.99505635 19:2.0125895 20:-0.073771382 21:1.4408335 22:2.9403729 23:1.7029357 
0.4826175057930374 1:0 2:-1.6528985 3:-0.59914469 4:0.45226702 5:3.0627349 6:1.918767 7:2.2508365 8:3.199906 9:-0.12324274 10:-0.73556466 11:0.85457993 12:0.2936093 13:1.5188899 14:2.7505674 15:-0.018646477 16:-0.65010305 17:-0.93124807 18:0.37300641 19:-0.52710678 20:-0.49184619 21:-0.35859561 22:-0.37536675 23:-0.53465374 
-0.774263682681127 1:0 2:-0.33825439 3:-0.59914469 4:0.45226702 5:-0.93897239 6:-0.24494897 7:0.19403763 8:1.5798874 9:-0.53025491 10:-0.58909402 11:1.0065949 12:-0.3243015 13:-0.57896132 14:-0.40739151 15:-0.31010954 16:-0.53093336 17:1.0976637 18:-0.0363399 19:-0.52710678 20:-0.49184619 21:-0.35859561 22:-0.37536675 23:-0.53465374 
-0.774263682681127 1:0 2:-1.835521 3:1.6690459 4:0.45226702 5:-0.52513455 6:-0.24494897 7:0.19403763 8:-0.55323309 9:0.16928515 10:-0.5643944 11:0.1277028 12:-1.3153774 13:0.10157126 14:-0.75247092 15:-0.46905819 16:-0.32363327 17:1.178917 18:0.14054584 19:-0.52710678 20:-0.49184619 21:-0.35859561 22:-0.37536675 23:-0.53465374 
-0.5662707835430023 1:0 2:-2.1106585 3:1.6690459 4:3.1156172 5:5.749507 6:4.0824829 7:2.2508365 8:3.1738622 9:-0.87010675 10:-1.1638945 11:-0.81538101 12:-0.06051936 13:-0.46156665 14:4.2026488 15:-0.77729041 16:0.23415793 17:-2.8294254 18:0.31935217 19:0.74274138 20:2.7938686 21:1.2827755 22:-0.37536675 23:2.0397275 
0.07102977914254216 1:0 2:5.6947053 3:10.741808 4:3.1156172 5:3.4437221 6:4.0824829 7:2.2508365 8:2.1365992 9:-0.87010675 10:3.0903637 11:-0.73165243 12:0.38995397 13:3.8636733 14:5.1450426 15:-0.39688351 16:-0.52316274 17:-0.77423152 18:-0.25908802 19:2.0125895 20:3.3827064 21:4.8348046 22:2.9403729 23:3.4560985 
-0.774263682681127 1:0 2:-1.0295517 3:-0.59914469 4:0.45226702 5:-0.52438392 6:-0.24494897 7:0.19403763 8:0.39950871 9:0.012603493 10:-0.95866998 11:0.40961258 12:0.23960472 13:1.4230042 14:-0.75247092 15:-0.16610545 16:-0.64745717 17:-0.17311516 18:-0.67719898 19:-0.52710678 20:-0.49184619 21:-0.35859561 22:-0.37536675 23:-0.53465374 
0.774263682681127 1:0 2:-2.5531291 3:-0.59914469 4:0.45226702 5:1.3417471 6:1.918767 7:0.19403763 8:-0.78177885 9:-0.21453903 10:-0.64572642 11:0.36851302 12:1.3085897 13:-0.35569465 14:3.8533935 15:-0.42745924 16:-0.3480878 17:-1.5040031 18:0.34789458 19:-0.52710678 20:-0.49184619 21:-0.35859561 22:-0.37536675 23:-0.53465374 
0.774263682681127 1:0 2:3.3772449 3:-0.59914469 4:0.45226702 5:-0.90298838 6:-0.24494897 7:0.19403763 8:1.4157989 9:-0.096713366 10:-0.79013046 11:0.73593279 12:0.41937686 13:3.8599925 14:0.58662467 15:-0.45632204 16:-0.21359771 17:2.1726511 18:-0.2094869 19:-0.52710678 20:-0.49184619 21:-0.35859561 22:-0.37536675 23:-0.53465374 
-0.774263682681127 1:0 2:0.61809473 3:-0.59914469 4:0.45226702 5:-0.11954322 6:6.2461988 7:2.2508365 8:1.7674082 9:-0.87010675 10:-1.1538618 11:-0.73165243 12:0.42552729 13:-0.3947005 14:-0.50511989 15:-0.77497643 16:-0.3494235 17:-0.36000161 18:-0.792772 19:3.2824377 20:0.1735405 21:2.1547526 22:-0.37536675 23:1.3107809 
0.774263682681127 1:0 2:3.7638379 3:-0.59914469 4:0.45226702 5:-0.62873315 6:-0.24494897 7:0.19403763 8:0.36095928 9:-0.87010675 10:0.80185895 11:1.8867738 12:0.35789862 13:3.4090784 14:1.4072955 15:-0.29537908 16:-0.25618342 17:0.93118848 18:-1.0747459 19:0.74274138 20:0.75648983 21:-0.30730264 22:2.9403729 23:1.8090482 
-0.3491962536799345 1:0 2:0.57091981 3:-0.59914469 4:0.45226702 5:-0.03972414 6:-0.24494897 7:0.19403763 8:0.079670017 9:-0.3432278 10:-0.40541574 11:-1.2109104 12:1.8624239 13:0.01764242 14:-0.75247092 15:-0.10184414 16:-0.66871877 17:-0.85583505 18:-0.30402181 19:-0.52710678 20:-0.49184619 21:-0.35859561 22:-0.37536675 23:-0.53465374 
-0.2555710252661784 1:0 2:1.4662915 3:10.741808 4:5.7789674 5:0.18645629 6:4.0824829 7:2.2508365 8:5.7757848 9:-0.26915746 10:2.4266974 11:-2.1617922 12:1.2665564 13:3.3329486 14:0.2546242 15:-1.0521696 16:0.043580525 17:0.11565326 18:-0.0051503078 19:-0.52710678 20:-0.49184619 21:-0.35859561 22:-0.37536675 23:-0.53465374 
0.1993761188091307 1:0 2:3.5907316 3:10.741808 4:3.1156172 5:2.3092432 6:-0.24494897 7:0.19403763 8:2.1893426 9:-0.87010675 10:-1.1703595 11:-0.64411507 12:0.15614965 13:2.9979347 14:-0.11246616 15:-0.084007235 16:-0.45961562 17:-0.70022846 18:-0.16225997 19:3.2824377 20:1.2334485 21:2.7189728 22:-0.37536675 23:1.5276194 
0.07197143331605001 1:0 2:1.4928439 3:3.9372365 4:0.45226702 5:7.2073058 6:1.918767 7:0.19403763 8:0.9059605 9:0.32264327 10:-0.66724147 11:-1.3882529 12:-1.2633266 13:0.93648865 14:4.5091508 15:-0.74890723 16:0.10399084 17:1.5812267 18:0.027160265 19:-0.52710678 20:-0.49184619 21:-0.35859561 22:-0.37536675 23:-0.53465374 
0.774263682681127 1:0 2:-0.17421 3:-0.59914469 4:0.45226702 5:-1.1360932 6:-0.24494897 7:0.19403763 8:-0.27193982 9:-0.87010675 10:0.8691522 11:1.8903229 12:0.37127286 13:-0.64616497 14:0.17545732 15:-0.056163901 16:-0.62335632 17:-0.5509667 18:0.31655695 19:0.74274138 20:1.7280722 21:0.35950304 22:-0.37536675 23:1.2046684 
-0.774263682681127 1:0 2:-0.2325129 3:-0.59914469 4:0.45226702 5:1.517174 6:-0.24494897 7:0.19403763 8:-0.63030402 9:-0.027101306 10:0.063560081 11:0.73632894 12:-1.544407 13:0.36868512 14:0.62370677 15:-0.30882162 16:-0.4109189 17:-0.57215452 18:0.24317742 19:-0.52710678 20:-0.49184619 21:-0.35859561 22:-0.37536675 23:-0.53465374 
0.03537164789560102 1:0 2:5.3782628 3:15.27819 4:3.1156172 5:3.2030488 6:1.918767 7:2.2508365 8:4.4667523 9:-0.20362376 10:0.50361082 11:-1.1051001 12:2.3771132 13:6.1613156 14:4.5519115 15:-0.42883031 16:-0.49040593 17:-2.3953233 18:0.24708528 19:-0.52710678 20:-0.49184619 21:-0.35859561 22:-0.37536675 23:-0.53465374 
-0.1789654034669656 1:0 2:0.92196958 3:3.9372365 4:3.1156172 5:-1.2887866 6:-0.24494897 7:0.19403763 8:0.34924022 9:-0.1828607 10:0.41744032 11:0.36360638 12:2.1599935 13:2.0213069 14:-0.75247092 15:-0.24761554 16:-0.53177388 17:1.2483439 18:-0.39894374 19:-0.52710678 20:-0.49184619 21:-0.35859561 22:-0.37536675 23:-0.53465374 
-0.7414311698157302 1:0 2:0.38126552 3:-0.59914469 4:0.45226702 5:-0.41006537 6:-0.24494897 7:0.19403763 8:0.58950637 9:-0.40655084 10:-0.49244023 11:0.58041569 12:1.3747223 13:0.66902111 14:-0.75247092 15:-0.30292499 16:-0.66970096 17:-1.37622 18:-1.1558986 19:-0.52710678 20:-0.49184619 21:-0.35859561 22:-0.37536675 23:-0.53465374 
-0.01105460657432772 1:0 2:-1.1965462 3:3.9372365 4:3.1156172 5:5.0261994 6:6.2461988 7:6.3644343 8:3.8653658 9:-0.87010675 10:1.0920628 11:1.8675425 12:-0.25740138 13:-0.64579726 14:3.7685518 15:-1.1533 16:-0.13951598 17:-0.33789661 18:0.0044766726 19:4.5522859 20:-0.21509244 21:3.7533767 22:4.5982427 23:1.8459569 
0.03668699462625032 1:0 2:6.4736833 3:10.741808 4:8.4423176 5:9.4838429 6:6.2461988 7:4.3076354 8:4.9788109 9:-0.87010675 10:3.1027008 11:-0.64113617 12:0.16272163 13:-0.38136988 14:1.8556303 15:-0.30934245 16:0.046914624 17:-3.5269628 18:-0.5295088 19:9.6316785 20:2.0166029 21:11.254963 22:4.5982427 23:2.5195405 
0.05758850422721283 1:0 2:2.2250419 3:13.009999 4:3.1156172 5:1.9661565 6:1.918767 7:2.2508365 8:5.0668374 9:-0.87010675 10:1.0050529 11:-0.35561277 12:-2.1828148 13:4.2861082 14:0.034345094 15:-0.067960317 16:-0.54447817 17:-0.64736815 18:-0.96798705 19:3.2824377 20:-0.1974273 21:2.8025636 22:1.2825031 23:-0.30397441 
0.1056463107359352 1:0 2:3.6517638 3:3.9372365 4:5.7789674 5:6.4060404 6:12.737347 7:6.3644343 8:6.7603031 9:-0.87010675 10:0.98686909 11:-3.3618854 12:0.31876779 13:3.713325 14:0.52794692 15:0.17994179 16:-0.6495691 17:-1.283807 18:-0.061180271 19:2.0125895 20:1.8399514 21:2.1034612 22:-0.37536675 23:1.6152775 
-0.02753109810240811 1:0 2:-0.57388972 3:-0.59914469 4:0.45226702 5:0.18044151 6:-0.24494897 7:0.19403763 8:0.81382812 9:-0.23420181 10:-1.040826 11:0.04517652 12:0.54239132 13:-0.0092674473 14:-0.75247092 15:-0.15654962 16:-0.58180646 17:-2.3361183 18:-0.60305041 19:-0.52710678 20:-0.49184619 21:-0.35859561 22:-0.37536675 23:-0.53465374 
0.5709490882634698 1:0 2:0.95792478 3:-0.59914469 4:-2.2110832 5:-0.8345455 6:-0.24494897 7:-1.8627613 8:-1.4674228 9:2.0814131 10:0.96625636 11:-0.73165243 12:0.1247018 13:-0.82708415 14:-0.75247092 15:2.1203192 16:2.1933005 17:0.95813368 18:2.001348 19:-0.52710678 20:-0.49184619 21:-0.35859561 22:-0.37536675 23:-0.53465374 
0.07556658992948642 1:0 2:2.7933884 3:13.009999 4:8.4423176 5:1.7413577 6:4.0824829 7:4.3076354 8:6.0462925 9:-0.87010675 10:3.0974887 11:-0.63657241 12:0.28975259 13:4.0906817 14:0.13772639 15:0.26139763 16:-0.80021977 17:-0.69239979 18:-0.37315304 19:7.0919822 20:0.76237835 21:7.7115413 22:4.5982427 23:2.0812499 
-0.2111389340172375 1:0 2:-1.6851962 3:3.9372365 4:0.45226702 5:0.68658015 6:-0.24494897 7:0.19403763 8:-0.55323309 9:-0.87010675 10:3.0990012 11:-0.73165243 12:-0.038472095 13:0.93270473 14:-0.42366532 15:-0.035262259 16:-0.64418082 17:-0.33496387 18:-1.1077728 19:0.74274138 20:2.8880825 21:1.2827755 22:-0.37536675 23:2.1135449 
-0.1717678402916882 1:0 2:0.51029097 3:6.2054271 4:3.1156172 5:0.51843436 6:4.0824829 7:4.3076354 8:2.3417175 9:-0.87010675 10:0.97422732 11:1.8568207 12:-0.33154 13:-0.54878695 14:-0.75247092 15:-0.48759148 16:-0.45155332 17:-2.9656685 18:-0.026161101 19:0.74274138 20:1.6397465 21:0.2825653 22:-0.37536675 23:1.1354646 
0.04486977252138964 1:0 2:3.4346447 3:15.27819 4:8.4423176 5:10.401412 6:8.4099148 7:4.3076354 8:5.8383202 9:-0.87010675 10:1.0109959 11:-3.3234865 12:0.56318143 13:1.7393515 14:-0.38351528 15:-0.1527207 16:-0.22844632 17:-3.3963592 18:-0.017969002 19:5.822134 20:-0.10910165 21:5.4142337 22:1.2825031 23:1.2138956 
0.774263682681127 1:0 2:1.4176887 3:1.6690459 4:0.45226702 5:-1.185641 6:-0.24494897 7:0.19403763 8:0.43128659 9:0.0020471399 10:-0.37135507 11:0.96769559 12:1.1519187 13:2.2064776 14:-0.30582727 15:-0.52857987 16:-0.43155887 17:1.0081902 18:-0.89881675 19:-0.52710678 20:-0.49184619 21:-0.35859561 22:-0.37536675 23:-0.53465374 
0.2228921335437707 1:0 2:-0.61315235 3:3.9372365 4:5.7789674 5:5.5186815 6:1.918767 7:2.2508365 8:8.0554152 9:-0.87010675 10:1.0920672 11:1.8675418 12:-0.2574027 13:1.2493899 14:0.13771657 15:0.1506763 16:-0.72481068 17:-0.34644909 18:-1.1563181 19:3.2824377 20:-0.21509244 21:2.9754411 22:-0.37536675 23:3.2853958 
0.4500099714898672 1:0 2:-1.5388618 3:-0.59914469 4:0.45226702 5:0.62056113 6:-0.24494897 7:0.19403763 8:0.0093466511 9:-0.87010675 10:3.1025199 11:-0.73165243 12:0.21829144 13:-0.82708415 14:0.14058621 15:-0.87876582 16:0.21187341 17:-1.7126111 18:-0.23535272 19:0.74274138 20:3.0823992 21:1.5392379 22:1.2825031 23:2.2657934 
0.774263682681127 1:0 2:-0.47137649 3:1.6690459 4:0.45226702 5:1.1274341 6:1.918767 7:0.19403763 8:-0.14887574 9:-0.27158103 10:-0.52443201 11:-0.98995526 12:-1.5310935 13:1.4701536 14:-0.75247092 15:0.40596742 16:-0.88732937 17:-0.71701378 18:-0.724338 19:-0.52710678 20:-0.49184619 21:-0.35859561 22:-0.37536675 23:-0.53465374 
0.04637827444096894 1:0 2:5.1604419 3:6.2054271 4:3.1156172 5:1.3826754 6:1.918767 7:0.19403763 8:2.1893452 9:0.14125728 10:1.6190141 11:0.88919273 12:1.8217189 13:-0.82708415 14:-0.26795498 15:-1.3283785 16:0.8290844 17:1.6012696 18:-0.2407978 19:-0.52710678 20:-0.49184619 21:-0.35859561 22:-0.37536675 23:-0.53465374 
-0.774263682681127 1:0 2:0.76811466 3:-0.59914469 4:0.45226702 5:-0.58691089 6:-0.24494897 7:0.19403763 8:1.0760647 9:-0.87010675 10:3.0904399 11:-0.43229375 12:0.1311212 13:-0.37977982 14:0.7892524 15:-0.66265409 16:-0.39495102 17:0.21855667 18:-0.65147157 19:0.74274138 20:1.4748719 21:0.33710746 22:1.2825031 23:1.0062841 
0.01189108880486379 1:0 2:3.5228176 3:19.814571 4:16.432368 5:2.050412 6:4.0824829 7:4.3076354 8:12.77336 9:-0.87010675 10:0.96625636 11:-3.3312616 12:0.52861595 13:5.405891 14:0.0047254366 15:0.22014712 16:-0.76436901 17:-0.31242192 18:-0.656448 19:7.0919822 20:0.37374536 21:3.0032233 22:2.9403729 23:0.61874291 
-0.004365380060799175 1:0 2:2.661234 3:13.009999 4:8.4423176 5:10.866907 6:1.918767 7:2.2508365 8:4.5803065 9:-0.87010675 10:0.98230581 11:1.855675 12:-0.33633277 13:1.7051226 14:0.15669668 15:0.29966923 16:-0.46832523 17:-2.9544559 18:-0.10568998 19:8.3618303 20:1.4513185 21:6.976281 22:-0.37536675 23:2.5241542 
0.3126741511622018 1:0 2:0.57091981 3:-0.59914469 4:0.45226702 5:0.59845623 6:4.0824829 7:4.3076354 8:1.6267628 9:-0.87010675 10:-1.1675199 11:-0.64406968 12:0.00057972185 13:-0.82708415 14:0.57796673 15:-0.039957271 16:-0.58216668 17:-1.6525199 18:-0.010727328 19:0.74274138 20:2.2521378 21:0.82113923 22:1.2825031 23:1.6152775 
0.389085134658481 1:0 2:0.85578957 3:-0.59914469 4:0.45226702 5:0.61755033 6:4.0824829 7:0.19403763 8:-0.55323309 9:-0.87010675 10:1.192359 11:1.878066 12:0.37218269 13:3.1286314 14:-0.3031845 15:0.25710226 16:-0.69178607 17:-0.40890917 18:0.31702991 19:0.74274138 20:2.6113289 21:0.76984582 22:-0.37536675 23:1.8967064 
0.4805443065232394 1:0 2:0.058713082 3:-0.59914469 4:0.45226702 5:3.526555 6:-0.24494897 7:0.19403763 8:1.1345063 9:-0.87010675 10:2.4512791 11:-2.6013195 12:-0.16841847 13:1.0063002 14:1.5557157 15:-0.091319555 16:-0.65546352 17:-0.48299957 18:0.13215089 19:0.74274138 20:-0.21509244 21:-0.30730264 22:1.2825031 23:-0.31781518 
-0.2701749410185423 1:0 2:1.0735388 3:8.4736178 4:5.7789674 5:3.9049572 6:-0.24494897 7:0.19403763 8:5.9336271 9:-0.87010675 10:0.92745986 11:-1.1076917 12:2.4322184 13:0.20525312 14:2.8243799 15:-1.0574655 16:-0.15712203 17:-1.228073 18:-0.99505635 19:2.0125895 20:-0.1974273 21:-0.11542952 22:2.9403729 23:-0.20708911 
0.009951182290769123 1:0 2:5.5073307 3:15.27819 4:8.4423176 5:12.62876 6:12.737347 7:10.478032 8:8.8699835 9:-0.87010675 10:-1.169136 11:-0.81758914 12:0.038548064 13:-0.82708415 14:4.0567847 15:-0.91395658 16:0.055450511 17:-2.8013534 18:-1.1676528 19:9.6316785 20:0.3089732 21:8.2586039 22:-0.37536675 23:2.8424917 
0.774263682681127 1:0 2:1.8176642 3:6.2054271 4:5.7789674 5:1.2922475 6:1.918767 7:2.2508365 8:5.2835314 9:-0.87010675 10:-1.1608317 11:-0.73165243 12:0.35983461 13:2.7134924 14:-0.48034516 15:-0.39500745 16:-0.47592196 17:-0.53183145 18:0.026677436 19:0.74274138 20:-0.21509244 21:-0.30730264 22:-0.37536675 23:-0.31781518 
-0.1823731504199742 1:0 2:-0.1882493 3:3.9372365 4:3.1156172 5:-0.22930993 6:-0.24494897 7:0.19403763 8:1.6663551 9:-0.87010675 10:0.92538816 11:-1.1344793 12:2.4286452 13:0.62704448 14:-0.75247092 15:-0.33240469 16:-0.30630172 17:-1.4084949 18:-0.87373465 19:0.74274138 20:2.9646315 21:1.5867331 22:-0.37536675 23:2.1735215 
0.3486120068631233 1:0 2:-1.6097765 3:6.2054271 4:3.1156172 5:5.0722739 6:1.918767 7:0.19403763 8:0.36096129 9:-0.87010675 10:1.0672912 11:-3.2975426 12:0.66035558 13:2.1545325 14:-0.23217448 15:-0.29452908 16:-0.48381265 17:-2.0658949 18:-0.94333851 19:0.74274138 20:2.0519331 21:1.1417197 22:1.2825031 23:1.4584157 
0.002459209953942015 1:0 2:3.475847 3:13.009999 4:3.1156172 5:4.8197886 6:6.2461988 7:0.19403763 8:2.4882157 9:-0.87010675 10:1.0229729 11:1.8288954 12:-0.43798137 13:-0.29053759 14:3.3967973 15:-0.73292395 16:-0.065434405 17:-3.2280092 18:-0.85366298 19:2.0125895 20:0.46795939 21:1.3725379 22:1.2825031 23:0.21736087 
0.6226276477224882 1:0 2:-1.3954299 3:3.9372365 4:3.1156172 5:2.5637816 6:4.0824829 7:4.3076354 8:6.6079343 9:-0.87010675 10:1.0918573 11:1.8675487 12:-0.25744915 13:-0.38333439 14:4.304261 15:-0.85299044 16:-0.4687733 17:-0.44382266 18:0.14399895 19:0.74274138 20:-0.10910165 21:-0.30302827 22:1.2825031 23:1.3615304 
-0.2948298593271905 1:0 2:-1.253775 3:-0.59914469 4:0.45226702 5:0.91708244 6:4.0824829 7:4.3076354 8:2.9998776 9:-0.87010675 10:0.9603999 11:1.8784735 12:0.47161871 13:0.94989578 14:5.0482836 15:0.24766128 16:-0.68984329 17:0.25988412 18:-0.052637956 19:2.0125895 20:2.2992448 21:2.462131 22:-0.37536675 23:1.7121629 
0.007258087184556691 1:0 2:0.91213527 3:10.741808 4:3.1156172 5:2.2020111 6:1.918767 7:2.2508365 8:2.1366085 9:-0.87010675 10:-1.1705336 11:-0.73165243 12:0.20269469 13:-0.48734444 14:2.7169169 15:-0.77635068 16:-0.39735462 17:0.7155409 18:0.069498723 19:3.2824377 20:-0.21509244 21:2.2060461 22:2.9403729 23:1.153919 
0.01475088225708582 1:0 2:7.0969922 3:8.4736178 4:11.105668 5:9.4489169 6:10.573631 7:10.478032 8:22.250625 9:-0.87010675 10:-1.1579246 11:-1.0310368 12:0.11828184 13:3.0236021 14:0.30466171 15:0.47485986 16:-0.69350768 17:-0.051594268 18:-0.56044984 19:12.171375 20:0.992025 21:11.700259 22:7.9139823 23:2.5610629 
0.288696915435757 1:0 2:0.51902441 3:13.009999 4:0.45226702 5:0.82898078 6:1.918767 7:0.19403763 8:0.85321966 9:-0.096713366 10:-0.92873346 11:0.38232557 12:-0.31941411 13:3.2746225 14:2.0125012 15:-0.029966442 16:-0.30915143 17:2.4692752 18:0.044602011 19:-0.52710678 20:-0.49184619 21:-0.35859561 22:-0.37536675 23:-0.53465374 
-0.774263682681127 1:0 2:0.61074218 3:1.6690459 4:0.45226702 5:-1.1708253 6:-0.24494897 7:0.19403763 8:0.85321575 9:-0.19278727 10:-0.23951321 11:0.85004104 12:-1.2001577 13:2.004766 14:0.034458544 15:-0.44899363 16:-0.5803888 17:-1.0295831 18:-0.93882603 19:-0.52710678 20:-0.49184619 21:-0.35859561 22:-0.37536675 23:-0.53465374 
0.5934929467280534 1:0 2:-0.35739571 3:-0.59914469 4:0.45226702 5:0.26052226 6:1.918767 7:2.2508365 8:4.2286918 9:-0.87010675 10:0.96939173 11:1.905081 12:0.23165395 13:-0.31223604 14:1.7255817 15:-0.84409588 16:-0.3287837 17:0.61588313 18:-0.18314591 19:0.74274138 20:0.56217341 21:0.051747166 22:1.2825031 23:0.29117824 
-0.774263682681127 1:0 2:-1.4650572 3:-0.59914469 4:0.45226702 5:-0.52424981 6:-0.24494897 7:0.19403763 8:-1.3267775 9:-0.10735897 10:-0.83228981 11:-0.44089279 12:-1.1095332 13:-0.82708415 14:-0.50666938 15:0.25882153 16:-0.54090163 17:-0.67836051 18:-0.75479616 19:-0.52710678 20:-0.49184619 21:-0.35859561 22:-0.37536675 23:-0.53465374 
-0.774263682681127 1:0 2:-1.3774595 3:-0.59914469 4:0.45226702 5:1.2937619 6:-0.24494897 7:0.19403763 8:-0.4125878 9:0.045311294 10:-0.15127032 11:-0.97524642 12:-1.8514191 13:-0.2824799 14:1.6068167 15:-0.14119933 16:-0.51628858 17:0.59570114 18:-0.76714362 19:-0.52710678 20:-0.49184619 21:-0.35859561 22:-0.37536675 23:-0.53465374 
0.774263682681127 1:0 2:-0.49743855 3:-0.59914469 4:0.45226702 5:-1.112667 6:-0.24494897 7:0.19403763 8:-0.20161658 9:-0.87010675 10:-1.1703358 11:-0.73165243 12:0.04050995 13:-0.52298802 14:-0.25127761 15:0.33398439 16:-0.48546801 17:1.0109025 18:-1.0511947 19:0.74274138 20:2.4170125 21:0.71855233 22:-0.37536675 23:1.7444581 
-0.774263682681127 1:0 2:0.47422921 3:8.4736178 4:3.1156172 5:0.033578172 6:-0.24494897 7:0.19403763 8:0.92354231 9:-0.46595325 10:-1.1599767 11:-0.81510437 12:0.35746061 13:3.310662 14:1.9775085 15:0.43419101 16:0.16169949 17:1.9605634 18:0.37916629 19:-0.52710678 20:-0.49184619 21:-0.35859561 22:-0.37536675 23:-0.53465374 
0.1569301936752897 1:0 2:-0.13679299 3:8.4736178 4:5.7789674 5:4.8438808 6:6.2461988 7:4.3076354 8:2.329996 9:-0.3422639 10:-0.9809179 11:-1.4558695 12:-0.59491849 13:5.1147201 14:-0.75247092 15:0.42402462 16:-0.40656613 17:1.7714359 18:-0.56709936 19:0.74274138 20:4.8312473 21:1.1801886 22:-0.37536675 23:3.6360285 
0.1005699611400295 1:0 2:2.0794627 3:6.2054271 4:3.1156172 5:-0.71638535 6:1.918767 7:2.2508365 8:3.2793453 9:-0.87010675 10:-1.1705344 11:-0.73165243 12:0.20267203 13:2.7570975 14:3.5713966 15:-0.77998136 16:-0.37267942 17:0.45477168 18:-0.55155904 19:0.74274138 20:3.0706225 21:1.6931183 22:-0.37536675 23:2.2565662 
-0.774263682681127 1:0 2:0.27498289 3:-0.59914469 4:0.45226702 5:-1.0432416 6:-0.24494897 7:0.19403763 8:-1.1158103 9:0.17189683 10:-0.55696258 11:0.93327442 12:0.8416233 13:0.77222936 14:-0.29933539 15:-0.58703746 16:-0.40120141 17:-0.51464671 18:-1.0013419 19:-0.52710678 20:-0.49184619 21:-0.35859561 22:-0.37536675 23:-0.53465374 
-0.1512171135359512 1:0 2:-1.5679062 3:6.2054271 4:0.45226702 5:-0.92931367 6:-0.24494897 7:0.19403763 8:-0.41258648 9:-0.87010675 10:3.1000153 11:-0.81947447 12:0.24904295 13:5.5806247 14:-0.75247092 15:-0.32455521 16:-0.53238063 17:-1.6986793 18:0.061246738 19:0.74274138 20:2.0224911 21:0.71855233 22:1.2825031 23:1.4353477 
0.01614074188296154 1:0 2:2.2927483 3:15.27819 4:13.769018 5:6.2942956 6:12.737347 7:10.478032 8:19.735585 9:-0.87010675 10:3.1039414 11:-0.73165243 12:0.1638587 13:0.41572411 14:5.9296986 15:-1.1745308 16:0.092875322 17:0.03050076 18:0.048487259 19:4.5522859 20:-0.1974273 21:2.7052971 22:-0.37536675 23:2.681016 
-0.774263682681127 1:0 2:-0.22105717 3:1.6690459 4:0.45226702 5:-0.3770923 6:1.918767 7:2.2508365 8:0.89619247 9:-0.35056211 10:-0.22943306 11:1.4234174 12:-0.21007512 13:-0.82708415 14:-0.75247092 15:-0.25490225 16:-0.57754563 17:-1.3213655 18:-0.44515782 19:-0.52710678 20:-0.49184619 21:-0.35859561 22:-0.37536675 23:-0.53465374 
0.01254643348168493 1:0 2:7.5009183 3:15.27819 4:11.105668 5:11.196726 6:6.2461988 7:6.3644343 8:19.980944 9:-0.87010675 10:-1.1608317 11:-0.73165243 12:0.35983461 13:-0.39454295 14:6.5057008 15:-1.3247032 16:0.41829437 17:-0.64309793 18:-0.9387121 19:4.5522859 20:-0.21509244 21:2.206047 22:2.9403729 23:2.1089314 
-0.008532570336755531 1:0 2:1.0265275 3:13.009999 4:3.1156172 5:0.95583115 6:8.4099148 7:2.2508365 8:0.36096265 9:-0.87010675 10:-1.169136 11:-0.81758914 12:0.038548064 13:-0.82708415 14:4.0567847 15:-0.91395658 16:0.055450511 17:-2.8013534 18:-1.1676528 19:2.0125895 20:1.7280722 21:1.2827755 22:-0.37536675 23:1.2646451 
-0.774263682681127 1:0 2:0.48953125 3:-0.59914469 4:0.45226702 5:-0.58089135 6:-0.24494897 7:0.19403763 8:0.66569319 9:-0.3628934 10:-0.46782306 11:0.96608283 12:0.98576299 13:-0.28094464 14:1.6389681 15:-0.65561341 16:-0.37285086 17:-0.4488697 18:-0.2916252 19:-0.52710678 20:-0.49184619 21:-0.35859561 22:-0.37536675 23:-0.53465374 
-0.2996289941986856 1:0 2:-0.84268958 3:3.9372365 4:-2.2110832 5:-0.42464937 6:-0.24494897 7:-1.8627613 8:-1.4674228 9:2.0814131 10:0.96625636 11:-0.73165243 12:0.1247018 13:-0.82708415 14:-0.75247092 15:2.1203192 16:2.1933005 17:0.95813368 18:2.001348 19:-0.52710678 20:-0.49184619 21:-0.35859561 22:-0.37536675 23:-0.53465374 
-0.2028077731475296 1:0 2:1.1400192 3:13.009999 4:3.1156172 5:4.62949 6:1.918767 7:2.2508365 8:-0.20057642 9:-0.20362376 10:-1.1332696 11:-0.23411962 12:0.15072326 13:3.2031828 14:0.57790512 15:0.34060337 16:-0.73890023 17:-1.5232994 18:-0.57015683 19:-0.52710678 20:-0.49184619 21:-0.35859561 22:-0.37536675 23:-0.53465374 
0.3270374586633238 1:0 2:-2.4538892 3:-0.59914469 4:0.45226702 5:-1.204116 6:-0.24494897 7:0.19403763 8:-1.3971001 9:0.24876459 10:1.7543735 11:1.3354749 12:1.2924001 13:-0.46388665 14:-0.47617267 15:-0.67634875 16:0.34042834 17:1.2170801 18:-0.36544032 19:-0.52710678 20:-0.49184619 21:-0.35859561 22:-0.37536675 23:-0.53465374 
0.774263682681127 1:0 2:-0.032793312 3:-0.59914469 4:0.45226702 5:-0.23511053 6:-0.24494897 7:0.19403763 8:-0.55323309 9:0.13380059 10:-0.1444642 11:0.40495451 12:-1.5961332 13:-0.82708415 14:0.32538159 15:-0.56516731 16:-0.44858157 17:-0.34297247 18:-0.21369055 19:-0.52710678 20:-0.49184619 21:-0.35859561 22:-0.37536675 23:-0.53465374 
0.006350378642668504 1:0 2:2.9608038 3:22.082761 4:13.769018 5:10.825307 6:12.737347 7:12.534831 8:19.699635 9:-0.87010675 10:-1.1674873 11:-0.64861811 12:-0.0024852787 13:6.8830796 14:2.4076727 15:-0.58343555 16:0.45984243 17:2.6439767 18:-0.48677064 19:9.6316785 20:0.21475917 21:6.4633586 22:1.2825031 23:0.29117824 
-0.774263682681127 1:0 2:3.6470506 3:1.6690459 4:0.45226702 5:-0.56588616 6:-0.24494897 7:0.19403763 8:-0.059104446 9:-0.12853188 10:-0.06188345 11:0.044826074 12:2.0505751 13:-0.29707114 14:-0.75247092 15:-0.94040958 16:-0.33546056 17:-0.67143288 18:-0.16468648 19:-0.52710678 20:-0.49184619 21:-0.35859561 22:-0.37536675 23:-0.53465374 
0.774263682681127 1:0 2:-1.3758651 3:1.6690459 4:0.45226702 5:-0.52424981 6:-0.24494897 7:0.19403763 8:-1.3267775 9:-0.10735897 10:-0.83228981 11:-0.44089279 12:-1.1095332 13:-0.82708415 14:-0.50666938 15:0.25882153 16:-0.54090163 17:-0.67836051 18:-0.75479616 19:-0.52710678 20:-0.49184619 21:-0.35859561 22:-0.37536675 23:-0.53465374 
-0.774263682681127 1:0 2:-0.005055038 3:1.6690459 4:0.45226702 5:-0.20020549 6:-0.24494897 7:0.19403763 8:-0.50048564 9:-0.47755794 10:0.9062169 11:0.017921058 12:-2.110031 13:0.065630231 14:-0.75247092 15:-0.23051379 16:-0.57417309 17:0.22668616 18:-0.10752854 19:-0.52710678 20:-0.49184619 21:-0.35859561 22:-0.37536675 23:-0.53465374 
0.03640735549126553 1:0 2:4.0804474 3:3.9372365 4:0.45226702 5:-0.56588616 6:-0.24494897 7:0.19403763 8:-0.059104446 9:-0.12853188 10:-0.06188345 11:0.044826074 12:2.0505751 13:-0.29707114 14:-0.75247092 15:-0.94040958 16:-0.33546056 17:-0.67143288 18:-0.16468648 19:-0.52710678 20:-0.49184619 21:-0.35859561 22:-0.37536675 23:-0.53465374 
0.774263682681127 1:0 2:-1.184324 3:1.6690459 4:0.45226702 5:-0.93897239 6:-0.24494897 7:0.19403763 8:1.5798874 9:-0.53025491 10:-0.58909402 11:1.0065949 12:-0.3243015 13:-0.57896132 14:-0.40739151 15:-0.31010954 16:-0.53093336 17:1.0976637 18:-0.0363399 19:-0.52710678 20:-0.49184619 21:-0.35859561 22:-0.37536675 23:-0.53465374 
0.774263682681127 1:0 2:1.0984673 3:1.6690459 4:0.45226702 5:-0.18226939 6:-0.24494897 7:0.19403763 8:-0.20057642 9:-0.51911035 10:-0.56959778 11:1.0904741 12:0.32530025 13:-0.46284659 14:-0.75247092 15:-1.0871241 16:-0.34386149 17:-0.28062841 18:0.12426168 19:-0.52710678 20:-0.49184619 21:-0.35859561 22:-0.37536675 23:-0.53465374 
0.774263682681127 1:0 2:-0.14018789 3:1.6690459 4:0.45226702 5:-0.39632384 6:-0.24494897 7:0.19403763 8:0.056233388 9:-0.41290308 10:0.15459371 11:-0.16233219 12:-1.9729774 13:-0.021194682 14:-0.26568631 15:-1.3195032 16:0.17053998 17:0.52328665 18:0.032012705 19:-0.52710678 20:-0.49184619 21:-0.35859561 22:-0.37536675 23:-0.53465374 
0.774263682681127 1:0 2:-0.50976218 3:1.6690459 4:0.45226702 5:-0.52438392 6:-0.24494897 7:0.19403763 8:0.39950871 9:0.012603493 10:-0.95866998 11:0.40961258 12:0.23960472 13:0.83595923 14:-0.75247092 15:-0.16610545 16:-0.64745717 17:-0.17311516 18:-0.67719898 19:-0.52710678 20:-0.49184619 21:-0.35859561 22:-0.37536675 23:-0.53465374 
-0.1104771969463979 1:0 2:-1.2947411 3:6.2054271 4:3.1156172 5:0.95670208 6:-0.24494897 7:0.19403763 8:0.89619247 9:-0.35056211 10:2.1619458 11:-2.8867223 12:0.45947872 13:1.4059696 14:0.21921594 15:-0.25490225 16:-0.57754563 17:-1.3213655 18:-0.44515782 19:-0.52710678 20:-0.49184619 21:-0.35859561 22:-0.37536675 23:-0.53465374 
0.3757458602670047 1:0 2:1.1286303 3:3.9372365 4:0.45226702 5:-0.64187225 6:-0.24494897 7:0.19403763 8:-1.1861329 9:0.098527032 10:-0.36526883 11:0.1079771 12:-1.5419904 13:2.3646936 14:1.1301622 15:-0.73927752 16:-0.062263241 17:-0.28639657 18:-0.18001092 19:-0.52710678 20:-0.49184619 21:-0.35859561 22:-0.37536675 23:-0.53465374 
0.2919753546135165 1:0 2:1.2315351 3:3.9372365 4:3.1156172 5:2.243324 6:4.0824829 7:2.2508365 8:4.3693444 9:-0.28981887 10:-1.1277037 11:-1.2254749 12:-0.052243551 13:-0.82708415 14:4.9653423 15:-0.2297723 16:0.58957438 17:2.1461216 18:0.33304559 19:-0.52710678 20:-0.49184619 21:-0.35859561 22:-0.37536675 23:-0.53465374 
-0.774263682681127 1:0 2:1.7808238 3:-0.59914469 4:0.45226702 5:1.0487734 6:-0.24494897 7:0.19403763 8:0.056230718 9:-0.87010675 10:-1.1681791 11:-0.82048046 12:0.23373036 13:1.4268351 14:-0.3657862 15:-0.59637287 16:-0.29875849 17:-1.3095889 18:-0.16220037 19:0.74274138 20:2.2050308 21:0.64161463 22:2.9403729 23:3.1331475 
-0.3452547780977381 1:0 2:-0.84259231 3:3.9372365 4:0.45226702 5:5.7853774 6:6.2461988 7:0.19403763 8:-0.55323309 9:0.16928515 10:-0.5643944 11:0.1277028 12:-1.3153774 13:3.3759134 14:-0.75247092 15:-0.46905819 16:-0.32363327 17:1.178917 18:0.14054584 19:-0.52710678 20:-0.49184619 21:-0.35859561 22:-0.37536675 23:-0.53465374 
0.397857832536707 1:0 2:1.6521796 3:6.2054271 4:3.1156172 5:3.2449742 6:6.2461988 7:2.2508365 8:1.6267628 9:-0.87010675 10:-1.1672789 11:-0.73165243 12:0.27508242 13:-0.51434334 14:-0.21708896 15:0.22186346 16:-0.44809473 17:-2.9700459 18:0.31599162 19:0.74274138 20:1.0803507 21:0.10304015 22:1.2825031 23:0.69717391 
