SNNS network definition file V1.4-3D
generated at Thu May 09 10:11:49 1996

network name : v27-23+8
source files :
no. of units : 59
no. of connections : 314
no. of unit types : 0
no. of site types : 0


learning function : Std_Backpropagation
update function : Topological_Order


unit default section :

act      | bias     | st | subnet | layer | act func     | out func
---------|----------|----|--------|-------|--------------|-------------
 0.00000 |  0.00000 | h  |      0 |     1 | Act_Logistic | Out_Identity
---------|----------|----|--------|-------|--------------|-------------


unit definition section :

no. | typeName | unitName | act      | bias     | st | position | act func | out func | sites
----|----------|----------|----------|----------|----|----------|----------|----------|-------
  1 |          |           |        0 |        0 | i  |  2, 1, 0 |||
  2 |          |           |        0 |        0 | i  |  2, 3, 0 |||
  3 |          |           |  -1.2027 |        0 | i  |  2, 4, 0 |||
  4 |          |           |  -2.3469 |        0 | i  |  2, 5, 0 |||
  5 |          |           |    1.606 |        0 | i  |  2, 6, 0 |||
  6 |          |           |  0.56621 |        0 | i  |  2, 7, 0 |||
  7 |          |           | -0.80445 |        0 | i  |  2, 8, 0 |||
  8 |          |           |  -2.1743 |        0 | i  |  2, 9, 0 |||
  9 |          |           |  -1.3797 |        0 | i  |  2,10, 0 |||
 10 |          |           |  -4.5164 |        0 | i  |  2,11, 0 |||
 11 |          |           |  -1.5492 |        0 | i  |  2,12, 0 |||
 12 |          |           |        0 |        0 | i  |  2,14, 0 |||
 13 |          |           |  0.28065 |        0 | i  |  2,15, 0 |||
 14 |          |           |  0.32836 |        0 | i  |  2,16, 0 |||
 15 |          |           | 0.024121 |        0 | i  |  2,17, 0 |||
 16 |          |           |  -0.1278 |        0 | i  |  2,18, 0 |||
 17 |          |           |   1.8114 |        0 | i  |  2,19, 0 |||
 18 |          |           |   1.7148 |        0 | i  |  2,20, 0 |||
 19 |          |           |   2.6732 |        0 | i  |  2,22, 0 |||
 20 |          |           |   3.8524 |        0 | i  |  2,23, 0 |||
 21 |          |           |        0 |        0 | i  |  2,24, 0 |||
 22 |          |           |   10.445 |        0 | i  |  2,26, 0 |||
 23 |          |           |   2.0636 |        0 | i  |  2,27, 0 |||
 24 |          |           |  -0.6702 |        0 | i  |  2,28, 0 |||
 25 |          |           |  0.40944 |        0 | i  |  2,29, 0 |||
 26 |          |           | -0.48685 |        0 | i  |  2,30, 0 |||
 27 |          |           |  0.90886 |        0 | i  |  2,31, 0 |||
 28 |          |           |  0.96219 |  0.70714 | h  |  7, 3, 0 |||
 29 |          |           |  0.97612 |  0.36651 | h  |  7, 4, 0 |||
 30 |          |           |  0.11699 | -0.63994 | h  |  7, 5, 0 |||
 31 |          |           |  0.12641 |   1.0754 | h  |  8, 6, 0 |||
 32 |          |           |   0.9294 |  0.10367 | h  |  8, 7, 0 |||
 33 |          |           | 0.097121 |  0.17835 | h  |  8, 8, 0 |||
 34 |          |           |  0.99913 |  -2.5729 | h  |  7,10, 0 |||
 35 |          |           |  0.99812 | -0.15286 | h  |  7,11, 0 |||
 36 |          |           |  0.82011 | -0.33323 | h  |  7,12, 0 |||
 37 |          |           |  0.92662 |  0.72256 | h  |  7,14, 0 |||
 38 |          |           |  0.86654 |  0.56375 | h  |  7,15, 0 |||
 39 |          |           |  0.75044 |  0.12607 | h  |  7,16, 0 |||
 40 |          |           |  0.89031 |  0.88781 | h  |  7,17, 0 |||
 41 |          |           |  0.54151 | -0.16685 | h  |  7,19, 0 |||
 42 |          |           |  0.46429 |  0.34572 | h  |  7,20, 0 |||
 43 |          |           |  0.92573 |  0.15119 | h  |  7,22, 0 |||
 44 |          |           |  0.99997 |   1.2834 | h  |  7,23, 0 |||
 45 |          |           | 0.093175 |  0.80859 | h  |  7,24, 0 |||
 46 |          |           |  0.99481 | 0.085909 | h  |  7,26, 0 |||
 47 |          |           | 2.1949e-05 |   1.3797 | h  |  7,27, 0 |||
 48 |          |           |        1 |  -2.6071 | h  |  7,28, 0 |||
 49 |          |           | 2.3947e-05 |  -1.0088 | h  |  7,29, 0 |||
 50 |          |           |        1 |    1.848 | h  |  7,30, 0 |||
 51 |          |           |  0.99987 | -0.88055 | h  | 13,12, 0 |||
 52 |          |           |  0.77989 |   1.1084 | h  | 13,13, 0 |||
 53 |          |           |  0.10013 |  0.14944 | h  | 13,14, 0 |||
 54 |          |           |  0.99312 | -0.46224 | h  | 13,15, 0 |||
 55 |          |           | 0.00017077 |  0.81563 | h  | 13,16, 0 |||
 56 |          |           |  0.97273 |   0.6983 | h  | 13,17, 0 |||
 57 |          |           |  0.98065 |  0.62944 | h  | 13,18, 0 |||
 58 |          |           | 0.0067322 | -0.50581 | h  | 13,19, 0 |||
 59 |          |           |  0.99947 | -0.27368 | o  | 20,15, 0 |||
----|----------|----------|----------|----------|----|----------|----------|----------|-------


connection definition section :

target | site | source:weight
-------|------|------------------------------------------------------------------------------------------------------------
    28 |      |   1:0.094761,   2: 0.26402,   3:  -1.536,   4:-0.41144,   5: -0.1765
    29 |      |   1:-0.90442,   2: 0.78631,   3: -1.3725,   4:-0.14438,   5: 0.84343
    30 |      |   1:-0.98614,   2:-0.32029,   3: -1.1023,   4:  1.1589,   5:0.0079132
    31 |      |   1: 0.84173,   2: 0.68548,   6:-0.95958,   7: 0.64863,   8: 0.89378
    32 |      |   1:  0.7216,   2:-0.92523,   6:-0.94134,   7: 0.75383,   8: -1.6618
    33 |      |   1:-0.00087401,   2: 0.13364,   6:-0.61296,   7:-0.16776,   8:  1.0099
    34 |      |   1: -0.1251,   9: 0.27908,  10: -1.8568,  11: -1.0447
    35 |      |   1:-0.78399,   9:-0.58428,  10: -1.1605,  11:-0.24465
    36 |      |   1: 0.85949,   9: 0.93698,  10:-0.66282,  11:-0.096518
    37 |      |   1: 0.74419,  12: 0.50639,  13: 0.32308,  14: 0.70979,  15:-0.50582,  16:  0.9582,  17: 0.67896,  18: 0.23003
    38 |      |   1:-0.53595,  12:  -0.946,  13:0.078861,  14:-0.48925,  15:  1.1011,  16: -1.0252,  17:-0.27964,  18:  1.0464
    39 |      |   1:-0.92773,  12:-0.0098541,  13:-0.018425,  14:-0.35257,  15:-0.25892,  16:  1.0296,  17:  0.5483,  18: 0.14026
    40 |      |   1:-0.44214,  12:-0.72938,  13:-0.021934,  14: 0.71782,  15:  -1.329,  16: 0.75043,  17:0.065944,  18: 0.57445
    41 |      |   1:-0.030529,  19: 0.12468
    42 |      |   1:-0.30656,  19:-0.18285
    43 |      |   1: 0.58114,  20: 0.61564,  21:-0.98223
    44 |      |   1:  0.4488,  20:  2.3702,  21:-0.14982
    45 |      |   1:-0.03588,  20:-0.80056,  21: 0.80777
    46 |      |   1: 0.91291,  22: 0.49693,  23: 0.32325,  24:-0.68545,  25: 0.13262,  26:0.043525,  27: -1.2989
    47 |      |   1: 0.61582,  22:-0.70492,  23: -2.1492,  24:  1.6097,  25:  1.1219,  26:  2.7497,  27:  1.8147
    48 |      |   1:-0.91794,  22:  1.4199,  23:0.047066,  24:-0.15277,  25: 0.91915,  26:  1.0449,  27:0.065403
    49 |      |   1:-0.40366,  22:-0.97121,  23:  1.4802,  24:  2.8536,  25:-0.069437,  26:-0.020501,  27:-0.67149
    50 |      |   1:-0.55199,  22:  1.1117,  23:  1.3229,  24:-0.26548,  25:  1.4172,  26: -1.3957,  27: 0.31114
    51 |      |  28:  0.7631,  29:  1.5014,  30:  1.2329,  31: -1.2029,  32: 0.86616,  33: -0.1823,  34:  2.0838,  35: 0.60438, 
                 36: 0.95635,  37:-0.11634,  38: -1.5203,  39:-0.63613,  40: 0.92627,  41: 0.89121,  42:-0.38105,  43: 0.39867, 
                 44: -1.5669,  45:-0.82763,  46: 0.91999,  47:  -3.067,  48:  2.1896,  49: -1.4872,  50:  2.3462
    52 |      |  28:-0.069856,  29: 0.29161,  30:-0.62171,  31:  1.0232,  32: 0.46704,  33: 0.59128,  34:-0.24156,  35:-0.26353, 
                 36: 0.13765,  37:-0.56119,  38:-0.29625,  39:-0.85721,  40: 0.64739,  41:-0.62443,  42:  0.1714,  43: 0.68442, 
                 44:-0.20849,  45: 0.80987,  46: -0.6722,  47: 0.69102,  48:  0.7673,  49:0.063937,  50: 0.28565
    53 |      |  28: 0.46517,  29:-0.74113,  30:-0.26946,  31: 0.51348,  32: 0.49297,  33:-0.67594,  34:  0.3925,  35:-0.60433, 
                 36: 0.36146,  37:-0.98762,  38: -0.3398,  39:-0.13443,  40: 0.39571,  41:0.089047,  42: 0.50784,  43:-0.26809, 
                 44: 0.60722,  45:  1.1311,  46:-0.37476,  47: 0.66394,  48: -1.0279,  49:  1.1002,  50:-0.97027
    54 |      |  28: 0.62456,  29:-0.053973,  30:-0.28727,  31: 0.06761,  32:  1.0573,  33: 0.50127,  34:  0.6149,  35: 0.54671, 
                 36: 0.79234,  37:   1.109,  38:-0.99289,  39: 0.45676,  40:   1.456,  41:-0.90215,  42: 0.87101,  43: 0.18875, 
                 44: -1.0897,  45:-0.81266,  46:  1.0169,  47:-0.25259,  48: 0.61364,  49:-0.69311,  50: -0.2867
    55 |      |  28:-0.48936,  29:-0.96844,  30:-0.17773,  31: 0.43995,  32: -1.2479,  33:  1.0809,  34: -2.0583,  35: 0.33707, 
                 36:-0.63887,  37:-0.82444,  38:  0.5139,  39:-0.75208,  40: -1.4825,  41:-0.99084,  42: 0.26642,  43:-0.92376, 
                 44:   1.227,  45: 0.86914,  46:-0.16404,  47:  3.1286,  48:-0.43758,  49:  1.8721,  50: -2.0468
    56 |      |  28: 0.85243,  29:-0.012808,  30: 0.48892,  31:0.010876,  32:-0.77118,  33: 0.58456,  34:  0.5142,  35: 0.25133, 
                 36:-0.60255,  37:-0.048835,  38:-0.33155,  39:-0.12104,  40:-0.16493,  41: -0.1367,  42:-0.19343,  43:  0.1483, 
                 44:  0.4832,  45: 0.85918,  46: 0.42311,  47: 0.42768,  48: 0.89395,  49:-0.60059,  50:  1.1178
    57 |      |  28:-0.57773,  29: 0.97194,  30: 0.67038,  31:  0.9818,  32: 0.46424,  33:-0.61333,  34:  1.1811,  35: 0.19322, 
                 36: 0.12738,  37: 0.52015,  38: 0.50886,  39: 0.31221,  40: 0.22448,  41: 0.30154,  42:-0.44853,  43: 0.33121, 
                 44:-0.80945,  45:0.080075,  46:-0.75671,  47:-0.59189,  48:  1.2666,  49:-0.70132,  50:-0.47937
    58 |      |  28:-0.31953,  29:  0.4221,  30: 0.19288,  31:-0.33865,  32: 0.67089,  33: 0.50727,  34: -1.6021,  35: -1.2176, 
                 36:-0.095529,  37: 0.58429,  38:-0.41733,  39:-0.89212,  40: 0.68117,  41: 0.88043,  42: 0.21418,  43: 0.07159, 
                 44:0.074942,  45: 0.17262,  46: -0.7287,  47:  2.4754,  48: -1.5729,  49: 0.52582,  50:-0.90356
    59 |      |  51:  4.7628,  52:-0.22972,  53: -1.1426,  54:  1.7359,  55: -3.8357,  56: 0.55021,  57:  1.1237,  58: -2.2303
-------|------|----------------------------------------------------------------------------------------------------------------
