SNNS network definition file V1.4-3D
generated at Thu May 09 10:11:49 1996

network name : v27-23+8
source files :
no. of units : 59
no. of connections : 314
no. of unit types : 0
no. of site types : 0


learning function : Std_Backpropagation
update function : Topological_Order


unit default section :

act      | bias     | st | subnet | layer | act func     | out func
---------|----------|----|--------|-------|--------------|-------------
 0.00000 |  0.00000 | h  |      0 |     1 | Act_Logistic | Out_Identity
---------|----------|----|--------|-------|--------------|-------------


unit definition section :

no. | typeName | unitName | act      | bias     | st | position | act func | out func | sites
----|----------|----------|----------|----------|----|----------|----------|----------|-------
  1 |          |           |        0 |        0 | i  |  2, 1, 0 |||
  2 |          |           |        0 |        0 | i  |  2, 3, 0 |||
  3 |          |           |        0 |        0 | i  |  2, 4, 0 |||
  4 |          |           |        0 |        0 | i  |  2, 5, 0 |||
  5 |          |           |        0 |        0 | i  |  2, 6, 0 |||
  6 |          |           |        0 |        0 | i  |  2, 7, 0 |||
  7 |          |           |        0 |        0 | i  |  2, 8, 0 |||
  8 |          |           |        0 |        0 | i  |  2, 9, 0 |||
  9 |          |           |        0 |        0 | i  |  2,10, 0 |||
 10 |          |           |        0 |        0 | i  |  2,11, 0 |||
 11 |          |           |        0 |        0 | i  |  2,12, 0 |||
 12 |          |           |        0 |        0 | i  |  2,14, 0 |||
 13 |          |           |        0 |        0 | i  |  2,15, 0 |||
 14 |          |           |        0 |        0 | i  |  2,16, 0 |||
 15 |          |           |        0 |        0 | i  |  2,17, 0 |||
 16 |          |           |        0 |        0 | i  |  2,18, 0 |||
 17 |          |           |        0 |        0 | i  |  2,19, 0 |||
 18 |          |           |        0 |        0 | i  |  2,20, 0 |||
 19 |          |           |        0 |        0 | i  |  2,22, 0 |||
 20 |          |           |        0 |        0 | i  |  2,23, 0 |||
 21 |          |           |        0 |        0 | i  |  2,24, 0 |||
 22 |          |           |        0 |        0 | i  |  2,26, 0 |||
 23 |          |           |        0 |        0 | i  |  2,27, 0 |||
 24 |          |           |        0 |        0 | i  |  2,28, 0 |||
 25 |          |           |        0 |        0 | i  |  2,29, 0 |||
 26 |          |           |        0 |        0 | i  |  2,30, 0 |||
 27 |          |           |        0 |        0 | i  |  2,31, 0 |||
 28 |          |           |        0 |  0.80164 | h  |  7, 3, 0 |||
 29 |          |           |        0 |  0.83014 | h  |  7, 4, 0 |||
 30 |          |           |        0 | -0.57339 | h  |  7, 5, 0 |||
 31 |          |           |        0 |   1.0642 | h  |  8, 6, 0 |||
 32 |          |           |        0 |  0.17354 | h  |  8, 7, 0 |||
 33 |          |           |        0 | -0.26856 | h  |  8, 8, 0 |||
 34 |          |           |        0 |  0.80745 | h  |  7,10, 0 |||
 35 |          |           |        0 |  0.55777 | h  |  7,11, 0 |||
 36 |          |           |        0 |  -0.3187 | h  |  7,12, 0 |||
 37 |          |           |        0 | -0.77669 | h  |  7,14, 0 |||
 38 |          |           |        0 |  0.32278 | h  |  7,15, 0 |||
 39 |          |           |        0 |  0.59297 | h  |  7,16, 0 |||
 40 |          |           |        0 |  0.48197 | h  |  7,17, 0 |||
 41 |          |           |        0 |  0.43835 | h  |  7,19, 0 |||
 42 |          |           |        0 |  -0.2175 | h  |  7,20, 0 |||
 43 |          |           |        0 | -0.064634 | h  |  7,22, 0 |||
 44 |          |           |        0 | -0.64698 | h  |  7,23, 0 |||
 45 |          |           |        0 | -0.045928 | h  |  7,24, 0 |||
 46 |          |           |        0 | -0.30396 | h  |  7,26, 0 |||
 47 |          |           |        0 |  0.81156 | h  |  7,27, 0 |||
 48 |          |           |        0 | -0.070396 | h  |  7,28, 0 |||
 49 |          |           |        0 | -0.84817 | h  |  7,29, 0 |||
 50 |          |           |        0 | -0.16835 | h  |  7,30, 0 |||
 51 |          |           |        0 |  0.46637 | h  | 13,12, 0 |||
 52 |          |           |        0 | -0.034399 | h  | 13,13, 0 |||
 53 |          |           |        0 | -0.67137 | h  | 13,14, 0 |||
 54 |          |           |        0 | -0.54497 | h  | 13,15, 0 |||
 55 |          |           |        0 | -0.73279 | h  | 13,16, 0 |||
 56 |          |           |        0 | -0.60561 | h  | 13,17, 0 |||
 57 |          |           |        0 | -0.92374 | h  | 13,18, 0 |||
 58 |          |           |        0 |  -0.1842 | h  | 13,19, 0 |||
 59 |          |           |        0 | -0.25825 | o  | 20,15, 0 |||
----|----------|----------|----------|----------|----|----------|----------|----------|-------


connection definition section :

target | site | source:weight
-------|------|------------------------------------------------------------------------------------------------------------
    28 |      |   1: 0.85073,   2: 0.97044,   3: 0.50487,   4:  1.0418,   5:-0.18787
    29 |      |   1:-0.69013,   2:-0.074445,   3:-0.95801,   4: 0.27323,   5: -0.3138
    30 |      |   1: 0.56304,   2: 0.53673,   3: 0.37686,   4:-0.19585,   5:  1.2732
    31 |      |   1: 0.17808,   2:0.059247,   6: 0.31943,   7:-0.35128,   8: 0.97981
    32 |      |   1: -0.7004,   2: -0.7293,   6:0.042485,   7:-0.72449,   8: 0.84418
    33 |      |   1:-0.23139,   2: 0.37459,   6: 0.66255,   7:-0.48627,   8:-0.53026
    34 |      |   1:-0.76337,   9: 0.43041,  10: 0.47845,  11:0.062959
    35 |      |   1:-0.40574,   9:-0.98924,  10: 0.36439,  11: -1.1974
    36 |      |   1:0.058873,   9: 0.70249,  10:-0.86268,  11:-0.39283
    37 |      |   1: 0.97644,  12: 0.58446,  13:-0.53155,  14: 0.77895,  15:  1.0306,  16:-0.27674,  17:-0.21044,  18:-0.67284
    38 |      |   1:-0.61626,  12: 0.12283,  13:   1.066,  14:-0.54766,  15:   1.196,  16:-0.55675,  17: 0.37556,  18:  0.6828
    39 |      |   1:-0.47407,  12:-0.77516,  13: 0.11732,  14: 0.11185,  15:-0.71525,  16:-0.52096,  17:-0.29492,  18: 0.54578
    40 |      |   1:-0.18314,  12:-0.81823,  13: 0.73408,  14: 0.90682,  15:-0.73135,  16: 0.26768,  17:  1.0652,  18: 0.80336
    41 |      |   1:-0.44762,  19:-0.50581
    42 |      |   1:-0.22702,  19:-0.049753
    43 |      |   1:-0.64117,  20: 0.86219,  21:-0.59758
    44 |      |   1: 0.75237,  20: -1.1245,  21:-0.80729
    45 |      |   1: -0.4938,  20: 0.96759,  21:  0.4063
    46 |      |   1: 0.91842,  22: 0.21912,  23:-0.25373,  24: 0.32449,  25: 0.79627,  26: 0.10373,  27:0.091688
    47 |      |   1:0.026287,  22:-0.76267,  23:-0.31725,  24:-0.29389,  25:  0.6902,  26:-0.028274,  27: 0.25612
    48 |      |   1:-0.90347,  22: -1.3876,  23:-0.29756,  24:-0.46121,  25:-0.17259,  26:-0.90794,  27: 0.65134
    49 |      |   1:0.044418,  22:  1.4667,  23:-0.13763,  24: 0.39113,  25:-0.29796,  26:-0.44812,  27: -1.2174
    50 |      |   1:0.053642,  22:-0.75891,  23: -1.0032,  24:-0.51756,  25: 0.32192,  26: 0.46426,  27:  1.0143
    51 |      |  28: -1.2334,  29:-0.81031,  30:  1.1186,  31:-0.85264,  32: 0.42025,  33:-0.34759,  34: 0.54121,  35:-0.64879, 
                 36:0.064416,  37:-0.72162,  38: -1.0837,  39:  1.0313,  40:-0.42808,  41:-0.017134,  42:-0.26639,  43:  1.2058, 
                 44:-0.69998,  45:  1.2609,  46:   1.006,  47: 0.34835,  48: -1.7236,  49:  1.7288,  50: -1.3014
    52 |      |  28:-0.05664,  29:-0.62172,  30:  1.0063,  31:-0.20846,  32:   1.046,  33:0.010213,  34: 0.50994,  35: 0.51721, 
                 36: 0.38013,  37: 0.37423,  38:-0.78972,  39:0.028086,  40:-0.81967,  41: 0.68497,  42:-0.36375,  43: 0.38504, 
                 44: 0.81063,  45:-0.015348,  46: 0.68929,  47:-0.61115,  48: 0.27428,  49:  1.7345,  50:-0.93781
    53 |      |  28: 0.72592,  29:  1.1321,  30: -1.0114,  31: 0.81488,  32: 0.67105,  33:-0.48912,  34: 0.18261,  35:-0.027258, 
                 36: -0.2199,  37:-0.27653,  38: 0.25399,  39:-0.49545,  40:  1.0799,  41:-0.25848,  42:-0.42983,  43: 0.19608, 
                 44:  0.8834,  45:-0.58959,  46:-0.98115,  47:  1.1374,  48:-0.08953,  49:-0.61797,  50: 0.33252
    54 |      |  28: 0.53588,  29:-0.73689,  30:-0.085353,  31: 0.49182,  32:-0.95646,  33: 0.59864,  34:-0.75106,  35:  0.9747, 
                 36: 0.48433,  37:-0.68694,  38: 0.60531,  39:0.064381,  40:-0.30081,  41:-0.38543,  42: 0.45988,  43: 0.28945, 
                 44: 0.28191,  45:-0.70738,  46: 0.70148,  47: 0.25456,  48:0.019682,  49:-0.86304,  50:-0.45822
    55 |      |  28:-0.045935,  29:-0.48483,  30:-0.68202,  31: 0.42746,  32: 0.58143,  33: 0.16267,  34: 0.50181,  35:-0.32419, 
                 36: 0.32074,  37:-0.33626,  38:-0.70408,  39: 0.38882,  40: -1.0264,  41:-0.56306,  42:0.082932,  43: 0.61923, 
                 44:-0.17601,  45:-0.29451,  46:-0.18834,  47:  0.3526,  48:-0.33092,  49:-0.70364,  50:-0.35699
    56 |      |  28:-0.72547,  29:-0.22166,  30:0.049147,  31:-0.14905,  32:-0.33598,  33: 0.75153,  34: 0.64729,  35:  1.5495, 
                 36:-0.72404,  37: 0.78373,  38: 0.37979,  39: 0.58267,  40:  0.0292,  41:0.097518,  42: -0.3427,  43:-0.91203, 
                 44: 0.69954,  45:-0.32229,  46: 0.27708,  47: 0.68579,  48:  1.1721,  49:-0.55377,  50: 0.21351
    57 |      |  28: 0.50094,  29:   0.743,  30:-0.88326,  31:-0.46429,  32: 0.64516,  33:0.071618,  34:-0.12638,  35: -0.7881, 
                 36: 0.77383,  37: -0.9123,  38: 0.33117,  39:-0.24911,  40: 0.86251,  41:-0.048169,  42:-0.33621,  43:-0.90193, 
                 44:-0.27014,  45:  0.8084,  46:  0.7713,  47: 0.84884,  48:-0.16288,  49:-0.65242,  50:-0.77332
    58 |      |  28: 0.64527,  29: 0.86632,  30: 0.69409,  31: 0.39569,  32:-0.11492,  33:-0.40947,  34: 0.86392,  35:-0.83445, 
                 36:-0.79302,  37:-0.84168,  38:-0.22214,  39: 0.93408,  40:0.035605,  41: 0.59947,  42: 0.97338,  43:-0.11143, 
                 44: 0.66267,  45: 0.30929,  46: 0.62394,  47: 0.42825,  48: -1.1311,  49:-0.57171,  50: 0.49614
    59 |      |  51:  3.6762,  52:  1.4328,  53: -1.4172,  54:-0.65705,  55: 0.95035,  56: -1.9188,  57: 0.13197,  58: 0.62424
-------|------|----------------------------------------------------------------------------------------------------------------
