SNNS network definition file V1.4-3D
generated at Thu May 09 10:11:49 1996

network name : v27-23+8
source files :
no. of units : 59
no. of connections : 314
no. of unit types : 0
no. of site types : 0


learning function : Std_Backpropagation
update function : Topological_Order


unit default section :

act      | bias     | st | subnet | layer | act func     | out func
---------|----------|----|--------|-------|--------------|-------------
 0.00000 |  0.00000 | h  |      0 |     1 | Act_Logistic | Out_Identity
---------|----------|----|--------|-------|--------------|-------------


unit definition section :

no. | typeName | unitName | act      | bias     | st | position | act func | out func | sites
----|----------|----------|----------|----------|----|----------|----------|----------|-------
  1 |          |           |        0 |        0 | i  |  2, 1, 0 |||
  2 |          |           |        0 |        0 | i  |  2, 3, 0 |||
  3 |          |           |        0 |        0 | i  |  2, 4, 0 |||
  4 |          |           |        0 |        0 | i  |  2, 5, 0 |||
  5 |          |           |        0 |        0 | i  |  2, 6, 0 |||
  6 |          |           |        0 |        0 | i  |  2, 7, 0 |||
  7 |          |           |        0 |        0 | i  |  2, 8, 0 |||
  8 |          |           |        0 |        0 | i  |  2, 9, 0 |||
  9 |          |           |        0 |        0 | i  |  2,10, 0 |||
 10 |          |           |        0 |        0 | i  |  2,11, 0 |||
 11 |          |           |        0 |        0 | i  |  2,12, 0 |||
 12 |          |           |        0 |        0 | i  |  2,14, 0 |||
 13 |          |           |        0 |        0 | i  |  2,15, 0 |||
 14 |          |           |        0 |        0 | i  |  2,16, 0 |||
 15 |          |           |        0 |        0 | i  |  2,17, 0 |||
 16 |          |           |        0 |        0 | i  |  2,18, 0 |||
 17 |          |           |        0 |        0 | i  |  2,19, 0 |||
 18 |          |           |        0 |        0 | i  |  2,20, 0 |||
 19 |          |           |        0 |        0 | i  |  2,22, 0 |||
 20 |          |           |        0 |        0 | i  |  2,23, 0 |||
 21 |          |           |        0 |        0 | i  |  2,24, 0 |||
 22 |          |           |        0 |        0 | i  |  2,26, 0 |||
 23 |          |           |        0 |        0 | i  |  2,27, 0 |||
 24 |          |           |        0 |        0 | i  |  2,28, 0 |||
 25 |          |           |        0 |        0 | i  |  2,29, 0 |||
 26 |          |           |        0 |        0 | i  |  2,30, 0 |||
 27 |          |           |        0 |        0 | i  |  2,31, 0 |||
 28 |          |           |        0 |   0.8037 | h  |  7, 3, 0 |||
 29 |          |           |        0 |   1.0051 | h  |  7, 4, 0 |||
 30 |          |           |        0 | -0.39597 | h  |  7, 5, 0 |||
 31 |          |           |        0 |  0.79424 | h  |  8, 6, 0 |||
 32 |          |           |        0 |  0.80185 | h  |  8, 7, 0 |||
 33 |          |           |        0 | -0.21293 | h  |  8, 8, 0 |||
 34 |          |           |        0 |   0.7268 | h  |  7,10, 0 |||
 35 |          |           |        0 |  0.70712 | h  |  7,11, 0 |||
 36 |          |           |        0 | -0.29962 | h  |  7,12, 0 |||
 37 |          |           |        0 | -0.42822 | h  |  7,14, 0 |||
 38 |          |           |        0 |  0.67469 | h  |  7,15, 0 |||
 39 |          |           |        0 |  0.39871 | h  |  7,16, 0 |||
 40 |          |           |        0 |  0.51018 | h  |  7,17, 0 |||
 41 |          |           |        0 |  0.61888 | h  |  7,19, 0 |||
 42 |          |           |        0 | -0.35043 | h  |  7,20, 0 |||
 43 |          |           |        0 | -0.17278 | h  |  7,22, 0 |||
 44 |          |           |        0 | -0.71764 | h  |  7,23, 0 |||
 45 |          |           |        0 | -0.23441 | h  |  7,24, 0 |||
 46 |          |           |        0 |  -0.7005 | h  |  7,26, 0 |||
 47 |          |           |        0 |  0.12373 | h  |  7,27, 0 |||
 48 |          |           |        0 |  0.72966 | h  |  7,28, 0 |||
 49 |          |           |        0 |  0.11042 | h  |  7,29, 0 |||
 50 |          |           |        0 |  0.23052 | h  |  7,30, 0 |||
 51 |          |           |        0 |  0.27488 | h  | 13,12, 0 |||
 52 |          |           |        0 | -0.21717 | h  | 13,13, 0 |||
 53 |          |           |        0 | -0.59965 | h  | 13,14, 0 |||
 54 |          |           |        0 | -0.50418 | h  | 13,15, 0 |||
 55 |          |           |        0 |   -0.573 | h  | 13,16, 0 |||
 56 |          |           |        0 | -0.31625 | h  | 13,17, 0 |||
 57 |          |           |        0 | -0.99578 | h  | 13,18, 0 |||
 58 |          |           |        0 |   -0.558 | h  | 13,19, 0 |||
 59 |          |           |        0 | -0.96596 | o  | 20,15, 0 |||
----|----------|----------|----------|----------|----|----------|----------|----------|-------


connection definition section :

target | site | source:weight
-------|------|------------------------------------------------------------------------------------------------------------
    28 |      |   1: 0.87008,   2: 0.99482,   3: 0.75594,   4: 0.20174,   5:0.061904
    29 |      |   1:-0.62092,   2:-0.0052845,   3: -1.4057,   4:-0.79038,   5:-0.31789
    30 |      |   1:  0.5474,   2: 0.52119,   3: 0.78485,   4:  1.2294,   5: 0.34822
    31 |      |   1: 0.22163,   2: 0.10299,   6: 0.48796,   7: 0.11831,   8: 0.74949
    32 |      |   1:-0.68572,   2:-0.71572,   6:-0.07687,   7:-0.54115,   8: 0.54097
    33 |      |   1:-0.18127,   2:  0.4259,   6: 0.68226,   7:-0.46597,   8:-0.24473
    34 |      |   1: -0.7687,   9: 0.41937,  10: 0.94472,  11:-0.83216
    35 |      |   1:-0.36317,   9:-0.81102,  10: 0.32308,  11:-0.98837
    36 |      |   1:0.093158,   9: 0.58522,  10: -0.6508,  11:-0.85858
    37 |      |   1:  1.0555,  12:  0.6635,  13:-0.79501,  14: 0.78944,  15: 0.56435,  16:-0.67418,  17: 0.17567,  18:-0.46819
    38 |      |   1:-0.57236,  12: 0.16673,  13: 0.63725,  14: -1.0418,  15: 0.26383,  16:-0.99098,  17: 0.26887,  18: 0.76564
    39 |      |   1:-0.50184,  12:-0.80294,  13:  0.2662,  14: 0.17126,  15:-0.35694,  16:-0.19042,  17:-0.25464,  18:  1.0486
    40 |      |   1:-0.24863,  12:-0.88372,  13:  0.6936,  14: 0.43954,  15: -1.1615,  16:0.053744,  17:  1.3733,  18: 0.72187
    41 |      |   1:-0.44905,  19:-0.51084
    42 |      |   1:-0.17466,  19: 0.30081
    43 |      |   1:-0.61196,  20:0.086777,  21:-0.59867
    44 |      |   1: 0.76459,  20:-0.63735,  21:-0.80726
    45 |      |   1:-0.52186,  20: 0.33067,  21: 0.40282
    46 |      |   1: 0.80355,  22:-0.020786,  23: 0.18505,  24: 0.88412,  25: 0.86609,  26:-0.16469,  27:-0.86523
    47 |      |   1:-0.024273,  22:-0.09059,  23: 0.11643,  24:0.083987,  25:  1.1695,  26: 0.36644,  27:-0.26589
    48 |      |   1:-0.67881,  22:-0.82187,  23:-0.87268,  24:-0.97192,  25:-0.51236,  26:-0.28287,  27:  1.2718
    49 |      |   1:0.041953,  22: 0.17434,  23:-0.36685,  24: 0.17007,  25:-0.47509,  26:-0.47445,  27:-0.32396
    50 |      |   1: 0.13976,  22:-0.023251,  23:-0.99858,  24:-0.71813,  25: 0.48269,  26: 0.47646,  27: 0.70521
    51 |      |  28:-0.64619,  29: -1.2928,  30:  1.2569,  31:-0.74712,  32:  0.3672,  33:-0.0077997,  34:  1.1001,  35:  0.7458, 
                 36: 0.14689,  37:-0.86093,  38:-0.90659,  39: 0.79443,  40:-0.70749,  41: 0.11755,  42:-0.24245,  43: 0.86448, 
                 44:-0.30935,  45: 0.78683,  46:  1.4651,  47:  1.2675,  48: -1.9902,  49:  0.3584,  50: -0.6621
    52 |      |  28:-0.15458,  29:-0.65235,  30: 0.82424,  31:-0.36085,  32: 0.84647,  33: 0.19154,  34: 0.59419,  35:  1.0809, 
                 36: 0.49017,  37: 0.25038,  38:-0.82747,  39:0.0029365,  40:-0.78188,  41: 0.78995,  42:-0.40913,  43: 0.21852, 
                 44: 0.88589,  45:-0.24196,  46: 0.35582,  47:-0.15834,  48: 0.92649,  49: 0.90075,  50:-0.38544
    53 |      |  28: 0.60652,  29:  1.3388,  30: -1.1238,  31:  0.8409,  32: 0.87372,  33:-0.61217,  34:-0.12718,  35:-0.60633, 
                 36:-0.30184,  37:-0.24074,  38:0.062139,  39:-0.24965,  40:  1.3013,  41:-0.31206,  42:-0.48525,  43: 0.36355, 
                 44: 0.67356,  45:-0.36273,  46: -1.3094,  47: 0.44903,  48: 0.13664,  49:0.065736,  50:0.0081711
    54 |      |  28: 0.59403,  29:-0.93441,  30: 0.13422,  31: 0.52308,  32:-0.96617,  33: 0.57214,  34:-0.72745,  35: 0.75075, 
                 36: 0.48933,  37:-0.67996,  38: 0.52227,  39:0.0020651,  40: -0.4595,  41: -0.5458,  42: 0.49353,  43:  0.3415, 
                 44: 0.21666,  45:-0.62237,  46:   1.027,  47: 0.24863,  48: -0.3955,  49:-0.75036,  50:-0.56994
    55 |      |  28: 0.25967,  29:-0.77208,  30:-0.27594,  31: 0.33507,  32: 0.23099,  33: 0.21156,  34: 0.96613,  35: 0.14137, 
                 36: 0.56578,  37:-0.33995,  38:-0.50679,  39: 0.27374,  40: -1.1207,  41:-0.69041,  42: 0.21496,  43: 0.59417, 
                 44:-0.097974,  45:-0.26882,  46: 0.58839,  47:  1.2761,  48:-0.77108,  49: -1.2749,  50:0.022681
    56 |      |  28:-0.59045,  29:-0.17387,  30: 0.27529,  31: 0.23504,  32:0.087076,  33:    0.72,  34: 0.60801,  35: 0.94387, 
                 36:-0.68941,  37: 0.87697,  38: 0.25261,  39: 0.81414,  40: 0.12972,  41:-0.098704,  42: -0.3001,  43:-0.58518, 
                 44: 0.43547,  45: 0.11875,  46: 0.72516,  47: 0.46266,  48: 0.84407,  49:-0.016776,  50:0.079418
    57 |      |  28: 0.47013,  29: 0.63845,  30:-0.84879,  31:-0.45993,  32: 0.66382,  33:0.029343,  34:-0.22913,  35:-0.96043, 
                 36: 0.69921,  37:-0.90734,  38: 0.21176,  39:-0.31007,  40: 0.75911,  41:-0.15731,  42: -0.3754,  43: -0.9193, 
                 44:-0.33244,  45: 0.80966,  46:  0.8112,  47: 0.68058,  48: -0.3877,  49:-0.52544,  50:-0.94011
    58 |      |  28: 0.51885,  29: 0.45599,  30: 0.67948,  31:0.064704,  32:-0.56661,  33:-0.55345,  34: 0.95731,  35: -0.7885, 
                 36:-0.82311,  37: -1.0175,  38: -0.3552,  39: 0.57027,  40:-0.25749,  41: 0.28248,  42: 0.88062,  43:-0.30717, 
                 44: 0.56733,  45: 0.10379,  46:   0.804,  47: 0.62328,  48: -1.5618,  49: -1.0565,  50: 0.39782
    59 |      |  51:  3.0352,  52:-0.29482,  53: -1.8966,  54:   1.025,  55:  2.0485,  56:-0.67293,  57: 0.11797,  58:  1.6065
-------|------|----------------------------------------------------------------------------------------------------------------
