SNNS network definition file V1.4-3D
generated at Thu May 09 10:11:49 1996

network name : v27-23+8
source files :
no. of units : 59
no. of connections : 314
no. of unit types : 0
no. of site types : 0


learning function : Std_Backpropagation
update function : Topological_Order


unit default section :

act      | bias     | st | subnet | layer | act func     | out func
---------|----------|----|--------|-------|--------------|-------------
 0.00000 |  0.00000 | h  |      0 |     1 | Act_Logistic | Out_Identity
---------|----------|----|--------|-------|--------------|-------------


unit definition section :

no. | typeName | unitName | act      | bias     | st | position | act func | out func | sites
----|----------|----------|----------|----------|----|----------|----------|----------|-------
  1 |          |           |        0 |        0 | i  |  2, 1, 0 |||
  2 |          |           |        0 |        0 | i  |  2, 3, 0 |||
  3 |          |           |   0.2988 |        0 | i  |  2, 4, 0 |||
  4 |          |           |  0.30658 |        0 | i  |  2, 5, 0 |||
  5 |          |           | -0.098634 |        0 | i  |  2, 6, 0 |||
  6 |          |           |   1.0696 |        0 | i  |  2, 7, 0 |||
  7 |          |           | -0.17689 |        0 | i  |  2, 8, 0 |||
  8 |          |           | -0.94601 |        0 | i  |  2, 9, 0 |||
  9 |          |           |  0.97044 |        0 | i  |  2,10, 0 |||
 10 |          |           |  0.21218 |        0 | i  |  2,11, 0 |||
 11 |          |           | -0.84708 |        0 | i  |  2,12, 0 |||
 12 |          |           |        0 |        0 | i  |  2,14, 0 |||
 13 |          |           | -0.80269 |        0 | i  |  2,15, 0 |||
 14 |          |           |   0.9528 |        0 | i  |  2,16, 0 |||
 15 |          |           |  0.86194 |        0 | i  |  2,17, 0 |||
 16 |          |           | -0.32315 |        0 | i  |  2,18, 0 |||
 17 |          |           |  -2.1668 |        0 | i  |  2,19, 0 |||
 18 |          |           |   1.2972 |        0 | i  |  2,20, 0 |||
 19 |          |           |  -1.6701 |        0 | i  |  2,22, 0 |||
 20 |          |           | -0.97733 |        0 | i  |  2,23, 0 |||
 21 |          |           |        0 |        0 | i  |  2,24, 0 |||
 22 |          |           |        0 |        0 | i  |  2,26, 0 |||
 23 |          |           | -0.52223 |        0 | i  |  2,27, 0 |||
 24 |          |           | -0.52223 |        0 | i  |  2,28, 0 |||
 25 |          |           | -0.48685 |        0 | i  |  2,29, 0 |||
 26 |          |           | -0.99528 |        0 | i  |  2,30, 0 |||
 27 |          |           |   -1.514 |        0 | i  |  2,31, 0 |||
 28 |          |           |  0.71642 |  0.94815 | h  |  7, 3, 0 |||
 29 |          |           |  0.70962 |   1.0327 | h  |  7, 4, 0 |||
 30 |          |           |  0.43249 | -0.64232 | h  |  7, 5, 0 |||
 31 |          |           |  0.74516 |   1.5231 | h  |  8, 6, 0 |||
 32 |          |           |  0.41827 |  0.43487 | h  |  8, 7, 0 |||
 33 |          |           |  0.80779 | -0.076818 | h  |  8, 8, 0 |||
 34 |          |           |  0.64636 |   0.8144 | h  |  7,10, 0 |||
 35 |          |           |  0.59539 |  0.89013 | h  |  7,11, 0 |||
 36 |          |           |  0.59734 | -0.53418 | h  |  7,12, 0 |||
 37 |          |           |  0.87065 | -0.87387 | h  |  7,14, 0 |||
 38 |          |           |  0.65403 |   1.1787 | h  |  7,15, 0 |||
 39 |          |           |  0.53645 |  0.63783 | h  |  7,16, 0 |||
 40 |          |           |   0.3395 |  0.71106 | h  |  7,17, 0 |||
 41 |          |           |  0.93248 |  0.12745 | h  |  7,19, 0 |||
 42 |          |           |  0.59555 | 0.002239 | h  |  7,20, 0 |||
 43 |          |           |   0.1464 | -0.79527 | h  |  7,22, 0 |||
 44 |          |           |   0.6641 | -0.42942 | h  |  7,23, 0 |||
 45 |          |           |  0.14445 | -0.83812 | h  |  7,24, 0 |||
 46 |          |           |  0.05667 |  -1.6438 | h  |  7,26, 0 |||
 47 |          |           |  0.12604 | -0.11247 | h  |  7,27, 0 |||
 48 |          |           |  0.94621 |    1.496 | h  |  7,28, 0 |||
 49 |          |           |  0.96475 | -0.33756 | h  |  7,29, 0 |||
 50 |          |           |  0.19437 | -0.12319 | h  |  7,30, 0 |||
 51 |          |           | 0.0052903 | 0.019133 | h  | 13,12, 0 |||
 52 |          |           |   0.8318 | -0.66642 | h  | 13,13, 0 |||
 53 |          |           |  0.22073 | -0.52697 | h  | 13,14, 0 |||
 54 |          |           |  0.22521 | -0.50888 | h  | 13,15, 0 |||
 55 |          |           | 0.039058 |  -0.7508 | h  | 13,16, 0 |||
 56 |          |           |  0.95401 | -0.28002 | h  | 13,17, 0 |||
 57 |          |           | 0.021209 |  -1.0683 | h  | 13,18, 0 |||
 58 |          |           |  0.75374 | -0.16938 | h  | 13,19, 0 |||
 59 |          |           |  0.81159 | -0.45453 | o  | 20,15, 0 |||
----|----------|----------|----------|----------|----|----------|----------|----------|-------


connection definition section :

target | site | source:weight
-------|------|------------------------------------------------------------------------------------------------------------
    28 |      |   1:   0.758,   2: 0.87785,   3: 0.52743,   4:-0.31778,   5: 0.82657
    29 |      |   1:-0.73417,   2:-0.11796,   3:-0.57881,   4:-0.12804,   5:-0.74094
    30 |      |   1: 0.56305,   2: 0.53674,   3: 0.37211,   4:  1.0841,   5: 0.73945
    31 |      |   1: 0.18424,   2:0.065566,   6: 0.82267,   7: 0.38116,   8:  1.3347
    32 |      |   1:-0.70388,   2: -0.7307,   6:-0.36071,   7:-0.78252,   8: 0.54687
    33 |      |   1: -0.2309,   2: 0.37501,   6: 0.94625,   7:-0.46812,   8:-0.44144
    34 |      |   1:-0.76475,   9:-0.62861,  10: 0.87669,  11:-0.25111
    35 |      |   1:-0.40661,   9:-0.77684,  10: 0.77551,  11:-0.10091
    36 |      |   1:0.057344,   9: 0.31864,  10:-0.82973,  11:-0.93901
    37 |      |   1:  1.0128,  12: 0.62086,  13:-0.77751,  14:  1.0672,  15: 0.87869,  16: -0.1499,  17:-0.29202,  18:-0.23046
    38 |      |   1:-0.61391,  12: 0.12518,  13:  0.5791,  14:-0.25864,  15: 0.51729,  16:-0.032219,  17:  0.8086,  18:  1.1296
    39 |      |   1:-0.48226,  12:-0.78336,  13: 0.31629,  14:-0.19704,  15:-0.82965,  16:-0.57826,  17: 0.13632,  18: 0.59628
    40 |      |   1:-0.18312,  12:-0.81821,  13:   1.355,  14:-0.18663,  15:-0.56109,  16:  1.1207,  17: 0.68774,  18:  1.7152
    41 |      |   1:-0.43737,  19: -1.4958
    42 |      |   1:-0.22648,  19:-0.23036
    43 |      |   1:-0.65726,  20: 0.99028,  21:-0.60011
    44 |      |   1: 0.75868,  20: -1.1368,  21:-0.80737
    45 |      |   1:-0.50183,  20: 0.96254,  21: 0.39122
    46 |      |   1: 0.87476,  22: 0.52004,  23:  0.7861,  24:0.055597,  25: 0.33363,  26: 0.14295,  27: 0.28011
    47 |      |   1:-0.047029,  22:-0.13172,  23: 0.54938,  24:  0.3052,  25:  1.1248,  26: 0.13969,  27: 0.45644
    48 |      |   1:-0.89463,  22: -1.3862,  23: -0.9716,  24:-0.062163,  25: -0.0955,  26:-0.34581,  27:-0.29123
    49 |      |   1: 0.13538,  22:  1.4075,  23:-0.37731,  24: -1.5307,  25: 0.19864,  26:-0.67412,  27: -1.3713
    50 |      |   1:-0.01849,  22:-0.53556,  23: -1.0642,  24: 0.24078,  25: 0.40685,  26: 0.53908,  27: 0.65658
    51 |      |  28: -0.9097,  29:-0.82244,  30: 0.65649,  31: -1.6369,  32: 0.62187,  33:-0.50066,  34: 0.59008,  35: 0.81843, 
                 36:-0.27711,  37: -1.4737,  38:-0.89956,  39: 0.61588,  40: -0.4133,  41:-0.26899,  42:-0.66377,  43:  1.4975, 
                 44:-0.51903,  45:  1.4445,  46:  2.4075,  47:  1.6067,  48: -3.1894,  49:  1.4231,  50:-0.47889
    52 |      |  28:-0.50191,  29:-0.89415,  30: 0.89912,  31:-0.85572,  32: 0.50628,  33: 0.21884,  34: 0.43063,  35: 0.87608, 
                 36:  -0.332,  37: 0.31063,  38: -1.3493,  39:-0.31261,  40: -1.7828,  41:  1.3117,  42:-0.46749,  43:-0.20529, 
                 44:  1.4705,  45:-0.65761,  46: 0.39987,  47:  -0.812,  48: 0.33304,  49:  2.1453,  50: -1.0228
    53 |      |  28: 0.83537,  29: 0.98953,  30: -1.0839,  31:  0.9724,  32:  1.0232,  33:-0.65043,  34:-0.21124,  35:-0.87684, 
                 36: 0.42977,  37:-0.17192,  38: 0.27087,  39:-0.41021,  40:  1.5273,  41:-0.96012,  42:-0.43477,  43: 0.37929, 
                 44: 0.21874,  45:-0.35145,  46: -1.2398,  47:  1.0721,  48: 0.14869,  49: -1.4953,  50: 0.63624
    54 |      |  28: 0.54927,  29:-0.80473,  30:-0.10995,  31: 0.59756,  32:-0.84818,  33: 0.58841,  34:-0.92626,  35: 0.56676, 
                 36:  0.6778,  37: -0.5975,  38: 0.57339,  39:0.087622,  40:-0.27903,  41:-0.49245,  42:  0.4859,  43: 0.26261, 
                 44:  0.1795,  45:-0.71577,  46: 0.64862,  47: 0.11994,  48:0.054905,  49:-0.94335,  50:-0.49528
    55 |      |  28:-0.42427,  29:-0.087105,  30:  -0.983,  31:-0.21294,  32: 0.44577,  33: 0.22792,  34: 0.76062,  35: 0.33691, 
                 36: 0.46283,  37:-0.41237,  38:-0.75717,  39: 0.33215,  40: -1.1524,  41:-0.69605,  42:-0.11917,  43:   1.089, 
                 44:-0.31949,  45: 0.18635,  46: 0.39628,  47: 0.76543,  48:-0.80359,  49:-0.31652,  50:-0.42087
    56 |      |  28:-0.51529,  29:-0.25692,  30: 0.31478,  31: 0.31061,  32:0.062555,  33: 0.76515,  34: 0.64861,  35: 0.90247, 
                 36:-0.59386,  37: 0.82144,  38: 0.36062,  39: 0.82577,  40: 0.20752,  41:-0.10434,  42:-0.25669,  43:-0.61774, 
                 44: 0.43443,  45: 0.08928,  46: 0.73112,  47: 0.52224,  48: 0.88487,  49:-0.15063,  50: 0.13169
    57 |      |  28: 0.43523,  29: 0.58414,  30:-0.80275,  31: -0.6095,  32: 0.64411,  33:-0.075481,  34:-0.19983,  35: -0.9002, 
                 36:  0.5812,  37:-0.93459,  38: 0.14129,  39:-0.34339,  40: 0.71645,  41:-0.31204,  42:-0.48236,  43:-0.82527, 
                 44: -0.4076,  45: 0.89815,  46: 0.99248,  47: 0.74528,  48:-0.62646,  49:-0.47205,  50:-0.91966
    58 |      |  28: 0.55476,  29:  1.0881,  30: 0.49514,  31: 0.27219,  32:-0.13995,  33:-0.34264,  34: 0.99988,  35:-0.54621, 
                 36:-0.69395,  37:-0.73469,  38:-0.18269,  39: 0.90615,  40:-0.041676,  41: 0.68583,  42: 0.98472,  43:-0.11749, 
                 44: 0.79095,  45: 0.28281,  46: 0.65109,  47: 0.55858,  48: -1.0277,  49:-0.61062,  50: 0.49793
    59 |      |  51:  5.3819,  52:  2.9418,  53: -2.4317,  54: -0.5702,  55:  1.5423,  56:-0.18271,  57: 0.35693,  58: 0.28012
-------|------|----------------------------------------------------------------------------------------------------------------
