SNNS network definition file V1.4-3D
generated at Thu May 09 10:11:49 1996

network name : v27-23+8
source files :
no. of units : 59
no. of connections : 314
no. of unit types : 0
no. of site types : 0


learning function : Std_Backpropagation
update function : Topological_Order


unit default section :

act      | bias     | st | subnet | layer | act func     | out func
---------|----------|----|--------|-------|--------------|-------------
 0.00000 |  0.00000 | h  |      0 |     1 | Act_Logistic | Out_Identity
---------|----------|----|--------|-------|--------------|-------------


unit definition section :

no. | typeName | unitName | act      | bias     | st | position | act func | out func | sites
----|----------|----------|----------|----------|----|----------|----------|----------|-------
  1 |          |           |        0 |        0 | i  |  2, 1, 0 |||
  2 |          |           |        0 |        0 | i  |  2, 3, 0 |||
  3 |          |           |        0 |        0 | i  |  2, 4, 0 |||
  4 |          |           |        0 |        0 | i  |  2, 5, 0 |||
  5 |          |           |        0 |        0 | i  |  2, 6, 0 |||
  6 |          |           |        0 |        0 | i  |  2, 7, 0 |||
  7 |          |           |        0 |        0 | i  |  2, 8, 0 |||
  8 |          |           |        0 |        0 | i  |  2, 9, 0 |||
  9 |          |           |        0 |        0 | i  |  2,10, 0 |||
 10 |          |           |        0 |        0 | i  |  2,11, 0 |||
 11 |          |           |        0 |        0 | i  |  2,12, 0 |||
 12 |          |           |        0 |        0 | i  |  2,14, 0 |||
 13 |          |           |        0 |        0 | i  |  2,15, 0 |||
 14 |          |           |        0 |        0 | i  |  2,16, 0 |||
 15 |          |           |        0 |        0 | i  |  2,17, 0 |||
 16 |          |           |        0 |        0 | i  |  2,18, 0 |||
 17 |          |           |        0 |        0 | i  |  2,19, 0 |||
 18 |          |           |        0 |        0 | i  |  2,20, 0 |||
 19 |          |           |        0 |        0 | i  |  2,22, 0 |||
 20 |          |           |        0 |        0 | i  |  2,23, 0 |||
 21 |          |           |        0 |        0 | i  |  2,24, 0 |||
 22 |          |           |        0 |        0 | i  |  2,26, 0 |||
 23 |          |           |        0 |        0 | i  |  2,27, 0 |||
 24 |          |           |        0 |        0 | i  |  2,28, 0 |||
 25 |          |           |        0 |        0 | i  |  2,29, 0 |||
 26 |          |           |        0 |        0 | i  |  2,30, 0 |||
 27 |          |           |        0 |        0 | i  |  2,31, 0 |||
 28 |          |           |        0 |   1.5611 | h  |  7, 3, 0 |||
 29 |          |           |        0 |  0.99337 | h  |  7, 4, 0 |||
 30 |          |           |        0 | -0.52742 | h  |  7, 5, 0 |||
 31 |          |           |        0 |   1.1796 | h  |  8, 6, 0 |||
 32 |          |           |        0 |  0.99143 | h  |  8, 7, 0 |||
 33 |          |           |        0 | -0.52919 | h  |  8, 8, 0 |||
 34 |          |           |        0 | 0.032226 | h  |  7,10, 0 |||
 35 |          |           |        0 |  0.59483 | h  |  7,11, 0 |||
 36 |          |           |        0 | -0.73556 | h  |  7,12, 0 |||
 37 |          |           |        0 |  -0.4354 | h  |  7,14, 0 |||
 38 |          |           |        0 |  0.81328 | h  |  7,15, 0 |||
 39 |          |           |        0 |   0.3645 | h  |  7,16, 0 |||
 40 |          |           |        0 |   1.0161 | h  |  7,17, 0 |||
 41 |          |           |        0 |  0.49264 | h  |  7,19, 0 |||
 42 |          |           |        0 | -0.10109 | h  |  7,20, 0 |||
 43 |          |           |        0 | -0.89097 | h  |  7,22, 0 |||
 44 |          |           |        0 | -0.32513 | h  |  7,23, 0 |||
 45 |          |           |        0 | -0.70634 | h  |  7,24, 0 |||
 46 |          |           |        0 | -0.27777 | h  |  7,26, 0 |||
 47 |          |           |        0 | -0.12726 | h  |  7,27, 0 |||
 48 |          |           |        0 |  0.62789 | h  |  7,28, 0 |||
 49 |          |           |        0 |  -0.5956 | h  |  7,29, 0 |||
 50 |          |           |        0 |  0.39146 | h  |  7,30, 0 |||
 51 |          |           |        0 |  0.38805 | h  | 13,12, 0 |||
 52 |          |           |        0 | -0.16472 | h  | 13,13, 0 |||
 53 |          |           |        0 | -0.67744 | h  | 13,14, 0 |||
 54 |          |           |        0 | -0.44093 | h  | 13,15, 0 |||
 55 |          |           |        0 | -0.60783 | h  | 13,16, 0 |||
 56 |          |           |        0 | -0.51449 | h  | 13,17, 0 |||
 57 |          |           |        0 | -0.94362 | h  | 13,18, 0 |||
 58 |          |           |        0 | -0.15934 | h  | 13,19, 0 |||
 59 |          |           |        0 | -0.58852 | o  | 20,15, 0 |||
----|----------|----------|----------|----------|----|----------|----------|----------|-------


connection definition section :

target | site | source:weight
-------|------|------------------------------------------------------------------------------------------------------------
    28 |      |   1: 0.84442,   2: 0.96643,   3: 0.36718,   4:  1.0914,   5: 0.25885
    29 |      |   1:-0.72213,   2:-0.10447,   3: -1.1502,   4:-0.14333,   5:-0.15962
    30 |      |   1: 0.59726,   2: 0.56939,   3: 0.68914,   4: 0.52323,   5: 0.77539
    31 |      |   1: 0.18035,   2:0.062335,   6:-0.23497,   7:-0.88613,   8: 0.87438
    32 |      |   1:-0.70183,   2:-0.72881,   6: 0.11209,   7:-0.60851,   8: 0.17077
    33 |      |   1:-0.22858,   2: 0.37725,   6:  1.1361,   7:-0.93759,   8:-0.53733
    34 |      |   1:-0.76445,   9: 0.74382,  10:-0.15338,  11: -1.1111
    35 |      |   1:-0.40566,   9:-0.61069,  10: 0.48532,  11: -1.0735
    36 |      |   1: 0.05519,   9:  1.3379,  10:-0.75491,  11:-0.96055
    37 |      |   1: 0.97905,  12: 0.58707,  13: -0.8238,  14:  1.0917,  15: 0.40922,  16:-0.079477,  17:-0.029902,  18:-0.20191
    38 |      |   1:-0.61197,  12: 0.12712,  13:0.051103,  14:-0.36101,  15:-0.018186,  16:-0.37055,  17: 0.16092,  18:  1.6324
    39 |      |   1:-0.47566,  12:-0.77676,  13: 0.73642,  14:-0.30874,  15:-0.30383,  16:-0.65871,  17:-0.15085,  18: 0.38865
    40 |      |   1:-0.18314,  12:-0.81823,  13:-0.078522,  14:  1.0675,  15: -1.2646,  16: 0.53528,  17:  1.3268,  18:  1.1055
    41 |      |   1:-0.44466,  19: -1.1913
    42 |      |   1:-0.24596,  19:-0.12552
    43 |      |   1:-0.62348,  20: 0.66908,  21:-0.58135
    44 |      |   1: 0.73757,  20:-0.88414,  21:-0.80717
    45 |      |   1:-0.48005,  20: 0.69738,  21: 0.40377
    46 |      |   1: 0.92291,  22: 0.16081,  23: -0.0218,  24:-0.0047734,  25: 0.71784,  26:-0.02478,  27: 0.22048
    47 |      |   1:0.076153,  22: 0.72751,  23: 0.61471,  24:  -0.927,  25:  1.0101,  26:-0.032099,  27: 0.12252
    48 |      |   1: -1.0411,  22: -2.2736,  23:-0.80301,  24:  1.5948,  25:-0.62993,  26:-0.076829,  27: 0.74225
    49 |      |   1:0.057678,  22: 0.97508,  23:-0.32937,  24:-0.78715,  25: 0.47622,  26:-0.32541,  27: -1.1065
    50 |      |   1:0.020549,  22:-0.59292,  23: -1.1669,  24:0.018144,  25: 0.88945,  26:0.041672,  27: 0.32142
    51 |      |  28: -1.5934,  29:-0.76407,  30: 0.80623,  31: -1.2934,  32:-0.41237,  33: 0.63155,  34: 0.97996,  35: 0.26576, 
                 36: 0.86999,  37:-0.67336,  38:-0.57316,  39: 0.59313,  40: -1.1279,  41: 0.74828,  42:-0.36436,  43:  1.8205, 
                 44:-0.84663,  45:  1.7653,  46: 0.84046,  47:  1.6086,  48: -2.7957,  49:  1.9407,  50: -0.6802
    52 |      |  28:-0.18198,  29:-0.57359,  30: 0.81374,  31:  -0.419,  32: 0.79136,  33: 0.28415,  34: 0.68303,  35:  1.0963, 
                 36: 0.53635,  37: 0.31464,  38:-0.80042,  39:-0.030203,  40:-0.83099,  41: 0.88515,  42:-0.37516,  43: 0.34652, 
                 44: 0.88526,  45:-0.11718,  46: 0.32813,  47:-0.076116,  48: 0.78168,  49:  1.1001,  50:-0.43163
    53 |      |  28:  1.0106,  29: 0.94589,  30:-0.80575,  31:    1.11,  32:  1.1282,  33: -0.8797,  34:-0.0089657,  35:-0.45799, 
                 36:-0.50631,  37: -0.3575,  38:-0.037007,  39:-0.26416,  40:  1.2907,  41:-0.63243,  42:-0.41463,  43:-0.13927, 
                 44: 0.93736,  45:-0.85772,  46:-0.87794,  47: 0.38996,  48: 0.39452,  49:-0.74977,  50: 0.16619
    54 |      |  28: 0.69635,  29:-0.74358,  30:0.0022077,  31: 0.64926,  32:-0.72567,  33: 0.42771,  34:-0.78585,  35: 0.86873, 
                 36: 0.44437,  37:-0.64225,  38: 0.52699,  39: 0.19126,  40:-0.14797,  41:-0.42595,  42: 0.52549,  43: 0.15413, 
                 44: 0.38098,  45:-0.81424,  46:  0.7952,  47:-0.054151,  48: 0.22893,  49:-0.79205,  50:-0.49541
    55 |      |  28:-0.18238,  29:-0.44823,  30:-0.42473,  31: 0.21578,  32: 0.24841,  33:  1.0201,  34:  1.2176,  35:-0.22163, 
                 36:  1.0383,  37:-0.17635,  38:-0.36693,  39: 0.31247,  40:  -1.442,  41:-0.40765,  42:-0.01568,  43:  1.4287, 
                 44:-0.48146,  45: 0.51865,  46:  0.1046,  47:  1.5664,  48: -1.4738,  49:-0.16296,  50: -0.3341
    56 |      |  28:-0.59576,  29:-0.34067,  30: 0.23446,  31: 0.33588,  32: 0.25323,  33: 0.66751,  34: 0.58523,  35: 0.95827, 
                 36:-0.85974,  37: 0.70898,  38: 0.11009,  39: 0.83775,  40:  0.1461,  41:-0.40578,  42:-0.38669,  43:-0.81163, 
                 44: 0.46851,  45:-0.11133,  46: 0.73263,  47: 0.25077,  48:  1.1534,  49:-0.51852,  50: 0.10068
    57 |      |  28: 0.53512,  29: 0.65537,  30:-0.81534,  31:-0.43746,  32: 0.70086,  33:0.035323,  34:-0.21058,  35:-0.92134, 
                 36: 0.74388,  37:-0.90145,  38: 0.25245,  39:-0.25983,  40: 0.81572,  41:-0.10961,  42:-0.35763,  43:-0.93019, 
                 44:-0.29978,  45: 0.79579,  46: 0.82971,  47: 0.69949,  48:-0.30526,  49:-0.49623,  50:-0.90935
    58 |      |  28: 0.56793,  29: 0.99528,  30: 0.55787,  31: 0.29667,  32:-0.26294,  33:-0.30821,  34:  1.0494,  35:-0.62376, 
                 36:-0.68154,  37:-0.73867,  38:-0.094191,  39:  0.8121,  40:-0.016739,  41: 0.64671,  42:  0.9662,  43:0.013543, 
                 44: 0.68129,  45: 0.42296,  46: 0.52143,  47: 0.61814,  48: -1.1637,  49:-0.64217,  50: 0.55588
    59 |      |  51:  4.5773,  52: 0.38991,  53: -1.8507,  54:-0.53016,  55:  2.7162,  56: -1.3619,  57: 0.20065,  58: 0.22029
-------|------|----------------------------------------------------------------------------------------------------------------
