SNNS network definition file V1.4-3D
generated at Thu May 09 10:11:49 1996

network name : v27-23+8
source files :
no. of units : 59
no. of connections : 314
no. of unit types : 0
no. of site types : 0


learning function : Std_Backpropagation
update function : Topological_Order


unit default section :

act      | bias     | st | subnet | layer | act func     | out func
---------|----------|----|--------|-------|--------------|-------------
 0.00000 |  0.00000 | h  |      0 |     1 | Act_Logistic | Out_Identity
---------|----------|----|--------|-------|--------------|-------------


unit definition section :

no. | typeName | unitName | act      | bias     | st | position | act func | out func | sites
----|----------|----------|----------|----------|----|----------|----------|----------|-------
  1 |          |           |        0 |        0 | i  |  2, 1, 0 |||
  2 |          |           |        0 |        0 | i  |  2, 3, 0 |||
  3 |          |           |  -4.5787 |        0 | i  |  2, 4, 0 |||
  4 |          |           | -0.81818 |        0 | i  |  2, 5, 0 |||
  5 |          |           |   4.6194 |        0 | i  |  2, 6, 0 |||
  6 |          |           |  0.52952 |        0 | i  |  2, 7, 0 |||
  7 |          |           |  -1.5662 |        0 | i  |  2, 8, 0 |||
  8 |          |           |  -1.1542 |        0 | i  |  2, 9, 0 |||
  9 |          |           |  -1.0657 |        0 | i  |  2,10, 0 |||
 10 |          |           |  -1.4544 |        0 | i  |  2,11, 0 |||
 11 |          |           |   2.0028 |        0 | i  |  2,12, 0 |||
 12 |          |           |        0 |        0 | i  |  2,14, 0 |||
 13 |          |           |  0.72295 |        0 | i  |  2,15, 0 |||
 14 |          |           |   0.4969 |        0 | i  |  2,16, 0 |||
 15 |          |           | -0.13722 |        0 | i  |  2,17, 0 |||
 16 |          |           |  -1.0829 |        0 | i  |  2,18, 0 |||
 17 |          |           |    0.235 |        0 | i  |  2,19, 0 |||
 18 |          |           |  0.62021 |        0 | i  |  2,20, 0 |||
 19 |          |           |    5.658 |        0 | i  |  2,22, 0 |||
 20 |          |           |   1.9348 |        0 | i  |  2,23, 0 |||
 21 |          |           |        0 |        0 | i  |  2,24, 0 |||
 22 |          |           |   13.864 |        0 | i  |  2,26, 0 |||
 23 |          |           |   6.0057 |        0 | i  |  2,27, 0 |||
 24 |          |           |  0.59161 |        0 | i  |  2,28, 0 |||
 25 |          |           | -0.26115 |        0 | i  |  2,29, 0 |||
 26 |          |           |   1.1832 |        0 | i  |  2,30, 0 |||
 27 |          |           |   5.6126 |        0 | i  |  2,31, 0 |||
 28 |          |           | 0.00060776 |  0.88747 | h  |  7, 3, 0 |||
 29 |          |           |  0.93102 |  0.64562 | h  |  7, 4, 0 |||
 30 |          |           |  0.93108 |  -0.2113 | h  |  7, 5, 0 |||
 31 |          |           |  0.48343 |  0.86249 | h  |  8, 6, 0 |||
 32 |          |           |  0.61698 |  0.92517 | h  |  8, 7, 0 |||
 33 |          |           |  0.61615 | -0.018521 | h  |  8, 8, 0 |||
 34 |          |           | 0.018235 |  0.18459 | h  |  7,10, 0 |||
 35 |          |           |  0.97568 |   1.1222 | h  |  7,11, 0 |||
 36 |          |           |  0.18288 | -0.32144 | h  |  7,12, 0 |||
 37 |          |           |  0.27187 | -0.00834 | h  |  7,14, 0 |||
 38 |          |           |  0.93604 |  0.36978 | h  |  7,15, 0 |||
 39 |          |           |  0.90154 |  0.69979 | h  |  7,16, 0 |||
 40 |          |           |  0.73384 | 0.031981 | h  |  7,17, 0 |||
 41 |          |           | 0.036814 |   0.9141 | h  |  7,19, 0 |||
 42 |          |           | 0.030715 | -0.042203 | h  |  7,20, 0 |||
 43 |          |           |   0.7913 |  -1.2752 | h  |  7,22, 0 |||
 44 |          |           |  0.22168 | -0.37431 | h  |  7,23, 0 |||
 45 |          |           |  0.78489 |  -1.0511 | h  |  7,24, 0 |||
 46 |          |           |  0.99099 |  0.37564 | h  |  7,26, 0 |||
 47 |          |           |  0.99997 |  0.29737 | h  |  7,27, 0 |||
 48 |          |           | 5.3767e-11 |   1.7792 | h  |  7,28, 0 |||
 49 |          |           |  0.99615 |  -1.5597 | h  |  7,29, 0 |||
 50 |          |           | 1.01e-08 |  0.66511 | h  |  7,30, 0 |||
 51 |          |           |  0.99748 |  0.53237 | h  | 13,12, 0 |||
 52 |          |           |  0.90335 | -0.12502 | h  | 13,13, 0 |||
 53 |          |           |  0.22531 | -0.70864 | h  | 13,14, 0 |||
 54 |          |           |  0.84412 | -0.39661 | h  | 13,15, 0 |||
 55 |          |           |  0.71028 | -0.10648 | h  | 13,16, 0 |||
 56 |          |           |  0.86354 | -0.67561 | h  | 13,17, 0 |||
 57 |          |           |  0.51409 | -0.90106 | h  | 13,18, 0 |||
 58 |          |           |  0.91897 | -0.092043 | h  | 13,19, 0 |||
 59 |          |           |  0.98387 | 0.020945 | o  | 20,15, 0 |||
----|----------|----------|----------|----------|----|----------|----------|----------|-------


connection definition section :

target | site | source:weight
-------|------|------------------------------------------------------------------------------------------------------------
    28 |      |   1: 0.84807,   2: 0.96853,   3: 0.74483,   4: 0.96869,   5:-0.88533
    29 |      |   1:-0.74114,   2:-0.11832,   3:-0.95297,   4: 0.27567,   5:-0.47215
    30 |      |   1: 0.62356,   2: 0.59439,   3: 0.21155,   4:   0.282,   5: 0.86895
    31 |      |   1:  0.1707,   2:0.054128,   6: 0.71158,   7: 0.36439,   8: 0.63673
    32 |      |   1:-0.70064,   2:-0.72739,   6:-0.40661,   7:-0.55688,   8: 0.95766
    33 |      |   1:-0.20402,   2: 0.40291,   6: 0.92746,   7:-0.11901,   8: 0.16092
    34 |      |   1:-0.76463,   9:-0.13672,  10:  1.7283,  11:-0.90002
    35 |      |   1:-0.38757,   9:  -1.179,  10:-0.25836,  11: 0.46816
    36 |      |   1:0.026082,   9: 0.67166,  10:-0.95728,  11:-0.92472
    37 |      |   1: 0.97711,  12: 0.58513,  13:-0.73464,  14: 0.79294,  15: 0.87223,  16:0.044951,  17:-0.90405,  18:-0.73989
    38 |      |   1:-0.58834,  12: 0.15076,  13: 0.31043,  14:0.021229,  15: 0.91036,  16: -1.5194,  17: -1.0943,  18:  1.3144
    39 |      |   1:-0.48059,  12:-0.78168,  13:   0.434,  14:-0.31152,  15:-0.76949,  16:-0.78255,  17: 0.51953,  18: 0.45239
    40 |      |   1:-0.11238,  12:-0.74747,  13:  1.1112,  14:  1.6386,  15:-0.83497,  16:  1.7106,  17:  1.0037,  18:  1.3975
    41 |      |   1:-0.43515,  19:-0.73851
    42 |      |   1:-0.27777,  19:-0.60262
    43 |      |   1:-0.68092,  20:  1.3479,  21:-0.57698
    44 |      |   1: 0.78994,  20:-0.45564,  21:-0.81331
    45 |      |   1:-0.51119,  20:  1.2123,  21: 0.43916
    46 |      |   1:  1.0081,  22:-0.67307,  23: 0.54653,  24:  1.4343,  25: 0.73485,  26:-0.21606,  27:  1.7768
    47 |      |   1:-0.016405,  22: 0.49124,  23:0.093848,  24: 0.26094,  25: 0.79472,  26: 0.90157,  27: 0.28286
    48 |      |   1:-0.90213,  22: -1.4966,  23:-0.75171,  24:-0.92108,  25: 0.11752,  26: 0.18955,  27:0.033566
    49 |      |   1:0.031533,  22:  1.6826,  23: -0.1715,  24: 0.23299,  25: 0.16388,  26:-0.42667,  27:  -2.632
    50 |      |   1:0.062022,  22:-0.94952,  23: -1.0215,  24:-0.44587,  25: 0.44019,  26: 0.28753,  27:0.046511
    51 |      |  28: -1.2529,  29:-0.66648,  30: 0.67784,  31: -0.3784,  32:  1.1128,  33:0.072078,  34: 0.34114,  35:  0.7083, 
                 36:-0.31601,  37:-0.94507,  38:-0.95923,  39:  1.3966,  40: -1.6252,  41:-0.59897,  42:-0.54644,  43:  1.8307, 
                 44:-0.64967,  45:  1.8846,  46:-0.79908,  47:  1.3898,  48: -2.5208,  49:  2.0051,  50: -1.3997
    52 |      |  28:-0.24918,  29:-0.49189,  30: 0.77604,  31:-0.28687,  32: 0.96134,  33: 0.21493,  34: 0.55827,  35:  1.1048, 
                 36: 0.41922,  37: 0.26713,  38:-0.76048,  39:0.027808,  40:-0.80874,  41: 0.78507,  42:-0.37409,  43: 0.35259, 
                 44: 0.85488,  45:-0.086137,  46:  0.2523,  47:-0.17045,  48:  0.9172,  49:  1.0578,  50:-0.44049
    53 |      |  28: 0.74332,  29: 0.87621,  30:-0.80458,  31: 0.77273,  32: 0.62883,  33:-0.65791,  34:0.098423,  35:-0.61953, 
                 36:-0.31519,  37:-0.29152,  38: -0.1455,  39:-0.49405,  40:  0.8542,  41:-0.48603,  42:-0.49762,  43: 0.27554, 
                 44: 0.70051,  45:-0.47417,  46:-0.87006,  47: 0.76088,  48:-0.49748,  49:-0.12239,  50:-0.0071174
    54 |      |  28: 0.48903,  29:-0.59139,  30:0.080146,  31: 0.84628,  32:-0.72828,  33: 0.67474,  34: -1.2597,  35:  1.0621, 
                 36: 0.31224,  37:-0.21988,  38:  1.1764,  39:   -0.02,  40:0.082303,  41:-0.25703,  42: 0.46739,  43: 0.15536, 
                 44: 0.27072,  45:-0.80903,  46:   1.793,  47: 0.23706,  48:   0.289,  49:  -1.541,  50:-0.39785
    55 |      |  28: 0.11362,  29:-0.33731,  30:-0.50518,  31:  0.5354,  32: 0.98436,  33: 0.47598,  34:   1.234,  35: 0.16409, 
                 36: 0.66438,  37:-0.52945,  38: -1.0008,  39:  0.8093,  40: -1.9173,  41:-0.70637,  42: 0.25464,  43:  1.4263, 
                 44:-0.024612,  45: 0.54963,  46: -1.3624,  47:  0.9759,  48:-0.72695,  49:  0.9236,  50:-0.35454
    56 |      |  28: -1.2347,  29: -0.4199,  30: 0.45682,  31: 0.25987,  32:-0.10788,  33: 0.55802,  34:-0.14666,  35: 0.85968, 
                 36:  -1.309,  37:  1.5556,  38: 0.98342,  39:0.0026739,  40:0.025848,  41:-0.35677,  42: -0.6541,  43:-0.87471, 
                 44: 0.22383,  45:-0.17571,  46:  2.3179,  47: 0.62556,  48: 0.72479,  49: -1.9941,  50:-0.25719
    57 |      |  28: 0.58251,  29: 0.71338,  30: -0.8137,  31:-0.41322,  32: 0.72065,  33:0.079352,  34:-0.14778,  35: -0.9158, 
                 36:  0.8046,  37:-0.92535,  38: 0.25109,  39:-0.20155,  40: 0.99046,  41:-0.051285,  42:-0.30703,  43:-0.91796, 
                 44:-0.27623,  45:  0.8088,  46:  0.9192,  47: 0.73651,  48:-0.26364,  49:-0.50799,  50:-0.84548
    58 |      |  28: 0.67897,  29:  1.0045,  30: 0.60875,  31: 0.34801,  32:-0.074789,  33:-0.36702,  34:  1.0132,  35:-0.69482, 
                 36:-0.56693,  37:-0.95377,  38:-0.22375,  39:  1.0479,  40: 0.22772,  41:  0.5875,  42:  1.0106,  43:-0.00047426, 
                 44: 0.71069,  45: 0.45184,  46: 0.52682,  47: 0.69497,  48:  -1.193,  49: -0.5414,  50: 0.56076
    59 |      |  51:  5.4315,  52: 0.31091,  53: 0.18938,  54: -2.0572,  55:  2.8479,  56: -2.8596,  57:-0.58936,  58: 0.90788
-------|------|----------------------------------------------------------------------------------------------------------------
