SNNS network definition file V1.4-3D
generated at Thu May 09 10:11:49 1996

network name : v27-23+8
source files :
no. of units : 59
no. of connections : 314
no. of unit types : 0
no. of site types : 0


learning function : Std_Backpropagation
update function : Topological_Order


unit default section :

act      | bias     | st | subnet | layer | act func     | out func
---------|----------|----|--------|-------|--------------|-------------
 0.00000 |  0.00000 | h  |      0 |     1 | Act_Logistic | Out_Identity
---------|----------|----|--------|-------|--------------|-------------


unit definition section :

no. | typeName | unitName | act      | bias     | st | position | act func | out func | sites
----|----------|----------|----------|----------|----|----------|----------|----------|-------
  1 |          |           |        0 |        0 | i  |  2, 1, 0 |||
  2 |          |           |        0 |        0 | i  |  2, 3, 0 |||
  3 |          |           |        0 |        0 | i  |  2, 4, 0 |||
  4 |          |           |        0 |        0 | i  |  2, 5, 0 |||
  5 |          |           |        0 |        0 | i  |  2, 6, 0 |||
  6 |          |           |        0 |        0 | i  |  2, 7, 0 |||
  7 |          |           |        0 |        0 | i  |  2, 8, 0 |||
  8 |          |           |        0 |        0 | i  |  2, 9, 0 |||
  9 |          |           |        0 |        0 | i  |  2,10, 0 |||
 10 |          |           |        0 |        0 | i  |  2,11, 0 |||
 11 |          |           |        0 |        0 | i  |  2,12, 0 |||
 12 |          |           |        0 |        0 | i  |  2,14, 0 |||
 13 |          |           |        0 |        0 | i  |  2,15, 0 |||
 14 |          |           |        0 |        0 | i  |  2,16, 0 |||
 15 |          |           |        0 |        0 | i  |  2,17, 0 |||
 16 |          |           |        0 |        0 | i  |  2,18, 0 |||
 17 |          |           |        0 |        0 | i  |  2,19, 0 |||
 18 |          |           |        0 |        0 | i  |  2,20, 0 |||
 19 |          |           |        0 |        0 | i  |  2,22, 0 |||
 20 |          |           |        0 |        0 | i  |  2,23, 0 |||
 21 |          |           |        0 |        0 | i  |  2,24, 0 |||
 22 |          |           |        0 |        0 | i  |  2,26, 0 |||
 23 |          |           |        0 |        0 | i  |  2,27, 0 |||
 24 |          |           |        0 |        0 | i  |  2,28, 0 |||
 25 |          |           |        0 |        0 | i  |  2,29, 0 |||
 26 |          |           |        0 |        0 | i  |  2,30, 0 |||
 27 |          |           |        0 |        0 | i  |  2,31, 0 |||
 28 |          |           |        0 |    0.877 | h  |  7, 3, 0 |||
 29 |          |           |        0 |   1.2385 | h  |  7, 4, 0 |||
 30 |          |           |        0 | -0.70341 | h  |  7, 5, 0 |||
 31 |          |           |        0 |  0.86557 | h  |  8, 6, 0 |||
 32 |          |           |        0 |  0.80898 | h  |  8, 7, 0 |||
 33 |          |           |        0 | -0.19012 | h  |  8, 8, 0 |||
 34 |          |           |        0 |  0.93951 | h  |  7,10, 0 |||
 35 |          |           |        0 |  0.82159 | h  |  7,11, 0 |||
 36 |          |           |        0 | -0.33606 | h  |  7,12, 0 |||
 37 |          |           |        0 | -0.82318 | h  |  7,14, 0 |||
 38 |          |           |        0 |   1.1581 | h  |  7,15, 0 |||
 39 |          |           |        0 |  0.40471 | h  |  7,16, 0 |||
 40 |          |           |        0 |  0.56225 | h  |  7,17, 0 |||
 41 |          |           |        0 |  0.61686 | h  |  7,19, 0 |||
 42 |          |           |        0 | -0.31618 | h  |  7,20, 0 |||
 43 |          |           |        0 | -0.31139 | h  |  7,22, 0 |||
 44 |          |           |        0 | -0.57631 | h  |  7,23, 0 |||
 45 |          |           |        0 | -0.37886 | h  |  7,24, 0 |||
 46 |          |           |        0 | -0.81799 | h  |  7,26, 0 |||
 47 |          |           |        0 | -0.017235 | h  |  7,27, 0 |||
 48 |          |           |        0 |   1.6449 | h  |  7,28, 0 |||
 49 |          |           |        0 |  0.69573 | h  |  7,29, 0 |||
 50 |          |           |        0 | -0.51892 | h  |  7,30, 0 |||
 51 |          |           |        0 |  0.24929 | h  | 13,12, 0 |||
 52 |          |           |        0 | -0.25105 | h  | 13,13, 0 |||
 53 |          |           |        0 | -0.73884 | h  | 13,14, 0 |||
 54 |          |           |        0 | -0.55417 | h  | 13,15, 0 |||
 55 |          |           |        0 | -0.38354 | h  | 13,16, 0 |||
 56 |          |           |        0 |  -0.4153 | h  | 13,17, 0 |||
 57 |          |           |        0 | -0.97092 | h  | 13,18, 0 |||
 58 |          |           |        0 |  -0.3763 | h  | 13,19, 0 |||
 59 |          |           |        0 | -0.79653 | o  | 20,15, 0 |||
----|----------|----------|----------|----------|----|----------|----------|----------|-------


connection definition section :

target | site | source:weight
-------|------|------------------------------------------------------------------------------------------------------------
    28 |      |   1:  0.8479,   2: 0.96753,   3:  0.6024,   4: 0.44054,   5:-0.090122
    29 |      |   1:-0.69012,   2:-0.074435,   3: -1.5938,   4:-0.50633,   5:-0.040393
    30 |      |   1: 0.56304,   2: 0.53673,   3:  1.4176,   4: 0.94675,   5:0.019878
    31 |      |   1: 0.18003,   2:0.061189,   6: 0.78728,   7:-0.13113,   8: 0.91326
    32 |      |   1:-0.70062,   2:-0.72845,   6: 0.12125,   7:-0.73608,   8: 0.51636
    33 |      |   1: -0.2326,   2: 0.37273,   6: 0.86855,   7:-0.34735,   8:-0.40888
    34 |      |   1:-0.76332,   9: 0.47906,  10: 0.47239,  11:0.007027
    35 |      |   1:-0.40574,   9: -1.0211,  10: 0.33789,  11:-0.85196
    36 |      |   1:0.057343,   9: 0.71439,  10:-0.95408,  11:-0.62707
    37 |      |   1: 0.97644,  12: 0.58446,  13:-0.56262,  14: 0.47157,  15:  1.1351,  16:-0.40382,  17: 0.20127,  18:-0.48451
    38 |      |   1:-0.61534,  12: 0.12375,  13: 0.70636,  14:-0.97998,  15: 0.86753,  16:-0.95982,  17: 0.36581,  18: 0.45397
    39 |      |   1:-0.47276,  12:-0.77386,  13: 0.19198,  14: 0.23763,  15:-0.64893,  16:-0.59858,  17:-0.65306,  18:  1.2924
    40 |      |   1:-0.18314,  12:-0.81823,  13: 0.55317,  14:-0.14748,  15: -1.5824,  16: 0.36123,  17:  1.2316,  18:  1.0776
    41 |      |   1: -0.4467,  19:-0.70769
    42 |      |   1:-0.19115,  19: 0.55281
    43 |      |   1:-0.60367,  20: 0.26211,  21:-0.59169
    44 |      |   1: 0.75729,  20:-0.59851,  21:-0.80827
    45 |      |   1:-0.44443,  20: 0.15811,  21: 0.43876
    46 |      |   1:  1.0556,  22:-0.040434,  23: 0.18402,  24: 0.67732,  25: 0.92211,  26: 0.19992,  27:0.018009
    47 |      |   1: 0.17845,  22:-0.061831,  23: 0.15251,  24:-0.064724,  25:  1.1966,  26: 0.24579,  27:-0.062822
    48 |      |   1: -1.2051,  22: -1.3096,  23: -1.2784,  24:-0.79054,  25:-0.92741,  26: 0.58715,  27:  1.2566
    49 |      |   1:0.0041983,  22: 0.23923,  23:-0.27828,  24: 0.40129,  25: -0.6079,  26:-0.21104,  27: -1.1957
    50 |      |   1: 0.10881,  22:0.097512,  23:-0.67582,  24:-0.41216,  25: 0.99853,  26: 0.21737,  27:  0.8789
    51 |      |  28: -0.3156,  29:  -1.895,  30:  1.7773,  31:-0.87514,  32: 0.29233,  33:-0.48341,  34: 0.35145,  35:0.073126, 
                 36:0.046004,  37:-0.69406,  38: -1.6126,  39: 0.95725,  40:-0.44943,  41:-0.04573,  42: -0.2972,  43: 0.64405, 
                 44:0.065091,  45:  0.7427,  46:  1.5877,  47:  1.3597,  48: -2.6361,  49:   0.103,  50:-0.082917
    52 |      |  28:-0.19391,  29:-0.64854,  30: 0.81282,  31:-0.34054,  32: 0.88947,  33: 0.23809,  34: 0.53939,  35:  1.0036, 
                 36: 0.44117,  37: 0.18906,  38:-0.85353,  39:-0.0070893,  40:-0.73748,  41: 0.87005,  42:-0.45834,  43: 0.20967, 
                 44: 0.88284,  45:-0.25045,  46:  0.1665,  47:-0.28015,  48:  1.0026,  49:  1.0077,  50: -0.4742
    53 |      |  28: 0.38216,  29:  1.4657,  30: -1.3749,  31: 0.92535,  32: 0.96754,  33:-0.55228,  34: 0.12123,  35:-0.43236, 
                 36:-0.51952,  37:-0.52564,  38: 0.46736,  39: -0.5048,  40:  1.4134,  41:-0.25675,  42:-0.55516,  43: 0.39549, 
                 44:   0.401,  45:-0.40193,  46: -1.4314,  47:  0.3021,  48: 0.42329,  49: 0.28047,  50:-0.52936
    54 |      |  28: 0.49916,  29:-0.79242,  30:-0.044014,  31: 0.48585,  32: -0.9578,  33: 0.51546,  34:-0.81372,  35: 0.76737, 
                 36: 0.47031,  37:  -0.684,  38: 0.51084,  39: 0.11203,  40: -0.4018,  41:  -0.512,  42: 0.45734,  43: 0.31255, 
                 44: 0.22343,  45:-0.66915,  46: 0.79081,  47:0.055047,  48: -0.1664,  49:-0.66822,  50:-0.64789
    55 |      |  28:  0.4228,  29:-0.89172,  30:-0.072864,  31: 0.24844,  32: 0.21573,  33:  0.3375,  34: 0.59001,  35:-0.38564, 
                 36: 0.83807,  37:-0.016191,  38: -1.1267,  39: 0.53516,  40: -1.2485,  41:-0.76318,  42: 0.34366,  43: 0.66612, 
                 44:0.032926,  45:-0.047359,  46: 0.79911,  47:  1.4789,  48:-0.93677,  49: -1.6652,  50: 0.98978
    56 |      |  28:-0.73262,  29:-0.070622,  30:0.092944,  31: 0.18952,  32:0.041078,  33: 0.71317,  34: 0.63091,  35:  1.0471, 
                 36:-0.75128,  37: 0.68655,  38:  0.3959,  39: 0.84081,  40: 0.12947,  41:-0.097649,  42:-0.34641,  43:-0.61936, 
                 44: 0.38375,  45: 0.04663,  46: 0.59534,  47: 0.34452,  48: 0.92106,  49:0.035101,  50:-0.12581
    57 |      |  28: 0.46565,  29: 0.71805,  30:-0.90353,  31:-0.43319,  32: 0.69406,  33:0.016881,  34:-0.21042,  35: -0.8874, 
                 36: 0.71366,  37:-0.94081,  38: 0.27083,  39:-0.25323,  40: 0.81249,  41:-0.10917,  42:-0.37492,  43:-0.91639, 
                 44:-0.31306,  45: 0.80028,  46: 0.74073,  47: 0.63506,  48:-0.29063,  49:-0.43544,  50:  -1.003
    58 |      |  28:  0.8605,  29: 0.17153,  30:  1.1405,  31: 0.14099,  32:-0.53132,  33:-0.72536,  34: 0.71709,  35: -1.0006, 
                 36:-0.82368,  37:-0.63237,  38:-0.77144,  39: 0.74491,  40:-0.44482,  41: 0.28626,  42: 0.97532,  43:-0.33365, 
                 44: 0.82653,  45: 0.16805,  46:  1.0741,  47: 0.85512,  48: -1.9123,  49: -1.2332,  50: 0.92254
    59 |      |  51:  3.7938,  52:-0.78386,  53: -2.3306,  54: 0.42868,  55:  3.0558,  56:-0.93832,  57:-0.24796,  58:  2.8016
-------|------|----------------------------------------------------------------------------------------------------------------
