SNNS network definition file V1.4-3D
generated at Thu May 09 10:11:49 1996

network name : v27-23+8
source files :
no. of units : 59
no. of connections : 314
no. of unit types : 0
no. of site types : 0


learning function : Std_Backpropagation
update function : Topological_Order


unit default section :

act      | bias     | st | subnet | layer | act func     | out func
---------|----------|----|--------|-------|--------------|-------------
 0.00000 |  0.00000 | h  |      0 |     1 | Act_Logistic | Out_Identity
---------|----------|----|--------|-------|--------------|-------------


unit definition section :

no. | typeName | unitName | act      | bias     | st | position | act func | out func | sites
----|----------|----------|----------|----------|----|----------|----------|----------|-------
  1 |          |           |  0.22361 |        0 | i  |  2, 1, 0 |||
  2 |          |           |  0.22361 |        0 | i  |  2, 3, 0 |||
  3 |          |           |  0.60449 |        0 | i  |  2, 4, 0 |||
  4 |          |           |   3.4713 |        0 | i  |  2, 5, 0 |||
  5 |          |           | -0.34316 |        0 | i  |  2, 6, 0 |||
  6 |          |           |     0.35 |        0 | i  |  2, 7, 0 |||
  7 |          |           |  -2.9462 |        0 | i  |  2, 8, 0 |||
  8 |          |           |  0.26894 |        0 | i  |  2, 9, 0 |||
  9 |          |           |  0.62139 |        0 | i  |  2,10, 0 |||
 10 |          |           |   1.2287 |        0 | i  |  2,11, 0 |||
 11 |          |           |  0.17469 |        0 | i  |  2,12, 0 |||
 12 |          |           |  0.22361 |        0 | i  |  2,14, 0 |||
 13 |          |           |   1.1187 |        0 | i  |  2,15, 0 |||
 14 |          |           |   1.0012 |        0 | i  |  2,16, 0 |||
 15 |          |           | -0.64459 |        0 | i  |  2,17, 0 |||
 16 |          |           | -0.19737 |        0 | i  |  2,18, 0 |||
 17 |          |           | -0.77578 |        0 | i  |  2,19, 0 |||
 18 |          |           |  0.58925 |        0 | i  |  2,20, 0 |||
 19 |          |           |   17.489 |        0 | i  |  2,22, 0 |||
 20 |          |           |   1.3663 |        0 | i  |  2,23, 0 |||
 21 |          |           |        0 |        0 | i  |  2,24, 0 |||
 22 |          |           |  0.22361 |        0 | i  |  2,26, 0 |||
 23 |          |           |   19.007 |        0 | i  |  2,27, 0 |||
 24 |          |           |        5 |        0 | i  |  2,28, 0 |||
 25 |          |           |    14.28 |        0 | i  |  2,29, 0 |||
 26 |          |           |   9.8955 |        0 | i  |  2,30, 0 |||
 27 |          |           |     15.4 |        0 | i  |  2,31, 0 |||
 28 |          |           |  0.95913 |  0.90781 | h  |  7, 3, 0 |||
 29 |          |           | 0.014109 |   1.1046 | h  |  7, 4, 0 |||
 30 |          |           |  0.99318 |  -1.0144 | h  |  7, 5, 0 |||
 31 |          |           |  0.40144 |   0.9127 | h  |  8, 6, 0 |||
 32 |          |           |   0.9725 |  0.80868 | h  |  8, 7, 0 |||
 33 |          |           |  0.94759 | 0.044905 | h  |  8, 8, 0 |||
 34 |          |           |  0.75952 |  0.33951 | h  |  7,10, 0 |||
 35 |          |           |  0.71836 |  0.95824 | h  |  7,11, 0 |||
 36 |          |           |  0.24475 | -0.41458 | h  |  7,12, 0 |||
 37 |          |           |  0.53593 |  0.60941 | h  |  7,14, 0 |||
 38 |          |           |  0.82612 |  0.63309 | h  |  7,15, 0 |||
 39 |          |           |  0.68474 | -0.47017 | h  |  7,16, 0 |||
 40 |          |           |  0.93914 |   1.5267 | h  |  7,17, 0 |||
 41 |          |           | 0.00021316 |  0.78422 | h  |  7,19, 0 |||
 42 |          |           |        1 | -0.35293 | h  |  7,20, 0 |||
 43 |          |           |  0.25993 | -0.10173 | h  |  7,22, 0 |||
 44 |          |           |  0.21472 | -0.59343 | h  |  7,23, 0 |||
 45 |          |           |   0.4796 |  -0.2051 | h  |  7,24, 0 |||
 46 |          |           |        1 | -0.86197 | h  |  7,26, 0 |||
 47 |          |           |        1 | 0.046234 | h  |  7,27, 0 |||
 48 |          |           |        1 |  0.58477 | h  |  7,28, 0 |||
 49 |          |           | 4.8532e-08 |  0.63725 | h  |  7,29, 0 |||
 50 |          |           | 0.00095055 |  0.39759 | h  |  7,30, 0 |||
 51 |          |           |  0.94793 |  0.44355 | h  | 13,12, 0 |||
 52 |          |           |  0.94095 | -0.14702 | h  | 13,13, 0 |||
 53 |          |           |  0.11632 | -0.76912 | h  | 13,14, 0 |||
 54 |          |           |  0.84106 |  -0.3938 | h  | 13,15, 0 |||
 55 |          |           |   0.8833 | -0.34035 | h  | 13,16, 0 |||
 56 |          |           |  0.98615 | -0.31499 | h  | 13,17, 0 |||
 57 |          |           |   0.2761 |  -1.0476 | h  | 13,18, 0 |||
 58 |          |           |  0.81538 | -0.35137 | h  | 13,19, 0 |||
 59 |          |           |  0.99909 |  -1.1486 | o  | 20,15, 0 |||
----|----------|----------|----------|----------|----|----------|----------|----------|-------


connection definition section :

target | site | source:weight
-------|------|------------------------------------------------------------------------------------------------------------
    28 |      |   1: 0.89149,   2:   1.029,   3: 0.83609,   4: 0.37675,   5:-0.014851
    29 |      |   1:-0.41278,   2: 0.30908,   3:  -1.232,   4:  -1.399,   5:-0.79537
    30 |      |   1: 0.40662,   2: 0.33088,   3:-0.24953,   4:  1.7779,   5: 0.55525
    31 |      |   1: 0.24335,   2: 0.12661,   6:  1.0351,   7: 0.66432,   8: 0.74387
    32 |      |   1:-0.68391,   2:-0.71084,   6: 0.58358,   7: -0.9389,   8: 0.36583
    33 |      |   1:-0.18364,   2: 0.31619,   6:  1.3108,   7:-0.83893,   8:-0.40965
    34 |      |   1:-0.93081,   9: 0.72516,  10: 0.54948,  11:-0.61319
    35 |      |   1:-0.32718,   9: -1.0575,  10: 0.71523,  11: -0.9756
    36 |      |   1:-0.017381,   9: 0.75894,  10:-0.87345,  11:-0.61083
    37 |      |   1:  1.2875,  12: 0.89553,  13:  -1.227,  14:  1.2845,  15:  1.5961,  16:-0.27868,  17:-0.34532,  18:-0.27341
    38 |      |   1:-0.51827,  12: 0.22082,  13:  1.7231,  14:-0.51993,  15: 0.29803,  16:-0.53458,  17:  1.0674,  18: 0.84752
    39 |      |   1:-0.70644,  12: -1.0075,  13: 0.39903,  14:-0.32176,  15:-0.88664,  16:-0.59397,  17:-0.16859,  18:   1.163
    40 |      |   1: 0.09654,  12:-0.53855,  13: 0.84039,  14: 0.35996,  15: -0.9321,  16:  1.4534,  17:  1.4443,  18:  1.3821
    41 |      |   1:-0.40082,  19:-0.52305
    42 |      |   1:-0.16221,  19:   0.835
    43 |      |   1: -0.6256,  20:-0.58901,  21:-0.57436
    44 |      |   1: 0.82459,  20:-0.64972,  21: -0.8073
    45 |      |   1:-0.47802,  20: 0.16859,  21: 0.45533
    46 |      |   1: 0.71894,  22:-0.11685,  23: 0.46019,  24: 0.60675,  25: 0.94309,  26: 0.23416,  27:0.068356
    47 |      |   1:-0.16774,  22:-0.15848,  23: 0.32815,  24:-0.10066,  25:  1.2578,  26: 0.53533,  27:-0.78214
    48 |      |   1: -0.7103,  22: -0.7575,  23: -1.0394,  24:-0.68049,  25: -0.6992,  26:  1.0899,  27:  2.3492
    49 |      |   1: 0.40318,  22: 0.42624,  23:  -0.286,  24: 0.46413,  25: -0.4771,  26:-0.41828,  27:-0.23353
    50 |      |   1: 0.18669,  22:-0.020846,  23: -1.3706,  24: -0.6086,  25:-0.23109,  26: 0.65738,  27:   1.201
    51 |      |  28:-0.94802,  29: -1.4446,  30:  1.7453,  31:-0.91393,  32: 0.77188,  33: 0.78391,  34: 0.81516,  35: 0.21312, 
                 36:  0.2531,  37: -1.5076,  38:  -1.074,  39:  1.4147,  40: -1.1563,  41:-0.075988,  42:0.015135,  43:  1.0358, 
                 44:-0.016332,  45: 0.79906,  46:  1.4816,  47:  1.4662,  48: -2.1047,  49:0.035216,  50: -1.1334
    52 |      |  28:-0.087731,  29:-0.56949,  30: 0.84816,  31:-0.25431,  32: 0.96728,  33: 0.28122,  34: 0.63705,  35:  1.0668, 
                 36: 0.48257,  37: 0.34472,  38: -0.8235,  39:-0.037716,  40:-0.76306,  41: 0.87667,  42:-0.40763,  43: 0.24387, 
                 44: 0.92078,  45: -0.2272,  46: 0.33713,  47:-0.12924,  48: 0.97769,  49: 0.94756,  50:-0.32838
    53 |      |  28: 0.53962,  29:  1.4482,  30: -1.5099,  31: 0.84367,  32: 0.83244,  33:-0.56171,  34:-0.10873,  35:-0.53298, 
                 36: -0.1371,  37:-0.11195,  38: 0.20346,  39:-0.58246,  40:  1.5021,  41:-0.17714,  42:  -0.767,  43: 0.37841, 
                 44:  0.6846,  45:-0.46566,  46: -1.1881,  47: 0.42289,  48:-0.023836,  49: 0.20236,  50:  0.1183
    54 |      |  28: 0.59746,  29:-0.96336,  30: 0.32423,  31: 0.50698,  32: -1.0044,  33: 0.54372,  34:-0.75499,  35: 0.82021, 
                 36: 0.39101,  37:-0.84115,  38: 0.51968,  39:  0.3511,  40:-0.43021,  41: -0.5754,  42: 0.63553,  43: 0.37239, 
                 44: 0.27732,  45:-0.58673,  46:  1.0407,  47: 0.25446,  48: -0.2948,  49:-0.74839,  50:-0.66029
    55 |      |  28:0.072712,  29:-0.91335,  30:0.039403,  31: 0.51501,  32:  0.9821,  33: 0.97805,  34: 0.94711,  35:-0.61902, 
                 36: 0.83319,  37:-0.32309,  38:-0.73739,  39: 0.49516,  40: -1.7477,  41:-0.62498,  42: 0.37592,  43: 0.83205, 
                 44: 0.19283,  45:-0.20362,  46:  0.8203,  47:  1.8059,  48: -1.3756,  49: -1.6543,  50:-0.54307
    56 |      |  28:-0.50415,  29:-0.18171,  30: 0.27965,  31:  0.2807,  32:-0.070978,  33: 0.53514,  34: 0.70266,  35:  1.1011, 
                 36:-0.77874,  37: 0.86172,  38:  0.2847,  39: 0.76995,  40: 0.16743,  41: -0.1059,  42:-0.31783,  43:-0.61812, 
                 44: 0.36951,  45: 0.14423,  46: 0.73164,  47: 0.43921,  48: 0.88161,  49:0.034579,  50: 0.12684
    57 |      |  28: 0.28407,  29:  0.5569,  30:-0.87522,  31:-0.60105,  32:  0.7287,  33: 0.18696,  34:-0.37551,  35: -1.1482, 
                 36: 0.81401,  37: -1.0018,  38: 0.21202,  39:-0.28294,  40: 0.68278,  41:-0.24727,  42:-0.39159,  43:-0.89348, 
                 44:-0.25226,  45: 0.76493,  46:  1.0291,  47: 0.84843,  48:-0.71202,  49:-0.68094,  50: -1.2314
    58 |      |  28: 0.52774,  29: 0.22253,  30:  1.2682,  31:0.039085,  32:-0.32257,  33:-0.21985,  34: 0.84504,  35:-0.88418, 
                 36:-0.95238,  37: -1.3164,  38:-0.43832,  39:   1.089,  40:-0.54963,  41: 0.15245,  42:  1.1801,  43:-0.23478, 
                 44: 0.78121,  45: 0.12456,  46: 0.95843,  47: 0.73213,  48: -1.3987,  49: -1.2523,  50:  0.3449
    59 |      |  51:  3.7755,  52:-0.48212,  53: -2.2359,  54:  1.3086,  55:  3.3058,  56:-0.94507,  57:  1.2394,  58:  2.2791
-------|------|----------------------------------------------------------------------------------------------------------------
