SNNS network definition file V1.4-3D
generated at Thu May 09 10:11:49 1996

network name : v27-23+8
source files :
no. of units : 59
no. of connections : 314
no. of unit types : 0
no. of site types : 0


learning function : Std_Backpropagation
update function : Topological_Order


unit default section :

act      | bias     | st | subnet | layer | act func     | out func
---------|----------|----|--------|-------|--------------|-------------
 0.00000 |  0.00000 | h  |      0 |     1 | Act_Logistic | Out_Identity
---------|----------|----|--------|-------|--------------|-------------


unit definition section :

no. | typeName | unitName | act      | bias     | st | position | act func | out func | sites
----|----------|----------|----------|----------|----|----------|----------|----------|-------
  1 |          |           |        0 |        0 | i  |  2, 1, 0 |||
  2 |          |           |        0 |        0 | i  |  2, 3, 0 |||
  3 |          |           |   -1.856 |        0 | i  |  2, 4, 0 |||
  4 |          |           | -0.48724 |        0 | i  |  2, 5, 0 |||
  5 |          |           |   1.5708 |        0 | i  |  2, 6, 0 |||
  6 |          |           |  0.02246 |        0 | i  |  2, 7, 0 |||
  7 |          |           |   2.8283 |        0 | i  |  2, 8, 0 |||
  8 |          |           |   2.8513 |        0 | i  |  2, 9, 0 |||
  9 |          |           |  0.88492 |        0 | i  |  2,10, 0 |||
 10 |          |           |   2.0942 |        0 | i  |  2,11, 0 |||
 11 |          |           |   2.9537 |        0 | i  |  2,12, 0 |||
 12 |          |           |        0 |        0 | i  |  2,14, 0 |||
 13 |          |           | -0.39798 |        0 | i  |  2,15, 0 |||
 14 |          |           |  0.16101 |        0 | i  |  2,16, 0 |||
 15 |          |           |  -1.4848 |        0 | i  |  2,17, 0 |||
 16 |          |           |   1.0519 |        0 | i  |  2,18, 0 |||
 17 |          |           | -0.87559 |        0 | i  |  2,19, 0 |||
 18 |          |           |    1.887 |        0 | i  |  2,20, 0 |||
 19 |          |           |   2.1212 |        0 | i  |  2,22, 0 |||
 20 |          |           |   1.6213 |        0 | i  |  2,23, 0 |||
 21 |          |           |        0 |        0 | i  |  2,24, 0 |||
 22 |          |           |        5 |        0 | i  |  2,26, 0 |||
 23 |          |           |   20.115 |        0 | i  |  2,27, 0 |||
 24 |          |           |   3.0822 |        0 | i  |  2,28, 0 |||
 25 |          |           |   4.8848 |        0 | i  |  2,29, 0 |||
 26 |          |           | -0.38138 |        0 | i  |  2,30, 0 |||
 27 |          |           |    2.557 |        0 | i  |  2,31, 0 |||
 28 |          |           |  0.16965 |   1.7688 | h  |  7, 3, 0 |||
 29 |          |           |  0.99281 |  0.98212 | h  |  7, 4, 0 |||
 30 |          |           | 0.016719 | -0.69374 | h  |  7, 5, 0 |||
 31 |          |           |  0.99823 |  0.54725 | h  |  8, 6, 0 |||
 32 |          |           |  0.62444 |  0.34386 | h  |  8, 7, 0 |||
 33 |          |           |  0.19946 | -0.03941 | h  |  8, 8, 0 |||
 34 |          |           |  0.92864 |  0.78087 | h  |  7,10, 0 |||
 35 |          |           | 0.021608 |     1.76 | h  |  7,11, 0 |||
 36 |          |           |  0.01491 |  0.62425 | h  |  7,12, 0 |||
 37 |          |           |  0.17344 |  0.40675 | h  |  7,14, 0 |||
 38 |          |           |  0.19322 |   0.3344 | h  |  7,15, 0 |||
 39 |          |           |  0.99812 |  0.32264 | h  |  7,16, 0 |||
 40 |          |           |  0.88256 |  0.56826 | h  |  7,17, 0 |||
 41 |          |           |  0.15758 |  0.88249 | h  |  7,19, 0 |||
 42 |          |           |  0.48269 | -0.17076 | h  |  7,20, 0 |||
 43 |          |           |  0.03724 | -0.14485 | h  |  7,22, 0 |||
 44 |          |           |  0.04333 | -0.43549 | h  |  7,23, 0 |||
 45 |          |           |  0.82955 | -0.15068 | h  |  7,24, 0 |||
 46 |          |           |  0.99996 | -0.27209 | h  |  7,26, 0 |||
 47 |          |           |        1 |  0.25545 | h  |  7,27, 0 |||
 48 |          |           | 1.6535e-23 |  0.96198 | h  |  7,28, 0 |||
 49 |          |           | 2.4449e-08 | -0.099871 | h  |  7,29, 0 |||
 50 |          |           | 5.6283e-12 |  0.65564 | h  |  7,30, 0 |||
 51 |          |           |  0.99885 |  0.93606 | h  | 13,12, 0 |||
 52 |          |           |  0.55097 | -0.36377 | h  | 13,13, 0 |||
 53 |          |           |  0.63608 | -0.74212 | h  | 13,14, 0 |||
 54 |          |           |  0.32575 | -0.42451 | h  | 13,15, 0 |||
 55 |          |           |  0.79317 | -0.55889 | h  | 13,16, 0 |||
 56 |          |           |   0.9612 | -0.36421 | h  | 13,17, 0 |||
 57 |          |           |  0.99002 | -0.57173 | h  | 13,18, 0 |||
 58 |          |           |  0.99534 | -0.12763 | h  | 13,19, 0 |||
 59 |          |           |  0.99501 |  -1.6046 | o  | 20,15, 0 |||
----|----------|----------|----------|----------|----|----------|----------|----------|-------


connection definition section :

target | site | source:weight
-------|------|------------------------------------------------------------------------------------------------------------
    28 |      |   1:  0.8675,   2: 0.98761,   3:  1.2638,   4:  1.4833,   5:-0.18373
    29 |      |   1:-0.69142,   2:-0.05843,   3: -1.8836,   4:  -0.781,   5:0.044316
    30 |      |   1: 0.52887,   2: 0.50065,   3:   1.602,   4:  1.2097,   5: 0.11596
    31 |      |   1: 0.20316,   2:0.059785,   6: 0.80661,   7:   1.474,   8: 0.56189
    32 |      |   1:-0.70049,   2:-0.72723,   6:-0.42124,   7:  -1.219,   8:  1.2702
    33 |      |   1:-0.20224,   2: 0.40616,   6:  1.4594,   7: 0.19636,   8:-0.67982
    34 |      |   1:-0.76447,   9: 0.66906,  10:  1.3178,  11:-0.53039
    35 |      |   1:-0.40574,   9:-0.13139,  10: 0.84925,  11: -2.4495
    36 |      |   1:0.063087,   9: 0.36926,  10:-0.057808,  11: -1.6998
    37 |      |   1:  1.0625,  12: 0.67048,  13: 0.37699,  14:  2.1066,  15: 0.38545,  16: 0.88852,  17:  1.1011,  18:-0.82433
    38 |      |   1:-0.61529,  12: 0.12381,  13:0.090643,  14: -1.8548,  15:  1.4818,  16:-0.91422,  17:  1.0367,  18:  1.3994
    39 |      |   1:-0.54915,  12:-0.85025,  13: 0.43432,  14:-0.15184,  15: -2.0356,  16:-0.026658,  17: -1.5297,  18:  0.9622
    40 |      |   1:-0.17957,  12:-0.81466,  13: 0.65987,  14:  0.1129,  15:-0.092042,  16:  1.0981,  17:  1.3586,  18: 0.84311
    41 |      |   1:-0.45848,  19: -1.2063
    42 |      |   1:-0.22712,  19:0.047854
    43 |      |   1:-0.69531,  20: -1.9167,  21:-0.59349
    44 |      |   1: 0.75154,  20: -1.6401,  21:-0.80765
    45 |      |   1:-0.52001,  20:   1.069,  21:  0.3929
    46 |      |   1: 0.79802,  22:-0.29704,  23: 0.34974,  24: 0.98506,  25: 0.91901,  26:-0.18749,  27: -1.0751
    47 |      |   1:-0.080765,  22:-0.27678,  23: 0.71021,  24: 0.68459,  25:  1.6138,  26:-0.024131,  27: -1.1003
    48 |      |   1:-0.88262,  22: -1.0257,  23: -2.1418,  24: -1.7733,  25: -1.1149,  26: -0.1688,  27:  2.2062
    49 |      |   1:0.015963,  22:-0.16247,  23:-0.74828,  24:  1.0154,  25:-0.13735,  26:-0.46738,  27: -1.6424
    50 |      |   1: 0.10564,  22:-0.009224,  23: -1.3321,  24:-0.93154,  25:0.038165,  26: 0.12874,  27:  1.1799
    51 |      |  28:  -1.752,  29: -1.3505,  30:  1.7408,  31:-0.53267,  32:  2.1145,  33:-0.41316,  34:-0.80822,  35:  -1.352, 
                 36: -1.5576,  37: -1.7773,  38:-0.25608,  39:  2.7187,  40: -1.1051,  41: 0.81214,  42:0.015484,  43:  1.6285, 
                 44: 0.61166,  45: 0.74934,  46:  2.5733,  47:  2.7355,  48:  -3.113,  49:  1.2181,  50: -1.1797
    52 |      |  28: 0.41352,  29: -1.0293,  30: 0.88218,  31: 0.18122,  32: 0.69818,  33:-0.57086,  34:  1.4325,  35:  1.9247, 
                 36: 0.81628,  37: 0.67999,  38: -1.9659,  39:-0.09063,  40:-0.98164,  41:  1.7527,  42: -0.1738,  43: 0.53057, 
                 44:  1.1682,  45:-0.72307,  46: 0.86415,  47: 0.31004,  48: 0.13444,  49:  1.9349,  50: -1.4249
    53 |      |  28: 0.64425,  29: 0.82639,  30:-0.78276,  31:  0.6886,  32: 0.59468,  33: -0.7176,  34:-0.085759,  35:-0.76201, 
                 36:-0.40581,  37:-0.29568,  38:-0.017571,  39:-0.47497,  40: 0.85081,  41:-0.59207,  42:-0.52136,  43:  0.2976, 
                 44: 0.67822,  45:-0.43422,  46:-0.78363,  47: 0.79658,  48:-0.64141,  49:-0.27247,  50:0.011297
    54 |      |  28: 0.56501,  29:-0.59569,  30:-0.16244,  31: 0.38429,  32: -0.8488,  33:   0.587,  34: -0.6898,  35:  1.0407, 
                 36: 0.68356,  37:-0.79882,  38: 0.85426,  39: 0.07827,  40:-0.24549,  41:-0.24409,  42: 0.52561,  43: 0.29106, 
                 44: 0.14303,  45:-0.57961,  46: 0.95708,  47: 0.23608,  48:-0.19298,  49:-0.27816,  50: -0.7617
    55 |      |  28:-0.02795,  29: -1.4086,  30: 0.12567,  31:  1.0975,  32: 0.60604,  33: 0.55034,  34: 0.58157,  35:-0.56522, 
                 36: 0.19178,  37: 0.85303,  38: -1.4294,  39: 0.51981,  40:-0.90094,  41:-0.41861,  42:0.025049,  43:  1.4175, 
                 44: 0.85565,  45:-0.69316,  46: 0.60327,  47:    1.53,  48: -1.1273,  49:  -2.035,  50:-0.24904
    56 |      |  28:-0.54203,  29:-0.22854,  30: 0.20151,  31: 0.39546,  32:-0.076591,  33: 0.64651,  34: 0.97486,  35:  1.2649, 
                 36:-0.57719,  37: 0.85764,  38: 0.11132,  39: 0.79972,  40: 0.12076,  41:-0.026694,  42:-0.26763,  43:-0.70721, 
                 44: 0.27036,  45: 0.11833,  46: 0.88447,  47: 0.58003,  48: 0.65858,  49:0.047665,  50: -0.1049
    57 |      |  28: 0.79721,  29:   0.857,  30:-0.40168,  31:-0.75642,  32:  1.1176,  33: 0.59303,  34:-0.80671,  35: -1.4209, 
                 36: 0.74242,  37:-0.90351,  38:  1.3102,  39: 0.31754,  40: 0.90134,  41:-0.28229,  42:-0.35599,  43: -1.0068, 
                 44:-0.47629,  45:  1.3385,  46:  1.4805,  47:  1.3716,  48:-0.75862,  49:-0.49105,  50:-0.80588
    58 |      |  28: 0.92033,  29: 0.32767,  30:  1.2824,  31:-0.079781,  32:  0.0532,  33:-0.11243,  34:0.014485,  35: -1.3351, 
                 36: -1.0278,  37: -1.1632,  38: 0.60991,  39:   1.361,  40: 0.17106,  41: 0.50186,  42: 0.93971,  43:0.0091956, 
                 44:  1.1307,  45: 0.25502,  46:  1.4543,  47:  1.4148,  48: -1.9704,  49:-0.33278,  50: 0.11547
    59 |      |  51:  4.6827,  52: -4.0079,  53: 0.23216,  54:-0.80449,  55:  3.5892,  56: -1.6426,  57:  1.4213,  58:  1.8796
-------|------|----------------------------------------------------------------------------------------------------------------
