SNNS network definition file V1.4-3D
generated at Thu May 09 10:11:49 1996

network name : v27-23+8
source files :
no. of units : 59
no. of connections : 314
no. of unit types : 0
no. of site types : 0


learning function : Std_Backpropagation
update function : Topological_Order


unit default section :

act      | bias     | st | subnet | layer | act func     | out func
---------|----------|----|--------|-------|--------------|-------------
 0.00000 |  0.00000 | h  |      0 |     1 | Act_Logistic | Out_Identity
---------|----------|----|--------|-------|--------------|-------------


unit definition section :

no. | typeName | unitName | act      | bias     | st | position | act func | out func | sites
----|----------|----------|----------|----------|----|----------|----------|----------|-------
  1 |          |           |  0.48507 |        0 | i  |  2, 1, 0 |||
  2 |          |           |  0.48507 |        0 | i  |  2, 3, 0 |||
  3 |          |           |  0.60112 |        0 | i  |  2, 4, 0 |||
  4 |          |           |   1.3803 |        0 | i  |  2, 5, 0 |||
  5 |          |           | -0.14147 |        0 | i  |  2, 6, 0 |||
  6 |          |           |   -4.303 |        0 | i  |  2, 7, 0 |||
  7 |          |           | -0.62572 |        0 | i  |  2, 8, 0 |||
  8 |          |           |  0.81643 |        0 | i  |  2, 9, 0 |||
  9 |          |           | -0.53876 |        0 | i  |  2,10, 0 |||
 10 |          |           |  0.27977 |        0 | i  |  2,11, 0 |||
 11 |          |           |  0.18771 |        0 | i  |  2,12, 0 |||
 12 |          |           |  0.48507 |        0 | i  |  2,14, 0 |||
 13 |          |           |  0.35326 |        0 | i  |  2,15, 0 |||
 14 |          |           |  -1.2849 |        0 | i  |  2,16, 0 |||
 15 |          |           |    0.222 |        0 | i  |  2,17, 0 |||
 16 |          |           | -0.61744 |        0 | i  |  2,18, 0 |||
 17 |          |           | 0.017599 |        0 | i  |  2,19, 0 |||
 18 |          |           |  -1.5021 |        0 | i  |  2,20, 0 |||
 19 |          |           |   8.5365 |        0 | i  |  2,22, 0 |||
 20 |          |           |   4.2071 |        0 | i  |  2,23, 0 |||
 21 |          |           |        0 |        0 | i  |  2,24, 0 |||
 22 |          |           |   5.5783 |        0 | i  |  2,26, 0 |||
 23 |          |           |   15.765 |        0 | i  |  2,27, 0 |||
 24 |          |           |        5 |        0 | i  |  2,28, 0 |||
 25 |          |           |   14.092 |        0 | i  |  2,29, 0 |||
 26 |          |           |   3.3498 |        0 | i  |  2,30, 0 |||
 27 |          |           |   6.4261 |        0 | i  |  2,31, 0 |||
 28 |          |           |  0.87908 |  0.93736 | h  |  7, 3, 0 |||
 29 |          |           |  0.18512 |  0.70738 | h  |  7, 4, 0 |||
 30 |          |           |   0.9169 | -0.63636 | h  |  7, 5, 0 |||
 31 |          |           | 0.090604 |  0.82362 | h  |  8, 6, 0 |||
 32 |          |           |  0.90452 |  0.84974 | h  |  8, 7, 0 |||
 33 |          |           | 0.029933 | -0.19879 | h  |  8, 8, 0 |||
 34 |          |           |   0.7621 |  0.74823 | h  |  7,10, 0 |||
 35 |          |           |  0.75559 |  0.60537 | h  |  7,11, 0 |||
 36 |          |           |  0.23607 | -0.25249 | h  |  7,12, 0 |||
 37 |          |           |  0.96597 | -0.20324 | h  |  7,14, 0 |||
 38 |          |           |  0.40949 |  0.67792 | h  |  7,15, 0 |||
 39 |          |           |   0.2377 |  0.63853 | h  |  7,16, 0 |||
 40 |          |           | 0.096248 |  0.73654 | h  |  7,17, 0 |||
 41 |          |           | 0.0090735 |  0.59392 | h  |  7,19, 0 |||
 42 |          |           |  0.62903 | -0.28321 | h  |  7,20, 0 |||
 43 |          |           |  0.70196 |  -0.2025 | h  |  7,22, 0 |||
 44 |          |           | 0.046854 | -0.64742 | h  |  7,23, 0 |||
 45 |          |           |    0.842 | -0.26799 | h  |  7,24, 0 |||
 46 |          |           |        1 | -0.76035 | h  |  7,26, 0 |||
 47 |          |           |        1 | -0.059941 | h  |  7,27, 0 |||
 48 |          |           | 5.8634e-07 |  0.57291 | h  |  7,28, 0 |||
 49 |          |           | 3.8179e-06 |  0.18046 | h  |  7,29, 0 |||
 50 |          |           | 0.0022212 | 0.067204 | h  |  7,30, 0 |||
 51 |          |           |  0.99566 |  0.32684 | h  | 13,12, 0 |||
 52 |          |           |  0.91644 | -0.18062 | h  | 13,13, 0 |||
 53 |          |           |  0.14698 | -0.57013 | h  | 13,14, 0 |||
 54 |          |           |  0.25616 | -0.57039 | h  | 13,15, 0 |||
 55 |          |           |  0.88266 | -0.57628 | h  | 13,16, 0 |||
 56 |          |           |  0.94259 | -0.28013 | h  | 13,17, 0 |||
 57 |          |           |  0.25733 |  -1.0069 | h  | 13,18, 0 |||
 58 |          |           |  0.93094 | -0.36666 | h  | 13,19, 0 |||
 59 |          |           |  0.99637 |  -1.2479 | o  | 20,15, 0 |||
----|----------|----------|----------|----------|----|----------|----------|----------|-------


connection definition section :

target | site | source:weight
-------|------|------------------------------------------------------------------------------------------------------------
    28 |      |   1: 0.84736,   2:  1.0638,   3: 0.69723,   4:-0.22116,   5:-0.038621
    29 |      |   1:-0.90256,   2:-0.24522,   3: -1.1387,   4:-0.71489,   5:-0.27313
    30 |      |   1: 0.78636,   2: 0.67292,   3: 0.70823,   4:  1.4781,   5: 0.96587
    31 |      |   1: 0.16681,   2:0.071709,   6:   0.906,   7:-0.11986,   8: 0.70793
    32 |      |   1:-0.62149,   2:-0.65425,   6:-0.30737,   7:-0.53185,   8: 0.44354
    33 |      |   1: -0.2601,   2: 0.36555,   6: 0.82447,   7:-0.71837,   8:-0.28478
    34 |      |   1:-0.72458,   9: -0.6498,  10:  1.4462,  11:0.068042
    35 |      |   1:-0.24248,   9: -1.2202,  10: 0.35151,  11:-0.61189
    36 |      |   1:0.039453,   9: 0.86526,  10: -1.1056,  11:-0.88189
    37 |      |   1:  1.2565,  12: 0.86449,  13:-0.58884,  14:-0.11911,  15:  1.4348,  16:-0.95684,  17:-0.84707,  18: -1.1189
    38 |      |   1:-0.86559,  12: -0.1265,  13:  0.5199,  14:-0.81553,  15:  0.6061,  16:0.035668,  17:-0.44813,  18:  1.2642
    39 |      |   1:-0.43797,  12:-0.73907,  13:0.034413,  14: 0.15381,  15: -1.1973,  16:-0.14945,  17: 0.94333,  18: 0.59287
    40 |      |   1:0.037892,  12: -0.5972,  13:  1.0755,  14: 0.76955,  15:-0.46359,  16: 0.40017,  17:  0.3508,  18:  1.1665
    41 |      |   1:-0.44576,  19:-0.59403
    42 |      |   1:-0.17943,  19: 0.10523
    43 |      |   1:-0.42093,  20: 0.30029,  21:-0.58885
    44 |      |   1: 0.70755,  20: -0.6438,  21:-0.80909
    45 |      |   1:-0.31009,  20: 0.49717,  21: 0.46518
    46 |      |   1: 0.80339,  22:-0.076713,  23: 0.38342,  24: 0.65355,  25:  0.9324,  26:-0.38174,  27:-0.64686
    47 |      |   1:0.041087,  22:-0.061032,  23: 0.31096,  24:-0.078452,  25:  1.1874,  26:0.056374,  27:-0.43273
    48 |      |   1:-0.54829,  22:-0.59846,  23:-0.60285,  24:-0.65122,  25:-0.35959,  26:-0.058591,  27:  1.0435
    49 |      |   1:0.082559,  22: 0.24844,  23:-0.41067,  24: 0.42086,  25:-0.51367,  26:-0.38823,  27:-0.18257
    50 |      |   1: 0.08109,  22:-0.017468,  23: -1.0332,  24:-0.55355,  25: 0.61506,  26:   0.395,  27: 0.45884
    51 |      |  28:-0.71157,  29: -1.2191,  30:  1.6549,  31: -1.0598,  32: 0.50411,  33:-0.52646,  34:  1.1114,  35: 0.90555, 
                 36:-0.66941,  37: -1.2624,  38: -1.1505,  39:  1.2391,  40:-0.42395,  41: 0.21392,  42:-0.37329,  43: 0.74695, 
                 44:-0.25349,  45: 0.84071,  46:  1.7061,  47:  1.4705,  48: -1.9259,  49:0.087833,  50:-0.60618
    52 |      |  28:-0.24411,  29:-0.50803,  30: 0.85533,  31:-0.37673,  32: 0.89872,  33: 0.22215,  34:  0.5731,  35:  1.1172, 
                 36: 0.41727,  37: 0.34248,  38:-0.85376,  39:-0.054857,  40:-0.81244,  41: 0.79261,  42:-0.39343,  43: 0.23378, 
                 44: 0.87559,  45:-0.19608,  46: 0.36828,  47:-0.12212,  48: 0.95527,  49: 0.86718,  50:-0.35933
    53 |      |  28: 0.79518,  29:  1.2803,  30: -1.3088,  31: 0.99389,  32: 0.71463,  33:-0.32259,  34: -0.1031,  35:-0.61901, 
                 36: 0.15236,  37:-0.093829,  38: 0.21348,  39: -0.5272,  40:  1.1311,  41:-0.37387,  42:-0.39808,  43: 0.42177, 
                 44: 0.69819,  45:-0.39343,  46: -1.2955,  47: 0.43064,  48:-0.031027,  49: 0.20083,  50:0.012667
    54 |      |  28: 0.55061,  29:-0.81644,  30:-0.12934,  31: 0.53663,  32:-0.93949,  33:  0.5785,  34:-0.87924,  35: 0.66619, 
                 36:  0.5278,  37:-0.63916,  38:  0.5193,  39:0.057944,  40: -0.3497,  41:-0.47478,  42: 0.43138,  43: 0.31651, 
                 44: 0.21857,  45:-0.68165,  46: 0.66421,  47:-0.047653,  48:-0.10467,  49:-0.58838,  50:-0.64218
    55 |      |  28:-0.17109,  29:-0.39256,  30:-0.13822,  31: 0.16035,  32: 0.53313,  33:-0.013813,  34: 0.84771,  35: 0.21756, 
                 36:-0.0024269,  37:-0.35631,  38:-0.71462,  39: 0.48982,  40: -1.0485,  41:-0.60754,  42:  0.1102,  43: 0.58996, 
                 44:-0.12304,  45:-0.19011,  46:  0.6104,  47:  1.3365,  48:-0.57356,  49: -1.4568,  50:0.032818
    56 |      |  28:-0.51636,  29:-0.20941,  30: 0.30295,  31: 0.26203,  32:0.060962,  33: 0.78721,  34: 0.64675,  35:  0.9665, 
                 36:-0.59106,  37: 0.95704,  38: 0.31917,  39: 0.76325,  40:0.076838,  41:-0.11458,  42:-0.27498,  43:-0.56248, 
                 44: 0.43356,  45: 0.14268,  46: 0.78292,  47: 0.50862,  48:  0.7908,  49:-0.015716,  50:0.091954
    57 |      |  28: 0.48641,  29: 0.60889,  30:-0.86624,  31:-0.46006,  32: 0.65527,  33:0.011158,  34:-0.22658,  35:-0.96589, 
                 36: 0.71002,  37:-0.95851,  38: 0.21987,  39:-0.27213,  40: 0.78215,  41:-0.14726,  42:-0.38403,  43:-0.92439, 
                 44:-0.32903,  45: 0.79661,  46: 0.79035,  47:  0.6579,  48:-0.37145,  49:  -0.506,  50:-0.94479
    58 |      |  28: 0.45431,  29: 0.52601,  30:  1.1774,  31: 0.04659,  32: -0.2924,  33:-0.88019,  34:  1.1794,  35:-0.57482, 
                 36: -1.3796,  37: -1.3316,  38:-0.52738,  39: 0.99793,  40:-0.19873,  41:   0.472,  42: 0.84983,  43:-0.27537, 
                 44: 0.64099,  45: 0.25348,  46:  1.2431,  47: 0.99049,  48: -1.6577,  49: -1.1877,  50: 0.43186
    59 |      |  51:  3.9245,  52:-0.38545,  53: -2.0307,  54:-0.22344,  55:  1.8836,  56:-0.74065,  57: 0.12534,  58:  2.8655
-------|------|----------------------------------------------------------------------------------------------------------------
