SNNS network definition file V1.4-3D
generated at Thu May 09 10:11:49 1996

network name : v27-23+8
source files :
no. of units : 59
no. of connections : 314
no. of unit types : 0
no. of site types : 0


learning function : Std_Backpropagation
update function : Topological_Order


unit default section :

act      | bias     | st | subnet | layer | act func     | out func
---------|----------|----|--------|-------|--------------|-------------
 0.00000 |  0.00000 | h  |      0 |     1 | Act_Logistic | Out_Identity
---------|----------|----|--------|-------|--------------|-------------


unit definition section :

no. | typeName | unitName | act      | bias     | st | position | act func | out func | sites
----|----------|----------|----------|----------|----|----------|----------|----------|-------
  1 |          |           |        0 |        0 | i  |  2, 1, 0 |||
  2 |          |           |        0 |        0 | i  |  2, 3, 0 |||
  3 |          |           |  -1.9077 |        0 | i  |  2, 4, 0 |||
  4 |          |           | 0.022401 |        0 | i  |  2, 5, 0 |||
  5 |          |           |   2.4384 |        0 | i  |  2, 6, 0 |||
  6 |          |           | -0.34682 |        0 | i  |  2, 7, 0 |||
  7 |          |           | -0.79373 |        0 | i  |  2, 8, 0 |||
  8 |          |           |  -2.4178 |        0 | i  |  2, 9, 0 |||
  9 |          |           |  -1.3446 |        0 | i  |  2,10, 0 |||
 10 |          |           | -0.71721 |        0 | i  |  2,11, 0 |||
 11 |          |           | -0.48791 |        0 | i  |  2,12, 0 |||
 12 |          |           |        0 |        0 | i  |  2,14, 0 |||
 13 |          |           |  0.55344 |        0 | i  |  2,15, 0 |||
 14 |          |           |  -1.2041 |        0 | i  |  2,16, 0 |||
 15 |          |           |  0.94374 |        0 | i  |  2,17, 0 |||
 16 |          |           |   -2.643 |        0 | i  |  2,18, 0 |||
 17 |          |           |   0.8143 |        0 | i  |  2,19, 0 |||
 18 |          |           |   1.3127 |        0 | i  |  2,20, 0 |||
 19 |          |           |   1.4079 |        0 | i  |  2,22, 0 |||
 20 |          |           |   3.1562 |        0 | i  |  2,23, 0 |||
 21 |          |           |        0 |        0 | i  |  2,24, 0 |||
 22 |          |           |        3 |        0 | i  |  2,26, 0 |||
 23 |          |           |   3.6466 |        0 | i  |  2,27, 0 |||
 24 |          |           | -0.94812 |        0 | i  |  2,28, 0 |||
 25 |          |           |   11.233 |        0 | i  |  2,29, 0 |||
 26 |          |           |  -1.1024 |        0 | i  |  2,30, 0 |||
 27 |          |           |   0.4887 |        0 | i  |  2,31, 0 |||
 28 |          |           |  0.26822 |   1.0378 | h  |  7, 3, 0 |||
 29 |          |           |  0.63609 |  0.72275 | h  |  7, 4, 0 |||
 30 |          |           |  0.73939 |  -0.4422 | h  |  7, 5, 0 |||
 31 |          |           |  0.10381 |   1.2217 | h  |  8, 6, 0 |||
 32 |          |           |  0.25672 |  0.45975 | h  |  8, 7, 0 |||
 33 |          |           |  0.86476 | -0.089195 | h  |  8, 8, 0 |||
 34 |          |           |  0.72331 |  0.42541 | h  |  7,10, 0 |||
 35 |          |           |  0.91439 |   0.9312 | h  |  7,11, 0 |||
 36 |          |           |  0.35558 |  -0.3458 | h  |  7,12, 0 |||
 37 |          |           |  0.63038 | -0.059421 | h  |  7,14, 0 |||
 38 |          |           |  0.99208 |  0.74172 | h  |  7,15, 0 |||
 39 |          |           |  0.59125 |  0.37853 | h  |  7,16, 0 |||
 40 |          |           |  0.75598 |   0.2787 | h  |  7,17, 0 |||
 41 |          |           |  0.30367 |  0.35528 | h  |  7,19, 0 |||
 42 |          |           |  0.28223 | -0.20998 | h  |  7,20, 0 |||
 43 |          |           |  0.88532 |  -0.6405 | h  |  7,22, 0 |||
 44 |          |           | 0.055257 | -0.41299 | h  |  7,23, 0 |||
 45 |          |           |  0.87889 | -0.96789 | h  |  7,24, 0 |||
 46 |          |           |  0.99688 |  -1.3415 | h  |  7,26, 0 |||
 47 |          |           |  0.99999 |  0.17976 | h  |  7,27, 0 |||
 48 |          |           | 0.0037501 |   1.4678 | h  |  7,28, 0 |||
 49 |          |           |  0.99995 |  -0.8555 | h  |  7,29, 0 |||
 50 |          |           |  0.99991 |  0.44137 | h  |  7,30, 0 |||
 51 |          |           |  0.99872 |  0.27611 | h  | 13,12, 0 |||
 52 |          |           |  0.89841 | -0.13768 | h  | 13,13, 0 |||
 53 |          |           |  0.21785 | -0.60176 | h  | 13,14, 0 |||
 54 |          |           |   0.6671 | -0.29493 | h  | 13,15, 0 |||
 55 |          |           |  0.04234 | -0.77508 | h  | 13,16, 0 |||
 56 |          |           |  0.97413 | -0.41102 | h  | 13,17, 0 |||
 57 |          |           |  0.41193 |  -0.7756 | h  | 13,18, 0 |||
 58 |          |           |  0.40037 | -0.54017 | h  | 13,19, 0 |||
 59 |          |           |  0.97952 | -0.28058 | o  | 20,15, 0 |||
----|----------|----------|----------|----------|----|----------|----------|----------|-------


connection definition section :

target | site | source:weight
-------|------|------------------------------------------------------------------------------------------------------------
    28 |      |   1: 0.86832,   2:  1.0138,   3:  1.3426,   4: 0.10269,   5: 0.21225
    29 |      |   1:-0.69248,   2:-0.07375,   3:-0.52449,   4:  -0.661,   5:-0.47166
    30 |      |   1: 0.56324,   2: 0.53657,   3:-0.078029,   4:   1.014,   5: 0.53863
    31 |      |   1: 0.18042,   2:0.061818,   6:  1.0782,   7:-0.44132,   8:  1.3871
    32 |      |   1:-0.70091,   2:-0.72771,   6:-0.080015,   7:-0.016973,   8: 0.64689
    33 |      |   1:-0.17479,   2: 0.43886,   6: 0.58826,   7: -0.3884,   8:-0.76116
    34 |      |   1:-0.76446,   9:-0.80557,  10:  1.2088,  11:-0.65448
    35 |      |   1:-0.40574,   9: -1.1189,  10: 0.39928,  11:-0.44908
    36 |      |   1:0.057283,   9: 0.77058,  10:-0.73794,  11:-0.52895
    37 |      |   1: 0.97932,  12: 0.58734,  13: -1.1947,  14: 0.60311,  15: 0.82665,  16:-0.50795,  17:-0.053907,  18:-0.074713
    38 |      |   1:-0.51629,  12: 0.22281,  13: 0.84302,  14:-0.44431,  15:  1.0042,  16:-0.41453,  17: 0.39007,  18: 0.55307
    39 |      |   1:-0.47532,  12:-0.77641,  13: 0.28049,  14: 0.14144,  15:-0.93519,  16:-0.24059,  17:-0.24678,  18: 0.34534
    40 |      |   1:-0.13932,  12:-0.77441,  13: 0.91223,  14: 0.27105,  15:-0.44653,  16:  0.5056,  17:  1.2886,  18:  1.0528
    41 |      |   1:-0.47168,  19:-0.84179
    42 |      |   1:-0.28629,  19:-0.51386
    43 |      |   1:-0.64734,  20: 0.85046,  21:-0.51735
    44 |      |   1:  0.7554,  20:-0.76861,  21:-0.80976
    45 |      |   1:-0.49968,  20: 0.93459,  21:  0.4392
    46 |      |   1: 0.90885,  22: 0.35514,  23: 0.47381,  24: 0.28631,  25: 0.39142,  26:-0.0022215,  27: 0.38073
    47 |      |   1:-0.02109,  22: 0.13733,  23: 0.39647,  24:-0.076736,  25: 0.82256,  26:-0.053516,  27: -0.1761
    48 |      |   1:  -0.826,  22: -2.1141,  23:-0.058988,  24:  1.6171,  25: 0.15178,  26: 0.84735,  27: 0.55185
    49 |      |   1:-0.0085063,  22:   1.271,  23: 0.65014,  24:0.076063,  25:  0.3493,  26:-0.96395,  27: -0.7843
    50 |      |   1: 0.12336,  22:-0.40356,  23: -1.1877,  24:-0.44001,  25:  1.2905,  26: 0.64069,  27: 0.44747
    51 |      |  28: -1.8072,  29:-0.73913,  30:  1.0571,  31: -1.6799,  32:0.079464,  33:-0.047568,  34:  1.1498,  35:  1.1529, 
                 36:-0.26347,  37:  -0.738,  38: -1.0169,  39: 0.82246,  40:-0.91913,  41:-0.091366,  42:-0.37566,  43:  1.4185, 
                 44:-0.57828,  45:  1.5998,  46:  1.9741,  47:  1.0092,  48: -2.7917,  49:  2.4172,  50:  -1.236
    52 |      |  28: -0.3077,  29:-0.43886,  30: 0.72793,  31:-0.24554,  32: 0.96113,  33: 0.22834,  34: 0.52943,  35:  1.0627, 
                 36: 0.44704,  37: 0.17862,  38:-0.75251,  39:0.083015,  40:-0.65945,  41:  0.8883,  42:-0.33747,  43: 0.30048, 
                 44: 0.92631,  45:-0.12664,  46: 0.37341,  47:-0.17883,  48: 0.83705,  49:  1.1779,  50:-0.46297
    53 |      |  28: 0.87244,  29: 0.91978,  30:-0.70994,  31: 0.81209,  32: 0.68594,  33:-0.59827,  34:0.091609,  35:-0.56127, 
                 36:-0.24517,  37:-0.12823,  38:0.015515,  39:-0.46992,  40:  0.9022,  41: -0.4738,  42: -0.4622,  43: 0.29974, 
                 44: 0.69563,  45:-0.46738,  46:-0.79148,  47: 0.86328,  48:  -0.336,  49:-0.33386,  50: 0.12388
    54 |      |  28: 0.92481,  29:-0.72565,  30: 0.23691,  31: 0.62855,  32:-0.87286,  33: 0.79026,  34:-0.63924,  35: 0.94167, 
                 36: 0.45495,  37:-0.24285,  38: 0.54294,  39: 0.15728,  40:-0.31494,  41:-0.44666,  42: 0.43939,  43: 0.39699, 
                 44:  0.1359,  45:-0.63618,  46: 0.84698,  47: 0.36209,  48: 0.55615,  49: -1.1717,  50: -0.1222
    55 |      |  28:-0.48498,  29:-0.21942,  30: -1.0165,  31: 0.34289,  32: 0.47238,  33:0.097574,  34: 0.52716,  35: -0.1038, 
                 36:  0.3901,  37:-0.76438,  38:-0.65038,  39:  0.4999,  40:-0.83866,  41:-0.42692,  42: 0.15003,  43: 0.60529, 
                 44:-0.052194,  45:-0.22859,  46:-0.28687,  47: 0.45646,  48:-0.36078,  49:-0.55158,  50:-0.38567
    56 |      |  28:-0.39238,  29:  -0.422,  30: 0.47017,  31:-0.0097394,  32:-0.26913,  33: 0.93281,  34: 0.59176,  35:  1.0182, 
                 36:-0.73271,  37:  1.3065,  38:-0.010921,  39: 0.67023,  40: -0.1767,  41:-0.51004,  42:-0.59234,  43:-0.43362, 
                 44: 0.02824,  45: 0.22096,  46:  1.0163,  47: 0.86385,  48:  1.2806,  49:-0.52934,  50: 0.31262
    57 |      |  28: 0.49846,  29: 0.79178,  30:-0.77685,  31:-0.32078,  32: 0.91583,  33:-0.037946,  34:-0.18058,  35:-0.91816, 
                 36: 0.87736,  37:-0.97968,  38: 0.46274,  39:-0.15068,  40: 0.91359,  41:0.013971,  42:-0.22535,  43:-0.87011, 
                 44:-0.092004,  45: 0.87486,  46:  0.9274,  47: 0.70652,  48:-0.54238,  49:-0.17355,  50:-0.98686
    58 |      |  28:0.070323,  29: 0.82534,  30: 0.28182,  31: 0.11821,  32:-0.24958,  33:-0.70233,  34: 0.76978,  35:-0.82058, 
                 36:-0.80607,  37: -1.3727,  38:-0.15442,  39: 0.76299,  40:0.078616,  41: 0.49524,  42: 0.90208,  43:-0.19638, 
                 44: 0.70912,  45: 0.29699,  46: 0.59894,  47:  0.2454,  48: -1.8285,  49:-0.24344,  50:-0.092239
    59 |      |  51:  5.3352,  52: 0.28348,  53:-0.10278,  54:-0.96521,  55: 0.90563,  56:  -1.783,  57: 0.92153,  58:  1.3745
-------|------|----------------------------------------------------------------------------------------------------------------
