SNNS network definition file V1.4-3D
generated at Thu May 09 10:11:49 1996

network name : edge_23
source files :
no. of units : 70
no. of connections : 622
no. of unit types : 0
no. of site types : 0


learning function : Std_Backpropagation
update function : Topological_Order


unit default section :

act      | bias     | st | subnet | layer | act func     | out func
---------|----------|----|--------|-------|--------------|-------------
 0.00000 |  0.00000 | h  |      0 |     1 | Act_Logistic | Out_Identity
---------|----------|----|--------|-------|--------------|-------------


unit definition section :

no. | typeName | unitName | act      | bias     | st | position | act func | out func | sites
----|----------|----------|----------|----------|----|----------|----------|----------|-------
  1 |          |           |        0 |        0 | i  |  2, 1, 0 |||
  2 |          |           |   0.5618 |        0 | i  |  2, 3, 0 |||
  3 |          |           |        0 |        0 | i  |  2, 4, 0 |||
  4 |          |           |      0.2 |        0 | i  |  2, 5, 0 |||
  5 |          |           |  0.11234 |        0 | i  |  2, 7, 0 |||
  6 |          |           |   -0.508 |        0 | i  |  2, 8, 0 |||
  7 |          |           |      0.2 |        0 | i  |  2, 9, 0 |||
  8 |          |           |  0.20836 |        0 | i  |  2,11, 0 |||
  9 |          |           | -0.56069 |        0 | i  |  2,12, 0 |||
 10 |          |           |  0.34109 |        0 | i  |  2,13, 0 |||
 11 |          |           |   1.3354 |        0 | i  |  2,14, 0 |||
 12 |          |           |  -1.2664 |        0 | i  |  2,15, 0 |||
 13 |          |           |   0.3411 |        0 | i  |  2,16, 0 |||
 14 |          |           |   2.0575 |        0 | i  |  2,17, 0 |||
 15 |          |           |  0.64043 |        0 | i  |  2,18, 0 |||
 16 |          |           |  -1.1959 |        0 | i  |  2,23, 0 |||
 17 |          |           |  0.24199 |        0 | i  |  2,24, 0 |||
 18 |          |           |  -1.2161 |        0 | i  |  2,25, 0 |||
 19 |          |           | -0.47826 |        0 | i  |  2,27, 0 |||
 20 |          |           |   1.3354 |        0 | i  |  2,28, 0 |||
 21 |          |           | 0.041332 |        0 | i  |  2,19, 0 |||
 22 |          |           | -0.79862 |        0 | i  |  2,20, 0 |||
 23 |          |           |   1.2027 |        0 | i  |  2,21, 0 |||
 24 |          |           |  0.70702 |  0.84474 | h  |  7, 3, 0 |||
 25 |          |           |  0.42523 |  -0.5861 | h  |  8, 3, 0 |||
 26 |          |           |  0.47521 | 0.098605 | h  |  7, 4, 0 |||
 27 |          |           |  0.25036 | -0.62799 | h  |  8, 4, 0 |||
 28 |          |           |  0.79696 |  0.81375 | h  |  7, 5, 0 |||
 29 |          |           |  0.48371 |  0.08939 | h  |  8, 5, 0 |||
 30 |          |           |  0.46152 | -0.56744 | h  |  7, 7, 0 |||
 31 |          |           |  0.47621 |  0.31074 | h  |  8, 7, 0 |||
 32 |          |           |  0.55613 | -0.52919 | h  |  7, 8, 0 |||
 33 |          |           |   0.3898 | -0.44257 | h  |  8, 8, 0 |||
 34 |          |           |  0.82593 |   1.1637 | h  |  7, 9, 0 |||
 35 |          |           |  0.79843 |   1.2698 | h  |  8, 9, 0 |||
 36 |          |           |  0.69212 | -0.11148 | h  |  7,11, 0 |||
 37 |          |           | 0.066816 | -0.20068 | h  |  8,11, 0 |||
 38 |          |           | 0.061833 | -0.61924 | h  |  7,12, 0 |||
 39 |          |           |  0.78436 |  0.56869 | h  |  8,12, 0 |||
 40 |          |           |  0.97008 | -0.82905 | h  |  7,13, 0 |||
 41 |          |           |  0.12331 |  0.97941 | h  |  8,13, 0 |||
 42 |          |           |  0.90608 |    0.998 | h  |  7,14, 0 |||
 43 |          |           | 0.031024 |  0.45242 | h  |  8,14, 0 |||
 44 |          |           | 0.085744 | -0.37301 | h  |  7,15, 0 |||
 45 |          |           | 0.022438 |  0.37713 | h  |  8,15, 0 |||
 46 |          |           |  0.79594 |  0.64851 | h  |  7,16, 0 |||
 47 |          |           |  0.79168 |  0.93417 | h  |  8,16, 0 |||
 48 |          |           |  0.38721 |  0.69553 | h  |  7,17, 0 |||
 49 |          |           | 0.077947 | -0.85402 | h  |  8,17, 0 |||
 50 |          |           |  0.31783 | -0.38384 | h  |  7,22, 0 |||
 51 |          |           |  0.62548 |  0.50545 | h  |  8,22, 0 |||
 52 |          |           |  0.37333 | -0.30747 | h  |  7,23, 0 |||
 53 |          |           |  0.22536 |  -0.5285 | h  |  8,23, 0 |||
 54 |          |           |  0.63479 |  0.48563 | h  |  7,24, 0 |||
 55 |          |           |  0.30262 | -0.34445 | h  |  8,24, 0 |||
 56 |          |           |  0.64873 |   1.2536 | h  |  7,26, 0 |||
 57 |          |           |  0.56757 | -0.94185 | h  |  8,26, 0 |||
 58 |          |           |  0.47382 | -0.77362 | h  |  7,27, 0 |||
 59 |          |           |  0.16384 | -0.20305 | h  |  8,27, 0 |||
 60 |          |           |  0.66045 |  0.40731 | h  | 13,12, 0 |||
 61 |          |           |  0.85626 |   0.9331 | h  | 14,12, 0 |||
 62 |          |           |  0.98598 |  0.32055 | h  | 13,13, 0 |||
 63 |          |           |  0.87071 |  0.72118 | h  | 14,13, 0 |||
 64 |          |           |  0.95538 |  0.82192 | h  | 13,14, 0 |||
 65 |          |           |  0.64531 | -0.69257 | h  | 14,14, 0 |||
 66 |          |           |  0.15786 | -0.61534 | h  | 13,15, 0 |||
 67 |          |           |  0.72783 |  0.14725 | h  | 14,15, 0 |||
 68 |          |           |   0.2209 |  0.84981 | h  | 13,16, 0 |||
 69 |          |           |  0.91468 |   0.7284 | h  | 14,16, 0 |||
 70 |          |           | 0.082749 |  0.63693 | o  | 18,14, 0 |||
----|----------|----------|----------|----------|----|----------|----------|----------|-------


connection definition section :

target | site | source:weight
-------|------|------------------------------------------------------------------------------------------------------------
    24 |      |   1:  1.0741,   2: 0.21954,   3: -1.3198,   4:-0.43556
    25 |      |   1:   0.554,   2: 0.33778,   3: 0.29114,   4: 0.47504
    26 |      |   1:-0.47333,   2:-0.25031,   3:  1.7147,   4:-0.28614
    27 |      |   1:-0.48728,   2:-0.64621,   3:-0.34252,   4:-0.52839
    28 |      |   1:  0.7738,   2: 0.74747,   3: -1.0882,   4: 0.66858
    29 |      |   1: 0.06501,   2:-0.23127,   3: 0.90658,   4:-0.12329
    30 |      |   1:-0.27575,   5: 0.35886,   6:-0.70011,   7:0.086123
    31 |      |   1:-0.88937,   5:-0.27425,   6: 0.62691,   7:-0.28353
    32 |      |   1:  0.9091,   5: 0.51131,   6: -1.2891,   7: 0.21166
    33 |      |   1: 0.59813,   5: -0.9853,   6:-0.52165,   7:-0.79937
    34 |      |   1: 0.23051,   5:-0.77567,   6:-0.57828,   7:  0.9336
    35 |      |   1:-0.98563,   5:-0.60588,   6:-0.57711,   7:-0.59174
    36 |      |   1: 0.70629,   8: 0.18272,   9: 0.28272,  10: 0.76025,  11:-0.47861,  12: 0.38964,  13:-0.90207,  14: 0.73019, 
                 15: 0.25837,  21:-0.19388,  22:-0.61811,  23:0.057762
    37 |      |   1:-0.066623,   8:-0.52154,   9:0.025389,  10:-0.48284,  11:-0.43835,  12: 0.96838,  13: 0.15561,  14: 0.33217, 
                 15: 0.24345,  21: 0.13372,  22: 0.72291,  23:-0.54652
    38 |      |   1: 0.66136,   8: 0.17152,   9: 0.34334,  10:-0.55889,  11: 0.11602,  12:0.098373,  13:-0.72447,  14:-0.53931, 
                 15: 0.14454,  21: 0.16799,  22:  0.9192,  23: 0.17307
    39 |      |   1:-0.31511,   8:-0.85068,   9: 0.48598,  10: 0.55855,  11: 0.23301,  12:-0.73776,  13: 0.81143,  14: -0.9307, 
                 15:-0.36664,  21:-0.63808,  22: -0.7797,  23: 0.84228
    40 |      |   1:   0.348,   8:0.062597,   9: 0.14174,  10: 0.75333,  11: 0.96644,  12:-0.066448,  13:0.060174,  14: 0.51202, 
                 15: 0.52521,  21:  0.9358,  22:-0.49369,  23: 0.74791
    41 |      |   1: 0.39538,   8:-0.37885,   9: 0.83096,  10:-0.43423,  11:0.036357,  12:-0.39013,  13:-0.49979,  14:-0.50346, 
                 15:-0.82632,  21: 0.27163,  22:-0.30239,  23: -1.0873
    42 |      |   1: 0.59899,   8:-0.91956,   9:  -1.057,  10: 0.48023,  11: 0.58975,  12: 0.38604,  13:-0.77381,  14: 0.17008, 
                 15: 0.31958,  21:-0.43314,  22: -1.1725,  23: -0.6685
    43 |      |   1: 0.48006,   8:-0.64242,   9:-0.67065,  10: 0.21997,  11:-0.71143,  12: 0.63661,  13:  1.0344,  14:-0.92251, 
                 15:-0.99982,  21:  0.4021,  22:-0.075659,  23:-0.28797
    44 |      |   1:-0.046862,   8: -1.0424,   9: -0.5855,  10:-0.42367,  11:-0.96306,  12: 0.77791,  13: 0.19335,  14:-0.64239, 
                 15: 0.62668,  21:-0.25565,  22:-0.02372,  23: 0.96201
    45 |      |   1:-0.19389,   8:-0.64014,   9:-0.64801,  10:0.072411,  11:-0.91044,  12: 0.88557,  13: 0.14361,  14:-0.71601, 
                 15: 0.19339,  21: 0.38086,  22: 0.99618,  23:0.0094767
    46 |      |   1: 0.98663,   8:-0.97639,   9:-0.68795,  10: -0.3122,  11: 0.52748,  12: 0.16473,  13: -0.3498,  14:-0.74254, 
                 15: 0.91485,  21: 0.23478,  22:-0.86592,  23: 0.41658
    47 |      |   1: 0.63939,   8:-0.39865,   9:0.032033,  10: 0.53813,  11:-0.058373,  12: 0.78367,  13: 0.67983,  14: 0.27414, 
                 15:-0.29672,  21: 0.57618,  22: 0.30952,  23: 0.83669
    48 |      |   1:-0.59996,   8: 0.26695,   9: 0.95776,  10: 0.23539,  11:-0.51377,  12: 0.98353,  13:  0.5265,  14:-0.030869, 
                 15:-0.77263,  21:  0.6834,  22:-0.98445,  23: 0.61734
    49 |      |   1:-0.98717,   8:-0.36902,   9:-0.79692,  10: 0.40891,  11:-0.89237,  12: 0.83909,  13: 0.74304,  14:-0.13141, 
                 15: 0.11257,  21:-0.35847,  22:-0.26397,  23:-0.10214
    50 |      |   1: 0.59489,  16:-0.41943,  17:0.062506,  18: 0.73734
    51 |      |   1: 0.85947,  16:-0.42471,  17:-0.61635,  18: 0.28893
    52 |      |   1:-0.89568,  16: 0.24543,  17:-0.68573,  18:-0.20473
    53 |      |   1: -0.6084,  16:  1.2344,  17:-0.43334,  18:-0.71948
    54 |      |   1:-0.37014,  16: 0.76479,  17:-0.13841,  18: -0.8349
    55 |      |   1:  0.6876,  16: 0.67242,  17:-0.71337,  18:-0.39996
    56 |      |   1:-0.58441,  19:-0.19322,  20:-0.54858
    57 |      |   1: 0.49457,  19: 0.47042,  20:  1.0774
    58 |      |   1:  1.0235,  19:-0.070449,  20:  0.4756
    59 |      |   1:-0.91433,  19:  1.3059,  20:-0.60078
    60 |      |  24:-0.63494,  25:-0.34194,  26: 0.45411,  27:-0.034429,  28: 0.13812,  29: 0.98719,  30:-0.48633,  31:  1.0566, 
                 32:-0.77982,  33:-0.77097,  34: 0.48047,  35: 0.95176,  36: -0.5572,  37:-0.85788,  38: -0.2771,  39:-0.099204, 
                 40:-0.99617,  41: 0.85205,  42:-0.40566,  43: 0.66669,  44: 0.40977,  45:-0.65037,  46: 0.63298,  47: 0.37966, 
                 48: 0.40231,  49: 0.35165,  50:  0.4811,  51: 0.32834,  52: 0.39246,  53:-0.77238,  54: -0.8108,  55: 0.83523, 
                 56:-0.22854,  57: 0.39752,  58:-0.42958,  59: 0.92554
    61 |      |  24: 0.12018,  25: 0.81351,  26: 0.73875,  27: 0.36473,  28:  0.2771,  29: 0.68103,  30: 0.64346,  31: 0.45876, 
                 32:-0.91019,  33:-0.48423,  34: 0.29644,  35: 0.80009,  36:0.089307,  37:-0.013468,  38: 0.40362,  39: 0.35319, 
                 40:-0.32951,  41:-0.29671,  42:-0.52641,  43:-0.93315,  44:-0.84223,  45: 0.92988,  46: 0.28689,  47:-0.76549, 
                 48:  1.0791,  49:0.057853,  50:-0.091858,  51: 0.29067,  52:  0.6861,  53:-0.16442,  54:-0.35537,  55:-0.10826, 
                 56:-0.41064,  57:-0.67779,  58:-0.81209,  59: 0.92925
    62 |      |  24:  1.0679,  25: 0.19006,  26: -1.0459,  27:-0.62551,  28:-0.27425,  29: 0.97682,  30: 0.52341,  31: 0.52173, 
                 32: 0.24946,  33:  -0.175,  34:-0.68584,  35:  1.0206,  36: 0.49425,  37: -0.8227,  38: 0.88019,  39: 0.27626, 
                 40: 0.40461,  41:-0.82242,  42: 0.31668,  43:-0.33831,  44: 0.13596,  45:-0.49234,  46:-0.43958,  47: 0.86233, 
                 48:0.015853,  49: 0.29528,  50:-0.51506,  51: 0.48383,  52: 0.38965,  53:-0.71672,  54: 0.22856,  55: 0.30245, 
                 56: 0.73435,  57: 0.17969,  58: 0.78237,  59:-0.66617
    63 |      |  24:  0.5699,  25: 0.69069,  26:-0.93031,  27: -1.3376,  28:-0.53727,  29:-0.66319,  30: 0.57473,  31: -1.0891, 
                 32:-0.47834,  33:-0.83983,  34: 0.99235,  35:-0.36352,  36:  1.1267,  37:-0.77669,  38: 0.10274,  39:-0.66322, 
                 40:-0.24363,  41: 0.35763,  42: 0.85931,  43:-0.88804,  44: 0.86336,  45:-0.084984,  46:  1.0228,  47:-0.64005, 
                 48: -1.1248,  49:-0.067616,  50: 0.87944,  51: 0.73398,  52:-0.58878,  53: -1.1976,  54:-0.31371,  55: 0.59825, 
                 56: 0.99118,  57: 0.10826,  58: 0.90538,  59:  1.5682
    64 |      |  24: 0.37148,  25:-0.78352,  26:-0.73393,  27:-0.89776,  28: 0.99674,  29:-0.18516,  30: -1.0104,  31:-0.52471, 
                 32:-0.62486,  33:-0.57018,  34: 0.24065,  35: 0.83086,  36: 0.98249,  37: 0.29129,  38: 0.73191,  39:-0.073221, 
                 40:-0.26149,  41: 0.95594,  42:  0.1027,  43: 0.55858,  44:  0.7873,  45:  -0.332,  46:-0.90934,  47: 0.89351, 
                 48: 0.53873,  49: 0.92721,  50: 0.82041,  51:-0.052772,  52: 0.85354,  53: 0.80722,  54:-0.20455,  55: 0.24281, 
                 56: 0.98372,  57:0.0040486,  58: 0.31344,  59: 0.96297
    65 |      |  24: 0.89877,  25:-0.86228,  26: -1.6735,  27: 0.33331,  28:  1.2326,  29: -1.3994,  30: 0.85027,  31: -0.6271, 
                 32:  0.9452,  33:-0.73361,  34:  1.0441,  35:  1.0677,  36: 0.77972,  37:-0.058122,  38:-0.19583,  39:-0.90939, 
                 40:-0.095403,  41: 0.25757,  42:  1.0603,  43:  0.1659,  44: 0.38796,  45:-0.23271,  46: 0.40059,  47: -0.1768, 
                 48:-0.069159,  49:-0.55044,  50:-0.047057,  51:-0.31087,  52: 0.34697,  53:-0.56084,  54:-0.98933,  55:-0.39778, 
                 56: 0.07971,  57:-0.76602,  58:-0.39244,  59: 0.31292
    66 |      |  24:-0.58701,  25:  0.8432,  26:-0.59036,  27:0.016811,  28: 0.52883,  29:-0.86928,  30:-0.22256,  31:-0.30125, 
                 32: 0.62447,  33:  0.1296,  34:-0.95455,  35:-0.027404,  36:0.060324,  37: 0.26317,  38:-0.84865,  39: 0.88879, 
                 40:-0.63665,  41: 0.11061,  42: 0.51376,  43: -0.3754,  44:-0.92628,  45:-0.87952,  46: -0.7301,  47:-0.02473, 
                 48: -0.4676,  49: 0.19671,  50:-0.74044,  51: 0.17059,  52: 0.88448,  53: 0.16816,  54: 0.82332,  55:-0.70357, 
                 56:0.020791,  57:-0.72544,  58: 0.35149,  59:-0.45302
    67 |      |  24:-0.63526,  25: 0.18161,  26: -1.1972,  27: 0.16485,  28: 0.50513,  29:-0.048119,  30:-0.54174,  31:-0.55709, 
                 32: 0.30317,  33:-0.79727,  34: 0.14799,  35:-0.45455,  36: 0.82675,  37: 0.52824,  38:-0.86016,  39: 0.90514, 
                 40: 0.76152,  41: 0.34141,  42:-0.36322,  43:0.078859,  44: 0.69589,  45: 0.68858,  46: 0.23891,  47:-0.16423, 
                 48: 0.30962,  49: 0.36291,  50:  0.8605,  51: 0.88817,  52:-0.41432,  53:-0.74449,  54:-0.90691,  55:-0.34017, 
                 56: 0.77036,  57: -1.0273,  58:  1.0329,  59: 0.11549
    68 |      |  24: -1.1453,  25: 0.76767,  26:-0.51108,  27:-0.55303,  28:-0.42872,  29:-0.35416,  30:-0.93031,  31:-0.76983, 
                 32: -0.3744,  33: -1.0348,  34:  0.7996,  35: -1.4126,  36:-0.31461,  37: 0.15592,  38:  1.1991,  39:-0.94035, 
                 40: 0.98958,  41:-0.40248,  42: 0.63754,  43:-0.13147,  44:-0.46843,  45: 0.45789,  46: 0.37147,  47:-0.23169, 
                 48: 0.71923,  49:-0.70597,  50:-0.60698,  51: 0.60122,  52:-0.68673,  53:  0.3535,  54:0.0025585,  55:-0.37105, 
                 56:-0.34149,  57: 0.70295,  58:  0.2652,  59: 0.15001
    69 |      |  24: 0.57352,  25:  0.3457,  26:-0.21653,  27: 0.81056,  28: 0.23025,  29:0.046882,  30:-0.48085,  31:-0.85218, 
                 32:-0.11978,  33:-0.13509,  34: 0.98988,  35: 0.50479,  36:-0.30546,  37:0.082582,  38: 0.93545,  39:-0.73722, 
                 40:-0.24345,  41:-0.26582,  42: 0.96421,  43: 0.14698,  44: 0.14762,  45: 0.82778,  46: 0.49323,  47:-0.50366, 
                 48:-0.18426,  49: -0.8445,  50: 0.34308,  51:-0.92113,  52: 0.38147,  53:-0.34804,  54: 0.91965,  55:-0.056942, 
                 56: 0.99381,  57:-0.31603,  58: -0.2579,  59: 0.20734
    70 |      |  60: 0.35498,  61: 0.79363,  62:-0.47775,  63:  -2.511,  64: 0.81169,  65: -2.7456,  66:0.083162,  67: -1.1118, 
                 68:  2.3415,  69:-0.026279
-------|------|----------------------------------------------------------------------------------------------------------------
