SNNS network definition file V1.4-3D
generated at Thu May 09 10:11:49 1996

network name : edge_23
source files :
no. of units : 70
no. of connections : 622
no. of unit types : 0
no. of site types : 0


learning function : Std_Backpropagation
update function : Topological_Order


unit default section :

act      | bias     | st | subnet | layer | act func     | out func
---------|----------|----|--------|-------|--------------|-------------
 0.00000 |  0.00000 | h  |      0 |     1 | Act_Logistic | Out_Identity
---------|----------|----|--------|-------|--------------|-------------


unit definition section :

no. | typeName | unitName | act      | bias     | st | position | act func | out func | sites
----|----------|----------|----------|----------|----|----------|----------|----------|-------
  1 |          |           |  0.48795 |        0 | i  |  2, 1, 0 |||
  2 |          |           |   10.003 |        0 | i  |  2, 3, 0 |||
  3 |          |           |   13.175 |        0 | i  |  2, 4, 0 |||
  4 |          |           |   4.9316 |        0 | i  |  2, 5, 0 |||
  5 |          |           |   4.6045 |        0 | i  |  2, 7, 0 |||
  6 |          |           |   13.522 |        0 | i  |  2, 8, 0 |||
  7 |          |           |   9.1355 |        0 | i  |  2, 9, 0 |||
  8 |          |           |    10.52 |        0 | i  |  2,11, 0 |||
  9 |          |           | -0.71433 |        0 | i  |  2,12, 0 |||
 10 |          |           |   2.7262 |        0 | i  |  2,13, 0 |||
 11 |          |           | -0.46048 |        0 | i  |  2,14, 0 |||
 12 |          |           |  0.48736 |        0 | i  |  2,15, 0 |||
 13 |          |           |  0.32526 |        0 | i  |  2,16, 0 |||
 14 |          |           | -0.97697 |        0 | i  |  2,17, 0 |||
 15 |          |           |  0.73187 |        0 | i  |  2,18, 0 |||
 16 |          |           |  0.72697 |        0 | i  |  2,23, 0 |||
 17 |          |           |  0.48847 |        0 | i  |  2,24, 0 |||
 18 |          |           | 0.004816 |        0 | i  |  2,25, 0 |||
 19 |          |           |   5.1168 |        0 | i  |  2,27, 0 |||
 20 |          |           |   6.2667 |        0 | i  |  2,28, 0 |||
 21 |          |           |   15.877 |        0 | i  |  2,19, 0 |||
 22 |          |           |  -0.4264 |        0 | i  |  2,20, 0 |||
 23 |          |           |   10.197 |        0 | i  |  2,21, 0 |||
 24 |          |           | 0.0067803 |   1.2861 | h  |  7, 3, 0 |||
 25 |          |           |  0.99999 | -0.69882 | h  |  8, 3, 0 |||
 26 |          |           |        1 | 0.073619 | h  |  7, 4, 0 |||
 27 |          |           | 4.2576e-08 | -0.50576 | h  |  8, 4, 0 |||
 28 |          |           |  0.92477 |   0.2387 | h  |  7, 5, 0 |||
 29 |          |           |  0.99991 | -0.24861 | h  |  8, 5, 0 |||
 30 |          |           | 7.2734e-07 | -0.48962 | h  |  7, 7, 0 |||
 31 |          |           |  0.99999 |  0.24915 | h  |  8, 7, 0 |||
 32 |          |           | 4.5119e-08 |   -0.223 | h  |  7, 8, 0 |||
 33 |          |           | 8.0466e-07 | -0.062256 | h  |  8, 8, 0 |||
 34 |          |           | 0.00019348 |   1.0774 | h  |  7, 9, 0 |||
 35 |          |           | 6.4649e-05 |   1.0866 | h  |  8, 9, 0 |||
 36 |          |           |  0.54252 |  0.15283 | h  |  7,11, 0 |||
 37 |          |           | 1.2867e-05 | -0.29291 | h  |  8,11, 0 |||
 38 |          |           |  0.99999 | -0.49331 | h  |  7,12, 0 |||
 39 |          |           | 9.5099e-05 |  0.69226 | h  |  8,12, 0 |||
 40 |          |           |        1 |  -0.8205 | h  |  7,13, 0 |||
 41 |          |           | 0.00038728 |  0.81653 | h  |  8,13, 0 |||
 42 |          |           | 1.0413e-05 |  0.97368 | h  |  7,14, 0 |||
 43 |          |           |  0.72379 |  0.29786 | h  |  8,14, 0 |||
 44 |          |           |  0.99979 | -0.49041 | h  |  7,15, 0 |||
 45 |          |           | 0.00015004 |   0.5477 | h  |  8,15, 0 |||
 46 |          |           | 0.0016538 |  0.88141 | h  |  7,16, 0 |||
 47 |          |           |        1 |  0.82189 | h  |  8,16, 0 |||
 48 |          |           |        1 |  0.12929 | h  |  7,17, 0 |||
 49 |          |           | 0.00019447 |  -0.8854 | h  |  8,17, 0 |||
 50 |          |           |   0.4398 | -0.46466 | h  |  7,22, 0 |||
 51 |          |           |  0.59149 |  0.51639 | h  |  8,22, 0 |||
 52 |          |           |  0.31313 |   -0.231 | h  |  7,23, 0 |||
 53 |          |           |  0.42048 | -0.33759 | h  |  8,23, 0 |||
 54 |          |           |  0.67598 |  0.51889 | h  |  7,24, 0 |||
 55 |          |           |  0.55171 | -0.44478 | h  |  8,24, 0 |||
 56 |          |           | 0.037317 |  0.83875 | h  |  7,26, 0 |||
 57 |          |           |  0.99891 | -0.82743 | h  |  8,26, 0 |||
 58 |          |           |  0.99338 | -0.46068 | h  |  7,27, 0 |||
 59 |          |           |  0.35038 | -0.23309 | h  |  8,27, 0 |||
 60 |          |           |  0.98993 |  0.47146 | h  | 13,12, 0 |||
 61 |          |           |  0.83912 |  0.93351 | h  | 14,12, 0 |||
 62 |          |           |  0.97832 |  0.24332 | h  | 13,13, 0 |||
 63 |          |           |  0.52064 |  0.79527 | h  | 14,13, 0 |||
 64 |          |           |  0.99111 |  0.82218 | h  | 13,14, 0 |||
 65 |          |           | 0.00075927 | -0.67186 | h  | 14,14, 0 |||
 66 |          |           |  0.01237 |  -0.6031 | h  | 13,15, 0 |||
 67 |          |           |  0.71069 |  0.19536 | h  | 14,15, 0 |||
 68 |          |           |  0.98394 |   1.1048 | h  | 13,16, 0 |||
 69 |          |           |  0.66639 |  0.77849 | h  | 14,16, 0 |||
 70 |          |           |  0.81785 |  0.25781 | o  | 18,14, 0 |||
----|----------|----------|----------|----------|----|----------|----------|----------|-------


connection definition section :

target | site | source:weight
-------|------|------------------------------------------------------------------------------------------------------------
    24 |      |   1:  1.3074,   2:-0.22204,   3:-0.33753,   4:-0.049272
    25 |      |   1: 0.50205,   2:-0.21624,   3:  1.1598,   4:-0.093525
    26 |      |   1:-0.66813,   2:  0.1725,   3:  1.1181,   4:-0.67857
    27 |      |   1:-0.41989,   2:-0.58724,   3:-0.68279,   4:-0.28214
    28 |      |   1: 0.54023,   2:   1.411,   3: -1.2856,   4: 0.97925
    29 |      |   1:-0.041826,   2:0.094858,   3: 0.57745,   4:  0.2111
    30 |      |   1:-0.11032,   5: 0.50412,   6: -1.3802,   7: 0.30123
    31 |      |   1:-0.91203,   5: -0.2319,   6:   0.792,   7: 0.25063
    32 |      |   1:  1.0796,   5:  1.1689,   6:  -1.971,   7: 0.44368
    33 |      |   1: 0.64567,   5:-0.79503,   6:-0.43294,   7:-0.52221
    34 |      |   1: 0.31576,   5:-0.99951,   6:-0.51562,   7: 0.19627
    35 |      |   1:-0.90041,   5:-0.29083,   6:-0.67689,   7:0.021737
    36 |      |   1: 0.80275,   8: 0.68682,   9:-0.20058,  10:  1.5423,  11:0.079465,  12: 0.36712,  13:-0.92865,  14:0.057434, 
                 15: 0.89242,  21: -0.5872,  22:-0.11805,  23:-0.30517
    37 |      |   1:-0.17669,   8:-0.23712,   9:-0.13244,  10:-0.57158,  11:-0.16969,  12: 0.87787,  13: 0.15125,  14:-0.17261, 
                 15: 0.28925,  21:-0.013208,  22:   0.953,  23:-0.71033
    38 |      |   1: 0.71352,   8: 0.11488,   9: 0.54886,  10:-0.23676,  11: -0.2396,  12:-0.0081234,  13:-0.80637,  14:-0.55532, 
                 15:0.011492,  21: 0.55217,  22: 0.83713,  23: 0.29538
    39 |      |   1:-0.23753,   8:-0.28728,   9:  0.2695,  10: 0.74017,  11: 0.38933,  12:-0.87587,  13:  1.2835,  14: -1.0815, 
                 15:-0.19313,  21:-0.87556,  22:-0.74111,  23: 0.41369
    40 |      |   1: 0.37049,   8:0.047675,   9: 0.19648,  10: 0.80733,  11: 0.93436,  12:-0.21685,  13:-0.11335,  14: 0.44073, 
                 15: 0.50424,  21: 0.90649,  22:-0.57283,  23: 0.70572
    41 |      |   1:  0.3723,   8:-0.60165,   9: 0.89312,  10:-0.39864,  11: 0.24923,  12:-0.38745,  13:-0.38692,  14:-0.51684, 
                 15:-0.92064,  21: 0.55676,  22:-0.23378,  23:-0.89647
    42 |      |   1: 0.71268,   8:-0.36043,   9: -1.1702,  10:  1.0985,  11: 0.71481,  12: 0.60007,  13:-0.66722,  14: 0.21836, 
                 15: 0.78811,  21:-0.42943,  22:-0.77625,  23:-0.63309
    43 |      |   1: 0.30767,   8:  -0.927,   9:-0.60787,  10:0.096888,  11: -0.8185,  12: 0.69139,  13:  1.1523,  14: -1.2493, 
                 15: -1.4032,  21: 0.44828,  22: 0.28773,  23: 0.12669
    44 |      |   1:-0.038199,   8:-0.72501,   9:-0.68138,  10:0.0083115,  11:  -1.056,  12:  1.1332,  13: 0.15594,  14:-0.55356, 
                 15:  0.6234,  21: 0.37763,  22: 0.83144,  23: 0.82133
    45 |      |   1: -0.1642,   8:-0.98095,   9:-0.28705,  10:-0.59858,  11: -1.2271,  12: 0.65361,  13: 0.28977,  14:-0.87242, 
                 15:-0.03651,  21:    0.19,  22:  0.5853,  23: -0.2056
    46 |      |   1:  1.1252,   8: -1.0068,   9: -0.6542,  10:-0.36028,  11: 0.25557,  12:  0.1815,  13:-0.010689,  14:-0.66378, 
                 15:   1.067,  21: 0.16707,  22:-0.50932,  23:-0.097419
    47 |      |   1: 0.62932,   8:-0.55009,   9:0.056702,  10:  0.6325,  11:0.016636,  12: 0.75182,  13: 0.55147,  14: 0.60613, 
                 15: -0.3517,  21: 0.52523,  22:  0.2347,  23: 0.91323
    48 |      |   1:-0.90184,   8: 0.50711,   9: 0.90719,  10:  1.3273,  11: 0.04335,  12:  1.0993,  13: 0.71057,  14:0.035389, 
                 15: -1.2078,  21: 0.62882,  22:-0.58644,  23: 0.68201
    49 |      |   1:-0.97367,   8:-0.45181,   9:-0.86356,  10:0.021686,  11:-0.88076,  12: 0.81758,  13:  1.0319,  14: 0.12958, 
                 15: 0.13377,  21:-0.24497,  22:0.034305,  23:-0.030851
    50 |      |   1: 0.60989,  16:-0.33746,  17: 0.34377,  18: 0.52107
    51 |      |   1: 0.91455,  16:-0.29315,  17:-0.78106,  18: 0.43951
    52 |      |   1:-0.80697,  16: 0.19749,  17:-0.61932,  18:-0.37563
    53 |      |   1:-0.62462,  16:   0.753,  17:-0.45511,  18:-0.73061
    54 |      |   1:-0.32631,  16:  0.7635,  17:-0.36113,  18:-0.60915
    55 |      |   1: 0.67706,  16: 0.93835,  17:-0.73337,  18:-0.40157
    56 |      |   1:-0.52399,  19:-0.72513,  20:-0.019626
    57 |      |   1: 0.48117,  19:  0.7051,  20: 0.60748
    58 |      |   1:  1.2426,  19:-0.12639,  20: 0.87953
    59 |      |   1:-0.95881,  19:   0.698,  20:-0.55659
    60 |      |  24: -0.9785,  25:-0.02171,  26: 0.77031,  27:-0.076943,  28:-0.32267,  29:  1.2231,  30:-0.62368,  31:  1.3117, 
                 32: -1.0878,  33:-0.95246,  34: 0.29061,  35: 0.78674,  36:-0.76949,  37:-0.82264,  38:-0.32006,  39:-0.036625, 
                 40:-0.83999,  41: 0.76774,  42:-0.61115,  43: 0.90992,  44: 0.33412,  45:-0.54093,  46: 0.44827,  47: 0.58983, 
                 48: 0.77621,  49: 0.42545,  50: 0.51187,  51: 0.38361,  52: 0.48207,  53:-0.73735,  54:-0.82147,  55:  0.8158, 
                 56:-0.05709,  57: 0.25104,  58:-0.40068,  59: 0.90687
    61 |      |  24:-0.055316,  25: 0.95837,  26: 0.79726,  27: 0.36237,  28: 0.16843,  29: 0.77727,  30: 0.60035,  31: 0.52744, 
                 32: -1.0387,  33:-0.49186,  34: 0.31971,  35:  0.8218,  36:-0.061805,  37:0.090889,  38:  0.3014,  39: 0.37577, 
                 40:-0.29907,  41:-0.31725,  42:-0.53578,  43:-0.88613,  44:-0.93499,  45: 0.83096,  46:0.086168,  47:-0.71726, 
                 48:  1.0908,  49:0.036099,  50:-0.098033,  51: 0.34149,  52: 0.72969,  53:-0.18285,  54:-0.37501,  55:-0.11716, 
                 56:-0.26797,  57:-0.82261,  58:-0.71603,  59: 0.81839
    62 |      |  24:  1.1175,  25: 0.15981,  26: -1.1014,  27:-0.73297,  28:-0.55065,  29: 0.88521,  30: 0.46632,  31: 0.55823, 
                 32: 0.30823,  33:-0.34631,  34:-0.84796,  35: 0.71668,  36: 0.38329,  37: -1.1004,  38: 0.97418,  39: 0.13458, 
                 40: 0.52509,  41: -0.9958,  42:-0.030086,  43: -0.5054,  44:-0.0080406,  45:-0.57111,  46:-0.29565,  47: 0.83844, 
                 48:0.094271,  49: 0.23648,  50:-0.58842,  51: 0.41962,  52: 0.37537,  53:-0.59052,  54:  0.2789,  55: 0.43921, 
                 56: 0.45354,  57: 0.45033,  58: 0.80074,  59: -0.7151
    63 |      |  24: 0.64385,  25: 0.86968,  26:-0.51016,  27: -1.1922,  28: -1.5728,  29:-0.64533,  30: 0.42305,  31:-0.79704, 
                 32:  -0.567,  33:-0.21221,  34:  1.0135,  35:-0.43241,  36: 0.71775,  37: -1.1754,  38: 0.48801,  39:-0.42814, 
                 40:-0.24753,  41: 0.43307,  42: 0.53398,  43:-0.65264,  44: 0.73795,  45: 0.12078,  46:  1.8139,  47:-0.69545, 
                 48:-0.87956,  49: 0.10282,  50: 0.88164,  51: 0.67437,  52:-0.49807,  53:-0.88317,  54:-0.16731,  55: 0.88491, 
                 56: 0.59559,  57: 0.66312,  58: 0.75892,  59:  1.2093
    64 |      |  24: 0.36966,  25:-0.78337,  26:-0.73625,  27:-0.90063,  28: 0.98741,  29:-0.17832,  30:-0.98219,  31:-0.54699, 
                 32:-0.58526,  33:-0.57329,  34: 0.24917,  35: 0.85347,  36: 0.98504,  37: 0.30022,  38: 0.74246,  39:-0.11976, 
                 40:-0.25398,  41: 0.94758,  42: 0.11725,  43: 0.53293,  44: 0.79755,  45:-0.33959,  46:-0.90381,  47: 0.89112, 
                 48:  0.4984,  49: 0.91332,  50: 0.81987,  51:-0.054436,  52: 0.85442,  53:  0.7982,  54:-0.20666,  55: 0.24242, 
                 56: 0.99903,  57:-0.0012881,  58: 0.33667,  59: 0.94336
    65 |      |  24:  1.0382,  25:  -1.349,  26: -1.7576,  27: 0.60084,  28:  1.8205,  29: -1.5369,  30:  1.2406,  31: -0.9958, 
                 32:  1.7775,  33: -0.2742,  34:  1.2197,  35:  1.1206,  36:  1.5481,  37: 0.32299,  38: 0.33585,  39:  -1.203, 
                 40:-0.086784,  41:-0.11063,  42:  1.3676,  43:-0.89073,  44: 0.63002,  45:-0.56267,  46: 0.24441,  47:-0.49584, 
                 48: -1.1261,  49:-0.84161,  50:-0.17023,  51:-0.61454,  52: 0.27601,  53:-0.46122,  54:-0.73043,  55:-0.16554, 
                 56:0.024562,  57:-0.37638,  58:-0.43158,  59:-0.22731
    66 |      |  24:-0.54638,  25: 0.83143,  26:-0.59682,  27:0.035908,  28: 0.53957,  29:-0.87768,  30:-0.22161,  31:-0.30724, 
                 32: 0.64051,  33:  0.1718,  34:-0.92728,  35:0.0014694,  36:0.069204,  37: 0.26123,  38:-0.82628,  39: 0.91743, 
                 40:-0.63771,  41: 0.14001,  42: 0.53011,  43:-0.36077,  44:-0.93449,  45:-0.87327,  46:-0.70659,  47:-0.034076, 
                 48:-0.46272,  49: 0.18425,  50:-0.73756,  51: 0.18588,  52: 0.88361,  53:   0.185,  54: 0.83954,  55:-0.68257, 
                 56: 0.02796,  57:-0.72418,  58: 0.35314,  59:-0.46066
    67 |      |  24:-0.85763,  25: 0.31492,  26: -0.9729,  27:  0.2668,  28: 0.31967,  29:0.063317,  30:-0.65252,  31:-0.41301, 
                 32: 0.20752,  33:-0.73713,  34:-0.008164,  35:-0.68195,  36: 0.83468,  37: 0.63197,  38:-0.62355,  39: 0.95189, 
                 40: 0.82883,  41: 0.27154,  42:-0.48268,  43:0.012444,  44: 0.58783,  45: 0.60122,  46:-0.026628,  47:-0.18378, 
                 48: 0.38115,  49: 0.24675,  50: 0.83489,  51: 0.82553,  52:-0.40157,  53:-0.60606,  54:-0.79376,  55:-0.20593, 
                 56:  0.7025,  57:-0.86798,  58:  1.0327,  59:-0.11691
    68 |      |  24: -1.0953,  25: 0.95646,  26:-0.11374,  27:-0.39878,  28:-0.99529,  29:-0.072229,  30:-0.94816,  31:-0.39476, 
                 32:-0.62148,  33:-0.73726,  34: 0.66035,  35:-0.92067,  36:-0.49338,  37: 0.18948,  38:  1.1097,  39:-0.45612, 
                 40: 0.82625,  41:-0.10837,  42: 0.63723,  43: 0.54686,  44:-0.59794,  45: 0.86439,  46: 0.36161,  47:0.027096, 
                 48:  1.2161,  49: -0.5855,  50:-0.45737,  51:  1.0249,  52:-0.46753,  53: 0.50592,  54:0.087783,  55: -0.2577, 
                 56: 0.20779,  57: 0.12829,  58: 0.22933,  59: 0.28653
    69 |      |  24: 0.59249,  25: 0.39552,  26: -0.1643,  27: 0.80878,  28:  0.2196,  29:0.086999,  30:-0.48397,  31:-0.80267, 
                 32:-0.12346,  33:-0.12311,  34:  0.9978,  35: 0.50796,  36:-0.28862,  37: 0.10091,  38:   0.967,  39: -0.7197, 
                 40:-0.20954,  41:-0.25202,  42: 0.97967,  43: 0.18454,  44: 0.17811,  45: 0.86742,  46: 0.54358,  47:-0.45479, 
                 48:-0.14329,  49:-0.82183,  50: 0.36657,  51:-0.87903,  52: 0.40217,  53:-0.32724,  54: 0.95023,  55:-0.023222, 
                 56:  1.0033,  57:-0.27501,  58:-0.23057,  59: 0.23567
    70 |      |  60:  1.1003,  61: 0.62202,  62: -1.0827,  63: -2.4064,  64: 0.43574,  65:  -3.766,  66:0.048941,  67: 0.41188, 
                 68:  1.3014,  69:-0.086819
-------|------|----------------------------------------------------------------------------------------------------------------
