SNNS network definition file V1.4-3D
generated at Thu May 09 10:11:49 1996

network name : edge_23
source files :
no. of units : 70
no. of connections : 622
no. of unit types : 0
no. of site types : 0


learning function : Std_Backpropagation
update function : Topological_Order


unit default section :

act      | bias     | st | subnet | layer | act func     | out func
---------|----------|----|--------|-------|--------------|-------------
 0.00000 |  0.00000 | h  |      0 |     1 | Act_Logistic | Out_Identity
---------|----------|----|--------|-------|--------------|-------------


unit definition section :

no. | typeName | unitName | act      | bias     | st | position | act func | out func | sites
----|----------|----------|----------|----------|----|----------|----------|----------|-------
  1 |          |           |   1.3744 |        0 | i  |  2, 1, 0 |||
  2 |          |           |   4.2502 |        0 | i  |  2, 3, 0 |||
  3 |          |           |   35.006 |        0 | i  |  2, 4, 0 |||
  4 |          |           |   18.975 |        0 | i  |  2, 5, 0 |||
  5 |          |           |   3.6515 |        0 | i  |  2, 7, 0 |||
  6 |          |           |   7.6803 |        0 | i  |  2, 8, 0 |||
  7 |          |           |    10.66 |        0 | i  |  2, 9, 0 |||
  8 |          |           |   25.067 |        0 | i  |  2,11, 0 |||
  9 |          |           | -0.51309 |        0 | i  |  2,12, 0 |||
 10 |          |           |   2.6675 |        0 | i  |  2,13, 0 |||
 11 |          |           |   2.0586 |        0 | i  |  2,14, 0 |||
 12 |          |           |  -4.5865 |        0 | i  |  2,15, 0 |||
 13 |          |           |   5.6693 |        0 | i  |  2,16, 0 |||
 14 |          |           |  0.49276 |        0 | i  |  2,17, 0 |||
 15 |          |           | -0.65301 |        0 | i  |  2,18, 0 |||
 16 |          |           |   2.3009 |        0 | i  |  2,23, 0 |||
 17 |          |           |   -5.067 |        0 | i  |  2,24, 0 |||
 18 |          |           |  0.19015 |        0 | i  |  2,25, 0 |||
 19 |          |           |   6.1279 |        0 | i  |  2,27, 0 |||
 20 |          |           |  0.11636 |        0 | i  |  2,28, 0 |||
 21 |          |           |   7.4051 |        0 | i  |  2,19, 0 |||
 22 |          |           |   9.0289 |        0 | i  |  2,20, 0 |||
 23 |          |           |   6.3462 |        0 | i  |  2,21, 0 |||
 24 |          |           | 2.623e-11 | -0.90637 | h  |  7, 3, 0 |||
 25 |          |           | 3.6636e-15 |  0.76407 | h  |  8, 3, 0 |||
 26 |          |           | 0.0022727 |  0.66857 | h  |  7, 4, 0 |||
 27 |          |           | 0.0043294 | -0.39458 | h  |  8, 4, 0 |||
 28 |          |           | 1.5121e-24 | -0.19622 | h  |  7, 5, 0 |||
 29 |          |           |        1 | -0.26817 | h  |  8, 5, 0 |||
 30 |          |           |  0.99637 |  0.42403 | h  |  7, 7, 0 |||
 31 |          |           | 0.00017337 | 0.087816 | h  |  8, 7, 0 |||
 32 |          |           |  0.91804 | -0.19864 | h  |  7, 8, 0 |||
 33 |          |           |  0.85181 | -0.32436 | h  |  8, 8, 0 |||
 34 |          |           | 3.4872e-06 | -0.021579 | h  |  7, 9, 0 |||
 35 |          |           | 0.00018989 |  -0.3917 | h  |  8, 9, 0 |||
 36 |          |           |        1 |  0.64771 | h  |  7,11, 0 |||
 37 |          |           | 1.1669e-06 |  0.79793 | h  |  8,11, 0 |||
 38 |          |           | 1.7352e-09 |  0.83505 | h  |  7,12, 0 |||
 39 |          |           | 9.972e-18 |  0.85445 | h  |  8,12, 0 |||
 40 |          |           |        1 |   0.1902 | h  |  7,13, 0 |||
 41 |          |           |  0.89815 | -0.67147 | h  |  8,13, 0 |||
 42 |          |           |        1 |  0.42537 | h  |  7,14, 0 |||
 43 |          |           | 1.2776e-09 |  0.30646 | h  |  8,14, 0 |||
 44 |          |           |        1 | 0.075871 | h  |  7,15, 0 |||
 45 |          |           |        1 | -0.043823 | h  |  8,15, 0 |||
 46 |          |           |  0.99898 |   0.6919 | h  |  7,16, 0 |||
 47 |          |           |        1 | -0.82801 | h  |  8,16, 0 |||
 48 |          |           | 1.1716e-07 | -0.45195 | h  |  7,17, 0 |||
 49 |          |           |        1 |  0.50721 | h  |  8,17, 0 |||
 50 |          |           |  0.88487 |  0.31335 | h  |  7,22, 0 |||
 51 |          |           | 0.035904 | -0.41862 | h  |  8,22, 0 |||
 52 |          |           |  0.13278 |  0.33047 | h  |  7,23, 0 |||
 53 |          |           | 0.034293 | -0.61452 | h  |  8,23, 0 |||
 54 |          |           |  0.97227 | -0.83362 | h  |  7,24, 0 |||
 55 |          |           | 0.0081481 | -0.43662 | h  |  8,24, 0 |||
 56 |          |           |  0.24904 |  0.73479 | h  |  7,26, 0 |||
 57 |          |           |  0.42011 |  0.57093 | h  |  8,26, 0 |||
 58 |          |           | 0.088145 | -0.28897 | h  |  7,27, 0 |||
 59 |          |           |  0.98206 | 0.076819 | h  |  8,27, 0 |||
 60 |          |           |  0.18461 |   0.2849 | h  | 13,12, 0 |||
 61 |          |           |  0.12858 |  0.83506 | h  | 14,12, 0 |||
 62 |          |           |  0.98911 | 0.068695 | h  | 13,13, 0 |||
 63 |          |           | 0.075079 | -0.40651 | h  | 14,13, 0 |||
 64 |          |           |  0.76619 |  0.83676 | h  | 13,14, 0 |||
 65 |          |           |  0.82456 |  0.71087 | h  | 14,14, 0 |||
 66 |          |           | 0.0011871 |   0.1545 | h  | 13,15, 0 |||
 67 |          |           |  0.99845 |  0.38355 | h  | 14,15, 0 |||
 68 |          |           |  0.42151 | -0.63718 | h  | 13,16, 0 |||
 69 |          |           | 0.055642 | -0.087136 | h  | 14,16, 0 |||
 70 |          |           |  0.99616 |  0.57882 | o  | 18,14, 0 |||
----|----------|----------|----------|----------|----|----------|----------|----------|-------


connection definition section :

target | site | source:weight
-------|------|------------------------------------------------------------------------------------------------------------
    24 |      |   1: 0.18935,   2:-0.56078,   3:-0.32433,   4:-0.52602
    25 |      |   1: 0.41949,   2: 0.61008,   3: -1.2905,   4: 0.42165
    26 |      |   1:  2.6813,   2: -1.0293,   3:-0.21588,   4:0.078723
    27 |      |   1:-0.023835,   2: -0.8039,   3:0.078494,   4:-0.22881
    28 |      |   1: 0.68503,   2: 0.35884,   3:-0.94102,   4: -1.2742
    29 |      |   1:-0.73123,   2: -0.1697,   3: 0.58178,   4:  0.6254
    30 |      |   1:  -0.183,   5: 0.31208,   6:0.084256,   7: 0.34291
    31 |      |   1: 0.42563,   5:-0.052802,   6:-0.021066,   7:-0.84222
    32 |      |   1:-0.79078,   5: -1.0678,   6: 0.12202,   7: 0.62508
    33 |      |   1: 0.23101,   5:-0.90682,   6:  1.2865,   7:-0.45159
    34 |      |   1: 0.86807,   5:-0.30857,   6: -0.6264,   7:-0.73173
    35 |      |   1: 0.39572,   5:  -0.401,   6: -0.9221,   7:-0.016394
    36 |      |   1:0.014807,   8: 0.79031,   9: 0.87789,  10:  -1.112,  11: 0.25237,  12:  0.4092,  13:  1.1886,  14:-0.90219, 
                 15:-0.55209,  21: 0.54292,  22: 0.39046,  23:-0.10859
    37 |      |   1:-0.78308,   8: -0.7759,   9:-0.32885,  10: 0.55688,  11:-0.32013,  12: -0.7387,  13: -0.7041,  14: 0.49136, 
                 15: -0.6677,  21:-0.22897,  22:  1.0522,  23:-0.44252
    38 |      |   1: 0.43911,   8:-0.56554,   9: 0.68052,  10:-0.44863,  11: 0.83988,  12:0.023244,  13:-0.96268,  14: 0.30907, 
                 15: 0.13989,  21: 0.38992,  22:-0.41613,  23:-0.19611
    39 |      |   1:-0.22144,   8:  -1.566,   9:0.085563,  10: 0.46299,  11: 0.37726,  12: 0.03031,  13: 0.60743,  14:-0.11146, 
                 15:-0.72467,  21:-0.73093,  22:-0.38781,  23: 0.43822
    40 |      |   1:-0.21365,   8:  1.2447,   9:  0.5178,  10: 0.29508,  11: 0.84122,  12: 0.31973,  13:-0.34245,  14: 0.35839, 
                 15: 0.22712,  21:-0.76496,  22:-0.41633,  23: 0.12254
    41 |      |   1: 0.41582,   8:0.076864,   9:  1.2808,  10:-0.89354,  11:-0.98741,  12:-0.46868,  13:-0.19483,  14: 0.97375, 
                 15: 0.42989,  21: 0.92897,  22: -1.0419,  23:   1.057
    42 |      |   1: 0.24339,   8:  1.0202,   9: 0.29952,  10:-0.71927,  11:  0.5851,  12:-0.63423,  13:-0.80033,  14: 0.30115, 
                 15:  0.6771,  21:  1.0757,  22:-0.66986,  23:-0.64432
    43 |      |   1: 0.55969,   8: -1.1809,   9:  0.7678,  10:0.002006,  11: 0.90369,  12:-0.18718,  13: 0.29946,  14: 0.81967, 
                 15: 0.54711,  21: 0.78742,  22:-0.57576,  23: 0.52642
    44 |      |   1:-0.63981,   8: 0.55712,   9: 0.71266,  10: 0.93231,  11: 0.75646,  12:0.010119,  13:  1.0653,  14: 0.23123, 
                 15: 0.63937,  21: 0.68806,  22: 0.36919,  23: 0.68983
    45 |      |   1: -0.1978,   8: 0.50576,   9:  0.2824,  10: 0.13324,  11:0.012038,  12:  0.2244,  13: 0.73224,  14:-0.26172, 
                 15:  1.0142,  21: 0.46558,  22:-0.55755,  23: 0.32101
    46 |      |   1: 0.74964,   8:  0.2483,   9:  0.5967,  10: 0.28142,  11:-0.37215,  12:  1.0169,  13:-0.33601,  14:-0.48517, 
                 15:  0.9507,  21:-0.43138,  22: 0.47496,  23: 0.88204
    47 |      |   1:-0.015323,   8: 0.75289,   9: 0.20365,  10:-0.25491,  11:-0.70907,  12:-0.81595,  13:-0.86726,  14:-0.75244, 
                 15: 0.17915,  21: 0.35195,  22: 0.20134,  23:-0.20832
    48 |      |   1:-0.16539,   8:-0.60735,   9:-0.66608,  10:-0.85937,  11: 0.98878,  12: -0.9624,  13:   0.424,  14:0.027841, 
                 15: 0.31488,  21:-0.59788,  22: 0.36425,  23: -0.8869
    49 |      |   1: 0.28118,   8:0.060479,   9:-0.86211,  10:-0.072944,  11:-0.53031,  12:-0.058896,  13: 0.14333,  14: 0.40039, 
                 15: 0.61828,  21: 0.38245,  22: 0.50485,  23:  0.8313
    50 |      |   1: 0.04954,  16: 0.31882,  17:-0.21915,  18:-0.97855
    51 |      |   1: 0.71701,  16: 0.17696,  17: 0.86023,  18: 0.49651
    52 |      |   1: 0.93368,  16: 0.20319,  17: 0.79452,  18: 0.35745
    53 |      |   1:0.0035379,  16: 0.62206,  17: 0.79608,  18:-0.66193
    54 |      |   1:  1.0187,  16: 0.38544,  17:-0.41343,  18:0.046641
    55 |      |   1:-0.67158,  16:-0.28342,  17: 0.58477,  18: 0.90982
    56 |      |   1: 0.21555,  19:-0.35992,  20: 0.60849
    57 |      |   1:-0.024813,  19:-0.13022,  20:-0.52558
    58 |      |   1:-0.19152,  19:-0.30776,  20: 0.87332
    59 |      |   1: 0.72657,  19: 0.50181,  20: -1.2731
    60 |      |  24:-0.54706,  25: 0.61633,  26: 0.52123,  27:-0.15952,  28: -1.1454,  29: 0.33962,  30:-0.81444,  31:-0.17894, 
                 32:-0.92333,  33:-0.69347,  34: 0.12111,  35:-0.26273,  36: 0.74225,  37:-0.17353,  38:  0.1797,  39:-0.073147, 
                 40: 0.75751,  41:-0.11782,  42: -0.6416,  43:-0.16358,  44: 0.98382,  45: 0.61622,  46:-0.70099,  47:-0.69531, 
                 48:-0.82046,  49:-0.69094,  50: 0.15578,  51: 0.99099,  52: 0.72177,  53: 0.27962,  54: 0.17108,  55:-0.84804, 
                 56: -0.2012,  57:-0.75738,  58:-0.00095811,  59:-0.19984
    61 |      |  24: 0.11661,  25:  1.3427,  26:  2.1357,  27: 0.68113,  28:-0.12733,  29:   1.026,  30: 0.13107,  31: 0.84494, 
                 32:-0.068659,  33: -1.0726,  34: 0.58468,  35:-0.80809,  36:-0.79039,  37:-0.69974,  38:  1.0593,  39:  1.1842, 
                 40:-0.85527,  41:-0.21396,  42:-0.50965,  43:-0.31159,  44: 0.37577,  45:-0.92976,  46: 0.59086,  47: -0.3866, 
                 48:  0.4995,  49:-0.79394,  50: 0.40031,  51: 0.40196,  52:  0.2131,  53: -0.5314,  54:-0.44265,  55:-0.76414, 
                 56:  0.5626,  57:  1.1389,  58: 0.28543,  59:-0.030953
    62 |      |  24:0.055553,  25:  -1.863,  26:-0.54601,  27: 0.19512,  28: 0.57121,  29: 0.35591,  30: 0.83275,  31:  1.0065, 
                 32: 0.35423,  33:  1.2271,  34:-0.72598,  35: 0.43571,  36:  1.1079,  37:-0.22966,  38:  0.1293,  39:  1.3362, 
                 40:-0.64217,  41:  1.4107,  42: -0.4955,  43:-0.49995,  44:-0.16841,  45: -0.9821,  46: 0.54107,  47: 0.34533, 
                 48:-0.82967,  49: 0.42954,  50:-0.14035,  51:-0.11733,  52: 0.49096,  53:-0.05731,  54:-0.22976,  55:-0.51647, 
                 56: 0.66637,  57: 0.63649,  58: 0.50616,  59: 0.30249
    63 |      |  24:0.046796,  25: 0.05852,  26: 0.79655,  27:-0.41678,  28:-0.035093,  29:0.093599,  30:-0.64705,  31:  0.2432, 
                 32:-0.99742,  33: -1.0098,  34: 0.51695,  35: 0.59236,  36:0.046898,  37: 0.92886,  38:-0.47681,  39: 0.24796, 
                 40: 0.46853,  41: 0.51682,  42:-0.94947,  43:  0.1633,  44: -0.7481,  45:-0.23455,  46:-0.45444,  47: 0.48563, 
                 48: 0.27681,  49:-0.20708,  50:-0.094175,  51:-0.019497,  52:-0.72934,  53:-0.95262,  54: 0.62838,  55: 0.24526, 
                 56:-0.14341,  57: 0.41278,  58:  0.8056,  59: 0.75553
    64 |      |  24:-0.85852,  25: -0.6661,  26: -1.7281,  27:-0.99283,  28:-0.70267,  29: -0.7565,  30: 0.30386,  31:-0.79867, 
                 32:   -0.15,  33:-0.61222,  34: 0.58109,  35:-0.90305,  36:-0.28269,  37:-0.23658,  38:-0.73167,  39:-0.086735, 
                 40: 0.51904,  41: 0.84951,  42:-0.59407,  43:-0.96472,  44:0.014554,  45: 0.42667,  46:-0.47185,  47:0.080464, 
                 48:-0.24559,  49: 0.57387,  50: 0.67813,  51: -0.5578,  52: 0.37243,  53: 0.41405,  54:-0.061324,  55: 0.62559, 
                 56:-0.65477,  57: 0.48602,  58: 0.77726,  59:-0.26128
    65 |      |  24:-0.015725,  25:-0.16724,  26: -1.2826,  27:0.0068103,  28:0.0095267,  29: -0.4597,  30: 0.74175,  31: 0.67426, 
                 32: 0.43498,  33:-0.12481,  34:0.051184,  35: 0.14346,  36: 0.63739,  37: 0.26245,  38: -1.0557,  39:-0.39108, 
                 40: 0.75152,  41: 0.24944,  42: 0.38641,  43:0.089024,  44:-0.15686,  45: 0.95021,  46:-0.16919,  47:-0.45091, 
                 48:-0.39234,  49:-0.76239,  50: -0.4146,  51:-0.50763,  52: -0.9828,  53: 0.20444,  54:-0.62969,  55:-0.026386, 
                 56:-0.38455,  57: -0.2825,  58:-0.65093,  59: 0.25404
    66 |      |  24: 0.73908,  25:  1.3398,  26: 0.41438,  27:-0.60585,  28:-0.51655,  29: -1.2125,  30: 0.46342,  31: 0.50937, 
                 32: -1.0422,  33: -1.2378,  34: 0.26345,  35: 0.40981,  36: -1.5486,  37:-0.57632,  38:-0.66637,  39: -1.3404, 
                 40: 0.40291,  41: -1.3417,  42: 0.32517,  43: 0.70078,  44:-0.086644,  45: 0.33116,  46: 0.71434,  47:-0.83585, 
                 48:  1.1639,  49:-0.19565,  50: -0.2546,  51:-0.36235,  52:-0.0083288,  53:-0.23543,  54:-0.98143,  55:-0.12846, 
                 56: 0.33322,  57: 0.28102,  58:  0.1477,  59: -1.0575
    67 |      |  24: 0.26414,  25: 0.73238,  26: 0.92013,  27: 0.69684,  28: 0.18636,  29: 0.44357,  30: 0.79181,  31:  0.9912, 
                 32: 0.62288,  33: 0.81017,  34: 0.55863,  35:-0.95581,  36: -0.2243,  37: 0.46131,  38: 0.11109,  39:-0.83907, 
                 40: 0.48696,  41: 0.63145,  42:  0.9556,  43:-0.56706,  44:-0.28147,  45:-0.29575,  46: 0.56457,  47: 0.15188, 
                 48:0.021774,  49:-0.52876,  50:-0.11326,  51:-0.56711,  52: 0.91515,  53:-0.054593,  54:  1.0369,  55: 0.15347, 
                 56: -0.2775,  57: 0.96198,  58:-0.11988,  59: 0.87002
    68 |      |  24:-0.48181,  25: 0.93183,  26: 0.19889,  27:-0.67154,  28: 0.33762,  29: 0.12604,  30:0.094428,  31:-0.16114, 
                 32:-0.85328,  33: 0.23614,  34: -0.7044,  35:  0.6912,  36: 0.13365,  37:-0.36434,  38: -0.6944,  39: 0.75604, 
                 40:-0.77504,  41: 0.48028,  42:-0.15317,  43:-0.26556,  44:-0.52908,  45:  0.3359,  46:-0.43293,  47: 0.17712, 
                 48: 0.25443,  49: 0.81198,  50: 0.96813,  51:  0.1573,  52:-0.48991,  53: 0.83489,  54:-0.48712,  55:-0.036162, 
                 56: 0.65665,  57: 0.35632,  58: 0.36829,  59:-0.013122
    69 |      |  24:-0.70365,  25: 0.82387,  26:-0.55841,  27: 0.50329,  28:-0.87548,  29:  1.0246,  30:-0.39374,  31:-0.18333, 
                 32:-0.69967,  33:-0.62267,  34:-0.0016271,  35: 0.76107,  36:0.077005,  37: 0.58481,  38:-0.96068,  39:-0.68856, 
                 40: -0.9431,  41: 0.22631,  42: 0.51627,  43: 0.65503,  44: 0.11459,  45:-0.37441,  46:-0.94296,  47:-0.19971, 
                 48:0.062886,  49:0.064323,  50:-0.59363,  51:-0.67003,  52:-0.66478,  53: 0.37809,  54:-0.39408,  55:-0.40211, 
                 56: 0.17238,  57:-0.037836,  58:-0.94338,  59: 0.35228
    70 |      |  60:-0.62867,  61: -2.6659,  62:  2.7124,  63: 0.42948,  64:  1.8455,  65:  1.2968,  66: -2.3814,  67: 0.40099, 
                 68:-0.30284,  69:-0.52007
-------|------|----------------------------------------------------------------------------------------------------------------
