SNNS network definition file V1.4-3D
generated at Thu May 09 10:11:49 1996

network name : edge_23
source files :
no. of units : 70
no. of connections : 622
no. of unit types : 0
no. of site types : 0


learning function : Std_Backpropagation
update function : Topological_Order


unit default section :

act      | bias     | st | subnet | layer | act func     | out func
---------|----------|----|--------|-------|--------------|-------------
 0.00000 |  0.00000 | h  |      0 |     1 | Act_Logistic | Out_Identity
---------|----------|----|--------|-------|--------------|-------------


unit definition section :

no. | typeName | unitName | act      | bias     | st | position | act func | out func | sites
----|----------|----------|----------|----------|----|----------|----------|----------|-------
  1 |          |           |        0 |        0 | i  |  2, 1, 0 |||
  2 |          |           |  -1.1609 |        0 | i  |  2, 3, 0 |||
  3 |          |           | -0.48796 |        0 | i  |  2, 4, 0 |||
  4 |          |           |  0.39904 |        0 | i  |  2, 5, 0 |||
  5 |          |           | -0.30558 |        0 | i  |  2, 7, 0 |||
  6 |          |           | -0.28866 |        0 | i  |  2, 8, 0 |||
  7 |          |           |  0.54772 |        0 | i  |  2, 9, 0 |||
  8 |          |           |  0.80577 |        0 | i  |  2,11, 0 |||
  9 |          |           | -0.45579 |        0 | i  |  2,12, 0 |||
 10 |          |           |   1.1828 |        0 | i  |  2,13, 0 |||
 11 |          |           |  0.42215 |        0 | i  |  2,14, 0 |||
 12 |          |           | -0.83297 |        0 | i  |  2,15, 0 |||
 13 |          |           | -0.17275 |        0 | i  |  2,16, 0 |||
 14 |          |           |    2.315 |        0 | i  |  2,17, 0 |||
 15 |          |           |  0.68437 |        0 | i  |  2,18, 0 |||
 16 |          |           | -0.51885 |        0 | i  |  2,23, 0 |||
 17 |          |           |  0.90733 |        0 | i  |  2,24, 0 |||
 18 |          |           | -0.39624 |        0 | i  |  2,25, 0 |||
 19 |          |           |  -0.4575 |        0 | i  |  2,27, 0 |||
 20 |          |           | -0.40769 |        0 | i  |  2,28, 0 |||
 21 |          |           | -0.31516 |        0 | i  |  2,19, 0 |||
 22 |          |           | -0.28868 |        0 | i  |  2,20, 0 |||
 23 |          |           | -0.31236 |        0 | i  |  2,21, 0 |||
 24 |          |           |   0.4831 | -0.33114 | h  |  7, 3, 0 |||
 25 |          |           |  0.79275 |   1.6846 | h  |  8, 3, 0 |||
 26 |          |           |  0.73803 | -0.26311 | h  |  7, 4, 0 |||
 27 |          |           |  0.39403 |  -0.5523 | h  |  8, 4, 0 |||
 28 |          |           |  0.33834 |  -0.2137 | h  |  7, 5, 0 |||
 29 |          |           |  0.38819 | -0.65586 | h  |  8, 5, 0 |||
 30 |          |           |   0.6487 |  0.41919 | h  |  7, 7, 0 |||
 31 |          |           |  0.55143 |  0.39909 | h  |  8, 7, 0 |||
 32 |          |           |  0.50718 | -0.44765 | h  |  7, 8, 0 |||
 33 |          |           |  0.20613 | -0.99806 | h  |  8, 8, 0 |||
 34 |          |           |  0.68388 |   0.7343 | h  |  7, 9, 0 |||
 35 |          |           |  0.57904 | -0.18732 | h  |  8, 9, 0 |||
 36 |          |           | 0.018178 |  0.42924 | h  |  7,11, 0 |||
 37 |          |           |  0.90917 |  0.77378 | h  |  8,11, 0 |||
 38 |          |           |  0.71042 |   1.0284 | h  |  7,12, 0 |||
 39 |          |           |   0.3435 |  0.93761 | h  |  8,12, 0 |||
 40 |          |           |  0.98522 |   0.2138 | h  |  7,13, 0 |||
 41 |          |           | 0.043458 | -0.92882 | h  |  8,13, 0 |||
 42 |          |           |  0.95569 |  0.46953 | h  |  7,14, 0 |||
 43 |          |           |  0.80326 |  0.10972 | h  |  8,14, 0 |||
 44 |          |           |  0.91546 |   0.4055 | h  |  7,15, 0 |||
 45 |          |           |  0.96506 |  0.50338 | h  |  8,15, 0 |||
 46 |          |           |  0.26004 |  0.67973 | h  |  7,16, 0 |||
 47 |          |           | 0.076867 | -0.85081 | h  |  8,16, 0 |||
 48 |          |           |  0.89852 | -0.56617 | h  |  7,17, 0 |||
 49 |          |           |  0.73671 |  0.54428 | h  |  8,17, 0 |||
 50 |          |           |  0.56621 |  0.37367 | h  |  7,22, 0 |||
 51 |          |           |  0.50182 | -0.45345 | h  |  8,22, 0 |||
 52 |          |           |   0.6615 |  0.47678 | h  |  7,23, 0 |||
 53 |          |           |  0.53874 | -0.69161 | h  |  8,23, 0 |||
 54 |          |           |  0.22316 | -0.84805 | h  |  7,24, 0 |||
 55 |          |           |  0.48517 | -0.51947 | h  |  8,24, 0 |||
 56 |          |           |  0.65078 |   0.8762 | h  |  7,26, 0 |||
 57 |          |           |  0.68039 |    0.572 | h  |  8,26, 0 |||
 58 |          |           |  0.42877 | -0.30857 | h  |  7,27, 0 |||
 59 |          |           |  0.65447 | 0.090507 | h  |  8,27, 0 |||
 60 |          |           |  0.45599 |  0.37099 | h  | 13,12, 0 |||
 61 |          |           |  0.97601 |   1.0282 | h  | 14,12, 0 |||
 62 |          |           | 0.078895 | -0.088234 | h  | 13,13, 0 |||
 63 |          |           | 0.097246 | -0.53153 | h  | 14,13, 0 |||
 64 |          |           |  0.23168 |  0.87361 | h  | 13,14, 0 |||
 65 |          |           |  0.45194 |  0.63113 | h  | 14,14, 0 |||
 66 |          |           |  0.95115 |  0.19365 | h  | 13,15, 0 |||
 67 |          |           |  0.99536 |  0.35791 | h  | 14,15, 0 |||
 68 |          |           |  0.27747 | -0.68553 | h  | 13,16, 0 |||
 69 |          |           | 0.028365 | -0.18982 | h  | 14,16, 0 |||
 70 |          |           | 0.011813 |  0.65894 | o  | 18,14, 0 |||
----|----------|----------|----------|----------|----|----------|----------|----------|-------


connection definition section :

target | site | source:weight
-------|------|------------------------------------------------------------------------------------------------------------
    24 |      |   1: 0.20746,   2:-0.29372,   3:-0.08862,   4:-0.30253
    25 |      |   1: 0.60287,   2: 0.34227,   3:-0.23469,   4: -0.1509
    26 |      |   1:  0.8783,   2:   -1.05,   3:-0.051984,   4: 0.13669
    27 |      |   1:-0.51517,   2:-0.53183,   3: 0.59968,   4:-0.50847
    28 |      |   1: 0.77523,   2: 0.55639,   3:-0.91988,   4:-0.65137
    29 |      |   1:-0.54609,   2:-0.087765,   3: 0.41434,   4: 0.75484
    30 |      |   1:-0.15956,   5:0.075956,   6:-0.00086897,   7: 0.39636
    31 |      |   1:  0.2864,   5: -0.2753,   6:-0.038501,   7:-0.52561
    32 |      |   1:-0.59097,   5: -1.0102,   6: 0.32245,   7: 0.47608
    33 |      |   1: 0.16391,   5:-0.064388,   6: 0.56851,   7:  -0.376
    34 |      |   1: 0.98746,   5:-0.51147,   6:0.025249,   7:-0.20381
    35 |      |   1: 0.37642,   5:-0.47078,   6: -1.0498,   7: 0.10817
    36 |      |   1:-0.18928,   8: 0.24304,   9: 0.92932,  10:  -0.655,  11:  0.3243,  12: 0.98642,  13: 0.55058,  14:-0.88154, 
                 15:-0.71199,  21: 0.49537,  22:0.019597,  23:-0.17197
    37 |      |   1:-0.74509,   8:-0.59958,   9:-0.32908,  10: 0.64468,  11:-0.38067,  12:-0.67088,  13:-0.62632,  14: 0.46498, 
                 15:-0.64598,  21:-0.27307,  22: 0.99678,  23:-0.51675
    38 |      |   1: 0.21285,   8:-0.20469,   9: 0.64709,  10:-0.73012,  11: 0.72568,  12:-0.10001,  13:-0.82416,  14:  0.2044, 
                 15: 0.10478,  21:0.063292,  22:-0.50652,  23:0.034096
    39 |      |   1: -0.4256,   8: -1.7621,   9:0.017014,  10: 0.91813,  11: 0.53919,  12: 0.15314,  13:  0.2888,  14:-0.72684, 
                 15: 0.35525,  21: -0.4666,  22:-0.35975,  23: 0.33713
    40 |      |   1: 0.14994,   8:  1.0249,   9: 0.52644,  10:   0.535,  11: 0.69135,  12:-0.16353,  13:-0.86828,  14: 0.74206, 
                 15:0.030413,  21:-0.97693,  22: -0.6081,  23: 0.10567
    41 |      |   1: 0.36819,   8:-0.57726,   9: 0.98157,  10: -1.2383,  11:-0.85893,  12:  0.2349,  13:-0.97106,  14: 0.36075, 
                 15: 0.76724,  21:  1.2008,  22:0.047606,  23:  1.1619
    42 |      |   1: 0.33987,   8:  1.1349,   9: 0.15905,  10: -0.6017,  11: 0.66366,  12:-0.83659,  13:-0.83823,  14:   0.371, 
                 15: 0.72893,  21:  1.0743,  22:-0.48498,  23:-0.60968
    43 |      |   1:  0.5741,   8:-0.46947,   9: 0.69502,  10:  0.2103,  11: 0.88161,  12: 0.22338,  13: 0.30176,  14: 0.69238, 
                 15: 0.40288,  21:  1.0737,  22:-0.92058,  23: 0.62917
    44 |      |   1:-0.62939,   8: 0.63291,   9: 0.63113,  10: 0.91762,  11:  1.1119,  12:0.0076909,  13:  1.1487,  14: 0.26358, 
                 15: 0.48694,  21: 0.70421,  22: 0.40916,  23: 0.63678
    45 |      |   1:  0.1154,   8: 0.90953,   9: 0.16286,  10:  0.4603,  11: 0.39213,  12:-0.42445,  13: 0.93618,  14: 0.32947, 
                 15: 0.81755,  21: 0.38144,  22:-0.51487,  23: 0.30712
    46 |      |   1: 0.76261,   8: 0.44488,   9: 0.37209,  10: 0.64814,  11:-0.69364,  12: 0.47677,  13:-0.41358,  14: -1.1149, 
                 15: 0.91107,  21:-0.66678,  22: 0.29331,  23: 0.73783
    47 |      |   1:-0.13858,   8: 0.31499,   9:0.080376,  10:  -0.881,  11: 0.19565,  12: -1.0389,  13: -1.1431,  14:-0.86048, 
                 15: 0.35524,  21: 0.20163,  22: 0.42835,  23:0.062059
    48 |      |   1:0.083735,   8:-0.25102,   9:-0.39188,  10:-0.68323,  11: 0.71916,  12: -1.3254,  13: 0.25281,  14: 0.45135, 
                 15: 0.84016,  21:-0.90784,  22:0.067136,  23: -1.0513
    49 |      |   1:  0.1623,   8:-0.34358,   9:-0.96004,  10: 0.18377,  11:-0.67149,  12:0.020281,  13:0.069531,  14: 0.15751, 
                 15: 0.77387,  21: 0.29318,  22: 0.45924,  23: 0.80147
    50 |      |   1:0.0089113,  16: 0.38428,  17:-0.33054,  18:-0.98943
    51 |      |   1: 0.43512,  16:-0.20602,  17: 0.68444,  18: 0.67431
    52 |      |   1: 0.96595,  16: 0.43952,  17: 0.67318,  18: 0.47836
    53 |      |   1:-0.011984,  16:   0.403,  17: 0.84919,  18:-0.72049
    54 |      |   1:  0.9598,  16: 0.33671,  17:-0.24047,  18:0.016117
    55 |      |   1:-0.70667,  16:-0.36402,  17: 0.64112,  18:  0.7835
    56 |      |   1: 0.10877,  19:-0.11272,  20: 0.74883
    57 |      |   1:-0.12169,  19:-0.07646,  20:-0.36451
    58 |      |   1:-0.35429,  19:-0.60132,  20: 0.62152
    59 |      |   1: 0.67273,  19:-0.059057,  20: -1.2785
    60 |      |  24:-0.37918,  25: 0.79647,  26: 0.20356,  27:-0.16162,  28:-0.95065,  29:0.089027,  30:-0.78138,  31:-0.034658, 
                 32:-0.88964,  33:-0.66462,  34: 0.22133,  35:-0.30725,  36: 0.93189,  37:0.071291,  38:  0.3734,  39:-0.073555, 
                 40: 0.86873,  41: -0.0539,  42:-0.45684,  43:-0.28083,  44: 0.88163,  45: 0.51569,  46:-0.73776,  47:-0.53591, 
                 48:-0.82899,  49:-0.91633,  50: 0.15264,  51:  0.9892,  52: 0.72128,  53: 0.17556,  54: 0.18228,  55:-0.77277, 
                 56:-0.12945,  57:-0.64389,  58:-0.040082,  59:-0.15293
    61 |      |  24: 0.28876,  25:  1.3698,  26: 0.68444,  27: 0.19503,  28: 0.12454,  29: 0.84721,  30: 0.11176,  31:  1.1417, 
                 32: 0.26332,  33: -1.2918,  34: 0.94876,  35:-0.62954,  36:-0.18957,  37:-0.57493,  38: 0.95545,  39:  1.1884, 
                 40:-0.68894,  41:-0.44707,  42: -0.7545,  43:-0.61373,  44: 0.59122,  45:-0.78292,  46:  1.0118,  47:-0.36006, 
                 48:  0.2092,  49:-0.75643,  50: 0.54461,  51: 0.37045,  52:  0.2946,  53:-0.63024,  54:-0.31294,  55:-0.79209, 
                 56: 0.90715,  57:  1.1785,  58: 0.50933,  59:-0.24545
    62 |      |  24:0.011364,  25: -1.6209,  26:-0.15617,  27: 0.83935,  28: 0.16933,  29:   0.704,  30: 0.79694,  31: 0.66938, 
                 32:  0.3328,  33:  1.2745,  34: -1.1058,  35: 0.31069,  36: 0.74403,  37:-0.56493,  38: 0.14877,  39:  1.4843, 
                 40:-0.87107,  41: 0.89585,  42:-0.44385,  43:-0.29199,  44:-0.57146,  45: -1.0857,  46: 0.17333,  47: 0.41458, 
                 48:-0.32936,  49: 0.59036,  50:-0.18854,  51:-0.25663,  52:-0.055598,  53:-0.10943,  54:-0.64398,  55:-0.45373, 
                 56: 0.38673,  57: 0.43462,  58: 0.81089,  59: 0.21472
    63 |      |  24:0.0015692,  25:-0.22632,  26: 0.71525,  27: -0.4582,  28:-0.06459,  29:0.082397,  30:-0.74272,  31: 0.17011, 
                 32: -1.0093,  33: -1.0626,  34: 0.48786,  35: 0.67497,  36:-0.085237,  37: 0.80447,  38:-0.54024,  39: 0.14843, 
                 40:  0.3018,  41: 0.46239,  42:-0.99618,  43:0.094038,  44:-0.84584,  45:-0.30161,  46: -0.6449,  47: 0.46813, 
                 48: 0.31363,  49:-0.19912,  50:-0.041459,  51:-0.17161,  52:-0.89727,  53: -1.0308,  54: 0.56688,  55: 0.12433, 
                 56:-0.23739,  57: 0.30778,  58:  0.7803,  59: 0.64961
    64 |      |  24:-0.95536,  25:-0.69256,  26:-0.42959,  27:-0.45889,  28:  -0.941,  29:-0.36829,  30: 0.41491,  31: -1.0002, 
                 32:-0.076043,  33:-0.12585,  34: 0.35404,  35:  -1.064,  36:  -0.638,  37:-0.24789,  38:-0.48161,  39:0.086742, 
                 40: 0.34066,  41:  1.0963,  42:-0.45383,  43:-0.55494,  44:-0.029376,  45: 0.39503,  46:-0.80336,  47:0.037848, 
                 48:0.060043,  49: 0.67479,  50: 0.80703,  51:-0.61967,  52: 0.34939,  53: 0.40675,  54:-0.079565,  55: 0.57133, 
                 56:-0.75514,  57: 0.50345,  58: 0.82134,  59:-0.14459
    65 |      |  24:-0.17873,  25: -0.1927,  26:-0.56651,  27: 0.28819,  28:-0.23843,  29:-0.12255,  30:   0.645,  31: 0.61696, 
                 32: 0.33347,  33:-0.063217,  34:0.0049501,  35: 0.20892,  36: 0.20916,  37: 0.21861,  38:-0.89724,  39:-0.39463, 
                 40: 0.58145,  41:0.076028,  42: 0.49627,  43: 0.40734,  44:-0.28364,  45: 0.91077,  46:-0.38018,  47:-0.72199, 
                 48:-0.17134,  49:-0.67547,  50:-0.37726,  51:-0.54936,  52: -1.0756,  53: 0.31225,  54:-0.73527,  55:-0.072736, 
                 56: -0.5802,  57:-0.18705,  58:-0.82454,  59: 0.42577
    66 |      |  24: 0.79676,  25:  1.0561,  26:-0.0051873,  27: -1.4014,  28:0.0056858,  29: -1.6988,  30: 0.38105,  31: 0.87628, 
                 32: -1.3523,  33:  -1.458,  34: 0.71638,  35: 0.78618,  36: -1.1619,  37:-0.43406,  38:-0.71681,  39: -1.8421, 
                 40: 0.98645,  41:  -1.377,  42: 0.47882,  43: 0.64164,  44: 0.28226,  45: 0.68578,  46: 0.88551,  47: -1.1486, 
                 48:  1.3794,  49:-0.32857,  50:-0.10959,  51:-0.37607,  52: 0.51717,  53:-0.15112,  54: -0.4496,  55: -0.4044, 
                 56: 0.38989,  57: 0.52466,  58:-0.088015,  59:-0.91018
    67 |      |  24:  0.2637,  25: 0.74274,  26: 0.95784,  27: 0.71831,  28: 0.17924,  29: 0.42776,  30: 0.76838,  31:  0.9896, 
                 32: 0.62552,  33: 0.80098,  34: 0.55844,  35:-0.95335,  36:-0.24534,  37: 0.45893,  38: 0.12382,  39:-0.83607, 
                 40: 0.43811,  41: 0.64335,  42: 0.96498,  43:-0.56962,  44:-0.30995,  45:-0.32695,  46: 0.51006,  47: 0.16211, 
                 48:0.031489,  49:-0.55639,  50:-0.12482,  51:-0.59411,  52: 0.88363,  53:-0.081321,  54: 0.99465,  55: 0.14956, 
                 56:-0.30577,  57: 0.95033,  58:-0.13963,  59: 0.86466
    68 |      |  24:-0.46941,  25: 0.99459,  26:-0.073564,  27:-0.77756,  28: 0.43242,  29:-0.041985,  30:0.041417,  31:-0.085994, 
                 32:-0.91092,  33: 0.11489,  34:-0.63119,  35: 0.68915,  36: 0.17231,  37: -0.2806,  38:-0.68712,  39: 0.72908, 
                 40:-0.79355,  41: 0.49123,  42:-0.15505,  43:-0.36891,  44:-0.57951,  45: 0.28942,  46:-0.43273,  47: 0.19665, 
                 48: 0.12581,  49: 0.67607,  50: 0.87894,  51: 0.14446,  52:-0.48239,  53: 0.78646,  54:-0.54497,  55:-0.0021372, 
                 56: 0.65477,  57: 0.35029,  58:  0.3158,  59:-0.047124
    69 |      |  24:-0.68663,  25: 0.85859,  26:-0.65229,  27: 0.45577,  28:-0.86162,  29: 0.88537,  30:-0.49218,  31: -0.1829, 
                 32:-0.78243,  33:-0.74862,  34:0.002788,  35: 0.75827,  36:0.058329,  37: 0.54164,  38: -1.0139,  39:-0.68683, 
                 40:-0.96902,  41: 0.15108,  42: 0.39906,  43: 0.51895,  44:0.033522,  45:-0.49591,  46:-0.94284,  47:-0.26234, 
                 48:0.019284,  49:-0.062037,  50:-0.67102,  51: -0.6972,  52:-0.72276,  53: 0.32894,  54:-0.43699,  55:-0.41817, 
                 56: 0.18759,  57:-0.14095,  58: -0.9091,  59:  0.2078
    70 |      |  60: -0.7068,  61: -2.5708,  62:  2.7322,  63: 0.67663,  64:  1.0698,  65: 0.42492,  66: -3.6374,  67: 0.54969, 
                 68:-0.21134,  69:-0.14644
-------|------|----------------------------------------------------------------------------------------------------------------
