SNNS network definition file V1.4-3D
generated at Thu May 09 10:11:49 1996

network name : edge_23
source files :
no. of units : 70
no. of connections : 622
no. of unit types : 0
no. of site types : 0


learning function : Std_Backpropagation
update function : Topological_Order


unit default section :

act      | bias     | st | subnet | layer | act func     | out func
---------|----------|----|--------|-------|--------------|-------------
 0.00000 |  0.00000 | h  |      0 |     1 | Act_Logistic | Out_Identity
---------|----------|----|--------|-------|--------------|-------------


unit definition section :

no. | typeName | unitName | act      | bias     | st | position | act func | out func | sites
----|----------|----------|----------|----------|----|----------|----------|----------|-------
  1 |          |           |  0.36116 |        0 | i  |  2, 1, 0 |||
  2 |          |           |   1.8041 |        0 | i  |  2, 3, 0 |||
  3 |          |           |   6.6212 |        0 | i  |  2, 4, 0 |||
  4 |          |           |   7.1241 |        0 | i  |  2, 5, 0 |||
  5 |          |           |   8.1027 |        0 | i  |  2, 7, 0 |||
  6 |          |           |   14.378 |        0 | i  |  2, 8, 0 |||
  7 |          |           |   9.6614 |        0 | i  |  2, 9, 0 |||
  8 |          |           |   17.317 |        0 | i  |  2,11, 0 |||
  9 |          |           |  -1.9027 |        0 | i  |  2,12, 0 |||
 10 |          |           |   -4.821 |        0 | i  |  2,13, 0 |||
 11 |          |           | -0.37697 |        0 | i  |  2,14, 0 |||
 12 |          |           |  0.24252 |        0 | i  |  2,15, 0 |||
 13 |          |           |  0.44738 |        0 | i  |  2,16, 0 |||
 14 |          |           |   4.7218 |        0 | i  |  2,17, 0 |||
 15 |          |           |   1.7052 |        0 | i  |  2,18, 0 |||
 16 |          |           |   2.6238 |        0 | i  |  2,23, 0 |||
 17 |          |           |  -2.9088 |        0 | i  |  2,24, 0 |||
 18 |          |           |  -1.6971 |        0 | i  |  2,25, 0 |||
 19 |          |           |        3 |        0 | i  |  2,27, 0 |||
 20 |          |           |   28.564 |        0 | i  |  2,28, 0 |||
 21 |          |           |   148.53 |        0 | i  |  2,19, 0 |||
 22 |          |           |        3 |        0 | i  |  2,20, 0 |||
 23 |          |           |    20.12 |        0 | i  |  2,21, 0 |||
 24 |          |           | 0.010612 | -0.92162 | h  |  7, 3, 0 |||
 25 |          |           | 0.039191 |   1.0006 | h  |  8, 3, 0 |||
 26 |          |           |  0.72023 | -0.34661 | h  |  7, 4, 0 |||
 27 |          |           |  0.16384 | -0.14233 | h  |  8, 4, 0 |||
 28 |          |           | 0.00049154 | -0.69901 | h  |  7, 5, 0 |||
 29 |          |           |  0.99997 | -0.00053724 | h  |  8, 5, 0 |||
 30 |          |           |        1 |  0.37939 | h  |  7, 7, 0 |||
 31 |          |           | 0.029006 |  0.16595 | h  |  8, 7, 0 |||
 32 |          |           | 0.0064239 |  0.23571 | h  |  7, 8, 0 |||
 33 |          |           |  0.77667 | -0.88029 | h  |  8, 8, 0 |||
 34 |          |           | 0.074735 |  0.43394 | h  |  7, 9, 0 |||
 35 |          |           | 5.889e-10 | -0.47625 | h  |  8, 9, 0 |||
 36 |          |           |        1 |  0.67856 | h  |  7,11, 0 |||
 37 |          |           | 1.1423e-24 |  0.92671 | h  |  8,11, 0 |||
 38 |          |           |        1 |  0.91689 | h  |  7,12, 0 |||
 39 |          |           | 4.2059e-57 |  0.83893 | h  |  8,12, 0 |||
 40 |          |           | 1.4591e-59 |  0.46642 | h  |  7,13, 0 |||
 41 |          |           |        1 |  -0.4591 | h  |  8,13, 0 |||
 42 |          |           |        1 |  0.37266 | h  |  7,14, 0 |||
 43 |          |           |        1 |  0.20738 | h  |  8,14, 0 |||
 44 |          |           |        1 |  0.15255 | h  |  7,15, 0 |||
 45 |          |           |        1 | 0.067058 | h  |  8,15, 0 |||
 46 |          |           | 1.3479e-34 |  0.82118 | h  |  7,16, 0 |||
 47 |          |           | 7.6574e-18 | -0.80357 | h  |  8,16, 0 |||
 48 |          |           | 1.5309e-61 | -0.47177 | h  |  7,17, 0 |||
 49 |          |           |        1 |     0.35 | h  |  8,17, 0 |||
 50 |          |           |  0.98109 |  0.21589 | h  |  7,22, 0 |||
 51 |          |           | 0.0082574 | -0.61714 | h  |  8,22, 0 |||
 52 |          |           | 0.091706 |  0.36055 | h  |  7,23, 0 |||
 53 |          |           |  0.64909 | -0.61463 | h  |  8,23, 0 |||
 54 |          |           |  0.69731 | -0.84149 | h  |  7,24, 0 |||
 55 |          |           | 0.013412 | -0.50739 | h  |  8,24, 0 |||
 56 |          |           |        1 |  0.55958 | h  |  7,26, 0 |||
 57 |          |           |  0.99988 |  0.61641 | h  |  8,26, 0 |||
 58 |          |           |        1 | -0.38103 | h  |  7,27, 0 |||
 59 |          |           | 7.3283e-14 |  0.22974 | h  |  8,27, 0 |||
 60 |          |           |  0.15021 |  0.20345 | h  | 13,12, 0 |||
 61 |          |           |   0.6551 |  0.94125 | h  | 14,12, 0 |||
 62 |          |           |  0.99575 | -0.13708 | h  | 13,13, 0 |||
 63 |          |           | 0.089848 | -0.40414 | h  | 14,13, 0 |||
 64 |          |           |  0.76744 |  0.87153 | h  | 13,14, 0 |||
 65 |          |           |  0.74143 |  0.79058 | h  | 14,14, 0 |||
 66 |          |           |  0.34837 |   0.3686 | h  | 13,15, 0 |||
 67 |          |           |  0.97305 |  0.33031 | h  | 14,15, 0 |||
 68 |          |           |  0.43813 | -0.88846 | h  | 13,16, 0 |||
 69 |          |           |  0.18098 | -0.087637 | h  | 14,16, 0 |||
 70 |          |           |  0.84838 | 0.046811 | o  | 18,14, 0 |||
----|----------|----------|----------|----------|----|----------|----------|----------|-------


connection definition section :

target | site | source:weight
-------|------|------------------------------------------------------------------------------------------------------------
    24 |      |   1: 0.17559,   2:-0.37146,   3:-0.17226,   4:-0.26195
    25 |      |   1: 0.44041,   2:-0.0098951,   3:-0.58996,   4:-0.061037
    26 |      |   1: 0.99277,   2:-0.91462,   3:  0.3313,   4:0.054758
    27 |      |   1:-0.19245,   2:-0.69086,   3: 0.67864,   4:-0.65484
    28 |      |   1:  0.5996,   2: 0.99451,   3:-0.32059,   4:-0.95542
    29 |      |   1:-0.44229,   2:-0.017984,   3: 0.67189,   4: 0.88331
    30 |      |   1:-0.17261,   5: 0.17336,   6: 0.33635,   7: 0.58621
    31 |      |   1: 0.34886,   5:-0.45936,   6: 0.57546,   7:-0.86475
    32 |      |   1:-0.38004,   5: -1.2651,   6: 0.25318,   7: 0.15223
    33 |      |   1: 0.14648,   5:-0.75226,   6: 0.75148,   7:-0.27281
    34 |      |   1:  1.1077,   5: 0.17368,   6:-0.21466,   7:-0.17295
    35 |      |   1:  0.3552,   5:-0.55959,   6: -1.0351,   7:-0.15403
    36 |      |   1:-0.0010537,   8:  1.3109,   9: 0.92033,  10:-0.39804,  11: 0.53824,  12: 0.64992,  13: 0.76739,  14:-0.74963, 
                 15: -1.1983,  21: 0.87796,  22: 0.26553,  23:-0.31124
    37 |      |   1:-0.70986,   8:-0.67034,   9:-0.37032,  10: 0.52118,  11:-0.24201,  12:-0.90802,  13:-0.54416,  14: 0.52074, 
                 15:-0.55673,  21: -0.2259,  22: 0.90909,  23:-0.63089
    38 |      |   1: 0.35599,   8: 0.13011,   9: 0.82355,  10:-0.69193,  11: 0.71809,  12:-0.25175,  13:-0.76623,  14: 0.60617, 
                 15: 0.25395,  21: 0.71411,  22: -0.4715,  23:-0.45043
    39 |      |   1:-0.31214,   8: -1.0066,   9: 0.11306,  10: 0.36582,  11: 0.63631,  12: 0.37019,  13: 0.42679,  14:-0.92837, 
                 15:-0.45993,  21:-0.73021,  22:-0.20352,  23: 0.15275
    40 |      |   1:  0.0824,   8: 0.85346,   9: 0.46684,  10:0.078653,  11: 0.53732,  12:-0.64272,  13:-0.45327,  14: 0.70158, 
                 15: 0.49199,  21: -1.0665,  22:-0.54269,  23: 0.34627
    41 |      |   1: 0.53846,   8:-0.14306,   9:  1.0416,  10:  -1.207,  11: -0.4231,  12:-0.53837,  13:-0.77608,  14:  0.5713, 
                 15: 0.93629,  21: 0.91035,  22:-0.47779,  23: 0.75002
    42 |      |   1: 0.25093,   8: 0.87875,   9: 0.21555,  10:-0.59995,  11: 0.76542,  12:-0.75509,  13:-0.80766,  14: 0.28873, 
                 15: 0.70897,  21: 0.98926,  22:-0.67541,  23:-0.94452
    43 |      |   1:  0.5188,   8:-0.66063,   9: 0.69775,  10:-0.58306,  11: 0.63121,  12:-0.13656,  13: 0.64966,  14: 0.91869, 
                 15: 0.66616,  21: 0.96676,  22:-0.58382,  23: 0.67443
    44 |      |   1:-0.57632,   8: 0.51769,   9: 0.77047,  10: 0.98633,  11: 0.92692,  12:-0.079065,  13:  1.0102,  14: 0.26758, 
                 15: 0.56253,  21: 0.67869,  22: 0.34205,  23: 0.66575
    45 |      |   1:0.048202,   8:  0.6591,   9: 0.28772,  10: 0.16541,  11:-0.016315,  12:-0.26641,  13: 0.76838,  14:-0.026209, 
                 15: 0.95841,  21:  0.4447,  22:-0.67789,  23: 0.36937
    46 |      |   1: 0.77786,   8:-0.046503,   9: 0.40482,  10:-0.18913,  11:-0.48172,  12: 0.36972,  13:-0.56082,  14:-0.25262, 
                 15:  1.3193,  21:-0.70767,  22: 0.48308,  23:  1.2008
    47 |      |   1:-0.018729,   8:  1.6818,   9:0.043378,  10:-0.43123,  11:-0.27564,  12:-0.92465,  13:-0.44339,  14:-0.77816, 
                 15: 0.40183,  21:-0.41399,  22: 0.17483,  23:-0.27057
    48 |      |   1:-0.18276,   8:-0.45595,   9:-0.64999,  10: -1.0342,  11: 0.52347,  12:-0.84279,  13: 0.48265,  14: 0.12441, 
                 15: 0.56786,  21:-0.83461,  22:  0.3002,  23:-0.80132
    49 |      |   1: 0.21055,   8:-0.11787,   9:-0.72598,  10: 0.59616,  11:-0.26843,  12: 0.68109,  13:-0.16726,  14: 0.43345, 
                 15: 0.25127,  21: 0.40278,  22: 0.54657,  23: 0.87568
    50 |      |   1:-0.028079,  16: 0.19017,  17:-0.56021,  18:-0.95149
    51 |      |   1: 0.43743,  16:-0.38944,  17: 0.75051,  18: 0.66249
    52 |      |   1: 0.95734,  16:0.080752,  17:  0.8785,  18: 0.38641
    53 |      |   1:-0.010107,  16: 0.52049,  17:  0.5978,  18:-0.94666
    54 |      |   1: 0.97209,  16: 0.28876,  17:-0.23113,  18:0.061885
    55 |      |   1:-0.73946,  16:-0.31472,  17: 0.46824,  18: 0.78718
    56 |      |   1:0.034253,  19:-0.31821,  20: 0.73755
    57 |      |   1:-0.057468,  19:-0.057953,  20: 0.30031
    58 |      |   1:-0.30949,  19: -0.1055,  20:  0.9832
    59 |      |   1: 0.86188,  19:  0.5124,  20: -1.1316
    60 |      |  24:-0.46515,  25: 0.60195,  26:0.067444,  27:-0.22228,  28:-0.99998,  29:0.031946,  30:-0.84033,  31:-0.16824, 
                 32:-0.97918,  33:-0.72769,  34: 0.10407,  35:-0.31782,  36: 0.79045,  37:-0.075561,  38:  0.2258,  39:-0.17594, 
                 40: 0.74552,  41:-0.14085,  42:-0.55721,  43:-0.36028,  44:  0.8005,  45: 0.43372,  46:-0.86925,  47: -0.5528, 
                 48:-0.88254,  49:-0.96697,  50:0.087989,  51: 0.91817,  52: 0.59333,  53: 0.12197,  54: 0.11438,  55:-0.84557, 
                 56: -0.2611,  57:-0.81308,  58:-0.036779,  59:-0.26874
    61 |      |  24:  0.1071,  25: 0.88833,  26: 0.81277,  27: 0.97569,  28:-0.65778,  29:  1.0177,  30:  0.3337,  31: 0.91883, 
                 32: 0.50034,  33:   -1.14,  34:  0.6526,  35:-0.91522,  36:  -0.569,  37:-0.60985,  38:  1.0466,  39:  1.1608, 
                 40:-0.38394,  41:-0.69416,  42:-0.56311,  43:-0.77146,  44:0.00010453,  45:-0.94922,  46:  1.0266,  47:-0.40667, 
                 48: 0.76492,  49:-0.91472,  50: 0.29898,  51: 0.50183,  52: 0.35499,  53:-0.72205,  54:-0.37299,  55:-0.65136, 
                 56: 0.81476,  57: 0.78324,  58: 0.59939,  59:-0.45702
    62 |      |  24:0.055598,  25:   -1.26,  26: 0.38999,  27: 0.83913,  28: 0.70869,  29: 0.27215,  30: 0.77809,  31:  1.4568, 
                 32: 0.13832,  33:  1.7031,  34: -1.0709,  35: 0.46555,  36:  1.3172,  37:-0.83451,  38:-0.50326,  39: 0.89718, 
                 40: -0.7158,  41: 0.84211,  42:-0.65129,  43:-0.52486,  44: 0.88375,  45:-0.72728,  46: 0.66438,  47:-0.0034111, 
                 48:  -1.066,  49: 0.88433,  50:-0.26091,  51:-0.084688,  52: 0.50984,  53: 0.35726,  54:-0.53195,  55:-0.51702, 
                 56: 0.54589,  57:  0.6999,  58:  0.4768,  59: 0.17517
    63 |      |  24:0.061149,  25:-0.14668,  26: 0.84687,  27:-0.29031,  28:-0.17187,  29: 0.16179,  30:-0.68689,  31: 0.28301, 
                 32:-0.91265,  33: -0.9203,  34: 0.56381,  35: 0.64535,  36:0.026507,  37: 0.93874,  38:-0.52677,  39: 0.25922, 
                 40: 0.40859,  41: 0.51216,  42: -1.0183,  43: 0.12668,  44:-0.68144,  45: -0.2534,  46: -0.4371,  47: 0.48568, 
                 48: 0.22138,  49:-0.15666,  50:-0.09442,  51:-0.039266,  52:-0.73699,  53:-0.98513,  54: 0.60213,  55: 0.25694, 
                 56:-0.14651,  57: 0.39879,  58:  0.8225,  59:  0.7444
    64 |      |  24:-0.85295,  25:-0.098499,  26:-0.41885,  27:-0.84197,  28:-0.49114,  29:-0.71554,  30: 0.17544,  31:-0.64659, 
                 32:-0.25245,  33:-0.54438,  34: 0.74184,  35:-0.77124,  36:-0.51135,  37:-0.14031,  38:-0.50634,  39: 0.14765, 
                 40: 0.33122,  41:  1.0457,  42:-0.52619,  43:-0.75369,  44:0.0019077,  45: 0.40851,  46:-0.58378,  47:-0.043549, 
                 48:-0.11498,  49: 0.64648,  50: 0.78845,  51:-0.62853,  52:  0.4131,  53: 0.44472,  54:-0.045052,  55: 0.55755, 
                 56:-0.58683,  57: 0.61787,  58: 0.79602,  59:-0.19556
    65 |      |  24:-0.16936,  25: 0.20709,  26:-0.34316,  27: 0.31035,  28: -0.1064,  29:-0.065011,  30: 0.73357,  31: 0.87517, 
                 32: 0.37332,  33:-0.13352,  34: 0.16146,  35: 0.20722,  36: 0.34822,  37: 0.32225,  38:-0.74211,  39:-0.41604, 
                 40: 0.75806,  41: 0.12603,  42:  0.7761,  43: 0.47136,  44:-0.12822,  45:  1.1291,  46:-0.20231,  47:-0.76023, 
                 48:-0.019811,  49:-0.57409,  50:-0.30889,  51:-0.48902,  52:-0.87523,  53: 0.50931,  54:-0.61374,  55:-0.025553, 
                 56:-0.33067,  57:-0.03979,  58:-0.70265,  59: 0.39514
    66 |      |  24: 0.61145,  25:  0.3965,  26: 0.33133,  27:-0.46387,  28:  -1.067,  29:-0.77492,  30: 0.75311,  31: 0.37398, 
                 32:-0.68275,  33: -1.1026,  34:  0.2892,  35: 0.16546,  36:   -1.12,  37:-0.44225,  38:-0.61564,  39:  -1.224, 
                 40: 0.12226,  41:-0.50755,  42: 0.36907,  43: 0.78601,  44:-0.54523,  45: 0.52137,  46: 0.58281,  47:-0.58512, 
                 48:  1.0743,  49:0.027681,  50:-0.048463,  51:-0.45592,  52:0.077349,  53:-0.35066,  54:-0.59632,  55:-0.22414, 
                 56: 0.66748,  57:  0.2144,  58:  0.5643,  59: -1.2743
    67 |      |  24: 0.26532,  25: 0.75533,  26: 0.95135,  27: 0.68653,  28: 0.20899,  29: 0.38893,  30: 0.74502,  31: 0.98691, 
                 32: 0.59467,  33: 0.77786,  34: 0.55548,  35:-0.95994,  36:-0.27399,  37:  0.4568,  38: 0.12961,  39:-0.84347, 
                 40: 0.43785,  41: 0.62489,  42: 0.95619,  43:-0.60289,  44:-0.33579,  45:-0.35093,  46: 0.50523,  47:  0.1581, 
                 48:0.016906,  49:-0.57773,  50:-0.14058,  51:-0.60592,  52: 0.87269,  53:-0.091831,  54: 0.99554,  55: 0.13588, 
                 56:-0.32331,  57: 0.95397,  58:-0.15938,  59: 0.85759
    68 |      |  24:-0.47637,  25: 0.46836,  26:-0.77875,  27: -1.2787,  28: 0.76819,  29:-0.099858,  30:-0.05886,  31:-0.47277, 
                 32: -1.1621,  33:   0.307,  34:-0.96113,  35:  0.6412,  36: 0.17167,  37:-0.63586,  38:-0.82537,  39: 0.53884, 
                 40:  -1.089,  41: 0.48986,  42:-0.35049,  43:-0.35159,  44:-0.38291,  45:  0.1981,  46:-0.57108,  47: 0.25917, 
                 48:-0.26246,  49: 0.58757,  50: 0.91536,  51:-0.084873,  52:-0.86899,  53: 0.50523,  54:-0.56979,  55:-0.19915, 
                 56: 0.47397,  57: 0.33576,  58: 0.31756,  59:-0.05384
    69 |      |  24:-0.69236,  25: 0.89599,  26:-0.61732,  27: 0.48908,  28:-0.90463,  29: 0.99834,  30:-0.38771,  31:-0.20218, 
                 32:-0.65498,  33:-0.72988,  34: 0.02606,  35: 0.75657,  36:0.090047,  37: 0.60051,  38:-0.88398,  39:-0.67991, 
                 40: -0.9104,  41: 0.21406,  42: 0.56157,  43: 0.63336,  44: 0.05053,  45:-0.39188,  46:-0.95646,  47:-0.20246, 
                 48:  0.1301,  49:0.029726,  50:-0.59081,  51:-0.68024,  52:-0.67837,  53: 0.38669,  54:-0.39829,  55:-0.39595, 
                 56: 0.21403,  57:-0.075997,  58:-0.88247,  59: 0.23902
    70 |      |  60:-0.091273,  61: -1.8471,  62:  3.2669,  63: 0.42701,  64:0.031739,  65:-0.57093,  66: -1.5379,  67:-0.079943, 
                 68:  1.6313,  69:-0.52331
-------|------|----------------------------------------------------------------------------------------------------------------
