SNNS network definition file V1.4-3D
generated at Thu May 09 10:11:49 1996

network name : edge_23
source files :
no. of units : 70
no. of connections : 622
no. of unit types : 0
no. of site types : 0


learning function : Std_Backpropagation
update function : Topological_Order


unit default section :

act      | bias     | st | subnet | layer | act func     | out func
---------|----------|----|--------|-------|--------------|-------------
 0.00000 |  0.00000 | h  |      0 |     1 | Act_Logistic | Out_Identity
---------|----------|----|--------|-------|--------------|-------------


unit definition section :

no. | typeName | unitName | act      | bias     | st | position | act func | out func | sites
----|----------|----------|----------|----------|----|----------|----------|----------|-------
  1 |          |           |   1.8257 |        0 | i  |  2, 1, 0 |||
  2 |          |           |    19.78 |        0 | i  |  2, 3, 0 |||
  3 |          |           |   6.7386 |        0 | i  |  2, 4, 0 |||
  4 |          |           |    5.826 |        0 | i  |  2, 5, 0 |||
  5 |          |           |   3.4895 |        0 | i  |  2, 7, 0 |||
  6 |          |           |   4.1992 |        0 | i  |  2, 8, 0 |||
  7 |          |           |   2.3452 |        0 | i  |  2, 9, 0 |||
  8 |          |           |   3.1265 |        0 | i  |  2,11, 0 |||
  9 |          |           | -0.42586 |        0 | i  |  2,12, 0 |||
 10 |          |           |  0.15479 |        0 | i  |  2,13, 0 |||
 11 |          |           |   40.669 |        0 | i  |  2,14, 0 |||
 12 |          |           | -0.68758 |        0 | i  |  2,15, 0 |||
 13 |          |           |   4.5114 |        0 | i  |  2,16, 0 |||
 14 |          |           |   3.8019 |        0 | i  |  2,17, 0 |||
 15 |          |           |   1.1079 |        0 | i  |  2,18, 0 |||
 16 |          |           |    -2.12 |        0 | i  |  2,23, 0 |||
 17 |          |           |  -1.5635 |        0 | i  |  2,24, 0 |||
 18 |          |           |   1.1103 |        0 | i  |  2,25, 0 |||
 19 |          |           |        4 |        0 | i  |  2,27, 0 |||
 20 |          |           |    3.955 |        0 | i  |  2,28, 0 |||
 21 |          |           |   61.963 |        0 | i  |  2,19, 0 |||
 22 |          |           |        3 |        0 | i  |  2,20, 0 |||
 23 |          |           |    10.46 |        0 | i  |  2,21, 0 |||
 24 |          |           |        1 | -0.72965 | h  |  7, 3, 0 |||
 25 |          |           |  0.99999 |  0.59174 | h  |  8, 3, 0 |||
 26 |          |           |        1 |  0.93906 | h  |  7, 4, 0 |||
 27 |          |           |  0.99949 | -0.60727 | h  |  8, 4, 0 |||
 28 |          |           | 0.0010642 |   1.3502 | h  |  7, 5, 0 |||
 29 |          |           |  0.99954 |  0.16826 | h  |  8, 5, 0 |||
 30 |          |           |  0.43987 |  -1.2109 | h  |  7, 7, 0 |||
 31 |          |           | 0.063048 | -0.58629 | h  |  8, 7, 0 |||
 32 |          |           | 0.00034687 |  0.72322 | h  |  7, 8, 0 |||
 33 |          |           | 0.014191 | -0.44662 | h  |  8, 8, 0 |||
 34 |          |           |  0.23808 | -0.26428 | h  |  7, 9, 0 |||
 35 |          |           | 0.0059285 | -0.52774 | h  |  8, 9, 0 |||
 36 |          |           |        1 |  0.18288 | h  |  7,11, 0 |||
 37 |          |           |   0.3058 |  0.45734 | h  |  8,11, 0 |||
 38 |          |           |  0.99528 |  0.64443 | h  |  7,12, 0 |||
 39 |          |           | 1.465e-18 |  0.88225 | h  |  8,12, 0 |||
 40 |          |           |  0.75771 |  0.59585 | h  |  7,13, 0 |||
 41 |          |           |        1 |  0.20337 | h  |  8,13, 0 |||
 42 |          |           |        1 | -0.69558 | h  |  7,14, 0 |||
 43 |          |           |  0.11541 | -0.37783 | h  |  8,14, 0 |||
 44 |          |           | 5.9698e-24 | -0.10108 | h  |  7,15, 0 |||
 45 |          |           |    0.769 |  0.88924 | h  |  8,15, 0 |||
 46 |          |           |        1 | -0.91533 | h  |  7,16, 0 |||
 47 |          |           |        1 |  0.28439 | h  |  8,16, 0 |||
 48 |          |           | 5.3587e-13 | -0.33183 | h  |  7,17, 0 |||
 49 |          |           | 3.5664e-05 | -0.55457 | h  |  8,17, 0 |||
 50 |          |           |  0.68256 |  0.19519 | h  |  7,22, 0 |||
 51 |          |           |  0.03802 |  0.41261 | h  |  8,22, 0 |||
 52 |          |           |  0.34132 | -0.85608 | h  |  7,23, 0 |||
 53 |          |           |  0.59003 |  0.20883 | h  |  8,23, 0 |||
 54 |          |           |  0.59466 |   0.6908 | h  |  7,24, 0 |||
 55 |          |           |   0.9683 | -0.22596 | h  |  8,24, 0 |||
 56 |          |           | 0.045342 | -0.56431 | h  |  7,26, 0 |||
 57 |          |           | 0.0089689 | -0.21906 | h  |  8,26, 0 |||
 58 |          |           |   0.8982 | -0.18368 | h  |  7,27, 0 |||
 59 |          |           |  0.66191 | -0.13728 | h  |  8,27, 0 |||
 60 |          |           |  0.99942 | -0.019791 | h  | 13,12, 0 |||
 61 |          |           |  0.70349 |  0.38695 | h  | 14,12, 0 |||
 62 |          |           |  0.96244 | -0.42275 | h  | 13,13, 0 |||
 63 |          |           |  0.76774 |  0.51534 | h  | 14,13, 0 |||
 64 |          |           | 0.035409 |   -0.591 | h  | 13,14, 0 |||
 65 |          |           |  0.87459 |  0.94358 | h  | 14,14, 0 |||
 66 |          |           |  0.99627 |  0.20859 | h  | 13,15, 0 |||
 67 |          |           |  0.97557 |  0.32466 | h  | 14,15, 0 |||
 68 |          |           |  0.74639 | -0.92547 | h  | 13,16, 0 |||
 69 |          |           |  0.87961 | 0.093838 | h  | 14,16, 0 |||
 70 |          |           |  0.98663 | -0.59178 | o  | 18,14, 0 |||
----|----------|----------|----------|----------|----|----------|----------|----------|-------


connection definition section :

target | site | source:weight
-------|------|------------------------------------------------------------------------------------------------------------
    24 |      |   1:  1.0814,   2: 0.96168,   3:   1.032,   4:-0.29893
    25 |      |   1:-0.78724,   2: 0.20033,   3:  0.6002,   4: 0.72181
    26 |      |   1: 0.47215,   2: 0.95914,   3:  1.0299,   4: 0.77328
    27 |      |   1: -2.9306,   2: 0.60321,   3:-0.033255,   4: 0.31314
    28 |      |   1:  1.0087,   2:-0.48488,   3:-0.38081,   4: 0.36405
    29 |      |   1: 0.30687,   2:-0.038855,   3: 0.26283,   4:  1.0235
    30 |      |   1: -1.2604,   5: 0.40251,   6:0.062688,   7: 0.68333
    31 |      |   1: 0.41628,   5:-0.44641,   6:-0.16898,   7:-0.25803
    32 |      |   1:-0.43741,   5: -0.9223,   6:-0.84971,   7:-0.47093
    33 |      |   1:-0.94631,   5:-0.60463,   6:0.091861,   7:-0.14602
    34 |      |   1: 0.41136,   5:  0.1411,   6:-0.53987,   7:0.053169
    35 |      |   1:-0.21346,   5:-0.37846,   6:-0.13645,   7: -0.9854
    36 |      |   1:-0.68363,   8: -1.4049,   9:-0.64613,  10:0.052676,  11:  1.1413,  12:-0.83097,  13:-0.24212,  14: 0.12943, 
                 15:-0.17722,  21: 0.71978,  22:-0.087016,  23: 0.96335
    37 |      |   1: 0.30613,   8: -0.9354,   9:0.084775,  10:-0.15236,  11:-0.34907,  12:-0.50104,  13:-0.62603,  14:-0.031841, 
                 15: 0.75141,  21: 0.21567,  22:-0.66184,  23: 0.54822
    38 |      |   1: 0.11934,   8:  1.1774,   9:-0.84874,  10: 0.57397,  11:-0.34872,  12:-0.46892,  13: 0.16237,  14:-0.21256, 
                 15: 0.69107,  21: 0.36957,  22:-0.09441,  23:-0.86894
    39 |      |   1:  1.0577,   8: 0.34251,   9:-0.18289,  10: 0.63361,  11:-0.71793,  12: 0.65592,  13: 0.76059,  14: 0.48222, 
                 15:-0.02674,  21:-0.36387,  22:-0.90595,  23: 0.43526
    40 |      |   1: 0.96602,   8:  -1.545,   9:-0.65136,  10:-0.14013,  11:0.023156,  12: 0.18725,  13: -0.4452,  14:-0.090472, 
                 15:-0.25563,  21:-0.093972,  22: 0.91833,  23: 0.78833
    41 |      |   1: 0.60675,   8:0.089316,   9: -0.9217,  10:  1.0752,  11: 0.16032,  12:-0.70201,  13: 0.28199,  14: 0.39096, 
                 15:  0.7997,  21: 0.76266,  22: 0.13921,  23: 0.65429
    42 |      |   1:-0.84271,   8: -1.1929,   9: 0.31053,  10:-0.024708,  11:  1.3888,  12:-0.13331,  13:  0.3593,  14:  1.2725, 
                 15:-0.62524,  21:-0.19986,  22: 0.16391,  23:-0.61574
    43 |      |   1: 0.81594,   8: 0.70111,   9:-0.82926,  10: 0.39402,  11: 0.41106,  12: 0.81072,  13:-0.73139,  14: 0.19974, 
                 15: 0.97199,  21:-0.26935,  22: 0.61604,  23:-0.53633
    44 |      |   1: 0.56329,   8:-0.57508,   9: 0.80868,  10:-0.38782,  11:-0.57755,  12: 0.80778,  13: 0.41275,  14: 0.72171, 
                 15: 0.10069,  21:-0.43521,  22:-0.18896,  23:-0.51055
    45 |      |   1: 0.02032,   8: 0.37015,   9:-0.54125,  10:   1.266,  11: 0.25189,  12:  0.7862,  13:0.050106,  14: 0.28181, 
                 15: 0.32567,  21: -0.3796,  22: 0.35641,  23: 0.93526
    46 |      |   1:  0.1573,   8:-0.58233,   9: 0.81211,  10: 0.48637,  11:  1.1388,  12: 0.77189,  13:-0.24984,  14: 0.37658, 
                 15:-0.72812,  21:-0.29778,  22:-0.0025176,  23:0.046033
    47 |      |   1:  -0.664,   8: -1.2362,   9: 0.23252,  10:0.007084,  11:0.032882,  12: 0.97345,  13:-0.91106,  14:0.084076, 
                 15: 0.35221,  21: 0.54202,  22: 0.34119,  23:0.089206
    48 |      |   1:-0.12048,   8: 0.49021,   9:-0.51377,  10:-0.09857,  11:0.033282,  12: 0.39585,  13: 0.74206,  14: -0.3918, 
                 15: 0.64584,  21: -0.2811,  22:-0.98026,  23: -1.2176
    49 |      |   1:-0.74983,   8:-0.26395,   9: 0.20395,  10: 0.21082,  11: 0.26421,  12: 0.53991,  13:  1.3426,  14: 0.75051, 
                 15:-0.61474,  21:-0.29017,  22: 0.52302,  23:-0.92068
    50 |      |   1: 0.18502,  16: -0.9285,  17: 0.47917,  18:-0.88864
    51 |      |   1:-0.55022,  16: 0.86504,  17: 0.60051,  18: 0.12059
    52 |      |   1:0.030443,  16:-0.12385,  17:  -0.388,  18:-0.65402
    53 |      |   1:-0.51584,  16:-0.23306,  17:-0.44481,  18:-0.083321
    54 |      |   1:-0.84979,  16:-0.80254,  17: 0.97977,  18: 0.96778
    55 |      |   1: 0.64915,  16:-0.79457,  17:-0.46833,  18:0.039045
    56 |      |   1:-0.14782,  19:-0.51799,  20:-0.03564
    57 |      |   1:-0.19027,  19:-0.85684,  20:-0.17981
    58 |      |   1: 0.87843,  19:  1.0073,  20:-0.82733
    59 |      |   1:-0.17117,  19:-0.30124,  20: 0.58825
    60 |      |  24:-0.019136,  25: 0.95458,  26: 0.69836,  27: 0.58945,  28:-0.0088506,  29:  0.9421,  30: 0.62365,  31:0.040994, 
                 32: 0.78144,  33: 0.27147,  34: -0.2689,  35:-0.90178,  36: 0.76025,  37:  1.0233,  38: 0.11949,  39:-0.42513, 
                 40:-0.53303,  41:  1.0469,  42:-0.020805,  43: 0.38488,  44:-0.93138,  45: 0.76246,  46: 0.83084,  47: 0.92269, 
                 48: 0.77239,  49:-0.94325,  50: -0.1887,  51:-0.60587,  52:-0.43043,  53:-0.89287,  54: 0.37261,  55: 0.48844, 
                 56: 0.87097,  57:0.083369,  58: 0.04459,  59:-0.084842
    61 |      |  24:-0.49302,  25: 0.54802,  26:-0.60878,  27:   2.095,  28: -1.1512,  29:-0.40196,  30:  1.0213,  31: -0.5969, 
                 32: 0.57708,  33:-0.93049,  34: -0.1031,  35: 0.55944,  36:-0.17915,  37:-0.78154,  38: 0.55174,  39: -0.5903, 
                 40:-0.89136,  41: 0.74625,  42:-0.46643,  43:-0.57008,  44:-0.55258,  45:-0.12885,  46:-0.62889,  47:-0.64932, 
                 48: -0.3898,  49:-0.74532,  50:-0.51022,  51:0.034331,  52: -0.1331,  53:-0.11863,  54:-0.58494,  55: 0.63818, 
                 56:-0.0062207,  57:-0.20281,  58: 0.51349,  59: 0.60937
    62 |      |  24: 0.36602,  25:-0.64984,  26:  0.6751,  27:  1.1844,  28: 0.40434,  29: 0.46189,  30: -0.2221,  31: 0.94426, 
                 32: 0.35048,  33: 0.41326,  34:-0.72192,  35: 0.13332,  36: 0.99596,  37:-0.26151,  38: 0.59675,  39:-0.40241, 
                 40: 0.42365,  41:-0.79997,  42:-0.18488,  43: 0.52445,  44:-0.44088,  45:-0.67049,  46:-0.11292,  47: 0.74115, 
                 48:-0.44258,  49:-0.42822,  50:-0.29482,  51: 0.62725,  52:-0.57414,  53:-0.41408,  54:  0.4846,  55:   0.923, 
                 56:  0.1147,  57:0.085245,  58: 0.48697,  59:-0.29391
    63 |      |  24:-0.94507,  25:-0.58391,  26: 0.82972,  27:   0.536,  28:-0.13325,  29:-0.0065304,  30:  0.4556,  31: 0.37011, 
                 32:-0.46439,  33:-0.98931,  34: -0.1985,  35:-0.34073,  36:-0.018793,  37:-0.73466,  38:0.020411,  39:  0.1762, 
                 40: 0.12609,  41:-0.20927,  42: 0.91625,  43: 0.95772,  44: 0.52082,  45: 0.47252,  46:-0.60843,  47:-0.82846, 
                 48:0.069734,  49: -0.7791,  50: 0.33916,  51:-0.94785,  52: 0.69329,  53: -1.0947,  54:-0.31319,  55: 0.85659, 
                 56:-0.39373,  57: -0.4863,  58: 0.37932,  59: 0.49242
    64 |      |  24:-0.21577,  25: 0.33621,  26:-0.74304,  27: -1.1282,  28: 0.97182,  29:0.074498,  30: 0.69903,  31:-0.73265, 
                 32:-0.63457,  33: 0.35156,  34: 0.45286,  35:0.069441,  36:0.039734,  37: 0.16292,  38:-0.030838,  39: 0.18923, 
                 40:  0.6948,  41:-0.22407,  42:  1.1904,  43: -0.4544,  44: -1.0629,  45: -0.8924,  46: -1.1443,  47:-0.78888, 
                 48:-0.069528,  49:  1.2186,  50: 0.27857,  51: 0.32008,  52:  0.5629,  53:-0.25793,  54:-0.03695,  55:-0.85726, 
                 56: 0.59763,  57:  0.4077,  58:0.022164,  59: 0.40191
    65 |      |  24:0.033192,  25: 0.84948,  26:-0.34667,  27: -0.7999,  28:0.054593,  29: 0.68583,  30: 0.54393,  31:-0.30371, 
                 32: -0.5949,  33:-0.40902,  34:-0.51249,  35:  0.2868,  36:-0.55034,  37:-0.094708,  38: 0.55487,  39: -0.3471, 
                 40:-0.088396,  41: 0.75242,  42:   0.343,  43:-0.039999,  44:-0.21192,  45:-0.32949,  46:-0.67737,  47: 0.47868, 
                 48: 0.73279,  49:-0.45563,  50:-0.01288,  51: 0.18277,  52: 0.63945,  53:-0.63267,  54:   0.652,  55:-0.35906, 
                 56:-0.96283,  57:-0.75359,  58:-0.053158,  59: 0.23114
    66 |      |  24:-0.10218,  25: 0.83513,  26: -0.4536,  27:  1.1365,  28:-0.76049,  29: 0.69613,  30:  1.0686,  31: 0.30818, 
                 32:-0.028975,  33:-0.67584,  34:-0.81617,  35:-0.13767,  36:  1.1514,  37: 0.24164,  38:  0.6538,  39: -0.8596, 
                 40: 0.39262,  41: 0.41869,  42: -1.0053,  43:-0.91495,  44:  1.3083,  45: 0.43632,  46:   1.175,  47:-0.53116, 
                 48:-0.044444,  49:-0.71737,  50:-0.82493,  51: 0.31754,  52: 0.29843,  53: 0.48701,  54: 0.38845,  55:-0.68279, 
                 56: 0.46392,  57: 0.46404,  58: 0.52227,  59: 0.93971
    67 |      |  24:-0.099621,  25:-0.0092126,  26: -1.0762,  27: 0.61291,  28: 0.31401,  29:-0.21161,  30:0.063216,  31:-0.49841, 
                 32:-0.46901,  33: 0.26547,  34: -1.0025,  35: 0.58491,  36: 0.60239,  37:-0.91298,  38: 0.35477,  39:-0.41654, 
                 40: 0.91235,  41:  0.9466,  42: 0.70999,  43:-0.83332,  44:-0.54064,  45:-0.17271,  46: 0.79126,  47: 0.95029, 
                 48:  -1.028,  49: 0.84094,  50: 0.34741,  51: 0.52993,  52:-0.057832,  53: 0.15068,  54:-0.41317,  55: -1.0168, 
                 56: -0.5573,  57:-0.52161,  58:  0.2503,  59: 0.83606
    68 |      |  24:-0.71869,  25:-0.71747,  26: 0.99042,  27:   1.773,  28: -1.0668,  29: 0.72157,  30: 0.55773,  31:-0.54298, 
                 32:0.0058925,  33: 0.66678,  34:-0.55133,  35:-0.027003,  36: 0.42248,  37:-0.25306,  38:  0.5631,  39:-0.66952, 
                 40: -0.4529,  41: 0.86533,  42:-0.22625,  43:-0.30229,  44:  0.2729,  45:-0.75344,  46: 0.18755,  47:-0.76341, 
                 48: 0.15435,  49: 0.97398,  50:0.061013,  51:-0.16922,  52:-0.07151,  53:-0.38556,  54:-0.39466,  55: 0.26753, 
                 56:-0.0001357,  57:-0.53773,  58:-0.32088,  59: 0.51871
    69 |      |  24: 0.75037,  25:-0.68538,  26: 0.62582,  27:  1.1247,  28:-0.37525,  29:-0.21594,  30: 0.14243,  31: 0.69363, 
                 32:-0.94813,  33: 0.28284,  34:-0.58116,  35: 0.64259,  36:  1.0562,  37:0.063359,  38:-0.23938,  39:  1.0192, 
                 40:-0.50406,  41: 0.25549,  42:-0.56407,  43: -0.8908,  44:  1.0605,  45: 0.78376,  46:0.037548,  47:-0.49083, 
                 48:-0.69438,  49:-0.94946,  50: 0.42991,  51:-0.17434,  52:-0.21406,  53:0.061213,  54:0.092636,  55:-0.43822, 
                 56: 0.36554,  57:-0.68381,  58: 0.79613,  59: -0.7235
    70 |      |  60: -1.4686,  61:  2.0623,  62:  0.6745,  63: 0.39983,  64: -1.9051,  65: -1.0756,  66:  1.9185,  67: 0.54437, 
                 68:  2.0428,  69:  1.1312
-------|------|----------------------------------------------------------------------------------------------------------------
