SNNS network definition file V1.4-3D
generated at Thu May 09 10:11:49 1996

network name : edge_23
source files :
no. of units : 70
no. of connections : 622
no. of unit types : 0
no. of site types : 0


learning function : Std_Backpropagation
update function : Topological_Order


unit default section :

act      | bias     | st | subnet | layer | act func     | out func
---------|----------|----|--------|-------|--------------|-------------
 0.00000 |  0.00000 | h  |      0 |     1 | Act_Logistic | Out_Identity
---------|----------|----|--------|-------|--------------|-------------


unit definition section :

no. | typeName | unitName | act      | bias     | st | position | act func | out func | sites
----|----------|----------|----------|----------|----|----------|----------|----------|-------
  1 |          |           |      0.2 |        0 | i  |  2, 1, 0 |||
  2 |          |           |   1.7981 |        0 | i  |  2, 3, 0 |||
  3 |          |           |    2.849 |        0 | i  |  2, 4, 0 |||
  4 |          |           |      2.8 |        0 | i  |  2, 5, 0 |||
  5 |          |           |   1.6246 |        0 | i  |  2, 7, 0 |||
  6 |          |           | -0.11396 |        0 | i  |  2, 8, 0 |||
  7 |          |           |  0.36116 |        0 | i  |  2, 9, 0 |||
  8 |          |           |  0.76946 |        0 | i  |  2,11, 0 |||
  9 |          |           | -0.017413 |        0 | i  |  2,12, 0 |||
 10 |          |           | -0.28302 |        0 | i  |  2,13, 0 |||
 11 |          |           |   1.0628 |        0 | i  |  2,14, 0 |||
 12 |          |           | -0.55514 |        0 | i  |  2,15, 0 |||
 13 |          |           | -0.35364 |        0 | i  |  2,16, 0 |||
 14 |          |           | -0.82801 |        0 | i  |  2,17, 0 |||
 15 |          |           |  0.38684 |        0 | i  |  2,18, 0 |||
 16 |          |           | -0.19214 |        0 | i  |  2,23, 0 |||
 17 |          |           | -0.34383 |        0 | i  |  2,24, 0 |||
 18 |          |           |  0.46827 |        0 | i  |  2,25, 0 |||
 19 |          |           | -0.53358 |        0 | i  |  2,27, 0 |||
 20 |          |           | -0.47987 |        0 | i  |  2,28, 0 |||
 21 |          |           | -0.44191 |        0 | i  |  2,19, 0 |||
 22 |          |           | -0.48795 |        0 | i  |  2,20, 0 |||
 23 |          |           | -0.43893 |        0 | i  |  2,21, 0 |||
 24 |          |           |  0.76319 | -0.077592 | h  |  7, 3, 0 |||
 25 |          |           |  0.98842 |   1.0005 | h  |  8, 3, 0 |||
 26 |          |           |  0.26078 |  -1.7767 | h  |  7, 4, 0 |||
 27 |          |           |  0.61583 | -0.19916 | h  |  8, 4, 0 |||
 28 |          |           |  0.84737 | -0.83603 | h  |  7, 5, 0 |||
 29 |          |           |  0.96091 | -0.54652 | h  |  8, 5, 0 |||
 30 |          |           |  0.30192 | -0.82907 | h  |  7, 7, 0 |||
 31 |          |           |  0.70461 | -0.66727 | h  |  8, 7, 0 |||
 32 |          |           | 0.083554 |  -1.1294 | h  |  7, 8, 0 |||
 33 |          |           |  0.28011 |  0.35935 | h  |  8, 8, 0 |||
 34 |          |           |  0.33745 |  0.91429 | h  |  7, 9, 0 |||
 35 |          |           |  0.24843 |  0.56108 | h  |  8, 9, 0 |||
 36 |          |           |  0.26901 |  0.19268 | h  |  7,11, 0 |||
 37 |          |           |  0.43377 | -0.014749 | h  |  8,11, 0 |||
 38 |          |           |  0.34835 |  0.72238 | h  |  7,12, 0 |||
 39 |          |           |  0.52444 |  0.64608 | h  |  8,12, 0 |||
 40 |          |           |  0.14359 | -0.18021 | h  |  7,13, 0 |||
 41 |          |           |  0.79784 |   1.0805 | h  |  8,13, 0 |||
 42 |          |           |  0.43349 | -0.40824 | h  |  7,14, 0 |||
 43 |          |           |  0.74172 |  0.59488 | h  |  8,14, 0 |||
 44 |          |           |  0.94608 |  0.57672 | h  |  7,15, 0 |||
 45 |          |           | 0.068866 |    0.433 | h  |  8,15, 0 |||
 46 |          |           |  0.53315 | -0.80997 | h  |  7,16, 0 |||
 47 |          |           |  0.92294 |  0.40343 | h  |  8,16, 0 |||
 48 |          |           |  0.64147 |  0.29217 | h  |  7,17, 0 |||
 49 |          |           |  0.22741 |  0.45938 | h  |  8,17, 0 |||
 50 |          |           |  0.59272 |  0.16351 | h  |  7,22, 0 |||
 51 |          |           |  0.43258 | 0.010423 | h  |  8,22, 0 |||
 52 |          |           |  0.58646 |  0.46009 | h  |  7,23, 0 |||
 53 |          |           |  0.62356 |  0.19724 | h  |  8,23, 0 |||
 54 |          |           |   0.4924 | -0.045437 | h  |  7,24, 0 |||
 55 |          |           |  0.37114 | -0.61301 | h  |  8,24, 0 |||
 56 |          |           |  0.41732 |  -1.0179 | h  |  7,26, 0 |||
 57 |          |           |  0.46167 |  0.05202 | h  |  8,26, 0 |||
 58 |          |           |  0.47382 |  0.48883 | h  |  7,27, 0 |||
 59 |          |           |  0.70845 |  0.48334 | h  |  8,27, 0 |||
 60 |          |           |  0.11114 |   0.5346 | h  | 13,12, 0 |||
 61 |          |           |  0.88173 |  0.25138 | h  | 14,12, 0 |||
 62 |          |           |  0.40546 | -0.56168 | h  | 13,13, 0 |||
 63 |          |           |  0.25586 | -0.36125 | h  | 14,13, 0 |||
 64 |          |           |  0.76208 |  0.86628 | h  | 13,14, 0 |||
 65 |          |           |  0.18639 |  -1.1854 | h  | 14,14, 0 |||
 66 |          |           | 0.011857 |  0.74399 | h  | 13,15, 0 |||
 67 |          |           |  0.74592 |  0.91348 | h  | 14,15, 0 |||
 68 |          |           |  0.28578 | -0.015602 | h  | 13,16, 0 |||
 69 |          |           | 0.099633 |  0.62429 | h  | 14,16, 0 |||
 70 |          |           |  0.21988 | -0.58897 | o  | 18,14, 0 |||
----|----------|----------|----------|----------|----|----------|----------|----------|-------


connection definition section :

target | site | source:weight
-------|------|------------------------------------------------------------------------------------------------------------
    24 |      |   1: 0.63794,   2: 0.61164,   3:-0.055256,   4:0.063534
    25 |      |   1: 0.54326,   2:  1.0803,   3: 0.64443,   4: -0.1575
    26 |      |   1:-0.62135,   2: 0.44743,   3:0.079458,   4:-0.061356
    27 |      |   1: 0.65074,   2: 0.69828,   3: 0.80413,   4: -1.0734
    28 |      |   1: 0.78583,   2:-0.61098,   3: 0.77706,   4: 0.45632
    29 |      |   1: 0.80085,   2:  0.2063,   3:  1.0252,   4: 0.10598
    30 |      |   1: 0.52088,   5:0.068229,   6:-0.24452,   7:-0.69773
    31 |      |   1:-0.90694,   5: 0.90822,   6:-0.88688,   7: 0.39152
    32 |      |   1: -0.9839,   5:-0.75182,   6: 0.85444,   7: 0.69217
    33 |      |   1: -0.8818,   5:-0.51037,   6:  1.4898,   7: -0.3543
    34 |      |   1: 0.10758,   5:-0.88864,   6:-0.50219,   7:-0.62017
    35 |      |   1:-0.24631,   5:-0.92656,   6:    1.01,   7:0.0043314
    36 |      |   1:-0.52984,   8:-0.84071,   9:-0.40141,  10:0.070892,  11:-0.72931,  12:-0.055533,  13: 0.34294,  14:-0.62705, 
                 15:-0.014112,  21: 0.12459,  22:-0.16668,  23: 0.22967
    37 |      |   1:-0.30869,   8:-0.84091,   9:0.075258,  10:-0.65048,  11: 0.41988,  12:0.042158,  13:-0.19501,  14: 0.45747, 
                 15:-0.43663,  21:-0.63286,  22:0.097976,  23:-0.22384
    38 |      |   1:-0.79169,   8:-0.30879,   9:-0.81393,  10:-0.46412,  11:-0.68361,  12:-0.37289,  13: 0.20397,  14: 0.11525, 
                 15:  1.1013,  21: 0.46569,  22: 0.77026,  23: 0.58215
    39 |      |   1:-0.13178,   8: -1.5794,   9:-0.37815,  10: 0.61434,  11: 0.61408,  12:-0.29663,  13:-0.58668,  14:-0.095738, 
                 15:-0.68331,  21: -1.2198,  22: 0.75187,  23: 0.34454
    40 |      |   1:-0.79302,   8:-0.87232,   9:-0.13542,  10:-0.086359,  11:-0.12049,  12:-0.06979,  13: 0.77637,  14: 0.11146, 
                 15: 0.91133,  21: 0.91933,  22: 0.86415,  23:-0.29385
    41 |      |   1: 0.92236,   8:-0.98655,   9:-0.54403,  10: 0.39473,  11: 0.57038,  12:0.030562,  13: 0.84382,  14:-0.47252, 
                 15: 0.62432,  21:0.0093553,  22: 0.99444,  23: -1.2187
    42 |      |   1: 0.72567,   8:-0.60034,   9: 0.69836,  10:-0.33957,  11:  0.8871,  12: 0.77797,  13:0.034411,  14:-0.15103, 
                 15:-0.37789,  21: 0.28744,  22: 0.68891,  23:-0.81782
    43 |      |   1: 0.70605,   8:-0.40571,   9:-0.62314,  10:-0.52634,  11:0.034843,  12:-0.69449,  13:-0.64986,  14: 0.26538, 
                 15: 0.75254,  21:0.092165,  22: 0.30991,  23: 0.13812
    44 |      |   1:-0.029393,   8:-0.40156,   9:-0.050661,  10:-0.02933,  11:  1.4773,  12:-0.50094,  13:-0.60448,  14: 0.14525, 
                 15: 0.91224,  21:  0.2051,  22:-0.36356,  23:-0.48416
    45 |      |   1: -1.0084,   8: -1.2724,   9: 0.15163,  10:-0.75687,  11: -0.3293,  12: 0.12501,  13: 0.22847,  14: 0.52278, 
                 15: 0.42685,  21: 0.88058,  22: 0.78168,  23:  1.2065
    46 |      |   1: 0.63101,   8:-0.47254,   9:-0.10933,  10:-0.058811,  11: 0.98278,  12:  0.4725,  13:-0.52989,  14:-0.63662, 
                 15:-0.85505,  21:-0.050729,  22:-0.21968,  23: 0.30525
    47 |      |   1:-0.061208,   8:  1.5067,   9: 0.36738,  10: 0.73559,  11:-0.19229,  12: 0.20173,  13:-0.12179,  14:-0.80647, 
                 15: 0.56034,  21:-0.84379,  22: 0.45752,  23: -0.8798
    48 |      |   1:-0.58001,   8:-0.86641,   9:0.092088,  10:-0.86527,  11: 0.13597,  12:-0.24259,  13:-0.57953,  14:-0.92712, 
                 15: 0.26357,  21:-0.54918,  22: 0.59715,  23:  1.0847
    49 |      |   1:   1.072,   8:-0.54312,   9:-0.83923,  10:  0.6206,  11:-0.71038,  12:0.012262,  13:-0.50972,  14: 0.36432, 
                 15:-0.53772,  21:-0.24626,  22: -0.2136,  23:  1.0016
    50 |      |   1:-0.046953,  16:  1.2786,  17:-0.74049,  18: 0.45312
    51 |      |   1: -0.6361,  16: 0.60077,  17:-0.38306,  18:-0.36473
    52 |      |   1: 0.47605,  16:-0.35953,  17: 0.04756,  18:-0.55242
    53 |      |   1:0.026686,  16:-0.75072,  17:-0.78613,  18:-0.24009
    54 |      |   1:-0.34262,  16: 0.76105,  17: 0.50321,  18: 0.86024
    55 |      |   1: 0.56702,  16:-0.84889,  17: 0.25283,  18:-0.22187
    56 |      |   1:-0.98149,  19: -0.9103,  20:-0.82243
    57 |      |   1: 0.56939,  19:   0.889,  20:-0.32269
    58 |      |   1:-0.81261,  19:-0.25187,  20:  1.1785
    59 |      |   1:-0.97778,  19:-0.49316,  20: -0.7022
    60 |      |  24: 0.87772,  25:-0.45498,  26: 0.49333,  27:-0.36518,  28: 0.41382,  29:-0.74145,  30: -0.3287,  31: 0.11319, 
                 32:-0.96259,  33:  0.3871,  34:-0.24868,  35:-0.43801,  36:-0.23605,  37:  0.5758,  38:-0.15042,  39:-0.30476, 
                 40: 0.63264,  41: 0.08262,  42:-0.28191,  43: 0.27832,  44:-0.32522,  45: 0.16834,  46:-0.93807,  47: -0.2165, 
                 48:-0.88613,  49: 0.96694,  50:-0.69312,  51:-0.95877,  52:-0.061035,  53:-0.59172,  54: 0.42803,  55:-0.091878, 
                 56:-0.064688,  57: 0.13265,  58: 0.68982,  59:-0.52152
    61 |      |  24:-0.71179,  25: 0.68002,  26: 0.84144,  27: 0.82818,  28:-0.64413,  29:-0.55162,  30:-0.66475,  31: 0.78027, 
                 32: 0.32393,  33: 0.21152,  34: 0.36974,  35:-0.70589,  36: 0.82555,  37:-0.44087,  38: -0.1386,  39:-0.030471, 
                 40:-0.32312,  41: 0.56524,  42:0.052894,  43:-0.52744,  44:  0.8268,  45: 0.14211,  46: 0.40663,  47:-0.75943, 
                 48: -0.4735,  49:-0.67894,  50: 0.14305,  51: 0.70784,  52:  0.9338,  53: 0.57521,  54: 0.23262,  55:-0.87056, 
                 56: 0.10076,  57:-0.044013,  58: 0.83015,  59: 0.33001
    62 |      |  24:-0.90284,  25:-0.016212,  26: -1.5623,  27:-0.33682,  28: -1.5453,  29: -1.2292,  30: 0.15884,  31: 0.24552, 
                 32:-0.34179,  33: -1.2131,  34: 0.52816,  35:-0.61934,  36: 0.37197,  37: -1.5138,  38:-0.88805,  39: -1.5122, 
                 40: 0.24872,  41: 0.93546,  42:-0.13729,  43: 0.53431,  44:  1.1099,  45: -1.5869,  46: 0.84262,  47:  1.4887, 
                 48: 0.11682,  49: 0.74622,  50:-0.62377,  51:-0.71479,  52: 0.76695,  53:  1.2666,  54: 0.14519,  55:  1.0317, 
                 56:-0.23589,  57:  1.0687,  58: 0.32796,  59: 0.11094
    63 |      |  24:-0.91301,  25:-0.26776,  26: 0.52444,  27:-0.92268,  28:-0.76301,  29:-0.42245,  30: 0.30475,  31:-0.45762, 
                 32:0.098071,  33: 0.32343,  34:-0.93748,  35:-0.91055,  36:-0.76188,  37: 0.72663,  38: -1.0566,  39:-0.56383, 
                 40:  0.3026,  41: 0.86234,  42: 0.83592,  43: 0.34874,  44: -0.5551,  45: -1.0309,  46:0.045674,  47:-0.40447, 
                 48: 0.81548,  49:-0.070622,  50: 0.28692,  51: 0.80683,  52: 0.91209,  53: 0.03961,  54:-0.83098,  55:  1.0195, 
                 56: 0.63255,  57: 0.96648,  58:-0.82524,  59: 0.96734
    64 |      |  24: 0.40077,  25:-0.62421,  26:  0.9505,  27:-0.21815,  28:-0.57752,  29:   1.036,  30:-0.18508,  31:-0.80649, 
                 32:-0.80685,  33: 0.26169,  34: 0.73506,  35: 0.86597,  36: 0.17525,  37: 0.11267,  38:-0.78706,  39: 0.55469, 
                 40:-0.90564,  41: -0.5521,  42: 0.44018,  43:-0.15274,  44:  0.8211,  45: 0.27111,  46:-0.35913,  47:-0.29159, 
                 48: 0.48827,  49:-0.44837,  50:-0.66948,  51: 0.46346,  52:-0.33715,  53:-0.77741,  54: 0.99688,  55: 0.97155, 
                 56:-0.44938,  57: 0.84945,  58:-0.29991,  59:-0.07999
    65 |      |  24: 0.86207,  25:-0.26089,  26:  2.0017,  27:-0.06393,  28: 0.10313,  29: 0.79541,  30: 0.49534,  31: 0.80533, 
                 32:  1.3387,  33: 0.41336,  34: 0.18599,  35: -0.7574,  36: -0.5667,  37:-0.44789,  38:-0.82615,  39:  -1.044, 
                 40: 0.40979,  41: -0.3854,  42: 0.37447,  43: 0.38249,  44:-0.10874,  45:-0.22941,  46: -0.6974,  47: 0.15953, 
                 48:-0.35066,  49:-0.96288,  50: 0.59341,  51:-0.40332,  52:-0.037553,  53:-0.56159,  54:-0.56986,  55:-0.55092, 
                 56: 0.73845,  57:-0.51834,  58:-0.13833,  59:-0.55526
    66 |      |  24: 0.62208,  25:-0.66153,  26:-0.010853,  27:-0.073213,  28:-0.31291,  29:-0.34365,  30: 0.34627,  31: 0.17012, 
                 32: 0.24329,  33: 0.81665,  34:-0.91775,  35: 0.74596,  36:-0.39662,  37:-0.72353,  38:-0.23251,  39: -1.1109, 
                 40:-0.31386,  41: -1.0525,  42:0.081707,  43:-0.32654,  44: -1.2283,  45: 0.42123,  46:-0.57871,  47: 0.10151, 
                 48: -1.0966,  49:-0.34197,  50:-0.31061,  51:-0.25892,  52:-0.47844,  53: 0.15558,  54: 0.14104,  55: 0.80284, 
                 56: 0.89874,  57: 0.37526,  58:-0.64001,  59:-0.73618
    67 |      |  24:-0.74506,  25:  0.3611,  26:-0.19068,  27: 0.91672,  28: 0.94136,  29:-0.58621,  30:-0.047458,  31:-0.88952, 
                 32: 0.34403,  33:0.061051,  34:0.024436,  35: 0.52985,  36: 0.96938,  37:-0.61382,  38: 0.62594,  39: 0.66216, 
                 40:-0.097665,  41: -0.5103,  42: 0.92327,  43: -1.0026,  44: 0.32684,  45:-0.28051,  46:-0.33212,  47:-0.24817, 
                 48: 0.71791,  49:-0.42399,  50:-0.20935,  51:-0.0049206,  52: 0.27019,  53:0.079947,  54:-0.10671,  55: 0.53373, 
                 56:-0.47192,  57: 0.57578,  58: 0.40508,  59:-0.63549
    68 |      |  24:-0.12998,  25:-0.33723,  26: 0.92131,  27: 0.79324,  28: 0.96748,  29:-0.10352,  30: 0.46576,  31: -0.8184, 
                 32:-0.49762,  33: 0.22553,  34:-0.16409,  35:-0.012602,  36:-0.13846,  37: 0.13821,  38:-0.40721,  39: 0.92106, 
                 40: 0.86963,  41: 0.14061,  42: 0.56397,  43:-0.79469,  44:-0.94117,  45:-0.34379,  46: 0.49294,  47:  0.1339, 
                 48: 0.33287,  49:-0.083074,  50: 0.82415,  51:0.062363,  52: -0.3626,  53:-0.94249,  54:0.087038,  55:0.018342, 
                 56:-0.27676,  57:-0.69406,  58: -0.5837,  59:-0.59172
    69 |      |  24:-0.74457,  25:-0.75934,  26: 0.74216,  27:  0.3304,  28: 0.36643,  29:-0.81748,  30:-0.83838,  31: -0.7338, 
                 32:-0.30136,  33:-0.97201,  34: 0.66516,  35: 0.70467,  36: 0.18031,  37:  -0.831,  38: 0.94098,  39: 0.96047, 
                 40: 0.71968,  41:-0.39864,  42: 0.25403,  43:-0.33822,  44:-0.46413,  45: -0.6062,  46: 0.27011,  47:-0.52668, 
                 48: 0.16339,  49: -0.8186,  50: 0.45054,  51: 0.43939,  52:-0.072033,  53: 0.63737,  54:-0.69691,  55:-0.079192, 
                 56:-0.99565,  57: 0.54526,  58:-0.96896,  59: 0.22954
    70 |      |  60:-0.090634,  61:-0.093674,  62: -4.1538,  63:-0.71373,  64: 0.31943,  65:   2.357,  66:  1.5757,  67: 0.26533, 
                 68:  0.9844,  69:  1.0177
-------|------|----------------------------------------------------------------------------------------------------------------
