SNNS network definition file V1.4-3D
generated at Thu May 09 10:11:49 1996

network name : edge_23
source files :
no. of units : 70
no. of connections : 622
no. of unit types : 0
no. of site types : 0


learning function : Std_Backpropagation
update function : Topological_Order


unit default section :

act      | bias     | st | subnet | layer | act func     | out func
---------|----------|----|--------|-------|--------------|-------------
 0.00000 |  0.00000 | h  |      0 |     1 | Act_Logistic | Out_Identity
---------|----------|----|--------|-------|--------------|-------------


unit definition section :

no. | typeName | unitName | act      | bias     | st | position | act func | out func | sites
----|----------|----------|----------|----------|----|----------|----------|----------|-------
  1 |          |           |      0.2 |        0 | i  |  2, 1, 0 |||
  2 |          |           |   13.378 |        0 | i  |  2, 3, 0 |||
  3 |          |           |   3.2296 |        0 | i  |  2, 4, 0 |||
  4 |          |           |    5.826 |        0 | i  |  2, 5, 0 |||
  5 |          |           |   10.249 |        0 | i  |  2, 7, 0 |||
  6 |          |           |   20.627 |        0 | i  |  2, 8, 0 |||
  7 |          |           |   7.8884 |        0 | i  |  2, 9, 0 |||
  8 |          |           |   12.231 |        0 | i  |  2,11, 0 |||
  9 |          |           |  -2.1944 |        0 | i  |  2,12, 0 |||
 10 |          |           | -0.53079 |        0 | i  |  2,13, 0 |||
 11 |          |           |  -3.5572 |        0 | i  |  2,14, 0 |||
 12 |          |           |  -2.6143 |        0 | i  |  2,15, 0 |||
 13 |          |           |   2.6327 |        0 | i  |  2,16, 0 |||
 14 |          |           | -0.10478 |        0 | i  |  2,17, 0 |||
 15 |          |           |  0.47288 |        0 | i  |  2,18, 0 |||
 16 |          |           |  -2.2693 |        0 | i  |  2,23, 0 |||
 17 |          |           |   1.6738 |        0 | i  |  2,24, 0 |||
 18 |          |           |  -2.2908 |        0 | i  |  2,25, 0 |||
 19 |          |           |        0 |        0 | i  |  2,27, 0 |||
 20 |          |           |        0 |        0 | i  |  2,28, 0 |||
 21 |          |           |        0 |        0 | i  |  2,19, 0 |||
 22 |          |           |        0 |        0 | i  |  2,20, 0 |||
 23 |          |           |        0 |        0 | i  |  2,21, 0 |||
 24 |          |           |  0.99844 | -0.036507 | h  |  7, 3, 0 |||
 25 |          |           |        1 |  0.92883 | h  |  8, 3, 0 |||
 26 |          |           |  0.98093 |  -1.5867 | h  |  7, 4, 0 |||
 27 |          |           |  0.99547 | -0.072766 | h  |  8, 4, 0 |||
 28 |          |           | 0.0020279 | -0.0028245 | h  |  7, 5, 0 |||
 29 |          |           |  0.99475 | -0.27421 | h  |  8, 5, 0 |||
 30 |          |           | 4.841e-07 | -0.74638 | h  |  7, 7, 0 |||
 31 |          |           | 0.00048005 | -0.59558 | h  |  8, 7, 0 |||
 32 |          |           |  0.99998 |  -1.0351 | h  |  7, 8, 0 |||
 33 |          |           |  0.99999 |  0.16279 | h  |  8, 8, 0 |||
 34 |          |           | 1.7184e-13 |  0.79074 | h  |  7, 9, 0 |||
 35 |          |           |  0.99889 |  0.46999 | h  |  8, 9, 0 |||
 36 |          |           | 0.00042144 |  0.29569 | h  |  7,11, 0 |||
 37 |          |           | 0.0035785 | -0.15379 | h  |  8,11, 0 |||
 38 |          |           |  0.99565 |  0.83282 | h  |  7,12, 0 |||
 39 |          |           | 5.5021e-06 |  0.53272 | h  |  8,12, 0 |||
 40 |          |           | 7.3229e-05 | -0.09968 | h  |  7,13, 0 |||
 41 |          |           | 3.2845e-05 |  0.82252 | h  |  8,13, 0 |||
 42 |          |           | 8.8307e-07 | -0.30719 | h  |  7,14, 0 |||
 43 |          |           | 0.00018482 |   0.2354 | h  |  8,14, 0 |||
 44 |          |           | 1.3455e-06 |  0.52944 | h  |  7,15, 0 |||
 45 |          |           | 6.5426e-06 |  0.45409 | h  |  8,15, 0 |||
 46 |          |           | 1.267e-05 | -0.77313 | h  |  7,16, 0 |||
 47 |          |           |  0.99993 |  0.47305 | h  |  8,16, 0 |||
 48 |          |           | 9.3202e-08 |  0.03394 | h  |  7,17, 0 |||
 49 |          |           | 0.0012572 |  0.15162 | h  |  8,17, 0 |||
 50 |          |           | 0.020238 |  0.34293 | h  |  7,22, 0 |||
 51 |          |           |  0.41118 | -0.0083417 | h  |  8,22, 0 |||
 52 |          |           |  0.80039 |  0.44447 | h  |  7,23, 0 |||
 53 |          |           |  0.60316 | 0.067402 | h  |  8,23, 0 |||
 54 |          |           | 0.031626 | -0.0093179 | h  |  7,24, 0 |||
 55 |          |           |  0.69382 | -0.71589 | h  |  8,24, 0 |||
 56 |          |           |  0.22237 |  -1.0544 | h  |  7,26, 0 |||
 57 |          |           |  0.52924 | 0.015798 | h  |  8,26, 0 |||
 58 |          |           |  0.58115 |  0.49013 | h  |  7,27, 0 |||
 59 |          |           |  0.57239 |  0.48753 | h  |  8,27, 0 |||
 60 |          |           | 0.069127 |  0.42547 | h  | 13,12, 0 |||
 61 |          |           |  0.72904 |  0.18783 | h  | 14,12, 0 |||
 62 |          |           |  0.27821 | -0.34316 | h  | 13,13, 0 |||
 63 |          |           |  0.09126 | -0.47881 | h  | 14,13, 0 |||
 64 |          |           |  0.95083 |  0.89918 | h  | 13,14, 0 |||
 65 |          |           |  0.71316 |  -1.0041 | h  | 14,14, 0 |||
 66 |          |           |  0.74137 |  0.68731 | h  | 13,15, 0 |||
 67 |          |           |  0.96313 |   1.0133 | h  | 14,15, 0 |||
 68 |          |           | 0.026546 | -0.088178 | h  | 13,16, 0 |||
 69 |          |           |  0.54455 |  0.75807 | h  | 14,16, 0 |||
 70 |          |           |  0.99049 |  0.10054 | o  | 18,14, 0 |||
----|----------|----------|----------|----------|----|----------|----------|----------|-------


connection definition section :

target | site | source:weight
-------|------|------------------------------------------------------------------------------------------------------------
    24 |      |   1: 0.64983,   2: 0.64389,   3:-0.45527,   4:-0.13328
    25 |      |   1: 0.52414,   2: 0.97768,   3: 0.55388,   4:-0.24596
    26 |      |   1:-0.49992,   2: 0.33447,   3:-0.038674,   4: 0.21927
    27 |      |   1: 0.67628,   2: 0.69833,   3: 0.68412,   4:  -1.068
    28 |      |   1: 0.95195,   2:-0.74524,   3: 0.17766,   4: 0.51665
    29 |      |   1: 0.85543,   2: 0.38509,   3: 0.57098,   4:-0.28289
    30 |      |   1: 0.58395,   5:-0.0053504,   6:-0.39154,   7:-0.73275
    31 |      |   1: -0.8863,   5: 0.79728,   6:-0.90453,   7: 0.45863
    32 |      |   1:-0.93084,   5:-0.77235,   6:  0.8137,   7: 0.39096
    33 |      |   1: -0.8808,   5: 0.45622,   6: 0.68049,   7:-0.89879
    34 |      |   1:0.083169,   5:-0.91032,   6:-0.69622,   7:-0.82509
    35 |      |   1:-0.19805,   5: -0.5588,   6: 0.70285,   7:-0.30363
    36 |      |   1:-0.50874,   8:-0.92282,   9:-0.36275,  10: 0.16021,  11: -0.4248,  12:-0.14823,  13: 0.22872,  14:-0.74996, 
                 15:0.065772,  21:-0.067598,  22:-0.18849,  23: 0.19603
    37 |      |   1:-0.34735,   8:-0.23252,   9:0.0055637,  10:-0.025199,  11: 0.56066,  12:0.031392,  13:-0.028858,  14:0.086603, 
                 15:-0.84958,  21:0.094301,  22:  0.3849,  23:-0.51264
    38 |      |   1:-0.76381,   8:-0.04872,   9:-0.79536,  10:-0.24622,  11:-0.62282,  12: -0.2777,  13:0.028109,  14: -0.1787, 
                 15: 0.92737,  21: 0.43044,  22: 0.75571,  23:  0.3333
    39 |      |   1:-0.15145,   8:-0.73721,   9:-0.37308,  10:  0.9074,  11: 0.50774,  12: 0.11129,  13:-0.52616,  14:-0.31939, 
                 15: -1.0242,  21: -0.7082,  22: 0.90993,  23:-0.044214
    40 |      |   1:-0.79194,   8:  -1.042,   9:-0.21726,  10:-0.15042,  11:-0.45072,  12: 0.17509,  13: 0.55309,  14: 0.11031, 
                 15:  0.7069,  21: 0.94437,  22: 0.79674,  23:-0.55383
    41 |      |   1: 0.85109,   8:-0.75666,   9:-0.50087,  10: 0.12825,  11: 0.73161,  12: 0.48449,  13: 0.21795,  14:-0.47004, 
                 15: 0.32383,  21:0.098995,  22: 0.73051,  23: -1.1006
    42 |      |   1: 0.77228,   8:-0.60407,   9: 0.69491,  10:-0.20182,  11: 0.66129,  12: 0.81864,  13:-0.11866,  14: -0.3026, 
                 15:-0.43975,  21: 0.65223,  22: 0.72854,  23:-0.84535
    43 |      |   1: 0.60394,   8:-0.85359,   9:-0.52294,  10:-0.34655,  11:-0.041842,  12:-0.60898,  13:-0.65463,  14: 0.63503, 
                 15: 0.43467,  21:0.080776,  22: 0.23824,  23:0.076254
    44 |      |   1:-0.27343,   8:-0.93639,   9:0.016166,  10:-0.36172,  11:  0.8757,  12:-0.31196,  13:-0.20957,  14: 0.39634, 
                 15: 0.41334,  21:-0.22874,  22: 0.35555,  23:-0.61933
    45 |      |   1: -1.0033,   8:-0.97708,   9: 0.18666,  10:-0.60955,  11:-0.092355,  12:-0.20386,  13:-0.42379,  14: 0.32072, 
                 15: 0.28275,  21: 0.73973,  22: 0.82188,  23:  0.9483
    46 |      |   1: 0.45821,   8:-0.54062,   9: -0.2278,  10:-0.44847,  11: 0.67869,  12:  0.4297,  13: -0.3058,  14:-0.43715, 
                 15:-0.89591,  21:-0.42735,  22: 0.38254,  23: 0.16011
    47 |      |   1:-0.065771,   8: 0.90498,   9: 0.36624,  10: 0.28476,  11:  0.2476,  12:  0.3833,  13: 0.19633,  14:-0.54289, 
                 15:  0.6463,  21:-0.99264,  22: 0.18381,  23:-0.79705
    48 |      |   1:-0.63737,   8: -1.1337,   9: 0.16047,  10:-0.60249,  11: 0.56705,  12:-0.42777,  13:-0.55035,  14:-0.83127, 
                 15: 0.13555,  21:-0.40254,  22: 0.70972,  23:  1.0332
    49 |      |   1: 0.93204,   8:-0.87717,   9: -1.2129,  10:0.087887,  11: -0.3847,  12:-0.0051044,  13:-0.0012366,  14: 0.65772, 
                 15:-0.44786,  21:-0.095963,  22: 0.42099,  23: 0.62678
    50 |      |   1: 0.12413,  16: 0.81554,  17:-0.99676,  18: 0.31798
    51 |      |   1:-0.63714,  16: 0.38786,  17: -0.2971,  18:-0.50381
    52 |      |   1:  0.3195,  16: 0.15375,  17: 0.13827,  18:-0.43559
    53 |      |   1:-0.078207,  16:-0.47997,  17:-0.67168,  18:-0.17547
    54 |      |   1:-0.35895,  16: 0.93892,  17: 0.56818,  18: 0.94328
    55 |      |   1: 0.54163,  16:-0.53842,  17: 0.17379,  18:0.038023
    56 |      |   1:-0.98764,  19:-0.93428,  20:-0.82157
    57 |      |   1: 0.50639,  19: 0.43061,  20: -0.6843
    58 |      |   1:-0.81308,  19:-0.12795,  20: 0.83064
    59 |      |   1:-0.97962,  19:-0.16069,  20: -1.0114
    60 |      |  24: 0.80504,  25:-0.57301,  26: 0.51154,  27:-0.47917,  28: 0.61818,  29:-0.77439,  30:-0.40679,  31: 0.11863, 
                 32:-0.87085,  33: 0.31989,  34:-0.36563,  35:-0.48877,  36:-0.24656,  37:  0.5628,  38:-0.19947,  39:-0.29008, 
                 40: 0.58792,  41:-0.022396,  42:-0.28585,  43: 0.17307,  44:-0.43741,  45: 0.08656,  46:-0.98804,  47:-0.29742, 
                 48:-0.98001,  49: 0.92441,  50:-0.68975,  51: -0.9504,  52:-0.12707,  53:-0.67294,  54: 0.40018,  55:-0.16846, 
                 56:-0.09825,  57:0.098285,  58:  0.5709,  59:-0.56872
    61 |      |  24:-0.65341,  25: 0.52934,  26: 0.98103,  27: 0.82648,  28:-0.93279,  29:-0.74014,  30:-0.60876,  31: 0.74475, 
                 32: 0.15628,  33:  0.2045,  34: 0.45539,  35:-0.75976,  36: 0.66388,  37:-0.42027,  38:-0.23745,  39:-0.030908, 
                 40:-0.39973,  41: 0.62254,  42:0.065676,  43:-0.57269,  44: 0.88956,  45: 0.17131,  46: 0.48332,  47:-0.73796, 
                 48:-0.37544,  49:-0.78665,  50:0.038994,  51: 0.59469,  52: 0.89803,  53: 0.46007,  54: 0.28056,  55:-0.91797, 
                 56: 0.10866,  57:-0.056617,  58: 0.78781,  59: 0.32652
    62 |      |  24: -1.0466,  25:0.059187,  26: -1.2093,  27: -0.1474,  28:0.078097,  29:-0.55194,  30: 0.15657,  31: 0.14254, 
                 32: 0.37365,  33: -1.0088,  34: 0.82037,  35:-0.029223,  36:  0.6001,  37:-0.61582,  38: -0.2426,  39:-0.51079, 
                 40: 0.54713,  41:0.078557,  42: -0.0772,  43:  1.1269,  44:  1.1851,  45:-0.41872,  46: 0.89331,  47: 0.51625, 
                 48: 0.81238,  49:  1.0266,  50:-0.075638,  51:-0.48562,  52: 0.73666,  53:   1.043,  54: 0.77396,  55: 0.80484, 
                 56: 0.13759,  57: 0.94885,  58: 0.16331,  59: 0.73274
    63 |      |  24:-0.95567,  25:-0.38623,  26: 0.62849,  27:-0.93508,  28:-0.62173,  29:-0.41655,  30: 0.22514,  31:-0.53504, 
                 32: 0.27526,  33: 0.31925,  34: -1.0289,  35:-0.87836,  36:-0.85775,  37: 0.79909,  38:-0.86297,  39:-0.58919, 
                 40: 0.51718,  41: 0.63223,  42: 0.88477,  43: 0.36223,  44:-0.72009,  45:-0.75323,  46:-0.06891,  47:-0.73394, 
                 48: 0.82692,  49: -0.1893,  50: 0.35862,  51: 0.83172,  52: 0.78352,  53:-0.049169,  54:-0.82144,  55:  0.9144, 
                 56: 0.57409,  57: 0.91555,  58:-0.93095,  59: 0.87065
    64 |      |  24: 0.57812,  25:-0.60398,  26:  1.2433,  27:-0.0016943,  28:-0.82381,  29:  1.0968,  30:-0.15603,  31:-0.80765, 
                 32:-0.81344,  33: 0.33705,  34: 0.74362,  35: 0.89237,  36:  0.1556,  37:0.098283,  38:-0.78625,  39: 0.50038, 
                 40:-0.88594,  41:-0.45376,  42: 0.38611,  43:-0.21691,  44: 0.85403,  45: 0.35676,  46: -0.2421,  47:-0.12155, 
                 48: 0.64517,  49:-0.40031,  50:-0.63297,  51:  0.4166,  52:-0.34116,  53:-0.83921,  54:  1.1189,  55: 0.94404, 
                 56:-0.44913,  57: 0.93271,  58:-0.28679,  59:-0.042728
    65 |      |  24: 0.63541,  25:-0.039383,  26:  1.5418,  27:-0.0074445,  28: -0.7479,  29: 0.72971,  30: 0.80905,  31: 0.66203, 
                 32: 0.88117,  33:  0.5316,  34: 0.65997,  35: -0.6989,  36:-0.65627,  37:-0.54074,  38:-0.91902,  39: -1.2981, 
                 40: 0.34448,  41:-0.32193,  42: 0.19309,  43: 0.43431,  44:-0.093763,  45:-0.26225,  46:-0.65243,  47: 0.27806, 
                 48: -0.4406,  49:-0.67236,  50: 0.62834,  51:-0.44302,  52:0.0042644,  53:-0.34399,  54:-0.65611,  55:-0.39745, 
                 56:  0.7586,  57:-0.56547,  58: 0.24938,  59:-0.57451
    66 |      |  24:  0.5763,  25:-0.49328,  26:-0.14881,  27: 0.22326,  28: -1.1681,  29:-0.26547,  30: 0.52826,  31:0.018163, 
                 32:-0.30866,  33: 0.66878,  34:-0.64853,  35: 0.56765,  36:-0.28284,  37:-0.78292,  38:-0.27026,  39: -1.1485, 
                 40:-0.21765,  41:-0.78952,  42:-0.17654,  43: 0.03175,  44:-0.93907,  45: 0.58622,  46:-0.49324,  47:0.042375, 
                 48:-0.83802,  49:-0.10455,  50:-0.43786,  51:-0.45704,  52:-0.53019,  53:  0.2722,  54:0.013018,  55: 0.85905, 
                 56: 0.89122,  57: 0.29486,  58:-0.47161,  59: -0.7742
    67 |      |  24:-0.69058,  25: 0.44424,  26:-0.23971,  27: 0.92885,  28: 0.84131,  29:-0.59398,  30:-0.0092482,  31:-0.81013, 
                 32: 0.28133,  33: 0.08882,  34:0.027315,  35: 0.51441,  36: 0.97358,  37:-0.62781,  38: 0.66437,  39: 0.65673, 
                 40:-0.084163,  41:-0.39925,  42: 0.90015,  43:-0.93915,  44: 0.40232,  45:-0.32775,  46:-0.32411,  47:-0.10093, 
                 48: 0.70844,  49:-0.36249,  50:-0.17428,  51:0.021743,  52: 0.32896,  53: 0.16653,  54:-0.097694,  55: 0.60094, 
                 56: -0.4522,  57: 0.62026,  58: 0.48335,  59:-0.59223
    68 |      |  24:-0.52173,  25:-0.45656,  26: 0.28327,  27: 0.47863,  28: 0.65319,  29:-0.35855,  30: 0.49516,  31:-0.98808, 
                 32:-0.65034,  33: 0.21057,  34:-0.10568,  35:-0.049106,  36:0.0067867,  37:-0.032155,  38:-0.64907,  39: 0.74379, 
                 40: 0.63898,  41:  0.2192,  42: 0.47614,  43:-0.73255,  44:-0.94508,  45:-0.50449,  46: 0.57546,  47: 0.16662, 
                 48: 0.39793,  49:0.090706,  50: 0.67901,  51: -0.0509,  52:-0.38587,  53: -0.9239,  54:-0.008288,  55:0.058969, 
                 56:-0.31609,  57:-0.79609,  58:-0.43642,  59:-0.67858
    69 |      |  24:-0.78217,  25:-0.66356,  26: 0.60356,  27:   0.374,  28: 0.16385,  29:-0.81965,  30: -0.7437,  31:-0.85758, 
                 32:-0.38254,  33:-0.78198,  34: 0.73716,  35:  0.8251,  36: 0.27528,  37:-0.99058,  38: 0.82752,  39: 0.82194, 
                 40:  0.7071,  41:-0.089394,  42: 0.27974,  43: -0.3472,  44:-0.42184,  45: -0.6785,  46: 0.39857,  47:-0.19932, 
                 48: 0.21001,  49: -0.6506,  50: 0.35582,  51: 0.37676,  52:0.024283,  53: 0.71243,  54:-0.69324,  55:0.062141, 
                 56: -0.9985,  57: 0.60682,  58:-0.74315,  59: 0.23838
    70 |      |  60: -0.2044,  61: 0.73866,  62: -1.8136,  63: -0.2583,  64:  1.2588,  65:  1.9204,  66:  1.5332,  67: 0.37549, 
                 68: 0.71256,  69: 0.85532
-------|------|----------------------------------------------------------------------------------------------------------------
