SNNS network definition file V1.4-3D
generated at Thu May 09 10:11:49 1996

network name : edge_23
source files :
no. of units : 70
no. of connections : 622
no. of unit types : 0
no. of site types : 0


learning function : Std_Backpropagation
update function : Topological_Order


unit default section :

act      | bias     | st | subnet | layer | act func     | out func
---------|----------|----|--------|-------|--------------|-------------
 0.00000 |  0.00000 | h  |      0 |     1 | Act_Logistic | Out_Identity
---------|----------|----|--------|-------|--------------|-------------


unit definition section :

no. | typeName | unitName | act      | bias     | st | position | act func | out func | sites
----|----------|----------|----------|----------|----|----------|----------|----------|-------
  1 |          |           |        0 |        0 | i  |  2, 1, 0 |||
  2 |          |           |  0.56947 |        0 | i  |  2, 3, 0 |||
  3 |          |           | -0.28866 |        0 | i  |  2, 4, 0 |||
  4 |          |           | 0.088046 |        0 | i  |  2, 5, 0 |||
  5 |          |           |  -1.3908 |        0 | i  |  2, 7, 0 |||
  6 |          |           | -0.44113 |        0 | i  |  2, 8, 0 |||
  7 |          |           |    1.187 |        0 | i  |  2, 9, 0 |||
  8 |          |           | -0.025746 |        0 | i  |  2,11, 0 |||
  9 |          |           | -0.22851 |        0 | i  |  2,12, 0 |||
 10 |          |           |  -0.5453 |        0 | i  |  2,13, 0 |||
 11 |          |           |  0.29179 |        0 | i  |  2,14, 0 |||
 12 |          |           |  0.72174 |        0 | i  |  2,15, 0 |||
 13 |          |           |   0.7011 |        0 | i  |  2,16, 0 |||
 14 |          |           |  -0.5638 |        0 | i  |  2,17, 0 |||
 15 |          |           |  0.69791 |        0 | i  |  2,18, 0 |||
 16 |          |           |  -0.1643 |        0 | i  |  2,23, 0 |||
 17 |          |           |  0.85932 |        0 | i  |  2,24, 0 |||
 18 |          |           | -0.41753 |        0 | i  |  2,25, 0 |||
 19 |          |           |        0 |        0 | i  |  2,27, 0 |||
 20 |          |           |        0 |        0 | i  |  2,28, 0 |||
 21 |          |           |        0 |        0 | i  |  2,19, 0 |||
 22 |          |           |        0 |        0 | i  |  2,20, 0 |||
 23 |          |           |        0 |        0 | i  |  2,21, 0 |||
 24 |          |           |  0.28189 |  -1.0851 | h  |  7, 3, 0 |||
 25 |          |           |   0.6222 |  0.85078 | h  |  8, 3, 0 |||
 26 |          |           |  0.76714 |  0.89201 | h  |  7, 4, 0 |||
 27 |          |           |  0.75902 |   0.5086 | h  |  8, 4, 0 |||
 28 |          |           |  0.74925 |   1.1454 | h  |  7, 5, 0 |||
 29 |          |           |  0.49101 |  0.24281 | h  |  8, 5, 0 |||
 30 |          |           |  0.53408 | -0.99749 | h  |  7, 7, 0 |||
 31 |          |           |  0.46372 | -0.79242 | h  |  8, 7, 0 |||
 32 |          |           |  0.83165 |  0.83376 | h  |  7, 8, 0 |||
 33 |          |           |  0.67954 | -0.16684 | h  |  8, 8, 0 |||
 34 |          |           |  0.67373 | 0.012182 | h  |  7, 9, 0 |||
 35 |          |           |  0.34335 | -0.49392 | h  |  8, 9, 0 |||
 36 |          |           |  0.23185 | 0.065005 | h  |  7,11, 0 |||
 37 |          |           |  0.54117 |  0.39227 | h  |  8,11, 0 |||
 38 |          |           |  0.68062 |  0.71951 | h  |  7,12, 0 |||
 39 |          |           |  0.82836 |  0.88606 | h  |  8,12, 0 |||
 40 |          |           |  0.57444 |  0.51953 | h  |  7,13, 0 |||
 41 |          |           |  0.46955 |  0.36621 | h  |  8,13, 0 |||
 42 |          |           |  0.46434 | -0.39748 | h  |  7,14, 0 |||
 43 |          |           |  0.79628 | -0.53973 | h  |  8,14, 0 |||
 44 |          |           |  0.34089 | -0.10913 | h  |  7,15, 0 |||
 45 |          |           |  0.84034 |  0.83003 | h  |  8,15, 0 |||
 46 |          |           | 0.041181 | -0.63155 | h  |  7,16, 0 |||
 47 |          |           |  0.87462 |  0.23929 | h  |  8,16, 0 |||
 48 |          |           |    0.895 | -0.087975 | h  |  7,17, 0 |||
 49 |          |           |  0.33488 | -0.68926 | h  |  8,17, 0 |||
 50 |          |           |  0.78191 | -0.034224 | h  |  7,22, 0 |||
 51 |          |           |  0.64351 |  0.31835 | h  |  8,22, 0 |||
 52 |          |           |   0.2288 | -0.82475 | h  |  7,23, 0 |||
 53 |          |           |  0.53578 |   0.1411 | h  |  8,23, 0 |||
 54 |          |           |  0.82566 |  0.81493 | h  |  7,24, 0 |||
 55 |          |           |   0.3996 | -0.031089 | h  |  8,24, 0 |||
 56 |          |           |  0.36827 | -0.53963 | h  |  7,26, 0 |||
 57 |          |           |  0.42198 | -0.31463 | h  |  8,26, 0 |||
 58 |          |           |  0.46338 | -0.14675 | h  |  7,27, 0 |||
 59 |          |           |  0.48632 | -0.054746 | h  |  8,27, 0 |||
 60 |          |           |   0.9973 |  0.11386 | h  | 13,12, 0 |||
 61 |          |           |  0.31728 |  0.84691 | h  | 14,12, 0 |||
 62 |          |           |   0.9744 | -0.31142 | h  | 13,13, 0 |||
 63 |          |           |  0.72695 |  0.66914 | h  | 14,13, 0 |||
 64 |          |           |  0.96597 | -0.24986 | h  | 13,14, 0 |||
 65 |          |           |  0.88582 |   1.1256 | h  | 14,14, 0 |||
 66 |          |           |  0.09845 | 0.032143 | h  | 13,15, 0 |||
 67 |          |           |  0.39209 |  0.37161 | h  | 14,15, 0 |||
 68 |          |           |  0.31028 | -0.57677 | h  | 13,16, 0 |||
 69 |          |           |  0.23001 | -0.0070415 | h  | 14,16, 0 |||
 70 |          |           | 0.023172 | -0.41139 | o  | 18,14, 0 |||
----|----------|----------|----------|----------|----|----------|----------|----------|-------


connection definition section :

target | site | source:weight
-------|------|------------------------------------------------------------------------------------------------------------
    24 |      |   1: 0.83253,   2: 0.64222,   3: 0.49721,   4:-0.81998
    25 |      |   1:-0.27626,   2:-0.26839,   3: 0.85488,   4: 0.54202
    26 |      |   1: 0.25418,   2: 0.90293,   3: 0.94981,   4: 0.68358
    27 |      |   1:-0.94486,   2: 0.89753,   3:-0.27701,   4:  0.5408
    28 |      |   1:0.045436,   2: -0.2566,   3:-0.49692,   4:-0.54615
    29 |      |   1: 0.30825,   2:-0.21637,   3: 0.79264,   4: 0.83199
    30 |      |   1:-0.98107,   5:0.018295,   6: 0.70069,   7:  1.2372
    31 |      |   1: 0.10792,   5:-0.49671,   6:-0.44878,   7:-0.20369
    32 |      |   1:-0.40326,   5:-0.75402,   6:-0.73598,   7:-0.51369
    33 |      |   1:-0.83673,   5:-0.34294,   6:-0.18816,   7: 0.30204
    34 |      |   1: 0.23569,   5: 0.13196,   6: -1.2458,   7: 0.29225
    35 |      |   1:-0.17574,   5:-0.68167,   6: 0.73627,   7:-0.65524
    36 |      |   1:-0.73716,   8: -1.0027,   9:-0.92021,  10: 0.85829,  11: 0.89772,  12:-0.82264,  13:-0.81915,  14:-0.33271, 
                 15:-0.44771,  21: 0.26896,  22:-0.10577,  23: 0.68694
    37 |      |   1: 0.12259,   8:-0.62399,   9:0.089863,  10: 0.09758,  11:-0.39126,  12:-0.48009,  13:-0.53358,  14:  0.0809, 
                 15:  1.0185,  21:0.058416,  22:-0.63429,  23:0.085644
    38 |      |   1: 0.13896,   8: 0.61877,   9:-0.90036,  10: 0.53332,  11:-0.30163,  12:-0.28553,  13:0.030211,  14: -0.3013, 
                 15: 0.34555,  21: 0.66526,  22:-0.10177,  23:-0.54334
    39 |      |   1: 0.94677,   8: 0.85589,   9:-0.41024,  10: 0.49452,  11:-0.54119,  12: 0.78447,  13: 0.86919,  14:  0.5414, 
                 15: 0.24867,  21:-0.64017,  22:-0.92185,  23: 0.18745
    40 |      |   1: 0.84237,   8: -1.3301,   9:-0.81239,  10:-0.25679,  11: 0.11428,  12: 0.34972,  13:-0.66858,  14:0.037063, 
                 15:-0.53816,  21:-0.051334,  22: 0.92908,  23: 0.43765
    41 |      |   1: 0.72755,   8:-0.30261,   9:-0.77687,  10:  1.1633,  11:0.091862,  12:-0.37388,  13:0.0055175,  14: 0.27222, 
                 15:  0.5065,  21:   0.774,  22: 0.13131,  23: 0.58243
    42 |      |   1:-0.92263,   8: -1.0518,   9: 0.51858,  10: 0.27774,  11:  1.3107,  12: 0.18726,  13: 0.57108,  14: 0.25198, 
                 15:-0.39898,  21:-0.34805,  22: 0.28956,  23:-0.039965
    43 |      |   1: 0.76188,   8:  1.3053,   9:-0.75463,  10: 0.20807,  11:-0.076744,  12:  1.0874,  13: 0.43667,  14: 0.42384, 
                 15:  1.5016,  21: 0.11228,  22: 0.67184,  23: 0.10512
    44 |      |   1: 0.47299,   8: 0.28809,   9: 0.42587,  10: 0.38818,  11:-0.83056,  12: 0.49625,  13: 0.16014,  14: 0.85927, 
                 15:0.032359,  21: 0.51307,  22:-0.17517,  23:-0.67347
    45 |      |   1:-0.013229,   8: 0.52415,   9:-0.71089,  10: 0.77721,  11: 0.39389,  12: 0.86093,  13: 0.48821,  14: 0.52417, 
                 15: 0.46209,  21:-0.84387,  22: 0.35185,  23: 0.58638
    46 |      |   1:0.028923,   8: -0.1793,   9: 0.32953,  10:  1.1097,  11:  1.2218,  12:  0.1679,  13: -1.0265,  14: 0.94015, 
                 15: -1.5307,  21:0.093091,  22:0.022331,  23: 0.45763
    47 |      |   1:-0.78903,   8:-0.54222,   9:0.051252,  10: -0.1597,  11: 0.52719,  12: 0.96133,  13:  -0.109,  14: 0.13993, 
                 15:  1.3204,  21:   0.503,  22: 0.38366,  23: 0.13324
    48 |      |   1: -0.1745,   8:  1.0122,   9:-0.61463,  10:-0.12541,  11:0.050586,  12: 0.70295,  13:  0.9516,  14:-0.0084078, 
                 15:  1.2237,  21:-0.19846,  22:-0.96403,  23: -1.0594
    49 |      |   1:-0.83561,   8:-0.42989,   9: 0.66172,  10: 0.14948,  11:-0.54719,  12: 0.72137,  13: 0.49001,  14: 0.43825, 
                 15:-0.33343,  21:-0.12087,  22: 0.58165,  23:-0.43385
    50 |      |   1: 0.23675,  16: -1.4183,  17: 0.65339,  18: -1.2372
    51 |      |   1:-0.56369,  16:  1.1359,  17: 0.73835,  18: 0.42051
    52 |      |   1:0.049129,  16:0.074681,  17:-0.64818,  18:-0.42853
    53 |      |   1:-0.52247,  16:-0.43556,  17:-0.22664,  18:-0.30052
    54 |      |   1:-0.77063,  16: -1.1771,  17:  0.9614,  18: 0.66893
    55 |      |   1: 0.67932,  16:-0.59577,  17:-0.45486,  18: 0.19889
    56 |      |   1:-0.21703,  19:-0.53055,  20: 0.11722
    57 |      |   1:-0.20329,  19:-0.80367,  20:-0.092825
    58 |      |   1:   0.741,  19: 0.93131,  20:-0.94715
    59 |      |   1:-0.26041,  19:-0.32797,  20: 0.67973
    60 |      |  24: 0.08461,  25: 0.96731,  26: 0.84086,  27: 0.73274,  28: 0.14672,  29: 0.95437,  30: 0.67668,  31:0.023945, 
                 32: 0.79317,  33:  0.2737,  34:-0.28432,  35:-0.80543,  36: 0.81514,  37:  1.0534,  38:0.079521,  39:-0.36551, 
                 40:-0.43821,  41:  1.0536,  42:-0.0023129,  43: 0.31738,  44: -0.7534,  45: 0.80941,  46:  0.9879,  47: 0.90206, 
                 48: 0.76427,  49:-0.88374,  50:-0.23992,  51:-0.44569,  52:-0.47405,  53:-0.92192,  54: 0.51467,  55: 0.53101, 
                 56: 0.91889,  57: 0.13572,  58: 0.10643,  59:-0.020099
    61 |      |  24: 0.23042,  25: 0.99709,  26:-0.32083,  27: 0.93604,  28:-0.47483,  29:-0.13765,  30:   1.127,  31:-0.42768, 
                 32:  0.5589,  33:-0.72915,  34:-0.14799,  35: 0.86582,  36: 0.41942,  37:-0.65938,  38: 0.64545,  39: -0.5276, 
                 40:-0.39902,  41: 0.82037,  42:-0.27359,  43: -0.9146,  44:-0.54793,  45:-0.26442,  46:  0.4576,  47:-0.48248, 
                 48: -1.1456,  49:-0.64772,  50: -1.1253,  51: 0.68847,  52: 0.12988,  53:0.058585,  54:-0.75943,  55: 0.75204, 
                 56: 0.17529,  57:-0.035873,  58: 0.72032,  59: 0.86372
    62 |      |  24: 0.33833,  25:-0.46499,  26: 0.78429,  27: 0.61494,  28: 0.69994,  29: 0.50262,  30:-0.40352,  31:  1.0196, 
                 32: 0.50001,  33: 0.50454,  34:-0.61418,  35: 0.29982,  36: 0.93015,  37:-0.34097,  38: 0.62573,  39:-0.21084, 
                 40:  0.5169,  41:-0.85527,  42:0.066555,  43: 0.65555,  44:-0.59067,  45:-0.53313,  46: -0.1462,  47: 0.72874, 
                 48:-0.28313,  49:  -0.248,  50:-0.049931,  51: 0.68471,  52: -0.4919,  53:-0.28638,  54: 0.56262,  55: 0.94621, 
                 56: 0.16349,  57: 0.14358,  58:  0.5065,  59:-0.22656
    63 |      |  24:-0.80971,  25:-0.36188,  26: 0.95601,  27: 0.51178,  28:-0.25728,  29:0.069296,  30: 0.35451,  31: 0.40395, 
                 32:-0.43788,  33:-0.96034,  34:-0.15561,  35:-0.21843,  36: 0.12554,  37:-0.61938,  38:0.046767,  39: 0.27385, 
                 40: 0.28857,  41:-0.23972,  42:   1.093,  43:  1.0665,  44: 0.56977,  45: 0.48744,  46:-0.44282,  47:-0.72078, 
                 48:-0.0010924,  49:-0.61464,  50: 0.26016,  51:-0.79449,  52: 0.79021,  53:-0.99732,  54:-0.41515,  55: 0.86296, 
                 56:-0.35737,  57:-0.43334,  58: 0.41217,  59: 0.60077
    64 |      |  24:-0.98111,  25: 0.22026,  26:-0.51267,  27:-0.23126,  28:   1.242,  29: 0.23753,  30:  0.5488,  31:-0.48146, 
                 32:-0.20927,  33: 0.65341,  34: 0.99078,  35: 0.57834,  36: 0.58695,  37: 0.81431,  38:-0.17169,  39:0.085274, 
                 40:   1.346,  41:  0.1091,  42: 0.89753,  43:-0.53333,  44:-0.61468,  45:-0.55806,  46: -0.9254,  47:-0.36304, 
                 48:-0.16623,  49: 0.98778,  50: 0.51746,  51: 0.41681,  52: 0.55382,  53:-0.18286,  54: 0.33955,  55:-0.59697, 
                 56: 0.60256,  57: 0.47528,  58: 0.20396,  59: 0.60834
    65 |      |  24: 0.11022,  25: 0.79817,  26:-0.13121,  27:-0.52931,  28: 0.14003,  29: 0.80399,  30: 0.62921,  31:-0.38891, 
                 32:-0.65073,  33:-0.55687,  34:-0.40817,  35: 0.32327,  36:-0.51833,  37: -0.1417,  38: 0.50369,  39:-0.35031, 
                 40:0.084123,  41: 0.75837,  42: 0.42692,  43:0.094843,  44:-0.075194,  45:-0.27514,  46:-0.75904,  47: 0.47688, 
                 48: 0.94719,  49: -0.2559,  50:-0.037548,  51: 0.24774,  52: 0.75746,  53:-0.55614,  54: 0.53841,  55:-0.24272, 
                 56: -0.9323,  57:-0.69037,  58:0.067654,  59: 0.31148
    66 |      |  24: 0.70249,  25:  1.0173,  26:-0.60511,  27: 0.31865,  28:-0.82547,  29: 0.66618,  30:  1.5282,  31: 0.11996, 
                 32:-0.45296,  33:-0.65541,  34:  -1.318,  35:0.079259,  36:  1.2398,  37:0.067851,  38: 0.42435,  39:   -1.15, 
                 40: 0.78712,  41: 0.12736,  42:-0.57994,  43: -1.1174,  44: 0.97576,  45:0.090748,  46:  1.7475,  47:-0.65968, 
                 48:-0.71793,  49:-0.50814,  50:   -1.33,  51: 0.58362,  52: 0.36749,  53: 0.39995,  54:-0.011322,  55:-0.95762, 
                 56: 0.47697,  57: 0.35639,  58: 0.19282,  59: 0.99781
    67 |      |  24: 0.15986,  25: 0.17855,  26:-0.98266,  27: 0.26376,  28: 0.29285,  29:-0.10018,  30:-0.019055,  31:-0.48397, 
                 32:-0.53161,  33: 0.26112,  34: -1.0687,  35: 0.60923,  36: 0.51121,  37:-0.91743,  38: 0.65724,  39:-0.26869, 
                 40: 0.79549,  41:  1.0009,  42: 0.72038,  43:-0.74087,  44:-0.63597,  45:-0.13532,  46:  0.8802,  47: 0.85645, 
                 48: -1.0037,  49: 0.79451,  50: 0.30589,  51: 0.55706,  52:0.066748,  53: 0.24646,  54:-0.50121,  55:-0.96381, 
                 56:-0.53953,  57:-0.49842,  58: 0.27851,  59: 0.86425
    68 |      |  24:-0.06112,  25:-0.15061,  26:  1.2752,  27: 0.78945,  28:-0.71741,  29: 0.97891,  30: 0.60771,  31:-0.41343, 
                 32:-0.0004631,  33: 0.84007,  34:-0.75505,  35: 0.36481,  36: 0.98923,  37:-0.072108,  38: 0.50017,  39:-0.68985, 
                 40:0.012769,  41: 0.72931,  42:-0.21416,  43:-0.48762,  44: 0.18358,  45:-0.86561,  46:  1.2715,  47:-0.44451, 
                 48:-0.69275,  49: 0.81386,  50:-0.55945,  51: 0.56003,  52:-0.015179,  53:-0.34739,  54:-0.42213,  55: 0.18581, 
                 56: 0.15064,  57:-0.42129,  58:-0.31186,  59: 0.78856
    69 |      |  24:  1.2054,  25:-0.43149,  26: 0.47488,  27: 0.66053,  28:-0.24488,  29:-0.12337,  30: 0.40214,  31: 0.66874, 
                 32:-0.98851,  33: 0.22256,  34:-0.96309,  35: 0.32928,  36:  1.0158,  37:-0.11854,  38:-0.044763,  39:  1.0438, 
                 40:-0.69239,  41: 0.13943,  42: -0.5398,  43: -1.0061,  44: 0.83223,  45: 0.64193,  46: 0.14174,  47:-0.59731, 
                 48:-0.81642,  49:-0.94874,  50: 0.41138,  51:-0.27566,  52:-0.095626,  53:  0.2175,  54:0.037888,  55:-0.47853, 
                 56: 0.44745,  57: -0.6284,  58: 0.73328,  59: -0.8437
    70 |      |  60: -1.2377,  61:  1.3322,  62:-0.66883,  63:-0.56667,  64: -1.8396,  65: -0.9487,  66:  2.5514,  67: 0.40355, 
                 68:   1.502,  69:  1.2487
-------|------|----------------------------------------------------------------------------------------------------------------
