SNNS network definition file V1.4-3D
generated at Thu May 09 10:11:49 1996

network name : edge_23
source files :
no. of units : 70
no. of connections : 622
no. of unit types : 0
no. of site types : 0


learning function : Std_Backpropagation
update function : Topological_Order


unit default section :

act      | bias     | st | subnet | layer | act func     | out func
---------|----------|----|--------|-------|--------------|-------------
 0.00000 |  0.00000 | h  |      0 |     1 | Act_Logistic | Out_Identity
---------|----------|----|--------|-------|--------------|-------------


unit definition section :

no. | typeName | unitName | act      | bias     | st | position | act func | out func | sites
----|----------|----------|----------|----------|----|----------|----------|----------|-------
  1 |          |           |   0.4264 |        0 | i  |  2, 1, 0 |||
  2 |          |           |   17.807 |        0 | i  |  2, 3, 0 |||
  3 |          |           |   10.346 |        0 | i  |  2, 4, 0 |||
  4 |          |           |    10.66 |        0 | i  |  2, 5, 0 |||
  5 |          |           |   10.365 |        0 | i  |  2, 7, 0 |||
  6 |          |           |   2.2711 |        0 | i  |  2, 8, 0 |||
  7 |          |           |   5.1168 |        0 | i  |  2, 9, 0 |||
  8 |          |           |   8.5535 |        0 | i  |  2,11, 0 |||
  9 |          |           |  -1.7304 |        0 | i  |  2,12, 0 |||
 10 |          |           |   3.6459 |        0 | i  |  2,13, 0 |||
 11 |          |           | -0.098688 |        0 | i  |  2,14, 0 |||
 12 |          |           | 0.014052 |        0 | i  |  2,15, 0 |||
 13 |          |           |    1.608 |        0 | i  |  2,16, 0 |||
 14 |          |           | 0.041765 |        0 | i  |  2,17, 0 |||
 15 |          |           |   3.4478 |        0 | i  |  2,18, 0 |||
 16 |          |           |   2.1371 |        0 | i  |  2,23, 0 |||
 17 |          |           |  -2.6847 |        0 | i  |  2,24, 0 |||
 18 |          |           | -0.85667 |        0 | i  |  2,25, 0 |||
 19 |          |           |        1 |        0 | i  |  2,27, 0 |||
 20 |          |           |    23.73 |        0 | i  |  2,28, 0 |||
 21 |          |           |    23.73 |        0 | i  |  2,19, 0 |||
 22 |          |           |     -0.2 |        0 | i  |  2,20, 0 |||
 23 |          |           |   10.817 |        0 | i  |  2,21, 0 |||
 24 |          |           |        1 | -0.31314 | h  |  7, 3, 0 |||
 25 |          |           |        1 |  0.25345 | h  |  8, 3, 0 |||
 26 |          |           |  0.97599 | -0.09991 | h  |  7, 4, 0 |||
 27 |          |           |  0.99532 | -0.43555 | h  |  8, 4, 0 |||
 28 |          |           |  0.99755 |  0.44748 | h  |  7, 5, 0 |||
 29 |          |           | 0.0059529 |   1.6109 | h  |  8, 5, 0 |||
 30 |          |           |  0.99958 | -0.19592 | h  |  7, 7, 0 |||
 31 |          |           | 0.0046147 |  0.58024 | h  |  8, 7, 0 |||
 32 |          |           | 0.041493 |  0.40208 | h  |  7, 8, 0 |||
 33 |          |           |  0.84828 |  -1.0792 | h  |  8, 8, 0 |||
 34 |          |           |        1 |  -0.4835 | h  |  7, 9, 0 |||
 35 |          |           | 6.9224e-05 |   -0.572 | h  |  8, 9, 0 |||
 36 |          |           | 5.6045e-11 |  0.19971 | h  |  7,11, 0 |||
 37 |          |           |        1 | -0.84182 | h  |  8,11, 0 |||
 38 |          |           | 0.021714 |   1.0745 | h  |  7,12, 0 |||
 39 |          |           | 2.5476e-12 |  0.77608 | h  |  8,12, 0 |||
 40 |          |           | 4.9978e-06 |  0.61411 | h  |  7,13, 0 |||
 41 |          |           | 1.8357e-07 |   0.8045 | h  |  8,13, 0 |||
 42 |          |           |  0.99998 |  -0.8598 | h  |  7,14, 0 |||
 43 |          |           | 1.2757e-08 | -0.68876 | h  |  8,14, 0 |||
 44 |          |           | 5.4298e-05 |  0.64064 | h  |  7,15, 0 |||
 45 |          |           |        1 |  0.46879 | h  |  8,15, 0 |||
 46 |          |           |  0.99999 |   0.9756 | h  |  7,16, 0 |||
 47 |          |           |  0.99991 |  -0.2036 | h  |  8,16, 0 |||
 48 |          |           |        1 |  0.68118 | h  |  7,17, 0 |||
 49 |          |           | 1.1555e-10 |  0.43278 | h  |  8,17, 0 |||
 50 |          |           |  0.33687 | -0.096022 | h  |  7,22, 0 |||
 51 |          |           |  0.11513 | -0.83553 | h  |  8,22, 0 |||
 52 |          |           |  0.25739 | -0.85337 | h  |  7,23, 0 |||
 53 |          |           | 0.021451 | -0.52806 | h  |  8,23, 0 |||
 54 |          |           |  0.29092 |  0.77732 | h  |  7,24, 0 |||
 55 |          |           |  0.97677 |  0.73137 | h  |  8,24, 0 |||
 56 |          |           |        1 |  -0.7682 | h  |  7,26, 0 |||
 57 |          |           | 1.0739e-07 | -0.95927 | h  |  8,26, 0 |||
 58 |          |           | 4.5005e-11 |  0.19166 | h  |  7,27, 0 |||
 59 |          |           | 1.973e-08 | -0.92212 | h  |  8,27, 0 |||
 60 |          |           |  0.48291 | -0.82481 | h  | 13,12, 0 |||
 61 |          |           |  0.98628 |  0.65589 | h  | 14,12, 0 |||
 62 |          |           |  0.51548 |  0.44586 | h  | 13,13, 0 |||
 63 |          |           |  0.62536 | -0.47659 | h  | 14,13, 0 |||
 64 |          |           |  0.96394 | -0.49814 | h  | 13,14, 0 |||
 65 |          |           |  0.48126 | -0.67743 | h  | 14,14, 0 |||
 66 |          |           | 0.019925 | -0.46812 | h  | 13,15, 0 |||
 67 |          |           |  0.85004 | -0.82466 | h  | 14,15, 0 |||
 68 |          |           |  0.19192 | -0.0010941 | h  | 13,16, 0 |||
 69 |          |           |  0.98844 |  0.53465 | h  | 14,16, 0 |||
 70 |          |           |  0.98266 |  0.54443 | o  | 18,14, 0 |||
----|----------|----------|----------|----------|----|----------|----------|----------|-------


connection definition section :

target | site | source:weight
-------|------|------------------------------------------------------------------------------------------------------------
    24 |      |   1:-0.51362,   2: 0.80628,   3:-0.12951,   4:  1.2602
    25 |      |   1:-0.37226,   2: 0.37456,   3:  1.0689,   4:-0.19436
    26 |      |   1:-0.36709,   2:0.093785,   3: 0.49433,   4:-0.26482
    27 |      |   1: -1.2227,   2: 0.53219,   3:-0.069396,   4:-0.22903
    28 |      |   1:-0.90758,   2: 0.33031,   3: 0.44233,   4:-0.42306
    29 |      |   1:-0.30972,   2:-0.30448,   3: 0.22224,   4:-0.32589
    30 |      |   1: 0.20896,   5: 0.17841,   6: 0.28382,   7:  1.0542
    31 |      |   1: 0.57464,   5:-0.56431,   6: -1.0096,   7: 0.37973
    32 |      |   1: 0.70856,   5:-0.55665,   6:-0.14639,   7:  0.4413
    33 |      |   1:-0.77359,   5:0.042862,   6:-0.22305,   7: 0.62394
    34 |      |   1:-0.73668,   5: 0.80535,   6: 0.85358,   7: 0.69409
    35 |      |   1: 0.50227,   5:-0.92322,   6:0.040506,   7:0.050218
    36 |      |   1: -0.5888,   8:-0.78731,   9: 0.42035,  10: 0.28187,  11:-0.80424,  12:-0.62928,  13: 0.06171,  14:-0.22752, 
                 15:-0.47098,  21: -0.2728,  22:-0.28571,  23:-0.85415
    37 |      |   1: 0.72859,   8: 0.70171,   9:-0.71119,  10: -1.1651,  11:-0.22617,  12: -0.1787,  13: 0.55914,  14:0.054797, 
                 15:0.048803,  21:  0.8154,  22: 0.28813,  23:-0.39751
    38 |      |   1:-0.24065,   8: -0.4603,   9:-0.087321,  10: -1.0112,  11: 0.24077,  12: 0.39936,  13:-0.40638,  14: -0.3194, 
                 15:-0.40937,  21:-0.14778,  22:-0.02279,  23: 0.76653
    39 |      |   1: 0.37719,   8:-0.44675,   9:-0.28004,  10:  0.5535,  11: 0.41995,  12:-0.72286,  13: 0.14518,  14: 0.49491, 
                 15:-0.55563,  21:-0.69918,  22:-0.70298,  23:-0.75341
    40 |      |   1: 0.45107,   8:  0.8533,   9:0.085741,  10:-0.65345,  11:-0.94657,  12: 0.65026,  13: 0.26419,  14:0.0027217, 
                 15: 0.88751,  21:-0.57885,  22:-0.60808,  23:-0.71678
    41 |      |   1:-0.062613,   8: 0.09889,   9: -0.6893,  10:-0.23079,  11:  0.3364,  12:  1.0288,  13:-0.012462,  14:  1.0235, 
                 15: 0.44006,  21:-0.63395,  22:-0.50369,  23:-0.37568
    42 |      |   1:-0.098796,   8: 0.11837,   9:-0.68007,  10:-0.10991,  11:-0.74228,  12:  0.6152,  13: 0.34161,  14: 0.40178, 
                 15:  0.8804,  21: 0.16751,  22: 0.45578,  23: 0.20781
    43 |      |   1: 0.24286,   8: 0.74386,   9:-0.52596,  10: 0.52086,  11: 0.15345,  12: 0.19586,  13: 0.16733,  14:  0.7801, 
                 15:-0.98911,  21: -1.0221,  22: 0.13329,  23:0.059033
    44 |      |   1: -0.4223,   8: 0.65896,   9:-0.36036,  10:-0.042005,  11: 0.72215,  12: 0.56265,  13: 0.69434,  14: 0.99833, 
                 15:-0.42577,  21:-0.94595,  22: 0.60945,  23: 0.60588
    45 |      |   1: 0.48694,   8:-0.56444,   9: 0.15269,  10: -0.4991,  11:-0.25722,  12:-0.56989,  13:-0.066656,  14: 0.33814, 
                 15:-0.76765,  21: 0.90528,  22: -0.2057,  23: 0.10465
    46 |      |   1: 0.18139,   8: 0.27509,   9: -0.1005,  10:-0.51479,  11: 0.56808,  12: 0.40585,  13:-0.79974,  14:-0.81954, 
                 15:-0.69823,  21:  1.0467,  22: 0.69426,  23:  -1.025
    47 |      |   1:-0.79005,   8: -1.0864,   9: 0.37867,  10: 0.90407,  11: 0.77937,  12: 0.50178,  13:-0.011582,  14: 0.16796, 
                 15: 0.66808,  21: 0.87309,  22: 0.22897,  23:  -0.588
    48 |      |   1:  0.4796,   8: -0.6933,   9: 0.88731,  10:-0.32524,  11: 0.62484,  12:-0.015695,  13: 0.76448,  14:-0.70265, 
                 15: 0.37955,  21: 0.53703,  22:  1.1305,  23:  0.6574
    49 |      |   1:-0.55467,   8: 0.58558,   9: 0.78932,  10:-0.72078,  11: 0.57032,  12: 0.96277,  13:-0.49705,  14:-0.18105, 
                 15: 0.71568,  21:-0.83533,  22:-0.77679,  23:-0.55869
    50 |      |   1: 0.99784,  16:  -1.062,  17:-0.29204,  18:-0.55887
    51 |      |   1:-0.76667,  16:-0.60597,  17:  -0.118,  18:-0.11821
    52 |      |   1: 0.68422,  16:-0.41094,  17:-0.13228,  18:-0.02932
    53 |      |   1:-0.41828,  16:-0.23151,  17:  1.0005,  18:-0.078268
    54 |      |   1: 0.56898,  16: 0.31799,  17: 0.75803,  18: 0.64827
    55 |      |   1:0.072305,  16: 0.29044,  17:-0.95207,  18: 0.23337
    56 |      |   1: 0.47733,  19: 0.27655,  20: 0.78665
    57 |      |   1: 0.55326,  19:-0.32238,  20:-0.63216
    58 |      |   1: 0.40678,  19: -0.1632,  20: -1.0125
    59 |      |   1: 0.88338,  19:-0.20846,  20:-0.71585
    60 |      |  24: 0.82892,  25: 0.31867,  26: -1.1132,  27: -1.0103,  28: 0.38372,  29:  1.0881,  30: 0.66819,  31:  0.4479, 
                 32:-0.0079021,  33:0.032413,  34:-0.27377,  35:-0.86511,  36: 0.37941,  37:  0.7681,  38: 0.97074,  39:-0.18788, 
                 40:-0.075338,  41: 0.64566,  42:  0.2098,  43:-0.47068,  44:-0.69852,  45: 0.41178,  46:-0.66355,  47: 0.79726, 
                 48:-0.27194,  49:-0.14597,  50:0.027856,  51:-0.46247,  52: 0.69293,  53:  0.3912,  54:-0.45243,  55: 0.14923, 
                 56: -0.5411,  57:-0.39636,  58: 0.45201,  59: 0.96297
    61 |      |  24:0.094664,  25:  0.5855,  26: 0.25767,  27:-0.46973,  28:  1.1341,  29:  0.1408,  30: 0.82182,  31: 0.59997, 
                 32:-0.019396,  33:-0.34912,  34:-0.15274,  35: -0.3723,  36: 0.56134,  37: 0.53034,  38:-0.0052092,  39:-0.030553, 
                 40:-0.75507,  41:-0.18246,  42: 0.55755,  43:-0.073209,  44: 0.78214,  45:  1.0921,  46:-0.18265,  47:0.060408, 
                 48:-0.33052,  49: 0.86904,  50: 0.59888,  51: 0.18571,  52: 0.32855,  53: 0.56219,  54: 0.41001,  55:-0.59142, 
                 56:0.059943,  57:-0.64033,  58:-0.34676,  59:-0.10348
    62 |      |  24: -1.1238,  25:-0.66761,  26:-0.29278,  27: 0.27059,  28: 0.46229,  29:-0.47703,  30:-0.74127,  31:-0.32749, 
                 32:-0.88549,  33: 0.65762,  34:-0.55675,  35:-0.019615,  36:-0.24288,  37: 0.63469,  38: -0.3642,  39:-0.25617, 
                 40:-0.44851,  41: 0.84345,  42: 0.15538,  43:-0.75295,  44: 0.56404,  45:-0.60172,  46:  0.7204,  47:-0.20215, 
                 48: 0.82295,  49: 0.74927,  50: 0.82542,  51:-0.88312,  52:-0.64429,  53:-0.31183,  54: 0.72528,  55:-0.33733, 
                 56: 0.33667,  57:-0.72608,  58: 0.52333,  59:-0.32894
    63 |      |  24:  0.9135,  25:  0.3347,  26: 0.68088,  27: 0.16256,  28:-0.99396,  29:-0.30571,  30:  1.0079,  31: 0.62777, 
                 32: 0.38983,  33:-0.23331,  34: 0.93434,  35: 0.21255,  36:-0.83024,  37:-0.97935,  38:-0.38244,  39:-0.28698, 
                 40: 0.38395,  41:  0.5514,  42:-0.44395,  43:0.088051,  44: 0.43764,  45:-0.28482,  46: 0.34817,  47:-0.81982, 
                 48:-0.56905,  49:-0.98856,  50: 0.51555,  51:-0.30906,  52: 0.51768,  53:-0.83074,  54:-0.82274,  55: 0.41051, 
                 56: 0.48661,  57: 0.86918,  58:-0.40538,  59: 0.50933
    64 |      |  24:-0.44108,  25: 0.40889,  26:  1.2986,  27: 0.69284,  28:  0.3941,  29:0.00091734,  30: 0.73561,  31:-0.14189, 
                 32: 0.69505,  33:-0.47456,  34:-0.40394,  35: 0.24549,  36:-0.05815,  37: 0.87133,  38:-0.28183,  39: 0.55025, 
                 40: 0.21264,  41:-0.28095,  42:  1.0103,  43:-0.20937,  44: -0.6545,  45:-0.021586,  46:0.040546,  47:-0.42163, 
                 48:0.064299,  49: 0.97401,  50:-0.83764,  51:-0.29315,  52: -0.4307,  53: 0.59974,  54: 0.43603,  55:  0.2418, 
                 56:0.022707,  57: 0.10796,  58:-0.60642,  59: 0.74501
    65 |      |  24: 0.96789,  25:-0.26987,  26: 0.78542,  27: -0.9957,  28:0.081844,  29: 0.33792,  30:-0.10798,  31:-0.27655, 
                 32: 0.95329,  33:-0.63051,  34: 0.59813,  35:-0.17837,  36:-0.62025,  37:-0.50531,  38: 0.14566,  39:0.050959, 
                 40:-0.12644,  41: 0.78889,  42: 0.91806,  43:-0.13106,  44: 0.85448,  45:-0.51055,  46: 0.11249,  47: 0.41531, 
                 48: 0.74791,  49:-0.71375,  50:-0.95314,  51:-0.020678,  52:-0.31243,  53: 0.89869,  54: 0.14868,  55:-0.42001, 
                 56:-0.37783,  57: 0.19529,  58:-0.11968,  59: -1.0662
    66 |      |  24:-0.82114,  25:-0.40242,  26:-0.80807,  27:-0.76987,  28:-0.81377,  29: 0.56547,  30: 0.10513,  31: 0.24882, 
                 32:-0.41332,  33:-0.84659,  34:-0.80282,  35:-0.59682,  36: -1.0646,  37:-0.11275,  38:-0.85421,  39:-0.31352, 
                 40:-0.97723,  41: 0.86785,  42:-0.038352,  43:-0.067594,  44: 0.87338,  45: 0.56862,  46:-0.01536,  47: 0.99834, 
                 48:-0.059032,  49:-0.93322,  50:-0.45609,  51:-0.76262,  52: 0.25595,  53:-0.51403,  54:-0.48173,  55: 0.33007, 
                 56: 0.27271,  57: 0.30895,  58: 0.90334,  59: 0.87675
    67 |      |  24: 0.13772,  25: 0.14171,  26: 0.50346,  27: 0.44989,  28: 0.32862,  29: 0.58623,  30:  0.6217,  31:-0.81842, 
                 32:-0.93618,  33:-0.43265,  34: -0.2338,  35: 0.87173,  36:0.067934,  37: 0.63698,  38: 0.73444,  39:-0.13458, 
                 40: 0.10337,  41:  0.7473,  42:  1.0139,  43: 0.47708,  44:-0.58203,  45:  -0.728,  46:-0.10189,  47:0.061149, 
                 48: 0.09401,  49:-0.92551,  50:-0.63583,  51:-0.69189,  52:-0.91858,  53:-0.79857,  54:0.016721,  55:  0.2075, 
                 56: 0.37945,  57: -0.7133,  58:-0.71448,  59:-0.63764
    68 |      |  24: 0.88355,  25:-0.47594,  26: -1.3251,  27: -1.6226,  28:-0.24516,  29:  2.1384,  30: 0.17645,  31:-0.018372, 
                 32:  1.2263,  33: -1.3367,  34: 0.77472,  35: 0.69279,  36:  1.2386,  37:-0.10742,  38:  1.0707,  39: -0.4839, 
                 40: 0.76593,  41:-0.064584,  42:-0.083031,  43: 0.71374,  44: 0.14316,  45: 0.53271,  46: 0.78173,  47: 0.39798, 
                 48:-0.46822,  49: 0.23844,  50:-0.23718,  51:-0.19171,  52: 0.24509,  53: 0.18467,  54:0.070359,  55:-0.11184, 
                 56: 0.47474,  57:-0.039238,  58: 0.17496,  59:-0.16248
    69 |      |  24:-0.77054,  25: 0.69039,  26:0.035922,  27: -0.4865,  28: 0.33898,  29:-0.77145,  30:-0.67634,  31: -1.1165, 
                 32:-0.94594,  33:-0.58709,  34: 0.92784,  35:-0.12333,  36: 0.58232,  37: 0.96618,  38:   1.017,  39:-0.19926, 
                 40: 0.91866,  41: 0.20887,  42: 0.45476,  43:-0.67464,  44: 0.83543,  45:  1.1216,  46:  1.1721,  47:-0.12577, 
                 48:-0.053391,  49: -0.1946,  50:-0.49971,  51: 0.61537,  52: 0.76071,  53:  0.2479,  54:-0.30697,  55:   1.031, 
                 56:-0.17852,  57: 0.12419,  58:-0.88921,  59: 0.57947
    70 |      |  60:   -1.51,  61:  1.2829,  62:  1.5981,  63:0.0070066,  64:  1.2824,  65: -0.9562,  66: -1.8138,  67: 0.36705, 
                 68: -2.6301,  69:     1.6
-------|------|----------------------------------------------------------------------------------------------------------------
