SNNS network definition file V1.4-3D
generated at Thu May 09 10:11:49 1996

network name : edge_23
source files :
no. of units : 70
no. of connections : 622
no. of unit types : 0
no. of site types : 0


learning function : Std_Backpropagation
update function : Topological_Order


unit default section :

act      | bias     | st | subnet | layer | act func     | out func
---------|----------|----|--------|-------|--------------|-------------
 0.00000 |  0.00000 | h  |      0 |     1 | Act_Logistic | Out_Identity
---------|----------|----|--------|-------|--------------|-------------


unit definition section :

no. | typeName | unitName | act      | bias     | st | position | act func | out func | sites
----|----------|----------|----------|----------|----|----------|----------|----------|-------
  1 |          |           |        0 |        0 | i  |  2, 1, 0 |||
  2 |          |           |   3.4785 |        0 | i  |  2, 3, 0 |||
  3 |          |           |   12.719 |        0 | i  |  2, 4, 0 |||
  4 |          |           |   5.2879 |        0 | i  |  2, 5, 0 |||
  5 |          |           |   4.6624 |        0 | i  |  2, 7, 0 |||
  6 |          |           |   16.018 |        0 | i  |  2, 8, 0 |||
  7 |          |           |   5.7021 |        0 | i  |  2, 9, 0 |||
  8 |          |           |   1.4874 |        0 | i  |  2,11, 0 |||
  9 |          |           | -0.66679 |        0 | i  |  2,12, 0 |||
 10 |          |           |  -3.0912 |        0 | i  |  2,13, 0 |||
 11 |          |           |     1.03 |        0 | i  |  2,14, 0 |||
 12 |          |           |  0.64468 |        0 | i  |  2,15, 0 |||
 13 |          |           |  0.13041 |        0 | i  |  2,16, 0 |||
 14 |          |           |   2.7561 |        0 | i  |  2,17, 0 |||
 15 |          |           |  0.46789 |        0 | i  |  2,18, 0 |||
 16 |          |           |  -1.3375 |        0 | i  |  2,23, 0 |||
 17 |          |           |  0.43904 |        0 | i  |  2,24, 0 |||
 18 |          |           |  0.86519 |        0 | i  |  2,25, 0 |||
 19 |          |           |   3.0253 |        0 | i  |  2,27, 0 |||
 20 |          |           |  0.94524 |        0 | i  |  2,28, 0 |||
 21 |          |           |   4.9458 |        0 | i  |  2,19, 0 |||
 22 |          |           |  0.77778 |        0 | i  |  2,20, 0 |||
 23 |          |           | 0.068034 |        0 | i  |  2,21, 0 |||
 24 |          |           | 1.0076e-05 |  0.24449 | h  |  7, 3, 0 |||
 25 |          |           |        1 | 0.021675 | h  |  8, 3, 0 |||
 26 |          |           |  0.99981 | -0.0032398 | h  |  7, 4, 0 |||
 27 |          |           |  0.95168 |  0.16494 | h  |  8, 4, 0 |||
 28 |          |           |  0.99998 |  0.36908 | h  |  7, 5, 0 |||
 29 |          |           |  0.17934 |   1.1371 | h  |  8, 5, 0 |||
 30 |          |           |  0.68114 | 0.052756 | h  |  7, 7, 0 |||
 31 |          |           | 0.00058822 |   1.1371 | h  |  8, 7, 0 |||
 32 |          |           |  0.05926 |  0.67374 | h  |  7, 8, 0 |||
 33 |          |           |  0.80863 | -0.99219 | h  |  8, 8, 0 |||
 34 |          |           |        1 | -0.82977 | h  |  7, 9, 0 |||
 35 |          |           |  0.99989 | -0.70592 | h  |  8, 9, 0 |||
 36 |          |           | 0.0045427 |  0.13935 | h  |  7,11, 0 |||
 37 |          |           |  0.99844 |  -1.0961 | h  |  8,11, 0 |||
 38 |          |           |   0.8865 |   1.0211 | h  |  7,12, 0 |||
 39 |          |           | 0.0052397 |  0.72648 | h  |  8,12, 0 |||
 40 |          |           | 0.053887 |  0.36528 | h  |  7,13, 0 |||
 41 |          |           |  0.92316 |  0.95115 | h  |  8,13, 0 |||
 42 |          |           |  0.94329 |  -1.0021 | h  |  7,14, 0 |||
 43 |          |           | 0.0090024 | -0.59627 | h  |  8,14, 0 |||
 44 |          |           |  0.29327 |  0.63512 | h  |  7,15, 0 |||
 45 |          |           |  0.99667 |  0.52393 | h  |  8,15, 0 |||
 46 |          |           |  0.99942 |  0.74838 | h  |  7,16, 0 |||
 47 |          |           | 0.016863 | -0.30409 | h  |  8,16, 0 |||
 48 |          |           |  0.98118 |  0.49098 | h  |  7,17, 0 |||
 49 |          |           |  0.49413 |   0.1389 | h  |  8,17, 0 |||
 50 |          |           |  0.61719 | -0.17622 | h  |  7,22, 0 |||
 51 |          |           |  0.48181 | -0.88193 | h  |  8,22, 0 |||
 52 |          |           |   0.2813 | -0.85284 | h  |  7,23, 0 |||
 53 |          |           |  0.60293 | -0.58777 | h  |  8,23, 0 |||
 54 |          |           |   0.8232 |  0.66853 | h  |  7,24, 0 |||
 55 |          |           |  0.45285 |  0.71234 | h  |  8,24, 0 |||
 56 |          |           |  0.84096 | -0.73108 | h  |  7,26, 0 |||
 57 |          |           |   0.1181 | -0.92973 | h  |  8,26, 0 |||
 58 |          |           |  0.36337 |   0.2768 | h  |  7,27, 0 |||
 59 |          |           |  0.11172 | -0.97205 | h  |  8,27, 0 |||
 60 |          |           | 0.0068663 | -0.88079 | h  | 13,12, 0 |||
 61 |          |           |  0.98406 |  0.44859 | h  | 14,12, 0 |||
 62 |          |           |  0.99956 |  0.53802 | h  | 13,13, 0 |||
 63 |          |           | 0.032548 | -0.54321 | h  | 14,13, 0 |||
 64 |          |           |   0.8165 | -0.71507 | h  | 13,14, 0 |||
 65 |          |           |  0.78429 | -0.53191 | h  | 14,14, 0 |||
 66 |          |           | 0.0070826 | -0.32875 | h  | 13,15, 0 |||
 67 |          |           |  0.94443 | -0.73959 | h  | 14,15, 0 |||
 68 |          |           |  0.37848 | -0.022545 | h  | 13,16, 0 |||
 69 |          |           |  0.94031 |  0.30946 | h  | 14,16, 0 |||
 70 |          |           |   0.9698 | 0.0075801 | o  | 18,14, 0 |||
----|----------|----------|----------|----------|----|----------|----------|----------|-------


connection definition section :

target | site | source:weight
-------|------|------------------------------------------------------------------------------------------------------------
    24 |      |   1:-0.11558,   2: 0.98967,   3: -1.4756,   4: 0.67632
    25 |      |   1:-0.34138,   2: 0.61624,   3: 0.99909,   4: 0.26019
    26 |      |   1:-0.43402,   2:-0.094576,   3: 0.82632,   4:-0.30237
    27 |      |   1:-0.98665,   2: 0.51703,   3: 0.20706,   4:-0.30574
    28 |      |   1:-0.95409,   2:-0.27115,   3:  1.0074,   4:-0.29019
    29 |      |   1:-0.68296,   2:-0.75603,   3: 0.28426,   4:-0.68907
    30 |      |   1: 0.27507,   5:0.084156,   6:-0.29703,   7: 0.88943
    31 |      |   1: 0.95767,   5:  1.0129,   6: -1.0221,   7: 0.53914
    32 |      |   1: 0.88698,   5: 0.19811,   6:-0.23429,   7:-0.10685
    33 |      |   1: -0.6456,   5: 0.43559,   6:-0.22018,   7: 0.68909
    34 |      |   1:-0.71991,   5: 0.76676,   6: 0.99746,   7:  1.1217
    35 |      |   1:  0.2446,   5: -1.2361,   6: 0.67335,   7: 0.83559
    36 |      |   1:-0.64007,   8:-0.26088,   9: 0.29038,  10: 0.44567,  11:-0.52901,  12: -1.0578,  13: 0.30357,  14:0.024411, 
                 15:-0.34465,  21:-0.41232,  22:-0.23705,  23:-0.95388
    37 |      |   1: 0.67412,   8: 0.44178,   9: -0.5528,  10: -1.0949,  11: 0.78396,  12: -0.3099,  13: 0.89504,  14: 0.50606, 
                 15:-0.041048,  21: 0.22345,  22:-0.030737,  23: -0.5419
    38 |      |   1:-0.26326,   8:-0.19461,   9:-0.096455,  10: -1.0323,  11: 0.35794,  12: 0.24352,  13:-0.61589,  14:-0.46077, 
                 15:-0.17092,  21: -0.1546,  22:-0.39127,  23: 0.61591
    39 |      |   1: 0.37031,   8:-0.96092,   9:-0.066576,  10: 0.30856,  11: 0.49725,  12:-0.51273,  13:-0.014592,  14: 0.48892, 
                 15:-0.57555,  21:-0.84163,  22:-0.87681,  23:-0.69778
    40 |      |   1: 0.38412,   8:  0.5619,   9:-0.16831,  10:-0.32087,  11: -1.5667,  12: 0.33804,  13:0.071857,  14:-0.29377, 
                 15:  1.0942,  21:-0.57133,  22:-0.83777,  23: -0.1335
    41 |      |   1:0.069553,   8: 0.58542,   9:-0.63062,  10:-0.26604,  11: -0.0766,  12:-0.097561,  13:  0.1138,  14:   1.243, 
                 15: 0.67819,  21:-0.76113,  22:-0.47614,  23:-0.88478
    42 |      |   1:-0.15549,   8:-0.29224,   9:-0.41249,  10:-0.027405,  11:0.019583,  12:  1.0091,  13: 0.28015,  14: 0.78107, 
                 15:   0.859,  21: 0.06347,  22: 0.39466,  23:0.082883
    43 |      |   1: 0.36191,   8:  1.1068,   9:-0.66866,  10: 0.71943,  11:-0.24209,  12: 0.46974,  13: 0.20006,  14: 0.44404, 
                 15:-0.38749,  21: -1.0471,  22:0.062022,  23: 0.51625
    44 |      |   1:-0.43464,   8: 0.50062,   9:-0.012899,  10:-0.045785,  11: 0.80144,  12: 0.48295,  13:  0.7181,  14: 0.89706, 
                 15:-0.68086,  21: -1.2203,  22: 0.28424,  23: 0.30294
    45 |      |   1:  0.5274,   8:-0.22695,   9: 0.14911,  10:-0.50275,  11:-0.34917,  12:-0.86894,  13:-0.63738,  14: 0.40922, 
                 15:-0.81879,  21: 0.87237,  22:-0.0037335,  23: 0.11745
    46 |      |   1: 0.13607,   8: 0.15852,   9:-0.35031,  10:-0.17665,  11: 0.38907,  12: 0.94182,  13:-0.62351,  14:-0.45409, 
                 15:-0.74713,  21:  1.1562,  22: 0.90527,  23:-0.90321
    47 |      |   1:-0.60994,   8:-0.48884,   9: 0.21531,  10:    1.41,  11: 0.13307,  12:-0.44147,  13:-0.41781,  14: 0.28141, 
                 15:  1.2718,  21:0.0062151,  22:  0.4184,  23: -0.8376
    48 |      |   1: 0.39759,   8:-0.87386,   9: 0.56002,  10: 0.17335,  11: 0.61606,  12: 0.83486,  13: 0.92022,  14:-0.44438, 
                 15:-0.44471,  21:  1.0361,  22: 0.81734,  23: 0.76708
    49 |      |   1:-0.75535,   8:0.012257,   9: 0.73437,  10:-0.34739,  11:  1.0441,  12: 0.97471,  13:-0.92667,  14: 0.25474, 
                 15: 0.17598,  21:-0.46343,  22: -1.0451,  23:-0.40098
    50 |      |   1: 0.95967,  16: -1.1349,  17:-0.40125,  18:-0.79515
    51 |      |   1:-0.82214,  16:-0.85699,  17:-0.50183,  18:-0.13497
    52 |      |   1: 0.81476,  16:0.035564,  17:-0.17997,  18:0.047833
    53 |      |   1:-0.42247,  16: -0.3556,  17:  1.0573,  18: 0.07588
    54 |      |   1: 0.42396,  16:-0.082076,  17:  1.0261,  18: 0.35757
    55 |      |   1:0.092004,  16: 0.42526,  17:  -1.004,  18: 0.12495
    56 |      |   1: 0.42345,  19: 0.55845,  20: 0.74794
    57 |      |   1: 0.65603,  19:-0.28393,  20: -0.2347
    58 |      |   1: 0.62532,  19:-0.16157,  20:-0.36898
    59 |      |   1: 0.96647,  19:-0.34033,  20:-0.075814
    60 |      |  24:  1.0735,  25:-0.42081,  26: -1.4872,  27:-0.92891,  28: 0.05945,  29: 0.36695,  30: 0.51123,  31:  1.2631, 
                 32:  0.2437,  33: 0.32732,  34:-0.81195,  35: -1.5144,  36:  0.6612,  37: 0.58674,  38:  1.0049,  39:-0.55522, 
                 40: 0.55773,  41:  1.2706,  42:-0.26559,  43:-0.010321,  44:-0.73543,  45: 0.45405,  46:-0.85197,  47:  1.0228, 
                 48: -1.0181,  49:-0.19232,  50:-0.36454,  51:-0.88302,  52: 0.69924,  53: 0.40587,  54:-0.19316,  55:0.047159, 
                 56:-0.29786,  57: -0.4568,  58: 0.21821,  59:  0.9412
    61 |      |  24:-0.40962,  25: 0.52604,  26: 0.32312,  27:-0.65822,  28:  1.1031,  29: 0.17371,  30:  0.8265,  31: 0.11935, 
                 32:-0.26536,  33:-0.43223,  34:-0.072279,  35:0.099673,  36: 0.32887,  37: 0.48325,  38:-0.061289,  39:-0.00071306, 
                 40: -1.3259,  41: -0.4225,  42: 0.52501,  43:-0.32018,  44: 0.75855,  45: 0.89998,  46:-0.13934,  47:0.061909, 
                 48:-0.14793,  49: 0.91515,  50: 0.62018,  51: 0.22058,  52:  0.2702,  53: 0.54698,  54:  0.1832,  55:-0.77363, 
                 56:-0.18797,  57:-0.62632,  58: -0.2979,  59:-0.10328
    62 |      |  24: -1.4926,  25: 0.21802,  26:   0.341,  27:0.098894,  28: 0.96995,  29:  0.3574,  30:-0.35247,  31: -1.1215, 
                 32: -1.1696,  33: 0.47479,  34: 0.32147,  35: 0.55464,  36:-0.29613,  37: 0.96676,  38:-0.27333,  39:0.0084166, 
                 40: -1.3744,  41: 0.36587,  42: 0.44272,  43:  -1.216,  44: 0.41456,  45:-0.13341,  46: 0.70496,  47:-0.22497, 
                 48:  1.3288,  49: 0.73414,  50:  1.1178,  51: -0.5846,  52:-0.68036,  53:-0.093811,  54: 0.61952,  55:-0.42656, 
                 56: 0.27536,  57:-0.74602,  58: 0.63403,  59:-0.37469
    63 |      |  24:  1.0507,  25: 0.16638,  26: 0.43838,  27:0.071029,  28: -1.1805,  29:-0.28022,  30: 0.78562,  31: 0.90978, 
                 32: 0.55636,  33:-0.39942,  34: 0.69416,  35:-0.060731,  36:-0.79554,  37: -1.1002,  38:-0.36216,  39:-0.41155, 
                 40: 0.59688,  41: 0.57944,  42:-0.54361,  43: 0.16234,  44: 0.36642,  45:-0.43762,  46: 0.25138,  47:-0.91141, 
                 48:-0.73283,  49: -1.0673,  50: 0.46004,  51:-0.37092,  52: 0.50109,  53:-0.94361,  54:-0.90075,  55: 0.43519, 
                 56: 0.52196,  57: 0.82376,  58:-0.50125,  59: 0.47046
    64 |      |  24:-0.41809,  25: 0.27235,  26:  1.0601,  27: 0.57595,  28: 0.17395,  29:-0.029464,  30: 0.82772,  31:-0.16687, 
                 32: 0.61164,  33:-0.48269,  34:-0.47018,  35: 0.42522,  36:-0.49312,  37: 0.66743,  38:-0.48743,  39: 0.45245, 
                 40:-0.32559,  41:-0.42888,  42:  1.1535,  43:-0.0024258,  44:-0.43546,  45:-0.40441,  46:-0.16946,  47:-0.42797, 
                 48: 0.06852,  49: 0.68211,  50:-0.80915,  51:-0.17611,  52:-0.52345,  53: 0.51677,  54:0.085729,  55: 0.11167, 
                 56:-0.23251,  57:0.075801,  58:-0.56481,  59: 0.70671
    65 |      |  24:  1.0414,  25:-0.19979,  26: 0.88449,  27:-0.88261,  28: 0.15134,  29: 0.33064,  30:-0.092472,  31:-0.17118, 
                 32:  1.0385,  33:-0.61238,  34: 0.69189,  35:-0.18333,  36:-0.46293,  37: -0.4133,  38: 0.37018,  39:0.093762, 
                 40: 0.18455,  41: 0.90597,  42: 0.87684,  43:-0.13003,  44: 0.81148,  45:-0.42742,  46: 0.16116,  47: 0.43458, 
                 48: 0.79931,  49:-0.58225,  50:-0.94197,  51:-0.090882,  52:-0.22585,  53: 0.93779,  54: 0.36102,  55:-0.30838, 
                 56:-0.32166,  57: 0.27874,  58:0.010757,  59:-0.96638
    66 |      |  24:-0.73725,  25:-0.47815,  26:-0.69876,  27:-0.58732,  28:-0.69909,  29:   0.338,  30:-0.069406,  31: 0.59509, 
                 32:-0.19456,  33:-0.80765,  34: -1.0318,  35: -1.0858,  36:-0.45378,  37:-0.17746,  38:-0.68291,  39:-0.13461, 
                 40:-0.22982,  41:  1.3091,  42:-0.35031,  43:0.020253,  44:   0.868,  45: 0.81583,  46:0.091347,  47:  1.1285, 
                 48: -0.3081,  49:-0.71478,  50:-0.62897,  51:-0.96531,  52: 0.30132,  53:-0.27319,  54:-0.017547,  55: 0.23398, 
                 56: 0.44792,  57:  0.3278,  58: 0.85411,  59: 0.91267
    67 |      |  24:-0.056096,  25: 0.27176,  26: 0.59823,  27: 0.50161,  28: 0.42219,  29: 0.76494,  30:   0.763,  31:-0.92438, 
                 32:-0.98638,  33:-0.40962,  34:-0.15793,  35:  1.1909,  36:-0.019646,  37: 0.56685,  38: 0.70092,  39:0.066807, 
                 40:  0.0411,  41: 0.79497,  42:  1.1656,  43: 0.49955,  44:-0.42195,  45:-0.88224,  46:-0.063612,  47: 0.18396, 
                 48: 0.27317,  49:-0.89998,  50:-0.50578,  51:  -0.588,  52:-0.88498,  53:-0.75029,  54: 0.01888,  55: 0.25305, 
                 56: 0.25845,  57:-0.62411,  58:-0.54788,  59: -0.5539
    68 |      |  24:  0.6879,  25:-0.45933,  26: -0.9671,  27: -1.2123,  28: 0.18422,  29:  1.5249,  30:-0.29197,  31:-0.13417, 
                 32:  1.1665,  33: -1.5063,  34: 0.70663,  35: 0.38693,  36:  1.4374,  37:-0.063473,  38:  1.2075,  39:-0.57404, 
                 40: 0.84841,  41: -0.0479,  42:-0.052263,  43: 0.64102,  44: -0.1045,  45: 0.52815,  46: 0.59432,  47: 0.38119, 
                 48:-0.44535,  49: 0.16951,  50:-0.25883,  51:-0.20477,  52: 0.22528,  53:0.057927,  54:-0.10946,  55:-0.024559, 
                 56: 0.53494,  57:-0.072537,  58:0.093502,  59:-0.19948
    69 |      |  24:-0.93417,  25: 0.39886,  26:-0.24149,  27:-0.68027,  28:0.095674,  29:-0.89428,  30:-0.78303,  31: -1.2085, 
                 32: -1.0825,  33:-0.62695,  34: 0.71484,  35:0.038767,  36: 0.24414,  37: 0.71302,  38: 0.79858,  39:-0.079052, 
                 40: 0.30856,  41:0.0073429,  42: 0.38817,  43:-0.55273,  44:  1.0842,  45: 0.87774,  46:   1.026,  47: -0.2685, 
                 48:-0.04775,  49:-0.36676,  50:-0.38651,  51: 0.78205,  52: 0.68199,  53: 0.13829,  54:-0.74098,  55: 0.91776, 
                 56:-0.51658,  57: 0.13506,  58:-0.83029,  59: 0.57489
    70 |      |  60: -2.6709,  61:  1.1111,  62:  2.3073,  63:-0.91906,  64: 0.57156,  65:-0.83313,  66: -1.5286,  67: 0.66882, 
                 68: -2.5606,  69: 0.68608
-------|------|----------------------------------------------------------------------------------------------------------------
