SNNS network definition file V1.4-3D
generated at Thu May 09 10:11:49 1996

network name : edge_23
source files :
no. of units : 70
no. of connections : 622
no. of unit types : 0
no. of site types : 0


learning function : Std_Backpropagation
update function : Topological_Order


unit default section :

act      | bias     | st | subnet | layer | act func     | out func
---------|----------|----|--------|-------|--------------|-------------
 0.00000 |  0.00000 | h  |      0 |     1 | Act_Logistic | Out_Identity
---------|----------|----|--------|-------|--------------|-------------


unit definition section :

no. | typeName | unitName | act      | bias     | st | position | act func | out func | sites
----|----------|----------|----------|----------|----|----------|----------|----------|-------
  1 |          |           |   0.4264 |        0 | i  |  2, 1, 0 |||
  2 |          |           |   5.5857 |        0 | i  |  2, 3, 0 |||
  3 |          |           |   19.828 |        0 | i  |  2, 4, 0 |||
  4 |          |           |   2.8461 |        0 | i  |  2, 5, 0 |||
  5 |          |           |   3.9708 |        0 | i  |  2, 7, 0 |||
  6 |          |           |   14.284 |        0 | i  |  2, 8, 0 |||
  7 |          |           |  0.79057 |        0 | i  |  2, 9, 0 |||
  8 |          |           |   1.4254 |        0 | i  |  2,11, 0 |||
  9 |          |           | -0.83425 |        0 | i  |  2,12, 0 |||
 10 |          |           |    -2.82 |        0 | i  |  2,13, 0 |||
 11 |          |           | -0.60286 |        0 | i  |  2,14, 0 |||
 12 |          |           | -0.66493 |        0 | i  |  2,15, 0 |||
 13 |          |           |   1.2054 |        0 | i  |  2,16, 0 |||
 14 |          |           |   2.8209 |        0 | i  |  2,17, 0 |||
 15 |          |           |   1.1706 |        0 | i  |  2,18, 0 |||
 16 |          |           |  0.37549 |        0 | i  |  2,23, 0 |||
 17 |          |           | -0.32352 |        0 | i  |  2,24, 0 |||
 18 |          |           |  -0.3874 |        0 | i  |  2,25, 0 |||
 19 |          |           |   3.9065 |        0 | i  |  2,27, 0 |||
 20 |          |           | -0.27775 |        0 | i  |  2,28, 0 |||
 21 |          |           |   8.8793 |        0 | i  |  2,19, 0 |||
 22 |          |           |   1.9864 |        0 | i  |  2,20, 0 |||
 23 |          |           |   1.8588 |        0 | i  |  2,21, 0 |||
 24 |          |           | 5.9745e-09 | -0.27119 | h  |  7, 3, 0 |||
 25 |          |           |        1 |  0.27163 | h  |  8, 3, 0 |||
 26 |          |           |        1 |  0.22929 | h  |  7, 4, 0 |||
 27 |          |           |  0.83982 | 0.098437 | h  |  8, 4, 0 |||
 28 |          |           |        1 |  0.33804 | h  |  7, 5, 0 |||
 29 |          |           |  0.99998 |   0.6307 | h  |  8, 5, 0 |||
 30 |          |           |  0.99928 | -0.095303 | h  |  7, 7, 0 |||
 31 |          |           | 1.6074e-08 |  0.70661 | h  |  8, 7, 0 |||
 32 |          |           | 0.045233 |  0.45332 | h  |  7, 8, 0 |||
 33 |          |           |  0.50155 | -0.92888 | h  |  8, 8, 0 |||
 34 |          |           |        1 | -0.48307 | h  |  7, 9, 0 |||
 35 |          |           | 0.00033379 | -0.59056 | h  |  8, 9, 0 |||
 36 |          |           | 0.00028542 | 0.00049805 | h  |  7,11, 0 |||
 37 |          |           |  0.99971 | -0.91521 | h  |  8,11, 0 |||
 38 |          |           |  0.30602 |   1.0513 | h  |  7,12, 0 |||
 39 |          |           | 2.4551e-05 |  0.69194 | h  |  8,12, 0 |||
 40 |          |           |   0.2216 |  0.30735 | h  |  7,13, 0 |||
 41 |          |           |  0.14571 |  0.76006 | h  |  8,13, 0 |||
 42 |          |           |  0.97475 |  -1.0525 | h  |  7,14, 0 |||
 43 |          |           | 0.00037896 | -0.62207 | h  |  8,14, 0 |||
 44 |          |           | 0.021258 |  0.69132 | h  |  7,15, 0 |||
 45 |          |           |  0.99974 |  0.48514 | h  |  8,15, 0 |||
 46 |          |           |  0.99994 |   1.0667 | h  |  7,16, 0 |||
 47 |          |           | 0.098059 |   0.2008 | h  |  8,16, 0 |||
 48 |          |           |  0.99974 |  0.71245 | h  |  7,17, 0 |||
 49 |          |           | 0.0070303 |  0.59918 | h  |  8,17, 0 |||
 50 |          |           |  0.56706 | -0.094222 | h  |  7,22, 0 |||
 51 |          |           |  0.22292 | -0.82094 | h  |  8,22, 0 |||
 52 |          |           |   0.3486 | -0.80327 | h  |  7,23, 0 |||
 53 |          |           |  0.21026 |   -0.659 | h  |  8,23, 0 |||
 54 |          |           |  0.60467 |  0.66364 | h  |  7,24, 0 |||
 55 |          |           |   0.7877 |  0.84862 | h  |  8,24, 0 |||
 56 |          |           |  0.29963 | -0.85668 | h  |  7,26, 0 |||
 57 |          |           | 0.099231 | -0.93431 | h  |  8,26, 0 |||
 58 |          |           |  0.22004 |  0.10937 | h  |  7,27, 0 |||
 59 |          |           |  0.16839 | -0.91837 | h  |  8,27, 0 |||
 60 |          |           |  0.49334 | -0.84267 | h  | 13,12, 0 |||
 61 |          |           |  0.98931 |  0.52214 | h  | 14,12, 0 |||
 62 |          |           |  0.67104 |  0.37178 | h  | 13,13, 0 |||
 63 |          |           |  0.26743 |  -0.4702 | h  | 14,13, 0 |||
 64 |          |           |  0.96037 | -0.54224 | h  | 13,14, 0 |||
 65 |          |           |  0.53985 | -0.61877 | h  | 14,14, 0 |||
 66 |          |           | 0.016502 | -0.39988 | h  | 13,15, 0 |||
 67 |          |           |  0.83324 |  -0.8405 | h  | 14,15, 0 |||
 68 |          |           |  0.46061 | -0.12844 | h  | 13,16, 0 |||
 69 |          |           |  0.89912 |  0.35395 | h  | 14,16, 0 |||
 70 |          |           |  0.96418 |  0.45123 | o  | 18,14, 0 |||
----|----------|----------|----------|----------|----|----------|----------|----------|-------


connection definition section :

target | site | source:weight
-------|------|------------------------------------------------------------------------------------------------------------
    24 |      |   1:-0.19315,   2: 0.54804,   3: -1.1847,   4: 0.64894
    25 |      |   1:-0.38935,   2: 0.24239,   3: 0.89877,   4:-0.047696
    26 |      |   1:-0.45096,   2: -0.1966,   3: 0.93604,   4:-0.43985
    27 |      |   1: -1.1263,   2: 0.81691,   3:-0.13993,   4:0.087859
    28 |      |   1: -1.0198,   2:-0.14476,   3: 0.92038,   4:-0.47008
    29 |      |   1:-0.67247,   2:-0.84807,   3: 0.85554,   4:-0.64353
    30 |      |   1: 0.30163,   5:0.060472,   6: 0.43063,   7:  1.0221
    31 |      |   1: 0.81914,   5: 0.20549,   6: -1.4229,   7: 0.64255
    32 |      |   1: 0.98892,   5:-0.34296,   6:-0.19242,   7: 0.23504
    33 |      |   1:-0.78606,   5: 0.32456,   6:-0.032716,   7: 0.56771
    34 |      |   1:-0.72044,   5:  0.8805,   6: 0.87304,   7: 0.80163
    35 |      |   1: 0.38265,   5: -1.0739,   6:-0.24513,   7: 0.23812
    36 |      |   1:-0.65169,   8:  -0.809,   9: 0.37477,  10: 0.44517,  11:-0.52291,  12: -1.0037,  13:0.013843,  14: 0.13716, 
                 15:-0.65999,  21:-0.45075,  22:-0.21169,  23:-0.72813
    37 |      |   1: 0.64053,   8:    0.34,   9:-0.80539,  10:-0.83893,  11: 0.16892,  12:-0.28146,  13:  0.7407,  14:  0.5923, 
                 15:-0.056462,  21: 0.29284,  22: 0.42207,  23:-0.41151
    38 |      |   1: -0.1609,   8:-0.33975,   9:-0.12296,  10:-0.85664,  11: 0.35663,  12: 0.36927,  13:-0.46426,  14:-0.15154, 
                 15:-0.097654,  21:-0.32726,  22:-0.26515,  23: 0.62346
    39 |      |   1:  0.3116,   8:-0.74257,   9:-0.23539,  10: 0.45953,  11: 0.31685,  12: -0.6006,  13: 0.06662,  14: 0.38078, 
                 15:-0.65863,  21:-0.79396,  22: -0.6818,  23:-0.79042
    40 |      |   1: 0.36129,   8: 0.31605,   9:0.078661,  10: -1.0266,  11:-0.96723,  12: 0.72848,  13: 0.15206,  14:0.070074, 
                 15: 0.89654,  21:-0.43595,  22:-0.82733,  23:-0.54467
    41 |      |   1:-0.0030324,   8:-0.12381,   9:-0.64864,  10:-0.52946,  11: 0.52889,  12: 0.91358,  13:  0.2007,  14: 0.80945, 
                 15: 0.33798,  21:-0.38542,  22:-0.82976,  23:-0.70435
    42 |      |   1:-0.31061,   8:-0.051025,   9:-0.65493,  10:0.064985,  11: -0.7754,  12: 0.44372,  13:-0.0013046,  14: 0.39455, 
                 15: 0.52856,  21: 0.10956,  22: 0.84364,  23:-0.0016989
    43 |      |   1: 0.38405,   8: 0.64775,   9:-0.54595,  10: 0.73134,  11: 0.36399,  12: 0.51427,  13:0.022994,  14: 0.72377, 
                 15:-0.58579,  21:-0.97208,  22: 0.18857,  23: 0.37594
    44 |      |   1:-0.38256,   8: 0.52941,   9:-0.35618,  10:-0.047229,  11: 0.73773,  12: 0.60529,  13: 0.68133,  14: 0.92553, 
                 15:-0.34612,  21:  -1.111,  22: 0.37402,  23: 0.75312
    45 |      |   1: 0.54817,   8:-0.50942,   9: 0.12436,  10:-0.21324,  11:-0.15117,  12:-0.74543,  13:  -0.391,  14: 0.37167, 
                 15:-0.89832,  21: 0.86739,  22:-0.11597,  23:0.099728
    46 |      |   1: 0.19745,   8: 0.50469,   9:-0.26538,  10: -0.5187,  11: 0.71875,  12: 0.54046,  13:-0.70526,  14:-0.56107, 
                 15:-0.42852,  21:  1.1339,  22: 0.71579,  23:-0.88075
    47 |      |   1:-0.38678,   8:-0.70268,   9: 0.32522,  10:  0.6464,  11:  1.1827,  12: 0.47908,  13:-0.22319,  14: 0.31784, 
                 15:  1.3426,  21:0.073073,  22:-0.095766,  23:-0.42253
    48 |      |   1: 0.45444,   8:-0.50445,   9: 0.85004,  10:-0.54784,  11: 0.68024,  12:0.077094,  13: 0.86319,  14:-0.63865, 
                 15: 0.32786,  21: 0.56588,  22: 0.98859,  23: 0.58349
    49 |      |   1:-0.68695,   8:  1.0244,   9: 0.59862,  10:-0.64293,  11:  0.5011,  12: 0.90924,  13:-0.47691,  14:-0.11441, 
                 15: 0.67122,  21:-0.57048,  22:-0.60185,  23:-0.40405
    50 |      |   1: 0.90909,  16: -1.0944,  17: -0.5055,  18:-0.57781
    51 |      |   1:-0.75834,  16:-0.61046,  17:  -0.306,  18:-0.066648
    52 |      |   1: 0.76616,  16:-0.27561,  17: 0.10626,  18:0.027723
    53 |      |   1: -0.4483,  16: -0.3756,  17: 0.97736,  18:0.041202
    54 |      |   1: 0.35836,  16: 0.10493,  17: 0.76218,  18: 0.47574
    55 |      |   1: 0.13942,  16: 0.41873,  17:-0.93119,  18:  0.1431
    56 |      |   1: 0.41054,  19:0.027551,  20: 0.99031
    57 |      |   1:  0.6162,  19:-0.41527,  20:  -0.317
    58 |      |   1: 0.51577,  19:-0.44793,  20:-0.55857
    59 |      |   1: 0.89906,  19: -0.3067,  20:-0.48988
    60 |      |  24: 0.46475,  25: 0.26979,  26:-0.97778,  27:-0.99036,  28:  0.4863,  29: 0.47647,  30:  0.5611,  31: 0.79171, 
                 32:0.079292,  33:  0.1143,  34:-0.40522,  35:-0.87921,  36:  0.2163,  37: 0.86996,  38:  1.0911,  39:-0.11993, 
                 40: 0.15713,  41: 0.85701,  42:-0.07447,  43:-0.43141,  44:-0.58723,  45: 0.37387,  46:-0.46179,  47:  0.8735, 
                 48:-0.34573,  49:-0.081836,  50:-0.021786,  51:-0.60797,  52: 0.73683,  53: 0.28027,  54:-0.30591,  55: 0.21344, 
                 56:-0.31708,  57:-0.41316,  58: 0.33987,  59:  0.9352
    61 |      |  24:-0.37848,  25: 0.55536,  26: 0.37961,  27:-0.60604,  28:  1.2284,  29: 0.56163,  30: 0.89043,  31:-0.015399, 
                 32:-0.25216,  33:-0.32931,  34:0.038205,  35:-0.45739,  36: 0.76517,  37:  0.3183,  38:-0.17231,  39:-0.10685, 
                 40:  -1.275,  41:-0.67504,  42: 0.51439,  43:-0.21433,  44: 0.58106,  45:  1.3255,  46:-0.44847,  47:-0.049429, 
                 48:-0.23157,  49: 0.39472,  50: 0.65558,  51: 0.25065,  52: 0.32239,  53: 0.49667,  54: 0.10007,  55:-0.64343, 
                 56:0.027057,  57:-0.74814,  58:-0.45413,  59:-0.20982
    62 |      |  24:-0.84256,  25:-0.58018,  26:-0.38862,  27: 0.17482,  28: 0.37734,  29: 0.26638,  30:-0.65683,  31:-0.85405, 
                 32: -1.1282,  33: 0.49674,  34:-0.41467,  35:-0.11653,  36:-0.14836,  37: 0.57882,  38:-0.48811,  39:-0.40001, 
                 40:-0.78499,  41: 0.62075,  42: 0.39683,  43:-0.83018,  44: 0.36885,  45:-0.53739,  46: 0.57749,  47:-0.26867, 
                 48: 0.68802,  49: 0.74166,  50: 0.85673,  51:-0.73645,  52:-0.72989,  53:-0.22633,  54:  0.4637,  55: -0.4677, 
                 56:0.031131,  57:-0.73826,  58: 0.60346,  59:-0.32711
    63 |      |  24:  1.0066,  25: 0.31716,  26: 0.59151,  27:-0.0051606,  28: -1.0648,  29: -0.4176,  30: 0.93375,  31:  0.9097, 
                 32: 0.55479,  33:-0.34104,  34: 0.88203,  35: 0.26896,  36:-0.92339,  37: -0.9908,  38:-0.21797,  39:-0.28072, 
                 40: 0.43279,  41: 0.59706,  42:-0.53097,  43:-0.046195,  44: 0.36466,  45:-0.24488,  46: 0.28337,  47:-0.76786, 
                 48:-0.52113,  49: -1.0319,  50: 0.49568,  51:-0.34375,  52: 0.50098,  53:-0.80283,  54:-0.70686,  55: 0.38174, 
                 56: 0.68884,  57: 0.80682,  58:-0.54935,  59:  0.4248
    64 |      |  24: -0.5396,  25: 0.28999,  26:  1.2238,  27: 0.67366,  28:  0.3521,  29: 0.48047,  30: 0.79513,  31:-0.33217, 
                 32: 0.64627,  33:-0.48643,  34:-0.34964,  35: 0.32776,  36: 0.12495,  37: 0.51128,  38:-0.40377,  39: 0.57143, 
                 40:-0.17573,  41:-0.36453,  42:  1.1365,  43:-0.024059,  44:-0.67008,  45:-0.066157,  46:-0.38715,  47: -0.4656, 
                 48:-0.032661,  49: 0.73891,  50:-0.79111,  51:-0.17451,  52:  -0.458,  53: 0.66418,  54: 0.22155,  55: 0.15881, 
                 56:-0.31199,  57: 0.17016,  58:-0.40512,  59: 0.82534
    65 |      |  24: 0.95746,  25:-0.14498,  26: 0.89599,  27: -1.1049,  28: 0.17819,  29: 0.15467,  30:-0.051214,  31:-0.084938, 
                 32:  1.0456,  33:-0.70631,  34: 0.69144,  35:-0.18417,  36: -0.6909,  37:-0.50701,  38: 0.40952,  39:0.084764, 
                 40: 0.12975,  41:  0.9212,  42: 0.81316,  43:-0.21791,  44: 0.80372,  45:-0.49323,  46:  0.1579,  47: 0.51808, 
                 48: 0.80802,  49:-0.64612,  50:-0.94151,  51:-0.099046,  52: -0.2844,  53: 0.87045,  54: 0.29147,  55:-0.35213, 
                 56:-0.16109,  57:  0.1932,  58:-0.16514,  59: -1.0796
    66 |      |  24:-0.48616,  25:-0.49175,  26:  -1.007,  27:-0.57586,  28:-0.99998,  29:-0.17707,  30:-0.14808,  31: 0.82186, 
                 32:-0.12409,  33:-0.91877,  34: -1.0907,  35:-0.52572,  36: -1.2273,  37: 0.23865,  38:-0.49793,  39:-0.19695, 
                 40:-0.43802,  41:  1.1593,  42: -0.3429,  43:-0.15317,  44:  1.2107,  45: 0.47633,  46: 0.56759,  47: 0.98887, 
                 48:-0.028724,  49:-0.40686,  50:-0.47891,  51:-0.81253,  52: 0.26653,  53:-0.44669,  54: -0.1221,  55: 0.32007, 
                 56:  0.5683,  57:  0.2598,  58: 0.74137,  59: 0.80082
    67 |      |  24:-0.010821,  25:0.095865,  26: 0.45482,  27: 0.50005,  28: 0.29477,  29: 0.83821,  30: 0.63872,  31:-0.94155, 
                 32:-0.97981,  33:-0.44533,  34:-0.22915,  35: 0.88584,  36:0.055156,  37: 0.62419,  38: 0.82192,  39: -0.1961, 
                 40:  0.1759,  41: 0.79337,  42:  1.0851,  43: 0.52939,  44:-0.48754,  45: -0.7999,  46:-0.034544,  47:-0.099043, 
                 48:0.066159,  49:-0.71935,  50: -0.5839,  51:-0.63554,  52:-0.92759,  53:-0.77924,  54:-0.050867,  55: 0.17727, 
                 56: 0.17772,  57:-0.66257,  58:-0.59455,  59: -0.5727
    68 |      |  24: 0.82263,  25:-0.36169,  26: -0.9433,  27: -1.2213,  28: 0.13471,  29: 0.94417,  30: 0.15154,  31:-0.14456, 
                 32:  1.0032,  33: -1.1988,  34: 0.71591,  35: 0.57875,  36: 0.94188,  37:-0.040059,  38:  1.0463,  39:-0.71455, 
                 40: 0.82975,  41:-0.042022,  42:0.019159,  43: 0.74468,  44:0.089781,  45:   0.439,  46: 0.69459,  47:  0.5008, 
                 48:-0.53929,  49:-0.11802,  50:-0.42124,  51:-0.34427,  52: 0.21111,  53:-0.023216,  54:-0.09984,  55:-0.056732, 
                 56: 0.73321,  57: -0.1427,  58:-0.066654,  59:-0.29542
    69 |      |  24:-0.92354,  25: 0.36095,  26:-0.22501,  27:-0.67198,  28: 0.11998,  29:-0.65846,  30:-0.80385,  31: -1.1437, 
                 32:  -1.028,  33:-0.59828,  34: 0.81445,  35:-0.13933,  36: 0.59148,  37: 0.62293,  38: 0.89725,  39:-0.11961, 
                 40: 0.50606,  41: 0.22395,  42: 0.31792,  43:-0.55029,  44: 0.84633,  45:  1.0569,  46: 0.74055,  47:-0.14893, 
                 48: -0.2817,  49:-0.39009,  50:-0.52619,  51: 0.65172,  52: 0.69685,  53: 0.25993,  54:-0.55235,  55: 0.85082, 
                 56:-0.52622,  57: 0.15756,  58:-0.79764,  59: 0.62144
    70 |      |  60: -1.1915,  61:   1.792,  62:  1.4749,  63:-0.90577,  64:  1.0933,  65: -1.2266,  66: -1.7307,  67: 0.69324, 
                 68: -1.2548,  69: 0.61177
-------|------|----------------------------------------------------------------------------------------------------------------
